FANN_FLO_2.1
num_layers=3
learning_rate=0.699678
connection_rate=1.000000
network_type=0
learning_momentum=0.000000
training_algorithm=0
train_error_function=1
train_stop_function=0
cascade_output_change_fraction=0.010000
quickprop_decay=-0.000100
quickprop_mu=1.750000
rprop_increase_factor=1.200000
rprop_decrease_factor=0.500000
rprop_delta_min=0.000000
rprop_delta_max=50.000000
rprop_delta_zero=0.100000
cascade_output_stagnation_epochs=12
cascade_candidate_change_fraction=0.010000
cascade_candidate_stagnation_epochs=12
cascade_max_out_epochs=150
cascade_min_out_epochs=50
cascade_max_cand_epochs=150
cascade_min_cand_epochs=50
cascade_num_candidate_groups=2
bit_fail_limit=3.49999994039535522461e-01
cascade_candidate_limit=1.00000000000000000000e+03
cascade_weight_multiplier=4.00000005960464477539e-01
cascade_activation_functions_count=10
cascade_activation_functions=3 5 7 8 10 11 14 15 16 17 
cascade_activation_steepnesses_count=15
cascade_activation_steepnesses=9.00000000000000000000e+00 3.21000000000000000000e+02 3.22000000000000000000e+02 3.23000000000000000000e+02 3.24000000000000000000e+02 7.68000000000000000000e+02 7.69000000000000000000e+02 7.70000000000000000000e+02 7.71000000000000000000e+02 1.15400000000000000000e+03 0.00000000000000000000e+00 0.00000000000000000000e+00 0.00000000000000000000e+00 0.00000000000000000000e+00 0.00000000000000000000e+00 
layer_sizes=10 10 10 
scale_included=0
neurons (num_inputs, activation_function, activation_steepness)=(0, 0, 0.00000000000000000000e+00) (0, 0, 0.00000000000000000000e+00) (0, 0, 0.00000000000000000000e+00) (0, 0, 0.00000000000000000000e+00) (0, 0, 0.00000000000000000000e+00) (0, 0, 0.00000000000000000000e+00) (0, 0, 0.00000000000000000000e+00) (0, 0, 0.00000000000000000000e+00) (0, 0, 0.00000000000000000000e+00) (0, 0, 0.00000000000000000000e+00) (10, 5, 5.00000000000000000000e-01) (10, 5, 5.00000000000000000000e-01) (10, 5, 5.00000000000000000000e-01) (10, 5, 5.00000000000000000000e-01) (10, 5, 5.00000000000000000000e-01) (10, 5, 5.00000000000000000000e-01) (10, 5, 5.00000000000000000000e-01) (10, 5, 5.00000000000000000000e-01) (10, 5, 5.00000000000000000000e-01) (0, 5, 0.00000000000000000000e+00) (10, 3, 5.00000000000000000000e-01) (10, 3, 5.00000000000000000000e-01) (10, 3, 5.00000000000000000000e-01) (10, 3, 5.00000000000000000000e-01) (10, 3, 5.00000000000000000000e-01) (10, 3, 5.00000000000000000000e-01) (10, 3, 5.00000000000000000000e-01) (10, 3, 5.00000000000000000000e-01) (10, 3, 5.00000000000000000000e-01) (0, 3, 0.00000000000000000000e+00) 
connections (connected_to_neuron, weight)=(0, 9.68011140823364257812e-01) (1, 2.91890889406204223633e-01) (2, 1.01182088255882263184e-01) (3, -8.31754356622695922852e-02) (4, 4.04782772064208984375e-01) (5, -2.94375658035278320312e-01) (6, 4.26552951335906982422e-01) (7, -6.03736415505409240723e-02) (8, -4.32804338634014129639e-02) (9, -1.77823320031166076660e-01) (0, 3.24616909027099609375e-01) (1, 2.91375339031219482422e-01) (2, 2.96884298324584960938e-01) (3, -3.03317550569772720337e-02) (4, 4.71209406852722167969e-01) (5, -1.75877571105957031250e-01) (6, 3.27499687671661376953e-01) (7, -1.45010482519865036011e-02) (8, -1.00303202867507934570e-01) (9, -1.25243425369262695312e-01) (0, 2.62808561325073242188e-01) (1, 3.37894223630428314209e-02) (2, 1.10025018453598022461e-01) (3, 4.50312495231628417969e-02) (4, 3.63231450319290161133e-03) (5, 7.30091184377670288086e-02) (6, 2.34450027346611022949e-02) (7, -4.81801517307758331299e-02) (8, 2.39965338259935379028e-02) (9, -1.30250975489616394043e-02) (0, -1.31470486521720886230e-02) (1, -1.85615435242652893066e-01) (2, 4.56459634006023406982e-02) (3, 4.44634333252906799316e-02) (4, -1.39335200190544128418e-01) (5, 8.75922664999961853027e-02) (6, -1.00205942988395690918e-01) (7, 1.56398057937622070312e-01) (8, 3.18523347377777099609e-01) (9, -9.53573733568191528320e-04) (0, -2.85247266292572021484e-01) (1, 1.27734273672103881836e-01) (2, 1.91492065787315368652e-01) (3, 1.92122813314199447632e-02) (4, 1.55977264046669006348e-01) (5, 1.15705654025077819824e-01) (6, -1.17953337728977203369e-01) (7, 8.03285837173461914062e-02) (8, -1.93522609770298004150e-02) (9, -8.68984498083591461182e-03) (0, 3.04518826305866241455e-02) (1, 4.09065127372741699219e-01) (2, 3.89091342687606811523e-01) (3, -4.97663691639900207520e-02) (4, 5.21659851074218750000e-01) (5, -3.33102315664291381836e-01) (6, 2.83678531646728515625e-01) (7, 3.32040905952453613281e-01) (8, -1.69281780719757080078e-01) (9, -1.95621937513351440430e-01) (0, -3.11653256416320800781e-01) (1, -1.68486565351486206055e-01) (2, -3.49562019109725952148e-01) (3, -7.31781423091888427734e-02) (4, -3.43793183565139770508e-01) (5, 1.58008337020874023438e-01) (6, -2.35008239746093750000e-01) (7, -1.45264267921447753906e-01) (8, -1.13434553146362304688e-01) (9, 7.59486630558967590332e-02) (0, -3.49502563476562500000e-01) (1, -3.59534502029418945312e-01) (2, -1.19586899876594543457e-01) (3, 2.72145625203847885132e-02) (4, -5.10773420333862304688e-01) (5, 3.59544485807418823242e-01) (6, -2.87661194801330566406e-01) (7, -1.89041376113891601562e-01) (8, 1.22301906347274780273e-01) (9, 8.50863084197044372559e-02) (0, 4.56576466560363769531e-01) (1, 3.65192115306854248047e-01) (2, 3.78922581672668457031e-01) (3, 3.57198826968669891357e-02) (4, 5.97360074520111083984e-01) (5, -4.29026693105697631836e-01) (6, 6.07518136501312255859e-01) (7, 1.90561395138502120972e-02) (8, -2.58730232715606689453e-01) (9, -2.36169621348381042480e-01) (10, -1.61738246679306030273e-02) (11, 8.52536261081695556641e-02) (12, 1.69331789016723632812e-01) (13, 6.15471079945564270020e-02) (14, 1.54625773429870605469e-01) (15, -2.10970982909202575684e-01) (16, -1.71795278787612915039e-01) (17, 3.93701493740081787109e-02) (18, -1.90447613596916198730e-01) (19, 1.64158427715301513672e+00) (10, 5.46756327152252197266e-01) (11, 8.61156508326530456543e-02) (12, 9.69089567661285400391e-02) (13, 4.03214879333972930908e-02) (14, -1.11233845353126525879e-01) (15, -1.41824081540107727051e-01) (16, -1.41145110130310058594e-01) (17, -1.35527059435844421387e-01) (18, 1.22763231396675109863e-01) (19, -4.12332415580749511719e-02) (10, 4.90549921989440917969e-01) (11, 3.35887402296066284180e-01) (12, 9.54287573695182800293e-02) (13, -2.23871514201164245605e-01) (14, 2.79717333614826202393e-03) (15, 3.35125297307968139648e-01) (16, -1.14059999585151672363e-01) (17, -3.52572143077850341797e-01) (18, 4.98526036739349365234e-01) (19, -8.64065885543823242188e-01) (10, 3.58017295598983764648e-01) (11, 3.96199792623519897461e-01) (12, -7.69753009080886840820e-03) (13, -1.74623668193817138672e-01) (14, 6.50925934314727783203e-02) (15, 4.87495154142379760742e-01) (16, -2.57407575845718383789e-01) (17, -3.32329928874969482422e-01) (18, 6.85437083244323730469e-01) (19, -1.33147108554840087891e+00) (10, 2.19057172536849975586e-01) (11, 2.50007957220077514648e-01) (12, 1.42786756157875061035e-01) (13, -4.94700223207473754883e-02) (14, 4.03458289802074432373e-02) (15, 2.15481042861938476562e-01) (16, -2.19218283891677856445e-01) (17, -1.42960548400878906250e-01) (18, 4.03409808874130249023e-01) (19, -8.05736362934112548828e-01) (10, 4.77537095546722412109e-01) (11, 2.17234298586845397949e-01) (12, 1.49731755256652832031e-01) (13, 7.27282762527465820312e-02) (14, -2.11076825857162475586e-01) (15, -1.01618394255638122559e-02) (16, -2.31969594955444335938e-01) (17, -1.40587180852890014648e-01) (18, 2.64402925968170166016e-01) (19, -4.32790011167526245117e-01) (10, 3.23238909244537353516e-01) (11, 4.57114040851593017578e-01) (12, -2.41056606173515319824e-02) (13, 3.65791358053684234619e-02) (14, 2.62638956308364868164e-01) (15, 6.68040990829467773438e-01) (16, -4.81523811817169189453e-01) (17, -5.01057565212249755859e-01) (18, 5.85732042789459228516e-01) (19, -7.64430046081542968750e-01) (10, -1.33667886257171630859e-02) (11, -5.91285489499568939209e-02) (12, 7.08416476845741271973e-02) (13, 2.48596221208572387695e-01) (14, 1.03661984205245971680e-01) (15, 3.09826880693435668945e-02) (16, -1.18407145142555236816e-01) (17, 5.59115856885910034180e-02) (18, -1.50850117206573486328e-01) (19, -8.93454015254974365234e-01) (10, 4.43310469388961791992e-01) (11, 2.26299986243247985840e-01) (12, -4.96126525104045867920e-03) (13, -1.00106813013553619385e-01) (14, -9.32445526123046875000e-02) (15, 3.70748281478881835938e-01) (16, -2.17567041516304016113e-01) (17, -4.88057613372802734375e-01) (18, 4.82682406902313232422e-01) (19, 2.05170109868049621582e-01) 
