FANN_FLO_2.1
num_layers=3
learning_rate=0.699804
connection_rate=1.000000
network_type=0
learning_momentum=0.000000
training_algorithm=0
train_error_function=1
train_stop_function=0
cascade_output_change_fraction=0.010000
quickprop_decay=-0.000100
quickprop_mu=1.750000
rprop_increase_factor=1.200000
rprop_decrease_factor=0.500000
rprop_delta_min=0.000000
rprop_delta_max=50.000000
rprop_delta_zero=0.100000
cascade_output_stagnation_epochs=12
cascade_candidate_change_fraction=0.010000
cascade_candidate_stagnation_epochs=12
cascade_max_out_epochs=150
cascade_min_out_epochs=50
cascade_max_cand_epochs=150
cascade_min_cand_epochs=50
cascade_num_candidate_groups=2
bit_fail_limit=3.49999994039535522461e-01
cascade_candidate_limit=1.00000000000000000000e+03
cascade_weight_multiplier=4.00000005960464477539e-01
cascade_activation_functions_count=10
cascade_activation_functions=3 5 7 8 10 11 14 15 16 17 
cascade_activation_steepnesses_count=19
cascade_activation_steepnesses=1.30000000000000000000e+01 3.21000000000000000000e+02 3.22000000000000000000e+02 3.23000000000000000000e+02 3.24000000000000000000e+02 6.40000000000000000000e+02 6.41000000000000000000e+02 6.42000000000000000000e+02 6.43000000000000000000e+02 7.68000000000000000000e+02 7.69000000000000000000e+02 7.70000000000000000000e+02 7.71000000000000000000e+02 1.15400000000000000000e+03 0.00000000000000000000e+00 0.00000000000000000000e+00 0.00000000000000000000e+00 0.00000000000000000000e+00 0.00000000000000000000e+00 
layer_sizes=14 14 14 
scale_included=0
neurons (num_inputs, activation_function, activation_steepness)=(0, 0, 0.00000000000000000000e+00) (0, 0, 0.00000000000000000000e+00) (0, 0, 0.00000000000000000000e+00) (0, 0, 0.00000000000000000000e+00) (0, 0, 0.00000000000000000000e+00) (0, 0, 0.00000000000000000000e+00) (0, 0, 0.00000000000000000000e+00) (0, 0, 0.00000000000000000000e+00) (0, 0, 0.00000000000000000000e+00) (0, 0, 0.00000000000000000000e+00) (0, 0, 0.00000000000000000000e+00) (0, 0, 0.00000000000000000000e+00) (0, 0, 0.00000000000000000000e+00) (0, 0, 0.00000000000000000000e+00) (14, 5, 5.00000000000000000000e-01) (14, 5, 5.00000000000000000000e-01) (14, 5, 5.00000000000000000000e-01) (14, 5, 5.00000000000000000000e-01) (14, 5, 5.00000000000000000000e-01) (14, 5, 5.00000000000000000000e-01) (14, 5, 5.00000000000000000000e-01) (14, 5, 5.00000000000000000000e-01) (14, 5, 5.00000000000000000000e-01) (14, 5, 5.00000000000000000000e-01) (14, 5, 5.00000000000000000000e-01) (14, 5, 5.00000000000000000000e-01) (14, 5, 5.00000000000000000000e-01) (0, 5, 0.00000000000000000000e+00) (14, 3, 5.00000000000000000000e-01) (14, 3, 5.00000000000000000000e-01) (14, 3, 5.00000000000000000000e-01) (14, 3, 5.00000000000000000000e-01) (14, 3, 5.00000000000000000000e-01) (14, 3, 5.00000000000000000000e-01) (14, 3, 5.00000000000000000000e-01) (14, 3, 5.00000000000000000000e-01) (14, 3, 5.00000000000000000000e-01) (14, 3, 5.00000000000000000000e-01) (14, 3, 5.00000000000000000000e-01) (14, 3, 5.00000000000000000000e-01) (14, 3, 5.00000000000000000000e-01) (0, 3, 0.00000000000000000000e+00) 
connections (connected_to_neuron, weight)=(0, 3.35670381784439086914e-01) (1, -1.99676230549812316895e-02) (2, -1.96647256612777709961e-01) (3, 2.15745456516742706299e-02) (4, -9.18127819895744323730e-02) (5, 1.67583256959915161133e-01) (6, -2.06579625606536865234e-01) (7, 7.75352865457534790039e-02) (8, -2.30707198381423950195e-01) (9, 7.01864361763000488281e-02) (10, -9.00134146213531494141e-02) (11, -2.90971845388412475586e-02) (12, -1.04219734668731689453e-01) (13, 1.27585418522357940674e-02) (0, -2.74741560220718383789e-01) (1, -2.32290904968976974487e-02) (2, 2.09182165563106536865e-02) (3, 9.40126553177833557129e-02) (4, -4.26261425018310546875e-02) (5, -1.29159659147262573242e-01) (6, 1.45828843116760253906e-01) (7, -1.25515162944793701172e-01) (8, 5.24985045194625854492e-03) (9, 3.08924429118633270264e-02) (10, 9.45244804024696350098e-02) (11, -3.35132181644439697266e-02) (12, 9.69773083925247192383e-02) (13, 2.05805003643035888672e-02) (0, -1.95537060499191284180e-01) (1, -4.38843369483947753906e-02) (2, -9.23993289470672607422e-02) (3, -6.08257800340652465820e-02) (4, -7.95512199401855468750e-02) (5, -9.49324853718280792236e-03) (6, 1.40802308917045593262e-01) (7, -1.87470331788063049316e-01) (8, -9.16914641857147216797e-02) (9, -1.03031471371650695801e-01) (10, 1.60945385694503784180e-01) (11, -1.38504981994628906250e-01) (12, -8.26265215873718261719e-02) (13, 1.02536506950855255127e-01) (0, 1.13013550639152526855e-01) (1, 1.52513787150382995605e-01) (2, 1.51570215821266174316e-01) (3, 4.53726537525653839111e-02) (4, 3.45082059502601623535e-02) (5, 1.23918056488037109375e-01) (6, 4.44427877664566040039e-02) (7, 4.65921387076377868652e-02) (8, 1.24860964715480804443e-01) (9, 6.49229437112808227539e-02) (10, 3.96014228463172912598e-02) (11, -1.51791227981448173523e-02) (12, 2.59179566055536270142e-02) (13, -1.27755865454673767090e-01) (0, -9.98783577233552932739e-03) (1, -3.63699086010456085205e-02) (2, 8.35152119398117065430e-02) (3, -7.76120424270629882812e-02) (4, 1.07597783207893371582e-02) (5, 3.79076153039932250977e-02) (6, 5.19142812117934226990e-03) (7, -2.67173303291201591492e-03) (8, 4.27064485847949981689e-02) (9, -1.26038387417793273926e-01) (10, 4.10996265709400177002e-02) (11, 1.71346887946128845215e-02) (12, -1.47777656093239784241e-02) (13, 1.67180374264717102051e-02) (0, 2.36732304096221923828e-01) (1, 3.98591496050357818604e-02) (2, -9.47543382644653320312e-02) (3, -1.05331419035792350769e-02) (4, -1.34216576814651489258e-01) (5, 1.53805643320083618164e-01) (6, -1.52874156832695007324e-01) (7, 6.15635216236114501953e-02) (8, -6.92267268896102905273e-02) (9, 1.78790912032127380371e-01) (10, -1.01064153015613555908e-01) (11, 1.69061198830604553223e-02) (12, -1.03236570954322814941e-01) (13, -5.41802644729614257812e-02) (0, 9.44696664810180664062e-02) (1, 5.53198978304862976074e-02) (2, -4.90960478782653808594e-02) (3, 4.49954979121685028076e-02) (4, -1.16065472364425659180e-01) (5, -5.45337349176406860352e-02) (6, -2.41827219724655151367e-03) (7, 1.86767149716615676880e-02) (8, -1.50349706411361694336e-01) (9, -4.50993999838829040527e-02) (10, -1.69670581817626953125e-01) (11, 1.63391511887311935425e-02) (12, -1.04861363768577575684e-01) (13, 3.20007279515266418457e-02) (0, -4.69413697719573974609e-01) (1, -1.10182642936706542969e-01) (2, 7.11229145526885986328e-01) (3, 8.38421210646629333496e-02) (4, 3.15834850072860717773e-01) (5, -1.77009880542755126953e-01) (6, 2.31373131275177001953e-01) (7, -8.88540595769882202148e-02) (8, 3.16016763448715209961e-01) (9, -7.69885778427124023438e-02) (10, 3.30065935850143432617e-01) (11, -2.36822962760925292969e-02) (12, 2.41023316979408264160e-01) (13, -3.14001329243183135986e-02) (0, 1.43332816660404205322e-02) (1, -1.20285198092460632324e-01) (2, -1.23967602849006652832e-03) (3, 7.27370306849479675293e-02) (4, 1.59947097301483154297e-01) (5, -8.09567123651504516602e-02) (6, 3.04185189306735992432e-02) (7, 1.87313586473464965820e-01) (8, 1.83921277523040771484e-01) (9, -1.50863647460937500000e-01) (10, 8.29142704606056213379e-03) (11, 1.77003532648086547852e-01) (12, 1.23448684811592102051e-01) (13, -2.69234217703342437744e-02) (0, 2.85905182361602783203e-01) (1, 2.64816999435424804688e-01) (2, -1.07507377862930297852e-01) (3, 5.57792198378592729568e-04) (4, -2.29240655899047851562e-01) (5, 2.69115418195724487305e-01) (6, -1.44825264811515808105e-01) (7, -1.42830640077590942383e-01) (8, -1.07789382338523864746e-01) (9, 2.57522523403167724609e-01) (10, -2.05502569675445556641e-01) (11, -2.11974419653415679932e-02) (12, -2.19360962510108947754e-01) (13, -1.08399987220764160156e-03) (0, -7.25954771041870117188e-02) (1, 6.42190203070640563965e-02) (2, -5.46049952507019042969e-01) (3, -9.69562605023384094238e-02) (4, -2.42753893136978149414e-01) (5, 7.12654069066047668457e-02) (6, -7.03714489936828613281e-02) (7, -1.46041631698608398438e-01) (8, -2.68469840288162231445e-01) (9, 3.05582489818334579468e-02) (10, -1.90020352602005004883e-01) (11, -1.47783398628234863281e-01) (12, -1.79083943367004394531e-01) (13, 9.50019434094429016113e-02) (0, -1.96350902318954467773e-01) (1, -7.57589936256408691406e-02) (2, -8.36685597896575927734e-02) (3, 2.70378477871417999268e-02) (4, -2.92141847312450408936e-02) (5, -1.17003217339515686035e-01) (6, -6.52119666337966918945e-02) (7, 1.95711124688386917114e-02) (8, -7.71095156669616699219e-02) (9, -4.58195954561233520508e-02) (10, 3.43416817486286163330e-02) (11, 9.31270793080329895020e-02) (12, -1.75188016146421432495e-02) (13, 9.77309644222259521484e-02) (0, -1.11746713519096374512e-01) (1, -7.30443447828292846680e-02) (2, 2.91805326938629150391e-01) (3, 3.28660383820533752441e-02) (4, 8.02932083606719970703e-02) (5, -1.21782600879669189453e-01) (6, 8.91904234886169433594e-02) (7, 1.41971886157989501953e-01) (8, 1.31693050265312194824e-01) (9, -1.10640525817871093750e-02) (10, 1.75519268959760665894e-02) (11, -3.23442146182060241699e-02) (12, 1.70445628464221954346e-03) (13, 2.78212949633598327637e-02) (14, 8.48750919103622436523e-02) (15, 1.72964688390493392944e-02) (16, -1.04137018322944641113e-01) (17, 9.46834534406661987305e-02) (18, -4.91220206022262573242e-02) (19, 4.21241819858551025391e-02) (20, -8.45150575041770935059e-02) (21, -1.09932877123355865479e-01) (22, 7.00685530900955200195e-02) (23, 2.08477288484573364258e-01) (24, 3.66638749837875366211e-02) (25, 2.60530207306146621704e-02) (26, 5.84001354873180389404e-02) (27, 1.49853992462158203125e+00) (14, 2.10004106163978576660e-01) (15, -1.83867573738098144531e-01) (16, -1.43377870321273803711e-01) (17, 6.06413185596466064453e-02) (18, -5.94366639852523803711e-02) (19, 1.45727753639221191406e-01) (20, -4.12301942706108093262e-02) (21, -1.97528302669525146484e-01) (22, 6.56456872820854187012e-02) (23, 1.76493912935256958008e-01) (24, -1.18592560291290283203e-01) (25, -1.74932926893234252930e-01) (26, -4.83825691044330596924e-02) (27, -5.02295941114425659180e-02) (14, -4.48587462306022644043e-02) (15, -5.72656206786632537842e-02) (16, -5.96492365002632141113e-02) (17, 1.02970749139785766602e-01) (18, -3.95301766693592071533e-02) (19, 1.35762020945549011230e-01) (20, 3.02855167537927627563e-02) (21, -1.31430283188819885254e-01) (22, -8.01750272512435913086e-02) (23, 1.69982880353927612305e-01) (24, -8.01985338330268859863e-03) (25, -1.27135843038558959961e-01) (26, -1.27412721514701843262e-01) (27, -8.00852894783020019531e-01) (14, -1.97645425796508789062e-02) (15, 1.13163247704505920410e-01) (16, -5.23109249770641326904e-02) (17, 1.19331538677215576172e-01) (18, 1.71438860706984996796e-03) (19, -5.24280667304992675781e-02) (20, -4.43341843783855438232e-02) (21, 1.19880005717277526855e-01) (22, 5.03140501677989959717e-04) (23, -8.90794545412063598633e-02) (24, -1.12651497125625610352e-01) (25, 3.47235240042209625244e-03) (26, 1.56856700778007507324e-01) (27, -1.24560832977294921875e+00) (14, -9.28566530346870422363e-02) (15, -9.79779474437236785889e-03) (16, 4.15358468890190124512e-02) (17, 4.00194600224494934082e-02) (18, 2.89841163903474807739e-02) (19, -1.07680469751358032227e-01) (20, -7.23917782306671142578e-02) (21, 3.85692566633224487305e-01) (22, -6.46372660994529724121e-02) (23, 1.00328102707862854004e-01) (24, -2.06859692931175231934e-01) (25, -1.27233803272247314453e-01) (26, 8.25490355491638183594e-02) (27, -2.13757216930389404297e-01) (14, -1.42535120248794555664e-01) (15, 9.09110084176063537598e-02) (16, 6.76644742488861083984e-02) (17, -4.62939441204071044922e-02) (18, 1.07849063351750373840e-03) (19, -9.08585190773010253906e-02) (20, -1.03822596371173858643e-01) (21, 3.09863865375518798828e-01) (22, 4.23122979700565338135e-02) (23, -2.22278580069541931152e-01) (24, -1.14484205842018127441e-01) (25, -2.14168131351470947266e-02) (26, 6.38005360960960388184e-02) (27, -5.06014406681060791016e-01) (14, -2.48121693730354309082e-01) (15, 2.07568593323230743408e-02) (16, -2.16564983129501342773e-01) (17, 1.41507282853126525879e-01) (18, 9.78633537888526916504e-02) (19, -2.07111775875091552734e-01) (20, 1.17007619701325893402e-03) (21, 4.88747835159301757812e-01) (22, 2.83566027879714965820e-01) (23, -3.94628316164016723633e-01) (24, -4.19360965490341186523e-01) (25, -1.31043391302227973938e-02) (26, 1.52181491255760192871e-01) (27, -7.55819618701934814453e-01) (14, 1.05019606649875640869e-01) (15, -4.18254099786281585693e-02) (16, -1.30983337759971618652e-01) (17, 3.60594466328620910645e-02) (18, 8.01536068320274353027e-03) (19, 1.76237955689430236816e-01) (20, 3.25601734220981597900e-02) (21, 1.12414188683032989502e-01) (22, 1.00565537810325622559e-01) (23, 2.81436666846275329590e-02) (24, -1.62570253014564514160e-01) (25, -5.37325963377952575684e-02) (26, 5.47090023756027221680e-02) (27, -2.90250450372695922852e-01) (14, -9.19623970985412597656e-02) (15, -2.78082769364118576050e-02) (16, -1.41444057226181030273e-02) (17, 2.14707925915718078613e-01) (18, 6.37658536434173583984e-02) (19, 1.97180919349193572998e-03) (20, -4.18829731643199920654e-02) (21, 3.44255894422531127930e-01) (22, -5.99727779626846313477e-02) (23, 6.12686499953269958496e-02) (24, -2.69637763500213623047e-01) (25, -7.81958401203155517578e-02) (26, 2.88449190557003021240e-02) (27, -2.22391083836555480957e-01) (14, -1.93533793091773986816e-01) (15, 1.14743925631046295166e-01) (16, 6.23244605958461761475e-02) (17, -9.73181053996086120605e-02) (18, 2.68399249762296676636e-03) (19, -5.11003136634826660156e-02) (20, -1.87447573989629745483e-02) (21, 3.10156196355819702148e-01) (22, 7.53947645425796508789e-02) (23, -1.66909784078598022461e-01) (24, -2.89971213787794113159e-02) (25, 7.08437860012054443359e-02) (26, 9.99706462025642395020e-02) (27, -5.11575341224670410156e-01) (14, -1.95074781775474548340e-01) (15, -2.81424447894096374512e-02) (16, -7.21599832177162170410e-02) (17, -5.40985632687807083130e-03) (18, 3.15078608691692352295e-02) (19, -1.20907954871654510498e-01) (20, -1.75323978066444396973e-01) (21, 4.58584308624267578125e-01) (22, 2.86976099014282226562e-01) (23, -3.29600661993026733398e-01) (24, -4.86033469438552856445e-01) (25, -7.19094183295965194702e-03) (26, 1.66509404778480529785e-01) (27, -7.77899146080017089844e-01) (14, -3.07399425655603408813e-02) (15, -8.61876830458641052246e-02) (16, -1.26534998416900634766e-01) (17, 3.62868160009384155273e-02) (18, -5.67552447319030761719e-03) (19, -1.53561225160956382751e-02) (20, -2.28023268282413482666e-02) (21, 8.93182754516601562500e-02) (22, -5.07577769458293914795e-02) (23, 7.70408064126968383789e-02) (24, -1.61055177450180053711e-01) (25, 2.33912914991378784180e-02) (26, 1.29896715283393859863e-01) (27, -2.94407904148101806641e-01) (14, -7.30443224310874938965e-02) (15, 1.15867108106613159180e-01) (16, -1.44326565787196159363e-02) (17, 1.30299970507621765137e-01) (18, -8.28707888722419738770e-02) (19, -1.41020372509956359863e-01) (20, -1.53255000710487365723e-01) (21, 2.48107269406318664551e-01) (22, 7.65625834465026855469e-02) (23, -1.85423076152801513672e-01) (24, -1.69965684413909912109e-01) (25, -4.08988595008850097656e-02) (26, 1.21151275932788848877e-01) (27, -8.35689783096313476562e-01) 
