FANN_FLO_2.1
num_layers=3
learning_rate=0.699804
connection_rate=1.000000
network_type=0
learning_momentum=0.000000
training_algorithm=0
train_error_function=1
train_stop_function=0
cascade_output_change_fraction=0.010000
quickprop_decay=-0.000100
quickprop_mu=1.750000
rprop_increase_factor=1.200000
rprop_decrease_factor=0.500000
rprop_delta_min=0.000000
rprop_delta_max=50.000000
rprop_delta_zero=0.100000
cascade_output_stagnation_epochs=12
cascade_candidate_change_fraction=0.010000
cascade_candidate_stagnation_epochs=12
cascade_max_out_epochs=150
cascade_min_out_epochs=50
cascade_max_cand_epochs=150
cascade_min_cand_epochs=50
cascade_num_candidate_groups=2
bit_fail_limit=3.49999994039535522461e-01
cascade_candidate_limit=1.00000000000000000000e+03
cascade_weight_multiplier=4.00000005960464477539e-01
cascade_activation_functions_count=10
cascade_activation_functions=3 5 7 8 10 11 14 15 16 17 
cascade_activation_steepnesses_count=21
cascade_activation_steepnesses=1.50000000000000000000e+01 3.21000000000000000000e+02 3.22000000000000000000e+02 3.23000000000000000000e+02 3.24000000000000000000e+02 6.43000000000000000000e+02 6.44000000000000000000e+02 6.45000000000000000000e+02 6.46000000000000000000e+02 6.47000000000000000000e+02 6.48000000000000000000e+02 7.68000000000000000000e+02 7.69000000000000000000e+02 7.70000000000000000000e+02 7.71000000000000000000e+02 1.15400000000000000000e+03 0.00000000000000000000e+00 0.00000000000000000000e+00 0.00000000000000000000e+00 0.00000000000000000000e+00 0.00000000000000000000e+00 
layer_sizes=16 16 16 
scale_included=0
neurons (num_inputs, activation_function, activation_steepness)=(0, 0, 0.00000000000000000000e+00) (0, 0, 0.00000000000000000000e+00) (0, 0, 0.00000000000000000000e+00) (0, 0, 0.00000000000000000000e+00) (0, 0, 0.00000000000000000000e+00) (0, 0, 0.00000000000000000000e+00) (0, 0, 0.00000000000000000000e+00) (0, 0, 0.00000000000000000000e+00) (0, 0, 0.00000000000000000000e+00) (0, 0, 0.00000000000000000000e+00) (0, 0, 0.00000000000000000000e+00) (0, 0, 0.00000000000000000000e+00) (0, 0, 0.00000000000000000000e+00) (0, 0, 0.00000000000000000000e+00) (0, 0, 0.00000000000000000000e+00) (0, 0, 0.00000000000000000000e+00) (16, 5, 5.00000000000000000000e-01) (16, 5, 5.00000000000000000000e-01) (16, 5, 5.00000000000000000000e-01) (16, 5, 5.00000000000000000000e-01) (16, 5, 5.00000000000000000000e-01) (16, 5, 5.00000000000000000000e-01) (16, 5, 5.00000000000000000000e-01) (16, 5, 5.00000000000000000000e-01) (16, 5, 5.00000000000000000000e-01) (16, 5, 5.00000000000000000000e-01) (16, 5, 5.00000000000000000000e-01) (16, 5, 5.00000000000000000000e-01) (16, 5, 5.00000000000000000000e-01) (16, 5, 5.00000000000000000000e-01) (16, 5, 5.00000000000000000000e-01) (0, 5, 0.00000000000000000000e+00) (16, 3, 5.00000000000000000000e-01) (16, 3, 5.00000000000000000000e-01) (16, 3, 5.00000000000000000000e-01) (16, 3, 5.00000000000000000000e-01) (16, 3, 5.00000000000000000000e-01) (16, 3, 5.00000000000000000000e-01) (16, 3, 5.00000000000000000000e-01) (16, 3, 5.00000000000000000000e-01) (16, 3, 5.00000000000000000000e-01) (16, 3, 5.00000000000000000000e-01) (16, 3, 5.00000000000000000000e-01) (16, 3, 5.00000000000000000000e-01) (16, 3, 5.00000000000000000000e-01) (16, 3, 5.00000000000000000000e-01) (16, 3, 5.00000000000000000000e-01) (0, 3, 0.00000000000000000000e+00) 
connections (connected_to_neuron, weight)=(0, -8.53302925825119018555e-02) (1, -2.60615885257720947266e-01) (2, -1.19419783353805541992e-01) (3, -7.96366110444068908691e-02) (4, 1.68542563915252685547e-02) (5, 1.37703353539109230042e-03) (6, -2.99912184476852416992e-01) (7, -5.35022653639316558838e-02) (8, -3.07519942522048950195e-01) (9, -3.19756940007209777832e-02) (10, -1.47089064121246337891e-01) (11, 1.09986998140811920166e-01) (12, -6.38989359140396118164e-02) (13, -1.48319266736507415771e-02) (14, 1.75024896860122680664e-01) (15, 6.03002049028873443604e-02) (0, -4.85654115676879882812e-01) (1, -4.81587573885917663574e-02) (2, -2.36089006066322326660e-01) (3, -9.94483903050422668457e-02) (4, -1.12203054130077362061e-01) (5, 2.74329334497451782227e-02) (6, -3.95930767059326171875e-01) (7, -2.56214112043380737305e-01) (8, -1.06689654290676116943e-01) (9, 2.66834851354360580444e-02) (10, -7.80882909893989562988e-02) (11, 9.64630693197250366211e-02) (12, -1.34783029556274414062e-01) (13, 4.24844436347484588623e-02) (14, -7.75391086935997009277e-02) (15, 1.03976860642433166504e-01) (0, 3.82881939411163330078e-01) (1, -3.21509838104248046875e-02) (2, 1.20824709534645080566e-01) (3, 8.45412388443946838379e-02) (4, 3.13589572906494140625e-02) (5, 7.17600807547569274902e-03) (6, 3.01066875457763671875e-01) (7, -1.70053467154502868652e-02) (8, 3.52164208889007568359e-02) (9, -1.55662177130579948425e-02) (10, 1.59843981266021728516e-01) (11, -1.46941736340522766113e-01) (12, -1.11793950200080871582e-02) (13, 1.12964496016502380371e-01) (14, 1.31488159298896789551e-01) (15, -8.24325978755950927734e-02) (0, -3.95013213157653808594e-01) (1, -1.87937870621681213379e-01) (2, -2.04426556825637817383e-01) (3, 5.54049722850322723389e-02) (4, 2.68880371004343032837e-02) (5, 1.46672412753105163574e-01) (6, -2.74727165699005126953e-01) (7, -2.03555479645729064941e-01) (8, -2.15392440557479858398e-01) (9, 4.93906736373901367188e-02) (10, -2.62960016727447509766e-01) (11, 1.71166434884071350098e-01) (12, -1.94933712482452392578e-01) (13, 4.03142869472503662109e-02) (14, 3.87982726097106933594e-02) (15, 1.12566575407981872559e-01) (0, -2.05583088099956512451e-02) (1, -1.46087825298309326172e-01) (2, -3.12536239624023437500e-01) (3, -4.66399192810058593750e-02) (4, -1.29709057509899139404e-02) (5, 1.99639037251472473145e-01) (6, -2.90050208568572998047e-01) (7, -1.01112544536590576172e-01) (8, -3.28322857618331909180e-01) (9, 9.60139092057943344116e-03) (10, -3.71981769800186157227e-01) (11, 1.29914388060569763184e-01) (12, -1.88529849052429199219e-01) (13, -1.59365348517894744873e-02) (14, 7.83308371901512145996e-02) (15, 2.10846245288848876953e-01) (0, -3.90255749225616455078e-01) (1, -3.15629541873931884766e-01) (2, -5.68653941154479980469e-02) (3, 4.90024089813232421875e-02) (4, 1.82174310088157653809e-01) (5, 1.63895577192306518555e-01) (6, -4.31299448013305664062e-01) (7, -1.30455687642097473145e-01) (8, -2.64396190643310546875e-01) (9, -5.66592141985893249512e-02) (10, -3.04480254650115966797e-01) (11, 2.09650397300720214844e-01) (12, -1.46385222673416137695e-01) (13, 6.10021352767944335938e-02) (14, 1.13319911062717437744e-01) (15, 1.80237516760826110840e-01) (0, -3.03928673267364501953e-01) (1, -5.25920167565345764160e-02) (2, -3.28741997480392456055e-01) (3, 7.80724287033081054688e-02) (4, -9.61983725428581237793e-02) (5, 8.98414924740791320801e-02) (6, -2.53369480371475219727e-01) (7, -2.74951070547103881836e-01) (8, -2.00329512357711791992e-01) (9, 4.93782423436641693115e-02) (10, -7.25788250565528869629e-02) (11, 9.15879234671592712402e-02) (12, -1.48073613643646240234e-01) (13, 6.53019621968269348145e-02) (14, -1.87845453619956970215e-02) (15, 9.40498635172843933105e-02) (0, -1.21882900595664978027e-01) (1, -3.64161759614944458008e-01) (2, -5.75325675308704376221e-02) (3, 5.46333901584148406982e-02) (4, 2.80118882656097412109e-01) (5, 1.21808096766471862793e-01) (6, -3.45058411359786987305e-01) (7, -9.56091657280921936035e-02) (8, -1.97151124477386474609e-01) (9, -5.97924813628196716309e-02) (10, -3.22987169027328491211e-01) (11, 1.51245504617691040039e-01) (12, -3.44885736703872680664e-01) (13, -4.00658808648586273193e-02) (14, 2.68636047840118408203e-01) (15, 3.81176397204399108887e-02) (0, 2.29652047157287597656e-01) (1, 1.87984317541122436523e-01) (2, 1.31624355912208557129e-01) (3, 9.41220149397850036621e-02) (4, 3.36502492427825927734e-03) (5, -6.17431551218032836914e-02) (6, 2.42306903004646301270e-01) (7, 2.52731412649154663086e-01) (8, 1.86751544475555419922e-01) (9, -1.28573654219508171082e-02) (10, 1.69282764196395874023e-01) (11, 1.78738068789243698120e-02) (12, 8.16917940974235534668e-02) (13, -3.75345125794410705566e-02) (14, -1.07253968715667724609e-01) (15, -1.29053726792335510254e-01) (0, 2.35135212540626525879e-01) (1, 2.09800705313682556152e-01) (2, 2.18204170465469360352e-01) (3, 1.83753501623868942261e-02) (4, -1.41236796975135803223e-01) (5, -2.46767252683639526367e-02) (6, 3.00825178623199462891e-01) (7, 2.36882984638214111328e-01) (8, 1.43744438886642456055e-01) (9, -9.86513942480087280273e-02) (10, 2.37145110964775085449e-01) (11, -1.80395379662513732910e-01) (12, 1.93832248449325561523e-01) (13, -7.90207460522651672363e-02) (14, -1.17189690470695495605e-01) (15, -1.30650579929351806641e-01) (0, 1.01297423243522644043e-01) (1, -8.28289799392223358154e-03) (2, 4.71703410148620605469e-02) (3, -8.14463477581739425659e-03) (4, 4.71872650086879730225e-03) (5, -1.26777112483978271484e-01) (6, -1.18974231183528900146e-01) (7, 1.05547560378909111023e-02) (8, 7.77065455913543701172e-02) (9, 9.74896699190139770508e-02) (10, 8.95249173045158386230e-02) (11, -1.98917746543884277344e-01) (12, 1.32704749703407287598e-02) (13, -1.34281277656555175781e-01) (14, -1.12210407853126525879e-01) (15, 3.27463224530220031738e-02) (0, -9.96742397546768188477e-03) (1, -2.82278448343276977539e-01) (2, -1.85651361942291259766e-01) (3, 6.61229044198989868164e-02) (4, 1.48049578070640563965e-01) (5, 5.39266690611839294434e-02) (6, -1.68268978595733642578e-01) (7, -2.26117938756942749023e-01) (8, -2.37956225872039794922e-01) (9, -3.78093793988227844238e-02) (10, -2.83225774765014648438e-01) (11, 1.15729242563247680664e-01) (12, -1.78575694561004638672e-01) (13, -3.28268203884363174438e-03) (14, 1.43435716629028320312e-01) (15, 1.20736353099346160889e-01) (0, 3.32639634609222412109e-01) (1, 1.46788597106933593750e-01) (2, 2.37433612346649169922e-01) (3, -2.54567153751850128174e-02) (4, -1.49579718708992004395e-01) (5, -2.71621406078338623047e-01) (6, 3.89958024024963378906e-01) (7, 1.35314390063285827637e-01) (8, 1.68401300907135009766e-01) (9, 7.66787752509117126465e-02) (10, 1.79109752178192138672e-01) (11, -2.10467129945755004883e-01) (12, 3.70562553405761718750e-01) (13, -5.92271834611892700195e-02) (14, -1.46365523338317871094e-01) (15, -1.28296732902526855469e-01) (0, 1.76476240158081054688e-01) (1, -1.82052478194236755371e-02) (2, 2.85180360078811645508e-01) (3, -7.34636792913079261780e-03) (4, 2.60455235838890075684e-02) (5, -2.92864561080932617188e-01) (6, 3.49453181028366088867e-01) (7, 3.06929171085357666016e-01) (8, 3.03853571414947509766e-01) (9, 5.70475943386554718018e-02) (10, 3.38924854993820190430e-01) (11, -3.34698855876922607422e-01) (12, 2.37576961517333984375e-01) (13, 6.58604651689529418945e-02) (14, -4.92955110967159271240e-02) (15, -1.75449460744857788086e-01) (0, -2.12594419717788696289e-01) (1, -6.49641156196594238281e-02) (2, -1.16085976362228393555e-01) (3, -1.58883340191096067429e-03) (4, -6.59627243876457214355e-02) (5, 2.12145112454891204834e-02) (6, -1.88858807086944580078e-01) (7, -3.39695475995540618896e-02) (8, -1.27061143517494201660e-01) (9, 7.05712959170341491699e-02) (10, -1.59368410706520080566e-01) (11, -8.69821198284626007080e-03) (12, -7.87858963012695312500e-02) (13, -3.10892835259437561035e-02) (14, 3.47177125513553619385e-03) (15, 9.69284549355506896973e-02) (16, -3.08984406292438507080e-02) (17, -1.31635636091232299805e-01) (18, 1.59685555845499038696e-02) (19, -9.57649350166320800781e-02) (20, 1.95639759302139282227e-01) (21, 1.43192648887634277344e-01) (22, -1.45877331495285034180e-01) (23, -3.95421460270881652832e-02) (24, -4.15501222014427185059e-02) (25, 7.84503016620874404907e-03) (26, -7.36000463366508483887e-02) (27, 1.95160210132598876953e-02) (28, -1.37624979019165039062e-01) (29, -1.48704200983047485352e-01) (30, -8.41333791613578796387e-02) (31, 1.47711622714996337891e+00) (16, -6.40201121568679809570e-02) (17, -1.73789426684379577637e-01) (18, 1.80418252944946289062e-01) (19, -1.28317221999168395996e-01) (20, -1.02027505636215209961e-03) (21, -1.45771726965904235840e-01) (22, -2.17979401350021362305e-02) (23, -9.16786789894104003906e-02) (24, 1.01169832050800323486e-01) (25, 4.76611144840717315674e-02) (26, 4.79210466146469116211e-02) (27, 5.03202751278877258301e-02) (28, 1.05766534805297851562e-01) (29, 1.72593221068382263184e-02) (30, -7.57030993700027465820e-02) (31, 5.53798675537109375000e-03) (16, -1.36568054556846618652e-01) (17, -8.95258635282516479492e-02) (18, 3.33633795380592346191e-02) (19, -2.00528830289840698242e-01) (20, -2.50562965869903564453e-01) (21, -3.52392792701721191406e-01) (22, -6.95656388998031616211e-02) (23, -3.97911638021469116211e-01) (24, 1.66386365890502929688e-01) (25, 3.28661620616912841797e-01) (26, -2.02333126217126846313e-02) (27, -2.84202694892883300781e-01) (28, 2.70578682422637939453e-01) (29, 2.21470355987548828125e-01) (30, -6.71168714761734008789e-02) (31, -7.69984006881713867188e-01) (16, -2.24578559398651123047e-01) (17, -7.10860863327980041504e-02) (18, 9.15025323629379272461e-02) (19, -3.31254005432128906250e-01) (20, -3.55775803327560424805e-01) (21, -3.45882087945938110352e-01) (22, -1.44751101732254028320e-01) (23, -3.58619987964630126953e-01) (24, 2.21077591180801391602e-01) (25, 1.90936148166656494141e-01) (26, 1.26464009284973144531e-01) (27, -3.88881653547286987305e-01) (28, 3.44581872224807739258e-01) (29, 3.59560847282409667969e-01) (30, -2.03252077102661132812e-01) (31, -1.15844357013702392578e+00) (16, 2.27096974849700927734e-02) (17, 2.01862573623657226562e-01) (18, -7.62245133519172668457e-02) (19, 1.18803672492504119873e-01) (20, -8.93761739134788513184e-02) (21, 9.03517156839370727539e-02) (22, 1.13265417516231536865e-01) (23, 1.09290905296802520752e-01) (24, -2.18360126018524169922e-02) (25, -5.96166029572486877441e-02) (26, 2.14718319475650787354e-02) (27, 4.51475381851196289062e-03) (28, -1.72562330961227416992e-01) (29, 1.65985301136970520020e-02) (30, 4.57211323082447052002e-02) (31, -2.17788979411125183105e-01) (16, 2.16739967465400695801e-01) (17, 8.70688110589981079102e-02) (18, 1.55641725286841392517e-02) (19, 1.50561749935150146484e-01) (20, 1.29557609558105468750e-01) (21, 2.59577017277479171753e-02) (22, 4.85668405890464782715e-02) (23, 3.07003676891326904297e-01) (24, -4.82769086956977844238e-02) (25, -8.42801481485366821289e-02) (26, 2.11711805313825607300e-02) (27, 1.52344763278961181641e-01) (28, -1.09216637909412384033e-01) (29, -1.38684093952178955078e-01) (30, -1.84942595660686492920e-02) (31, -9.32687282562255859375e-01) (16, 1.09067007899284362793e-01) (17, 1.46528974175453186035e-01) (18, -1.69275432825088500977e-01) (19, 1.36543631553649902344e-01) (20, 1.32846206426620483398e-01) (21, 2.92338132858276367188e-02) (22, 2.01201885938644409180e-01) (23, 3.14288698136806488037e-02) (24, 1.75304710865020751953e-02) (25, -2.97933481633663177490e-02) (26, -1.03922188282012939453e-01) (27, -2.69448012113571166992e-03) (28, -1.56323775649070739746e-01) (29, -3.75622063875198364258e-01) (30, 7.96908587217330932617e-02) (31, -5.86489081382751464844e-01) (16, -3.08608114719390869141e-01) (17, -2.74557888507843017578e-01) (18, 2.03521758317947387695e-01) (19, -1.72460287809371948242e-01) (20, -3.43807823956012725830e-02) (21, -2.04390630125999450684e-01) (22, -2.26976603269577026367e-01) (23, -1.09518527984619140625e-01) (24, 1.99210181832313537598e-01) (25, 8.41651186347007751465e-02) (26, -1.20112188160419464111e-01) (27, -6.93164914846420288086e-02) (28, 2.10655145347118377686e-02) (29, -7.35535323619842529297e-02) (30, -1.68575569987297058105e-01) (31, 1.33216872811317443848e-01) (16, -9.17646437883377075195e-02) (17, -1.67155742645263671875e-01) (18, 4.69821989536285400391e-02) (19, -7.14779049158096313477e-02) (20, -8.34743976593017578125e-02) (21, -8.18836912512779235840e-02) (22, -1.96223229169845581055e-01) (23, -1.30430892109870910645e-01) (24, 1.63954854011535644531e-01) (25, 2.52612382173538208008e-01) (26, -1.03058688342571258545e-01) (27, -6.91381841897964477539e-02) (28, 1.44814133644104003906e-01) (29, 1.85135185718536376953e-01) (30, -1.68746322393417358398e-01) (31, -7.19376564025878906250e-01) (16, -2.41620570421218872070e-01) (17, -7.03727006912231445312e-02) (18, 2.40898020565509796143e-02) (19, -2.65256226062774658203e-01) (20, -4.01085078716278076172e-01) (21, -3.55105727910995483398e-01) (22, -1.64306193590164184570e-01) (23, -3.56033623218536376953e-01) (24, 2.06334143877029418945e-01) (25, 2.81280100345611572266e-01) (26, 7.31509849429130554199e-02) (27, -2.71683990955352783203e-01) (28, 3.68774354457855224609e-01) (29, 4.49351191520690917969e-01) (30, -1.00757822394371032715e-01) (31, -1.15144705772399902344e+00) (16, -1.02803386747837066650e-01) (17, -2.50194340944290161133e-01) (18, 5.78061901032924652100e-02) (19, -1.99703276157379150391e-01) (20, -1.88245207071304321289e-01) (21, -1.36002451181411743164e-01) (22, -2.28551000356674194336e-01) (23, -1.39406532049179077148e-01) (24, 1.42180323600769042969e-01) (25, 1.07576906681060791016e-01) (26, 4.21958416700363159180e-03) (27, -2.08216309547424316406e-01) (28, 1.35960876941680908203e-01) (29, 1.84960246086120605469e-01) (30, -1.45859234035015106201e-02) (31, -7.19744384288787841797e-01) (16, 1.42168998718261718750e-03) (17, -3.37423741817474365234e-01) (18, 9.53736305236816406250e-02) (19, -2.44918107986450195312e-01) (20, -7.80547559261322021484e-02) (21, -8.69670882821083068848e-02) (22, -2.38293468952178955078e-01) (23, 2.41896510124206542969e-02) (24, 1.28885820508003234863e-01) (25, 1.68643444776535034180e-01) (26, 3.71166579425334930420e-02) (27, -4.38442081212997436523e-02) (28, 9.31426733732223510742e-02) (29, 1.40476793050765991211e-01) (30, -3.17382812500000000000e-03) (31, -3.96738737821578979492e-01) (16, -1.74401506781578063965e-01) (17, -2.53866076469421386719e-01) (18, 1.71829327940940856934e-01) (19, -2.99999743700027465820e-01) (20, -5.06030797958374023438e-01) (21, -3.45990955829620361328e-01) (22, -2.77513921260833740234e-01) (23, -2.66302585601806640625e-01) (24, 2.10796386003494262695e-01) (25, 2.87630766630172729492e-01) (26, 7.54627436399459838867e-02) (27, -3.36802750825881958008e-01) (28, 3.19183915853500366211e-01) (29, 4.40441310405731201172e-01) (30, -1.26195296645164489746e-01) (31, -6.85482323169708251953e-01) (16, 1.00004464387893676758e-01) (17, -8.30868482589721679688e-02) (18, 6.96449801325798034668e-02) (19, 1.27017609775066375732e-02) (20, -3.98718491196632385254e-02) (21, 1.35524123907089233398e-01) (22, 6.40880614519119262695e-02) (23, 1.31778463721275329590e-01) (24, 1.19964033365249633789e-03) (25, -6.61014690995216369629e-02) (26, -2.16274082660675048828e-01) (27, 5.58470897376537322998e-02) (28, -1.28156721591949462891e-01) (29, -1.08228884637355804443e-02) (30, -4.13046553730964660645e-02) (31, -8.34199965000152587891e-01) (16, -1.90222918987274169922e-01) (17, -1.69469505548477172852e-01) (18, 2.45220765471458435059e-01) (19, -2.72549182176589965820e-01) (20, -2.54009306430816650391e-01) (21, -3.88442695140838623047e-01) (22, -8.82009789347648620605e-02) (23, -2.82162129878997802734e-01) (24, 1.01489283144474029541e-01) (25, 1.45572185516357421875e-01) (26, 8.08421298861503601074e-02) (27, -9.24486368894577026367e-02) (28, 2.98428356647491455078e-01) (29, 3.33319664001464843750e-01) (30, -1.60758078098297119141e-01) (31, 2.02896684408187866211e-01) 
