FANN_FLO_2.1
num_layers=3
learning_rate=0.699993
connection_rate=1.000000
network_type=0
learning_momentum=0.000000
training_algorithm=0
train_error_function=1
train_stop_function=0
cascade_output_change_fraction=0.010000
quickprop_decay=-0.000100
quickprop_mu=1.750000
rprop_increase_factor=1.200000
rprop_decrease_factor=0.500000
rprop_delta_min=0.000000
rprop_delta_max=50.000000
rprop_delta_zero=0.100000
cascade_output_stagnation_epochs=12
cascade_candidate_change_fraction=0.010000
cascade_candidate_stagnation_epochs=12
cascade_max_out_epochs=150
cascade_min_out_epochs=50
cascade_max_cand_epochs=150
cascade_min_cand_epochs=50
cascade_num_candidate_groups=2
bit_fail_limit=3.49999994039535522461e-01
cascade_candidate_limit=1.00000000000000000000e+03
cascade_weight_multiplier=4.00000005960464477539e-01
cascade_activation_functions_count=10
cascade_activation_functions=3 5 7 8 10 11 14 15 16 17 
cascade_activation_steepnesses_count=16
cascade_activation_steepnesses=0.00000000000000000000e+00 0.00000000000000000000e+00 0.00000000000000000000e+00 2.00000000000000000000e+00 6.08100000000000000000e+03 6.08200000000000000000e+03 0.00000000000000000000e+00 0.00000000000000000000e+00 6.00000000000000000000e+00 1.07597200000000000000e+06 1.07622800000000000000e+06 1.07654500000000000000e+06 1.07654600000000000000e+06 1.07680100000000000000e+06 1.07680200000000000000e+06 0.00000000000000000000e+00 
layer_sizes=9 9 9 
scale_included=0
neurons (num_inputs, activation_function, activation_steepness)=(0, 0, 0.00000000000000000000e+00) (0, 0, 0.00000000000000000000e+00) (0, 0, 0.00000000000000000000e+00) (0, 0, 0.00000000000000000000e+00) (0, 0, 0.00000000000000000000e+00) (0, 0, 0.00000000000000000000e+00) (0, 0, 0.00000000000000000000e+00) (0, 0, 0.00000000000000000000e+00) (0, 0, 0.00000000000000000000e+00) (9, 5, 5.00000000000000000000e-01) (9, 5, 5.00000000000000000000e-01) (9, 5, 5.00000000000000000000e-01) (9, 5, 5.00000000000000000000e-01) (9, 5, 5.00000000000000000000e-01) (9, 5, 5.00000000000000000000e-01) (9, 5, 5.00000000000000000000e-01) (9, 5, 5.00000000000000000000e-01) (0, 5, 0.00000000000000000000e+00) (9, 3, 5.00000000000000000000e-01) (9, 3, 5.00000000000000000000e-01) (9, 3, 5.00000000000000000000e-01) (9, 3, 5.00000000000000000000e-01) (9, 3, 5.00000000000000000000e-01) (9, 3, 5.00000000000000000000e-01) (9, 3, 5.00000000000000000000e-01) (9, 3, 5.00000000000000000000e-01) (0, 3, 0.00000000000000000000e+00) 
connections (connected_to_neuron, weight)=(0, -5.32555952668190002441e-02) (1, -6.85375407338142395020e-02) (2, -6.13598488271236419678e-02) (3, -2.06565633416175842285e-02) (4, -6.77253212779760360718e-03) (5, 3.56433056294918060303e-02) (6, -1.16646058857440948486e-01) (7, -9.21281427145004272461e-02) (8, -4.86082024872303009033e-03) (0, 3.88885885477066040039e-02) (1, 6.92900046706199645996e-02) (2, -7.50899538397789001465e-02) (3, 8.55452418327331542969e-02) (4, 6.93192631006240844727e-02) (5, 5.44752962887287139893e-02) (6, -4.67502288520336151123e-02) (7, 3.61124165356159210205e-02) (8, -3.94344143569469451904e-02) (0, -5.61812967061996459961e-02) (1, -2.90406644344329833984e-02) (2, -7.72478803992271423340e-02) (3, -3.10638882219791412354e-02) (4, 7.71397054195404052734e-02) (5, -5.65133104100823402405e-03) (6, 6.94683939218521118164e-02) (7, 3.60871814191341400146e-02) (8, 3.59038859605789184570e-02) (0, 7.91108682751655578613e-02) (1, -1.06668537482619285583e-02) (2, 6.03473221417516469955e-04) (3, 5.43608255684375762939e-02) (4, 5.16686737537384033203e-02) (5, 3.20659279823303222656e-02) (6, 9.30009782314300537109e-02) (7, -4.80454452335834503174e-02) (8, -5.91154806315898895264e-02) (0, 4.38909865915775299072e-02) (1, -3.83977256715297698975e-02) (2, -2.49498318880796432495e-02) (3, -4.00273837149143218994e-02) (4, 9.87520441412925720215e-02) (5, -5.56598268449306488037e-02) (6, -1.51173314079642295837e-02) (7, 7.26630911231040954590e-02) (8, -8.80793929100036621094e-02) (0, -9.66937988996505737305e-02) (1, -9.56167057156562805176e-02) (2, 2.65034679323434829712e-02) (3, -4.77624088525772094727e-02) (4, -6.15494325757026672363e-02) (5, 9.74627956748008728027e-02) (6, -2.50102821737527847290e-02) (7, 2.37916409969329833984e-02) (8, 6.48510754108428955078e-02) (0, 7.73558542132377624512e-02) (1, 3.58213894069194793701e-02) (2, 4.34996001422405242920e-02) (3, 2.96647027134895324707e-02) (4, 2.14467756450176239014e-03) (5, -6.71672597527503967285e-02) (6, -6.97318241000175476074e-02) (7, -3.81431728601455688477e-02) (8, 7.17138350009918212891e-02) (0, 7.03857615590095520020e-02) (1, -2.16519422829151153564e-02) (2, -5.28413616120815277100e-02) (3, -8.33783894777297973633e-02) (4, -9.77435857057571411133e-02) (5, 8.76091700047254562378e-03) (6, -8.32821335643529891968e-03) (7, -4.76663336157798767090e-02) (8, -1.24696698039770126343e-02) (9, 3.02039571106433868408e-02) (10, 4.43837232887744903564e-02) (11, -1.80031862109899520874e-02) (12, 6.72435238957405090332e-02) (13, 6.80714398622512817383e-02) (14, -3.38555239140987396240e-02) (15, -8.24197754263877868652e-03) (16, -6.59328699111938476562e-02) (17, 2.18305438756942749023e-01) (9, -4.38358373939990997314e-02) (10, 5.34001179039478302002e-02) (11, 9.77633520960807800293e-04) (12, -1.77451223134994506836e-02) (13, 4.31086570024490356445e-02) (14, -8.34764465689659118652e-02) (15, -7.62384086847305297852e-02) (16, -2.15104110538959503174e-02) (17, 2.24730372428894042969e-01) (9, -7.68324285745620727539e-02) (10, 4.52532283961772918701e-02) (11, -6.24642744660377502441e-02) (12, -5.11554107069969177246e-02) (13, 1.98177993297576904297e-02) (14, -4.81993053108453750610e-03) (15, -6.03174045681953430176e-03) (16, 3.38416099548339843750e-02) (17, 1.99416175484657287598e-01) (9, 1.01100385189056396484e-01) (10, -5.99191524088382720947e-02) (11, 4.69224005937576293945e-02) (12, -3.63013818860054016113e-02) (13, 9.19557809829711914062e-02) (14, 4.56915237009525299072e-03) (15, 2.60731820017099380493e-02) (16, 5.24802878499031066895e-02) (17, -2.16140925884246826172e-01) (9, -1.09100401401519775391e-01) (10, -7.65979588031768798828e-02) (11, 4.12959828972816467285e-02) (12, 5.78876808285713195801e-02) (13, -1.07106314972043037415e-02) (14, -3.40303033590316772461e-02) (15, -6.49252906441688537598e-02) (16, 3.90692874789237976074e-02) (17, 1.09346471726894378662e-01) (9, -8.35672244429588317871e-02) (10, 6.44474923610687255859e-02) (11, 1.70253887772560119629e-02) (12, 8.57532098889350891113e-02) (13, 9.82882678508758544922e-02) (14, -6.44451528787612915039e-02) (15, 9.92523133754730224609e-02) (16, -8.44292864203453063965e-02) (17, 2.35685735940933227539e-01) (9, -6.90393149852752685547e-03) (10, -4.45639900863170623779e-03) (11, -2.45300270617008209229e-02) (12, 6.25301301479339599609e-02) (13, -1.32036469876766204834e-02) (14, 4.37267310917377471924e-02) (15, 3.31508256494998931885e-02) (16, 8.26055705547332763672e-02) (17, -1.59603536128997802734e-01) (9, -2.59568989276885986328e-02) (10, 6.61955587565898895264e-03) (11, -4.35092858970165252686e-02) (12, 9.40890796482563018799e-03) (13, 2.07705330103635787964e-02) (14, -5.95693662762641906738e-03) (15, -7.03829228878021240234e-02) (16, -2.86187529563903808594e-02) (17, -1.18559174239635467529e-01) 
