FANN_FLO_2.1
num_layers=3
learning_rate=0.697986
connection_rate=1.000000
network_type=0
learning_momentum=0.000000
training_algorithm=0
train_error_function=1
train_stop_function=0
cascade_output_change_fraction=0.010000
quickprop_decay=-0.000100
quickprop_mu=1.750000
rprop_increase_factor=1.200000
rprop_decrease_factor=0.500000
rprop_delta_min=0.000000
rprop_delta_max=50.000000
rprop_delta_zero=0.100000
cascade_output_stagnation_epochs=12
cascade_candidate_change_fraction=0.010000
cascade_candidate_stagnation_epochs=12
cascade_max_out_epochs=150
cascade_min_out_epochs=50
cascade_max_cand_epochs=150
cascade_min_cand_epochs=50
cascade_num_candidate_groups=2
bit_fail_limit=3.49999994039535522461e-01
cascade_candidate_limit=1.00000000000000000000e+03
cascade_weight_multiplier=4.00000005960464477539e-01
cascade_activation_functions_count=10
cascade_activation_functions=3 5 7 8 10 11 14 15 16 17 
cascade_activation_steepnesses_count=38
cascade_activation_steepnesses=0.00000000000000000000e+00 0.00000000000000000000e+00 0.00000000000000000000e+00 1.00000000000000000000e+01 6.08300000000000000000e+03 6.08400000000000000000e+03 6.08500000000000000000e+03 6.08600000000000000000e+03 6.08700000000000000000e+03 6.08800000000000000000e+03 6.08900000000000000000e+03 6.09000000000000000000e+03 6.09100000000000000000e+03 6.09200000000000000000e+03 0.00000000000000000000e+00 0.00000000000000000000e+00 2.00000000000000000000e+01 1.07629100000000000000e+06 1.07629200000000000000e+06 1.07629300000000000000e+06 1.07629400000000000000e+06 1.07629500000000000000e+06 1.07629600000000000000e+06 1.07629700000000000000e+06 1.07629800000000000000e+06 1.07629900000000000000e+06 1.07630000000000000000e+06 1.07667500000000000000e+06 1.07667600000000000000e+06 1.07667700000000000000e+06 1.07667800000000000000e+06 1.07667900000000000000e+06 1.07668000000000000000e+06 1.07668100000000000000e+06 1.07668200000000000000e+06 1.07668300000000000000e+06 1.07668400000000000000e+06 0.00000000000000000000e+00 
layer_sizes=31 31 31 
scale_included=0
neurons (num_inputs, activation_function, activation_steepness)=(0, 0, 0.00000000000000000000e+00) (0, 0, 0.00000000000000000000e+00) (0, 0, 0.00000000000000000000e+00) (0, 0, 0.00000000000000000000e+00) (0, 0, 0.00000000000000000000e+00) (0, 0, 0.00000000000000000000e+00) (0, 0, 0.00000000000000000000e+00) (0, 0, 0.00000000000000000000e+00) (0, 0, 0.00000000000000000000e+00) (0, 0, 0.00000000000000000000e+00) (0, 0, 0.00000000000000000000e+00) (0, 0, 0.00000000000000000000e+00) (0, 0, 0.00000000000000000000e+00) (0, 0, 0.00000000000000000000e+00) (0, 0, 0.00000000000000000000e+00) (0, 0, 0.00000000000000000000e+00) (0, 0, 0.00000000000000000000e+00) (0, 0, 0.00000000000000000000e+00) (0, 0, 0.00000000000000000000e+00) (0, 0, 0.00000000000000000000e+00) (0, 0, 0.00000000000000000000e+00) (0, 0, 0.00000000000000000000e+00) (0, 0, 0.00000000000000000000e+00) (0, 0, 0.00000000000000000000e+00) (0, 0, 0.00000000000000000000e+00) (0, 0, 0.00000000000000000000e+00) (0, 0, 0.00000000000000000000e+00) (0, 0, 0.00000000000000000000e+00) (0, 0, 0.00000000000000000000e+00) (0, 0, 0.00000000000000000000e+00) (0, 0, 0.00000000000000000000e+00) (31, 5, 5.00000000000000000000e-01) (31, 5, 5.00000000000000000000e-01) (31, 5, 5.00000000000000000000e-01) (31, 5, 5.00000000000000000000e-01) (31, 5, 5.00000000000000000000e-01) (31, 5, 5.00000000000000000000e-01) (31, 5, 5.00000000000000000000e-01) (31, 5, 5.00000000000000000000e-01) (31, 5, 5.00000000000000000000e-01) (31, 5, 5.00000000000000000000e-01) (31, 5, 5.00000000000000000000e-01) (31, 5, 5.00000000000000000000e-01) (31, 5, 5.00000000000000000000e-01) (31, 5, 5.00000000000000000000e-01) (31, 5, 5.00000000000000000000e-01) (31, 5, 5.00000000000000000000e-01) (31, 5, 5.00000000000000000000e-01) (31, 5, 5.00000000000000000000e-01) (31, 5, 5.00000000000000000000e-01) (31, 5, 5.00000000000000000000e-01) (31, 5, 5.00000000000000000000e-01) (31, 5, 5.00000000000000000000e-01) (31, 5, 5.00000000000000000000e-01) (31, 5, 5.00000000000000000000e-01) (31, 5, 5.00000000000000000000e-01) (31, 5, 5.00000000000000000000e-01) (31, 5, 5.00000000000000000000e-01) (31, 5, 5.00000000000000000000e-01) (31, 5, 5.00000000000000000000e-01) (31, 5, 5.00000000000000000000e-01) (0, 5, 0.00000000000000000000e+00) (31, 3, 5.00000000000000000000e-01) (31, 3, 5.00000000000000000000e-01) (31, 3, 5.00000000000000000000e-01) (31, 3, 5.00000000000000000000e-01) (31, 3, 5.00000000000000000000e-01) (31, 3, 5.00000000000000000000e-01) (31, 3, 5.00000000000000000000e-01) (31, 3, 5.00000000000000000000e-01) (31, 3, 5.00000000000000000000e-01) (31, 3, 5.00000000000000000000e-01) (31, 3, 5.00000000000000000000e-01) (31, 3, 5.00000000000000000000e-01) (31, 3, 5.00000000000000000000e-01) (31, 3, 5.00000000000000000000e-01) (31, 3, 5.00000000000000000000e-01) (31, 3, 5.00000000000000000000e-01) (31, 3, 5.00000000000000000000e-01) (31, 3, 5.00000000000000000000e-01) (31, 3, 5.00000000000000000000e-01) (31, 3, 5.00000000000000000000e-01) (31, 3, 5.00000000000000000000e-01) (31, 3, 5.00000000000000000000e-01) (31, 3, 5.00000000000000000000e-01) (31, 3, 5.00000000000000000000e-01) (31, 3, 5.00000000000000000000e-01) (31, 3, 5.00000000000000000000e-01) (31, 3, 5.00000000000000000000e-01) (31, 3, 5.00000000000000000000e-01) (31, 3, 5.00000000000000000000e-01) (31, 3, 5.00000000000000000000e-01) (0, 3, 0.00000000000000000000e+00) 
connections (connected_to_neuron, weight)=(0, 8.19676756858825683594e-01) (1, 2.46702447533607482910e-01) (2, 1.76197692751884460449e-01) (3, 3.41934466361999511719e+00) (4, 5.25135874748229980469e-01) (5, -7.06270635128021240234e-01) (6, -1.59166097640991210938e-01) (7, -8.34158539772033691406e-01) (8, -7.53478586673736572266e-01) (9, -3.75158458948135375977e-01) (10, 5.79062342643737792969e-01) (11, 5.69685816764831542969e-01) (12, 2.69474536180496215820e-01) (13, 1.38925397396087646484e+00) (14, 2.45366483926773071289e-01) (15, -7.60112702846527099609e-01) (16, 2.22148299217224121094e-02) (17, -1.02089926600456237793e-01) (18, -2.81569600105285644531e-01) (19, 1.83152884244918823242e-01) (20, 4.12398606538772583008e-01) (21, -4.42455500364303588867e-01) (22, -3.88325601816177368164e-01) (23, 1.88276851177215576172e+00) (24, 2.30766102671623229980e-01) (25, 7.84623622894287109375e-02) (26, -3.55084925889968872070e-01) (27, -7.93463706970214843750e-01) (28, -5.51771521568298339844e-01) (29, -5.00456094741821289062e-01) (30, -9.40514683723449707031e-01) (0, 3.94940286874771118164e-01) (1, -1.08037900924682617188e+00) (2, 2.26259022951126098633e-01) (3, 1.89500832557678222656e+00) (4, 1.07988226413726806641e+00) (5, 2.18001103401184082031e+00) (6, -9.54800307750701904297e-01) (7, 7.97544777393341064453e-01) (8, -3.16504351794719696045e-02) (9, -1.56180882453918457031e+00) (10, 4.38933402299880981445e-01) (11, -5.63380837440490722656e-01) (12, 1.06857731938362121582e-01) (13, 7.24797904491424560547e-01) (14, 2.06279650330543518066e-01) (15, 1.44503462314605712891e+00) (16, -4.40996646881103515625e-01) (17, 4.32422757148742675781e-01) (18, -2.56569497287273406982e-02) (19, -7.12185740470886230469e-01) (20, -4.55372631549835205078e-02) (21, -1.16054618358612060547e+00) (22, -4.24293190240859985352e-01) (23, 5.21327733993530273438e-01) (24, 9.33215379714965820312e-01) (25, 7.68066942691802978516e-01) (26, -9.84243512153625488281e-01) (27, -3.36677610874176025391e-01) (28, -7.52783536911010742188e-01) (29, -9.10042881965637207031e-01) (30, -1.63274300098419189453e+00) (0, -3.73889237642288208008e-01) (1, 2.17790395021438598633e-01) (2, -4.73463535308837890625e-02) (3, -2.31596851348876953125e+00) (4, -1.60959303379058837891e-01) (5, 2.90909051895141601562e-01) (6, 2.07372412085533142090e-01) (7, 8.25965166091918945312e-01) (8, 9.06220972537994384766e-01) (9, -5.01592636108398437500e-01) (10, -2.16593027114868164062e-01) (11, -1.59622073173522949219e-01) (12, -1.69854968786239624023e-01) (13, -1.67874455451965332031e+00) (14, 1.61115705966949462891e-01) (15, 1.91329970955848693848e-01) (16, 2.31512546539306640625e-01) (17, 3.53896260261535644531e-01) (18, 4.64961946010589599609e-01) (19, -4.34931427240371704102e-01) (20, -2.48383775353431701660e-01) (21, 7.96947479248046875000e-01) (22, 2.93780833482742309570e-01) (23, -3.97640913724899291992e-01) (24, -3.70314627885818481445e-01) (25, 1.76553502678871154785e-01) (26, 9.71674919128417968750e-02) (27, 7.01581716537475585938e-01) (28, 7.50996112823486328125e-01) (29, 6.68386965990066528320e-02) (30, 4.32286322116851806641e-01) (0, 1.04693077504634857178e-01) (1, 5.68914711475372314453e-01) (2, 5.25505363941192626953e-01) (3, 1.80379533767700195312e+00) (4, 3.88144314289093017578e-01) (5, -1.46553851664066314697e-02) (6, 7.47580051422119140625e-01) (7, 5.22261261940002441406e-01) (8, -2.02435910701751708984e-01) (9, 5.35587191581726074219e-01) (10, 3.73897608369588851929e-03) (11, 4.67187702655792236328e-01) (12, 3.92845481634140014648e-01) (13, 1.69573223590850830078e+00) (14, -2.49917507171630859375e-01) (15, -2.78638273477554321289e-01) (16, 1.50181502103805541992e-01) (17, -9.47972387075424194336e-02) (18, -4.90357816219329833984e-01) (19, 3.69812965393066406250e-01) (20, 1.75495877861976623535e-01) (21, 5.43393492698669433594e-02) (22, 7.22335185855627059937e-03) (23, -1.64225935935974121094e-01) (24, 7.01459705829620361328e-01) (25, 1.74545988440513610840e-01) (26, 3.19029361009597778320e-01) (27, 3.23555737733840942383e-01) (28, 1.21808320283889770508e-01) (29, 1.79930031299591064453e-01) (30, 5.69072127342224121094e-01) (0, -1.95355549454689025879e-01) (1, 2.99154877662658691406e-01) (2, -3.51142287254333496094e-01) (3, -3.19227504730224609375e+00) (4, -3.49738597869873046875e+00) (5, 1.81102290749549865723e-01) (6, -6.38323873281478881836e-02) (7, 4.27224278450012207031e-01) (8, -2.51214891672134399414e-01) (9, 6.58658623695373535156e-01) (10, 2.08550207316875457764e-02) (11, -4.11790847778320312500e-01) (12, -5.83130896091461181641e-01) (13, -1.62930333614349365234e+00) (14, -1.31203293800354003906e+00) (15, 3.55476886034011840820e-02) (16, 1.53502479195594787598e-01) (17, -2.31270827353000640869e-02) (18, 1.45069226622581481934e-01) (19, 1.66046805679798126221e-02) (20, -2.19215616583824157715e-01) (21, 9.39416766166687011719e-01) (22, 5.08656203746795654297e-01) (23, -1.21344840526580810547e+00) (24, -2.25927734375000000000e+00) (25, 1.66992619633674621582e-01) (26, 1.28451781347393989563e-02) (27, 5.07742941379547119141e-01) (28, -1.16141885519027709961e-01) (29, 7.20597386360168457031e-01) (30, 1.86718237400054931641e+00) (0, -1.82503080368041992188e+00) (1, -5.31134195625782012939e-03) (2, 9.76086594164371490479e-03) (3, -1.55603992938995361328e+00) (4, 1.04523792862892150879e-01) (5, -1.99730843305587768555e-01) (6, -1.06161856651306152344e+00) (7, 3.76671075820922851562e-01) (8, 3.21607768535614013672e-01) (9, 4.90462094545364379883e-01) (10, -9.65747833251953125000e-01) (11, 2.22948014736175537109e-01) (12, 1.05000529438257217407e-02) (13, -4.43127155303955078125e-01) (14, 3.63999426364898681641e-01) (15, -2.56520695984363555908e-03) (16, -2.60364949703216552734e-01) (17, -1.54286369681358337402e-01) (18, 3.61433207988739013672e-01) (19, -6.08293116092681884766e-02) (20, -7.71911978721618652344e-01) (21, 1.32508456707000732422e-01) (22, 1.80525198578834533691e-01) (23, -7.91183888912200927734e-01) (24, -1.23258098959922790527e-01) (25, -3.45090121030807495117e-01) (26, -6.15137457847595214844e-01) (27, 6.09400749206542968750e-01) (28, 3.77226531505584716797e-01) (29, 4.65324223041534423828e-01) (30, 9.79052722454071044922e-01) (0, -1.24884879589080810547e+00) (1, -5.20014703273773193359e-01) (2, -3.71195346117019653320e-01) (3, 1.77311480045318603516e-01) (4, -5.37849009037017822266e-01) (5, -1.93716490268707275391e+00) (6, -3.46121340990066528320e-01) (7, -1.42968997359275817871e-01) (8, -5.63918709754943847656e-01) (9, 1.39208018779754638672e+00) (10, -9.94158565998077392578e-01) (11, -4.88566547632217407227e-01) (12, 1.29161775112152099609e-01) (13, 1.97180479764938354492e-01) (14, -3.36507081985473632812e-01) (15, -1.13557541370391845703e+00) (16, 1.42571374773979187012e-01) (17, 1.37646630406379699707e-01) (18, -8.96498095244169235229e-05) (19, 2.15694591403007507324e-01) (20, -3.78031373023986816406e-01) (21, 1.53705179691314697266e-01) (22, 6.27379491925239562988e-03) (23, 5.72991549968719482422e-01) (24, -1.25071421265602111816e-01) (25, -8.87983322143554687500e-01) (26, -2.60342687368392944336e-01) (27, 6.85719549655914306641e-02) (28, -3.86972688138484954834e-02) (29, 1.07366800308227539062e+00) (30, 1.59286594390869140625e+00) (0, -1.80306434631347656250e-01) (1, -8.77686977386474609375e-01) (2, -1.05310738086700439453e-01) (3, -1.34227927774190902710e-02) (4, -7.32235014438629150391e-01) (5, -7.95364320278167724609e-01) (6, 5.94720184803009033203e-01) (7, 7.82387405633926391602e-02) (8, 7.17194005846977233887e-02) (9, 1.18112608790397644043e-01) (10, -2.42654025554656982422e-01) (11, -4.35270786285400390625e-01) (12, 2.33760267496109008789e-01) (13, 9.24715586006641387939e-03) (14, -1.03659474849700927734e+00) (15, -6.87285125255584716797e-01) (16, 1.93523436784744262695e-01) (17, -5.61270602047443389893e-02) (18, -1.97671264410018920898e-01) (19, 1.07577428221702575684e-01) (20, 1.72246053814888000488e-01) (21, -6.28403425216674804688e-01) (22, -6.67151272296905517578e-01) (23, -2.15311825275421142578e-01) (24, 3.44943970441818237305e-01) (25, -1.72252222895622253418e-01) (26, 1.91804558038711547852e-01) (27, -1.71263635158538818359e-01) (28, -1.65051877498626708984e-01) (29, 4.87263947725296020508e-02) (30, -1.16938151419162750244e-01) (0, -8.26121449470520019531e-01) (1, 1.31107807159423828125e-01) (2, -1.24922439455986022949e-01) (3, -3.46195191144943237305e-01) (4, -8.96848320960998535156e-01) (5, 1.10670626163482666016e+00) (6, -4.72532033920288085938e-01) (7, 4.80229526758193969727e-01) (8, 2.06194147467613220215e-02) (9, -6.76811188459396362305e-02) (10, -7.92675733566284179688e-01) (11, 2.73180752992630004883e-01) (12, 4.00997921824455261230e-02) (13, -9.68053936958312988281e-02) (14, -6.30073547363281250000e-01) (15, 5.66130280494689941406e-01) (16, -7.33970403671264648438e-01) (17, -2.07444697618484497070e-01) (18, -2.00259208679199218750e-01) (19, 1.05535879731178283691e-01) (20, -1.22548155486583709717e-02) (21, -6.14552021026611328125e-01) (22, -6.24202132225036621094e-01) (23, -6.40149712562561035156e-01) (24, -2.90599726140499114990e-02) (25, 6.86832427978515625000e-01) (26, -1.88412815332412719727e-01) (27, 2.00451403856277465820e-01) (28, -8.66160243749618530273e-02) (29, -1.15267455577850341797e-01) (30, -1.12391084432601928711e-01) (0, 6.57240271568298339844e-01) (1, 1.89675867557525634766e+00) (2, -9.23391431570053100586e-03) (3, -1.64701664447784423828e+00) (4, -3.34776520729064941406e-01) (5, -8.90341281890869140625e-01) (6, 1.00053176283836364746e-02) (7, 4.41082477569580078125e-01) (8, 6.02119266986846923828e-01) (9, 2.31234163045883178711e-01) (10, 3.97694885730743408203e-01) (11, 8.98083388805389404297e-01) (12, -1.13413795828819274902e-01) (13, -1.06912279129028320312e+00) (14, 8.89276936650276184082e-02) (15, -2.80964910984039306641e-01) (16, 1.40999466180801391602e-01) (17, -1.48403719067573547363e-02) (18, 3.83225202560424804688e-01) (19, -1.31298676133155822754e-01) (20, 3.28614264726638793945e-01) (21, 1.02096700668334960938e+00) (22, 1.73700511455535888672e-01) (23, -3.91872406005859375000e-01) (24, -5.01800119876861572266e-01) (25, -5.31701803207397460938e-01) (26, -1.25214770436286926270e-01) (27, 3.98315787315368652344e-01) (28, 9.67859998345375061035e-02) (29, 2.88159310817718505859e-01) (30, 3.46786752343177795410e-02) (0, 1.71665799617767333984e+00) (1, 2.21894431114196777344e+00) (2, 8.22186470031738281250e-03) (3, -2.37524852156639099121e-01) (4, -6.47986710071563720703e-01) (5, 1.05795216560363769531e+00) (6, -5.73907315731048583984e-01) (7, -1.17624390125274658203e+00) (8, 5.93898773193359375000e-01) (9, -1.27519595623016357422e+00) (10, 6.64925098419189453125e-01) (11, 1.64357089996337890625e+00) (12, 2.16899782419204711914e-01) (13, -6.79432928562164306641e-01) (14, -6.22201681137084960938e-01) (15, 5.32393276691436767578e-01) (16, -3.22328895330429077148e-01) (17, -4.07874166965484619141e-01) (18, 1.03500537574291229248e-01) (19, 1.61864429712295532227e-01) (20, 1.06778049468994140625e+00) (21, 1.29592388868331909180e-01) (22, -8.01621735095977783203e-01) (23, -3.45239400863647460938e-01) (24, 2.01451808214187622070e-01) (25, 5.61403214931488037109e-01) (26, -7.71048784255981445312e-01) (27, -1.38795602321624755859e+00) (28, -1.85081854462623596191e-01) (29, -1.27979063987731933594e+00) (30, -2.06522893905639648438e+00) (0, -3.06931018829345703125e-01) (1, -1.09675633907318115234e+00) (2, 2.45211478322744369507e-02) (3, -6.71784281730651855469e-01) (4, -2.58679986000061035156e-01) (5, 2.20244407653808593750e-01) (6, -5.72457090020179748535e-02) (7, 5.14284253120422363281e-01) (8, 1.48953855037689208984e-01) (9, 4.39606964588165283203e-01) (10, -1.29109606146812438965e-01) (11, -7.40541219711303710938e-01) (12, 2.12109863758087158203e-01) (13, -3.38980495929718017578e-01) (14, -5.87919056415557861328e-01) (15, 4.20428775250911712646e-02) (16, -8.54657590389251708984e-02) (17, -8.87084156274795532227e-02) (18, 2.52252146601676940918e-02) (19, 3.64862829446792602539e-02) (20, -1.01426374167203903198e-02) (21, -3.52192938327789306641e-01) (22, -3.17939370870590209961e-01) (23, -3.44330042600631713867e-01) (24, 2.03669905662536621094e-01) (25, 1.26866996288299560547e-01) (26, 4.83369082212448120117e-02) (27, 4.65779840946197509766e-01) (28, 2.04856500029563903809e-01) (29, 4.23679083585739135742e-01) (30, 4.96380805969238281250e-01) (0, -1.17623889446258544922e+00) (1, 1.33108532428741455078e+00) (2, 2.19867423176765441895e-01) (3, 7.00142800807952880859e-01) (4, 6.47836267948150634766e-01) (5, -4.62037809193134307861e-02) (6, 1.16787524893879890442e-02) (7, 8.67304801940917968750e-02) (8, 1.74460321664810180664e-01) (9, -8.25901091098785400391e-01) (10, -8.14726352691650390625e-01) (11, 1.02621829509735107422e+00) (12, -2.31861889362335205078e-01) (13, 2.50319629907608032227e-01) (14, 5.22091925144195556641e-01) (15, -1.93763449788093566895e-01) (16, -1.98367223143577575684e-01) (17, 7.09441304206848144531e-02) (18, 1.34023219347000122070e-01) (19, -1.73497274518013000488e-01) (20, -4.69100534915924072266e-01) (21, 1.54828026890754699707e-01) (22, 2.14642539620399475098e-01) (23, 1.57356634736061096191e-01) (24, 1.66660130023956298828e-01) (25, 1.75661638379096984863e-01) (26, -1.91319361329078674316e-02) (27, -5.38626462221145629883e-02) (28, -2.36849561333656311035e-02) (29, -5.44499874114990234375e-01) (30, -9.15821015834808349609e-01) (0, 4.53040778636932373047e-01) (1, 1.48811888694763183594e+00) (2, 3.69182705879211425781e-01) (3, 1.36360824108123779297e+00) (4, -9.24298018217086791992e-02) (5, -1.58552432060241699219e+00) (6, -5.46865344047546386719e-01) (7, 1.59950375556945800781e-01) (8, -4.48286205530166625977e-01) (9, 1.00687253475189208984e+00) (10, 3.03372263908386230469e-01) (11, 9.45295870304107666016e-01) (12, 1.42165213823318481445e-01) (13, 8.25043320655822753906e-01) (14, -1.55536711215972900391e-01) (15, -1.30485332012176513672e+00) (16, 6.65660947561264038086e-02) (17, -4.79614734649658203125e-02) (18, -2.99301773309707641602e-01) (19, 5.54510295391082763672e-01) (20, 1.40092357993125915527e-01) (21, 4.43078041076660156250e-01) (22, 7.63127133250236511230e-02) (23, 5.36213457584381103516e-01) (24, 1.21110230684280395508e-01) (25, -2.86441296339035034180e-01) (26, -5.28437316417694091797e-01) (27, 9.59571823477745056152e-02) (28, -3.19185733795166015625e-01) (29, 3.62092733383178710938e-01) (30, 6.36214494705200195312e-01) (0, 3.79592359066009521484e-01) (1, -9.98265206813812255859e-01) (2, 4.19863820075988769531e-01) (3, 5.72154998779296875000e-01) (4, -3.92320096492767333984e-01) (5, 5.06186068058013916016e-01) (6, -3.13402116298675537109e-01) (7, -3.31653356552124023438e-01) (8, -2.29611307382583618164e-01) (9, 2.10113003849983215332e-01) (10, 1.01174898445606231689e-02) (11, -4.50761944055557250977e-01) (12, 4.26201581954956054688e-01) (13, 5.84717512130737304688e-01) (14, -6.88306331634521484375e-01) (15, 4.27111506462097167969e-01) (16, -2.48338878154754638672e-01) (17, 8.61179083585739135742e-02) (18, -2.89220392704010009766e-01) (19, 2.18517646193504333496e-01) (20, 2.53946721553802490234e-01) (21, -8.06043922901153564453e-01) (22, -1.81318774819374084473e-01) (23, -3.28414440155029296875e-02) (24, 2.14680537581443786621e-01) (25, 2.17554688453674316406e-01) (26, -2.83515870571136474609e-01) (27, -5.13430476188659667969e-01) (28, -2.74511516094207763672e-01) (29, 2.10469588637351989746e-03) (30, -2.08321943879127502441e-01) (0, -3.33962552249431610107e-02) (1, 5.66353797912597656250e-01) (2, 1.78306132555007934570e-01) (3, -1.95889696478843688965e-02) (4, 2.08079755306243896484e-01) (5, 6.92154288291931152344e-01) (6, 2.08117991685867309570e-01) (7, 7.12656900286674499512e-02) (8, 2.75902003049850463867e-01) (9, -8.40006172657012939453e-01) (10, -4.89263199269771575928e-02) (11, 4.29128378629684448242e-01) (12, 3.80669608712196350098e-02) (13, -1.28784924745559692383e-01) (14, -1.64630860090255737305e-02) (15, 2.24948883056640625000e-01) (16, -6.34403899312019348145e-02) (17, -9.31110307574272155762e-02) (18, 9.11022275686264038086e-02) (19, -2.45071470737457275391e-01) (20, 2.44906574487686157227e-01) (21, -5.98854497075080871582e-02) (22, -2.19794124364852905273e-01) (23, -2.54303365945816040039e-02) (24, 3.09081673622131347656e-01) (25, 2.08607554435729980469e-01) (26, -1.62288963794708251953e-01) (27, -1.90467834472656250000e-01) (28, -1.51642203330993652344e-01) (29, -4.55317139625549316406e-01) (30, -7.43441879749298095703e-01) (0, 1.68458431959152221680e-01) (1, 1.53785780072212219238e-01) (2, 7.69573092460632324219e-01) (3, -1.00687086582183837891e+00) (4, 5.45583963394165039062e-01) (5, 2.73168349266052246094e+00) (6, -4.94233459234237670898e-01) (7, 5.10772168636322021484e-01) (8, 7.41716921329498291016e-02) (9, -5.13553082942962646484e-01) (10, 2.00659424066543579102e-01) (11, 4.99419718980789184570e-01) (12, 1.37455314397811889648e-02) (13, -4.58448439836502075195e-01) (14, 4.25020754337310791016e-01) (15, 8.35139691829681396484e-01) (16, -6.30520224571228027344e-01) (17, 1.21685832738876342773e-01) (18, 2.50906348228454589844e-01) (19, 7.77148082852363586426e-02) (20, -8.73217284679412841797e-02) (21, -2.09638297557830810547e-01) (22, 1.06172716617584228516e+00) (23, -4.66031283140182495117e-01) (24, 1.31915286183357238770e-01) (25, 1.93466269969940185547e+00) (26, 1.47785797715187072754e-01) (27, 5.17731606960296630859e-01) (28, -2.02919602394104003906e-01) (29, -6.49334251880645751953e-01) (30, -7.32704758644104003906e-01) (0, 5.09137399494647979736e-02) (1, -5.09095191955566406250e-01) (2, -2.31994576752185821533e-02) (3, -6.71634554862976074219e-01) (4, 3.24595719575881958008e-01) (5, 1.14841747283935546875e+00) (6, 3.36554050445556640625e-01) (7, 2.92549043893814086914e-01) (8, 7.97613978385925292969e-01) (9, -1.83485281467437744141e+00) (10, -1.78263142704963684082e-01) (11, -4.88681405782699584961e-01) (12, 2.18417450785636901855e-01) (13, -4.43256825208663940430e-01) (14, 4.70050983130931854248e-02) (15, 8.03755044937133789062e-01) (16, 5.47546625137329101562e-01) (17, 2.34297588467597961426e-01) (18, 4.48716461658477783203e-01) (19, -1.06140327453613281250e+00) (20, 2.25229680538177490234e-01) (21, -4.38044577836990356445e-01) (22, -7.51158118247985839844e-01) (23, -7.74990439414978027344e-01) (24, 1.87185660004615783691e-01) (25, 1.89113721251487731934e-01) (26, -5.55289149284362792969e-01) (27, -5.28564929962158203125e-01) (28, -2.57892191410064697266e-01) (29, -6.59938573837280273438e-01) (30, -2.01988220214843750000e+00) (0, -1.94471573829650878906e+00) (1, -2.11139702796936035156e+00) (2, -7.56499692797660827637e-02) (3, -1.79289713501930236816e-01) (4, 1.41735374927520751953e-03) (5, 9.93683874607086181641e-01) (6, 1.07123982906341552734e+00) (7, 2.56689190864562988281e-01) (8, -3.06180715560913085938e-01) (9, -1.08677171170711517334e-01) (10, -1.47417366504669189453e+00) (11, -1.75260972976684570312e+00) (12, -1.23467795550823211670e-01) (13, -8.27437788248062133789e-02) (14, 5.15948534011840820312e-01) (15, 2.11595222353935241699e-01) (16, 3.21868419647216796875e-01) (17, 1.97297319769859313965e-01) (18, -1.35727196931838989258e-01) (19, -1.30058526992797851562e-01) (20, -4.96019929647445678711e-01) (21, 1.78320884704589843750e-01) (22, 6.79720044136047363281e-01) (23, 3.33605855703353881836e-01) (24, -4.54196095466613769531e-01) (25, 6.72073900699615478516e-01) (26, 1.15110063552856445312e+00) (27, 5.35152733325958251953e-01) (28, 3.14984351396560668945e-01) (29, -4.97468002140522003174e-02) (30, 6.55045747756958007812e-01) (0, -2.35624074935913085938e+00) (1, -1.85777768492698669434e-02) (2, -4.70256358385086059570e-01) (3, -9.45604145526885986328e-02) (4, 1.14196874201297760010e-01) (5, -1.19786493480205535889e-01) (6, 1.57931149005889892578e-01) (7, 1.02302059531211853027e-01) (8, 3.41094098985195159912e-02) (9, 5.69116771221160888672e-02) (10, -1.24800908565521240234e+00) (11, -1.99380114674568176270e-01) (12, -1.59967783838510513306e-03) (13, 2.07309275865554809570e-02) (14, -1.22118694707751274109e-02) (15, -1.83281943202018737793e-01) (16, 4.04655128717422485352e-01) (17, 6.20084404945373535156e-02) (18, 5.54672330617904663086e-02) (19, -8.82884338498115539551e-02) (20, -1.08509588241577148438e+00) (21, 3.86129051446914672852e-01) (22, 6.16919174790382385254e-02) (23, 2.05433279275894165039e-01) (24, 3.82654368877410888672e-02) (25, -6.99754804372787475586e-02) (26, 8.93614292144775390625e-02) (27, 2.95347720384597778320e-01) (28, 1.98045730590820312500e-01) (29, 5.63523918390274047852e-02) (30, 7.35877692699432373047e-01) (0, -7.24318802356719970703e-01) (1, 8.92147302627563476562e-01) (2, -5.65507590770721435547e-01) (3, -6.61052405834197998047e-01) (4, -8.59662115573883056641e-01) (5, -8.99143934249877929688e-01) (6, 4.92956370115280151367e-01) (7, 3.54598283767700195312e-01) (8, 2.91006058454513549805e-01) (9, 4.40130621194839477539e-01) (10, -7.03145623207092285156e-01) (11, 1.62842720746994018555e-01) (12, -1.40058621764183044434e-03) (13, -5.66757917404174804688e-01) (14, -8.06634485721588134766e-01) (15, -2.12501093745231628418e-01) (16, 2.95404106378555297852e-01) (17, 1.40314951539039611816e-01) (18, 1.68155074119567871094e-01) (19, -2.75468498468399047852e-01) (20, -7.31918215751647949219e-02) (21, 6.14502847194671630859e-01) (22, -6.11612260341644287109e-01) (23, -2.34114632010459899902e-01) (24, -1.01251572370529174805e-01) (25, -5.12897789478302001953e-01) (26, 2.40012496709823608398e-01) (27, 4.12587255239486694336e-01) (28, -9.25266593694686889648e-02) (29, 8.23932945728302001953e-01) (30, 1.36151564121246337891e+00) (0, 1.58261001110076904297e+00) (1, 4.31509524583816528320e-01) (2, -4.18097019195556640625e-01) (3, -1.92415416240692138672e+00) (4, 4.83757317066192626953e-01) (5, -6.60859882831573486328e-01) (6, 8.12611818313598632812e-01) (7, 6.50365412235260009766e-01) (8, 1.00310981273651123047e+00) (9, -8.38590711355209350586e-02) (10, 1.13065814971923828125e+00) (11, 1.88817888498306274414e-01) (12, -5.77210962772369384766e-01) (13, -1.01737439632415771484e+00) (14, 3.06983262300491333008e-01) (15, -1.64187595248222351074e-01) (16, 3.89993041753768920898e-02) (17, 1.41258090734481811523e-01) (18, 3.70070099830627441406e-01) (19, -8.04342180490493774414e-02) (20, 5.66602468490600585938e-01) (21, -1.47421509027481079102e-02) (22, -5.35011626780033111572e-02) (23, -8.41490447521209716797e-01) (24, 2.35378146171569824219e-01) (25, -5.71280717849731445312e-01) (26, 8.36084306240081787109e-01) (27, 4.56475049257278442383e-01) (28, 4.33514028787612915039e-01) (29, 1.31642609834671020508e-01) (30, -6.52259171009063720703e-01) (0, 2.21988737583160400391e-01) (1, 1.06579899787902832031e+00) (2, 1.75589367747306823730e-01) (3, -2.47126269340515136719e+00) (4, -3.62163376808166503906e+00) (5, -4.92257386445999145508e-01) (6, 6.80044367909431457520e-02) (7, 7.95471854507923126221e-03) (8, -3.95373135805130004883e-01) (9, 8.30488681793212890625e-01) (10, 9.14566814899444580078e-02) (11, 6.96249723434448242188e-01) (12, -1.48655101656913757324e-01) (13, -1.46533238887786865234e+00) (14, -1.41878306865692138672e+00) (15, -2.40179032087326049805e-01) (16, -2.97558814287185668945e-01) (17, -3.81048977375030517578e-01) (18, 3.02285283803939819336e-01) (19, 8.94187092781066894531e-02) (20, -3.21447104215621948242e-02) (21, 4.45110321044921875000e-01) (22, 4.18799847364425659180e-01) (23, -8.15451622009277343750e-01) (24, -2.29228806495666503906e+00) (25, -5.57337701320648193359e-02) (26, 5.82774877548217773438e-01) (27, 5.34798800945281982422e-01) (28, -4.12975490093231201172e-01) (29, 8.69746088981628417969e-01) (30, 1.74682617187500000000e+00) (0, -1.56554803252220153809e-01) (1, -6.31552040576934814453e-01) (2, 3.79477404057979583740e-02) (3, 9.35550093650817871094e-01) (4, -1.48821547627449035645e-01) (5, -5.60458183288574218750e-01) (6, -5.30383467674255371094e-01) (7, 3.39588046073913574219e-01) (8, -6.19347095489501953125e-01) (9, 1.14914464950561523438e+00) (10, 7.91805207729339599609e-01) (11, -1.04291075840592384338e-02) (12, 1.57104924321174621582e-01) (13, 1.22065091133117675781e+00) (14, 8.97653996944427490234e-01) (15, -8.25985800474882125854e-03) (16, -2.08419188857078552246e-01) (17, 2.85981178283691406250e-01) (18, -1.04783751070499420166e-01) (19, 6.85195982456207275391e-01) (20, -8.56981158256530761719e-01) (21, 4.51604992151260375977e-01) (22, 1.03938436508178710938e+00) (23, 8.92065286636352539062e-01) (24, -1.08209705352783203125e+00) (25, -4.16225045919418334961e-01) (26, 8.48810434341430664062e-01) (27, 1.25908982753753662109e+00) (28, 6.01402997970581054688e-01) (29, 5.44487774372100830078e-01) (30, 1.18455016613006591797e+00) (0, 1.20800435543060302734e+00) (1, 7.35898554325103759766e-01) (2, -6.15043491125106811523e-02) (3, 1.06722772121429443359e+00) (4, 5.75832724571228027344e-01) (5, 6.99820578098297119141e-01) (6, -1.42969226837158203125e+00) (7, -5.48814594745635986328e-01) (8, 6.32006116211414337158e-03) (9, -5.01359164714813232422e-01) (10, 8.06261539459228515625e-01) (11, 6.96465134620666503906e-01) (12, -1.85581326484680175781e-01) (13, 2.72184610366821289062e-01) (14, 6.42829179763793945312e-01) (15, 4.55138325691223144531e-01) (16, -8.21180045604705810547e-01) (17, -1.25427603721618652344e-01) (18, -1.14325713366270065308e-02) (19, 1.94243974983692169189e-02) (20, 3.68612945079803466797e-01) (21, -1.01968526840209960938e-01) (22, -1.38280943036079406738e-01) (23, 4.94388788938522338867e-01) (24, -1.18240885436534881592e-01) (25, 2.44076699018478393555e-01) (26, -7.57304012775421142578e-01) (27, -5.13839244842529296875e-01) (28, -1.11577600240707397461e-01) (29, -6.63257837295532226562e-01) (30, -1.86399745941162109375e+00) (0, -4.13382828235626220703e-01) (1, -1.58053231239318847656e+00) (2, -2.31822311878204345703e-01) (3, -1.68753504753112792969e+00) (4, -3.44008244574069976807e-02) (5, -2.09715768694877624512e-01) (6, 9.32053506374359130859e-01) (7, 7.86158561706542968750e-01) (8, 4.32670325040817260742e-01) (9, -6.03174507617950439453e-01) (10, -5.47534108161926269531e-01) (11, -7.67405629158020019531e-01) (12, 9.58240479230880737305e-02) (13, -6.45090639591217041016e-01) (14, -1.86243176460266113281e-01) (15, 2.02409908175468444824e-01) (16, 5.28908193111419677734e-01) (17, 1.77305415272712707520e-01) (18, 2.84426033496856689453e-01) (19, -5.64893066883087158203e-01) (20, 4.96337600052356719971e-02) (21, -1.07753562927246093750e+00) (22, -5.56781709194183349609e-01) (23, -1.36315369606018066406e+00) (24, 1.97505056858062744141e-01) (25, -4.80550289154052734375e-01) (26, 2.59422659873962402344e-01) (27, 2.28525862097740173340e-01) (28, -1.85048386454582214355e-01) (29, 3.68381850421428680420e-02) (30, 3.37129622697830200195e-01) (0, 1.48617017269134521484e+00) (1, -1.69174060225486755371e-01) (2, -9.64389219880104064941e-02) (3, 9.38286244869232177734e-01) (4, 1.20943281799554824829e-02) (5, -1.64023563265800476074e-02) (6, -7.49125599861145019531e-01) (7, -3.35434116423130035400e-02) (8, -4.89328742027282714844e-01) (9, 6.27800107002258300781e-01) (10, 1.11522066593170166016e+00) (11, 3.27503353357315063477e-01) (12, -6.86850920319557189941e-02) (13, 2.16162949800491333008e-01) (14, 2.72864490747451782227e-01) (15, 1.11369498074054718018e-01) (16, -4.29805666208267211914e-01) (17, -2.43588417768478393555e-01) (18, -3.12321007251739501953e-01) (19, 5.14356791973114013672e-01) (20, 3.95549386739730834961e-01) (21, -7.24911838769912719727e-02) (22, 2.19384387135505676270e-01) (23, 9.68157052993774414062e-01) (24, -2.71747350692749023438e-01) (25, -2.29884415864944458008e-01) (26, -2.55692601203918457031e-01) (27, 3.60883057117462158203e-01) (28, 1.29729479551315307617e-01) (29, 1.71363994479179382324e-01) (30, -1.77893340587615966797e-01) (0, -9.88180637359619140625e-01) (1, -1.39202868938446044922e+00) (2, 2.52424418926239013672e-01) (3, 1.07541775703430175781e+00) (4, 6.96672797203063964844e-01) (5, 1.59119975566864013672e+00) (6, -3.34504723548889160156e-01) (7, -4.55845981836318969727e-01) (8, -4.66421961784362792969e-01) (9, -5.80014705657958984375e-01) (10, -6.79394245147705078125e-01) (11, -7.94688820838928222656e-01) (12, -6.90589249134063720703e-02) (13, 6.66349589824676513672e-01) (14, 1.08630329370498657227e-01) (15, 2.40091398358345031738e-01) (16, -2.77030110359191894531e-01) (17, 1.10667765140533447266e-01) (18, -3.33419442176818847656e-01) (19, 1.50924883782863616943e-02) (20, -4.86658096313476562500e-01) (21, -8.74045550823211669922e-01) (22, 2.14345008134841918945e-01) (23, 1.59784853458404541016e-02) (24, 5.80784797668457031250e-01) (25, 1.22228229045867919922e+00) (26, -2.67763048410415649414e-01) (27, -6.84184968471527099609e-01) (28, -4.16342467069625854492e-01) (29, -6.67049825191497802734e-01) (30, -3.90947669744491577148e-01) (0, 2.24578714370727539062e+00) (1, 9.88556921482086181641e-01) (2, 1.22965805232524871826e-01) (3, -3.93690407276153564453e-01) (4, 1.77105382084846496582e-01) (5, -3.40805053710937500000e-01) (6, 2.87040859460830688477e-01) (7, -1.73041850328445434570e-01) (8, -1.46675512194633483887e-01) (9, -7.98004195094108581543e-02) (10, 1.03078913688659667969e+00) (11, 9.44422423839569091797e-01) (12, 1.41034409403800964355e-01) (13, -4.10518467426300048828e-01) (14, -3.05748432874679565430e-02) (15, -6.87224231660366058350e-03) (16, 1.09115667641162872314e-01) (17, -5.24675892665982246399e-03) (18, 7.33491480350494384766e-02) (19, -8.63922759890556335449e-02) (20, 1.29344379901885986328e+00) (21, -1.64314568042755126953e-01) (22, -7.44332596659660339355e-02) (23, -2.32583403587341308594e-01) (24, 1.07165448367595672607e-01) (25, -4.03931319713592529297e-01) (26, -1.34955393150448799133e-03) (27, -3.20747911930084228516e-01) (28, -5.08129835128784179688e-01) (29, -1.29433378577232360840e-01) (30, -1.11282336711883544922e+00) (0, 4.81695294380187988281e-01) (1, 1.86123931407928466797e+00) (2, -1.04873269796371459961e-01) (3, -2.75687396526336669922e-01) (4, 4.50895488262176513672e-01) (5, -1.21633911132812500000e+00) (6, -9.15312245488166809082e-02) (7, 1.79717913269996643066e-01) (8, 3.96549403667449951172e-02) (9, 4.18782502412796020508e-01) (10, 2.63645261526107788086e-01) (11, 6.96643352508544921875e-01) (12, -2.12348308414220809937e-02) (13, -4.24443185329437255859e-01) (14, 4.27839279174804687500e-01) (15, -5.12971520423889160156e-01) (16, 3.26240733265876770020e-02) (17, -3.05271279066801071167e-02) (18, 7.56062567234039306641e-02) (19, -3.66776883602142333984e-02) (20, 5.21820038557052612305e-02) (21, 1.14911043643951416016e+00) (22, 5.35200051963329315186e-02) (23, 1.84546411037445068359e-01) (24, 7.11781010031700134277e-02) (25, -8.72085034847259521484e-01) (26, -3.52447003126144409180e-01) (27, 1.56483978033065795898e-01) (28, -2.41704449057579040527e-01) (29, 4.55265492200851440430e-01) (30, -3.35876375436782836914e-01) (31, -8.92657637596130371094e-02) (32, -3.02469849586486816406e-01) (33, -4.35681194067001342773e-01) (34, 6.26643657684326171875e-01) (35, -4.68273490667343139648e-01) (36, -3.88006478548049926758e-01) (37, -8.11124891042709350586e-02) (38, 3.38246941566467285156e-01) (39, 1.41707688570022583008e-01) (40, 2.40252017974853515625e-02) (41, 4.65237237513065338135e-02) (42, 8.93561318516731262207e-02) (43, 3.04751366376876831055e-01) (44, -4.87307347357273101807e-02) (45, -2.79604792594909667969e-02) (46, 4.60382997989654541016e-02) (47, 2.18552619218826293945e-01) (48, -3.04866611957550048828e-01) (49, -1.86510644853115081787e-02) (50, -4.73475493490695953369e-02) (51, -4.04290288686752319336e-01) (52, -1.07478350400924682617e-02) (53, -2.33726024627685546875e-01) (54, 1.94774225354194641113e-01) (55, 1.73440337181091308594e-01) (56, -2.44268253445625305176e-01) (57, 1.07938952744007110596e-01) (58, -1.44534967839717864990e-02) (59, 2.41037413477897644043e-01) (60, 6.44331425428390502930e-02) (61, 2.16890621185302734375e+00) (31, 3.96969795227050781250e-01) (32, 4.08785581588745117188e-01) (33, -5.38751065731048583984e-01) (34, -2.95153744518756866455e-02) (35, -2.93009877204895019531e-01) (36, -9.64742064476013183594e-01) (37, -6.98084950447082519531e-01) (38, 5.56910395622253417969e-01) (39, -9.23308610916137695312e-01) (40, 2.96323627233505249023e-01) (41, 8.02815854549407958984e-01) (42, 6.27031847834587097168e-02) (43, -8.21918368339538574219e-01) (44, 2.45489533990621566772e-02) (45, 3.51457804441452026367e-01) (46, -1.99027672410011291504e-01) (47, -4.76307094097137451172e-01) (48, 1.90400704741477966309e-01) (49, -9.22009587287902832031e-01) (50, -1.63682627677917480469e+00) (51, -5.46885609626770019531e-01) (52, 1.22014069557189941406e+00) (53, -5.43503880500793457031e-01) (54, -2.10758119821548461914e-01) (55, 5.55894553661346435547e-01) (56, 4.55757975578308105469e-02) (57, 9.10505056381225585938e-01) (58, -6.45838201045989990234e-01) (59, 1.31402003765106201172e+00) (60, 2.45325520634651184082e-01) (61, -5.38633525371551513672e-01) (31, 3.69963824748992919922e-01) (32, -3.09780925512313842773e-01) (33, 9.22867003828287124634e-03) (34, -7.55049049854278564453e-01) (35, -2.49201972037553787231e-02) (36, -6.51811838150024414062e-01) (37, -1.05415248870849609375e+00) (38, -6.30711495876312255859e-01) (39, 1.25245824456214904785e-01) (40, 8.75876963138580322266e-01) (41, 1.54241657257080078125e+00) (42, -6.61226511001586914062e-01) (43, 5.21190583705902099609e-01) (44, 3.90532314777374267578e-01) (45, -4.30793285369873046875e-01) (46, 2.74879753589630126953e-01) (47, 6.59886837005615234375e-01) (48, 1.25476807355880737305e-01) (49, -1.23017966747283935547e+00) (50, -5.66124022006988525391e-01) (51, 1.08359336853027343750e-01) (52, 3.99692595005035400391e-01) (53, 6.49641871452331542969e-01) (54, -4.80342835187911987305e-01) (55, 7.23250687122344970703e-01) (56, -1.05388879776000976562e+00) (57, 1.75490111112594604492e-01) (58, -8.98481607437133789062e-01) (59, 6.23791158199310302734e-01) (60, 8.97197484970092773438e-01) (61, -2.58864998817443847656e+00) (31, -5.73224008083343505859e-01) (32, -5.33899724483489990234e-01) (33, -5.01897744834423065186e-03) (34, 5.30525386333465576172e-01) (35, 2.54470072686672210693e-02) (36, -1.55455157160758972168e-01) (37, 3.99686470627784729004e-02) (38, 3.92683804035186767578e-01) (39, 2.16472893953323364258e-01) (40, 8.91190618276596069336e-02) (41, -4.25565958023071289062e-01) (42, 4.84168380498886108398e-01) (43, -3.33311289548873901367e-01) (44, -3.62622082233428955078e-01) (45, -2.81352907419204711914e-01) (46, -2.99496036022901535034e-02) (47, -3.89987587928771972656e-01) (48, 2.01607182621955871582e-01) (49, 9.60890531539916992188e-01) (50, 3.26622307300567626953e-01) (51, 4.62637364864349365234e-01) (52, 7.97914981842041015625e-01) (53, -6.74048662185668945312e-01) (54, 3.58522444963455200195e-01) (55, -6.31362795829772949219e-01) (56, -2.01115444302558898926e-01) (57, 7.38508068025112152100e-03) (58, -1.37891784310340881348e-01) (59, -1.13962985575199127197e-01) (60, -6.72297701239585876465e-02) (61, 2.13231396675109863281e+00) (31, -1.43284928798675537109e+00) (32, -1.05098688602447509766e+00) (33, 1.02935886383056640625e+00) (34, -1.37420400977134704590e-01) (35, 4.02789294719696044922e-01) (36, 5.78164875507354736328e-01) (37, -2.48232260346412658691e-01) (38, -2.65148311853408813477e-01) (39, -1.29756748676300048828e-01) (40, 9.28831994533538818359e-01) (41, -1.77616909146308898926e-01) (42, 3.46351414918899536133e-01) (43, -4.77981179952621459961e-01) (44, -6.94751799106597900391e-01) (45, -2.91858047246932983398e-01) (46, -1.23823657631874084473e-01) (47, 9.40146744251251220703e-01) (48, 4.95063960552215576172e-02) (49, 2.54455506801605224609e-01) (50, -5.42871132493019104004e-02) (51, 1.20882824063301086426e-01) (52, 1.40622246265411376953e+00) (53, 3.79483252763748168945e-01) (54, -2.85321414470672607422e-01) (55, -3.17712873220443725586e-01) (56, 5.63658952713012695312e-01) (57, -3.32730591297149658203e-01) (58, -4.00083541870117187500e-01) (59, 2.11690887808799743652e-01) (60, 3.95569264888763427734e-01) (61, 2.25054407119750976562e+00) (31, 9.43885982036590576172e-01) (32, 1.88759863376617431641e-02) (33, -7.21586883068084716797e-01) (34, 5.87539494037628173828e-01) (35, -2.35697197914123535156e+00) (36, -4.13003340363502502441e-02) (37, 2.59427666664123535156e-01) (38, 3.41166257858276367188e-01) (39, -4.44699317216873168945e-01) (40, -1.55454993247985839844e-01) (41, -3.38586598634719848633e-01) (42, -1.83834880590438842773e-01) (43, 5.75517416000366210938e-01) (44, 2.00825318694114685059e-01) (45, 1.72134619206190109253e-02) (46, 1.89933881163597106934e-01) (47, -3.17906469106674194336e-01) (48, 3.03779300302267074585e-02) (49, -8.68506208062171936035e-02) (50, 8.45221802592277526855e-02) (51, -3.03904771804809570312e-01) (52, -4.19171974062919616699e-02) (53, -2.20691180229187011719e+00) (54, 1.48758947849273681641e-01) (55, 3.78359526395797729492e-01) (56, -2.07878112792968750000e-01) (57, 4.01739813387393951416e-02) (58, 3.43616187572479248047e-01) (59, 2.80026614665985107422e-01) (60, 4.45789873600006103516e-01) (61, 1.16089582443237304688e-01) (31, -9.02125388383865356445e-02) (32, 1.14000356197357177734e+00) (33, -3.43082785606384277344e-01) (34, -1.58156648278236389160e-01) (35, -1.39721250534057617188e+00) (36, -1.11990898847579956055e-01) (37, -7.04068660736083984375e-01) (38, -1.93555682897567749023e-01) (39, 8.36519062519073486328e-01) (40, -5.62358975410461425781e-01) (41, 5.41297435760498046875e-01) (42, 1.45624876022338867188e-01) (43, -2.58342642337083816528e-02) (44, -1.15291380882263183594e+00) (45, 4.57486182451248168945e-01) (46, 6.07506707310676574707e-02) (47, 1.48941850662231445312e+00) (48, 3.17758351564407348633e-01) (49, 6.90358638763427734375e-01) (50, -3.14679056406021118164e-01) (51, -6.97066187858581542969e-01) (52, -4.13184821605682373047e-01) (53, -1.99351119995117187500e+00) (54, -1.11479736864566802979e-01) (55, 9.14584279060363769531e-01) (56, -2.22782596945762634277e-01) (57, 4.19768899679183959961e-01) (58, 7.71573364734649658203e-01) (59, -3.65875810384750366211e-01) (60, -9.36905384063720703125e-01) (61, -1.82560992240905761719e+00) (31, -4.45506721735000610352e-01) (32, -4.61065858602523803711e-01) (33, 5.01253008842468261719e-01) (34, -7.66397178173065185547e-01) (35, -2.51318633556365966797e-01) (36, -4.40341949462890625000e-01) (37, -1.02593111991882324219e+00) (38, -3.72356511652469635010e-02) (39, -3.78146499395370483398e-01) (40, -8.29172953963279724121e-02) (41, 1.24707855284214019775e-01) (42, -2.70938247442245483398e-01) (43, 6.48014992475509643555e-02) (44, -8.21967601776123046875e-01) (45, -1.79006278514862060547e-01) (46, 2.16514617204666137695e-01) (47, 4.17752444744110107422e-01) (48, 5.40221571922302246094e-01) (49, 6.16955578327178955078e-01) (50, -3.01286578178405761719e-01) (51, -3.57610225677490234375e-01) (52, 7.30076193809509277344e-01) (53, -1.25722503662109375000e+00) (54, -3.17614853382110595703e-01) (55, -3.42378526926040649414e-01) (56, 4.06076908111572265625e-01) (57, -5.39180696010589599609e-01) (58, 3.88347744941711425781e-01) (59, 6.70675575733184814453e-01) (60, -2.99231082201004028320e-01) (61, -2.22678756713867187500e+00) (31, -3.25527697801589965820e-01) (32, 3.06912273168563842773e-01) (33, 5.14313519001007080078e-01) (34, -6.74763023853302001953e-01) (35, -2.34324276447296142578e-01) (36, -3.79143655300140380859e-02) (37, -3.87269049882888793945e-01) (38, 1.80378332734107971191e-02) (39, 5.05448043346405029297e-01) (40, -7.71476775407791137695e-02) (41, -1.19002796709537506104e-01) (42, 2.15381309390068054199e-01) (43, 6.18419885635375976562e-01) (44, -6.11982285976409912109e-01) (45, -1.83080494403839111328e-01) (46, 3.52600067853927612305e-01) (47, 2.93700158596038818359e-01) (48, 6.55283987522125244141e-01) (49, 7.16681599617004394531e-01) (50, 3.19742500782012939453e-01) (51, 2.40093603730201721191e-01) (52, 1.16023436188697814941e-01) (53, -4.00513738393783569336e-01) (54, 2.27626506239175796509e-02) (55, -1.01794496178627014160e-01) (56, 4.52623307704925537109e-01) (57, -4.33294981718063354492e-01) (58, 2.88793683052062988281e-01) (59, -4.22518134117126464844e-01) (60, -2.32607752084732055664e-01) (61, -2.37479424476623535156e+00) (31, -2.82200336456298828125e-01) (32, 2.31072023510932922363e-01) (33, 6.38816058635711669922e-01) (34, -5.32668411731719970703e-01) (35, -2.56201922893524169922e-01) (36, 3.49259734153747558594e-01) (37, -6.11076094210147857666e-02) (38, 1.62126049399375915527e-01) (39, -6.42770305275917053223e-02) (40, -1.34201273322105407715e-01) (41, -1.85610637068748474121e-01) (42, 2.23498284816741943359e-01) (43, 3.96552622318267822266e-01) (44, -6.03450179100036621094e-01) (45, 3.36555466055870056152e-02) (46, 1.11264042556285858154e-01) (47, 2.06580460071563720703e-01) (48, 6.38248264789581298828e-01) (49, 5.41173040866851806641e-01) (50, 1.46593734622001647949e-01) (51, -1.28200843930244445801e-01) (52, 3.84103357791900634766e-01) (53, -4.46920156478881835938e-01) (54, -2.41771712899208068848e-01) (55, -4.18304987251758575439e-02) (56, 3.53226602077484130859e-01) (57, -4.23616796731948852539e-01) (58, 1.92919775843620300293e-01) (59, -3.33420991897583007812e-01) (60, -3.06377321481704711914e-01) (61, -2.06281232833862304688e+00) (31, 3.29040735960006713867e-01) (32, 2.17598989605903625488e-01) (33, 2.75585532188415527344e-01) (34, -7.12177336215972900391e-01) (35, -2.50644516199827194214e-02) (36, -2.91707426309585571289e-01) (37, -7.07683116197586059570e-02) (38, -4.37949210405349731445e-01) (39, -6.26725256443023681641e-01) (40, -4.34909835457801818848e-02) (41, -1.02983206510543823242e-01) (42, -6.01397216320037841797e-01) (43, 5.10137677192687988281e-01) (44, -2.73306310176849365234e-01) (45, -3.55238109827041625977e-01) (46, -2.53344297409057617188e-01) (47, -1.52831554412841796875e-01) (48, -6.14759564399719238281e-01) (49, 3.21483552455902099609e-01) (50, -1.07521079480648040771e-02) (51, -5.82344472408294677734e-01) (52, 1.32054969668388366699e-01) (53, -4.93700094521045684814e-02) (54, 1.75203168392181396484e+00) (55, 5.58769583702087402344e-01) (56, -2.58673071861267089844e-01) (57, 7.59470462799072265625e-01) (58, -1.86540827155113220215e-01) (59, -8.94101336598396301270e-02) (60, 2.59480535984039306641e-01) (61, 1.85104124248027801514e-02) (31, 5.71132659912109375000e-01) (32, 5.34168004989624023438e-01) (33, 1.54112070798873901367e-01) (34, -6.76726698875427246094e-01) (35, 2.45903566479682922363e-01) (36, -6.22055053710937500000e-01) (37, -4.93555366992950439453e-01) (38, -1.57793417572975158691e-01) (39, -1.16188383102416992188e+00) (40, 1.10945574939250946045e-01) (41, 2.12040856480598449707e-01) (42, -2.88111329078674316406e-01) (43, -4.46724563837051391602e-01) (44, -1.06779590249061584473e-01) (45, -2.46591418981552124023e-02) (46, -2.17892885208129882812e-01) (47, -2.70826429128646850586e-01) (48, -3.28955292701721191406e-01) (49, -6.26854181289672851562e-01) (50, -1.10205650329589843750e+00) (51, -5.99794983863830566406e-01) (52, 9.97461199760437011719e-01) (53, -2.82803744077682495117e-01) (54, 1.01625978946685791016e+00) (55, 7.07871556282043457031e-01) (56, -2.67281770706176757812e-01) (57, 6.94470822811126708984e-01) (58, -5.82457005977630615234e-01) (59, 6.70648694038391113281e-01) (60, 3.33920180797576904297e-01) (61, -1.69581460952758789062e+00) (31, 2.58775442838668823242e-01) (32, 5.59103846549987792969e-01) (33, 1.88697248697280883789e-01) (34, -5.46520352363586425781e-01) (35, 9.06807035207748413086e-02) (36, -2.04057618975639343262e-01) (37, -8.40564727783203125000e-01) (38, -8.60700547695159912109e-01) (39, -2.76985615491867065430e-01) (40, 4.85370814800262451172e-01) (41, 5.73079943656921386719e-01) (42, -7.05189883708953857422e-01) (43, 5.88337242603302001953e-01) (44, 3.25258582830429077148e-01) (45, -4.93912845849990844727e-01) (46, 1.49774640798568725586e-01) (47, 5.20224153995513916016e-01) (48, -1.04634813964366912842e-01) (49, -1.15649163722991943359e+00) (50, -4.74205464124679565430e-01) (51, -4.08767640590667724609e-01) (52, 3.04402709007263183594e-01) (53, -4.91662323474884033203e-02) (54, 1.31925135850906372070e-01) (55, 1.24137806892395019531e+00) (56, -1.85461044311523437500e-01) (57, 4.55394387245178222656e-01) (58, -3.18535715341567993164e-01) (59, 3.49530905485153198242e-01) (60, 4.29229140281677246094e-01) (61, -2.34099221229553222656e+00) (31, 1.92779168486595153809e-01) (32, 2.20920965075492858887e-01) (33, 2.54334896802902221680e-01) (34, -6.91341280937194824219e-01) (35, 4.02308888733386993408e-02) (36, -6.16597048938274383545e-02) (37, 8.84871482849121093750e-02) (38, -4.68933254480361938477e-01) (39, -6.95167720317840576172e-01) (40, -9.29598957300186157227e-02) (41, -3.25201809406280517578e-01) (42, -3.69937449693679809570e-01) (43, 2.27346494793891906738e-01) (44, -1.90008625388145446777e-01) (45, -3.26781451702117919922e-01) (46, -3.17705780267715454102e-01) (47, -1.73092186450958251953e-01) (48, -6.47130548954010009766e-01) (49, 5.11880874633789062500e-01) (50, 1.65975332260131835938e-01) (51, -3.49064558744430541992e-01) (52, 1.00594125688076019287e-01) (53, -8.10598358511924743652e-02) (54, 1.57826423645019531250e+00) (55, 8.72005894780158996582e-02) (56, -3.43093961477279663086e-01) (57, 5.23755729198455810547e-01) (58, -2.43964657187461853027e-01) (59, -2.57768809795379638672e-01) (60, 3.25359612703323364258e-01) (61, -1.05959542095661163330e-01) (31, -2.84450739622116088867e-01) (32, -3.73975187540054321289e-01) (33, 1.09529471397399902344e+00) (34, -1.24175000190734863281e+00) (35, 3.15728992223739624023e-01) (36, 5.76449155807495117188e-01) (37, 1.63276106119155883789e-01) (38, -8.86843681335449218750e-01) (39, -7.58526802062988281250e-01) (40, 6.07923686504364013672e-01) (41, -3.47065985202789306641e-01) (42, -6.87137916684150695801e-02) (43, -2.42561161518096923828e-01) (44, -4.89910542964935302734e-01) (45, -7.30433821678161621094e-01) (46, -2.50364482402801513672e-01) (47, 3.54751229286193847656e-01) (48, -4.26287382841110229492e-01) (49, 9.52050983905792236328e-01) (50, 1.68527841567993164062e-01) (51, 6.78942278027534484863e-02) (52, 9.94369089603424072266e-01) (53, 2.14628860354423522949e-01) (54, 1.25668311119079589844e+00) (55, -5.37769198417663574219e-02) (56, -1.33000761270523071289e-01) (57, 4.12989884614944458008e-01) (58, -6.44190669059753417969e-01) (59, -1.21661156415939331055e-01) (60, 4.23204123973846435547e-01) (61, -3.78917813301086425781e-01) (31, 8.48915100097656250000e-01) (32, 3.74995887279510498047e-01) (33, -2.94397294521331787109e-01) (34, -6.49335265159606933594e-01) (35, -1.53053832054138183594e+00) (36, 1.08749359846115112305e-01) (37, 3.10461848974227905273e-01) (38, -4.34204190969467163086e-01) (39, -5.84557890892028808594e-01) (40, -2.73852705955505371094e-01) (41, -1.07581622898578643799e-01) (42, -4.36990857124328613281e-01) (43, 7.49429106712341308594e-01) (44, 3.13923478126525878906e-01) (45, -3.37675333023071289062e-01) (46, -2.79402844607830047607e-02) (47, -2.62684643268585205078e-01) (48, -1.61841288208961486816e-02) (49, 3.01497071981430053711e-01) (50, 3.77749323844909667969e-01) (51, -2.67490595579147338867e-01) (52, -4.11434352397918701172e-01) (53, -1.31649661064147949219e+00) (54, 1.21865272521972656250e+00) (55, 5.35970270633697509766e-01) (56, -2.13677793741226196289e-01) (57, 5.27619898319244384766e-01) (58, 1.26628518104553222656e-01) (59, -1.92484736442565917969e-01) (60, 4.85132247209548950195e-01) (61, -1.40694820880889892578e+00) (31, -1.95703059434890747070e-01) (32, 1.21847748756408691406e+00) (33, 2.81944960355758666992e-01) (34, -6.55473947525024414062e-01) (35, -5.28028428554534912109e-01) (36, -1.10781051218509674072e-01) (37, -5.86718857288360595703e-01) (38, -5.73655128479003906250e-01) (39, 3.68248403072357177734e-01) (40, -3.40657830238342285156e-01) (41, -2.84366030246019363403e-02) (42, -1.42498984932899475098e-01) (43, 7.52793475985527038574e-02) (44, -6.63031101226806640625e-01) (45, 3.78461241722106933594e-01) (46, 6.79771751165390014648e-02) (47, 7.06650674343109130859e-01) (48, 2.46872842311859130859e-01) (49, -7.68741965293884277344e-03) (50, -5.07702589035034179688e-01) (51, -5.25871634483337402344e-01) (52, -4.75515753030776977539e-01) (53, -7.11717844009399414062e-01) (54, 5.59668838977813720703e-01) (55, 9.51449871063232421875e-01) (56, -2.92521715164184570312e-01) (57, 5.33193767070770263672e-01) (58, 2.32432171702384948730e-01) (59, -2.28886127471923828125e-01) (60, -3.14718812704086303711e-01) (61, -2.20607328414916992188e+00) (31, -3.41385304927825927734e-01) (32, 3.41476231813430786133e-01) (33, 9.81420338153839111328e-01) (34, -8.29181849956512451172e-01) (35, -6.20418041944503784180e-02) (36, 4.29070405662059783936e-02) (37, -4.14794683456420898438e-01) (38, -2.40319117903709411621e-01) (39, -2.74713426828384399414e-01) (40, 1.67273342609405517578e-01) (41, 1.01421095430850982666e-01) (42, -1.41237944364547729492e-01) (43, 8.12612995505332946777e-02) (44, -8.05773735046386718750e-01) (45, -2.91232198476791381836e-01) (46, 3.19771409034729003906e-01) (47, 4.95743565261363983154e-02) (48, 4.16317224502563476562e-01) (49, 5.60396313667297363281e-01) (50, -1.23009406030178070068e-01) (51, -3.38033623993396759033e-02) (52, 4.87390905618667602539e-01) (53, -1.45334765315055847168e-01) (54, -1.44382432103157043457e-01) (55, 1.34113542735576629639e-02) (56, 3.72847497463226318359e-01) (57, -3.46592932939529418945e-01) (58, -7.69502744078636169434e-02) (59, 3.67208644747734069824e-02) (60, 1.01378530263900756836e-01) (61, -2.15096735954284667969e+00) (31, -3.29457938671112060547e-01) (32, 5.79103529453277587891e-01) (33, 6.37899160385131835938e-01) (34, -6.85251951217651367188e-01) (35, -8.04721042513847351074e-02) (36, 1.02316707372665405273e-01) (37, -2.52941280603408813477e-01) (38, -3.56111973524093627930e-01) (39, 5.03702647984027862549e-03) (40, -1.25462664291262626648e-02) (41, -2.73878104053437709808e-03) (42, 1.60294938832521438599e-02) (43, 3.30260872840881347656e-01) (44, -3.38299602270126342773e-01) (45, 7.97800160944461822510e-03) (46, 4.59510907530784606934e-02) (47, 8.62732306122779846191e-02) (48, 4.82305079698562622070e-01) (49, 3.65313470363616943359e-01) (50, 3.42283427715301513672e-01) (51, 1.14606335759162902832e-01) (52, 5.01964837312698364258e-02) (53, 9.33258086442947387695e-02) (54, -5.93981146812438964844e-03) (55, -7.33302161097526550293e-02) (56, 2.33694508671760559082e-01) (57, -2.38415941596031188965e-01) (58, 9.98178049921989440918e-02) (59, -2.58370757102966308594e-01) (60, -1.77270710468292236328e-01) (61, -2.24244379997253417969e+00) (31, -1.08163245022296905518e-01) (32, 5.77450692653656005859e-01) (33, 5.40892541408538818359e-01) (34, -6.37962102890014648438e-01) (35, 9.39891785383224487305e-02) (36, 1.50207728147506713867e-01) (37, -1.42112165689468383789e-01) (38, -3.39413136243820190430e-01) (39, -2.43464052677154541016e-01) (40, 8.56630578637123107910e-02) (41, -6.19912110269069671631e-02) (42, -1.12068861722946166992e-01) (43, 1.90833568572998046875e-01) (44, -4.01560634374618530273e-01) (45, -4.85759340226650238037e-02) (46, -2.87549272179603576660e-02) (47, 5.50226233899593353271e-02) (48, 4.40147608518600463867e-01) (49, 1.61252751946449279785e-01) (50, 3.42566817998886108398e-02) (51, 3.21277193725109100342e-02) (52, 1.78963750600814819336e-01) (53, -6.23011030256748199463e-03) (54, -1.59896910190582275391e-01) (55, -8.70855078101158142090e-02) (56, 1.25270262360572814941e-01) (57, -1.07842177152633666992e-01) (58, 6.92276563495397567749e-03) (59, -2.42747873067855834961e-01) (60, -4.79878559708595275879e-02) (61, -2.27229404449462890625e+00) (31, -9.50231328606605529785e-02) (32, -5.55863864719867706299e-02) (33, -3.69092553853988647461e-01) (34, 7.86219477653503417969e-01) (35, -4.03645038604736328125e-01) (36, -1.35552465915679931641e-01) (37, -6.76115900278091430664e-02) (38, 6.03836238384246826172e-01) (39, 6.52923882007598876953e-01) (40, 1.03501208126544952393e-01) (41, 2.33353078365325927734e-01) (42, 4.38978254795074462891e-01) (43, -1.50067359209060668945e-03) (44, 1.81041583418846130371e-01) (45, 2.74004667997360229492e-01) (46, 2.13968098163604736328e-01) (47, 3.14398288726806640625e-01) (48, 7.68110215663909912109e-01) (49, -3.10042798519134521484e-01) (50, 4.52067144215106964111e-02) (51, 1.28903299570083618164e-01) (52, 1.29786469042301177979e-02) (53, -3.20055007934570312500e-01) (54, -1.57236552238464355469e+00) (55, -3.67043703794479370117e-01) (56, -4.02980409562587738037e-02) (57, -5.35473048686981201172e-01) (58, 2.54703730344772338867e-01) (59, 2.25886717438697814941e-01) (60, -1.25121787190437316895e-01) (61, -5.57867705821990966797e-01) (31, -8.95444750785827636719e-02) (32, 1.74915343523025512695e-01) (33, -1.64620116353034973145e-01) (34, -3.36445182561874389648e-01) (35, 9.15173590183258056641e-02) (36, -2.71833479404449462891e-01) (37, -3.42407822608947753906e-01) (38, 4.04802888631820678711e-01) (39, -1.29931718111038208008e-02) (40, 2.79312372207641601562e-01) (41, 9.12301063537597656250e-01) (42, 2.45871275663375854492e-01) (43, -9.69836890697479248047e-01) (44, 2.22727209329605102539e-02) (45, 4.49759155511856079102e-01) (46, 1.85654327273368835449e-01) (47, 1.24479733407497406006e-01) (48, 8.70150089263916015625e-01) (49, -7.19719588756561279297e-01) (50, -1.01586997509002685547e+00) (51, 1.61494717001914978027e-01) (52, 8.13107550144195556641e-01) (53, 1.28045260906219482422e-01) (54, -1.31825828552246093750e+00) (55, -6.82537853717803955078e-02) (56, 7.69205093383789062500e-01) (57, 2.87935703992843627930e-01) (58, -6.06446504592895507812e-01) (59, 1.10210657119750976562e+00) (60, -2.61590592563152313232e-02) (61, -1.79380929470062255859e+00) (31, 1.88574537634849548340e-01) (32, -4.22905921936035156250e-01) (33, 2.31160923838615417480e-01) (34, -9.54804778099060058594e-01) (35, -7.11642727255821228027e-02) (36, -3.16366910934448242188e-01) (37, -3.91252934932708740234e-01) (38, -1.95660740137100219727e-01) (39, 1.46196961402893066406e-01) (40, 4.51082557439804077148e-01) (41, 1.52374744415283203125e+00) (42, -1.68946355581283569336e-01) (43, 2.18296889215707778931e-02) (44, 2.69650727510452270508e-01) (45, -3.31666804850101470947e-02) (46, 3.21074575185775756836e-01) (47, 5.23274123668670654297e-01) (48, 5.13398051261901855469e-01) (49, -6.81455910205841064453e-01) (50, -2.75637388229370117188e-01) (51, 5.26697933673858642578e-01) (52, 1.77362859249114990234e-01) (53, 6.17211461067199707031e-01) (54, -8.85610342025756835938e-01) (55, 2.67643928527832031250e-01) (56, -7.25480914115905761719e-01) (57, -2.66157060861587524414e-01) (58, -4.14585649967193603516e-01) (59, 5.06862163543701171875e-01) (60, 3.77356529235839843750e-01) (61, -2.96551036834716796875e+00) (31, -2.89482533931732177734e-01) (32, -1.94085344672203063965e-01) (33, -3.35196048021316528320e-01) (34, 5.97444832324981689453e-01) (35, 1.24388962984085083008e-01) (36, 4.61274906992912292480e-02) (37, 2.44079455733299255371e-01) (38, 6.00249946117401123047e-01) (39, 4.64426308870315551758e-01) (40, -6.41825273633003234863e-02) (41, 5.04838824272155761719e-02) (42, 5.13042032718658447266e-01) (43, -6.26527130603790283203e-01) (44, 1.42250001430511474609e-01) (45, 6.36013448238372802734e-01) (46, 1.27940654754638671875e-01) (47, -2.47804239392280578613e-01) (48, 8.33376765251159667969e-01) (49, -6.11755773425102233887e-02) (50, 3.77515591681003570557e-02) (51, 5.65690279006958007812e-01) (52, 1.59368351101875305176e-01) (53, -2.95060664415359497070e-01) (54, -1.46525311470031738281e+00) (55, -3.56688231229782104492e-01) (56, 3.18291008472442626953e-01) (57, -5.99200665950775146484e-01) (58, 3.18274348974227905273e-02) (59, 1.96972802281379699707e-01) (60, -2.20892056822776794434e-01) (61, -2.90449529886245727539e-01) (31, -1.14716637134552001953e+00) (32, -1.41269654035568237305e-01) (33, 3.26733678579330444336e-01) (34, 1.45808801054954528809e-01) (35, 8.49756039679050445557e-03) (36, 3.63082736730575561523e-01) (37, -3.41247200965881347656e-01) (38, 8.47459677606821060181e-03) (39, 2.77729451656341552734e-01) (40, 5.79712152481079101562e-01) (41, 7.26772546768188476562e-01) (42, 3.07000339031219482422e-01) (43, -3.02374482154846191406e-01) (44, -2.56300866603851318359e-01) (45, 2.74573922157287597656e-01) (46, 1.34444117546081542969e-01) (47, 7.54861295223236083984e-01) (48, 9.35789704322814941406e-01) (49, -6.32496476173400878906e-01) (50, -2.30949416756629943848e-01) (51, 1.57531410455703735352e-01) (52, 8.09151589870452880859e-01) (53, 2.71409541368484497070e-01) (54, -1.89441752433776855469e+00) (55, -9.94961187243461608887e-02) (56, 8.62977087497711181641e-01) (57, -6.40212535858154296875e-01) (58, -1.62335842847824096680e-01) (59, 2.26913407444953918457e-01) (60, 1.00381314754486083984e-01) (61, -5.85264861583709716797e-01) (31, 4.86976325511932373047e-01) (32, 4.97301928699016571045e-02) (33, -2.64807224273681640625e-01) (34, 3.28008711338043212891e-01) (35, -1.40557646751403808594e+00) (36, 4.46718409657478332520e-02) (37, 2.75880098342895507812e-01) (38, 6.67895495891571044922e-01) (39, -4.84338263049721717834e-03) (40, -2.58986562490463256836e-01) (41, -5.52555127069354057312e-03) (42, 5.74077010154724121094e-01) (43, -3.24264168739318847656e-01) (44, 9.44838821887969970703e-02) (45, 5.65664410591125488281e-01) (46, 4.13838654756546020508e-01) (47, -6.37401565909385681152e-02) (48, 8.10388207435607910156e-01) (49, -4.50432419776916503906e-01) (50, 4.28528875112533569336e-01) (51, 5.52725315093994140625e-01) (52, 3.62317543476819992065e-04) (53, -1.35204076766967773438e+00) (54, -1.59889960289001464844e+00) (55, -8.13822269439697265625e-01) (56, 6.03440105915069580078e-01) (57, -8.15598905086517333984e-01) (58, 3.57192277908325195312e-01) (59, 5.66273450851440429688e-01) (60, 1.74048673361539840698e-02) (61, -1.74523615837097167969e+00) (31, 1.67558848857879638672e-01) (32, 5.93235254287719726562e-01) (33, -6.66105002164840698242e-02) (34, -5.99786460399627685547e-01) (35, -9.11943495273590087891e-01) (36, 6.67763799428939819336e-02) (37, -3.35905849933624267578e-01) (38, 2.19783127307891845703e-01) (39, 5.58435380458831787109e-01) (40, -2.92491316795349121094e-01) (41, 1.17231273651123046875e+00) (42, 1.56650185585021972656e-01) (43, -1.71154305338859558105e-01) (44, -3.27756702899932861328e-01) (45, 4.72168922424316406250e-01) (46, 2.66926974058151245117e-01) (47, 1.34372615814208984375e+00) (48, 7.81529486179351806641e-01) (49, -1.52452379465103149414e-01) (50, -1.09792903065681457520e-01) (51, -2.71254509687423706055e-01) (52, 2.46675387024879455566e-02) (53, -1.05829203128814697266e+00) (54, -1.39184379577636718750e+00) (55, 3.11291694641113281250e-01) (56, 4.74908441305160522461e-01) (57, -2.10148334503173828125e-01) (58, 7.20488369464874267578e-01) (59, 1.96522340178489685059e-01) (60, -6.72993600368499755859e-01) (61, -2.68155384063720703125e+00) (31, -2.40556269884109497070e-01) (32, -4.04888361692428588867e-01) (33, 1.18855334818363189697e-01) (34, -7.66536951065063476562e-01) (35, -2.51916736364364624023e-01) (36, -2.29718074202537536621e-01) (37, -5.97580492496490478516e-01) (38, 6.06106333434581756592e-02) (39, -3.21518272161483764648e-01) (40, -2.20720365643501281738e-01) (41, 3.77151668071746826172e-01) (42, -1.69709771871566772461e-01) (43, -1.88145920634269714355e-01) (44, -3.66316169500350952148e-01) (45, 8.41298624873161315918e-02) (46, 1.21859572827816009521e-01) (47, 3.43399405479431152344e-01) (48, 6.16191864013671875000e-01) (49, 3.03137183189392089844e-01) (50, -2.87835121154785156250e-01) (51, -2.47998517006635665894e-02) (52, 6.73673510551452636719e-01) (53, -7.41817235946655273438e-01) (54, -6.43660664558410644531e-01) (55, -3.07271033525466918945e-01) (56, 6.77128553390502929688e-01) (57, -6.36181712150573730469e-01) (58, 5.98103940486907958984e-01) (59, 4.69964474439620971680e-01) (60, -4.12048786878585815430e-01) (61, -2.73391628265380859375e+00) (31, -4.88171353936195373535e-02) (32, -1.83612573891878128052e-02) (33, 2.42307469248771667480e-01) (34, -5.41803181171417236328e-01) (35, 7.66779407858848571777e-02) (36, 1.47479116916656494141e-01) (37, -1.77268646657466888428e-02) (38, 7.74896591901779174805e-02) (39, 1.44443973898887634277e-01) (40, 7.35991671681404113770e-02) (41, -1.47092193365097045898e-01) (42, -2.29168254882097244263e-02) (43, 1.51089355349540710449e-01) (44, -2.62465417385101318359e-01) (45, -3.21800351142883300781e-01) (46, 9.65443104505538940430e-02) (47, 1.13208785653114318848e-01) (48, 6.21435821056365966797e-01) (49, 4.01095181703567504883e-01) (50, 1.87269747257232666016e-01) (51, 3.80100131034851074219e-01) (52, 3.78425389528274536133e-01) (53, -2.61284112930297851562e-01) (54, -3.02020102739334106445e-01) (55, -9.41732898354530334473e-02) (56, 5.90413928031921386719e-01) (57, -4.64475363492965698242e-01) (58, 1.35938778519630432129e-01) (59, -9.01850312948226928711e-02) (60, -4.52978275716304779053e-02) (61, -2.57799100875854492188e+00) (31, 5.92041239142417907715e-02) (32, 1.39480810612440109253e-02) (33, 3.75872999429702758789e-01) (34, -5.08141160011291503906e-01) (35, -1.60107955336570739746e-01) (36, 1.65139824151992797852e-01) (37, -1.65189251303672790527e-01) (38, 9.57803279161453247070e-02) (39, -1.16116859018802642822e-01) (40, -1.10351592302322387695e-02) (41, -1.90969526767730712891e-01) (42, 5.26938699185848236084e-02) (43, -2.21504829823970794678e-02) (44, -2.76381999254226684570e-01) (45, -5.82336634397506713867e-02) (46, 6.18510507047176361084e-02) (47, 7.58491307497024536133e-02) (48, 4.62300091981887817383e-01) (49, 2.24382311105728149414e-01) (50, 3.02839111536741256714e-02) (51, 1.32052242755889892578e-01) (52, 2.77364611625671386719e-01) (53, -1.99765369296073913574e-01) (54, -4.39070552587509155273e-01) (55, -1.45517647266387939453e-01) (56, 3.76988083124160766602e-01) (57, -3.72060209512710571289e-01) (58, 1.95966958999633789062e-01) (59, -1.88933610916137695312e-01) (60, -1.82818733155727386475e-02) (61, -2.60306239128112792969e+00) 
