FANN_FLO_2.1
num_layers=3
learning_rate=0.697986
connection_rate=1.000000
network_type=0
learning_momentum=0.000000
training_algorithm=0
train_error_function=1
train_stop_function=0
cascade_output_change_fraction=0.010000
quickprop_decay=-0.000100
quickprop_mu=1.750000
rprop_increase_factor=1.200000
rprop_decrease_factor=0.500000
rprop_delta_min=0.000000
rprop_delta_max=50.000000
rprop_delta_zero=0.100000
cascade_output_stagnation_epochs=12
cascade_candidate_change_fraction=0.010000
cascade_candidate_stagnation_epochs=12
cascade_max_out_epochs=150
cascade_min_out_epochs=50
cascade_max_cand_epochs=150
cascade_min_cand_epochs=50
cascade_num_candidate_groups=2
bit_fail_limit=3.49999994039535522461e-01
cascade_candidate_limit=1.00000000000000000000e+03
cascade_weight_multiplier=4.00000005960464477539e-01
cascade_activation_functions_count=10
cascade_activation_functions=3 5 7 8 10 11 14 15 16 17 
cascade_activation_steepnesses_count=38
cascade_activation_steepnesses=0.00000000000000000000e+00 0.00000000000000000000e+00 0.00000000000000000000e+00 1.00000000000000000000e+01 6.08300000000000000000e+03 6.08400000000000000000e+03 6.08500000000000000000e+03 6.08600000000000000000e+03 6.08700000000000000000e+03 6.08800000000000000000e+03 6.08900000000000000000e+03 6.09000000000000000000e+03 6.09100000000000000000e+03 6.09200000000000000000e+03 0.00000000000000000000e+00 0.00000000000000000000e+00 2.00000000000000000000e+01 1.07629100000000000000e+06 1.07629200000000000000e+06 1.07629300000000000000e+06 1.07629400000000000000e+06 1.07629500000000000000e+06 1.07629600000000000000e+06 1.07629700000000000000e+06 1.07629800000000000000e+06 1.07629900000000000000e+06 1.07630000000000000000e+06 1.07667500000000000000e+06 1.07667600000000000000e+06 1.07667700000000000000e+06 1.07667800000000000000e+06 1.07667900000000000000e+06 1.07668000000000000000e+06 1.07668100000000000000e+06 1.07668200000000000000e+06 1.07668300000000000000e+06 1.07668400000000000000e+06 0.00000000000000000000e+00 
layer_sizes=31 31 31 
scale_included=0
neurons (num_inputs, activation_function, activation_steepness)=(0, 0, 0.00000000000000000000e+00) (0, 0, 0.00000000000000000000e+00) (0, 0, 0.00000000000000000000e+00) (0, 0, 0.00000000000000000000e+00) (0, 0, 0.00000000000000000000e+00) (0, 0, 0.00000000000000000000e+00) (0, 0, 0.00000000000000000000e+00) (0, 0, 0.00000000000000000000e+00) (0, 0, 0.00000000000000000000e+00) (0, 0, 0.00000000000000000000e+00) (0, 0, 0.00000000000000000000e+00) (0, 0, 0.00000000000000000000e+00) (0, 0, 0.00000000000000000000e+00) (0, 0, 0.00000000000000000000e+00) (0, 0, 0.00000000000000000000e+00) (0, 0, 0.00000000000000000000e+00) (0, 0, 0.00000000000000000000e+00) (0, 0, 0.00000000000000000000e+00) (0, 0, 0.00000000000000000000e+00) (0, 0, 0.00000000000000000000e+00) (0, 0, 0.00000000000000000000e+00) (0, 0, 0.00000000000000000000e+00) (0, 0, 0.00000000000000000000e+00) (0, 0, 0.00000000000000000000e+00) (0, 0, 0.00000000000000000000e+00) (0, 0, 0.00000000000000000000e+00) (0, 0, 0.00000000000000000000e+00) (0, 0, 0.00000000000000000000e+00) (0, 0, 0.00000000000000000000e+00) (0, 0, 0.00000000000000000000e+00) (0, 0, 0.00000000000000000000e+00) (31, 5, 5.00000000000000000000e-01) (31, 5, 5.00000000000000000000e-01) (31, 5, 5.00000000000000000000e-01) (31, 5, 5.00000000000000000000e-01) (31, 5, 5.00000000000000000000e-01) (31, 5, 5.00000000000000000000e-01) (31, 5, 5.00000000000000000000e-01) (31, 5, 5.00000000000000000000e-01) (31, 5, 5.00000000000000000000e-01) (31, 5, 5.00000000000000000000e-01) (31, 5, 5.00000000000000000000e-01) (31, 5, 5.00000000000000000000e-01) (31, 5, 5.00000000000000000000e-01) (31, 5, 5.00000000000000000000e-01) (31, 5, 5.00000000000000000000e-01) (31, 5, 5.00000000000000000000e-01) (31, 5, 5.00000000000000000000e-01) (31, 5, 5.00000000000000000000e-01) (31, 5, 5.00000000000000000000e-01) (31, 5, 5.00000000000000000000e-01) (31, 5, 5.00000000000000000000e-01) (31, 5, 5.00000000000000000000e-01) (31, 5, 5.00000000000000000000e-01) (31, 5, 5.00000000000000000000e-01) (31, 5, 5.00000000000000000000e-01) (31, 5, 5.00000000000000000000e-01) (31, 5, 5.00000000000000000000e-01) (31, 5, 5.00000000000000000000e-01) (31, 5, 5.00000000000000000000e-01) (31, 5, 5.00000000000000000000e-01) (0, 5, 0.00000000000000000000e+00) (31, 3, 5.00000000000000000000e-01) (31, 3, 5.00000000000000000000e-01) (31, 3, 5.00000000000000000000e-01) (31, 3, 5.00000000000000000000e-01) (31, 3, 5.00000000000000000000e-01) (31, 3, 5.00000000000000000000e-01) (31, 3, 5.00000000000000000000e-01) (31, 3, 5.00000000000000000000e-01) (31, 3, 5.00000000000000000000e-01) (31, 3, 5.00000000000000000000e-01) (31, 3, 5.00000000000000000000e-01) (31, 3, 5.00000000000000000000e-01) (31, 3, 5.00000000000000000000e-01) (31, 3, 5.00000000000000000000e-01) (31, 3, 5.00000000000000000000e-01) (31, 3, 5.00000000000000000000e-01) (31, 3, 5.00000000000000000000e-01) (31, 3, 5.00000000000000000000e-01) (31, 3, 5.00000000000000000000e-01) (31, 3, 5.00000000000000000000e-01) (31, 3, 5.00000000000000000000e-01) (31, 3, 5.00000000000000000000e-01) (31, 3, 5.00000000000000000000e-01) (31, 3, 5.00000000000000000000e-01) (31, 3, 5.00000000000000000000e-01) (31, 3, 5.00000000000000000000e-01) (31, 3, 5.00000000000000000000e-01) (31, 3, 5.00000000000000000000e-01) (31, 3, 5.00000000000000000000e-01) (31, 3, 5.00000000000000000000e-01) (0, 3, 0.00000000000000000000e+00) 
connections (connected_to_neuron, weight)=(0, 3.93429070711135864258e-01) (1, -2.24547719955444335938e+00) (2, -4.33661878108978271484e-01) (3, 9.64907169342041015625e-01) (4, 4.21653911471366882324e-02) (5, -2.87858903408050537109e-01) (6, 2.61441290378570556641e-01) (7, -1.63264065980911254883e-01) (8, -2.13022142648696899414e-01) (9, 8.07529985904693603516e-01) (10, 1.37364745140075683594e-01) (11, -9.55083370208740234375e-01) (12, -1.56582206487655639648e-01) (13, 1.02435100078582763672e+00) (14, -9.12126600742340087891e-02) (15, -8.17376375198364257812e-02) (16, 1.05141192674636840820e-01) (17, 1.30900308489799499512e-01) (18, -7.72188827395439147949e-02) (19, 7.66167864203453063965e-02) (20, 1.86051279306411743164e-01) (21, -9.82189774513244628906e-01) (22, 1.81469053030014038086e-01) (23, 4.26277667284011840820e-01) (24, 2.25810557603836059570e-02) (25, -4.83467243611812591553e-02) (26, 3.54288458824157714844e-01) (27, 5.59113919734954833984e-03) (28, 2.45683848857879638672e-01) (29, 7.36695647239685058594e-01) (30, 1.30236029624938964844e+00) (0, -1.25986623764038085938e+00) (1, 1.27951592206954956055e-01) (2, -1.73585295677185058594e-01) (3, 3.24067205190658569336e-01) (4, -5.05729913711547851562e-01) (5, 6.30641579627990722656e-01) (6, -5.26800453662872314453e-01) (7, -4.34375554323196411133e-02) (8, -3.32550853490829467773e-01) (9, 3.25730472803115844727e-01) (10, -9.25161719322204589844e-01) (11, 3.45971345901489257812e-01) (12, 1.21490508317947387695e-01) (13, 3.41772764921188354492e-01) (14, -3.68668943643569946289e-01) (15, 5.18881380558013916016e-01) (16, -4.42619234323501586914e-01) (17, 2.45506927371025085449e-01) (18, -3.10011357069015502930e-01) (19, 4.01717811822891235352e-01) (20, -2.84733384847640991211e-01) (21, 7.01141357421875000000e-02) (22, -1.62552781403064727783e-02) (23, 1.97385966777801513672e-01) (24, -9.59975644946098327637e-04) (25, 1.07119709253311157227e-01) (26, 2.67061501741409301758e-01) (27, 2.26310536265373229980e-01) (28, 2.33705326914787292480e-01) (29, 3.98023352026939392090e-02) (30, 5.12202203273773193359e-01) (0, 1.03798508644104003906e+00) (1, -4.67590279877185821533e-02) (2, 8.04984092712402343750e-01) (3, 9.94233548641204833984e-01) (4, -6.36533856391906738281e-01) (5, 2.08205841481685638428e-02) (6, -8.51332426071166992188e-01) (7, -4.66963380575180053711e-01) (8, -1.40705451369285583496e-01) (9, 4.06316339969635009766e-01) (10, 6.02118551731109619141e-01) (11, -1.95167824625968933105e-01) (12, 3.61877977848052978516e-01) (13, 9.65401589870452880859e-01) (14, -4.22997921705245971680e-01) (15, 6.31302148103713989258e-02) (16, -3.34976702928543090820e-01) (17, -1.82921484112739562988e-01) (18, -1.17468714714050292969e-01) (19, 4.42842781543731689453e-01) (20, 5.24269580841064453125e-01) (21, -8.95666237920522689819e-03) (22, 3.98507952690124511719e-01) (23, -3.04005313664674758911e-02) (24, -2.13308900594711303711e-01) (25, 1.29942774772644042969e-01) (26, -4.65581119060516357422e-01) (27, -5.31286776065826416016e-01) (28, -1.57466009259223937988e-01) (29, -4.84707206487655639648e-02) (30, -1.92337766289710998535e-01) (0, 1.37682050466537475586e-01) (1, 4.37707126140594482422e-01) (2, -3.89235168695449829102e-01) (3, -2.51718807220458984375e+00) (4, -1.90294814109802246094e+00) (5, -3.35934944450855255127e-02) (6, -7.26504266262054443359e-01) (7, 2.62272089719772338867e-01) (8, 6.10743984580039978027e-02) (9, 2.16781705617904663086e-01) (10, -2.95426368713378906250e-01) (11, 4.14801418781280517578e-01) (12, -1.57070994377136230469e-01) (13, -1.41890883445739746094e+00) (14, -8.02336335182189941406e-01) (15, 4.42339777946472167969e-01) (16, -2.72950083017349243164e-01) (17, 1.64455503225326538086e-01) (18, 1.91280946135520935059e-01) (19, 8.42270106077194213867e-02) (20, 3.11215430498123168945e-01) (21, 5.09504675865173339844e-01) (22, -4.59648557007312774658e-02) (23, -4.61445331573486328125e-01) (24, -1.11025428771972656250e+00) (25, -4.13949847221374511719e-01) (26, 5.55458441376686096191e-02) (27, 4.58888888359069824219e-01) (28, 2.15507000684738159180e-01) (29, 1.33241921663284301758e-01) (30, 1.19119954109191894531e+00) (0, 1.00276470184326171875e+00) (1, 1.09434092044830322266e+00) (2, 9.75530445575714111328e-01) (3, 2.56094431877136230469e+00) (4, 2.49999856948852539062e+00) (5, -1.46272674202919006348e-01) (6, 2.89329946041107177734e-01) (7, -6.13583087921142578125e-01) (8, 4.05403047800064086914e-01) (9, -6.25642359256744384766e-01) (10, 1.06976342201232910156e+00) (11, 9.10095632076263427734e-01) (12, 5.97340464591979980469e-01) (13, 1.27802276611328125000e+00) (14, 1.19302690029144287109e+00) (15, 9.76831465959548950195e-03) (16, 1.03375896811485290527e-01) (17, -5.80432891845703125000e-01) (18, 7.83631280064582824707e-02) (19, 2.26764440536499023438e-01) (20, -1.37020751833915710449e-01) (21, 1.53313100337982177734e-01) (22, 1.50343745946884155273e-01) (23, 1.08953607082366943359e+00) (24, 1.23012721538543701172e+00) (25, -1.58174306154251098633e-01) (26, 5.19960466772317886353e-03) (27, -1.09120912849903106689e-01) (28, 3.10421794652938842773e-01) (29, -8.68744015693664550781e-01) (30, -1.43898689746856689453e+00) (0, -9.84308004379272460938e-01) (1, 2.80417799949645996094e-01) (2, -2.70911574363708496094e-01) (3, 3.36649864912033081055e-01) (4, -2.20626235008239746094e-01) (5, -5.46145081520080566406e-01) (6, -1.03266142308712005615e-01) (7, 3.38643193244934082031e-01) (8, -3.54022890329360961914e-01) (9, 5.38990497589111328125e-01) (10, -6.41988456249237060547e-01) (11, 4.07439827919006347656e-01) (12, 1.53066962957382202148e-01) (13, 2.98141866922378540039e-01) (14, -1.75630152225494384766e-01) (15, -2.78002530336380004883e-01) (16, -5.39134666323661804199e-02) (17, 2.67617106437683105469e-01) (18, -2.71203815937042236328e-01) (19, 2.24116593599319458008e-01) (20, -2.44720041751861572266e-01) (21, 4.02057856321334838867e-01) (22, -6.48796483874320983887e-02) (23, 3.14074933528900146484e-01) (24, -1.00383758544921875000e-01) (25, -2.18799814581871032715e-01) (26, 2.09189444780349731445e-01) (27, 3.11020493507385253906e-01) (28, 3.21258455514907836914e-01) (29, 2.49455839395523071289e-01) (30, 1.00839698314666748047e+00) (0, 2.56176972389221191406e+00) (1, 1.10251939296722412109e+00) (2, 9.41523313522338867188e-02) (3, 3.95240545272827148438e-01) (4, 1.28488945960998535156e+00) (5, 1.43234229087829589844e+00) (6, 6.99616909027099609375e-01) (7, 2.27835178375244140625e-01) (8, -2.03493267297744750977e-01) (9, -1.28657841682434082031e+00) (10, 1.50217282772064208984e+00) (11, 8.06591451168060302734e-01) (12, 3.27540278434753417969e-01) (13, 1.17370128631591796875e-01) (14, 9.68080699443817138672e-01) (15, 5.69100022315979003906e-01) (16, 1.93530961871147155762e-01) (17, 1.46559216082096099854e-02) (18, -2.84120291471481323242e-01) (19, 2.83931680023670196533e-02) (20, 1.07359886169433593750e+00) (21, -1.64805248379707336426e-01) (22, -5.52995622158050537109e-01) (23, -3.23642730712890625000e-01) (24, 4.84145820140838623047e-01) (25, 8.76435995101928710938e-01) (26, 5.54922111332416534424e-02) (27, -2.70570278167724609375e-01) (28, -3.93182992935180664062e-01) (29, -1.14752507209777832031e+00) (30, -2.37378382682800292969e+00) (0, -6.86986505985260009766e-01) (1, -2.02696251869201660156e+00) (2, -3.77498894929885864258e-01) (3, -1.28261160850524902344e+00) (4, -4.23957496881484985352e-01) (5, 9.41658318042755126953e-02) (6, 1.59711316227912902832e-02) (7, 3.42014282941818237305e-01) (8, 1.10827378928661346436e-01) (9, 4.79837864637374877930e-01) (10, -8.53984534740447998047e-01) (11, -1.15230357646942138672e+00) (12, -3.61995734274387359619e-02) (13, -7.44398593902587890625e-01) (14, -6.99123084545135498047e-01) (15, 8.48929882049560546875e-02) (16, 3.19627001881599426270e-02) (17, 3.50088119506835937500e-01) (18, 9.17860791087150573730e-02) (19, -2.36508101224899291992e-01) (20, 1.14708200097084045410e-01) (21, -1.05682229995727539062e+00) (22, -2.59138494729995727539e-01) (23, -7.99883008003234863281e-01) (24, 5.16637153923511505127e-02) (25, 9.59516540169715881348e-02) (26, -4.47961948812007904053e-02) (27, -1.23191379010677337646e-01) (28, -1.75955891609191894531e-01) (29, 6.46311819553375244141e-01) (30, 9.91108477115631103516e-01) (0, -1.14317786693572998047e+00) (1, -1.64829313755035400391e-01) (2, -3.35610240697860717773e-01) (3, -1.19241750240325927734e+00) (4, -2.61340880393981933594e+00) (5, -1.42557561397552490234e+00) (6, 7.73080825805664062500e-01) (7, 7.94222593307495117188e-01) (8, -4.77109670639038085938e-01) (9, 2.05829048156738281250e+00) (10, -1.22601878643035888672e+00) (11, -1.80854141712188720703e-01) (12, -1.79935544729232788086e-01) (13, -1.14449298381805419922e+00) (14, -1.08555579185485839844e+00) (15, -8.40536952018737792969e-01) (16, 6.69410824775695800781e-03) (17, 6.96857333183288574219e-01) (18, 1.09615653753280639648e-01) (19, 7.15865731239318847656e-01) (20, 8.42962265014648437500e-02) (21, 7.97267913818359375000e-01) (22, 6.82618498802185058594e-01) (23, 6.44731044769287109375e-01) (24, -1.63165640830993652344e+00) (25, -5.21611392498016357422e-01) (26, 1.42156159877777099609e+00) (27, 8.31313490867614746094e-01) (28, 2.34573602676391601562e-01) (29, 1.46602046489715576172e+00) (30, 3.16560101509094238281e+00) (0, 1.56255054473876953125e+00) (1, -7.54688605666160583496e-02) (2, 3.17274451255798339844e-01) (3, 1.56227838993072509766e+00) (4, -4.74108278751373291016e-01) (5, -7.36469030380249023438e-01) (6, -5.86877353489398956299e-02) (7, -4.24037665128707885742e-01) (8, -1.09413050115108489990e-01) (9, 2.44914785027503967285e-01) (10, 9.22249019145965576172e-01) (11, -2.23487447947263717651e-02) (12, 2.86269970238208770752e-02) (13, 1.02398812770843505859e+00) (14, -2.21971333026885986328e-01) (15, -3.47551256418228149414e-01) (16, -7.22770541906356811523e-02) (17, -1.83744356036186218262e-01) (18, -2.70597994327545166016e-01) (19, 2.74930804967880249023e-01) (20, 6.89595520496368408203e-01) (21, -7.45915621519088745117e-03) (22, 1.50624483823776245117e-01) (23, 3.53800773620605468750e-01) (24, -3.45386266708374023438e-01) (25, -2.98620373010635375977e-01) (26, 2.27298662066459655762e-02) (27, -3.26032072305679321289e-01) (28, -5.36566637456417083740e-02) (29, -1.32386595010757446289e-01) (30, -3.22186619043350219727e-01) (0, -1.13164752721786499023e-01) (1, 1.58264625072479248047e+00) (2, 2.97467768192291259766e-01) (3, -4.05829399824142456055e-01) (4, -5.19015192985534667969e-02) (5, 1.27415740489959716797e+00) (6, 3.40792596340179443359e-01) (7, 8.00651982426643371582e-02) (8, -2.88691580295562744141e-01) (9, -1.19918346405029296875e+00) (10, -3.67695748805999755859e-01) (11, -2.35397592186927795410e-02) (12, 1.96736901998519897461e-01) (13, -5.50730705261230468750e-01) (14, -2.25083574652671813965e-01) (15, 1.60387933254241943359e-01) (16, -4.84917834401130676270e-02) (17, -1.50470770895481109619e-02) (18, -1.69967502355575561523e-01) (19, -1.17034398019313812256e-01) (20, 3.41601073741912841797e-01) (21, 8.71672391891479492188e-01) (22, -4.51016306877136230469e-01) (23, -5.67519068717956542969e-01) (24, 2.25313305854797363281e-01) (25, 1.13221395015716552734e+00) (26, -1.49102658033370971680e-01) (27, -5.53496301174163818359e-01) (28, -7.30122327804565429688e-01) (29, -8.43011975288391113281e-01) (30, -6.05333507061004638672e-01) (0, -1.27156162261962890625e+00) (1, -5.41513681411743164062e-01) (2, -6.65421545505523681641e-01) (3, -1.26905751228332519531e+00) (4, 2.47985646128654479980e-01) (5, -6.95874214172363281250e-01) (6, 7.24663317203521728516e-01) (7, 7.10583806037902832031e-01) (8, -5.65279424190521240234e-02) (9, 9.28313553333282470703e-01) (10, -6.07330918312072753906e-01) (11, -2.65420615673065185547e-01) (12, -2.53780186176300048828e-01) (13, -6.84923768043518066406e-01) (14, 1.13579303026199340820e-01) (15, -4.01261389255523681641e-01) (16, 3.34914475679397583008e-01) (17, 6.36323630809783935547e-01) (18, 8.91225785017013549805e-02) (19, 3.42463672161102294922e-01) (20, -7.61807501316070556641e-01) (21, 4.31376755237579345703e-01) (22, 4.51441705226898193359e-01) (23, 1.51324212551116943359e-01) (24, 1.28446385264396667480e-01) (25, -3.78646671772003173828e-01) (26, 1.06671452522277832031e+00) (27, 7.65147447586059570312e-01) (28, 5.04372596740722656250e-01) (29, 5.36391317844390869141e-01) (30, 1.39810609817504882812e+00) (0, -2.85751044750213623047e-01) (1, 9.90953385829925537109e-01) (2, -2.40136727690696716309e-01) (3, -1.13042640686035156250e+00) (4, 4.16618108749389648438e-01) (5, -1.39842677116394042969e+00) (6, 2.35994651913642883301e-01) (7, 1.14479541778564453125e+00) (8, 7.17053055763244628906e-01) (9, -2.55612671375274658203e-01) (10, -3.49665641784667968750e-01) (11, 4.79740500450134277344e-02) (12, 3.72457131743431091309e-02) (13, -1.36195266246795654297e+00) (14, 3.15455079078674316406e-01) (15, -4.83718127012252807617e-01) (16, 1.07171677052974700928e-01) (17, 3.88669013977050781250e-01) (18, 3.96307677030563354492e-01) (19, -3.62943172454833984375e-01) (20, -4.02196794748306274414e-02) (21, 6.58568501472473144531e-01) (22, -4.60353672504425048828e-01) (23, 3.60707566142082214355e-02) (24, 1.72010868787765502930e-01) (25, -1.02049529552459716797e+00) (26, -1.55228003859519958496e-01) (27, 4.91081655025482177734e-01) (28, 3.82018014788627624512e-02) (29, -6.49606212973594665527e-02) (30, -1.29524111747741699219e-01) (0, 1.31011176109313964844e+00) (1, 1.02348554134368896484e+00) (2, 4.58434939384460449219e-01) (3, 8.48789811134338378906e-01) (4, -5.36923825740814208984e-01) (5, -6.30772829055786132812e-01) (6, -4.49537366628646850586e-01) (7, -1.45281851291656494141e-01) (8, 2.36946359276771545410e-01) (9, -4.42253910005092620850e-02) (10, 9.84390199184417724609e-01) (11, 3.83439153432846069336e-01) (12, -5.54864294826984405518e-02) (13, 2.71648108959197998047e-01) (14, -2.91059911251068115234e-01) (15, -5.80776333808898925781e-01) (16, -1.33133798837661743164e-01) (17, 3.82888689637184143066e-03) (18, 4.93602193892002105713e-02) (19, 2.12512582540512084961e-01) (20, 3.06359857320785522461e-01) (21, 4.54743832349777221680e-01) (22, 2.17489093542098999023e-01) (23, 3.09096843004226684570e-01) (24, -2.45873361825942993164e-01) (25, -1.37770190834999084473e-01) (26, -5.07280886173248291016e-01) (27, -2.67391651868820190430e-01) (28, -3.59578244388103485107e-02) (29, -3.05461078882217407227e-01) (30, -1.00440573692321777344e+00) (0, -1.04037845134735107422e+00) (1, -2.22959041595458984375e+00) (2, -6.83552622795104980469e-01) (3, -1.76983386278152465820e-01) (4, 1.09722805023193359375e+00) (5, 1.41050910949707031250e+00) (6, -3.69220525026321411133e-01) (7, 6.61737680435180664062e-01) (8, -2.34238058328628540039e-03) (9, -1.23886607587337493896e-01) (10, -6.34916245937347412109e-01) (11, -1.15509331226348876953e+00) (12, -2.13914066553115844727e-02) (13, 5.56381382048130035400e-02) (14, 4.90584611892700195312e-01) (15, 7.32407450675964355469e-01) (16, 6.73518329858779907227e-03) (17, 3.59825551509857177734e-01) (18, -9.04392227530479431152e-02) (19, -1.04946784675121307373e-01) (20, -5.20244121551513671875e-01) (21, -9.40551578998565673828e-01) (22, -4.86719876527786254883e-01) (23, -1.00791655480861663818e-01) (24, 6.40368819236755371094e-01) (25, 6.65558397769927978516e-01) (26, -1.20557747781276702881e-01) (27, 5.32013177871704101562e-01) (28, 1.66665896773338317871e-01) (29, 8.75240415334701538086e-02) (30, 3.47951740026473999023e-01) (0, 1.49478089809417724609e+00) (1, -2.28129297494888305664e-01) (2, -6.67665362358093261719e-01) (3, -1.34484302997589111328e+00) (4, -1.00849759578704833984e+00) (5, -7.05418586730957031250e-01) (6, -2.41233885288238525391e-01) (7, 5.90213358402252197266e-01) (8, 3.19631904363632202148e-01) (9, 5.15450358390808105469e-01) (10, 7.76294350624084472656e-01) (11, -2.25091516971588134766e-01) (12, -1.63846850395202636719e-01) (13, -1.14881455898284912109e+00) (14, -4.15129512548446655273e-01) (15, 1.21171347796916961670e-01) (16, 1.14628113806247711182e-01) (17, 1.39469414949417114258e-01) (18, 2.20243409276008605957e-01) (19, -5.11679947376251220703e-02) (20, 8.30721020698547363281e-01) (21, 8.10866802930831909180e-02) (22, -5.90156555175781250000e-01) (23, -2.62117296457290649414e-01) (24, -5.65575540065765380859e-01) (25, -8.15529167652130126953e-01) (26, -4.66763824224472045898e-01) (27, 3.98484110832214355469e-01) (28, 7.88649767637252807617e-02) (29, 6.72122716903686523438e-01) (30, 6.20679736137390136719e-01) (0, 8.78290235996246337891e-01) (1, 1.59138381481170654297e-01) (2, 6.43661677837371826172e-01) (3, -1.55500090122222900391e+00) (4, 3.31961214542388916016e-01) (5, 6.47513628005981445312e-01) (6, 4.43886965513229370117e-01) (7, -2.00302749872207641602e-01) (8, 5.43190479278564453125e-01) (9, -2.94821739196777343750e-01) (10, 8.84741842746734619141e-01) (11, 6.72944962978363037109e-01) (12, 2.52009749412536621094e-01) (13, -1.29725706577301025391e+00) (14, 4.43780273199081420898e-01) (15, 5.93564510345458984375e-01) (16, -1.23697690665721893311e-01) (17, -2.77712136507034301758e-01) (18, 2.49067097902297973633e-01) (19, -1.14629596471786499023e-01) (20, 5.87785132229328155518e-02) (21, -5.50632417201995849609e-01) (22, 9.16662588715553283691e-02) (23, -4.79294419288635253906e-01) (24, -9.02177318930625915527e-02) (25, 1.95659026503562927246e-01) (26, 3.45075130462646484375e-01) (27, 2.60587409138679504395e-02) (28, 1.94617629051208496094e-01) (29, -2.66562551259994506836e-01) (30, -1.29957330226898193359e+00) (0, 9.77715730667114257812e-01) (1, 6.18671596050262451172e-01) (2, -3.36910784244537353516e-03) (3, -5.37397086620330810547e-01) (4, 5.14678239822387695312e-01) (5, 7.57640480995178222656e-01) (6, -1.18956506252288818359e-01) (7, -4.57706749439239501953e-01) (8, 6.01790472865104675293e-02) (9, -6.73570752143859863281e-01) (10, 1.69027435779571533203e+00) (11, 1.00027930736541748047e+00) (12, 1.78395971655845642090e-01) (13, -3.56870800256729125977e-01) (14, 1.37243163585662841797e+00) (15, 1.18751358985900878906e+00) (16, 2.64748930931091308594e-03) (17, -2.83285856246948242188e-01) (18, 2.93098151683807373047e-01) (19, -4.29063320159912109375e-01) (20, -6.78558051586151123047e-01) (21, -3.94743204116821289062e-01) (22, -1.72652423381805419922e-01) (23, -4.27737593650817871094e-01) (24, -8.58991146087646484375e-01) (25, -4.88754272460937500000e-01) (26, -3.60690355300903320312e-01) (27, -2.86670923233032226562e-01) (28, -2.50967919826507568359e-01) (29, -1.79667666554450988770e-01) (30, -1.39939332008361816406e+00) (0, 6.60129070281982421875e-01) (1, 8.48547458648681640625e-01) (2, 4.59427237510681152344e-01) (3, -1.11945915222167968750e+00) (4, 2.98435464501380920410e-02) (5, 7.90035486221313476562e-01) (6, -7.69848346710205078125e-01) (7, -5.84084391593933105469e-01) (8, 7.81155675649642944336e-02) (9, 3.05538326501846313477e-01) (10, 5.02859234809875488281e-01) (11, 9.90782260894775390625e-01) (12, 3.43932360410690307617e-01) (13, -5.42536497116088867188e-01) (14, 2.96564579010009765625e-01) (15, 4.34160470962524414062e-01) (16, -5.38496077060699462891e-01) (17, -5.25096356868743896484e-01) (18, -9.66597720980644226074e-02) (19, 2.41832584142684936523e-01) (20, -3.54481413960456848145e-02) (21, -9.77701097726821899414e-02) (22, 2.47009873390197753906e-01) (23, -6.22555851936340332031e-01) (24, -1.27493277192115783691e-01) (25, 3.24509412050247192383e-01) (26, -1.25774711370468139648e-01) (27, -3.77138033509254455566e-02) (28, 1.19657240808010101318e-01) (29, -6.98768943548202514648e-02) (30, -3.96197617053985595703e-01) (0, -2.83443331718444824219e-01) (1, 1.21621382236480712891e+00) (2, 8.00975859165191650391e-01) (3, -1.19167029857635498047e+00) (4, -2.81727045774459838867e-01) (5, 6.53716564178466796875e-01) (6, -1.31822037696838378906e+00) (7, -2.90945470333099365234e-01) (8, 1.62502259016036987305e-01) (9, 1.69982552528381347656e-01) (10, -1.81809499859809875488e-01) (11, 8.70069384574890136719e-01) (12, 3.33106279373168945312e-01) (13, -6.75864040851593017578e-01) (14, -1.34443089365959167480e-01) (15, 4.04140502214431762695e-01) (16, -7.00972437858581542969e-01) (17, -2.89865553379058837891e-01) (18, -3.40896621346473693848e-02) (19, 1.40467554330825805664e-01) (20, -1.02795839309692382812e-01) (21, 4.15661990642547607422e-01) (22, 4.23081159591674804688e-01) (23, -5.15483736991882324219e-01) (24, 1.03445351123809814453e-02) (25, 3.22305321693420410156e-01) (26, -8.15348565578460693359e-01) (27, 2.49397680163383483887e-02) (28, 6.13198801875114440918e-02) (29, 4.67151552438735961914e-02) (30, -2.89600372314453125000e-01) (0, 1.30789148807525634766e+00) (1, 1.61695703864097595215e-01) (2, 1.38076692819595336914e-01) (3, 2.91277456283569335938e+00) (4, 1.30201548337936401367e-01) (5, -2.39339053630828857422e-01) (6, -4.64478939771652221680e-01) (7, -6.25054657459259033203e-01) (8, -4.66952800750732421875e-01) (9, -1.44517287611961364746e-01) (10, 8.94394695758819580078e-01) (11, -7.60069862008094787598e-03) (12, -1.01351827383041381836e-01) (13, 1.83630681037902832031e+00) (14, 5.58680668473243713379e-02) (15, -5.04369378089904785156e-01) (16, -3.95014315843582153320e-01) (17, -3.54311078786849975586e-01) (18, -4.80090260505676269531e-01) (19, 3.09486240148544311523e-01) (20, 5.61383366584777832031e-01) (21, -2.68968731164932250977e-01) (22, -2.78282672166824340820e-01) (23, 5.73569536209106445312e-01) (24, 9.36868861317634582520e-02) (25, 3.20038527250289916992e-01) (26, -4.21579658985137939453e-01) (27, -6.76477551460266113281e-01) (28, -3.18233311176300048828e-01) (29, -4.88928288221359252930e-01) (30, -1.23061358928680419922e+00) (0, -1.21153140068054199219e+00) (1, -5.59861063957214355469e-01) (2, -3.03050339221954345703e-01) (3, 1.39286780357360839844e+00) (4, 2.55654364824295043945e-01) (5, -5.90764760971069335938e-01) (6, -1.67506895959377288818e-02) (7, -1.82831600308418273926e-01) (8, -7.62395486235618591309e-02) (9, 3.48331212997436523438e-01) (10, -1.07946062088012695312e+00) (11, -5.30156075954437255859e-01) (12, -1.46097004413604736328e-01) (13, 1.29970717430114746094e+00) (14, -5.09124696254730224609e-01) (15, -5.90638816356658935547e-01) (16, 1.83271802961826324463e-02) (17, 3.17241065204143524170e-02) (18, -1.38812303543090820312e-01) (19, 2.19041064381599426270e-01) (20, -1.82986900210380554199e-01) (21, -1.92627198994159698486e-02) (22, -8.85022729635238647461e-02) (23, -2.23194546997547149658e-02) (24, 7.56231665611267089844e-01) (25, -1.15010023117065429688e-01) (26, -2.68321111798286437988e-03) (27, -1.90503671765327453613e-01) (28, -1.45348682999610900879e-01) (29, 8.84167104959487915039e-02) (30, 7.58271276950836181641e-01) (0, -5.42500615119934082031e-01) (1, 6.00717902183532714844e-01) (2, -2.37156033515930175781e-01) (3, -3.79826426506042480469e-01) (4, -2.55548715591430664062e-01) (5, -6.75469577312469482422e-01) (6, -2.56760269403457641602e-01) (7, 2.42150574922561645508e-01) (8, -3.33300262689590454102e-01) (9, 6.67804360389709472656e-01) (10, -4.87636238336563110352e-01) (11, 6.04035258293151855469e-01) (12, 1.22020408511161804199e-01) (13, -1.62543848156929016113e-01) (14, -9.65601727366447448730e-02) (15, -4.07217174768447875977e-01) (16, -1.98066949844360351562e-01) (17, 2.06938683986663818359e-02) (18, -1.73667654395103454590e-01) (19, 4.87569361925125122070e-01) (20, -1.01894438266754150391e-01) (21, 1.80927783250808715820e-01) (22, -6.64615407586097717285e-02) (23, 2.52805501222610473633e-01) (24, -1.54233187437057495117e-01) (25, -2.61364042758941650391e-01) (26, 2.05446243286132812500e-01) (27, 2.82863289117813110352e-01) (28, 2.71933466196060180664e-01) (29, 2.32558622956275939941e-01) (30, 7.11097300052642822266e-01) (0, 7.36459195613861083984e-01) (1, 4.01284575462341308594e-01) (2, -4.80183333158493041992e-01) (3, -1.09804511070251464844e+00) (4, -5.96883036196231842041e-02) (5, 8.13257694244384765625e-01) (6, 8.51903319358825683594e-01) (7, 6.49387478828430175781e-01) (8, 4.13247376680374145508e-01) (9, -1.27276813983917236328e+00) (10, -4.59937304258346557617e-01) (11, -6.25769719481468200684e-02) (12, -2.22243890166282653809e-01) (13, -8.11013102531433105469e-01) (14, -4.57602292299270629883e-01) (15, -2.72170454263687133789e-01) (16, 1.45131841301918029785e-01) (17, -4.98166456818580627441e-02) (18, 1.43421411514282226562e-01) (19, -5.79792380332946777344e-01) (20, 1.36466014385223388672e+00) (21, -3.21879982948303222656e-01) (22, -1.23898839950561523438e+00) (23, -1.08412051200866699219e+00) (24, 3.81426364183425903320e-01) (25, 8.75766038894653320312e-01) (26, -3.97119939327239990234e-01) (27, -2.91317880153656005859e-01) (28, -5.43710887432098388672e-01) (29, -7.80045032501220703125e-01) (30, -1.16384065151214599609e+00) (0, -1.33872723579406738281e+00) (1, -2.36969518661499023438e+00) (2, -7.08235979080200195312e-01) (3, 3.67330729961395263672e-01) (4, 7.52884030342102050781e-01) (5, 2.81298160552978515625e+00) (6, -3.02622199058532714844e-01) (7, -1.72779500484466552734e-01) (8, 5.21388202905654907227e-02) (9, -8.84975790977478027344e-01) (10, -6.03690862655639648438e-01) (11, -1.09284293651580810547e+00) (12, 1.65471166372299194336e-01) (13, 7.85330951213836669922e-01) (14, 3.89574170112609863281e-01) (15, 1.55109906196594238281e+00) (16, 2.43995070457458496094e-01) (17, 3.05500507354736328125e-01) (18, 3.11446726322174072266e-01) (19, -2.03542023897171020508e-01) (20, -7.63673901557922363281e-01) (21, -8.43037366867065429688e-01) (22, -3.65207463502883911133e-01) (23, 8.35586525499820709229e-03) (24, 1.93053364753723144531e-01) (25, 1.37313699722290039062e+00) (26, -5.96543960273265838623e-02) (27, 1.30233932286500930786e-02) (28, 2.90490865707397460938e-01) (29, -6.69124066829681396484e-01) (30, -3.97404879331588745117e-01) (0, -1.93369543552398681641e+00) (1, -1.96586906909942626953e+00) (2, -4.44768726825714111328e-01) (3, -7.33956992626190185547e-01) (4, 6.56762421131134033203e-01) (5, 2.19828414916992187500e+00) (6, 4.38417613506317138672e-01) (7, -3.66826742887496948242e-01) (8, -4.12522137165069580078e-01) (9, -1.50618684291839599609e+00) (10, -1.11231338977813720703e+00) (11, -6.21835827827453613281e-01) (12, 1.04159548878669738770e-01) (13, -1.70756936073303222656e-01) (14, 5.67234218120574951172e-01) (15, 1.06807565689086914062e+00) (16, 5.98523952066898345947e-02) (17, 3.23019474744796752930e-01) (18, 1.97689786553382873535e-01) (19, -7.40082025527954101562e-01) (20, -7.89270818233489990234e-01) (21, -1.43781614303588867188e+00) (22, -5.87093412876129150391e-01) (23, -7.98931181430816650391e-01) (24, 2.32104018330574035645e-01) (25, 1.20991230010986328125e+00) (26, 2.42213353514671325684e-01) (27, -7.50166177749633789062e-01) (28, -6.74907624721527099609e-01) (29, -6.83531701564788818359e-01) (30, -5.24149179458618164062e-01) (0, 7.41564273834228515625e-01) (1, -7.98251867294311523438e-01) (2, 1.80765867233276367188e-01) (3, -1.54739558696746826172e+00) (4, -2.27840751409530639648e-01) (5, 3.86374443769454956055e-01) (6, 8.52543056011199951172e-01) (7, 2.15555995702743530273e-01) (8, 5.75487256050109863281e-01) (9, -3.56339216232299804688e-01) (10, 7.55291357636451721191e-02) (11, -2.65189170837402343750e-01) (12, 1.55724525451660156250e-01) (13, -7.96969711780548095703e-01) (14, -4.77598816156387329102e-01) (15, 1.44838720560073852539e-01) (16, 3.23705613613128662109e-01) (17, -1.53233557939529418945e-02) (18, 6.01011931896209716797e-01) (19, -5.12587428092956542969e-01) (20, 5.77259361743927001953e-01) (21, -5.51640689373016357422e-01) (22, -5.77490776777267456055e-02) (23, -7.32182323932647705078e-01) (24, 3.37620377540588378906e-01) (25, 2.02314391732215881348e-01) (26, 2.17343568801879882812e-01) (27, 1.17130577564239501953e-03) (28, 1.33080333471298217773e-02) (29, 9.11929532885551452637e-02) (30, -1.01996265351772308350e-01) (0, -1.31935596466064453125e+00) (1, -1.73688247799873352051e-01) (2, -3.50654721260070800781e-01) (3, 2.94108510017395019531e-01) (4, -7.49392867088317871094e-01) (5, -1.53186011314392089844e+00) (6, 4.03025150299072265625e-01) (7, 8.18235576152801513672e-02) (8, -2.74047434329986572266e-01) (9, 6.42957925796508789062e-01) (10, -1.57384228706359863281e+00) (11, -2.08992674946784973145e-01) (12, 1.07238419353961944580e-01) (13, 5.84002256393432617188e-01) (14, -8.34299206733703613281e-01) (15, -9.63831007480621337891e-01) (16, 5.88172197341918945312e-01) (17, 9.16695594787597656250e-02) (18, 3.63946706056594848633e-02) (19, 5.64738437533378601074e-02) (20, 3.73368352651596069336e-01) (21, 2.32129156589508056641e-01) (22, -3.17127287387847900391e-01) (23, 2.46795937418937683105e-02) (24, 5.60108125209808349609e-02) (25, -5.80067038536071777344e-01) (26, 1.81797921657562255859e-01) (27, 1.08998782932758331299e-01) (28, -1.06199167668819427490e-01) (29, 5.74791073799133300781e-01) (30, 1.88261556625366210938e+00) (0, 4.69797283411026000977e-01) (1, -6.68978691101074218750e-01) (2, -9.11849796772003173828e-01) (3, -2.45346337556838989258e-01) (4, -7.26428814232349395752e-03) (5, -1.23631322383880615234e+00) (6, 2.20709964632987976074e-01) (7, 1.32263779640197753906e-01) (8, 2.78442353010177612305e-01) (9, 1.05824865400791168213e-01) (10, 6.51032775640487670898e-02) (11, -6.22432470321655273438e-01) (12, -5.85850179195404052734e-01) (13, -5.86295366287231445312e-01) (14, -5.32929375767707824707e-02) (15, -4.11874026060104370117e-01) (16, 3.75580400228500366211e-01) (17, 3.24341684579849243164e-01) (18, 3.98908674716949462891e-01) (19, -1.52854293584823608398e-01) (20, 4.33988273143768310547e-01) (21, 3.65984767675399780273e-01) (22, 8.94406363368034362793e-02) (23, 7.59831845760345458984e-01) (24, -5.89342080056667327881e-02) (25, -9.09635007381439208984e-01) (26, 1.17375008761882781982e-01) (27, 2.96819478273391723633e-01) (28, 4.73596453666687011719e-01) (29, 4.30633604526519775391e-01) (30, 1.39504218101501464844e+00) (0, -5.48869550228118896484e-01) (1, -1.05194434523582458496e-01) (2, 5.93980669975280761719e-01) (3, -2.18588501214981079102e-01) (4, 2.29342952370643615723e-01) (5, 1.23843955993652343750e+00) (6, -4.03534024953842163086e-02) (7, -7.58156403899192810059e-02) (8, -1.89124584197998046875e-01) (9, -1.56393572688102722168e-01) (10, -4.01761949062347412109e-01) (11, 6.03310167789459228516e-01) (12, 4.58237260580062866211e-01) (13, 3.48941951990127563477e-01) (14, -3.61177064478397369385e-02) (15, 3.69932770729064941406e-01) (16, -3.01906526088714599609e-01) (17, -8.88051092624664306641e-02) (18, -7.92027562856674194336e-02) (19, 6.63757398724555969238e-02) (20, -1.00793786346912384033e-01) (21, -9.92331802845001220703e-01) (22, -1.70882139354944229126e-02) (23, -8.96841824054718017578e-01) (24, 8.25800672173500061035e-02) (25, 8.36389362812042236328e-01) (26, -8.41111540794372558594e-02) (27, -7.55019113421440124512e-02) (28, -3.42484682798385620117e-01) (29, -1.90569072961807250977e-01) (30, -6.06861412525177001953e-01) (31, -1.04371696710586547852e-01) (32, 2.34835207462310791016e-01) (33, -2.49425806105136871338e-02) (34, -9.35968905687332153320e-02) (35, 1.54599800705909729004e-01) (36, 1.00375331938266754150e-01) (37, 2.65930801630020141602e-01) (38, -7.58887156844139099121e-02) (39, -3.34425300359725952148e-01) (40, 2.22681552171707153320e-01) (41, -5.83899676799774169922e-01) (42, 1.95314824581146240234e-01) (43, -3.68840098381042480469e-01) (44, 5.84250614047050476074e-02) (45, -1.67643129825592041016e-01) (46, -8.58571231365203857422e-02) (47, 9.17399227619171142578e-02) (48, -6.64738416671752929688e-01) (49, 6.75273872911930084229e-03) (50, 2.79714800417423248291e-02) (51, -1.91928297281265258789e-02) (52, 9.50413197278976440430e-03) (53, 1.03377588093280792236e-01) (54, -3.95002543926239013672e-01) (55, 1.92521899938583374023e-01) (56, -1.00022837519645690918e-01) (57, 1.41082201153039932251e-02) (58, 1.33084803819656372070e-01) (59, -2.36765578389167785645e-01) (60, 1.40581831336021423340e-01) (61, 2.40336561203002929688e+00) (31, 4.57251131534576416016e-01) (32, -6.85102641582489013672e-01) (33, 8.54877650737762451172e-01) (34, -6.58724084496498107910e-02) (35, 2.39299222826957702637e-01) (36, -6.82978510856628417969e-01) (37, 1.43020105361938476562e+00) (38, 1.33022174239158630371e-01) (39, -6.45490527153015136719e-01) (40, 1.07413077354431152344e+00) (41, -4.55414921045303344727e-01) (42, -8.51886451244354248047e-01) (43, -6.88063263893127441406e-01) (44, 6.58719301223754882812e-01) (45, -5.81433355808258056641e-01) (46, 1.32829654216766357422e+00) (47, 5.15446662902832031250e-01) (48, 5.73777794837951660156e-01) (49, 7.01346173882484436035e-02) (50, -3.83581042289733886719e-01) (51, 9.49145138263702392578e-01) (52, -4.21177804470062255859e-01) (53, -6.14780306816101074219e-01) (54, 1.40706866979598999023e-01) (55, -4.92185920476913452148e-01) (56, -7.59341478347778320312e-01) (57, 9.01377499103546142578e-01) (58, -4.88673090934753417969e-01) (59, -5.07875233888626098633e-02) (60, 1.48017983883619308472e-03) (61, -3.95049333572387695312e-01) (31, -1.15930843353271484375e+00) (32, -1.72542572021484375000e-01) (33, -3.38560491800308227539e-01) (34, 4.48507428169250488281e-01) (35, 3.87233763933181762695e-01) (36, -8.80044773221015930176e-02) (37, 1.79267680644989013672e+00) (38, -8.71911406517028808594e-01) (39, -5.95869004726409912109e-01) (40, 3.30846130847930908203e-01) (41, 7.80504584312438964844e-01) (42, -3.76126021146774291992e-01) (43, 5.62008738517761230469e-01) (44, 5.04453003406524658203e-01) (45, -9.19766724109649658203e-01) (46, 2.84911453723907470703e-01) (47, 4.44031774997711181641e-01) (48, 1.12541151046752929688e+00) (49, 3.66192728281021118164e-01) (50, 7.75396227836608886719e-01) (51, 3.97847592830657958984e-01) (52, -7.40949034690856933594e-01) (53, -2.47592795640230178833e-02) (54, 7.19827651977539062500e-01) (55, -1.01195979118347167969e+00) (56, -9.19654786586761474609e-01) (57, 3.90289798378944396973e-02) (58, -4.53627943992614746094e-01) (59, -1.81866079568862915039e-01) (60, 4.13433872163295745850e-02) (61, -2.77719545364379882812e+00) (31, 5.65316900610923767090e-02) (32, -7.41233378648757934570e-02) (33, -4.70620036125183105469e-01) (34, 1.14829577505588531494e-01) (35, -1.37212306261062622070e-01) (36, -4.03977669775485992432e-02) (37, -1.56119251623749732971e-02) (38, -2.59626191109418869019e-02) (39, 1.25216186046600341797e-01) (40, -1.37077391147613525391e-01) (41, -4.36010807752609252930e-01) (42, 6.36068463325500488281e-01) (43, 1.11308701336383819580e-01) (44, -1.24766938388347625732e-01) (45, 3.52464377880096435547e-01) (46, 2.58482456207275390625e-01) (47, 1.65745258331298828125e-01) (48, -7.43611395359039306641e-01) (49, -3.11923056840896606445e-01) (50, -4.70579385757446289062e-01) (51, 1.21529409661889076233e-02) (52, 6.82404413819313049316e-02) (53, -1.40713378787040710449e-01) (54, -4.39880728721618652344e-01) (55, 1.20143838226795196533e-01) (56, -1.96082785725593566895e-01) (57, -6.87515959143638610840e-02) (58, -6.80671930313110351562e-02) (59, 2.67719268798828125000e-01) (60, -3.86040627956390380859e-01) (61, 2.50185680389404296875e+00) (31, -6.63994371891021728516e-01) (32, -2.70495414733886718750e-01) (33, -2.39384368062019348145e-01) (34, 6.53349041938781738281e-01) (35, -3.40988844633102416992e-01) (36, -1.53682112693786621094e-01) (37, -4.31778103113174438477e-01) (38, 4.25465792417526245117e-01) (39, -1.10799847170710563660e-02) (40, -5.48197984695434570312e-01) (41, -1.73495903611183166504e-01) (42, 7.56223082542419433594e-01) (43, 8.62070977687835693359e-01) (44, -1.70111671090126037598e-01) (45, 2.20049247145652770996e-01) (46, 3.43742489814758300781e-01) (47, 9.88358080387115478516e-01) (48, 4.89576123654842376709e-02) (49, 7.14405477046966552734e-01) (50, 7.80610918998718261719e-01) (51, -1.11516201496124267578e+00) (52, -8.84816050529479980469e-01) (53, 2.01131299138069152832e-01) (54, 2.84797728061676025391e-01) (55, -2.34875500202178955078e-01) (56, 5.73188289999961853027e-02) (57, 8.14516067504882812500e-01) (58, -2.95825988054275512695e-01) (59, 1.02573372423648834229e-02) (60, 1.26693561673164367676e-01) (61, 1.60888743400573730469e+00) (31, -3.90047729015350341797e-01) (32, -2.81695604324340820312e-01) (33, -1.21632419526576995850e-01) (34, -1.20642137527465820312e+00) (35, 1.51115453243255615234e+00) (36, -6.30797594785690307617e-02) (37, 9.09387290477752685547e-01) (38, -4.26729112863540649414e-01) (39, -1.35862970352172851562e+00) (40, 1.91683843731880187988e-01) (41, -8.62549364566802978516e-01) (42, 2.68407583236694335938e-01) (43, 5.41797995567321777344e-01) (44, 1.86389923095703125000e-01) (45, 6.54328316450119018555e-02) (46, -5.66486716270446777344e-01) (47, -3.14994335174560546875e-01) (48, -2.71972179412841796875e-01) (49, -1.37775480747222900391e-01) (50, -2.04834520816802978516e-01) (51, 6.65433228015899658203e-01) (52, 7.14610159397125244141e-01) (53, -5.58337755501270294189e-02) (54, -3.19542378187179565430e-01) (55, -2.99094110727310180664e-01) (56, -9.63010340929031372070e-02) (57, -1.18931837379932403564e-01) (58, 2.10304576903581619263e-02) (59, -4.71964925527572631836e-01) (60, 7.39302709698677062988e-02) (61, 5.16037821769714355469e-01) (31, -2.18624874949455261230e-01) (32, 3.42474490404129028320e-01) (33, 3.70829403400421142578e-01) (34, -5.28930664062500000000e-01) (35, 1.40416765213012695312e+00) (36, -3.08965504169464111328e-01) (37, 9.21249568462371826172e-01) (38, 1.04921735823154449463e-01) (39, -1.80832982063293457031e+00) (40, 5.77837601304054260254e-02) (41, 1.85653597116470336914e-01) (42, -8.05891871452331542969e-01) (43, -6.89463973045349121094e-01) (44, -2.08548232913017272949e-02) (45, 3.90462189912796020508e-01) (46, -5.74818491935729980469e-01) (47, 5.76265335083007812500e-01) (48, 3.77404659986495971680e-01) (49, 6.25381588935852050781e-01) (50, 5.48622846603393554688e-01) (51, 5.18231928348541259766e-01) (52, -5.91922104358673095703e-01) (53, -2.60061770677566528320e-01) (54, 8.73361155390739440918e-02) (55, 1.24345958232879638672e+00) (56, 1.10299718379974365234e+00) (57, 3.24266076087951660156e-01) (58, -8.58990550041198730469e-01) (59, -9.47475671768188476562e-01) (60, 1.09690463542938232422e+00) (61, -1.74873375892639160156e+00) (31, -1.15771569311618804932e-01) (32, -2.72953987121582031250e-01) (33, -5.72705686092376708984e-01) (34, -3.41403812170028686523e-01) (35, 2.67360031604766845703e-01) (36, -2.82104372978210449219e-01) (37, 1.00631904602050781250e+00) (38, 5.07453858852386474609e-01) (39, -8.31896722316741943359e-01) (40, -5.80443859100341796875e-01) (41, 5.07523894309997558594e-01) (42, 1.86214178800582885742e-01) (43, 8.12308341264724731445e-02) (44, -6.46138310432434082031e-01) (45, 2.26888924837112426758e-01) (46, -4.88929778337478637695e-01) (47, 7.44274079799652099609e-01) (48, 2.44701758027076721191e-01) (49, -4.72559481859207153320e-02) (50, -2.37066075205802917480e-01) (51, -3.32174718379974365234e-01) (52, -8.11999440193176269531e-02) (53, -3.38154524564743041992e-01) (54, 9.22997593879699707031e-01) (55, 7.27728724479675292969e-01) (56, 1.33000016212463378906e+00) (57, 9.26059484481811523438e-01) (58, -5.42080402374267578125e-02) (59, -1.16827204823493957520e-01) (60, 3.43248128890991210938e-01) (61, -2.42282509803771972656e+00) (31, -7.35375165939331054688e-01) (32, 2.15668544173240661621e-01) (33, -4.99877512454986572266e-01) (34, -1.43584415316581726074e-01) (35, -1.61362469196319580078e-01) (36, 1.84534844011068344116e-02) (37, 3.93388897180557250977e-01) (38, -2.40368559956550598145e-01) (39, -3.35773587226867675781e-01) (40, -3.97985845804214477539e-01) (41, 5.45459687709808349609e-01) (42, 2.27354109287261962891e-01) (43, 4.73500072956085205078e-01) (44, -2.18697383999824523926e-01) (45, 5.24776279926300048828e-01) (46, -2.77763545513153076172e-01) (47, 2.60807484388351440430e-01) (48, 5.88997006416320800781e-01) (49, -5.42255900800228118896e-02) (50, 1.09676696360111236572e-01) (51, -5.33079445362091064453e-01) (52, -3.18785071372985839844e-01) (53, 1.27461388707160949707e-01) (54, 5.76862096786499023438e-01) (55, 7.86549150943756103516e-01) (56, 1.03455519676208496094e+00) (57, 1.51533946394920349121e-01) (58, -2.10166350007057189941e-01) (59, -3.81988108158111572266e-01) (60, 3.60508710145950317383e-01) (61, -2.41752552986145019531e+00) (31, -2.83792823553085327148e-01) (32, -1.34253546595573425293e-01) (33, -2.79497891664505004883e-01) (34, -1.35550811886787414551e-01) (35, 5.93554303050041198730e-02) (36, -2.47431173920631408691e-01) (37, -3.88400882482528686523e-01) (38, 1.22606173157691955566e-01) (39, -3.06459844112396240234e-01) (40, -2.01667532324790954590e-01) (41, -1.17678113281726837158e-01) (42, -1.20299402624368667603e-03) (43, 6.34487271308898925781e-01) (44, -1.33282646536827087402e-01) (45, 5.02391517162322998047e-01) (46, -1.18986904621124267578e-01) (47, 3.38354825973510742188e-01) (48, 6.59717857837677001953e-01) (49, -9.90578830242156982422e-02) (50, 7.78772532939910888672e-02) (51, -4.37701761722564697266e-01) (52, -3.41662913560867309570e-01) (53, -1.62494421005249023438e-01) (54, 3.71310353279113769531e-01) (55, 6.36885941028594970703e-01) (56, 7.48010158538818359375e-01) (57, 5.12454271316528320312e-01) (58, -1.68199315667152404785e-01) (59, -2.23946601152420043945e-01) (60, 8.28502401709556579590e-02) (61, -2.30673432350158691406e+00) (31, 1.93279147148132324219e-01) (32, -1.73730164766311645508e-01) (33, -1.38295024633407592773e-01) (34, -1.59240454435348510742e-01) (35, -1.53294987976551055908e-02) (36, -7.36523866653442382812e-02) (37, 7.09935501217842102051e-02) (38, -7.06266999244689941406e-01) (39, -4.99278530478477478027e-02) (40, -9.09757614135742187500e-02) (41, -7.10503578186035156250e-01) (42, -2.79438775032758712769e-02) (43, -2.45499745011329650879e-01) (44, 6.37833252549171447754e-02) (45, -8.97699818015098571777e-02) (46, -2.79687821865081787109e-01) (47, 9.27939116954803466797e-02) (48, 8.03851783275604248047e-01) (49, -3.92372943460941314697e-02) (50, -4.36603903770446777344e-01) (51, -8.41027721762657165527e-02) (52, -4.44041967391967773438e-01) (53, -2.06351503729820251465e-01) (54, -1.85788547992706298828e+00) (55, -3.96960191428661346436e-02) (56, -1.22744515538215637207e-01) (57, -8.52057754993438720703e-01) (58, -6.31446421146392822266e-01) (59, 3.00093859434127807617e-01) (60, -6.61678969860076904297e-01) (61, -6.06927983462810516357e-02) (31, 3.76204431056976318359e-01) (32, -7.41824388504028320312e-01) (33, 1.37507736682891845703e-01) (34, 4.47864755988121032715e-02) (35, -1.08231127262115478516e-01) (36, -6.25666737556457519531e-01) (37, 6.77560389041900634766e-01) (38, -4.68860149383544921875e-01) (39, -2.02609136700630187988e-01) (40, 2.18523770570755004883e-01) (41, -5.40840446949005126953e-01) (42, -4.59530055522918701172e-01) (43, -3.43946248292922973633e-01) (44, 4.86562848091125488281e-01) (45, -4.11115080118179321289e-01) (46, 4.96978044509887695312e-01) (47, 4.59529668092727661133e-01) (48, 1.21866965293884277344e+00) (49, 9.15630906820297241211e-02) (50, -4.83497560024261474609e-01) (51, 3.17939251661300659180e-01) (52, -5.65890252590179443359e-01) (53, -5.12248992919921875000e-01) (54, -8.80739688873291015625e-01) (55, -2.90147781372070312500e-01) (56, -2.32797816395759582520e-01) (57, -9.27485004067420959473e-02) (58, -1.07199561595916748047e+00) (59, 9.59585905075073242188e-02) (60, -4.71816092729568481445e-01) (61, -1.59710681438446044922e+00) (31, -4.42273169755935668945e-01) (32, 2.60022908449172973633e-01) (33, -6.68851062655448913574e-02) (34, 5.06136536598205566406e-01) (35, -6.12925738096237182617e-02) (36, 7.15359821915626525879e-02) (37, 2.07671433687210083008e-01) (38, -3.10178369283676147461e-01) (39, 9.51430425047874450684e-02) (40, -3.61230105161666870117e-01) (41, 5.73734998703002929688e-01) (42, -6.75251245498657226562e-01) (43, 1.35590627789497375488e-01) (44, 1.76174759864807128906e-01) (45, -5.86140036582946777344e-01) (46, -1.16419136524200439453e-01) (47, 3.02048265933990478516e-01) (48, 9.18634235858917236328e-01) (49, 3.04928243160247802734e-01) (50, 6.32394075393676757812e-01) (51, 4.66995000839233398438e-01) (52, -1.14203318953514099121e-01) (53, 2.62837767601013183594e-01) (54, 2.18081891536712646484e-01) (55, -7.45848238468170166016e-01) (56, 9.53102409839630126953e-02) (57, -5.23269176483154296875e-01) (58, -4.01180446147918701172e-01) (59, -2.38548904657363891602e-01) (60, 3.33821475505828857422e-01) (61, -3.00863242149353027344e+00) (31, -7.84959569573402404785e-02) (32, -3.45761072821915149689e-03) (33, -3.02156388759613037109e-01) (34, -6.57546967267990112305e-02) (35, 1.08792699873447418213e-01) (36, -8.77612829208374023438e-02) (37, -2.18148484826087951660e-01) (38, -6.21820926666259765625e-01) (39, 7.39946737885475158691e-02) (40, -2.03748513013124465942e-02) (41, -6.45224511623382568359e-01) (42, 4.72215414047241210938e-02) (43, 6.60348264500498771667e-03) (44, -6.72769173979759216309e-02) (45, 1.94519117474555969238e-01) (46, -3.23554366827011108398e-01) (47, -7.96484947204589843750e-02) (48, 7.11097955703735351562e-01) (49, -6.59668207168579101562e-01) (50, -6.58537805080413818359e-01) (51, -1.78519412875175476074e-01) (52, -1.62876799702644348145e-01) (53, -1.38178050518035888672e-01) (54, -1.65326094627380371094e+00) (55, 2.30817675590515136719e-01) (56, -3.07024046778678894043e-02) (57, -9.10175800323486328125e-01) (58, -4.16039019823074340820e-01) (59, 2.85351365804672241211e-01) (60, -8.04973483085632324219e-01) (61, -2.84545004367828369141e-01) (31, -5.48144757747650146484e-01) (32, -2.29293093085289001465e-01) (33, -3.45026791095733642578e-01) (34, 7.39868104457855224609e-01) (35, -3.07446837425231933594e-01) (36, -1.62870556116104125977e-01) (37, -8.15559267997741699219e-01) (38, -2.74294540286064147949e-02) (39, 7.99748539924621582031e-01) (40, -5.71383833885192871094e-01) (41, 1.77791267633438110352e-01) (42, 3.49086254835128784180e-01) (43, 9.54176723957061767578e-01) (44, -2.40630283951759338379e-01) (45, -1.04359775781631469727e-01) (46, 3.09981882572174072266e-01) (47, 5.65113782882690429688e-01) (48, 1.25959694385528564453e+00) (49, 4.18225795030593872070e-01) (50, 3.93768399953842163086e-01) (51, -1.02393281459808349609e+00) (52, -8.03919851779937744141e-01) (53, 2.37843096256256103516e-01) (54, -1.04597651958465576172e+00) (55, -2.50766456127166748047e-01) (56, 1.94991067051887512207e-01) (57, -1.21353663504123687744e-01) (58, -3.31626445055007934570e-01) (59, 2.42073625326156616211e-01) (60, -2.78530627489089965820e-01) (61, -8.95582556724548339844e-01) (31, 2.94613420963287353516e-01) (32, -7.12432980537414550781e-01) (33, -1.83004200458526611328e-01) (34, -1.18496799468994140625e+00) (35, 4.75369781255722045898e-01) (36, -2.77558565139770507812e-01) (37, 5.76151192188262939453e-01) (38, -4.74225312471389770508e-01) (39, -3.72805893421173095703e-01) (40, 8.12584161758422851562e-03) (41, -5.28089284896850585938e-01) (42, -2.05493763089179992676e-01) (43, 1.75789713859558105469e-01) (44, -1.13815352320671081543e-01) (45, 6.12492799758911132812e-01) (46, -3.90697360038757324219e-01) (47, 6.39469921588897705078e-03) (48, 7.74954319000244140625e-01) (49, 1.10866501927375793457e-02) (50, -5.11230945587158203125e-01) (51, 7.05100774765014648438e-01) (52, 1.95786580443382263184e-01) (53, -2.92117893695831298828e-01) (54, -1.33462893962860107422e+00) (55, 3.34883868694305419922e-01) (56, 1.62356853485107421875e-01) (57, -9.98294591903686523438e-01) (58, -7.82898366451263427734e-01) (59, 2.03150153160095214844e-01) (60, -3.57841640710830688477e-01) (61, -1.13966810703277587891e+00) (31, 1.45568504929542541504e-01) (32, 2.21701890230178833008e-01) (33, 5.33879995346069335938e-01) (34, -1.26452684402465820312e-01) (35, 2.69025117158889770508e-01) (36, -4.72417116165161132812e-01) (37, 2.97119677066802978516e-01) (38, -3.05178523063659667969e-01) (39, -1.06170022487640380859e+00) (40, -9.63177531957626342773e-03) (41, 1.68371409177780151367e-01) (42, -7.11280167102813720703e-01) (43, -5.53745388984680175781e-01) (44, 8.59647616744041442871e-02) (45, 5.05001604557037353516e-01) (46, 1.94843336939811706543e-02) (47, 2.08212196826934814453e-01) (48, 4.25950706005096435547e-01) (49, 4.74790215492248535156e-01) (50, 2.61425703763961791992e-01) (51, 7.75285363197326660156e-01) (52, -4.02972757816314697266e-01) (53, -3.73551487922668457031e-01) (54, -6.09970510005950927734e-01) (55, 1.10973846912384033203e+00) (56, 3.76132458448410034180e-01) (57, -7.27579236030578613281e-01) (58, -1.02866005897521972656e+00) (59, -3.49879622459411621094e-01) (60, 1.02124683558940887451e-01) (61, -1.83391666412353515625e+00) (31, 8.48921760916709899902e-03) (32, -2.36757084727287292480e-01) (33, -1.94464579224586486816e-01) (34, -1.76941454410552978516e-01) (35, 4.65037748217582702637e-02) (36, -7.44849164038896560669e-03) (37, 1.95080041885375976562e-02) (38, 5.98968565464019775391e-03) (39, -8.22759717702865600586e-02) (40, -4.15210127830505371094e-01) (41, 4.52756047248840332031e-01) (42, -3.35016965866088867188e-01) (43, 4.53436136245727539062e-01) (44, -1.87729030847549438477e-01) (45, -2.69859395921230316162e-02) (46, -2.33353704214096069336e-01) (47, 1.15571126341819763184e-01) (48, 4.64777290821075439453e-01) (49, -4.24332946538925170898e-01) (50, -2.45029360055923461914e-01) (51, -1.09781920909881591797e-01) (52, -2.07746624946594238281e-01) (53, -2.56667017936706542969e-01) (54, 3.19587625563144683838e-02) (55, 1.30137398838996887207e-01) (56, 5.04855155944824218750e-01) (57, 1.66185170412063598633e-01) (58, -2.11355060338973999023e-01) (59, 1.83511734008789062500e-01) (60, -2.22193539142608642578e-01) (61, -2.37252140045166015625e+00) (31, -7.46920183300971984863e-02) (32, -7.37149193882942199707e-02) (33, -2.28251665830612182617e-01) (34, -2.15509027242660522461e-01) (35, -1.56536340713500976562e-01) (36, -5.08893765509128570557e-02) (37, -8.95617529749870300293e-02) (38, -1.05281867086887359619e-01) (39, 2.52156518399715423584e-03) (40, -3.10550153255462646484e-01) (41, 4.19550716876983642578e-01) (42, -1.16596937179565429688e-01) (43, 6.06012701988220214844e-01) (44, -8.34343731403350830078e-02) (45, 2.49250471591949462891e-01) (46, -2.26085223257541656494e-02) (47, 3.23346592485904693604e-02) (48, 6.51995539665222167969e-01) (49, -3.03052335977554321289e-01) (50, -2.19123691320419311523e-01) (51, -2.55703419446945190430e-01) (52, -3.18787902593612670898e-01) (53, -1.34332492947578430176e-01) (54, 2.20820322632789611816e-01) (55, 2.59850353002548217773e-01) (56, 4.38449442386627197266e-01) (57, 3.70382741093635559082e-02) (58, -1.99244886636734008789e-01) (59, 1.16249412298202514648e-01) (60, -1.02733761072158813477e-01) (61, -2.43690180778503417969e+00) (31, -8.62759947776794433594e-02) (32, -2.36352980136871337891e-01) (33, -2.67392128705978393555e-01) (34, -1.54175177216529846191e-01) (35, -1.26750841736793518066e-02) (36, -5.12179657816886901855e-02) (37, -3.96815419197082519531e-01) (38, -7.26289227604866027832e-02) (39, -2.54518650472164154053e-02) (40, -2.63258844614028930664e-01) (41, 3.76351267099380493164e-01) (42, -7.55389183759689331055e-02) (43, 4.20200228691101074219e-01) (44, 2.61712390929460525513e-02) (45, 1.95070639252662658691e-01) (46, 4.09102998673915863037e-04) (47, 1.34500101208686828613e-01) (48, 7.20057010650634765625e-01) (49, -3.47680151462554931641e-01) (50, -1.85673162341117858887e-01) (51, -1.09026767313480377197e-01) (52, -2.70277470350265502930e-01) (53, -2.15292289853096008301e-01) (54, 2.80910342931747436523e-01) (55, 2.44346633553504943848e-01) (56, 5.06412625312805175781e-01) (57, 1.24670043587684631348e-01) (58, -1.57283321022987365723e-01) (59, 2.30559870600700378418e-01) (60, -1.73280298709869384766e-01) (61, -2.45654416084289550781e+00) (31, -3.79581779241561889648e-01) (32, 1.52729734778404235840e-01) (33, 1.89518570899963378906e-01) (34, -1.32513195276260375977e-01) (35, 3.69060933589935302734e-01) (36, 4.50131185352802276611e-02) (37, 2.95309662818908691406e-01) (38, 3.41893494129180908203e-01) (39, -2.89409846067428588867e-01) (40, 2.61849254369735717773e-01) (41, 5.35203695297241210938e-01) (42, 4.09397929906845092773e-02) (43, 4.27961461246013641357e-02) (44, 3.24953764677047729492e-01) (45, -4.97603341937065124512e-02) (46, 1.16791270673274993896e-01) (47, 9.43498462438583374023e-02) (48, -8.39823424816131591797e-01) (49, -6.71484693884849548340e-02) (50, 1.53218314051628112793e-01) (51, 1.16451777517795562744e-01) (52, 1.94523632526397705078e-01) (53, 9.14696231484413146973e-02) (54, 1.68804001808166503906e+00) (55, 1.80018171668052673340e-01) (56, 4.20179516077041625977e-02) (57, 9.01322603225708007812e-01) (58, 4.66441482305526733398e-01) (59, -5.62796533107757568359e-01) (60, 4.99564677476882934570e-01) (61, -5.39545357227325439453e-01) (31, 1.61173313856124877930e-01) (32, -3.33171963691711425781e-01) (33, 7.06368684768676757812e-01) (34, -3.77749204635620117188e-02) (35, 3.08373086154460906982e-02) (36, -5.49398481845855712891e-01) (37, 1.06759560108184814453e+00) (38, 9.25185978412628173828e-01) (39, -2.39121913909912109375e-01) (40, 5.79556286334991455078e-01) (41, 5.56809604167938232422e-01) (42, -7.34881937503814697266e-01) (43, -3.07399556040763854980e-02) (44, 3.24527800083160400391e-01) (45, -2.27107688784599304199e-01) (46, 9.58953619003295898438e-01) (47, 3.55117350816726684570e-01) (48, -2.35773082822561264038e-02) (49, 4.30134832859039306641e-02) (50, -2.32043519616127014160e-01) (51, 4.68639224767684936523e-01) (52, -5.56653998792171478271e-02) (53, -2.83355295658111572266e-01) (54, 1.47866821289062500000e+00) (55, -4.85751509666442871094e-01) (56, -2.86489307880401611328e-01) (57, 1.17117261886596679688e+00) (58, 1.57706901431083679199e-01) (59, -2.46284097433090209961e-01) (60, 4.51442360877990722656e-01) (61, -1.74619996547698974609e+00) (31, -1.11954617500305175781e+00) (32, -2.68919523805379867554e-02) (33, 1.97348728775978088379e-01) (34, 1.75224080681800842285e-01) (35, 9.46297049522399902344e-02) (36, 6.91053941845893859863e-02) (37, 4.36961740255355834961e-01) (38, -1.60387665033340454102e-01) (39, -1.78199961781501770020e-01) (40, 1.00778765976428985596e-01) (41, 1.38502478599548339844e+00) (42, -6.21332645416259765625e-01) (43, 7.05799221992492675781e-01) (44, 4.37017291784286499023e-01) (45, -4.09579098224639892578e-01) (46, 4.04117584228515625000e-01) (47, -3.57743427157402038574e-02) (48, 9.96228039264678955078e-01) (49, 5.64063293859362602234e-03) (50, 4.62383389472961425781e-01) (51, 4.51780587434768676758e-01) (52, -3.68034690618515014648e-02) (53, 1.04253843426704406738e-01) (54, 1.24105989933013916016e+00) (55, -1.29060581326484680176e-01) (56, -1.91474124789237976074e-01) (57, 2.34081208705902099609e-01) (58, 1.89267858862876892090e-01) (59, -2.85828709602355957031e-01) (60, 8.06259140372276306152e-02) (61, -3.18394255638122558594e+00) (31, 7.66536742448806762695e-02) (32, -9.36524495482444763184e-02) (33, 1.19126409292221069336e-01) (34, 1.65042862296104431152e-01) (35, -4.03064340353012084961e-01) (36, 4.55568023025989532471e-02) (37, -1.87580600380897521973e-01) (38, 4.91363614797592163086e-01) (39, 3.03753644227981567383e-01) (40, -1.50606676936149597168e-01) (41, 2.80781745910644531250e-01) (42, -1.15046106278896331787e-01) (43, 3.66357386112213134766e-01) (44, 5.24332970380783081055e-02) (45, 1.86346247792243957520e-01) (46, 2.93882489204406738281e-01) (47, 7.62931853532791137695e-02) (48, -7.46692419052124023438e-01) (49, 1.30857661366462707520e-01) (50, 2.26870849728584289551e-02) (51, 1.68658986687660217285e-01) (52, 1.75538688898086547852e-01) (53, 2.06080377101898193359e-01) (54, 1.53647601604461669922e+00) (55, -1.91292345523834228516e-01) (56, 2.28612512350082397461e-01) (57, 6.86979711055755615234e-01) (58, 4.64212477207183837891e-01) (59, -2.99396753311157226562e-01) (60, 4.16234463453292846680e-01) (61, -1.28929018974304199219e-01) (31, -6.04382395744323730469e-01) (32, -2.45073676109313964844e-01) (33, 2.83404290676116943359e-01) (34, 4.05697464942932128906e-01) (35, -4.56036865711212158203e-01) (36, -1.36837944388389587402e-01) (37, -3.35234791040420532227e-01) (38, 1.02618515491485595703e+00) (39, 6.60155564546585083008e-02) (40, -2.39901810884475708008e-01) (41, 5.43279945850372314453e-01) (42, -2.18068938702344894409e-02) (43, 6.56782984733581542969e-01) (44, 8.75636935234069824219e-02) (45, 2.76956588029861450195e-01) (46, 1.58567368984222412109e-01) (47, 6.58396303653717041016e-01) (48, -4.40658807754516601562e-01) (49, 6.14332437515258789062e-01) (50, 4.91828799247741699219e-01) (51, -2.00699388980865478516e-01) (52, -1.03966183960437774658e-01) (53, 7.08459541201591491699e-02) (54, 1.71107673645019531250e+00) (55, 3.29091727733612060547e-01) (56, 4.78049337863922119141e-01) (57, 9.12630856037139892578e-01) (58, 2.70298957824707031250e-01) (59, -5.95631778240203857422e-01) (60, 7.98441946506500244141e-01) (61, -9.95154023170471191406e-01) (31, -4.95966315269470214844e-01) (32, 1.86236605048179626465e-01) (33, 4.06804889440536499023e-01) (34, -4.80948537588119506836e-01) (35, 9.55639839172363281250e-01) (36, 1.60788252949714660645e-01) (37, 5.38137972354888916016e-01) (38, 5.13831317424774169922e-01) (39, -6.72308146953582763672e-01) (40, -3.95129667595028877258e-03) (41, 2.31347203254699707031e-01) (42, 3.25054042041301727295e-02) (43, 7.32419788837432861328e-01) (44, 4.27753120660781860352e-01) (45, -1.33595883846282958984e-01) (46, -1.48291498422622680664e-01) (47, -1.77581772208213806152e-01) (48, -2.10798740386962890625e-01) (49, -2.67230451107025146484e-01) (50, 1.85771718621253967285e-01) (51, 4.61574792861938476562e-01) (52, 1.13903856277465820312e+00) (53, 2.08846732974052429199e-01) (54, 1.61058413982391357422e+00) (55, -1.73393320292234420776e-02) (56, 3.90524178743362426758e-01) (57, 5.32575964927673339844e-01) (58, 7.50889420509338378906e-01) (59, -9.96348619461059570312e-01) (60, 7.94030785560607910156e-01) (61, -1.79911458492279052734e+00) (31, -1.44202709197998046875e-01) (32, 1.33698463439941406250e-01) (33, 2.34571382403373718262e-01) (34, -1.62894621491432189941e-01) (35, 9.54692780971527099609e-01) (36, -2.14866906404495239258e-01) (37, 5.15070617198944091797e-01) (38, 3.76854330301284790039e-01) (39, -1.01768124103546142578e+00) (40, -1.75608724355697631836e-01) (41, 5.10297298431396484375e-01) (42, -6.82549953460693359375e-01) (43, -4.17158514261245727539e-01) (44, -2.21604295074939727783e-02) (45, 3.32308143377304077148e-01) (46, -3.36614072322845458984e-01) (47, 3.93261760473251342773e-01) (48, 6.86653673648834228516e-01) (49, 4.96354460716247558594e-01) (50, 6.22569799423217773438e-01) (51, 4.58220571279525756836e-01) (52, 8.48501622676849365234e-02) (53, -3.67114692926406860352e-02) (54, 9.84256744384765625000e-01) (55, 8.89524281024932861328e-01) (56, 1.31824016571044921875e+00) (57, 3.94275993108749389648e-01) (58, -2.49609544873237609863e-01) (59, -7.24429547786712646484e-01) (60, 1.04509723186492919922e+00) (61, -2.57581877708435058594e+00) (31, -2.83040136098861694336e-01) (32, -3.29930216073989868164e-01) (33, -8.77244323492050170898e-02) (34, -2.32975602149963378906e-01) (35, 2.46288403868675231934e-01) (36, -5.04236459732055664062e-01) (37, 8.65546405315399169922e-01) (38, 3.66244375705718994141e-01) (39, -3.42111140489578247070e-01) (40, 5.45964017510414123535e-02) (41, 5.93556523323059082031e-01) (42, 1.93935304880142211914e-01) (43, -1.19499973952770233154e-02) (44, -2.42219939827919006348e-01) (45, 1.21808081865310668945e-01) (46, -1.83533072471618652344e-01) (47, 5.71766793727874755859e-01) (48, 4.51360374689102172852e-01) (49, 4.72309499979019165039e-01) (50, -7.02746957540512084961e-02) (51, -1.34986340999603271484e-02) (52, 1.14118158817291259766e-01) (53, -1.61482632160186767578e-01) (54, 1.24886620044708251953e+00) (55, 1.46903127431869506836e-01) (56, 8.12101483345031738281e-01) (57, 4.94617074728012084961e-01) (58, -2.93019473552703857422e-01) (59, -4.20818150043487548828e-01) (60, 4.63478714227676391602e-01) (61, -2.73962426185607910156e+00) (31, -4.43587332963943481445e-01) (32, 2.70726159214973449707e-02) (33, -9.89584699273109436035e-02) (34, -8.82976874709129333496e-02) (35, -3.87270182371139526367e-01) (36, -6.34388774633407592773e-02) (37, 3.40285077691078186035e-02) (38, -3.17240729928016662598e-02) (39, 1.62746369838714599609e-01) (40, -1.18046991527080535889e-01) (41, 5.94740509986877441406e-01) (42, 4.29082475602626800537e-02) (43, 3.02274376153945922852e-01) (44, 6.07243180274963378906e-02) (45, 3.21457892656326293945e-01) (46, -2.01801404356956481934e-01) (47, 4.45113256573677062988e-02) (48, 3.91522288322448730469e-01) (49, 6.04835115373134613037e-02) (50, 2.39818081259727478027e-01) (51, -5.42644560337066650391e-02) (52, 1.56986922025680541992e-01) (53, 5.16194030642509460449e-02) (54, 8.06113243103027343750e-01) (55, 3.57062101364135742188e-01) (56, 5.62035918235778808594e-01) (57, -5.26599995791912078857e-02) (58, -2.24910318851470947266e-01) (59, -3.80103349685668945312e-01) (60, 3.16436946392059326172e-01) (61, -2.65918993949890136719e+00) (31, -9.99109148979187011719e-02) (32, -9.05106216669082641602e-02) (33, -6.67808577418327331543e-02) (34, -5.10381981730461120605e-02) (35, -1.35780870914459228516e-01) (36, -2.57432967424392700195e-01) (37, -1.50686562061309814453e-01) (38, 2.64182209968566894531e-01) (39, 1.31140783429145812988e-01) (40, -1.67238399386405944824e-01) (41, 1.27832308411598205566e-01) (42, -1.06986626982688903809e-01) (43, 3.34317684173583984375e-01) (44, 1.07807561755180358887e-01) (45, 2.56986111402511596680e-01) (46, -1.06353826820850372314e-01) (47, 3.76596808433532714844e-01) (48, 3.80637764930725097656e-01) (49, 1.94033220410346984863e-01) (50, 1.63334071636199951172e-01) (51, -1.05891987681388854980e-01) (52, 1.11671283841133117676e-01) (53, -2.08430409431457519531e-01) (54, 5.47924101352691650391e-01) (55, 4.33181196451187133789e-01) (56, 3.43017369508743286133e-01) (57, 1.71162083745002746582e-01) (58, -3.26453655958175659180e-01) (59, -2.82983154058456420898e-01) (60, 8.88495892286300659180e-02) (61, -2.68142199516296386719e+00) 
