FANN_FLO_2.1
num_layers=3
learning_rate=0.698859
connection_rate=1.000000
network_type=0
learning_momentum=0.000000
training_algorithm=0
train_error_function=1
train_stop_function=0
cascade_output_change_fraction=0.010000
quickprop_decay=-0.000100
quickprop_mu=1.750000
rprop_increase_factor=1.200000
rprop_decrease_factor=0.500000
rprop_delta_min=0.000000
rprop_delta_max=50.000000
rprop_delta_zero=0.100000
cascade_output_stagnation_epochs=12
cascade_candidate_change_fraction=0.010000
cascade_candidate_stagnation_epochs=12
cascade_max_out_epochs=150
cascade_min_out_epochs=50
cascade_max_cand_epochs=150
cascade_min_cand_epochs=50
cascade_num_candidate_groups=2
bit_fail_limit=3.49999994039535522461e-01
cascade_candidate_limit=1.00000000000000000000e+03
cascade_weight_multiplier=4.00000005960464477539e-01
cascade_activation_functions_count=10
cascade_activation_functions=3 5 7 8 10 11 14 15 16 17 
cascade_activation_steepnesses_count=38
cascade_activation_steepnesses=0.00000000000000000000e+00 0.00000000000000000000e+00 0.00000000000000000000e+00 1.00000000000000000000e+01 6.08200000000000000000e+03 6.08300000000000000000e+03 6.08400000000000000000e+03 6.08500000000000000000e+03 6.08600000000000000000e+03 6.08700000000000000000e+03 6.08900000000000000000e+03 6.09000000000000000000e+03 6.09100000000000000000e+03 6.09200000000000000000e+03 0.00000000000000000000e+00 0.00000000000000000000e+00 2.00000000000000000000e+01 1.07629000000000000000e+06 1.07629100000000000000e+06 1.07629200000000000000e+06 1.07629300000000000000e+06 1.07629400000000000000e+06 1.07629500000000000000e+06 1.07629700000000000000e+06 1.07629800000000000000e+06 1.07629900000000000000e+06 1.07630000000000000000e+06 1.07667400000000000000e+06 1.07667500000000000000e+06 1.07667600000000000000e+06 1.07667700000000000000e+06 1.07667800000000000000e+06 1.07667900000000000000e+06 1.07668100000000000000e+06 1.07668200000000000000e+06 1.07668300000000000000e+06 1.07668400000000000000e+06 0.00000000000000000000e+00 
layer_sizes=31 31 31 
scale_included=0
neurons (num_inputs, activation_function, activation_steepness)=(0, 0, 0.00000000000000000000e+00) (0, 0, 0.00000000000000000000e+00) (0, 0, 0.00000000000000000000e+00) (0, 0, 0.00000000000000000000e+00) (0, 0, 0.00000000000000000000e+00) (0, 0, 0.00000000000000000000e+00) (0, 0, 0.00000000000000000000e+00) (0, 0, 0.00000000000000000000e+00) (0, 0, 0.00000000000000000000e+00) (0, 0, 0.00000000000000000000e+00) (0, 0, 0.00000000000000000000e+00) (0, 0, 0.00000000000000000000e+00) (0, 0, 0.00000000000000000000e+00) (0, 0, 0.00000000000000000000e+00) (0, 0, 0.00000000000000000000e+00) (0, 0, 0.00000000000000000000e+00) (0, 0, 0.00000000000000000000e+00) (0, 0, 0.00000000000000000000e+00) (0, 0, 0.00000000000000000000e+00) (0, 0, 0.00000000000000000000e+00) (0, 0, 0.00000000000000000000e+00) (0, 0, 0.00000000000000000000e+00) (0, 0, 0.00000000000000000000e+00) (0, 0, 0.00000000000000000000e+00) (0, 0, 0.00000000000000000000e+00) (0, 0, 0.00000000000000000000e+00) (0, 0, 0.00000000000000000000e+00) (0, 0, 0.00000000000000000000e+00) (0, 0, 0.00000000000000000000e+00) (0, 0, 0.00000000000000000000e+00) (0, 0, 0.00000000000000000000e+00) (31, 5, 5.00000000000000000000e-01) (31, 5, 5.00000000000000000000e-01) (31, 5, 5.00000000000000000000e-01) (31, 5, 5.00000000000000000000e-01) (31, 5, 5.00000000000000000000e-01) (31, 5, 5.00000000000000000000e-01) (31, 5, 5.00000000000000000000e-01) (31, 5, 5.00000000000000000000e-01) (31, 5, 5.00000000000000000000e-01) (31, 5, 5.00000000000000000000e-01) (31, 5, 5.00000000000000000000e-01) (31, 5, 5.00000000000000000000e-01) (31, 5, 5.00000000000000000000e-01) (31, 5, 5.00000000000000000000e-01) (31, 5, 5.00000000000000000000e-01) (31, 5, 5.00000000000000000000e-01) (31, 5, 5.00000000000000000000e-01) (31, 5, 5.00000000000000000000e-01) (31, 5, 5.00000000000000000000e-01) (31, 5, 5.00000000000000000000e-01) (31, 5, 5.00000000000000000000e-01) (31, 5, 5.00000000000000000000e-01) (31, 5, 5.00000000000000000000e-01) (31, 5, 5.00000000000000000000e-01) (31, 5, 5.00000000000000000000e-01) (31, 5, 5.00000000000000000000e-01) (31, 5, 5.00000000000000000000e-01) (31, 5, 5.00000000000000000000e-01) (31, 5, 5.00000000000000000000e-01) (31, 5, 5.00000000000000000000e-01) (0, 5, 0.00000000000000000000e+00) (31, 3, 5.00000000000000000000e-01) (31, 3, 5.00000000000000000000e-01) (31, 3, 5.00000000000000000000e-01) (31, 3, 5.00000000000000000000e-01) (31, 3, 5.00000000000000000000e-01) (31, 3, 5.00000000000000000000e-01) (31, 3, 5.00000000000000000000e-01) (31, 3, 5.00000000000000000000e-01) (31, 3, 5.00000000000000000000e-01) (31, 3, 5.00000000000000000000e-01) (31, 3, 5.00000000000000000000e-01) (31, 3, 5.00000000000000000000e-01) (31, 3, 5.00000000000000000000e-01) (31, 3, 5.00000000000000000000e-01) (31, 3, 5.00000000000000000000e-01) (31, 3, 5.00000000000000000000e-01) (31, 3, 5.00000000000000000000e-01) (31, 3, 5.00000000000000000000e-01) (31, 3, 5.00000000000000000000e-01) (31, 3, 5.00000000000000000000e-01) (31, 3, 5.00000000000000000000e-01) (31, 3, 5.00000000000000000000e-01) (31, 3, 5.00000000000000000000e-01) (31, 3, 5.00000000000000000000e-01) (31, 3, 5.00000000000000000000e-01) (31, 3, 5.00000000000000000000e-01) (31, 3, 5.00000000000000000000e-01) (31, 3, 5.00000000000000000000e-01) (31, 3, 5.00000000000000000000e-01) (31, 3, 5.00000000000000000000e-01) (0, 3, 0.00000000000000000000e+00) 
connections (connected_to_neuron, weight)=(0, -4.08456623554229736328e-02) (1, -1.91564142704010009766e-01) (2, 1.06057345867156982422e+00) (3, 6.04039907455444335938e-01) (4, 3.31546962261199951172e-01) (5, 2.79250800609588623047e-01) (6, 2.03859761357307434082e-01) (7, -5.24603009223937988281e-01) (8, -4.27004247903823852539e-01) (9, -1.10817886888980865479e-01) (10, -1.15841276943683624268e-01) (11, -2.45526671409606933594e-01) (12, 3.69267374277114868164e-01) (13, 1.73619002103805541992e-01) (14, 2.34482765197753906250e-01) (15, 5.90799823403358459473e-02) (16, 1.07084490358829498291e-01) (17, -5.10951995849609375000e-01) (18, -3.96248787641525268555e-01) (19, 4.77585643529891967773e-02) (20, 9.19156819581985473633e-02) (21, -1.17671554908156394958e-02) (22, 5.89745700359344482422e-01) (23, 4.72336173057556152344e-01) (24, 2.06175893545150756836e-01) (25, 1.91387340426445007324e-01) (26, 1.42045304179191589355e-01) (27, -1.42186284065246582031e-01) (28, -1.89399704337120056152e-01) (29, -1.52210652828216552734e-01) (30, -2.60631173849105834961e-01) (0, -9.63735818862915039062e-01) (1, 4.80960547924041748047e-01) (2, -1.67847692966461181641e+00) (3, -1.23474013805389404297e+00) (4, -6.39756858348846435547e-01) (5, 7.20077753067016601562e-03) (6, 8.86914014816284179688e-01) (7, -9.32766914367675781250e-01) (8, -1.96468070149421691895e-01) (9, 9.16530847549438476562e-01) (10, -6.94020390510559082031e-01) (11, 2.02493425458669662476e-02) (12, -3.94579768180847167969e-01) (13, -1.12675771117210388184e-01) (14, -8.47915336489677429199e-02) (15, 3.80923032760620117188e-01) (16, 9.31586682796478271484e-01) (17, -2.38895460963249206543e-01) (18, -3.77150624990463256836e-02) (19, 1.03361375629901885986e-01) (20, -4.06333953142166137695e-01) (21, 3.67423266172409057617e-01) (22, -1.02826797962188720703e+00) (23, -9.69641745090484619141e-01) (24, -4.92015749216079711914e-01) (25, -4.04010176658630371094e-01) (26, 2.43012189865112304688e-01) (27, -6.69464945793151855469e-01) (28, -1.00559502840042114258e-01) (29, 8.50086271762847900391e-01) (30, 3.79675477743148803711e-01) (0, 3.11483085155487060547e-01) (1, -1.59946322441101074219e-01) (2, -1.65984761714935302734e+00) (3, -1.61707830429077148438e+00) (4, 3.33797246217727661133e-01) (5, -3.23844254016876220703e-02) (6, -2.09738746285438537598e-01) (7, -5.62939882278442382812e-01) (8, 5.99782168865203857422e-01) (9, 2.11375340819358825684e-01) (10, 3.06970328092575073242e-01) (11, 1.61293148994445800781e-01) (12, -2.30132877826690673828e-01) (13, -4.62176173925399780273e-01) (14, 1.02902136743068695068e-01) (15, 2.07518726587295532227e-01) (16, 5.88164106011390686035e-02) (17, 1.56409263610839843750e-01) (18, 2.72986412048339843750e-01) (19, 1.38116925954818725586e-01) (20, 6.26586470752954483032e-03) (21, -1.56749039888381958008e-01) (22, -1.22088658809661865234e+00) (23, -1.06869935989379882812e+00) (24, 5.90362370014190673828e-01) (25, -3.50524485111236572266e-01) (26, -1.51801571249961853027e-01) (27, -5.92608988285064697266e-01) (28, 6.06395304203033447266e-01) (29, 1.37767896056175231934e-01) (30, 6.12756848335266113281e-01) (0, 5.17403036355972290039e-02) (1, 1.50939977169036865234e+00) (2, -3.97195130586624145508e-01) (3, 5.18661439418792724609e-01) (4, -3.87087501585483551025e-02) (5, -2.98248946666717529297e-01) (6, -1.13442420959472656250e-01) (7, 4.62742060422897338867e-01) (8, 2.89268605411052703857e-02) (9, -4.89224642515182495117e-02) (10, 1.67248904705047607422e-01) (11, 6.07822000980377197266e-01) (12, -2.30644911527633666992e-01) (13, 1.43766850233078002930e-01) (14, -1.60095244646072387695e-01) (15, -1.88811644911766052246e-01) (16, -3.70759844779968261719e-01) (17, 1.70329719781875610352e-01) (18, 8.22190940380096435547e-03) (19, 4.77194935083389282227e-02) (20, -1.15770511329174041748e-01) (21, 8.73431801795959472656e-01) (22, -2.59947985410690307617e-01) (23, 2.20627218484878540039e-01) (24, -1.87500208616256713867e-01) (25, 1.37591004371643066406e-01) (26, 1.30642950534820556641e-01) (27, 2.21104964613914489746e-01) (28, -9.28752571344375610352e-02) (29, -1.07759989798069000244e-01) (30, -2.15655207633972167969e-01) (0, -9.08481419086456298828e-01) (1, -8.67410778999328613281e-01) (2, -5.88068723678588867188e-01) (3, -6.32949769496917724609e-01) (4, -3.12574684619903564453e-01) (5, 3.22277218103408813477e-01) (6, 1.03746175765991210938e+00) (7, 5.39826869964599609375e-01) (8, 2.63556987047195434570e-01) (9, 4.40365262329578399658e-02) (10, -6.85660600662231445312e-01) (11, -3.78753304481506347656e-01) (12, -3.17503720521926879883e-01) (13, -4.28109765052795410156e-01) (14, -3.90348464250564575195e-01) (15, -7.77411162853240966797e-02) (16, 5.28020262718200683594e-01) (17, 2.49782219529151916504e-01) (18, 1.85592606663703918457e-01) (19, -3.50951403379440307617e-02) (20, -3.00885170698165893555e-01) (21, -4.50676739215850830078e-01) (22, -5.21155834197998046875e-01) (23, -3.22941690683364868164e-01) (24, -7.89023488759994506836e-02) (25, 2.33273029327392578125e-01) (26, 5.15712380409240722656e-01) (27, 1.13108105957508087158e-01) (28, -8.81313532590866088867e-02) (29, 1.11101709306240081787e-01) (30, 8.02133604884147644043e-02) (0, -1.35423913598060607910e-01) (1, -1.15343797951936721802e-02) (2, -6.63906931877136230469e-01) (3, -4.46929365396499633789e-01) (4, 1.64154723286628723145e-01) (5, 4.58495557308197021484e-01) (6, 4.16300922632217407227e-01) (7, -9.22468543052673339844e-01) (8, 1.33153885602951049805e-01) (9, 5.88215768337249755859e-01) (10, -1.35126590728759765625e-01) (11, 9.93710234761238098145e-02) (12, -1.26196086406707763672e-01) (13, -9.14506465196609497070e-02) (14, -2.50925086438655853271e-02) (15, 1.26473397016525268555e-01) (16, 2.70844131708145141602e-01) (17, -3.26330423355102539062e-01) (18, -2.46597826480865478516e-02) (19, 1.91375583410263061523e-01) (20, 1.20200082659721374512e-01) (21, -1.18767276406288146973e-01) (22, -3.63249033689498901367e-01) (23, -2.29300528764724731445e-01) (24, 3.48491668701171875000e-01) (25, 3.52773725986480712891e-01) (26, 3.14723104238510131836e-01) (27, -5.77012836933135986328e-01) (28, 1.36251837015151977539e-01) (29, 2.11111292243003845215e-01) (30, 1.84230849146842956543e-01) (0, 1.46706461906433105469e-01) (1, -4.57860857248306274414e-01) (2, -9.08062160015106201172e-02) (3, 7.44404435157775878906e-01) (4, 1.37796238064765930176e-01) (5, 9.24249291419982910156e-02) (6, -3.96917760372161865234e-02) (7, -1.13187439739704132080e-01) (8, 1.25401049852371215820e-01) (9, -2.54745960235595703125e-01) (10, -4.75841062143445014954e-03) (11, -1.98029235005378723145e-01) (12, -1.65605053305625915527e-01) (13, -5.98890967667102813721e-02) (14, 4.55994298681616783142e-03) (15, -4.97809797525405883789e-02) (16, -2.15603485703468322754e-01) (17, -2.15645670890808105469e-01) (18, 8.61982107162475585938e-02) (19, -2.03969143331050872803e-02) (20, 1.56269997358322143555e-01) (21, -4.59276109933853149414e-01) (22, -2.39379703998565673828e-01) (23, 6.70078337192535400391e-01) (24, 2.27837771177291870117e-01) (25, 2.27012082934379577637e-01) (26, 2.39976495504379272461e-02) (27, -1.70780226588249206543e-01) (28, 3.72486934065818786621e-02) (29, -3.93758863210678100586e-01) (30, -2.76244312524795532227e-01) (0, -7.03572750091552734375e-01) (1, 1.33253395557403564453e-01) (2, -5.06137358024716377258e-03) (3, -4.41080272197723388672e-01) (4, -6.23403072357177734375e-01) (5, -6.93745493888854980469e-01) (6, 1.83464866131544113159e-02) (7, -4.30701047182083129883e-01) (8, -5.85515387356281280518e-02) (9, -1.21830567717552185059e-01) (10, -1.31680384278297424316e-01) (11, 1.74673348665237426758e-01) (12, 3.88123422861099243164e-01) (13, 6.32383763790130615234e-01) (14, 2.73393690586090087891e-01) (15, 3.00707250833511352539e-01) (16, 4.36016619205474853516e-01) (17, 2.41570528596639633179e-02) (18, -1.82806104421615600586e-02) (19, -1.17140235379338264465e-02) (20, -4.64685052633285522461e-01) (21, -7.07691460847854614258e-02) (22, 1.12863266840577125549e-02) (23, -5.95089375972747802734e-01) (24, -5.26162028312683105469e-01) (25, -9.32324945926666259766e-01) (26, -1.12976342439651489258e-01) (27, 2.07711495459079742432e-02) (28, 1.25285178422927856445e-01) (29, 8.01817793399095535278e-03) (30, -3.16771984100341796875e-01) (0, -5.78273355960845947266e-01) (1, -6.75055027008056640625e-01) (2, -1.49522995948791503906e+00) (3, -1.63617581129074096680e-01) (4, -5.77467262744903564453e-01) (5, -2.17085301876068115234e-01) (6, 3.61440896987915039062e-01) (7, 6.96347534656524658203e-01) (8, 8.30315470695495605469e-01) (9, -1.66495859622955322266e-01) (10, -3.35108458995819091797e-01) (11, -2.27462440729141235352e-01) (12, -3.33557903766632080078e-01) (13, -8.42307433485984802246e-02) (14, -4.02744531631469726562e-01) (15, -2.34842509031295776367e-01) (16, 7.69240260124206542969e-02) (17, 2.72648155689239501953e-01) (18, 2.44802713394165039062e-01) (19, -1.66175380349159240723e-01) (20, -2.32844173908233642578e-01) (21, -5.20918905735015869141e-01) (22, -1.24343979358673095703e+00) (23, -1.83965355157852172852e-01) (24, -4.70688104629516601562e-01) (25, -1.35757893323898315430e-01) (26, 5.74827790260314941406e-02) (27, 1.76214113831520080566e-01) (28, 4.04280006885528564453e-01) (29, -4.30954396724700927734e-02) (30, 8.35586726665496826172e-01) (0, -3.68838280439376831055e-01) (1, -2.19525516033172607422e-01) (2, -3.93759846687316894531e-01) (3, 2.60942764580249786377e-02) (4, 7.65252709388732910156e-02) (5, 2.80650526285171508789e-01) (6, 3.65064799785614013672e-01) (7, 2.08135545253753662109e-01) (8, 5.82463294267654418945e-02) (9, -6.27237334847450256348e-02) (10, -2.82842665910720825195e-01) (11, -1.26495182514190673828e-01) (12, -2.26773247122764587402e-01) (13, -2.63096392154693603516e-01) (14, -1.90576657652854919434e-01) (15, -1.25467687845230102539e-01) (16, 2.77673840522766113281e-01) (17, 1.71122923493385314941e-01) (18, 2.35798694193363189697e-02) (19, -9.45966839790344238281e-02) (20, 3.40529233217239379883e-02) (21, -6.73234760761260986328e-02) (22, -3.75465750694274902344e-01) (23, 5.96056617796421051025e-02) (24, 1.51788428425788879395e-01) (25, 2.55303233861923217773e-01) (26, 9.68963503837585449219e-02) (27, -5.96616193652153015137e-02) (28, 5.75636774301528930664e-02) (29, 9.78291686624288558960e-03) (30, -1.51646817103028297424e-02) (0, -1.23678576946258544922e+00) (1, -9.28283452987670898438e-01) (2, -6.46705508232116699219e-01) (3, 2.01703220605850219727e-01) (4, -4.29561823606491088867e-01) (5, 4.43621240556240081787e-02) (6, 1.03678929805755615234e+00) (7, 5.24264812469482421875e-01) (8, 1.19194336235523223877e-01) (9, -4.29836690425872802734e-01) (10, -9.12786662578582763672e-01) (11, -4.45161283016204833984e-01) (12, -2.53149956464767456055e-01) (13, 3.92732545733451843262e-02) (14, -1.91750064492225646973e-01) (15, 3.14859971404075622559e-02) (16, 7.86267578601837158203e-01) (17, 2.23056137561798095703e-01) (18, 1.42357885837554931641e-01) (19, -2.11976259946823120117e-01) (20, -3.41022729873657226562e-01) (21, -3.66068571805953979492e-01) (22, -3.66912424564361572266e-01) (23, 4.29234318435192108154e-02) (24, -3.08969885110855102539e-01) (25, -1.27217650413513183594e-01) (26, 1.51699960231781005859e-01) (27, 3.44555586576461791992e-01) (28, -1.32584860548377037048e-02) (29, -1.54694393277168273926e-01) (30, -3.88097047805786132812e-01) (0, -4.48082745075225830078e-01) (1, -9.96124744415283203125e-01) (2, -4.01184499263763427734e-01) (3, -2.02206850051879882812e-01) (4, 2.86971569061279296875e-01) (5, 7.22927808761596679688e-01) (6, 8.41229081153869628906e-01) (7, -1.15646505355834960938e+00) (8, 3.45520168542861938477e-01) (9, 3.98239493370056152344e-01) (10, -4.72271084785461425781e-01) (11, -5.68991243839263916016e-01) (12, -1.11285880208015441895e-01) (13, -4.04820561408996582031e-01) (14, 3.82570959627628326416e-02) (15, 3.39925795793533325195e-01) (16, 6.84475958347320556641e-01) (17, -3.61840397119522094727e-01) (18, 3.10877226293087005615e-02) (19, 8.10954645276069641113e-02) (20, 9.84052941203117370605e-02) (21, -4.85118150711059570312e-01) (22, -3.21983188390731811523e-01) (23, 2.55217105150222778320e-01) (24, 2.17464432120323181152e-01) (25, 3.97008657455444335938e-01) (26, 2.94612497091293334961e-01) (27, -7.98450112342834472656e-01) (28, 4.36236709356307983398e-01) (29, 3.04354220628738403320e-01) (30, 3.33197146654129028320e-01) (0, 3.34964722394943237305e-01) (1, 6.79228425025939941406e-01) (2, -2.09699258208274841309e-01) (3, -2.17273235321044921875e-02) (4, 3.18238511681556701660e-02) (5, -5.73522806167602539062e-01) (6, -6.48140609264373779297e-01) (7, 6.22400939464569091797e-01) (8, -1.11168704926967620850e-01) (9, -3.04123580455780029297e-01) (10, 2.14407220482826232910e-01) (11, 1.84676140546798706055e-01) (12, 8.18020850419998168945e-03) (13, 6.58656597137451171875e-01) (14, 3.38353157043457031250e-01) (15, 1.20945855975151062012e-01) (16, 4.84132580459117889404e-02) (17, -3.64801846444606781006e-02) (18, -7.07997381687164306641e-03) (19, -1.68719083070755004883e-01) (20, 8.47080945968627929688e-02) (21, 4.73608523607254028320e-01) (22, 5.64843555912375450134e-03) (23, -4.70206499099731445312e-01) (24, 3.47006097435951232910e-02) (25, -7.64173269271850585938e-01) (26, -3.62332463264465332031e-01) (27, 7.82470524311065673828e-01) (28, 1.41434475779533386230e-01) (29, -1.21211491525173187256e-01) (30, -1.36525973677635192871e-01) (0, 2.71519809961318969727e-01) (1, 5.91265857219696044922e-02) (2, -9.59351539611816406250e-01) (3, -2.88409680128097534180e-01) (4, 3.84452998638153076172e-01) (5, -1.20337896049022674561e-01) (6, -3.34199219942092895508e-01) (7, -2.29413971304893493652e-01) (8, 1.45629584789276123047e-01) (9, 5.36600761115550994873e-02) (10, 2.05105900764465332031e-01) (11, 1.40653610229492187500e-01) (12, -9.69559550285339355469e-02) (13, 3.97399097681045532227e-01) (14, 2.82620012760162353516e-01) (15, 2.74941354990005493164e-01) (16, -9.55689474940299987793e-02) (17, -1.40567747876048088074e-02) (18, 6.81482404470443725586e-02) (19, -5.28703443706035614014e-02) (20, 5.52669391036033630371e-02) (21, -3.89027735218405723572e-03) (22, -5.12243926525115966797e-01) (23, -3.68849188089370727539e-01) (24, 2.38628834486007690430e-01) (25, -2.40000069141387939453e-01) (26, -9.46879908442497253418e-02) (27, -6.22106567025184631348e-02) (28, 3.96212935447692871094e-01) (29, -6.05021864175796508789e-02) (30, 1.20037890970706939697e-01) (0, -2.21701022237539291382e-02) (1, 4.07811194658279418945e-01) (2, 9.90688920021057128906e-01) (3, 2.57518798112869262695e-01) (4, -8.97608473896980285645e-02) (5, -4.23986226320266723633e-01) (6, -3.17473113536834716797e-01) (7, -1.37683115899562835693e-02) (8, -2.77633637189865112305e-01) (9, -2.95071065425872802734e-01) (10, 2.65377491712570190430e-01) (11, 3.25362756848335266113e-02) (12, 3.92819344997406005859e-01) (13, 3.93370360136032104492e-01) (14, 2.51664012670516967773e-01) (15, 2.30866335332393646240e-02) (16, -2.32058227062225341797e-01) (17, -2.78544183820486068726e-02) (18, -7.46086165308952331543e-02) (19, -1.76206126809120178223e-01) (20, -1.10573604702949523926e-01) (21, 1.92829921841621398926e-01) (22, 6.03141486644744873047e-01) (23, -1.61427512764930725098e-01) (24, -3.06583553552627563477e-01) (25, -3.92180293798446655273e-01) (26, -9.22165662050247192383e-02) (27, 7.69059211015701293945e-02) (28, -1.48910433053970336914e-01) (29, -1.98357537388801574707e-01) (30, 1.83689281344413757324e-01) (0, 5.51552891731262207031e-01) (1, 4.54469799995422363281e-01) (2, -2.28432983160018920898e-01) (3, -2.39047203212976455688e-02) (4, 1.06294140219688415527e-01) (5, 5.98121434450149536133e-03) (6, -5.00445604324340820312e-01) (7, -1.36960729956626892090e-01) (8, 1.34153336286544799805e-01) (9, 2.01412528753280639648e-01) (10, 4.17143881320953369141e-01) (11, 2.46266722679138183594e-01) (12, 5.70074580609798431396e-02) (13, 1.14532522857189178467e-01) (14, 6.13810755312442779541e-02) (15, 9.08259004354476928711e-02) (16, -2.45235517621040344238e-01) (17, -2.61383168399333953857e-02) (18, 5.39634265005588531494e-02) (19, 1.00106202065944671631e-01) (20, 2.77410954236984252930e-01) (21, 8.73051658272743225098e-02) (22, -2.22241282463073730469e-01) (23, -2.28829205036163330078e-01) (24, 1.51038780808448791504e-01) (25, -1.64593487977981567383e-01) (26, -2.58062154054641723633e-01) (27, -4.75352331995964050293e-02) (28, 2.46737882494926452637e-01) (29, 2.11212132126092910767e-02) (30, -2.30781454592943191528e-02) (0, -2.06615373492240905762e-01) (1, -9.44433212280273437500e-01) (2, -1.44690155982971191406e-01) (3, 3.23544368147850036621e-02) (4, 8.20333883166313171387e-02) (5, 1.12099237740039825439e-02) (6, 1.38063117861747741699e-01) (7, 9.98060524463653564453e-01) (8, 1.75033673644065856934e-01) (9, -3.85078847408294677734e-01) (10, -1.18141941726207733154e-01) (11, -3.80350470542907714844e-01) (12, -1.88853770494461059570e-01) (13, -1.34383812546730041504e-01) (14, -1.24135702848434448242e-01) (15, -1.41255229711532592773e-01) (16, -3.41221690177917480469e-04) (17, 6.28236591815948486328e-01) (18, 1.27337023615837097168e-01) (19, -2.28520154953002929688e-01) (20, 3.38172651827335357666e-02) (21, -4.86046642065048217773e-01) (22, -1.84199109673500061035e-01) (23, 2.93413311243057250977e-01) (24, 8.51072818040847778320e-02) (25, 5.17368055880069732666e-02) (26, 6.43868297338485717773e-02) (27, 3.14208984375000000000e-01) (28, -1.91707476973533630371e-01) (29, -3.03378134965896606445e-01) (30, -1.38885840773582458496e-01) (0, -6.08095943927764892578e-01) (1, -3.68255585432052612305e-01) (2, -7.47742176055908203125e-01) (3, -3.81152898073196411133e-01) (4, 2.36962020397186279297e-01) (5, 3.98867696523666381836e-01) (6, 9.81504499912261962891e-01) (7, 4.65413242578506469727e-01) (8, 2.31271475553512573242e-01) (9, 1.86200588941574096680e-01) (10, -6.19185090065002441406e-01) (11, -8.37644189596176147461e-02) (12, -6.29329442977905273438e-01) (13, -9.07799243927001953125e-01) (14, -6.95610940456390380859e-01) (15, -6.72227025032043457031e-01) (16, -4.66293618083000183105e-02) (17, 5.67662790417671203613e-02) (18, 2.47072577476501464844e-02) (19, 7.56126642227172851562e-02) (20, 8.60831737518310546875e-02) (21, -1.97130978107452392578e-01) (22, -5.71680426597595214844e-01) (23, -8.28181803226470947266e-02) (24, 8.77375304698944091797e-02) (25, 8.35615813732147216797e-01) (26, 3.52035045623779296875e-01) (27, -2.84420341253280639648e-01) (28, -4.79452639818191528320e-01) (29, 2.06186503171920776367e-01) (30, 1.02618508040904998779e-01) (0, -1.83158493041992187500e+00) (1, -4.73099559545516967773e-01) (2, -2.98038840293884277344e-01) (3, 5.12044072151184082031e-01) (4, -5.35711228847503662109e-01) (5, 2.12083622813224792480e-01) (6, 1.90032315254211425781e+00) (7, -1.88020337373018264771e-02) (8, 2.54173036664724349976e-02) (9, -2.53213584423065185547e-01) (10, -1.38647246360778808594e+00) (11, -4.31234389543533325195e-01) (12, -3.07967334985733032227e-01) (13, -1.53391033411026000977e-01) (14, -2.11820647120475769043e-01) (15, 7.47103691101074218750e-02) (16, 1.18955481052398681641e+00) (17, -1.87504917383193969727e-01) (18, -1.50789201259613037109e-01) (19, -2.54947483539581298828e-01) (20, -6.33609056472778320312e-01) (21, 5.85289709270000457764e-02) (22, -7.32219889760017395020e-02) (23, 4.45602774620056152344e-01) (24, -2.90202885866165161133e-01) (25, 2.59131759405136108398e-01) (26, 5.33353865146636962891e-01) (27, -1.72159835696220397949e-01) (28, -2.09922954440116882324e-01) (29, -3.96938100457191467285e-02) (30, -2.70919978618621826172e-01) (0, 3.21258038282394409180e-01) (1, 5.65517209470272064209e-02) (2, 2.05503058433532714844e+00) (3, 1.09361839294433593750e+00) (4, -3.88482101261615753174e-02) (5, -2.95889407396316528320e-01) (6, -5.06854236125946044922e-01) (7, 3.14630232751369476318e-02) (8, -5.25331914424896240234e-01) (9, -4.39123153686523437500e-01) (10, 1.83223158121109008789e-01) (11, 3.72625850141048431396e-02) (12, 3.13499838113784790039e-01) (13, 4.28094536066055297852e-01) (14, 3.31782668828964233398e-01) (15, 1.76010906696319580078e-01) (16, -6.26411288976669311523e-02) (17, -2.56468445062637329102e-01) (18, -1.33164599537849426270e-01) (19, -7.99661129713058471680e-02) (20, 1.29541024565696716309e-01) (21, -3.68269868195056915283e-02) (22, 1.77892315387725830078e+00) (23, 8.20426702499389648438e-01) (24, -2.09830477833747863770e-01) (25, -3.55590701103210449219e-01) (26, -2.26336851716041564941e-01) (27, 5.48256933689117431641e-01) (28, -2.78758406639099121094e-01) (29, -4.25549268722534179688e-01) (30, -1.04449236392974853516e+00) (0, -3.62918138504028320312e-01) (1, -7.69711077213287353516e-01) (2, -5.81609666347503662109e-01) (3, 1.12940572202205657959e-01) (4, 1.92778408527374267578e-01) (5, 2.24417731165885925293e-01) (6, 4.21535879373550415039e-01) (7, -4.15868192911148071289e-01) (8, 1.62657082080841064453e-01) (9, -1.21351487934589385986e-01) (10, -1.82076781988143920898e-01) (11, -2.50175803899765014648e-01) (12, -8.51298868656158447266e-02) (13, -2.67378538846969604492e-01) (14, -1.31495609879493713379e-01) (15, 1.00458167493343353271e-01) (16, 2.23909944295883178711e-01) (17, 3.23992893099784851074e-02) (18, 4.25729900598526000977e-02) (19, -3.50578576326370239258e-02) (20, -1.14564813673496246338e-01) (21, -2.99073189496994018555e-01) (22, -6.05523645877838134766e-01) (23, 2.85223215818405151367e-01) (24, 1.89261317253112792969e-01) (25, 3.04659515619277954102e-01) (26, 2.77565747499465942383e-01) (27, -3.65795463323593139648e-01) (28, 9.79180037975311279297e-02) (29, -9.93122830986976623535e-02) (30, 2.39407047629356384277e-01) (0, 5.99307894706726074219e-01) (1, -4.82782393693923950195e-01) (2, -7.77456045150756835938e-01) (3, -6.93108260631561279297e-01) (4, 4.37061250209808349609e-01) (5, 7.27637186646461486816e-02) (6, -4.22178864479064941406e-01) (7, -5.31672798097133636475e-02) (8, 1.97717919945716857910e-01) (9, 3.37312668561935424805e-01) (10, 3.24372619390487670898e-01) (11, -4.00475598871707916260e-02) (12, -3.76858532428741455078e-01) (13, -4.81450617313385009766e-01) (14, -1.30442410707473754883e-01) (15, -1.99646875262260437012e-01) (16, -3.71766984462738037109e-01) (17, 1.46000921726226806641e-01) (18, 1.74349755048751831055e-01) (19, 1.51354908943176269531e-01) (20, 3.64635288715362548828e-01) (21, -4.31694537401199340820e-01) (22, -4.29916322231292724609e-01) (23, -3.32475185394287109375e-01) (24, 3.28109622001647949219e-01) (25, 2.12647318840026855469e-01) (26, -1.17855764925479888916e-01) (27, -3.82656067609786987305e-01) (28, 2.60172579437494277954e-02) (29, 9.43508669734001159668e-02) (30, 9.47511047124862670898e-02) (0, -3.46594274044036865234e-01) (1, -1.81483849883079528809e-01) (2, -1.48015952110290527344e+00) (3, -8.90505731105804443359e-01) (4, 9.79829207062721252441e-02) (5, 2.06118375062942504883e-01) (6, 4.21958774328231811523e-01) (7, -1.26054084300994873047e+00) (8, 3.46012741327285766602e-01) (9, 5.10788977146148681641e-01) (10, -2.49305814504623413086e-01) (11, -2.02459678053855895996e-01) (12, -2.21478398889303207397e-02) (13, 2.39660501480102539062e-01) (14, 1.72025680541992187500e-01) (15, 4.48866665363311767578e-01) (16, 4.27991867065429687500e-01) (17, -5.42686760425567626953e-01) (18, 6.21785931289196014404e-02) (19, 1.03209778666496276855e-01) (20, 3.16314660012722015381e-02) (21, 8.01975652575492858887e-02) (22, -1.05792915821075439453e+00) (23, -6.67780816555023193359e-01) (24, 2.00068160891532897949e-01) (25, -6.78565055131912231445e-02) (26, 1.77764296531677246094e-01) (27, -4.38375383615493774414e-01) (28, 5.15658080577850341797e-01) (29, 5.34342050552368164062e-01) (30, 3.24043273925781250000e-01) (0, -7.68808960914611816406e-01) (1, -6.05271875858306884766e-01) (2, -1.15212309360504150391e+00) (3, -4.73715774714946746826e-02) (4, 1.30417078733444213867e-01) (5, 5.90000271797180175781e-01) (6, 1.11157989501953125000e+00) (7, -1.14488375186920166016e+00) (8, 3.75936865806579589844e-01) (9, 1.18093229830265045166e-01) (10, -7.73388683795928955078e-01) (11, -1.90453797578811645508e-01) (12, -4.61081057786941528320e-01) (13, -4.07138496637344360352e-01) (14, -2.92145431041717529297e-01) (15, 1.75595164299011230469e-01) (16, 6.57685816287994384766e-01) (17, -4.70882415771484375000e-01) (18, -4.57332842051982879639e-02) (19, 3.16494852304458618164e-02) (20, -7.58913084864616394043e-02) (21, -1.88603058457374572754e-01) (22, -7.28304982185363769531e-01) (23, 2.69625306129455566406e-01) (24, 2.50832319259643554688e-01) (25, 5.58662712574005126953e-01) (26, 3.82122069597244262695e-01) (27, -7.31680452823638916016e-01) (28, 3.25695425271987915039e-01) (29, 1.48063540458679199219e-01) (30, 3.16682606935501098633e-01) (0, 3.54058563709259033203e-01) (1, -2.24237248301506042480e-01) (2, 5.72964012622833251953e-01) (3, 5.19811749458312988281e-01) (4, 3.96483272314071655273e-01) (5, 4.86180931329727172852e-01) (6, 2.80849844217300415039e-01) (7, 3.06738376617431640625e-01) (8, 1.23137785121798515320e-02) (9, -1.05995245277881622314e-01) (10, -5.63353896141052246094e-02) (11, -2.00366422533988952637e-01) (12, -3.87339890003204345703e-02) (13, -4.71799403429031372070e-01) (14, -2.68476128578186035156e-01) (15, -2.81852543354034423828e-01) (16, -3.86719644069671630859e-01) (17, 7.77191147208213806152e-02) (18, -1.36393517255783081055e-01) (19, -2.15388350188732147217e-02) (20, 3.69583547115325927734e-01) (21, 9.15149003267288208008e-02) (22, 2.37213462591171264648e-01) (23, 7.84670948982238769531e-01) (24, 3.32626551389694213867e-01) (25, 9.20423507690429687500e-01) (26, 1.95486038923263549805e-01) (27, -1.54363840818405151367e-01) (28, -7.08656013011932373047e-02) (29, -1.12303115427494049072e-01) (30, 7.86066949367523193359e-02) (0, -1.34736251831054687500e+00) (1, -9.62632656097412109375e-01) (2, -9.84682321548461914062e-01) (3, 3.74867141246795654297e-01) (4, -3.41428458690643310547e-01) (5, -1.46821856498718261719e-01) (6, 1.15591979026794433594e+00) (7, 6.44544780254364013672e-01) (8, 7.18373283743858337402e-02) (9, -6.12482726573944091797e-01) (10, -1.09719920158386230469e+00) (11, -5.27679800987243652344e-01) (12, -2.40912094712257385254e-01) (13, 2.74946447461843490601e-02) (14, -1.50026723742485046387e-01) (15, -1.53872892260551452637e-02) (16, 9.33548510074615478516e-01) (17, 2.78576165437698364258e-01) (18, -9.25050675868988037109e-03) (19, -2.16805636882781982422e-01) (20, -4.17370200157165527344e-01) (21, -5.06324410438537597656e-01) (22, -8.24644446372985839844e-01) (23, 2.55809485912322998047e-01) (24, -1.12522006034851074219e-01) (25, -5.98857998847961425781e-02) (26, 4.13421168923377990723e-02) (27, 2.44082033634185791016e-01) (28, 1.56480073928833007812e-02) (29, -2.04520419239997863770e-01) (30, -1.66946277022361755371e-01) (0, 5.60064837336540222168e-02) (1, -5.99959611892700195312e-01) (2, 4.40480142831802368164e-01) (3, -6.95200860500335693359e-02) (4, -3.97489871829748153687e-04) (5, 2.85513758659362792969e-01) (6, 5.64198046922683715820e-02) (7, -5.02591431140899658203e-01) (8, 9.03560593724250793457e-03) (9, 1.41766414046287536621e-01) (10, -3.29974777996540069580e-02) (11, -1.94168806076049804688e-01) (12, 1.19635276496410369873e-01) (13, -2.49738872051239013672e-01) (14, -2.01986491680145263672e-01) (15, 5.47723099589347839355e-02) (16, -5.66946938633918762207e-02) (17, -1.03874817490577697754e-01) (18, -7.34940469264984130859e-02) (19, 1.14275492727756500244e-01) (20, 1.29426479339599609375e-01) (21, -4.54459100961685180664e-01) (22, 3.65096658468246459961e-01) (23, 2.67716795206069946289e-01) (24, 1.70438930392265319824e-01) (25, 3.07936549186706542969e-01) (26, 2.19615906476974487305e-01) (27, -3.51720184087753295898e-01) (28, -1.67076796293258666992e-01) (29, 8.65435227751731872559e-02) (30, -3.36879640817642211914e-02) (0, 9.35530722141265869141e-01) (1, 7.16355085372924804688e-01) (2, -5.79471826553344726562e-01) (3, -6.26937747001647949219e-01) (4, 1.91324263811111450195e-01) (5, 6.40918910503387451172e-02) (6, -7.55337476730346679688e-01) (7, -1.40958964824676513672e-01) (8, -6.69539198279380798340e-02) (9, 5.64779102802276611328e-01) (10, 4.69306945800781250000e-01) (11, 3.52618664503097534180e-01) (12, -1.98876768350601196289e-01) (13, -1.28665668889880180359e-02) (14, -1.79088599979877471924e-02) (15, -1.38935893774032592773e-01) (16, -4.79800790548324584961e-01) (17, 8.09691175818443298340e-02) (18, -9.20833274722099304199e-02) (19, 1.60711243748664855957e-01) (20, 4.73986923694610595703e-01) (21, 3.38234066963195800781e-01) (22, -4.23921674489974975586e-01) (23, -5.62562704086303710938e-01) (24, 1.08827970921993255615e-01) (25, 1.42042979598045349121e-01) (26, -3.56132507324218750000e-01) (27, -1.13942384719848632812e-01) (28, 7.07856789231300354004e-02) (29, 4.87671732902526855469e-01) (30, 2.43865475058555603027e-01) (0, 5.99422931671142578125e-01) (1, 6.46990060806274414062e-01) (2, 7.43964731693267822266e-01) (3, -4.42704278975725173950e-03) (4, -7.16825574636459350586e-02) (5, -5.44747292995452880859e-01) (6, -9.81961727142333984375e-01) (7, 8.62867057323455810547e-01) (8, -1.66017293930053710938e-01) (9, -2.27973282337188720703e-01) (10, 6.13492310047149658203e-01) (11, 3.33844214677810668945e-01) (12, 2.27910846471786499023e-01) (13, 1.03922955691814422607e-01) (14, 7.68536925315856933594e-02) (15, -2.49516531825065612793e-01) (16, -5.44410586357116699219e-01) (17, 2.66408711671829223633e-01) (18, -3.35418134927749633789e-02) (19, -2.31238286942243576050e-02) (20, -4.23191636800765991211e-02) (21, 4.26527827978134155273e-01) (22, 4.89297151565551757812e-01) (23, -2.56428152322769165039e-01) (24, -1.06896296143531799316e-01) (25, -4.06488537788391113281e-01) (26, -3.61078023910522460938e-01) (27, 6.51230871677398681641e-01) (28, -3.69413882493972778320e-01) (29, -2.68288910388946533203e-01) (30, -4.58141595125198364258e-01) (0, 7.56964147090911865234e-01) (1, 9.37353491783142089844e-01) (2, 5.82909137010574340820e-02) (3, 1.00166153907775878906e+00) (4, 4.88450199365615844727e-01) (5, 3.55792760848999023438e-01) (6, -4.45683777332305908203e-01) (7, -3.48287215456366539001e-03) (8, 2.09452852606773376465e-01) (9, 7.65762031078338623047e-02) (10, 6.84587776660919189453e-01) (11, 3.52395057678222656250e-01) (12, -3.36816906929016113281e-02) (13, -1.48096024990081787109e-01) (14, 5.98265416920185089111e-03) (15, -3.87539118528366088867e-01) (16, -1.01454460620880126953e+00) (17, -3.25743943452835083008e-01) (18, -2.15267747640609741211e-01) (19, 1.22381031513214111328e-01) (20, 1.37865886092185974121e-01) (21, 6.06522738933563232422e-01) (22, -1.57020613551139831543e-01) (23, 7.85284221172332763672e-01) (24, 2.63786822557449340820e-01) (25, 7.41449534893035888672e-01) (26, 2.57343769073486328125e-01) (27, -6.51635453104972839355e-02) (28, 1.04014478623867034912e-01) (29, -6.23925402760505676270e-02) (30, 1.15467511117458343506e-01) (31, 6.32085442543029785156e-01) (32, -2.93416649103164672852e-01) (33, -6.09498798847198486328e-01) (34, 3.70266020298004150391e-01) (35, 3.54097485542297363281e-02) (36, 2.45922639966011047363e-01) (37, 2.45976775884628295898e-01) (38, -2.20558136701583862305e-01) (39, -8.93656849861145019531e-01) (40, 1.73205852508544921875e-01) (41, -1.13637559115886688232e-01) (42, 2.06343308091163635254e-01) (43, -1.28964751958847045898e-01) (44, -1.77283868193626403809e-01) (45, -1.22787527740001678467e-01) (46, -1.55259698629379272461e-01) (47, -1.08377613127231597900e-01) (48, -3.71215529739856719971e-02) (49, 1.83426722884178161621e-01) (50, 4.94708865880966186523e-01) (51, 1.24965980648994445801e-01) (52, -3.50625574588775634766e-01) (53, -1.73624232411384582520e-01) (54, 7.19481110572814941406e-02) (55, 2.99890190362930297852e-01) (56, -3.11259049922227859497e-02) (57, 2.68533505732193589211e-04) (58, -2.78788413852453231812e-02) (59, -1.92586734890937805176e-01) (60, 3.20135682821273803711e-01) (61, 1.63721776008605957031e+00) (31, -1.38373598456382751465e-01) (32, -6.29323303699493408203e-01) (33, 4.96872603893280029297e-01) (34, -1.22929304838180541992e-01) (35, -5.04551827907562255859e-01) (36, -1.40768378973007202148e-01) (37, 1.76904961466789245605e-01) (38, -2.22506046295166015625e-01) (39, -2.49057546257972717285e-01) (40, -1.52976289391517639160e-01) (41, -6.56565248966217041016e-01) (42, -2.86611914634704589844e-01) (43, 1.62765398621559143066e-01) (44, 2.28096678853034973145e-01) (45, -2.80640244483947753906e-01) (46, 4.99288767576217651367e-01) (47, 7.89663493633270263672e-02) (48, -2.44522035121917724609e-01) (49, -1.31788527965545654297e+00) (50, 1.99116662144660949707e-01) (51, -3.61149638891220092773e-01) (52, 7.67498731613159179688e-01) (53, -1.14008583128452301025e-01) (54, -5.75630605220794677734e-01) (55, 1.12026594579219818115e-02) (56, -7.56001353263854980469e-01) (57, 2.08885952830314636230e-01) (58, 5.65870761871337890625e-01) (59, 5.65046608448028564453e-01) (60, 4.41294670104980468750e-01) (61, -1.42765593528747558594e+00) (31, 6.17659091949462890625e-01) (32, -1.27995043992996215820e-01) (33, 1.81066304445266723633e-01) (34, -9.09764051437377929688e-01) (35, 2.61545062065124511719e-01) (36, 3.50171983242034912109e-01) (37, 2.09863767027854919434e-01) (38, -2.81215280294418334961e-01) (39, -7.32239544391632080078e-01) (40, 5.42045421898365020752e-02) (41, 9.35121402144432067871e-02) (42, 1.17910885810852050781e+00) (43, -6.68537676334381103516e-01) (44, -9.97407212853431701660e-02) (45, -3.87252345681190490723e-02) (46, -2.82512277364730834961e-01) (47, 1.21995441615581512451e-01) (48, -1.26499488949775695801e-01) (49, 4.01252031326293945312e-01) (50, 2.97805875539779663086e-01) (51, 4.96857613325119018555e-01) (52, 8.43795388936996459961e-02) (53, 4.57522213459014892578e-01) (54, 7.20756888389587402344e-01) (55, 2.75913029909133911133e-01) (56, 6.68323636054992675781e-02) (57, 5.23484349250793457031e-01) (58, -3.77385854721069335938e-01) (59, -8.58788669109344482422e-01) (60, -3.81005704402923583984e-01) (61, 1.07574844360351562500e+00) (31, -1.34498044848442077637e-01) (32, 7.38865792751312255859e-01) (33, 4.77343022823333740234e-01) (34, 2.96860903501510620117e-01) (35, 2.50948667526245117188e-01) (36, 4.79947745800018310547e-01) (37, 4.33396518230438232422e-01) (38, -1.29693269729614257812e-01) (39, 7.74015724658966064453e-01) (40, 4.31672841310501098633e-01) (41, 4.73415166139602661133e-01) (42, 5.08577108383178710938e-01) (43, 6.04464299976825714111e-02) (44, 4.89760518074035644531e-01) (45, -5.87475836277008056641e-01) (46, 6.78632184863090515137e-02) (47, 1.62798315286636352539e-01) (48, 3.35087925195693969727e-01) (49, 2.19314545392990112305e-01) (50, -7.81059563159942626953e-01) (51, 5.46477019786834716797e-01) (52, 2.52565443515777587891e-01) (53, 7.98264861106872558594e-01) (54, 8.96871447563171386719e-01) (55, 1.31502207368612289429e-02) (56, 6.57621562480926513672e-01) (57, -2.07135424017906188965e-01) (58, 2.98135757446289062500e-01) (59, -7.45017647743225097656e-01) (60, 1.68478667736053466797e-01) (61, 3.44640403985977172852e-01) (31, -1.89446195960044860840e-01) (32, 7.23909676074981689453e-01) (33, 1.04376757144927978516e+00) (34, -2.46630147099494934082e-01) (35, 2.52126783132553100586e-01) (36, 5.12425184249877929688e-01) (37, -2.45266065001487731934e-01) (38, 1.39222070574760437012e-01) (39, 1.12532317638397216797e-01) (40, 1.31744757294654846191e-01) (41, -3.63681316375732421875e-01) (42, 5.38878917694091796875e-01) (43, 3.96197512745857238770e-02) (44, 3.60879212617874145508e-01) (45, -3.14846962690353393555e-01) (46, 1.82381913065910339355e-01) (47, -1.00160077214241027832e-01) (48, 1.49686843156814575195e-01) (49, -4.56171244382858276367e-01) (50, -6.94089889526367187500e-01) (51, 8.64691659808158874512e-02) (52, 4.96356159448623657227e-01) (53, 6.22984945774078369141e-01) (54, 4.83334988355636596680e-01) (55, -3.60100686550140380859e-01) (56, -3.17924141883850097656e-01) (57, -7.86015540361404418945e-02) (58, 5.17090141773223876953e-01) (59, -2.57620841264724731445e-01) (60, -1.41957744956016540527e-01) (61, -1.96855410933494567871e-01) (31, -4.32147890329360961914e-01) (32, 1.22365164756774902344e+00) (33, 3.65598767995834350586e-01) (34, 3.90534222126007080078e-01) (35, 2.59041488170623779297e-01) (36, 4.63614642620086669922e-01) (37, -6.23402953147888183594e-01) (38, 3.34463089704513549805e-01) (39, 2.40127131342887878418e-01) (40, 5.10752983391284942627e-02) (41, -2.41120755672454833984e-02) (42, 1.25530481338500976562e-01) (43, -1.04692369699478149414e-01) (44, -1.51182696223258972168e-01) (45, -4.29600439965724945068e-02) (46, -3.16173210740089416504e-02) (47, -5.14843761920928955078e-01) (48, 3.60252797603607177734e-01) (49, 3.44428271055221557617e-01) (50, -8.20803165435791015625e-01) (51, -1.71051979064941406250e-01) (52, -2.65521228313446044922e-01) (53, 5.53716540336608886719e-01) (54, 3.33900511264801025391e-01) (55, -3.17510962486267089844e-01) (56, -2.54478305578231811523e-01) (57, -1.04121819138526916504e-01) (58, 2.21205607056617736816e-01) (59, -4.02875453233718872070e-01) (60, -2.27220147848129272461e-01) (61, -2.67667293548583984375e-01) (31, 7.40872979164123535156e-01) (32, -3.45691680908203125000e-01) (33, -1.08185517787933349609e+00) (34, 3.72712314128875732422e-01) (35, 7.18669146299362182617e-02) (36, 4.78416621685028076172e-01) (37, 2.30095311999320983887e-01) (38, -3.57968091964721679688e-01) (39, -1.46945214271545410156e+00) (40, 2.26050332188606262207e-01) (41, 9.11402329802513122559e-02) (42, 2.63439744710922241211e-01) (43, -3.75169873237609863281e-01) (44, -2.10228577256202697754e-01) (45, -3.57052206993103027344e-01) (46, -1.58048570156097412109e-01) (47, -1.26817420125007629395e-01) (48, 1.52903543785214424133e-02) (49, 4.79837596416473388672e-01) (50, 8.85668575763702392578e-01) (51, 1.93139821290969848633e-01) (52, -5.58093607425689697266e-01) (53, 1.72306187450885772705e-02) (54, 2.05923542380332946777e-01) (55, 5.34541010856628417969e-01) (56, -1.93118378520011901855e-01) (57, 7.41660222411155700684e-02) (58, -2.57038235664367675781e-01) (59, -3.53518068790435791016e-01) (60, 6.19326293468475341797e-01) (61, 9.59181010723114013672e-01) (31, 5.15478789806365966797e-01) (32, 4.49290931224822998047e-01) (33, -7.90456891059875488281e-01) (34, 3.08883190155029296875e-01) (35, 4.74709421396255493164e-01) (36, 3.52878838777542114258e-01) (37, -3.61767485737800598145e-02) (38, 2.52783447504043579102e-01) (39, -6.48790240287780761719e-01) (40, 3.20384502410888671875e-01) (41, 8.16418409347534179688e-01) (42, 5.11386454105377197266e-01) (43, -2.26214781403541564941e-01) (44, -2.51844137907028198242e-01) (45, -2.07333952188491821289e-01) (46, -2.84058898687362670898e-01) (47, -6.44372701644897460938e-02) (48, 2.38348022103309631348e-01) (49, 1.41651558876037597656e+00) (50, 4.04680341482162475586e-01) (51, 1.55703991651535034180e-01) (52, -7.23841249942779541016e-01) (53, 3.57660263776779174805e-01) (54, 7.41480827331542968750e-01) (55, -1.15044917911291122437e-02) (56, 6.79144024848937988281e-01) (57, -1.04302624240517616272e-02) (58, -5.70121824741363525391e-01) (59, -4.97737586498260498047e-01) (60, -8.87113735079765319824e-02) (61, -5.72627902030944824219e-01) (31, -1.94376394152641296387e-01) (32, -5.04867136478424072266e-01) (33, -2.38696694374084472656e-01) (34, -2.39386528730392456055e-01) (35, 8.86512398719787597656e-01) (36, -4.09426480531692504883e-01) (37, -7.96249732375144958496e-02) (38, -3.16358394920825958252e-02) (39, 3.63972008228302001953e-01) (40, 3.34815531969070434570e-01) (41, 9.49576437473297119141e-01) (42, -2.49753460288047790527e-01) (43, 3.70439998805522918701e-02) (44, -2.65001416206359863281e-01) (45, -9.32315513491630554199e-02) (46, -4.37507122755050659180e-01) (47, 9.48756694793701171875e-01) (48, 4.07445162534713745117e-01) (49, 4.38108593225479125977e-01) (50, -1.37473209179006516933e-04) (51, 3.73346209526062011719e-02) (52, 6.07981719076633453369e-02) (53, -7.87369489669799804688e-01) (54, -2.62697160243988037109e-01) (55, 2.12657034397125244141e-01) (56, 8.86923313140869140625e-01) (57, -7.03380033373832702637e-02) (58, -5.30952394008636474609e-01) (59, 1.86207652091979980469e-01) (60, -6.34740710258483886719e-01) (61, -1.59495949745178222656e+00) (31, -6.47026240825653076172e-01) (32, -1.36160850524902343750e-01) (33, 3.84614756330847740173e-03) (34, 9.04881283640861511230e-02) (35, 4.07319962978363037109e-01) (36, -4.02220100164413452148e-01) (37, 2.59725838899612426758e-01) (38, 1.26234412193298339844e-01) (39, 1.07937455177307128906e+00) (40, 1.41645029187202453613e-01) (41, 8.96765053272247314453e-01) (42, -1.75824631005525588989e-02) (43, -7.96718820929527282715e-02) (44, -2.35423460602760314941e-01) (45, -7.18243792653083801270e-02) (46, -8.55106785893440246582e-02) (47, 4.73201125860214233398e-01) (48, 2.08692923188209533691e-01) (49, 5.17340302467346191406e-01) (50, -1.78121596574783325195e-01) (51, 1.55693426728248596191e-01) (52, -1.76886767148971557617e-01) (53, -1.11151911318302154541e-01) (54, 5.86035214364528656006e-02) (55, 6.99843168258666992188e-02) (56, 7.20497190952301025391e-01) (57, -1.28631144762039184570e-01) (58, -4.19810146093368530273e-01) (59, -9.50563922524452209473e-02) (60, -2.41191506385803222656e-01) (61, -1.95273125171661376953e+00) (31, 4.23761866986751556396e-02) (32, 4.14397716522216796875e-01) (33, 1.97802826762199401855e-01) (34, -2.39939093589782714844e-01) (35, -9.76951718330383300781e-02) (36, -2.14552834630012512207e-01) (37, -2.09526032209396362305e-01) (38, 8.26509535312652587891e-01) (39, -2.11889505386352539062e-01) (40, -6.36824518442153930664e-02) (41, 3.69802057743072509766e-01) (42, -1.18539661169052124023e-01) (43, 3.14611971378326416016e-01) (44, 3.32626938819885253906e-01) (45, 3.78034442663192749023e-01) (46, 4.55473735928535461426e-02) (47, -1.25274416059255599976e-02) (48, -8.10440897941589355469e-01) (49, 1.61842018365859985352e-01) (50, 3.54041397571563720703e-01) (51, -1.11547745764255523682e-01) (52, -4.43581163883209228516e-01) (53, 4.80387061834335327148e-01) (54, -7.42389559745788574219e-02) (55, -6.20008528232574462891e-01) (56, 3.49191904067993164062e-01) (57, -2.89994090795516967773e-01) (58, -2.41849541664123535156e-01) (59, 2.66495347023010253906e-02) (60, -7.02720344066619873047e-01) (61, -8.34367334842681884766e-01) (31, -4.70636278390884399414e-01) (32, 4.02871519327163696289e-01) (33, 4.85649019479751586914e-01) (34, -1.38948738574981689453e-01) (35, 8.49025398492813110352e-02) (36, -2.01491579413414001465e-01) (37, -1.50659978389739990234e-01) (38, 2.69836425781250000000e-01) (39, 2.37007305026054382324e-01) (40, -1.95846632122993469238e-01) (41, -2.06437497399747371674e-03) (42, -3.97000908851623535156e-01) (43, 2.10266858339309692383e-01) (44, 2.19995573163032531738e-01) (45, 4.24013584852218627930e-02) (46, 2.36932769417762756348e-01) (47, -3.99407632648944854736e-02) (48, -2.19872206449508666992e-01) (49, -2.31810495257377624512e-01) (50, -9.44339632987976074219e-02) (51, -1.27953290939331054688e-01) (52, 2.06905260682106018066e-01) (53, 7.90398567914962768555e-02) (54, -1.12730771303176879883e-01) (55, -3.18694829940795898438e-01) (56, -9.02829319238662719727e-02) (57, -1.10777929425239562988e-01) (58, 5.51247224211692810059e-02) (59, 3.06152462959289550781e-01) (60, -1.40847936272621154785e-01) (61, -2.21901273727416992188e+00) (31, -7.54070580005645751953e-02) (32, 3.07125657796859741211e-01) (33, 3.37271690368652343750e-01) (34, -6.29129290580749511719e-01) (35, -3.77058982849121093750e-02) (36, -1.64488971233367919922e-01) (37, -2.58735626935958862305e-01) (38, 5.52453279495239257812e-01) (39, -2.87806391716003417969e-01) (40, -2.01107621192932128906e-01) (41, 4.13807630538940429688e-01) (42, 1.60509854555130004883e-01) (43, 3.43663692474365234375e-01) (44, 1.78781509399414062500e-01) (45, 2.12120637297630310059e-01) (46, -9.64239984750747680664e-02) (47, 5.72497285902500152588e-02) (48, -8.36440622806549072266e-01) (49, 2.05711081624031066895e-01) (50, 3.18220198154449462891e-01) (51, 6.46488219499588012695e-02) (52, -2.42471825331449508667e-02) (53, 5.60436129570007324219e-01) (54, -5.38936816155910491943e-03) (55, -4.45763379335403442383e-01) (56, 2.70785987377166748047e-01) (57, 9.42166801542043685913e-03) (58, -1.00587129592895507812e-01) (59, -1.77706163376569747925e-02) (60, -8.10869276523590087891e-01) (61, -1.12869012355804443359e+00) (31, -3.88516545295715332031e-01) (32, 5.88664889335632324219e-01) (33, 3.99134337902069091797e-01) (34, -6.82414397597312927246e-02) (35, 1.05073831975460052490e-01) (36, 2.30928629636764526367e-01) (37, 6.38534948229789733887e-02) (38, 4.75940942764282226562e-01) (39, 2.28942990303039550781e-01) (40, 6.39357641339302062988e-02) (41, 3.32665473222732543945e-01) (42, -6.43749833106994628906e-02) (43, 3.12521338462829589844e-01) (44, 2.60500699281692504883e-01) (45, -1.32859483361244201660e-01) (46, 1.01242691278457641602e-01) (47, -2.71455403417348861694e-02) (48, -5.41951596736907958984e-01) (49, -1.16487413644790649414e-01) (50, 2.22294241189956665039e-01) (51, 3.27327102422714233398e-02) (52, 1.02627910673618316650e-01) (53, 4.49318170547485351562e-01) (54, 1.25529080629348754883e-01) (55, -5.34108519554138183594e-01) (56, 2.49346226453781127930e-01) (57, -9.86041724681854248047e-02) (58, -2.42531374096870422363e-02) (59, -4.52542342245578765869e-02) (60, -3.62514078617095947266e-01) (61, -1.45096480846405029297e+00) (31, -2.79552817344665527344e-01) (32, 6.04684233665466308594e-01) (33, 4.17646139860153198242e-01) (34, -2.73188024759292602539e-01) (35, 2.56855823099613189697e-02) (36, -1.31270557641983032227e-01) (37, -1.88642784953117370605e-01) (38, 2.68974483013153076172e-01) (39, 4.10011470317840576172e-01) (40, -1.88850060105323791504e-01) (41, 1.35719045996665954590e-01) (42, 1.10558412969112396240e-01) (43, 1.81398659944534301758e-01) (44, 3.26067507266998291016e-01) (45, -1.12689942121505737305e-01) (46, 9.80163142085075378418e-02) (47, 1.46556451916694641113e-01) (48, -3.67085993289947509766e-01) (49, 5.77862234786152839661e-03) (50, -2.18662875704467296600e-03) (51, -1.13288097083568572998e-01) (52, 1.72693699598312377930e-01) (53, 2.41623237729072570801e-01) (54, -7.05971121788024902344e-02) (55, -2.83559590578079223633e-01) (56, 6.79387003183364868164e-02) (57, -7.79440402984619140625e-02) (58, -2.13065966963768005371e-02) (59, 6.59704208374023437500e-02) (60, -5.69902241230010986328e-01) (61, -1.51630663871765136719e+00) (31, -3.92262011766433715820e-01) (32, 4.29026812314987182617e-01) (33, 4.04931515455245971680e-01) (34, -1.95903882384300231934e-01) (35, 8.43139886856079101562e-02) (36, -1.89754331950098276138e-03) (37, -1.35497450828552246094e-01) (38, 6.09949350357055664062e-01) (39, 4.65062677860260009766e-01) (40, -2.28729158639907836914e-01) (41, 2.11348980665206909180e-01) (42, 7.82880559563636779785e-02) (43, 3.13949644565582275391e-01) (44, 1.02011663839221000671e-02) (45, 9.39434990286827087402e-02) (46, 1.01180933415889739990e-01) (47, 1.81854777038097381592e-02) (48, -4.41771268844604492188e-01) (49, 1.71434164047241210938e-01) (50, 1.64718013256788253784e-02) (51, -1.08511500060558319092e-01) (52, -2.36913170665502548218e-02) (53, 2.86659747362136840820e-01) (54, -3.49580161273479461670e-02) (55, -4.82576161623001098633e-01) (56, 1.88971430063247680664e-01) (57, 4.18380089104175567627e-03) (58, -5.52808567881584167480e-02) (59, -7.18259215354919433594e-02) (60, -5.93328118324279785156e-01) (61, -1.53085136413574218750e+00) (31, 1.58646591007709503174e-02) (32, 3.73902678489685058594e-01) (33, 4.61401492357254028320e-02) (34, -5.65880313515663146973e-02) (35, -7.79220163822174072266e-02) (36, -1.95072785019874572754e-01) (37, -3.87530773878097534180e-02) (38, 8.03458631038665771484e-01) (39, -4.21691715717315673828e-01) (40, -2.07319572567939758301e-01) (41, 5.42040169239044189453e-01) (42, 6.73070922493934631348e-02) (43, 3.64423125982284545898e-01) (44, 3.18322837352752685547e-01) (45, 2.65403628349304199219e-01) (46, -5.27640469372272491455e-02) (47, 3.45611386001110076904e-02) (48, -8.71731698513031005859e-01) (49, 1.34254097938537597656e-01) (50, 5.57064890861511230469e-01) (51, -8.30731913447380065918e-02) (52, -2.84077048301696777344e-01) (53, 4.57721412181854248047e-01) (54, 1.67872142046689987183e-02) (55, -5.77792823314666748047e-01) (56, 3.15163999795913696289e-01) (57, -1.90682277083396911621e-01) (58, -1.90413743257522583008e-01) (59, 9.86637249588966369629e-02) (60, -6.60919368267059326172e-01) (61, -1.23892045021057128906e+00) (31, -1.29573547746986150742e-03) (32, 3.94816845655441284180e-01) (33, 1.94360874593257904053e-02) (34, -2.49024838209152221680e-01) (35, 1.29250198602676391602e-01) (36, -9.88570973277091979980e-03) (37, -1.40027925372123718262e-01) (38, 7.65326082706451416016e-01) (39, -1.51543632149696350098e-01) (40, -9.90044511854648590088e-03) (41, 5.52567183971405029297e-01) (42, 8.89900252223014831543e-02) (43, 3.46762418746948242188e-01) (44, 1.46422743797302246094e-01) (45, 3.36886732839047908783e-03) (46, -8.99854153394699096680e-02) (47, -1.95729553699493408203e-01) (48, -5.55175423622131347656e-01) (49, 3.58570635318756103516e-01) (50, 4.09538984298706054688e-01) (51, -9.03930515050888061523e-02) (52, -1.79579347372055053711e-01) (53, 4.78653579950332641602e-01) (54, 5.30240088701248168945e-02) (55, -5.29807031154632568359e-01) (56, 4.27003741264343261719e-01) (57, -2.51434147357940673828e-01) (58, -2.50637501478195190430e-01) (59, -6.38500154018402099609e-02) (60, -6.79469943046569824219e-01) (61, -1.70908415317535400391e+00) (31, -2.67783433198928833008e-01) (32, 2.99120936542749404907e-02) (33, 1.16119459271430969238e-01) (34, 6.20305240154266357422e-02) (35, 8.73943939805030822754e-02) (36, -2.92891591787338256836e-01) (37, -1.58869937062263488770e-01) (38, 3.15551906824111938477e-01) (39, 3.82940351963043212891e-01) (40, -1.47794065997004508972e-02) (41, 3.98288011550903320312e-01) (42, -2.51230597496032714844e-01) (43, 1.35453999042510986328e-01) (44, 8.15517455339431762695e-02) (45, 5.04443198442459106445e-02) (46, 1.16309737786650657654e-02) (47, 2.57435172796249389648e-01) (48, -1.88070625066757202148e-01) (49, 1.41764611005783081055e-01) (50, -7.09931598976254463196e-03) (51, -4.58991080522537231445e-02) (52, 8.51150378584861755371e-02) (53, -1.16085097193717956543e-01) (54, -2.76550471782684326172e-01) (55, -3.85903306305408477783e-02) (56, 2.75592178106307983398e-01) (57, -1.81895047426223754883e-01) (58, -6.25980868935585021973e-02) (59, 2.22539186477661132812e-01) (60, -3.92379134893417358398e-01) (61, -2.15520858764648437500e+00) (31, -3.79898995161056518555e-01) (32, -7.54666849970817565918e-02) (33, 2.60289788246154785156e-01) (34, 4.35722060501575469971e-02) (35, 9.33332070708274841309e-02) (36, -1.96308255195617675781e-01) (37, -8.59143957495689392090e-02) (38, 3.37750554084777832031e-01) (39, 4.18340563774108886719e-01) (40, -1.47897273302078247070e-01) (41, 3.62390398979187011719e-01) (42, -8.40461105108261108398e-02) (43, 1.00999921560287475586e-01) (44, -7.39085897803306579590e-02) (45, -5.93248829245567321777e-02) (46, 1.10742479562759399414e-01) (47, 1.75430953502655029297e-01) (48, -1.14249154925346374512e-01) (49, 8.50578993558883666992e-02) (50, 6.13606814295053482056e-03) (51, -1.11101321876049041748e-01) (52, 1.38502061367034912109e-01) (53, 4.81235515326261520386e-03) (54, -8.64807069301605224609e-02) (55, -1.68887242674827575684e-01) (56, 9.58819687366485595703e-02) (57, -3.29973571933805942535e-03) (58, -6.88078850507736206055e-02) (59, 1.15608610212802886963e-01) (60, -2.99101412296295166016e-01) (61, -2.13081526756286621094e+00) (31, 1.58974289894104003906e-01) (32, -5.07953584194183349609e-01) (33, -5.75304090976715087891e-01) (34, 3.35655063390731811523e-01) (35, -2.47861556708812713623e-02) (36, 2.09798648953437805176e-01) (37, 2.28929817676544189453e-01) (38, -8.74288558959960937500e-01) (39, -2.68882989883422851562e-01) (40, 1.84822976589202880859e-01) (41, -2.50367760658264160156e-01) (42, 1.08043357729911804199e-01) (43, -4.49342429637908935547e-01) (44, -4.27504420280456542969e-01) (45, -4.18612003326416015625e-01) (46, 4.49979864060878753662e-02) (47, -1.04760535061359405518e-01) (48, 8.48065137863159179688e-01) (49, 1.04724116623401641846e-01) (50, -8.56927856802940368652e-02) (51, 4.63046459481120109558e-03) (52, 2.00013831257820129395e-01) (53, -3.63568156957626342773e-01) (54, 2.17053905129432678223e-01) (55, 6.96589529514312744141e-01) (56, -3.28280568122863769531e-01) (57, 3.71194481849670410156e-01) (58, 1.38240411877632141113e-01) (59, -1.66124880313873291016e-01) (60, 6.50840103626251220703e-01) (61, -6.71738339588046073914e-03) (31, -3.00180375576019287109e-01) (32, -6.60212516784667968750e-01) (33, 2.98571556806564331055e-01) (34, -2.06236928701400756836e-01) (35, -3.95875781774520874023e-01) (36, -6.09620586037635803223e-02) (37, 2.04598635435104370117e-01) (38, -5.24086534976959228516e-01) (39, 2.01310351490974426270e-01) (40, -3.69686111807823181152e-02) (41, -6.16324067115783691406e-01) (42, -3.46606045961380004883e-01) (43, -4.82118465006351470947e-02) (44, -6.35780468583106994629e-02) (45, -3.71325612068176269531e-01) (46, 4.92244750261306762695e-01) (47, 1.02153070271015167236e-01) (48, 2.16162532567977905273e-01) (49, -1.08695733547210693359e+00) (50, -7.68267586827278137207e-02) (51, -3.98577392101287841797e-01) (52, 8.66552054882049560547e-01) (53, -3.53531926870346069336e-01) (54, -4.65071052312850952148e-01) (55, 4.35900628566741943359e-01) (56, -6.49135351181030273438e-01) (57, 4.20480668544769287109e-01) (58, 8.14745962619781494141e-01) (59, 5.31768977642059326172e-01) (60, 2.46090680360794067383e-01) (61, -1.90938770771026611328e+00) (31, 1.87548354268074035645e-01) (32, -2.01540738344192504883e-01) (33, 3.88956218957901000977e-02) (34, -8.81033837795257568359e-01) (35, 1.65889829397201538086e-01) (36, 4.00240302085876464844e-01) (37, 3.38485777378082275391e-01) (38, -5.36832511425018310547e-01) (39, 7.81957879662513732910e-02) (40, 2.34208703041076660156e-02) (41, -2.09266439080238342285e-01) (42, 9.76850628852844238281e-01) (43, -1.03352832794189453125e+00) (44, -2.37670630216598510742e-01) (45, -2.35956087708473205566e-01) (46, -8.84022265672683715820e-02) (47, 1.63644701242446899414e-02) (48, 7.64886260032653808594e-01) (49, 1.76938310265541076660e-01) (50, -3.31752389669418334961e-01) (51, 4.39858347177505493164e-01) (52, 3.47923368215560913086e-01) (53, -7.63060152530670166016e-02) (54, 7.20561981201171875000e-01) (55, 5.08996248245239257812e-01) (56, -2.50070571899414062500e-01) (57, 8.09292674064636230469e-01) (58, -1.89356163144111633301e-01) (59, -7.43429541587829589844e-01) (60, 1.47257059812545776367e-01) (61, 1.01963110268115997314e-01) (31, -3.21607738733291625977e-01) (32, 6.55777812004089355469e-01) (33, 5.92369973659515380859e-01) (34, 1.84624761343002319336e-01) (35, 3.07534188032150268555e-01) (36, 2.53657281398773193359e-01) (37, 3.53616386651992797852e-01) (38, -5.43290019035339355469e-01) (39, 1.00186479091644287109e+00) (40, 2.38498151302337646484e-01) (41, 9.00310352444648742676e-02) (42, 3.62713247537612915039e-01) (43, -2.63530552387237548828e-01) (44, 3.88620078563690185547e-01) (45, -5.50869762897491455078e-01) (46, 1.30729585886001586914e-01) (47, 2.33723014593124389648e-01) (48, 5.88755369186401367188e-01) (49, 4.02598559856414794922e-01) (50, -1.07403397560119628906e+00) (51, 5.29233276844024658203e-01) (52, 4.19073164463043212891e-01) (53, 5.19974291324615478516e-01) (54, 7.38129496574401855469e-01) (55, 2.37593472003936767578e-01) (56, 5.22019267082214355469e-01) (57, -1.04704499244689941406e-01) (58, 3.09351474046707153320e-01) (59, -5.37880122661590576172e-01) (60, 4.99919891357421875000e-01) (61, -3.03806155920028686523e-01) (31, -3.51340383291244506836e-01) (32, 5.74256420135498046875e-01) (33, 9.42537486553192138672e-01) (34, -6.33752197027206420898e-02) (35, 2.40610793232917785645e-01) (36, 4.85831767320632934570e-01) (37, -1.76404371857643127441e-01) (38, -1.45478425547480583191e-02) (39, 4.57878500223159790039e-01) (40, 6.86653777956962585449e-02) (41, -3.57708245515823364258e-01) (42, 2.59164631366729736328e-01) (43, -5.07225804030895233154e-02) (44, 3.25581252574920654297e-01) (45, -2.89360016584396362305e-01) (46, 1.90324962139129638672e-01) (47, -7.12114479392766952515e-03) (48, 4.34403777122497558594e-01) (49, -4.47741627693176269531e-01) (50, -9.99519348144531250000e-01) (51, 2.02566191554069519043e-01) (52, 7.23499119281768798828e-01) (53, 4.85294371843338012695e-01) (54, 2.71328210830688476562e-01) (55, -1.39499142765998840332e-01) (56, -3.65265876054763793945e-01) (57, 1.63194220513105392456e-02) (58, 5.43202280998229980469e-01) (59, -2.10249155759811401367e-01) (60, 2.01944470405578613281e-01) (61, -9.20056402683258056641e-01) (31, -3.84577214717864990234e-01) (32, 1.06338894367218017578e+00) (33, 4.16744977235794067383e-01) (34, 3.00344794988632202148e-01) (35, 1.93736985325813293457e-01) (36, 3.13466131687164306641e-01) (37, -4.30555552244186401367e-01) (38, 6.94165844470262527466e-03) (39, 4.21849340200424194336e-01) (40, -9.47706475853919982910e-02) (41, -8.91183223575353622437e-03) (42, -8.40176735073328018188e-03) (43, -2.50428646802902221680e-01) (44, -1.47148028016090393066e-01) (45, -1.44864562898874282837e-02) (46, -7.56664853543043136597e-03) (47, -5.16935944557189941406e-01) (48, 6.04414284229278564453e-01) (49, 3.38618844747543334961e-01) (50, -7.86494493484497070312e-01) (51, -1.93027213215827941895e-01) (52, -1.26911088824272155762e-01) (53, 2.48713567852973937988e-01) (54, 3.33642244338989257812e-01) (55, -1.55802920460700988770e-01) (56, -1.36956810951232910156e-01) (57, -3.09216435998678207397e-02) (58, 3.36457222700119018555e-01) (59, -1.89122900366783142090e-01) (60, -3.40924821794033050537e-02) (61, -1.30021214485168457031e+00) (31, 3.30991715192794799805e-01) (32, -4.85651463270187377930e-01) (33, -6.85514628887176513672e-01) (34, 2.94024676084518432617e-01) (35, -4.71735186874866485596e-02) (36, 3.67920875549316406250e-01) (37, 2.82555818557739257812e-01) (38, -9.48356926441192626953e-01) (39, -3.38960260152816772461e-01) (40, 2.44574397802352905273e-01) (41, -4.00249183177947998047e-01) (42, 1.95686593651771545410e-01) (43, -5.23555934429168701172e-01) (44, -4.24231171607971191406e-01) (45, -3.75149548053741455078e-01) (46, -8.20174366235733032227e-02) (47, 2.64388304203748703003e-02) (48, 9.73567605018615722656e-01) (49, 1.88128098845481872559e-01) (50, -7.66392350196838378906e-02) (51, -1.64405796676874160767e-02) (52, 2.38541904836893081665e-02) (53, -4.27092909812927246094e-01) (54, 2.08022639155387878418e-01) (55, 8.32007646560668945312e-01) (56, -3.81335735321044921875e-01) (57, 4.18741434812545776367e-01) (58, 1.02809555828571319580e-01) (59, -9.76412445306777954102e-02) (60, 8.32815229892730712891e-01) (61, -2.31037929654121398926e-01) (31, 7.43325892835855484009e-03) (32, 6.69431567192077636719e-01) (33, -4.47495371103286743164e-01) (34, 4.21485722064971923828e-01) (35, 5.44300079345703125000e-01) (36, 1.75862967967987060547e-01) (37, 2.28067696094512939453e-01) (38, -4.21214103698730468750e-01) (39, 1.43986105918884277344e-01) (40, 3.92736047506332397461e-01) (41, 2.91163712739944458008e-01) (42, 2.03099220991134643555e-01) (43, -5.97129225730895996094e-01) (44, -3.75650256872177124023e-01) (45, -3.02891939878463745117e-01) (46, -3.88880819082260131836e-01) (47, 1.29284113645553588867e-01) (48, 8.42812776565551757812e-01) (49, 1.20676875114440917969e+00) (50, -9.91737097501754760742e-02) (51, 2.21453487873077392578e-01) (52, -3.75106275081634521484e-01) (53, -1.65079563856124877930e-01) (54, 6.60387516021728515625e-01) (55, 4.99455094337463378906e-01) (56, 4.84700322151184082031e-01) (57, 1.07542134821414947510e-01) (58, -4.70061719417572021484e-01) (59, -2.59901463985443115234e-01) (60, 1.87484815716743469238e-01) (61, -1.27045834064483642578e+00) (31, -2.95712560415267944336e-01) (32, -3.94480556249618530273e-01) (33, -9.79759022593498229980e-02) (34, -5.12131452560424804688e-01) (35, 8.88309538364410400391e-01) (36, -3.44476908445358276367e-01) (37, 7.37466365098953247070e-02) (38, -2.98263281583786010742e-01) (39, 5.16192018985748291016e-01) (40, 1.68139502406120300293e-01) (41, 7.42889463901519775391e-01) (42, -2.90982633829116821289e-01) (43, -1.23151697218418121338e-01) (44, -4.40094709396362304688e-01) (45, -2.31494694948196411133e-01) (46, -3.40442687273025512695e-01) (47, 8.66080939769744873047e-01) (48, 6.54264450073242187500e-01) (49, 5.06780743598937988281e-01) (50, -1.42114847898483276367e-01) (51, 5.52580095827579498291e-02) (52, 3.07014465332031250000e-01) (53, -5.80487966537475585938e-01) (54, -2.62758880853652954102e-01) (55, 3.05206954479217529297e-01) (56, 7.49142229557037353516e-01) (57, 2.48704940080642700195e-01) (58, -4.11828726530075073242e-01) (59, 1.98860809206962585449e-01) (60, -5.07194697856903076172e-01) (61, -1.43743836879730224609e+00) (31, -5.78352212905883789062e-01) (32, -9.82984974980354309082e-02) (33, 9.57836061716079711914e-02) (34, -1.51362016797065734863e-01) (35, 4.77269381284713745117e-01) (36, -3.48217219114303588867e-01) (37, 9.38084721565246582031e-02) (38, -1.32363945245742797852e-01) (39, 1.09805119037628173828e+00) (40, 8.88783261179924011230e-02) (41, 6.46161496639251708984e-01) (42, 7.86612778902053833008e-02) (43, -8.70272517204284667969e-02) (44, -1.90533101558685302734e-01) (45, -2.72318065166473388672e-01) (46, -8.93425792455673217773e-02) (47, 4.16949868202209472656e-01) (48, 3.61753523349761962891e-01) (49, 4.82290267944335937500e-01) (50, -2.45933383703231811523e-01) (51, 2.05432832241058349609e-01) (52, -1.12719245254993438721e-01) (53, -8.23733210563659667969e-02) (54, 1.20215699076652526855e-01) (55, 2.13826954364776611328e-01) (56, 9.02972400188446044922e-01) (57, -1.09451651573181152344e-01) (58, -4.34914857149124145508e-01) (59, -6.81851282715797424316e-02) (60, -2.98438906669616699219e-01) (61, -2.05788064002990722656e+00) 
