FANN_FLO_2.1
num_layers=3
learning_rate=0.699552
connection_rate=1.000000
network_type=0
learning_momentum=0.000000
training_algorithm=0
train_error_function=1
train_stop_function=0
cascade_output_change_fraction=0.010000
quickprop_decay=-0.000100
quickprop_mu=1.750000
rprop_increase_factor=1.200000
rprop_decrease_factor=0.500000
rprop_delta_min=0.000000
rprop_delta_max=50.000000
rprop_delta_zero=0.100000
cascade_output_stagnation_epochs=12
cascade_candidate_change_fraction=0.010000
cascade_candidate_stagnation_epochs=12
cascade_max_out_epochs=150
cascade_min_out_epochs=50
cascade_max_cand_epochs=150
cascade_min_cand_epochs=50
cascade_num_candidate_groups=2
bit_fail_limit=3.49999994039535522461e-01
cascade_candidate_limit=1.00000000000000000000e+03
cascade_weight_multiplier=4.00000005960464477539e-01
cascade_activation_functions_count=10
cascade_activation_functions=3 5 7 8 10 11 14 15 16 17 
cascade_activation_steepnesses_count=32
cascade_activation_steepnesses=0.00000000000000000000e+00 0.00000000000000000000e+00 0.00000000000000000000e+00 8.00000000000000000000e+00 6.08300000000000000000e+03 6.08400000000000000000e+03 6.08500000000000000000e+03 6.08600000000000000000e+03 6.08700000000000000000e+03 6.09000000000000000000e+03 6.09100000000000000000e+03 6.09200000000000000000e+03 0.00000000000000000000e+00 0.00000000000000000000e+00 1.60000000000000000000e+01 1.07629100000000000000e+06 1.07629200000000000000e+06 1.07629300000000000000e+06 1.07629400000000000000e+06 1.07629500000000000000e+06 1.07629800000000000000e+06 1.07629900000000000000e+06 1.07630000000000000000e+06 1.07667500000000000000e+06 1.07667600000000000000e+06 1.07667700000000000000e+06 1.07667800000000000000e+06 1.07667900000000000000e+06 1.07668200000000000000e+06 1.07668300000000000000e+06 1.07668400000000000000e+06 0.00000000000000000000e+00 
layer_sizes=25 25 25 
scale_included=0
neurons (num_inputs, activation_function, activation_steepness)=(0, 0, 0.00000000000000000000e+00) (0, 0, 0.00000000000000000000e+00) (0, 0, 0.00000000000000000000e+00) (0, 0, 0.00000000000000000000e+00) (0, 0, 0.00000000000000000000e+00) (0, 0, 0.00000000000000000000e+00) (0, 0, 0.00000000000000000000e+00) (0, 0, 0.00000000000000000000e+00) (0, 0, 0.00000000000000000000e+00) (0, 0, 0.00000000000000000000e+00) (0, 0, 0.00000000000000000000e+00) (0, 0, 0.00000000000000000000e+00) (0, 0, 0.00000000000000000000e+00) (0, 0, 0.00000000000000000000e+00) (0, 0, 0.00000000000000000000e+00) (0, 0, 0.00000000000000000000e+00) (0, 0, 0.00000000000000000000e+00) (0, 0, 0.00000000000000000000e+00) (0, 0, 0.00000000000000000000e+00) (0, 0, 0.00000000000000000000e+00) (0, 0, 0.00000000000000000000e+00) (0, 0, 0.00000000000000000000e+00) (0, 0, 0.00000000000000000000e+00) (0, 0, 0.00000000000000000000e+00) (0, 0, 0.00000000000000000000e+00) (25, 5, 5.00000000000000000000e-01) (25, 5, 5.00000000000000000000e-01) (25, 5, 5.00000000000000000000e-01) (25, 5, 5.00000000000000000000e-01) (25, 5, 5.00000000000000000000e-01) (25, 5, 5.00000000000000000000e-01) (25, 5, 5.00000000000000000000e-01) (25, 5, 5.00000000000000000000e-01) (25, 5, 5.00000000000000000000e-01) (25, 5, 5.00000000000000000000e-01) (25, 5, 5.00000000000000000000e-01) (25, 5, 5.00000000000000000000e-01) (25, 5, 5.00000000000000000000e-01) (25, 5, 5.00000000000000000000e-01) (25, 5, 5.00000000000000000000e-01) (25, 5, 5.00000000000000000000e-01) (25, 5, 5.00000000000000000000e-01) (25, 5, 5.00000000000000000000e-01) (25, 5, 5.00000000000000000000e-01) (25, 5, 5.00000000000000000000e-01) (25, 5, 5.00000000000000000000e-01) (25, 5, 5.00000000000000000000e-01) (25, 5, 5.00000000000000000000e-01) (25, 5, 5.00000000000000000000e-01) (0, 5, 0.00000000000000000000e+00) (25, 3, 5.00000000000000000000e-01) (25, 3, 5.00000000000000000000e-01) (25, 3, 5.00000000000000000000e-01) (25, 3, 5.00000000000000000000e-01) (25, 3, 5.00000000000000000000e-01) (25, 3, 5.00000000000000000000e-01) (25, 3, 5.00000000000000000000e-01) (25, 3, 5.00000000000000000000e-01) (25, 3, 5.00000000000000000000e-01) (25, 3, 5.00000000000000000000e-01) (25, 3, 5.00000000000000000000e-01) (25, 3, 5.00000000000000000000e-01) (25, 3, 5.00000000000000000000e-01) (25, 3, 5.00000000000000000000e-01) (25, 3, 5.00000000000000000000e-01) (25, 3, 5.00000000000000000000e-01) (25, 3, 5.00000000000000000000e-01) (25, 3, 5.00000000000000000000e-01) (25, 3, 5.00000000000000000000e-01) (25, 3, 5.00000000000000000000e-01) (25, 3, 5.00000000000000000000e-01) (25, 3, 5.00000000000000000000e-01) (25, 3, 5.00000000000000000000e-01) (25, 3, 5.00000000000000000000e-01) (0, 3, 0.00000000000000000000e+00) 
connections (connected_to_neuron, weight)=(0, -8.93369317054748535156e-02) (1, -1.25509500503540039062e-01) (2, 2.24634811282157897949e-01) (3, -3.37774485349655151367e-01) (4, -2.35790580511093139648e-01) (5, -1.10666170716285705566e-01) (6, 4.53819990158081054688e-01) (7, -1.68386459350585937500e-01) (8, -5.68290501832962036133e-02) (9, 1.21476531028747558594e-01) (10, -9.79101285338401794434e-03) (11, -2.33693122863769531250e-01) (12, 5.10794594883918762207e-02) (13, -9.13708657026290893555e-02) (14, 2.51910299062728881836e-01) (15, -8.53741690516471862793e-02) (16, -7.71294832229614257812e-02) (17, -2.09545761346817016602e-01) (18, 8.22641178965568542480e-02) (19, -2.09904164075851440430e-01) (20, -1.00209221243858337402e-01) (21, -1.87465585768222808838e-02) (22, 6.25459328293800354004e-02) (23, -1.05935767292976379395e-01) (24, 2.10237354040145874023e-01) (0, 1.13767766952514648438e+00) (1, 2.71212011575698852539e-01) (2, 1.62524670362472534180e-01) (3, 3.05952131748199462891e-01) (4, 8.45439732074737548828e-02) (5, -9.56758737564086914062e-01) (6, -2.68466532230377197266e-01) (7, 1.15894630551338195801e-01) (8, 6.30614042282104492188e-01) (9, -4.67633344233036041260e-02) (10, 2.32082813978195190430e-01) (11, 3.30333650112152099609e-01) (12, 2.36711874604225158691e-01) (13, -3.41556936502456665039e-01) (14, -2.80495762825012207031e-01) (15, 2.02549636363983154297e-01) (16, 4.30010735988616943359e-01) (17, 5.70850849151611328125e-01) (18, 3.80195379257202148438e-01) (19, 2.09469631314277648926e-01) (20, -2.32015430927276611328e-01) (21, -4.64080631732940673828e-01) (22, 3.01258742809295654297e-01) (23, 8.79521574825048446655e-03) (24, -3.43016207218170166016e-01) (0, -3.28184425830841064453e-01) (1, -1.58679783344268798828e-01) (2, 3.72407495975494384766e-01) (3, 3.33363801240921020508e-01) (4, 1.76927298307418823242e-01) (5, 4.69489514827728271484e-01) (6, 9.64106619358062744141e-03) (7, -3.10455858707427978516e-01) (8, -1.03353736922144889832e-02) (9, -9.46621671319007873535e-02) (10, 3.68076086044311523438e-01) (11, 4.04299378395080566406e-01) (12, 1.81638404726982116699e-01) (13, 1.61996126174926757812e-01) (14, -3.13147306442260742188e-02) (15, -8.86858254671096801758e-02) (16, -3.67106914520263671875e-01) (17, 2.31463968753814697266e-01) (18, 2.51892447471618652344e-01) (19, 1.84564992785453796387e-01) (20, -7.14670494198799133301e-03) (21, 4.84483838081359863281e-01) (22, 3.19403588771820068359e-01) (23, -1.69542074203491210938e-01) (24, -3.14592957496643066406e-01) (0, -9.93561223149299621582e-02) (1, 1.03611290454864501953e-01) (2, 8.68416577577590942383e-03) (3, 1.46753028035163879395e-01) (4, -1.68710485100746154785e-01) (5, -6.64208978414535522461e-02) (6, -2.33162254095077514648e-01) (7, -1.21114879846572875977e-01) (8, 3.21374773979187011719e-01) (9, -1.70711874961853027344e-02) (10, 3.96117478609085083008e-01) (11, 4.53398376703262329102e-01) (12, 1.44080698490142822266e-01) (13, -9.14212465286254882812e-02) (14, -1.59497633576393127441e-01) (15, -3.52503135800361633301e-02) (16, -3.76460075378417968750e-01) (17, 3.85269612073898315430e-01) (18, -2.01798513531684875488e-01) (19, 7.42420926690101623535e-02) (20, -4.45963680744171142578e-01) (21, 1.89354136586189270020e-01) (22, 1.57965019345283508301e-01) (23, -1.35529264807701110840e-02) (24, 5.37588655948638916016e-01) (0, -8.52005660533905029297e-01) (1, -3.20167392492294311523e-02) (2, 2.64672696590423583984e-01) (3, 7.83511251211166381836e-02) (4, -1.99690431356430053711e-01) (5, 6.29804491996765136719e-01) (6, 2.32968807220458984375e-01) (7, -6.24779284000396728516e-01) (8, -4.33808475732803344727e-01) (9, -1.12752035260200500488e-01) (10, 3.01823496818542480469e-01) (11, 3.68463844060897827148e-01) (12, 6.67965486645698547363e-02) (13, 3.61179828643798828125e-01) (14, 1.04426212608814239502e-01) (15, -2.90232092142105102539e-01) (16, -4.96811389923095703125e-01) (17, 3.40611711144447326660e-02) (18, 5.32628670334815979004e-02) (19, -1.17570050060749053955e-01) (20, -9.93032157421112060547e-02) (21, 3.87692511081695556641e-01) (22, 2.45355963706970214844e-01) (23, -2.17627480626106262207e-01) (24, -3.59071120619773864746e-02) (0, -6.96720182895660400391e-03) (1, 3.30150246620178222656e-01) (2, 1.86709314584732055664e-01) (3, 2.86690860986709594727e-01) (4, 2.55902051925659179688e-01) (5, 2.71943479776382446289e-01) (6, 1.72260433435440063477e-01) (7, -2.21837013959884643555e-01) (8, -2.75005340576171875000e-01) (9, 2.02817127108573913574e-01) (10, -4.75964657962322235107e-02) (11, 2.86677479743957519531e-03) (12, -3.09154272079467773438e-01) (13, -7.47031942009925842285e-02) (14, 7.25452899932861328125e-02) (15, -1.42314776778221130371e-01) (16, 3.72876346111297607422e-01) (17, -7.32996836304664611816e-02) (18, 1.87954559922218322754e-01) (19, 1.28905668854713439941e-01) (20, 4.97583985328674316406e-01) (21, -9.19113680720329284668e-02) (22, -2.33817338943481445312e-01) (23, -7.34870210289955139160e-02) (24, -6.94437384605407714844e-01) (0, 1.09984278678894042969e+00) (1, 3.17356079816818237305e-01) (2, -1.58866122364997863770e-01) (3, 9.73283052444458007812e-02) (4, 5.80412447452545166016e-02) (5, -1.03615498542785644531e+00) (6, -2.83707261085510253906e-01) (7, 3.08360755443572998047e-01) (8, 3.56659948825836181641e-01) (9, 2.87250876426696777344e-02) (10, -2.37495303153991699219e-01) (11, -2.80179083347320556641e-02) (12, -6.34059906005859375000e-02) (13, -3.40068548917770385742e-01) (14, -1.81178689002990722656e-01) (15, 3.08537334203720092773e-01) (16, 6.47101283073425292969e-01) (17, 1.94223731756210327148e-01) (18, 4.44357693195343017578e-02) (19, 1.03991985321044921875e-01) (20, 1.21295042335987091064e-02) (21, -6.52705848217010498047e-01) (22, -1.19044527411460876465e-01) (23, 6.18862882256507873535e-02) (24, -2.38048851490020751953e-01) (0, -5.33615469932556152344e-01) (1, 2.31834486126899719238e-01) (2, 3.91666293144226074219e-01) (3, 1.66562750935554504395e-01) (4, -1.67819410562515258789e-02) (5, 5.81233978271484375000e-01) (6, 4.31752264499664306641e-01) (7, -6.02933883666992187500e-01) (8, -3.45861136913299560547e-01) (9, 1.47572070360183715820e-01) (10, -6.26137703657150268555e-02) (11, -2.16596707701683044434e-01) (12, -3.32097113132476806641e-01) (13, 1.92473560571670532227e-01) (14, 1.48483783006668090820e-01) (15, -2.75150835514068603516e-01) (16, 8.00595134496688842773e-02) (17, -2.68907129764556884766e-01) (18, 1.99460193514823913574e-01) (19, 9.03642624616622924805e-02) (20, 3.58767300844192504883e-01) (21, 9.98976081609725952148e-02) (22, -2.05608353018760681152e-01) (23, -1.10942393541336059570e-01) (24, -6.65241658687591552734e-01) (0, 2.71411567926406860352e-01) (1, -1.11338607966899871826e-01) (2, -4.35219407081604003906e-01) (3, 2.35530510544776916504e-02) (4, 2.81287610530853271484e-01) (5, 1.29927873611450195312e-01) (6, -3.42536717653274536133e-01) (7, 4.45332795381546020508e-01) (8, 4.12997119128704071045e-02) (9, -9.86898783594369888306e-03) (10, -1.32435709238052368164e-01) (11, -1.47673368453979492188e-01) (12, 4.26731631159782409668e-02) (13, -2.01131366193294525146e-02) (14, -8.99232029914855957031e-02) (15, 2.34350651502609252930e-01) (16, 2.32741862535476684570e-01) (17, -4.29082736372947692871e-02) (18, -2.04348206520080566406e-01) (19, 2.87780940532684326172e-01) (20, 2.64968216419219970703e-01) (21, 2.17011898756027221680e-01) (22, -1.68245077133178710938e-01) (23, 3.00654977560043334961e-01) (24, -5.06935790181159973145e-02) (0, -7.58826971054077148438e-01) (1, 6.56209290027618408203e-02) (2, -1.88103660941123962402e-01) (3, -4.89242896437644958496e-02) (4, 1.72488510608673095703e-01) (5, 7.67281055450439453125e-01) (6, 9.34266149997711181641e-02) (7, -1.34861707687377929688e-01) (8, -4.26674425601959228516e-01) (9, 1.30497105419635772705e-02) (10, -8.80504399538040161133e-02) (11, -2.34719634056091308594e-01) (12, -8.77902731299400329590e-02) (13, 3.66431832313537597656e-01) (14, 1.38793066143989562988e-01) (15, -7.70289450883865356445e-03) (16, -3.76099824905395507812e-01) (17, -1.31686627864837646484e-01) (18, -1.88915729522705078125e-01) (19, 9.97294560074806213379e-02) (20, 2.48313680291175842285e-01) (21, 3.56873393058776855469e-01) (22, -2.88023576140403747559e-02) (23, -5.66179193556308746338e-02) (24, -7.97131881117820739746e-02) (0, -5.56085109710693359375e-01) (1, 4.86896261572837829590e-02) (2, -4.60921883583068847656e-01) (3, 3.21324735879898071289e-01) (4, 9.04876887798309326172e-02) (5, 7.18890368938446044922e-01) (6, -2.65611886978149414062e-01) (7, 3.22938561439514160156e-02) (8, -2.91954815387725830078e-01) (9, -1.06263495981693267822e-01) (10, 1.35491445660591125488e-01) (11, 5.00863529741764068604e-02) (12, 8.59102904796600341797e-02) (13, 3.77263665199279785156e-01) (14, 6.16629943251609802246e-02) (15, -1.59665197134017944336e-03) (16, -3.09909284114837646484e-01) (17, 1.92372053861618041992e-01) (18, -4.37086284160614013672e-01) (19, 1.92880094051361083984e-01) (20, -3.15489061176776885986e-02) (21, 3.54231506586074829102e-01) (22, -1.49580508470535278320e-01) (23, 1.94271594285964965820e-01) (24, 2.62580633163452148438e-01) (0, -3.22970777750015258789e-01) (1, -2.69679695367813110352e-01) (2, -3.73191744089126586914e-01) (3, -8.62567052245140075684e-02) (4, 4.17462252080440521240e-02) (5, 3.53970825672149658203e-01) (6, -1.14517636597156524658e-01) (7, 2.58601307868957519531e-01) (8, -1.06881126761436462402e-01) (9, -7.14661851525306701660e-02) (10, -9.09667834639549255371e-02) (11, -2.29882389307022094727e-01) (12, -6.72540366649627685547e-02) (13, 1.33780658245086669922e-01) (14, 1.40448048710823059082e-01) (15, 1.65867328643798828125e-01) (16, -1.24320402741432189941e-01) (17, -3.73152792453765869141e-01) (18, -2.76537090539932250977e-01) (19, 3.35332751274108886719e-03) (20, 1.31410852074623107910e-01) (21, 1.56321361660957336426e-01) (22, -1.41017109155654907227e-01) (23, 1.76393374800682067871e-01) (24, 3.88372153043746948242e-01) (0, 9.33830738067626953125e-02) (1, 1.29227057099342346191e-01) (2, 4.67611014842987060547e-01) (3, 2.83563286066055297852e-01) (4, 1.12556904554367065430e-01) (5, -2.18592956662178039551e-02) (6, 1.56461700797080993652e-01) (7, -3.93149465322494506836e-01) (8, -9.26545709371566772461e-02) (9, -1.76343470811843872070e-02) (10, 1.54738679528236389160e-01) (11, 1.10532708466053009033e-01) (12, -3.27162332832813262939e-02) (13, -1.01944684982299804688e-01) (14, 2.71134227514266967773e-02) (15, -8.01857858896255493164e-02) (16, 1.79594993591308593750e-01) (17, 1.91947594285011291504e-01) (18, 2.48339444398880004883e-01) (19, 4.96813356876373291016e-02) (20, 8.93078818917274475098e-02) (21, -1.91009849309921264648e-01) (22, 1.97768315672874450684e-01) (23, -1.84680014848709106445e-01) (24, -5.35676598548889160156e-01) (0, -4.04250323772430419922e-01) (1, -2.25669100880622863770e-01) (2, -7.76415109634399414062e-01) (3, -2.99664679914712905884e-03) (4, -4.70816455781459808350e-02) (5, 3.57929050922393798828e-01) (6, -3.68816822767257690430e-01) (7, 4.07618135213851928711e-01) (8, -4.01401937007904052734e-01) (9, 9.75105762481689453125e-02) (10, -3.48276913166046142578e-01) (11, -3.14962118864059448242e-01) (12, -3.72492164373397827148e-01) (13, -2.55092568695545196533e-02) (14, -1.08278170228004455566e-01) (15, -1.64373442530632019043e-02) (16, 1.85696706175804138184e-02) (17, -5.97580373287200927734e-01) (18, -5.02551615238189697266e-01) (19, 4.43208590149879455566e-02) (20, 2.38264024257659912109e-01) (21, 2.78387144207954406738e-02) (22, -6.34626030921936035156e-01) (23, 3.21013092994689941406e-01) (24, 4.13108766078948974609e-01) (0, 5.98761200904846191406e-01) (1, -9.58317071199417114258e-02) (2, -1.98357582092285156250e-01) (3, 1.64925586432218551636e-04) (4, 6.88598379492759704590e-02) (5, -4.60551083087921142578e-01) (6, -3.20378690958023071289e-01) (7, 1.93190127611160278320e-01) (8, 4.10567760467529296875e-01) (9, -3.41132134199142456055e-02) (10, -4.87655252218246459961e-02) (11, 7.44969844818115234375e-02) (12, 3.81983667612075805664e-02) (13, -2.76896655559539794922e-01) (14, -1.39408707618713378906e-01) (15, 2.72510796785354614258e-01) (16, 1.14205017685890197754e-01) (17, 1.59022361040115356445e-01) (18, 1.16351686418056488037e-01) (19, -1.02228023111820220947e-01) (20, -1.75430193543434143066e-01) (21, -2.53213673830032348633e-01) (22, 1.12552113831043243408e-01) (23, 2.03881710767745971680e-02) (24, 6.87301084399223327637e-02) (0, -2.29509323835372924805e-02) (1, 8.26742947101593017578e-02) (2, 2.23687723278999328613e-01) (3, -1.57169133424758911133e-01) (4, -2.80061304569244384766e-01) (5, -1.14880383014678955078e-01) (6, 2.57421016693115234375e-01) (7, -3.26079487800598144531e-01) (8, 4.52309623360633850098e-02) (9, 4.04916778206825256348e-02) (10, -3.31333950161933898926e-02) (11, 1.32762983441352844238e-01) (12, 7.15702548623085021973e-02) (13, -8.23211744427680969238e-02) (14, -4.89095374941825866699e-02) (15, -1.27424299716949462891e-01) (16, -7.40994513034820556641e-02) (17, 1.52666926383972167969e-01) (18, 1.25123068690299987793e-01) (19, -1.38372555375099182129e-01) (20, -2.06388235092163085938e-01) (21, -1.52862638235092163086e-01) (22, 2.83901661634445190430e-01) (23, -2.32632488012313842773e-01) (24, -1.81264709681272506714e-02) (0, 1.14810913801193237305e-02) (1, 1.18290096521377563477e-01) (2, 5.60408890247344970703e-01) (3, 3.55100661516189575195e-01) (4, 1.50965347886085510254e-01) (5, 2.31118381023406982422e-01) (6, 3.02891433238983154297e-01) (7, -5.17489373683929443359e-01) (8, -3.32780390977859497070e-01) (9, 1.04698002338409423828e-01) (10, -9.64872092008590698242e-02) (11, 2.02525891363620758057e-02) (12, -2.17907354235649108887e-01) (13, 1.15225017070770263672e-02) (14, 3.00361476838588714600e-02) (15, -2.78134614229202270508e-01) (16, 1.96284502744674682617e-01) (17, -2.73899763822555541992e-01) (18, 2.60096609592437744141e-01) (19, 7.34191983938217163086e-02) (20, 3.89289021492004394531e-01) (21, -1.03331178426742553711e-01) (22, 1.05508849024772644043e-01) (23, -2.29720592498779296875e-01) (24, -7.80382871627807617188e-01) (0, 1.13043534755706787109e+00) (1, 5.43542146682739257812e-01) (2, -6.41405224800109863281e-01) (3, 2.51235991716384887695e-01) (4, 1.25012248754501342773e-01) (5, -9.31537270545959472656e-01) (6, -6.60529911518096923828e-01) (7, 6.34705901145935058594e-01) (8, 5.64087629318237304688e-01) (9, 1.20355337858200073242e-01) (10, -4.05625283718109130859e-01) (11, 1.67731270194053649902e-02) (12, 1.42036825418472290039e-01) (13, -4.81099992990493774414e-01) (14, -3.15403938293457031250e-01) (15, 3.81712496280670166016e-01) (16, 5.60743749141693115234e-01) (17, 3.66015613079071044922e-01) (18, -1.97405427694320678711e-01) (19, 3.33700954914093017578e-01) (20, 1.92143440246582031250e-01) (21, -3.74459534883499145508e-01) (22, -2.93864905834197998047e-01) (23, 3.27880054712295532227e-01) (24, -8.92651379108428955078e-02) (0, 5.44955730438232421875e-01) (1, -8.38762521743774414062e-02) (2, 4.04188185930252075195e-02) (3, -2.91133105754852294922e-01) (4, -4.38742339611053466797e-02) (5, -5.46091437339782714844e-01) (6, -2.46934220194816589355e-02) (7, 2.93075442314147949219e-01) (8, 4.59739089012145996094e-01) (9, -5.59885725378990173340e-02) (10, 5.77787011861801147461e-02) (11, -1.46095320582389831543e-01) (12, 1.45663753151893615723e-01) (13, -3.10685127973556518555e-01) (14, 4.61328029632568359375e-03) (15, 3.14948439598083496094e-01) (16, 8.72340798377990722656e-02) (17, -1.83070451021194458008e-02) (18, 1.27447679638862609863e-01) (19, -1.05324715375900268555e-01) (20, -1.46740347146987915039e-01) (21, -1.99201062321662902832e-01) (22, 1.04802355170249938965e-01) (23, -8.85400548577308654785e-03) (24, 1.47586643695831298828e-01) (0, 1.27661511301994323730e-01) (1, -1.30730599164962768555e-01) (2, -8.25876235961914062500e-01) (3, 1.60778895020484924316e-01) (4, 6.81629106402397155762e-02) (5, 1.29208154976367950439e-03) (6, -7.45373070240020751953e-01) (7, 6.19055271148681640625e-01) (8, 3.04848372936248779297e-01) (9, -1.62749648094177246094e-01) (10, -9.55297574400901794434e-02) (11, 2.21062541007995605469e-01) (12, 2.31918752193450927734e-01) (13, 5.88237643241882324219e-02) (14, -3.14424872398376464844e-01) (15, 2.58858859539031982422e-01) (16, -3.93438749015331268311e-02) (17, 3.64470064640045166016e-01) (18, -5.57564973831176757812e-01) (19, 3.07579755783081054688e-01) (20, -2.14321315288543701172e-02) (21, 2.83993601799011230469e-01) (22, -1.61067441105842590332e-01) (23, 2.87078768014907836914e-01) (24, 6.10665977001190185547e-01) (0, -2.58082270622253417969e-01) (1, 2.37741351127624511719e-01) (2, -6.92081570625305175781e-01) (3, 1.80397212505340576172e-01) (4, 3.53334955871105194092e-02) (5, 3.17801952362060546875e-01) (6, -3.59032630920410156250e-01) (7, 2.51402139663696289062e-01) (8, -5.70712909102439880371e-02) (9, 1.01979322731494903564e-01) (10, -1.02259680628776550293e-01) (11, 3.12243998050689697266e-02) (12, -6.53102397918701171875e-02) (13, 2.00069755315780639648e-01) (14, -8.08688998222351074219e-02) (15, 9.82194691896438598633e-02) (16, -9.36137884855270385742e-03) (17, 1.93591341376304626465e-01) (18, -5.46354353427886962891e-01) (19, 2.26670026779174804688e-01) (20, 1.30436539649963378906e-01) (21, 2.19680011272430419922e-01) (22, -3.62823486328125000000e-01) (23, 3.46952259540557861328e-01) (24, 2.31387972831726074219e-01) (0, -1.04670390486717224121e-01) (1, 2.78862327337265014648e-01) (2, 3.47701013088226318359e-01) (3, 3.21082234382629394531e-01) (4, -9.91525352001190185547e-02) (5, -3.34924012422561645508e-02) (6, 1.82122424244880676270e-01) (7, -5.01777410507202148438e-01) (8, 9.79578644037246704102e-02) (9, -2.99176461994647979736e-02) (10, 2.23007127642631530762e-01) (11, 4.01964843273162841797e-01) (12, 3.14869314432144165039e-01) (13, 1.03104889392852783203e-01) (14, -1.44841345027089118958e-02) (15, -1.71014666557312011719e-02) (16, -2.80428409576416015625e-01) (17, 3.28559458255767822266e-01) (18, 3.78331661224365234375e-01) (19, 2.64335453510284423828e-01) (20, -2.91364908218383789062e-01) (21, 2.18226477503776550293e-01) (22, 4.33474272489547729492e-01) (23, -2.32909083366394042969e-01) (24, -5.58546669781208038330e-02) (0, 6.76507472991943359375e-01) (1, 2.79345065355300903320e-01) (2, 4.25586730241775512695e-01) (3, 4.98264640569686889648e-01) (4, 1.47299289703369140625e-01) (5, -6.39195144176483154297e-01) (6, -1.98977127671241760254e-01) (7, -1.80937871336936950684e-01) (8, 6.83622539043426513672e-01) (9, 3.19740660488605499268e-02) (10, 7.06353724002838134766e-01) (11, 7.38466739654541015625e-01) (12, 6.52912616729736328125e-01) (13, 4.70027253031730651855e-02) (14, -1.09448641538619995117e-01) (15, 8.17722380161285400391e-02) (16, -8.47065895795822143555e-02) (17, 9.45228278636932373047e-01) (18, 4.94395107030868530273e-01) (19, 4.38783556222915649414e-01) (20, -5.54388344287872314453e-01) (21, 1.53839468955993652344e-01) (22, 6.11657023429870605469e-01) (23, -2.20387771725654602051e-01) (24, 2.15869814157485961914e-01) (0, 4.77188825607299804688e-01) (1, 2.28773206472396850586e-01) (2, -3.29184889793395996094e-01) (3, 1.40725165605545043945e-01) (4, 8.41755792498588562012e-02) (5, -4.39538359642028808594e-01) (6, -4.08378243446350097656e-01) (7, 2.73853272199630737305e-01) (8, 2.07989633083343505859e-01) (9, -1.98116023093461990356e-02) (10, -1.85976475477218627930e-01) (11, 1.79653197526931762695e-01) (12, -9.25660133361816406250e-04) (13, 2.34592705965042114258e-03) (14, -1.82224780321121215820e-01) (15, 1.97537824511528015137e-01) (16, 3.28654915094375610352e-01) (17, 1.48947268724441528320e-01) (18, -1.14962831139564514160e-01) (19, 9.85810682177543640137e-02) (20, -5.24287484586238861084e-02) (21, -2.64414906501770019531e-01) (22, -6.62358850240707397461e-02) (23, 1.00306063890457153320e-01) (24, 7.42936059832572937012e-02) (25, -1.36543452739715576172e-01) (26, 2.47063353657722473145e-01) (27, 2.08031982183456420898e-01) (28, -1.37054190039634704590e-01) (29, -1.39349192380905151367e-01) (30, 4.67276304960250854492e-01) (31, 3.06439787149429321289e-01) (32, 3.68549972772598266602e-01) (33, 1.26366421580314636230e-01) (34, -5.49134798347949981689e-02) (35, -4.32703271508216857910e-02) (36, -2.33509287238121032715e-01) (37, 3.75720769166946411133e-01) (38, -1.57976254820823669434e-01) (39, -1.70542433857917785645e-01) (40, -1.64276808500289916992e-02) (41, 3.95907819271087646484e-01) (42, 2.94393271207809448242e-01) (43, -2.12018921971321105957e-01) (44, -1.84921771287918090820e-01) (45, -3.14838699996471405029e-02) (46, 3.70404034852981567383e-01) (47, 1.36825233697891235352e-01) (48, 5.21331429481506347656e-02) (49, 1.30798876285552978516e+00) (25, -2.49815776944160461426e-01) (26, 9.52601313591003417969e-01) (27, -2.05849021673202514648e-01) (28, -3.12625110149383544922e-01) (29, -7.79229760169982910156e-01) (30, 2.26920679211616516113e-01) (31, 7.38021492958068847656e-01) (32, -2.46552988886833190918e-01) (33, 3.93166750669479370117e-01) (34, -4.88303691148757934570e-01) (35, -4.47958678007125854492e-01) (36, -1.78512796759605407715e-01) (37, 2.11073040962219238281e-01) (38, -3.22989225387573242188e-01) (39, 3.44654828310012817383e-01) (40, -1.13997966051101684570e-01) (41, 1.30724787712097167969e-01) (42, 9.81020152568817138672e-01) (43, 3.26460063457489013672e-01) (44, 1.34758859872817993164e-01) (45, -5.02890646457672119141e-02) (46, -2.28998348116874694824e-01) (47, 1.49804487824440002441e-01) (48, 3.84990960359573364258e-01) (49, -5.79393506050109863281e-01) (25, -3.25075238943099975586e-02) (26, -1.77718177437782287598e-01) (27, 3.81147295236587524414e-01) (28, -2.09010303020477294922e-01) (29, 2.42140498012304306030e-02) (30, 2.48554989695549011230e-01) (31, -2.43368238210678100586e-01) (32, 3.17151933908462524414e-01) (33, 2.61376768350601196289e-01) (34, 1.86933487653732299805e-01) (35, 1.70480221509933471680e-01) (36, 2.66390413045883178711e-01) (37, 3.55383679270744323730e-02) (38, 1.58057719469070434570e-01) (39, -2.04515561461448669434e-01) (40, -4.60823893547058105469e-01) (41, 3.91738176345825195312e-01) (42, -3.29865545034408569336e-01) (43, -2.50044614076614379883e-01) (44, -7.06660747528076171875e-03) (45, 3.78958731889724731445e-02) (46, 2.02583640813827514648e-01) (47, 2.09029972553253173828e-01) (48, -2.24199399352073669434e-01) (49, 1.04330635070800781250e+00) (25, -3.01860690116882324219e-01) (26, -8.50654169917106628418e-02) (27, 1.24075621366500854492e-01) (28, 2.78564095497131347656e-01) (29, 4.37262356281280517578e-02) (30, -1.67482882738113403320e-01) (31, -1.95062339305877685547e-01) (32, -2.79111862182617187500e-01) (33, 3.19153070449829101562e-01) (34, 3.46527367830276489258e-01) (35, 7.13572859764099121094e-01) (36, 2.52265036106109619141e-01) (37, -2.68914669752120971680e-01) (38, 3.49148899316787719727e-01) (39, -5.95146752893924713135e-02) (40, -1.56360909342765808105e-01) (41, -4.07708138227462768555e-01) (42, 3.77197951078414916992e-01) (43, -1.79259717464447021484e-01) (44, 9.01802182197570800781e-01) (45, 7.36587107181549072266e-01) (46, -3.97229194641113281250e-03) (47, 1.15049391984939575195e-01) (48, 1.96940228343009948730e-01) (49, 3.02383750677108764648e-02) (25, 1.81325525045394897461e-01) (26, 1.13804928958415985107e-01) (27, -3.18583518266677856445e-01) (28, 3.25227916240692138672e-01) (29, -3.41061890125274658203e-01) (30, -4.45210129022598266602e-01) (31, 1.10341608524322509766e-01) (32, -6.31558656692504882812e-01) (33, 1.59926891326904296875e-01) (34, -2.51653820276260375977e-01) (35, 1.30592286586761474609e-02) (36, 2.20048084855079650879e-01) (37, -3.83608639240264892578e-01) (38, 5.99939003586769104004e-02) (39, 2.45972335338592529297e-01) (40, -8.74599367380142211914e-02) (41, -5.80617606639862060547e-01) (42, 3.38324308395385742188e-01) (43, 4.65402275323867797852e-01) (44, 5.21492302417755126953e-01) (45, 7.80272036790847778320e-02) (46, -2.33670845627784729004e-01) (47, 2.23377645015716552734e-01) (48, 1.08599275350570678711e-01) (49, -3.14055681228637695312e-01) (25, -3.77208918333053588867e-01) (26, 5.51920473575592041016e-01) (27, 3.62440109252929687500e-01) (28, -3.88352215290069580078e-01) (29, -1.79217875003814697266e-01) (30, 9.62109327316284179688e-01) (31, 4.42076861858367919922e-01) (32, 5.69763720035552978516e-01) (33, 1.50061130523681640625e-01) (34, 3.18108722567558288574e-02) (35, 2.64655146747827529907e-03) (36, -3.77341240644454956055e-01) (37, 6.20141029357910156250e-01) (38, -3.19226562976837158203e-01) (39, -5.37570901215076446533e-02) (40, -1.50864496827125549316e-01) (41, 9.69595670700073242188e-01) (42, 3.95956069231033325195e-01) (43, -2.59832471609115600586e-01) (44, -2.68781125545501708984e-01) (45, 5.15201091766357421875e-02) (46, 3.42890173196792602539e-01) (47, 2.61426061391830444336e-01) (48, 1.15652590990066528320e-01) (49, 5.08667826652526855469e-01) (25, -7.87207856774330139160e-02) (26, -4.24859017133712768555e-01) (27, 6.15776181221008300781e-01) (28, 1.29011705517768859863e-01) (29, 8.79104316234588623047e-01) (30, 2.38558709621429443359e-01) (31, -6.67956292629241943359e-01) (32, 5.97516000270843505859e-01) (33, -7.06612467765808105469e-02) (34, 5.26631295680999755859e-01) (35, 3.81126821041107177734e-01) (36, -5.32368272542953491211e-02) (37, 2.17013359069824218750e-01) (38, -9.95101332664489746094e-02) (39, -3.30119848251342773438e-01) (40, 4.24930937588214874268e-02) (41, 2.82803952693939208984e-01) (42, -6.77687406539916992188e-01) (43, -3.51790845394134521484e-01) (44, -1.91212177276611328125e-01) (45, 1.62242949008941650391e-01) (46, 4.10902202129364013672e-01) (47, 3.18537279963493347168e-02) (48, -2.93130755424499511719e-01) (49, -1.15367674827575683594e+00) (25, 3.69570344686508178711e-01) (26, -2.57065266370773315430e-01) (27, 3.74941974878311157227e-01) (28, -6.58788159489631652832e-02) (29, 5.54595768451690673828e-01) (30, 9.77581068873405456543e-02) (31, -3.47777217626571655273e-01) (32, 3.91076773405075073242e-01) (33, -2.31035515666007995605e-01) (34, 1.02887280285358428955e-01) (35, -1.90988287329673767090e-01) (36, -1.87228351831436157227e-01) (37, 2.15913265943527221680e-01) (38, -3.95663917064666748047e-01) (39, -2.70389199256896972656e-01) (40, 2.03521311283111572266e-01) (41, 1.95515200495719909668e-01) (42, -8.11569571495056152344e-01) (43, 1.31554335355758666992e-01) (44, -5.61211168766021728516e-01) (45, -4.98377442359924316406e-01) (46, 1.07368558645248413086e-01) (47, -1.18130460381507873535e-01) (48, -4.62720394134521484375e-01) (49, -1.39292776584625244141e+00) (25, -1.23032584786415100098e-01) (26, 5.58437526226043701172e-01) (27, 5.85903942584991455078e-01) (28, 2.72773206233978271484e-01) (29, 3.05926918983459472656e-01) (30, -1.97661727666854858398e-01) (31, 7.81468302011489868164e-02) (32, -1.81451186537742614746e-01) (33, -1.64173483848571777344e-01) (34, -1.87496945261955261230e-01) (35, -1.12471833825111389160e-01) (36, -4.08026695251464843750e-01) (37, 1.97791948914527893066e-01) (38, -6.39358818531036376953e-01) (39, 1.43952686339616775513e-02) (40, 2.46423080563545227051e-01) (41, -1.79135262966156005859e-01) (42, -8.29617530107498168945e-02) (43, 2.23805266432464122772e-03) (44, 6.27982318401336669922e-02) (45, -2.44272127747535705566e-01) (46, 6.18788659572601318359e-01) (47, 8.25915634632110595703e-01) (48, 5.94588369131088256836e-02) (49, -4.84149605035781860352e-01) (25, -1.17328114807605743408e-01) (26, 6.56512260437011718750e-01) (27, 1.64893284440040588379e-01) (28, 6.53973892331123352051e-02) (29, -1.47299855947494506836e-01) (30, -2.35475569963455200195e-01) (31, 2.23026335239410400391e-01) (32, -3.83195281028747558594e-01) (33, 2.07686841487884521484e-01) (34, -1.55307188630104064941e-01) (35, -1.82879924774169921875e-01) (36, -2.31014102697372436523e-01) (37, 6.41179233789443969727e-02) (38, -5.00493824481964111328e-01) (39, 3.52559626102447509766e-01) (40, -1.15713216364383697510e-02) (41, -2.82866835594177246094e-01) (42, 4.93126124143600463867e-01) (43, 2.71761476993560791016e-01) (44, 1.90103784203529357910e-01) (45, -2.71949648857116699219e-01) (46, 1.05821952223777770996e-01) (47, 4.59130108356475830078e-01) (48, 9.15117412805557250977e-02) (49, -1.38581204414367675781e+00) (25, -1.15793183445930480957e-01) (26, 4.21728223562240600586e-01) (27, 4.71486479043960571289e-01) (28, 1.13374456763267517090e-01) (29, 1.95816725492477416992e-01) (30, -1.48974642157554626465e-01) (31, -1.19596876204013824463e-01) (32, -1.39524668455123901367e-01) (33, -1.27778306603431701660e-01) (34, -6.56175315380096435547e-02) (35, -5.44610992074012756348e-02) (36, -1.69070273637771606445e-01) (37, 1.24740570783615112305e-01) (38, -5.77036201953887939453e-01) (39, 7.06096291542053222656e-02) (40, 8.95199850201606750488e-02) (41, -1.27542227506637573242e-01) (42, -1.43083974719047546387e-01) (43, 4.48785610496997833252e-02) (44, 2.46624425053596496582e-02) (45, -2.53360599279403686523e-01) (46, 5.27380049228668212891e-01) (47, 7.49569058418273925781e-01) (48, -7.47213736176490783691e-02) (49, -6.19453370571136474609e-01) (25, -1.33510470390319824219e-01) (26, 1.13771423697471618652e-01) (27, 3.04749310016632080078e-01) (28, 3.70897889137268066406e-01) (29, 2.29659631848335266113e-01) (30, -2.83040642738342285156e-01) (31, -2.34126046299934387207e-01) (32, -3.77712994813919067383e-01) (33, 1.32003173232078552246e-01) (34, 2.05800697207450866699e-01) (35, 3.62671464681625366211e-01) (36, 3.23049016296863555908e-02) (37, -2.38871976733207702637e-01) (38, -2.03054994344711303711e-01) (39, 5.97104802727699279785e-02) (40, 8.34242850542068481445e-02) (41, -4.53020244836807250977e-01) (42, -9.10157859325408935547e-02) (43, -4.98868413269519805908e-02) (44, 5.55513143539428710938e-01) (45, 2.08656415343284606934e-01) (46, 1.72195255756378173828e-01) (47, 4.26065176725387573242e-01) (48, 8.95642191171646118164e-02) (49, -1.13914918899536132812e+00) (25, 1.27204656600952148438e-01) (26, 2.77340352535247802734e-01) (27, 8.90548229217529296875e-02) (28, 1.64609432220458984375e-01) (29, -4.04591001570224761963e-02) (30, -4.02861624956130981445e-01) (31, -9.29248556494712829590e-02) (32, -3.05513799190521240234e-01) (33, -1.58776342868804931641e-03) (34, -7.34102874994277954102e-02) (35, -9.05221924185752868652e-02) (36, 1.67846590280532836914e-01) (37, -1.61827102303504943848e-01) (38, -2.40486770868301391602e-01) (39, 1.37665838003158569336e-01) (40, 6.45515993237495422363e-02) (41, -3.46930444240570068359e-01) (42, -8.18072259426116943359e-02) (43, 2.77702420949935913086e-01) (44, 2.03028425574302673340e-01) (45, 4.37840782105922698975e-02) (46, -2.37603187561035156250e-02) (47, 2.74163007736206054688e-01) (48, 4.74997572600841522217e-02) (49, -1.38757538795471191406e+00) (25, -2.61631071567535400391e-01) (26, 7.57071375846862792969e-01) (27, 5.28224468231201171875e-01) (28, 3.07900100946426391602e-01) (29, 3.75916928052902221680e-01) (30, -3.62100452184677124023e-02) (31, 1.20622301474213600159e-02) (32, -8.00345465540885925293e-02) (33, -2.50435441732406616211e-01) (34, -1.76900863647460937500e-01) (35, 1.38299753889441490173e-02) (36, -4.65442150831222534180e-01) (37, 2.52119690179824829102e-01) (38, -8.12079966068267822266e-01) (39, 7.49711468815803527832e-02) (40, 1.12816579639911651611e-01) (41, -3.63313406705856323242e-02) (42, -1.52719449251890182495e-02) (43, 7.50054121017456054688e-02) (44, 7.16540291905403137207e-02) (45, -1.85621798038482666016e-01) (46, 5.88961601257324218750e-01) (47, 8.64537239074707031250e-01) (48, -6.51519224047660827637e-02) (49, -9.21611666679382324219e-01) (25, -1.05332180857658386230e-01) (26, 5.92010244727134704590e-02) (27, 4.46986407041549682617e-01) (28, 2.36524567008018493652e-01) (29, 5.49080312252044677734e-01) (30, -1.50788158178329467773e-01) (31, -3.79587054252624511719e-01) (32, 1.25093400478363037109e-01) (33, -1.79787933826446533203e-01) (34, 1.21193684637546539307e-01) (35, 1.45517230033874511719e-01) (36, -5.18893338739871978760e-02) (37, 5.98419830203056335449e-03) (38, -3.24296623468399047852e-01) (39, -9.85777452588081359863e-02) (40, 2.10726886987686157227e-01) (41, -1.25963211059570312500e-01) (42, -4.30368602275848388672e-01) (43, -2.60301858186721801758e-01) (44, -9.90505814552307128906e-02) (45, -1.65001135319471359253e-02) (46, 1.27620190382003784180e-01) (47, 3.56639683246612548828e-01) (48, -1.31261408329010009766e-01) (49, -1.68587887287139892578e+00) (25, 1.38087555766105651855e-01) (26, 1.54887780547142028809e-01) (27, 3.03327322006225585938e-01) (28, 4.86023910343647003174e-03) (29, 2.71339356899261474609e-01) (30, -3.53679843246936798096e-02) (31, -1.17380112409591674805e-01) (32, -2.78029162436723709106e-02) (33, -1.24132543802261352539e-01) (34, -3.20451334118843078613e-02) (35, -8.62742960453033447266e-02) (36, -7.66110792756080627441e-02) (37, 1.48572653532028198242e-01) (38, -4.79858577251434326172e-01) (39, -2.50953100621700286865e-02) (40, 2.80393391847610473633e-01) (41, -2.13679179549217224121e-01) (42, -4.06375020742416381836e-01) (43, 1.39818534255027770996e-01) (44, -2.48579904437065124512e-01) (45, -2.11429506540298461914e-01) (46, 5.43737486004829406738e-02) (47, 1.38367295265197753906e-01) (48, -7.09194391965866088867e-02) (49, -1.82613039016723632812e+00) (25, 4.55388240516185760498e-02) (26, -3.87384086847305297852e-01) (27, -4.39345180988311767578e-01) (28, -3.74512463808059692383e-01) (29, -2.72167533636093139648e-01) (30, 3.01153570413589477539e-01) (31, 6.98964670300483703613e-02) (32, 3.24768543243408203125e-01) (33, 1.60313159227371215820e-01) (34, 2.06412106752395629883e-01) (35, -8.10175314545631408691e-02) (36, 7.21036344766616821289e-02) (37, -8.74515026807785034180e-02) (38, 3.73888999223709106445e-01) (39, -1.33548201993107795715e-02) (40, -1.36505663394927978516e-01) (41, 3.91089528799057006836e-01) (42, 1.54029443860054016113e-01) (43, -7.71424695849418640137e-02) (44, -3.00925105810165405273e-01) (45, 8.60598012804985046387e-02) (46, -4.62752193212509155273e-01) (47, -6.93275630474090576172e-01) (48, -3.84501740336418151855e-02) (49, -4.85529184341430664062e-01) (25, 1.03565767407417297363e-01) (26, 3.80380928516387939453e-01) (27, -5.96152186393737792969e-01) (28, -4.15899366140365600586e-01) (29, -5.62872111797332763672e-01) (30, 2.17707045376300811768e-02) (31, 5.81611037254333496094e-01) (32, -2.48231500387191772461e-01) (33, 2.77030050754547119141e-01) (34, -3.07560741901397705078e-01) (35, -4.32160466909408569336e-01) (36, -3.13365608453750610352e-02) (37, -1.50450943037867546082e-02) (38, 2.09054559469223022461e-01) (39, 2.15611532330513000488e-01) (40, -8.87710675597190856934e-02) (41, 7.84851685166358947754e-02) (42, 5.05485475063323974609e-01) (43, 3.28688114881515502930e-01) (44, -1.38407409191131591797e-01) (45, -1.39202460646629333496e-01) (46, -7.33663022518157958984e-01) (47, -4.44256633520126342773e-01) (48, 3.47447574138641357422e-01) (49, -1.12057685852050781250e+00) (25, 9.34890471398830413818e-03) (26, -5.31429886817932128906e-01) (27, -1.05484127998352050781e-01) (28, -2.17998325824737548828e-01) (29, -1.23932048678398132324e-01) (30, 7.02786296606063842773e-02) (31, -3.06964039802551269531e-01) (32, 1.04781031608581542969e-01) (33, 2.63034611940383911133e-01) (34, 2.48060569167137145996e-01) (35, 1.34757265448570251465e-01) (36, 4.21242773532867431641e-01) (37, -2.90817946195602416992e-01) (38, 7.27315127849578857422e-01) (39, -1.11726306378841400146e-01) (40, -1.79116591811180114746e-01) (41, -1.18005564436316490173e-02) (42, -1.26177564263343811035e-01) (43, -5.35895265638828277588e-02) (44, 5.32920807600021362305e-02) (45, 1.36323764920234680176e-01) (46, -5.22056698799133300781e-01) (47, -6.67969405651092529297e-01) (48, -7.38839954137802124023e-02) (49, -1.16777181625366210938e-01) (25, -1.28822669386863708496e-01) (26, -2.93137341737747192383e-01) (27, -2.53071844577789306641e-01) (28, 5.02574779093265533447e-02) (29, -6.62895664572715759277e-02) (30, -1.15602716803550720215e-01) (31, -5.79449757933616638184e-02) (32, -2.71293222904205322266e-01) (33, 3.34073156118392944336e-01) (34, 1.20871372520923614502e-01) (35, 4.12819564342498779297e-01) (36, 2.67194181680679321289e-01) (37, -3.47617805004119873047e-01) (38, 5.82874596118927001953e-01) (39, -5.17403408885002136230e-02) (40, -2.77975082397460937500e-01) (41, -5.30593156814575195312e-01) (42, 1.92501381039619445801e-01) (43, -7.20150247216224670410e-02) (44, 4.28162157535552978516e-01) (45, 5.57110249996185302734e-01) (46, -4.59290981292724609375e-01) (47, -4.69428449869155883789e-01) (48, 1.04571618139743804932e-01) (49, -6.32284104824066162109e-01) (25, 2.03067753463983535767e-02) (26, 6.76998049020767211914e-02) (27, -2.82245367765426635742e-01) (28, -6.27776905894279479980e-02) (29, -3.32193672657012939453e-01) (30, -3.77001971006393432617e-01) (31, 6.09923601150512695312e-02) (32, -4.74112421274185180664e-01) (33, 1.92193791270256042480e-01) (34, -1.14623896777629852295e-01) (35, -1.29022598266601562500e-01) (36, 2.10606724023818969727e-01) (37, -3.41312676668167114258e-01) (38, 2.30205416679382324219e-01) (39, 2.15293765068054199219e-01) (40, -4.86839236691594123840e-03) (41, -4.17705953121185302734e-01) (42, 1.24292016029357910156e-01) (43, 1.97044163942337036133e-01) (44, 2.28541418910026550293e-01) (45, 6.56900331377983093262e-02) (46, -5.75591802597045898438e-01) (47, -2.68526017665863037109e-01) (48, 1.68754249811172485352e-01) (49, -1.28522670269012451172e+00) (25, -1.22469112277030944824e-01) (26, -2.82477855682373046875e-01) (27, -2.63190209865570068359e-01) (28, -5.76499044895172119141e-01) (29, -3.80982279777526855469e-01) (30, 5.61330914497375488281e-01) (31, 2.42036134004592895508e-01) (32, 4.77460205554962158203e-01) (33, 3.17119807004928588867e-01) (34, 2.11926683783531188965e-01) (35, 1.23685300350189208984e-02) (36, 1.55352130532264709473e-01) (37, 7.26937130093574523926e-02) (38, 4.50397074222564697266e-01) (39, -4.18913997709751129150e-02) (40, -2.97099888324737548828e-01) (41, 3.95200639963150024414e-01) (42, 2.67015516757965087891e-01) (43, -8.03090035915374755859e-02) (44, -1.77171498537063598633e-01) (45, 5.59663027524948120117e-02) (46, -5.24100005626678466797e-01) (47, -7.17023074626922607422e-01) (48, -1.13928690552711486816e-02) (49, -5.43225586414337158203e-01) (25, 9.85565856099128723145e-02) (26, -6.76213800907135009766e-01) (27, 5.03127202391624450684e-02) (28, -1.47302731871604919434e-01) (29, 1.97943940758705139160e-01) (30, 1.12819865345954895020e-01) (31, -5.30489861965179443359e-01) (32, 3.51784497499465942383e-01) (33, -5.83356507122516632080e-02) (34, 5.27569890022277832031e-01) (35, 2.30883732438087463379e-01) (36, 2.17768549919128417969e-01) (37, -9.21771749854087829590e-02) (38, 2.67280340194702148438e-01) (39, -2.92822748422622680664e-01) (40, 2.14731637388467788696e-02) (41, 1.57091513276100158691e-01) (42, -5.48581540584564208984e-01) (43, -2.13247522711753845215e-01) (44, -3.15392166376113891602e-01) (45, 1.96211233735084533691e-01) (46, -1.84801116585731506348e-01) (47, -6.55790746212005615234e-01) (48, -3.06189835071563720703e-01) (49, -1.31346249580383300781e+00) (25, 9.80012193322181701660e-02) (26, -4.90563303232192993164e-01) (27, 1.80548485368490219116e-02) (28, -3.05255383253097534180e-01) (29, 2.08971381187438964844e-01) (30, -2.06637009978294372559e-02) (31, -4.97565746307373046875e-01) (32, 1.57018214464187622070e-01) (33, -1.08923129737377166748e-01) (34, 1.95089519023895263672e-01) (35, -2.01887696981430053711e-01) (36, 1.43953457474708557129e-01) (37, -7.23864063620567321777e-02) (38, -7.71700069308280944824e-02) (39, -6.21562711894512176514e-02) (40, 1.58363088965415954590e-01) (41, 2.22085043787956237793e-01) (42, -6.19405031204223632812e-01) (43, -2.68974620848894119263e-02) (44, -5.10068356990814208984e-01) (45, -1.82123303413391113281e-01) (46, -2.17242971062660217285e-01) (47, -5.84767758846282958984e-01) (48, -2.01304450631141662598e-01) (49, -1.80765652656555175781e+00) 
