FANN_FLO_2.1
num_layers=3
learning_rate=0.699090
connection_rate=1.000000
network_type=0
learning_momentum=0.000000
training_algorithm=0
train_error_function=1
train_stop_function=0
cascade_output_change_fraction=0.010000
quickprop_decay=-0.000100
quickprop_mu=1.750000
rprop_increase_factor=1.200000
rprop_decrease_factor=0.500000
rprop_delta_min=0.000000
rprop_delta_max=50.000000
rprop_delta_zero=0.100000
cascade_output_stagnation_epochs=12
cascade_candidate_change_fraction=0.010000
cascade_candidate_stagnation_epochs=12
cascade_max_out_epochs=150
cascade_min_out_epochs=50
cascade_max_cand_epochs=150
cascade_min_cand_epochs=50
cascade_num_candidate_groups=2
bit_fail_limit=3.49999994039535522461e-01
cascade_candidate_limit=1.00000000000000000000e+03
cascade_weight_multiplier=4.00000005960464477539e-01
cascade_activation_functions_count=10
cascade_activation_functions=3 5 7 8 10 11 14 15 16 17 
cascade_activation_steepnesses_count=38
cascade_activation_steepnesses=0.00000000000000000000e+00 0.00000000000000000000e+00 0.00000000000000000000e+00 1.00000000000000000000e+01 6.08200000000000000000e+03 6.08300000000000000000e+03 6.08400000000000000000e+03 6.08500000000000000000e+03 6.08600000000000000000e+03 6.08700000000000000000e+03 6.08900000000000000000e+03 6.09000000000000000000e+03 6.09100000000000000000e+03 6.09200000000000000000e+03 0.00000000000000000000e+00 0.00000000000000000000e+00 2.00000000000000000000e+01 1.07629000000000000000e+06 1.07629100000000000000e+06 1.07629200000000000000e+06 1.07629300000000000000e+06 1.07629400000000000000e+06 1.07629500000000000000e+06 1.07629700000000000000e+06 1.07629800000000000000e+06 1.07629900000000000000e+06 1.07630000000000000000e+06 1.07667400000000000000e+06 1.07667500000000000000e+06 1.07667600000000000000e+06 1.07667700000000000000e+06 1.07667800000000000000e+06 1.07667900000000000000e+06 1.07668100000000000000e+06 1.07668200000000000000e+06 1.07668300000000000000e+06 1.07668400000000000000e+06 0.00000000000000000000e+00 
layer_sizes=31 31 31 
scale_included=0
neurons (num_inputs, activation_function, activation_steepness)=(0, 0, 0.00000000000000000000e+00) (0, 0, 0.00000000000000000000e+00) (0, 0, 0.00000000000000000000e+00) (0, 0, 0.00000000000000000000e+00) (0, 0, 0.00000000000000000000e+00) (0, 0, 0.00000000000000000000e+00) (0, 0, 0.00000000000000000000e+00) (0, 0, 0.00000000000000000000e+00) (0, 0, 0.00000000000000000000e+00) (0, 0, 0.00000000000000000000e+00) (0, 0, 0.00000000000000000000e+00) (0, 0, 0.00000000000000000000e+00) (0, 0, 0.00000000000000000000e+00) (0, 0, 0.00000000000000000000e+00) (0, 0, 0.00000000000000000000e+00) (0, 0, 0.00000000000000000000e+00) (0, 0, 0.00000000000000000000e+00) (0, 0, 0.00000000000000000000e+00) (0, 0, 0.00000000000000000000e+00) (0, 0, 0.00000000000000000000e+00) (0, 0, 0.00000000000000000000e+00) (0, 0, 0.00000000000000000000e+00) (0, 0, 0.00000000000000000000e+00) (0, 0, 0.00000000000000000000e+00) (0, 0, 0.00000000000000000000e+00) (0, 0, 0.00000000000000000000e+00) (0, 0, 0.00000000000000000000e+00) (0, 0, 0.00000000000000000000e+00) (0, 0, 0.00000000000000000000e+00) (0, 0, 0.00000000000000000000e+00) (0, 0, 0.00000000000000000000e+00) (31, 5, 5.00000000000000000000e-01) (31, 5, 5.00000000000000000000e-01) (31, 5, 5.00000000000000000000e-01) (31, 5, 5.00000000000000000000e-01) (31, 5, 5.00000000000000000000e-01) (31, 5, 5.00000000000000000000e-01) (31, 5, 5.00000000000000000000e-01) (31, 5, 5.00000000000000000000e-01) (31, 5, 5.00000000000000000000e-01) (31, 5, 5.00000000000000000000e-01) (31, 5, 5.00000000000000000000e-01) (31, 5, 5.00000000000000000000e-01) (31, 5, 5.00000000000000000000e-01) (31, 5, 5.00000000000000000000e-01) (31, 5, 5.00000000000000000000e-01) (31, 5, 5.00000000000000000000e-01) (31, 5, 5.00000000000000000000e-01) (31, 5, 5.00000000000000000000e-01) (31, 5, 5.00000000000000000000e-01) (31, 5, 5.00000000000000000000e-01) (31, 5, 5.00000000000000000000e-01) (31, 5, 5.00000000000000000000e-01) (31, 5, 5.00000000000000000000e-01) (31, 5, 5.00000000000000000000e-01) (31, 5, 5.00000000000000000000e-01) (31, 5, 5.00000000000000000000e-01) (31, 5, 5.00000000000000000000e-01) (31, 5, 5.00000000000000000000e-01) (31, 5, 5.00000000000000000000e-01) (31, 5, 5.00000000000000000000e-01) (0, 5, 0.00000000000000000000e+00) (31, 3, 5.00000000000000000000e-01) (31, 3, 5.00000000000000000000e-01) (31, 3, 5.00000000000000000000e-01) (31, 3, 5.00000000000000000000e-01) (31, 3, 5.00000000000000000000e-01) (31, 3, 5.00000000000000000000e-01) (31, 3, 5.00000000000000000000e-01) (31, 3, 5.00000000000000000000e-01) (31, 3, 5.00000000000000000000e-01) (31, 3, 5.00000000000000000000e-01) (31, 3, 5.00000000000000000000e-01) (31, 3, 5.00000000000000000000e-01) (31, 3, 5.00000000000000000000e-01) (31, 3, 5.00000000000000000000e-01) (31, 3, 5.00000000000000000000e-01) (31, 3, 5.00000000000000000000e-01) (31, 3, 5.00000000000000000000e-01) (31, 3, 5.00000000000000000000e-01) (31, 3, 5.00000000000000000000e-01) (31, 3, 5.00000000000000000000e-01) (31, 3, 5.00000000000000000000e-01) (31, 3, 5.00000000000000000000e-01) (31, 3, 5.00000000000000000000e-01) (31, 3, 5.00000000000000000000e-01) (31, 3, 5.00000000000000000000e-01) (31, 3, 5.00000000000000000000e-01) (31, 3, 5.00000000000000000000e-01) (31, 3, 5.00000000000000000000e-01) (31, 3, 5.00000000000000000000e-01) (31, 3, 5.00000000000000000000e-01) (0, 3, 0.00000000000000000000e+00) 
connections (connected_to_neuron, weight)=(0, -6.24497495591640472412e-02) (1, -2.21338853240013122559e-01) (2, -6.49091243743896484375e-01) (3, -4.09287691116333007812e-01) (4, -2.37573996186256408691e-01) (5, -5.06469547748565673828e-01) (6, -4.74670350551605224609e-01) (7, -3.28013077378273010254e-02) (8, -6.73124939203262329102e-02) (9, -1.99619516730308532715e-01) (10, 1.73577263951301574707e-01) (11, -1.71474948525428771973e-01) (12, 1.09728723764419555664e-02) (13, 3.42027664184570312500e-01) (14, 1.81381359696388244629e-01) (15, 2.42874115705490112305e-01) (16, 1.04410476982593536377e-01) (17, 1.18578746914863586426e-01) (18, 2.38869681954383850098e-01) (19, -2.11768314242362976074e-01) (20, -1.02047733962535858154e-01) (21, -7.10553154349327087402e-02) (22, -2.99204647541046142578e-01) (23, -7.98304498195648193359e-01) (24, -6.92963674664497375488e-02) (25, -7.69951939582824707031e-01) (26, -4.20821309089660644531e-01) (27, -7.55752017721533775330e-03) (28, 3.35272252559661865234e-02) (29, 2.95242364518344402313e-03) (30, -3.56439918279647827148e-01) (0, 3.74896116554737091064e-02) (1, -8.08143854141235351562e-01) (2, -6.61520481109619140625e-01) (3, -7.77551591396331787109e-01) (4, 9.95445996522903442383e-02) (5, -5.68127967417240142822e-02) (6, -2.20111310482025146484e-01) (7, 4.98377270996570587158e-02) (8, 4.69322502613067626953e-02) (9, -6.59046471118927001953e-02) (10, 8.57483968138694763184e-02) (11, -4.59908783435821533203e-01) (12, -2.05956727266311645508e-01) (13, -5.61459362506866455078e-03) (14, 1.29254937171936035156e-01) (15, 1.33949905633926391602e-01) (16, -1.70703120529651641846e-02) (17, 1.01859010756015777588e-01) (18, 1.10189981758594512939e-01) (19, 1.25074759125709533691e-03) (20, -1.20356753468513488770e-02) (21, -2.11648717522621154785e-01) (22, -2.14713990688323974609e-01) (23, -6.07736408710479736328e-01) (24, 2.31501474976539611816e-01) (25, -3.26573252677917480469e-01) (26, -1.61666437983512878418e-01) (27, -1.28072455525398254395e-01) (28, -8.43922495841979980469e-02) (29, 2.08970755338668823242e-01) (30, -4.49628382921218872070e-02) (0, -1.18766367435455322266e+00) (1, -1.38228094577789306641e+00) (2, -3.92723321914672851562e-01) (3, -2.96197146177291870117e-01) (4, -7.65294730663299560547e-01) (5, -2.17070087790489196777e-01) (6, 8.88382673263549804688e-01) (7, 1.17469370365142822266e+00) (8, 2.66716063022613525391e-01) (9, -4.87413585186004638672e-01) (10, -5.93755364418029785156e-01) (11, -7.32492506504058837891e-01) (12, -5.38864023983478546143e-02) (13, -1.79855570197105407715e-01) (14, -4.15260612964630126953e-01) (15, -8.80877077579498291016e-02) (16, 4.09750401973724365234e-01) (17, 6.22271418571472167969e-01) (18, 3.80752831697463989258e-01) (19, -4.00998771190643310547e-01) (20, -6.06961607933044433594e-01) (21, -5.25252819061279296875e-01) (22, -5.21257877349853515625e-01) (23, -3.52641493082046508789e-01) (24, -5.51734209060668945312e-01) (25, -1.15818157792091369629e-01) (26, 1.27654805779457092285e-01) (27, 3.18618685007095336914e-01) (28, -3.09454739093780517578e-01) (29, -2.98704542219638824463e-02) (30, 2.69763320684432983398e-01) (0, 1.25399976968765258789e-01) (1, 6.95274770259857177734e-01) (2, 7.53789246082305908203e-01) (3, 1.12655244767665863037e-01) (4, -2.56101608276367187500e-01) (5, 4.71594370901584625244e-03) (6, -2.61308550834655761719e-01) (7, -1.26474368572235107422e+00) (8, -6.47105097770690917969e-01) (9, 3.56426119804382324219e-01) (10, 3.20278704166412353516e-01) (11, 3.58079284429550170898e-01) (12, 6.87476456165313720703e-01) (13, 4.45120781660079956055e-01) (14, 3.30431133508682250977e-01) (15, 2.84033000469207763672e-01) (16, 8.11916142702102661133e-02) (17, -5.06134927272796630859e-01) (18, -2.51114010810852050781e-01) (19, 1.50702476501464843750e-01) (20, -1.09558403491973876953e-01) (21, 4.13088291883468627930e-01) (22, 3.97045910358428955078e-01) (23, -2.17392165213823318481e-02) (24, -5.06340749561786651611e-02) (25, -3.65729957818984985352e-01) (26, -5.13556599617004394531e-02) (27, -3.25117975473403930664e-01) (28, 1.83883875608444213867e-01) (29, 1.23102247714996337891e-01) (30, 2.52361327409744262695e-01) (0, 1.07970185577869415283e-01) (1, -1.28909200429916381836e-01) (2, -2.54429996013641357422e-01) (3, -2.81965404748916625977e-01) (4, -2.00136154890060424805e-02) (5, 8.07256400585174560547e-02) (6, -1.45626246929168701172e-01) (7, -5.56186020374298095703e-01) (8, 5.65356686711311340332e-02) (9, 1.82945549488067626953e-01) (10, 1.56419426202774047852e-01) (11, -2.27013170719146728516e-01) (12, 6.52380436658859252930e-02) (13, 3.97550687193870544434e-03) (14, 8.18447545170783996582e-02) (15, 1.99303492903709411621e-01) (16, -7.79447257518768310547e-02) (17, -1.57016307115554809570e-01) (18, 3.96133325994014739990e-02) (19, 5.40135502815246582031e-02) (20, 1.13565661013126373291e-01) (21, -7.49876499176025390625e-02) (22, -2.93844640254974365234e-01) (23, -1.81915849447250366211e-01) (24, -1.07767403125762939453e-01) (25, 5.92384710907936096191e-02) (26, -1.02822192013263702393e-01) (27, -2.01898097991943359375e-01) (28, 2.05897450447082519531e-01) (29, 2.49575823545455932617e-01) (30, 2.34112769365310668945e-01) (0, -5.01131057739257812500e-01) (1, -1.08466356992721557617e-01) (2, 9.34230029582977294922e-01) (3, 6.06390357017517089844e-01) (4, -2.07577079534530639648e-01) (5, 5.60452878475189208984e-01) (6, 7.66411542892456054688e-01) (7, -6.87777578830718994141e-01) (8, -3.26156854629516601562e-01) (9, 2.09311068058013916016e-01) (10, -2.79226899147033691406e-01) (11, -8.64823907613754272461e-03) (12, 3.43110859394073486328e-01) (13, -3.20013016462326049805e-01) (14, -1.98687210679054260254e-01) (15, -1.58411353826522827148e-01) (16, 3.21026533842086791992e-01) (17, -3.66818934679031372070e-01) (18, -3.13553899526596069336e-01) (19, 2.10103198885917663574e-01) (20, -1.26696601510047912598e-01) (21, -1.73271819949150085449e-01) (22, 4.89362955093383789062e-01) (23, 6.46444559097290039062e-01) (24, -1.67444109916687011719e-01) (25, 6.12521827220916748047e-01) (26, 3.68691354990005493164e-01) (27, -4.43835556507110595703e-01) (28, -9.16172564029693603516e-03) (29, 6.07555024325847625732e-02) (30, -1.70848984271287918091e-02) (0, -6.35963439941406250000e-01) (1, -8.65957677364349365234e-01) (2, -6.94014430046081542969e-01) (3, -8.63123774528503417969e-01) (4, -5.92356622219085693359e-01) (5, -1.51536896824836730957e-01) (6, 3.71895879507064819336e-01) (7, -7.90311872959136962891e-01) (8, -1.62651747465133666992e-01) (9, 2.03501805663108825684e-01) (10, -4.24466133117675781250e-01) (11, -5.64071714878082275391e-01) (12, -1.36278793215751647949e-02) (13, 1.29338413476943969727e-01) (14, 1.35814130306243896484e-01) (15, 6.56230688095092773438e-01) (16, 6.89892530441284179688e-01) (17, -2.15387076139450073242e-01) (18, 1.89681410789489746094e-01) (19, -1.94851472973823547363e-01) (20, -3.19080382585525512695e-01) (21, -1.13331787288188934326e-01) (22, -2.23340481519699096680e-01) (23, -6.70657873153686523438e-01) (24, -3.88824641704559326172e-01) (25, -6.48813009262084960938e-01) (26, -5.52886426448822021484e-02) (27, -3.40858042240142822266e-01) (28, 1.19409084320068359375e-01) (29, 3.30860108137130737305e-01) (30, -2.34223037958145141602e-01) (0, 9.88108813762664794922e-01) (1, 8.71016800403594970703e-01) (2, 3.14155548810958862305e-01) (3, -2.40420982241630554199e-01) (4, 1.05872690677642822266e-01) (5, -1.91218420863151550293e-01) (6, -1.06639635562896728516e+00) (7, 1.67058244347572326660e-01) (8, 1.65051013231277465820e-01) (9, 1.36371791362762451172e-01) (10, 4.90195512771606445312e-01) (11, 6.03653371334075927734e-01) (12, 1.24577865004539489746e-01) (13, -6.30595535039901733398e-02) (14, 4.84629161655902862549e-02) (15, -2.36426293849945068359e-01) (16, -5.33539533615112304688e-01) (17, 8.60920697450637817383e-02) (18, 2.45214402675628662109e-02) (19, 2.39691421389579772949e-01) (20, 3.42133402824401855469e-01) (21, 2.15037658810615539551e-01) (22, 1.66728466749191284180e-01) (23, -2.43046935647726058960e-02) (24, -6.85372948646545410156e-02) (25, -9.74677577614784240723e-02) (26, -5.08841037750244140625e-01) (27, 1.97336971759796142578e-01) (28, 5.66283315420150756836e-02) (29, -2.55781654268503189087e-02) (30, 3.71928095817565917969e-01) (0, -7.77243077754974365234e-01) (1, -1.02349495887756347656e+00) (2, 3.13221514225006103516e-02) (3, 3.00021469593048095703e-01) (4, -7.19057545065879821777e-02) (5, -2.20521941781044006348e-01) (6, 5.67419290542602539062e-01) (7, 2.55145609378814697266e-01) (8, -1.71920046210289001465e-01) (9, -4.81289565563201904297e-01) (10, -5.37000656127929687500e-01) (11, -6.28372490406036376953e-01) (12, 1.63231253623962402344e-01) (13, 3.44660043716430664062e-01) (14, -5.98389767110347747803e-02) (15, -1.17721691727638244629e-01) (16, 3.41104507446289062500e-01) (17, 9.82590913772583007812e-02) (18, -5.19502907991409301758e-04) (19, -4.05309796333312988281e-01) (20, -3.46758574247360229492e-01) (21, -3.76035392284393310547e-01) (22, -2.51105278730392456055e-01) (23, -4.74502563476562500000e-01) (24, -1.95331171154975891113e-01) (25, -6.70488849282264709473e-02) (26, -5.83146885037422180176e-02) (27, -1.88788473606109619141e-01) (28, -2.95954972505569458008e-01) (29, 1.47555889561772346497e-02) (30, -4.53445315361022949219e-01) (0, 5.65645754337310791016e-01) (1, 8.70101869106292724609e-01) (2, 9.04163956642150878906e-01) (3, 2.89735376834869384766e-01) (4, 3.12453627586364746094e-01) (5, -7.00280129909515380859e-01) (6, -9.50470566749572753906e-01) (7, 1.97534352540969848633e-01) (8, -5.63848257064819335938e-01) (9, -1.92148312926292419434e-01) (10, 3.23062181472778320312e-01) (11, 4.83270615339279174805e-01) (12, 7.21475422382354736328e-01) (13, 6.23355150222778320312e-01) (14, 5.04697442054748535156e-01) (15, 2.14654207229614257812e-01) (16, -1.86153918504714965820e-01) (17, -3.63727152347564697266e-01) (18, -7.98906683921813964844e-02) (19, -2.21295449882745742798e-02) (20, 1.58271253108978271484e-01) (21, 3.20071429014205932617e-01) (22, 5.02226829528808593750e-01) (23, -3.41997966170310974121e-02) (24, -2.86714751273393630981e-02) (25, -7.75618016719818115234e-01) (26, -4.51902896165847778320e-01) (27, 6.76782250404357910156e-01) (28, -5.55993244051933288574e-02) (29, -1.82842716574668884277e-01) (30, -2.38288760185241699219e-01) (0, 2.43383005261421203613e-01) (1, -4.70955878496170043945e-01) (2, -3.59508097171783447266e-02) (3, -6.94411154836416244507e-03) (4, 1.46811470389366149902e-01) (5, 2.96770930290222167969e-01) (6, 3.78733873367309570312e-02) (7, -2.33943015336990356445e-01) (8, 2.42164954543113708496e-01) (9, 2.05488279461860656738e-01) (10, -2.49931355938315391541e-04) (11, -1.58020719885826110840e-01) (12, -9.83180180191993713379e-02) (13, -3.24179857969284057617e-01) (14, -7.48647004365921020508e-02) (15, 7.22221881151199340820e-02) (16, 9.17760282754898071289e-02) (17, -1.12792486324906349182e-02) (18, -1.88620910048484802246e-02) (19, 1.81632146239280700684e-01) (20, 3.49105179309844970703e-01) (21, -2.82323062419891357422e-01) (22, 1.97408691048622131348e-01) (23, 3.40472698211669921875e-01) (24, 2.34205171465873718262e-01) (25, 3.64588558673858642578e-01) (26, 6.57749474048614501953e-02) (27, -3.10587167739868164062e-01) (28, 2.47769996523857116699e-01) (29, -3.60806100070476531982e-03) (30, 1.44768208265304565430e-01) (0, 1.24483853578567504883e-02) (1, 1.94112300872802734375e-01) (2, 6.83808863162994384766e-01) (3, 8.17033171653747558594e-01) (4, -1.29915876314043998718e-02) (5, -1.92553162574768066406e-01) (6, -7.10897296667098999023e-02) (7, 7.46288299560546875000e-01) (8, 7.45370984077453613281e-04) (9, -5.28268277645111083984e-01) (10, -1.88941165804862976074e-01) (11, 1.96466997265815734863e-01) (12, 2.51099526882171630859e-01) (13, -9.90514010190963745117e-02) (14, -1.91690728068351745605e-01) (15, -2.81806737184524536133e-01) (16, 1.38512328267097473145e-02) (17, 1.12754046916961669922e-01) (18, 5.22573478519916534424e-02) (19, -1.51123285293579101562e-01) (20, 4.36885356903076171875e-02) (21, 5.10180853307247161865e-02) (22, 2.32694551348686218262e-01) (23, 4.36234563589096069336e-01) (24, -1.00784823298454284668e-01) (25, 1.40346691012382507324e-01) (26, -1.79431214928627014160e-01) (27, 3.31809014081954956055e-01) (28, -1.59061744809150695801e-01) (29, -3.88031572103500366211e-01) (30, -1.07692040503025054932e-01) (0, 4.43040013313293457031e-01) (1, -4.12647366523742675781e-01) (2, 1.24452546238899230957e-01) (3, -3.26726920902729034424e-02) (4, 1.31038933992385864258e-01) (5, 4.64053273200988769531e-01) (6, -1.00700691342353820801e-01) (7, -5.81534095108509063721e-02) (8, 2.96062171459197998047e-01) (9, 1.46592065691947937012e-01) (10, 2.68034547567367553711e-01) (11, -1.26561671495437622070e-01) (12, 8.04780498147010803223e-02) (13, -4.87114101648330688477e-01) (14, -1.54255703091621398926e-01) (15, -4.46936786174774169922e-02) (16, -1.25928714871406555176e-01) (17, -1.47589202970266342163e-02) (18, 5.10803312063217163086e-02) (19, 1.43352836370468139648e-01) (20, 3.92456591129302978516e-01) (21, -4.11654889583587646484e-01) (22, 1.24132737517356872559e-01) (23, 4.73372399806976318359e-01) (24, 1.61571338772773742676e-01) (25, 3.69736313819885253906e-01) (26, 6.07367604970932006836e-02) (27, -1.57775104045867919922e-01) (28, 2.79751330614089965820e-01) (29, -4.24004755914211273193e-02) (30, 2.44377568364143371582e-01) (0, -1.55125081539154052734e+00) (1, -1.15215443074703216553e-01) (2, -1.16518747806549072266e+00) (3, -5.50972893834114074707e-02) (4, -3.49550813436508178711e-01) (5, 1.53758049011230468750e-01) (6, 1.50178396701812744141e+00) (7, -8.00654649734497070312e-01) (8, -9.03182327747344970703e-02) (9, 7.50957205891609191895e-02) (10, -8.26558530330657958984e-01) (11, -1.52283057570457458496e-01) (12, -5.57753682136535644531e-01) (13, -1.03763520717620849609e-01) (14, -6.07648231089115142822e-02) (15, 3.15858811140060424805e-01) (16, 1.11609733104705810547e+00) (17, -6.23330241069197654724e-03) (18, 2.83428002148866653442e-02) (19, -1.63002133369445800781e-01) (20, -5.04727840423583984375e-01) (21, 5.92605257406830787659e-03) (22, -5.37853240966796875000e-01) (23, 1.27762943506240844727e-01) (24, -2.03450098633766174316e-01) (25, -4.19930703938007354736e-02) (26, 4.30030286312103271484e-01) (27, -4.93727892637252807617e-01) (28, 7.64170438051223754883e-02) (29, 2.26338982582092285156e-01) (30, -4.81854341924190521240e-02) (0, -3.30856531858444213867e-01) (1, -3.72934728860855102539e-01) (2, -1.26344943046569824219e+00) (3, -4.11812901496887207031e-01) (4, -4.00919795036315917969e-01) (5, 6.30352854728698730469e-01) (6, 8.14687311649322509766e-01) (7, -8.11593949794769287109e-01) (8, 4.80813294649124145508e-01) (9, 5.52468001842498779297e-01) (10, -4.30019527673721313477e-01) (11, -9.62319821119308471680e-02) (12, -7.13150143623352050781e-01) (13, -6.36766135692596435547e-01) (14, -2.06408426165580749512e-01) (15, 2.54484355449676513672e-01) (16, 3.94888281822204589844e-01) (17, 1.86486572027206420898e-01) (18, 1.64280608296394348145e-01) (19, 1.94713100790977478027e-01) (20, -3.15274335443973541260e-02) (21, -2.59396523237228393555e-01) (22, -3.88435423374176025391e-01) (23, 4.46999698877334594727e-01) (24, -1.82291045784950256348e-02) (25, 4.73737120628356933594e-01) (26, 2.75726258754730224609e-01) (27, -9.31567609310150146484e-01) (28, 4.83119755983352661133e-01) (29, 2.17820584774017333984e-01) (30, 3.19529116153717041016e-01) (0, 4.06976602971553802490e-02) (1, -7.90235757827758789062e-01) (2, 7.37263262271881103516e-01) (3, 3.24605226516723632812e-01) (4, 1.58358603715896606445e-01) (5, 3.07855427265167236328e-01) (6, 4.58937138319015502930e-02) (7, 4.10633593797683715820e-01) (8, 9.10097658634185791016e-02) (9, -3.41596484184265136719e-01) (10, -2.56242871284484863281e-01) (11, -2.99149125814437866211e-01) (12, -1.36723220348358154297e-01) (13, -4.58517372608184814453e-01) (14, -3.69026571512222290039e-01) (15, -1.53795808553695678711e-01) (16, -3.25256623327732086182e-02) (17, 1.79971709847450256348e-01) (18, -4.23542633652687072754e-02) (19, 1.15723624825477600098e-01) (20, 3.61985027790069580078e-01) (21, -4.77590173482894897461e-01) (22, 5.65937995910644531250e-01) (23, 7.01008915901184082031e-01) (24, 1.47959232330322265625e-01) (25, 5.36573231220245361328e-01) (26, 6.81301504373550415039e-02) (27, -6.63539469242095947266e-02) (28, 5.66839426755905151367e-03) (29, -3.22441965341567993164e-01) (30, -7.31550529599189758301e-02) (0, -8.10820460319519042969e-01) (1, 9.16027426719665527344e-02) (2, -1.48203372955322265625e+00) (3, -1.76788294315338134766e+00) (4, -7.51737236976623535156e-01) (5, 7.30114281177520751953e-02) (6, 5.37103772163391113281e-01) (7, -1.02385020256042480469e+00) (8, -4.83834445476531982422e-01) (9, 1.15327966213226318359e+00) (10, -6.20383262634277343750e-01) (11, -2.37507075071334838867e-01) (12, -7.31353163719177246094e-01) (13, -4.29630070924758911133e-01) (14, 2.61510834097862243652e-02) (15, 5.81487894058227539062e-01) (16, 8.66046190261840820312e-01) (17, 8.29711928963661193848e-02) (18, 7.31770023703575134277e-02) (19, 1.74306213855743408203e-01) (20, -2.78667837381362915039e-01) (21, 3.34409654140472412109e-01) (22, -6.33709728717803955078e-01) (23, -9.47224676609039306641e-01) (24, -3.90641778707504272461e-01) (25, -2.92854279279708862305e-01) (26, 1.36898159980773925781e-01) (27, -7.31489241123199462891e-01) (28, -1.07712566852569580078e-01) (29, 1.00342142581939697266e+00) (30, 5.05407989025115966797e-01) (0, 3.96238148212432861328e-01) (1, 9.73288714885711669922e-01) (2, 4.60121989250183105469e-01) (3, 3.40279966592788696289e-01) (4, -3.46812568604946136475e-02) (5, -3.49853932857513427734e-01) (6, -5.13793110847473144531e-01) (7, 6.82664096355438232422e-01) (8, 5.62542974948883056641e-02) (9, -3.90754759311676025391e-01) (10, 1.11738592386245727539e-01) (11, 5.27835309505462646484e-01) (12, 1.40332072973251342773e-01) (13, 2.53920592367649078369e-02) (14, -3.53069342672824859619e-02) (15, -3.19904923439025878906e-01) (16, -3.47551733255386352539e-01) (17, 5.81345707178115844727e-03) (18, -3.87089625000953674316e-02) (19, 1.04312464594841003418e-01) (20, 1.61238908767700195312e-01) (21, 5.17369925975799560547e-01) (22, 1.29723206162452697754e-01) (23, 2.60507017374038696289e-01) (24, -6.23595379292964935303e-02) (25, -1.58516108989715576172e-01) (26, -3.31052392721176147461e-01) (27, 6.12926721572875976562e-01) (28, -1.06453344225883483887e-01) (29, -3.89552712440490722656e-01) (30, -2.74565488100051879883e-01) (0, -1.60296291112899780273e-01) (1, 5.36611914634704589844e-01) (2, 2.81320750713348388672e-01) (3, 1.32907137274742126465e-01) (4, 4.42005358636379241943e-02) (5, -2.25329905748367309570e-01) (6, -7.77527689933776855469e-02) (7, 7.36819744110107421875e-01) (8, -3.57619337737560272217e-02) (9, -1.85422301292419433594e-01) (10, 3.55617292225360870361e-02) (11, 2.52422600984573364258e-01) (12, 7.75205343961715698242e-02) (13, 5.61625063419342041016e-02) (14, -1.03059366345405578613e-01) (15, -1.35623902082443237305e-01) (16, -2.87180356681346893311e-02) (17, 1.32313907146453857422e-01) (18, -6.11720196902751922607e-02) (19, -7.44690746068954467773e-02) (20, -7.63763710856437683105e-02) (21, 2.68344491720199584961e-01) (22, -1.22592248022556304932e-01) (23, 5.59846051037311553955e-02) (24, -1.74309741705656051636e-02) (25, -1.12927198410034179688e-01) (26, -1.88728183507919311523e-01) (27, 4.21768695116043090820e-01) (28, -2.85088419914245605469e-01) (29, -1.13393835723400115967e-01) (30, -4.47733215987682342529e-02) (0, -1.49890625476837158203e+00) (1, -6.61635398864746093750e-01) (2, 1.61891385912895202637e-01) (3, 4.88277465105056762695e-01) (4, -9.54350084066390991211e-02) (5, 1.75471574068069458008e-01) (6, 1.53005003929138183594e+00) (7, 2.68180798739194869995e-02) (8, -1.90598562359809875488e-01) (9, -4.63585734367370605469e-01) (10, -1.06176996231079101562e+00) (11, -4.45084840059280395508e-01) (12, -3.73821824789047241211e-01) (13, 1.35088875889778137207e-01) (14, -1.73794850707054138184e-01) (15, 2.02042758464813232422e-02) (16, 6.90179824829101562500e-01) (17, 5.22461421787738800049e-02) (18, -1.52285411953926086426e-01) (19, -4.75884467363357543945e-01) (20, -4.55400407314300537109e-01) (21, -3.00517976284027099609e-01) (22, 1.06636367738246917725e-01) (23, 8.63042473793029785156e-02) (24, -1.98158621788024902344e-01) (25, 2.62567877769470214844e-01) (26, 4.65030968189239501953e-01) (27, -2.52945214509963989258e-01) (28, -2.69371420145034790039e-01) (29, -2.05382794141769409180e-01) (30, -4.08292680978775024414e-01) (0, 4.99488890171051025391e-01) (1, 7.26431250572204589844e-01) (2, 1.25418514013290405273e-01) (3, -2.31836244463920593262e-01) (4, 2.07479353994131088257e-02) (5, -7.28018403053283691406e-01) (6, -9.96854364871978759766e-01) (7, 8.73950310051441192627e-03) (8, -4.20349538326263427734e-01) (9, 8.85207653045654296875e-02) (10, 6.20347142219543457031e-01) (11, 3.33897203207015991211e-01) (12, 4.44772303104400634766e-01) (13, 6.94527804851531982422e-01) (14, 4.76251363754272460938e-01) (15, 3.99123072624206542969e-01) (16, -1.33967712521553039551e-01) (17, -1.86500489711761474609e-01) (18, -1.39997750520706176758e-01) (19, 5.25062531232833862305e-02) (20, -1.62720620632171630859e-01) (21, 2.97002583742141723633e-01) (22, 3.47310304641723632812e-02) (23, -4.75356042385101318359e-01) (24, -6.77986741065979003906e-02) (25, -1.16591215133666992188e+00) (26, -4.27119612693786621094e-01) (27, 7.15026259422302246094e-01) (28, 9.57377254962921142578e-03) (29, -4.60560247302055358887e-02) (30, -7.44542255997657775879e-02) (0, -1.93027824163436889648e-01) (1, 3.45047563314437866211e-01) (2, -1.21533620357513427734e+00) (3, -1.07885551452636718750e+00) (4, -3.24302166700363159180e-01) (5, -2.15072214603424072266e-01) (6, 1.40917390584945678711e-01) (7, -3.70360501110553741455e-02) (8, 3.04258286952972412109e-01) (9, 6.57022476196289062500e-01) (10, -1.69275403022766113281e-01) (11, 1.77123144268989562988e-01) (12, -5.40802299976348876953e-01) (13, -2.24661022424697875977e-01) (14, -1.81061610579490661621e-01) (15, -3.04847091436386108398e-01) (16, -1.20696313679218292236e-01) (17, 4.34406518936157226562e-01) (18, 1.70075863599777221680e-01) (19, 4.71722967922687530518e-02) (20, -1.36068418622016906738e-01) (21, 3.11532855033874511719e-01) (22, -8.58628273010253906250e-01) (23, -9.71803843975067138672e-01) (24, -4.68228608369827270508e-01) (25, 1.23055100440979003906e-01) (26, 7.96153247356414794922e-02) (27, -5.76800525188446044922e-01) (28, 1.08706206083297729492e-03) (29, 8.01926493644714355469e-01) (30, 1.13267850875854492188e+00) (0, 2.95079737901687622070e-01) (1, 1.55251696705818176270e-01) (2, 1.36005237698554992676e-01) (3, -5.27398049831390380859e-01) (4, 3.00158443860709667206e-03) (5, 1.11674487590789794922e-01) (6, -2.31339603662490844727e-01) (7, -4.41242307424545288086e-01) (8, 1.57251022756099700928e-03) (9, 4.78769421577453613281e-01) (10, 2.39361330866813659668e-01) (11, 6.84451460838317871094e-02) (12, 1.94471552968025207520e-01) (13, -3.32669019699096679688e-02) (14, -5.53681328892707824707e-03) (15, 6.44679740071296691895e-02) (16, -2.11070656776428222656e-01) (17, -2.19326421618461608887e-01) (18, -2.46732868254184722900e-02) (19, 2.53624320030212402344e-01) (20, 1.12528584897518157959e-01) (21, 1.01687824353575706482e-02) (22, 1.08497396111488342285e-01) (23, -1.49767458438873291016e-01) (24, 1.20754232630133628845e-02) (25, -1.56705826520919799805e-03) (26, -1.75844132900238037109e-03) (27, -6.75914734601974487305e-02) (28, 2.49539703130722045898e-01) (29, 3.86714339256286621094e-01) (30, 4.40599679946899414062e-01) (0, 5.63229739665985107422e-01) (1, 5.04933148622512817383e-02) (2, 4.86335813999176025391e-01) (3, 3.70423197746276855469e-01) (4, 3.03710967302322387695e-01) (5, -2.59854108095169067383e-01) (6, -6.63441777229309082031e-01) (7, 5.05144417285919189453e-01) (8, -3.14959213137626647949e-02) (9, -2.52193987369537353516e-01) (10, 3.95346164703369140625e-01) (11, 6.23897798359394073486e-02) (12, 3.97431582212448120117e-01) (13, 2.00817540287971496582e-01) (14, 1.66351705789566040039e-01) (15, -1.33563220500946044922e-01) (16, -5.07986605167388916016e-01) (17, -9.74236279726028442383e-02) (18, -1.23511724174022674561e-01) (19, -1.22337795794010162354e-01) (20, -2.19005569815635681152e-02) (21, -1.58691331744194030762e-02) (22, 9.18231382966041564941e-02) (23, 2.16639488935470581055e-02) (24, 3.44025120139122009277e-02) (25, -2.18641966581344604492e-01) (26, -1.33903741836547851562e-01) (27, 6.04918062686920166016e-01) (28, 1.20437622070312500000e-01) (29, -1.93232163786888122559e-01) (30, -3.70159029960632324219e-01) (0, 4.82592463493347167969e-01) (1, 4.16887938976287841797e-01) (2, 1.16301333904266357422e+00) (3, 9.36681330204010009766e-01) (4, 3.70305508375167846680e-01) (5, 4.90155935287475585938e-01) (6, -1.15792468190193176270e-01) (7, -1.99783131480216979980e-01) (8, -1.19635879993438720703e-01) (9, -8.66585671901702880859e-02) (10, 1.40246272087097167969e-01) (11, 1.49399071931838989258e-01) (12, 5.75722277164459228516e-01) (13, 8.89497026801109313965e-02) (14, 1.35245561599731445312e-01) (15, 1.58649340271949768066e-01) (16, -3.23051512241363525391e-02) (17, -6.66325449943542480469e-01) (18, -3.51291090250015258789e-01) (19, 3.16291302442550659180e-01) (20, 1.63775667548179626465e-01) (21, 2.04269558191299438477e-01) (22, 7.21259653568267822266e-01) (23, 9.98027026653289794922e-01) (24, 3.45691472291946411133e-01) (25, 3.49819898605346679688e-01) (26, 2.41862997412681579590e-01) (27, 5.33027470111846923828e-01) (28, 3.55198055505752563477e-01) (29, -3.64279568195343017578e-01) (30, -4.42651331424713134766e-01) (0, -4.47446435689926147461e-01) (1, 1.91115617752075195312e-01) (2, 3.36269617080688476562e-01) (3, 3.76998245716094970703e-01) (4, -1.81014388799667358398e-01) (5, 3.17035824060440063477e-01) (6, 7.19847619533538818359e-01) (7, -7.46494829654693603516e-01) (8, -1.85529857873916625977e-01) (9, 1.81270450353622436523e-01) (10, -3.66485238075256347656e-01) (11, 1.72310441732406616211e-01) (12, 1.96351110935211181641e-02) (13, -7.54817053675651550293e-02) (14, -1.54621349647641181946e-02) (15, 5.57931512594223022461e-03) (16, 2.32816547155380249023e-01) (17, -2.36624270677566528320e-01) (18, -3.63316386938095092773e-01) (19, 8.35115090012550354004e-02) (20, -2.62678921222686767578e-01) (21, -1.71247199177742004395e-02) (22, 8.51917639374732971191e-02) (23, 3.08375179767608642578e-01) (24, -2.03533142805099487305e-01) (25, 2.87705659866333007812e-01) (26, 4.44972336292266845703e-01) (27, -5.04670381546020507812e-01) (28, -3.51040661334991455078e-02) (29, 8.37491303682327270508e-02) (30, 7.00248870998620986938e-03) (0, 4.29220527410507202148e-01) (1, -2.03207686543464660645e-01) (2, 3.44295084476470947266e-01) (3, -2.17557683587074279785e-01) (4, 1.73071384429931640625e-01) (5, 2.63619482517242431641e-01) (6, -9.70698297023773193359e-02) (7, 4.03107315301895141602e-01) (8, 2.44757220149040222168e-01) (9, 2.87236958742141723633e-01) (10, -2.18002304434776306152e-01) (11, 1.05874180793762207031e-01) (12, -3.37238669395446777344e-01) (13, -3.54646503925323486328e-01) (14, -2.23287761211395263672e-01) (15, -9.48574841022491455078e-02) (16, -6.50903284549713134766e-02) (17, 1.36520475149154663086e-01) (18, 3.11406292021274566650e-02) (19, 1.19773328304290771484e-01) (20, 4.00262951850891113281e-01) (21, -2.46659740805625915527e-01) (22, 4.69904273748397827148e-01) (23, 5.79813262447714805603e-03) (24, 2.80574321746826171875e-01) (25, 3.52701008319854736328e-01) (26, -2.15950220823287963867e-01) (27, -5.46193607151508331299e-02) (28, -1.45275875926017761230e-01) (29, 1.99087545275688171387e-01) (30, 3.78866225481033325195e-01) (0, 7.21062541007995605469e-01) (1, -1.43373459577560424805e-01) (2, -1.17095375061035156250e+00) (3, -1.02286529541015625000e+00) (4, 3.78375589847564697266e-01) (5, 3.50057303905487060547e-01) (6, -3.44275981187820434570e-01) (7, -8.26939463615417480469e-01) (8, 6.91043660044670104980e-02) (9, 7.54315078258514404297e-01) (10, 3.37353825569152832031e-01) (11, -8.58709365129470825195e-02) (12, -4.55310672521591186523e-01) (13, -2.69796758890151977539e-01) (14, 2.22739607095718383789e-01) (15, 4.63244765996932983398e-02) (16, -3.17788481712341308594e-01) (17, -1.89140662550926208496e-01) (18, -9.85835269093513488770e-02) (19, 3.16038519144058227539e-01) (20, 2.99053579568862915039e-01) (21, 6.33890628814697265625e-02) (22, -5.29942095279693603516e-01) (23, -6.43033444881439208984e-01) (24, 2.86723703145980834961e-01) (25, 2.87281423807144165039e-01) (26, 1.29181116819381713867e-01) (27, -3.98312777280807495117e-01) (28, 3.18324923515319824219e-01) (29, 6.29192888736724853516e-01) (30, 3.05095195770263671875e-01) (0, 3.47260534763336181641e-01) (1, 1.48050570487976074219e+00) (2, -4.59328949451446533203e-01) (3, -3.15942138433456420898e-01) (4, 4.83959130942821502686e-02) (5, -2.57033765316009521484e-01) (6, -3.07311713695526123047e-01) (7, -2.96163409948348999023e-01) (8, -8.36879760026931762695e-02) (9, 4.00607794523239135742e-01) (10, 1.13999053835868835449e-01) (11, 5.85524916648864746094e-01) (12, -8.14964622259140014648e-02) (13, 1.53667911887168884277e-01) (14, 2.30203956365585327148e-01) (15, 8.30857902765274047852e-02) (16, -9.55105125904083251953e-02) (17, -3.59784752130508422852e-01) (18, -2.49943405389785766602e-01) (19, 1.48653909564018249512e-01) (20, 1.62477210164070129395e-01) (21, 8.49625885486602783203e-01) (22, -3.56475085020065307617e-01) (23, -2.85127013921737670898e-01) (24, 4.91570644080638885498e-02) (25, -3.76822143793106079102e-01) (26, -6.80259764194488525391e-02) (27, 1.37695997953414916992e-01) (28, 2.25421994924545288086e-01) (29, 1.45036756992340087891e-01) (30, 2.91987359523773193359e-01) (0, 3.58122497797012329102e-01) (1, 4.05189484357833862305e-01) (2, 1.06931948661804199219e+00) (3, 9.40023005008697509766e-01) (4, 2.64842897653579711914e-01) (5, -4.40873622894287109375e-01) (6, -5.47407925128936767578e-01) (7, 8.54339897632598876953e-01) (8, -2.12220832705497741699e-01) (9, -6.88401877880096435547e-01) (10, 2.09246218204498291016e-01) (11, 2.92240172624588012695e-01) (12, 6.32409036159515380859e-01) (13, 4.70745056867599487305e-01) (14, 1.21070355176925659180e-01) (15, -2.90491998195648193359e-01) (16, -3.02866816520690917969e-01) (17, -1.10222257673740386963e-01) (18, -1.84251219034194946289e-01) (19, -1.88934385776519775391e-01) (20, 1.56719774007797241211e-01) (21, 2.07671567797660827637e-01) (22, 3.51543366909027099609e-01) (23, 2.64647006988525390625e-01) (24, -1.27497211098670959473e-01) (25, -2.17102453112602233887e-01) (26, -3.47005188465118408203e-01) (27, 9.25758302211761474609e-01) (28, -2.32480928301811218262e-01) (29, -6.53500080108642578125e-01) (30, -4.79696661233901977539e-01) (31, -3.68550509214401245117e-01) (32, -2.68495529890060424805e-01) (33, -4.67064350843429565430e-01) (34, 1.12860612571239471436e-01) (35, -2.50431090593338012695e-01) (36, 2.57270932197570800781e-01) (37, -1.54604867100715637207e-01) (38, -8.81894603371620178223e-02) (39, -1.92634034901857376099e-02) (40, 2.37801760435104370117e-01) (41, -1.07043027877807617188e-01) (42, 1.99723958969116210938e-01) (43, -8.09604153037071228027e-02) (44, 6.47340938448905944824e-02) (45, -1.62302076816558837891e-01) (46, 2.47182160615921020508e-01) (47, -4.41280245780944824219e-01) (48, 6.07508681714534759521e-02) (49, 9.62567850947380065918e-02) (50, 7.32609927654266357422e-02) (51, 3.98000925779342651367e-02) (52, -1.01926982402801513672e+00) (53, -2.90973156690597534180e-01) (54, -2.78580468147993087769e-03) (55, 8.07195305824279785156e-01) (56, 1.83482527732849121094e-01) (57, -2.49442905187606811523e-01) (58, -2.40529090166091918945e-01) (59, 5.34940995275974273682e-02) (60, 1.65835127234458923340e-01) (61, 1.48580145835876464844e+00) (31, 3.12891006469726562500e-01) (32, 3.20472180843353271484e-01) (33, -8.39286208152770996094e-01) (34, -5.38155019283294677734e-01) (35, 3.87505218386650085449e-02) (36, -3.37207555770874023438e-01) (37, -3.73244196176528930664e-01) (38, 5.04151463508605957031e-01) (39, -3.66946846246719360352e-01) (40, 1.13638944923877716064e-01) (41, 3.08090984821319580078e-01) (42, -2.39153467118740081787e-02) (43, 4.49440687894821166992e-01) (44, -1.13034224510192871094e+00) (45, -3.18984597921371459961e-01) (46, -2.04334761947393417358e-02) (47, -7.59548425674438476562e-01) (48, 3.82179915904998779297e-01) (49, -1.58851668238639831543e-01) (50, -9.12965118885040283203e-01) (51, 3.85441124439239501953e-01) (52, -7.83725380897521972656e-02) (53, 1.40924587845802307129e-01) (54, 5.48749446868896484375e-01) (55, 1.48187071084976196289e-01) (56, -5.51084518432617187500e-01) (57, 2.91291296482086181641e-01) (58, 8.10979247093200683594e-01) (59, 4.05856072902679443359e-02) (60, 1.61260664463043212891e-01) (61, -1.38862395286560058594e+00) (31, -2.18201190233230590820e-01) (32, 9.85857471823692321777e-02) (33, -1.50350496172904968262e-01) (34, 2.59024173021316528320e-01) (35, 2.82939732074737548828e-01) (36, 6.62431061267852783203e-01) (37, 5.75580894947052001953e-01) (38, -6.34121775627136230469e-01) (39, 4.08321559429168701172e-01) (40, -3.49643826484680175781e-01) (41, 4.09536868333816528320e-01) (42, -2.56800383329391479492e-01) (43, 4.76696729660034179688e-01) (44, 3.60805362462997436523e-01) (45, 2.66988217830657958984e-01) (46, 4.16608899831771850586e-01) (47, 4.64713573455810546875e-03) (48, -9.87011015415191650391e-01) (49, -5.02909421920776367188e-01) (50, 5.87345123291015625000e-01) (51, -5.26569068431854248047e-01) (52, -5.48969507217407226562e-01) (53, 1.14018857479095458984e-01) (54, -6.18915781378746032715e-02) (55, 4.45660054683685302734e-01) (56, 4.44462299346923828125e-01) (57, -5.03187701106071472168e-02) (58, 1.46885737776756286621e-01) (59, -7.54899442195892333984e-01) (60, -4.34674203395843505859e-01) (61, 1.24876356124877929688e+00) (31, 4.14641164243221282959e-02) (32, 1.24997653067111968994e-01) (33, 3.08676034212112426758e-01) (34, -1.36115029454231262207e-01) (35, 1.56239598989486694336e-01) (36, -2.42442592978477478027e-01) (37, 4.07276004552841186523e-01) (38, -2.10829943418502807617e-01) (39, 4.57141585648059844971e-02) (40, -5.39828181266784667969e-01) (41, 1.27224773168563842773e-01) (42, -2.13049918413162231445e-01) (43, -6.45725801587104797363e-03) (44, 8.12398910522460937500e-01) (45, 8.70457053184509277344e-01) (46, -1.99676200747489929199e-01) (47, 5.08838415145874023438e-01) (48, -4.90092903375625610352e-01) (49, -1.47920683026313781738e-01) (50, -9.80543047189712524414e-02) (51, -2.26867273449897766113e-01) (52, 2.25325733423233032227e-01) (53, -6.71266540884971618652e-02) (54, -4.60121572017669677734e-01) (55, -2.46030598878860473633e-01) (56, 1.52380950748920440674e-02) (57, -3.17362934350967407227e-01) (58, 5.63573539257049560547e-01) (59, 2.80875191092491149902e-02) (60, -6.28318846225738525391e-01) (61, 3.66240829229354858398e-01) (31, -2.54786666482686996460e-02) (32, 2.19165116548538208008e-01) (33, -2.49546840786933898926e-01) (34, 1.28122058231383562088e-03) (35, 1.25242546200752258301e-01) (36, -1.86251148581504821777e-01) (37, 6.61768168210983276367e-02) (38, -3.45370918512344360352e-02) (39, -4.59588319063186645508e-01) (40, -3.44615548849105834961e-01) (41, 1.18450820446014404297e-01) (42, -3.69022339582443237305e-01) (43, 1.61925226449966430664e-01) (44, 1.83746472001075744629e-01) (45, 5.27057886123657226562e-01) (46, -3.33879292011260986328e-01) (47, 7.58767127990722656250e-01) (48, -4.75680857896804809570e-01) (49, -1.53491258621215820312e-01) (50, -2.47560739517211914062e-01) (51, -1.32611384615302085876e-02) (52, 5.65556287765502929688e-01) (53, 2.52147316932678222656e-01) (54, -3.46429944038391113281e-01) (55, -3.40226173400878906250e-01) (56, -9.10148099064826965332e-02) (57, 1.33057326078414916992e-01) (58, 8.81883978843688964844e-01) (59, 3.15365195274353027344e-01) (60, -7.72484123706817626953e-01) (61, -2.47859299182891845703e-01) (31, 1.95439636707305908203e-01) (32, -1.42349869012832641602e-01) (33, 2.43443563580513000488e-01) (34, 5.04000544548034667969e-01) (35, 4.80548031628131866455e-02) (36, 4.96103577315807342529e-02) (37, 3.06923270225524902344e-01) (38, 4.08862158656120300293e-02) (39, -2.25085482001304626465e-01) (40, -6.70189112424850463867e-02) (41, -1.76692530512809753418e-01) (42, -1.45907238125801086426e-01) (43, -1.46802008152008056641e-01) (44, 2.91448861360549926758e-01) (45, 3.17384421825408935547e-01) (46, -3.64474892616271972656e-01) (47, 1.15219056606292724609e+00) (48, -2.05724276602268218994e-02) (49, 1.73151701688766479492e-01) (50, 1.13797374069690704346e-01) (51, 1.91491216421127319336e-01) (52, 6.87648415565490722656e-01) (53, 3.10205996036529541016e-01) (54, -4.47142392396926879883e-01) (55, -4.25641834735870361328e-01) (56, 1.22666060924530029297e-01) (57, 3.13903354108333587646e-02) (58, 6.18042126297950744629e-02) (59, 4.91120189428329467773e-01) (60, -4.46693569421768188477e-01) (61, -5.37024676799774169922e-01) (31, -2.11971282958984375000e-01) (32, -3.14345180988311767578e-01) (33, -7.62822210788726806641e-01) (34, 2.55157798528671264648e-01) (35, -3.68111431598663330078e-01) (36, 2.03764110803604125977e-01) (37, -2.08010420203208923340e-01) (38, -3.42286229133605957031e-01) (39, 6.68153539299964904785e-02) (40, 3.25058251619338989258e-01) (41, 6.81352242827415466309e-02) (42, 7.58673623204231262207e-02) (43, -5.03975637257099151611e-02) (44, 1.44353315234184265137e-01) (45, -1.38189464807510375977e-01) (46, 3.25825184583663940430e-01) (47, -7.15054392814636230469e-01) (48, -2.51496694982051849365e-02) (49, 1.32976204156875610352e-01) (50, 2.41922304034233093262e-01) (51, -1.35579898953437805176e-01) (52, -1.68908762931823730469e+00) (53, -2.29172289371490478516e-01) (54, 8.78220126032829284668e-02) (55, 1.40022087097167968750e+00) (56, 1.79187312722206115723e-01) (57, -2.05243721604347229004e-01) (58, -3.56678843498229980469e-01) (59, -2.72244721651077270508e-01) (60, 2.88015604019165039062e-01) (61, 6.83858275413513183594e-01) (31, -2.96527534723281860352e-01) (32, -3.60652178525924682617e-01) (33, 2.53769427537918090820e-01) (34, 3.24314713478088378906e-01) (35, -3.26066642999649047852e-01) (36, 5.86111903190612792969e-01) (37, 3.12409877777099609375e-01) (38, -7.02980875968933105469e-01) (39, 4.41774934530258178711e-01) (40, -7.92539939284324645996e-02) (41, -2.18302398920059204102e-01) (42, 5.56442700326442718506e-02) (43, -4.05922383069992065430e-01) (44, 1.28065073490142822266e+00) (45, 5.64216256141662597656e-01) (46, 1.07844762504100799561e-01) (47, 5.16347706317901611328e-01) (48, -2.50208646059036254883e-01) (49, -2.11028545163571834564e-03) (50, 1.01461482048034667969e+00) (51, -3.46570909023284912109e-01) (52, -9.73360240459442138672e-01) (53, -3.25240075588226318359e-01) (54, -4.01223033666610717773e-01) (55, 5.54716646671295166016e-01) (56, 5.00714480876922607422e-01) (57, -3.94760847091674804688e-01) (58, -5.35162687301635742188e-01) (59, -1.29457667469978332520e-01) (60, -1.19848504662513732910e-01) (61, -5.55551588535308837891e-01) (31, -3.03091993555426597595e-03) (32, 2.16008886694908142090e-01) (33, 9.52637970447540283203e-01) (34, -7.78073430061340332031e-01) (35, -2.90360927581787109375e-01) (36, -1.93879276514053344727e-01) (37, -3.14765982329845428467e-03) (38, -5.75664222240447998047e-01) (39, 5.69248437881469726562e-01) (40, -1.73687666654586791992e-01) (41, -1.57936260104179382324e-01) (42, 4.12647366523742675781e-01) (43, -6.74085244536399841309e-02) (44, 9.97146070003509521484e-02) (45, -3.17595660686492919922e-01) (46, 5.22328555583953857422e-01) (47, -3.05490255355834960938e-01) (48, -1.01021751761436462402e-01) (49, 4.03234332799911499023e-01) (50, 6.25723123550415039062e-01) (51, -4.22159582376480102539e-01) (52, -2.72843241691589355469e-01) (53, -3.96001636981964111328e-01) (54, 7.92169645428657531738e-02) (55, -3.81509035825729370117e-01) (56, -2.86502122879028320312e-01) (57, 2.52669483423233032227e-01) (58, -4.46945339441299438477e-01) (59, -6.22736394405364990234e-01) (60, 1.83697298169136047363e-01) (61, -1.57763850688934326172e+00) (31, 2.98222899436950683594e-01) (32, 5.72382584214210510254e-02) (33, 8.20435464382171630859e-01) (34, -7.02887892723083496094e-01) (35, -1.91347431391477584839e-02) (36, -2.59487360715866088867e-01) (37, 4.49763625860214233398e-01) (38, -2.45246395468711853027e-01) (39, 4.08280819654464721680e-01) (40, -3.06462109088897705078e-01) (41, 2.27100830525159835815e-02) (42, 3.58845204114913940430e-01) (43, -2.18850225210189819336e-02) (44, 2.04532057046890258789e-01) (45, -2.88292542099952697754e-02) (46, 2.59659111499786376953e-01) (47, -2.05459501594305038452e-02) (48, 2.03186139464378356934e-01) (49, 1.18113234639167785645e-01) (50, 4.15012896060943603516e-01) (51, -3.48498314619064331055e-01) (52, 3.51582765579223632812e-02) (53, -2.48769000172615051270e-01) (54, 4.19170036911964416504e-02) (55, -4.28366810083389282227e-01) (56, -1.18162266910076141357e-01) (57, 2.97518186271190643311e-02) (58, -3.29523175954818725586e-01) (59, -3.87737721204757690430e-01) (60, 1.11570008099079132080e-01) (61, -1.83193802833557128906e+00) (31, 5.95833301544189453125e-01) (32, 2.10156634449958801270e-01) (33, 2.67125546932220458984e-01) (34, 4.43075567483901977539e-01) (35, 1.30888938903808593750e-01) (36, -3.41579973697662353516e-01) (37, 6.54679834842681884766e-01) (38, -2.39986419677734375000e-01) (39, 4.45163726806640625000e-01) (40, 5.71822762489318847656e-01) (41, -3.41484993696212768555e-01) (42, -1.97872325778007507324e-01) (43, -4.88429069519042968750e-01) (44, 3.86713385581970214844e-01) (45, -5.03396689891815185547e-01) (46, -5.23420631885528564453e-01) (47, 5.40691852569580078125e-01) (48, 4.33282889425754547119e-02) (49, 7.73466676473617553711e-02) (50, 1.52010455727577209473e-01) (51, 6.75595819950103759766e-01) (52, -1.52962416410446166992e-01) (53, -1.39223039150238037109e-01) (54, 2.53202855587005615234e-01) (55, 2.40876488387584686279e-02) (56, 2.64019239693880081177e-02) (57, -4.14147257804870605469e-01) (58, 1.97042182087898254395e-01) (59, 6.20470866560935974121e-02) (60, 2.69040673971176147461e-01) (61, -7.78422772884368896484e-01) (31, 3.89141768217086791992e-01) (32, 3.93216371536254882812e-01) (33, 1.50661274790763854980e-01) (34, -2.34182789921760559082e-01) (35, 2.22509279847145080566e-01) (36, -5.09216606616973876953e-01) (37, 2.25002944469451904297e-01) (38, 1.39282539486885070801e-01) (39, -5.64689040184020996094e-02) (40, 1.80470332503318786621e-01) (41, -1.98796376585960388184e-01) (42, -2.44027599692344665527e-01) (43, -2.85155437886714935303e-02) (44, -6.08216285705566406250e-01) (45, -3.32348585128784179688e-01) (46, -3.57862353324890136719e-01) (47, -5.14703057706356048584e-02) (48, 1.68478563427925109863e-01) (49, 2.31224689632654190063e-02) (50, -4.41552788019180297852e-01) (51, 5.37439942359924316406e-01) (52, 2.10615426301956176758e-01) (53, 2.23223455250263214111e-02) (54, 4.53398197889328002930e-01) (55, -4.68155503273010253906e-01) (56, -3.08951258659362792969e-01) (57, -3.34866434335708618164e-01) (58, 4.67261999845504760742e-01) (59, -2.57811341434717178345e-02) (60, 5.60441203415393829346e-02) (61, -1.98293650150299072266e+00) (31, 4.48501884937286376953e-01) (32, 4.84988927841186523438e-01) (33, 3.04079532623291015625e-01) (34, 5.22905945777893066406e-01) (35, 3.44497740268707275391e-01) (36, 4.66783121228218078613e-02) (37, 8.93796980381011962891e-01) (38, -3.92534822225570678711e-01) (39, 4.07490819692611694336e-01) (40, 4.41004633903503417969e-01) (41, -2.26718299090862274170e-02) (42, -3.26097577810287475586e-01) (43, -4.94738183915615081787e-02) (44, 2.95671612024307250977e-01) (45, -3.79370719194412231445e-01) (46, -2.57164418697357177734e-01) (47, 6.34667456150054931641e-01) (48, -3.78282397985458374023e-01) (49, -2.03342750668525695801e-01) (50, 2.54426956176757812500e-01) (51, 6.10919594764709472656e-01) (52, -1.13791875541210174561e-01) (53, 1.86603084206581115723e-01) (54, 1.64594903588294982910e-01) (55, -3.85249048471450805664e-01) (56, 4.47406470775604248047e-02) (57, -1.50389835238456726074e-01) (58, 3.94897311925888061523e-01) (59, -2.80232191085815429688e-01) (60, -4.94916029274463653564e-02) (61, -1.14855492115020751953e+00) (31, 3.98131459951400756836e-01) (32, 1.28222376108169555664e-01) (33, 3.51241111755371093750e-01) (34, 1.21622113510966300964e-02) (35, -6.87409192323684692383e-02) (36, -2.04233795404434204102e-01) (37, 7.45326757431030273438e-01) (38, -1.05887070298194885254e-01) (39, 2.00974285602569580078e-01) (40, 4.89622727036476135254e-02) (41, -1.16868272423744201660e-01) (42, -1.46375760436058044434e-01) (43, -1.96945786476135253906e-01) (44, 5.40965080261230468750e-01) (45, 1.12375117838382720947e-01) (46, -2.73330688476562500000e-01) (47, 3.42963099479675292969e-01) (48, -2.01360538601875305176e-01) (49, -8.18883925676345825195e-02) (50, 1.33055806159973144531e-01) (51, 5.45443534851074218750e-01) (52, 3.60972970724105834961e-01) (53, -1.82663798332214355469e-01) (54, -2.66689926385879516602e-01) (55, -4.90280508995056152344e-01) (56, -2.55931645631790161133e-01) (57, -1.81231778115034103394e-02) (58, 1.24519661068916320801e-01) (59, -2.17269822955131530762e-01) (60, -2.30876669287681579590e-01) (61, -1.48836910724639892578e+00) (31, 3.45752298831939697266e-01) (32, 1.66874378919601440430e-01) (33, 3.08977127075195312500e-01) (34, -2.46545504778623580933e-02) (35, 2.59867198765277862549e-02) (36, -3.21686893701553344727e-01) (37, 4.12642419338226318359e-01) (38, -9.93167757987976074219e-02) (39, -5.92743195593357086182e-02) (40, 2.50287532806396484375e-01) (41, 8.74189212918281555176e-02) (42, -2.03513160347938537598e-01) (43, -1.89467221498489379883e-02) (44, 6.97872042655944824219e-02) (45, 1.87648773193359375000e-01) (46, -2.37675547599792480469e-01) (47, 5.62188684940338134766e-01) (48, -5.90786710381507873535e-02) (49, -2.03728638589382171631e-02) (50, -6.33695796132087707520e-02) (51, 4.71124768257141113281e-01) (52, 4.20291304588317871094e-01) (53, 4.29554376751184463501e-03) (54, -3.70188336819410324097e-03) (55, -4.71441298723220825195e-01) (56, -2.60555744171142578125e-01) (57, -7.63141363859176635742e-02) (58, 1.98715433478355407715e-01) (59, -7.34094232320785522461e-02) (60, -3.24360907077789306641e-01) (61, -1.49445915222167968750e+00) (31, 6.35850191116333007812e-01) (32, 2.39840656518936157227e-01) (33, 3.50122421979904174805e-01) (34, 1.19158171117305755615e-01) (35, 1.05661869049072265625e-01) (36, -2.75035917758941650391e-01) (37, 4.47771817445755004883e-01) (38, -6.04543313384056091309e-02) (39, 9.85955446958541870117e-02) (40, 2.06722050905227661133e-01) (41, -1.45904600620269775391e-01) (42, -1.28682583570480346680e-01) (43, -1.09672531485557556152e-01) (44, 1.80539146065711975098e-01) (45, 8.74743759632110595703e-02) (46, -2.57035851478576660156e-01) (47, 7.44875609874725341797e-01) (48, -4.71443422138690948486e-02) (49, -4.42029163241386413574e-02) (50, 4.26638983190059661865e-02) (51, 4.97860014438629150391e-01) (52, 2.59702235460281372070e-01) (53, 6.59301429986953735352e-02) (54, -1.24015919864177703857e-01) (55, -4.79983925819396972656e-01) (56, -2.57982313632965087891e-01) (57, -8.46044048666954040527e-02) (58, 1.09002754092216491699e-01) (59, 4.17203158140182495117e-02) (60, -1.65118157863616943359e-01) (61, -1.50476217269897460938e+00) (31, 5.95255553722381591797e-01) (32, 2.04222142696380615234e-01) (33, 2.06087648868560791016e-01) (34, 3.08162093162536621094e-01) (35, 8.38767290115356445312e-02) (36, -2.78275132179260253906e-01) (37, 6.79835259914398193359e-01) (38, -4.01830136775970458984e-01) (39, 3.92927974462509155273e-01) (40, 6.08387708663940429688e-01) (41, -3.82349044084548950195e-01) (42, -2.79683709144592285156e-01) (43, -4.90184903144836425781e-01) (44, 2.83497840166091918945e-01) (45, -3.44112277030944824219e-01) (46, -4.91982519626617431641e-01) (47, 3.92667919397354125977e-01) (48, -2.39009633660316467285e-02) (49, 4.97502181679010391235e-03) (50, 2.46269151568412780762e-01) (51, 6.81422173976898193359e-01) (52, -4.79116618633270263672e-01) (53, -1.74900770187377929688e-01) (54, 2.87168055772781372070e-01) (55, 1.69344007968902587891e-01) (56, 3.33060650154948234558e-03) (57, -4.81316924095153808594e-01) (58, 1.60124406218528747559e-01) (59, 1.07250899076461791992e-01) (60, 2.87461698055267333984e-01) (61, -1.24141764640808105469e+00) (31, 4.90420937538146972656e-01) (32, 2.00746744871139526367e-01) (33, 3.04077357053756713867e-01) (34, 3.78627598285675048828e-01) (35, 5.40410727262496948242e-02) (36, -9.06857848167419433594e-02) (37, 7.36166238784790039062e-01) (38, -2.92856156826019287109e-01) (39, 4.21793133020401000977e-01) (40, 4.86727893352508544922e-01) (41, -1.95233359932899475098e-01) (42, -1.63303077220916748047e-01) (43, -4.19367641210556030273e-01) (44, 5.74451684951782226562e-01) (45, -3.13290864229202270508e-01) (46, -4.11195546388626098633e-01) (47, 6.58538460731506347656e-01) (48, -5.41268922388553619385e-02) (49, 3.31305488944053649902e-02) (50, 4.84970808029174804688e-01) (51, 5.72136044502258300781e-01) (52, -1.39471769332885742188e-01) (53, -9.79402139782905578613e-02) (54, -3.74972410500049591064e-02) (55, -6.86388015747070312500e-02) (56, 1.47386416792869567871e-01) (57, -2.13253542780876159668e-01) (58, 3.63653041422367095947e-02) (59, 4.65905927121639251709e-02) (60, 1.65699601173400878906e-01) (61, -1.82564043998718261719e+00) (31, 2.95504182577133178711e-01) (32, 9.00686085224151611328e-02) (33, 3.25330764055252075195e-01) (34, -1.21586509048938751221e-01) (35, -1.48381456732749938965e-01) (36, -2.49861493706703186035e-01) (37, 4.67779822647571563721e-02) (38, -1.59282609820365905762e-01) (39, 5.32770335674285888672e-01) (40, 2.06548292189836502075e-02) (41, -1.18735499680042266846e-01) (42, 7.73394256830215454102e-02) (43, -1.27441123127937316895e-01) (44, 5.61365149915218353271e-02) (45, -2.77066379785537719727e-01) (46, 9.73617099225521087646e-03) (47, -3.08914780616760253906e-01) (48, 1.38831853866577148438e-01) (49, 9.64439287781715393066e-02) (50, 1.47480711340904235840e-01) (51, 3.45335863530635833740e-02) (52, 3.28729897737503051758e-01) (53, -1.47172734141349792480e-01) (54, 1.67591840028762817383e-01) (55, -3.27445685863494873047e-01) (56, -1.60483226180076599121e-01) (57, -1.14878796041011810303e-01) (58, -3.90383526682853698730e-02) (59, 3.30416895449161529541e-02) (60, 2.18451902270317077637e-01) (61, -2.17054677009582519531e+00) (31, 3.57783228158950805664e-01) (32, 1.64945617318153381348e-01) (33, 1.96856200695037841797e-01) (34, -2.85306394100189208984e-01) (35, 4.17776331305503845215e-02) (36, -1.46374583244323730469e-01) (37, 1.87569826841354370117e-01) (38, -1.30533799529075622559e-01) (39, 2.38386660814285278320e-01) (40, 6.52051270008087158203e-02) (41, -1.14211410284042358398e-01) (42, 1.12691856920719146729e-01) (43, -1.50052338838577270508e-01) (44, 1.85760632157325744629e-01) (45, -1.91537722945213317871e-01) (46, -1.88306123018264770508e-01) (47, -2.03483343124389648438e-01) (48, 1.12132772803306579590e-01) (49, 4.67713549733161926270e-03) (50, 1.32661327719688415527e-01) (51, 2.68587861210107803345e-02) (52, 3.75193715095520019531e-01) (53, -5.73266558349132537842e-02) (54, 1.92635998129844665527e-01) (55, -3.56261789798736572266e-01) (56, -1.36382609605789184570e-01) (57, 1.08733914792537689209e-01) (58, 1.39913074672222137451e-02) (59, -1.48471057415008544922e-01) (60, 7.54604339599609375000e-02) (61, -2.17651200294494628906e+00) (31, -5.88208675384521484375e-01) (32, -2.33720093965530395508e-01) (33, -3.63230496644973754883e-01) (34, -4.94478374719619750977e-01) (35, -1.44742384552955627441e-01) (36, 4.56858575344085693359e-01) (37, -7.46099531650543212891e-01) (38, 1.26562025398015975952e-02) (39, -3.31320703029632568359e-01) (40, -5.65648138523101806641e-01) (41, 4.03713554143905639648e-01) (42, 2.06732347607612609863e-01) (43, 3.77900093793869018555e-01) (44, -2.83281147480010986328e-01) (45, 3.60225260257720947266e-01) (46, 6.58344149589538574219e-01) (47, -7.03150749206542968750e-01) (48, 1.90778106451034545898e-01) (49, -2.85550281405448913574e-02) (50, 9.15817171335220336914e-02) (51, -8.44459474086761474609e-01) (52, -3.73827248811721801758e-01) (53, -3.84771227836608886719e-02) (54, 1.57533437013626098633e-02) (55, 3.56351166963577270508e-01) (56, 1.06115058064460754395e-01) (57, 3.32208693027496337891e-01) (58, -3.21162611246109008789e-01) (59, -3.77440750598907470703e-01) (60, 3.69059816002845764160e-02) (61, -1.38691633939743041992e-01) (31, -7.07509294152259826660e-02) (32, 8.30123499035835266113e-02) (33, -5.85513710975646972656e-01) (34, -7.24618256092071533203e-01) (35, 9.70905274152755737305e-03) (36, -2.53449887037277221680e-01) (37, -4.82168644666671752930e-01) (38, 6.94014847278594970703e-01) (39, -5.50845146179199218750e-01) (40, -2.65025407075881958008e-01) (41, 5.19757330417633056641e-01) (42, 1.04419924318790435791e-01) (43, 6.05107188224792480469e-01) (44, -8.47658932209014892578e-01) (45, -9.97412800788879394531e-02) (46, 2.70356327295303344727e-01) (47, -5.89107275009155273438e-01) (48, 2.94455617666244506836e-01) (49, 6.61852955818176269531e-03) (50, -7.62645781040191650391e-01) (51, -2.14149072766304016113e-01) (52, 2.31304258108139038086e-01) (53, 9.49416756629943847656e-02) (54, 1.34875550866127014160e-01) (55, -1.20352357625961303711e-01) (56, -5.69498240947723388672e-01) (57, 7.50540077686309814453e-01) (58, 3.79274725914001464844e-01) (59, -1.40681236982345581055e-01) (60, 6.72188028693199157715e-02) (61, -1.96147274971008300781e+00) (31, -2.51714676618576049805e-01) (32, 2.48988028615713119507e-02) (33, -2.47219651937484741211e-02) (34, -1.21332913637161254883e-01) (35, 1.20037294924259185791e-01) (36, 6.89746260643005371094e-01) (37, -7.84862339496612548828e-02) (38, -2.14444249868392944336e-01) (39, -1.92230027168989181519e-02) (40, -7.97813773155212402344e-01) (41, 4.41043645143508911133e-01) (42, -1.95743322372436523438e-01) (43, 4.81132477521896362305e-01) (44, -1.80652458220720291138e-02) (45, 5.69190382957458496094e-01) (46, 3.70933771133422851562e-01) (47, -1.07410669326782226562e-01) (48, -6.05247795581817626953e-01) (49, -4.26267534494400024414e-01) (50, 2.79740631580352783203e-01) (51, -6.99542164802551269531e-01) (52, 2.97853589057922363281e-01) (53, 2.26579025387763977051e-01) (54, -3.18472087383270263672e-01) (55, -1.41105532646179199219e-01) (56, 3.15182983875274658203e-01) (57, 3.00320237874984741211e-01) (58, 2.72774100303649902344e-01) (59, -5.03899276256561279297e-01) (60, -5.99922418594360351562e-01) (61, 1.35729452595114707947e-02) (31, -1.53217449784278869629e-01) (32, 8.58980044722557067871e-02) (33, 2.70464152097702026367e-01) (34, -4.96453434228897094727e-01) (35, 1.29069358110427856445e-01) (36, 1.22176157310605049133e-02) (37, 2.90596578270196914673e-02) (38, -1.73858433961868286133e-01) (39, 4.35192808508872985840e-02) (40, -8.38919878005981445312e-01) (41, 1.31391569972038269043e-01) (42, -1.65810316801071166992e-01) (43, 2.00849637389183044434e-01) (44, 5.88623523712158203125e-01) (45, 8.43882262706756591797e-01) (46, -7.06703960895538330078e-02) (47, 6.26362919807434082031e-01) (48, -2.08021312952041625977e-01) (49, -6.44251108169555664062e-02) (50, -3.50828729569911956787e-02) (51, -6.41067624092102050781e-01) (52, 7.85320281982421875000e-01) (53, -1.60833150148391723633e-02) (54, -3.00172805786132812500e-01) (55, -6.23703122138977050781e-01) (56, 8.32054987549781799316e-02) (57, -2.57231201976537704468e-02) (58, 3.90788286924362182617e-01) (59, 1.38017877936363220215e-01) (60, -6.45930051803588867188e-01) (61, -3.60463201999664306641e-01) (31, -5.08781746029853820801e-02) (32, 1.62934735417366027832e-01) (33, -2.74861425161361694336e-01) (34, -2.52249479293823242188e-01) (35, 1.30258142948150634766e-01) (36, -8.13717916607856750488e-02) (37, -2.80450910329818725586e-01) (38, 5.57384034618735313416e-03) (39, -1.88950449228286743164e-01) (40, -7.36209273338317871094e-01) (41, 1.97285175323486328125e-01) (42, -3.15864294767379760742e-01) (43, 9.35966819524765014648e-02) (44, 1.90446317195892333984e-01) (45, 4.09109115600585937500e-01) (46, -2.20505297183990478516e-01) (47, 5.36359667778015136719e-01) (48, -1.34564876556396484375e-01) (49, -1.28289982676506042480e-01) (50, -8.52897241711616516113e-02) (51, -3.64509403705596923828e-01) (52, 9.28294599056243896484e-01) (53, 2.58672386407852172852e-01) (54, -3.11285465955734252930e-01) (55, -4.88642245531082153320e-01) (56, 5.55809140205383300781e-02) (57, 2.73263305425643920898e-01) (58, 6.51736855506896972656e-01) (59, 2.64559358358383178711e-01) (60, -6.69254601001739501953e-01) (61, -7.42981791496276855469e-01) (31, -1.80126443505287170410e-01) (32, -1.94164395332336425781e-01) (33, -6.32590726017951965332e-02) (34, 2.24989503622055053711e-01) (35, 1.10911250114440917969e-01) (36, 1.81986927986145019531e-01) (37, -2.85169258713722229004e-02) (38, 7.38957896828651428223e-03) (39, -1.82904332876205444336e-01) (40, -4.74442452192306518555e-01) (41, -1.00141860544681549072e-01) (42, -9.32870805263519287109e-02) (43, -1.03059314191341400146e-01) (44, 2.97805070877075195312e-01) (45, 4.13003176450729370117e-01) (46, -1.53033509850502014160e-01) (47, 5.50809860229492187500e-01) (48, 1.03291057050228118896e-01) (49, 4.79896441102027893066e-02) (50, 1.44791752099990844727e-01) (51, -3.64125907421112060547e-01) (52, 7.42045700550079345703e-01) (53, 2.47574880719184875488e-01) (54, -2.83819526433944702148e-01) (55, -2.34399586915969848633e-01) (56, 2.43775486946105957031e-01) (57, 8.05778205394744873047e-02) (58, 1.01562261581420898438e-01) (59, 3.88056606054306030273e-01) (60, -3.71725022792816162109e-01) (61, -1.32246279716491699219e+00) (31, -7.67311215400695800781e-01) (32, -2.87830173969268798828e-01) (33, -4.17569071054458618164e-01) (34, -5.67290127277374267578e-01) (35, -1.90261229872703552246e-01) (36, 5.16662836074829101562e-01) (37, -8.04433643817901611328e-01) (38, 2.42639239877462387085e-02) (39, -3.00673097372055053711e-01) (40, -5.03390371799468994141e-01) (41, 4.16521042585372924805e-01) (42, 2.63041675090789794922e-01) (43, 5.66788315773010253906e-01) (44, -3.69961380958557128906e-01) (45, 3.97628903388977050781e-01) (46, 7.93428063392639160156e-01) (47, -7.55507469177246093750e-01) (48, 1.12442962825298309326e-01) (49, -1.08443759381771087646e-01) (50, 5.69206438958644866943e-02) (51, -1.06433761119842529297e+00) (52, -3.90381664037704467773e-01) (53, -7.98458531498908996582e-02) (54, -7.40157766267657279968e-03) (55, 5.51597058773040771484e-01) (56, 5.48131987452507019043e-02) (57, 2.83071249723434448242e-01) (58, -2.81829237937927246094e-01) (59, -3.48321616649627685547e-01) (60, 4.58332430571317672729e-03) (61, -3.57805162668228149414e-01) (31, -4.73457247018814086914e-01) (32, -3.05053740739822387695e-01) (33, 4.01852250099182128906e-01) (34, -1.22598387300968170166e-01) (35, -2.55715191364288330078e-01) (36, 6.42863035202026367188e-01) (37, -9.46576148271560668945e-02) (38, -3.60092550516128540039e-01) (39, 3.66934277117252349854e-02) (40, -4.49478834867477416992e-01) (41, 8.62094294279813766479e-03) (42, 1.37470155954360961914e-01) (43, -1.61367908120155334473e-01) (44, 7.71464288234710693359e-01) (45, 5.21278023719787597656e-01) (46, 2.29347154498100280762e-01) (47, 3.46944391727447509766e-01) (48, 3.30926328897476196289e-02) (49, 6.47847801446914672852e-02) (50, 7.33463764190673828125e-01) (51, -8.07984471321105957031e-01) (52, -4.71477694809436798096e-02) (53, -3.15491586923599243164e-01) (54, -3.50996315479278564453e-01) (55, 5.74104972183704376221e-02) (56, 5.75515627861022949219e-01) (57, -1.29250124096870422363e-01) (58, -5.89373171329498291016e-01) (59, 8.94666835665702819824e-03) (60, -2.80017316341400146484e-01) (61, -1.34792160987854003906e+00) (31, -5.83494007587432861328e-02) (32, 2.52156585454940795898e-01) (33, 1.03349518775939941406e+00) (34, -6.74499809741973876953e-01) (35, -2.87573069334030151367e-01) (36, -1.68869540095329284668e-01) (37, 5.29821217060089111328e-02) (38, -3.35033446550369262695e-01) (39, 4.37218576669692993164e-01) (40, -3.57256531715393066406e-01) (41, 2.76249609887599945068e-02) (42, 1.20225712656974792480e-01) (43, -4.33677472174167633057e-02) (44, 1.87269866466522216797e-01) (45, -1.84266716241836547852e-01) (46, 4.76075321435928344727e-01) (47, 6.11739493906497955322e-02) (48, -4.86685074865818023682e-02) (49, 1.90223291516304016113e-01) (50, 6.63945138454437255859e-01) (51, -4.75936233997344970703e-01) (52, 7.35571011900901794434e-02) (53, -1.22529119253158569336e-01) (54, 4.71226423978805541992e-02) (55, -5.25139808654785156250e-01) (56, -1.77089869976043701172e-01) (57, 3.47555994987487792969e-01) (58, -4.20934051275253295898e-01) (59, -6.12853944301605224609e-01) (60, 3.38640101253986358643e-02) (61, -1.54860818386077880859e+00) (31, 1.40151679515838623047e-01) (32, 2.35062465071678161621e-01) (33, 7.84131169319152832031e-01) (34, -6.46559238433837890625e-01) (35, 7.33005851507186889648e-02) (36, -1.98065087199211120605e-01) (37, 4.06576246023178100586e-01) (38, -2.31632381677627563477e-01) (39, 3.60564380884170532227e-01) (40, -5.63034057617187500000e-01) (41, 3.44528928399085998535e-02) (42, 7.46970772743225097656e-02) (43, 3.90117429196834564209e-02) (44, 1.26535058021545410156e-01) (45, 2.73645788431167602539e-01) (46, 3.47819179296493530273e-01) (47, 2.50256687402725219727e-01) (48, -9.47271473705768585205e-03) (49, -8.46014097332954406738e-02) (50, 3.77703279256820678711e-01) (51, -3.48124265670776367188e-01) (52, 1.73136472702026367188e-01) (53, -1.67921602725982666016e-01) (54, 7.10530728101730346680e-02) (55, -4.85406756401062011719e-01) (56, -2.12283134460449218750e-01) (57, 2.71200165152549743652e-02) (58, -1.93239361047744750977e-01) (59, -3.46964806318283081055e-01) (60, -1.12293995916843414307e-01) (61, -1.96373343467712402344e+00) 
