FANN_FLO_2.1
num_layers=3
learning_rate=0.699412
connection_rate=1.000000
network_type=0
learning_momentum=0.000000
training_algorithm=0
train_error_function=1
train_stop_function=0
cascade_output_change_fraction=0.010000
quickprop_decay=-0.000100
quickprop_mu=1.750000
rprop_increase_factor=1.200000
rprop_decrease_factor=0.500000
rprop_delta_min=0.000000
rprop_delta_max=50.000000
rprop_delta_zero=0.100000
cascade_output_stagnation_epochs=12
cascade_candidate_change_fraction=0.010000
cascade_candidate_stagnation_epochs=12
cascade_max_out_epochs=150
cascade_min_out_epochs=50
cascade_max_cand_epochs=150
cascade_min_cand_epochs=50
cascade_num_candidate_groups=2
bit_fail_limit=3.49999994039535522461e-01
cascade_candidate_limit=1.00000000000000000000e+03
cascade_weight_multiplier=4.00000005960464477539e-01
cascade_activation_functions_count=10
cascade_activation_functions=3 5 7 8 10 11 14 15 16 17 
cascade_activation_steepnesses_count=32
cascade_activation_steepnesses=0.00000000000000000000e+00 0.00000000000000000000e+00 0.00000000000000000000e+00 8.00000000000000000000e+00 6.08300000000000000000e+03 6.08400000000000000000e+03 6.08500000000000000000e+03 6.08600000000000000000e+03 6.08700000000000000000e+03 6.09000000000000000000e+03 6.09100000000000000000e+03 6.09200000000000000000e+03 0.00000000000000000000e+00 0.00000000000000000000e+00 1.60000000000000000000e+01 1.07629100000000000000e+06 1.07629200000000000000e+06 1.07629300000000000000e+06 1.07629400000000000000e+06 1.07629500000000000000e+06 1.07629800000000000000e+06 1.07629900000000000000e+06 1.07630000000000000000e+06 1.07667500000000000000e+06 1.07667600000000000000e+06 1.07667700000000000000e+06 1.07667800000000000000e+06 1.07667900000000000000e+06 1.07668200000000000000e+06 1.07668300000000000000e+06 1.07668400000000000000e+06 0.00000000000000000000e+00 
layer_sizes=25 25 25 
scale_included=0
neurons (num_inputs, activation_function, activation_steepness)=(0, 0, 0.00000000000000000000e+00) (0, 0, 0.00000000000000000000e+00) (0, 0, 0.00000000000000000000e+00) (0, 0, 0.00000000000000000000e+00) (0, 0, 0.00000000000000000000e+00) (0, 0, 0.00000000000000000000e+00) (0, 0, 0.00000000000000000000e+00) (0, 0, 0.00000000000000000000e+00) (0, 0, 0.00000000000000000000e+00) (0, 0, 0.00000000000000000000e+00) (0, 0, 0.00000000000000000000e+00) (0, 0, 0.00000000000000000000e+00) (0, 0, 0.00000000000000000000e+00) (0, 0, 0.00000000000000000000e+00) (0, 0, 0.00000000000000000000e+00) (0, 0, 0.00000000000000000000e+00) (0, 0, 0.00000000000000000000e+00) (0, 0, 0.00000000000000000000e+00) (0, 0, 0.00000000000000000000e+00) (0, 0, 0.00000000000000000000e+00) (0, 0, 0.00000000000000000000e+00) (0, 0, 0.00000000000000000000e+00) (0, 0, 0.00000000000000000000e+00) (0, 0, 0.00000000000000000000e+00) (0, 0, 0.00000000000000000000e+00) (25, 5, 5.00000000000000000000e-01) (25, 5, 5.00000000000000000000e-01) (25, 5, 5.00000000000000000000e-01) (25, 5, 5.00000000000000000000e-01) (25, 5, 5.00000000000000000000e-01) (25, 5, 5.00000000000000000000e-01) (25, 5, 5.00000000000000000000e-01) (25, 5, 5.00000000000000000000e-01) (25, 5, 5.00000000000000000000e-01) (25, 5, 5.00000000000000000000e-01) (25, 5, 5.00000000000000000000e-01) (25, 5, 5.00000000000000000000e-01) (25, 5, 5.00000000000000000000e-01) (25, 5, 5.00000000000000000000e-01) (25, 5, 5.00000000000000000000e-01) (25, 5, 5.00000000000000000000e-01) (25, 5, 5.00000000000000000000e-01) (25, 5, 5.00000000000000000000e-01) (25, 5, 5.00000000000000000000e-01) (25, 5, 5.00000000000000000000e-01) (25, 5, 5.00000000000000000000e-01) (25, 5, 5.00000000000000000000e-01) (25, 5, 5.00000000000000000000e-01) (25, 5, 5.00000000000000000000e-01) (0, 5, 0.00000000000000000000e+00) (25, 3, 5.00000000000000000000e-01) (25, 3, 5.00000000000000000000e-01) (25, 3, 5.00000000000000000000e-01) (25, 3, 5.00000000000000000000e-01) (25, 3, 5.00000000000000000000e-01) (25, 3, 5.00000000000000000000e-01) (25, 3, 5.00000000000000000000e-01) (25, 3, 5.00000000000000000000e-01) (25, 3, 5.00000000000000000000e-01) (25, 3, 5.00000000000000000000e-01) (25, 3, 5.00000000000000000000e-01) (25, 3, 5.00000000000000000000e-01) (25, 3, 5.00000000000000000000e-01) (25, 3, 5.00000000000000000000e-01) (25, 3, 5.00000000000000000000e-01) (25, 3, 5.00000000000000000000e-01) (25, 3, 5.00000000000000000000e-01) (25, 3, 5.00000000000000000000e-01) (25, 3, 5.00000000000000000000e-01) (25, 3, 5.00000000000000000000e-01) (25, 3, 5.00000000000000000000e-01) (25, 3, 5.00000000000000000000e-01) (25, 3, 5.00000000000000000000e-01) (25, 3, 5.00000000000000000000e-01) (0, 3, 0.00000000000000000000e+00) 
connections (connected_to_neuron, weight)=(0, 5.02594888210296630859e-01) (1, 3.04539036005735397339e-02) (2, -4.78309482336044311523e-01) (3, -4.96656984090805053711e-01) (4, -1.55000641942024230957e-01) (5, -7.07379579544067382812e-01) (6, -2.17396438121795654297e-01) (7, 6.21550858020782470703e-01) (8, 4.29109901189804077148e-01) (9, 9.04644653201103210449e-03) (10, 1.16045765578746795654e-01) (11, 5.83903640508651733398e-02) (12, 1.77470341324806213379e-01) (13, -2.50898182392120361328e-01) (14, -1.54383927583694458008e-01) (15, 2.00096428394317626953e-01) (16, 1.01208828389644622803e-01) (17, 5.11306166648864746094e-01) (18, -2.96390563249588012695e-01) (19, -2.62744009494781494141e-01) (20, -4.14875894784927368164e-01) (21, -2.36924484372138977051e-01) (22, 1.22756130993366241455e-01) (23, 1.81186378002166748047e-01) (24, 1.97348877787590026855e-01) (0, -8.93832743167877197266e-01) (1, -4.67239320278167724609e-01) (2, 2.70296812057495117188e-01) (3, -1.50384873151779174805e-01) (4, -2.18138799071311950684e-01) (5, 8.99047315120697021484e-01) (6, 5.16817510128021240234e-01) (7, -4.43558245897293090820e-01) (8, -4.74677324295043945312e-01) (9, -4.21379916369915008545e-02) (10, 1.65458932518959045410e-01) (11, -1.28570705652236938477e-01) (12, -9.31950956583023071289e-02) (13, 3.15055787563323974609e-01) (14, 2.74058341979980468750e-01) (15, -2.87010431289672851562e-01) (16, -5.68895280361175537109e-01) (17, -6.24312877655029296875e-01) (18, 3.48924547433853149414e-02) (19, -1.53432160615921020508e-01) (20, -7.29069784283638000488e-02) (21, 3.95896673202514648438e-01) (22, 3.88650745153427124023e-02) (23, -1.89959853887557983398e-01) (24, 6.64841160178184509277e-02) (0, -1.15604065358638763428e-01) (1, 2.80661791563034057617e-01) (2, 9.60941314697265625000e-01) (3, 7.35599935054779052734e-01) (4, 2.57380396127700805664e-01) (5, 4.58552032709121704102e-01) (6, 4.61832910776138305664e-01) (7, -9.12797987461090087891e-01) (8, -3.31973046064376831055e-01) (9, -4.96977195143699645996e-02) (10, 1.76190406084060668945e-01) (11, 1.16112239658832550049e-01) (12, -2.01306983828544616699e-01) (13, 1.32924139499664306641e-01) (14, -2.43101101368665695190e-02) (15, -3.73587369918823242188e-01) (16, -1.92567650228738784790e-02) (17, 1.26026496291160583496e-01) (18, 5.02504706382751464844e-01) (19, 3.28887224197387695312e-01) (20, 2.50140577554702758789e-01) (21, 1.57857611775398254395e-01) (22, 1.45802855491638183594e-01) (23, -5.40790319442749023438e-01) (24, -6.69529259204864501953e-01) (0, -2.31772765517234802246e-01) (1, 6.22920095920562744141e-02) (2, 1.43255159258842468262e-01) (3, 4.37800467014312744141e-01) (4, 1.84900477528572082520e-01) (5, 5.16650199890136718750e-01) (6, 1.40601307153701782227e-01) (7, -2.88427799940109252930e-01) (8, -2.33675375580787658691e-01) (9, 2.14416444301605224609e-01) (10, -2.32146114110946655273e-01) (11, -9.94419530034065246582e-02) (12, -1.51566848158836364746e-01) (13, 2.95130908489227294922e-02) (14, 3.84618416428565979004e-02) (15, -4.17340956628322601318e-02) (16, 1.55460312962532043457e-02) (17, -2.18615457415580749512e-01) (18, 4.34973798692226409912e-02) (19, 1.73311874270439147949e-01) (20, 3.99786233901977539062e-01) (21, 2.17857345938682556152e-01) (22, -1.97416767477989196777e-01) (23, -1.46956384181976318359e-01) (24, 1.01370811462402343750e-01) (0, -2.13453188538551330566e-01) (1, -6.54966533184051513672e-02) (2, 1.05077922344207763672e-02) (3, -3.37744265794754028320e-01) (4, -6.01609051227569580078e-01) (5, -4.70372974872589111328e-01) (6, 7.35775604844093322754e-02) (7, -2.76895880699157714844e-01) (8, 5.03816723823547363281e-01) (9, -5.48978820443153381348e-02) (10, 6.20508432388305664062e-01) (11, 5.79237878322601318359e-01) (12, 4.61935758590698242188e-01) (13, 2.53760404884815216064e-02) (14, 4.30707223713397979736e-02) (15, -1.03410109877586364746e-01) (16, -5.13786256313323974609e-01) (17, 5.75337111949920654297e-01) (18, -2.35912486910820007324e-01) (19, -2.58610129356384277344e-01) (20, -1.02396583557128906250e+00) (21, -8.93006250262260437012e-02) (22, 4.02522176504135131836e-01) (23, -3.12295168638229370117e-01) (24, -9.39772948622703552246e-02) (0, 8.17719340324401855469e-01) (1, 5.25380134582519531250e-01) (2, -1.15890823304653167725e-01) (3, -2.99351751804351806641e-01) (4, -2.32014119625091552734e-01) (5, -1.17349207401275634766e+00) (6, -1.67720213532447814941e-01) (7, -4.65826615691184997559e-02) (8, 5.10289311408996582031e-01) (9, -8.29636380076408386230e-02) (10, 8.73695611953735351562e-02) (11, 1.45724505186080932617e-01) (12, 2.80456766486167907715e-02) (13, -3.41968357563018798828e-01) (14, -3.62619429826736450195e-01) (15, 2.29924961924552917480e-01) (16, 2.09658667445182800293e-01) (17, 7.09437131881713867188e-01) (18, 4.33483049273490905762e-02) (19, -2.75133937597274780273e-01) (20, -4.60607856512069702148e-01) (21, -6.70923769474029541016e-01) (22, 2.68325150012969970703e-01) (23, -2.09675252437591552734e-01) (24, 1.39042645692825317383e-01) (0, -1.27885431051254272461e-01) (1, 1.98982283473014831543e-01) (2, 8.79463672637939453125e-01) (3, 3.80408406257629394531e-01) (4, 1.54558289796113967896e-02) (5, 2.95430198311805725098e-02) (6, 4.72348541021347045898e-01) (7, -7.43943631649017333984e-01) (8, -1.80428653955459594727e-01) (9, 6.67349174618721008301e-02) (10, 1.76745787262916564941e-01) (11, 2.17033088207244873047e-01) (12, -3.88237237930297851562e-02) (13, 1.07329681515693664551e-01) (14, -5.12900128960609436035e-02) (15, -3.75404715538024902344e-01) (16, 8.93869921565055847168e-02) (17, -1.93862318992614746094e-02) (18, 4.76619482040405273438e-01) (19, -8.88288319110870361328e-02) (20, 7.37086981534957885742e-02) (21, -1.54482901096343994141e-01) (22, 2.73663133382797241211e-01) (23, -4.57389146089553833008e-01) (24, -5.80079495906829833984e-01) (0, 1.44394204020500183105e-01) (1, 4.95208129286766052246e-02) (2, -6.97365939617156982422e-01) (3, 8.30191820859909057617e-02) (4, 1.02694794535636901855e-01) (5, -1.86147972941398620605e-01) (6, -5.93882322311401367188e-01) (7, 5.02247333526611328125e-01) (8, 3.93734782934188842773e-01) (9, -2.18920230865478515625e-01) (10, 2.97479510307312011719e-01) (11, 4.18325006961822509766e-01) (12, 3.99138301610946655273e-01) (13, -1.55617237091064453125e-01) (14, -1.85575112700462341309e-01) (15, 1.05586767196655273438e-01) (16, -1.89423218369483947754e-01) (17, 5.41970074176788330078e-01) (18, -5.38837254047393798828e-01) (19, 2.87224305793642997742e-04) (20, -4.34340804815292358398e-01) (21, 2.75477498769760131836e-01) (22, -1.35870337486267089844e-01) (23, 3.41293543577194213867e-01) (24, 2.43264511227607727051e-02) (0, -6.24068796634674072266e-01) (1, -3.94613519310951232910e-02) (2, -1.66135802865028381348e-01) (3, 5.95530644059181213379e-02) (4, -3.25714975595474243164e-01) (5, 3.02230536937713623047e-01) (6, 5.13696074485778808594e-02) (7, -1.72734439373016357422e-01) (8, -1.52328550815582275391e-01) (9, -9.90419238805770874023e-02) (10, 2.02043235301971435547e-01) (11, 2.19602942466735839844e-01) (12, 2.27497741580009460449e-02) (13, 1.15304246544837951660e-01) (14, -2.33078002929687500000e-02) (15, -1.23136401176452636719e-01) (16, -5.73199808597564697266e-01) (17, -8.02560374140739440918e-02) (18, -3.26496511697769165039e-01) (19, -2.12205141782760620117e-01) (20, -3.06299239397048950195e-01) (21, 3.34721207618713378906e-01) (22, -1.75604838877916336060e-02) (23, 2.22162995487451553345e-02) (24, 2.25258633494377136230e-01) (0, -3.90411168336868286133e-01) (1, -3.18572998046875000000e-01) (2, -6.87508523464202880859e-01) (3, 2.84292310476303100586e-01) (4, 4.00634497404098510742e-01) (5, 9.41322207450866699219e-01) (6, -4.41688537597656250000e-01) (7, 5.77276945114135742188e-01) (8, -3.98067355155944824219e-01) (9, -7.19670355319976806641e-02) (10, -2.73875415325164794922e-01) (11, -1.90022975206375122070e-01) (12, 5.80127909779548645020e-02) (13, 3.80888283252716064453e-01) (14, 1.02621629834175109863e-01) (15, 6.41370788216590881348e-02) (16, -1.25459045171737670898e-01) (17, -4.54466909170150756836e-01) (18, -5.71102082729339599609e-01) (19, 2.54625111818313598633e-01) (20, 5.36758542060852050781e-01) (21, 6.33929908275604248047e-01) (22, -5.65459966659545898438e-01) (23, 6.61694824695587158203e-01) (24, 5.74510514736175537109e-01) (0, -1.18224775791168212891e+00) (1, -4.52725589275360107422e-01) (2, 3.24406698346138000488e-02) (3, 1.88085764646530151367e-01) (4, 2.96585261821746826172e-02) (5, 1.28237080574035644531e+00) (6, 3.52692276239395141602e-01) (7, -3.74455392360687255859e-01) (8, -7.41362988948822021484e-01) (9, 5.88932484388351440430e-02) (10, 1.78891569375991821289e-02) (11, -1.92364767193794250488e-01) (12, -2.58967936038970947266e-01) (13, 4.92548882961273193359e-01) (14, 4.04488533735275268555e-01) (15, -3.41233372688293457031e-01) (16, -4.05447065830230712891e-01) (17, -6.08467400074005126953e-01) (18, -1.75184667110443115234e-01) (19, 2.29856863617897033691e-01) (20, 3.86267423629760742188e-01) (21, 6.15330040454864501953e-01) (22, -2.35505238175392150879e-01) (23, -9.77411307394504547119e-03) (24, 2.21141681075096130371e-01) (0, 5.54685235023498535156e-01) (1, 4.39190603792667388916e-02) (2, 2.22768653184175491333e-02) (3, 1.91360563039779663086e-01) (4, 4.08580154180526733398e-01) (5, -5.22832572460174560547e-02) (6, -1.18003718554973602295e-01) (7, 3.66322964429855346680e-01) (8, -1.46237850189208984375e-01) (9, -2.58914344012737274170e-02) (10, -4.37175959348678588867e-01) (11, -4.34496462345123291016e-01) (12, -1.61754816770553588867e-01) (13, -4.25019823014736175537e-02) (14, -2.15321816504001617432e-02) (15, 2.19317287206649780273e-01) (16, 7.91771709918975830078e-01) (17, -2.96137660741806030273e-01) (18, 3.01792412996292114258e-01) (19, 3.04481923580169677734e-01) (20, 5.90519011020660400391e-01) (21, -3.34479719400405883789e-01) (22, -2.82408833503723144531e-01) (23, 1.60009950399398803711e-01) (24, 7.27860555052757263184e-02) (0, -1.85415178537368774414e-01) (1, -4.44796264171600341797e-01) (2, -1.39426901936531066895e-01) (3, 2.87222564220428466797e-01) (4, 3.50682973861694335938e-01) (5, 4.61693197488784790039e-01) (6, -2.88714885711669921875e-01) (7, 2.64640957117080688477e-01) (8, -4.57823008298873901367e-01) (9, 2.36556911841034889221e-03) (10, -5.07219135761260986328e-01) (11, -4.34365987777709960938e-01) (12, -3.26944023370742797852e-01) (13, 7.83653780817985534668e-02) (14, -5.16707524657249450684e-02) (15, 1.17046520113945007324e-01) (16, 1.66480332612991333008e-01) (17, -7.28729784488677978516e-01) (18, -9.23121199011802673340e-02) (19, 4.05222088098526000977e-01) (20, 5.44100046157836914062e-01) (21, -1.00533757358789443970e-02) (22, -5.62561988830566406250e-01) (23, 1.77956759929656982422e-01) (24, 5.57654321193695068359e-01) (0, -1.92273885011672973633e-01) (1, -2.29542434215545654297e-01) (2, 1.72393590211868286133e-01) (3, -4.44095320999622344971e-02) (4, 1.54630526900291442871e-01) (5, 2.21889197826385498047e-01) (6, 2.65030413866043090820e-01) (7, 1.17360167205333709717e-01) (8, -3.88831704854965209961e-01) (9, 1.21317401528358459473e-01) (10, -4.97038215398788452148e-01) (11, -4.94845747947692871094e-01) (12, -5.16599237918853759766e-01) (13, 1.39648253098130226135e-02) (14, 4.97201457619667053223e-02) (15, 5.53752994164824485779e-04) (16, 3.74342411756515502930e-01) (17, -7.91185736656188964844e-01) (18, 2.36146580427885055542e-02) (19, -4.65618856251239776611e-02) (20, 5.58961153030395507812e-01) (21, -1.65783733129501342773e-01) (22, -2.87615388631820678711e-01) (23, 1.49255439639091491699e-01) (24, 3.26551645994186401367e-01) (0, 1.60938560962677001953e-01) (1, -2.94570684432983398438e-01) (2, -1.08784046024084091187e-02) (3, -1.88494138419628143311e-02) (4, 1.90251156687736511230e-01) (5, 1.40930950641632080078e-01) (6, -1.86147600412368774414e-01) (7, 3.70268553495407104492e-01) (8, -1.44196525216102600098e-01) (9, -4.04388532042503356934e-02) (10, -2.74990350008010864258e-01) (11, -3.05860996246337890625e-01) (12, -2.57995903491973876953e-01) (13, -2.07672696560621261597e-02) (14, 8.78657773137092590332e-03) (15, 2.36889630556106567383e-01) (16, 4.31001991033554077148e-01) (17, -6.64095818996429443359e-01) (18, -1.93476267158985137939e-02) (19, 1.74742907285690307617e-01) (20, 4.93714809417724609375e-01) (21, -4.65196818113327026367e-02) (22, -4.29418325424194335938e-01) (23, 2.87981003522872924805e-01) (24, 7.56405234336853027344e-01) (0, 2.66439229249954223633e-01) (1, 2.12213873863220214844e-01) (2, -3.22979867458343505859e-01) (3, 4.51537609100341796875e-01) (4, 4.64772641658782958984e-01) (5, 2.60543256998062133789e-01) (6, -3.16472142934799194336e-01) (7, 3.52130323648452758789e-01) (8, 5.63227012753486633301e-02) (9, 1.96055814623832702637e-01) (10, -2.03694269061088562012e-01) (11, 1.03257358074188232422e-01) (12, -7.90015012025833129883e-02) (13, -1.31246894598007202148e-01) (14, -3.01418513059616088867e-01) (15, 9.93036404252052307129e-02) (16, 1.36317670345306396484e-01) (17, 7.25217349827289581299e-03) (18, 2.82778684049844741821e-02) (19, 3.21609199047088623047e-01) (20, 4.46291804313659667969e-01) (21, 2.20083028078079223633e-01) (22, -2.15857774019241333008e-01) (23, 2.43482932448387145996e-01) (24, -1.71404898166656494141e-01) (0, 5.20832419395446777344e-01) (1, -1.45317852497100830078e-01) (2, 7.86797165870666503906e-01) (3, -3.92532467842102050781e-01) (4, 7.57230073213577270508e-02) (5, -4.99689847230911254883e-01) (6, 6.50427639484405517578e-01) (7, -1.86029776930809020996e-01) (8, 7.19404295086860656738e-02) (9, 1.49332731962203979492e-01) (10, 1.67354643344879150391e-01) (11, -2.36439630389213562012e-01) (12, -1.02740168571472167969e-01) (13, -1.79530486464500427246e-01) (14, 3.13072919845581054688e-01) (15, -1.59398928284645080566e-01) (16, 2.33426988124847412109e-01) (17, -2.84290641546249389648e-01) (18, 6.36384785175323486328e-01) (19, -2.07692086696624755859e-01) (20, 6.38882145285606384277e-02) (21, -3.40892285108566284180e-01) (22, 3.11956644058227539062e-01) (23, -1.79661810398101806641e-01) (24, -4.89175349473953247070e-01) (0, 6.69858515262603759766e-01) (1, 5.83251975476741790771e-02) (2, 4.30722296237945556641e-01) (3, -8.76822471618652343750e-02) (4, 3.09383720159530639648e-01) (5, -1.96016341447830200195e-01) (6, 1.85673579573631286621e-01) (7, 2.11696013808250427246e-01) (8, 1.42733678221702575684e-02) (9, 1.70702368021011352539e-01) (10, -2.52515554428100585938e-01) (11, -3.13001513481140136719e-01) (12, -1.35212242603302001953e-01) (13, -2.67237424850463867188e-01) (14, 3.92102003097534179688e-02) (15, 1.56771361827850341797e-01) (16, 5.63479602336883544922e-01) (17, -2.58754372596740722656e-01) (18, 4.96453106403350830078e-01) (19, -3.41856898739933967590e-03) (20, 4.79740291833877563477e-01) (21, -1.22410029172897338867e-01) (22, 2.26070545613765716553e-03) (23, 1.93828009068965911865e-02) (24, -2.40347057580947875977e-01) (0, -6.84774577617645263672e-01) (1, -1.73389866948127746582e-01) (2, 3.46907407045364379883e-01) (3, 1.80259123444557189941e-01) (4, -1.78519278764724731445e-01) (5, 6.01037561893463134766e-01) (6, 3.59911143779754638672e-01) (7, -5.77420830726623535156e-01) (8, -3.47405135631561279297e-01) (9, -1.02349407970905303955e-01) (10, 4.55468147993087768555e-02) (11, -7.62949585914611816406e-02) (12, -1.30001142621040344238e-01) (13, 2.57953941822052001953e-01) (14, 8.37466195225715637207e-02) (15, -2.69959747791290283203e-01) (16, -4.07627791166305541992e-01) (17, -2.76106685400009155273e-01) (18, 1.57947748899459838867e-01) (19, -9.70209613442420959473e-02) (20, 2.42947340011596679688e-02) (21, 2.14201718568801879883e-01) (22, -6.95159211754798889160e-02) (23, -3.62846881151199340820e-01) (24, -1.19871556758880615234e-01) (0, -5.44214606285095214844e-01) (1, 5.04812672734260559082e-02) (2, 4.27102535963058471680e-01) (3, -3.06748807430267333984e-01) (4, -3.00697714090347290039e-01) (5, 7.71781802177429199219e-02) (6, 3.69717240333557128906e-01) (7, -5.13297498226165771484e-01) (8, -3.52603644132614135742e-02) (9, 5.98186552524566650391e-02) (10, 3.42160344123840332031e-01) (11, 1.39124721288681030273e-01) (12, 1.98468565940856933594e-03) (13, 1.18019640445709228516e-01) (14, 1.70263692736625671387e-01) (15, -3.58791530132293701172e-01) (16, -3.85181397199630737305e-01) (17, -7.02535882592201232910e-02) (18, 8.18826332688331604004e-02) (19, -5.32818138599395751953e-01) (20, -2.40261003375053405762e-01) (21, -2.06814240664243698120e-02) (22, 3.42250585556030273438e-01) (23, -2.13781386613845825195e-01) (24, -3.92613142728805541992e-01) (0, -9.57204878330230712891e-01) (1, 6.16344027221202850342e-02) (2, -5.15741109848022460938e-01) (3, 1.39867186546325683594e-01) (4, 5.40592335164546966553e-02) (5, 8.60731720924377441406e-01) (6, -2.74617284536361694336e-01) (7, -2.23352499306201934814e-02) (8, -3.24584513902664184570e-01) (9, -7.93442875146865844727e-02) (10, -6.97407126426696777344e-02) (11, 1.99769452214241027832e-01) (12, -1.15421339869499206543e-02) (13, 3.80720973014831542969e-01) (14, 1.12070888280868530273e-02) (15, -9.04667079448699951172e-02) (16, -4.65440481901168823242e-01) (17, -1.83231085538864135742e-02) (18, -5.13243317604064941406e-01) (19, 9.60413739085197448730e-02) (20, -5.08617572486400604248e-02) (21, 5.41512966156005859375e-01) (22, -3.06107908487319946289e-01) (23, 6.42181634902954101562e-02) (24, 6.17319107055664062500e-01) (0, 1.58924713730812072754e-01) (1, -7.40570202469825744629e-02) (2, -3.89833658933639526367e-01) (3, -5.07331550121307373047e-01) (4, -5.27421593666076660156e-01) (5, -7.72066175937652587891e-01) (6, -1.98115453124046325684e-01) (7, 4.02000956237316131592e-02) (8, 5.15181779861450195312e-01) (9, -1.53829157352447509766e-01) (10, 2.05282315611839294434e-01) (11, 2.15157166123390197754e-01) (12, 2.57682740688323974609e-01) (13, -1.31991013884544372559e-01) (14, -5.73046617209911346436e-02) (15, 7.14091956615447998047e-02) (16, -3.65297198295593261719e-01) (17, 4.43289488554000854492e-01) (18, -2.02789634466171264648e-01) (19, -5.01082718372344970703e-01) (20, -7.91016101837158203125e-01) (21, -2.16008245944976806641e-01) (22, 3.47774893045425415039e-01) (23, -4.78955172002315521240e-02) (24, 1.23005747795104980469e-01) (0, -4.95218187570571899414e-02) (1, 2.48083427548408508301e-01) (2, 3.30386191606521606445e-01) (3, 5.07646501064300537109e-01) (4, 1.72840639948844909668e-01) (5, 3.28358352184295654297e-01) (6, -1.64428092539310455322e-02) (7, -2.89327502250671386719e-01) (8, -1.85096040368080139160e-01) (9, 2.48011313378810882568e-02) (10, 8.84486362338066101074e-02) (11, 2.04229325056076049805e-01) (12, -7.95645639300346374512e-02) (13, 1.12377583980560302734e-01) (14, -2.29348130524158477783e-02) (15, -1.04754902422428131104e-01) (16, 2.39944517612457275391e-01) (17, 9.10453572869300842285e-02) (18, 1.43514916300773620605e-01) (19, 2.95697420835494995117e-01) (20, 3.95136833190917968750e-01) (21, 1.01247765123844146729e-01) (22, -1.10267765820026397705e-01) (23, -3.25423739850521087646e-02) (24, -3.60050678253173828125e-01) (0, 7.09381341934204101562e-01) (1, 7.14676752686500549316e-02) (2, -6.55147969722747802734e-01) (3, 4.79812592267990112305e-01) (4, 3.07571411132812500000e-01) (5, -5.67393660545349121094e-01) (6, -9.02957499027252197266e-01) (7, 6.28552258014678955078e-01) (8, 2.09243491291999816895e-01) (9, 1.14125192165374755859e-01) (10, -2.55910992622375488281e-01) (11, 2.58874356746673583984e-01) (12, 9.88039225339889526367e-02) (13, -1.43969595432281494141e-01) (14, -3.28546822071075439453e-01) (15, 2.83156484365463256836e-01) (16, 4.01480972766876220703e-01) (17, 2.25502774119377136230e-01) (18, -2.41762861609458923340e-01) (19, 5.16886770725250244141e-01) (20, 1.34790167212486267090e-01) (21, -2.15158253908157348633e-01) (22, -2.74091839790344238281e-01) (23, 3.60104024410247802734e-01) (24, 2.30939105153083801270e-01) (25, -1.93971723318099975586e-01) (26, -2.51160949468612670898e-01) (27, 6.44709646701812744141e-01) (28, 1.56349390745162963867e-01) (29, -3.30821931362152099609e-01) (30, -9.52738448977470397949e-02) (31, 2.91030168533325195312e-01) (32, -1.17133706808090209961e-01) (33, -3.56067508459091186523e-01) (34, -1.71021640300750732422e-01) (35, -1.54351264238357543945e-01) (36, 1.46717891097068786621e-01) (37, -6.83898851275444030762e-02) (38, -7.27129504084587097168e-02) (39, -2.22368419170379638672e-01) (40, 3.17576378583908081055e-01) (41, 3.75058874487876892090e-02) (42, 1.75111874938011169434e-01) (43, -1.33057430386543273926e-01) (44, -1.41416952013969421387e-01) (45, -1.59210756421089172363e-01) (46, -2.52812147140502929688e-01) (47, 3.67685556411743164062e-01) (48, 3.53852689266204833984e-01) (49, 1.51727104187011718750e+00) (25, 3.75330209732055664062e-01) (26, -7.23874807357788085938e-01) (27, 4.48356289416551589966e-03) (28, -3.66589307785034179688e-01) (29, -1.02715730667114257812e-01) (30, 4.44184541702270507812e-01) (31, 1.29943385720252990723e-01) (32, 3.02236735820770263672e-01) (33, -6.16147279739379882812e-01) (34, -4.46693837642669677734e-01) (35, -9.93308722972869873047e-01) (36, 3.60823512077331542969e-01) (37, -2.89974302053451538086e-01) (38, -1.24382458627223968506e-01) (39, -1.34533002972602844238e-01) (40, 3.17019432783126831055e-01) (41, 5.48322081565856933594e-01) (42, 5.53969919681549072266e-01) (43, -5.18825471401214599609e-01) (44, -2.08561658859252929688e-01) (45, -8.60742390155792236328e-01) (46, 1.98583036661148071289e-01) (47, 1.31604477763175964355e-01) (48, 5.80799281597137451172e-01) (49, -4.65044021606445312500e-01) (25, -2.51603454351425170898e-01) (26, 2.92392343282699584961e-01) (27, -1.32857322692871093750e-01) (28, 1.68438419699668884277e-01) (29, -8.57191011309623718262e-02) (30, -7.30269610881805419922e-01) (31, -3.92117977142333984375e-01) (32, 5.27615666389465332031e-01) (33, 7.79052972793579101562e-02) (34, 1.01167082786560058594e+00) (35, 5.90476691722869873047e-01) (36, -7.38184079527854919434e-02) (37, 5.26704013347625732422e-01) (38, 3.59570495784282684326e-02) (39, 2.53293607383966445923e-02) (40, 3.17602515220642089844e-01) (41, -3.81315022706985473633e-01) (42, -8.96702483296394348145e-02) (43, 8.88212770223617553711e-02) (44, -2.78229296207427978516e-01) (45, 3.87730658054351806641e-01) (46, -2.91101604700088500977e-01) (47, 1.04539692401885986328e-01) (48, 3.91171783208847045898e-01) (49, 1.13736283779144287109e+00) (25, 3.71919363737106323242e-01) (26, -2.00645238161087036133e-01) (27, -5.91911613941192626953e-01) (28, -4.54316474497318267822e-02) (29, -1.42903789877891540527e-01) (30, -3.72679904103279113770e-04) (31, -7.16627657413482666016e-01) (32, 7.09269940853118896484e-01) (33, 1.98261648416519165039e-01) (34, 1.00751399993896484375e+00) (35, 5.01648299396038055420e-02) (36, -9.89145115017890930176e-02) (37, 1.45354717969894409180e-01) (38, -2.10448279976844787598e-01) (39, 9.94847491383552551270e-02) (40, 2.86360502243041992188e-01) (41, -9.28159177303314208984e-01) (42, -3.72845232486724853516e-01) (43, -2.15730860829353332520e-01) (44, -3.13997358083724975586e-01) (45, 8.68581652641296386719e-01) (46, 4.82783839106559753418e-02) (47, -2.09117546677589416504e-01) (48, 4.88875418901443481445e-01) (49, -3.48627679049968719482e-02) (25, 5.57271420955657958984e-01) (26, -7.53999352455139160156e-02) (27, -1.11694455146789550781e+00) (28, -3.34690332412719726562e-01) (29, 1.39736533164978027344e-01) (30, 1.79759755730628967285e-01) (31, -8.23060750961303710938e-01) (32, 2.91649758815765380859e-01) (33, 1.21335744857788085938e-01) (34, 3.20295721292495727539e-01) (35, -2.64475107192993164062e-01) (36, -4.79036420583724975586e-02) (37, 7.52536952495574951172e-02) (38, 1.73043295741081237793e-01) (39, 4.46987539529800415039e-01) (40, -1.43487483263015747070e-01) (41, 3.71986851096153259277e-02) (42, -1.58676758408546447754e-01) (43, -5.10319948196411132812e-01) (44, -1.18101693689823150635e-01) (45, 2.07782778888940811157e-02) (46, 4.97932672500610351562e-01) (47, -5.00366032123565673828e-01) (48, 2.61860996484756469727e-01) (49, -3.86740326881408691406e-01) (25, -2.25396633148193359375e-01) (26, -4.51907902956008911133e-01) (27, 1.00157594680786132812e+00) (28, 1.90727829933166503906e-01) (29, -4.64219152927398681641e-01) (30, -1.25800251960754394531e-01) (31, 5.67775964736938476562e-01) (32, 2.31110397726297378540e-03) (33, -4.75766986608505249023e-01) (34, -8.07797387242317199707e-02) (35, -2.86845386028289794922e-01) (36, 3.35277646780014038086e-01) (37, -1.94872647523880004883e-01) (38, -2.55334585905075073242e-01) (39, -4.83522742986679077148e-01) (40, 8.16633284091949462891e-01) (41, 2.51824259757995605469e-01) (42, 4.92894649505615234375e-01) (43, -1.37778609991073608398e-01) (44, -1.99253290891647338867e-01) (45, -3.90810668468475341797e-01) (46, -5.90897142887115478516e-01) (47, 8.09176683425903320312e-01) (48, 4.84673708677291870117e-01) (49, 7.67045676708221435547e-01) (25, -5.84406197071075439453e-01) (26, 6.07319772243499755859e-01) (27, 5.86574435234069824219e-01) (28, 3.39684605598449707031e-01) (29, -9.65810008347034454346e-03) (30, -8.00812423229217529297e-01) (31, 2.14959800243377685547e-01) (32, -4.37475694343447685242e-03) (33, 2.78006792068481445312e-01) (34, 4.62446212768554687500e-01) (35, 9.04710531234741210938e-01) (36, -2.05564916133880615234e-01) (37, 1.28810033202171325684e-02) (38, -1.60961523652076721191e-01) (39, -2.77726262807846069336e-01) (40, 1.53461545705795288086e-01) (41, -4.15725320577621459961e-01) (42, -3.37277770042419433594e-01) (43, 4.61989343166351318359e-01) (44, 3.28073859214782714844e-01) (45, 5.59312582015991210938e-01) (46, -5.36983132362365722656e-01) (47, 3.55025351047515869141e-01) (48, -5.73707759380340576172e-01) (49, -1.13238358497619628906e+00) (25, -4.84752655029296875000e-01) (26, 6.81093692779541015625e-01) (27, 4.38438504934310913086e-01) (28, -3.06380055844783782959e-02) (29, 2.57975399494171142578e-01) (30, -5.96487760543823242188e-01) (31, 3.02195340394973754883e-01) (32, -3.02284657955169677734e-01) (33, 1.50474831461906433105e-01) (34, -1.21276266872882843018e-01) (35, 5.39597928524017333984e-01) (36, -3.93783539533615112305e-01) (37, -2.60404437780380249023e-01) (38, 7.17355757951736450195e-02) (39, -1.44566863775253295898e-01) (40, -2.70690917968750000000e-01) (41, 5.79647660255432128906e-01) (42, 1.25909605994820594788e-02) (43, 4.28956300020217895508e-01) (44, 6.77847564220428466797e-01) (45, -1.24383345246315002441e-01) (46, -1.97552159428596496582e-01) (47, -1.01834632456302642822e-01) (48, -9.74868714809417724609e-01) (49, -1.39913964271545410156e+00) (25, 9.37368422746658325195e-02) (26, 5.37150241434574127197e-02) (27, 6.67138025164604187012e-03) (28, -1.21257551014423370361e-01) (29, 5.35447001457214355469e-01) (30, 2.32457265257835388184e-01) (31, 1.96086600422859191895e-01) (32, 3.90066593885421752930e-01) (33, 3.20415645837783813477e-01) (34, -3.26132357120513916016e-01) (35, -1.78774043917655944824e-01) (36, -4.95750933885574340820e-01) (37, -5.29264688491821289062e-01) (38, -4.21314150094985961914e-01) (39, -5.90585947036743164062e-01) (40, -1.49963602423667907715e-01) (41, -7.82840996980667114258e-02) (42, -3.09657603502273559570e-01) (43, 1.15238346159458160400e-01) (44, 4.51762706041336059570e-01) (45, 9.55537855625152587891e-02) (46, 2.81423836946487426758e-01) (47, 8.68722144514322280884e-03) (48, -2.22161114215850830078e-01) (49, -7.42042243480682373047e-01) (25, 2.96613186597824096680e-01) (26, -1.32894977927207946777e-01) (27, -2.84699350595474243164e-01) (28, -1.95249110460281372070e-01) (29, 3.12181770801544189453e-01) (30, 1.10714904963970184326e-01) (31, -1.09315849840641021729e-01) (32, 2.39067465066909790039e-01) (33, 1.49154260754585266113e-01) (34, -3.61492246389389038086e-01) (35, -4.42898720502853393555e-01) (36, -1.09369166195392608643e-01) (37, -3.35332602262496948242e-01) (38, -3.28328251838684082031e-01) (39, -3.50112885236740112305e-01) (40, -6.59982338547706604004e-02) (41, 7.31279626488685607910e-02) (42, -8.35864171385765075684e-02) (43, -7.71224424242973327637e-02) (44, 1.12713284790515899658e-01) (45, -2.25580856204032897949e-01) (46, 3.54647755622863769531e-01) (47, -1.79221495985984802246e-01) (48, -1.65515877306461334229e-02) (49, -1.74956190586090087891e+00) (25, 9.36377719044685363770e-02) (26, 5.74150793254375457764e-02) (27, -3.38442437350749969482e-02) (28, -2.42433950304985046387e-01) (29, 4.55438494682312011719e-01) (30, 1.28341585397720336914e-01) (31, 7.45856091380119323730e-02) (32, 1.99734002351760864258e-01) (33, 1.66640102863311767578e-01) (34, -2.52699732780456542969e-01) (35, -6.40800073742866516113e-02) (36, -2.28874459862709045410e-01) (37, -4.08077925443649291992e-01) (38, -4.09181118011474609375e-01) (39, -4.71537768840789794922e-01) (40, -2.89503961801528930664e-01) (41, -1.05030633509159088135e-01) (42, -3.46165090799331665039e-01) (43, 2.14773610234260559082e-01) (44, 3.36819320917129516602e-01) (45, 1.12814813852310180664e-01) (46, 2.68678694963455200195e-01) (47, -1.13731905817985534668e-01) (48, -2.63233691453933715820e-01) (49, -9.47167217731475830078e-01) (25, 1.83051690459251403809e-01) (26, 1.43428459763526916504e-01) (27, -3.99392932653427124023e-01) (28, -1.23058907687664031982e-01) (29, 4.78102207183837890625e-01) (30, 9.08220037817955017090e-02) (31, -2.27699980139732360840e-01) (32, 4.53438192605972290039e-01) (33, 2.03129157423973083496e-01) (34, 1.10971860587596893311e-01) (35, -8.38139057159423828125e-02) (36, -2.95537620782852172852e-01) (37, -3.56461822986602783203e-01) (38, -3.96816283464431762695e-01) (39, -1.31027534604072570801e-01) (40, -1.12851314246654510498e-01) (41, -4.35860425233840942383e-01) (42, -2.83790558576583862305e-01) (43, 6.18731528520584106445e-02) (44, 5.05997911095619201660e-02) (45, 2.25175887346267700195e-01) (46, 4.05918896198272705078e-01) (47, -2.29784190654754638672e-01) (48, -6.49177953600883483887e-02) (49, -1.25562202930450439453e+00) (25, 2.74150848388671875000e-01) (26, 5.16937114298343658447e-02) (27, -3.66729527711868286133e-01) (28, -2.57976561784744262695e-01) (29, 3.78023207187652587891e-01) (30, -8.32448713481426239014e-03) (31, -2.41187736392021179199e-01) (32, 1.32550895214080810547e-01) (33, 4.15785610675811767578e-02) (34, -6.78388625383377075195e-02) (35, -6.97298496961593627930e-02) (36, -2.32796311378479003906e-01) (37, -1.48514270782470703125e-01) (38, -1.68934494256973266602e-01) (39, -1.62359792739152908325e-04) (40, -2.97894120216369628906e-01) (41, 1.45808756351470947266e-01) (42, -1.94971382617950439453e-01) (43, -1.19385965168476104736e-01) (44, 1.29019424319267272949e-01) (45, 1.57506670802831649780e-03) (46, 3.94439220428466796875e-01) (47, -2.74953961372375488281e-01) (48, -2.22766563296318054199e-01) (49, -1.48414444923400878906e+00) (25, 7.29584917426109313965e-02) (26, -5.73391988873481750488e-02) (27, 1.86102688312530517578e-01) (28, -1.56985029578208923340e-01) (29, 5.02057492733001708984e-01) (30, 2.21576988697052001953e-02) (31, 2.12788283824920654297e-01) (32, 3.91330420970916748047e-01) (33, 2.78740972280502319336e-01) (34, -3.83156448602676391602e-01) (35, -2.70695120096206665039e-01) (36, -4.53713446855545043945e-01) (37, -6.09423637390136718750e-01) (38, -4.39372152090072631836e-01) (39, -6.62566661834716796875e-01) (40, 2.76669161394238471985e-03) (41, -1.02011106908321380615e-01) (42, -2.62858927249908447266e-01) (43, 1.11363403499126434326e-01) (44, 4.96118187904357910156e-01) (45, -4.65871803462505340576e-02) (46, 2.74017155170440673828e-01) (47, 6.79448544979095458984e-02) (48, -2.35493093729019165039e-01) (49, -1.18404924869537353516e+00) (25, -1.66157390922307968140e-02) (26, 3.32347929477691650391e-01) (27, -7.47386366128921508789e-02) (28, -1.44830495119094848633e-01) (29, 3.74190926551818847656e-01) (30, -1.57030597329139709473e-01) (31, 3.83084081113338470459e-02) (32, 1.81567817926406860352e-01) (33, 2.26386770606040954590e-01) (34, -4.44370768964290618896e-02) (35, 4.75915484130382537842e-02) (36, -3.75446766614913940430e-01) (37, -2.13673725724220275879e-01) (38, -2.51279860734939575195e-01) (39, -2.00496345758438110352e-01) (40, -2.59789347648620605469e-01) (41, -7.19208195805549621582e-02) (42, -2.97197222709655761719e-01) (43, 2.67877221107482910156e-01) (44, 3.68172317743301391602e-01) (45, 1.27527549862861633301e-01) (46, 2.35414534807205200195e-01) (47, 2.94007565826177597046e-02) (48, -3.76782357692718505859e-01) (49, -1.88041579723358154297e+00) (25, 3.43128293752670288086e-02) (26, 1.92951232194900512695e-01) (27, -2.29009494185447692871e-01) (28, -1.70396611094474792480e-01) (29, 3.78369987010955810547e-01) (30, -9.85815189778804779053e-03) (31, -5.69990836083889007568e-02) (32, 8.65887627005577087402e-02) (33, -1.25094922259449958801e-03) (34, -1.67202591896057128906e-01) (35, 5.48899248242378234863e-02) (36, -2.13470056653022766113e-01) (37, -2.39226177334785461426e-01) (38, -2.40347847342491149902e-01) (39, -1.89566522836685180664e-01) (40, -3.41270536184310913086e-01) (41, 3.88206213712692260742e-01) (42, -9.52589288353919982910e-02) (43, 2.13466137647628784180e-01) (44, 3.63111108541488647461e-01) (45, -2.54283279180526733398e-01) (46, 1.26294478774070739746e-01) (47, -1.92475002259016036987e-02) (48, -3.83874595165252685547e-01) (49, -1.92717719078063964844e+00) (25, -2.46849343180656433105e-01) (26, -2.01233983039855957031e-01) (27, 3.33340018987655639648e-01) (28, 2.66027688980102539062e-01) (29, -5.76202273368835449219e-01) (30, -2.06082567572593688965e-01) (31, 5.13526983559131622314e-02) (32, -2.08181291818618774414e-01) (33, -3.53765338659286499023e-01) (34, 3.12321633100509643555e-01) (35, 1.73941969871520996094e-01) (36, 5.09831070899963378906e-01) (37, 2.37942993640899658203e-01) (38, 2.55011826753616333008e-01) (39, 4.24625217914581298828e-01) (40, 2.49458134174346923828e-01) (41, 2.44704440236091613770e-01) (42, 5.22863507270812988281e-01) (43, -2.12091550230979919434e-01) (44, -3.94725859165191650391e-01) (45, -2.59253054857254028320e-01) (46, -6.15293979644775390625e-01) (47, 1.26496493816375732422e-01) (48, 1.06585264205932617188e-01) (49, -1.61786973476409912109e-01) (25, 4.00251299142837524414e-01) (26, -5.06851375102996826172e-01) (27, -4.30761456489562988281e-01) (28, -3.03212821483612060547e-01) (29, -1.22149392962455749512e-01) (30, 4.28240448236465454102e-01) (31, -8.80675911903381347656e-02) (32, -1.74812868237495422363e-01) (33, -5.19386172294616699219e-01) (34, -1.41631856560707092285e-01) (35, -5.70402503013610839844e-01) (36, 6.06971561908721923828e-01) (37, 1.56806588172912597656e-01) (38, 2.68134921789169311523e-01) (39, 4.86346215009689331055e-01) (40, 2.60061752051115036011e-02) (41, 5.61793029308319091797e-01) (42, 5.24431169033050537109e-01) (43, -4.41232562065124511719e-01) (44, -2.76862859725952148438e-01) (45, -7.97929167747497558594e-01) (46, 3.15540120936930179596e-03) (47, -5.29895499348640441895e-02) (48, 4.91506218910217285156e-01) (49, -1.01071262359619140625e+00) (25, -1.43040522933006286621e-01) (26, 3.44215899705886840820e-01) (27, -3.56942087411880493164e-01) (28, 1.42381682991981506348e-01) (29, -4.02492403984069824219e-01) (30, -5.90792417526245117188e-01) (31, -3.52899760007858276367e-01) (32, -9.19601246714591979980e-02) (33, 7.08734914660453796387e-02) (34, 8.80738675594329833984e-01) (35, 6.12142980098724365234e-01) (36, 1.53914645314216613770e-01) (37, 7.28055238723754882812e-01) (38, 4.43722754716873168945e-01) (39, 6.91557109355926513672e-01) (40, 1.87614202499389648438e-01) (41, -2.30120852589607238770e-01) (42, 6.69302716851234436035e-02) (43, 1.30758002400398254395e-01) (44, -2.73956477642059326172e-01) (45, 4.32596921920776367188e-01) (46, -3.61978143453598022461e-01) (47, -6.42804503440856933594e-02) (48, 2.63210862874984741211e-01) (49, 3.01633328199386596680e-02) (25, 2.98676639795303344727e-01) (26, -1.31089568138122558594e-01) (27, -8.26780438423156738281e-01) (28, -8.37285146117210388184e-02) (29, -4.04752910137176513672e-01) (30, -9.32647958397865295410e-02) (31, -7.37563669681549072266e-01) (32, 4.86846119165420532227e-01) (33, 2.41803124547004699707e-01) (34, 9.41140353679656982422e-01) (35, 2.00901702046394348145e-01) (36, 7.96444192528724670410e-02) (37, 3.11574816703796386719e-01) (38, 3.13693508505821228027e-02) (39, 2.88007736206054687500e-01) (40, 1.73932388424873352051e-01) (41, -8.27578365802764892578e-01) (42, -3.33960443735122680664e-01) (43, -2.21831098198890686035e-01) (44, -3.56762051582336425781e-01) (45, 6.62663042545318603516e-01) (46, -8.63695964217185974121e-02) (47, -1.89079508185386657715e-01) (48, 2.63071477413177490234e-01) (49, -6.43491148948669433594e-01) (25, 6.35034203529357910156e-01) (26, -1.17438085377216339111e-01) (27, -1.10428059101104736328e+00) (28, -3.03192704916000366211e-01) (29, -1.47178530693054199219e-01) (30, 1.05104982852935791016e-01) (31, -5.46324789524078369141e-01) (32, 2.03575313091278076172e-01) (33, -9.22456383705139160156e-03) (34, 4.92137372493743896484e-01) (35, -1.51518329977989196777e-01) (36, 2.10651919245719909668e-01) (37, 1.20022989809513092041e-01) (38, 2.57536888122558593750e-01) (39, 4.61044728755950927734e-01) (40, -6.31273165345191955566e-02) (41, 7.38637000322341918945e-02) (42, 1.60656183958053588867e-01) (43, -3.55924487113952636719e-01) (44, -1.22532751411199569702e-02) (45, -1.36527553200721740723e-01) (46, 3.01467686891555786133e-01) (47, -5.06796956062316894531e-01) (48, 1.53615295886993408203e-01) (49, -1.26059257984161376953e+00) (25, -2.70701676607131958008e-01) (26, -2.78664112091064453125e-01) (27, 4.46158379316329956055e-01) (28, 2.06320241093635559082e-01) (29, -7.13865041732788085938e-01) (30, -2.13059827685356140137e-01) (31, 1.12954184412956237793e-01) (32, -1.93435832858085632324e-01) (33, -4.05475556850433349609e-01) (34, 1.83372378349304199219e-01) (35, 2.09022834897041320801e-02) (36, 5.79754590988159179688e-01) (37, 3.92449617385864257812e-01) (38, 3.66164416074752807617e-01) (39, 2.18487560749053955078e-01) (40, 4.34074223041534423828e-01) (41, 3.31882387399673461914e-01) (42, 6.27033472061157226562e-01) (43, -2.13515639305114746094e-01) (44, -4.83626127243041992188e-01) (45, -4.20019477605819702148e-01) (46, -6.70580863952636718750e-01) (47, 3.17524373531341552734e-01) (48, 1.56809151172637939453e-01) (49, -2.81895339488983154297e-01) (25, -3.82262945175170898438e-01) (26, 5.56779563426971435547e-01) (27, 1.15267403423786163330e-01) (28, 3.94768595695495605469e-01) (29, -4.05150949954986572266e-01) (30, -6.49667322635650634766e-01) (31, -1.36670190840959548950e-02) (32, -2.06609845161437988281e-01) (33, 2.89525657892227172852e-01) (34, 5.35286307334899902344e-01) (35, 8.80925238132476806641e-01) (36, -1.66131392121315002441e-01) (37, 3.50525915622711181641e-01) (38, 2.49695315957069396973e-01) (39, 1.23554691672325134277e-01) (40, 8.34020823240280151367e-02) (41, -4.55298542976379394531e-01) (42, -1.14992514252662658691e-01) (43, 5.42239904403686523438e-01) (44, 1.78328424692153930664e-01) (45, 6.69731914997100830078e-01) (46, -4.04173463582992553711e-01) (47, 7.45654851198196411133e-02) (48, -4.86758559942245483398e-01) (49, -1.42295134067535400391e+00) (25, -2.01101139187812805176e-01) (26, 7.39102542400360107422e-01) (27, -1.17304641753435134888e-02) (28, 5.82625949755311012268e-03) (29, -2.63171046972274780273e-01) (30, -5.32133817672729492188e-01) (31, 1.94499224424362182617e-01) (32, -4.97232973575592041016e-01) (33, 1.55165597796440124512e-01) (34, 7.00791627168655395508e-02) (35, 5.11936962604522705078e-01) (36, -1.01756773889064788818e-01) (37, 8.91011953353881835938e-02) (38, 3.53144049644470214844e-01) (39, 1.44209951162338256836e-01) (40, -2.12102800607681274414e-01) (41, 3.96527290344238281250e-01) (42, 1.88992694020271301270e-01) (43, 4.65743809938430786133e-01) (44, 4.91091340780258178711e-01) (45, -7.48540321364998817444e-03) (46, -1.61274597048759460449e-01) (47, -9.79623198509216308594e-02) (48, -9.11450624465942382812e-01) (49, -1.86406421661376953125e+00) 
