FANN_FLO_2.1
num_layers=3
learning_rate=0.698859
connection_rate=1.000000
network_type=0
learning_momentum=0.000000
training_algorithm=0
train_error_function=1
train_stop_function=0
cascade_output_change_fraction=0.010000
quickprop_decay=-0.000100
quickprop_mu=1.750000
rprop_increase_factor=1.200000
rprop_decrease_factor=0.500000
rprop_delta_min=0.000000
rprop_delta_max=50.000000
rprop_delta_zero=0.100000
cascade_output_stagnation_epochs=12
cascade_candidate_change_fraction=0.010000
cascade_candidate_stagnation_epochs=12
cascade_max_out_epochs=150
cascade_min_out_epochs=50
cascade_max_cand_epochs=150
cascade_min_cand_epochs=50
cascade_num_candidate_groups=2
bit_fail_limit=3.49999994039535522461e-01
cascade_candidate_limit=1.00000000000000000000e+03
cascade_weight_multiplier=4.00000005960464477539e-01
cascade_activation_functions_count=10
cascade_activation_functions=3 5 7 8 10 11 14 15 16 17 
cascade_activation_steepnesses_count=39
cascade_activation_steepnesses=1.00000000000000000000e+00 1.15400000000000000000e+03 0.00000000000000000000e+00 0.00000000000000000000e+00 1.00000000000000000000e+01 6.08200000000000000000e+03 6.08300000000000000000e+03 6.08400000000000000000e+03 6.08500000000000000000e+03 6.08600000000000000000e+03 6.08700000000000000000e+03 6.08900000000000000000e+03 6.09000000000000000000e+03 6.09100000000000000000e+03 6.09200000000000000000e+03 0.00000000000000000000e+00 0.00000000000000000000e+00 2.00000000000000000000e+01 1.07629000000000000000e+06 1.07629100000000000000e+06 1.07629200000000000000e+06 1.07629300000000000000e+06 1.07629400000000000000e+06 1.07629500000000000000e+06 1.07629700000000000000e+06 1.07629800000000000000e+06 1.07629900000000000000e+06 1.07630000000000000000e+06 1.07667400000000000000e+06 1.07667500000000000000e+06 1.07667600000000000000e+06 1.07667700000000000000e+06 1.07667800000000000000e+06 1.07667900000000000000e+06 1.07668100000000000000e+06 1.07668200000000000000e+06 1.07668300000000000000e+06 1.07668400000000000000e+06 0.00000000000000000000e+00 
layer_sizes=32 32 32 
scale_included=0
neurons (num_inputs, activation_function, activation_steepness)=(0, 0, 0.00000000000000000000e+00) (0, 0, 0.00000000000000000000e+00) (0, 0, 0.00000000000000000000e+00) (0, 0, 0.00000000000000000000e+00) (0, 0, 0.00000000000000000000e+00) (0, 0, 0.00000000000000000000e+00) (0, 0, 0.00000000000000000000e+00) (0, 0, 0.00000000000000000000e+00) (0, 0, 0.00000000000000000000e+00) (0, 0, 0.00000000000000000000e+00) (0, 0, 0.00000000000000000000e+00) (0, 0, 0.00000000000000000000e+00) (0, 0, 0.00000000000000000000e+00) (0, 0, 0.00000000000000000000e+00) (0, 0, 0.00000000000000000000e+00) (0, 0, 0.00000000000000000000e+00) (0, 0, 0.00000000000000000000e+00) (0, 0, 0.00000000000000000000e+00) (0, 0, 0.00000000000000000000e+00) (0, 0, 0.00000000000000000000e+00) (0, 0, 0.00000000000000000000e+00) (0, 0, 0.00000000000000000000e+00) (0, 0, 0.00000000000000000000e+00) (0, 0, 0.00000000000000000000e+00) (0, 0, 0.00000000000000000000e+00) (0, 0, 0.00000000000000000000e+00) (0, 0, 0.00000000000000000000e+00) (0, 0, 0.00000000000000000000e+00) (0, 0, 0.00000000000000000000e+00) (0, 0, 0.00000000000000000000e+00) (0, 0, 0.00000000000000000000e+00) (0, 0, 0.00000000000000000000e+00) (32, 5, 5.00000000000000000000e-01) (32, 5, 5.00000000000000000000e-01) (32, 5, 5.00000000000000000000e-01) (32, 5, 5.00000000000000000000e-01) (32, 5, 5.00000000000000000000e-01) (32, 5, 5.00000000000000000000e-01) (32, 5, 5.00000000000000000000e-01) (32, 5, 5.00000000000000000000e-01) (32, 5, 5.00000000000000000000e-01) (32, 5, 5.00000000000000000000e-01) (32, 5, 5.00000000000000000000e-01) (32, 5, 5.00000000000000000000e-01) (32, 5, 5.00000000000000000000e-01) (32, 5, 5.00000000000000000000e-01) (32, 5, 5.00000000000000000000e-01) (32, 5, 5.00000000000000000000e-01) (32, 5, 5.00000000000000000000e-01) (32, 5, 5.00000000000000000000e-01) (32, 5, 5.00000000000000000000e-01) (32, 5, 5.00000000000000000000e-01) (32, 5, 5.00000000000000000000e-01) (32, 5, 5.00000000000000000000e-01) (32, 5, 5.00000000000000000000e-01) (32, 5, 5.00000000000000000000e-01) (32, 5, 5.00000000000000000000e-01) (32, 5, 5.00000000000000000000e-01) (32, 5, 5.00000000000000000000e-01) (32, 5, 5.00000000000000000000e-01) (32, 5, 5.00000000000000000000e-01) (32, 5, 5.00000000000000000000e-01) (32, 5, 5.00000000000000000000e-01) (0, 5, 0.00000000000000000000e+00) (32, 3, 5.00000000000000000000e-01) (32, 3, 5.00000000000000000000e-01) (32, 3, 5.00000000000000000000e-01) (32, 3, 5.00000000000000000000e-01) (32, 3, 5.00000000000000000000e-01) (32, 3, 5.00000000000000000000e-01) (32, 3, 5.00000000000000000000e-01) (32, 3, 5.00000000000000000000e-01) (32, 3, 5.00000000000000000000e-01) (32, 3, 5.00000000000000000000e-01) (32, 3, 5.00000000000000000000e-01) (32, 3, 5.00000000000000000000e-01) (32, 3, 5.00000000000000000000e-01) (32, 3, 5.00000000000000000000e-01) (32, 3, 5.00000000000000000000e-01) (32, 3, 5.00000000000000000000e-01) (32, 3, 5.00000000000000000000e-01) (32, 3, 5.00000000000000000000e-01) (32, 3, 5.00000000000000000000e-01) (32, 3, 5.00000000000000000000e-01) (32, 3, 5.00000000000000000000e-01) (32, 3, 5.00000000000000000000e-01) (32, 3, 5.00000000000000000000e-01) (32, 3, 5.00000000000000000000e-01) (32, 3, 5.00000000000000000000e-01) (32, 3, 5.00000000000000000000e-01) (32, 3, 5.00000000000000000000e-01) (32, 3, 5.00000000000000000000e-01) (32, 3, 5.00000000000000000000e-01) (32, 3, 5.00000000000000000000e-01) (32, 3, 5.00000000000000000000e-01) (0, 3, 0.00000000000000000000e+00) 
connections (connected_to_neuron, weight)=(0, 3.10355901718139648438e-01) (1, -2.68315374851226806641e-01) (2, -1.04397511482238769531e+00) (3, -6.45702719688415527344e-01) (4, -7.63759482651948928833e-03) (5, 2.64992058277130126953e-01) (6, 7.06879079341888427734e-01) (7, 6.63179278373718261719e-01) (8, -6.94887340068817138672e-01) (9, 2.91099492460489273071e-03) (10, 2.53138899803161621094e-01) (11, -4.56604212522506713867e-01) (12, -2.76105403900146484375e-01) (13, -2.29732230305671691895e-01) (14, -1.77692584693431854248e-02) (15, -2.15193241834640502930e-01) (16, 9.92051959037780761719e-02) (17, 5.02739548683166503906e-01) (18, -1.09361641108989715576e-01) (19, 8.48621204495429992676e-02) (20, -1.43999457359313964844e-01) (21, 1.84209823608398437500e-01) (22, -7.37467110157012939453e-01) (23, -3.62988680601119995117e-01) (24, 8.99291932582855224609e-02) (25, 2.58260637521743774414e-01) (26, 5.15792429447174072266e-01) (27, 1.84670418500900268555e-01) (28, -6.40107572078704833984e-01) (29, -1.24318748712539672852e-02) (30, 4.56387639045715332031e-01) (31, 1.91128417849540710449e-01) (0, -3.06167751550674438477e-01) (1, 9.35501694679260253906e-01) (2, 4.27612662315368652344e-01) (3, 5.08176870644092559814e-02) (4, -1.62726223468780517578e-01) (5, 2.15704649686813354492e-01) (6, 6.44911527633666992188e-02) (7, -6.76494836807250976562e-01) (8, 6.88789129257202148438e-01) (9, 8.06107595562934875488e-02) (10, 8.86645391583442687988e-02) (11, 6.85829222202301025391e-01) (12, 2.86921411752700805664e-01) (13, 2.21373531967401504517e-02) (14, -4.06784355640411376953e-01) (15, -6.70103821903467178345e-03) (16, -3.30902695655822753906e-01) (17, -7.95059919357299804688e-01) (18, 2.83896893262863159180e-01) (19, 8.32149982452392578125e-02) (20, 1.54013767838478088379e-01) (21, 3.37833255529403686523e-01) (22, 1.43304526805877685547e-01) (23, -1.35224759578704833984e-01) (24, -8.67425203323364257812e-02) (25, 1.26059308648109436035e-01) (26, 2.72838681936264038086e-01) (27, -1.56776338815689086914e-01) (28, 2.88106143474578857422e-01) (29, -7.29882866144180297852e-02) (30, 9.64184328913688659668e-02) (31, 1.54262408614158630371e-01) (0, 2.91978597640991210938e-01) (1, 6.54200911521911621094e-01) (2, 9.61666703224182128906e-02) (3, -1.32442995905876159668e-01) (4, 8.25269818305969238281e-01) (5, 1.72017633914947509766e-01) (6, 4.46772575378417968750e-01) (7, -9.95359867811203002930e-02) (8, -1.48791456595063209534e-02) (9, 3.82340580224990844727e-01) (10, 7.33501836657524108887e-02) (11, 1.08715623617172241211e-01) (12, -1.59360408782958984375e-01) (13, -1.08359768986701965332e-01) (14, 2.24588826298713684082e-01) (15, 3.53413447737693786621e-02) (16, -6.83930367231369018555e-02) (17, -1.01095825433731079102e-01) (18, -2.68906861543655395508e-01) (19, -3.30784395337104797363e-02) (20, -4.73271459341049194336e-02) (21, 5.06153464317321777344e-01) (22, 1.90795868635177612305e-01) (23, -7.92671144008636474609e-02) (24, 6.66357278823852539062e-01) (25, 4.36663106083869934082e-02) (26, 3.97442162036895751953e-01) (27, -4.24717590212821960449e-02) (28, 2.97711938619613647461e-01) (29, 3.53739708662033081055e-01) (30, -2.94153243303298950195e-02) (31, -5.61383545398712158203e-01) (0, -1.61342993378639221191e-01) (1, 3.69790285825729370117e-01) (2, -3.22427928447723388672e-01) (3, -4.02422308921813964844e-01) (4, -7.77213692665100097656e-01) (5, 5.84176480770111083984e-02) (6, 3.78737986087799072266e-01) (7, -1.27994701266288757324e-01) (8, -8.76130580902099609375e-01) (9, -2.30231598019599914551e-01) (10, 7.85129547119140625000e-01) (11, 1.85879498720169067383e-01) (12, -1.71478807926177978516e-01) (13, 4.80446517467498779297e-02) (14, -3.43833178281784057617e-01) (15, 6.38892874121665954590e-02) (16, 5.09269654750823974609e-01) (17, 9.70757082104682922363e-02) (18, -4.91701923310756683350e-02) (19, -6.61651492118835449219e-02) (20, 1.56270235776901245117e-01) (21, 1.83621883392333984375e-01) (22, -2.07228854298591613770e-01) (23, 2.53301244229078292847e-02) (24, -1.19745023548603057861e-01) (25, 2.21736073493957519531e-01) (26, 1.05746425688266754150e-01) (27, 2.37972885370254516602e-01) (28, -3.55708450078964233398e-01) (29, 1.23329922556877136230e-01) (30, 3.71380925178527832031e-01) (31, 4.06480759382247924805e-01) (0, -1.99319273233413696289e-01) (1, -7.08111584186553955078e-01) (2, 2.66297142952680587769e-02) (3, 6.45897626876831054688e-01) (4, -5.51259100437164306641e-01) (5, -1.05824373662471771240e-01) (6, -2.49641016125679016113e-01) (7, 5.05158245563507080078e-01) (8, -3.14409911632537841797e-01) (9, -1.99920430779457092285e-01) (10, -4.51375776901841163635e-03) (11, -2.16678410768508911133e-01) (12, 6.82110637426376342773e-02) (13, 2.17021524906158447266e-01) (14, -9.30944457650184631348e-02) (15, -1.18033587932586669922e-03) (16, 7.13785439729690551758e-02) (17, 1.58985078334808349609e-01) (18, 2.67670094966888427734e-01) (19, 2.33370978385210037231e-02) (20, -6.58233240246772766113e-02) (21, -6.21615290641784667969e-01) (22, -1.71404220163822174072e-02) (23, 5.15734255313873291016e-01) (24, -4.97809171676635742188e-01) (25, -7.93842002749443054199e-02) (26, -2.36869886517524719238e-01) (27, 3.76569658517837524414e-01) (28, -4.70634758472442626953e-01) (29, -2.32045456767082214355e-01) (30, 7.65243917703628540039e-02) (31, 6.37969791889190673828e-01) (0, -1.11181974411010742188e+00) (1, 8.59909772872924804688e-01) (2, 4.18460756540298461914e-01) (3, 1.46493709087371826172e+00) (4, -3.63273680210113525391e-01) (5, -3.40524524450302124023e-01) (6, -9.32416617870330810547e-01) (7, -1.39906239509582519531e+00) (8, 8.23133707046508789062e-01) (9, -4.05184388160705566406e-01) (10, 5.33269010484218597412e-02) (11, 8.56070637702941894531e-01) (12, 2.25276023149490356445e-01) (13, 1.09248208999633789062e+00) (14, 3.33580374717712402344e-01) (15, 5.35717904567718505859e-01) (16, 2.23724484443664550781e-01) (17, -5.35656571388244628906e-01) (18, 2.05519810318946838379e-01) (19, -6.00880049169063568115e-02) (20, 2.40398555994033813477e-01) (21, -2.10320591926574707031e-01) (22, 6.79280310869216918945e-02) (23, 7.91709482669830322266e-01) (24, -2.45347499847412109375e-01) (25, -6.12402379512786865234e-01) (26, -1.07597851753234863281e+00) (27, -4.64994579553604125977e-01) (28, 1.10812532901763916016e+00) (29, 5.52283711731433868408e-02) (30, -2.25571453571319580078e-01) (31, -3.37544351816177368164e-01) (0, 3.75491768121719360352e-01) (1, -5.93331575393676757812e-01) (2, -3.47081035375595092773e-01) (3, -3.08274179697036743164e-01) (4, 5.11073112487792968750e-01) (5, -2.96767409890890121460e-02) (6, 3.45613241195678710938e-01) (7, 7.15121924877166748047e-01) (8, -6.69375538825988769531e-01) (9, -6.12016580998897552490e-03) (10, 1.39654323458671569824e-01) (11, -5.88227093219757080078e-01) (12, -3.13677459955215454102e-01) (13, -3.30452620983123779297e-01) (14, 2.09890455007553100586e-01) (15, -5.84093332290649414062e-02) (16, 8.32327902317047119141e-02) (17, 3.94646465778350830078e-01) (18, -4.46556240320205688477e-01) (19, 2.52609420567750930786e-02) (20, -1.67774483561515808105e-01) (21, 5.14109618961811065674e-02) (22, -1.90279290080070495605e-01) (23, 1.44373420625925064087e-02) (24, 1.86068281531333923340e-01) (25, -7.85030052065849304199e-02) (26, 2.78625845909118652344e-01) (27, 1.90925344824790954590e-01) (28, -4.34677243232727050781e-01) (29, -2.84157961606979370117e-01) (30, 2.71846890449523925781e-01) (31, -2.88639171048998832703e-03) (0, 9.52241420745849609375e-02) (1, -4.15621846914291381836e-02) (2, -1.03247833251953125000e+00) (3, -1.09414267539978027344e+00) (4, -3.74841541051864624023e-01) (5, 1.14557884633541107178e-01) (6, 5.72763085365295410156e-01) (7, 4.29222196340560913086e-01) (8, -2.72437602281570434570e-01) (9, 2.61860877275466918945e-01) (10, 2.99719035625457763672e-01) (11, -9.93204265832901000977e-02) (12, -1.33519977331161499023e-01) (13, -1.40918970108032226562e-01) (14, -2.17501729726791381836e-01) (15, -6.82131648063659667969e-02) (16, 2.15484037995338439941e-01) (17, 3.92852783203125000000e-01) (18, 2.77094841003417968750e-01) (19, 1.82890608906745910645e-01) (20, 3.93261201679706573486e-02) (21, 2.20929533243179321289e-01) (22, -8.03543567657470703125e-01) (23, -7.64023602008819580078e-01) (24, -1.28357559442520141602e-01) (25, 3.36955368518829345703e-01) (26, 3.04928302764892578125e-01) (27, 8.40162858366966247559e-02) (28, -2.17602133750915527344e-01) (29, 2.33561098575592041016e-01) (30, 4.65398371219635009766e-01) (31, 2.94119447469711303711e-01) (0, 9.94445085525512695312e-01) (1, -2.05372762680053710938e+00) (2, -2.40914374589920043945e-01) (3, -1.86655029654502868652e-01) (4, 5.44196128845214843750e-01) (5, -3.88138353824615478516e-01) (6, 3.43372285366058349609e-01) (7, 2.05582809448242187500e+00) (8, -1.06796264648437500000e-01) (9, -4.84276831150054931641e-01) (10, -3.61589789390563964844e-01) (11, -1.52421104907989501953e+00) (12, -2.06604912877082824707e-01) (13, -5.63709080219268798828e-01) (14, 2.21383735537528991699e-01) (15, -3.63981693983078002930e-01) (16, 1.90058350563049316406e-01) (17, 1.30553913116455078125e+00) (18, 1.06482073664665222168e-01) (19, 1.94693982601165771484e-01) (20, -4.70990270376205444336e-01) (21, -5.88040292263031005859e-01) (22, -6.62997439503669738770e-02) (23, 3.75372231006622314453e-01) (24, 2.55822092294692993164e-01) (25, -1.28624141216278076172e-01) (26, 2.76881873607635498047e-01) (27, 5.72704672813415527344e-01) (28, -2.05678567290306091309e-01) (29, -5.70523858070373535156e-01) (30, 9.83674973249435424805e-02) (31, -1.33919641375541687012e-01) (0, 1.75894349813461303711e-01) (1, 4.33609157800674438477e-01) (2, -6.47055685520172119141e-01) (3, -6.54531598091125488281e-01) (4, -6.27444386482238769531e-01) (5, 2.70759295672178268433e-02) (6, 7.75382637977600097656e-01) (7, 3.47937177866697311401e-03) (8, -1.47358083724975585938e+00) (9, -1.22680209577083587646e-01) (10, 8.03376853466033935547e-01) (11, 1.78573429584503173828e-01) (12, -4.02860254049301147461e-01) (13, -3.59473556280136108398e-01) (14, -3.12304526567459106445e-01) (15, 1.34914740920066833496e-02) (16, 4.74345028400421142578e-01) (17, 1.66878119111061096191e-01) (18, -6.44083499908447265625e-01) (19, 1.02559976279735565186e-01) (20, 3.36016923189163208008e-01) (21, 3.00753682851791381836e-01) (22, -2.18474254012107849121e-01) (23, -1.19248040020465850830e-01) (24, 7.66683965921401977539e-02) (25, 2.93304413557052612305e-01) (26, 2.88959026336669921875e-01) (27, 5.61354160308837890625e-02) (28, -6.21203899383544921875e-01) (29, 8.20793807506561279297e-02) (30, 5.11470317840576171875e-01) (31, -5.82985281944274902344e-02) (0, 1.14429205656051635742e-01) (1, 2.95965760946273803711e-01) (2, -1.59816336631774902344e+00) (3, -8.87433111667633056641e-01) (4, 1.54263200238347053528e-02) (5, 1.26924067735671997070e-01) (6, 1.05126881599426269531e+00) (7, 4.38945353031158447266e-01) (8, -1.11605966091156005859e+00) (9, 2.08343207836151123047e-01) (10, 7.74000346660614013672e-01) (11, -2.55345590412616729736e-02) (12, -6.29235744476318359375e-01) (13, -1.15309417247772216797e-01) (14, -1.84909120202064514160e-01) (15, -8.51740837097167968750e-02) (16, 3.60583186149597167969e-01) (17, 2.40558505058288574219e-01) (18, -4.25100058317184448242e-01) (19, 5.26365004479885101318e-02) (20, 8.65176022052764892578e-02) (21, 2.60729163885116577148e-01) (22, -1.07356691360473632812e+00) (23, -4.59556400775909423828e-01) (24, 4.78351712226867675781e-01) (25, 3.84878665208816528320e-01) (26, 7.02857434749603271484e-01) (27, 3.54265183210372924805e-01) (28, -5.41290342807769775391e-01) (29, 1.01487010717391967773e-01) (30, 6.19814693927764892578e-01) (31, -1.09613060951232910156e-01) (0, -3.91072988510131835938e-01) (1, -2.49217942357063293457e-01) (2, -7.34653055667877197266e-01) (3, -1.23708195984363555908e-01) (4, -6.02775454521179199219e-01) (5, 1.44109562039375305176e-01) (6, 5.55025041103363037109e-02) (7, 2.72010087966918945312e-01) (8, 3.97488176822662353516e-02) (9, -5.11663779616355895996e-02) (10, -1.26354798674583435059e-01) (11, -2.18592405319213867188e-01) (12, -1.33275121450424194336e-01) (13, 1.93499505519866943359e-01) (14, -1.16864461451768875122e-02) (15, 5.89846968650817871094e-02) (16, 2.35498085618019104004e-01) (17, 4.70085710287094116211e-01) (18, 2.29520171880722045898e-01) (19, -5.69364801049232482910e-02) (20, -1.05359628796577453613e-01) (21, -4.08648848533630371094e-02) (22, -6.32069826126098632812e-01) (23, 7.28451684117317199707e-02) (24, -5.67452132701873779297e-01) (25, 1.17198802530765533447e-01) (26, -2.74157047271728515625e-01) (27, -1.14268206059932708740e-01) (28, -1.01415440440177917480e-01) (29, 9.45349037647247314453e-02) (30, -8.45619291067123413086e-02) (31, -4.87752743065357208252e-02) (0, 3.79533022642135620117e-01) (1, -8.38599681854248046875e-01) (2, -3.64722348749637603760e-02) (3, -7.46416032314300537109e-01) (4, -8.20695936679840087891e-01) (5, -3.36811304092407226562e-01) (6, -2.21361722797155380249e-02) (7, 6.66896343231201171875e-01) (8, -7.74950623512268066406e-01) (9, -1.19912222027778625488e-01) (10, 2.55209147930145263672e-01) (11, -5.63681840896606445312e-01) (12, -4.62109632790088653564e-02) (13, -1.06123745441436767578e-01) (14, 9.65760871767997741699e-02) (15, 1.21582383289933204651e-02) (16, 4.44339185953140258789e-01) (17, 7.47999012470245361328e-01) (18, 1.47171258926391601562e-01) (19, 2.62336879968643188477e-01) (20, -8.82774367928504943848e-02) (21, -1.88266023993492126465e-01) (22, -9.41345393657684326172e-02) (23, -4.34392482042312622070e-01) (24, -6.22629821300506591797e-01) (25, -2.04935166984796524048e-02) (26, -4.53872919082641601562e-01) (27, 5.13012111186981201172e-02) (28, -5.55475294589996337891e-01) (29, -1.06702685356140136719e-01) (30, 3.76870930194854736328e-01) (31, 4.76581692695617675781e-01) (0, 5.47164201736450195312e-01) (1, -3.40927958488464355469e-01) (2, -7.82875299453735351562e-01) (3, -2.50966238975524902344e+00) (4, -8.62160444259643554688e-01) (5, -1.51986628770828247070e-01) (6, 4.27534341812133789062e-01) (7, 6.45142734050750732422e-01) (8, -3.38297635316848754883e-01) (9, 5.22747993469238281250e-01) (10, 4.69204455614089965820e-01) (11, -4.49345856904983520508e-01) (12, 4.77035082876682281494e-02) (13, -6.95460975170135498047e-01) (14, -5.25396056473255157471e-02) (15, -5.37510700523853302002e-02) (16, 3.61872792243957519531e-01) (17, 6.13259792327880859375e-01) (18, 1.99108421802520751953e-01) (19, 3.05352210998535156250e-01) (20, -4.76258061826229095459e-02) (21, -4.13132086396217346191e-02) (22, -6.58501982688903808594e-01) (23, -1.57561838626861572266e+00) (24, -5.40062367916107177734e-01) (25, 2.03767687082290649414e-01) (26, -1.07185617089271545410e-01) (27, 1.41577392816543579102e-01) (28, -4.86367076635360717773e-01) (29, 3.95257145166397094727e-01) (30, 6.55758321285247802734e-01) (31, 7.09015190601348876953e-01) (0, -4.86768335103988647461e-01) (1, 7.96453118324279785156e-01) (2, 1.05053257942199707031e+00) (3, -3.53206008672714233398e-01) (4, -7.75848448276519775391e-01) (5, 3.12668770551681518555e-01) (6, -6.02087855339050292969e-01) (7, -1.03633809089660644531e+00) (8, 1.10999059677124023438e+00) (9, 2.14757278561592102051e-01) (10, -1.65524080395698547363e-01) (11, 6.35865926742553710938e-01) (12, 6.77078843116760253906e-01) (13, -9.02332514524459838867e-02) (14, -3.08228999376296997070e-01) (15, -2.85322964191436767578e-02) (16, -3.04212868213653564453e-01) (17, -7.91487455368041992188e-01) (18, 5.21636366844177246094e-01) (19, -1.07861775904893875122e-03) (20, 1.81039720773696899414e-01) (21, 5.39672328159213066101e-03) (22, 3.31184267997741699219e-01) (23, -5.51058650016784667969e-01) (24, -5.58811366558074951172e-01) (25, 1.05404250323772430420e-01) (26, -2.72910118103027343750e-01) (27, -4.02327328920364379883e-01) (28, 4.13094758987426757812e-01) (29, -4.09518107771873474121e-02) (30, -1.94368690252304077148e-01) (31, 2.71966814994812011719e-01) (0, 7.06324815750122070312e-01) (1, -4.02970731258392333984e-01) (2, -6.53795719146728515625e-01) (3, -1.70529782772064208984e+00) (4, -2.90397018194198608398e-01) (5, -3.50491702556610107422e-01) (6, 2.26316958665847778320e-01) (7, 4.85600948333740234375e-01) (8, -8.32276344299316406250e-02) (9, 4.25014704465866088867e-01) (10, 3.69468361139297485352e-01) (11, -3.93082708120346069336e-01) (12, 9.89951714873313903809e-02) (13, -4.90894079208374023438e-01) (14, -8.74707400798797607422e-02) (15, -6.76249191164970397949e-02) (16, 2.14779943227767944336e-01) (17, 4.65267091989517211914e-01) (18, 2.51441657543182373047e-01) (19, 2.36043125391006469727e-01) (20, -3.54387983679771423340e-02) (21, -7.11671411991119384766e-02) (22, -6.40325188636779785156e-01) (23, -1.09059882164001464844e+00) (24, -1.56488612294197082520e-01) (25, -1.22603029012680053711e-01) (26, 7.57123157382011413574e-02) (27, 1.12192511558532714844e-01) (28, -2.10512742400169372559e-01) (29, 2.28175088763236999512e-01) (30, 5.47219276428222656250e-01) (31, 1.02192662656307220459e-01) (0, 2.85056471824645996094e-01) (1, 6.81390643119812011719e-01) (2, 8.84591579437255859375e-01) (3, 6.28175958991050720215e-02) (4, 2.53451913595199584961e-01) (5, -5.68566098809242248535e-02) (6, 3.19141507148742675781e-01) (7, -2.20979124307632446289e-01) (8, -1.10154294967651367188e+00) (9, 6.60491362214088439941e-03) (10, 5.34381151199340820312e-01) (11, 2.42393925786018371582e-01) (12, 4.70846146345138549805e-02) (13, -2.85927116870880126953e-01) (14, 7.04329460859298706055e-02) (15, 1.29688084125518798828e-02) (16, 2.02360659837722778320e-01) (17, -1.06531448662281036377e-01) (18, -5.31796276569366455078e-01) (19, 9.84611064195632934570e-02) (20, 1.52737662196159362793e-01) (21, 4.92633551359176635742e-01) (22, 7.23082959651947021484e-01) (23, 2.94039577245712280273e-01) (24, 2.72658735513687133789e-01) (25, 7.84979909658432006836e-02) (26, 2.32529535889625549316e-01) (27, -1.23484566807746887207e-01) (28, -4.05052810907363891602e-01) (29, -3.52234393358230590820e-02) (30, 2.63994157314300537109e-01) (31, -2.51898497343063354492e-01) (0, 2.82492846250534057617e-01) (1, 1.07124313712120056152e-01) (2, -1.34127914905548095703e-01) (3, -1.95964813232421875000e+00) (4, -1.02428042888641357422e+00) (5, 2.76747316122055053711e-01) (6, 1.65756851434707641602e-01) (7, 1.87789216637611389160e-01) (8, -7.14423418045043945312e-01) (9, 1.43336355686187744141e-01) (10, 9.05298233032226562500e-01) (11, 5.51448278129100799561e-02) (12, 2.44268491864204406738e-01) (13, -5.64007461071014404297e-01) (14, -1.94480925798416137695e-01) (15, -1.29750177264213562012e-01) (16, -1.01007312536239624023e-01) (17, -3.06034982204437255859e-02) (18, 1.71411126852035522461e-01) (19, 2.80456691980361938477e-01) (20, 2.54883766174316406250e-01) (21, 7.15024620294570922852e-02) (22, -3.51565152406692504883e-01) (23, -1.59182381629943847656e+00) (24, -6.62615060806274414062e-01) (25, 2.46987387537956237793e-01) (26, 2.65061914920806884766e-01) (27, 1.51698723435401916504e-01) (28, -7.87284016609191894531e-01) (29, 4.14381660521030426025e-02) (30, 8.07572305202484130859e-01) (31, 8.43420982360839843750e-01) (0, 3.67958903312683105469e-01) (1, 1.96642816066741943359e-01) (2, 3.03000748157501220703e-01) (3, 6.49996638298034667969e-01) (4, 9.95819807052612304688e-01) (5, 7.13643804192543029785e-02) (6, 7.57578238844871520996e-02) (7, 4.77264299988746643066e-02) (8, -1.77940160036087036133e-01) (9, -6.06867410242557525635e-02) (10, -1.96105062961578369141e-01) (11, -1.16515658795833587646e-01) (12, -4.90750074386596679688e-02) (13, -2.24510878324508666992e-02) (14, 2.33764201402664184570e-01) (15, -1.03659190237522125244e-01) (16, -3.41403096914291381836e-01) (17, -2.43648916482925415039e-01) (18, -3.39633554220199584961e-01) (19, -2.11518257856369018555e-03) (20, -2.18495875597000122070e-01) (21, 1.81573957204818725586e-01) (22, 4.77120786905288696289e-01) (23, 2.58884668350219726562e-01) (24, 4.44605946540832519531e-01) (25, -1.30078762769699096680e-01) (26, 5.67438900470733642578e-01) (27, -2.54339538514614105225e-02) (28, -2.62760609388351440430e-01) (29, -3.79580557346343994141e-01) (30, -8.50963965058326721191e-02) (31, -1.01175092160701751709e-01) (0, -2.93041486293077468872e-02) (1, -9.33356940746307373047e-01) (2, -9.06271696090698242188e-01) (3, -4.55122828483581542969e-01) (4, -3.98754924535751342773e-01) (5, 1.44719451665878295898e-01) (6, 1.37582719326019287109e-01) (7, 1.02867674827575683594e+00) (8, 7.19328105449676513672e-01) (9, 2.41009861230850219727e-01) (10, -2.23434567451477050781e-01) (11, -6.15294873714447021484e-01) (12, -2.09736064076423645020e-01) (13, -5.72436690330505371094e-01) (14, -5.15701353549957275391e-01) (15, -5.25814652442932128906e-01) (16, -5.52373588085174560547e-01) (17, 7.52495899796485900879e-02) (18, -9.43204388022422790527e-03) (19, 2.85547338426113128662e-02) (20, -1.14918448030948638916e-01) (21, -3.01420837640762329102e-01) (22, -7.79606521129608154297e-01) (23, -4.19648468494415283203e-01) (24, -2.57821023464202880859e-01) (25, 3.22990179061889648438e-01) (26, 5.79380989074707031250e-01) (27, 3.82650703191757202148e-01) (28, 8.86520221829414367676e-02) (29, -4.20358985662460327148e-01) (30, -2.07222495228052139282e-02) (31, 3.21382254362106323242e-01) (0, -5.97331941127777099609e-01) (1, 6.17812514305114746094e-01) (2, 5.57174205780029296875e-01) (3, 1.20264756679534912109e+00) (4, 6.59247413277626037598e-02) (5, 9.91398468613624572754e-02) (6, -3.35363119840621948242e-01) (7, -7.14601337909698486328e-01) (8, 6.61253929138183593750e-01) (9, -2.67247647047042846680e-01) (10, -1.08044207096099853516e-01) (11, 7.22929656505584716797e-01) (12, 2.94782161712646484375e-01) (13, 4.26388502120971679688e-01) (14, -1.38721764087677001953e-01) (15, 3.76466885209083557129e-02) (16, -2.91359037160873413086e-01) (17, -6.70340538024902343750e-01) (18, 2.24164903163909912109e-01) (19, -2.40278244018554687500e-01) (20, 1.87783479690551757812e-01) (21, -1.62883147597312927246e-01) (22, 2.91260808706283569336e-01) (23, 5.43693125247955322266e-01) (24, 1.83063164353370666504e-01) (25, 4.87619787454605102539e-02) (26, -2.01569885015487670898e-01) (27, -9.12010744214057922363e-02) (28, 6.06295347213745117188e-01) (29, -2.27766096591949462891e-01) (30, -4.66837286949157714844e-01) (31, 1.30788028240203857422e-01) (0, 4.55416262149810791016e-01) (1, -7.75477349758148193359e-01) (2, -1.58181145787239074707e-01) (3, -1.27075433731079101562e+00) (4, -7.18804836273193359375e-01) (5, -4.41823571920394897461e-01) (6, -5.22747933864593505859e-01) (7, 4.65398848056793212891e-01) (8, 1.57250478863716125488e-01) (9, 3.09218674898147583008e-01) (10, 4.24680799245834350586e-01) (11, -1.31075326353311538696e-02) (12, 3.12911510467529296875e-01) (13, -3.64260673522949218750e-01) (14, -2.58525669574737548828e-01) (15, -1.89455419778823852539e-01) (16, -3.72120529413223266602e-01) (17, -1.60059720277786254883e-01) (18, 2.88552850484848022461e-01) (19, 6.66733458638191223145e-02) (20, 1.88204888254404067993e-02) (21, -7.92101562023162841797e-01) (22, -3.38570863008499145508e-01) (23, -1.13337922096252441406e+00) (24, -5.17418980598449707031e-01) (25, -5.23113727569580078125e-01) (26, -1.47726520895957946777e-01) (27, 4.68549609184265136719e-01) (28, -2.71820038557052612305e-01) (29, 2.87350285798311233521e-02) (30, 4.08867150545120239258e-01) (31, 8.16691577434539794922e-01) (0, -5.61487749218940734863e-02) (1, 2.86248892545700073242e-01) (2, 3.10904175043106079102e-01) (3, -9.93501901626586914062e-01) (4, -4.91143129765987396240e-02) (5, 3.32383900880813598633e-01) (6, -4.57015335559844970703e-01) (7, -3.59510213136672973633e-01) (8, 1.42309725284576416016e+00) (9, 5.59246003627777099609e-01) (10, -3.62762093544006347656e-01) (11, 8.53351727128028869629e-02) (12, 1.72477722167968750000e-01) (13, -2.82858103513717651367e-01) (14, -6.20281472802162170410e-02) (15, -9.17912498116493225098e-02) (16, -3.60781818628311157227e-01) (17, -3.29106718301773071289e-01) (18, 5.70762991905212402344e-01) (19, 1.43591672182083129883e-01) (20, -7.34951421618461608887e-02) (21, 2.05649435520172119141e-01) (22, 8.12738537788391113281e-02) (23, -9.12434697151184082031e-01) (24, 6.44246721640229225159e-03) (25, 8.37605297565460205078e-02) (26, -2.30689607560634613037e-02) (27, -3.31691056489944458008e-01) (28, 5.43810546398162841797e-01) (29, 2.05662816762924194336e-01) (30, -2.84955263137817382812e-01) (31, -7.44129642844200134277e-02) (0, 4.23202931880950927734e-01) (1, -2.11332365870475769043e-01) (2, 1.51084095239639282227e-01) (3, -7.68703743815422058105e-02) (4, 2.52287507057189941406e-01) (5, 9.36405181884765625000e-01) (6, 4.77225482463836669922e-01) (7, 1.04978513717651367188e+00) (8, 9.02293443679809570312e-01) (9, 8.28718766570091247559e-02) (10, 2.44230225682258605957e-01) (11, -6.60034060478210449219e-01) (12, -3.76827627420425415039e-01) (13, -9.50779318809509277344e-01) (14, -7.93447077274322509766e-01) (15, -4.92964535951614379883e-01) (16, -7.27880299091339111328e-01) (17, -5.33245503902435302734e-02) (18, 2.39594474434852600098e-01) (19, 5.76388053596019744873e-02) (20, -7.77845531702041625977e-02) (21, 4.02100831270217895508e-01) (22, 5.48019230365753173828e-01) (23, -9.53494571149349212646e-03) (24, 2.69328057765960693359e-01) (25, 7.47087895870208740234e-01) (26, 1.18209195137023925781e+00) (27, 3.04342061281204223633e-01) (28, -1.43411740660667419434e-01) (29, -5.69023728370666503906e-01) (30, 2.19887077808380126953e-01) (31, 6.03462517261505126953e-01) (0, -2.25502818822860717773e-01) (1, 7.97530055046081542969e-01) (2, 9.70403432846069335938e-01) (3, 9.92997169494628906250e-01) (4, 7.01972782611846923828e-01) (5, 3.42126458883285522461e-01) (6, -2.82786022871732711792e-02) (7, -6.75682961940765380859e-01) (8, -3.56124967336654663086e-01) (9, -3.67077231407165527344e-01) (10, 3.91741562634706497192e-03) (11, 6.47557079792022705078e-01) (12, 4.82663437724113464355e-02) (13, 1.62453442811965942383e-01) (14, 4.64769080281257629395e-02) (15, -2.25096065551042556763e-02) (16, -2.66497194766998291016e-01) (17, -7.91600108146667480469e-01) (18, -5.58279037475585937500e-01) (19, -1.81756168603897094727e-01) (20, 2.64039874076843261719e-01) (21, 3.37672770023345947266e-01) (22, 7.66347765922546386719e-01) (23, 6.10275447368621826172e-01) (24, 5.54470062255859375000e-01) (25, 3.03834408521652221680e-01) (26, 3.76734822988510131836e-01) (27, -2.15665280818939208984e-01) (28, -7.73504376411437988281e-02) (29, -4.30930376052856445312e-01) (30, -3.44042241573333740234e-01) (31, -2.53336429595947265625e-01) (0, 9.56123098731040954590e-02) (1, -1.27972960472106933594e-01) (2, 3.26843947172164916992e-01) (3, -9.93281662464141845703e-01) (4, -1.03612101078033447266e+00) (5, -5.36050982773303985596e-02) (6, 8.63542500883340835571e-03) (7, 1.96711361408233642578e-01) (8, -5.32780647277832031250e-01) (9, -1.22075244784355163574e-01) (10, 5.77203631401062011719e-01) (11, 1.68686080724000930786e-02) (12, 3.01848858594894409180e-01) (13, -2.84592092037200927734e-01) (14, -2.96551823616027832031e-01) (15, 2.14441604912281036377e-02) (16, 2.31827959418296813965e-01) (17, 8.49403887987136840820e-02) (18, 2.25742772221565246582e-01) (19, 1.10765703022480010986e-01) (20, 7.09360390901565551758e-02) (21, -3.21738988161087036133e-01) (22, 3.86874228715896606445e-02) (23, -3.78155350685119628906e-01) (24, -5.25287806987762451172e-01) (25, 1.47142052650451660156e-01) (26, -3.12226086854934692383e-01) (27, 1.28545656800270080566e-01) (28, -4.99943763017654418945e-01) (29, -1.35811194777488708496e-01) (30, 3.17813456058502197266e-01) (31, 4.89317864179611206055e-01) (0, -3.28116267919540405273e-01) (1, 1.34248697757720947266e+00) (2, 3.12768101692199707031e-01) (3, -5.09416222572326660156e-01) (4, 1.69869676232337951660e-01) (5, 4.11659866571426391602e-01) (6, -2.38175645470619201660e-01) (7, -1.20198369026184082031e+00) (8, 1.76911368966102600098e-01) (9, 3.34100425243377685547e-01) (10, 1.25321760773658752441e-01) (11, 7.15689897537231445312e-01) (12, 8.35150852799415588379e-02) (13, 1.37505769729614257812e-01) (14, 2.39652946591377258301e-01) (15, 3.03718209266662597656e-01) (16, -2.66969442367553710938e-01) (17, -6.94297075271606445312e-01) (18, 3.03124096244573593140e-02) (19, -1.03755205869674682617e-01) (20, 1.92047730088233947754e-01) (21, 5.82622349262237548828e-01) (22, -1.13793043419718742371e-02) (23, -4.98211741447448730469e-01) (24, 7.02068135142326354980e-02) (25, 1.10232129693031311035e-01) (26, 9.23395827412605285645e-02) (27, -3.79099637269973754883e-01) (28, 1.75936058163642883301e-01) (29, 2.44903549551963806152e-01) (30, -8.65918621420860290527e-02) (31, -4.99770566821098327637e-02) (0, -1.52052432298660278320e-01) (1, 9.00498270988464355469e-01) (2, 7.46528625488281250000e-01) (3, 4.25913721323013305664e-01) (4, 1.48384079337120056152e-01) (5, 3.77265006303787231445e-01) (6, 2.99541711807250976562e-01) (7, -4.68976497650146484375e-01) (8, -6.77892565727233886719e-01) (9, -2.28064641356468200684e-01) (10, 3.19109380245208740234e-01) (11, 4.86505240201950073242e-01) (12, -1.10363699495792388916e-01) (13, -1.04040272533893585205e-01) (14, -5.31452260911464691162e-02) (15, -7.73218348622322082520e-02) (16, -2.81347930431365966797e-02) (17, -4.81072962284088134766e-01) (18, -6.14098906517028808594e-01) (19, -1.44142657518386840820e-01) (20, 2.82285064458847045898e-01) (21, 4.04901921749114990234e-01) (22, 7.90598332881927490234e-01) (23, 4.87401813268661499023e-01) (24, 2.56346851587295532227e-01) (25, 3.45412939786911010742e-01) (26, 2.88180768489837646484e-01) (27, -3.57048511505126953125e-02) (28, -9.78756323456764221191e-02) (29, -4.97092939913272857666e-02) (30, 3.31872180104255676270e-02) (31, -2.38311156630516052246e-01) (0, -1.94726511836051940918e-01) (1, -4.86480802297592163086e-01) (2, 6.59084320068359375000e-01) (3, 1.50788974761962890625e+00) (4, 1.07939970493316650391e+00) (5, -1.94788992404937744141e-01) (6, -6.34657502174377441406e-01) (7, -1.31882159039378166199e-02) (8, 1.01207458972930908203e+00) (9, -1.89075425267219543457e-01) (10, -9.73476946353912353516e-01) (11, -1.29722416400909423828e-01) (12, 9.65161696076393127441e-02) (13, 4.43309873342514038086e-01) (14, 6.18195474147796630859e-01) (15, -1.71473354101181030273e-01) (16, -4.03035074472427368164e-01) (17, 6.77440017461776733398e-02) (18, 7.59198293089866638184e-02) (19, -1.33885204792022705078e-01) (20, -2.89686709642410278320e-01) (21, -2.72667139768600463867e-01) (22, 5.24805665016174316406e-01) (23, 9.60261881351470947266e-01) (24, 3.32083493471145629883e-01) (25, -2.11037874221801757812e-01) (26, -2.66852349042892456055e-01) (27, -1.37709289789199829102e-01) (28, 6.89071178436279296875e-01) (29, -2.04521313309669494629e-01) (30, -6.95478320121765136719e-01) (31, -3.61855506896972656250e-01) (0, -1.94429963827133178711e-01) (1, -3.76009196043014526367e-01) (2, -9.32633876800537109375e-01) (3, 4.68136399984359741211e-01) (4, -2.88926959037780761719e-02) (5, -4.92807298898696899414e-01) (6, -9.26414653658866882324e-02) (7, 4.20660711824893951416e-02) (8, -4.35661852359771728516e-01) (9, -1.83025658130645751953e-01) (10, -2.35988810658454895020e-01) (11, -2.48208805918693542480e-01) (12, -3.31347525119781494141e-01) (13, 3.79058837890625000000e-01) (14, 2.71025657653808593750e-01) (15, 8.25346335768699645996e-02) (16, 4.49639588594436645508e-01) (17, 3.83059233427047729492e-01) (18, -2.47518807649612426758e-01) (19, -1.01678840816020965576e-01) (20, -3.80227006971836090088e-02) (21, -1.65814116597175598145e-01) (22, -5.22358655929565429688e-01) (23, 3.99487406015396118164e-01) (24, -2.20992743968963623047e-01) (25, -4.37446564435958862305e-01) (26, -3.72382014989852905273e-01) (27, 1.31267984397709369659e-03) (28, 1.10885083675384521484e-01) (29, 1.71061709523200988770e-01) (30, -2.28352528065443038940e-02) (31, -2.69950658082962036133e-01) (0, -6.61225557327270507812e-01) (1, 1.06924986839294433594e+00) (2, 8.51469874382019042969e-01) (3, 8.91897499561309814453e-01) (4, -3.91574323177337646484e-01) (5, -3.72400991618633270264e-02) (6, -3.87710809707641601562e-01) (7, -1.13273024559020996094e+00) (8, 2.94089484959840774536e-02) (9, 6.78349211812019348145e-02) (10, 3.35912972688674926758e-01) (11, 9.38108801841735839844e-01) (12, 4.54297423362731933594e-01) (13, 5.70699453353881835938e-01) (14, -1.35906562209129333496e-01) (15, 2.50857919454574584961e-01) (16, -4.21925038099288940430e-02) (17, -7.95511484146118164062e-01) (18, 1.88950762152671813965e-01) (19, -4.62524872273206710815e-03) (20, 4.36174839735031127930e-01) (21, 3.67944315075874328613e-02) (22, 3.18885266780853271484e-01) (23, 4.79966729879379272461e-01) (24, -8.67602303624153137207e-02) (25, -7.69293382763862609863e-02) (26, -3.58198285102844238281e-01) (27, -1.63481205701828002930e-01) (28, 2.09837704896926879883e-01) (29, 1.54467821121215820312e-01) (30, -7.64484405517578125000e-02) (31, 7.07800745964050292969e-01) (32, 6.89813971519470214844e-01) (33, 2.54392981529235839844e-01) (34, 6.07111275196075439453e-01) (35, 5.30521333217620849609e-01) (36, -3.74071151018142700195e-01) (37, -5.09496390819549560547e-01) (38, 3.46770018339157104492e-01) (39, 8.02658736705780029297e-01) (40, -5.28048872947692871094e-01) (41, 8.98834109306335449219e-01) (42, 1.45194780826568603516e+00) (43, -9.76714715361595153809e-02) (44, -1.55242234468460083008e-01) (45, 7.72698819637298583984e-01) (46, -7.38899827003479003906e-01) (47, 7.56089448928833007812e-01) (48, 4.39043670892715454102e-01) (49, 5.57578206062316894531e-01) (50, -1.29329478368163108826e-02) (51, 2.48593278229236602783e-02) (52, -2.71610736846923828125e-01) (53, -8.38205441832542419434e-02) (54, -2.70492017269134521484e-01) (55, 2.61310756206512451172e-01) (56, -2.38280534744262695312e-01) (57, 4.26277369260787963867e-02) (58, 3.68435531854629516602e-01) (59, -6.85651898384094238281e-02) (60, -1.03020739555358886719e+00) (61, 1.21002025902271270752e-01) (62, -2.17618525028228759766e-01) (63, -2.62619584798812866211e-01) (32, 2.36076503992080688477e-01) (33, -4.10684756934642791748e-02) (34, 6.14637374877929687500e-01) (35, -1.33718162775039672852e-01) (36, -2.27497592568397521973e-01) (37, -3.13398949801921844482e-02) (38, 3.29659700393676757812e-01) (39, -1.63572192192077636719e-01) (40, 3.25515478849411010742e-01) (41, 6.91995769739151000977e-02) (42, 5.85469678044319152832e-02) (43, -3.12983155250549316406e-01) (44, -2.02730491757392883301e-01) (45, -2.79958099126815795898e-01) (46, -3.74579876661300659180e-01) (47, -7.88039639592170715332e-02) (48, 4.57023978233337402344e-01) (49, -5.53284227848052978516e-01) (50, 4.29348021745681762695e-01) (51, -1.67205244302749633789e-01) (52, -1.06817655265331268311e-01) (53, -7.12118625640869140625e-01) (54, -8.14636498689651489258e-02) (55, 2.30757117271423339844e-01) (56, 4.58060145378112792969e-01) (57, -1.57314807176589965820e-01) (58, -1.08591407537460327148e-01) (59, 3.60196590423583984375e-01) (60, 1.52294322848320007324e-01) (61, -1.71393737196922302246e-01) (62, -1.77251547574996948242e-01) (63, 1.77131092548370361328e+00) (32, -1.87381848692893981934e-01) (33, 8.24448525905609130859e-01) (34, 2.23381727933883666992e-01) (35, 2.44442284107208251953e-01) (36, -4.41081941127777099609e-01) (37, 3.95811498165130615234e-01) (38, -4.43268120288848876953e-01) (39, 2.11942881345748901367e-01) (40, -1.36096012592315673828e+00) (41, 2.15464785695075988770e-01) (42, 1.59255027770996093750e-01) (43, 1.11798159778118133545e-01) (44, -6.73558533191680908203e-01) (45, -3.25334310531616210938e-01) (46, 7.69541800022125244141e-01) (47, -9.28357616066932678223e-02) (48, 2.25645363330841064453e-01) (49, 2.21100270748138427734e-01) (50, -5.91304972767829895020e-02) (51, -2.11428716778755187988e-01) (52, 3.54704737663269042969e-01) (53, -2.45596408843994140625e-01) (54, 3.57084184885025024414e-01) (55, 4.22956719994544982910e-02) (56, 4.52749580144882202148e-01) (57, -1.02144163101911544800e-02) (58, 9.28023397922515869141e-01) (59, 4.26648437976837158203e-01) (60, -3.93502324819564819336e-01) (61, -3.30666750669479370117e-01) (62, 4.99352306127548217773e-01) (63, -1.53305363655090332031e+00) (32, 7.01956152915954589844e-01) (33, -4.15468424558639526367e-01) (34, 8.79047960042953491211e-02) (35, 3.32193106412887573242e-01) (36, 2.74919062852859497070e-01) (37, -3.61864000558853149414e-01) (38, 3.85655969381332397461e-01) (39, 4.06852573156356811523e-01) (40, 5.83558917045593261719e-01) (41, 4.79332566261291503906e-01) (42, 1.02810502052307128906e+00) (43, 2.82126575708389282227e-01) (44, 1.99662372469902038574e-01) (45, 1.03884842246770858765e-02) (46, -9.16567206382751464844e-01) (47, -1.16314716637134552002e-01) (48, -7.76429288089275360107e-03) (49, -4.07832190394401550293e-02) (50, 1.64547011256217956543e-01) (51, 1.84959903359413146973e-01) (52, -3.16463887691497802734e-01) (53, -6.54904723167419433594e-01) (54, -7.28421330451965332031e-01) (55, 4.20560687780380249023e-01) (56, -3.76750752329826354980e-02) (57, -2.30541616678237915039e-01) (58, -4.70613986253738403320e-01) (59, 1.76268249750137329102e-01) (60, -1.91484808921813964844e-01) (61, 3.49265664815902709961e-01) (62, -3.17331194877624511719e-01) (63, 1.11113858222961425781e+00) (32, 4.43581283092498779297e-01) (33, -9.77351740002632141113e-02) (34, 3.21443170309066772461e-01) (35, -9.31023582816123962402e-02) (36, -5.67380905151367187500e-01) (37, -9.33507919311523437500e-01) (38, 2.60410547256469726562e-01) (39, 4.97209310531616210938e-01) (40, 6.92002400755882263184e-02) (41, 2.64291793107986450195e-01) (42, 3.87144744396209716797e-01) (43, -1.52968332171440124512e-01) (44, 3.78732264041900634766e-01) (45, 1.06785082817077636719e+00) (46, -3.44996228814125061035e-02) (47, 6.24469876289367675781e-01) (48, 9.36200246214866638184e-02) (49, 8.31911265850067138672e-01) (50, -7.40242078900337219238e-02) (51, 3.55421006679534912109e-01) (52, -5.26665329933166503906e-01) (53, 4.33871954679489135742e-01) (54, 5.62393188476562500000e-01) (55, -9.10952910780906677246e-02) (56, -6.19582533836364746094e-01) (57, 2.05980360507965087891e-01) (58, 4.18563216924667358398e-01) (59, -3.72132509946823120117e-01) (60, -8.85094642639160156250e-01) (61, -1.75605311989784240723e-01) (62, -4.37369674444198608398e-01) (63, 2.27120101451873779297e-01) (32, 2.83376157283782958984e-01) (33, 4.55889031291007995605e-02) (34, -1.58073380589485168457e-01) (35, 4.58404451608657836914e-01) (36, -1.20619451627135276794e-02) (37, -3.69214117527008056641e-01) (38, -1.23335145413875579834e-01) (39, 5.54420948028564453125e-01) (40, -4.84144926071166992188e-01) (41, 5.31181812286376953125e-01) (42, 3.01060050725936889648e-01) (43, 5.45630395412445068359e-01) (44, 5.30415117740631103516e-01) (45, 8.52290391921997070312e-01) (46, 4.93746131658554077148e-01) (47, 3.68963420391082763672e-01) (48, -8.18174555897712707520e-02) (49, 7.52765059471130371094e-01) (50, -5.56534945964813232422e-01) (51, 8.81932303309440612793e-03) (52, -3.27988058328628540039e-01) (53, 3.51771861314773559570e-01) (54, 1.97517365217208862305e-01) (55, -5.79192489385604858398e-02) (56, -5.33892691135406494141e-01) (57, 4.41528469324111938477e-01) (58, 1.33615285158157348633e-01) (59, -2.14645117521286010742e-02) (60, -9.35722112655639648438e-01) (61, 1.94955535698682069778e-03) (62, -1.20031416416168212891e-01) (63, -5.27512848377227783203e-01) (32, 3.17559490213170647621e-04) (33, -9.93579551577568054199e-02) (34, -5.00404655933380126953e-01) (35, 2.75386363267898559570e-01) (36, 4.60969060659408569336e-01) (37, -5.86663223803043365479e-02) (38, 1.46749675273895263672e-01) (39, 7.06643983721733093262e-02) (40, 4.77600172162055969238e-02) (41, 2.75873363018035888672e-01) (42, -3.53044122457504272461e-02) (43, -3.84768471121788024902e-02) (44, 6.83796226978302001953e-01) (45, 5.77026546001434326172e-01) (46, 1.39374300837516784668e-01) (47, 4.83027577400207519531e-01) (48, 1.71640038490295410156e-01) (49, 5.15808880329132080078e-01) (50, -2.47712984681129455566e-01) (51, -1.06101417914032936096e-02) (52, -2.20002874732017517090e-01) (53, 8.05507481098175048828e-01) (54, -3.09097170829772949219e-01) (55, -3.13697248697280883789e-01) (56, -4.77572590112686157227e-01) (57, 4.86715883016586303711e-01) (58, -4.55152720212936401367e-01) (59, -3.80820125341415405273e-01) (60, -3.69265526533126831055e-01) (61, 1.08263403177261352539e-01) (62, 1.09550774097442626953e-01) (63, -7.80988216400146484375e-01) (32, 4.28527861833572387695e-01) (33, -1.18251681327819824219e-01) (34, 1.00483155250549316406e+00) (35, -2.29480713605880737305e-01) (36, -4.77537274360656738281e-01) (37, -4.39177185297012329102e-01) (38, 3.34384113550186157227e-01) (39, -7.93955549597740173340e-02) (40, 5.31073033809661865234e-01) (41, 3.00960332155227661133e-01) (42, 3.85063588619232177734e-01) (43, -2.89140403270721435547e-01) (44, -2.34003394842147827148e-01) (45, -3.98020088672637939453e-01) (46, -4.89887207746505737305e-01) (47, -1.04480706155300140381e-01) (48, 6.38702690601348876953e-01) (49, -7.12010204792022705078e-01) (50, 4.79987293481826782227e-01) (51, -2.90180407464504241943e-02) (52, -2.76545166969299316406e-01) (53, -1.18421638011932373047e+00) (54, -2.30529487133026123047e-01) (55, 4.09059911966323852539e-01) (56, 3.89927566051483154297e-01) (57, -4.19829756021499633789e-01) (58, -2.32028365135192871094e-01) (59, 6.19738161563873291016e-01) (60, 1.70231387019157409668e-01) (61, -3.10032129287719726562e-01) (62, -6.52577221393585205078e-01) (63, 9.14674580097198486328e-01) (32, 2.70404845476150512695e-01) (33, -6.64938151836395263672e-01) (34, 2.53063738346099853516e-01) (35, -2.15038135647773742676e-01) (36, 7.28172883391380310059e-02) (37, -5.70691466331481933594e-01) (38, 5.53348720073699951172e-01) (39, -1.53586706146597862244e-02) (40, 1.65851581096649169922e+00) (41, -1.07156977057456970215e-01) (42, 1.08228005468845367432e-01) (43, 3.06003410369157791138e-02) (44, 4.04468834400177001953e-01) (45, 9.68155562877655029297e-02) (46, -9.32976007461547851562e-01) (47, 3.67145895957946777344e-01) (48, 2.09388025104999542236e-02) (49, -6.08179032802581787109e-01) (50, 3.64987589418888092041e-02) (51, 1.94014921784400939941e-01) (52, -5.76607227325439453125e-01) (53, -5.87865293025970458984e-01) (54, -1.84512436389923095703e-01) (55, -8.49398672580718994141e-02) (56, -3.10717403888702392578e-01) (57, 2.47386097908020019531e-03) (58, -1.02924907207489013672e+00) (59, -3.24343502521514892578e-01) (60, 3.77422094345092773438e-01) (61, 4.73268888890743255615e-02) (62, -9.62123215198516845703e-01) (63, -5.54911375045776367188e-01) (32, 1.42208233475685119629e-01) (33, 1.51216566562652587891e-01) (34, -2.20394730567932128906e-01) (35, -2.68466830253601074219e-01) (36, -1.48152571637183427811e-03) (37, -2.43805274367332458496e-01) (38, -9.95770841836929321289e-02) (39, 2.91076570749282836914e-01) (40, 7.82602429389953613281e-01) (41, -6.63491547107696533203e-01) (42, -9.66395288705825805664e-02) (43, 4.51741009950637817383e-01) (44, -3.62850725650787353516e-01) (45, -1.45943179726600646973e-01) (46, 9.82434228062629699707e-02) (47, -3.67232821881771087646e-02) (48, -1.27945697307586669922e+00) (49, -5.55625617504119873047e-01) (50, -1.46596491336822509766e-01) (51, 7.22689390182495117188e-01) (52, 1.81687951087951660156e-01) (53, -5.00254891812801361084e-02) (54, 5.79817831516265869141e-01) (55, 2.11742013692855834961e-01) (56, -6.78769350051879882812e-01) (57, -2.64392316341400146484e-01) (58, -4.01667147874832153320e-01) (59, -6.87069535255432128906e-01) (60, 4.37511742115020751953e-01) (61, 1.85290426015853881836e-01) (62, -5.88241398334503173828e-01) (63, -1.48767054080963134766e+00) (32, -4.27405983209609985352e-02) (33, -1.77214831113815307617e-01) (34, -5.25396764278411865234e-02) (35, -5.97885549068450927734e-01) (36, -7.25441426038742065430e-02) (37, -3.52702945470809936523e-01) (38, 5.84173351526260375977e-02) (39, 1.69914755970239639282e-02) (40, 1.60931184887886047363e-01) (41, -7.64648020267486572266e-01) (42, -3.30505788326263427734e-01) (43, 7.48653411865234375000e-02) (44, 2.00505517423152923584e-02) (45, 2.38797172904014587402e-01) (46, -9.07468572258949279785e-02) (47, 5.34322142601013183594e-01) (48, -5.46034634113311767578e-01) (49, -3.20786356925964355469e-01) (50, -9.56008210778236389160e-02) (51, 2.88241922855377197266e-01) (52, -3.53610932826995849609e-01) (53, 4.33488368988037109375e-01) (54, 7.98827290534973144531e-01) (55, 1.73916324973106384277e-01) (56, -7.29378700256347656250e-01) (57, -3.11860680580139160156e-01) (58, -1.52429968118667602539e-01) (59, -8.01034569740295410156e-01) (60, 4.86553251743316650391e-01) (61, 3.18186521530151367188e-01) (62, -5.98046183586120605469e-01) (63, -1.85716593265533447266e+00) (32, 7.37410911824554204941e-04) (33, -6.77101731300354003906e-01) (34, -4.77391451597213745117e-01) (35, -2.06721916794776916504e-01) (36, 1.05295985937118530273e-01) (37, 5.89051902294158935547e-01) (38, 1.61939427256584167480e-01) (39, -5.63226528465747833252e-02) (40, -2.00393855571746826172e-01) (41, -1.21897934004664421082e-02) (42, -1.17015965282917022705e-01) (43, 3.90730082988739013672e-01) (44, 6.86173886060714721680e-02) (45, 2.06997115164995193481e-02) (46, -4.83444839715957641602e-01) (47, 4.78209033608436584473e-02) (48, -4.04425591230392456055e-01) (49, -6.21259212493896484375e-01) (50, -3.44386756420135498047e-01) (51, -3.39302927255630493164e-01) (52, -3.38505685329437255859e-01) (53, -1.49908319115638732910e-01) (54, -3.00454407930374145508e-01) (55, -1.25386011600494384766e+00) (56, -4.97170358896255493164e-01) (57, 9.30088944733142852783e-03) (58, -3.27805764973163604736e-02) (59, -4.16748732328414916992e-01) (60, 2.40979969501495361328e-01) (61, 1.00815939903259277344e+00) (62, -3.69667589664459228516e-01) (63, -9.80956017971038818359e-01) (32, -3.66860568523406982422e-01) (33, -7.14219436049461364746e-02) (34, -2.21675097942352294922e-01) (35, -8.48438143730163574219e-02) (36, 1.09743572771549224854e-01) (37, 5.97159922122955322266e-01) (38, -2.63720393180847167969e-01) (39, 8.87927189469337463379e-02) (40, -9.25908029079437255859e-01) (41, 3.28873097896575927734e-02) (42, -1.31253883242607116699e-01) (43, 1.32158011198043823242e-01) (44, 2.99933943897485733032e-02) (45, 3.14825713634490966797e-01) (46, 6.54123947024345397949e-02) (47, 2.51419663429260253906e-01) (48, -2.66555339097976684570e-01) (49, 5.40779121220111846924e-02) (50, -5.05013287067413330078e-01) (51, -1.61301016807556152344e-01) (52, 7.12222680449485778809e-02) (53, 4.21086013317108154297e-01) (54, 3.21115493774414062500e-01) (55, -6.93787634372711181641e-01) (56, -3.88984918594360351562e-01) (57, 1.62035599350929260254e-01) (58, 3.49245131015777587891e-01) (59, -2.18980982899665832520e-01) (60, -1.30388662219047546387e-01) (61, 3.48870426416397094727e-01) (62, 1.49858146905899047852e-01) (63, -2.07406663894653320312e+00) (32, 1.02866843342781066895e-01) (33, -5.72605431079864501953e-01) (34, -3.92095685005187988281e-01) (35, 2.20654442906379699707e-01) (36, 1.30604162812232971191e-01) (37, 4.09215122461318969727e-01) (38, 1.05987079441547393799e-01) (39, 8.38309302926063537598e-02) (40, 1.00098341703414916992e-01) (41, 1.02557227015495300293e-01) (42, 1.23674817383289337158e-01) (43, 6.28743410110473632812e-01) (44, 2.34143659472465515137e-01) (45, 8.28312411904335021973e-02) (46, -2.01567858457565307617e-01) (47, -3.88386845588684082031e-02) (48, -6.54581785202026367188e-01) (49, -3.14300149679183959961e-01) (50, -5.81540405750274658203e-01) (51, -4.75112944841384887695e-01) (52, -2.81358003616333007812e-01) (53, -2.21816837787628173828e-01) (54, -1.48440822958946228027e-01) (55, -7.37332344055175781250e-01) (56, -5.11957168579101562500e-01) (57, 1.07328034937381744385e-01) (58, -2.63472884893417358398e-01) (59, -2.46224805712699890137e-01) (60, -1.01145401597023010254e-01) (61, 5.58242857456207275391e-01) (62, -2.75259345769882202148e-01) (63, -1.10287320613861083984e+00) (32, -8.38833972811698913574e-02) (33, -3.53120952844619750977e-01) (34, -6.86310157179832458496e-02) (35, -3.62449288368225097656e-02) (36, -7.92826525866985321045e-03) (37, 2.59619534015655517578e-01) (38, -3.87790650129318237305e-02) (39, 1.98355391621589660645e-01) (40, -1.95147931575775146484e-01) (41, -1.40225201845169067383e-01) (42, -2.67644375562667846680e-01) (43, 2.30970844626426696777e-01) (44, 3.04178386926651000977e-01) (45, 4.10780668258666992188e-01) (46, -7.71557614207267761230e-02) (47, 4.75093513727188110352e-01) (48, -3.88359844684600830078e-01) (49, 4.29058913141489028931e-03) (50, -4.17135953903198242188e-01) (51, -5.22764503955841064453e-01) (52, -1.59149199724197387695e-01) (53, 1.39883849769830703735e-02) (54, 3.19492399692535400391e-01) (55, -9.25034105777740478516e-01) (56, -5.69465637207031250000e-01) (57, 2.51421123743057250977e-01) (58, 7.92886987328529357910e-02) (59, -4.60260272026062011719e-01) (60, -8.45294445753097534180e-03) (61, 1.91649973392486572266e-01) (62, -5.64782414585351943970e-03) (63, -1.26342773437500000000e+00) (32, -1.40601554885506629944e-02) (33, -1.76006183028221130371e-01) (34, -1.24306060373783111572e-01) (35, 1.06607764959335327148e-01) (36, 1.16242714226245880127e-01) (37, 2.74812936782836914062e-01) (38, -3.02841544151306152344e-01) (39, 1.61668777465820312500e-01) (40, -3.71109426021575927734e-01) (41, -3.68509404361248016357e-02) (42, -9.61405634880065917969e-02) (43, 4.47681427001953125000e-01) (44, 2.72853374481201171875e-01) (45, 5.02441883087158203125e-01) (46, -7.87124782800674438477e-02) (47, 2.61314272880554199219e-01) (48, -4.10471707582473754883e-01) (49, 1.50411978363990783691e-01) (50, -4.50913608074188232422e-01) (51, -2.41633102297782897949e-01) (52, -1.12845361232757568359e-01) (53, 3.32076072692871093750e-01) (54, 1.19510814547538757324e-01) (55, -5.26549816131591796875e-01) (56, -5.21862804889678955078e-01) (57, 2.79675334692001342773e-01) (58, -9.49604958295822143555e-02) (59, -3.27580124139785766602e-01) (60, -2.18146800994873046875e-01) (61, 2.26047322154045104980e-01) (62, -1.94619074463844299316e-02) (63, -1.46466743946075439453e+00) (32, -7.67524987459182739258e-02) (33, -2.78274148702621459961e-01) (34, -2.48795822262763977051e-01) (35, 1.67322456836700439453e-01) (36, 8.58680233359336853027e-02) (37, 2.39389881491661071777e-01) (38, -1.22047252953052520752e-01) (39, 1.65866971015930175781e-01) (40, -9.32738259434700012207e-02) (41, 1.00743971765041351318e-01) (42, -1.31139695644378662109e-01) (43, 3.19937497377395629883e-01) (44, 3.48226070404052734375e-01) (45, 3.56154412031173706055e-01) (46, -3.36252674460411071777e-02) (47, 3.44310432672500610352e-01) (48, -5.23264780640602111816e-02) (49, 7.14699998497962951660e-02) (50, -5.20612359046936035156e-01) (51, -2.92203336954116821289e-01) (52, -2.76407390832901000977e-01) (53, 2.70732939243316650391e-01) (54, -1.93991482257843017578e-01) (55, -7.28319168090820312500e-01) (56, -5.84488272666931152344e-01) (57, 2.10247501730918884277e-01) (58, -1.57356008887290954590e-01) (59, -4.20709729194641113281e-01) (60, -1.31574183702468872070e-01) (61, 4.17401582002639770508e-01) (62, -3.82670909166336059570e-02) (63, -1.50579357147216796875e+00) (32, -1.25623241066932678223e-01) (33, -5.22867500782012939453e-01) (34, -2.17453837394714355469e-01) (35, -8.95879417657852172852e-02) (36, 6.88631972298026084900e-03) (37, 5.97368240356445312500e-01) (38, 1.58784419298171997070e-01) (39, -8.39799046516418457031e-02) (40, -1.51669174432754516602e-01) (41, 8.44769626855850219727e-02) (42, 1.92298705223947763443e-03) (43, 4.68176364898681640625e-01) (44, 1.31826205179095268250e-02) (45, -1.05018302798271179199e-01) (46, -5.08370041847229003906e-01) (47, 2.58201003074645996094e-01) (48, -2.58619427680969238281e-01) (49, -7.08440005779266357422e-01) (50, -4.10227298736572265625e-01) (51, -4.72015500068664550781e-01) (52, -3.30141335725784301758e-01) (53, -2.64849722385406494141e-01) (54, -2.76037812232971191406e-01) (55, -1.15547728538513183594e+00) (56, -5.63161492347717285156e-01) (57, -6.69400766491889953613e-02) (58, -1.45391583442687988281e-01) (59, -4.14692610502243041992e-01) (60, 2.60448247194290161133e-01) (61, 8.88016939163208007812e-01) (62, -3.77956122159957885742e-01) (63, -1.34526371955871582031e+00) (32, 4.39533516764640808105e-02) (33, -5.23784577846527099609e-01) (34, -3.14934700727462768555e-01) (35, -7.73558467626571655273e-02) (36, 1.50369718670845031738e-01) (37, 2.07298099994659423828e-01) (38, 5.00119291245937347412e-02) (39, 3.55802327394485473633e-02) (40, 3.09105932712554931641e-01) (41, 1.86348427087068557739e-02) (42, -4.16167872026562690735e-03) (43, 4.15059924125671386719e-01) (44, 3.44738990068435668945e-01) (45, 5.99675737321376800537e-02) (46, -1.62176117300987243652e-01) (47, 2.42545768618583679199e-01) (48, -1.56593635678291320801e-01) (49, -2.32687711715698242188e-01) (50, -2.95537650585174560547e-01) (51, -4.33606296777725219727e-01) (52, -3.08409661054611206055e-01) (53, -3.63202452659606933594e-01) (54, -1.60089790821075439453e-01) (55, -9.77524101734161376953e-01) (56, -5.54197669029235839844e-01) (57, 5.41416630148887634277e-02) (58, -2.11154296994209289551e-01) (59, -5.30208706855773925781e-01) (60, 3.27889993786811828613e-02) (61, 3.86267930269241333008e-01) (62, -2.76561081409454345703e-01) (63, -1.77443778514862060547e+00) (32, -1.39110103249549865723e-01) (33, -1.27591267228126525879e-02) (34, -4.29274708032608032227e-01) (35, -1.79435148835182189941e-01) (36, 8.37376639246940612793e-02) (37, 2.02686011791229248047e-01) (38, -1.26506552100181579590e-01) (39, 1.18045473936945199966e-03) (40, -8.25498104095458984375e-02) (41, -4.24583435058593750000e-01) (42, -2.21169382333755493164e-01) (43, 3.25780928134918212891e-01) (44, 8.07625800371170043945e-02) (45, -5.41874840855598449707e-02) (46, 1.36316150426864624023e-01) (47, 1.38731762766838073730e-01) (48, -4.66437637805938720703e-01) (49, -1.48660466074943542480e-01) (50, -1.36239513754844665527e-01) (51, -2.08007529377937316895e-01) (52, -5.81519789993762969971e-02) (53, 1.71680226922035217285e-01) (54, 2.92812198400497436523e-01) (55, -4.12960678339004516602e-01) (56, -4.65217083692550659180e-01) (57, -2.38743145018815994263e-02) (58, -5.13197965919971466064e-02) (59, -5.12899994850158691406e-01) (60, 3.37763398885726928711e-01) (61, 2.29081064462661743164e-01) (62, -1.28977462649345397949e-01) (63, -2.18628907203674316406e+00) (32, -2.32993185520172119141e-01) (33, -7.45056495070457458496e-02) (34, -1.73874408006668090820e-01) (35, -1.86774611473083496094e-01) (36, 1.00137814879417419434e-02) (37, 1.75150766968727111816e-01) (38, -1.04960866272449493408e-01) (39, 9.38032753765583038330e-03) (40, -1.90615370869636535645e-01) (41, -3.22021961212158203125e-01) (42, -2.28093057870864868164e-01) (43, 1.84088766574859619141e-01) (44, 1.27109989523887634277e-01) (45, -3.30103859305381774902e-02) (46, 4.61504906415939331055e-02) (47, 1.93878233432769775391e-01) (48, -2.86242961883544921875e-01) (49, 2.34096348285675048828e-02) (50, -1.18347696959972381592e-01) (51, -7.41700232028961181641e-02) (52, -1.48869007825851440430e-01) (53, 2.97623008489608764648e-01) (54, 3.51253926753997802734e-01) (55, -3.94564807415008544922e-01) (56, -3.62142801284790039062e-01) (57, -1.08259171247482299805e-02) (58, 8.46276953816413879395e-02) (59, -4.68028634786605834961e-01) (60, 1.66889965534210205078e-01) (61, 1.62823736667633056641e-01) (62, -1.20931923389434814453e-01) (63, -2.16248512268066406250e+00) (32, 1.87535256147384643555e-01) (33, 2.02195301651954650879e-01) (34, 4.88546997308731079102e-01) (35, 8.30137357115745544434e-02) (36, -2.67536133527755737305e-01) (37, -5.09550571441650390625e-01) (38, -6.49923905730247497559e-02) (39, -8.46058689057826995850e-03) (40, 2.98782408237457275391e-01) (41, 1.55907496809959411621e-01) (42, 3.10915201902389526367e-01) (43, -4.52823787927627563477e-01) (44, -2.94185370206832885742e-01) (45, -2.54333704710006713867e-01) (46, -1.62096753716468811035e-01) (47, -8.90024974942207336426e-02) (48, 4.43141967058181762695e-01) (49, 1.62972107529640197754e-01) (50, 3.46845656633377075195e-01) (51, 2.52185344696044921875e-01) (52, 6.84058442711830139160e-02) (53, -2.16825485229492187500e-01) (54, 1.76989033818244934082e-01) (55, 9.91306483745574951172e-01) (56, 4.78322058916091918945e-01) (57, -1.33962482213973999023e-01) (58, -9.15132686495780944824e-02) (59, 4.65545624494552612305e-01) (60, -5.70294223725795745850e-02) (61, -5.73241531848907470703e-01) (62, -5.46122305095195770264e-02) (63, -2.57202740758657455444e-02) (32, -2.28948801755905151367e-01) (33, 6.80624306201934814453e-01) (34, -3.07779982686042785645e-02) (35, 2.36364871263504028320e-01) (36, -4.48936849832534790039e-01) (37, 1.83657839894294738770e-01) (38, -5.33195853233337402344e-01) (39, 1.57995447516441345215e-01) (40, -1.04890906810760498047e+00) (41, 2.02256336808204650879e-01) (42, 3.56122791767120361328e-01) (43, 1.70685499906539916992e-02) (44, -5.39917826652526855469e-01) (45, -2.88749933242797851562e-01) (46, 6.68465137481689453125e-01) (47, -3.10540050268173217773e-01) (48, 2.12476536631584167480e-01) (49, 3.50762516260147094727e-01) (50, 3.83762195706367492676e-02) (51, -1.34071528911590576172e-01) (52, 3.81680995225906372070e-01) (53, -1.48405820131301879883e-01) (54, 3.93863648176193237305e-01) (55, 5.60426950454711914062e-01) (56, 1.99963107705116271973e-01) (57, -6.12404048442840576172e-02) (58, 8.55932354927062988281e-01) (59, 3.62005114555358886719e-01) (60, -4.23202604055404663086e-01) (61, -5.71569263935089111328e-01) (62, 5.97006261348724365234e-01) (63, -2.04105353355407714844e+00) (32, 7.93808400630950927734e-01) (33, -3.05130146443843841553e-03) (34, -3.50739099085330963135e-02) (35, 2.81152904033660888672e-01) (36, 2.99978882074356079102e-01) (37, -8.86503159999847412109e-01) (38, 3.23698222637176513672e-01) (39, 3.62744033336639404297e-01) (40, 5.95675349235534667969e-01) (41, 3.10241073369979858398e-01) (42, 8.81509423255920410156e-01) (43, 2.15006917715072631836e-01) (44, 1.29887685179710388184e-02) (45, 7.11557790637016296387e-02) (46, -6.06256902217864990234e-01) (47, -5.55652976036071777344e-02) (48, -2.16912459582090377808e-02) (49, 5.11539936065673828125e-01) (50, 1.94498345255851745605e-01) (51, 7.52090275287628173828e-01) (52, 3.47392447292804718018e-02) (53, 3.70742976665496826172e-02) (54, -5.89023530483245849609e-01) (55, 8.26155543327331542969e-01) (56, 2.24344283342361450195e-01) (57, 8.89094173908233642578e-02) (58, -3.22157770395278930664e-01) (59, 3.20755243301391601562e-01) (60, -3.11546564102172851562e-01) (61, -6.45526051521301269531e-02) (62, -9.82983559370040893555e-02) (63, 2.55256474018096923828e-01) (32, 3.57957035303115844727e-01) (33, 1.19648799300193786621e-02) (34, 2.18498170375823974609e-01) (35, 1.11293040215969085693e-01) (36, -3.92585545778274536133e-01) (37, -8.23244690895080566406e-01) (38, 1.06166802346706390381e-01) (39, 4.37928318977355957031e-01) (40, 2.90194660425186157227e-01) (41, -3.77926300279796123505e-03) (42, 1.69633299112319946289e-01) (43, -1.76342412829399108887e-01) (44, 2.80756443738937377930e-01) (45, 9.53863382339477539062e-01) (46, 1.39921173453330993652e-01) (47, 4.80383098125457763672e-01) (48, -2.09917187690734863281e-01) (49, 1.25567460060119628906e+00) (50, -1.01882658898830413818e-01) (51, 5.28519630432128906250e-01) (52, -4.70359832048416137695e-01) (53, 9.12736117839813232422e-01) (54, 7.46958851814270019531e-01) (55, 5.34648716449737548828e-01) (56, -2.61036038398742675781e-01) (57, 3.97275567054748535156e-01) (58, 3.11380445957183837891e-01) (59, -1.90918952226638793945e-01) (60, -6.93875074386596679688e-01) (61, -4.74704265594482421875e-01) (62, -4.00605767965316772461e-01) (63, -3.80474269390106201172e-01) (32, 1.31204694509506225586e-01) (33, 2.27210655808448791504e-01) (34, -2.81390964984893798828e-01) (35, 3.12350124120712280273e-01) (36, 1.16867542266845703125e-01) (37, -4.19949054718017578125e-01) (38, -2.43598625063896179199e-01) (39, 5.61102032661437988281e-01) (40, -5.01178681850433349609e-01) (41, 3.83725851774215698242e-01) (42, 1.70875325798988342285e-01) (43, 2.78314203023910522461e-01) (44, 4.66421961784362792969e-01) (45, 6.80686533451080322266e-01) (46, 4.70149189233779907227e-01) (47, 4.29921448230743408203e-01) (48, -7.92122408747673034668e-02) (49, 1.03767490386962890625e+00) (50, -3.43353897333145141602e-01) (51, 2.74394959211349487305e-01) (52, -2.45066240429878234863e-01) (53, 6.58691287040710449219e-01) (54, 2.55749434232711791992e-01) (55, 2.97272741794586181641e-01) (56, -3.36780518293380737305e-01) (57, 4.68856543302536010742e-01) (58, 2.91008621454238891602e-01) (59, -1.14659629762172698975e-01) (60, -7.73655354976654052734e-01) (61, -2.59520351886749267578e-01) (62, 1.27638980746269226074e-01) (63, -1.04634833335876464844e+00) (32, -2.45829243212938308716e-02) (33, -3.84954698383808135986e-02) (34, -4.73174899816513061523e-01) (35, 2.84389466047286987305e-01) (36, 3.32045376300811767578e-01) (37, -1.12268626689910888672e-01) (38, -9.18037630617618560791e-03) (39, -5.97848277539014816284e-03) (40, 1.40027850866317749023e-01) (41, 1.73627197742462158203e-01) (42, 7.80099583789706230164e-03) (43, -5.90673387050628662109e-02) (44, 4.26254212856292724609e-01) (45, 4.10194128751754760742e-01) (46, 1.63743466138839721680e-01) (47, 4.31212723255157470703e-01) (48, 1.43618643283843994141e-01) (49, 6.53572320938110351562e-01) (50, -9.84296873211860656738e-02) (51, 1.56169131398200988770e-01) (52, -2.30007112026214599609e-01) (53, 1.05667924880981445312e+00) (54, -1.63057252764701843262e-01) (55, 6.69314116239547729492e-02) (56, -3.65575462579727172852e-01) (57, 5.77563285827636718750e-01) (58, -2.86698400974273681641e-01) (59, -1.05305299162864685059e-01) (60, -3.39374482631683349609e-01) (61, -9.36888083815574645996e-02) (62, 2.72348988801240921021e-02) (63, -1.53023517131805419922e+00) (32, 7.53001272678375244141e-02) (33, 3.51696133613586425781e-01) (34, 7.09533095359802246094e-01) (35, -9.66627523303031921387e-02) (36, -4.25500929355621337891e-01) (37, -6.53082132339477539062e-01) (38, 5.88414855301380157471e-02) (39, -4.13130410015583038330e-03) (40, 3.39479386806488037109e-01) (41, 1.38718947768211364746e-01) (42, 1.94117411971092224121e-01) (43, -5.54787099361419677734e-01) (44, -3.16097974777221679688e-01) (45, -2.30932503938674926758e-01) (46, -3.00799813121557235718e-02) (47, -7.50983357429504394531e-02) (48, 7.49623119831085205078e-01) (49, 1.83579042553901672363e-01) (50, 4.01264160871505737305e-01) (51, 3.07520061731338500977e-01) (52, 3.07034272700548171997e-02) (53, -3.15940648317337036133e-01) (54, 2.24161580204963684082e-01) (55, 1.37028956413269042969e+00) (56, 7.19528853893280029297e-01) (57, -2.66729563474655151367e-01) (58, -1.10268210992217063904e-02) (59, 6.98123216629028320312e-01) (60, -1.25137507915496826172e-01) (61, -7.55750238895416259766e-01) (62, -1.80948972702026367188e-01) (63, -1.42702415585517883301e-01) (32, 1.92887604236602783203e-01) (33, -2.35736563801765441895e-01) (34, -1.75782248377799987793e-01) (35, -1.21852487325668334961e-01) (36, 3.51946562528610229492e-01) (37, -8.90596985816955566406e-01) (38, 2.68098741769790649414e-01) (39, 2.59537436068058013916e-02) (40, 1.17081522941589355469e+00) (41, -9.37861129641532897949e-02) (42, 2.88679432123899459839e-02) (43, -1.82714134454727172852e-01) (44, 6.66315332055091857910e-02) (45, -6.06520958244800567627e-02) (46, -3.54868620634078979492e-01) (47, 1.27525329589843750000e-01) (48, -1.03031927719712257385e-02) (49, -1.97255555540323257446e-02) (50, 1.71971499919891357422e-01) (51, 9.01386439800262451172e-01) (52, -1.40719681978225708008e-01) (53, 4.51171100139617919922e-01) (54, 3.26979123055934906006e-02) (55, 9.41516757011413574219e-01) (56, 3.48133966326713562012e-02) (57, 1.52456939220428466797e-01) (58, -8.05633544921875000000e-01) (59, -1.15405440330505371094e-01) (60, 3.65587681531906127930e-01) (61, -3.17502677440643310547e-01) (62, -6.61605834960937500000e-01) (63, -1.22808909416198730469e+00) (32, 8.72603803873062133789e-02) (33, 1.96276962757110595703e-01) (34, -2.73875325918197631836e-01) (35, -2.86544352769851684570e-01) (36, 1.72967508435249328613e-01) (37, -2.92956352233886718750e-01) (38, -1.25699654221534729004e-01) (39, 2.69207358360290527344e-01) (40, 4.47831153869628906250e-01) (41, -5.46748936176300048828e-01) (42, -3.15188430249691009521e-02) (43, 4.43755477666854858398e-01) (44, -2.58200496435165405273e-01) (45, -1.05806909501552581787e-01) (46, 1.49468965828418731689e-02) (47, -9.73764657974243164062e-02) (48, -9.98543977737426757812e-01) (49, -2.81588196754455566406e-01) (50, -3.19214075803756713867e-01) (51, 1.04935765266418457031e+00) (52, 3.08541059494018554688e-01) (53, 2.34066694974899291992e-01) (54, 5.12449383735656738281e-01) (55, 7.34147548675537109375e-01) (56, -4.72290396690368652344e-01) (57, -3.66091549396514892578e-01) (58, -3.07057172060012817383e-01) (59, -5.09128510951995849609e-01) (60, 4.19978231191635131836e-01) (61, 5.31578026711940765381e-02) (62, -2.40014880895614624023e-01) (63, -1.42544150352478027344e+00) (32, -9.67802628874778747559e-02) (33, -2.86594688892364501953e-01) (34, -1.28526195883750915527e-01) (35, -3.36186200380325317383e-01) (36, -1.22399352490901947021e-01) (37, -4.60579305887222290039e-01) (38, -5.99355390295386314392e-03) (39, 2.00862854719161987305e-01) (40, 1.24129816889762878418e-01) (41, -3.91592532396316528320e-01) (42, -8.31468105316162109375e-02) (43, 1.75577685236930847168e-01) (44, -3.02123844623565673828e-01) (45, 1.93294763565063476562e-01) (46, -4.04604300856590270996e-02) (47, 5.75120627880096435547e-01) (48, -6.56365633010864257812e-01) (49, -1.98379769921302795410e-01) (50, -1.75716027617454528809e-01) (51, 5.60829758644104003906e-01) (52, -2.58536189794540405273e-01) (53, 7.09977865219116210938e-01) (54, 5.90652287006378173828e-01) (55, 5.43749213218688964844e-01) (56, -5.06804764270782470703e-01) (57, -2.67418384552001953125e-01) (58, -1.07188269495964050293e-01) (59, -5.74036478996276855469e-01) (60, 2.62848645448684692383e-01) (61, 7.63283595442771911621e-02) (62, -4.51934695243835449219e-01) (63, -2.15102052688598632812e+00) 
