FANN_FLO_2.1
num_layers=3
learning_rate=0.699436
connection_rate=1.000000
network_type=0
learning_momentum=0.000000
training_algorithm=0
train_error_function=1
train_stop_function=0
cascade_output_change_fraction=0.010000
quickprop_decay=-0.000100
quickprop_mu=1.750000
rprop_increase_factor=1.200000
rprop_decrease_factor=0.500000
rprop_delta_min=0.000000
rprop_delta_max=50.000000
rprop_delta_zero=0.100000
cascade_output_stagnation_epochs=12
cascade_candidate_change_fraction=0.010000
cascade_candidate_stagnation_epochs=12
cascade_max_out_epochs=150
cascade_min_out_epochs=50
cascade_max_cand_epochs=150
cascade_min_cand_epochs=50
cascade_num_candidate_groups=2
bit_fail_limit=3.49999994039535522461e-01
cascade_candidate_limit=1.00000000000000000000e+03
cascade_weight_multiplier=4.00000005960464477539e-01
cascade_activation_functions_count=10
cascade_activation_functions=3 5 7 8 10 11 14 15 16 17 
cascade_activation_steepnesses_count=41
cascade_activation_steepnesses=0.00000000000000000000e+00 0.00000000000000000000e+00 0.00000000000000000000e+00 1.10000000000000000000e+01 6.08200000000000000000e+03 6.08300000000000000000e+03 6.08400000000000000000e+03 6.08500000000000000000e+03 6.08600000000000000000e+03 6.08700000000000000000e+03 6.08800000000000000000e+03 6.08900000000000000000e+03 6.09000000000000000000e+03 6.09100000000000000000e+03 6.09200000000000000000e+03 0.00000000000000000000e+00 0.00000000000000000000e+00 2.20000000000000000000e+01 1.07629000000000000000e+06 1.07629100000000000000e+06 1.07629200000000000000e+06 1.07629300000000000000e+06 1.07629400000000000000e+06 1.07629500000000000000e+06 1.07629600000000000000e+06 1.07629700000000000000e+06 1.07629800000000000000e+06 1.07629900000000000000e+06 1.07630000000000000000e+06 1.07667400000000000000e+06 1.07667500000000000000e+06 1.07667600000000000000e+06 1.07667700000000000000e+06 1.07667800000000000000e+06 1.07667900000000000000e+06 1.07668000000000000000e+06 1.07668100000000000000e+06 1.07668200000000000000e+06 1.07668300000000000000e+06 1.07668400000000000000e+06 0.00000000000000000000e+00 
layer_sizes=34 34 34 
scale_included=0
neurons (num_inputs, activation_function, activation_steepness)=(0, 0, 0.00000000000000000000e+00) (0, 0, 0.00000000000000000000e+00) (0, 0, 0.00000000000000000000e+00) (0, 0, 0.00000000000000000000e+00) (0, 0, 0.00000000000000000000e+00) (0, 0, 0.00000000000000000000e+00) (0, 0, 0.00000000000000000000e+00) (0, 0, 0.00000000000000000000e+00) (0, 0, 0.00000000000000000000e+00) (0, 0, 0.00000000000000000000e+00) (0, 0, 0.00000000000000000000e+00) (0, 0, 0.00000000000000000000e+00) (0, 0, 0.00000000000000000000e+00) (0, 0, 0.00000000000000000000e+00) (0, 0, 0.00000000000000000000e+00) (0, 0, 0.00000000000000000000e+00) (0, 0, 0.00000000000000000000e+00) (0, 0, 0.00000000000000000000e+00) (0, 0, 0.00000000000000000000e+00) (0, 0, 0.00000000000000000000e+00) (0, 0, 0.00000000000000000000e+00) (0, 0, 0.00000000000000000000e+00) (0, 0, 0.00000000000000000000e+00) (0, 0, 0.00000000000000000000e+00) (0, 0, 0.00000000000000000000e+00) (0, 0, 0.00000000000000000000e+00) (0, 0, 0.00000000000000000000e+00) (0, 0, 0.00000000000000000000e+00) (0, 0, 0.00000000000000000000e+00) (0, 0, 0.00000000000000000000e+00) (0, 0, 0.00000000000000000000e+00) (0, 0, 0.00000000000000000000e+00) (0, 0, 0.00000000000000000000e+00) (0, 0, 0.00000000000000000000e+00) (34, 5, 5.00000000000000000000e-01) (34, 5, 5.00000000000000000000e-01) (34, 5, 5.00000000000000000000e-01) (34, 5, 5.00000000000000000000e-01) (34, 5, 5.00000000000000000000e-01) (34, 5, 5.00000000000000000000e-01) (34, 5, 5.00000000000000000000e-01) (34, 5, 5.00000000000000000000e-01) (34, 5, 5.00000000000000000000e-01) (34, 5, 5.00000000000000000000e-01) (34, 5, 5.00000000000000000000e-01) (34, 5, 5.00000000000000000000e-01) (34, 5, 5.00000000000000000000e-01) (34, 5, 5.00000000000000000000e-01) (34, 5, 5.00000000000000000000e-01) (34, 5, 5.00000000000000000000e-01) (34, 5, 5.00000000000000000000e-01) (34, 5, 5.00000000000000000000e-01) (34, 5, 5.00000000000000000000e-01) (34, 5, 5.00000000000000000000e-01) (34, 5, 5.00000000000000000000e-01) (34, 5, 5.00000000000000000000e-01) (34, 5, 5.00000000000000000000e-01) (34, 5, 5.00000000000000000000e-01) (34, 5, 5.00000000000000000000e-01) (34, 5, 5.00000000000000000000e-01) (34, 5, 5.00000000000000000000e-01) (34, 5, 5.00000000000000000000e-01) (34, 5, 5.00000000000000000000e-01) (34, 5, 5.00000000000000000000e-01) (34, 5, 5.00000000000000000000e-01) (34, 5, 5.00000000000000000000e-01) (34, 5, 5.00000000000000000000e-01) (0, 5, 0.00000000000000000000e+00) (34, 3, 5.00000000000000000000e-01) (34, 3, 5.00000000000000000000e-01) (34, 3, 5.00000000000000000000e-01) (34, 3, 5.00000000000000000000e-01) (34, 3, 5.00000000000000000000e-01) (34, 3, 5.00000000000000000000e-01) (34, 3, 5.00000000000000000000e-01) (34, 3, 5.00000000000000000000e-01) (34, 3, 5.00000000000000000000e-01) (34, 3, 5.00000000000000000000e-01) (34, 3, 5.00000000000000000000e-01) (34, 3, 5.00000000000000000000e-01) (34, 3, 5.00000000000000000000e-01) (34, 3, 5.00000000000000000000e-01) (34, 3, 5.00000000000000000000e-01) (34, 3, 5.00000000000000000000e-01) (34, 3, 5.00000000000000000000e-01) (34, 3, 5.00000000000000000000e-01) (34, 3, 5.00000000000000000000e-01) (34, 3, 5.00000000000000000000e-01) (34, 3, 5.00000000000000000000e-01) (34, 3, 5.00000000000000000000e-01) (34, 3, 5.00000000000000000000e-01) (34, 3, 5.00000000000000000000e-01) (34, 3, 5.00000000000000000000e-01) (34, 3, 5.00000000000000000000e-01) (34, 3, 5.00000000000000000000e-01) (34, 3, 5.00000000000000000000e-01) (34, 3, 5.00000000000000000000e-01) (34, 3, 5.00000000000000000000e-01) (34, 3, 5.00000000000000000000e-01) (34, 3, 5.00000000000000000000e-01) (34, 3, 5.00000000000000000000e-01) (0, 3, 0.00000000000000000000e+00) 
connections (connected_to_neuron, weight)=(0, 1.35252189636230468750e+00) (1, 2.45594009757041931152e-01) (2, -9.36317443847656250000e-02) (3, -1.04871380329132080078e+00) (4, -8.46494555473327636719e-01) (5, -3.55329886078834533691e-02) (6, 4.01986896991729736328e-01) (7, 2.52424836158752441406e-01) (8, -4.28901106119155883789e-01) (9, -2.67694499343633651733e-02) (10, 1.56813129782676696777e-01) (11, 1.32101511955261230469e+00) (12, 2.82256186008453369141e-01) (13, -2.16827705502510070801e-01) (14, -1.02078270912170410156e+00) (15, -8.28499436378479003906e-01) (16, -1.50401026010513305664e-01) (17, 3.16970825195312500000e-01) (18, 2.00025007128715515137e-01) (19, -3.04262369871139526367e-01) (20, 6.74062408506870269775e-03) (21, 1.33324369788169860840e-01) (22, 5.28967045247554779053e-02) (23, -2.73770391941070556641e-02) (24, 9.77755617350339889526e-03) (25, 1.20068944990634918213e-01) (26, -3.05834636092185974121e-02) (27, 6.12897165119647979736e-02) (28, -8.86836871504783630371e-02) (29, 1.33595034480094909668e-01) (30, -1.75380893051624298096e-02) (31, -3.27625498175621032715e-02) (32, 8.80497843027114868164e-02) (33, 1.14545203745365142822e-01) (0, 1.35604459792375564575e-02) (1, -1.27009734511375427246e-01) (2, -1.43304429948329925537e-02) (3, 7.79027998447418212891e-01) (4, 1.89236417412757873535e-01) (5, 5.59217691421508789062e-01) (6, 4.43395435810089111328e-01) (7, -3.58202457427978515625e-02) (8, -6.36436939239501953125e-02) (9, -1.43663734197616577148e-01) (10, -2.17341482639312744141e-01) (11, 1.44988581538200378418e-01) (12, -4.74154353141784667969e-02) (13, -5.44995442032814025879e-03) (14, 8.25439989566802978516e-01) (15, 2.16430932283401489258e-01) (16, 4.92736935615539550781e-01) (17, 3.23317587375640869141e-01) (18, -3.21145057678222656250e-02) (19, -1.38378798961639404297e-01) (20, -4.54988032579421997070e-02) (21, -2.33946502208709716797e-01) (22, 8.95418450236320495605e-02) (23, 5.39671666920185089111e-02) (24, -2.24111348390579223633e-01) (25, -3.00906121730804443359e-01) (26, -1.77465274930000305176e-01) (27, -3.14831733703613281250e-03) (28, -9.51676368713378906250e-02) (29, -1.89415499567985534668e-01) (30, -1.95692822337150573730e-01) (31, -2.82042056322097778320e-01) (32, 6.98032528162002563477e-02) (33, -2.82629042863845825195e-01) (0, -4.11579430103302001953e-01) (1, -6.99127078056335449219e-01) (2, -2.19909399747848510742e-02) (3, 3.09045135974884033203e-01) (4, 4.66198623180389404297e-01) (5, 3.84048111736774444580e-02) (6, -2.75986254215240478516e-01) (7, -1.63759440183639526367e-02) (8, 7.07289129495620727539e-02) (9, 1.20263449847698211670e-01) (10, -1.10842004418373107910e-01) (11, -5.42305409908294677734e-01) (12, -6.89876317977905273438e-01) (13, -7.23666250705718994141e-02) (14, 2.58241176605224609375e-01) (15, 4.79155123233795166016e-01) (16, 1.13293975591659545898e-01) (17, -2.28625267744064331055e-01) (18, -2.00244188308715820312e-02) (19, 1.88841998577117919922e-01) (20, -1.54571114107966423035e-02) (21, 1.78785920143127441406e-02) (22, 6.15553855895996093750e-02) (23, 4.04379852116107940674e-02) (24, -8.21605324745178222656e-04) (25, 8.14139693975448608398e-02) (26, -3.21870334446430206299e-02) (27, 9.02236923575401306152e-02) (28, 8.61099511384963989258e-02) (29, -6.23837895691394805908e-02) (30, -5.22752292454242706299e-02) (31, 7.10292309522628784180e-02) (32, 3.67746241390705108643e-02) (33, -6.07171989977359771729e-02) (0, -6.63339495658874511719e-01) (1, -7.63682305812835693359e-01) (2, -1.23858898878097534180e-02) (3, 5.64053893089294433594e-01) (4, 6.39767646789550781250e-01) (5, 5.51244676113128662109e-01) (6, -2.40784347057342529297e-01) (7, -3.15758846700191497803e-02) (8, 2.93523102998733520508e-01) (9, -1.54750496149063110352e-01) (10, -1.95640012621879577637e-01) (11, -6.70635342597961425781e-01) (12, -8.76229822635650634766e-01) (13, 6.84073045849800109863e-02) (14, 6.04118883609771728516e-01) (15, 7.23571717739105224609e-01) (16, 5.50150930881500244141e-01) (17, -1.36439844965934753418e-01) (18, -1.90512202680110931396e-02) (19, 2.14817717671394348145e-01) (20, -3.34033854305744171143e-02) (21, -3.73824499547481536865e-02) (22, -1.28065766766667366028e-02) (23, 8.54045376181602478027e-02) (24, 3.56230996549129486084e-02) (25, -6.69523775577545166016e-02) (26, -1.32261186838150024414e-01) (27, -9.14225280284881591797e-02) (28, -7.06935748457908630371e-02) (29, 4.51343879103660583496e-03) (30, -1.10184639692306518555e-01) (31, 1.02156065404415130615e-02) (32, -3.81284467875957489014e-02) (33, -4.01673577725887298584e-02) (0, 5.26545345783233642578e-01) (1, -3.98637622594833374023e-01) (2, -7.41616357117891311646e-03) (3, 8.62802386283874511719e-01) (4, 1.22053593397140502930e-01) (5, -5.16767323017120361328e-01) (6, -3.89413982629776000977e-02) (7, -2.84097880125045776367e-01) (8, -1.76926299929618835449e-01) (9, 1.05754368007183074951e-01) (10, -1.02290734648704528809e-01) (11, 6.37694120407104492188e-01) (12, -3.86597245931625366211e-01) (13, 5.08582405745983123779e-02) (14, 8.78295540809631347656e-01) (15, -5.33813834190368652344e-02) (16, -5.37198424339294433594e-01) (17, -1.02101020514965057373e-01) (18, -1.01275242865085601807e-01) (19, -2.40329019725322723389e-02) (20, 2.34443470835685729980e-02) (21, 5.78577071428298950195e-02) (22, -5.22482134401798248291e-02) (23, 1.57924648374319076538e-02) (24, 1.76764465868473052979e-03) (25, -9.70990508794784545898e-02) (26, -1.13595589995384216309e-01) (27, -9.40039902925491333008e-02) (28, -7.24704191088676452637e-02) (29, -5.17241172492504119873e-02) (30, -2.03303582966327667236e-02) (31, -6.01806342601776123047e-02) (32, -8.52968469262123107910e-02) (33, -1.80223032832145690918e-01) (0, 3.39847445487976074219e-01) (1, 3.95452171564102172852e-01) (2, 1.85939073562622070312e-01) (3, 6.19977302849292755127e-02) (4, -1.52679890394210815430e-01) (5, -4.61415529251098632812e-01) (6, -1.98658734560012817383e-01) (7, -2.89592713117599487305e-01) (8, 5.08131682872772216797e-02) (9, 1.29542455077171325684e-01) (10, 1.56126484274864196777e-01) (11, 4.30202782154083251953e-01) (12, 3.73544454574584960938e-01) (13, 8.17519426345825195312e-02) (14, 8.91934260725975036621e-02) (15, 8.23499634861946105957e-03) (16, -6.12709343433380126953e-01) (17, -2.53773123025894165039e-01) (18, -1.68529391288757324219e-01) (19, -5.03246486186981201172e-02) (20, 8.59102010726928710938e-02) (21, 8.66654068231582641602e-02) (22, 6.47591575980186462402e-02) (23, 8.51597562432289123535e-02) (24, 2.24188566207885742188e-02) (25, 9.99269038438796997070e-02) (26, 1.52311176061630249023e-02) (27, -3.13923731446266174316e-02) (28, 6.26542558893561363220e-03) (29, 2.99342870712280273438e-02) (30, 3.82476598024368286133e-02) (31, 1.02162674069404602051e-01) (32, 1.82475689798593521118e-02) (33, -2.81522572040557861328e-02) (0, -2.48452916741371154785e-01) (1, -7.28714108467102050781e-01) (2, 1.01008497178554534912e-01) (3, 5.36546587944030761719e-01) (4, -1.04317605495452880859e-01) (5, -1.26469597220420837402e-01) (6, -5.62640428543090820312e-02) (7, 1.23518984764814376831e-02) (8, 9.88051518797874450684e-02) (9, 9.13464650511741638184e-03) (10, 6.59370869398117065430e-02) (11, -1.56788334250450134277e-01) (12, -8.11516225337982177734e-01) (13, 2.78052911162376403809e-02) (14, 5.73096930980682373047e-01) (15, -6.60563334822654724121e-02) (16, -1.00810594856739044189e-01) (17, -6.33459985256195068359e-02) (18, -1.88479684293270111084e-02) (19, 1.10608898103237152100e-01) (20, 1.31687019020318984985e-02) (21, 8.40171724557876586914e-02) (22, -3.69140915572643280029e-02) (23, 8.61576348543167114258e-02) (24, 2.49175354838371276855e-03) (25, 1.06767468154430389404e-01) (26, 4.58698719739913940430e-02) (27, 9.56851392984390258789e-02) (28, 6.38758093118667602539e-02) (29, -3.58825959265232086182e-02) (30, 3.33986282348632812500e-02) (31, -3.03715504705905914307e-02) (32, 4.95462901890277862549e-02) (33, 1.62152662873268127441e-01) (0, 5.72675585746765136719e-01) (1, 1.04338377714157104492e-01) (2, -6.34935945272445678711e-02) (3, -3.89761805534362792969e-01) (4, 5.32339215278625488281e-01) (5, -3.59927535057067871094e-01) (6, -2.57248699665069580078e-01) (7, 2.64269299805164337158e-02) (8, -1.55583068728446960449e-01) (9, 1.56348496675491333008e-02) (10, 1.33269071578979492188e-01) (11, 4.63909983634948730469e-01) (12, 1.72582596540451049805e-01) (13, -3.15575338900089263916e-02) (14, -3.05609345436096191406e-01) (15, 3.69383662939071655273e-01) (16, -3.16187739372253417969e-01) (17, -3.69062185287475585938e-01) (18, -1.18448629975318908691e-01) (19, -2.08758503198623657227e-01) (20, -1.50063931941986083984e-01) (21, 3.51320169866085052490e-02) (22, -9.69276726245880126953e-02) (23, 2.22842097282409667969e-02) (24, -5.99924847483634948730e-02) (25, 1.56076215207576751709e-02) (26, -2.35498324036598205566e-03) (27, 8.73305574059486389160e-02) (28, 9.91604700684547424316e-02) (29, -5.28087206184864044189e-02) (30, 2.35128663480281829834e-02) (31, 1.22888050973415374756e-02) (32, 8.27195197343826293945e-02) (33, -1.87498778104782104492e-01) (0, -3.05272549390792846680e-01) (1, 4.01239320635795593262e-02) (2, -2.49883159995079040527e-04) (3, -1.84286832809448242188e-01) (4, -1.60915434360504150391e-01) (5, 5.43317757546901702881e-02) (6, 8.00212472677230834961e-02) (7, 1.44324973225593566895e-01) (8, -9.66998487710952758789e-02) (9, -2.67471075057983398438e-02) (10, -1.62229597568511962891e-01) (11, -2.72499233484268188477e-01) (12, -5.51867112517356872559e-03) (13, -1.50370284914970397949e-01) (14, -2.63327002525329589844e-01) (15, -1.51433587074279785156e-01) (16, 5.10359667241573333740e-02) (17, 3.52822542190551757812e-02) (18, 5.56698106229305267334e-02) (19, -1.52626633644104003906e-01) (20, -1.01633816957473754883e-01) (21, -5.93746304512023925781e-02) (22, -7.67284035682678222656e-02) (23, 7.41314068436622619629e-02) (24, -2.82179057598114013672e-01) (25, -3.98827552795410156250e-01) (26, -3.48596483469009399414e-01) (27, 1.39339445158839225769e-02) (28, 8.60613957047462463379e-02) (29, -3.65876942873001098633e-01) (30, -2.64570415019989013672e-01) (31, -4.06613260507583618164e-01) (32, -6.48228600621223449707e-02) (33, -2.14184343814849853516e-01) (0, 3.28845456242561340332e-02) (1, 9.01846230030059814453e-01) (2, 1.69528588652610778809e-01) (3, 1.36209332942962646484e+00) (4, 3.44767749309539794922e-01) (5, 4.24817532300949096680e-01) (6, 4.23344343900680541992e-01) (7, 9.80421751737594604492e-02) (8, 4.34332340955734252930e-02) (9, 6.06812536716461181641e-03) (10, -4.08848494291305541992e-01) (11, -1.04306839406490325928e-01) (12, 8.40653836727142333984e-01) (13, 4.78098094463348388672e-02) (14, 1.38016307353973388672e+00) (15, 3.94920229911804199219e-01) (16, 4.47172015905380249023e-01) (17, 5.66527307033538818359e-01) (18, 5.10495901107788085938e-02) (19, 2.77009513229131698608e-02) (20, -1.07693523168563842773e-02) (21, -3.36290627717971801758e-01) (22, 6.31949678063392639160e-02) (23, -7.96713903546333312988e-02) (24, -2.00584262609481811523e-01) (25, -2.45736330747604370117e-01) (26, -3.19281488656997680664e-01) (27, 5.10976798832416534424e-02) (28, 6.39028176665306091309e-02) (29, -2.84104198217391967773e-01) (30, -3.17555457353591918945e-01) (31, -2.48372048139572143555e-01) (32, 1.32286548614501953125e-03) (33, -4.14778143167495727539e-01) (0, -1.95873156189918518066e-01) (1, 5.82034587860107421875e-02) (2, 5.77402487397193908691e-02) (3, -7.40699887275695800781e-01) (4, -3.20705831050872802734e-01) (5, 2.35853239893913269043e-01) (6, -5.79027943313121795654e-02) (7, 2.13684178888797760010e-02) (8, 1.07365861535072326660e-01) (9, -2.03752309083938598633e-01) (10, -5.73166087269783020020e-03) (11, -1.66941776871681213379e-01) (12, 2.08068266510963439941e-01) (13, -8.19438695907592773438e-02) (14, -7.68585681915283203125e-01) (15, -2.17833638191223144531e-01) (16, 2.80436784029006958008e-01) (17, -1.02626040577888488770e-01) (18, -3.20148095488548278809e-03) (19, 6.96179568767547607422e-02) (20, -1.57388955354690551758e-01) (21, -9.70608592033386230469e-02) (22, -3.10090724378824234009e-02) (23, 2.31099613010883331299e-02) (24, -6.94122761487960815430e-02) (25, -1.94572329521179199219e-01) (26, -1.93467676639556884766e-01) (27, -6.45087435841560363770e-02) (28, 7.95144364237785339355e-02) (29, -9.21448171138763427734e-02) (30, -1.31650865077972412109e-01) (31, -1.71012461185455322266e-01) (32, 7.61356875300407409668e-02) (33, -2.75978855788707733154e-02) (0, 7.71804273128509521484e-01) (1, 2.51648306846618652344e-01) (2, 2.15663500130176544189e-02) (3, 1.94971635937690734863e-01) (4, -9.47190076112747192383e-02) (5, 5.17179429531097412109e-01) (6, 9.56616327166557312012e-02) (7, -1.03798080235719680786e-02) (8, -2.10200279951095581055e-01) (9, -2.50432848930358886719e-01) (10, -1.75355020910501480103e-02) (11, 7.14050054550170898438e-01) (12, 4.05636429786682128906e-01) (13, -2.86098755896091461182e-02) (14, 2.92494267225265502930e-01) (15, 3.46992760896682739258e-02) (16, 4.29255425930023193359e-01) (17, 2.39547565579414367676e-01) (18, 2.77092810720205307007e-02) (19, -1.35004028677940368652e-01) (20, -1.74116045236587524414e-01) (21, -3.71692404150962829590e-02) (22, 3.46751920878887176514e-02) (23, 3.75668294727802276611e-02) (24, -1.17620065808296203613e-01) (25, -1.75804316997528076172e-01) (26, -2.17105776071548461914e-01) (27, -3.18108685314655303955e-02) (28, 7.06432685256004333496e-02) (29, -2.40970119833946228027e-01) (30, -1.70528754591941833496e-01) (31, -1.55606701970100402832e-01) (32, -4.56395633518695831299e-02) (33, -1.86000436544418334961e-01) (0, -6.54121637344360351562e-02) (1, -2.40571089088916778564e-02) (2, -2.31925323605537414551e-01) (3, -3.99351298809051513672e-01) (4, -3.99760663509368896484e-01) (5, -1.87410805374383926392e-02) (6, -4.78454083204269409180e-02) (7, 1.90013721585273742676e-01) (8, -1.32370755076408386230e-01) (9, 6.97650164365768432617e-02) (10, -2.02761188149452209473e-01) (11, -1.66289731860160827637e-01) (12, 4.40739989280700683594e-02) (13, -9.54202041029930114746e-02) (14, -3.56342881917953491211e-01) (15, -2.93540567159652709961e-01) (16, -7.03970575705170631409e-03) (17, 7.14797377586364746094e-02) (18, 7.66001567244529724121e-02) (19, -9.19840261340141296387e-02) (20, -3.26677672564983367920e-02) (21, -2.56856799125671386719e-01) (22, -9.43661388009786605835e-03) (23, 6.35285601019859313965e-02) (24, -3.12435030937194824219e-01) (25, -3.72448503971099853516e-01) (26, -4.21102702617645263672e-01) (27, -5.93146793544292449951e-02) (28, 9.55938845872879028320e-02) (29, -3.66742372512817382812e-01) (30, -3.10272455215454101562e-01) (31, -2.68136858940124511719e-01) (32, 6.37274906039237976074e-02) (33, -2.61834204196929931641e-01) (0, -3.45763638615608215332e-02) (1, 3.68270315229892730713e-02) (2, 5.55345714092254638672e-02) (3, 1.04876860976219177246e-01) (4, 3.20556223392486572266e-01) (5, 7.71474123001098632812e-01) (6, 4.38980519771575927734e-01) (7, -8.68155658245086669922e-02) (8, -4.78546284139156341553e-02) (9, 4.10095527768135070801e-02) (10, -2.61793762445449829102e-01) (11, -1.95260584354400634766e-01) (12, 1.43102243542671203613e-01) (13, -1.71625949442386627197e-02) (14, 2.63517707586288452148e-01) (15, 3.13417911529541015625e-01) (16, 7.39163756370544433594e-01) (17, 2.95188605785369873047e-01) (18, -1.48049518465995788574e-01) (19, -5.86484335362911224365e-02) (20, -1.04199513792991638184e-01) (21, -1.41724705696105957031e-01) (22, -8.77615213394165039062e-02) (23, -6.88741728663444519043e-02) (24, -2.80672729015350341797e-01) (25, -2.75990843772888183594e-01) (26, -1.85784578323364257812e-01) (27, 2.65331622213125228882e-02) (28, 7.33506605029106140137e-02) (29, -2.22057074308395385742e-01) (30, -2.30495423078536987305e-01) (31, -1.38457477092742919922e-01) (32, -3.69520746171474456787e-02) (33, -2.15828090906143188477e-01) (0, -5.48924624919891357422e-01) (1, -7.72211015224456787109e-01) (2, -1.60816192626953125000e-01) (3, 5.04765808582305908203e-01) (4, 1.89792484045028686523e-01) (5, 3.48465561866760253906e-01) (6, 1.05417080223560333252e-01) (7, 4.66707572340965270996e-02) (8, 7.68406465649604797363e-02) (9, -1.19485825300216674805e-01) (10, -4.04898300766944885254e-02) (11, -6.59594416618347167969e-01) (12, -8.21091592311859130859e-01) (13, -1.15876123309135437012e-01) (14, 4.50304031372070312500e-01) (15, 7.96778947114944458008e-02) (16, 3.82611811161041259766e-01) (17, 1.05746217072010040283e-01) (18, 5.66251948475837707520e-02) (19, 1.11894510686397552490e-01) (20, 4.41214069724082946777e-03) (21, -1.11479572951793670654e-01) (22, 1.89412124454975128174e-02) (23, -5.67577555775642395020e-02) (24, 1.02257303893566131592e-01) (25, 5.16356676816940307617e-02) (26, 6.43521919846534729004e-02) (27, 9.62413325905799865723e-02) (28, -6.23423680663108825684e-02) (29, 1.27400100231170654297e-01) (30, -3.42952236533164978027e-02) (31, 1.48130744695663452148e-01) (32, -7.35433474183082580566e-02) (33, 9.62579026818275451660e-02) (0, 1.00996148586273193359e+00) (1, 2.48201742768287658691e-01) (2, 3.91741134226322174072e-02) (3, 1.77197843790054321289e-01) (4, -2.41001248359680175781e-01) (5, -9.09469842910766601562e-01) (6, -3.54800879955291748047e-01) (7, -1.31551012396812438965e-01) (8, -2.12079182267189025879e-01) (9, 4.79877144098281860352e-02) (10, 1.61921292543411254883e-01) (11, 1.05721080303192138672e+00) (12, 1.94957390427589416504e-01) (13, -1.01190172135829925537e-02) (14, 2.24776238203048706055e-01) (15, -2.84291118383407592773e-01) (16, -9.23709154129028320312e-01) (17, -3.83324444293975830078e-01) (18, -4.58307042717933654785e-02) (19, -1.47836640477180480957e-01) (20, 5.31866699457168579102e-02) (21, 2.42716655135154724121e-01) (22, -5.29675967991352081299e-02) (23, 9.35343056917190551758e-02) (24, 8.92982482910156250000e-02) (25, 7.11315423250198364258e-02) (26, 1.48032099008560180664e-01) (27, 9.21773910522460937500e-03) (28, -2.65229996293783187866e-02) (29, 1.74488782882690429688e-01) (30, 4.91871498525142669678e-03) (31, -1.32844783365726470947e-03) (32, 7.53832831978797912598e-02) (33, 1.35548532009124755859e-01) (0, -8.54596376419067382812e-01) (1, 1.37148007750511169434e-01) (2, -3.32804583013057708740e-02) (3, -2.16063275933265686035e-01) (4, 2.04203143715858459473e-01) (5, -1.58506229519844055176e-01) (6, -2.70739734172821044922e-01) (7, 2.71188784390687942505e-02) (8, 1.76638454198837280273e-01) (9, 1.19733504951000213623e-01) (10, 1.26454532146453857422e-01) (11, -9.00248289108276367188e-01) (12, 7.44323953986167907715e-02) (13, -4.54937480390071868896e-02) (14, -2.90238797664642333984e-01) (15, 2.27207913994789123535e-01) (16, -1.06477037072181701660e-01) (17, -1.39716148376464843750e-01) (18, 1.30918994545936584473e-01) (19, 8.96976962685585021973e-02) (20, 1.10199645161628723145e-01) (21, 8.42089392244815826416e-03) (22, 1.67490970343351364136e-02) (23, 8.01438093185424804688e-03) (24, 1.71620875597000122070e-01) (25, 1.76176041364669799805e-01) (26, 8.20115879178047180176e-02) (27, -9.58518609404563903809e-02) (28, -9.75438430905342102051e-02) (29, 5.73948621749877929688e-02) (30, 1.82558894157409667969e-01) (31, 5.31378090381622314453e-02) (32, -6.25603422522544860840e-02) (33, -3.04099321365356445312e-02) (0, 2.19596683979034423828e-01) (1, -1.45731121301651000977e-01) (2, 4.85960431396961212158e-02) (3, 3.32991927862167358398e-01) (4, 1.67663410305976867676e-01) (5, -2.33908012509346008301e-01) (6, -2.53160614520311355591e-02) (7, 2.93029099702835083008e-02) (8, -4.82410192489624023438e-02) (9, 9.85359698534011840820e-02) (10, 1.15235157310962677002e-01) (11, 3.88418823480606079102e-01) (12, -7.33364224433898925781e-02) (13, 3.75019945204257965088e-02) (14, 4.32837456464767456055e-01) (15, 1.43858209252357482910e-01) (16, -1.31942778825759887695e-01) (17, -1.35004222393035888672e-01) (18, -1.12535856664180755615e-01) (19, -4.86065745353698730469e-02) (20, 1.93583011627197265625e-01) (21, 1.28781139850616455078e-01) (22, 4.60624687548261135817e-05) (23, -2.20616944134235382080e-02) (24, 2.42516577243804931641e-01) (25, 1.51339650154113769531e-01) (26, 1.98220610618591308594e-01) (27, 9.02882814407348632812e-02) (28, 6.96901082992553710938e-02) (29, 2.35660165548324584961e-01) (30, 7.82340764999389648438e-02) (31, 2.24254339933395385742e-01) (32, -3.17611880600452423096e-02) (33, -5.71419298648834228516e-02) (0, -7.47561693191528320312e-01) (1, -6.40312254428863525391e-01) (2, 2.68959611654281616211e-01) (3, 8.48774552345275878906e-01) (4, -7.79079049825668334961e-02) (5, -6.12422168254852294922e-01) (6, 1.12451836466789245605e-02) (7, -1.26457020640373229980e-01) (8, 2.18451648950576782227e-01) (9, 8.37282091379165649414e-02) (10, 1.71078443527221679688e-02) (11, -6.45790338516235351562e-01) (12, -5.05155920982360839844e-01) (13, 2.71569341421127319336e-01) (14, 8.40857744216918945312e-01) (15, -8.45902115106582641602e-02) (16, -6.10178053379058837891e-01) (17, 9.83753651380538940430e-02) (18, -1.19593277573585510254e-01) (19, 1.46192938089370727539e-01) (20, 9.49860662221908569336e-02) (21, 5.66390827298164367676e-02) (22, -9.24138799309730529785e-02) (23, 8.78416076302528381348e-02) (24, 1.39395684003829956055e-01) (25, 1.84705421328544616699e-01) (26, 1.82093724608421325684e-01) (27, 6.13631978631019592285e-02) (28, 5.26932254433631896973e-02) (29, 5.03325164318084716797e-02) (30, 1.70294880867004394531e-01) (31, 1.63132250308990478516e-01) (32, -3.76456193625926971436e-02) (33, 9.83362197875976562500e-02) (0, 6.66147410869598388672e-01) (1, 5.91423809528350830078e-02) (2, -2.31572106480598449707e-01) (3, -2.75533914566040039062e-01) (4, 2.50818610191345214844e-01) (5, 7.82219991087913513184e-02) (6, -7.94356763362884521484e-02) (7, -4.54534217715263366699e-03) (8, -1.81083589792251586914e-01) (9, -1.11145786941051483154e-02) (10, 9.40337777137756347656e-03) (11, 6.42918825149536132812e-01) (12, 1.87566876411437988281e-01) (13, -1.18797138333320617676e-01) (14, -2.11632311344146728516e-01) (15, 1.86106860637664794922e-01) (16, 1.18738166987895965576e-01) (17, -4.27623465657234191895e-03) (18, -2.97258757054805755615e-02) (19, -2.37762421369552612305e-01) (20, -1.02721072733402252197e-01) (21, 2.09714770317077636719e-02) (22, -3.90113182365894317627e-02) (23, -1.94807779043912887573e-02) (24, -6.83492049574851989746e-02) (25, -1.93603187799453735352e-01) (26, -8.38625654578208923340e-02) (27, 1.80159811861813068390e-03) (28, 6.93849697709083557129e-02) (29, -2.15081796050071716309e-02) (30, -5.00096678733825683594e-02) (31, -9.56367999315261840820e-02) (32, -8.67186114192008972168e-02) (33, -1.97284907102584838867e-01) (0, 9.67768967151641845703e-01) (1, -6.75893872976303100586e-02) (2, -1.12280875444412231445e-01) (3, -1.41161307692527770996e-03) (4, -2.29448676109313964844e-01) (5, 8.25650058686733245850e-03) (6, -2.21794605255126953125e-01) (7, -1.77169814705848693848e-01) (8, 7.73395001888275146484e-02) (9, 1.19935303926467895508e-01) (10, 1.84075281023979187012e-01) (11, 1.03060102462768554688e+00) (12, -2.22037181258201599121e-01) (13, -9.75528359413146972656e-02) (14, -6.34198784828186035156e-02) (15, -2.09077000617980957031e-01) (16, -3.36942933499813079834e-02) (17, -3.75409275293350219727e-01) (18, -1.45229980349540710449e-01) (19, -2.26573478430509567261e-02) (20, 9.09108072519302368164e-02) (21, 1.83908566832542419434e-01) (22, -7.57358446717262268066e-02) (23, -8.20565521717071533203e-02) (24, 7.93182551860809326172e-02) (25, 1.81577697396278381348e-01) (26, -8.35098139941692352295e-03) (27, -5.13349175453186035156e-02) (28, 5.29744615778326988220e-03) (29, 4.93040494620800018311e-03) (30, 5.21366074681282043457e-02) (31, 2.05275919288396835327e-02) (32, 9.89228263497352600098e-02) (33, 3.49947139620780944824e-02) (0, -1.51620662212371826172e+00) (1, -6.73051238059997558594e-01) (2, 8.42606052756309509277e-02) (3, 2.66437560319900512695e-01) (4, -8.27648639678955078125e-02) (5, 3.00914704799652099609e-01) (6, 1.62947952747344970703e-01) (7, 1.32451787590980529785e-01) (8, 1.97601422667503356934e-01) (9, 8.47713202238082885742e-02) (10, -2.74739600718021392822e-02) (11, -1.40319573879241943359e+00) (12, -5.30213236808776855469e-01) (13, 5.29275760054588317871e-02) (14, 2.25833937525749206543e-01) (15, -1.07987046241760253906e-01) (16, 3.69584739208221435547e-01) (17, 9.33199077844619750977e-02) (18, 1.07062898576259613037e-01) (19, 3.00401866436004638672e-01) (20, 5.61343133449554443359e-03) (21, -2.73543037474155426025e-02) (22, 4.06789779663085937500e-03) (23, -5.40483370423316955566e-02) (24, 2.25725337862968444824e-01) (25, 6.03271126747131347656e-02) (26, 1.13915182650089263916e-01) (27, -6.10284954309463500977e-02) (28, -5.80356977880001068115e-02) (29, 1.12838037312030792236e-01) (30, 2.05294325947761535645e-01) (31, 9.56802442669868469238e-02) (32, 1.35068539530038833618e-02) (33, 2.27539345622062683105e-01) (0, -1.70760452747344970703e+00) (1, -6.42678022384643554688e-01) (2, -1.34894907474517822266e-01) (3, 3.00319463014602661133e-01) (4, 6.21522307395935058594e-01) (5, 3.17195504903793334961e-01) (6, -1.19240373373031616211e-01) (7, 1.13697074353694915771e-01) (8, 2.06983670592308044434e-01) (9, -5.03912791609764099121e-02) (10, -1.52905061841011047363e-01) (11, -1.59082043170928955078e+00) (12, -7.56544470787048339844e-01) (13, -8.19640755653381347656e-02) (14, 3.47475379705429077148e-01) (15, 6.82266950607299804688e-01) (16, 2.72926777601242065430e-01) (17, 4.87576834857463836670e-02) (18, -2.54386179149150848389e-02) (19, 3.51017534732818603516e-01) (20, -3.09101566672325134277e-02) (21, -1.92849591374397277832e-01) (22, 5.55052421987056732178e-02) (23, 7.29718198999762535095e-03) (24, 1.45837971940636634827e-02) (25, 1.67527794837951660156e-01) (26, 1.39231622219085693359e-01) (27, 9.88581553101539611816e-02) (28, -5.78120052814483642578e-02) (29, 5.27384579181671142578e-02) (30, 3.01542617380619049072e-02) (31, 2.73351706564426422119e-02) (32, -3.34699414670467376709e-02) (33, 1.20964817702770233154e-01) (0, 9.27993535995483398438e-01) (1, 4.51798260211944580078e-01) (2, 1.04255273938179016113e-01) (3, 1.31386721134185791016e+00) (4, -4.55273985862731933594e-02) (5, 3.07279795408248901367e-01) (6, 1.48993134498596191406e-01) (7, -1.79745003581047058105e-01) (8, -1.02416217327117919922e-01) (9, -1.79505318403244018555e-01) (10, -1.58775776624679565430e-01) (11, 8.77010703086853027344e-01) (12, 5.37534773349761962891e-01) (13, 1.78723752498626708984e-01) (14, 1.23088276386260986328e+00) (15, -9.89264845848083496094e-02) (16, 3.25782150030136108398e-01) (17, 2.85489469766616821289e-01) (18, -2.73088663816452026367e-01) (19, -2.60281592607498168945e-01) (20, -2.05695182085037231445e-01) (21, -1.39247119426727294922e-01) (22, 9.87423434853553771973e-02) (23, -6.54945597052574157715e-02) (24, -3.09644877910614013672e-01) (25, -3.44657063484191894531e-01) (26, -2.68401741981506347656e-01) (27, 3.60386036336421966553e-02) (28, -1.79268128704279661179e-03) (29, -2.01871693134307861328e-01) (30, -3.10730278491973876953e-01) (31, -3.21098208427429199219e-01) (32, -5.80667285248637199402e-03) (33, -2.69565820693969726562e-01) (0, -7.51538097858428955078e-01) (1, 2.95735806226730346680e-01) (2, 1.61032259464263916016e-01) (3, 1.95342004299163818359e-01) (4, 8.47931355237960815430e-02) (5, -2.69904702901840209961e-01) (6, 2.81280398368835449219e-01) (7, -1.14295817911624908447e-02) (8, 6.19436725974082946777e-02) (9, 2.03618809580802917480e-01) (10, -8.26479420065879821777e-02) (11, -6.97293341159820556641e-01) (12, 3.18582803010940551758e-01) (13, 1.37201145291328430176e-01) (14, 1.86083048582077026367e-01) (15, 1.42964608967304229736e-02) (16, -2.51601189374923706055e-01) (17, 2.45831578969955444336e-01) (18, -6.23975917696952819824e-02) (19, 1.63690447807312011719e-01) (20, 2.06461414694786071777e-01) (21, 4.26989495754241943359e-02) (22, 4.43959496915340423584e-02) (23, -9.53216012567281723022e-03) (24, 7.76596814393997192383e-02) (25, 1.19458884000778198242e-03) (26, 3.27749550342559814453e-02) (27, 9.39254537224769592285e-02) (28, 7.09244003519415855408e-03) (29, 1.26968324184417724609e-01) (30, 5.25331050157546997070e-02) (31, 1.26848876476287841797e-01) (32, 4.29740920662879943848e-02) (33, -6.85083046555519104004e-02) (0, -6.49461984634399414062e-01) (1, -4.28368598222732543945e-01) (2, -2.60136604309082031250e-01) (3, -1.36614823341369628906e+00) (4, -9.74571779370307922363e-02) (5, -2.47377753257751464844e-01) (6, -1.40439629554748535156e-01) (7, 1.81088715791702270508e-01) (8, 1.17839053273200988770e-02) (9, 2.01145827770233154297e-01) (10, 3.22633147239685058594e-01) (11, -6.02206766605377197266e-01) (12, -4.48769241571426391602e-01) (13, -3.00394177436828613281e-01) (14, -1.35434186458587646484e+00) (15, 3.11742518097162246704e-02) (16, -1.85888469219207763672e-01) (17, -3.25790643692016601562e-01) (18, 2.35067039728164672852e-01) (19, 1.02259300649166107178e-01) (20, 1.08818627893924713135e-01) (21, 1.92229360342025756836e-01) (22, 5.78502900898456573486e-02) (23, 7.49265328049659729004e-02) (24, 2.71822333335876464844e-01) (25, 3.10581266880035400391e-01) (26, 3.88941943645477294922e-01) (27, 2.01256405562162399292e-02) (28, -6.67997822165489196777e-02) (29, 3.31916153430938720703e-01) (30, 3.86987388134002685547e-01) (31, 3.29799830913543701172e-01) (32, 2.97512412071228027344e-02) (33, 3.00233066082000732422e-01) (0, 1.16423763334751129150e-01) (1, -1.59096881747245788574e-01) (2, 1.48553727194666862488e-02) (3, 4.83909934759140014648e-01) (4, 1.14617250859737396240e-01) (5, -2.26659188047051429749e-03) (6, -3.08292061090469360352e-02) (7, 5.60591891407966613770e-02) (8, -4.53225057572126388550e-03) (9, 2.07649469375610351562e-01) (10, -3.13811283558607101440e-03) (11, 1.25410556793212890625e-01) (12, -2.39099651575088500977e-01) (13, 4.78922463953495025635e-02) (14, 5.07545769214630126953e-01) (15, 8.85927528142929077148e-02) (16, -7.87543132901191711426e-02) (17, -9.95206385850906372070e-02) (18, 9.96309444308280944824e-02) (19, -2.13859714567661285400e-02) (20, 9.08115506172180175781e-02) (21, -7.67933204770088195801e-04) (22, 2.94306762516498565674e-02) (23, 4.75826375186443328857e-02) (24, 2.38339066505432128906e-01) (25, 2.57934629917144775391e-01) (26, 1.29163905978202819824e-01) (27, -1.56156662851572036743e-02) (28, -5.32078184187412261963e-02) (29, 2.58915185928344726562e-01) (30, 2.28679969906806945801e-01) (31, 2.51443684101104736328e-01) (32, -5.10842213407158851624e-03) (33, 1.51761338114738464355e-01) (0, -8.57884764671325683594e-01) (1, 2.15193003416061401367e-01) (2, 6.08351007103919982910e-02) (3, -2.99105346202850341797e-01) (4, 1.18810154497623443604e-01) (5, -2.50781744718551635742e-01) (6, 2.69538201391696929932e-02) (7, 6.32240325212478637695e-02) (8, -3.08024007827043533325e-02) (9, 3.25689464807510375977e-02) (10, -6.28968924283981323242e-02) (11, -9.15857017040252685547e-01) (12, 2.25829184055328369141e-01) (13, 1.43084973096847534180e-01) (14, -4.25769031047821044922e-01) (15, 1.73018127679824829102e-01) (16, -3.85385543107986450195e-01) (17, -1.65477506816387176514e-02) (18, 1.19802176952362060547e-01) (19, 4.56897877156734466553e-02) (20, 8.53726416826248168945e-02) (21, -5.46740144491195678711e-02) (22, 1.36549714952707290649e-02) (23, -8.17838385701179504395e-02) (24, 8.21529030799865722656e-02) (25, 9.95251089334487915039e-02) (26, 1.20905563235282897949e-01) (27, -2.35486924648284912109e-02) (28, 1.65871381759643554688e-02) (29, 1.57971344888210296631e-02) (30, 1.07259377837181091309e-01) (31, 1.16778925061225891113e-01) (32, 6.21026530861854553223e-02) (33, -2.92087513953447341919e-02) (0, 1.07744407653808593750e+00) (1, 5.88240444660186767578e-01) (2, 1.04069538414478302002e-01) (3, 2.51863569021224975586e-01) (4, -3.84271889925003051758e-01) (5, -3.63351881504058837891e-01) (6, 1.77222192287445068359e-01) (7, -1.23470850288867950439e-01) (8, -1.91904723644256591797e-01) (9, -5.72577193379402160645e-02) (10, -6.39712810516357421875e-03) (11, 1.04998695850372314453e+00) (12, 7.25051403045654296875e-01) (13, -6.28076493740081787109e-03) (14, 3.80904942750930786133e-01) (15, -3.90882760286331176758e-01) (16, -3.97210001945495605469e-01) (17, 1.59067288041114807129e-01) (18, -1.21858842670917510986e-01) (19, -1.15249432623386383057e-01) (20, 4.67838868498802185059e-02) (21, -1.88156068325042724609e-02) (22, 1.40100959688425064087e-02) (23, 3.05748470127582550049e-02) (24, -6.78233280777931213379e-02) (25, -1.68549388647079467773e-01) (26, -1.91852569580078125000e-01) (27, -4.95219253934919834137e-04) (28, -9.17017832398414611816e-02) (29, -2.97499299049377441406e-02) (30, -5.66048994660377502441e-02) (31, -5.39895966649055480957e-02) (32, 7.00369104743003845215e-02) (33, -5.17124906182289123535e-02) (0, 8.72539520263671875000e-01) (1, -7.86482691764831542969e-01) (2, -1.67587488889694213867e-01) (3, -1.50319769978523254395e-01) (4, -8.21033492684364318848e-03) (5, 2.24077962338924407959e-02) (6, -3.55555891990661621094e-01) (7, -1.12926870584487915039e-01) (8, -1.13586872816085815430e-01) (9, 2.43891477584838867188e-02) (10, 5.90094178915023803711e-03) (11, 8.58275294303894042969e-01) (12, -6.69997096061706542969e-01) (13, -4.71077635884284973145e-02) (14, -1.82738855481147766113e-01) (15, -9.01126414537429809570e-02) (16, 1.95427797734737396240e-02) (17, -4.83933389186859130859e-01) (18, -7.24766403436660766602e-03) (19, -1.11843600869178771973e-01) (20, 8.91353487968444824219e-02) (21, -4.59804013371467590332e-02) (22, -6.58080205321311950684e-02) (23, 6.51737824082374572754e-02) (24, 4.00115847587585449219e-02) (25, -6.12353980541229248047e-02) (26, 3.08448746800422668457e-02) (27, -1.37210730463266372681e-02) (28, 8.76472368836402893066e-02) (29, 8.81798565387725830078e-04) (30, -7.56707414984703063965e-02) (31, 4.62123751640319824219e-02) (32, 3.43616381287574768066e-02) (33, -4.40324023365974426270e-02) (0, 1.63033798336982727051e-01) (1, 1.70314565300941467285e-01) (2, -8.20589438080787658691e-03) (3, 3.89119423925876617432e-03) (4, 1.98512867093086242676e-01) (5, 5.94603896141052246094e-01) (6, 1.56870260834693908691e-01) (7, 1.92815586924552917480e-02) (8, -9.59716737270355224609e-02) (9, -1.70270204544067382812e-01) (10, -1.08114108443260192871e-01) (11, 2.66601324081420898438e-01) (12, 2.10021123290061950684e-01) (13, -1.41001582145690917969e-01) (14, 1.79081186652183532715e-01) (15, 1.43898665904998779297e-01) (16, 4.63551491498947143555e-01) (17, 1.96806505322456359863e-01) (18, -8.72139632701873779297e-02) (19, -1.40858665108680725098e-01) (20, -1.11400149762630462646e-01) (21, -2.06894159317016601562e-01) (22, -1.64722092449665069580e-02) (23, -5.05889095366001129150e-02) (24, -1.46121963858604431152e-01) (25, -1.76111996173858642578e-01) (26, -9.32684987783432006836e-02) (27, 2.92199384421110153198e-02) (28, -7.88869783282279968262e-02) (29, -1.58906906843185424805e-01) (30, -7.44701623916625976562e-02) (31, -1.65259271860122680664e-01) (32, 6.26810714602470397949e-02) (33, -1.04894489049911499023e-01) (0, -1.66244387626647949219e-01) (1, -4.08193022012710571289e-01) (2, -2.08197355270385742188e-01) (3, -1.22911405563354492188e+00) (4, -2.13150084018707275391e-01) (5, 6.08770489692687988281e-01) (6, -2.21311986446380615234e-01) (7, 3.37292104959487915039e-01) (8, 1.13430261611938476562e-01) (9, 9.19952243566513061523e-03) (10, 2.14523017406463623047e-01) (11, -1.75913989543914794922e-01) (12, -4.47154879570007324219e-01) (13, -1.09339646995067596436e-01) (14, -1.19884741306304931641e+00) (15, -1.58607393503189086914e-01) (16, 6.62741243839263916016e-01) (17, -1.32175281643867492676e-01) (18, 2.93054699897766113281e-01) (19, 8.64465236663818359375e-02) (20, -1.66260182857513427734e-01) (21, 2.68199801445007324219e-01) (22, 4.13594357669353485107e-02) (23, 5.68922646343708038330e-02) (24, 2.60872781276702880859e-01) (25, 3.01675051450729370117e-01) (26, 1.84475064277648925781e-01) (27, -5.51301846280694007874e-03) (28, -5.54997958242893218994e-02) (29, 1.47156104445457458496e-01) (30, 1.42553001642227172852e-01) (31, 2.82327681779861450195e-01) (32, -4.78347018361091613770e-02) (33, 1.98540776968002319336e-01) (0, -3.40990066528320312500e-01) (1, 3.11875998973846435547e-01) (2, 1.86870560050010681152e-01) (3, 3.08247625827789306641e-01) (4, -1.95107862353324890137e-01) (5, 7.71269202232360839844e-01) (6, 4.61883604526519775391e-01) (7, 2.78872996568679809570e-01) (8, 1.86449140310287475586e-01) (9, -9.25613939762115478516e-03) (10, -1.65737897157669067383e-01) (11, -4.84927415847778320312e-01) (12, 3.13643276691436767578e-01) (13, 8.46661478281021118164e-02) (14, 4.53446984291076660156e-01) (15, -3.75779308378696441650e-02) (16, 8.42081069946289062500e-01) (17, 4.31623220443725585938e-01) (18, 2.90079653263092041016e-01) (19, 1.09665185213088989258e-01) (20, -8.78742784261703491211e-02) (21, -1.78480058908462524414e-01) (22, -4.53904680907726287842e-02) (23, 6.60441517829895019531e-02) (24, -2.81265936791896820068e-02) (25, -1.04698270559310913086e-01) (26, -2.98104323446750640869e-02) (27, 7.90317654609680175781e-02) (28, -5.77652379870414733887e-02) (29, -1.77645206451416015625e-01) (30, -1.74664676189422607422e-01) (31, -1.00928507745265960693e-02) (32, 1.84547898243181407452e-04) (33, -2.04662188887596130371e-01) (34, -3.68030458688735961914e-01) (35, -2.09722444415092468262e-02) (36, 3.89221310615539550781e-02) (37, -2.27738562971353530884e-02) (38, 1.49474859237670898438e-01) (39, 9.16083827614784240723e-02) (40, -1.04018174111843109131e-01) (41, 8.63195881247520446777e-02) (42, -6.23493075370788574219e-01) (43, 5.59244863688945770264e-03) (44, -4.28625047206878662109e-01) (45, -1.46117225289344787598e-01) (46, -7.15529799461364746094e-01) (47, -4.67685535550117492676e-02) (48, 9.10991802811622619629e-02) (49, 9.58338975906372070312e-02) (50, 1.07818149030208587646e-01) (51, 3.88574272394180297852e-01) (52, 1.11647032201290130615e-01) (53, 2.62180920690298080444e-02) (54, 1.48654788732528686523e-01) (55, -9.60026979446411132812e-02) (56, -1.78920924663543701172e-02) (57, -1.32778465747833251953e-01) (58, 1.67863309383392333984e-01) (59, -8.26685689389705657959e-03) (60, 3.33110541105270385742e-01) (61, -5.26111461222171783447e-02) (62, -5.69924563169479370117e-02) (63, 9.66357812285423278809e-02) (64, -1.12953387200832366943e-01) (65, -6.41468167304992675781e-02) (66, -2.90578696876764297485e-02) (67, 1.17768406867980957031e+00) (34, 5.29330134391784667969e-01) (35, 2.45182245969772338867e-01) (36, -1.49180889129638671875e-01) (37, -1.64850845932960510254e-01) (38, 3.18589806556701660156e-01) (39, 5.93003816902637481689e-02) (40, 2.30320692062377929688e-01) (41, 1.08076758682727813721e-01) (42, -1.99549645185470581055e-01) (43, -7.46284704655408859253e-03) (44, -3.23004648089408874512e-02) (45, 3.76133143901824951172e-01) (46, -1.93329453468322753906e-01) (47, 8.27739983797073364258e-02) (48, -5.22378869354724884033e-02) (49, 4.23553109169006347656e-01) (50, -4.95696604251861572266e-01) (51, 1.64511278271675109863e-01) (52, -4.16671276092529296875e-01) (53, 2.45520353317260742188e-01) (54, 5.64030468463897705078e-01) (55, -4.45646435022354125977e-01) (56, -6.53493344783782958984e-01) (57, 5.15361547470092773438e-01) (58, -3.96916508674621582031e-01) (59, -3.89658242464065551758e-01) (60, 6.46211802959442138672e-02) (61, -5.19691824913024902344e-01) (62, 4.48824733495712280273e-01) (63, 5.20229995250701904297e-01) (64, 1.91954210400581359863e-01) (65, -1.73950001597404479980e-01) (66, -1.93721190094947814941e-01) (67, -3.63095879554748535156e-01) (34, 4.83039081096649169922e-01) (35, -6.42031431198120117188e-04) (36, -4.39092695713043212891e-01) (37, -5.55788636207580566406e-01) (38, 3.64778935909271240234e-02) (39, 2.02143758535385131836e-01) (40, -3.30080479383468627930e-01) (41, 1.71860471367835998535e-01) (42, 8.69475156068801879883e-02) (43, 5.09084582328796386719e-01) (44, -8.13736915588378906250e-02) (45, 2.34412193298339843750e-01) (46, 1.89211413264274597168e-01) (47, -5.79642467200756072998e-02) (48, -4.41367030143737792969e-01) (49, 4.08917158842086791992e-01) (50, -1.19138479232788085938e-01) (51, 3.85271608829498291016e-02) (52, -3.19811582565307617188e-01) (53, 1.41909360885620117188e-01) (54, 1.24960526823997497559e-01) (55, -6.17257237434387207031e-01) (56, -5.04490673542022705078e-01) (57, 3.42125117778778076172e-01) (58, 1.45978093147277832031e-01) (59, -2.24360361695289611816e-01) (60, 3.53142023086547851562e-02) (61, 6.17346260696649551392e-03) (62, 6.17745518684387207031e-01) (63, -1.99476018548011779785e-01) (64, 4.28362041711807250977e-02) (65, -2.22015634179115295410e-01) (66, 3.41337062418460845947e-02) (67, -6.81475639343261718750e-01) (34, -1.73004455864429473877e-02) (35, -3.25577892363071441650e-02) (36, 8.14164131879806518555e-02) (37, 8.27192515134811401367e-03) (38, -5.27657754719257354736e-02) (39, -2.88525640964508056641e-01) (40, 1.30516752600669860840e-01) (41, -2.02524811029434204102e-01) (42, -4.89263266324996948242e-01) (43, -1.43625944852828979492e-01) (44, -2.22308456897735595703e-01) (45, -8.66271927952766418457e-03) (46, -5.03412127494812011719e-01) (47, -3.01554426550865173340e-02) (48, 2.95319586992263793945e-01) (49, -1.64436176419258117676e-03) (50, 5.08535057306289672852e-02) (51, 1.37481406331062316895e-01) (52, 5.30868470668792724609e-02) (53, 7.18802735209465026855e-02) (54, 5.31768240034580230713e-03) (55, 2.69683569669723510742e-01) (56, 1.42058774828910827637e-01) (57, -1.05749592185020446777e-01) (58, -1.37412920594215393066e-01) (59, 2.72443413734436035156e-01) (60, 1.63081556558609008789e-01) (61, -7.03342407941818237305e-02) (62, -9.18681919574737548828e-02) (63, 2.35165599733591079712e-02) (64, 4.52624522149562835693e-02) (65, 2.09866672754287719727e-01) (66, -7.73833692073822021484e-02) (67, 9.83726620674133300781e-01) (34, 7.33695268630981445312e-01) (35, -3.72388660907745361328e-01) (36, -7.46609270572662353516e-02) (37, -1.11953012645244598389e-01) (38, -5.69718182086944580078e-01) (39, -1.04082554578781127930e-01) (40, -3.12162369489669799805e-01) (41, 2.62614935636520385742e-01) (42, -1.28172859549522399902e-01) (43, -5.70463180541992187500e-01) (44, 2.00839176774024963379e-01) (45, -1.81367769837379455566e-01) (46, -1.28952592611312866211e-01) (47, 5.25095127522945404053e-02) (48, -1.20697706937789916992e-01) (49, -3.65402013063430786133e-01) (50, 2.34571233391761779785e-01) (51, -1.58648207783699035645e-01) (52, -6.25369310379028320312e-01) (53, 1.86190605163574218750e-01) (54, 5.36134019494056701660e-02) (55, -8.44598934054374694824e-03) (56, -9.95749086141586303711e-02) (57, -7.59743809700012207031e-01) (58, -1.42730936408042907715e-01) (59, 7.22540378570556640625e-01) (60, -1.46283358335494995117e-01) (61, 2.64743864536285400391e-01) (62, -3.12308192253112792969e-01) (63, 4.48743887245655059814e-02) (64, 4.40765321254730224609e-02) (65, 7.94900417327880859375e-01) (66, -2.31933012604713439941e-01) (67, 2.12758898735046386719e-01) (34, -6.22798204421997070312e-01) (35, 3.57461839914321899414e-01) (36, 2.59857624769210815430e-01) (37, 4.26532387733459472656e-01) (38, 2.68943548202514648438e-01) (39, -4.26567941904067993164e-02) (40, 2.40108743309974670410e-02) (41, 2.93074756860733032227e-01) (42, -1.53804406523704528809e-01) (43, 3.04149448871612548828e-01) (44, -1.15248903632164001465e-01) (45, 1.47032365202903747559e-03) (46, -4.59785223007202148438e-01) (47, 1.86081111431121826172e-01) (48, 1.29035025835037231445e-01) (49, -1.67377233505249023438e-01) (50, 4.17060256004333496094e-02) (51, 4.13130372762680053711e-02) (52, -6.60960525274276733398e-02) (53, 1.34399354457855224609e-01) (54, -2.50571131706237792969e-01) (55, -2.37446591258049011230e-01) (56, 2.93125748634338378906e-01) (57, 2.19150051474571228027e-01) (58, 5.63825927674770355225e-02) (59, -3.29554289579391479492e-01) (60, -9.57636684179306030273e-02) (61, 5.90143203735351562500e-02) (62, -1.19923010468482971191e-01) (63, -2.61746309697628021240e-02) (64, 1.89093947410583496094e-01) (65, -3.53341579437255859375e-01) (66, -8.53683054447174072266e-02) (67, 2.84722566604614257812e-01) (34, -5.19836843013763427734e-01) (35, 2.90619790554046630859e-01) (36, 2.79484987258911132812e-01) (37, 7.27950870990753173828e-01) (38, 1.98701322078704833984e-02) (39, -1.59817963838577270508e-01) (40, 1.25500708818435668945e-01) (41, -8.77478532493114471436e-03) (42, -7.12860673666000366211e-02) (43, 2.23292827606201171875e-01) (44, 2.28357613086700439453e-02) (45, 9.24289077520370483398e-02) (46, -5.66496364772319793701e-02) (47, 1.63533762097358703613e-01) (48, 2.88776934146881103516e-01) (49, -2.61604249477386474609e-01) (50, 1.35653074830770492554e-02) (51, -5.43184857815504074097e-03) (52, -2.17774450778961181641e-01) (53, -1.05515606701374053955e-01) (54, 1.63437411189079284668e-01) (55, 3.23693811893463134766e-01) (56, 4.82737898826599121094e-01) (57, 3.12718212604522705078e-01) (58, -1.38363027945160865784e-02) (59, -2.11270406842231750488e-01) (60, 1.63997247815132141113e-01) (61, -1.66226670145988464355e-01) (62, -3.75092625617980957031e-01) (63, 1.43567740917205810547e-01) (64, 8.64966958761215209961e-02) (65, 1.63595467805862426758e-01) (66, 2.12647974491119384766e-01) (67, -3.85903388261795043945e-01) (34, -2.29506269097328186035e-02) (35, 2.79250591993331909180e-01) (36, 3.92166106030344963074e-03) (37, 1.28870114684104919434e-01) (38, 1.47945538163185119629e-01) (39, -6.30758982151746749878e-03) (40, 1.80931650102138519287e-02) (41, -3.35239106789231300354e-04) (42, 2.12109833955764770508e-01) (43, 2.68537074327468872070e-01) (44, -3.03727928549051284790e-02) (45, 1.49676725268363952637e-01) (46, 3.11679571866989135742e-01) (47, 2.63725936412811279297e-01) (48, 4.17903140187263488770e-02) (49, -2.49266535043716430664e-01) (50, -1.64420366287231445312e-01) (51, -2.26138964295387268066e-01) (52, 2.17181712388992309570e-01) (53, -2.44040302932262420654e-02) (54, -1.77491545677185058594e-01) (55, 6.90827742218971252441e-02) (56, 1.51150211691856384277e-01) (57, 1.90373450517654418945e-01) (58, 1.81539833545684814453e-01) (59, -1.54668211936950683594e-01) (60, -1.20724827051162719727e-01) (61, -7.20128463581204414368e-03) (62, 1.50608181953430175781e-01) (63, -1.86225727200508117676e-01) (64, 8.31937044858932495117e-03) (65, -2.97961205244064331055e-01) (66, 1.74229800701141357422e-01) (67, -1.00894725322723388672e+00) (34, 2.61509776115417480469e-01) (35, 1.88530683517456054688e-01) (36, -4.85332906246185302734e-02) (37, -1.80930942296981811523e-01) (38, 5.99183179438114166260e-02) (39, -1.77589103579521179199e-01) (40, -3.32355797290802001953e-02) (41, -1.15420892834663391113e-01) (42, 5.30332803726196289062e-01) (43, 1.46712988615036010742e-01) (44, 2.46040165424346923828e-01) (45, 1.01816922426223754883e-01) (46, 6.13676130771636962891e-01) (47, -6.61803111433982849121e-02) (48, 1.34213671088218688965e-01) (49, 7.07890242338180541992e-02) (50, -1.84022769331932067871e-01) (51, -1.33488535881042480469e-01) (52, 2.91520133614540100098e-02) (53, 7.11369141936302185059e-02) (54, -9.21966657042503356934e-02) (55, 7.71852433681488037109e-02) (56, -2.58183367550373077393e-02) (57, 1.58128924667835235596e-02) (58, 3.06666605174541473389e-02) (59, -9.64973773807287216187e-03) (60, -7.98265933990478515625e-02) (61, -9.79911759495735168457e-02) (62, 1.41597956418991088867e-01) (63, -1.13115131855010986328e-01) (64, -5.31430318951606750488e-02) (65, -1.20996408164501190186e-01) (66, 2.17059060931205749512e-01) (67, -1.05370068550109863281e+00) (34, 2.71021783351898193359e-01) (35, -5.36464266479015350342e-02) (36, -6.45393179729580879211e-03) (37, -7.57272914052009582520e-03) (38, -1.79749011993408203125e-01) (39, -6.95171356201171875000e-02) (40, -6.95274472236633300781e-02) (41, -3.95657010376453399658e-02) (42, 5.75757741928100585938e-01) (43, -1.80561542510986328125e-02) (44, 2.95540571212768554688e-01) (45, 1.23835824429988861084e-01) (46, 6.71840608119964599609e-01) (47, 9.67557057738304138184e-02) (48, -1.83766689151525497437e-02) (49, -2.30476915836334228516e-01) (50, -1.76502481102943420410e-01) (51, -4.28137302398681640625e-01) (52, -2.11815256625413894653e-02) (53, -3.24188433587551116943e-02) (54, -2.70491272211074829102e-01) (55, 5.49334771931171417236e-02) (56, -3.28745581209659576416e-02) (57, 2.83833462744951248169e-02) (58, -1.77718892693519592285e-01) (59, -1.08085051178932189941e-01) (60, -3.52681636810302734375e-01) (61, 1.51138409972190856934e-01) (62, 8.44154953956604003906e-02) (63, -7.46681317687034606934e-02) (64, 1.57199069857597351074e-01) (65, 5.42446896433830261230e-02) (66, 6.00762702524662017822e-02) (67, -1.12952852249145507812e+00) (34, 2.28584930300712585449e-01) (35, 6.03095404803752899170e-02) (36, -1.07624210417270660400e-01) (37, 8.06862190365791320801e-02) (38, -6.09252192080020904541e-02) (39, -2.34381742775440216064e-02) (40, -1.03613369166851043701e-01) (41, -8.71023163199424743652e-02) (42, 6.24432086944580078125e-01) (43, 6.49541690945625305176e-02) (44, 3.34186345338821411133e-01) (45, 1.41084557399153709412e-02) (46, 8.00564885139465332031e-01) (47, 1.74468442797660827637e-01) (48, -2.93167997151613235474e-02) (49, -1.84790983796119689941e-01) (50, -1.86773687601089477539e-01) (51, -3.10084968805313110352e-01) (52, -2.67872232943773269653e-02) (53, -9.28252488374710083008e-02) (54, -3.09705793857574462891e-01) (55, 4.38792817294597625732e-02) (56, -1.50399565696716308594e-01) (57, 7.71422088146209716797e-02) (58, -1.98023885488510131836e-01) (59, -2.95416861772537231445e-02) (60, -2.92679458856582641602e-01) (61, 4.95467931032180786133e-02) (62, 1.03737562894821166992e-02) (63, -8.67037028074264526367e-02) (64, 4.97207380831241607666e-02) (65, 7.51432999968528747559e-02) (66, 1.92896693944931030273e-01) (67, -1.21175515651702880859e+00) (34, -2.06943035125732421875e-01) (35, 3.23352105915546417236e-02) (36, 1.53981298208236694336e-02) (37, 1.22214883565902709961e-01) (38, 2.16694638133049011230e-01) (39, 2.01232537627220153809e-01) (40, -5.61819933354854583740e-02) (41, -1.31486486643552780151e-02) (42, -6.61911249160766601562e-01) (43, -2.07923986017704010010e-02) (44, -4.14674490690231323242e-01) (45, -7.21044987440109252930e-02) (46, -7.49673962593078613281e-01) (47, -1.62867650389671325684e-01) (48, -6.34179562330245971680e-02) (49, 2.13494360446929931641e-01) (50, 5.77360689640045166016e-02) (51, 3.16099584102630615234e-01) (52, 1.00245818495750427246e-01) (53, -1.65373049676418304443e-02) (54, 2.19268694519996643066e-01) (55, -1.30950704216957092285e-01) (56, 1.17620423436164855957e-01) (57, -3.02900690585374832153e-02) (58, 2.26288124918937683105e-01) (59, -4.58437353372573852539e-02) (60, 4.07914310693740844727e-01) (61, 4.31940779089927673340e-02) (62, -1.09932020306587219238e-01) (63, 7.00153708457946777344e-02) (64, -1.19601763784885406494e-01) (65, 2.61999852955341339111e-02) (66, 5.16043789684772491455e-03) (67, 1.12205755710601806641e+00) (34, 5.71655392646789550781e-01) (35, 1.79553225636482238770e-01) (36, -8.71241837739944458008e-02) (37, -1.12159699201583862305e-01) (38, 3.57931137084960937500e-01) (39, 1.23352058231830596924e-01) (40, 7.51276686787605285645e-02) (41, 1.27720415592193603516e-01) (42, -3.49852830171585083008e-01) (43, 6.58237710595130920410e-02) (44, -1.66235528886318206787e-02) (45, 3.19038629531860351562e-01) (46, -8.07696953415870666504e-02) (47, -8.95949974656105041504e-02) (48, -8.44482798129320144653e-04) (49, 4.22021418809890747070e-01) (50, -5.38390278816223144531e-01) (51, 1.93469047546386718750e-01) (52, -4.41762357950210571289e-01) (53, 1.73496276140213012695e-01) (54, 4.76906180381774902344e-01) (55, -4.42304879426956176758e-01) (56, -6.27400159835815429688e-01) (57, 5.08985579013824462891e-01) (58, -4.38961476087570190430e-01) (59, -3.82483214139938354492e-01) (60, 6.38944581151008605957e-02) (61, -5.90979218482971191406e-01) (62, 4.20146912336349487305e-01) (63, 4.80073988437652587891e-01) (64, 6.16649836301803588867e-02) (65, -6.92011564970016479492e-02) (66, -7.86603614687919616699e-02) (67, -3.01253795623779296875e-01) (34, 4.99966263771057128906e-01) (35, -6.87754005193710327148e-02) (36, -4.20518964529037475586e-01) (37, -6.16255819797515869141e-01) (38, -1.14839188754558563232e-02) (39, 3.10310393571853637695e-01) (40, -3.60409349203109741211e-01) (41, 2.87760317325592041016e-01) (42, 1.59177184104919433594e-01) (43, 4.35788720846176147461e-01) (44, -9.32481065392494201660e-02) (45, 1.95457980036735534668e-01) (46, 1.07080519199371337891e-01) (47, -1.26433178782463073730e-01) (48, -4.49212014675140380859e-01) (49, 3.04039329290390014648e-01) (50, -4.89274039864540100098e-02) (51, 6.84287697076797485352e-02) (52, -3.54298293590545654297e-01) (53, 1.14509753882884979248e-01) (54, 1.44955590367317199707e-01) (55, -4.75726127624511718750e-01) (56, -6.58185124397277832031e-01) (57, 3.56688082218170166016e-01) (58, -5.56492805480957031250e-03) (59, -3.22469979524612426758e-01) (60, 1.02773010730743408203e-02) (61, -9.70298796892166137695e-02) (62, 5.01558005809783935547e-01) (63, -3.22874516248703002930e-01) (64, 1.09941564500331878662e-01) (65, -2.81571030616760253906e-01) (66, 5.99608682096004486084e-02) (67, -7.66112983226776123047e-01) (34, 3.15208397805690765381e-02) (35, 1.00871168076992034912e-01) (36, 8.33086743950843811035e-02) (37, 3.92795652151107788086e-02) (38, 6.73226173967123031616e-03) (39, -2.42679446935653686523e-01) (40, 2.13880464434623718262e-02) (41, -1.30291163921356201172e-01) (42, -4.61876094341278076172e-01) (43, -2.78233349323272705078e-01) (44, -1.82422205805778503418e-01) (45, -2.10917219519615173340e-02) (46, -6.01394653320312500000e-01) (47, -8.10304433107376098633e-02) (48, 3.03888022899627685547e-01) (49, -1.82108134031295776367e-02) (50, -4.16366346180438995361e-02) (51, 1.54443100094795227051e-01) (52, -3.15540209412574768066e-02) (53, -1.30552127957344055176e-02) (54, -7.13210552930831909180e-03) (55, 2.20436990261077880859e-01) (56, 2.08935350179672241211e-01) (57, -1.00422590970993041992e-01) (58, -8.83138030767440795898e-02) (59, 1.97037741541862487793e-01) (60, 2.31950730085372924805e-01) (61, -1.24729432165622711182e-01) (62, -4.33075577020645141602e-02) (63, 6.21800124645233154297e-02) (64, 6.80710598826408386230e-02) (65, 1.74229815602302551270e-01) (66, -3.81330735981464385986e-02) (67, 9.59070026874542236328e-01) (34, 6.74201309680938720703e-01) (35, -2.91222453117370605469e-01) (36, -1.63440834730863571167e-02) (37, -2.62968242168426513672e-01) (38, -5.51766753196716308594e-01) (39, -1.87563911080360412598e-01) (40, -3.83201986551284790039e-01) (41, 2.30264872312545776367e-01) (42, -9.04791802167892456055e-02) (43, -5.95222711563110351562e-01) (44, 2.91957020759582519531e-01) (45, -1.24766327440738677979e-01) (46, 4.81724627315998077393e-02) (47, 2.35399287194013595581e-02) (48, -2.20064580440521240234e-01) (49, -3.88717740774154663086e-01) (50, 3.36737394332885742188e-01) (51, -4.29362617433071136475e-02) (52, -5.09707868099212646484e-01) (53, 1.37149035930633544922e-01) (54, -5.04702143371105194092e-02) (55, -1.01871736347675323486e-01) (56, -2.01793715357780456543e-01) (57, -7.40298032760620117188e-01) (58, -1.08184158802032470703e-01) (59, 8.49177002906799316406e-01) (60, -8.05161893367767333984e-02) (61, 2.49982610344886779785e-01) (62, -3.64841163158416748047e-01) (63, 8.57184156775474548340e-02) (64, 2.14917454868555068970e-02) (65, 7.97884404659271240234e-01) (66, -1.17479518055915832520e-01) (67, 2.93190389871597290039e-01) (34, -5.50067424774169921875e-01) (35, 3.20815771818161010742e-01) (36, 3.87638270854949951172e-01) (37, 4.64035391807556152344e-01) (38, 1.79038599133491516113e-01) (39, -5.10073192417621612549e-02) (40, 7.57784396409988403320e-03) (41, 2.30182230472564697266e-01) (42, -2.85603791475296020508e-01) (43, 3.86293798685073852539e-01) (44, -1.04781597852706909180e-01) (45, 5.28055801987648010254e-03) (46, -3.82330060005187988281e-01) (47, 3.58885675668716430664e-01) (48, 2.75992825627326965332e-02) (49, -2.21906751394271850586e-01) (50, 1.30001857876777648926e-01) (51, 1.44295841455459594727e-02) (52, -4.48037795722484588623e-02) (53, 1.48708358407020568848e-01) (54, -1.42339050769805908203e-01) (55, -1.60961538553237915039e-01) (56, 2.89199858903884887695e-01) (57, 2.61023223400115966797e-01) (58, -6.92122131586074829102e-02) (59, -3.05271059274673461914e-01) (60, -6.42332807183265686035e-02) (61, 1.06524281203746795654e-01) (62, -1.35444939136505126953e-01) (63, 5.76502904295921325684e-02) (64, 1.33473426103591918945e-01) (65, -4.49030488729476928711e-01) (66, -1.45076423883438110352e-01) (67, 2.38774538040161132812e-01) (34, -5.41860520839691162109e-01) (35, 2.11014345288276672363e-01) (36, 3.21286857128143310547e-01) (37, 6.00656092166900634766e-01) (38, 6.24808743596076965332e-02) (39, 1.18352901190519332886e-02) (40, 1.93260580301284790039e-01) (41, -3.96825037896633148193e-02) (42, -1.66913181543350219727e-01) (43, 1.84674829244613647461e-01) (44, -3.31250876188278198242e-02) (45, 8.50176066160202026367e-02) (46, -1.63321807980537414551e-01) (47, 2.08366483449935913086e-01) (48, 4.28317606449127197266e-01) (49, -3.45597147941589355469e-01) (50, 5.53728006780147552490e-02) (51, 2.56190076470375061035e-02) (52, -1.86115100979804992676e-01) (53, -8.00047144293785095215e-02) (54, 1.22331649065017700195e-01) (55, 3.96785378456115722656e-01) (56, 4.57256436347961425781e-01) (57, 1.80214852094650268555e-01) (58, 9.12316236644983291626e-03) (59, -2.64016807079315185547e-01) (60, 1.30845174193382263184e-01) (61, -2.22821429371833801270e-01) (62, -3.10969859361648559570e-01) (63, 1.50195494294166564941e-01) (64, 1.22205018997192382812e-01) (65, 1.53176039457321166992e-01) (66, 3.35325360298156738281e-01) (67, -4.22380447387695312500e-01) (34, -8.29282924532890319824e-02) (35, 3.37582767009735107422e-01) (36, -1.08031101524829864502e-01) (37, 5.36268725991249084473e-02) (38, 1.27740660682320594788e-02) (39, 1.60989779978990554810e-02) (40, -3.54291610419750213623e-02) (41, -1.56256351619958877563e-02) (42, 2.12745934724807739258e-01) (43, 2.78909146785736083984e-01) (44, -1.83142572641372680664e-02) (45, 4.65642325580120086670e-02) (46, 3.33491295576095581055e-01) (47, 3.17124307155609130859e-01) (48, 1.73576906323432922363e-01) (49, -3.40721160173416137695e-02) (50, -6.65122196078300476074e-02) (51, -5.38375452160835266113e-02) (52, 2.21964582800865173340e-01) (53, 3.25735434889793395996e-02) (54, -1.66888952255249023438e-01) (55, 9.36020538210868835449e-02) (56, 1.30911812186241149902e-01) (57, 1.63090780377388000488e-01) (58, 1.79065674543380737305e-01) (59, -2.61395066976547241211e-01) (60, -1.12057797610759735107e-01) (61, 2.15024072676897048950e-02) (62, 2.04229447990655899048e-02) (63, -2.21240058541297912598e-01) (64, 1.61872193217277526855e-01) (65, -3.71813148260116577148e-01) (66, 1.70363172888755798340e-01) (67, -1.00230681896209716797e+00) (34, 2.87324994802474975586e-01) (35, 1.34361550211906433105e-01) (36, -1.32208779454231262207e-01) (37, -8.98321270942687988281e-02) (38, 1.46550059318542480469e-01) (39, -1.10161565244197845459e-01) (40, 7.62169063091278076172e-02) (41, -5.89474737644195556641e-02) (42, 4.61171686649322509766e-01) (43, 9.10456404089927673340e-02) (44, 1.57560050487518310547e-01) (45, 4.76024411618709564209e-02) (46, 6.12413883209228515625e-01) (47, 5.84486266598105430603e-03) (48, 9.72747206687927246094e-02) (49, 8.71985033154487609863e-02) (50, -2.37000603228807449341e-02) (51, -1.65207043290138244629e-01) (52, -6.06693923473358154297e-02) (53, 1.45389288663864135742e-02) (54, -1.93271428346633911133e-01) (55, 2.99678668379783630371e-02) (56, -1.47245913743972778320e-01) (57, 1.22133985161781311035e-01) (58, 7.96530768275260925293e-03) (59, -1.76063001155853271484e-01) (60, -1.77589014172554016113e-01) (61, 3.85735407471656799316e-02) (62, 8.66234302520751953125e-02) (63, -5.10575473308563232422e-02) (64, -4.35374304652214050293e-02) (65, -2.86524109542369842529e-02) (66, 2.47762054204940795898e-01) (67, -1.04327881336212158203e+00) (34, 3.61955374479293823242e-01) (35, 1.52078047394752502441e-02) (36, -2.96146273612976074219e-02) (37, 4.26441803574562072754e-02) (38, -2.25406557321548461914e-01) (39, -1.18501886725425720215e-01) (40, 4.44697141647338867188e-02) (41, 5.82210868597030639648e-02) (42, 4.85713183879852294922e-01) (43, 1.54559001326560974121e-01) (44, 2.80528694391250610352e-01) (45, 1.18747331202030181885e-01) (46, 7.10640251636505126953e-01) (47, 1.10902171581983566284e-02) (48, -7.79387056827545166016e-02) (49, -1.30783796310424804688e-01) (50, -8.86645987629890441895e-02) (51, -4.25484597682952880859e-01) (52, -1.54351852834224700928e-02) (53, 4.70163524150848388672e-02) (54, -3.62439006567001342773e-01) (55, 3.22174616158008575439e-02) (56, -3.41468043625354766846e-02) (57, -1.03440806269645690918e-02) (58, -2.89186537265777587891e-01) (59, 3.02098896354436874390e-02) (60, -3.05248409509658813477e-01) (61, 2.17011850327253341675e-02) (62, 8.99879112839698791504e-02) (63, -4.82673235237598419189e-02) (64, 9.59765687584877014160e-02) (65, 1.93566698580980300903e-02) (66, 1.67812243103981018066e-01) (67, -1.20821213722229003906e+00) (34, 1.95527181029319763184e-01) (35, 1.03822894394397735596e-01) (36, -5.26459701359272003174e-02) (37, -2.26907283067703247070e-02) (38, -9.71158221364021301270e-02) (39, -7.75749459862709045410e-02) (40, -3.67230661213397979736e-02) (41, 4.82435151934623718262e-02) (42, 5.58133542537689208984e-01) (43, 1.51782274246215820312e-01) (44, 3.73352766036987304688e-01) (45, 6.35678693652153015137e-02) (46, 7.94943332672119140625e-01) (47, 9.37636718153953552246e-02) (48, 4.34730276465415954590e-02) (49, -1.78814351558685302734e-01) (50, -1.56984403729438781738e-01) (51, -3.07238578796386718750e-01) (52, -7.47044160962104797363e-02) (53, 6.16876073181629180908e-02) (54, -1.56798884272575378418e-01) (55, 4.75767999887466430664e-02) (56, -3.24507616460323333740e-02) (57, 6.38675689697265625000e-02) (58, -1.25976338982582092285e-01) (59, -7.77141898870468139648e-02) (60, -4.35385018587112426758e-01) (61, 5.46624511480331420898e-02) (62, 1.05309069156646728516e-01) (63, 4.14508879184722900391e-02) (64, 1.41543358564376831055e-01) (65, -4.23349551856517791748e-02) (66, 1.82813018560409545898e-01) (67, -1.23036539554595947266e+00) (34, 3.42710673809051513672e-01) (35, 2.35912445932626724243e-02) (36, 2.10460647940635681152e-02) (37, -3.70447686873376369476e-03) (38, -2.52549529075622558594e-01) (39, -2.00812056660652160645e-01) (40, 7.27826580405235290527e-02) (41, 6.33070319890975952148e-02) (42, 5.98553717136383056641e-01) (43, 2.76296716183423995972e-02) (44, 3.54613631963729858398e-01) (45, 4.62155379354953765869e-02) (46, 6.90278947353363037109e-01) (47, 1.60719946026802062988e-01) (48, 8.52751508355140686035e-02) (49, -2.68592417240142822266e-01) (50, -1.53081044554710388184e-01) (51, -2.98547834157943725586e-01) (52, -6.52595907449722290039e-02) (53, -3.95401977002620697021e-02) (54, -1.98179587721824645996e-01) (55, 1.14703387022018432617e-01) (56, -8.11865329742431640625e-02) (57, 9.25002992153167724609e-02) (58, -2.74113953113555908203e-01) (59, -7.26470425724983215332e-02) (60, -3.95494639873504638672e-01) (61, 9.87961739301681518555e-02) (62, 2.92915925383567810059e-02) (63, -6.49169087409973144531e-02) (64, 2.02705878764390945435e-02) (65, -3.66847403347492218018e-02) (66, 5.04961572587490081787e-02) (67, -1.31684231758117675781e+00) (34, 1.86420664191246032715e-01) (35, 1.02305881679058074951e-01) (36, -1.12782932817935943604e-01) (37, 2.46110372245311737061e-02) (38, -1.18677675724029541016e-01) (39, -8.88291671872138977051e-02) (40, 4.80198301374912261963e-02) (41, -9.60967838764190673828e-02) (42, 6.30602180957794189453e-01) (43, -3.77232991158962249756e-02) (44, 3.81702333688735961914e-01) (45, 1.56887605786323547363e-01) (46, 6.17830812931060791016e-01) (47, 7.61398598551750183105e-02) (48, 5.27477674186229705811e-02) (49, -2.30524405837059020996e-01) (50, -1.44016161561012268066e-01) (51, -4.03833270072937011719e-01) (52, -1.85676291584968566895e-01) (53, 7.73576870560646057129e-02) (54, -1.59223884344100952148e-01) (55, 3.93398553133010864258e-02) (56, -1.28960654139518737793e-01) (57, 1.72009214758872985840e-01) (58, -2.49456703662872314453e-01) (59, -1.96185875684022903442e-02) (60, -4.08066660165786743164e-01) (61, -8.38408712297677993774e-03) (62, 3.57586741447448730469e-02) (63, 2.30011772364377975464e-02) (64, 4.47331145405769348145e-02) (65, 6.67551532387733459473e-02) (66, 3.46142575144767761230e-02) (67, -1.34050536155700683594e+00) (34, 3.03573876619338989258e-01) (35, -1.48743297904729843140e-02) (36, -1.34076297283172607422e-01) (37, -8.82344096899032592773e-02) (38, -2.01669067144393920898e-01) (39, -4.87736761569976806641e-02) (40, 6.70233294367790222168e-02) (41, -1.13502100110054016113e-01) (42, 7.00307250022888183594e-01) (43, -9.47872027754783630371e-02) (44, 3.66245865821838378906e-01) (45, 7.76933357119560241699e-02) (46, 7.01386868953704833984e-01) (47, 1.85132518410682678223e-01) (48, 4.31750044226646423340e-02) (49, -1.98816180229187011719e-01) (50, -1.06027081608772277832e-01) (51, -4.50289994478225708008e-01) (52, -5.00319376587867736816e-02) (53, 2.07637753337621688843e-02) (54, -2.48825848102569580078e-01) (55, 6.14716904237866401672e-03) (56, -9.02362018823623657227e-02) (57, 1.80538147687911987305e-02) (58, -2.44743630290031433105e-01) (59, 3.71261984109878540039e-02) (60, -2.97050327062606811523e-01) (61, 4.54634092748165130615e-02) (62, -7.72263109683990478516e-03) (63, -5.70377409458160400391e-02) (64, 1.83210551738739013672e-01) (65, -4.43826243281364440918e-02) (66, 4.46345172822475433350e-02) (67, -1.11382877826690673828e+00) (34, 2.98012822866439819336e-01) (35, -6.13591112196445465088e-02) (36, 2.85752210766077041626e-02) (37, -1.60818472504615783691e-01) (38, -2.38116845488548278809e-01) (39, -1.02866433560848236084e-01) (40, -5.38327265530824661255e-03) (41, -3.69303636252880096436e-02) (42, 6.01837515830993652344e-01) (43, 6.64831046015024185181e-03) (44, 3.82575124502182006836e-01) (45, 1.48081004619598388672e-01) (46, 6.80940806865692138672e-01) (47, 3.68095971643924713135e-02) (48, -7.62942135334014892578e-02) (49, -2.76945412158966064453e-01) (50, -1.11151158809661865234e-01) (51, -4.68506306409835815430e-01) (52, -1.79046824574470520020e-01) (53, 6.49975538253784179688e-02) (54, -2.15728610754013061523e-01) (55, 6.87933564186096191406e-02) (56, -2.14396137744188308716e-02) (57, 2.27662324905395507812e-02) (58, -1.37284308671951293945e-01) (59, -1.03624314069747924805e-01) (60, -3.83992493152618408203e-01) (61, 9.94447693228721618652e-02) (62, -3.73324118554592132568e-02) (63, -1.12583860754966735840e-01) (64, 1.65131911635398864746e-01) (65, 4.34332825243473052979e-02) (66, -6.51027485728263854980e-02) (67, -1.17370712757110595703e+00) (34, 3.29377412796020507812e-01) (35, -3.69869731366634368896e-02) (36, -5.16815036535263061523e-02) (37, 1.89359895884990692139e-02) (38, -8.85575190186500549316e-02) (39, -8.76314193010330200195e-02) (40, 6.43763244152069091797e-02) (41, -5.01877404749393463135e-02) (42, 6.16925477981567382812e-01) (43, 2.12245583534240722656e-02) (44, 3.67337882518768310547e-01) (45, 6.00516349077224731445e-02) (46, 7.83694922924041748047e-01) (47, 3.96754741668701171875e-02) (48, 2.06973161548376083374e-02) (49, -2.63323396444320678711e-01) (50, -2.13572099804878234863e-01) (51, -2.93180763721466064453e-01) (52, -1.23418778181076049805e-01) (53, 2.43061129003763198853e-02) (54, -2.33177989721298217773e-01) (55, 3.91400493681430816650e-02) (56, 1.58229973167181015015e-02) (57, 6.69416859745979309082e-02) (58, -2.56240397691726684570e-01) (59, -9.26840230822563171387e-02) (60, -3.44182938337326049805e-01) (61, -4.97988536953926086426e-02) (62, 3.55736501514911651611e-02) (63, 1.81656684726476669312e-02) (64, 1.48256704211235046387e-01) (65, -2.81050940975546836853e-03) (66, 8.23471099138259887695e-02) (67, -1.16560387611389160156e+00) (34, 2.37593919038772583008e-01) (35, 1.08000583946704864502e-01) (36, 5.09187839925289154053e-02) (37, -1.73624202609062194824e-01) (38, -1.92505076527595520020e-01) (39, -1.24076567590236663818e-01) (40, 8.43935608863830566406e-02) (41, 3.85031700134277343750e-02) (42, 6.21120870113372802734e-01) (43, 5.08626922965049743652e-02) (44, 4.12940382957458496094e-01) (45, 1.03354349732398986816e-01) (46, 6.90945804119110107422e-01) (47, 2.10545405745506286621e-01) (48, 1.40269827097654342651e-02) (49, -2.03217044472694396973e-01) (50, -9.05225723981857299805e-02) (51, -2.88530200719833374023e-01) (52, -7.34133198857307434082e-02) (53, 1.19745451956987380981e-02) (54, -2.11448073387145996094e-01) (55, 1.37453317642211914062e-01) (56, -5.92991672456264495850e-02) (57, 1.40344455838203430176e-01) (58, -2.80607074499130249023e-01) (59, -9.56527367234230041504e-02) (60, -3.38163316249847412109e-01) (61, 1.12947903573513031006e-01) (62, 2.33522779308259487152e-03) (63, -2.12388839572668075562e-02) (64, 4.22343946993350982666e-02) (65, 7.10165128111839294434e-02) (66, -1.89397688955068588257e-02) (67, -1.32060956954956054688e+00) (34, 3.34829360246658325195e-01) (35, 6.32584393024444580078e-02) (36, -8.53848643600940704346e-03) (37, -6.46907091140747070312e-02) (38, -1.85499072074890136719e-01) (39, -9.37384143471717834473e-02) (40, 9.20604821294546127319e-03) (41, -5.20071387290954589844e-02) (42, 5.49347639083862304688e-01) (43, -2.53405235707759857178e-02) (44, 3.33876758813858032227e-01) (45, 1.57233789563179016113e-01) (46, 7.29992210865020751953e-01) (47, 2.31692925095558166504e-01) (48, 8.48772190511226654053e-03) (49, -1.98704287409782409668e-01) (50, -1.43695816397666931152e-01) (51, -3.05927366018295288086e-01) (52, -1.34678453207015991211e-01) (53, 9.72549170255661010742e-02) (54, -1.67523369193077087402e-01) (55, 3.98793481290340423584e-02) (56, 2.83269844949245452881e-02) (57, 1.94150581955909729004e-01) (58, -2.39722445607185363770e-01) (59, -5.45694380998611450195e-02) (60, -3.82873654365539550781e-01) (61, 6.17482289671897888184e-02) (62, -6.82666748762130737305e-02) (63, 2.13190410286188125610e-02) (64, 1.73419669270515441895e-01) (65, 6.33342862129211425781e-02) (66, -4.20386437326669692993e-03) (67, -1.36139619350433349609e+00) (34, 2.29196533560752868652e-01) (35, 7.05335438251495361328e-02) (36, -8.75711739063262939453e-02) (37, 2.67603830434381961823e-03) (38, -2.32381448149681091309e-01) (39, -1.09713718295097351074e-01) (40, -9.06522665172815322876e-03) (41, -3.91106754541397094727e-02) (42, 6.00624144077301025391e-01) (43, -1.24303035438060760498e-01) (44, 3.64966750144958496094e-01) (45, 1.40791118144989013672e-01) (46, 6.98805510997772216797e-01) (47, 1.93720266222953796387e-01) (48, 4.48740422725677490234e-02) (49, -1.05639353394508361816e-01) (50, -3.94636653363704681396e-02) (51, -4.13287341594696044922e-01) (52, -1.37805148959159851074e-01) (53, 4.97731491923332214355e-02) (54, -2.02002212405204772949e-01) (55, 1.06327578425407409668e-01) (56, -9.91800427436828613281e-02) (57, 8.80228430032730102539e-02) (58, -2.39236250519752502441e-01) (59, -7.11615458130836486816e-02) (60, -3.84216904640197753906e-01) (61, -3.17549593746662139893e-02) (62, 8.13634619116783142090e-02) (63, 2.04684532945975661278e-04) (64, 1.29960730671882629395e-01) (65, -3.78511287271976470947e-02) (66, -5.31418621540069580078e-03) (67, -1.21366119384765625000e+00) (34, 3.51567089557647705078e-01) (35, 3.21633405983448028564e-02) (36, -3.02341058850288391113e-02) (37, -9.74961891770362854004e-02) (38, -2.42816507816314697266e-01) (39, -3.33695150911808013916e-02) (40, -2.45374394580721855164e-04) (41, -1.59835703670978546143e-02) (42, 6.66563749313354492188e-01) (43, 3.25248539447784423828e-02) (44, 3.72198730707168579102e-01) (45, 6.00917525589466094971e-02) (46, 7.12311208248138427734e-01) (47, 9.54855456948280334473e-02) (48, 6.33648261427879333496e-02) (49, -9.41507518291473388672e-02) (50, -1.50611251592636108398e-01) (51, -4.51697140932083129883e-01) (52, -8.62339884042739868164e-02) (53, -2.39812191575765609741e-02) (54, -1.18618398904800415039e-01) (55, 1.39485880732536315918e-01) (56, 1.92886567674577236176e-03) (57, 1.56488597393035888672e-01) (58, -2.90831267833709716797e-01) (59, -1.00029748864471912384e-03) (60, -3.23254674673080444336e-01) (61, 8.84174928069114685059e-02) (62, 5.04302419722080230713e-02) (63, 7.05937892198562622070e-02) (64, 1.36093690991401672363e-01) (65, 7.16134011745452880859e-02) (66, 3.27182486653327941895e-02) (67, -1.13230538368225097656e+00) (34, 1.93795531988143920898e-01) (35, 4.81033846735954284668e-02) (36, -8.82813259959220886230e-02) (37, -1.03156708180904388428e-01) (38, -1.95562556385993957520e-01) (39, -2.05707877874374389648e-01) (40, -2.27561052888631820679e-02) (41, 3.89917194843292236328e-02) (42, 6.28979206085205078125e-01) (43, 6.77466066554188728333e-03) (44, 3.39988499879837036133e-01) (45, 2.55836099386215209961e-02) (46, 7.44682788848876953125e-01) (47, 1.30824774503707885742e-01) (48, -1.01353367790579795837e-02) (49, -1.99065804481506347656e-01) (50, -1.99122324585914611816e-01) (51, -4.51060771942138671875e-01) (52, -1.57539039850234985352e-01) (53, 4.39825840294361114502e-02) (54, -2.37693130970001220703e-01) (55, 7.62498797848820686340e-03) (56, -6.84099048376083374023e-02) (57, 9.11505594849586486816e-02) (58, -1.24270513653755187988e-01) (59, -8.66209492087364196777e-02) (60, -3.21796387434005737305e-01) (61, 5.55563420057296752930e-02) (62, 7.40009024739265441895e-02) (63, -6.32537007331848144531e-02) (64, -2.55818869918584823608e-02) (65, 8.80693942308425903320e-02) (66, 7.34425634145736694336e-02) (67, -1.17680084705352783203e+00) (34, 2.37427100539207458496e-01) (35, -5.69946039468050003052e-03) (36, -7.99429938197135925293e-02) (37, -1.01486891508102416992e-01) (38, -2.49146461486816406250e-01) (39, -6.80866912007331848145e-02) (40, -5.85864372551441192627e-02) (41, -1.79339647293090820312e-02) (42, 5.51818788051605224609e-01) (43, 7.12899416685104370117e-02) (44, 3.20145249366760253906e-01) (45, 1.12034074962139129639e-01) (46, 6.49895548820495605469e-01) (47, 1.15478478372097015381e-01) (48, 5.19357323646545410156e-02) (49, -2.31441363692283630371e-01) (50, -2.04699739813804626465e-01) (51, -3.18872600793838500977e-01) (52, -1.22810661792755126953e-01) (53, 1.30451843142509460449e-02) (54, -2.02414169907569885254e-01) (55, 4.97708544135093688965e-02) (56, -3.55125963687896728516e-02) (57, 1.95951476693153381348e-01) (58, -3.05808216333389282227e-01) (59, -4.45985272526741027832e-02) (60, -4.22863483428955078125e-01) (61, -4.91679646074771881104e-02) (62, -5.15006035566329956055e-02) (63, -8.11839997768402099609e-02) (64, 7.14848339557647705078e-02) (65, 1.68516747653484344482e-02) (66, 1.24593712389469146729e-02) (67, -1.40022790431976318359e+00) 
