FANN_FLO_2.1
num_layers=3
learning_rate=0.697986
connection_rate=1.000000
network_type=0
learning_momentum=0.000000
training_algorithm=0
train_error_function=1
train_stop_function=0
cascade_output_change_fraction=0.010000
quickprop_decay=-0.000100
quickprop_mu=1.750000
rprop_increase_factor=1.200000
rprop_decrease_factor=0.500000
rprop_delta_min=0.000000
rprop_delta_max=50.000000
rprop_delta_zero=0.100000
cascade_output_stagnation_epochs=12
cascade_candidate_change_fraction=0.010000
cascade_candidate_stagnation_epochs=12
cascade_max_out_epochs=150
cascade_min_out_epochs=50
cascade_max_cand_epochs=150
cascade_min_cand_epochs=50
cascade_num_candidate_groups=2
bit_fail_limit=3.49999994039535522461e-01
cascade_candidate_limit=1.00000000000000000000e+03
cascade_weight_multiplier=4.00000005960464477539e-01
cascade_activation_functions_count=10
cascade_activation_functions=3 5 7 8 10 11 14 15 16 17 
cascade_activation_steepnesses_count=39
cascade_activation_steepnesses=1.00000000000000000000e+00 1.15400000000000000000e+03 0.00000000000000000000e+00 0.00000000000000000000e+00 1.00000000000000000000e+01 6.08300000000000000000e+03 6.08400000000000000000e+03 6.08500000000000000000e+03 6.08600000000000000000e+03 6.08700000000000000000e+03 6.08800000000000000000e+03 6.08900000000000000000e+03 6.09000000000000000000e+03 6.09100000000000000000e+03 6.09200000000000000000e+03 0.00000000000000000000e+00 0.00000000000000000000e+00 2.00000000000000000000e+01 1.07629100000000000000e+06 1.07629200000000000000e+06 1.07629300000000000000e+06 1.07629400000000000000e+06 1.07629500000000000000e+06 1.07629600000000000000e+06 1.07629700000000000000e+06 1.07629800000000000000e+06 1.07629900000000000000e+06 1.07630000000000000000e+06 1.07667500000000000000e+06 1.07667600000000000000e+06 1.07667700000000000000e+06 1.07667800000000000000e+06 1.07667900000000000000e+06 1.07668000000000000000e+06 1.07668100000000000000e+06 1.07668200000000000000e+06 1.07668300000000000000e+06 1.07668400000000000000e+06 0.00000000000000000000e+00 
layer_sizes=32 32 32 
scale_included=0
neurons (num_inputs, activation_function, activation_steepness)=(0, 0, 0.00000000000000000000e+00) (0, 0, 0.00000000000000000000e+00) (0, 0, 0.00000000000000000000e+00) (0, 0, 0.00000000000000000000e+00) (0, 0, 0.00000000000000000000e+00) (0, 0, 0.00000000000000000000e+00) (0, 0, 0.00000000000000000000e+00) (0, 0, 0.00000000000000000000e+00) (0, 0, 0.00000000000000000000e+00) (0, 0, 0.00000000000000000000e+00) (0, 0, 0.00000000000000000000e+00) (0, 0, 0.00000000000000000000e+00) (0, 0, 0.00000000000000000000e+00) (0, 0, 0.00000000000000000000e+00) (0, 0, 0.00000000000000000000e+00) (0, 0, 0.00000000000000000000e+00) (0, 0, 0.00000000000000000000e+00) (0, 0, 0.00000000000000000000e+00) (0, 0, 0.00000000000000000000e+00) (0, 0, 0.00000000000000000000e+00) (0, 0, 0.00000000000000000000e+00) (0, 0, 0.00000000000000000000e+00) (0, 0, 0.00000000000000000000e+00) (0, 0, 0.00000000000000000000e+00) (0, 0, 0.00000000000000000000e+00) (0, 0, 0.00000000000000000000e+00) (0, 0, 0.00000000000000000000e+00) (0, 0, 0.00000000000000000000e+00) (0, 0, 0.00000000000000000000e+00) (0, 0, 0.00000000000000000000e+00) (0, 0, 0.00000000000000000000e+00) (0, 0, 0.00000000000000000000e+00) (32, 5, 5.00000000000000000000e-01) (32, 5, 5.00000000000000000000e-01) (32, 5, 5.00000000000000000000e-01) (32, 5, 5.00000000000000000000e-01) (32, 5, 5.00000000000000000000e-01) (32, 5, 5.00000000000000000000e-01) (32, 5, 5.00000000000000000000e-01) (32, 5, 5.00000000000000000000e-01) (32, 5, 5.00000000000000000000e-01) (32, 5, 5.00000000000000000000e-01) (32, 5, 5.00000000000000000000e-01) (32, 5, 5.00000000000000000000e-01) (32, 5, 5.00000000000000000000e-01) (32, 5, 5.00000000000000000000e-01) (32, 5, 5.00000000000000000000e-01) (32, 5, 5.00000000000000000000e-01) (32, 5, 5.00000000000000000000e-01) (32, 5, 5.00000000000000000000e-01) (32, 5, 5.00000000000000000000e-01) (32, 5, 5.00000000000000000000e-01) (32, 5, 5.00000000000000000000e-01) (32, 5, 5.00000000000000000000e-01) (32, 5, 5.00000000000000000000e-01) (32, 5, 5.00000000000000000000e-01) (32, 5, 5.00000000000000000000e-01) (32, 5, 5.00000000000000000000e-01) (32, 5, 5.00000000000000000000e-01) (32, 5, 5.00000000000000000000e-01) (32, 5, 5.00000000000000000000e-01) (32, 5, 5.00000000000000000000e-01) (32, 5, 5.00000000000000000000e-01) (0, 5, 0.00000000000000000000e+00) (32, 3, 5.00000000000000000000e-01) (32, 3, 5.00000000000000000000e-01) (32, 3, 5.00000000000000000000e-01) (32, 3, 5.00000000000000000000e-01) (32, 3, 5.00000000000000000000e-01) (32, 3, 5.00000000000000000000e-01) (32, 3, 5.00000000000000000000e-01) (32, 3, 5.00000000000000000000e-01) (32, 3, 5.00000000000000000000e-01) (32, 3, 5.00000000000000000000e-01) (32, 3, 5.00000000000000000000e-01) (32, 3, 5.00000000000000000000e-01) (32, 3, 5.00000000000000000000e-01) (32, 3, 5.00000000000000000000e-01) (32, 3, 5.00000000000000000000e-01) (32, 3, 5.00000000000000000000e-01) (32, 3, 5.00000000000000000000e-01) (32, 3, 5.00000000000000000000e-01) (32, 3, 5.00000000000000000000e-01) (32, 3, 5.00000000000000000000e-01) (32, 3, 5.00000000000000000000e-01) (32, 3, 5.00000000000000000000e-01) (32, 3, 5.00000000000000000000e-01) (32, 3, 5.00000000000000000000e-01) (32, 3, 5.00000000000000000000e-01) (32, 3, 5.00000000000000000000e-01) (32, 3, 5.00000000000000000000e-01) (32, 3, 5.00000000000000000000e-01) (32, 3, 5.00000000000000000000e-01) (32, 3, 5.00000000000000000000e-01) (32, 3, 5.00000000000000000000e-01) (0, 3, 0.00000000000000000000e+00) 
connections (connected_to_neuron, weight)=(0, -2.90654338896274566650e-02) (1, 8.55898082256317138672e-01) (2, 4.31198835372924804688e-01) (3, 6.06437385082244873047e-01) (4, -4.87020969390869140625e-01) (5, 1.14329123497009277344e+00) (6, -3.34819816052913665771e-02) (7, 4.69575077295303344727e-01) (8, -3.67807090282440185547e-01) (9, 4.08724606037139892578e-01) (10, -4.54417318105697631836e-01) (11, 5.89634954929351806641e-01) (12, 9.85578224062919616699e-02) (13, 1.67794853448867797852e-01) (14, -7.82727077603340148926e-02) (15, 7.20340847969055175781e-01) (16, 4.32653985917568206787e-02) (17, 2.49935016036033630371e-01) (18, -3.41747939586639404297e-01) (19, -4.45560924708843231201e-02) (20, -3.06723296642303466797e-01) (21, 2.14756920933723449707e-01) (22, -2.47706964612007141113e-01) (23, 8.08700770139694213867e-02) (24, -5.17710924148559570312e-01) (25, 4.14353728294372558594e-01) (26, -1.11075058579444885254e-01) (27, -1.25580325722694396973e-01) (28, -4.11455422639846801758e-01) (29, -7.88439661264419555664e-02) (30, -2.00545981526374816895e-01) (31, -9.52187359333038330078e-01) (0, 6.64881095290184020996e-02) (1, -2.53294169902801513672e-01) (2, -4.62482988834381103516e-01) (3, -5.22217750549316406250e-01) (4, -3.42590117454528808594e+00) (5, -1.61308979988098144531e+00) (6, 1.11757981777191162109e+00) (7, -6.34308904409408569336e-02) (8, -1.30538374185562133789e-01) (9, 3.35630148649215698242e-01) (10, 4.46490705013275146484e-01) (11, -1.91994011402130126953e-01) (12, -2.42267221212387084961e-01) (13, -5.42166411876678466797e-01) (14, -2.09368538856506347656e+00) (15, -3.19605231285095214844e-01) (16, 4.50111806392669677734e-01) (17, -1.21877118945121765137e-01) (18, -1.12060442566871643066e-01) (19, 6.33059918880462646484e-01) (20, -6.05121701955795288086e-02) (21, -1.80505022406578063965e-01) (22, 3.59893023967742919922e-01) (23, 4.67307835817337036133e-01) (24, -9.31047856807708740234e-01) (25, -1.47667384147644042969e+00) (26, 6.09858155250549316406e-01) (27, 5.43440520763397216797e-01) (28, 3.64400088787078857422e-01) (29, 3.21078717708587646484e-01) (30, 6.47923648357391357422e-01) (31, 1.25142359733581542969e+00) (0, 6.87288403511047363281e-01) (1, 3.30231070518493652344e-01) (2, -4.54678475856781005859e-01) (3, 3.02405744791030883789e-01) (4, -2.57222384214401245117e-01) (5, 1.17921793460845947266e+00) (6, 2.34142708778381347656e+00) (7, 4.36792910099029541016e-01) (8, -4.53205227851867675781e-01) (9, -2.97467768192291259766e-01) (10, -1.28149068355560302734e+00) (11, 1.49079665541648864746e-01) (12, 5.93987554311752319336e-02) (13, 8.19596052169799804688e-02) (14, -3.20871740579605102539e-01) (15, 7.62701809406280517578e-01) (16, 1.20847129821777343750e+00) (17, -1.32478520274162292480e-01) (18, -5.15436232089996337891e-01) (19, 1.12997837364673614502e-01) (20, -4.72751379013061523438e-01) (21, 3.52872745133936405182e-03) (22, -7.41869628429412841797e-01) (23, -1.14424258470535278320e-01) (24, -3.14943671226501464844e-01) (25, 5.48894524574279785156e-01) (26, 1.07189047336578369141e+00) (27, 2.44585603475570678711e-01) (28, -2.33633935451507568359e-01) (29, -7.48391568660736083984e-01) (30, -6.65163159370422363281e-01) (31, -1.67591571807861328125e+00) (0, 5.45676723122596740723e-02) (1, -1.26601457595825195312e+00) (2, -1.20744132995605468750e+00) (3, -1.63983225822448730469e-01) (4, -2.08045944571495056152e-01) (5, -3.54501545429229736328e-01) (6, 1.02875781059265136719e+00) (7, -1.08756855130195617676e-01) (8, 4.70418155193328857422e-01) (9, -4.69568185508251190186e-02) (10, -7.04890396445989608765e-03) (11, -9.69531595706939697266e-01) (12, -5.77983260154724121094e-01) (13, -1.51594981551170349121e-01) (14, -9.78909358382225036621e-02) (15, -3.09174001216888427734e-01) (16, 4.59338337182998657227e-01) (17, -5.60705922544002532959e-02) (18, 2.09497600793838500977e-01) (19, 1.45147159695625305176e-01) (20, -1.14805087447166442871e-01) (21, -3.68965178728103637695e-01) (22, -4.50281918048858642578e-01) (23, 2.29440718889236450195e-01) (24, 9.50312390923500061035e-02) (25, -7.25067928433418273926e-02) (26, 6.59054338932037353516e-01) (27, 2.74416238069534301758e-01) (28, 5.58886229991912841797e-01) (29, -1.36035671457648277283e-02) (30, 6.94742798805236816406e-02) (31, 8.41017305850982666016e-01) (0, 3.56460452079772949219e-01) (1, 6.88188314437866210938e-01) (2, -1.20718598365783691406e-01) (3, 2.39452213048934936523e-01) (4, -4.42398190498352050781e-02) (5, 1.68961608409881591797e+00) (6, -1.80752262473106384277e-01) (7, 9.87257480621337890625e-01) (8, -6.13525450229644775391e-01) (9, 3.48570734262466430664e-01) (10, -3.31187784671783447266e-01) (11, 7.80061960220336914062e-01) (12, -3.46238911151885986328e-01) (13, -7.56397545337677001953e-02) (14, -1.98240056633949279785e-01) (15, 1.20491302013397216797e+00) (16, 2.21043881028890609741e-02) (17, 3.83096218109130859375e-01) (18, -3.48655104637145996094e-01) (19, 1.76407366991043090820e-01) (20, -3.99706751108169555664e-01) (21, -5.01881949603557586670e-02) (22, -2.34175905585289001465e-01) (23, 9.27055776119232177734e-02) (24, 4.12141066044569015503e-03) (25, 6.79026186466217041016e-01) (26, -1.79045125842094421387e-01) (27, 2.06958130002021789551e-01) (28, -7.01721608638763427734e-01) (29, -2.06692054867744445801e-01) (30, 4.04042974114418029785e-02) (31, -9.76737678050994873047e-01) (0, 3.92121970653533935547e-01) (1, -8.18025887012481689453e-01) (2, -3.46504426002502441406e+00) (3, -8.32475051283836364746e-02) (4, -6.16294629871845245361e-02) (5, -1.99373178184032440186e-02) (6, 1.38706290721893310547e+00) (7, 1.53407990932464599609e+00) (8, 1.22408747673034667969e-01) (9, -1.02472913265228271484e+00) (10, 1.31509745121002197266e+00) (11, -4.03981745243072509766e-01) (12, -1.32624721527099609375e+00) (13, -4.21939134597778320312e-01) (14, -4.72921133041381835938e-02) (15, -7.65210762619972229004e-02) (16, 1.31753611564636230469e+00) (17, 8.22826743125915527344e-01) (18, -3.04140131920576095581e-02) (19, -2.52893775701522827148e-01) (20, 4.47592943906784057617e-01) (21, -2.56503611803054809570e-01) (22, -1.48806321620941162109e+00) (23, 1.01648402214050292969e+00) (24, 7.68639683723449707031e-01) (25, -9.99845862388610839844e-02) (26, -1.66117027401924133301e-02) (27, 1.62176382541656494141e+00) (28, 9.12897109985351562500e-01) (29, -5.49754090607166290283e-02) (30, 7.91033446788787841797e-01) (31, 1.77264988422393798828e+00) (0, 5.35170018672943115234e-01) (1, -1.50940263271331787109e+00) (2, 6.87951564788818359375e-01) (3, -8.88774693012237548828e-01) (4, -2.81780505180358886719e+00) (5, -5.34176528453826904297e-01) (6, -1.55531060695648193359e+00) (7, 1.86083352565765380859e+00) (8, 6.90187335014343261719e-01) (9, 8.82980048656463623047e-01) (10, 9.45175588130950927734e-01) (11, -1.09571564197540283203e+00) (12, 3.74461896717548370361e-02) (13, -4.40414130687713623047e-01) (14, -1.22257816791534423828e+00) (15, -3.64612728357315063477e-01) (16, -9.54878091812133789062e-01) (17, 1.06861674785614013672e+00) (18, 5.55499553680419921875e-01) (19, 3.77355575561523437500e-01) (20, 1.61425977945327758789e-01) (21, -3.99478316307067871094e-01) (22, 9.85628068447113037109e-01) (23, -2.03326828777790069580e-02) (24, -1.28550374507904052734e+00) (25, -3.72663021087646484375e-01) (26, -6.45089447498321533203e-01) (27, 1.23090159893035888672e+00) (28, 3.69417637586593627930e-01) (29, 8.36579144001007080078e-01) (30, 7.35276520252227783203e-01) (31, 1.11133372783660888672e+00) (0, 2.16459378600120544434e-01) (1, 2.97168731689453125000e-01) (2, 5.77566325664520263672e-01) (3, 4.33707028627395629883e-01) (4, 1.51727044582366943359e+00) (5, -4.25588428974151611328e-01) (6, -6.10648870468139648438e-01) (7, -1.00266194343566894531e+00) (8, 4.97623905539512634277e-02) (9, -3.95074278116226196289e-01) (10, 5.51651000976562500000e-01) (11, 6.71816170215606689453e-02) (12, 5.06319344043731689453e-01) (13, 5.02001702785491943359e-01) (14, 5.57624518871307373047e-01) (15, 2.14770495891571044922e-01) (16, 5.97253032028675079346e-02) (17, -1.61113902926445007324e-01) (18, -8.92687439918518066406e-02) (19, -6.19897013530135154724e-03) (20, 5.61000287532806396484e-01) (21, 1.70892313122749328613e-01) (22, 7.16926574707031250000e-01) (23, 4.51829105615615844727e-01) (24, 1.39926028251647949219e+00) (25, -7.41145312786102294922e-01) (26, -7.65457332134246826172e-01) (27, -2.19285905361175537109e-01) (28, 7.18925118446350097656e-01) (29, 3.69377404451370239258e-01) (30, 3.54249496012926101685e-03) (31, -1.23597327619791030884e-02) (0, 2.93932497501373291016e-01) (1, 1.57473766803741455078e+00) (2, -2.37606972455978393555e-01) (3, 1.67358607053756713867e-01) (4, 2.44048786163330078125e+00) (5, 2.31590524315834045410e-01) (6, 1.87825337052345275879e-01) (7, -1.16071172058582305908e-01) (8, -1.08538091182708740234e+00) (9, -1.21067953109741210938e+00) (10, 8.66735696792602539062e-01) (11, 7.32153415679931640625e-01) (12, 7.33321681618690490723e-02) (13, 4.09981399774551391602e-01) (14, 1.04100394248962402344e+00) (15, -2.13931668549776077271e-02) (16, 2.42183431982994079590e-01) (17, -3.38633179664611816406e-01) (18, -3.36176753044128417969e-01) (19, -4.42623972892761230469e-01) (20, 5.68481624126434326172e-01) (21, 8.32297325134277343750e-01) (22, -2.81885005533695220947e-02) (23, -3.89336682856082916260e-02) (24, 1.52330076694488525391e+00) (25, 2.05762520432472229004e-01) (26, -6.51046782732009887695e-02) (27, 4.24463212490081787109e-01) (28, -6.05092406272888183594e-01) (29, -7.31021523475646972656e-01) (30, 3.14974516630172729492e-01) (31, -2.66266018152236938477e-01) (0, 1.57568052411079406738e-01) (1, -3.16144227981567382812e+00) (2, 1.34552106261253356934e-01) (3, -6.37271031737327575684e-02) (4, -8.51869881153106689453e-01) (5, 2.56946176290512084961e-01) (6, -7.40159869194030761719e-01) (7, -5.79084098339080810547e-01) (8, 3.94508093595504760742e-02) (9, 1.87689945101737976074e-01) (10, 5.62145948410034179688e-01) (11, -1.88523399829864501953e+00) (12, 3.67003977298736572266e-01) (13, 1.06224969029426574707e-01) (14, -4.32198911905288696289e-01) (15, 2.27705329656600952148e-01) (16, -5.76310217380523681641e-01) (17, -8.17108377814292907715e-02) (18, -5.97219020128250122070e-02) (19, 2.33229771256446838379e-01) (20, -1.05930551886558532715e-01) (21, -1.18785953521728515625e+00) (22, 9.16693657636642456055e-02) (23, 1.77404761314392089844e-01) (24, -2.04316824674606323242e-01) (25, -3.16110104322433471680e-02) (26, -1.23707093298435211182e-01) (27, -1.72796577215194702148e-01) (28, 5.14692604541778564453e-01) (29, 1.85549527406692504883e-01) (30, 6.06634020805358886719e-01) (31, 1.05394971370697021484e+00) (0, -1.05845379829406738281e+00) (1, 7.86197245121002197266e-01) (2, 9.45448935031890869141e-01) (3, 7.34626874327659606934e-02) (4, -2.61976575851440429688e+00) (5, -2.17843794822692871094e+00) (6, -6.09046041965484619141e-01) (7, -9.32820975780487060547e-01) (8, 8.06246697902679443359e-01) (9, 1.05102807283401489258e-01) (10, 1.07188940048217773438e+00) (11, 5.05737364292144775391e-01) (12, 6.12630724906921386719e-01) (13, -2.80430853366851806641e-01) (14, -1.58638417720794677734e+00) (15, -1.08532834053039550781e+00) (16, -4.65045273303985595703e-01) (17, -4.63823944330215454102e-01) (18, 5.91863811016082763672e-01) (19, 4.69179600477218627930e-02) (20, 6.11820280551910400391e-01) (21, 2.80844211578369140625e-01) (22, 8.53396713733673095703e-01) (23, 6.99354350566864013672e-01) (24, -4.86311584711074829102e-01) (25, -9.39926803112030029297e-01) (26, -1.55727535486221313477e-01) (27, 1.19367145001888275146e-01) (28, 7.31967389583587646484e-01) (29, 5.92553794384002685547e-01) (30, 3.73541623353958129883e-01) (31, 1.21797752380371093750e+00) (0, 5.87772488594055175781e-01) (1, -2.47748732566833496094e-01) (2, -7.93663859367370605469e-01) (3, 8.31720679998397827148e-02) (4, 7.75639414787292480469e-02) (5, 9.41863179206848144531e-01) (6, 7.89653778076171875000e-01) (7, -2.96822302043437957764e-02) (8, 4.75836217403411865234e-01) (9, 5.89002966880798339844e-01) (10, 5.87188899517059326172e-01) (11, -6.84574961662292480469e-01) (12, -8.04770588874816894531e-01) (13, -1.28455087542533874512e-01) (14, 3.14574152231216430664e-01) (15, 2.65771597623825073242e-01) (16, 3.59595537185668945312e-01) (17, -3.25885862112045288086e-01) (18, 4.37241077423095703125e-01) (19, 4.19782191514968872070e-01) (20, 2.19610810279846191406e-01) (21, 4.18411731719970703125e-01) (22, 4.24728214740753173828e-01) (23, 6.72341465950012207031e-01) (24, 2.73368775844573974609e-01) (25, 7.02375710010528564453e-01) (26, 3.95987004041671752930e-01) (27, 7.16628789901733398438e-01) (28, 6.67320847511291503906e-01) (29, 6.24233007431030273438e-01) (30, 5.13192892074584960938e-01) (31, 7.03801885247230529785e-02) (0, 2.82487690448760986328e-01) (1, -6.15963101387023925781e-01) (2, -8.97981762886047363281e-01) (3, 4.35235440731048583984e-01) (4, 1.16420043632388114929e-02) (5, 2.05453708767890930176e-02) (6, 1.42146039009094238281e+00) (7, -4.61543798446655273438e-01) (8, 1.34530812501907348633e-01) (9, -4.92082148790359497070e-01) (10, -1.02188691496849060059e-01) (11, -5.40387332439422607422e-01) (12, -4.02904868125915527344e-01) (13, 2.05031692981719970703e-01) (14, -1.90637469291687011719e-01) (15, -1.72366976737976074219e-01) (16, 3.60503494739532470703e-01) (17, -6.30145788192749023438e-01) (18, 3.22054326534271240234e-02) (19, 7.41896498948335647583e-03) (20, 9.95796099305152893066e-02) (21, 5.13771101832389831543e-02) (22, -4.10274237394332885742e-01) (23, 5.65433919429779052734e-01) (24, 2.30890363454818725586e-01) (25, 1.68270230293273925781e-01) (26, 8.65627706050872802734e-01) (27, 2.50328153371810913086e-01) (28, 3.32458525896072387695e-01) (29, -7.38414525985717773438e-02) (30, -1.90178513526916503906e-01) (31, 3.94495517015457153320e-01) (0, 3.85267257690429687500e-01) (1, -1.53690474107861518860e-02) (2, -1.41836023330688476562e+00) (3, 5.50483405590057373047e-01) (4, 1.59071183204650878906e+00) (5, 1.36789309978485107422e+00) (6, 1.06305599212646484375e+00) (7, -5.60157299041748046875e-01) (8, 1.14176794886589050293e-01) (9, -7.47281968593597412109e-01) (10, -3.19812804460525512695e-01) (11, -9.51646734029054641724e-03) (12, -5.68982183933258056641e-01) (13, 5.04467725753784179688e-01) (14, 6.50881111621856689453e-01) (15, 6.83037400245666503906e-01) (16, 6.45711541175842285156e-01) (17, -2.85771518945693969727e-01) (18, -1.23978979885578155518e-01) (19, -1.87125176191329956055e-01) (20, 9.40934419631958007812e-02) (21, -1.88642904162406921387e-01) (22, -8.59688282012939453125e-01) (23, 1.62592649459838867188e-01) (24, 9.63153719902038574219e-01) (25, 6.48461818695068359375e-01) (26, 4.09518480300903320312e-01) (27, -9.63044315576553344727e-02) (28, 4.82802718877792358398e-01) (29, -5.25638163089752197266e-01) (30, -4.72788006067276000977e-01) (31, -3.56853038072586059570e-01) (0, 1.42116218805313110352e-01) (1, 5.90537965297698974609e-01) (2, 7.75376677513122558594e-01) (3, 9.42678093910217285156e-01) (4, 1.19301152229309082031e+00) (5, 2.66001319885253906250e+00) (6, 1.38296687602996826172e+00) (7, -6.75893306732177734375e-01) (8, -2.22134083509445190430e-01) (9, 9.27715480327606201172e-01) (10, -2.43232941627502441406e+00) (11, 5.35344183444976806641e-01) (12, 4.52375531196594238281e-01) (13, 6.17778778076171875000e-01) (14, 3.91167551279067993164e-01) (15, 1.39055478572845458984e+00) (16, 8.65983963012695312500e-01) (17, -3.67830395698547363281e-01) (18, -7.60468602180480957031e-01) (19, 3.79201710224151611328e-01) (20, -8.13012599945068359375e-01) (21, 9.61315706372261047363e-02) (22, -9.64144617319107055664e-02) (23, -2.32971459627151489258e-01) (24, 2.95700430870056152344e-01) (25, 1.35290443897247314453e+00) (26, 5.17127156257629394531e-01) (27, -1.00031399726867675781e+00) (28, 1.48568758741021156311e-02) (29, -2.20911532640457153320e-01) (30, -1.57586073875427246094e+00) (31, -2.19738698005676269531e+00) (0, -2.39316970109939575195e-01) (1, -7.76984572410583496094e-01) (2, 9.36052024364471435547e-01) (3, 1.90740287303924560547e-01) (4, -2.92606401443481445312e+00) (5, 4.77425515651702880859e-01) (6, 4.80564385652542114258e-01) (7, -8.91965389251708984375e-01) (8, 2.37751211971044540405e-02) (9, 1.07275104522705078125e+00) (10, -5.54977357387542724609e-01) (11, -4.88330632448196411133e-01) (12, 2.73584604263305664062e-01) (13, 1.93718634545803070068e-02) (14, -1.37952399253845214844e+00) (15, 4.80308473110198974609e-01) (16, 2.47625820338726043701e-02) (17, -4.63082224130630493164e-01) (18, -1.45823121070861816406e-01) (19, 3.37810307741165161133e-01) (20, -3.13682109117507934570e-01) (21, -4.28037017583847045898e-01) (22, 6.41882359981536865234e-01) (23, 1.96889698505401611328e-01) (24, -1.67647004127502441406e+00) (25, 5.06685674190521240234e-02) (26, 6.73752307891845703125e-01) (27, -5.71603238582611083984e-01) (28, 1.90418809652328491211e-01) (29, 7.22354233264923095703e-01) (30, -2.44917988777160644531e-01) (31, -3.28596532344818115234e-01) (0, 4.32701706886291503906e-01) (1, 8.15269827842712402344e-01) (2, -8.43862831592559814453e-01) (3, -5.83592802286148071289e-02) (4, -9.94277894496917724609e-02) (5, 4.18084681034088134766e-01) (6, 1.43872404098510742188e+00) (7, 1.61481171846389770508e-01) (8, -9.71775203943252563477e-02) (9, 8.80089104175567626953e-02) (10, -3.38922083377838134766e-01) (11, 3.98821562528610229492e-01) (12, -7.24216401576995849609e-01) (13, -2.44334653019905090332e-01) (14, -7.00696371495723724365e-03) (15, -1.84055447578430175781e-01) (16, 9.17200565338134765625e-01) (17, 1.68459087610244750977e-01) (18, 3.21404077112674713135e-02) (19, -5.59182390570640563965e-02) (20, -4.37595918774604797363e-02) (21, 3.92082154750823974609e-01) (22, -3.88533532619476318359e-01) (23, 9.18384790420532226562e-02) (24, -2.98866629600524902344e-01) (25, 5.86835145950317382812e-01) (26, 4.94290739297866821289e-01) (27, -1.18610024452209472656e-01) (28, -2.18848228454589843750e-01) (29, -1.22559666633605957031e-01) (30, -3.06226015090942382812e-01) (31, -6.00023627281188964844e-01) (0, 1.21721802279353141785e-02) (1, 1.49310207366943359375e+00) (2, 1.79854202270507812500e+00) (3, 7.37732648849487304688e-01) (4, -1.29147255420684814453e+00) (5, 1.47224926948547363281e+00) (6, 1.37065887451171875000e+00) (7, -7.60209023952484130859e-01) (8, -9.90358710289001464844e-01) (9, -4.38106879591941833496e-02) (10, -3.67929935455322265625e-01) (11, 6.20858132839202880859e-01) (12, 1.45726180076599121094e+00) (13, 6.78570985794067382812e-01) (14, -2.68626362085342407227e-01) (15, 5.97459673881530761719e-01) (16, 5.72283327579498291016e-01) (17, -4.84032452106475830078e-01) (18, -9.58163857460021972656e-01) (19, -9.96203124523162841797e-02) (20, -1.61515936255455017090e-01) (21, 7.21241056919097900391e-01) (22, -4.15748395025730133057e-02) (23, -4.33894336223602294922e-01) (24, -1.62450575828552246094e+00) (25, 9.00054037570953369141e-01) (26, 7.64670133590698242188e-01) (27, -7.31734514236450195312e-01) (28, -5.73137164115905761719e-01) (29, -4.24310863018035888672e-01) (30, -3.31947416067123413086e-01) (31, -1.50324964523315429688e+00) (0, -4.26490187644958496094e-01) (1, 6.34861350059509277344e-01) (2, 2.77347612380981445312e+00) (3, 4.44318205118179321289e-01) (4, -1.05185401439666748047e+00) (5, -1.12519812583923339844e+00) (6, -1.22751736640930175781e+00) (7, -2.97165453433990478516e-01) (8, 5.31233608722686767578e-01) (9, 2.22027450799942016602e-01) (10, 4.68201905488967895508e-01) (11, 4.01243090629577636719e-01) (12, 1.57923829555511474609e+00) (13, 3.72392833232879638672e-01) (14, -6.86360001564025878906e-01) (15, -6.81348621845245361328e-01) (16, -5.27804315090179443359e-01) (17, -8.56606736779212951660e-02) (18, 1.68819129467010498047e-01) (19, -7.44902566075325012207e-02) (20, 1.19785331189632415771e-01) (21, 2.55269438028335571289e-01) (22, 9.41878378391265869141e-01) (23, -2.18078255653381347656e-01) (24, -3.94182622432708740234e-01) (25, -6.54310226440429687500e-01) (26, -8.34319829940795898438e-01) (27, -3.45784127712249755859e-01) (28, 1.31581515073776245117e-01) (29, -3.92261222004890441895e-02) (30, 2.28483483195304870605e-01) (31, -6.72351494431495666504e-02) (0, -2.60523855686187744141e-01) (1, 1.36912465095520019531e+00) (2, 1.62304133176803588867e-01) (3, 3.90202462673187255859e-01) (4, 3.85186195373535156250e-01) (5, -5.96327185630798339844e-01) (6, -8.68892133235931396484e-01) (7, -1.60144463181495666504e-01) (8, -9.02771651744842529297e-01) (9, -8.51545393466949462891e-01) (10, 6.22311890125274658203e-01) (11, 8.17242443561553955078e-01) (12, 2.95345187187194824219e-01) (13, -3.97079326212406158447e-02) (14, 3.55294346809387207031e-02) (15, -3.14774036407470703125e-01) (16, -4.12469297647476196289e-01) (17, -3.14556509256362915039e-01) (18, -4.03187841176986694336e-01) (19, -4.49101209640502929688e-01) (20, 5.13071119785308837891e-01) (21, 5.20775556564331054688e-01) (22, 5.92163912951946258545e-02) (23, 5.38263976573944091797e-01) (24, 4.92373228073120117188e-01) (25, -2.08186134696006774902e-01) (26, -4.91028308868408203125e-01) (27, 3.41898828744888305664e-01) (28, -6.02073132991790771484e-01) (29, -3.72698992490768432617e-01) (30, 1.68708302080631256104e-02) (31, 6.69524148106575012207e-02) (0, 6.58265352249145507812e-02) (1, -4.72252964973449707031e-01) (2, -7.68126547336578369141e-01) (3, -3.33847433328628540039e-01) (4, -2.44430613517761230469e+00) (5, 3.15559625625610351562e-01) (6, 1.94693990051746368408e-02) (7, 5.98763585090637207031e-01) (8, 5.50919115543365478516e-01) (9, 9.41348850727081298828e-01) (10, -2.32578530907630920410e-01) (11, -5.94073086977005004883e-02) (12, -5.74484527111053466797e-01) (13, -4.01477605104446411133e-01) (14, -1.32649898529052734375e+00) (15, 5.13797521591186523438e-01) (16, 1.32902905344963073730e-01) (17, 3.74458283185958862305e-01) (18, 1.58442661166191101074e-01) (19, 5.58140695095062255859e-01) (20, -2.83923745155334472656e-01) (21, -3.92393320798873901367e-01) (22, 1.86325982213020324707e-02) (23, 3.60577732324600219727e-01) (24, -8.47278594970703125000e-01) (25, -1.97277843952178955078e-01) (26, -9.39916148781776428223e-02) (27, 4.08060163259506225586e-01) (28, 7.15606689453125000000e-01) (29, 6.86988830566406250000e-01) (30, 9.23255607485771179199e-02) (31, 1.21900722384452819824e-01) (0, 2.70989060401916503906e-01) (1, -2.90437912940979003906e+00) (2, 7.03202635049819946289e-02) (3, 3.92814166843891143799e-02) (4, -6.76481187343597412109e-01) (5, 7.44699090719223022461e-02) (6, 1.28704011440277099609e+00) (7, -5.21018683910369873047e-01) (8, 6.74525916576385498047e-01) (9, 4.29555416107177734375e-01) (10, -3.06579440832138061523e-01) (11, -1.58680224418640136719e+00) (12, 1.50069504976272583008e-01) (13, 3.46774309873580932617e-01) (14, -3.47240567207336425781e-01) (15, 6.55995607376098632812e-02) (16, 5.16166448593139648438e-01) (17, -5.78865744173526763916e-02) (18, 3.45509536564350128174e-02) (19, 4.75853949785232543945e-01) (20, -3.26399654150009155273e-01) (21, -1.32793486118316650391e+00) (22, -8.42229053378105163574e-02) (23, -1.08842261135578155518e-01) (24, -3.29600661993026733398e-01) (25, 2.14802309870719909668e-01) (26, 8.67533922195434570312e-01) (27, -1.17070920765399932861e-01) (28, 6.82015538215637207031e-01) (29, 1.00378729403018951416e-01) (30, -1.12114623188972473145e-02) (31, 4.03750211000442504883e-01) (0, 3.61788049340248107910e-02) (1, 1.96494475007057189941e-01) (2, -2.41309165954589843750e-01) (3, -3.87215733528137207031e-01) (4, -5.40705084800720214844e-01) (5, -9.49292063713073730469e-01) (6, 6.80159479379653930664e-02) (7, -4.50925022363662719727e-01) (8, -2.49725818634033203125e-01) (9, -3.59551131725311279297e-01) (10, -1.09927795827388763428e-01) (11, 6.68358206748962402344e-01) (12, -2.03083068132400512695e-01) (13, -2.23448723554611206055e-01) (14, -3.80943506956100463867e-01) (15, -6.18244111537933349609e-02) (16, 7.15606510639190673828e-01) (17, -6.52870461344718933105e-02) (18, -1.74140632152557373047e-01) (19, -1.33812025189399719238e-01) (20, 8.68721455335617065430e-02) (21, -3.34722608327865600586e-01) (22, -5.45638129115104675293e-02) (23, -1.46416947245597839355e-01) (24, -4.83927056193351745605e-02) (25, -7.75440812110900878906e-01) (26, -5.61511814594268798828e-01) (27, -2.41265088319778442383e-01) (28, 4.23781611025333404541e-02) (29, -2.02395707368850708008e-01) (30, -2.95765161514282226562e-01) (31, 3.94982963800430297852e-01) (0, 1.84742599725723266602e-01) (1, 3.87307643890380859375e-01) (2, 5.75026452541351318359e-01) (3, -9.67446789145469665527e-02) (4, -3.37917804718017578125e-01) (5, 2.13475480675697326660e-01) (6, 8.42809677124023437500e-01) (7, -3.30262541770935058594e-01) (8, -6.91839233040809631348e-02) (9, -5.60728423297405242920e-02) (10, -4.39174413681030273438e-01) (11, -5.53154349327087402344e-02) (12, 3.08191865682601928711e-01) (13, 3.64982299506664276123e-02) (14, -9.78251397609710693359e-02) (15, -6.76649451255798339844e-01) (16, 2.18222081661224365234e-01) (17, -1.75138279795646667480e-01) (18, -1.05060257017612457275e-01) (19, -7.88043439388275146484e-02) (20, 3.53040322661399841309e-02) (21, 4.64799284934997558594e-01) (22, -3.39771121740341186523e-01) (23, -7.57722437381744384766e-01) (24, -7.72716820240020751953e-01) (25, 8.36425185203552246094e-01) (26, 7.43011653423309326172e-01) (27, -5.38081467151641845703e-01) (28, -5.29603064060211181641e-01) (29, -4.24636662006378173828e-01) (30, -5.98500669002532958984e-01) (31, -1.26271045207977294922e+00) (0, 2.04473286867141723633e-01) (1, -9.85585689544677734375e-01) (2, -2.12804627418518066406e+00) (3, -2.50675566494464874268e-02) (4, 1.05545029044151306152e-01) (5, 1.41579079627990722656e+00) (6, 7.67899572849273681641e-01) (7, 8.13499391078948974609e-01) (8, -1.63701906800270080566e-01) (9, 5.84436580538749694824e-02) (10, -3.80584269762039184570e-01) (11, -6.40638113021850585938e-01) (12, -1.19225037097930908203e+00) (13, -7.20580667257308959961e-02) (14, 2.26265862584114074707e-02) (15, 7.99177110195159912109e-01) (16, 5.94595849514007568359e-01) (17, 3.04818004369735717773e-01) (18, -2.92166858911514282227e-01) (19, 2.27634459733963012695e-01) (20, -3.88202220201492309570e-01) (21, -4.19521361589431762695e-01) (22, -1.02509355545043945312e+00) (23, 2.54775211215019226074e-03) (24, 1.06663748621940612793e-01) (25, 4.93721961975097656250e-01) (26, 1.60712063312530517578e-01) (27, 6.33773982524871826172e-01) (28, 7.70503431558609008789e-02) (29, -1.53786137700080871582e-01) (30, 1.91432051360607147217e-03) (31, 1.27577796578407287598e-01) (0, -1.92747861146926879883e-01) (1, -2.11133909225463867188e+00) (2, -1.44478535652160644531e+00) (3, 3.10396373271942138672e-01) (4, 2.48453354835510253906e+00) (5, 1.01453030109405517578e+00) (6, -1.39897680282592773438e+00) (7, 2.18904972076416015625e-01) (8, 3.69152933359146118164e-01) (9, -3.72172981500625610352e-01) (10, -3.27298998832702636719e-01) (11, -1.23482465744018554688e+00) (12, -5.79815924167633056641e-01) (13, 7.89834186434745788574e-02) (14, 1.97767567634582519531e+00) (15, -1.68629869818687438965e-01) (16, -1.02985048294067382812e+00) (17, -7.68120810389518737793e-02) (18, 2.04893603920936584473e-01) (19, -3.35305243730545043945e-01) (20, 1.92581042647361755371e-01) (21, -8.30537080764770507812e-01) (22, -9.46110069751739501953e-01) (23, -4.13460358977317810059e-02) (24, 3.07974696159362792969e-01) (25, 1.21139621734619140625e+00) (26, -4.46842461824417114258e-01) (27, -1.06599695980548858643e-01) (28, -1.66087090969085693359e-01) (29, -2.42256641387939453125e-01) (30, -2.85582363605499267578e-01) (31, 2.47746586799621582031e-01) (0, 2.32558026909828186035e-01) (1, 2.79966481029987335205e-02) (2, 4.17187273502349853516e-01) (3, 1.81649282574653625488e-01) (4, 8.81088554859161376953e-01) (5, -6.82194709777832031250e-01) (6, -1.00111188367009162903e-02) (7, -4.13876920938491821289e-01) (8, -2.20329120755195617676e-01) (9, -6.95300817489624023438e-01) (10, 3.42608273029327392578e-01) (11, 1.02460607886314392090e-01) (12, 2.73413717746734619141e-01) (13, -1.01458020508289337158e-01) (14, 1.98660552501678466797e-01) (15, -1.21430896222591400146e-01) (16, -1.82954579591751098633e-01) (17, -3.66796463727951049805e-01) (18, -5.67500740289688110352e-02) (19, -3.53030920028686523438e-01) (20, 3.83496552705764770508e-01) (21, 2.48118806630373001099e-02) (22, 3.54952037334442138672e-01) (23, 4.14536714553833007812e-01) (24, 9.76984977722167968750e-01) (25, -5.94347059726715087891e-01) (26, 1.56979560852050781250e-01) (27, 2.39098936319351196289e-01) (28, 1.86463072896003723145e-01) (29, -1.56891196966171264648e-01) (30, 6.37853667140007019043e-02) (31, 6.31494045257568359375e-01) (0, 5.09315967559814453125e-01) (1, -7.22590923309326171875e-01) (2, -9.68659162521362304688e-01) (3, 3.82932901382446289062e-01) (4, 1.06486320495605468750e+00) (5, 1.53860020637512207031e+00) (6, 7.02193677425384521484e-01) (7, 4.67728853225708007812e-01) (8, -3.16427588462829589844e-01) (9, -3.64222198724746704102e-01) (10, -6.98440790176391601562e-01) (11, -6.84285163879394531250e-02) (12, -3.95623773336410522461e-01) (13, 2.36079901456832885742e-01) (14, 7.44379103183746337891e-01) (15, 8.44208717346191406250e-01) (16, 4.25624370574951171875e-01) (17, 3.55938255786895751953e-01) (18, -5.26163160800933837891e-01) (19, -8.20529609918594360352e-02) (20, -2.01783865690231323242e-01) (21, -4.75321590900421142578e-01) (22, -8.26515018939971923828e-01) (23, -7.78634920716285705566e-02) (24, 1.65402799844741821289e-01) (25, 7.25286602973937988281e-01) (26, 3.71325701475143432617e-01) (27, -6.02935329079627990723e-02) (28, -1.41373932361602783203e-01) (29, -3.83077770471572875977e-01) (30, -3.67561876773834228516e-01) (31, -7.38703131675720214844e-01) (0, 4.21297401189804077148e-02) (1, -3.57372462749481201172e-02) (2, -9.30250406265258789062e-01) (3, 8.23319315910339355469e-01) (4, 3.06662917137145996094e-03) (5, 7.86286830902099609375e-01) (6, 1.62408399581909179688e+00) (7, 8.20401608943939208984e-02) (8, -1.60217732191085815430e-01) (9, -3.30584675073623657227e-01) (10, -6.26290798187255859375e-01) (11, 4.84899729490280151367e-02) (12, -6.05359911918640136719e-01) (13, 3.58588278293609619141e-01) (14, -1.68428808450698852539e-01) (15, 6.42865657806396484375e-01) (16, 5.24399757385253906250e-01) (17, -3.32889914512634277344e-01) (18, -2.54184305667877197266e-01) (19, 2.23414264619350433350e-02) (20, -2.95723259449005126953e-01) (21, 1.21097214519977569580e-01) (22, -5.40043830871582031250e-01) (23, 4.13742274045944213867e-01) (24, -2.29477882385253906250e-06) (25, 2.30742588639259338379e-01) (26, 1.08466780185699462891e+00) (27, 1.92661583423614501953e-01) (28, 7.30002298951148986816e-02) (29, -4.46565359830856323242e-01) (30, -4.77409452199935913086e-01) (31, -7.02223062515258789062e-01) (0, -7.42508396506309509277e-02) (1, 1.64276421070098876953e-01) (2, -3.89021426439285278320e-01) (3, -5.13102531433105468750e-01) (4, 6.55909955501556396484e-01) (5, 9.77621078491210937500e-01) (6, -8.05537104606628417969e-01) (7, -6.97396814823150634766e-01) (8, 1.71912699937820434570e-01) (9, 2.49897509813308715820e-01) (10, 4.13684904575347900391e-01) (11, 6.39676153659820556641e-01) (12, -1.20026849210262298584e-01) (13, 4.09588009119033813477e-01) (14, 8.39380860328674316406e-01) (15, 1.17003440856933593750e+00) (16, 2.06993430852890014648e-01) (17, 5.29169067740440368652e-02) (18, 2.40055859088897705078e-01) (19, 1.13886684179306030273e-01) (20, 3.08868616819381713867e-01) (21, -4.67886716127395629883e-01) (22, 1.00417661666870117188e+00) (23, 5.46202719211578369141e-01) (24, 1.05943012237548828125e+00) (25, -8.23261290788650512695e-02) (26, -1.00625538825988769531e+00) (27, 4.79339122772216796875e-01) (28, 1.20408964157104492188e+00) (29, 1.34351134300231933594e+00) (30, 2.05950796604156494141e-01) (31, 2.63635307550430297852e-01) (0, -2.11068078875541687012e-01) (1, 1.48679137229919433594e+00) (2, 1.23636698722839355469e+00) (3, -7.17903673648834228516e-01) (4, -6.37295067310333251953e-01) (5, 7.18080878257751464844e-01) (6, 1.26956522464752197266e+00) (7, 3.26169729232788085938e-01) (8, -4.99695092439651489258e-02) (9, 2.04494342207908630371e-01) (10, -1.73142170906066894531e+00) (11, 4.30522173643112182617e-01) (12, 4.15430098772048950195e-01) (13, -6.00242754444479942322e-03) (14, -3.67017596960067749023e-01) (15, -6.20375990867614746094e-01) (16, 3.60001362860202789307e-02) (17, 1.21180675923824310303e-01) (18, -4.63807955384254455566e-02) (19, 3.48509252071380615234e-02) (20, -4.30429458618164062500e-01) (21, 1.07090520858764648438e+00) (22, 8.58576521277427673340e-02) (23, -1.54807841777801513672e+00) (24, -1.23311781883239746094e+00) (25, 1.29721784591674804688e+00) (26, 1.26653778553009033203e+00) (27, -8.33685696125030517578e-01) (28, -9.72958028316497802734e-01) (29, -7.83813416957855224609e-01) (30, -1.25311338901519775391e+00) (31, -2.29278326034545898438e+00) (32, -1.69344350695610046387e-01) (33, 4.31777566671371459961e-01) (34, -4.20823484659194946289e-01) (35, 2.38230094313621520996e-01) (36, -5.85973858833312988281e-01) (37, -1.28574824333190917969e+00) (38, -1.38368844985961914062e+00) (39, -2.80521899461746215820e-01) (40, -1.33963155746459960938e+00) (41, 4.57686483860015869141e-01) (42, 6.29580438137054443359e-01) (43, 6.54844343662261962891e-01) (44, 4.39608097076416015625e-01) (45, 1.16971470415592193604e-01) (46, 6.64976119995117187500e-01) (47, 1.65295708179473876953e+00) (48, 4.00470420718193054199e-02) (49, 5.64256608486175537109e-01) (50, -4.32189315557479858398e-01) (51, -2.86257863044738769531e-01) (52, 4.93288636207580566406e-01) (53, 1.00619956851005554199e-01) (54, -8.73844921588897705078e-01) (55, 5.18080115318298339844e-01) (56, -4.90973263978958129883e-01) (57, -2.02903404831886291504e-01) (58, -3.81020665168762207031e-01) (59, -2.55831539630889892578e-01) (60, 2.01041281223297119141e-01) (61, 2.96440452337265014648e-01) (62, 9.80504930019378662109e-01) (63, 1.13665413856506347656e+00) (32, 9.16332751512527465820e-02) (33, -3.06734561920166015625e-01) (34, 2.78935641050338745117e-01) (35, -1.14838562905788421631e-01) (36, -2.74899989366531372070e-01) (37, -6.42436221241950988770e-02) (38, -6.37567369267344474792e-03) (39, 4.14923131465911865234e-01) (40, 3.36658179759979248047e-01) (41, -1.77522599697113037109e-02) (42, -2.11344763636589050293e-01) (43, 9.57835137844085693359e-01) (44, -2.53589544445276260376e-03) (45, 3.68596948683261871338e-02) (46, 1.21600419282913208008e-01) (47, -1.04936391115188598633e-01) (48, -2.82051097601652145386e-02) (49, 1.65851205587387084961e-01) (50, -7.98989608883857727051e-02) (51, 2.50739097595214843750e-01) (52, -8.41116607189178466797e-02) (53, -2.85958856344223022461e-01) (54, -5.24015188217163085938e-01) (55, 1.63850277662277221680e-01) (56, -9.79486629366874694824e-02) (57, 9.39412117004394531250e-02) (58, 1.89147405326366424561e-02) (59, 1.99095189571380615234e-01) (60, 1.55220925807952880859e-01) (61, 4.58474457263946533203e-01) (62, 3.99323962628841400146e-02) (63, 2.09735655784606933594e+00) (32, 4.55383121967315673828e-01) (33, 3.57952535152435302734e-01) (34, 4.02162253856658935547e-01) (35, -5.27335464954376220703e-01) (36, 5.49354851245880126953e-01) (37, -2.19137459993362426758e-01) (38, -5.23022413253784179688e-01) (39, 7.04046040773391723633e-02) (40, 8.96441340446472167969e-01) (41, -2.07244944572448730469e+00) (42, 5.44096112251281738281e-01) (43, 1.37332096695899963379e-01) (44, -1.16873607039451599121e-01) (45, 1.79781094193458557129e-01) (46, -2.29359090328216552734e-01) (47, -6.12404108047485351562e-01) (48, 6.90905869007110595703e-01) (49, 3.58968049287796020508e-01) (50, -6.21658451855182647705e-02) (51, 7.27214753627777099609e-01) (52, 2.56518244743347167969e-01) (53, -1.51936542987823486328e+00) (54, 1.44402340054512023926e-01) (55, 2.88126498460769653320e-01) (56, -1.95116072893142700195e-01) (57, -1.51257193088531494141e+00) (58, -1.35599719360470771790e-02) (59, -3.02477926015853881836e-01) (60, 2.47100412845611572266e-01) (61, 1.78653653711080551147e-02) (62, 7.03591406345367431641e-01) (63, -4.14348632097244262695e-01) (32, 1.39842554926872253418e-01) (33, -6.48348987102508544922e-01) (34, -1.11477009952068328857e-01) (35, -6.82460904121398925781e-01) (36, 6.62346631288528442383e-02) (37, -1.79647552967071533203e+00) (38, -2.96916693449020385742e-01) (39, 1.75613373517990112305e-01) (40, 6.09627008438110351562e-01) (41, -1.06172704696655273438e+00) (42, 2.98206031322479248047e-01) (43, -1.36427140235900878906e+00) (44, -6.04316771030426025391e-01) (45, -8.98574709892272949219e-01) (46, 6.80856823921203613281e-01) (47, 2.21744528971612453461e-03) (48, -4.79181945323944091797e-01) (49, 8.00548255443572998047e-01) (50, 1.24225878715515136719e+00) (51, 3.09072494506835937500e-01) (52, -8.23997735977172851562e-01) (53, -1.08125102519989013672e+00) (54, 3.62395077943801879883e-01) (55, 3.66427339613437652588e-02) (56, -8.66896629333496093750e-01) (57, -1.21582460403442382812e+00) (58, 1.56428277492523193359e-01) (59, -4.43783044815063476562e-01) (60, -3.47604513168334960938e-01) (61, -1.69840961694717407227e-01) (62, 8.86604666709899902344e-01) (63, -2.69370961189270019531e+00) (32, 2.62083131819963455200e-02) (33, -1.61002725362777709961e-02) (34, 9.83681008219718933105e-02) (35, -2.37228453159332275391e-01) (36, 3.30687940120697021484e-01) (37, 1.64669096469879150391e-01) (38, 4.66721832752227783203e-01) (39, 2.34305188059806823730e-01) (40, 1.90827772021293640137e-01) (41, 1.09790250658988952637e-01) (42, -2.26304844021797180176e-01) (43, 1.06065952777862548828e+00) (44, -4.26860630512237548828e-01) (45, 3.51316072046756744385e-02) (46, -4.59389925003051757812e-01) (47, 1.65225565433502197266e-01) (48, -1.48156717419624328613e-01) (49, -4.21985238790512084961e-01) (50, -2.43025213479995727539e-01) (51, -3.03935796022415161133e-01) (52, 1.17658533155918121338e-01) (53, 1.08524523675441741943e-01) (54, -8.78927826881408691406e-01) (55, -1.00719137117266654968e-02) (56, 2.79735654592514038086e-01) (57, -5.72809623554348945618e-03) (58, -9.78194735944271087646e-03) (59, -3.21690295822918415070e-03) (60, -3.35112243890762329102e-01) (61, 6.90421104431152343750e-01) (62, -9.00797769427299499512e-02) (63, 2.09143018722534179688e+00) (32, 6.32603764533996582031e-01) (33, 1.25819969177246093750e+00) (34, 5.73490321636199951172e-01) (35, -2.00256705284118652344e-01) (36, 6.65027678012847900391e-01) (37, 2.46332868933677673340e-01) (38, 1.35954844951629638672e+00) (39, -4.06395196914672851562e-01) (40, -6.89783215522766113281e-01) (41, 4.64853107929229736328e-01) (42, 7.61244416236877441406e-01) (43, 4.21431958675384521484e-01) (44, 1.57042846083641052246e-01) (45, -2.90597528219223022461e-01) (46, -1.50441005825996398926e-01) (47, 9.85984265804290771484e-01) (48, -8.33479836583137512207e-02) (49, 1.29504871368408203125e+00) (50, 3.50421845912933349609e-01) (51, -8.67445394396781921387e-02) (52, 9.18774664402008056641e-01) (53, 7.92862057685852050781e-01) (54, -3.52740675210952758789e-01) (55, -1.75136700272560119629e-01) (56, 6.87068626284599304199e-02) (57, -9.71037387847900390625e-01) (58, -5.18245995044708251953e-01) (59, -1.36112004518508911133e-01) (60, 2.74075984954833984375e-01) (61, 1.03536173701286315918e-01) (62, -1.91412672400474548340e-01) (63, 1.28628563880920410156e+00) (32, 7.05232858657836914062e-01) (33, -1.76054561138153076172e+00) (34, -1.15203626453876495361e-01) (35, -7.29275405406951904297e-01) (36, 9.31017696857452392578e-01) (37, -2.24949419498443603516e-01) (38, -7.61124193668365478516e-02) (39, 3.05709928274154663086e-01) (40, 4.15900081396102905273e-01) (41, -3.30303788185119628906e-01) (42, -9.66533124446868896484e-01) (43, 5.73398649692535400391e-01) (44, -4.56124395132064819336e-01) (45, 4.49006795883178710938e-01) (46, 1.21022212505340576172e+00) (47, -3.56540501117706298828e-01) (48, -1.61229535937309265137e-01) (49, 6.14405333995819091797e-01) (50, -2.20785126090049743652e-01) (51, 1.49184092879295349121e-01) (52, 1.53543323278427124023e-01) (53, -8.59968483448028564453e-01) (54, -1.13560044765472412109e+00) (55, 1.42182335257530212402e-01) (56, 4.69439148902893066406e-01) (57, 1.16202616691589355469e+00) (58, -4.26118850708007812500e-01) (59, 4.20666903257369995117e-01) (60, 5.96579909324645996094e-02) (61, 9.53925967216491699219e-01) (62, 3.54129165410995483398e-01) (63, 3.46421301364898681641e-01) (32, -1.86281219124794006348e-01) (33, -8.58154535293579101562e-01) (34, 1.27426159381866455078e+00) (35, 6.47898674011230468750e-01) (36, -1.56136035919189453125e-01) (37, 4.64018493890762329102e-01) (38, -1.11704492568969726562e+00) (39, -7.80576560646295547485e-03) (40, 7.33321845531463623047e-01) (41, -7.56836891174316406250e-01) (42, -9.54570651054382324219e-01) (43, 3.49222987890243530273e-01) (44, 1.13144481182098388672e+00) (45, 9.14062082767486572266e-01) (46, 1.15664935111999511719e+00) (47, -4.18353259563446044922e-01) (48, 5.65288007259368896484e-01) (49, 4.51408386230468750000e-01) (50, -9.51561629772186279297e-01) (51, -4.90442812442779541016e-01) (52, -3.94110113382339477539e-01) (53, 8.97373706102371215820e-02) (54, -8.74797403812408447266e-02) (55, 1.97015762329101562500e-01) (56, 7.32404768466949462891e-01) (57, -4.27983313798904418945e-01) (58, 2.25113645195960998535e-01) (59, 5.81677377223968505859e-01) (60, 1.23806238174438476562e+00) (61, 2.94451892375946044922e-01) (62, 8.91929984092712402344e-01) (63, -1.56281197071075439453e+00) (32, 7.40400791168212890625e-01) (33, -7.06632807850837707520e-02) (34, 1.54769229888916015625e+00) (35, -1.89209863543510437012e-01) (36, 1.19634246826171875000e+00) (37, 6.89233124256134033203e-01) (38, 5.81619441509246826172e-01) (39, -5.85329413414001464844e-01) (40, -2.77816712856292724609e-01) (41, -7.00961410999298095703e-01) (42, -8.25093805789947509766e-01) (43, -6.83034002780914306641e-01) (44, 9.99278575181961059570e-02) (45, -1.10187202692031860352e-01) (46, 1.32568991184234619141e+00) (47, 2.78997629880905151367e-01) (48, 4.29492622613906860352e-01) (49, 6.76322937011718750000e-01) (50, -5.74730157852172851562e-01) (51, 6.78503736853599548340e-02) (52, 4.92612332105636596680e-01) (53, -4.04427349567413330078e-01) (54, 2.21861213445663452148e-01) (55, -7.36840441823005676270e-02) (56, 7.92579948902130126953e-01) (57, -3.23201596736907958984e-01) (58, -2.65871107578277587891e-01) (59, 6.55497491359710693359e-01) (60, 8.05734932422637939453e-01) (61, -1.46698147058486938477e-01) (62, 5.16367912292480468750e-01) (63, -1.98344564437866210938e+00) (32, 1.25691324472427368164e-01) (33, -3.54268252849578857422e-01) (34, 5.39816617965698242188e-01) (35, 3.45169901847839355469e-01) (36, 7.49913379549980163574e-02) (37, 2.09284201264381408691e-01) (38, 7.51520037651062011719e-01) (39, 4.09737788140773773193e-02) (40, -4.13325577974319458008e-01) (41, 1.78095221519470214844e-01) (42, -2.97977268695831298828e-01) (43, -4.27428513765335083008e-01) (44, 3.17980945110321044922e-01) (45, 8.23852643370628356934e-02) (46, 6.48666024208068847656e-01) (47, 2.18404650688171386719e-01) (48, -4.19906117022037506104e-02) (49, -4.80703145265579223633e-01) (50, -1.69274091720581054688e-01) (51, -5.78087449073791503906e-01) (52, 7.27751731872558593750e-01) (53, 5.32627463340759277344e-01) (54, 2.76407245546579360962e-02) (55, -9.22997742891311645508e-02) (56, 4.39860761165618896484e-01) (57, -1.56319275498390197754e-01) (58, 2.16101780533790588379e-02) (59, 3.47482889890670776367e-01) (60, 5.37733495235443115234e-01) (61, -5.66201508045196533203e-02) (62, -7.18268752098083496094e-02) (63, -2.24183583259582519531e+00) (32, 1.40248283743858337402e-01) (33, 8.92101749777793884277e-02) (34, 5.58106541633605957031e-01) (35, 3.55919718742370605469e-01) (36, 1.98178201913833618164e-01) (37, -1.32990349084138870239e-02) (38, 4.78878468275070190430e-01) (39, -1.15494085475802421570e-02) (40, -5.77869594097137451172e-01) (41, 1.90847888588905334473e-01) (42, -1.81136444211006164551e-01) (43, -3.06714892387390136719e-01) (44, 2.79712826013565063477e-01) (45, 1.22858129441738128662e-01) (46, 8.57958614826202392578e-01) (47, 3.68240088224411010742e-01) (48, 1.37736918404698371887e-02) (49, -5.10819077491760253906e-01) (50, -3.26212018728256225586e-01) (51, -6.06552839279174804688e-01) (52, 9.39384937286376953125e-01) (53, 5.47880530357360839844e-01) (54, 1.80328339338302612305e-01) (55, -1.59964114427566528320e-01) (56, 6.82177901268005371094e-01) (57, -8.46808031201362609863e-02) (58, -3.49696874618530273438e-01) (59, 3.49326699972152709961e-01) (60, 4.66477841138839721680e-01) (61, -2.24492233246564865112e-03) (62, -2.25734367966651916504e-01) (63, -2.26839518547058105469e+00) (32, 1.10932983458042144775e-01) (33, 1.77047252655029296875e-01) (34, -1.50496408343315124512e-01) (35, -2.42392346262931823730e-01) (36, 4.20811682939529418945e-01) (37, -1.94394499063491821289e-01) (38, -2.65346258878707885742e-01) (39, 6.50107443332672119141e-01) (40, 4.76257741451263427734e-01) (41, -1.13418146967887878418e-01) (42, 1.67927861213684082031e-01) (43, -3.35750252008438110352e-01) (44, 9.96266230940818786621e-02) (45, 4.14389401674270629883e-01) (46, 3.02803933620452880859e-01) (47, 3.09422668069601058960e-02) (48, -2.23569110035896301270e-01) (49, -3.17745447158813476562e-01) (50, 2.05211490392684936523e-02) (51, 4.52140420675277709961e-01) (52, 4.64496649801731109619e-02) (53, -3.09221565723419189453e-01) (54, 5.84474503993988037109e-01) (55, -4.85105603933334350586e-01) (56, -1.27044036984443664551e-01) (57, -1.45651459693908691406e-01) (58, 6.01000189781188964844e-01) (59, -1.32183237001299858093e-02) (60, 3.85828614234924316406e-01) (61, 1.83948314189910888672e+00) (62, -6.45866036415100097656e-01) (63, 5.65369389951229095459e-02) (32, 2.81076878309249877930e-01) (33, 7.11851656436920166016e-01) (34, 1.26798897981643676758e-01) (35, -5.59023916721343994141e-01) (36, 6.85707092285156250000e-01) (37, -3.37878048419952392578e-01) (38, -5.25196075439453125000e-01) (39, 2.41698369383811950684e-01) (40, 4.80682909488677978516e-01) (41, -1.26931989192962646484e+00) (42, 5.54341018199920654297e-01) (43, -6.04420900344848632812e-01) (44, -1.44306376576423645020e-01) (45, 5.38767278194427490234e-02) (46, 1.15787111222743988037e-01) (47, -2.04707860946655273438e-01) (48, 3.88657689094543457031e-01) (49, -1.50778114795684814453e-01) (50, 1.34074300527572631836e-01) (51, 5.61126589775085449219e-01) (52, 2.47237637639045715332e-01) (53, -1.00102400779724121094e+00) (54, 9.31153416633605957031e-01) (55, -2.96948313713073730469e-01) (56, -2.17217713594436645508e-01) (57, -1.27764558792114257812e+00) (58, 3.87321025133132934570e-01) (59, -1.84676736593246459961e-01) (60, 2.65412867069244384766e-01) (61, 1.03649592399597167969e+00) (62, -1.55973181128501892090e-01) (63, -1.50113070011138916016e+00) (32, 2.99984514713287353516e-01) (33, -2.89915114641189575195e-01) (34, 2.38012671470642089844e-01) (35, -5.69826424121856689453e-01) (36, 4.06654179096221923828e-01) (37, -7.58699059486389160156e-01) (38, -6.88487529754638671875e-01) (39, -2.88572818040847778320e-01) (40, -1.41782954335212707520e-01) (41, -3.20499837398529052734e-01) (42, 4.57036644220352172852e-01) (43, -8.68777334690093994141e-01) (44, -1.73442438244819641113e-01) (45, -2.45182827115058898926e-01) (46, 6.69214010238647460938e-01) (47, 2.96275168657302856445e-01) (48, -3.11430305242538452148e-01) (49, 5.43868601322174072266e-01) (50, 8.58444988727569580078e-01) (51, 1.85571596026420593262e-01) (52, -3.37256282567977905273e-01) (53, -2.98060417175292968750e-01) (54, 2.28004738688468933105e-01) (55, -4.75260138511657714844e-01) (56, -6.55637860298156738281e-01) (57, -8.70705127716064453125e-01) (58, 3.13240230083465576172e-01) (59, -2.47411668300628662109e-01) (60, 1.23487859964370727539e-01) (61, 1.52185961604118347168e-01) (62, -3.10599446296691894531e-01) (63, -2.11792230606079101562e+00) (32, 4.31227982044219970703e-02) (33, 2.49267935752868652344e-01) (34, 2.28285975754261016846e-03) (35, 4.43574339151382446289e-02) (36, 6.30013704299926757812e-01) (37, 1.75930276513099670410e-01) (38, 6.09447181224822998047e-01) (39, 4.77378159761428833008e-01) (40, 2.33144029974937438965e-01) (41, 4.27749395370483398438e-01) (42, -1.00817874073982238770e-01) (43, -4.49917554855346679688e-01) (44, -2.10525035858154296875e-01) (45, -7.13301450014114379883e-02) (46, -2.45487317442893981934e-01) (47, 5.96499405801296234131e-02) (48, -1.74037460237741470337e-02) (49, -5.79993367195129394531e-01) (50, -3.81764471530914306641e-01) (51, -1.73857390880584716797e-01) (52, 3.58964622020721435547e-01) (53, -1.24991379678249359131e-01) (54, 6.42001211643218994141e-01) (55, -5.71775615215301513672e-01) (56, 4.14847910404205322266e-01) (57, 3.75496923923492431641e-01) (58, 4.34160292148590087891e-01) (59, -2.16057058423757553101e-02) (60, -6.45450726151466369629e-02) (61, 1.59802258014678955078e+00) (62, -3.22823047637939453125e-01) (63, -2.24849388003349304199e-01) (32, 1.49956699460744857788e-02) (33, 1.24640130996704101562e+00) (34, 3.43079984188079833984e-01) (35, 4.09189462661743164062e-02) (36, 7.64170706272125244141e-01) (37, -3.09468269348144531250e-01) (38, 6.37546658515930175781e-01) (39, 1.86114519834518432617e-01) (40, -1.66681349277496337891e-01) (41, 5.72440505027770996094e-01) (42, 1.12051129341125488281e+00) (43, -6.47314667701721191406e-01) (44, 1.23592704534530639648e-01) (45, -1.55814617872238159180e-01) (46, 1.28379464149475097656e-02) (47, 8.23101997375488281250e-01) (48, -1.65639713406562805176e-01) (49, 7.54119902849197387695e-02) (50, 4.30764406919479370117e-01) (51, -1.84910953044891357422e-01) (52, 8.01117479801177978516e-01) (53, 4.69710558652877807617e-01) (54, 6.88991427421569824219e-01) (55, -6.72706782817840576172e-01) (56, 1.95213854312896728516e-01) (57, -8.64533245563507080078e-01) (58, 3.94330173730850219727e-01) (59, -4.25001531839370727539e-01) (60, 3.31242054700851440430e-01) (61, 1.52018988132476806641e+00) (62, -8.42015981674194335938e-01) (63, -8.84038388729095458984e-01) (32, 5.17497062683105468750e-01) (33, -1.10732793807983398438e+00) (34, -5.45002579689025878906e-01) (35, -5.40897727012634277344e-01) (36, 8.63617718219757080078e-01) (37, -4.52272057533264160156e-01) (38, -4.72412705421447753906e-01) (39, 7.99363791942596435547e-01) (40, 5.04900872707366943359e-01) (41, -3.46245080232620239258e-01) (42, -8.62416863441467285156e-01) (43, -3.82349222898483276367e-01) (44, -2.69073307514190673828e-01) (45, 7.12079644203186035156e-01) (46, 1.22172474861145019531e+00) (47, -3.80068898200988769531e-01) (48, -2.59646981954574584961e-01) (49, 1.24662980437278747559e-01) (50, -3.97169560194015502930e-01) (51, 2.56807416677474975586e-01) (52, 8.80340933799743652344e-02) (53, -5.47850072383880615234e-01) (54, 6.53937831521034240723e-02) (55, -5.14077305793762207031e-01) (56, 2.36329972743988037109e-01) (57, 7.91384935379028320312e-01) (58, 7.61044472455978393555e-02) (59, 4.45353418588638305664e-01) (60, 3.19817364215850830078e-01) (61, 1.93131566047668457031e+00) (62, -2.55959004163742065430e-01) (63, -9.08492088317871093750e-01) (32, 1.48512095212936401367e-01) (33, -1.06629624962806701660e-01) (34, 6.28773450851440429688e-01) (35, 2.34597176313400268555e-02) (36, 5.33417940139770507812e-01) (37, 1.50499358773231506348e-01) (38, -1.13084554672241210938e+00) (39, -5.82077056169509887695e-02) (40, 3.31327438354492187500e-01) (41, -2.57295012474060058594e-01) (42, -5.35420894622802734375e-01) (43, -3.08009862899780273438e-01) (44, 3.04552316665649414062e-01) (45, 6.54374539852142333984e-01) (46, 8.18993330001831054688e-01) (47, 7.91511237621307373047e-02) (48, 2.63299435377120971680e-01) (49, 9.72533449530601501465e-02) (50, -8.04812490940093994141e-01) (51, -1.24797657132148742676e-01) (52, -7.86619633436203002930e-02) (53, 2.36635297536849975586e-01) (54, 3.75985771417617797852e-01) (55, -4.78128015995025634766e-01) (56, 5.96898734569549560547e-01) (57, -1.90044701099395751953e-01) (58, 3.45904752612113952637e-02) (59, 4.53621596097946166992e-01) (60, 5.93091785907745361328e-01) (61, 5.06432414054870605469e-01) (62, -3.28122556209564208984e-01) (63, -2.11747837066650390625e+00) (32, 5.24668574333190917969e-01) (33, 1.48589596152305603027e-01) (34, 7.66813635826110839844e-01) (35, -2.31621682643890380859e-01) (36, 9.43370282649993896484e-01) (37, -8.29986855387687683105e-03) (38, 1.81194856762886047363e-01) (39, -1.61079794168472290039e-01) (40, -4.63845461606979370117e-01) (41, -2.21693634986877441406e-01) (42, -4.45361793041229248047e-01) (43, -6.53025925159454345703e-01) (44, -2.05046087503433227539e-01) (45, -1.08667463064193725586e-01) (46, 5.26855170726776123047e-01) (47, 5.14437079429626464844e-01) (48, 7.64090940356254577637e-02) (49, 1.88435330986976623535e-01) (50, 4.82405871152877807617e-02) (51, -1.72794550657272338867e-01) (52, 4.86481308937072753906e-01) (53, 4.23368886113166809082e-02) (54, 4.46048527956008911133e-01) (55, -3.40021669864654541016e-01) (56, 6.46022677421569824219e-01) (57, -5.20924448966979980469e-01) (58, -1.41472160816192626953e-01) (59, 2.03312635421752929688e-01) (60, 4.50809717178344726562e-01) (61, 2.27073639631271362305e-01) (62, -7.54964202642440795898e-02) (63, -2.10891509056091308594e+00) (32, 1.26596599817276000977e-01) (33, 1.31663337349891662598e-01) (34, 3.73264670372009277344e-01) (35, 1.37654170393943786621e-01) (36, 4.62060958147048950195e-01) (37, -1.43435120582580566406e-01) (38, 1.34906217455863952637e-01) (39, -1.51083469390869140625e-01) (40, -4.07886356115341186523e-01) (41, 1.43246635794639587402e-01) (42, -2.13430047035217285156e-01) (43, -4.67088222503662109375e-01) (44, 1.15978769958019256592e-01) (45, 3.71297858655452728271e-02) (46, 4.27000582218170166016e-01) (47, 1.41471385955810546875e-01) (48, 1.25584632158279418945e-01) (49, -4.84470009803771972656e-01) (50, -1.70136336237192153931e-02) (51, -4.70385342836380004883e-01) (52, 4.65634673833847045898e-01) (53, 2.82540172338485717773e-01) (54, 3.76651704311370849609e-01) (55, -3.46373468637466430664e-01) (56, 3.05255979299545288086e-01) (57, -4.12980645895004272461e-01) (58, 3.14381085336208343506e-02) (59, 2.23478108644485473633e-01) (60, 2.59722501039505004883e-01) (61, 1.38825923204421997070e-01) (62, -1.12462818622589111328e-01) (63, -2.24958276748657226562e+00) (32, 3.03769446909427642822e-02) (33, 2.17566832900047302246e-01) (34, 2.20935583114624023438e-01) (35, 7.44455605745315551758e-02) (36, 4.56601530313491821289e-01) (37, -2.71280169486999511719e-01) (38, 9.48354601860046386719e-03) (39, -1.67741268873214721680e-01) (40, -4.09341216087341308594e-01) (41, -3.44518087804317474365e-02) (42, -1.29002079367637634277e-01) (43, -4.44017976522445678711e-01) (44, -1.41702592372894287109e-02) (45, -9.56059619784355163574e-03) (46, 3.70755314826965332031e-01) (47, 2.21430644392967224121e-01) (48, 9.28256213665008544922e-02) (49, -4.02816176414489746094e-01) (50, -8.07825922966003417969e-02) (51, -3.96781325340270996094e-01) (52, 4.29905325174331665039e-01) (53, 2.81406998634338378906e-01) (54, 3.94057661294937133789e-01) (55, -3.13502520322799682617e-01) (56, 3.23987007141113281250e-01) (57, -4.89915907382965087891e-01) (58, -4.76666912436485290527e-02) (59, 3.87758389115333557129e-02) (60, 2.31869786977767944336e-01) (61, 9.09821763634681701660e-02) (62, -5.85718750953674316406e-02) (63, -2.34667778015136718750e+00) (32, 7.30726420879364013672e-02) (33, -4.94185715913772583008e-01) (34, 3.48317503929138183594e-01) (35, 1.50270685553550720215e-01) (36, -4.15605574846267700195e-01) (37, 2.29855384677648544312e-02) (38, 6.34699761867523193359e-02) (39, -2.98667132854461669922e-01) (40, -2.77679145336151123047e-01) (41, -2.50904649496078491211e-01) (42, -2.94558256864547729492e-01) (43, 4.82048124074935913086e-01) (44, -5.87398894131183624268e-02) (45, -3.48348557949066162109e-01) (46, -7.30523541569709777832e-02) (47, -7.66136348247528076172e-02) (48, 1.43916770815849304199e-01) (49, 3.90530318021774291992e-01) (50, 5.91304153203964233398e-02) (51, -2.56799787282943725586e-01) (52, -7.00268521904945373535e-02) (53, 1.56431853771209716797e-01) (54, -8.41631352901458740234e-01) (55, 5.53860783576965332031e-01) (56, 4.89642657339572906494e-02) (57, 7.81338959932327270508e-02) (58, -5.34305214881896972656e-01) (59, 3.97170633077621459961e-02) (60, -1.84368640184402465820e-01) (61, -1.36898028850555419922e+00) (62, 8.11521172523498535156e-01) (63, -6.77085161209106445312e-01) (32, 2.02847033739089965820e-01) (33, 3.16241085529327392578e-01) (34, 3.88641476631164550781e-01) (35, -1.81190729141235351562e-01) (36, 8.28375667333602905273e-02) (37, -2.43462529033422470093e-02) (38, -3.01229238510131835938e-01) (39, -7.73430049419403076172e-01) (40, 3.19695845246315002441e-03) (41, -1.20066583156585693359e+00) (42, 3.53754013776779174805e-01) (43, -5.09189486503601074219e-01) (44, -1.61391869187355041504e-01) (45, -1.91925093531608581543e-02) (46, -3.14715176820755004883e-01) (47, -2.21943780779838562012e-01) (48, 8.97631347179412841797e-01) (49, 6.09522044658660888672e-01) (50, -3.00615847110748291016e-01) (51, 1.76389008760452270508e-01) (52, 2.34330013394355773926e-01) (53, -7.30059564113616943359e-01) (54, 2.66519188880920410156e-01) (55, 6.11617803573608398438e-01) (56, 3.12853939831256866455e-02) (57, -5.31976521015167236328e-01) (58, -5.01436829566955566406e-01) (59, -1.81875303387641906738e-01) (60, -2.03349888324737548828e-02) (61, -1.57835519313812255859e+00) (62, 1.06157493591308593750e+00) (63, -1.80301034450531005859e+00) (32, 4.90119494497776031494e-02) (33, 1.34893760085105895996e-01) (34, 9.55863520503044128418e-02) (35, -3.80525738000869750977e-01) (36, 1.26548364758491516113e-01) (37, -1.23645114898681640625e+00) (38, 5.97939074039459228516e-01) (39, -1.97227030992507934570e-01) (40, 1.49499014019966125488e-01) (41, -8.05830419063568115234e-01) (42, 4.20399129390716552734e-01) (43, -1.60260915756225585938e+00) (44, -4.89782571792602539062e-01) (45, -1.00431728363037109375e+00) (46, 3.29205602407455444336e-01) (47, 4.10455942153930664062e-01) (48, 3.56850065290927886963e-02) (49, 6.17790937423706054688e-01) (50, 6.75714492797851562500e-01) (51, -1.15921817719936370850e-01) (52, -8.65524858236312866211e-02) (53, -5.82398653030395507812e-01) (54, 8.22516739368438720703e-01) (55, 5.41203558444976806641e-01) (56, -2.00670197606086730957e-01) (57, -6.09771847724914550781e-01) (58, -3.35597008466720581055e-01) (59, -4.84636545181274414062e-01) (60, -3.36115777492523193359e-01) (61, -5.67642390727996826172e-01) (62, 1.30697500705718994141e+00) (63, -3.10343837738037109375e+00) (32, -1.68105915188789367676e-01) (33, -1.54126122593879699707e-01) (34, -1.09946638345718383789e-01) (35, -2.63283252716064453125e-02) (36, -2.26198494434356689453e-01) (37, 2.49621868133544921875e-01) (38, 2.73453772068023681641e-01) (39, -1.00614225864410400391e+00) (40, -2.18047112226486206055e-01) (41, 1.41667023301124572754e-01) (42, -1.46679610013961791992e-01) (43, 2.08131477236747741699e-01) (44, -6.83784246444702148438e-01) (45, -3.25412631034851074219e-01) (46, -6.14719748497009277344e-01) (47, 1.46288247779011726379e-02) (48, 3.80851626396179199219e-01) (49, 7.03191608190536499023e-02) (50, -9.93394479155540466309e-02) (51, -7.42055892944335937500e-01) (52, -1.70194208621978759766e-02) (53, 3.93391817808151245117e-01) (54, -5.18849730491638183594e-01) (55, 7.59310543537139892578e-01) (56, 1.87423735857009887695e-01) (57, 2.51415699720382690430e-01) (58, -8.98405909538269042969e-01) (59, -1.36062905192375183105e-01) (60, -6.82586729526519775391e-01) (61, -1.82876074314117431641e+00) (62, 6.16200566291809082031e-01) (63, -2.94531613588333129883e-01) (32, 2.35170036554336547852e-01) (33, 8.82460236549377441406e-01) (34, 4.66819852590560913086e-01) (35, -1.29940016195178031921e-02) (36, 4.04540508985519409180e-01) (37, 5.24526476860046386719e-01) (38, 1.01220297813415527344e+00) (39, -1.04507088661193847656e+00) (40, -6.46433830261230468750e-01) (41, 1.36443957686424255371e-01) (42, 1.50300383567810058594e-01) (43, -4.56112027168273925781e-02) (44, -2.36774727702140808105e-01) (45, -3.43370139598846435547e-01) (46, -1.19768910109996795654e-01) (47, 7.25019931793212890625e-01) (48, 5.66314578056335449219e-01) (49, 1.05005753040313720703e+00) (50, -1.58555254340171813965e-01) (51, -5.46911478042602539062e-01) (52, 6.14046931266784667969e-01) (53, 8.44285905361175537109e-01) (54, 7.56439715623855590820e-02) (55, 7.25221037864685058594e-01) (56, 1.60070002079010009766e-01) (57, -3.10469090938568115234e-01) (58, -8.57358574867248535156e-01) (59, 1.06545753777027130127e-01) (60, 1.37032896280288696289e-01) (61, -1.63763928413391113281e+00) (62, 9.98826205730438232422e-01) (63, -1.09118938446044921875e+00) (32, 1.31478905677795410156e-01) (33, -1.15607023239135742188e+00) (34, -1.09450131654739379883e-01) (35, -1.43291100859642028809e-01) (36, 1.20290473103523254395e-01) (37, 7.53898620605468750000e-02) (38, -3.23370903730392456055e-01) (39, -5.30491709709167480469e-01) (40, 2.71232426166534423828e-01) (41, 4.80264890938997268677e-03) (42, -4.09914731979370117188e-01) (43, -1.37369617819786071777e-01) (44, -4.47257637977600097656e-01) (45, 2.71374017000198364258e-01) (46, 4.98837113380432128906e-01) (47, -2.86937683820724487305e-01) (48, 3.11434805393218994141e-01) (49, 4.00097429752349853516e-01) (50, -9.00792777538299560547e-02) (51, -1.01836562156677246094e-01) (52, -2.11996421217918395996e-01) (53, -1.38566613197326660156e-01) (54, -6.12033307552337646484e-01) (55, 8.71264815330505371094e-01) (56, 1.27238497138023376465e-01) (57, 1.31905388832092285156e+00) (58, -7.40512549877166748047e-01) (59, 2.37322002649307250977e-01) (60, -6.14363491535186767578e-01) (61, -1.41844379901885986328e+00) (62, 1.09286880493164062500e+00) (63, -1.92333579063415527344e+00) (32, -3.31501401960849761963e-02) (33, -6.37552499771118164062e-01) (34, 1.13714671134948730469e+00) (35, 4.76277172565460205078e-01) (36, -6.39084577560424804688e-02) (37, 2.91349381208419799805e-01) (38, -8.17749381065368652344e-01) (39, -5.29570817947387695312e-01) (40, 1.29962295293807983398e-01) (41, -1.97540089488029479980e-01) (42, -4.53138589859008789062e-01) (43, -5.80978810787200927734e-01) (44, 5.61140239238739013672e-01) (45, 2.40148618817329406738e-01) (46, 8.37101399898529052734e-01) (47, -5.14454254880547523499e-03) (48, 5.92889189720153808594e-01) (49, 8.13667237758636474609e-01) (50, -4.34553653001785278320e-01) (51, -4.98223870992660522461e-01) (52, -2.14971199631690979004e-01) (53, 2.91935414075851440430e-01) (54, 3.99551689624786376953e-01) (55, 8.03941190242767333984e-01) (56, 2.98995435237884521484e-01) (57, 3.51536795496940612793e-02) (58, -9.22158136963844299316e-02) (59, 2.54930496215820312500e-01) (60, 7.75983333587646484375e-01) (61, -9.27642583847045898438e-01) (62, 1.55120778083801269531e+00) (63, -2.27805972099304199219e+00) (32, 3.56454640626907348633e-01) (33, -3.12933355569839477539e-01) (34, 9.17761266231536865234e-01) (35, -8.80302786827087402344e-02) (36, 9.01104986667633056641e-01) (37, 4.87509876489639282227e-01) (38, 3.59135329723358154297e-01) (39, -1.12996876239776611328e+00) (40, -2.40335658192634582520e-01) (41, -3.26685100793838500977e-01) (42, -5.84365546703338623047e-01) (43, -9.26245033740997314453e-01) (44, 8.32338035106658935547e-02) (45, 3.29125812277197837830e-03) (46, 7.65221774578094482422e-01) (47, 1.06050133705139160156e-01) (48, 3.66327106952667236328e-01) (49, 4.00784522294998168945e-01) (50, -5.11374354362487792969e-01) (51, -2.04834580421447753906e-01) (52, 2.82451301813125610352e-01) (53, -3.58761817216873168945e-01) (54, 4.99842137098312377930e-01) (55, 3.05853158235549926758e-01) (56, 5.60998797416687011719e-01) (57, 3.08269590139389038086e-01) (58, -3.21592777967453002930e-01) (59, 4.33555334806442260742e-01) (60, 3.81953686475753784180e-01) (61, -6.36258661746978759766e-01) (62, 7.85374760627746582031e-01) (63, -2.60162854194641113281e+00) (32, -2.98774894326925277710e-02) (33, -7.27514177560806274414e-02) (34, 9.89520549774169921875e-03) (35, 2.33882173895835876465e-01) (36, -1.54970631003379821777e-01) (37, 2.17001423239707946777e-01) (38, 5.79082071781158447266e-01) (39, -2.62701600790023803711e-01) (40, -3.76214981079101562500e-01) (41, 1.20345123112201690674e-01) (42, 1.10739935189485549927e-02) (43, -7.24279642105102539062e-01) (44, 1.89998820424079895020e-01) (45, 3.48559692502021789551e-02) (46, 3.24085354804992675781e-01) (47, 1.19605794548988342285e-01) (48, -1.07766248285770416260e-01) (49, -3.15238893032073974609e-01) (50, -5.31751103699207305908e-02) (51, -4.69307154417037963867e-01) (52, 3.01475912332534790039e-01) (53, 3.69308441877365112305e-01) (54, 4.44566339254379272461e-01) (55, 1.15620255470275878906e-01) (56, 2.58670359849929809570e-01) (57, 3.60675781965255737305e-01) (58, -1.82415157556533813477e-01) (59, 8.27561989426612854004e-02) (60, 1.18823915719985961914e-01) (61, -6.11296594142913818359e-01) (62, 9.25455316901206970215e-02) (63, -2.34715557098388671875e+00) (32, 1.16879604756832122803e-01) (33, -2.09591299295425415039e-01) (34, 2.45901942253112792969e-01) (35, 7.61492699384689331055e-02) (36, 4.30565662682056427002e-02) (37, 2.06885978579521179199e-01) (38, 2.61144340038299560547e-01) (39, -3.46772253513336181641e-01) (40, -5.31024217605590820312e-01) (41, 1.69783130288124084473e-01) (42, 1.50183320045471191406e-01) (43, -7.16306090354919433594e-01) (44, 5.06296344101428985596e-02) (45, 7.11481571197509765625e-02) (46, 4.67693448066711425781e-01) (47, 3.02933931350708007812e-01) (48, 1.81614682078361511230e-01) (49, -2.40172535181045532227e-01) (50, -1.71951860189437866211e-01) (51, -4.51367527246475219727e-01) (52, 4.86223161220550537109e-01) (53, 4.73355174064636230469e-01) (54, 3.77730995416641235352e-01) (55, 2.00495854020118713379e-01) (56, 2.29472234845161437988e-01) (57, 4.89310711622238159180e-01) (58, -3.86090546846389770508e-01) (59, 4.50803190469741821289e-02) (60, 2.47621074318885803223e-01) (61, -3.14934134483337402344e-01) (62, 2.61528044939041137695e-02) (63, -2.69843029975891113281e+00) 
