FANN_FLO_2.1
num_layers=3
learning_rate=0.699909
connection_rate=1.000000
network_type=0
learning_momentum=0.000000
training_algorithm=0
train_error_function=1
train_stop_function=0
cascade_output_change_fraction=0.010000
quickprop_decay=-0.000100
quickprop_mu=1.750000
rprop_increase_factor=1.200000
rprop_decrease_factor=0.500000
rprop_delta_min=0.000000
rprop_delta_max=50.000000
rprop_delta_zero=0.100000
cascade_output_stagnation_epochs=12
cascade_candidate_change_fraction=0.010000
cascade_candidate_stagnation_epochs=12
cascade_max_out_epochs=150
cascade_min_out_epochs=50
cascade_max_cand_epochs=150
cascade_min_cand_epochs=50
cascade_num_candidate_groups=2
bit_fail_limit=3.49999994039535522461e-01
cascade_candidate_limit=1.00000000000000000000e+03
cascade_weight_multiplier=4.00000005960464477539e-01
cascade_activation_functions_count=10
cascade_activation_functions=3 5 7 8 10 11 14 15 16 17 
cascade_activation_steepnesses_count=38
cascade_activation_steepnesses=0.00000000000000000000e+00 0.00000000000000000000e+00 0.00000000000000000000e+00 1.00000000000000000000e+01 6.08200000000000000000e+03 6.08300000000000000000e+03 6.08400000000000000000e+03 6.08500000000000000000e+03 6.08600000000000000000e+03 6.08700000000000000000e+03 6.08900000000000000000e+03 6.09000000000000000000e+03 6.09100000000000000000e+03 6.09200000000000000000e+03 0.00000000000000000000e+00 0.00000000000000000000e+00 2.00000000000000000000e+01 1.07641800000000000000e+06 1.07641900000000000000e+06 1.07642000000000000000e+06 1.07642100000000000000e+06 1.07642200000000000000e+06 1.07642300000000000000e+06 1.07642500000000000000e+06 1.07642600000000000000e+06 1.07642700000000000000e+06 1.07642800000000000000e+06 1.07667400000000000000e+06 1.07667500000000000000e+06 1.07667600000000000000e+06 1.07667700000000000000e+06 1.07667800000000000000e+06 1.07667900000000000000e+06 1.07668100000000000000e+06 1.07668200000000000000e+06 1.07668300000000000000e+06 1.07668400000000000000e+06 0.00000000000000000000e+00 
layer_sizes=31 31 31 
scale_included=0
neurons (num_inputs, activation_function, activation_steepness)=(0, 0, 0.00000000000000000000e+00) (0, 0, 0.00000000000000000000e+00) (0, 0, 0.00000000000000000000e+00) (0, 0, 0.00000000000000000000e+00) (0, 0, 0.00000000000000000000e+00) (0, 0, 0.00000000000000000000e+00) (0, 0, 0.00000000000000000000e+00) (0, 0, 0.00000000000000000000e+00) (0, 0, 0.00000000000000000000e+00) (0, 0, 0.00000000000000000000e+00) (0, 0, 0.00000000000000000000e+00) (0, 0, 0.00000000000000000000e+00) (0, 0, 0.00000000000000000000e+00) (0, 0, 0.00000000000000000000e+00) (0, 0, 0.00000000000000000000e+00) (0, 0, 0.00000000000000000000e+00) (0, 0, 0.00000000000000000000e+00) (0, 0, 0.00000000000000000000e+00) (0, 0, 0.00000000000000000000e+00) (0, 0, 0.00000000000000000000e+00) (0, 0, 0.00000000000000000000e+00) (0, 0, 0.00000000000000000000e+00) (0, 0, 0.00000000000000000000e+00) (0, 0, 0.00000000000000000000e+00) (0, 0, 0.00000000000000000000e+00) (0, 0, 0.00000000000000000000e+00) (0, 0, 0.00000000000000000000e+00) (0, 0, 0.00000000000000000000e+00) (0, 0, 0.00000000000000000000e+00) (0, 0, 0.00000000000000000000e+00) (0, 0, 0.00000000000000000000e+00) (31, 5, 5.00000000000000000000e-01) (31, 5, 5.00000000000000000000e-01) (31, 5, 5.00000000000000000000e-01) (31, 5, 5.00000000000000000000e-01) (31, 5, 5.00000000000000000000e-01) (31, 5, 5.00000000000000000000e-01) (31, 5, 5.00000000000000000000e-01) (31, 5, 5.00000000000000000000e-01) (31, 5, 5.00000000000000000000e-01) (31, 5, 5.00000000000000000000e-01) (31, 5, 5.00000000000000000000e-01) (31, 5, 5.00000000000000000000e-01) (31, 5, 5.00000000000000000000e-01) (31, 5, 5.00000000000000000000e-01) (31, 5, 5.00000000000000000000e-01) (31, 5, 5.00000000000000000000e-01) (31, 5, 5.00000000000000000000e-01) (31, 5, 5.00000000000000000000e-01) (31, 5, 5.00000000000000000000e-01) (31, 5, 5.00000000000000000000e-01) (31, 5, 5.00000000000000000000e-01) (31, 5, 5.00000000000000000000e-01) (31, 5, 5.00000000000000000000e-01) (31, 5, 5.00000000000000000000e-01) (31, 5, 5.00000000000000000000e-01) (31, 5, 5.00000000000000000000e-01) (31, 5, 5.00000000000000000000e-01) (31, 5, 5.00000000000000000000e-01) (31, 5, 5.00000000000000000000e-01) (31, 5, 5.00000000000000000000e-01) (0, 5, 0.00000000000000000000e+00) (31, 3, 5.00000000000000000000e-01) (31, 3, 5.00000000000000000000e-01) (31, 3, 5.00000000000000000000e-01) (31, 3, 5.00000000000000000000e-01) (31, 3, 5.00000000000000000000e-01) (31, 3, 5.00000000000000000000e-01) (31, 3, 5.00000000000000000000e-01) (31, 3, 5.00000000000000000000e-01) (31, 3, 5.00000000000000000000e-01) (31, 3, 5.00000000000000000000e-01) (31, 3, 5.00000000000000000000e-01) (31, 3, 5.00000000000000000000e-01) (31, 3, 5.00000000000000000000e-01) (31, 3, 5.00000000000000000000e-01) (31, 3, 5.00000000000000000000e-01) (31, 3, 5.00000000000000000000e-01) (31, 3, 5.00000000000000000000e-01) (31, 3, 5.00000000000000000000e-01) (31, 3, 5.00000000000000000000e-01) (31, 3, 5.00000000000000000000e-01) (31, 3, 5.00000000000000000000e-01) (31, 3, 5.00000000000000000000e-01) (31, 3, 5.00000000000000000000e-01) (31, 3, 5.00000000000000000000e-01) (31, 3, 5.00000000000000000000e-01) (31, 3, 5.00000000000000000000e-01) (31, 3, 5.00000000000000000000e-01) (31, 3, 5.00000000000000000000e-01) (31, 3, 5.00000000000000000000e-01) (31, 3, 5.00000000000000000000e-01) (0, 3, 0.00000000000000000000e+00) 
connections (connected_to_neuron, weight)=(0, 1.14336863160133361816e-01) (1, 3.07046435773372650146e-02) (2, 3.67768034338951110840e-02) (3, -1.08534201979637145996e-01) (4, 9.52258892357349395752e-03) (5, -1.07084654271602630615e-01) (6, -5.97975552082061767578e-02) (7, 7.91222974658012390137e-02) (8, -2.30563655495643615723e-02) (9, 9.26410220563411712646e-03) (10, 1.07447311282157897949e-01) (11, -1.14478141069412231445e-01) (12, 1.80330902338027954102e-01) (13, 3.37061099708080291748e-02) (14, 1.65734842419624328613e-01) (15, 1.36771053075790405273e-02) (16, -6.85635730624198913574e-02) (17, 1.70480951666831970215e-01) (18, 5.63433431088924407959e-02) (19, 1.26159429550170898438e-01) (20, -4.78277988731861114502e-02) (21, -7.10432231426239013672e-02) (22, 3.37000489234924316406e-02) (23, -3.32302823662757873535e-02) (24, -8.27334821224212646484e-02) (25, -6.15577027201652526855e-02) (26, 8.65623354911804199219e-02) (27, 9.43939667195081710815e-03) (28, 3.09638865292072296143e-02) (29, -7.40289613604545593262e-02) (30, -2.59103514254093170166e-02) (0, -6.64042383432388305664e-02) (1, 2.61155813932418823242e-02) (2, 3.10460254549980163574e-02) (3, -4.01339009404182434082e-02) (4, -8.47364664077758789062e-02) (5, 2.97925211489200592041e-02) (6, 6.32924437522888183594e-02) (7, -2.01758921146392822266e-01) (8, -1.28437727689743041992e-01) (9, -6.02111518383026123047e-02) (10, 3.14151644706726074219e-02) (11, -1.03651873767375946045e-01) (12, -4.25705872476100921631e-02) (13, -7.41928815841674804688e-05) (14, -5.82916475832462310791e-02) (15, 7.69376978278160095215e-02) (16, -1.05413883924484252930e-01) (17, -8.39554443955421447754e-02) (18, -1.89285725355148315430e-03) (19, 8.79778787493705749512e-02) (20, 5.58875352144241333008e-02) (21, 4.71270829439163208008e-02) (22, 1.65933612734079360962e-02) (23, -4.97964583337306976318e-02) (24, 9.19399037957191467285e-02) (25, 5.50356619060039520264e-02) (26, -6.32341206073760986328e-02) (27, 1.37928721960633993149e-03) (28, -1.40004456043243408203e-02) (29, -3.72630767524242401123e-02) (30, 2.57079899311065673828e-02) (0, -1.44981026649475097656e-01) (1, -1.11968830227851867676e-01) (2, -1.25477641820907592773e-01) (3, -5.46418130397796630859e-03) (4, -1.11305378377437591553e-01) (5, 1.28381356596946716309e-01) (6, 2.21941709518432617188e-01) (7, -1.51494562625885009766e-01) (8, -1.14771462976932525635e-01) (9, -9.58420932292938232422e-02) (10, -2.60593742132186889648e-01) (11, -7.90673196315765380859e-02) (12, -1.46064221858978271484e-01) (13, -8.10171887278556823730e-02) (14, -5.19590489566326141357e-02) (15, -4.50600720942020416260e-02) (16, 1.77682399749755859375e-01) (17, -1.74344778060913085938e-01) (18, 3.83319854736328125000e-02) (19, 8.08759778738021850586e-03) (20, -9.13279354572296142578e-02) (21, 2.87036821246147155762e-02) (22, -7.31926485896110534668e-02) (23, -1.66453905403614044189e-02) (24, 4.51225750148296356201e-02) (25, 8.18430185317993164062e-02) (26, 2.01204903423786163330e-02) (27, -5.34981302917003631592e-02) (28, -3.21574322879314422607e-02) (29, 8.28574225306510925293e-02) (30, 7.52771273255348205566e-02) (0, -3.85810583829879760742e-02) (1, -1.06950268149375915527e-01) (2, -1.96225881576538085938e-01) (3, 1.04601979255676269531e-01) (4, -5.48444651067256927490e-02) (5, -8.97954255342483520508e-02) (6, 1.68142855167388916016e-01) (7, 1.59581154584884643555e-01) (8, 8.37904959917068481445e-03) (9, -2.58734002709388732910e-02) (10, -9.57793891429901123047e-02) (11, -4.01741918176412582397e-03) (12, -4.99964244663715362549e-02) (13, -2.81493701040744781494e-02) (14, -9.25652757287025451660e-02) (15, -1.17007389664649963379e-01) (16, 1.91132187843322753906e-01) (17, 9.90101471543312072754e-02) (18, 1.34270533919334411621e-01) (19, -9.89543646574020385742e-02) (20, -2.95913442969322204590e-02) (21, 3.53458616882562637329e-03) (22, 2.02985759824514389038e-02) (23, 8.21916237473487854004e-02) (24, -2.29144934564828872681e-02) (25, 2.14159488677978515625e-03) (26, 2.31211190111935138702e-03) (27, 2.35873814672231674194e-02) (28, 6.99841603636741638184e-02) (29, -1.48304766044020652771e-02) (30, -5.08482661098241806030e-03) (0, 2.59437829256057739258e-01) (1, 3.35943736135959625244e-02) (2, 2.91567176580429077148e-01) (3, 1.29842370748519897461e-01) (4, 1.52482122182846069336e-01) (5, 1.52742311358451843262e-01) (6, -8.94226878881454467773e-02) (7, -1.24430119991302490234e-01) (8, -1.23900927603244781494e-01) (9, 6.12706057727336883545e-02) (10, 1.14166222512722015381e-01) (11, 9.85363721847534179688e-02) (12, 1.97707518935203552246e-01) (13, 5.18193803727626800537e-02) (14, 1.79703310132026672363e-01) (15, 3.16706746816635131836e-02) (16, -1.44456326961517333984e-01) (17, -1.57779946923255920410e-01) (18, -1.19081109762191772461e-01) (19, 1.33156001567840576172e-01) (20, 1.33044585585594177246e-01) (21, 1.69607922434806823730e-01) (22, -2.45616566389799118042e-02) (23, 2.95896660536527633667e-02) (24, -3.89531031250953674316e-02) (25, 7.75799378752708435059e-02) (26, -6.80982321500778198242e-02) (27, 8.46342816948890686035e-02) (28, 4.75640892982482910156e-02) (29, 1.70712955296039581299e-02) (30, 9.36243683099746704102e-02) (0, 4.82863858342170715332e-02) (1, -4.80861365795135498047e-02) (2, 4.64729666709899902344e-02) (3, -9.55056399106979370117e-03) (4, 9.26203206181526184082e-02) (5, -6.40713199973106384277e-02) (6, 7.08010792732238769531e-02) (7, 1.05324618518352508545e-01) (8, 1.65884029120206832886e-02) (9, -1.42470076680183410645e-02) (10, 1.20511474087834358215e-02) (11, 1.60378944128751754761e-02) (12, 1.16216830909252166748e-01) (13, 7.61912167072296142578e-02) (14, -1.60344801843166351318e-02) (15, -1.15399114787578582764e-01) (16, -9.84907820820808410645e-02) (17, 1.63320004940032958984e-01) (18, -2.99195870757102966309e-02) (19, 8.83465185761451721191e-02) (20, -2.24961340427398681641e-02) (21, -3.07832956314086914062e-02) (22, -5.03867492079734802246e-02) (23, 9.15835499763488769531e-02) (24, 1.47536275908350944519e-02) (25, -7.28068128228187561035e-02) (26, -7.65146836638450622559e-02) (27, -6.12092029768973588943e-04) (28, 7.47572779655456542969e-02) (29, 4.05566096305847167969e-02) (30, -7.71242976188659667969e-02) (0, 1.29053130745887756348e-01) (1, 4.82348240911960601807e-02) (2, 2.06640198826789855957e-01) (3, 1.38830438256263732910e-01) (4, 1.13283798098564147949e-01) (5, 1.11642412841320037842e-01) (6, -1.62739008665084838867e-02) (7, -1.42949782311916351318e-02) (8, -1.01420111954212188721e-01) (9, -2.56132222712039947510e-02) (10, 1.08943030238151550293e-01) (11, 3.92807461321353912354e-02) (12, 2.90579229593276977539e-01) (13, 4.46212664246559143066e-03) (14, -4.32510301470756530762e-03) (15, 1.44253700971603393555e-01) (16, -1.19934074580669403076e-01) (17, -7.39085078239440917969e-02) (18, -1.15316823124885559082e-01) (19, -2.66798622906208038330e-02) (20, 1.66054710745811462402e-01) (21, 8.00803899765014648438e-02) (22, -2.98924446105957031250e-02) (23, 8.48463401198387145996e-02) (24, -7.79578536748886108398e-02) (25, -2.69926199689507484436e-03) (26, -9.16683450341224670410e-02) (27, 2.14300509542226791382e-02) (28, -2.79419850558042526245e-02) (29, 4.88882660865783691406e-02) (30, 1.01587668061256408691e-01) (0, 1.20184808969497680664e-01) (1, 3.32413092255592346191e-02) (2, -3.32738496363162994385e-02) (3, 1.09191481024026870728e-02) (4, -9.48095694184303283691e-03) (5, 4.34483475983142852783e-02) (6, -8.35271179676055908203e-02) (7, -1.59035578370094299316e-01) (8, -1.16619080305099487305e-01) (9, 3.46000641584396362305e-02) (10, 6.16616271436214447021e-02) (11, 1.05048939585685729980e-01) (12, 1.71283222734928131104e-02) (13, 1.80276352912187576294e-02) (14, 1.44717797636985778809e-01) (15, -7.35381990671157836914e-02) (16, 1.99211966246366500854e-02) (17, -6.44503608345985412598e-02) (18, -4.75023463368415832520e-02) (19, 1.36981740593910217285e-01) (20, 2.23869066685438156128e-02) (21, -9.30507928133010864258e-02) (22, -3.22518944740295410156e-02) (23, 6.33928785100579261780e-03) (24, -7.19026178121566772461e-02) (25, 6.50488510727882385254e-02) (26, 1.46709447726607322693e-02) (27, 4.95274439454078674316e-02) (28, -6.28931373357772827148e-02) (29, -3.64407896995544433594e-02) (30, -2.07828264683485031128e-02) (0, 2.12291613221168518066e-01) (1, 9.51183736324310302734e-02) (2, 4.73418459296226501465e-02) (3, 8.49287360906600952148e-02) (4, -3.51948030292987823486e-02) (5, -1.36992752552032470703e-01) (6, -5.66478706896305084229e-02) (7, -1.22238516807556152344e-01) (8, -6.41378611326217651367e-02) (9, -3.09609249234199523926e-03) (10, 1.65108814835548400879e-01) (11, -1.55422575771808624268e-02) (12, 1.11268684267997741699e-01) (13, 4.48544062674045562744e-02) (14, 8.34331661462783813477e-03) (15, 9.94751974940299987793e-03) (16, -1.93273872137069702148e-01) (17, 1.58848054707050323486e-02) (18, -4.80808503925800323486e-02) (19, -3.73404286801815032959e-02) (20, -3.20543758571147918701e-02) (21, -3.69147025048732757568e-02) (22, 2.53516435623168945312e-02) (23, -8.55971723794937133789e-02) (24, 3.13005931675434112549e-02) (25, -9.59950685501098632812e-03) (26, 2.90737748146057128906e-02) (27, -1.91719718277454376221e-02) (28, 2.75073535740375518799e-02) (29, 9.26329866051673889160e-02) (30, 1.90333239734172821045e-02) (0, 6.99658691883087158203e-02) (1, 4.67171967029571533203e-02) (2, -1.13659575581550598145e-01) (3, -4.32073697447776794434e-02) (4, 1.03172183036804199219e-01) (5, 2.33603566884994506836e-02) (6, -6.90455436706542968750e-02) (7, 1.00731533020734786987e-02) (8, 9.72175821661949157715e-02) (9, 4.31118458509445190430e-02) (10, 1.23198084533214569092e-01) (11, -7.56237208843231201172e-02) (12, -7.08760842680931091309e-02) (13, -3.00494637340307235718e-02) (14, 2.43693850934505462646e-02) (15, 1.30841201171278953552e-02) (16, 7.48636387288570404053e-03) (17, 6.93936869502067565918e-02) (18, 1.02998360991477966309e-01) (19, 8.53994265198707580566e-02) (20, 1.23386703431606292725e-01) (21, 1.80169343948364257812e-02) (22, 5.64713496714830398560e-03) (23, -9.02907252311706542969e-02) (24, -7.87627324461936950684e-02) (25, 9.60476323962211608887e-02) (26, 3.87830510735511779785e-02) (27, 2.06528906710445880890e-03) (28, 2.35549807548522949219e-02) (29, 3.14160361886024475098e-02) (30, -1.07032060623168945312e-02) (0, 7.03498125076293945312e-02) (1, 2.35356632620096206665e-02) (2, 6.28940239548683166504e-02) (3, 2.30825431644916534424e-02) (4, 2.55698524415493011475e-02) (5, -1.50206685066223144531e-01) (6, -4.45700734853744506836e-02) (7, 2.01066017150878906250e-01) (8, 1.42422959208488464355e-01) (9, 1.74328293651342391968e-02) (10, 1.03513330221176147461e-01) (11, -3.97695712745189666748e-02) (12, 1.28434985876083374023e-01) (13, 6.94039687514305114746e-02) (14, 8.34618285298347473145e-02) (15, -9.49419662356376647949e-02) (16, -1.21716745197772979736e-01) (17, 1.18278518319129943848e-01) (18, 3.46848741173744201660e-03) (19, -1.74262709915637969971e-02) (20, -5.44161535799503326416e-02) (21, 7.10125342011451721191e-02) (22, 5.47620654106140136719e-02) (23, -7.42854848504066467285e-02) (24, 6.26711845397949218750e-02) (25, 5.08096925914287567139e-02) (26, 6.44975677132606506348e-02) (27, -3.52635197341442108154e-02) (28, -2.56353262811899185181e-02) (29, -4.08640503883361816406e-03) (30, 5.55316284298896789551e-02) (0, -8.93227159976959228516e-02) (1, 1.49842709302902221680e-01) (2, -1.55283182859420776367e-01) (3, -1.08147144317626953125e-01) (4, -8.13084691762924194336e-02) (5, -4.22164201736450195312e-02) (6, 1.89258530735969543457e-01) (7, 7.38567411899566650391e-02) (8, -4.67024743556976318359e-02) (9, -1.58958695828914642334e-02) (10, -1.59471243619918823242e-01) (11, 2.61649265885353088379e-02) (12, -1.61349326372146606445e-01) (13, -1.31974250078201293945e-01) (14, -1.47094249725341796875e-01) (15, 6.98218122124671936035e-03) (16, 8.82847458124160766602e-02) (17, -7.47165456414222717285e-02) (18, 6.35416284203529357910e-02) (19, 4.82712611556053161621e-02) (20, -5.65511658787727355957e-02) (21, -7.81665556132793426514e-03) (22, -2.67249178141355514526e-02) (23, -3.58009040355682373047e-02) (24, -5.01097291707992553711e-02) (25, -7.59152248501777648926e-02) (26, -7.13033452630043029785e-02) (27, 1.46267535164952278137e-02) (28, -1.55055522918701171875e-03) (29, 2.46102567762136459351e-02) (30, -5.44559732079505920410e-02) (0, -1.36391431093215942383e-01) (1, 4.70686554908752441406e-02) (2, -1.17027163505554199219e-01) (3, -8.99969786405563354492e-02) (4, 7.00019225478172302246e-02) (5, -1.49316415190696716309e-02) (6, -2.28217318654060363770e-02) (7, 2.27094873785972595215e-01) (8, 1.07174441218376159668e-01) (9, -1.79637745022773742676e-02) (10, -1.49757772684097290039e-01) (11, -4.44188788533210754395e-02) (12, -9.15004312992095947266e-02) (13, -1.27190396189689636230e-01) (14, -8.72714072465896606445e-02) (15, 5.97936771810054779053e-02) (16, 3.90110835433006286621e-02) (17, 1.21248260140419006348e-01) (18, 9.21438634395599365234e-02) (19, 1.08036175370216369629e-01) (20, -1.22194504365324974060e-02) (21, -7.11000487208366394043e-02) (22, -2.85523366183042526245e-02) (23, 5.20686991512775421143e-02) (24, -2.11207401007413864136e-02) (25, -4.46756510064005851746e-03) (26, 8.07653591036796569824e-02) (27, 9.35060158371925354004e-02) (28, 9.39818844199180603027e-02) (29, 5.37561206147074699402e-03) (30, -6.60032704472541809082e-02) (0, -2.82025635242462158203e-01) (1, -1.26254782080650329590e-01) (2, -2.60201185941696166992e-01) (3, -1.21476143598556518555e-01) (4, -1.85728907585144042969e-01) (5, -1.22591711580753326416e-01) (6, 8.41961875557899475098e-02) (7, 1.64702400565147399902e-01) (8, 1.58611416816711425781e-01) (9, -4.67542894184589385986e-02) (10, -1.27974927425384521484e-01) (11, -1.34802147746086120605e-01) (12, -3.14274966716766357422e-01) (13, -4.61882026866078376770e-03) (14, -1.51549607515335083008e-01) (15, -1.01940162479877471924e-01) (16, 6.28862902522087097168e-02) (17, 9.30351018905639648438e-02) (18, 1.64232403039932250977e-01) (19, -1.42064258456230163574e-01) (20, -1.95719040930271148682e-02) (21, -1.74247398972511291504e-01) (22, 3.06229945272207260132e-02) (23, 2.96699162572622299194e-02) (24, 1.80498359259217977524e-03) (25, -7.38445743918418884277e-02) (26, 1.04352710768580436707e-02) (27, -4.68900194391608238220e-03) (28, -7.98626914620399475098e-02) (29, -8.41891244053840637207e-02) (30, -6.77763447165489196777e-02) (0, 4.94049638509750366211e-02) (1, -9.22365486621856689453e-02) (2, 3.03345117717981338501e-02) (3, 3.01750097423791885376e-02) (4, -6.10109791159629821777e-03) (5, -2.73907743394374847412e-02) (6, -8.94478708505630493164e-03) (7, -1.66461527347564697266e-01) (8, -5.74576556682586669922e-02) (9, 6.36070296168327331543e-02) (10, 1.88683733344078063965e-01) (11, -5.71110993623733520508e-02) (12, 1.85316100716590881348e-01) (13, 8.63110795617103576660e-02) (14, 6.32036477327346801758e-02) (15, -5.17576634883880615234e-02) (16, -1.74118623137474060059e-01) (17, -1.68824091553688049316e-01) (18, -7.62035846710205078125e-02) (19, 3.12324799597263336182e-03) (20, 9.99290272593498229980e-02) (21, -1.70115139335393905640e-02) (22, -9.14086624979972839355e-02) (23, 1.02739334106445312500e-02) (24, 6.54684677720069885254e-02) (25, -6.52532353997230529785e-02) (26, -7.92907997965812683105e-02) (27, -3.92205305397510528564e-02) (28, -4.51159253716468811035e-02) (29, -6.34799227118492126465e-02) (30, 1.09501235187053680420e-01) (0, 1.29245802760124206543e-01) (1, -4.69027906656265258789e-02) (2, 3.44666652381420135498e-02) (3, 1.28466472029685974121e-01) (4, 5.78716732561588287354e-02) (5, -4.26243990659713745117e-02) (6, -7.23974779248237609863e-02) (7, -8.86063873767852783203e-02) (8, 1.31703838706016540527e-02) (9, 5.26703037321567535400e-02) (10, 1.37291520833969116211e-01) (11, -8.78169238567352294922e-02) (12, 1.15397579967975616455e-01) (13, -7.35173886641860008240e-03) (14, 8.62623006105422973633e-02) (15, 1.39396265149116516113e-02) (16, -1.73389509320259094238e-01) (17, -6.25783279538154602051e-02) (18, 5.09885177016258239746e-02) (19, 9.11944732069969177246e-02) (20, 1.74055788666009902954e-02) (21, -5.09154163300991058350e-02) (22, 6.32411241531372070312e-02) (23, -5.94429671764373779297e-02) (24, -7.25694224238395690918e-02) (25, 9.79878902435302734375e-02) (26, -3.87337617576122283936e-02) (27, -1.17899542674422264099e-02) (28, -4.71280328929424285889e-02) (29, -2.21368088386952877045e-03) (30, -3.44912223517894744873e-02) (0, -3.14630754292011260986e-03) (1, 1.16666331887245178223e-02) (2, 1.76232066005468368530e-02) (3, 5.74240088462829589844e-03) (4, -3.76078896224498748779e-02) (5, -2.68923752009868621826e-02) (6, 7.32081159949302673340e-02) (7, -1.37877866625785827637e-01) (8, 3.99423465132713317871e-02) (9, -7.44709670543670654297e-02) (10, -3.39303091168403625488e-02) (11, -1.57341301441192626953e-01) (12, 5.25978505611419677734e-02) (13, 3.91402021050453186035e-02) (14, 2.17747893184423446655e-02) (15, 6.46462962031364440918e-02) (16, 5.61388023197650909424e-03) (17, -5.24671152234077453613e-02) (18, -3.07008717209100723267e-02) (19, -1.03541016578674316406e-01) (20, -6.14308938384056091309e-02) (21, 6.98444247245788574219e-02) (22, 6.66010975837707519531e-02) (23, -2.97068655490875244141e-02) (24, 8.84419828653335571289e-02) (25, 6.45889863371849060059e-02) (26, 3.15593741834163665771e-02) (27, -2.33479682356119155884e-02) (28, -8.25390517711639404297e-02) (29, -7.06543102860450744629e-02) (30, 6.38713240623474121094e-02) (0, 1.98517769575119018555e-01) (1, -4.73879203200340270996e-02) (2, 1.63508057594299316406e-01) (3, 2.09988653659820556641e-02) (4, -5.46079874038696289062e-03) (5, -7.28548169136047363281e-02) (6, -2.29757755994796752930e-01) (7, -2.99891084432601928711e-02) (8, -1.45039528608322143555e-01) (9, 1.53875350952148437500e-03) (10, 5.61575591564178466797e-02) (11, -3.58352065086364746094e-03) (12, 2.93195128440856933594e-01) (13, 1.12036451697349548340e-01) (14, 9.77263078093528747559e-02) (15, -5.16290813684463500977e-02) (16, -2.06314414739608764648e-01) (17, -4.13912683725357055664e-02) (18, 5.54299354553222656250e-03) (19, -4.08793240785598754883e-03) (20, 1.32726579904556274414e-02) (21, 4.28059399127960205078e-02) (22, -8.92748609185218811035e-02) (23, 9.45117995142936706543e-02) (24, 4.21939380466938018799e-02) (25, 7.53141269087791442871e-02) (26, 2.60711666196584701538e-02) (27, -8.11540409922599792480e-02) (28, 9.27750691771507263184e-02) (29, 5.54168596863746643066e-02) (30, 6.29382878541946411133e-02) (0, 1.33323654532432556152e-01) (1, 7.34354332089424133301e-02) (2, -5.34383580088615417480e-02) (3, 9.84664075076580047607e-03) (4, -5.37249520421028137207e-02) (5, 4.89994063973426818848e-02) (6, -8.48483145236968994141e-02) (7, -1.57706085592508316040e-02) (8, 5.44817894697189331055e-02) (9, 2.21397727727890014648e-02) (10, 1.52783676981925964355e-01) (11, 1.13584309816360473633e-01) (12, 2.56125144660472869873e-02) (13, 1.20344258844852447510e-01) (14, 8.96110236644744873047e-02) (15, -5.07240071892738342285e-02) (16, -1.50907337665557861328e-01) (17, -8.38367864489555358887e-02) (18, -9.46591049432754516602e-02) (19, -4.95459511876106262207e-02) (20, -6.94346278905868530273e-02) (21, 7.61899948120117187500e-02) (22, -3.77124808728694915771e-02) (23, -9.47404205799102783203e-02) (24, -1.43366458360105752945e-03) (25, -6.23983554542064666748e-02) (26, 3.13307531177997589111e-02) (27, 1.74122937023639678955e-02) (28, -6.96232840418815612793e-02) (29, -1.32523840293288230896e-02) (30, 1.11141689121723175049e-02) (0, 7.92375952005386352539e-02) (1, -1.78642757236957550049e-03) (2, 8.51658657193183898926e-02) (3, -4.81792353093624114990e-02) (4, -2.80717685818672180176e-02) (5, -1.07787817716598510742e-01) (6, -9.83442924916744232178e-03) (7, -1.23564973473548889160e-01) (8, 4.39792238175868988037e-02) (9, -3.99593673646450042725e-02) (10, -8.47574919462203979492e-02) (11, 1.41413897275924682617e-01) (12, 1.11379362642765045166e-01) (13, 9.83232930302619934082e-02) (14, 5.84645420312881469727e-02) (15, 1.87022592872381210327e-02) (16, 7.06090703606605529785e-02) (17, -1.05094842612743377686e-01) (18, 2.13284157216548919678e-02) (19, -3.12015898525714874268e-02) (20, -5.52055276930332183838e-02) (21, -7.82439298927783966064e-03) (22, 9.50452126562595367432e-03) (23, -1.86008997261524200439e-02) (24, -7.79130235314369201660e-02) (25, 4.71061728894710540771e-02) (26, -8.72701480984687805176e-02) (27, 3.94992716610431671143e-02) (28, 7.74828791618347167969e-02) (29, -5.22530113812536001205e-04) (30, -1.00549176335334777832e-01) (0, 2.11657479405403137207e-01) (1, 3.52145470678806304932e-02) (2, 2.34417885541915893555e-01) (3, -7.27483034133911132812e-02) (4, 6.91543146967887878418e-03) (5, 6.90456479787826538086e-02) (6, -1.25386849045753479004e-01) (7, -1.48254871368408203125e-01) (8, -1.37756243348121643066e-02) (9, 1.15768320858478546143e-01) (10, 1.52520611882209777832e-01) (11, 6.60044178366661071777e-02) (12, 1.88239559531211853027e-01) (13, 1.46173536777496337891e-02) (14, 1.24241620302200317383e-01) (15, -5.06426133215427398682e-02) (16, -1.57577678561210632324e-01) (17, -2.12458565831184387207e-01) (18, -1.56114652752876281738e-01) (19, 9.23352763056755065918e-02) (20, -2.41726310923695564270e-03) (21, 7.15544596314430236816e-02) (22, -5.55244758725166320801e-02) (23, 7.56760388612747192383e-02) (24, 9.03356000781059265137e-02) (25, 9.15816947817802429199e-02) (26, 8.84058997035026550293e-02) (27, 2.98348795622587203979e-02) (28, 6.90645724534988403320e-02) (29, -1.21166352182626724243e-02) (30, 6.39365464448928833008e-02) (0, 2.00835108757019042969e-01) (1, -2.00465396046638488770e-02) (2, 9.72037315368652343750e-02) (3, 7.95589685440063476562e-02) (4, 5.56613132357597351074e-02) (5, -6.72835186123847961426e-02) (6, -1.82290494441986083984e-01) (7, 2.63304948806762695312e-01) (8, 4.46188412606716156006e-02) (9, -5.10350093245506286621e-02) (10, 1.21370851993560791016e-01) (11, 2.70559266209602355957e-02) (12, 1.05561852455139160156e-01) (13, 8.74603837728500366211e-02) (14, 2.00899466872215270996e-02) (15, -1.78613647818565368652e-01) (16, -2.06579923629760742188e-01) (17, 1.63529902696609497070e-01) (18, -9.05029848217964172363e-03) (19, 1.01242527365684509277e-01) (20, 7.29360133409500122070e-02) (21, -5.15276268124580383301e-02) (22, -8.80797803401947021484e-02) (23, 1.89150925725698471069e-02) (24, -9.08889621496200561523e-02) (25, -9.64980870485305786133e-02) (26, 7.32098845764994621277e-03) (27, 3.89459133148193359375e-02) (28, 7.25664868950843811035e-02) (29, 9.52043533325195312500e-02) (30, 2.92736142873764038086e-02) (0, 6.83671683073043823242e-02) (1, -9.57860648632049560547e-02) (2, -2.77768187224864959717e-02) (3, -5.61933778226375579834e-02) (4, -1.70724429190158843994e-02) (5, 5.49081191420555114746e-02) (6, -5.98720163106918334961e-02) (7, -1.76940619945526123047e-01) (8, -8.16287174820899963379e-02) (9, 4.72617261111736297607e-02) (10, 5.76505772769451141357e-02) (11, -3.12537327408790588379e-03) (12, -5.59576787054538726807e-03) (13, -5.90085685253143310547e-02) (14, 4.00168932974338531494e-02) (15, -3.42409461736679077148e-02) (16, -8.69766250252723693848e-02) (17, -1.96263305842876434326e-02) (18, -2.44469307363033294678e-02) (19, -2.75653600692749023438e-02) (20, 4.74792085587978363037e-02) (21, 2.23315246403217315674e-02) (22, -4.95072714984416961670e-02) (23, -3.92174199223518371582e-02) (24, 2.58308406919240951538e-02) (25, -4.60053570568561553955e-02) (26, 6.81035667657852172852e-02) (27, -3.52232418954372406006e-02) (28, -7.34388753771781921387e-02) (29, 6.33079186081886291504e-02) (30, 6.99651390314102172852e-02) (0, -3.59911471605300903320e-02) (1, 6.86524957418441772461e-02) (2, 1.26406922936439514160e-02) (3, 4.05625663697719573975e-02) (4, -9.62114706635475158691e-03) (5, 4.63830754160881042480e-02) (6, 3.31583432853221893311e-02) (7, -7.52471387386322021484e-02) (8, 3.83952893316745758057e-02) (9, 8.68070349097251892090e-02) (10, -1.49888932704925537109e-01) (11, -4.08744737505912780762e-02) (12, -1.45218193531036376953e-01) (13, -7.61504247784614562988e-02) (14, -6.20587766170501708984e-02) (15, -6.24887645244598388672e-04) (16, 8.93407464027404785156e-02) (17, -1.70370489358901977539e-01) (18, 4.85691241919994354248e-02) (19, 6.81623592972755432129e-02) (20, 6.51652291417121887207e-02) (21, -1.69449746608734130859e-02) (22, -8.38384777307510375977e-02) (23, -6.90933242440223693848e-02) (24, -8.61552730202674865723e-02) (25, -2.98438314348459243774e-02) (26, 9.90102440118789672852e-02) (27, -2.13785059750080108643e-02) (28, -3.28270206227898597717e-03) (29, 6.23181574046611785889e-02) (30, -6.19839504361152648926e-02) (0, -6.15710429847240447998e-02) (1, 8.02849382162094116211e-02) (2, -1.37603357434272766113e-01) (3, -1.12160608172416687012e-01) (4, -2.51486152410507202148e-02) (5, -1.63835603743791580200e-02) (6, -4.46337535977363586426e-02) (7, 1.20865225791931152344e-01) (8, 1.99393704533576965332e-02) (9, -8.74424818903207778931e-03) (10, 8.50666090846061706543e-02) (11, 1.16683736443519592285e-01) (12, -8.25988575816154479980e-02) (13, -8.22359248995780944824e-02) (14, -4.11874651908874511719e-02) (15, -8.38702358305454254150e-03) (16, 4.14733216166496276855e-02) (17, 9.70304012298583984375e-03) (18, 3.81097383797168731689e-02) (19, 5.87181411683559417725e-02) (20, -8.94444361329078674316e-02) (21, -9.12309065461158752441e-02) (22, 3.94622199237346649170e-02) (23, -5.28786741197109222412e-02) (24, -7.17270895838737487793e-02) (25, -9.03816074132919311523e-02) (26, -5.38684278726577758789e-02) (27, 6.89440965652465820312e-03) (28, 6.33568782359361648560e-03) (29, -9.15502682328224182129e-02) (30, 4.42102216184139251709e-02) (0, 3.28955769538879394531e-01) (1, 1.21599048376083374023e-01) (2, 3.36642444133758544922e-01) (3, 1.01877249777317047119e-01) (4, 1.72694876790046691895e-01) (5, -7.64216184616088867188e-02) (6, -3.81867229938507080078e-01) (7, 7.50030800700187683105e-02) (8, -1.09881736338138580322e-01) (9, 2.77719423174858093262e-02) (10, 3.20639967918395996094e-01) (11, -1.84489861130714416504e-02) (12, 3.04016828536987304688e-01) (13, 1.23486109077930450439e-01) (14, 1.66079849004745483398e-02) (15, -1.01050704717636108398e-01) (16, -2.74151295423507690430e-01) (17, 7.75401294231414794922e-03) (18, -1.16340450942516326904e-01) (19, 2.95028835535049438477e-03) (20, 6.77028298377990722656e-03) (21, -5.36051690578460693359e-02) (22, 7.68797770142555236816e-02) (23, 4.74691651761531829834e-02) (24, -3.17547209560871124268e-02) (25, 8.64981636404991149902e-02) (26, 9.36007276177406311035e-02) (27, 7.51396939158439636230e-02) (28, -7.16614723205566406250e-03) (29, -9.79495346546173095703e-02) (30, 3.14314663410186767578e-02) (0, -5.13516813516616821289e-02) (1, 1.49167608469724655151e-02) (2, 1.21182635426521301270e-01) (3, 9.26651656627655029297e-02) (4, 8.21308642625808715820e-02) (5, -1.11933484673500061035e-01) (6, 1.75068229436874389648e-02) (7, -5.75080700218677520752e-02) (8, -7.24865198135375976562e-02) (9, -1.00718125700950622559e-01) (10, -4.46823872625827789307e-02) (11, -6.97755441069602966309e-02) (12, 1.94163218140602111816e-01) (13, 1.20943337678909301758e-01) (14, 4.13516946136951446533e-02) (15, -6.35820031166076660156e-02) (16, -4.64990623295307159424e-02) (17, 3.44637036323547363281e-02) (18, -3.05937528610229492188e-02) (19, 1.04543324559926986694e-02) (20, -2.91812960058450698853e-02) (21, 9.95150394737720489502e-03) (22, 1.86674240976572036743e-02) (23, -5.23923002183437347412e-02) (24, -9.24833863973617553711e-02) (25, 5.16557693481445312500e-03) (26, -5.87915703654289245605e-02) (27, 8.26563015580177307129e-02) (28, 9.79994311928749084473e-02) (29, -5.67411035299301147461e-02) (30, -2.16545332223176956177e-02) (0, -1.02916181087493896484e-01) (1, -9.33654829859733581543e-02) (2, -1.20606705546379089355e-01) (3, 8.27954411506652832031e-02) (4, 7.47676864266395568848e-02) (5, -6.70913979411125183105e-02) (6, 8.76509249210357666016e-02) (7, -3.62581573426723480225e-03) (8, 2.24004425108432769775e-02) (9, 7.22883492708206176758e-02) (10, -2.44246181100606918335e-02) (11, 7.08024352788925170898e-02) (12, 3.07732503861188888550e-02) (13, -1.04348491877317428589e-02) (14, -1.84355862438678741455e-03) (15, -6.73599615693092346191e-02) (16, 1.30414754152297973633e-01) (17, 1.17346998304128646851e-02) (18, 6.40246495604515075684e-02) (19, 2.62246299535036087036e-02) (20, 8.95075798034667968750e-02) (21, -2.27985251694917678833e-02) (22, -4.13316152989864349365e-02) (23, -6.70715421438217163086e-02) (24, -1.94687377661466598511e-02) (25, 6.38339743018150329590e-02) (26, -2.58631110191345214844e-02) (27, -3.68124432861804962158e-02) (28, 6.18334077298641204834e-02) (29, 1.73957832157611846924e-02) (30, 7.50396847724914550781e-02) (0, 8.83224532008171081543e-02) (1, 1.79144870489835739136e-02) (2, 6.95297569036483764648e-02) (3, 7.78908655047416687012e-02) (4, 2.82544642686843872070e-05) (5, -8.26138556003570556641e-02) (6, 4.31196689605712890625e-02) (7, 1.55260860919952392578e-01) (8, 4.80549931526184082031e-02) (9, -6.12203404307365417480e-03) (10, -4.02330644428730010986e-02) (11, -2.83188782632350921631e-02) (12, -3.44236120581626892090e-02) (13, 5.61050623655319213867e-02) (14, 7.71836489439010620117e-02) (15, 1.31642166525125503540e-02) (16, 6.40977025032043457031e-02) (17, 4.77767698466777801514e-02) (18, -1.45427212119102478027e-02) (19, -3.12077216804027557373e-02) (20, -5.23215793073177337646e-02) (21, 3.24668660759925842285e-02) (22, 4.91022467613220214844e-02) (23, -3.44485454261302947998e-02) (24, 9.79427024722099304199e-02) (25, 1.29362111911177635193e-02) (26, 3.96883375942707061768e-02) (27, -3.88697385787963867188e-02) (28, -2.52303779125213623047e-02) (29, -4.29158769547939300537e-02) (30, -5.29614500701427459717e-02) (0, -3.35457026958465576172e-01) (1, 9.35059338808059692383e-02) (2, -3.88373970985412597656e-01) (3, -1.52606740593910217285e-01) (4, -1.58411473035812377930e-01) (5, -4.16401773691177368164e-02) (6, 3.26822698116302490234e-01) (7, -5.70932775735855102539e-03) (8, 1.19092129170894622803e-01) (9, -7.21303373575210571289e-02) (10, -3.18985223770141601562e-01) (11, -7.57960975170135498047e-02) (12, -2.43629261851310729980e-01) (13, -1.57920703291893005371e-01) (14, -5.05580753087997436523e-02) (15, -1.11739337444305419922e-03) (16, 3.42486739158630371094e-01) (17, -5.34005463123321533203e-03) (18, 9.70172137022018432617e-02) (19, -8.15519392490386962891e-02) (20, -8.27082693576812744141e-02) (21, -1.06145501136779785156e-01) (22, -7.96381756663322448730e-02) (23, 1.83406714349985122681e-02) (24, -7.27053061127662658691e-02) (25, 3.32980416715145111084e-02) (26, -4.19709794223308563232e-02) (27, -1.15750432014465332031e-02) (28, -9.19323414564132690430e-02) (29, 1.51131395250558853149e-02) (30, -1.50894150137901306152e-02) (31, -1.14710651338100433350e-01) (32, 1.49822056293487548828e-01) (33, 8.04321318864822387695e-02) (34, -1.43649563193321228027e-01) (35, 3.77038359642028808594e-01) (36, -1.50424391031265258789e-02) (37, 2.55006521940231323242e-01) (38, 1.31433039903640747070e-01) (39, 6.57137855887413024902e-02) (40, 2.74769179522991180420e-02) (41, -1.43858209252357482910e-01) (42, -8.63118842244148254395e-02) (43, -1.73298060894012451172e-01) (44, -3.09051543474197387695e-01) (45, 9.69597548246383666992e-02) (46, 2.09652304649353027344e-01) (47, -8.75104125589132308960e-03) (48, 1.00949659943580627441e-01) (49, 2.06317733973264694214e-02) (50, 1.30403175950050354004e-01) (51, 2.51075387001037597656e-01) (52, -1.02592997252941131592e-01) (53, 1.43927529454231262207e-01) (54, -3.49619984626770019531e-02) (55, -5.23472502827644348145e-02) (56, 7.41964876651763916016e-02) (57, 9.88275483250617980957e-02) (58, -7.04415068030357360840e-02) (59, -8.64377766847610473633e-02) (60, -3.32626014947891235352e-01) (61, 8.12346577644348144531e-01) (31, 1.50774344801902770996e-01) (32, -3.52542139589786529541e-02) (33, -1.53528288006782531738e-01) (34, -4.48473915457725524902e-03) (35, 5.04004731774330139160e-02) (36, 3.58433090150356292725e-02) (37, 5.24720400571823120117e-02) (38, -3.05349286645650863647e-02) (39, 2.84752193838357925415e-02) (40, 8.31638723611831665039e-02) (41, 1.09024658799171447754e-01) (42, -1.29246383905410766602e-01) (43, -8.39464291930198669434e-02) (44, -1.16125218570232391357e-01) (45, 1.68955512344837188721e-02) (46, 7.17154294252395629883e-02) (47, -7.17546558007597923279e-03) (48, 9.38113778829574584961e-03) (49, 2.18552611768245697021e-02) (50, -1.12128749489784240723e-01) (51, 9.06254127621650695801e-02) (52, 2.04684406518936157227e-01) (53, 7.94343650341033935547e-02) (54, -1.38178095221519470215e-01) (55, -1.33931804448366165161e-02) (56, 1.06862917542457580566e-01) (57, 3.54592837393283843994e-02) (58, 4.94330897927284240723e-02) (59, 1.36272042989730834961e-01) (60, -2.17061489820480346680e-01) (61, 8.24719816446304321289e-02) (31, 8.98306667804718017578e-02) (32, 1.01633980870246887207e-01) (33, -1.79825425148010253906e-02) (34, -6.06124773621559143066e-02) (35, -1.64076536893844604492e-02) (36, -3.84740196168422698975e-02) (37, 1.38251930475234985352e-01) (38, -4.23268377780914306641e-02) (39, 9.05443355441093444824e-02) (40, -1.11062657088041305542e-02) (41, -2.16875988990068435669e-02) (42, -7.95631855726242065430e-02) (43, 4.74096760153770446777e-02) (44, -6.04979693889617919922e-02) (45, 9.17330682277679443359e-02) (46, 1.98192894458770751953e-04) (47, 6.21979720890522003174e-02) (48, 1.03046357631683349609e-01) (49, -7.53194838762283325195e-02) (50, -5.06499297916889190674e-02) (51, 4.74102646112442016602e-02) (52, 3.96135412156581878662e-02) (53, 9.40872207283973693848e-02) (54, 3.34493033587932586670e-02) (55, -2.78089754283428192139e-02) (56, -3.44835296273231506348e-02) (57, -1.02510601282119750977e-02) (58, -6.43104836344718933105e-02) (59, -6.31129443645477294922e-02) (60, 4.74996641278266906738e-02) (61, 3.48886460065841674805e-01) (31, -9.90457534790039062500e-02) (32, 1.07024572789669036865e-02) (33, 1.69989138841629028320e-01) (34, -7.48447701334953308105e-03) (35, -1.11225016415119171143e-01) (36, -1.23986050486564636230e-01) (37, -1.31920784711837768555e-01) (38, -3.54253202676773071289e-02) (39, 3.28695438802242279053e-02) (40, 3.39281186461448669434e-02) (41, -9.73073020577430725098e-02) (42, 2.31758132576942443848e-02) (43, 4.41894680261611938477e-03) (44, 1.74507334828376770020e-01) (45, 1.41236782073974609375e-02) (46, 1.93766504526138305664e-03) (47, 4.93980124592781066895e-02) (48, 2.17043608427047729492e-02) (49, -9.73577890545129776001e-03) (50, 1.12254489213228225708e-02) (51, -7.53758773207664489746e-02) (52, -1.75210118293762207031e-01) (53, 7.57157579064369201660e-02) (54, -1.47365629673004150391e-02) (55, 1.35020706802606582642e-02) (56, -2.04201519489288330078e-01) (57, -1.22320875525474548340e-01) (58, 1.46530754864215850830e-02) (59, -5.12915514409542083740e-02) (60, 1.97372794151306152344e-01) (61, -1.70653387904167175293e-01) (31, 7.39049464464187622070e-02) (32, -9.49676707386970520020e-02) (33, -8.13066065311431884766e-02) (34, 2.75253318250179290771e-02) (35, -1.47506102919578552246e-01) (36, -1.61728821694850921631e-02) (37, -2.06211879849433898926e-01) (38, 2.65133082866668701172e-02) (39, -1.04100525379180908203e-01) (40, 3.11494767665863037109e-02) (41, -2.89095230400562286377e-02) (42, 6.24351017177104949951e-02) (43, 1.33714303374290466309e-01) (44, 1.07263952493667602539e-01) (45, -1.34958446025848388672e-01) (46, -2.04992517828941345215e-01) (47, 1.83586329221725463867e-02) (48, -2.04376578330993652344e-01) (49, -7.34004899859428405762e-02) (50, -9.75825414061546325684e-02) (51, -5.89206703007221221924e-02) (52, 1.87763161957263946533e-02) (53, -1.37596383690834045410e-01) (54, 8.80767330527305603027e-02) (55, 1.71928126364946365356e-02) (56, -2.44593888521194458008e-01) (57, -5.63706532120704650879e-02) (58, 5.61473555862903594971e-02) (59, 1.75852198153734207153e-02) (60, 2.41272911429405212402e-01) (61, -3.40029656887054443359e-01) (31, -4.60919737815856933594e-02) (32, 1.10028563067317008972e-02) (33, -3.45489159226417541504e-02) (34, 5.38197830319404602051e-02) (35, -2.31439098715782165527e-01) (36, 4.90900278091430664062e-02) (37, -2.01295226812362670898e-01) (38, -5.73622286319732666016e-02) (39, -1.43686860799789428711e-01) (40, 6.62768334150314331055e-02) (41, 6.79235607385635375977e-02) (42, 9.76091474294662475586e-02) (43, 2.51011192798614501953e-01) (44, 2.71607816219329833984e-01) (45, -2.82755345106124877930e-02) (46, -2.13190734386444091797e-01) (47, -3.97234894335269927979e-02) (48, -1.05132736265659332275e-01) (49, -6.10334798693656921387e-02) (50, -1.62526801228523254395e-01) (51, -1.02867886424064636230e-01) (52, -4.84983734786510467529e-02) (53, -1.19754731655120849609e-01) (54, 6.23166374862194061279e-03) (55, 8.48046392202377319336e-02) (56, -1.91554337739944458008e-01) (57, -1.57751664519309997559e-01) (58, 1.34584978222846984863e-01) (59, 1.01954557001590728760e-01) (60, 3.03395330905914306641e-01) (61, -4.07795846462249755859e-01) (31, 6.84771267697215080261e-03) (32, 1.61326557397842407227e-01) (33, 7.54091367125511169434e-02) (34, -2.35436186194419860840e-01) (35, 4.19836401939392089844e-01) (36, -1.03711187839508056641e-01) (37, 3.06743562221527099609e-01) (38, 2.10777819156646728516e-02) (39, 5.38166724145412445068e-02) (40, -9.17861461639404296875e-02) (41, -1.89615756273269653320e-01) (42, -2.45775468647480010986e-02) (43, -2.55372494459152221680e-01) (44, -2.13252261281013488770e-01) (45, 1.53097957372665405273e-01) (46, 8.19919854402542114258e-02) (47, 5.75187541544437408447e-02) (48, 1.15732580423355102539e-01) (49, 8.42968821525573730469e-02) (50, 1.61342471837997436523e-01) (51, 3.08547228574752807617e-01) (52, -4.08452041447162628174e-02) (53, -1.86836859211325645447e-03) (54, -4.07398231327533721924e-02) (55, -1.67986452579498291016e-01) (56, 6.07342496514320373535e-02) (57, 7.62268602848052978516e-02) (58, -7.35670849680900573730e-02) (59, -1.45188927650451660156e-01) (60, -3.25521051883697509766e-01) (61, 7.58591830730438232422e-01) (31, -1.22916251420974731445e-01) (32, 8.92118141055107116699e-02) (33, 2.13085681200027465820e-01) (34, -1.87454223632812500000e-02) (35, -7.66771510243415832520e-02) (36, -1.08154296875000000000e-01) (37, -2.37783789634704589844e-03) (38, -8.99378284811973571777e-02) (39, 3.46134044229984283447e-02) (40, -1.70401185750961303711e-01) (41, -1.18493601679801940918e-01) (42, 1.03259854018688201904e-01) (43, -3.14963273704051971436e-02) (44, 3.80179435014724731445e-02) (45, -8.47807824611663818359e-02) (46, -4.71753701567649841309e-02) (47, 5.63078895211219787598e-02) (48, -6.77434280514717102051e-02) (49, -1.26373291015625000000e-01) (50, 5.13007082045078277588e-02) (51, -1.92407518625259399414e-02) (52, -1.76041424274444580078e-01) (53, 3.73087376356124877930e-02) (54, -9.73300822079181671143e-03) (55, 6.98195770382881164551e-03) (56, -2.15177327394485473633e-01) (57, 2.49382518231868743896e-02) (58, -7.44407065212726593018e-03) (59, -5.02122268080711364746e-02) (60, 2.60597944259643554688e-01) (61, -1.69023752212524414062e-01) (31, 1.68424211442470550537e-02) (32, -7.14704096317291259766e-02) (33, -1.19857434183359146118e-02) (34, 1.31670236587524414062e-01) (35, -2.47218027710914611816e-01) (36, 1.31983742117881774902e-01) (37, -1.34000748395919799805e-01) (38, -2.69586704671382904053e-02) (39, 6.98878169059753417969e-02) (40, -2.57894657552242279053e-02) (41, 7.94079825282096862793e-02) (42, 3.99512331932783126831e-03) (43, 1.69023498892784118652e-01) (44, 2.68745154142379760742e-01) (45, -1.09749794006347656250e-01) (46, -6.24416172504425048828e-02) (47, -2.14709527790546417236e-02) (48, -3.44896465539932250977e-02) (49, -1.70295275747776031494e-02) (50, -3.75757403671741485596e-02) (51, -5.34587278962135314941e-02) (52, 7.45314881205558776855e-02) (53, -1.19247242808341979980e-01) (54, -1.14829741418361663818e-01) (55, 8.50867629051208496094e-02) (56, -3.91515195369720458984e-02) (57, 5.13150617480278015137e-02) (58, -1.02703899145126342773e-01) (59, 3.47645729780197143555e-02) (60, 1.63583457469940185547e-01) (61, -6.10756039619445800781e-01) (31, -4.99437563121318817139e-02) (32, -1.70954778790473937988e-01) (33, -1.57337151467800140381e-02) (34, 1.89736753702163696289e-01) (35, -2.72580623626708984375e-01) (36, 1.49535033851861953735e-02) (37, -2.21364602446556091309e-01) (38, -8.91767367720603942871e-02) (39, -1.09959796071052551270e-01) (40, -6.89629241824150085449e-02) (41, 1.01807154715061187744e-01) (42, 6.30085170269012451172e-02) (43, 8.03445726633071899414e-02) (44, 2.83827096223831176758e-01) (45, -5.04007562994956970215e-02) (46, -7.57455006241798400879e-02) (47, -8.41650813817977905273e-02) (48, -1.43661051988601684570e-01) (49, 8.27878788113594055176e-02) (50, -5.19360676407814025879e-02) (51, -2.70952373743057250977e-01) (52, 6.97781741619110107422e-02) (53, -5.07345348596572875977e-02) (54, -5.93565776944160461426e-02) (55, 2.01131273061037063599e-02) (56, -3.38759124279022216797e-02) (57, 3.51332351565361022949e-02) (58, -6.69473335146903991699e-02) (59, -3.17160151898860931396e-02) (60, 1.88275307416915893555e-01) (61, -6.42310023307800292969e-01) (31, -1.70959219336509704590e-01) (32, 1.72461420297622680664e-01) (33, 3.99088375270366668701e-02) (34, -7.53828287124633789062e-02) (35, 2.73918181657791137695e-01) (36, -2.52155717462301254272e-02) (37, 3.40158969163894653320e-01) (38, -5.31724374741315841675e-03) (39, 1.56754821538925170898e-01) (40, 4.86186929047107696533e-02) (41, -2.80614774674177169800e-02) (42, -1.58202469348907470703e-01) (43, -2.81430989503860473633e-01) (44, -3.45197021961212158203e-01) (45, 4.50224205851554870605e-02) (46, 1.80307060480117797852e-01) (47, 5.23863397538661956787e-02) (48, 3.98554131388664245605e-02) (49, 4.91287820041179656982e-02) (50, 2.27706078439950942993e-02) (51, 1.55578941106796264648e-01) (52, -2.31406599283218383789e-01) (53, 1.06627851724624633789e-01) (54, -5.32310605049133300781e-02) (55, -1.72612875699996948242e-01) (56, 2.32773683965206146240e-02) (57, -7.21080461516976356506e-03) (58, -2.29825824499130249023e-02) (59, -1.59819692373275756836e-01) (60, -3.43883991241455078125e-01) (61, 8.25628101825714111328e-01) (31, 3.79452370107173919678e-02) (32, -2.96190381050109863281e-04) (33, -7.33935832977294921875e-02) (34, -2.65105962753295898438e-02) (35, 1.49816468358039855957e-01) (36, 1.06805473566055297852e-01) (37, 1.00157804787158966064e-01) (38, -8.97651165723800659180e-02) (39, -1.01850638166069984436e-02) (40, 1.42876178026199340820e-01) (41, 1.65203467011451721191e-01) (42, -4.14122827351093292236e-02) (43, 8.12798142433166503906e-02) (44, -6.51914998888969421387e-02) (45, 4.55497428774833679199e-02) (46, 4.51538339257240295410e-03) (47, -8.24029445648193359375e-02) (48, 1.58131346106529235840e-01) (49, -2.53007169812917709351e-02) (50, -1.07644021511077880859e-01) (51, 1.24800935387611389160e-01) (52, 3.29990945756435394287e-02) (53, 3.04903294891119003296e-02) (54, -1.29225552082061767578e-01) (55, -9.28813666105270385742e-02) (56, 1.92147746682167053223e-01) (57, -6.96038901805877685547e-02) (58, 2.59063486009836196899e-02) (59, -4.75412160158157348633e-02) (60, -1.18508063256740570068e-01) (61, 3.01342904567718505859e-02) (31, -3.59877198934555053711e-03) (32, 5.86994662880897521973e-02) (33, 1.70095890760421752930e-01) (34, 2.02162191271781921387e-02) (35, 4.24430072307586669922e-02) (36, 1.59427486360073089600e-02) (37, 1.00443825125694274902e-01) (38, -7.99380913376808166504e-02) (39, -8.68686884641647338867e-02) (40, -2.23193746060132980347e-02) (41, -6.42395671457052230835e-03) (42, 1.84683017432689666748e-02) (43, -1.96532905101776123047e-03) (44, -5.47389686107635498047e-03) (45, 3.78776267170906066895e-02) (46, 1.08735501766204833984e-01) (47, 7.69027471542358398438e-02) (48, -6.05393201112747192383e-03) (49, -3.38370464742183685303e-02) (50, -2.64518149197101593018e-02) (51, -3.30980196595191955566e-02) (52, -9.24173593521118164062e-02) (53, 6.21257834136486053467e-02) (54, -6.50911554694175720215e-02) (55, -3.60534712672233581543e-02) (56, 1.74501612782478332520e-02) (57, -8.38209316134452819824e-03) (58, -8.52209627628326416016e-02) (59, -1.17504810914397239685e-02) (60, -7.33856409788131713867e-02) (61, 3.15773665904998779297e-01) (31, -1.24858140945434570312e-01) (32, 5.75786046683788299561e-02) (33, 3.98826189339160919189e-02) (34, 7.04208984971046447754e-02) (35, -5.48696666955947875977e-02) (36, -6.94150105118751525879e-04) (37, -1.46494016051292419434e-01) (38, -2.32795067131519317627e-03) (39, -2.80211288481950759888e-02) (40, 2.70760226994752883911e-02) (41, -4.28717583417892456055e-02) (42, 7.92831033468246459961e-02) (43, -2.79807113111019134521e-02) (44, 1.35791569948196411133e-01) (45, -9.54886525869369506836e-03) (46, 4.90304827690124511719e-02) (47, 8.06995760649442672729e-03) (48, -1.28533750772476196289e-01) (49, 8.57164338231086730957e-02) (50, -2.24453676491975784302e-02) (51, -1.26702934503555297852e-01) (52, -1.73852685838937759399e-03) (53, 5.05970790982246398926e-04) (54, 5.40379583835601806641e-02) (55, -1.79463624954223632812e-03) (56, -4.56058606505393981934e-02) (57, -6.81377500295639038086e-02) (58, -3.06098237633705139160e-02) (59, -2.03865133225917816162e-02) (60, 1.81484565138816833496e-01) (61, -1.64333522319793701172e-01) (31, 8.05370509624481201172e-02) (32, -8.80506187677383422852e-02) (33, 2.05196700990200042725e-02) (34, 1.12237021327018737793e-01) (35, -2.75298029184341430664e-01) (36, 1.91464405506849288940e-02) (37, -1.49721622467041015625e-01) (38, -5.28108179569244384766e-02) (39, -1.39481082558631896973e-01) (40, 1.02429278194904327393e-01) (41, -4.44586575031280517578e-02) (42, 8.93476605415344238281e-02) (43, 1.70604571700096130371e-01) (44, 2.50280618667602539062e-01) (45, -1.38929560780525207520e-01) (46, -1.35729357600212097168e-01) (47, -1.00400902330875396729e-01) (48, -1.50833204388618469238e-01) (49, -9.75041389465332031250e-02) (50, -5.64815774559974670410e-02) (51, -5.04629127681255340576e-02) (52, -2.51183323562145233154e-02) (53, 3.31449098885059356689e-02) (54, -2.52946950495243072510e-02) (55, 1.49827823042869567871e-01) (56, -1.07774689793586730957e-01) (57, -1.21032223105430603027e-01) (58, -5.81148117780685424805e-02) (59, 6.33153365924954414368e-04) (60, 1.66646018624305725098e-01) (61, -2.62381732463836669922e-01) (31, -4.81420829892158508301e-02) (32, -8.96751508116722106934e-02) (33, -1.66949443519115447998e-02) (34, 1.36466011404991149902e-01) (35, -2.66512840986251831055e-01) (36, -7.39261880517005920410e-02) (37, -3.23479324579238891602e-01) (38, -1.29264190793037414551e-01) (39, -1.24433316290378570557e-01) (40, 6.76007643342018127441e-02) (41, 1.11089479178190231323e-02) (42, 1.65161132812500000000e-01) (43, 1.04243017733097076416e-01) (44, 1.66118651628494262695e-01) (45, -1.90525576472282409668e-01) (46, -1.41457214951515197754e-01) (47, -1.21451318264007568359e-01) (48, -2.02277094125747680664e-01) (49, -1.03004439733922481537e-03) (50, -2.03506290912628173828e-01) (51, -1.91523209214210510254e-01) (52, 2.27212603203952312469e-03) (53, 1.26006435602903366089e-02) (54, 3.32111790776252746582e-02) (55, 5.72240650653839111328e-02) (56, -1.07959762215614318848e-01) (57, -2.07407638430595397949e-01) (58, -2.25748345255851745605e-02) (59, -3.54094710201025009155e-03) (60, 2.24711105227470397949e-01) (61, -3.59251648187637329102e-01) (31, -1.38858929276466369629e-01) (32, 1.68421670794486999512e-01) (33, 6.78349733352661132812e-02) (34, -1.36826589703559875488e-01) (35, 2.52960115671157836914e-01) (36, -5.31864389777183532715e-02) (37, 3.51853251457214355469e-01) (38, -2.03446708619594573975e-02) (39, 1.40044271945953369141e-01) (40, -7.12208077311515808105e-02) (41, -1.11996196210384368896e-01) (42, -9.13854464888572692871e-02) (43, -2.23767593502998352051e-01) (44, -3.04730296134948730469e-01) (45, 1.57621532678604125977e-01) (46, 2.25040286779403686523e-01) (47, 1.08625866472721099854e-01) (48, 4.35232594609260559082e-02) (49, 9.41213592886924743652e-02) (50, 1.92077979445457458496e-01) (51, 1.81960135698318481445e-01) (52, -2.06912428140640258789e-01) (53, 1.80681869387626647949e-01) (54, 4.76362630724906921387e-02) (55, -1.82969927787780761719e-01) (56, 1.46777912974357604980e-01) (57, 1.37398421764373779297e-01) (58, -4.63710464537143707275e-02) (59, -1.91558316349983215332e-01) (60, -2.05672547221183776855e-01) (61, 7.81687676906585693359e-01) (31, -1.13952927291393280029e-01) (32, 3.92387174069881439209e-02) (33, 2.01028659939765930176e-01) (34, 8.34619775414466857910e-02) (35, -9.91243049502372741699e-02) (36, -8.24491679668426513672e-02) (37, -2.81225591897964477539e-02) (38, 2.43918895721435546875e-02) (39, -4.41069789230823516846e-02) (40, -6.31348043680191040039e-03) (41, -1.36116802692413330078e-01) (42, 1.49803131818771362305e-01) (43, -3.68101075291633605957e-02) (44, 1.24098181724548339844e-01) (45, -2.29342766106128692627e-02) (46, -8.78038406372070312500e-02) (47, 2.11530365049839019775e-02) (48, -8.58393162488937377930e-02) (49, 2.83998772501945495605e-02) (50, 5.13116717338562011719e-02) (51, 3.13471630215644836426e-02) (52, -1.91937059164047241211e-01) (53, 1.31118018180131912231e-02) (54, 1.13043271005153656006e-01) (55, -1.65967307984828948975e-02) (56, -1.58258840441703796387e-01) (57, 1.59717537462711334229e-02) (58, -5.43650239706039428711e-04) (59, -5.50407692790031433105e-02) (60, 1.55692100524902343750e-01) (61, -1.24196380376815795898e-01) (31, 3.45641970634460449219e-02) (32, -8.73081013560295104980e-03) (33, -3.09731718152761459351e-02) (34, 5.70874772965908050537e-02) (35, -2.21314758062362670898e-01) (36, -6.07368089258670806885e-02) (37, -2.30507269501686096191e-01) (38, -1.10510796308517456055e-01) (39, -6.13443553447723388672e-03) (40, 2.76107043027877807617e-02) (41, -1.93838514387607574463e-02) (42, -2.91223190724849700928e-02) (43, 2.33391225337982177734e-02) (44, 2.61704683303833007812e-01) (45, -7.83885121345520019531e-02) (46, -4.62429411709308624268e-02) (47, -4.41063866019248962402e-02) (48, -3.33151780068874359131e-02) (49, -5.65116032958030700684e-02) (50, -6.70871362090110778809e-02) (51, -2.15743944048881530762e-01) (52, 2.69563794136047363281e-02) (53, 1.61357112228870391846e-02) (54, 3.17013747990131378174e-02) (55, 1.63134820759296417236e-02) (56, -5.36018200218677520752e-02) (57, -1.12740099430084228516e-02) (58, 4.19717431068420410156e-02) (59, 1.15841357037425041199e-02) (60, 1.96630850434303283691e-01) (61, -6.24623835086822509766e-01) (31, -5.92791326344013214111e-02) (32, -5.59051185846328735352e-02) (33, -9.32059586048126220703e-02) (34, 1.10850892961025238037e-01) (35, -3.37366312742233276367e-01) (36, -6.40457198023796081543e-02) (37, -1.82012155652046203613e-01) (38, -6.22644498944282531738e-02) (39, -5.91594725847244262695e-02) (40, 7.84073490649461746216e-05) (41, 1.91673021763563156128e-02) (42, 7.53030553460121154785e-02) (43, 1.98653116822242736816e-01) (44, 1.99356004595756530762e-01) (45, -1.98620691895484924316e-01) (46, -1.25884324312210083008e-01) (47, 3.42602580785751342773e-02) (48, -1.02777086198329925537e-01) (49, -8.77522118389606475830e-03) (50, 3.19461189210414886475e-02) (51, -1.99200779199600219727e-01) (52, 1.17914736270904541016e-01) (53, -3.47830280661582946777e-02) (54, -5.25488778948783874512e-02) (55, 2.71819159388542175293e-03) (56, -4.02531586587429046631e-02) (57, -1.71110425144433975220e-02) (58, 6.94234296679496765137e-02) (59, 1.29811495542526245117e-01) (60, 1.61040544509887695312e-01) (61, -7.00209140777587890625e-01) (31, 1.74410521984100341797e-01) (32, -6.37571737170219421387e-02) (33, -6.86672553420066833496e-02) (34, 1.51687815785408020020e-01) (35, -3.98885071277618408203e-01) (36, 6.16278573870658874512e-02) (37, -3.55635374784469604492e-01) (38, -8.55129957199096679688e-02) (39, -2.85902749747037887573e-02) (40, 9.35965329408645629883e-02) (41, 1.48043528199195861816e-01) (42, 2.84524410963058471680e-02) (43, 2.32654199004173278809e-01) (44, 3.95713776350021362305e-01) (45, -1.81929349899291992188e-01) (46, -4.92375046014785766602e-02) (47, 1.68899539858102798462e-02) (48, -1.21323674917221069336e-01) (49, -5.20605817437171936035e-02) (50, -8.60059186816215515137e-02) (51, -1.54707357287406921387e-01) (52, 5.04094064235687255859e-02) (53, -1.76621347665786743164e-01) (54, 8.79916399717330932617e-02) (55, 4.98316027224063873291e-02) (56, -6.83498457074165344238e-02) (57, -9.14558246731758117676e-02) (58, -5.88506422936916351318e-02) (59, 8.68104472756385803223e-02) (60, 3.16545665264129638672e-01) (61, -7.64707803726196289062e-01) (31, 6.57927989959716796875e-02) (32, -1.24228514730930328369e-01) (33, 5.07595762610435485840e-02) (34, 2.32184141874313354492e-01) (35, -2.60862350463867187500e-01) (36, 5.72231635451316833496e-02) (37, -3.68494570255279541016e-01) (38, -1.24864667654037475586e-01) (39, -1.42600566148757934570e-01) (40, 1.10962368547916412354e-01) (41, 1.69802293181419372559e-01) (42, 5.67355379462242126465e-02) (43, 2.16298937797546386719e-01) (44, 3.59889537096023559570e-01) (45, -1.15251965820789337158e-01) (46, -1.10562093555927276611e-01) (47, -2.27435342967510223389e-02) (48, -1.46646527573466300964e-02) (49, -1.25056669116020202637e-01) (50, -1.85685649514198303223e-01) (51, -1.60402715206146240234e-01) (52, 5.05721494555473327637e-02) (53, -1.69123336672782897949e-01) (54, 3.23078520596027374268e-02) (55, 7.95933380722999572754e-02) (56, -5.40071465075016021729e-02) (57, -1.60999208688735961914e-01) (58, 2.51477193087339401245e-02) (59, 1.06313060969114303589e-02) (60, 3.22137027978897094727e-01) (61, -8.24286818504333496094e-01) (31, 9.20950174331665039062e-02) (32, -1.77897885441780090332e-01) (33, -1.08935102820396423340e-01) (34, 1.39907747507095336914e-01) (35, -3.83278042078018188477e-01) (36, 1.00868992507457733154e-01) (37, -2.82814532518386840820e-01) (38, -9.01975780725479125977e-02) (39, -2.01602037996053695679e-02) (40, 1.97139829397201538086e-02) (41, 3.82147952914237976074e-02) (42, 1.09136886894702911377e-02) (43, 1.15985967218875885010e-01) (44, 3.93696963787078857422e-01) (45, -9.62996110320091247559e-02) (46, -8.26599448919296264648e-02) (47, -3.22930216789245605469e-02) (48, -9.10432040691375732422e-02) (49, 2.27037891745567321777e-02) (50, -9.49923023581504821777e-02) (51, -2.46486037969589233398e-01) (52, 2.14078143239021301270e-01) (53, -7.57889002561569213867e-02) (54, 8.78394767642021179199e-02) (55, 7.34892934560775756836e-02) (56, -1.45614668726921081543e-01) (57, 2.02900394797325134277e-02) (58, 1.01451374590396881104e-01) (59, 4.77129481732845306396e-02) (60, 3.20291042327880859375e-01) (61, -8.26767981052398681641e-01) (31, 1.46033972501754760742e-01) (32, -2.33267262578010559082e-01) (33, -6.95569366216659545898e-02) (34, 9.71106141805648803711e-02) (35, -3.57398986816406250000e-01) (36, -2.35881116241216659546e-02) (37, -2.28977486491203308105e-01) (38, -2.95536033809185028076e-02) (39, -1.67772080749273300171e-02) (40, -2.79328040778636932373e-02) (41, 1.56129762530326843262e-01) (42, 1.65043026208877563477e-01) (43, 1.58691793680191040039e-01) (44, 3.43578636646270751953e-01) (45, -1.19909755885601043701e-01) (46, -2.00983896851539611816e-01) (47, -8.30459147691726684570e-02) (48, -1.88540607690811157227e-01) (49, 5.88252656161785125732e-02) (50, -5.49865290522575378418e-02) (51, -2.28982612490653991699e-01) (52, 2.01090559363365173340e-01) (53, -1.38002038002014160156e-01) (54, -3.98531705141067504883e-02) (55, 5.26310428977012634277e-02) (56, -9.93744134902954101562e-02) (57, -1.19618527591228485107e-01) (58, -4.34393137693405151367e-02) (59, 1.25863000750541687012e-01) (60, 3.67697983980178833008e-01) (61, -7.69629359245300292969e-01) (31, 8.32768976688385009766e-02) (32, -2.38858163356781005859e-01) (33, 2.11230572313070297241e-02) (34, 1.96394562721252441406e-01) (35, -3.40879529714584350586e-01) (36, 1.46374508738517761230e-01) (37, -2.81112998723983764648e-01) (38, 4.35741171240806579590e-02) (39, -4.50485609471797943115e-02) (40, 7.40077123045921325684e-02) (41, 1.52703613042831420898e-01) (42, 9.13981795310974121094e-02) (43, 1.08759120106697082520e-01) (44, 2.93340146541595458984e-01) (45, -2.17775762081146240234e-01) (46, -1.73801556229591369629e-01) (47, 1.33422510698437690735e-02) (48, -1.87491104006767272949e-01) (49, -8.20265933871269226074e-02) (50, -1.19855076074600219727e-01) (51, -2.13364496827125549316e-01) (52, 5.33566959202289581299e-02) (53, -6.87924847006797790527e-02) (54, 4.61049824953079223633e-02) (55, 8.59126001596450805664e-02) (56, 1.54495891183614730835e-02) (57, 2.28923913091421127319e-02) (58, 4.67960424721240997314e-02) (59, 1.20514474809169769287e-01) (60, 3.62712949514389038086e-01) (61, -8.18315923213958740234e-01) (31, 2.13889461010694503784e-02) (32, -2.52141475677490234375e-01) (33, -1.42085358500480651855e-01) (34, 2.32036277651786804199e-01) (35, -3.45840573310852050781e-01) (36, 1.55377432703971862793e-01) (37, -3.11496317386627197266e-01) (38, -7.78833627700805664062e-02) (39, -7.08562135696411132812e-02) (40, -4.55187298357486724854e-02) (41, 3.46197821199893951416e-02) (42, -9.20866616070270538330e-04) (43, 1.47033452987670898438e-01) (44, 3.28734576702117919922e-01) (45, -2.15585932135581970215e-01) (46, -1.19913816452026367188e-01) (47, -6.45590797066688537598e-02) (48, -1.85161203145980834961e-01) (49, 3.02180573344230651855e-02) (50, -6.22352547943592071533e-02) (51, -1.98370814323425292969e-01) (52, 2.81021185219287872314e-02) (53, -1.43411070108413696289e-01) (54, -4.59823124110698699951e-02) (55, 9.42500382661819458008e-02) (56, -1.44401252269744873047e-01) (57, -1.28045842051506042480e-01) (58, -5.95243014395236968994e-02) (59, 1.61023706197738647461e-01) (60, 2.20067739486694335938e-01) (61, -8.09783995151519775391e-01) (31, -9.10492334514856338501e-03) (32, -2.20767319202423095703e-01) (33, -7.54352286458015441895e-02) (34, 2.38222420215606689453e-01) (35, -3.08327823877334594727e-01) (36, 3.44751887023448944092e-02) (37, -3.39524298906326293945e-01) (38, 4.18317392468452453613e-02) (39, -2.01826915144920349121e-02) (40, 1.67132951319217681885e-02) (41, 3.43088433146476745605e-02) (42, 1.55759513378143310547e-01) (43, 2.38528117537498474121e-01) (44, 3.60658645629882812500e-01) (45, -5.76087534427642822266e-02) (46, -1.79196178913116455078e-01) (47, -1.16134673357009887695e-01) (48, -1.89759917557239532471e-02) (49, -1.04492798447608947754e-01) (50, -5.95212467014789581299e-02) (51, -2.13399589061737060547e-01) (52, 6.29066526889801025391e-02) (53, -1.09940562397241592407e-02) (54, 5.19053488969802856445e-02) (55, 1.27103775739669799805e-01) (56, -1.67809262871742248535e-01) (57, 1.85320992022752761841e-02) (58, 6.78180381655693054199e-02) (59, 1.81175619363784790039e-01) (60, 2.22133472561836242676e-01) (61, -8.51568818092346191406e-01) (31, 1.71657368540763854980e-01) (32, -1.76416218280792236328e-01) (33, -3.59452031552791595459e-02) (34, 2.13880196213722229004e-01) (35, -4.14535820484161376953e-01) (36, 1.41448870301246643066e-01) (37, -3.57672154903411865234e-01) (38, 4.78480719029903411865e-02) (39, -4.92455475032329559326e-02) (40, 3.69697585701942443848e-02) (41, 2.74707265198230743408e-02) (42, 7.64800831675529479980e-02) (43, 1.41457498073577880859e-01) (44, 3.69263261556625366211e-01) (45, -1.64568290114402770996e-01) (46, -1.09235018491744995117e-01) (47, 5.88568709790706634521e-02) (48, -1.58853620290756225586e-01) (49, 2.34953816980123519897e-02) (50, -7.26887881755828857422e-02) (51, -1.59056589007377624512e-01) (52, 2.11565569043159484863e-01) (53, -8.63341763615608215332e-02) (54, -6.11071288585662841797e-03) (55, 1.14295154809951782227e-01) (56, -6.62711411714553833008e-02) (57, -8.34718272089958190918e-02) (58, -1.59702226519584655762e-02) (59, 8.73888283967971801758e-02) (60, 2.96519458293914794922e-01) (61, -7.47968137264251708984e-01) (31, 7.46785104274749755859e-02) (32, -2.57888197898864746094e-01) (33, -1.21094711124897003174e-01) (34, 1.09428368508815765381e-01) (35, -4.27207261323928833008e-01) (36, 1.70997023582458496094e-01) (37, -3.19844484329223632812e-01) (38, -1.51063442230224609375e-01) (39, -5.77753372490406036377e-02) (40, 1.16495095193386077881e-01) (41, 3.43448333442211151123e-02) (42, -2.80071399174630641937e-03) (43, 1.41491711139678955078e-01) (44, 2.10714191198348999023e-01) (45, -1.68330416083335876465e-01) (46, -6.62095099687576293945e-02) (47, 5.60917258262634277344e-02) (48, -1.10788024961948394775e-01) (49, -6.81327376514673233032e-03) (50, -9.61947888135910034180e-02) (51, -2.65691101551055908203e-01) (52, 1.47760689258575439453e-01) (53, 4.72325505688786506653e-03) (54, 3.92811670899391174316e-02) (55, 4.40829843282699584961e-02) (56, -7.97509178519248962402e-02) (57, -1.54102206230163574219e-01) (58, 2.78269778937101364136e-02) (59, -1.94653798826038837433e-03) (60, 3.32768887281417846680e-01) (61, -8.42670559883117675781e-01) (31, 8.09030830860137939453e-02) (32, -1.14671252667903900146e-01) (33, -8.50350484251976013184e-02) (34, 2.00741633772850036621e-01) (35, -2.81267136335372924805e-01) (36, 3.98338027298450469971e-02) (37, -3.78792166709899902344e-01) (38, -2.74024857208132743835e-03) (39, 6.91091525368392467499e-04) (40, -6.35901987552642822266e-02) (41, 1.88725277781486511230e-01) (42, 1.74724012613296508789e-01) (43, 1.51789814233779907227e-01) (44, 3.92596811056137084961e-01) (45, -1.88873961567878723145e-01) (46, -2.07469731569290161133e-01) (47, 3.81818003952503204346e-02) (48, -7.24670365452766418457e-02) (49, 2.85273846238851547241e-02) (50, -1.35188534855842590332e-01) (51, -1.30391523241996765137e-01) (52, 1.14905588328838348389e-01) (53, -1.35043710470199584961e-01) (54, 1.73292811959981918335e-02) (55, 1.30573377013206481934e-01) (56, -2.52394787967205047607e-02) (57, -4.12332788109779357910e-02) (58, -4.45715524256229400635e-02) (59, 1.59191891551017761230e-01) (60, 2.70329266786575317383e-01) (61, -8.03219377994537353516e-01) 
