FANN_FLO_2.1
num_layers=3
learning_rate=0.699909
connection_rate=1.000000
network_type=0
learning_momentum=0.000000
training_algorithm=0
train_error_function=1
train_stop_function=0
cascade_output_change_fraction=0.010000
quickprop_decay=-0.000100
quickprop_mu=1.750000
rprop_increase_factor=1.200000
rprop_decrease_factor=0.500000
rprop_delta_min=0.000000
rprop_delta_max=50.000000
rprop_delta_zero=0.100000
cascade_output_stagnation_epochs=12
cascade_candidate_change_fraction=0.010000
cascade_candidate_stagnation_epochs=12
cascade_max_out_epochs=150
cascade_min_out_epochs=50
cascade_max_cand_epochs=150
cascade_min_cand_epochs=50
cascade_num_candidate_groups=2
bit_fail_limit=3.49999994039535522461e-01
cascade_candidate_limit=1.00000000000000000000e+03
cascade_weight_multiplier=4.00000005960464477539e-01
cascade_activation_functions_count=10
cascade_activation_functions=3 5 7 8 10 11 14 15 16 17 
cascade_activation_steepnesses_count=38
cascade_activation_steepnesses=0.00000000000000000000e+00 0.00000000000000000000e+00 0.00000000000000000000e+00 1.00000000000000000000e+01 6.08200000000000000000e+03 6.08300000000000000000e+03 6.08400000000000000000e+03 6.08500000000000000000e+03 6.08600000000000000000e+03 6.08700000000000000000e+03 6.08900000000000000000e+03 6.09000000000000000000e+03 6.09100000000000000000e+03 6.09200000000000000000e+03 0.00000000000000000000e+00 0.00000000000000000000e+00 2.00000000000000000000e+01 1.07641800000000000000e+06 1.07641900000000000000e+06 1.07642000000000000000e+06 1.07642100000000000000e+06 1.07642200000000000000e+06 1.07642300000000000000e+06 1.07642500000000000000e+06 1.07642600000000000000e+06 1.07642700000000000000e+06 1.07642800000000000000e+06 1.07667400000000000000e+06 1.07667500000000000000e+06 1.07667600000000000000e+06 1.07667700000000000000e+06 1.07667800000000000000e+06 1.07667900000000000000e+06 1.07668100000000000000e+06 1.07668200000000000000e+06 1.07668300000000000000e+06 1.07668400000000000000e+06 0.00000000000000000000e+00 
layer_sizes=31 31 31 
scale_included=0
neurons (num_inputs, activation_function, activation_steepness)=(0, 0, 0.00000000000000000000e+00) (0, 0, 0.00000000000000000000e+00) (0, 0, 0.00000000000000000000e+00) (0, 0, 0.00000000000000000000e+00) (0, 0, 0.00000000000000000000e+00) (0, 0, 0.00000000000000000000e+00) (0, 0, 0.00000000000000000000e+00) (0, 0, 0.00000000000000000000e+00) (0, 0, 0.00000000000000000000e+00) (0, 0, 0.00000000000000000000e+00) (0, 0, 0.00000000000000000000e+00) (0, 0, 0.00000000000000000000e+00) (0, 0, 0.00000000000000000000e+00) (0, 0, 0.00000000000000000000e+00) (0, 0, 0.00000000000000000000e+00) (0, 0, 0.00000000000000000000e+00) (0, 0, 0.00000000000000000000e+00) (0, 0, 0.00000000000000000000e+00) (0, 0, 0.00000000000000000000e+00) (0, 0, 0.00000000000000000000e+00) (0, 0, 0.00000000000000000000e+00) (0, 0, 0.00000000000000000000e+00) (0, 0, 0.00000000000000000000e+00) (0, 0, 0.00000000000000000000e+00) (0, 0, 0.00000000000000000000e+00) (0, 0, 0.00000000000000000000e+00) (0, 0, 0.00000000000000000000e+00) (0, 0, 0.00000000000000000000e+00) (0, 0, 0.00000000000000000000e+00) (0, 0, 0.00000000000000000000e+00) (0, 0, 0.00000000000000000000e+00) (31, 5, 5.00000000000000000000e-01) (31, 5, 5.00000000000000000000e-01) (31, 5, 5.00000000000000000000e-01) (31, 5, 5.00000000000000000000e-01) (31, 5, 5.00000000000000000000e-01) (31, 5, 5.00000000000000000000e-01) (31, 5, 5.00000000000000000000e-01) (31, 5, 5.00000000000000000000e-01) (31, 5, 5.00000000000000000000e-01) (31, 5, 5.00000000000000000000e-01) (31, 5, 5.00000000000000000000e-01) (31, 5, 5.00000000000000000000e-01) (31, 5, 5.00000000000000000000e-01) (31, 5, 5.00000000000000000000e-01) (31, 5, 5.00000000000000000000e-01) (31, 5, 5.00000000000000000000e-01) (31, 5, 5.00000000000000000000e-01) (31, 5, 5.00000000000000000000e-01) (31, 5, 5.00000000000000000000e-01) (31, 5, 5.00000000000000000000e-01) (31, 5, 5.00000000000000000000e-01) (31, 5, 5.00000000000000000000e-01) (31, 5, 5.00000000000000000000e-01) (31, 5, 5.00000000000000000000e-01) (31, 5, 5.00000000000000000000e-01) (31, 5, 5.00000000000000000000e-01) (31, 5, 5.00000000000000000000e-01) (31, 5, 5.00000000000000000000e-01) (31, 5, 5.00000000000000000000e-01) (31, 5, 5.00000000000000000000e-01) (0, 5, 0.00000000000000000000e+00) (31, 3, 5.00000000000000000000e-01) (31, 3, 5.00000000000000000000e-01) (31, 3, 5.00000000000000000000e-01) (31, 3, 5.00000000000000000000e-01) (31, 3, 5.00000000000000000000e-01) (31, 3, 5.00000000000000000000e-01) (31, 3, 5.00000000000000000000e-01) (31, 3, 5.00000000000000000000e-01) (31, 3, 5.00000000000000000000e-01) (31, 3, 5.00000000000000000000e-01) (31, 3, 5.00000000000000000000e-01) (31, 3, 5.00000000000000000000e-01) (31, 3, 5.00000000000000000000e-01) (31, 3, 5.00000000000000000000e-01) (31, 3, 5.00000000000000000000e-01) (31, 3, 5.00000000000000000000e-01) (31, 3, 5.00000000000000000000e-01) (31, 3, 5.00000000000000000000e-01) (31, 3, 5.00000000000000000000e-01) (31, 3, 5.00000000000000000000e-01) (31, 3, 5.00000000000000000000e-01) (31, 3, 5.00000000000000000000e-01) (31, 3, 5.00000000000000000000e-01) (31, 3, 5.00000000000000000000e-01) (31, 3, 5.00000000000000000000e-01) (31, 3, 5.00000000000000000000e-01) (31, 3, 5.00000000000000000000e-01) (31, 3, 5.00000000000000000000e-01) (31, 3, 5.00000000000000000000e-01) (31, 3, 5.00000000000000000000e-01) (0, 3, 0.00000000000000000000e+00) 
connections (connected_to_neuron, weight)=(0, -6.51448667049407958984e-02) (1, 7.92684033513069152832e-03) (2, -9.63462293148040771484e-02) (3, -6.16898238658905029297e-02) (4, -1.25759035348892211914e-01) (5, 1.95410083979368209839e-02) (6, 1.02893874049186706543e-01) (7, -4.76761721074581146240e-03) (8, -4.38599362969398498535e-02) (9, 3.11327464878559112549e-02) (10, -2.17041298747062683105e-01) (11, -5.37663958966732025146e-02) (12, -1.13028407096862792969e-01) (13, -1.35348793119192123413e-02) (14, -9.38006043434143066406e-02) (15, 2.28878688067197799683e-02) (16, 1.98375195264816284180e-01) (17, 3.62102426588535308838e-02) (18, -6.70420899987220764160e-02) (19, 5.26641272008419036865e-02) (20, -5.17379380762577056885e-02) (21, -4.40387837588787078857e-02) (22, -9.37188267707824707031e-02) (23, -9.48103666305541992188e-02) (24, -3.09140677563846111298e-03) (25, 7.45576843619346618652e-02) (26, -2.77942419052124023438e-03) (27, -9.64804738759994506836e-02) (28, 8.09329375624656677246e-02) (29, 8.44052657485008239746e-02) (30, -7.16578029096126556396e-03) (0, 6.73052966594696044922e-02) (1, -5.90943172574043273926e-02) (2, 1.83171257376670837402e-02) (3, -1.17697514593601226807e-01) (4, -4.78312559425830841064e-03) (5, -7.41890072822570800781e-02) (6, 1.56893860548734664917e-02) (7, 2.24396601319313049316e-01) (8, -1.41875557601451873779e-02) (9, -4.73794490098953247070e-02) (10, 1.12668700516223907471e-01) (11, -2.94753182679414749146e-02) (12, -4.47997599840164184570e-02) (13, -2.41791661828756332397e-02) (14, 5.67943006753921508789e-02) (15, 6.60409927368164062500e-02) (16, 4.68908809125423431396e-03) (17, 1.26951903104782104492e-01) (18, 1.02860271930694580078e-01) (19, -3.68483960628509521484e-02) (20, 4.57731708884239196777e-02) (21, -3.45104411244392395020e-02) (22, -4.34678606688976287842e-02) (23, 2.75201443582773208618e-02) (24, 3.89554984867572784424e-02) (25, -6.89101815223693847656e-02) (26, -7.52592757344245910645e-02) (27, 4.24750223755836486816e-02) (28, -8.79772379994392395020e-02) (29, -9.08540189266204833984e-02) (30, -4.79277446866035461426e-02) (0, 1.79241791367530822754e-01) (1, 6.74458337016403675079e-04) (2, 2.39647075533866882324e-01) (3, 1.68859198689460754395e-01) (4, 9.99773144721984863281e-02) (5, 7.57291913032531738281e-03) (6, -1.18080973625183105469e-01) (7, -7.58523419499397277832e-02) (8, -1.12751826643943786621e-01) (9, 1.05365328490734100342e-01) (10, 1.45298600196838378906e-01) (11, 6.67232647538185119629e-02) (12, 1.06744967401027679443e-01) (13, 2.84343305975198745728e-02) (14, 2.76035871356725692749e-02) (15, 1.49007886648178100586e-02) (16, -6.95061162114143371582e-02) (17, -4.56707812845706939697e-02) (18, 1.16238817572593688965e-02) (19, -3.55287566781044006348e-02) (20, -2.18367408961057662964e-02) (21, -9.50665548443794250488e-02) (22, -2.55175363272428512573e-02) (23, -8.72516259551048278809e-02) (24, 5.09539246559143066406e-02) (25, 5.57228317484259605408e-03) (26, -6.25109001994132995605e-02) (27, -6.57104840502142906189e-03) (28, 1.75950415432453155518e-02) (29, -5.33649139106273651123e-02) (30, 1.49935800582170486450e-02) (0, 5.16823530197143554688e-02) (1, 3.49447503685951232910e-02) (2, 1.49616524577140808105e-01) (3, 3.84128689765930175781e-02) (4, 4.60765510797500610352e-02) (5, -1.61498375236988067627e-02) (6, 5.51310442388057708740e-02) (7, -1.86380505561828613281e-01) (8, -6.52828663587570190430e-02) (9, 9.78519618511199951172e-02) (10, 1.14801347255706787109e-01) (11, -5.19452318549156188965e-02) (12, 2.35972091555595397949e-01) (13, 1.61107018589973449707e-01) (14, 8.68128091096878051758e-02) (15, 7.75336176156997680664e-02) (16, 2.64000855386257171631e-02) (17, -1.15462698042392730713e-01) (18, -4.72236946225166320801e-02) (19, 1.28226920962333679199e-01) (20, 1.28448486328125000000e-01) (21, 8.13990831375122070312e-02) (22, -5.38263395428657531738e-02) (23, 8.35516601800918579102e-02) (24, -2.52922065556049346924e-02) (25, 5.17459399998188018799e-02) (26, -7.89592415094375610352e-02) (27, 6.81367442011833190918e-02) (28, -3.06590087711811065674e-02) (29, -3.23241539299488067627e-02) (30, 4.78405356407165527344e-02) (0, -9.01728719472885131836e-02) (1, 6.24363385140895843506e-02) (2, -6.24040924012660980225e-02) (3, 1.01433455944061279297e-01) (4, -5.61874210834503173828e-02) (5, -2.90739089250564575195e-02) (6, 1.95641994476318359375e-01) (7, -1.05241641402244567871e-01) (8, 4.41620200872421264648e-02) (9, -3.65491919219493865967e-02) (10, -2.04703062772750854492e-01) (11, 1.81447006762027740479e-02) (12, -1.43071085214614868164e-01) (13, -9.04025807976722717285e-02) (14, -5.97428157925605773926e-02) (15, -1.60574316978454589844e-02) (16, 1.75074994564056396484e-01) (17, -3.78792211413383483887e-02) (18, 7.52376616001129150391e-02) (19, -2.67412476241588592529e-02) (20, 1.74327790737152099609e-02) (21, -4.73210103809833526611e-02) (22, 7.91543498635292053223e-02) (23, 1.34091256186366081238e-02) (24, 3.98114807903766632080e-02) (25, 3.09002995491027832031e-02) (26, 3.44498753547668457031e-02) (27, 7.94821977615356445312e-03) (28, -9.97587144374847412109e-02) (29, -9.78742763400077819824e-02) (30, 8.57188403606414794922e-02) (0, 2.09049060940742492676e-01) (1, 5.70682212710380554199e-02) (2, 1.97517365217208862305e-01) (3, 5.66200762987136840820e-02) (4, 3.09662297368049621582e-02) (5, 7.40663856267929077148e-02) (6, -1.39178544282913208008e-01) (7, -5.41243329644203186035e-02) (8, -4.25362996757030487061e-02) (9, -9.17425937950611114502e-03) (10, 2.60223090648651123047e-01) (11, -9.58961099386215209961e-02) (12, 1.59399360418319702148e-01) (13, 1.15958064794540405273e-01) (14, 7.44465067982673645020e-02) (15, 4.89648506045341491699e-02) (16, -1.00407555699348449707e-01) (17, -1.43281623721122741699e-01) (18, -3.65621857345104217529e-02) (19, 3.94046902656555175781e-02) (20, -7.72821828722953796387e-02) (21, 8.06029662489891052246e-02) (22, -3.15741859376430511475e-02) (23, 2.00548302382230758667e-02) (24, 4.34232968837022781372e-03) (25, 9.93261113762855529785e-02) (26, -4.54952977597713470459e-02) (27, -8.77094417810440063477e-02) (28, 9.95674058794975280762e-02) (29, -4.33695726096630096436e-02) (30, -7.34938010573387145996e-02) (0, 1.71939030289649963379e-01) (1, -5.96128292381763458252e-02) (2, 2.76596754789352416992e-01) (3, 4.95971255004405975342e-02) (4, 8.61353874206542968750e-02) (5, -1.85342729091644287109e-02) (6, -6.13485649228096008301e-02) (7, -7.87190943956375122070e-02) (8, -8.79949629306793212891e-02) (9, -4.62935008108615875244e-02) (10, 1.17594614624977111816e-01) (11, -1.55405811965465545654e-02) (12, 2.57766246795654296875e-01) (13, 5.45906983315944671631e-02) (14, -2.63120755553245544434e-02) (15, -6.24663382768630981445e-02) (16, -2.17583984136581420898e-01) (17, -8.03238600492477416992e-02) (18, -1.25952914357185363770e-01) (19, 4.60500158369541168213e-02) (20, -1.51947177946567535400e-02) (21, 6.59553408622741699219e-02) (22, 9.04909148812294006348e-02) (23, -8.08553025126457214355e-02) (24, -1.54177490621805191040e-02) (25, 8.98170247673988342285e-02) (26, -2.63506006449460983276e-02) (27, -3.12719354405999183655e-03) (28, 8.93844291567802429199e-02) (29, 3.02798282355070114136e-02) (30, -6.97769597172737121582e-03) (0, -1.17547847330570220947e-01) (1, 9.05911624431610107422e-03) (2, -9.14158746600151062012e-02) (3, 6.26540705561637878418e-02) (4, -8.49722325801849365234e-03) (5, -1.71687453985214233398e-04) (6, 2.14913859963417053223e-01) (7, -2.40694820880889892578e-01) (8, -5.73605159297585487366e-03) (9, -1.20263561606407165527e-01) (10, -1.54994890093803405762e-01) (11, 2.10744589567184448242e-02) (12, -2.06293910741806030273e-03) (13, 3.02006080746650695801e-02) (14, -1.08929343521595001221e-01) (15, 4.52491939067840576172e-02) (16, 2.26224973797798156738e-01) (17, -1.42731726169586181641e-01) (18, 1.72687834128737449646e-03) (19, -1.66089180856943130493e-02) (20, -1.10298424959182739258e-01) (21, -2.77074538171291351318e-02) (22, 9.63590200990438461304e-03) (23, -7.75205194950103759766e-02) (24, 7.05080032348632812500e-02) (25, -5.47069299500435590744e-04) (26, -3.87111306190490722656e-03) (27, -3.26191857457160949707e-02) (28, -1.11626386642456054688e-02) (29, -7.35912919044494628906e-02) (30, 6.10544979572296142578e-02) (0, -1.17727413773536682129e-01) (1, -8.69902819395065307617e-02) (2, 1.60248763859272003174e-02) (3, -6.76946491003036499023e-02) (4, 1.90972164273262023926e-02) (5, -8.70508402585983276367e-02) (6, 7.43657052516937255859e-02) (7, -6.74062818288803100586e-02) (8, -1.19333289563655853271e-01) (9, -7.99846649169921875000e-02) (10, -1.14958971738815307617e-01) (11, 1.00424855947494506836e-01) (12, 1.42756745219230651855e-01) (13, 1.02620318531990051270e-01) (14, -9.39197838306427001953e-02) (15, -1.14898100495338439941e-01) (16, 5.59917837381362915039e-02) (17, -8.24601650238037109375e-02) (18, 6.02823942899703979492e-02) (19, 5.29606267809867858887e-03) (20, -3.66720817983150482178e-02) (21, -8.66558849811553955078e-02) (22, -9.30167213082313537598e-02) (23, 3.98132316768169403076e-02) (24, -6.21420480310916900635e-02) (25, 6.43620500341057777405e-03) (26, -6.40578866004943847656e-02) (27, 5.23877143859863281250e-03) (28, 9.52735692262649536133e-02) (29, -3.76491732895374298096e-02) (30, -7.40793496370315551758e-02) (0, -1.99416816234588623047e-01) (1, 6.29247725009918212891e-03) (2, -3.08280140161514282227e-02) (3, -2.95418202877044677734e-02) (4, 3.81834767758846282959e-02) (5, -7.36983716487884521484e-02) (6, -1.28886066377162933350e-02) (7, 9.53442752361297607422e-02) (8, -3.42725366353988647461e-02) (9, -1.49301603436470031738e-01) (10, -6.72090426087379455566e-02) (11, -2.42929961532354354858e-02) (12, -1.55230745673179626465e-01) (13, 7.29809254407882690430e-02) (14, -1.05419002473354339600e-01) (15, -2.59483493864536285400e-02) (16, 7.12602138519287109375e-02) (17, 1.36687919497489929199e-01) (18, -6.90681859850883483887e-03) (19, 2.01279371976852416992e-02) (20, -5.49817122519016265869e-02) (21, 6.93880021572113037109e-04) (22, -9.47953015565872192383e-02) (23, -7.67964720726013183594e-02) (24, 7.69238397479057312012e-02) (25, 1.16409063339233398438e-02) (26, -4.08543534576892852783e-02) (27, -1.78373940289020538330e-02) (28, 6.91447267308831214905e-03) (29, 2.14964747428894042969e-02) (30, 2.37170755863189697266e-02) (0, 2.67355769872665405273e-01) (1, 5.96185810863971710205e-02) (2, 2.44280412793159484863e-01) (3, 9.44618731737136840820e-02) (4, 2.00826540589332580566e-01) (5, 7.27052986621856689453e-03) (6, -1.65520861744880676270e-01) (7, -6.22806660830974578857e-02) (8, 1.35128870606422424316e-02) (9, 1.55310913920402526855e-01) (10, 2.07407459616661071777e-01) (11, -1.04526147246360778809e-01) (12, 3.39710444211959838867e-01) (13, 1.37036368250846862793e-01) (14, 9.30793434381484985352e-02) (15, -4.95494194328784942627e-02) (16, -2.38797545433044433594e-01) (17, -1.28684237599372863770e-01) (18, -1.59413516521453857422e-02) (19, 5.14637567102909088135e-02) (20, 6.41942322254180908203e-02) (21, 2.99979187548160552979e-02) (22, -1.67206116020679473877e-02) (23, 5.49486987292766571045e-02) (24, -2.55273114889860153198e-02) (25, 9.49202999472618103027e-02) (26, -8.59056562185287475586e-02) (27, 5.66352978348731994629e-02) (28, 1.83477404061704874039e-03) (29, 3.55908162891864776611e-02) (30, 5.11734373867511749268e-02) (0, -4.39826101064682006836e-01) (1, 5.84490597248077392578e-03) (2, -3.91666710376739501953e-01) (3, -9.99457165598869323730e-02) (4, -1.07350222766399383545e-01) (5, 2.24784374237060546875e-01) (6, 3.77086520195007324219e-01) (7, -8.00622403621673583984e-02) (8, 1.04831047356128692627e-01) (9, -6.03631213307380676270e-02) (10, -3.66828888654708862305e-01) (11, 5.74031099677085876465e-02) (12, -3.25413882732391357422e-01) (13, -1.84374034404754638672e-01) (14, -1.63539230823516845703e-01) (15, 2.34217256307601928711e-01) (16, 4.19381558895111083984e-01) (17, -2.65480577945709228516e-03) (18, 8.48097056150436401367e-02) (19, -1.21915273368358612061e-01) (20, -4.45226803421974182129e-02) (21, -5.96342757344245910645e-02) (22, 1.12744215875864028931e-02) (23, 9.88815650343894958496e-02) (24, 3.29395546577870845795e-03) (25, 6.19471073150634765625e-03) (26, -8.70240926742553710938e-02) (27, -4.00707535445690155029e-02) (28, -9.19705107808113098145e-02) (29, 4.85667251050472259521e-02) (30, 9.01980921626091003418e-02) (0, 1.25157237052917480469e-01) (1, -5.58085441589355468750e-02) (2, 3.36328059434890747070e-01) (3, 1.31662070751190185547e-01) (4, 1.91615730524063110352e-01) (5, 9.54904556274414062500e-02) (6, -1.56597286462783813477e-01) (7, -2.00298383831977844238e-01) (8, -7.11156949400901794434e-02) (9, 1.40075668692588806152e-01) (10, 2.23470062017440795898e-01) (11, -3.97435277700424194336e-02) (12, 2.01715290546417236328e-01) (13, 1.45546615123748779297e-01) (14, 1.51491731405258178711e-01) (15, -2.96894162893295288086e-02) (16, -1.00417762994766235352e-01) (17, -1.63014933466911315918e-01) (18, -1.63169056177139282227e-02) (19, 1.34703040122985839844e-01) (20, 6.87604099512100219727e-02) (21, 1.50892585515975952148e-01) (22, -1.63101907819509506226e-02) (23, 1.34429931640625000000e-02) (24, -1.24514108392759226263e-05) (25, 8.98845195770263671875e-02) (26, 2.64189001172780990601e-02) (27, 5.99167943000793457031e-02) (28, 9.79140177369117736816e-02) (29, -2.50143762677907943726e-02) (30, 9.27693992853164672852e-02) (0, -2.31799930334091186523e-01) (1, 1.02594897150993347168e-01) (2, -1.40374198555946350098e-01) (3, -1.21194750070571899414e-01) (4, -5.70091493427753448486e-02) (5, 8.53353515267372131348e-02) (6, 1.50527566671371459961e-01) (7, 6.14669471979141235352e-02) (8, -1.43254399299621582031e-02) (9, -7.74647966027259826660e-02) (10, -1.45962491631507873535e-01) (11, 5.55212572216987609863e-02) (12, -1.42878890037536621094e-01) (13, -2.14728042483329772949e-02) (14, -1.44206762313842773438e-01) (15, 1.57650798559188842773e-01) (16, 1.06429062783718109131e-01) (17, 1.15527808666229248047e-02) (18, 1.12788766622543334961e-01) (19, -1.26935929059982299805e-01) (20, -4.81110885739326477051e-02) (21, 3.74578163027763366699e-02) (22, 4.89715347066521644592e-03) (23, 6.35288730263710021973e-02) (24, -6.43576681613922119141e-02) (25, -5.21832099184393882751e-03) (26, -1.00522339344024658203e-02) (27, 9.55591350793838500977e-02) (28, -7.30430474504828453064e-03) (29, 6.49333968758583068848e-02) (30, 3.59325781464576721191e-02) (0, 7.48823396861553192139e-04) (1, 3.66046801209449768066e-02) (2, -8.19187313318252563477e-02) (3, -2.04678345471620559692e-03) (4, -3.87393273413181304932e-02) (5, 9.54216122627258300781e-02) (6, -6.45080432295799255371e-02) (7, -1.09252169728279113770e-01) (8, 6.21345117688179016113e-02) (9, 9.69905685633420944214e-03) (10, 4.98847402632236480713e-02) (11, 6.34124781936407089233e-03) (12, -1.33604571223258972168e-01) (13, -5.31889013946056365967e-02) (14, 4.37996201217174530029e-02) (15, 1.16051211953163146973e-01) (16, 4.02513295412063598633e-02) (17, -7.66273811459541320801e-02) (18, 9.87832434475421905518e-03) (19, 6.49873018264770507812e-02) (20, 4.39458563923835754395e-02) (21, -2.96167805790901184082e-02) (22, -5.48661947250366210938e-02) (23, 2.23369593732059001923e-03) (24, 7.84516334533691406250e-04) (25, 3.99154908955097198486e-02) (26, 9.21814665198326110840e-02) (27, -3.65635170601308345795e-03) (28, -6.73888251185417175293e-02) (29, 5.71148656308650970459e-02) (30, -6.42857700586318969727e-02) (0, 2.40868747234344482422e-01) (1, 2.05321162939071655273e-02) (2, 1.89857974648475646973e-01) (3, 5.33460527658462524414e-02) (4, 1.05121709406375885010e-01) (5, -6.51969909667968750000e-02) (6, -1.87458261847496032715e-01) (7, -2.28435724973678588867e-01) (8, -1.05742625892162322998e-01) (9, 1.41066223382949829102e-01) (10, 2.59520113468170166016e-01) (11, 8.63904282450675964355e-02) (12, 2.77637749910354614258e-01) (13, 2.08552777767181396484e-02) (14, 5.35189509391784667969e-02) (15, 4.32123616337776184082e-02) (16, -1.15189656615257263184e-01) (17, -4.74137067794799804688e-02) (18, -4.95894625782966613770e-02) (19, 6.86230584979057312012e-02) (20, 4.09325808286666870117e-02) (21, 9.36110392212867736816e-02) (22, 4.26294319331645965576e-02) (23, -7.59128257632255554199e-02) (24, -2.46835481375455856323e-02) (25, -1.74550842493772506714e-02) (26, -8.37313607335090637207e-02) (27, 7.16601014137268066406e-02) (28, 1.51560902595520019531e-02) (29, 7.33835026621818542480e-02) (30, -7.87875950336456298828e-02) (0, 1.36368960142135620117e-01) (1, 5.36356121301651000977e-03) (2, 1.63875624537467956543e-01) (3, 7.53865689039230346680e-02) (4, 1.41036450862884521484e-01) (5, 4.49776537716388702393e-02) (6, -2.33328476548194885254e-01) (7, 7.18180090188980102539e-04) (8, -1.16869620978832244873e-01) (9, 1.60486578941345214844e-01) (10, 2.37083658576011657715e-01) (11, 1.26297652721405029297e-01) (12, 2.39668771624565124512e-01) (13, -5.63894696533679962158e-02) (14, 1.03677771985530853271e-02) (15, 2.91801877319812774658e-02) (16, -9.28359031677246093750e-02) (17, -1.48928448557853698730e-01) (18, -7.65139386057853698730e-02) (19, 2.85359546542167663574e-02) (20, 8.77617597579956054688e-02) (21, -3.83176244795322418213e-02) (22, -9.91744697093963623047e-02) (23, 9.35134664177894592285e-02) (24, 1.86633598059415817261e-02) (25, -1.66295524686574935913e-02) (26, -9.02178883552551269531e-02) (27, -9.67654585838317871094e-03) (28, 9.85265374183654785156e-02) (29, 8.31656083464622497559e-02) (30, 1.07922255992889404297e-02) (0, 7.15232565999031066895e-02) (1, -1.39694377779960632324e-01) (2, 2.17855378985404968262e-01) (3, 5.63107430934906005859e-02) (4, -1.78135931491851806641e-04) (5, 6.11475259065628051758e-02) (6, -1.65724799036979675293e-01) (7, -4.64993640780448913574e-02) (8, 6.69507384300231933594e-02) (9, -4.94183227419853210449e-02) (10, 1.98149770498275756836e-01) (11, -2.05751135945320129395e-03) (12, 2.09787592291831970215e-01) (13, 5.11611998081207275391e-02) (14, 6.79006427526473999023e-03) (15, 3.72822731733322143555e-02) (16, -3.03817857056856155396e-02) (17, 1.08221955597400665283e-02) (18, -1.16558849811553955078e-01) (19, -4.60259094834327697754e-02) (20, -2.44880914688110351562e-02) (21, -1.59685462713241577148e-02) (22, -8.71862620115280151367e-02) (23, -5.53003512322902679443e-02) (24, 7.83690735697746276855e-02) (25, -3.81581787951290607452e-03) (26, -4.55182455480098724365e-02) (27, -3.13074700534343719482e-02) (28, -5.28928032144904136658e-03) (29, -6.23526312410831451416e-02) (30, 8.54750126600265502930e-02) (0, 2.62029111385345458984e-01) (1, -2.74413079023361206055e-02) (2, 2.67974674701690673828e-01) (3, 8.59161242842674255371e-02) (4, 6.83403983712196350098e-02) (5, -1.88339203596115112305e-02) (6, -1.15469284355640411377e-01) (7, -5.86334615945816040039e-02) (8, -4.44973185658454895020e-02) (9, 1.61972388625144958496e-01) (10, 2.15375438332557678223e-01) (11, 1.16143748164176940918e-03) (12, 2.81778037548065185547e-01) (13, 3.41129377484321594238e-02) (14, 1.03911340236663818359e-01) (15, -2.88958102464675903320e-02) (16, -2.31929466128349304199e-01) (17, -1.65740966796875000000e-01) (18, -3.80688086152076721191e-02) (19, 4.89046126604080200195e-02) (20, -2.00899317860603332520e-02) (21, 1.09148293733596801758e-01) (22, -1.72336101531982421875e-02) (23, 1.02088926360011100769e-02) (24, 7.31165558099746704102e-02) (25, 7.89505764842033386230e-02) (26, 6.46906495094299316406e-02) (27, -5.81909157335758209229e-02) (28, -2.63387095183134078979e-02) (29, -9.76619794964790344238e-02) (30, -8.26408192515373229980e-02) (0, -3.11762332916259765625e-01) (1, -6.05399832129478454590e-02) (2, -3.17394770681858062744e-02) (3, 5.25139272212982177734e-02) (4, -1.52445472776889801025e-02) (5, 2.07278989255428314209e-02) (6, 2.66948789358139038086e-01) (7, 2.98225879669189453125e-02) (8, -6.19609579443931579590e-02) (9, -4.36487421393394470215e-02) (10, -3.41543078422546386719e-01) (11, -1.66231095790863037109e-02) (12, -7.60782361030578613281e-02) (13, -2.90699824690818786621e-02) (14, -1.35756731033325195312e-01) (15, -3.36727648973464965820e-02) (16, 2.68904715776443481445e-01) (17, 2.20289826393127441406e-03) (18, 9.00669246912002563477e-02) (19, -1.54760599136352539062e-01) (20, -9.58120077848434448242e-03) (21, 2.64225304126739501953e-02) (22, 1.64707656949758529663e-02) (23, -6.13673217594623565674e-02) (24, 3.75440716743469238281e-02) (25, -4.57866210490465164185e-03) (26, -9.66766700148582458496e-02) (27, 7.93531537055969238281e-02) (28, 6.90826326608657836914e-02) (29, -9.43386480212211608887e-02) (30, 4.43065315485000610352e-02) (0, -2.41285786032676696777e-02) (1, 1.77318975329399108887e-02) (2, 1.32338970899581909180e-01) (3, 1.43684804439544677734e-01) (4, -3.68980765342712402344e-02) (5, -1.16317361593246459961e-01) (6, -2.28912718594074249268e-02) (7, 2.56704725325107574463e-02) (8, -5.91872707009315490723e-02) (9, 3.10596451163291931152e-02) (10, 1.14418737590312957764e-01) (11, 1.05284094810485839844e-01) (12, 1.50178559124469757080e-04) (13, 6.48197717964649200439e-04) (14, -6.98580890893936157227e-02) (15, -1.02906800806522369385e-01) (16, -1.63971945643424987793e-01) (17, -3.49092260003089904785e-02) (18, -9.37488377094268798828e-02) (19, -2.11328789591789245605e-02) (20, -9.18886512517929077148e-02) (21, 8.20192098617553710938e-02) (22, 5.87397329509258270264e-02) (23, -5.61125874519348144531e-02) (24, 1.67066585272550582886e-02) (25, -4.58389297127723693848e-02) (26, -5.27892522513866424561e-02) (27, -3.94018879160284996033e-03) (28, -7.67562985420227050781e-02) (29, -4.71278987824916839600e-02) (30, -1.87720470130443572998e-02) (0, -1.20627760887145996094e-01) (1, -3.91794741153717041016e-03) (2, 4.74350526928901672363e-02) (3, -5.09268008172512054443e-02) (4, 7.25206360220909118652e-02) (5, 1.50023549795150756836e-02) (6, 1.26722246408462524414e-01) (7, -1.53942316770553588867e-01) (8, -7.34470114111900329590e-02) (9, -2.75274515151977539062e-02) (10, -9.03922319412231445312e-02) (11, -6.73197656869888305664e-02) (12, 9.25531312823295593262e-02) (13, 3.62721309065818786621e-02) (14, -2.38411985337734222412e-02) (15, 7.35309794545173645020e-02) (16, 7.28405043482780456543e-02) (17, -1.10883839428424835205e-01) (18, -4.94799464941024780273e-02) (19, 6.63982853293418884277e-02) (20, 8.44009444117546081543e-02) (21, 2.62035802006721496582e-02) (22, 8.34364909678697586060e-03) (23, -9.28674563765525817871e-02) (24, -7.82455950975418090820e-02) (25, 6.25047236680984497070e-02) (26, -4.56567071378231048584e-02) (27, 1.78142189979553222656e-02) (28, 8.57484266161918640137e-02) (29, 7.21539277583360671997e-03) (30, 1.17341361939907073975e-01) (0, -1.94509446620941162109e-01) (1, -9.45671498775482177734e-02) (2, -1.75210759043693542480e-01) (3, -1.45837485790252685547e-01) (4, -1.22936792671680450439e-01) (5, 3.57189774513244628906e-03) (6, 1.97294637560844421387e-01) (7, 1.26204550266265869141e-01) (8, 1.06772817671298980713e-01) (9, -6.46313726902008056641e-02) (10, -1.97088830173015594482e-02) (11, -9.34823751449584960938e-02) (12, -8.83415043354034423828e-02) (13, -8.38379934430122375488e-02) (14, -1.82138364762067794800e-02) (15, -5.10302297770977020264e-02) (16, 2.05412372946739196777e-01) (17, 7.39859864115715026855e-02) (18, 7.61377513408660888672e-02) (19, 3.74120920896530151367e-02) (20, -4.76037338376045227051e-02) (21, -4.28290814161300659180e-02) (22, -5.16761653125286102295e-02) (23, -5.15274293720722198486e-02) (24, -3.21309156715869903564e-02) (25, -8.91714394092559814453e-02) (26, 2.81586661003530025482e-03) (27, 8.56833085417747497559e-02) (28, 9.65769886970520019531e-02) (29, -8.99687409400939941406e-02) (30, 9.29251015186309814453e-02) (0, 1.06265172362327575684e-01) (1, -4.03407998383045196533e-02) (2, 2.39451840519905090332e-01) (3, 2.06717625260353088379e-02) (4, -1.10860168933868408203e-03) (5, -6.55919015407562255859e-02) (6, -2.83687651157379150391e-01) (7, 2.37362682819366455078e-02) (8, -7.34183415770530700684e-02) (9, -2.76905559003353118896e-02) (10, 2.78075277805328369141e-01) (11, -8.77005234360694885254e-03) (12, 1.91736713051795959473e-01) (13, 5.44813387095928192139e-02) (14, 1.35185092687606811523e-01) (15, 3.20908501744270324707e-02) (16, -2.41760343313217163086e-01) (17, -9.21886116266250610352e-02) (18, -6.37067109346389770508e-03) (19, 1.16280212998390197754e-01) (20, 2.61840336024761199951e-02) (21, 6.08619563281536102295e-02) (22, -6.04208968579769134521e-02) (23, 6.74742385745048522949e-02) (24, -7.84513354301452636719e-02) (25, -4.95923422276973724365e-02) (26, -2.97099053859710693359e-02) (27, -9.27680283784866333008e-02) (28, -5.30153550207614898682e-02) (29, -1.96786411106586456299e-02) (30, 9.62832123041152954102e-02) (0, 4.73742522299289703369e-02) (1, 4.43359427154064178467e-02) (2, 1.17887020111083984375e-01) (3, 4.55586463212966918945e-02) (4, 8.62041413784027099609e-02) (5, -2.51536145806312561035e-02) (6, -9.61639434099197387695e-02) (7, -2.86192651838064193726e-02) (8, 1.00781768560409545898e-03) (9, 4.38547432422637939453e-02) (10, 1.57272160053253173828e-01) (11, 9.30499657988548278809e-02) (12, 1.78245678544044494629e-02) (13, -1.07338782399892807007e-02) (14, 7.12118446826934814453e-02) (15, -2.75333076715469360352e-02) (16, -1.10529161989688873291e-01) (17, -1.59536421298980712891e-01) (18, 6.56758174300193786621e-02) (19, -2.65397001057863235474e-02) (20, 8.18661898374557495117e-02) (21, 2.45214309543371200562e-02) (22, 5.93818444758653640747e-03) (23, 4.06311862170696258545e-02) (24, 3.73608581721782684326e-02) (25, 5.63458576798439025879e-02) (26, -8.90787169337272644043e-02) (27, 4.45928350090980529785e-02) (28, -9.66695025563240051270e-02) (29, -8.75735934823751449585e-03) (30, 4.24029007554054260254e-02) (0, 1.13134108483791351318e-01) (1, -1.08704775571823120117e-01) (2, 1.51926651597023010254e-01) (3, 8.91708880662918090820e-02) (4, 1.55843645334243774414e-02) (5, -2.83196233212947845459e-02) (6, -2.53889888525009155273e-01) (7, 1.54328495264053344727e-01) (8, -6.19131028652191162109e-02) (9, 6.06416091322898864746e-02) (10, 2.15715438127517700195e-01) (11, -7.49955326318740844727e-02) (12, 8.08769017457962036133e-02) (13, 1.35459691286087036133e-01) (14, 3.43013107776641845703e-02) (15, -1.01749062538146972656e-01) (16, -2.21966296434402465820e-01) (17, 4.21282798051834106445e-02) (18, -7.06745535135269165039e-02) (19, 2.21707671880722045898e-02) (20, -6.61004930734634399414e-02) (21, 6.02174550294876098633e-02) (22, -6.98262974619865417480e-02) (23, 9.76018309593200683594e-02) (24, 2.06494685262441635132e-02) (25, 8.65195542573928833008e-02) (26, -9.14768800139427185059e-02) (27, -3.47577035427093505859e-02) (28, 8.98500457406044006348e-02) (29, -2.34240302233956754208e-04) (30, 7.58648216724395751953e-02) (0, -5.46155124902725219727e-03) (1, -1.62851437926292419434e-03) (2, 1.22670799493789672852e-01) (3, 7.05639123916625976562e-02) (4, 4.07216139137744903564e-02) (5, 3.45282182097434997559e-02) (6, -1.30158692598342895508e-01) (7, -1.59842506051063537598e-01) (8, -7.32279568910598754883e-03) (9, 1.21537059545516967773e-01) (10, 3.34463827311992645264e-02) (11, -9.19121801853179931641e-02) (12, 2.40406394004821777344e-02) (13, -4.42393384873867034912e-02) (14, -3.08450944721698760986e-02) (15, 6.24686256051063537598e-02) (16, -1.30383521318435668945e-02) (17, -1.43609434366226196289e-01) (18, 1.18561461567878723145e-02) (19, 1.86551362276077270508e-04) (20, 1.08898341655731201172e-01) (21, 8.77583771944046020508e-02) (22, -1.98212452232837677002e-02) (23, 9.69822183251380920410e-02) (24, -1.11011264380067586899e-03) (25, -3.33016924560070037842e-02) (26, -9.44946631789207458496e-02) (27, 6.41321912407875061035e-02) (28, -4.34516482055187225342e-02) (29, 5.27110090479254722595e-03) (30, 7.25861042737960815430e-02) (0, -1.13749101758003234863e-01) (1, -9.72018837928771972656e-02) (2, -1.14809572696685791016e-01) (3, -5.11584356427192687988e-02) (4, 1.87070127576589584351e-02) (5, 8.70285481214523315430e-02) (6, 8.63998234272003173828e-02) (7, 9.81019139289855957031e-02) (8, 8.14761072397232055664e-02) (9, -9.37238186597824096680e-02) (10, -5.05577214062213897705e-02) (11, 6.63811936974525451660e-02) (12, -1.11045822501182556152e-01) (13, -1.02770321071147918701e-01) (14, -8.92766267061233520508e-02) (15, -8.12672972679138183594e-02) (16, 1.51908293366432189941e-01) (17, 2.06351354718208312988e-01) (18, -6.76407888531684875488e-02) (19, -1.49565875530242919922e-01) (20, 6.42448961734771728516e-02) (21, 6.40446618199348449707e-02) (22, -1.02012278512120246887e-02) (23, 8.54438096284866333008e-02) (24, -1.28487590700387954712e-02) (25, 5.64970858395099639893e-02) (26, 9.09491404891014099121e-02) (27, -4.87165711820125579834e-02) (28, -8.69545713067054748535e-02) (29, -3.77975706942379474640e-03) (30, -1.09865114092826843262e-01) (0, -6.43887221813201904297e-02) (1, -2.32259612530469894409e-02) (2, -9.87999886274337768555e-02) (3, -9.36813876032829284668e-02) (4, -1.50790521875023841858e-02) (5, -1.10067725181579589844e-02) (6, 7.39409103989601135254e-02) (7, 1.98320642113685607910e-01) (8, -7.93708115816116333008e-03) (9, -9.15341265499591827393e-03) (10, -5.80432489514350891113e-02) (11, -1.15178823471069335938e-01) (12, -1.48555591702461242676e-01) (13, 6.10522031784057617188e-02) (14, -1.50155583396553993225e-02) (15, -2.90582254528999328613e-02) (16, 9.41829755902290344238e-02) (17, 1.06633558869361877441e-01) (18, 2.48945578932762145996e-02) (19, -4.47533801198005676270e-02) (20, -4.86502721905708312988e-02) (21, -3.98470237851142883301e-02) (22, -8.49689841270446777344e-02) (23, -6.15821443498134613037e-02) (24, 4.89285364747047424316e-02) (25, 7.15280994772911071777e-02) (26, -7.06330016255378723145e-02) (27, -9.97880324721336364746e-02) (28, 8.45735296607017517090e-02) (29, 2.55872365087270736694e-02) (30, -8.70607718825340270996e-02) (0, -1.79017126560211181641e-01) (1, -1.04689568281173706055e-01) (2, -2.20179170370101928711e-01) (3, -8.77545475959777832031e-02) (4, -1.26892738044261932373e-02) (5, 1.69680327177047729492e-01) (6, 2.82974660396575927734e-01) (7, 5.53151704370975494385e-02) (8, 2.02670097351074218750e-02) (9, -7.99306482076644897461e-03) (10, -2.79378056526184082031e-01) (11, -8.72538089752197265625e-02) (12, -3.26652437448501586914e-01) (13, -3.33818532526493072510e-02) (14, 4.80997934937477111816e-03) (15, 4.51556146144866943359e-02) (16, 1.57589435577392578125e-01) (17, -1.88726447522640228271e-02) (18, 1.28573954105377197266e-01) (19, 3.10217030346393585205e-02) (20, -3.67826484143733978271e-02) (21, -8.83759558200836181641e-02) (22, -8.81082788109779357910e-02) (23, -4.92875603958964347839e-03) (24, 5.39886355400085449219e-02) (25, 8.34198221564292907715e-02) (26, 2.44382377713918685913e-02) (27, 5.42006157338619232178e-02) (28, 6.79933577775955200195e-02) (29, -4.99745123088359832764e-02) (30, 7.53281116485595703125e-02) (31, -1.01081743836402893066e-01) (32, -1.41664937138557434082e-01) (33, 1.80272310972213745117e-01) (34, 3.53955656290054321289e-01) (35, -8.20384621620178222656e-02) (36, 1.33056893944740295410e-01) (37, 2.21365630626678466797e-01) (38, 2.68656853586435317993e-02) (39, 4.26601991057395935059e-02) (40, -4.92541678249835968018e-02) (41, 2.61432945728302001953e-01) (42, -4.95772175490856170654e-02) (43, 3.37480425834655761719e-01) (44, -1.17877125740051269531e-01) (45, 8.80338847637176513672e-02) (46, 1.09813012182712554932e-01) (47, 2.08994045853614807129e-01) (48, 5.23659922182559967041e-02) (49, 2.07658410072326660156e-01) (50, -2.55055930465459823608e-02) (51, 1.00424751639366149902e-01) (52, 2.73908078670501708984e-01) (53, -7.99888446927070617676e-02) (54, 1.08293935656547546387e-01) (55, 1.08236953616142272949e-01) (56, 5.90022504329681396484e-02) (57, 3.01158905029296875000e-01) (58, -1.68455123901367187500e-01) (59, -1.58551722764968872070e-01) (60, -1.86895444989204406738e-01) (61, 7.01061129570007324219e-01) (31, -1.87861844897270202637e-02) (32, 9.24116522073745727539e-02) (33, 4.51993793249130249023e-02) (34, 4.98263910412788391113e-02) (35, -5.24596199393272399902e-02) (36, 8.57313424348831176758e-02) (37, 3.02093960344791412354e-02) (38, -1.92174494266510009766e-01) (39, -1.33018285036087036133e-01) (40, -5.24655841290950775146e-02) (41, 1.26763194799423217773e-01) (42, -2.19408616423606872559e-01) (43, 1.17936529219150543213e-01) (44, -1.74896553158760070801e-01) (45, 6.92007467150688171387e-02) (46, 1.22959740459918975830e-01) (47, 7.93312489986419677734e-02) (48, 9.09692794084548950195e-03) (49, 5.76798394322395324707e-02) (50, -1.29415303468704223633e-01) (51, -4.04216349124908447266e-02) (52, -8.90624895691871643066e-02) (53, 2.81115602701902389526e-02) (54, 1.32923543453216552734e-01) (55, 7.94438645243644714355e-02) (56, 7.57353454828262329102e-02) (57, 3.42088378965854644775e-02) (58, -9.37158316373825073242e-02) (59, 8.62069427967071533203e-02) (60, -1.11040715128183364868e-02) (61, 3.54577153921127319336e-02) (31, 2.73510292172431945801e-02) (32, -1.68923661112785339355e-03) (33, 6.87068253755569458008e-02) (34, 3.99967432022094726562e-02) (35, -1.05800673365592956543e-01) (36, 2.16323770582675933838e-02) (37, 1.03013813495635986328e-01) (38, -2.51444764435291290283e-02) (39, -4.63801175355911254883e-02) (40, 5.67313507199287414551e-02) (41, 3.67792099714279174805e-02) (42, -6.11436367034912109375e-03) (43, 5.64613938331604003906e-02) (44, -4.33511063456535339355e-02) (45, 7.39041250199079513550e-03) (46, -4.08300310373306274414e-02) (47, -6.97439908981323242188e-02) (48, 1.09352715313434600830e-01) (49, 6.37075975537300109863e-02) (50, -6.67218398302793502808e-03) (51, -9.08270627260208129883e-02) (52, 1.22972555458545684814e-01) (53, -2.22605131566524505615e-02) (54, 9.09721180796623229980e-02) (55, -5.25213554501533508301e-02) (56, 6.57148659229278564453e-02) (57, 4.44830432534217834473e-02) (58, 2.46174503117799758911e-02) (59, -9.17476043105125427246e-03) (60, 4.28078770637512207031e-02) (61, 3.65199506282806396484e-01) (31, 1.20630096644163131714e-02) (32, -8.18745940923690795898e-02) (33, -6.13912455737590789795e-02) (34, -9.02422517538070678711e-02) (35, -7.03641213476657867432e-03) (36, 2.78229601681232452393e-02) (37, -1.42948240041732788086e-01) (38, -2.21420582383871078491e-02) (39, -6.62533342838287353516e-02) (40, 8.62475410103797912598e-02) (41, -1.14124424755573272705e-01) (42, 1.30096971988677978516e-01) (43, -1.18209362030029296875e-01) (44, 1.01991355419158935547e-01) (45, 1.00411698222160339355e-01) (46, -7.08929374814033508301e-02) (47, 2.30367556214332580566e-02) (48, -4.19699512422084808350e-02) (49, -1.19863696396350860596e-01) (50, -3.50464787334203720093e-03) (51, 4.64055016636848449707e-02) (52, -3.15114110708236694336e-02) (53, 2.97695174813270568848e-02) (54, -6.25105723738670349121e-02) (55, 1.58971548080444335938e-03) (56, -1.51079133152961730957e-01) (57, -4.17665876448154449463e-02) (58, 1.07873827219009399414e-02) (59, 4.47700917720794677734e-03) (60, 9.20571759343147277832e-02) (61, -1.84753373265266418457e-01) (31, 5.86907267570495605469e-02) (32, 1.30905836820602416992e-01) (33, -1.43431469798088073730e-01) (34, -2.24196523427963256836e-01) (35, -4.68714497983455657959e-02) (36, -1.81310087442398071289e-01) (37, -1.64319559931755065918e-01) (38, -7.12519437074661254883e-02) (39, -9.17622968554496765137e-02) (40, 8.23956541717052459717e-03) (41, -1.03615291416645050049e-01) (42, 2.44891390204429626465e-01) (43, -1.90393239259719848633e-01) (44, 1.28670796751976013184e-01) (45, 3.03069539368152618408e-02) (46, -2.17413067817687988281e-01) (47, -6.06650970876216888428e-02) (48, -1.31945177912712097168e-01) (49, -1.75360083580017089844e-01) (50, 2.25894618779420852661e-03) (51, -1.96449771523475646973e-01) (52, -6.30502402782440185547e-02) (53, 1.03520631790161132812e-01) (54, -7.02148079872131347656e-02) (55, -1.34606078267097473145e-01) (56, -2.99534257501363754272e-02) (57, -3.19784730672836303711e-02) (58, 1.59616068005561828613e-01) (59, 3.78734543919563293457e-02) (60, 1.60872355103492736816e-01) (61, -2.03319817781448364258e-01) (31, 1.14237368106842041016e-01) (32, 4.80393841862678527832e-02) (33, -2.41452455520629882812e-01) (34, -1.28861963748931884766e-01) (35, 1.02342598140239715576e-01) (36, -1.60095050930976867676e-01) (37, -2.08407476544380187988e-01) (38, -6.39102309942245483398e-02) (39, -1.12727172672748565674e-01) (40, -1.17133352905511856079e-02) (41, -3.26854974031448364258e-01) (42, 2.81903922557830810547e-01) (43, -2.43505433201789855957e-01) (44, 1.75650417804718017578e-01) (45, -1.83912105858325958252e-02) (46, -1.41116321086883544922e-01) (47, -8.80387350916862487793e-02) (48, 4.72177471965551376343e-03) (49, -8.40202271938323974609e-02) (50, 1.83531433343887329102e-01) (51, 3.39098349213600158691e-02) (52, -1.46898254752159118652e-01) (53, 1.01757802069187164307e-01) (54, -1.16485238075256347656e-01) (55, -6.44567981362342834473e-02) (56, -1.48998707532882690430e-01) (57, -1.69499114155769348145e-01) (58, 8.91302749514579772949e-02) (59, 5.59804700314998626709e-02) (60, 1.21772617101669311523e-01) (61, -2.95450955629348754883e-01) (31, -6.95386528968811035156e-03) (32, -1.04543618857860565186e-01) (33, 1.28216072916984558105e-01) (34, 3.26608598232269287109e-01) (35, -1.41039956361055374146e-02) (36, 1.96981862187385559082e-01) (37, 1.99320241808891296387e-01) (38, 5.18350005149841308594e-02) (39, 7.59944543242454528809e-02) (40, -2.05365698784589767456e-02) (41, 3.11356782913208007812e-01) (42, -9.94715914130210876465e-02) (43, 2.90226250886917114258e-01) (44, -4.86995093524456024170e-02) (45, 4.11393828690052032471e-02) (46, 3.13653886318206787109e-01) (47, 1.86248034238815307617e-01) (48, -1.46461864933371543884e-02) (49, 2.61052310466766357422e-01) (50, -6.78210556507110595703e-02) (51, -3.11831831932067871094e-02) (52, 2.18781962990760803223e-01) (53, -4.14115786552429199219e-02) (54, 2.09365367889404296875e-01) (55, 3.75339686870574951172e-02) (56, 1.20778180658817291260e-01) (57, 1.97199136018753051758e-01) (58, -1.41998901963233947754e-01) (59, -5.87120912969112396240e-02) (60, -1.13177917897701263428e-01) (61, 7.77426838874816894531e-01) (31, 1.23255550861358642578e-01) (32, -9.18207988142967224121e-02) (33, -2.20023989677429199219e-02) (34, -2.91571989655494689941e-02) (35, 1.59735500812530517578e-01) (36, -5.92629909515380859375e-02) (37, -1.09680421650409698486e-01) (38, 1.14270493388175964355e-01) (39, 2.04707965254783630371e-01) (40, 4.69168201088905334473e-02) (41, -1.61619409918785095215e-01) (42, 1.89019888639450073242e-01) (43, -1.05646863579750061035e-01) (44, 1.02020159363746643066e-01) (45, 8.64380076527595520020e-02) (46, -1.17850638926029205322e-01) (47, -1.23001307249069213867e-01) (48, -8.92414674162864685059e-02) (49, -1.20417468249797821045e-01) (50, 8.01950022578239440918e-02) (51, -3.03929038345813751221e-02) (52, 5.95123544335365295410e-02) (53, 2.90453415364027023315e-02) (54, -1.65700733661651611328e-01) (55, 1.62270236760377883911e-02) (56, -1.19604505598545074463e-01) (57, 7.59155303239822387695e-03) (58, -6.75438493490219116211e-02) (59, -6.34706020355224609375e-02) (60, 1.06249526143074035645e-02) (61, -4.67734485864639282227e-02) (31, -5.46467415988445281982e-02) (32, 3.75570729374885559082e-02) (33, -1.26417517662048339844e-01) (34, -2.13768675923347473145e-01) (35, -5.08751235902309417725e-02) (36, -9.39266234636306762695e-02) (37, -4.31027337908744812012e-02) (38, -3.89910563826560974121e-02) (39, 3.30429002642631530762e-02) (40, 9.60829928517341613770e-02) (41, -1.58523768186569213867e-01) (42, 5.53214177489280700684e-02) (43, -1.61711290478706359863e-01) (44, 3.50940041244029998779e-02) (45, -3.89006100594997406006e-02) (46, -1.93008616566658020020e-01) (47, -9.96161550283432006836e-02) (48, -3.51669937372207641602e-02) (49, -1.43443480134010314941e-01) (50, 8.56082588434219360352e-02) (51, -7.37249106168746948242e-02) (52, -5.87557293474674224854e-02) (53, -1.25687802210450172424e-02) (54, -1.06763690710067749023e-01) (55, 2.73788347840309143066e-03) (56, 1.42047395929694175720e-02) (57, -8.43088328838348388672e-02) (58, 1.26220136880874633789e-01) (59, 1.04336358606815338135e-01) (60, 3.69051359593868255615e-02) (61, -6.49053752422332763672e-01) (31, 1.43156155943870544434e-01) (32, 4.77957865223288536072e-03) (33, -7.47159495949745178223e-02) (34, -2.40801110863685607910e-01) (35, -1.83465015143156051636e-02) (36, -1.86895474791526794434e-01) (37, -1.03143127635121345520e-02) (38, 9.31908935308456420898e-02) (39, -4.02190117165446281433e-03) (40, 3.63932847976684570312e-02) (41, -1.88208371400833129883e-01) (42, -1.88079718500375747681e-02) (43, -2.83197164535522460938e-01) (44, 8.77326503396034240723e-02) (45, 8.20910185575485229492e-03) (46, -1.98898673057556152344e-01) (47, -2.02153742313385009766e-01) (48, -5.17138577997684478760e-02) (49, -1.17456987500190734863e-01) (50, 1.13583609461784362793e-01) (51, 8.42139031738042831421e-03) (52, -1.82452768087387084961e-01) (53, 1.06685608625411987305e-02) (54, -8.32103043794631958008e-02) (55, 1.59591436386108398438e-02) (56, 6.18018545210361480713e-02) (57, -1.81454181671142578125e-01) (58, 1.09634496271610260010e-01) (59, 1.11742161214351654053e-01) (60, 1.20889879763126373291e-01) (61, -6.83657467365264892578e-01) (31, -4.11129519343376159668e-02) (32, -2.26813346147537231445e-01) (33, 2.48525351285934448242e-01) (34, 3.62626731395721435547e-01) (35, -2.10856758058071136475e-02) (36, 2.14691311120986938477e-01) (37, 2.23599508404731750488e-01) (38, -6.12280052155256271362e-03) (39, -4.92155030369758605957e-02) (40, -1.05528280138969421387e-01) (41, 3.16180825233459472656e-01) (42, -1.76646068692207336426e-01) (43, 2.95823693275451660156e-01) (44, -5.15524595975875854492e-02) (45, 1.52554750442504882812e-01) (46, 2.46988713741302490234e-01) (47, 2.08450987935066223145e-01) (48, 5.41496323421597480774e-03) (49, 9.43518280982971191406e-02) (50, -1.02254049852490425110e-02) (51, 8.62954780459403991699e-02) (52, 2.11821377277374267578e-01) (53, -1.61121860146522521973e-02) (54, 1.05204172432422637939e-01) (55, 7.49183893203735351562e-02) (56, 1.08204551041126251221e-01) (57, 2.01981514692306518555e-01) (58, -2.03249692916870117188e-01) (59, -1.18486985564231872559e-01) (60, -1.45618513226509094238e-01) (61, 6.85784280300140380859e-01) (31, -1.33461639285087585449e-01) (32, 2.33125425875186920166e-02) (33, -4.12252247333526611328e-02) (34, -1.93834900856018066406e-02) (35, -5.59089481830596923828e-02) (36, 8.78447592258453369141e-02) (37, -3.37312147021293640137e-02) (38, -2.23357751965522766113e-01) (39, -2.62520182877779006958e-02) (40, 5.96489850431680679321e-03) (41, 1.79107218980789184570e-01) (42, -2.61165529489517211914e-01) (43, 1.75502419471740722656e-01) (44, -8.43204706907272338867e-02) (45, -8.99353921413421630859e-02) (46, 1.23952232301235198975e-01) (47, -2.58329510688781738281e-03) (48, 3.89665085822343826294e-03) (49, 1.52960628271102905273e-01) (50, -1.56933628022670745850e-02) (51, -5.92840611934661865234e-02) (52, -4.02757376432418823242e-02) (53, -2.52032186836004257202e-03) (54, 1.25051647424697875977e-01) (55, 8.93962457776069641113e-02) (56, 1.08115181326866149902e-01) (57, -5.57949542999267578125e-02) (58, 6.02619126439094543457e-02) (59, -6.18935003876686096191e-02) (60, -9.21561792492866516113e-02) (61, 5.89728206396102905273e-02) (31, -2.37271264195442199707e-02) (32, 7.45207816362380981445e-02) (33, -5.93956224620342254639e-02) (34, 8.78685861825942993164e-02) (35, -3.90413254499435424805e-02) (36, 8.39852541685104370117e-02) (37, 7.93436318635940551758e-02) (38, -2.56073847413063049316e-03) (39, 1.19966551661491394043e-01) (40, -8.36580246686935424805e-02) (41, 8.97337347269058227539e-02) (42, -5.66342249512672424316e-02) (43, 1.31792291998863220215e-01) (44, -7.22431540489196777344e-02) (45, -2.05945521593093872070e-02) (46, 2.66743674874305725098e-02) (47, -7.16689974069595336914e-03) (48, 6.92980289459228515625e-02) (49, 1.45847052335739135742e-02) (50, -1.19094029068946838379e-02) (51, 4.34320569038391113281e-02) (52, 1.05686649680137634277e-01) (53, 1.48509159684181213379e-01) (54, 1.48191861808300018311e-02) (55, -5.70886172354221343994e-02) (56, 5.95921836793422698975e-02) (57, 5.73839396238327026367e-02) (58, -9.61180776357650756836e-04) (59, 5.45864999294281005859e-02) (60, 2.69404053688049316406e-03) (61, 2.96739339828491210938e-01) (31, 1.98783315718173980713e-02) (32, -4.99609485268592834473e-02) (33, -4.89632450044155120850e-02) (34, -5.25329783558845520020e-02) (35, 7.61097073554992675781e-02) (36, -8.28553140163421630859e-02) (37, -1.07441052794456481934e-01) (38, 8.65248367190361022949e-02) (39, 8.42740666121244430542e-03) (40, -4.25014272332191467285e-03) (41, -1.54596388339996337891e-01) (42, 1.59473702311515808105e-01) (43, -1.57879114151000976562e-01) (44, 5.79896159470081329346e-02) (45, 9.37689691781997680664e-02) (46, -2.36028246581554412842e-02) (47, -1.72185763716697692871e-01) (48, -8.33885744214057922363e-02) (49, -1.09926342964172363281e-01) (50, 6.01659156382083892822e-03) (51, -4.34295684099197387695e-02) (52, -3.28754186630249023438e-02) (53, 1.10896099358797073364e-02) (54, -3.00242677330970764160e-02) (55, 1.43569950014352798462e-02) (56, 1.09286187216639518738e-02) (57, 2.48711928725242614746e-03) (58, 2.61386111378669738770e-03) (59, 3.74048575758934020996e-02) (60, 1.14890359342098236084e-01) (61, -1.25099226832389831543e-01) (31, 8.32621604204177856445e-02) (32, 1.69256299734115600586e-01) (33, -1.90061852335929870605e-01) (34, -1.44485875964164733887e-01) (35, 7.24084004759788513184e-02) (36, -1.25593483448028564453e-01) (37, -3.18541601300239562988e-02) (38, -3.63420620560646057129e-02) (39, -1.48900508880615234375e-01) (40, 4.60384786128997802734e-02) (41, -2.87183642387390136719e-01) (42, 2.13508516550064086914e-01) (43, -1.76906466484069824219e-01) (44, 1.00173652172088623047e-01) (45, -4.05416404828429222107e-03) (46, -1.37163981795310974121e-01) (47, -7.63637945055961608887e-02) (48, 1.17211812175810337067e-03) (49, -7.06682205200195312500e-02) (50, 9.77416755631566047668e-04) (51, -1.50800079107284545898e-01) (52, -1.41288265585899353027e-01) (53, 7.66027793288230895996e-02) (54, -1.87973648309707641602e-01) (55, 6.80650863796472549438e-03) (56, -9.37754735350608825684e-02) (57, -8.92342478036880493164e-02) (58, 8.98339971899986267090e-02) (59, 1.98403969407081604004e-01) (60, 1.27902895212173461914e-01) (61, -1.71076804399490356445e-01) (31, 8.81817936897277832031e-02) (32, 3.48333679139614105225e-02) (33, -2.13777378201484680176e-01) (34, -2.40019083023071289062e-01) (35, 2.08282098174095153809e-02) (36, -7.32182487845420837402e-02) (37, -1.92608147859573364258e-01) (38, 9.72075238823890686035e-02) (39, -9.37939435243606567383e-02) (40, 1.73152554780244827271e-02) (41, -1.23681336641311645508e-01) (42, 2.49595329165458679199e-01) (43, -1.61152362823486328125e-01) (44, 1.21172048151493072510e-01) (45, -6.24218657612800598145e-02) (46, -1.80483743548393249512e-01) (47, -1.30800262093544006348e-01) (48, -1.06573954224586486816e-01) (49, -2.17444702982902526855e-01) (50, 1.13648891448974609375e-01) (51, -2.88464352488517761230e-02) (52, -1.50512441992759704590e-01) (53, 1.96880131959915161133e-01) (54, -8.49831476807594299316e-02) (55, -1.30087941884994506836e-01) (56, -1.03802204132080078125e-01) (57, -1.85167774558067321777e-01) (58, 1.25933066010475158691e-01) (59, 4.07370738685131072998e-02) (60, 2.38468378782272338867e-01) (61, -3.34368884563446044922e-01) (31, -2.70254462957382202148e-02) (32, -1.68939530849456787109e-01) (33, 2.32034340500831604004e-01) (34, 3.61866533756256103516e-01) (35, 3.54968756437301635742e-02) (36, 1.73484697937965393066e-01) (37, 2.39438444375991821289e-01) (38, 5.49162179231643676758e-02) (39, 6.76846280694007873535e-02) (40, -1.32244840264320373535e-01) (41, 2.89811074733734130859e-01) (42, -1.15651756525039672852e-01) (43, 2.21048817038536071777e-01) (44, -1.04183219373226165771e-01) (45, 1.66426926851272583008e-01) (46, 1.89307034015655517578e-01) (47, 2.59623348712921142578e-01) (48, -3.02407797425985336304e-03) (49, 1.88951134681701660156e-01) (50, -4.82941642403602600098e-02) (51, 1.10210001468658447266e-01) (52, 3.22995960712432861328e-01) (53, -1.14847198128700256348e-01) (54, 1.69113278388977050781e-01) (55, 7.07888826727867126465e-02) (56, 8.44178423285484313965e-02) (57, 1.19748935103416442871e-01) (58, -4.96498309075832366943e-02) (59, -8.87507349252700805664e-02) (60, -4.66910898685455322266e-02) (61, 7.48612105846405029297e-01) (31, 6.57316371798515319824e-02) (32, -1.04032009840011596680e-01) (33, -1.17034040391445159912e-01) (34, -3.89600545167922973633e-02) (35, 1.97109103202819824219e-01) (36, 2.75306329131126403809e-02) (37, -7.14618042111396789551e-02) (38, 1.60708695650100708008e-01) (39, 9.07137989997863769531e-02) (40, -3.68051864206790924072e-02) (41, -1.23865902423858642578e-01) (42, 2.47402518987655639648e-01) (43, -4.46881726384162902832e-02) (44, 7.45420455932617187500e-02) (45, 7.69263431429862976074e-02) (46, 2.65592560172080993652e-02) (47, -6.60819709300994873047e-02) (48, -8.40802788734436035156e-02) (49, -4.18802797794342041016e-02) (50, 1.50153756141662597656e-01) (51, -7.90420323610305786133e-02) (52, 4.96015250682830810547e-02) (53, 2.03270800411701202393e-02) (54, -5.13032451272010803223e-02) (55, 4.09853383898735046387e-02) (56, -1.60179436206817626953e-01) (57, 5.29939532279968261719e-02) (58, 4.16596829891204833984e-02) (59, 5.47486320137977600098e-02) (60, 1.13121673464775085449e-01) (61, -1.36809453368186950684e-01) (31, 7.67467822879552841187e-03) (32, 1.30013719201087951660e-01) (33, -1.21020436286926269531e-01) (34, -1.57318532466888427734e-01) (35, 8.12887623906135559082e-02) (36, -6.58608507364988327026e-03) (37, -1.54194697737693786621e-01) (38, -5.77218607068061828613e-02) (39, 2.10032705217599868774e-03) (40, 9.82875823974609375000e-02) (41, -1.38026699423789978027e-01) (42, 7.98186734318733215332e-02) (43, -2.94060200452804565430e-01) (44, 2.03044898808002471924e-02) (45, -1.94180514663457870483e-02) (46, -1.85284972190856933594e-01) (47, -5.40112704038619995117e-02) (48, -1.41665944829583168030e-02) (49, -6.04090355336666107178e-02) (50, -2.83998623490333557129e-03) (51, 9.92718189954757690430e-02) (52, -1.82644709944725036621e-01) (53, 9.25155133008956909180e-02) (54, -2.08692476153373718262e-02) (55, -1.01298324763774871826e-01) (56, 7.80529007315635681152e-02) (57, -1.51229739189147949219e-01) (58, 1.28570988774299621582e-01) (59, 8.66954624652862548828e-02) (60, 6.47147744894027709961e-02) (61, -5.45647561550140380859e-01) (31, -2.52786790952086448669e-03) (32, 1.43094405531883239746e-01) (33, -1.87308952212333679199e-01) (34, -1.62308275699615478516e-01) (35, 4.39744591712951660156e-02) (36, -1.34680625051259994507e-02) (37, -3.74732501804828643799e-02) (38, -6.80141746997833251953e-02) (39, -5.24419583380222320557e-02) (40, 3.17486524581909179688e-02) (41, -1.53048574924468994141e-01) (42, 1.78327381610870361328e-01) (43, -2.56084322929382324219e-01) (44, 1.38981238007545471191e-01) (45, 2.37132376059889793396e-03) (46, -1.61291271448135375977e-01) (47, -1.28976121544837951660e-01) (48, -3.31114642322063446045e-02) (49, -1.97386354207992553711e-01) (50, -7.59594365954399108887e-02) (51, -4.61068982258439064026e-03) (52, -1.97416380047798156738e-01) (53, 1.31183579564094543457e-01) (54, -2.04053260385990142822e-02) (55, -9.79112386703491210938e-02) (56, 3.25501561164855957031e-02) (57, -1.95501834154129028320e-01) (58, 2.48349495232105255127e-02) (59, 8.40035676956176757812e-02) (60, -2.66400128602981567383e-02) (61, -7.26101517677307128906e-01) (31, 1.02089554071426391602e-01) (32, 2.05317258834838867188e-01) (33, -2.27947399020195007324e-01) (34, -2.85081237554550170898e-01) (35, 5.27861714363098144531e-03) (36, -1.90602213144302368164e-01) (37, -1.83102309703826904297e-01) (38, 8.16578743979334831238e-04) (39, -5.41220344603061676025e-02) (40, 1.22396983206272125244e-01) (41, -2.79410809278488159180e-01) (42, 1.02039992809295654297e-01) (43, -3.69388788938522338867e-01) (44, 5.62356673181056976318e-02) (45, -1.53076663613319396973e-01) (46, -1.70209452509880065918e-01) (47, -9.28498953580856323242e-02) (48, -2.59987544268369674683e-03) (49, -1.00251726806163787842e-01) (50, 1.38730406761169433594e-01) (51, -1.07620082795619964600e-01) (52, -2.99396932125091552734e-01) (53, 1.72561153769493103027e-01) (54, -2.32361376285552978516e-01) (55, -1.02014541625976562500e-01) (56, -3.23522016406059265137e-02) (57, -2.67876029014587402344e-01) (58, 1.68325796723365783691e-01) (59, 6.23000897467136383057e-02) (60, 7.96516388654708862305e-02) (61, -6.99414968490600585938e-01) (31, 1.18325814604759216309e-01) (32, 5.20156770944595336914e-02) (33, -2.42683485150337219238e-01) (34, -3.25229167938232421875e-01) (35, 2.26441696286201477051e-02) (36, -1.33405730128288269043e-01) (37, -1.27321958541870117188e-01) (38, -8.09442624449729919434e-02) (39, 6.32224008440971374512e-02) (40, 4.74889054894447326660e-02) (41, -2.22202733159065246582e-01) (42, 9.89515334367752075195e-02) (43, -2.85854697227478027344e-01) (44, -5.19712502136826515198e-03) (45, -7.52984881401062011719e-02) (46, -2.51573532819747924805e-01) (47, -2.64635980129241943359e-01) (48, -1.04066900908946990967e-01) (49, -2.43367522954940795898e-01) (50, -4.48953062295913696289e-02) (51, -7.85438418388366699219e-02) (52, -2.77620881795883178711e-01) (53, 1.78634628653526306152e-01) (54, -1.77811741828918457031e-01) (55, -5.52168413996696472168e-02) (56, -6.02628253400325775146e-02) (57, -2.05828338861465454102e-01) (58, 1.11232668161392211914e-01) (59, 1.41613274812698364258e-01) (60, 1.74530938267707824707e-01) (61, -7.74393916130065917969e-01) (31, 1.85483898967504501343e-02) (32, 1.90832674503326416016e-01) (33, -1.63186237215995788574e-01) (34, -2.57281482219696044922e-01) (35, -1.53713067993521690369e-02) (36, -2.01832786202430725098e-01) (37, -2.10702374577522277832e-01) (38, 5.44577743858098983765e-03) (39, -8.82091224193572998047e-02) (40, 7.50388875603675842285e-02) (41, -2.76153951883316040039e-01) (42, 1.33337870240211486816e-01) (43, -3.64812135696411132812e-01) (44, 6.03270977735519409180e-02) (45, -1.53095006942749023438e-01) (46, -2.21399113535881042480e-01) (47, -1.61749422550201416016e-01) (48, -8.47204104065895080566e-02) (49, -1.61854490637779235840e-01) (50, 6.05122856795787811279e-02) (51, -2.59368866682052612305e-02) (52, -1.77321895956993103027e-01) (53, 9.15531069040298461914e-02) (54, -7.33401253819465637207e-02) (55, -1.17653250694274902344e-01) (56, 3.11174727976322174072e-02) (57, -2.40738794207572937012e-01) (58, 1.80608287453651428223e-01) (59, 1.05661168694496154785e-01) (60, 2.18644976615905761719e-01) (61, -7.80340671539306640625e-01) (31, 1.01074524223804473877e-01) (32, 2.04582273960113525391e-01) (33, -1.51697993278503417969e-01) (34, -3.57807219028472900391e-01) (35, -5.56226521730422973633e-02) (36, -6.72787576913833618164e-02) (37, -1.89128592610359191895e-01) (38, 4.25718650221824645996e-02) (39, -9.41154137253761291504e-02) (40, 1.55551388859748840332e-01) (41, -3.28131288290023803711e-01) (42, 1.85526430606842041016e-01) (43, -2.21661701798439025879e-01) (44, 1.14934414625167846680e-01) (45, -5.22772874683141708374e-03) (46, -2.47121989727020263672e-01) (47, -2.41011187434196472168e-01) (48, -1.16511479020118713379e-01) (49, -1.11382350325584411621e-01) (50, 1.18770182132720947266e-01) (51, -9.66909434646368026733e-03) (52, -2.42732018232345581055e-01) (53, 7.60337784886360168457e-02) (54, -1.70363888144493103027e-01) (55, -4.03165854513645172119e-02) (56, -1.11871503293514251709e-01) (57, -1.91904127597808837891e-01) (58, 1.66442021727561950684e-01) (59, 1.55457109212875366211e-01) (60, 1.60935193300247192383e-01) (61, -7.30602085590362548828e-01) (31, 6.91592227667570114136e-03) (32, 1.27250090241432189941e-01) (33, -1.84917196631431579590e-01) (34, -3.19764137268066406250e-01) (35, 3.49192731082439422607e-02) (36, -1.42401263117790222168e-01) (37, -1.18226647377014160156e-01) (38, -2.33120135962963104248e-02) (39, 2.10898462682962417603e-02) (40, 9.78985354304313659668e-02) (41, -2.19765633344650268555e-01) (42, 1.46240949630737304688e-01) (43, -2.96814471483230590820e-01) (44, 7.31057897210121154785e-02) (45, -8.75007510185241699219e-02) (46, -1.27949833869934082031e-01) (47, -1.41985863447189331055e-01) (48, -2.86808218806982040405e-02) (49, -1.23256735503673553467e-01) (50, 6.56606107950210571289e-02) (51, -1.01094976067543029785e-01) (52, -2.93465495109558105469e-01) (53, 1.90293475985527038574e-01) (54, -1.39172121882438659668e-01) (55, -1.96399927139282226562e-01) (56, -1.37537524104118347168e-01) (57, -2.84403145313262939453e-01) (58, 1.72628283500671386719e-01) (59, 1.61334171891212463379e-01) (60, 1.86811730265617370605e-01) (61, -7.73851096630096435547e-01) (31, 1.20412848889827728271e-01) (32, 7.76268094778060913086e-02) (33, -2.70672112703323364258e-01) (34, -3.60714554786682128906e-01) (35, 6.99276104569435119629e-02) (36, -1.08498759567737579346e-01) (37, -8.97930487990379333496e-02) (38, -5.64185269176959991455e-02) (39, -2.70463116466999053955e-02) (40, 6.34536519646644592285e-02) (41, -3.37173759937286376953e-01) (42, 5.47228530049324035645e-02) (43, -4.00556087493896484375e-01) (44, 9.95238795876502990723e-02) (45, -5.95417246222496032715e-02) (46, -1.17835544049739837646e-01) (47, -2.11490571498870849609e-01) (48, -1.09832383692264556885e-01) (49, -1.26034870743751525879e-01) (50, 1.42495751380920410156e-01) (51, -7.71787539124488830566e-02) (52, -1.50867760181427001953e-01) (53, 1.83231666684150695801e-01) (54, -8.44554677605628967285e-02) (55, -2.05657146871089935303e-02) (56, 3.52528020739555358887e-02) (57, -1.24765574932098388672e-01) (58, 1.56875491142272949219e-01) (59, 1.37749105691909790039e-01) (60, 1.72044962644577026367e-01) (61, -8.18564474582672119141e-01) (31, 1.50552587583661079407e-02) (32, 2.12382569909095764160e-01) (33, -2.29755654931068420410e-01) (34, -3.14553588628768920898e-01) (35, 4.45157513022422790527e-02) (36, -2.36024975776672363281e-01) (37, -2.17182189226150512695e-01) (38, -1.11253209412097930908e-01) (39, -5.98567945417016744614e-04) (40, 9.94663983583450317383e-02) (41, -3.17821294069290161133e-01) (42, 1.81943535804748535156e-01) (43, -2.74390637874603271484e-01) (44, 1.45798921585083007812e-01) (45, -1.02147981524467468262e-01) (46, -1.83519855141639709473e-01) (47, -2.34694078564643859863e-01) (48, -3.77942733466625213623e-02) (49, -1.98763176798820495605e-01) (50, -1.03603387251496315002e-02) (51, 2.58136354386806488037e-02) (52, -2.81997770071029663086e-01) (53, 2.60268449783325195312e-02) (54, -1.31094351410865783691e-01) (55, -1.75999477505683898926e-01) (56, 4.86590266227722167969e-02) (57, -2.14403301477432250977e-01) (58, 1.81470483541488647461e-01) (59, 1.28767371177673339844e-01) (60, 6.09547309577465057373e-02) (61, -6.82329416275024414062e-01) (31, 9.45315212011337280273e-02) (32, 3.09262890368700027466e-02) (33, -2.15480059385299682617e-01) (34, -3.58093827962875366211e-01) (35, 4.35050539672374725342e-02) (36, -1.58362239599227905273e-01) (37, -1.98466867208480834961e-01) (38, 3.43758128583431243896e-02) (39, -1.10380753874778747559e-01) (40, 1.33426904678344726562e-01) (41, -3.26854944229125976562e-01) (42, 1.79391399025917053223e-01) (43, -2.83001095056533813477e-01) (44, 1.51574999094009399414e-01) (45, -1.24317191541194915771e-01) (46, -2.65928566455841064453e-01) (47, -2.26849704980850219727e-01) (48, 1.05292433872818946838e-02) (49, -1.59197419881820678711e-01) (50, 2.45850384235382080078e-02) (51, -2.73628141731023788452e-02) (52, -1.76176607608795166016e-01) (53, 1.00915305316448211670e-01) (54, -2.23244145512580871582e-01) (55, -3.73825617134571075439e-02) (56, -4.63381297886371612549e-02) (57, -1.96294695138931274414e-01) (58, 1.28860488533973693848e-01) (59, 2.07025870680809020996e-01) (60, 1.41595721244812011719e-01) (61, -7.04829931259155273438e-01) (31, 7.52787590026855468750e-02) (32, 1.60001307725906372070e-01) (33, -1.17920726537704467773e-01) (34, -2.57397383451461791992e-01) (35, -1.50233106687664985657e-02) (36, -1.90086215734481811523e-01) (37, -9.81538221240043640137e-02) (38, -7.95285925269126892090e-02) (39, -6.24992251396179199219e-02) (40, 8.51878002285957336426e-02) (41, -2.92994678020477294922e-01) (42, 6.40996396541595458984e-02) (43, -3.74451309442520141602e-01) (44, 1.94080248475074768066e-02) (45, -8.19861292839050292969e-02) (46, -2.60583430528640747070e-01) (47, -1.84444189071655273438e-01) (48, -1.04801163077354431152e-01) (49, -1.29699274897575378418e-01) (50, 1.17429912090301513672e-01) (51, -3.68340662680566310883e-03) (52, -2.56949901580810546875e-01) (53, 7.61237218976020812988e-02) (54, -1.05874061584472656250e-01) (55, -1.79323464632034301758e-01) (56, 2.08675712347030639648e-02) (57, -2.74705320596694946289e-01) (58, 1.47891595959663391113e-01) (59, 1.75773084163665771484e-01) (60, 1.67225167155265808105e-01) (61, -7.80721843242645263672e-01) (31, 2.02137865126132965088e-02) (32, 1.11192964017391204834e-01) (33, -2.84240812063217163086e-01) (34, -2.13582560420036315918e-01) (35, 5.15607744455337524414e-02) (36, -1.88401624560356140137e-01) (37, -1.34603187441825866699e-01) (38, 6.30559027194976806641e-02) (39, 4.92285704240202903748e-03) (40, 8.45325924456119537354e-03) (41, -3.03389608860015869141e-01) (42, 2.01895132660865783691e-01) (43, -3.53705644607543945312e-01) (44, 7.62898623943328857422e-02) (45, -1.04266352951526641846e-01) (46, -2.20440626144409179688e-01) (47, -8.45330953598022460938e-02) (48, -3.63310985267162322998e-02) (49, -2.51395970582962036133e-01) (50, 1.17055229842662811279e-01) (51, -1.05943098664283752441e-01) (52, -2.58255690336227416992e-01) (53, 5.42910695075988769531e-02) (54, -8.83434787392616271973e-02) (55, -1.23543128371238708496e-01) (56, -1.31801173090934753418e-01) (57, -1.39816418290138244629e-01) (58, 3.50503399968147277832e-02) (59, 1.92731633782386779785e-01) (60, 1.38887479901313781738e-01) (61, -8.00515294075012207031e-01) 
