FANN_FLO_2.1
num_layers=3
learning_rate=0.699721
connection_rate=1.000000
network_type=0
learning_momentum=0.000000
training_algorithm=0
train_error_function=1
train_stop_function=0
cascade_output_change_fraction=0.010000
quickprop_decay=-0.000100
quickprop_mu=1.750000
rprop_increase_factor=1.200000
rprop_decrease_factor=0.500000
rprop_delta_min=0.000000
rprop_delta_max=50.000000
rprop_delta_zero=0.100000
cascade_output_stagnation_epochs=12
cascade_candidate_change_fraction=0.010000
cascade_candidate_stagnation_epochs=12
cascade_max_out_epochs=150
cascade_min_out_epochs=50
cascade_max_cand_epochs=150
cascade_min_cand_epochs=50
cascade_num_candidate_groups=2
bit_fail_limit=3.49999994039535522461e-01
cascade_candidate_limit=1.00000000000000000000e+03
cascade_weight_multiplier=4.00000005960464477539e-01
cascade_activation_functions_count=10
cascade_activation_functions=3 5 7 8 10 11 14 15 16 17 
cascade_activation_steepnesses_count=136
cascade_activation_steepnesses=0.00000000000000000000e+00 0.00000000000000000000e+00 0.00000000000000000000e+00 1.60000000000000000000e+01 6.08200000000000000000e+03 6.08300000000000000000e+03 6.08400000000000000000e+03 6.08500000000000000000e+03 6.08600000000000000000e+03 6.08700000000000000000e+03 6.08800000000000000000e+03 6.08900000000000000000e+03 6.09000000000000000000e+03 6.09100000000000000000e+03 6.09200000000000000000e+03 6.09300000000000000000e+03 6.09400000000000000000e+03 6.09500000000000000000e+03 6.09600000000000000000e+03 6.09700000000000000000e+03 0.00000000000000000000e+00 0.00000000000000000000e+00 1.12000000000000000000e+02 1.07539400000000000000e+06 1.07539500000000000000e+06 1.07539600000000000000e+06 1.07539700000000000000e+06 1.07539800000000000000e+06 1.07539900000000000000e+06 1.07540000000000000000e+06 1.07540100000000000000e+06 1.07540200000000000000e+06 1.07540300000000000000e+06 1.07540400000000000000e+06 1.07540500000000000000e+06 1.07540600000000000000e+06 1.07540700000000000000e+06 1.07540800000000000000e+06 1.07540900000000000000e+06 1.07565000000000000000e+06 1.07565100000000000000e+06 1.07565200000000000000e+06 1.07565300000000000000e+06 1.07565400000000000000e+06 1.07565500000000000000e+06 1.07565600000000000000e+06 1.07565700000000000000e+06 1.07565800000000000000e+06 1.07565900000000000000e+06 1.07566000000000000000e+06 1.07566100000000000000e+06 1.07566200000000000000e+06 1.07566300000000000000e+06 1.07566400000000000000e+06 1.07566500000000000000e+06 1.07590600000000000000e+06 1.07590700000000000000e+06 1.07590800000000000000e+06 1.07590900000000000000e+06 1.07591000000000000000e+06 1.07591100000000000000e+06 1.07591200000000000000e+06 1.07591300000000000000e+06 1.07591400000000000000e+06 1.07591500000000000000e+06 1.07591600000000000000e+06 1.07591700000000000000e+06 1.07591800000000000000e+06 1.07591900000000000000e+06 1.07592000000000000000e+06 1.07592100000000000000e+06 1.07603400000000000000e+06 1.07603500000000000000e+06 1.07603600000000000000e+06 1.07603700000000000000e+06 1.07603800000000000000e+06 1.07603900000000000000e+06 1.07604000000000000000e+06 1.07604100000000000000e+06 1.07604200000000000000e+06 1.07604300000000000000e+06 1.07604400000000000000e+06 1.07604500000000000000e+06 1.07604600000000000000e+06 1.07604700000000000000e+06 1.07604800000000000000e+06 1.07604900000000000000e+06 1.07629000000000000000e+06 1.07629100000000000000e+06 1.07629200000000000000e+06 1.07629300000000000000e+06 1.07629400000000000000e+06 1.07629500000000000000e+06 1.07629600000000000000e+06 1.07629700000000000000e+06 1.07629800000000000000e+06 1.07629900000000000000e+06 1.07630000000000000000e+06 1.07630100000000000000e+06 1.07630200000000000000e+06 1.07630300000000000000e+06 1.07630400000000000000e+06 1.07630500000000000000e+06 1.07641800000000000000e+06 1.07641900000000000000e+06 1.07642000000000000000e+06 1.07642100000000000000e+06 1.07642200000000000000e+06 1.07642300000000000000e+06 1.07642400000000000000e+06 1.07642500000000000000e+06 1.07642600000000000000e+06 1.07642700000000000000e+06 1.07642800000000000000e+06 1.07642900000000000000e+06 1.07643000000000000000e+06 1.07643100000000000000e+06 1.07643200000000000000e+06 1.07643300000000000000e+06 1.07667400000000000000e+06 1.07667500000000000000e+06 1.07667600000000000000e+06 1.07667700000000000000e+06 1.07667800000000000000e+06 1.07667900000000000000e+06 1.07668000000000000000e+06 1.07668100000000000000e+06 1.07668200000000000000e+06 1.07668300000000000000e+06 1.07668400000000000000e+06 1.07668500000000000000e+06 1.07668600000000000000e+06 1.07668700000000000000e+06 1.07668800000000000000e+06 1.07668900000000000000e+06 0.00000000000000000000e+00 
layer_sizes=129 129 129 
scale_included=0
neurons (num_inputs, activation_function, activation_steepness)=(0, 0, 0.00000000000000000000e+00) (0, 0, 0.00000000000000000000e+00) (0, 0, 0.00000000000000000000e+00) (0, 0, 0.00000000000000000000e+00) (0, 0, 0.00000000000000000000e+00) (0, 0, 0.00000000000000000000e+00) (0, 0, 0.00000000000000000000e+00) (0, 0, 0.00000000000000000000e+00) (0, 0, 0.00000000000000000000e+00) (0, 0, 0.00000000000000000000e+00) (0, 0, 0.00000000000000000000e+00) (0, 0, 0.00000000000000000000e+00) (0, 0, 0.00000000000000000000e+00) (0, 0, 0.00000000000000000000e+00) (0, 0, 0.00000000000000000000e+00) (0, 0, 0.00000000000000000000e+00) (0, 0, 0.00000000000000000000e+00) (0, 0, 0.00000000000000000000e+00) (0, 0, 0.00000000000000000000e+00) (0, 0, 0.00000000000000000000e+00) (0, 0, 0.00000000000000000000e+00) (0, 0, 0.00000000000000000000e+00) (0, 0, 0.00000000000000000000e+00) (0, 0, 0.00000000000000000000e+00) (0, 0, 0.00000000000000000000e+00) (0, 0, 0.00000000000000000000e+00) (0, 0, 0.00000000000000000000e+00) (0, 0, 0.00000000000000000000e+00) (0, 0, 0.00000000000000000000e+00) (0, 0, 0.00000000000000000000e+00) (0, 0, 0.00000000000000000000e+00) (0, 0, 0.00000000000000000000e+00) (0, 0, 0.00000000000000000000e+00) (0, 0, 0.00000000000000000000e+00) (0, 0, 0.00000000000000000000e+00) (0, 0, 0.00000000000000000000e+00) (0, 0, 0.00000000000000000000e+00) (0, 0, 0.00000000000000000000e+00) (0, 0, 0.00000000000000000000e+00) (0, 0, 0.00000000000000000000e+00) (0, 0, 0.00000000000000000000e+00) (0, 0, 0.00000000000000000000e+00) (0, 0, 0.00000000000000000000e+00) (0, 0, 0.00000000000000000000e+00) (0, 0, 0.00000000000000000000e+00) (0, 0, 0.00000000000000000000e+00) (0, 0, 0.00000000000000000000e+00) (0, 0, 0.00000000000000000000e+00) (0, 0, 0.00000000000000000000e+00) (0, 0, 0.00000000000000000000e+00) (0, 0, 0.00000000000000000000e+00) (0, 0, 0.00000000000000000000e+00) (0, 0, 0.00000000000000000000e+00) (0, 0, 0.00000000000000000000e+00) (0, 0, 0.00000000000000000000e+00) (0, 0, 0.00000000000000000000e+00) (0, 0, 0.00000000000000000000e+00) (0, 0, 0.00000000000000000000e+00) (0, 0, 0.00000000000000000000e+00) (0, 0, 0.00000000000000000000e+00) (0, 0, 0.00000000000000000000e+00) (0, 0, 0.00000000000000000000e+00) (0, 0, 0.00000000000000000000e+00) (0, 0, 0.00000000000000000000e+00) (0, 0, 0.00000000000000000000e+00) (0, 0, 0.00000000000000000000e+00) (0, 0, 0.00000000000000000000e+00) (0, 0, 0.00000000000000000000e+00) (0, 0, 0.00000000000000000000e+00) (0, 0, 0.00000000000000000000e+00) (0, 0, 0.00000000000000000000e+00) (0, 0, 0.00000000000000000000e+00) (0, 0, 0.00000000000000000000e+00) (0, 0, 0.00000000000000000000e+00) (0, 0, 0.00000000000000000000e+00) (0, 0, 0.00000000000000000000e+00) (0, 0, 0.00000000000000000000e+00) (0, 0, 0.00000000000000000000e+00) (0, 0, 0.00000000000000000000e+00) (0, 0, 0.00000000000000000000e+00) (0, 0, 0.00000000000000000000e+00) (0, 0, 0.00000000000000000000e+00) (0, 0, 0.00000000000000000000e+00) (0, 0, 0.00000000000000000000e+00) (0, 0, 0.00000000000000000000e+00) (0, 0, 0.00000000000000000000e+00) (0, 0, 0.00000000000000000000e+00) (0, 0, 0.00000000000000000000e+00) (0, 0, 0.00000000000000000000e+00) (0, 0, 0.00000000000000000000e+00) (0, 0, 0.00000000000000000000e+00) (0, 0, 0.00000000000000000000e+00) (0, 0, 0.00000000000000000000e+00) (0, 0, 0.00000000000000000000e+00) (0, 0, 0.00000000000000000000e+00) (0, 0, 0.00000000000000000000e+00) (0, 0, 0.00000000000000000000e+00) (0, 0, 0.00000000000000000000e+00) (0, 0, 0.00000000000000000000e+00) (0, 0, 0.00000000000000000000e+00) (0, 0, 0.00000000000000000000e+00) (0, 0, 0.00000000000000000000e+00) (0, 0, 0.00000000000000000000e+00) (0, 0, 0.00000000000000000000e+00) (0, 0, 0.00000000000000000000e+00) (0, 0, 0.00000000000000000000e+00) (0, 0, 0.00000000000000000000e+00) (0, 0, 0.00000000000000000000e+00) (0, 0, 0.00000000000000000000e+00) (0, 0, 0.00000000000000000000e+00) (0, 0, 0.00000000000000000000e+00) (0, 0, 0.00000000000000000000e+00) (0, 0, 0.00000000000000000000e+00) (0, 0, 0.00000000000000000000e+00) (0, 0, 0.00000000000000000000e+00) (0, 0, 0.00000000000000000000e+00) (0, 0, 0.00000000000000000000e+00) (0, 0, 0.00000000000000000000e+00) (0, 0, 0.00000000000000000000e+00) (0, 0, 0.00000000000000000000e+00) (0, 0, 0.00000000000000000000e+00) (0, 0, 0.00000000000000000000e+00) (0, 0, 0.00000000000000000000e+00) (0, 0, 0.00000000000000000000e+00) (0, 0, 0.00000000000000000000e+00) (0, 0, 0.00000000000000000000e+00) (0, 0, 0.00000000000000000000e+00) (0, 0, 0.00000000000000000000e+00) (0, 0, 0.00000000000000000000e+00) (129, 5, 5.00000000000000000000e-01) (129, 5, 5.00000000000000000000e-01) (129, 5, 5.00000000000000000000e-01) (129, 5, 5.00000000000000000000e-01) (129, 5, 5.00000000000000000000e-01) (129, 5, 5.00000000000000000000e-01) (129, 5, 5.00000000000000000000e-01) (129, 5, 5.00000000000000000000e-01) (129, 5, 5.00000000000000000000e-01) (129, 5, 5.00000000000000000000e-01) (129, 5, 5.00000000000000000000e-01) (129, 5, 5.00000000000000000000e-01) (129, 5, 5.00000000000000000000e-01) (129, 5, 5.00000000000000000000e-01) (129, 5, 5.00000000000000000000e-01) (129, 5, 5.00000000000000000000e-01) (129, 5, 5.00000000000000000000e-01) (129, 5, 5.00000000000000000000e-01) (129, 5, 5.00000000000000000000e-01) (129, 5, 5.00000000000000000000e-01) (129, 5, 5.00000000000000000000e-01) (129, 5, 5.00000000000000000000e-01) (129, 5, 5.00000000000000000000e-01) (129, 5, 5.00000000000000000000e-01) (129, 5, 5.00000000000000000000e-01) (129, 5, 5.00000000000000000000e-01) (129, 5, 5.00000000000000000000e-01) (129, 5, 5.00000000000000000000e-01) (129, 5, 5.00000000000000000000e-01) (129, 5, 5.00000000000000000000e-01) (129, 5, 5.00000000000000000000e-01) (129, 5, 5.00000000000000000000e-01) (129, 5, 5.00000000000000000000e-01) (129, 5, 5.00000000000000000000e-01) (129, 5, 5.00000000000000000000e-01) (129, 5, 5.00000000000000000000e-01) (129, 5, 5.00000000000000000000e-01) (129, 5, 5.00000000000000000000e-01) (129, 5, 5.00000000000000000000e-01) (129, 5, 5.00000000000000000000e-01) (129, 5, 5.00000000000000000000e-01) (129, 5, 5.00000000000000000000e-01) (129, 5, 5.00000000000000000000e-01) (129, 5, 5.00000000000000000000e-01) (129, 5, 5.00000000000000000000e-01) (129, 5, 5.00000000000000000000e-01) (129, 5, 5.00000000000000000000e-01) (129, 5, 5.00000000000000000000e-01) (129, 5, 5.00000000000000000000e-01) (129, 5, 5.00000000000000000000e-01) (129, 5, 5.00000000000000000000e-01) (129, 5, 5.00000000000000000000e-01) (129, 5, 5.00000000000000000000e-01) (129, 5, 5.00000000000000000000e-01) (129, 5, 5.00000000000000000000e-01) (129, 5, 5.00000000000000000000e-01) (129, 5, 5.00000000000000000000e-01) (129, 5, 5.00000000000000000000e-01) (129, 5, 5.00000000000000000000e-01) (129, 5, 5.00000000000000000000e-01) (129, 5, 5.00000000000000000000e-01) (129, 5, 5.00000000000000000000e-01) (129, 5, 5.00000000000000000000e-01) (129, 5, 5.00000000000000000000e-01) (129, 5, 5.00000000000000000000e-01) (129, 5, 5.00000000000000000000e-01) (129, 5, 5.00000000000000000000e-01) (129, 5, 5.00000000000000000000e-01) (129, 5, 5.00000000000000000000e-01) (129, 5, 5.00000000000000000000e-01) (129, 5, 5.00000000000000000000e-01) (129, 5, 5.00000000000000000000e-01) (129, 5, 5.00000000000000000000e-01) (129, 5, 5.00000000000000000000e-01) (129, 5, 5.00000000000000000000e-01) (129, 5, 5.00000000000000000000e-01) (129, 5, 5.00000000000000000000e-01) (129, 5, 5.00000000000000000000e-01) (129, 5, 5.00000000000000000000e-01) (129, 5, 5.00000000000000000000e-01) (129, 5, 5.00000000000000000000e-01) (129, 5, 5.00000000000000000000e-01) (129, 5, 5.00000000000000000000e-01) (129, 5, 5.00000000000000000000e-01) (129, 5, 5.00000000000000000000e-01) (129, 5, 5.00000000000000000000e-01) (129, 5, 5.00000000000000000000e-01) (129, 5, 5.00000000000000000000e-01) (129, 5, 5.00000000000000000000e-01) (129, 5, 5.00000000000000000000e-01) (129, 5, 5.00000000000000000000e-01) (129, 5, 5.00000000000000000000e-01) (129, 5, 5.00000000000000000000e-01) (129, 5, 5.00000000000000000000e-01) (129, 5, 5.00000000000000000000e-01) (129, 5, 5.00000000000000000000e-01) (129, 5, 5.00000000000000000000e-01) (129, 5, 5.00000000000000000000e-01) (129, 5, 5.00000000000000000000e-01) (129, 5, 5.00000000000000000000e-01) (129, 5, 5.00000000000000000000e-01) (129, 5, 5.00000000000000000000e-01) (129, 5, 5.00000000000000000000e-01) (129, 5, 5.00000000000000000000e-01) (129, 5, 5.00000000000000000000e-01) (129, 5, 5.00000000000000000000e-01) (129, 5, 5.00000000000000000000e-01) (129, 5, 5.00000000000000000000e-01) (129, 5, 5.00000000000000000000e-01) (129, 5, 5.00000000000000000000e-01) (129, 5, 5.00000000000000000000e-01) (129, 5, 5.00000000000000000000e-01) (129, 5, 5.00000000000000000000e-01) (129, 5, 5.00000000000000000000e-01) (129, 5, 5.00000000000000000000e-01) (129, 5, 5.00000000000000000000e-01) (129, 5, 5.00000000000000000000e-01) (129, 5, 5.00000000000000000000e-01) (129, 5, 5.00000000000000000000e-01) (129, 5, 5.00000000000000000000e-01) (129, 5, 5.00000000000000000000e-01) (129, 5, 5.00000000000000000000e-01) (129, 5, 5.00000000000000000000e-01) (129, 5, 5.00000000000000000000e-01) (129, 5, 5.00000000000000000000e-01) (129, 5, 5.00000000000000000000e-01) (129, 5, 5.00000000000000000000e-01) (129, 5, 5.00000000000000000000e-01) (0, 5, 0.00000000000000000000e+00) (129, 3, 5.00000000000000000000e-01) (129, 3, 5.00000000000000000000e-01) (129, 3, 5.00000000000000000000e-01) (129, 3, 5.00000000000000000000e-01) (129, 3, 5.00000000000000000000e-01) (129, 3, 5.00000000000000000000e-01) (129, 3, 5.00000000000000000000e-01) (129, 3, 5.00000000000000000000e-01) (129, 3, 5.00000000000000000000e-01) (129, 3, 5.00000000000000000000e-01) (129, 3, 5.00000000000000000000e-01) (129, 3, 5.00000000000000000000e-01) (129, 3, 5.00000000000000000000e-01) (129, 3, 5.00000000000000000000e-01) (129, 3, 5.00000000000000000000e-01) (129, 3, 5.00000000000000000000e-01) (129, 3, 5.00000000000000000000e-01) (129, 3, 5.00000000000000000000e-01) (129, 3, 5.00000000000000000000e-01) (129, 3, 5.00000000000000000000e-01) (129, 3, 5.00000000000000000000e-01) (129, 3, 5.00000000000000000000e-01) (129, 3, 5.00000000000000000000e-01) (129, 3, 5.00000000000000000000e-01) (129, 3, 5.00000000000000000000e-01) (129, 3, 5.00000000000000000000e-01) (129, 3, 5.00000000000000000000e-01) (129, 3, 5.00000000000000000000e-01) (129, 3, 5.00000000000000000000e-01) (129, 3, 5.00000000000000000000e-01) (129, 3, 5.00000000000000000000e-01) (129, 3, 5.00000000000000000000e-01) (129, 3, 5.00000000000000000000e-01) (129, 3, 5.00000000000000000000e-01) (129, 3, 5.00000000000000000000e-01) (129, 3, 5.00000000000000000000e-01) (129, 3, 5.00000000000000000000e-01) (129, 3, 5.00000000000000000000e-01) (129, 3, 5.00000000000000000000e-01) (129, 3, 5.00000000000000000000e-01) (129, 3, 5.00000000000000000000e-01) (129, 3, 5.00000000000000000000e-01) (129, 3, 5.00000000000000000000e-01) (129, 3, 5.00000000000000000000e-01) (129, 3, 5.00000000000000000000e-01) (129, 3, 5.00000000000000000000e-01) (129, 3, 5.00000000000000000000e-01) (129, 3, 5.00000000000000000000e-01) (129, 3, 5.00000000000000000000e-01) (129, 3, 5.00000000000000000000e-01) (129, 3, 5.00000000000000000000e-01) (129, 3, 5.00000000000000000000e-01) (129, 3, 5.00000000000000000000e-01) (129, 3, 5.00000000000000000000e-01) (129, 3, 5.00000000000000000000e-01) (129, 3, 5.00000000000000000000e-01) (129, 3, 5.00000000000000000000e-01) (129, 3, 5.00000000000000000000e-01) (129, 3, 5.00000000000000000000e-01) (129, 3, 5.00000000000000000000e-01) (129, 3, 5.00000000000000000000e-01) (129, 3, 5.00000000000000000000e-01) (129, 3, 5.00000000000000000000e-01) (129, 3, 5.00000000000000000000e-01) (129, 3, 5.00000000000000000000e-01) (129, 3, 5.00000000000000000000e-01) (129, 3, 5.00000000000000000000e-01) (129, 3, 5.00000000000000000000e-01) (129, 3, 5.00000000000000000000e-01) (129, 3, 5.00000000000000000000e-01) (129, 3, 5.00000000000000000000e-01) (129, 3, 5.00000000000000000000e-01) (129, 3, 5.00000000000000000000e-01) (129, 3, 5.00000000000000000000e-01) (129, 3, 5.00000000000000000000e-01) (129, 3, 5.00000000000000000000e-01) (129, 3, 5.00000000000000000000e-01) (129, 3, 5.00000000000000000000e-01) (129, 3, 5.00000000000000000000e-01) (129, 3, 5.00000000000000000000e-01) (129, 3, 5.00000000000000000000e-01) (129, 3, 5.00000000000000000000e-01) (129, 3, 5.00000000000000000000e-01) (129, 3, 5.00000000000000000000e-01) (129, 3, 5.00000000000000000000e-01) (129, 3, 5.00000000000000000000e-01) (129, 3, 5.00000000000000000000e-01) (129, 3, 5.00000000000000000000e-01) (129, 3, 5.00000000000000000000e-01) (129, 3, 5.00000000000000000000e-01) (129, 3, 5.00000000000000000000e-01) (129, 3, 5.00000000000000000000e-01) (129, 3, 5.00000000000000000000e-01) (129, 3, 5.00000000000000000000e-01) (129, 3, 5.00000000000000000000e-01) (129, 3, 5.00000000000000000000e-01) (129, 3, 5.00000000000000000000e-01) (129, 3, 5.00000000000000000000e-01) (129, 3, 5.00000000000000000000e-01) (129, 3, 5.00000000000000000000e-01) (129, 3, 5.00000000000000000000e-01) (129, 3, 5.00000000000000000000e-01) (129, 3, 5.00000000000000000000e-01) (129, 3, 5.00000000000000000000e-01) (129, 3, 5.00000000000000000000e-01) (129, 3, 5.00000000000000000000e-01) (129, 3, 5.00000000000000000000e-01) (129, 3, 5.00000000000000000000e-01) (129, 3, 5.00000000000000000000e-01) (129, 3, 5.00000000000000000000e-01) (129, 3, 5.00000000000000000000e-01) (129, 3, 5.00000000000000000000e-01) (129, 3, 5.00000000000000000000e-01) (129, 3, 5.00000000000000000000e-01) (129, 3, 5.00000000000000000000e-01) (129, 3, 5.00000000000000000000e-01) (129, 3, 5.00000000000000000000e-01) (129, 3, 5.00000000000000000000e-01) (129, 3, 5.00000000000000000000e-01) (129, 3, 5.00000000000000000000e-01) (129, 3, 5.00000000000000000000e-01) (129, 3, 5.00000000000000000000e-01) (129, 3, 5.00000000000000000000e-01) (129, 3, 5.00000000000000000000e-01) (129, 3, 5.00000000000000000000e-01) (129, 3, 5.00000000000000000000e-01) (129, 3, 5.00000000000000000000e-01) (129, 3, 5.00000000000000000000e-01) (0, 3, 0.00000000000000000000e+00) 
connections (connected_to_neuron, weight)=(0, -1.37649282813072204590e-01) (1, -1.31309896707534790039e-01) (2, -6.08272664248943328857e-02) (3, -2.34321296215057373047e-01) (4, -9.44523960351943969727e-02) (5, -2.00504511594772338867e-02) (6, -9.71777290105819702148e-02) (7, 2.57799550890922546387e-02) (8, 1.17675289511680603027e-01) (9, -8.92232060432434082031e-02) (10, 6.92354217171669006348e-02) (11, 2.78953835368156433105e-03) (12, -1.93576067686080932617e-02) (13, 9.37760621309280395508e-03) (14, -1.52965158224105834961e-01) (15, -4.10003475844860076904e-02) (16, -1.84069827198982238770e-01) (17, -6.76801651716232299805e-02) (18, -1.93959772586822509766e-01) (19, -1.56292811036109924316e-01) (20, -7.28864371776580810547e-02) (21, -5.57027608156204223633e-02) (22, -7.05811828374862670898e-02) (23, 6.55785799026489257812e-02) (24, 1.63376443088054656982e-02) (25, -1.41472205519676208496e-01) (26, 1.92456245422363281250e-02) (27, 4.98024523258209228516e-02) (28, -3.08500640094280242920e-02) (29, -4.86789532005786895752e-02) (30, -1.38831630349159240723e-01) (31, -5.90053275227546691895e-02) (32, -2.26855322718620300293e-01) (33, -2.17464655637741088867e-01) (34, -1.60290583968162536621e-01) (35, -1.42245888710021972656e-01) (36, -1.36985689401626586914e-01) (37, -3.10993939638137817383e-02) (38, -7.87750035524368286133e-02) (39, 3.57819795608520507812e-02) (40, 1.06187108904123306274e-02) (41, -1.18790015578269958496e-01) (42, 3.36012840270996093750e-02) (43, 2.24373042583465576172e-02) (44, 1.06545994058251380920e-02) (45, -4.39281016588211059570e-03) (46, 1.27761662006378173828e-02) (47, -6.39211833477020263672e-02) (48, 4.30671572685241699219e-02) (49, -5.67658618092536926270e-02) (50, 9.23162791877985000610e-03) (51, -1.04017797857522964478e-02) (52, -8.98367613554000854492e-02) (53, -8.75834468752145767212e-03) (54, -1.19948321953415870667e-02) (55, -4.99043278396129608154e-02) (56, -1.83262713253498077393e-02) (57, -7.77781158685684204102e-02) (58, -2.29293834418058395386e-02) (59, 2.53944415599107742310e-02) (60, -9.84489023685455322266e-02) (61, 1.11556174233555793762e-02) (62, -9.63444188237190246582e-02) (63, -6.32976293563842773438e-02) (64, -1.26092121005058288574e-01) (65, -1.47357404232025146484e-01) (66, -5.46823702752590179443e-02) (67, -2.84016013145446777344e-01) (68, -7.79273957014083862305e-02) (69, 9.29115712642669677734e-02) (70, -2.10543051362037658691e-01) (71, 1.87783703207969665527e-01) (72, 1.05062857270240783691e-01) (73, -8.61922204494476318359e-02) (74, 5.25077432394027709961e-03) (75, -5.31063526868820190430e-02) (76, 2.94819921255111694336e-02) (77, -6.70019835233688354492e-02) (78, -8.56883153319358825684e-02) (79, 2.00365670025348663330e-02) (80, 4.91487868130207061768e-02) (81, -4.84485104680061340332e-02) (82, 3.67181487381458282471e-02) (83, -1.40687987208366394043e-01) (84, 9.78847071528434753418e-02) (85, -2.01851204037666320801e-02) (86, 1.95907596498727798462e-02) (87, -7.55331069231033325195e-02) (88, -1.42871677875518798828e-01) (89, 9.66613814234733581543e-02) (90, -3.99555638432502746582e-02) (91, -8.62290635704994201660e-02) (92, 7.81699456274509429932e-03) (93, -3.62999849021434783936e-02) (94, -4.95266988873481750488e-02) (95, -5.62685281038284301758e-02) (96, -1.03440493345260620117e-01) (97, -1.94931492209434509277e-01) (98, -1.89423382282257080078e-01) (99, -2.02306076884269714355e-01) (100, -2.01490476727485656738e-01) (101, 2.64024734497070312500e-02) (102, -1.76831409335136413574e-01) (103, 1.58664762973785400391e-01) (104, 7.11515694856643676758e-02) (105, -8.08310806751251220703e-02) (106, -9.94118079543113708496e-02) (107, -6.81902393698692321777e-02) (108, -2.77660377323627471924e-02) (109, -7.01290592551231384277e-02) (110, -1.68144404888153076172e-02) (111, -3.11298109591007232666e-02) (112, -7.52494670450687408447e-04) (113, -7.17965606600046157837e-03) (114, -3.45513783395290374756e-02) (115, 5.22237680852413177490e-02) (116, -1.71816889196634292603e-02) (117, 8.50393921136856079102e-02) (118, -6.82178065180778503418e-02) (119, -4.96184825897216796875e-03) (120, 8.17007571458816528320e-02) (121, -8.17336421459913253784e-03) (122, 8.80908966064453125000e-03) (123, -1.04822460561990737915e-02) (124, 5.55266514420509338379e-02) (125, 5.92823885381221771240e-02) (126, 3.32492254674434661865e-02) (127, 1.40927555039525032043e-02) (128, -1.48517116904258728027e-01) (0, 3.28761935234069824219e-01) (1, -1.53052508831024169922e-01) (2, -3.59831571578979492188e-01) (3, 1.15350559353828430176e-02) (4, -9.33416113257408142090e-02) (5, 2.39280015230178833008e-01) (6, 1.30846142768859863281e-01) (7, -1.33069992065429687500e-01) (8, 2.40728944540023803711e-01) (9, -1.31686419248580932617e-01) (10, 1.79414674639701843262e-02) (11, 5.65809532999992370605e-02) (12, -8.22327286005020141602e-03) (13, -7.54715129733085632324e-02) (14, -7.05313161015510559082e-02) (15, 2.03017055988311767578e-01) (16, 2.37715393304824829102e-01) (17, 2.87942960858345031738e-02) (18, -3.49410712718963623047e-01) (19, 1.40198320150375366211e-03) (20, -1.55472457408905029297e-01) (21, 1.98154419660568237305e-01) (22, 7.66747072339057922363e-03) (23, -9.93558093905448913574e-02) (24, 9.28531810641288757324e-02) (25, -1.92380398511886596680e-02) (26, -9.47140082716941833496e-02) (27, 1.65199965238571166992e-01) (28, 8.13721418380737304688e-02) (29, 7.49206990003585815430e-02) (30, -1.09676927328109741211e-01) (31, 1.40027552843093872070e-01) (32, 1.36807978153228759766e-01) (33, -1.38073652982711791992e-01) (34, -1.95765644311904907227e-01) (35, 5.36390393972396850586e-03) (36, -1.83036506175994873047e-01) (37, 2.50960469245910644531e-01) (38, 1.15819036960601806641e-01) (39, -3.21011468768119812012e-02) (40, 8.49400982260704040527e-02) (41, -1.28175467252731323242e-02) (42, -9.35530886054039001465e-02) (43, 2.19659507274627685547e-03) (44, -6.62479549646377563477e-03) (45, 5.76083362102508544922e-03) (46, 7.28492662310600280762e-02) (47, 1.60984039306640625000e-01) (48, 1.60598754882812500000e-02) (49, -7.79251232743263244629e-02) (50, 2.36000537872314453125e-01) (51, 4.38378229737281799316e-02) (52, 1.88645094633102416992e-01) (53, 1.07021093368530273438e-01) (54, 1.00052177906036376953e-01) (55, 2.27414637804031372070e-01) (56, -6.90503641963005065918e-02) (57, 1.75183385610580444336e-01) (58, 8.88568311929702758789e-02) (59, 1.61346927285194396973e-01) (60, 2.77976281940937042236e-02) (61, 9.34832021594047546387e-02) (62, -8.61483365297317504883e-02) (63, 3.11705712229013442993e-02) (64, 1.56046032905578613281e-01) (65, -1.64782464504241943359e-01) (66, -3.59880715608596801758e-01) (67, -6.50929138064384460449e-02) (68, 1.93516165018081665039e-03) (69, 7.18183219432830810547e-02) (70, -5.36689609289169311523e-02) (71, -2.02918410301208496094e-01) (72, 2.24666804075241088867e-01) (73, -9.38000604510307312012e-02) (74, -1.18754647672176361084e-01) (75, 1.43521785736083984375e-01) (76, -6.37497752904891967773e-03) (77, -7.60601386427879333496e-02) (78, -2.78585236519575119019e-02) (79, 1.73013329505920410156e-01) (80, -3.96819673478603363037e-02) (81, -1.41644421964883804321e-02) (82, 1.02547883987426757812e-01) (83, 4.89631332457065582275e-02) (84, 5.62468878924846649170e-02) (85, 1.65990293025970458984e-01) (86, -9.68417376279830932617e-02) (87, 2.23806291818618774414e-01) (88, 1.04563921689987182617e-01) (89, 9.20150876045227050781e-02) (90, 1.19336964562535285950e-02) (91, 9.57517772912979125977e-02) (92, 8.54982882738113403320e-02) (93, 2.57853623479604721069e-02) (94, 2.69223451614379882812e-02) (95, -9.18907076120376586914e-02) (96, 2.61639356613159179688e-01) (97, -1.58268362283706665039e-02) (98, -3.53398829698562622070e-01) (99, 2.54721269011497497559e-02) (100, -2.82513871788978576660e-02) (101, 1.08812257647514343262e-01) (102, 6.60788565874099731445e-02) (103, -9.33781787753105163574e-02) (104, 1.80678218603134155273e-01) (105, 7.46183097362518310547e-04) (106, -6.78892582654953002930e-02) (107, 9.97830107808113098145e-02) (108, 6.35030493140220642090e-03) (109, 7.40974470973014831543e-02) (110, -5.95680251717567443848e-02) (111, 1.29996776580810546875e-01) (112, 1.10846079885959625244e-01) (113, 1.57283142209053039551e-01) (114, -8.56290478259325027466e-03) (115, -6.95168152451515197754e-02) (116, -4.99461069703102111816e-02) (117, -5.40464511141180992126e-03) (118, -8.23202878236770629883e-02) (119, 1.80080421268939971924e-02) (120, -1.33895576000213623047e-02) (121, 2.96134110540151596069e-02) (122, 1.37598160654306411743e-02) (123, -2.78912670910358428955e-02) (124, -4.46012280881404876709e-02) (125, -5.93178384006023406982e-02) (126, -1.97819769382476806641e-02) (127, 8.36031436920166015625e-02) (128, 2.28666514158248901367e-01) (0, 9.62793305516242980957e-02) (1, 6.03682808578014373779e-02) (2, -2.94046998023986816406e-01) (3, 1.22251138091087341309e-01) (4, -8.61702561378479003906e-02) (5, 6.55621439218521118164e-02) (6, -8.46249759197235107422e-02) (7, -1.28937870264053344727e-01) (8, 1.10647797584533691406e-01) (9, -1.49729236960411071777e-01) (10, -1.92447230219841003418e-01) (11, 6.36957734823226928711e-02) (12, 7.48414546251296997070e-04) (13, -3.23518440127372741699e-02) (14, -9.99177992343902587891e-02) (15, 1.65337279438972473145e-01) (16, 1.81361153721809387207e-01) (17, 3.10893915593624114990e-02) (18, -4.04640138149261474609e-01) (19, 6.13100007176399230957e-02) (20, -2.72014029324054718018e-02) (21, 1.47394865751266479492e-01) (22, 1.44497752189636230469e-02) (23, -1.20878100395202636719e-01) (24, 4.28435578942298889160e-03) (25, -1.11180752515792846680e-01) (26, -1.47754371166229248047e-01) (27, 9.61373653262853622437e-03) (28, 6.47796541452407836914e-02) (29, -8.31395536661148071289e-02) (30, -3.61793413758277893066e-02) (31, 1.98473148047924041748e-02) (32, 1.36129438877105712891e-01) (33, 1.14004276692867279053e-02) (34, -2.48413413763046264648e-01) (35, 1.47907942533493041992e-01) (36, 8.06789100170135498047e-03) (37, 6.39786049723625183105e-02) (38, 2.13847979903221130371e-02) (39, -4.06282804906368255615e-02) (40, 1.81083716452121734619e-02) (41, -1.50641217827796936035e-01) (42, -1.59908637404441833496e-01) (43, 4.84909564256668090820e-02) (44, 4.98981066048145294189e-02) (45, -4.16659675538539886475e-02) (46, -2.95015797019004821777e-03) (47, 9.00476053357124328613e-02) (48, 6.31970092654228210449e-02) (49, 7.06612840294837951660e-02) (50, -5.62717430293560028076e-02) (51, -5.14090992510318756104e-02) (52, 6.69116899371147155762e-02) (53, 1.21168076992034912109e-01) (54, 5.37792965769767761230e-03) (55, 1.35142222046852111816e-01) (56, -7.10630863904953002930e-02) (57, 7.57840350270271301270e-02) (58, 2.27513327263295650482e-03) (59, 1.00483253598213195801e-01) (60, 8.80135297775268554688e-02) (61, -9.67554226517677307129e-02) (62, 9.96223315596580505371e-02) (63, 3.90158295631408691406e-02) (64, 3.63969169557094573975e-02) (65, 1.55686855316162109375e-01) (66, -3.24659615755081176758e-01) (67, 1.42413616180419921875e-01) (68, -4.92292009294033050537e-02) (69, 9.37421768903732299805e-02) (70, -9.57999527454376220703e-02) (71, 9.53518971800804138184e-03) (72, 4.69599924981594085693e-02) (73, -3.52873913943767547607e-02) (74, -1.24949954450130462646e-01) (75, -7.35077485442161560059e-02) (76, -4.40621636807918548584e-02) (77, -1.09739653766155242920e-01) (78, -2.38515436649322509766e-04) (79, 1.63050308823585510254e-01) (80, 9.80704203248023986816e-02) (81, 3.88587601482868194580e-02) (82, -2.55075879395008087158e-02) (83, 6.49821087718009948730e-02) (84, 1.82471033185720443726e-02) (85, 3.80906239151954650879e-02) (86, 1.65648460388183593750e-02) (87, 8.89637544751167297363e-02) (88, -2.79050655663013458252e-02) (89, -8.11600163578987121582e-02) (90, 5.88753214105963706970e-03) (91, -8.16712751984596252441e-02) (92, -7.79154449701309204102e-02) (93, 5.50986547023057937622e-03) (94, 5.73445558547973632812e-02) (95, -2.66456436365842819214e-02) (96, 8.29486474394798278809e-02) (97, 3.71629260480403900146e-02) (98, -3.95815432071685791016e-01) (99, 1.31668224930763244629e-01) (100, 6.20104297995567321777e-02) (101, 1.05401650071144104004e-01) (102, -5.63818551599979400635e-02) (103, -5.03735654056072235107e-02) (104, -2.60266996920108795166e-02) (105, 3.90893742442131042480e-02) (106, -1.06857441365718841553e-01) (107, -4.04546819627285003662e-02) (108, -3.77590768039226531982e-02) (109, -8.89355093240737915039e-02) (110, -9.41827595233917236328e-02) (111, 4.22680005431175231934e-03) (112, 1.28851786255836486816e-01) (113, 1.74584500491619110107e-02) (114, 4.85006682574748992920e-02) (115, 5.31914224848151206970e-03) (116, 7.19896182417869567871e-02) (117, -3.49344871938228607178e-02) (118, -4.74968329071998596191e-02) (119, -9.76951867341995239258e-02) (120, -1.60945001989603042603e-02) (121, 5.83907030522823333740e-02) (122, -7.93664678931236267090e-02) (123, 5.99005213007330894470e-03) (124, -3.60994301736354827881e-02) (125, 7.79780894517898559570e-02) (126, 7.93444141745567321777e-02) (127, 6.17220886051654815674e-02) (128, -6.45448639988899230957e-03) (0, 1.11729308962821960449e-01) (1, 6.95431977510452270508e-02) (2, -2.19510167837142944336e-01) (3, 2.61602163314819335938e-01) (4, -1.89691454172134399414e-01) (5, 1.95978149771690368652e-01) (6, 2.71922111511230468750e-01) (7, -2.16726586222648620605e-01) (8, -2.38038286566734313965e-01) (9, -1.37484297156333923340e-01) (10, -1.98851510882377624512e-01) (11, -1.86255961656570434570e-01) (12, 7.70815014839172363281e-02) (13, 4.52677346765995025635e-03) (14, -1.88643373548984527588e-02) (15, 9.33296084403991699219e-02) (16, 1.17460995912551879883e-01) (17, 1.10424295067787170410e-01) (18, -1.21374391019344329834e-01) (19, 2.19921901822090148926e-01) (20, -2.02915370464324951172e-01) (21, 2.10906878113746643066e-01) (22, 2.76227951049804687500e-01) (23, -7.13784992694854736328e-02) (24, -1.13779008388519287109e-01) (25, -8.60326513648033142090e-02) (26, -2.16830745339393615723e-01) (27, -1.32231891155242919922e-01) (28, 6.49115070700645446777e-02) (29, -7.70286619663238525391e-02) (30, 9.98535007238388061523e-02) (31, 3.01126707345247268677e-02) (32, 2.10314586758613586426e-01) (33, -4.98054325580596923828e-02) (34, -2.19471707940101623535e-01) (35, 2.77227878570556640625e-01) (36, -1.03764966130256652832e-01) (37, 8.55335071682929992676e-02) (38, 2.78965115547180175781e-01) (39, -1.07432395219802856445e-01) (40, -2.25913047790527343750e-01) (41, -1.32721006870269775391e-01) (42, -2.45385542511940002441e-01) (43, -1.45505040884017944336e-01) (44, 1.20741575956344604492e-01) (45, -8.83384793996810913086e-03) (46, -1.26677900552749633789e-02) (47, 9.16744470596313476562e-02) (48, -6.77069425582885742188e-02) (49, 8.91755595803260803223e-02) (50, 9.76746715605258941650e-03) (51, -5.14129213988780975342e-02) (52, 7.94635415077209472656e-02) (53, -1.08980461955070495605e-02) (54, -1.32522508502006530762e-02) (55, 2.69092191010713577271e-02) (56, 1.09505774453282356262e-02) (57, 2.53330040723085403442e-02) (58, 8.88570696115493774414e-02) (59, 1.39095366001129150391e-01) (60, -3.78355085849761962891e-02) (61, 6.60466104745864868164e-02) (62, -3.50797250866889953613e-02) (63, 8.53815823793411254883e-02) (64, 2.56705164909362792969e-01) (65, 3.79637442529201507568e-02) (66, -1.07765071094036102295e-01) (67, 2.09545001387596130371e-01) (68, -1.26440450549125671387e-01) (69, 2.04283073544502258301e-01) (70, 1.20576441287994384766e-01) (71, -1.17982670664787292480e-01) (72, -1.02400138974189758301e-01) (73, -1.37643784284591674805e-01) (74, -2.15184912085533142090e-01) (75, -1.78332060575485229492e-01) (76, 1.02458164095878601074e-01) (77, 2.75633484125137329102e-02) (78, -4.71499599516391754150e-02) (79, 7.53206163644790649414e-02) (80, -5.92505326494574546814e-03) (81, -2.35223900526762008667e-02) (82, 1.46571636199951171875e-01) (83, -2.64614149928092956543e-02) (84, 2.10362672805786132812e-03) (85, -3.01564559340476989746e-02) (86, -2.65040583908557891846e-02) (87, -2.34698280692100524902e-02) (88, 3.17005664110183715820e-02) (89, -3.76469902694225311279e-02) (90, 8.86737480759620666504e-02) (91, 3.03891655057668685913e-02) (92, -7.16003850102424621582e-02) (93, -4.64059710502624511719e-02) (94, 1.57707463949918746948e-02) (95, 9.80072990059852600098e-02) (96, 2.32021763920783996582e-01) (97, 5.20840287208557128906e-04) (98, -1.62822291254997253418e-01) (99, 1.62186130881309509277e-01) (100, -4.51337322592735290527e-02) (101, 1.90837129950523376465e-01) (102, 2.62667238712310791016e-01) (103, -1.13163053989410400391e-01) (104, -1.20768859982490539551e-01) (105, -1.65352299809455871582e-01) (106, -2.43192300200462341309e-01) (107, -2.14984208345413208008e-01) (108, 1.11146852374076843262e-01) (109, -3.49262170493602752686e-02) (110, 9.98440980911254882812e-02) (111, -5.42087629437446594238e-02) (112, 8.23633074760437011719e-02) (113, 1.23751796782016754150e-01) (114, -8.49581286311149597168e-02) (115, -7.90089294314384460449e-02) (116, 6.66434913873672485352e-02) (117, -1.14621883258223533630e-02) (118, -6.59547224640846252441e-02) (119, -6.51318356394767761230e-02) (120, 5.08908145129680633545e-02) (121, -7.72809684276580810547e-02) (122, 6.52573332190513610840e-02) (123, 7.92904421687126159668e-02) (124, -2.36869454383850097656e-02) (125, -1.89719144254922866821e-02) (126, 7.72977396845817565918e-02) (127, -7.87626579403877258301e-02) (128, 9.83913242816925048828e-02) (0, -2.09040105342864990234e-01) (1, -3.39132659137248992920e-02) (2, -1.74383118748664855957e-01) (3, -1.37800484895706176758e-01) (4, -2.50139951705932617188e-01) (5, -1.30919385701417922974e-02) (6, -1.61747127771377563477e-01) (7, 2.17428684234619140625e-01) (8, 1.85322538018226623535e-01) (9, -1.52957931160926818848e-01) (10, 8.20120051503181457520e-02) (11, 3.71610559523105621338e-02) (12, 9.91191342473030090332e-02) (13, -3.53154167532920837402e-03) (14, -1.34712085127830505371e-01) (15, 1.23238690197467803955e-01) (16, -1.07762545347213745117e-01) (17, -5.64404837787151336670e-02) (18, -2.29047954082489013672e-01) (19, -2.54727452993392944336e-01) (20, -2.04395681619644165039e-01) (21, 3.42112332582473754883e-02) (22, -2.68239080905914306641e-01) (23, 2.79887109994888305664e-01) (24, 1.85659289360046386719e-01) (25, -1.22830890119075775146e-01) (26, 1.09879150986671447754e-01) (27, 7.61160627007484436035e-02) (28, 1.29363745450973510742e-01) (29, 4.05936948955059051514e-02) (30, -7.97290727496147155762e-02) (31, 5.35645708441734313965e-02) (32, -2.19748616218566894531e-01) (33, 8.65425392985343933105e-02) (34, -9.82660800218582153320e-02) (35, -2.30547010898590087891e-01) (36, -2.53566622734069824219e-01) (37, 3.76802682876586914062e-02) (38, -1.64240166544914245605e-01) (39, 2.62112140655517578125e-01) (40, 1.74097746610641479492e-01) (41, -2.56508827209472656250e-01) (42, 1.12315967679023742676e-01) (43, 1.10933333635330200195e-01) (44, 1.64980933070182800293e-01) (45, 3.72054539620876312256e-02) (46, -9.21444669365882873535e-02) (47, 1.90459281206130981445e-01) (48, -7.62668102979660034180e-02) (49, 1.23061779886484146118e-02) (50, -9.49255563318729400635e-03) (51, -5.81817049533128738403e-03) (52, -1.30678210407495498657e-02) (53, -8.42921622097492218018e-03) (54, 1.72780990600585937500e-01) (55, 4.13839370012283325195e-02) (56, 8.64930078387260437012e-02) (57, 1.42261728644371032715e-01) (58, 9.14322510361671447754e-02) (59, 1.29576012492179870605e-01) (60, 4.75482940673828125000e-02) (61, -3.81724499166011810303e-02) (62, 6.21531717479228973389e-02) (63, 9.71969366073608398438e-02) (64, -2.28183329105377197266e-01) (65, 5.44175095856189727783e-02) (66, -2.11824297904968261719e-01) (67, -2.42408350110054016113e-01) (68, -2.34919503331184387207e-01) (69, 1.21628977358341217041e-01) (70, -1.31418138742446899414e-01) (71, 2.69534498453140258789e-01) (72, 1.54495552182197570801e-01) (73, -1.93382814526557922363e-01) (74, -6.48939982056617736816e-03) (75, -4.28070574998855590820e-02) (76, 6.88439533114433288574e-02) (77, -3.90322953462600708008e-02) (78, 2.13357321918010711670e-02) (79, 1.56420752406120300293e-01) (80, -7.66017436981201171875e-02) (81, 7.65360146760940551758e-02) (82, 4.78250905871391296387e-04) (83, 1.03304218500852584839e-02) (84, 8.26752409338951110840e-02) (85, -1.21722314506769180298e-02) (86, -1.91487260162830352783e-02) (87, 1.54599741101264953613e-01) (88, 1.44657939672470092773e-01) (89, -2.77164764702320098877e-02) (90, 1.33127691224217414856e-02) (91, 6.77473563700914382935e-03) (92, 3.41110825538635253906e-02) (93, -2.45340652763843536377e-02) (94, 3.97167215123772621155e-03) (95, 7.53250345587730407715e-02) (96, -2.46670022606849670410e-01) (97, 8.26777294278144836426e-02) (98, -2.45557576417922973633e-01) (99, -2.42247894406318664551e-01) (100, -1.22710503637790679932e-01) (101, 1.20717801153659820557e-01) (102, -1.23835287988185882568e-01) (103, 3.62141281366348266602e-01) (104, 2.16710373759269714355e-01) (105, -1.04605324566364288330e-01) (106, 1.32376983761787414551e-01) (107, 1.23270779848098754883e-01) (108, 8.13836827874183654785e-02) (109, 1.33142955601215362549e-02) (110, -4.66249249875545501709e-02) (111, 1.68625563383102416992e-01) (112, 1.25406175851821899414e-01) (113, 1.03977657854557037354e-01) (114, 5.79685568809509277344e-02) (115, 2.26499196141958236694e-02) (116, 2.09423787891864776611e-02) (117, -6.11801669001579284668e-02) (118, -8.18183459341526031494e-03) (119, -1.98311861604452133179e-02) (120, 1.11033562570810317993e-02) (121, -9.48690697550773620605e-02) (122, 8.69435593485832214355e-02) (123, -5.47855608165264129639e-02) (124, -1.94031354039907455444e-02) (125, -9.08477883785963058472e-03) (126, -7.94605314731597900391e-02) (127, 3.32413916476070880890e-03) (128, 5.18683716654777526855e-02) (0, 3.03639858961105346680e-01) (1, 1.55181095004081726074e-01) (2, -3.95828485488891601562e-02) (3, 2.31884405016899108887e-01) (4, 6.79476633667945861816e-02) (5, 2.08462223410606384277e-01) (6, -1.62584632635116577148e-02) (7, -2.34109893441200256348e-01) (8, 1.57221570611000061035e-01) (9, -9.70886647701263427734e-02) (10, -1.52166336774826049805e-01) (11, 3.12385946512222290039e-01) (12, -6.84979781508445739746e-02) (13, 8.94131958484649658203e-02) (14, 2.60337069630622863770e-02) (15, 8.93075317144393920898e-02) (16, 3.56016129255294799805e-01) (17, 1.23915576841682195663e-03) (18, -1.29709225147962570190e-02) (19, 3.47379535436630249023e-01) (20, 6.03566989302635192871e-02) (21, 1.39821156859397888184e-01) (22, -7.51628503203392028809e-02) (23, -2.35149279236793518066e-01) (24, 8.35454687476158142090e-02) (25, -9.34132039546966552734e-02) (26, 1.77197009325027465820e-02) (27, 1.66186437010765075684e-01) (28, 5.22175207734107971191e-02) (29, 2.95537263154983520508e-02) (30, 6.29630312323570251465e-03) (31, 1.49833038449287414551e-01) (32, 3.04164379835128784180e-01) (33, 7.74224549531936645508e-02) (34, -3.93306612968444824219e-02) (35, 3.68151336908340454102e-01) (36, 3.87142971158027648926e-02) (37, 1.52852579951286315918e-01) (38, -5.54716698825359344482e-02) (39, -2.75951594114303588867e-01) (40, 1.18279345333576202393e-02) (41, -9.92422699928283691406e-02) (42, -1.54269754886627197266e-01) (43, 2.09247693419456481934e-01) (44, -2.13871877640485763550e-02) (45, 4.36244569718837738037e-02) (46, 1.07160910964012145996e-01) (47, 1.28604575991630554199e-01) (48, 1.90094001591205596924e-02) (49, -8.43058824539184570312e-02) (50, 1.14806190133094787598e-01) (51, -7.71381556987762451172e-02) (52, 1.42762199044227600098e-01) (53, 1.75461754202842712402e-01) (54, 1.33561924099922180176e-01) (55, 5.50571270287036895752e-02) (56, -2.03848779201507568359e-02) (57, 1.23142153024673461914e-01) (58, -4.34494614601135253906e-02) (59, 7.74131994694471359253e-03) (60, -8.56701433658599853516e-02) (61, 2.61975061148405075073e-02) (62, 9.07902941107749938965e-02) (63, -2.67895106226205825806e-02) (64, 2.59698808193206787109e-01) (65, -1.18202983867377042770e-03) (66, -1.46189313381910324097e-02) (67, 2.94452428817749023438e-01) (68, 1.04500167071819305420e-01) (69, 1.38351097702980041504e-01) (70, 2.89876982569694519043e-02) (71, -1.55559346079826354980e-01) (72, -4.82719670981168746948e-03) (73, -1.68862883001565933228e-02) (74, -1.37015849351882934570e-01) (75, 2.39703387022018432617e-01) (76, 1.51800718158483505249e-02) (77, -5.79944290220737457275e-02) (78, -2.30863615870475769043e-02) (79, -2.65511963516473770142e-02) (80, -7.89496526122093200684e-02) (81, 5.33537641167640686035e-02) (82, 3.29600274562835693359e-02) (83, 1.63812533020973205566e-01) (84, 2.70988345146179199219e-02) (85, 1.64805248379707336426e-01) (86, -8.45637694001197814941e-02) (87, 8.43065511435270309448e-03) (88, 8.62307399511337280273e-02) (89, -2.80132293701171875000e-02) (90, -8.72614011168479919434e-02) (91, -1.15612742956727743149e-03) (92, 9.81842800974845886230e-02) (93, -9.64711010456085205078e-02) (94, 7.20543637871742248535e-02) (95, -8.74006375670433044434e-02) (96, 2.58425712585449218750e-01) (97, 4.79376036673784255981e-03) (98, 5.10710366070270538330e-02) (99, 3.58965188264846801758e-01) (100, 9.59744527935981750488e-02) (101, 8.85004699230194091797e-02) (102, 1.38926962390542030334e-02) (103, -1.80740132927894592285e-01) (104, 2.76781823486089706421e-02) (105, -1.47273940965533256531e-02) (106, -1.31741002202033996582e-01) (107, 3.08775991201400756836e-01) (108, 1.15720078349113464355e-01) (109, 1.70331802219152450562e-02) (110, 9.08305048942565917969e-02) (111, -2.39702556282281875610e-02) (112, 3.54543179273605346680e-02) (113, 1.87141165137290954590e-01) (114, 7.30582475662231445312e-02) (115, 6.08364343643188476562e-02) (116, 4.85130213201045989990e-02) (117, 8.84944796562194824219e-02) (118, 6.75503984093666076660e-02) (119, -6.69729709625244140625e-02) (120, -3.95187549293041229248e-02) (121, 8.02889987826347351074e-02) (122, 3.18709015846252441406e-02) (123, -4.13344800472259521484e-02) (124, 8.38178992271423339844e-02) (125, 3.92526388168334960938e-03) (126, -2.87351198494434356689e-02) (127, 9.69598889350891113281e-02) (128, 1.21230848133563995361e-01) (0, 3.84306401014328002930e-01) (1, 1.15657016634941101074e-01) (2, -3.32944095134735107422e-01) (3, -5.73591105639934539795e-02) (4, -1.34496867656707763672e-01) (5, 8.18684101104736328125e-02) (6, 6.18943460285663604736e-02) (7, -1.76843836903572082520e-01) (8, 1.37317985296249389648e-01) (9, 2.14109942317008972168e-03) (10, -3.71160767972469329834e-02) (11, 1.23128727078437805176e-01) (12, -1.23063921928405761719e-01) (13, -4.11205254495143890381e-02) (14, 4.22579720616340637207e-02) (15, 2.36296981573104858398e-01) (16, 2.70114600658416748047e-01) (17, 9.50134694576263427734e-02) (18, -2.47062370181083679199e-01) (19, -5.70871494710445404053e-02) (20, -1.37301206588745117188e-01) (21, 2.37384662032127380371e-01) (22, 6.62199109792709350586e-02) (23, -1.83915033936500549316e-01) (24, 1.84585630893707275391e-01) (25, 1.19332507252693176270e-01) (26, -5.02814352512359619141e-02) (27, -6.06221519410610198975e-03) (28, -8.87888073921203613281e-02) (29, -6.82884156703948974609e-02) (30, -1.15643069148063659668e-03) (31, 6.56370595097541809082e-02) (32, 2.27986291050910949707e-01) (33, 1.49746969342231750488e-01) (34, -3.11715334653854370117e-01) (35, 2.00990289449691772461e-02) (36, -2.27741330862045288086e-01) (37, 2.50652402639389038086e-01) (38, -2.47103832662105560303e-02) (39, -1.92147761583328247070e-01) (40, 1.22729808092117309570e-01) (41, 5.20135276019573211670e-02) (42, -9.94518622756004333496e-02) (43, 3.90852615237236022949e-02) (44, 6.58666715025901794434e-02) (45, 6.21990486979484558105e-02) (46, -7.91700780391693115234e-02) (47, 1.06100693345069885254e-01) (48, 3.40131036937236785889e-02) (49, -9.99442115426063537598e-02) (50, 1.26532897353172302246e-01) (51, -6.09822757542133331299e-02) (52, 1.83533042669296264648e-01) (53, 4.18061502277851104736e-02) (54, 1.29895552992820739746e-01) (55, 9.32970643043518066406e-02) (56, -8.98392498493194580078e-02) (57, 1.99007064104080200195e-01) (58, 1.40209204982966184616e-03) (59, 6.09486065804958343506e-02) (60, -4.05057258903980255127e-02) (61, -6.53945282101631164551e-02) (62, -1.89425405114889144897e-02) (63, -1.63365248590707778931e-02) (64, 2.30610296130180358887e-01) (65, 1.18829801678657531738e-01) (66, -3.76286804676055908203e-01) (67, -7.05214142799377441406e-02) (68, -8.98745059967041015625e-02) (69, 9.94762182235717773438e-02) (70, 6.93652927875518798828e-02) (71, -2.68869042396545410156e-01) (72, 2.21426099538803100586e-01) (73, 8.37534442543983459473e-02) (74, -6.02167025208473205566e-02) (75, 1.26712143421173095703e-01) (76, 9.26133245229721069336e-04) (77, -1.99938248842954635620e-02) (78, -1.21739536523818969727e-01) (79, 1.08875706791877746582e-01) (80, 1.44217973574995994568e-02) (81, 3.35689783096313476562e-02) (82, 1.13533616065979003906e-01) (83, 9.79548692703247070312e-02) (84, 6.97909519076347351074e-02) (85, 3.78449596464633941650e-02) (86, 8.00835117697715759277e-02) (87, 1.85535877943038940430e-01) (88, 3.12678143382072448730e-02) (89, -1.85144003480672836304e-02) (90, -6.46838918328285217285e-02) (91, -1.48220900446176528931e-02) (92, 1.60910729318857192993e-02) (93, 1.63735747337341308594e-02) (94, 6.88413903117179870605e-02) (95, 4.28842790424823760986e-02) (96, 2.81461149454116821289e-01) (97, 1.42042264342308044434e-01) (98, -2.07686379551887512207e-01) (99, -8.18036943674087524414e-02) (100, -2.17838197946548461914e-01) (101, 1.62152290344238281250e-01) (102, -1.86383537948131561279e-02) (103, -9.81365144252777099609e-02) (104, 1.15842044353485107422e-01) (105, 3.49849611520767211914e-02) (106, -1.85726210474967956543e-03) (107, 1.56187564134597778320e-01) (108, -1.30035221576690673828e-01) (109, -4.20385040342807769775e-03) (110, -8.94891321659088134766e-02) (111, 1.58323049545288085938e-01) (112, 6.93091377615928649902e-02) (113, 1.58404290676116943359e-01) (114, -8.92503038048744201660e-02) (115, -6.64841011166572570801e-02) (116, 8.50808843970298767090e-02) (117, 9.08332094550132751465e-02) (118, -8.65324065089225769043e-02) (119, -8.92354846000671386719e-02) (120, -2.76811905205249786377e-02) (121, -5.12162968516349792480e-02) (122, -4.05756849795579910278e-03) (123, 8.84098932147026062012e-02) (124, 6.51572719216346740723e-02) (125, -3.52161824703216552734e-02) (126, 3.12941670417785644531e-02) (127, -5.71985989809036254883e-02) (128, 5.48510365188121795654e-02) (0, 4.34577651321887969971e-02) (1, 5.92236630618572235107e-02) (2, -1.13862536847591400146e-01) (3, -2.25412368774414062500e-01) (4, -9.07402485609054565430e-04) (5, -1.28444179892539978027e-01) (6, -1.42438024282455444336e-01) (7, 5.78674823045730590820e-02) (8, 7.34288543462753295898e-02) (9, -5.94139732420444488525e-02) (10, 3.73969115316867828369e-02) (11, -6.03758282959461212158e-02) (12, 9.07600484788417816162e-03) (13, -3.89128699898719787598e-02) (14, 2.09087133407592773438e-03) (15, -4.84347753226757049561e-02) (16, 5.38906715810298919678e-02) (17, 1.76085844635963439941e-01) (18, -1.69669076800346374512e-01) (19, -1.26806870102882385254e-01) (20, -1.00992634892463684082e-01) (21, -1.44558265805244445801e-01) (22, -1.25341471284627914429e-02) (23, -8.30253064632415771484e-02) (24, 3.57215143740177154541e-02) (25, 8.29607844352722167969e-02) (26, -1.42295807600021362305e-01) (27, 3.65446843206882476807e-02) (28, 3.78742218017578125000e-02) (29, -9.41832512617111206055e-02) (30, -1.15446731448173522949e-01) (31, -5.69204725325107574463e-02) (32, 6.07474781572818756104e-02) (33, 9.87668186426162719727e-02) (34, -1.45038738846778869629e-01) (35, -2.07491427659988403320e-01) (36, 5.30273132026195526123e-02) (37, -7.14751780033111572266e-02) (38, -1.72654390335083007812e-01) (39, -1.54468081891536712646e-02) (40, 4.80184294283390045166e-02) (41, -6.87289535999298095703e-02) (42, -1.47376403212547302246e-01) (43, -1.35915234684944152832e-01) (44, 7.01097398996353149414e-02) (45, 1.41579136252403259277e-02) (46, -1.04326426982879638672e-01) (47, -1.42520610243082046509e-02) (48, 5.80292604863643646240e-02) (49, -3.22661809623241424561e-02) (50, 4.84180040657520294189e-02) (51, 6.12359046936035156250e-02) (52, -3.89878451824188232422e-02) (53, 3.75391393899917602539e-02) (54, -1.22187897562980651855e-01) (55, -1.14352956414222717285e-01) (56, 5.04842996597290039062e-02) (57, -1.05040252208709716797e-01) (58, -8.95200818777084350586e-02) (59, -7.61046707630157470703e-02) (60, -9.67708230018615722656e-03) (61, -5.08345253765583038330e-02) (62, -1.63291282951831817627e-02) (63, -7.68511742353439331055e-02) (64, 8.95070731639862060547e-02) (65, 1.12575918436050415039e-01) (66, -1.28330379724502563477e-01) (67, -1.24797090888023376465e-01) (68, -7.61946141719818115234e-02) (69, -8.49832147359848022461e-02) (70, -1.63274377584457397461e-01) (71, 2.99208611249923706055e-02) (72, 2.51954309642314910889e-02) (73, -4.41222675144672393799e-02) (74, 2.24518254399299621582e-02) (75, -9.77045297622680664062e-02) (76, -5.22128082811832427979e-02) (77, -1.22431144118309020996e-01) (78, -3.19329500198364257812e-02) (79, 9.54855382442474365234e-02) (80, -5.65040099900215864182e-04) (81, 6.03147735819220542908e-03) (82, 2.58917175233364105225e-03) (83, 6.04471154510974884033e-02) (84, -2.10152510553598403931e-02) (85, 1.58154275268316268921e-02) (86, -8.30775499343872070312e-02) (87, -1.05945110321044921875e-01) (88, 4.61893305182456970215e-02) (89, -7.25976303219795227051e-02) (90, -1.12214684486389160156e-02) (91, -2.80736088752746582031e-02) (92, -2.34321542084217071533e-02) (93, 7.24494010210037231445e-02) (94, -4.92478022351861000061e-03) (95, -6.18466474115848541260e-02) (96, 2.66000963747501373291e-02) (97, 1.40688613057136535645e-01) (98, -3.06315626949071884155e-02) (99, -1.16925984621047973633e-01) (100, -6.15899227559566497803e-02) (101, 2.20956318080425262451e-02) (102, -1.10035583376884460449e-01) (103, 2.17025019228458404541e-02) (104, -4.31190505623817443848e-02) (105, -2.10552401840686798096e-02) (106, -1.47555768489837646484e-01) (107, -8.83415490388870239258e-02) (108, 3.42651680111885070801e-02) (109, -2.00452804565429687500e-02) (110, -1.12832367420196533203e-01) (111, -7.66307711601257324219e-02) (112, -9.52956676483154296875e-02) (113, 4.38891053199768066406e-02) (114, -9.94876474142074584961e-02) (115, 1.91032290458679199219e-02) (116, 3.05328257381916046143e-02) (117, -8.25651958584785461426e-02) (118, 4.85722683370113372803e-02) (119, 1.21362926438450813293e-02) (120, -5.51628246903419494629e-02) (121, -6.26491978764533996582e-02) (122, 8.40626880526542663574e-02) (123, 2.14050300419330596924e-02) (124, -9.01997983455657958984e-02) (125, -2.08620969206094741821e-02) (126, 5.95583803951740264893e-02) (127, 8.47874861210584640503e-03) (128, -1.01934403181076049805e-01) (0, 4.41779017448425292969e-01) (1, 1.70953676104545593262e-01) (2, -3.79994988441467285156e-01) (3, -7.66943767666816711426e-02) (4, -2.90359184145927429199e-02) (5, -9.12489444017410278320e-02) (6, 1.01724371314048767090e-01) (7, -3.02383571863174438477e-01) (8, 2.43091747164726257324e-01) (9, -1.27381995320320129395e-01) (10, 1.09625965356826782227e-01) (11, 1.77330031991004943848e-01) (12, 1.49805536493659019470e-02) (13, -2.09303572773933410645e-02) (14, -1.12193845212459564209e-01) (15, 1.77696675062179565430e-01) (16, 4.35931444168090820312e-01) (17, 2.73795366287231445312e-01) (18, -2.82751053571701049805e-01) (19, -6.04535304009914398193e-02) (20, -6.92417174577713012695e-02) (21, -3.85868884623050689697e-02) (22, 1.17008090019226074219e-01) (23, -1.78753539919853210449e-01) (24, 2.67928838729858398438e-01) (25, -5.52257783710956573486e-02) (26, 1.37840077280998229980e-01) (27, 1.47218018770217895508e-01) (28, 5.39524015039205551147e-03) (29, -8.88886004686355590820e-02) (30, 5.10553941130638122559e-02) (31, 3.05331975221633911133e-01) (32, 4.02622818946838378906e-01) (33, 1.94030463695526123047e-01) (34, -3.73778402805328369141e-01) (35, -1.84415325522422790527e-01) (36, -6.47716373205184936523e-02) (37, -8.40860158205032348633e-02) (38, -5.14942221343517303467e-02) (39, -1.66939362883567810059e-01) (40, 2.60564029216766357422e-01) (41, -3.96202951669692993164e-02) (42, 1.18635989725589752197e-01) (43, 1.24212265014648437500e-01) (44, -2.83937454223632812500e-02) (45, 2.32897512614727020264e-03) (46, 3.73701080679893493652e-02) (47, 2.65695363283157348633e-01) (48, -2.85731498152017593384e-02) (49, 4.17973659932613372803e-02) (50, 1.62712186574935913086e-01) (51, 5.80027475953102111816e-02) (52, 1.31068915128707885742e-01) (53, 1.35660409927368164062e-01) (54, 1.85731679201126098633e-01) (55, 2.00600892305374145508e-01) (56, 2.62114405632019042969e-02) (57, 1.19458556175231933594e-01) (58, -5.45314326882362365723e-02) (59, 2.83925324678421020508e-01) (60, -4.21379990875720977783e-02) (61, -7.23818019032478332520e-02) (62, 5.05585186183452606201e-02) (63, 3.52296121418476104736e-02) (64, 4.11112129688262939453e-01) (65, 1.68655887246131896973e-01) (66, -3.16705167293548583984e-01) (67, -1.16616785526275634766e-02) (68, -8.29832404851913452148e-02) (69, 1.97686366736888885498e-02) (70, 5.67036382853984832764e-02) (71, -1.67678698897361755371e-01) (72, 2.52180427312850952148e-01) (73, -1.22412428259849548340e-01) (74, 6.47788643836975097656e-02) (75, 7.24543407559394836426e-02) (76, 1.12073451280593872070e-01) (77, -1.01964190602302551270e-01) (78, -1.26389130949974060059e-01) (79, 1.66913181543350219727e-01) (80, 7.09274187684059143066e-02) (81, -3.63849215209484100342e-02) (82, 2.93821662664413452148e-01) (83, 3.01996320486068725586e-01) (84, -4.52674645930528640747e-03) (85, 1.75751149654388427734e-01) (86, -5.00724324956536293030e-03) (87, 1.25486910343170166016e-01) (88, 1.91407486796379089355e-01) (89, 4.04613278806209564209e-02) (90, -9.81922373175621032715e-02) (91, 4.54672463238239288330e-02) (92, 6.80795311927795410156e-02) (93, 5.23662939667701721191e-02) (94, -1.93031430244445800781e-02) (95, -4.60635498166084289551e-02) (96, 5.10485708713531494141e-01) (97, 1.55867487192153930664e-01) (98, -4.25244748592376708984e-01) (99, -1.30499780178070068359e-01) (100, 8.08299239724874496460e-03) (101, 1.94269381463527679443e-02) (102, 1.37126237154006958008e-01) (103, -2.84996062517166137695e-01) (104, 3.69046568870544433594e-01) (105, -9.58469659090042114258e-02) (106, 9.57035794854164123535e-02) (107, 1.29787728190422058105e-01) (108, 3.43457311391830444336e-02) (109, -3.47987115383148193359e-02) (110, 3.21620553731918334961e-02) (111, 1.88686013221740722656e-01) (112, 2.63712853193283081055e-01) (113, 2.57078021764755249023e-01) (114, -4.80163767933845520020e-02) (115, -4.46161329746246337891e-02) (116, -7.47753605246543884277e-02) (117, 4.69763875007629394531e-02) (118, -2.29314398020505905151e-02) (119, 1.28298876807093620300e-02) (120, -1.25622870400547981262e-02) (121, -2.11236719042062759399e-02) (122, -4.17028665542602539062e-02) (123, -4.44827638566493988037e-02) (124, -6.87573850154876708984e-02) (125, 3.89939919114112854004e-02) (126, 9.45369061082601547241e-03) (127, -8.35269317030906677246e-02) (128, 2.62871950864791870117e-01) (0, 2.59373456239700317383e-01) (1, 3.69572341442108154297e-02) (2, 1.83394014835357666016e-01) (3, 7.08388909697532653809e-02) (4, 3.48700433969497680664e-02) (5, -2.15052872896194458008e-01) (6, -1.25427469611167907715e-02) (7, -3.95014017820358276367e-01) (8, -8.14091861248016357422e-02) (9, 6.19598701596260070801e-02) (10, -2.27093487977981567383e-01) (11, -1.22198112308979034424e-01) (12, 1.26850575208663940430e-01) (13, 4.33334298431873321533e-02) (14, 7.37965404987335205078e-02) (15, -2.41153120994567871094e-01) (16, 2.29051977396011352539e-01) (17, 1.06254316866397857666e-01) (18, 1.87845915555953979492e-01) (19, 4.40107211470603942871e-02) (20, -1.18306875228881835938e-02) (21, -3.15455287694931030273e-01) (22, 7.74169936776161193848e-02) (23, -4.16570514440536499023e-01) (24, -1.51048451662063598633e-02) (25, 7.61972144246101379395e-02) (26, -1.00269459187984466553e-01) (27, -2.13195323944091796875e-01) (28, 8.72853174805641174316e-02) (29, 1.32840991020202636719e-01) (30, 1.81958466768264770508e-01) (31, -2.93701082468032836914e-01) (32, 1.41113787889480590820e-01) (33, 8.20026919245719909668e-02) (34, 1.93849474191665649414e-01) (35, 7.67003521323204040527e-02) (36, 2.75036320090293884277e-02) (37, -1.67855650186538696289e-01) (38, -5.59947639703750610352e-02) (39, -4.23867553472518920898e-01) (40, 5.98631724715232849121e-02) (41, -1.08533360064029693604e-01) (42, -2.10268720984458923340e-01) (43, -1.28299474716186523438e-01) (44, 5.10890111327171325684e-02) (45, 9.48197320103645324707e-02) (46, 9.98217612504959106445e-03) (47, -1.60218834877014160156e-01) (48, -4.66908179223537445068e-02) (49, 5.20589239895343780518e-02) (50, -2.17925399541854858398e-01) (51, -2.57873181253671646118e-02) (52, -6.56942203640937805176e-02) (53, -7.35397413372993469238e-02) (54, -8.40127244591712951660e-02) (55, -1.67144924402236938477e-01) (56, 8.43684077262878417969e-02) (57, -1.52990281581878662109e-01) (58, 2.84035336226224899292e-02) (59, -1.64280235767364501953e-01) (60, -4.74895350635051727295e-02) (61, 2.50165220350027084351e-02) (62, 4.33746352791786193848e-02) (63, -2.54561491310596466064e-02) (64, 1.63680225610733032227e-01) (65, 3.92198041081428527832e-02) (66, 2.24605143070220947266e-01) (67, 9.19003710150718688965e-02) (68, 3.19180041551589965820e-02) (69, -1.80552005767822265625e-01) (70, 1.30351692438125610352e-01) (71, -4.78180915117263793945e-01) (72, 7.66736268997192382812e-02) (73, -1.05362132191658020020e-01) (74, -7.06833377480506896973e-02) (75, -1.87250554561614990234e-01) (76, 1.05746529996395111084e-01) (77, 1.70590743422508239746e-01) (78, 3.19653414189815521240e-02) (79, -1.62223696708679199219e-01) (80, 3.73041890561580657959e-02) (81, -1.33003117516636848450e-02) (82, -2.02665552496910095215e-01) (83, -1.28389999270439147949e-01) (84, -2.88348197937011718750e-02) (85, -2.28673040866851806641e-01) (86, -7.95244798064231872559e-02) (87, -2.02471658587455749512e-01) (88, -1.23658105731010437012e-01) (89, 4.88790646195411682129e-02) (90, 4.92585897445678710938e-02) (91, 8.68576094508171081543e-02) (92, -2.61044204235076904297e-02) (93, -7.36677041277289390564e-03) (94, -3.85985448956489562988e-02) (95, 1.84954050928354263306e-02) (96, 2.88514107465744018555e-01) (97, -1.19977071881294250488e-02) (98, 8.37567374110221862793e-02) (99, 2.11485773324966430664e-02) (100, -3.19958552718162536621e-02) (101, -3.35053980350494384766e-01) (102, 5.28663396835327148438e-03) (103, -3.25284302234649658203e-01) (104, -7.46571049094200134277e-02) (105, -9.08418148756027221680e-02) (106, -1.76737859845161437988e-01) (107, -8.39237719774246215820e-02) (108, -3.96214425563812255859e-03) (109, 8.65193903446197509766e-02) (110, 1.33287265896797180176e-01) (111, -1.87937363982200622559e-01) (112, -7.01316371560096740723e-02) (113, -2.54723757505416870117e-01) (114, -1.49714415892958641052e-02) (115, -4.09612171351909637451e-02) (116, -6.73863291740417480469e-02) (117, 5.50408381968736648560e-03) (118, 1.45723698660731315613e-02) (119, 6.69608116149902343750e-02) (120, -4.56168539822101593018e-02) (121, -3.61690409481525421143e-02) (122, 5.38184158504009246826e-02) (123, 2.82787326723337173462e-02) (124, 5.64641952514648437500e-02) (125, -8.47801268100738525391e-02) (126, -5.32258637249469757080e-02) (127, 2.58978735655546188354e-02) (128, -2.17202425003051757812e-01) (0, 2.97501623630523681641e-01) (1, -1.38917803764343261719e-01) (2, -8.18697139620780944824e-02) (3, -9.58843156695365905762e-02) (4, 6.34926483035087585449e-02) (5, -2.29796037077903747559e-01) (6, -1.08270995318889617920e-01) (7, -5.82233905792236328125e-01) (8, -1.40968650579452514648e-01) (9, -1.16562671959400177002e-01) (10, -1.26415282487869262695e-01) (11, 1.64072513580322265625e-02) (12, -9.85126662999391555786e-03) (13, -3.61521765589714050293e-02) (14, 1.01431168615818023682e-01) (15, -2.97728091478347778320e-01) (16, 3.51048380136489868164e-01) (17, -2.63653993606567382812e-01) (18, -4.30014841258525848389e-02) (19, -1.57486915588378906250e-01) (20, 1.81073501706123352051e-01) (21, -2.15033069252967834473e-01) (22, -1.54487460851669311523e-01) (23, -6.33685946464538574219e-01) (24, -2.26941287517547607422e-01) (25, -2.01315164566040039062e-01) (26, -3.95122766494750976562e-02) (27, -1.55519410967826843262e-01) (28, 4.22858260571956634521e-03) (29, 2.12353449314832687378e-02) (30, -1.75663027912378311157e-02) (31, -2.16822490096092224121e-01) (32, 2.83391058444976806641e-01) (33, -2.00149133801460266113e-01) (34, -1.03948988020420074463e-01) (35, -9.84092578291893005371e-02) (36, 1.62613168358802795410e-01) (37, -1.13183751702308654785e-01) (38, -8.46900269389152526855e-02) (39, -6.28816008567810058594e-01) (40, -1.82338014245033264160e-01) (41, -1.76584422588348388672e-01) (42, -2.02771425247192382812e-01) (43, -8.16217958927154541016e-02) (44, 2.08105687052011489868e-02) (45, 1.08287088572978973389e-01) (46, 6.33241608738899230957e-02) (47, -1.46693751215934753418e-01) (48, -8.16878378391265869141e-02) (49, -8.14889296889305114746e-02) (50, -2.92313337326049804688e-01) (51, 6.81320428848266601562e-02) (52, -2.54420101642608642578e-01) (53, -2.08772107958793640137e-01) (54, -1.38518407940864562988e-01) (55, -2.53231525421142578125e-01) (56, 2.33491063117980957031e-02) (57, -1.68403357267379760742e-01) (58, -1.65217462927103042603e-02) (59, -1.38358145952224731445e-01) (60, -5.20891547203063964844e-02) (61, 4.06895168125629425049e-02) (62, 1.06443883851170539856e-02) (63, 3.90747794881463050842e-03) (64, 2.66836345195770263672e-01) (65, -1.68795302510261535645e-01) (66, 6.87322840094566345215e-02) (67, -1.58434789627790451050e-02) (68, 1.10579304397106170654e-01) (69, -1.16921469569206237793e-01) (70, -4.87063750624656677246e-02) (71, -5.22219240665435791016e-01) (72, -4.60974834859371185303e-02) (73, -1.69569309800863265991e-02) (74, -1.94203734397888183594e-01) (75, -1.14719435572624206543e-01) (76, 1.24877348542213439941e-01) (77, 7.87477642297744750977e-02) (78, -1.87391582876443862915e-02) (79, -1.47968754172325134277e-01) (80, 7.20364004373550415039e-02) (81, -1.59735810011625289917e-02) (82, -1.54614284634590148926e-01) (83, -2.82383710145950317383e-01) (84, 9.55556184053421020508e-02) (85, -1.72831386327743530273e-01) (86, 4.98743075877428054810e-03) (87, -2.01396569609642028809e-01) (88, -2.20933452248573303223e-01) (89, 8.84656831622123718262e-02) (90, 8.47864139359444379807e-04) (91, 4.72786910831928253174e-02) (92, 2.91551947593688964844e-02) (93, -8.85077491402626037598e-02) (94, -4.88138310611248016357e-02) (95, 6.85971006751060485840e-02) (96, 3.68992924690246582031e-01) (97, -2.55572199821472167969e-01) (98, 1.59877110272645950317e-02) (99, -1.65720760822296142578e-01) (100, 2.20064684748649597168e-01) (101, -1.33682385087013244629e-01) (102, -9.19868722558021545410e-02) (103, -4.76493299007415771484e-01) (104, -1.03230893611907958984e-01) (105, -5.16697242856025695801e-02) (106, -1.81575447320938110352e-01) (107, -6.77860677242279052734e-02) (108, 6.06252104043960571289e-02) (109, 9.31273028254508972168e-03) (110, 2.69191917032003402710e-02) (111, -2.58496701717376708984e-01) (112, -1.52184575796127319336e-01) (113, -2.52917557954788208008e-01) (114, 2.49446984380483627319e-02) (115, 6.36723265051841735840e-02) (116, -8.51463228464126586914e-02) (117, -7.00678750872611999512e-02) (118, -1.74229629337787628174e-02) (119, 1.42215257510542869568e-02) (120, -8.16021934151649475098e-02) (121, 8.34249183535575866699e-02) (122, -3.84997911751270294189e-02) (123, 4.75530028343200683594e-02) (124, 9.49171707034111022949e-02) (125, 1.26863718032836914062e-02) (126, 1.61501057446002960205e-02) (127, 3.65156531333923339844e-02) (128, -1.64285585284233093262e-01) (0, -4.05958592891693115234e-02) (1, 1.10204704105854034424e-01) (2, 2.21696823835372924805e-01) (3, 2.58576665073633193970e-02) (4, 7.80711770057678222656e-02) (5, -2.30204030871391296387e-01) (6, -3.79468649625778198242e-02) (7, -8.77960398793220520020e-02) (8, -3.28796170651912689209e-02) (9, 1.37642268091440200806e-02) (10, 1.13489434123039245605e-01) (11, -8.04355889558792114258e-02) (12, -1.00755162537097930908e-01) (13, -4.08506989479064941406e-02) (14, 8.81137773394584655762e-02) (15, 2.28256527334451675415e-02) (16, 9.57648232579231262207e-02) (17, 1.12366326153278350830e-01) (18, 2.74114519357681274414e-01) (19, -1.36570319533348083496e-01) (20, 1.67680848389863967896e-02) (21, -2.34408274292945861816e-01) (22, -1.06876060366630554199e-01) (23, -1.27139568328857421875e-01) (24, -3.63553594797849655151e-03) (25, 1.88246205449104309082e-01) (26, -4.59276065230369567871e-02) (27, -2.25954037159681320190e-02) (28, -1.11819803714752197266e-01) (29, 4.92208600044250488281e-02) (30, -6.61470815539360046387e-02) (31, -7.40196555852890014648e-05) (32, 1.83315221220254898071e-02) (33, 1.39259904623031616211e-01) (34, 2.20630615949630737305e-01) (35, -1.40454158186912536621e-01) (36, 7.67548829317092895508e-02) (37, -2.92945235967636108398e-01) (38, -6.42108023166656494141e-02) (39, -1.06855541467666625977e-01) (40, -1.10362425446510314941e-01) (41, 6.32961094379425048828e-02) (42, 7.25167896598577499390e-03) (43, 7.29983821511268615723e-02) (44, -8.59553813934326171875e-02) (45, -3.81864011287689208984e-02) (46, 5.58217987418174743652e-02) (47, -3.78489419817924499512e-02) (48, -7.07695931196212768555e-02) (49, 6.08816407620906829834e-02) (50, -2.38228123635053634644e-02) (51, -2.85911019891500473022e-02) (52, -9.50328335165977478027e-02) (53, 1.64164546877145767212e-02) (54, -7.03681632876396179199e-02) (55, -1.22066617012023925781e-01) (56, 7.15892240405082702637e-02) (57, -4.98475953936576843262e-02) (58, 3.09664141386747360229e-02) (59, -9.18488577008247375488e-02) (60, -2.54309177398681640625e-02) (61, 7.26346895098686218262e-02) (62, -6.49773031473159790039e-02) (63, 8.90451446175575256348e-02) (64, 6.29852041602134704590e-02) (65, 1.31548136472702026367e-01) (66, 8.38728398084640502930e-02) (67, -9.71167534589767456055e-02) (68, 6.30193389952182769775e-03) (69, -2.55966931581497192383e-01) (70, -3.99329066276550292969e-02) (71, -5.47912716865539550781e-02) (72, -2.38522402942180633545e-02) (73, 1.81336179375648498535e-01) (74, 1.27498814836144447327e-02) (75, -2.56916712969541549683e-02) (76, -1.65250957012176513672e-01) (77, -6.49801641702651977539e-02) (78, -1.03542886674404144287e-01) (79, -7.98234716057777404785e-02) (80, -9.62831750512123107910e-02) (81, 4.78301160037517547607e-02) (82, -1.62299294024705886841e-02) (83, -9.13160070776939392090e-02) (84, 3.16270478069782257080e-02) (85, -1.19217619299888610840e-01) (86, 2.13782917708158493042e-02) (87, -6.41641989350318908691e-02) (88, -1.68476067483425140381e-03) (89, -4.76553030312061309814e-02) (90, 7.87478834390640258789e-02) (91, -5.97352236509323120117e-02) (92, -7.50206112861633300781e-02) (93, -8.62294211983680725098e-02) (94, -7.06900805234909057617e-02) (95, 8.41091275215148925781e-02) (96, 9.64093133807182312012e-02) (97, -1.09224226325750350952e-02) (98, 1.22274219989776611328e-01) (99, -1.34145602583885192871e-01) (100, 1.00809633731842041016e-01) (101, -1.93287685513496398926e-01) (102, -2.48974803835153579712e-02) (103, -7.37734138965606689453e-02) (104, -4.31328751146793365479e-02) (105, 1.86985917389392852783e-03) (106, 9.50777083635330200195e-02) (107, 7.57321119308471679688e-02) (108, -1.71511083841323852539e-01) (109, 5.79829737544059753418e-02) (110, -4.40936312079429626465e-02) (111, -1.11597158014774322510e-01) (112, -5.37520051002502441406e-02) (113, -1.52508214116096496582e-01) (114, 2.40323897451162338257e-02) (115, -5.47445006668567657471e-02) (116, -3.69649045169353485107e-02) (117, -5.45893162488937377930e-02) (118, 4.84717600047588348389e-02) (119, -7.12692067027091979980e-02) (120, -2.24461569450795650482e-03) (121, 2.72196531295776367188e-02) (122, -3.10044288635253906250e-02) (123, 2.27347742766141891479e-02) (124, 4.09902222454547882080e-02) (125, -1.69450638350099325180e-03) (126, 6.84390077367424964905e-03) (127, 3.35440747439861297607e-02) (128, -3.27622592449188232422e-02) (0, 5.56791245937347412109e-01) (1, 2.58398205041885375977e-01) (2, 2.41473857313394546509e-02) (3, 2.71663546562194824219e-01) (4, 1.75499334931373596191e-01) (5, -2.16922998428344726562e-01) (6, -1.68253913521766662598e-01) (7, -4.39739137887954711914e-01) (8, 4.39480990171432495117e-02) (9, 8.07069987058639526367e-02) (10, -1.89964398741722106934e-02) (11, -6.85386359691619873047e-03) (12, 2.11844921112060546875e-01) (13, 1.07937477529048919678e-01) (14, 1.15034826099872589111e-01) (15, 4.59849871695041656494e-02) (16, 5.02238690853118896484e-01) (17, 1.26603916287422180176e-01) (18, 1.27221852540969848633e-01) (19, 3.09935063123703002930e-01) (20, 2.69958883523941040039e-01) (21, -1.64087295532226562500e-01) (22, -1.65695890784263610840e-01) (23, -4.19475853443145751953e-01) (24, 4.25352482125163078308e-03) (25, 2.22019687294960021973e-01) (26, -1.01994000375270843506e-01) (27, 8.59587118029594421387e-02) (28, 1.96279793977737426758e-01) (29, 1.10516048967838287354e-01) (30, 2.88371481001377105713e-02) (31, -3.22043262422084808350e-02) (32, 5.38595139980316162109e-01) (33, 2.55988955497741699219e-01) (34, 9.08320769667625427246e-02) (35, 1.80908948183059692383e-01) (36, 1.90679997205734252930e-01) (37, -1.90904319286346435547e-01) (38, -1.11033305525779724121e-01) (39, -3.24640750885009765625e-01) (40, 1.30724534392356872559e-01) (41, 7.96426758170127868652e-02) (42, -8.10171291232109069824e-02) (43, 1.29602849483489990234e-04) (44, 3.20721954107284545898e-01) (45, -2.12907157838344573975e-02) (46, 1.09267435967922210693e-01) (47, 3.76852788031101226807e-02) (48, -2.95491516590118408203e-02) (49, 3.89057509601116180420e-02) (50, 1.50658227503299713135e-02) (51, -5.50614409148693084717e-02) (52, 1.10930964350700378418e-01) (53, 5.59273697435855865479e-02) (54, 1.26027658581733703613e-01) (55, 1.72570049762725830078e-01) (56, -5.98580650985240936279e-02) (57, 1.68725222349166870117e-01) (58, 5.31328916549682617188e-02) (59, 8.99638980627059936523e-02) (60, 6.55851587653160095215e-02) (61, -5.23043535649776458740e-02) (62, 3.32704558968544006348e-02) (63, -3.62902879714965820312e-04) (64, 4.07639980316162109375e-01) (65, 1.61381378769874572754e-01) (66, 7.70263299345970153809e-02) (67, 2.65134334564208984375e-01) (68, 1.22091054916381835938e-01) (69, -3.47489446401596069336e-01) (70, -1.11709520220756530762e-01) (71, -5.06453275680541992188e-01) (72, -2.69249156117439270020e-02) (73, 2.16945782303810119629e-01) (74, -5.58462068438529968262e-02) (75, -4.86428365111351013184e-02) (76, 1.28796875476837158203e-01) (77, -1.88718363642692565918e-03) (78, 5.21952845156192779541e-02) (79, 1.85155011713504791260e-02) (80, -9.72558185458183288574e-02) (81, 5.36049604415893554688e-02) (82, 9.77284163236618041992e-02) (83, 1.13675162196159362793e-01) (84, -6.98494315147399902344e-02) (85, 4.43743802607059478760e-02) (86, 2.74817589670419692993e-02) (87, 4.96742762625217437744e-02) (88, 3.37178744375705718994e-02) (89, -1.93853564560413360596e-02) (90, 8.08746740221977233887e-02) (91, -8.00787359476089477539e-02) (92, 2.83102989196777343750e-02) (93, 1.41451237723231315613e-02) (94, 1.95583701133728027344e-02) (95, 3.14069502055644989014e-02) (96, 5.79481780529022216797e-01) (97, 1.33863523602485656738e-01) (98, -6.97843451052904129028e-03) (99, 1.68387249112129211426e-01) (100, 1.37988045811653137207e-01) (101, -2.32170432806015014648e-01) (102, -1.90269127488136291504e-01) (103, -4.48205709457397460938e-01) (104, 2.56971865892410278320e-02) (105, 1.63557097315788269043e-01) (106, -4.63710948824882507324e-02) (107, 1.20541676878929138184e-02) (108, 2.94811725616455078125e-01) (109, -4.94842082262039184570e-02) (110, 9.37225446105003356934e-02) (111, 1.16823673248291015625e-01) (112, 1.49228110909461975098e-01) (113, 5.71766234934329986572e-02) (114, 6.00976962596178054810e-03) (115, 9.99969393014907836914e-02) (116, 4.27874587476253509521e-02) (117, -6.65084794163703918457e-02) (118, -2.97105498611927032471e-02) (119, 9.71235632896423339844e-02) (120, 1.41061665490269660950e-02) (121, -4.88358810544013977051e-02) (122, -8.29551666975021362305e-02) (123, -5.75835369527339935303e-02) (124, 6.53092414140701293945e-02) (125, 3.66032011806964874268e-02) (126, 7.38234147429466247559e-02) (127, 4.02477495372295379639e-02) (128, 1.49260506033897399902e-01) (0, -1.29650220274925231934e-01) (1, 1.29739969968795776367e-01) (2, -7.61060640215873718262e-02) (3, 8.71564745903015136719e-02) (4, 2.43728220462799072266e-01) (5, 2.36043334007263183594e-02) (6, -1.37746587395668029785e-01) (7, -1.24942995607852935791e-01) (8, -1.28020942211151123047e-02) (9, 8.31005796790122985840e-02) (10, -3.83805893361568450928e-02) (11, 1.89263328909873962402e-01) (12, -1.91904112696647644043e-01) (13, -7.90685862302780151367e-02) (14, 8.67961496114730834961e-02) (15, -1.01578466594219207764e-01) (16, -2.32596471905708312988e-02) (17, 1.57712176442146301270e-01) (18, -1.12522328272461891174e-02) (19, 1.02478221058845520020e-01) (20, 1.25701531767845153809e-01) (21, 1.26042300835251808167e-02) (22, -9.14013832807540893555e-02) (23, -9.69393029808998107910e-02) (24, -1.05077870190143585205e-01) (25, 8.58221948146820068359e-02) (26, -1.40397846698760986328e-02) (27, 1.73493567854166030884e-02) (28, -1.74807235598564147949e-01) (29, 1.13803654909133911133e-01) (30, 1.14914566278457641602e-01) (31, -1.58740654587745666504e-01) (32, 5.40896505117416381836e-03) (33, -1.77075527608394622803e-03) (34, -8.31056609749794006348e-02) (35, 5.57497628033161163330e-02) (36, 1.81302249431610107422e-01) (37, -4.51938360929489135742e-02) (38, 1.09921209514141082764e-02) (39, -1.08809083700180053711e-01) (40, -8.27018022537231445312e-02) (41, 1.77999556064605712891e-01) (42, 8.71620979160070419312e-03) (43, 1.59789338707923889160e-01) (44, -5.25366291403770446777e-02) (45, -3.39067354798316955566e-02) (46, 2.19377614557743072510e-02) (47, -1.30079448223114013672e-01) (48, -8.11432003974914550781e-02) (49, 8.21724310517311096191e-02) (50, -1.69646754860877990723e-01) (51, -4.10754345357418060303e-02) (52, -1.62480250000953674316e-01) (53, -1.12122625112533569336e-01) (54, -6.88692107796669006348e-02) (55, -7.10623934864997863770e-02) (56, -9.31563973426818847656e-02) (57, -2.12328135967254638672e-01) (58, 7.59843140840530395508e-02) (59, -1.38418078422546386719e-01) (60, -9.65135544538497924805e-02) (61, 7.38840922713279724121e-02) (62, 5.79074136912822723389e-02) (63, 4.20814529061317443848e-02) (64, 5.09934499859809875488e-02) (65, 1.51237279176712036133e-01) (66, -4.97307553887367248535e-02) (67, 3.89082990586757659912e-02) (68, 2.65512168407440185547e-01) (69, 1.36919766664505004883e-01) (70, 1.02845989167690277100e-02) (71, -9.44989249110221862793e-02) (72, -5.68921864032745361328e-03) (73, 2.43888348340988159180e-02) (74, -6.44763465970754623413e-03) (75, 1.76169410347938537598e-01) (76, -1.60985529422760009766e-01) (77, 8.60710442066192626953e-02) (78, 9.81685891747474670410e-03) (79, -1.29597947001457214355e-01) (80, 5.12286908924579620361e-02) (81, 4.21810150146484375000e-02) (82, -5.36585971713066101074e-02) (83, -2.11251586675643920898e-01) (84, -5.09159527719020843506e-02) (85, -1.03502146899700164795e-01) (86, 5.57373873889446258545e-02) (87, -1.63098052144050598145e-01) (88, -9.68045815825462341309e-02) (89, 3.17216999828815460205e-02) (90, 3.65352407097816467285e-02) (91, 2.57075428962707519531e-02) (92, 5.60579309239983558655e-03) (93, -5.55735826492309570312e-03) (94, -3.22110056877136230469e-02) (95, -1.02147161960601806641e-02) (96, -7.54399970173835754395e-02) (97, 9.44937691092491149902e-02) (98, 8.11316147446632385254e-02) (99, -3.31527297385036945343e-03) (100, 1.90882205963134765625e-01) (101, 6.70746043324470520020e-02) (102, -1.76288206130266189575e-02) (103, -9.21162441372871398926e-02) (104, -2.91451215744018554688e-02) (105, 1.81311547756195068359e-01) (106, 1.23151186853647232056e-02) (107, 4.42645996809005737305e-02) (108, -8.40849801898002624512e-02) (109, 9.27128791809082031250e-02) (110, 7.83935487270355224609e-02) (111, -1.20325505733489990234e-01) (112, -1.01146541535854339600e-01) (113, -9.22798290848731994629e-02) (114, 2.34890338033437728882e-02) (115, 6.69631585478782653809e-02) (116, -5.77306449413299560547e-02) (117, -2.07735728472471237183e-02) (118, -7.71091878414154052734e-02) (119, 6.44904524087905883789e-02) (120, -8.90518799424171447754e-02) (121, 5.94260469079017639160e-02) (122, -9.80201363563537597656e-03) (123, 1.65539141744375228882e-02) (124, -4.61313128471374511719e-02) (125, 5.79869858920574188232e-02) (126, -9.36608016490936279297e-02) (127, 1.16147520020604133606e-02) (128, -1.54478788375854492188e-01) (0, 2.41423651576042175293e-01) (1, -2.37350594252347946167e-02) (2, 3.45948845148086547852e-01) (3, 2.79998451471328735352e-01) (4, 1.94075092673301696777e-01) (5, -8.88572037220001220703e-02) (6, 1.61987915635108947754e-01) (7, -3.34784388542175292969e-01) (8, -1.02102920413017272949e-01) (9, 2.40135058760643005371e-01) (10, -6.19115047156810760498e-02) (11, 1.00734978914260864258e-02) (12, -6.51986896991729736328e-02) (13, 1.26918166875839233398e-01) (14, 1.30747184157371520996e-02) (15, -2.43048802018165588379e-01) (16, 1.45107194781303405762e-01) (17, -1.63687556982040405273e-01) (18, 2.33650177717208862305e-01) (19, 3.34065049886703491211e-01) (20, 1.45716741681098937988e-01) (21, -1.32720336318016052246e-01) (22, 2.59652048349380493164e-01) (23, -2.19146668910980224609e-01) (24, -1.38664096593856811523e-01) (25, 1.99416801333427429199e-01) (26, -5.68913184106349945068e-02) (27, -4.41987961530685424805e-02) (28, -6.09564967453479766846e-02) (29, 1.27838179469108581543e-01) (30, 1.05470195412635803223e-01) (31, -1.89579948782920837402e-01) (32, 1.71777352690696716309e-01) (33, -6.84598907828330993652e-02) (34, 3.49665492773056030273e-01) (35, 3.62044602632522583008e-01) (36, 2.83903896808624267578e-01) (37, -1.09029039740562438965e-01) (38, 1.52649298310279846191e-01) (39, -2.91639268398284912109e-01) (40, -7.80680477619171142578e-02) (41, 2.16312214732170104980e-01) (42, -5.88082261383533477783e-02) (43, -5.31082414090633392334e-02) (44, -9.42333340644836425781e-02) (45, 5.66300414502620697021e-02) (46, 4.72411997616291046143e-02) (47, -1.19173273444175720215e-01) (48, -4.83447313308715820312e-03) (49, 3.39866876602172851562e-02) (50, -8.95396322011947631836e-02) (51, 2.73430235683917999268e-02) (52, -3.15510891377925872803e-02) (53, -1.19709089398384094238e-01) (54, -6.85783475637435913086e-02) (55, -1.19365975260734558105e-01) (56, 5.42003288865089416504e-02) (57, -2.31061391532421112061e-02) (58, 3.83310690522193908691e-02) (59, -1.40600934624671936035e-01) (60, 2.15057730674743652344e-02) (61, -2.69499365240335464478e-02) (62, 1.56201599165797233582e-02) (63, -7.21680670976638793945e-02) (64, 2.43015572428703308105e-01) (65, -8.38420614600181579590e-02) (66, 1.90847456455230712891e-01) (67, 3.23111623525619506836e-01) (68, 2.48349890112876892090e-01) (69, -7.71856904029846191406e-02) (70, 1.56861409544944763184e-01) (71, -3.03158372640609741211e-01) (72, -7.00475201010704040527e-02) (73, 2.23627582192420959473e-01) (74, 6.64909407496452331543e-02) (75, -7.41223618388175964355e-02) (76, 4.27939109504222869873e-02) (77, 1.60956792533397674561e-02) (78, 1.50102585554122924805e-01) (79, -1.66636481881141662598e-01) (80, 7.93311744928359985352e-02) (81, -2.26633083075284957886e-02) (82, -1.68542280793190002441e-01) (83, -5.22199235856533050537e-02) (84, 4.51525449752807617188e-02) (85, -4.95956949889659881592e-02) (86, -9.65360403060913085938e-02) (87, -8.81720483303070068359e-02) (88, -8.51769149303436279297e-02) (89, 4.17950265109539031982e-02) (90, 4.62768785655498504639e-02) (91, -7.61462002992630004883e-02) (92, -8.51549133658409118652e-02) (93, -3.81029546260833740234e-02) (94, -4.83142696321010589600e-02) (95, 9.24094915390014648438e-02) (96, 2.16480389237403869629e-01) (97, -1.06594555079936981201e-01) (98, 3.16491991281509399414e-01) (99, 2.61022478342056274414e-01) (100, 2.57440745830535888672e-01) (101, -1.47329047322273254395e-01) (102, 2.83253163099288940430e-01) (103, -2.86047011613845825195e-01) (104, -1.32875517010688781738e-01) (105, 2.75318503379821777344e-01) (106, 6.25881627202033996582e-02) (107, 7.69039615988731384277e-05) (108, -1.46049574017524719238e-01) (109, 1.15054279565811157227e-01) (110, -2.31613665819168090820e-02) (111, -7.13143199682235717773e-02) (112, -1.65885165333747863770e-01) (113, -1.62454828619956970215e-01) (114, 2.22668051719665527344e-02) (115, 6.67923241853713989258e-02) (116, 6.29993230104446411133e-02) (117, 2.57307644933462142944e-02) (118, -3.38548012077808380127e-02) (119, -3.46526578068733215332e-02) (120, -3.24742160737514495850e-02) (121, -8.75779241323471069336e-02) (122, -1.07988538220524787903e-02) (123, -1.76291298121213912964e-02) (124, -2.56808828562498092651e-02) (125, 4.08868789672851562500e-02) (126, -2.52196434885263442993e-02) (127, -7.46516585350036621094e-02) (128, -1.80258378386497497559e-01) (0, -1.93307831883430480957e-01) (1, 4.28629331290721893311e-02) (2, -2.35571060329675674438e-02) (3, -3.15976679325103759766e-01) (4, -3.26449200510978698730e-02) (5, 1.09240405261516571045e-01) (6, -3.43304648995399475098e-02) (7, 2.11020603775978088379e-01) (8, 2.77014691382646560669e-02) (9, -6.27856999635696411133e-02) (10, 5.03217764198780059814e-02) (11, 1.85567781329154968262e-01) (12, -1.16401895880699157715e-01) (13, -1.25860229134559631348e-01) (14, -1.80592909455299377441e-01) (15, 2.03112334012985229492e-01) (16, -2.46614310890436172485e-02) (17, 1.05232819914817810059e-01) (18, -1.25649467110633850098e-01) (19, -2.28977978229522705078e-01) (20, -9.75615084171295166016e-02) (21, 1.47792249917984008789e-01) (22, 2.22032191231846809387e-03) (23, 1.96239933371543884277e-01) (24, -9.49722342193126678467e-03) (25, -5.83118535578250885010e-02) (26, 1.02229639887809753418e-01) (27, 1.44952848553657531738e-01) (28, -4.32351343333721160889e-02) (29, -3.55658419430255889893e-02) (30, -3.55810560286045074463e-02) (31, 2.66327828168869018555e-01) (32, -1.45445659756660461426e-01) (33, 3.46203856170177459717e-02) (34, -2.93595110997557640076e-03) (35, -1.70873075723648071289e-01) (36, 4.15520556271076202393e-02) (37, 1.45629420876502990723e-01) (38, -1.40294551849365234375e-01) (39, 1.63754329085350036621e-01) (40, 1.54057607054710388184e-01) (41, -8.66097211837768554688e-03) (42, -1.94491036236286163330e-02) (43, 2.86270920187234878540e-02) (44, -6.86616217717528343201e-03) (45, -1.75827175378799438477e-01) (46, -7.30970501899719238281e-02) (47, 2.71343141794204711914e-01) (48, 8.50895792245864868164e-02) (49, 6.33372887969017028809e-02) (50, 9.34805199503898620605e-02) (51, -7.52071440219879150391e-02) (52, 1.07437603175640106201e-01) (53, 7.05023482441902160645e-02) (54, 1.06595508754253387451e-01) (55, 1.11061774194240570068e-01) (56, 2.17688080738298594952e-04) (57, 3.30400131642818450928e-02) (58, -7.41044804453849792480e-02) (59, 6.40680268406867980957e-02) (60, 5.51555156707763671875e-02) (61, 7.76731371879577636719e-02) (62, 8.36826115846633911133e-02) (63, -8.18634629249572753906e-02) (64, -1.27807900309562683105e-01) (65, 8.71465355157852172852e-02) (66, 1.10122803598642349243e-02) (67, -2.79038369655609130859e-01) (68, -6.95327967405319213867e-02) (69, 5.36135695874691009521e-02) (70, -9.57261025905609130859e-02) (71, 1.79025575518608093262e-01) (72, 1.16166479885578155518e-01) (73, -3.38634140789508819580e-02) (74, 3.88814099133014678955e-02) (75, 1.00271686911582946777e-01) (76, -8.20355564355850219727e-02) (77, -1.00007802248001098633e-02) (78, -1.33221566677093505859e-01) (79, 1.97498172521591186523e-01) (80, 4.06951792538166046143e-02) (81, 1.79403424263000488281e-02) (82, 1.34932324290275573730e-01) (83, 4.81328293681144714355e-02) (84, 5.87653629481792449951e-02) (85, 2.11850553750991821289e-01) (86, -1.60026553203351795673e-04) (87, 8.86603519320487976074e-02) (88, 2.15213268995285034180e-01) (89, 2.57354974746704101562e-02) (90, -6.62623066455125808716e-03) (91, 4.06914465129375457764e-02) (92, 3.40863480232656002045e-03) (93, -2.29436289519071578979e-02) (94, 5.88279962539672851562e-02) (95, 8.40274244546890258789e-02) (96, -1.75898522138595581055e-01) (97, 7.62401670217514038086e-02) (98, -1.31262078881263732910e-01) (99, -2.38213837146759033203e-01) (100, 2.75449845939874649048e-02) (101, 1.55907660722732543945e-01) (102, -3.96303124725818634033e-02) (103, 2.38212242722511291504e-01) (104, -6.74183433875441551208e-03) (105, 8.05629268288612365723e-02) (106, 1.69712677597999572754e-01) (107, 1.02193966507911682129e-01) (108, -1.78282475098967552185e-03) (109, -1.39294028282165527344e-01) (110, -5.14435023069381713867e-03) (111, 2.33356505632400512695e-01) (112, 1.95682317018508911133e-01) (113, 1.17146633565425872803e-01) (114, 3.47760096192359924316e-02) (115, 2.47703436762094497681e-02) (116, -3.03574148565530776978e-02) (117, -6.53840228915214538574e-02) (118, 8.37534070014953613281e-02) (119, -4.48214784264564514160e-02) (120, 6.03514797985553741455e-02) (121, -2.28728298097848892212e-02) (122, 9.58699733018875122070e-02) (123, -3.62398885190486907959e-02) (124, 5.41835427284240722656e-02) (125, 5.46979680657386779785e-02) (126, -5.22124655544757843018e-02) (127, 8.67117047309875488281e-02) (128, 1.28940686583518981934e-01) (0, 9.60094183683395385742e-02) (1, 1.03351168334484100342e-01) (2, -3.90149652957916259766e-01) (3, -8.89852046966552734375e-02) (4, -4.21353802084922790527e-02) (5, -1.27012148499488830566e-01) (6, -7.95927196741104125977e-02) (7, -9.18198153376579284668e-02) (8, 4.08259369432926177979e-02) (9, 7.87394717335700988770e-02) (10, 5.53309284150600433350e-02) (11, -1.48458704352378845215e-01) (12, 2.53116413950920104980e-02) (13, 1.24476747587323188782e-02) (14, 6.62593692541122436523e-02) (15, 7.10405483841896057129e-02) (16, 5.18911406397819519043e-02) (17, 1.07317633926868438721e-01) (18, -3.92975866794586181641e-01) (19, -2.10259519517421722412e-02) (20, 1.04133300483226776123e-02) (21, -1.68757468461990356445e-01) (22, -5.76615259051322937012e-02) (23, 3.95886339247226715088e-02) (24, 1.02305691689252853394e-03) (25, 6.26786425709724426270e-02) (26, -3.47024127840995788574e-02) (27, -8.16282555460929870605e-02) (28, 7.48240128159523010254e-02) (29, -7.19447573646903038025e-03) (30, 6.63481876254081726074e-02) (31, -7.56657868623733520508e-02) (32, 1.84444859623908996582e-01) (33, 4.67092804610729217529e-02) (34, -3.95535767078399658203e-01) (35, -1.00945204496383666992e-01) (36, 1.24222368001937866211e-01) (37, -2.06327348947525024414e-01) (38, -7.75217860937118530273e-02) (39, 2.83688791096210479736e-02) (40, -1.10496081411838531494e-01) (41, -2.49059274792671203613e-02) (42, 5.72986900806427001953e-05) (43, -4.37102913856506347656e-02) (44, 5.18082305788993835449e-02) (45, 7.02153053134679794312e-03) (46, -3.39283770881593227386e-03) (47, 5.72001114487648010254e-02) (48, 9.78685021400451660156e-02) (49, 5.77627681195735931396e-02) (50, -6.09601885080337524414e-02) (51, -2.74397619068622589111e-02) (52, -4.62841764092445373535e-02) (53, -1.88604071736335754395e-02) (54, -9.60932821035385131836e-02) (55, 6.60112574696540832520e-02) (56, -9.25280973315238952637e-02) (57, 9.90915670990943908691e-03) (58, -4.65228259563446044922e-02) (59, 4.06468957662582397461e-02) (60, -7.69042447209358215332e-02) (61, -8.02660062909126281738e-02) (62, -9.39826592803001403809e-02) (63, -9.72182303667068481445e-02) (64, 5.48228025436401367188e-02) (65, 8.10837000608444213867e-02) (66, -4.49612021446228027344e-01) (67, -6.42094761133193969727e-02) (68, 7.92815908789634704590e-02) (69, -2.58332610130310058594e-01) (70, 7.94026106595993041992e-02) (71, 3.21060903370380401611e-02) (72, -6.61467388272285461426e-02) (73, 7.67448320984840393066e-02) (74, -9.14570912718772888184e-02) (75, 2.71356068551540374756e-02) (76, -5.19671663641929626465e-02) (77, 4.58549335598945617676e-02) (78, 5.36126345396041870117e-02) (79, -9.58390384912490844727e-02) (80, 3.52632999420166015625e-03) (81, -8.69664996862411499023e-02) (82, -2.31874510645866394043e-02) (83, 5.72421178221702575684e-02) (84, 1.46455168724060058594e-02) (85, 1.19170919060707092285e-03) (86, 6.41983374953269958496e-02) (87, 1.64500251412391662598e-03) (88, -6.84267133474349975586e-02) (89, -8.23244899511337280273e-02) (90, -1.67632456868886947632e-02) (91, -2.48585175722837448120e-02) (92, -6.25904947519302368164e-02) (93, -1.07459006831049919128e-02) (94, -2.20767445862293243408e-02) (95, -1.25265186652541160583e-02) (96, 1.58717319369316101074e-01) (97, 9.89133790135383605957e-02) (98, -3.28184545040130615234e-01) (99, -5.25574013590812683105e-03) (100, 4.51060011982917785645e-02) (101, -1.79980799555778503418e-01) (102, -5.79064264893531799316e-02) (103, 4.22798357903957366943e-02) (104, -8.61441567540168762207e-02) (105, 4.79213967919349670410e-02) (106, -1.04374550282955169678e-02) (107, -9.66371968388557434082e-02) (108, -4.19572070240974426270e-02) (109, -1.61199606955051422119e-02) (110, -2.31993831694126129150e-02) (111, 1.98287218809127807617e-02) (112, -2.36502587795257568359e-02) (113, 5.35217598080635070801e-02) (114, 1.81071292608976364136e-02) (115, -8.85323137044906616211e-02) (116, -4.34163818135857582092e-03) (117, -1.76945272833108901978e-02) (118, 3.35851088166236877441e-02) (119, 4.77040894329547882080e-02) (120, -1.90138816833496093750e-05) (121, -8.31781402230262756348e-02) (122, -7.71544277667999267578e-02) (123, 3.73904965817928314209e-02) (124, 6.07595453038811683655e-03) (125, 7.68828380387276411057e-04) (126, -7.51360282301902770996e-02) (127, -3.99655513465404510498e-02) (128, 6.28304407000541687012e-02) (0, -1.11235864460468292236e-01) (1, -4.66979816555976867676e-02) (2, -1.82776629924774169922e-01) (3, -2.28147193789482116699e-01) (4, 7.15632364153861999512e-03) (5, -6.33740425109863281250e-02) (6, -1.23167641460895538330e-01) (7, 1.21389731764793395996e-01) (8, -1.82233769446611404419e-02) (9, -4.21675965189933776855e-02) (10, -1.20820499956607818604e-01) (11, -1.70715272426605224609e-01) (12, -1.56780213117599487305e-01) (13, -1.61345720291137695312e-01) (14, -7.10392445325851440430e-02) (15, 1.67723670601844787598e-01) (16, -7.62617439031600952148e-02) (17, -3.47075685858726501465e-02) (18, -1.95884943008422851562e-01) (19, -2.16069787740707397461e-01) (20, -8.91230180859565734863e-02) (21, -8.32884013652801513672e-02) (22, -3.62375378608703613281e-02) (23, 1.50829598307609558105e-01) (24, -1.45559549331665039062e-01) (25, -6.98314607143402099609e-02) (26, -2.22170889377593994141e-01) (27, -8.10712501406669616699e-02) (28, -3.62893417477607727051e-02) (29, -1.43054187297821044922e-01) (30, -9.49145108461380004883e-02) (31, 6.51225000619888305664e-02) (32, -2.18524396419525146484e-01) (33, -1.77363172173500061035e-01) (34, -1.38040065765380859375e-01) (35, -2.41230040788650512695e-01) (36, -1.18166290223598480225e-01) (37, -9.19149219989776611328e-02) (38, -7.08682984113693237305e-02) (39, 8.24292898178100585938e-02) (40, -4.38144803047180175781e-02) (41, -1.14476062357425689697e-01) (42, -1.35393619537353515625e-01) (43, -7.01686069369316101074e-02) (44, -3.80287095904350280762e-02) (45, -1.58235684037208557129e-01) (46, -8.33941251039505004883e-02) (47, 9.83572825789451599121e-02) (48, -5.95773570239543914795e-02) (49, -7.47001692652702331543e-02) (50, 3.74241545796394348145e-02) (51, 4.35511358082294464111e-02) (52, -9.27290245890617370605e-02) (53, 5.58697432279586791992e-03) (54, -8.18104967474937438965e-02) (55, -4.26003113389015197754e-02) (56, -4.35477904975414276123e-02) (57, -5.57841360569000244141e-02) (58, -4.63908612728118896484e-02) (59, 4.15575578808784484863e-02) (60, 7.55885466933250427246e-02) (61, 8.78095626831054687500e-02) (62, -3.18109989166259765625e-02) (63, -8.07977467775344848633e-02) (64, -2.47440725564956665039e-01) (65, -1.98638007044792175293e-01) (66, -2.13240176439285278320e-01) (67, -1.95469051599502563477e-01) (68, -1.67982041835784912109e-01) (69, 8.51843431591987609863e-02) (70, -6.40677362680435180664e-02) (71, 2.07022473216056823730e-01) (72, -1.39023691415786743164e-01) (73, -1.22248612344264984131e-01) (74, -1.10253803431987762451e-01) (75, -4.66263182461261749268e-02) (76, -4.26911860704421997070e-02) (77, -1.45450726151466369629e-01) (78, -1.29218235611915588379e-01) (79, 1.48241072893142700195e-01) (80, 8.96404962986707687378e-03) (81, -1.73671972006559371948e-02) (82, -3.73227223753929138184e-02) (83, 1.62350460886955261230e-02) (84, -6.64682909846305847168e-02) (85, 2.61787436902523040771e-02) (86, -3.57413962483406066895e-02) (87, -5.53280115127563476562e-02) (88, -8.42934772372245788574e-02) (89, 1.78677439689636230469e-02) (90, -2.31465883553028106689e-02) (91, -6.33929818868637084961e-02) (92, 5.67730655893683433533e-03) (93, 4.50424067676067352295e-02) (94, -4.41907234489917755127e-02) (95, 2.03746445477008819580e-02) (96, -1.11482784152030944824e-01) (97, -8.62178727984428405762e-02) (98, -2.66306787729263305664e-01) (99, -1.09326764941215515137e-01) (100, -7.84626081585884094238e-02) (101, 3.89182940125465393066e-02) (102, -5.33323213458061218262e-02) (103, 2.01332673430442810059e-01) (104, -1.93062275648117065430e-01) (105, -8.63733515143394470215e-02) (106, -9.24013182520866394043e-02) (107, -1.05327390134334564209e-01) (108, 5.96901029348373413086e-03) (109, -1.73422366380691528320e-01) (110, -1.38035491108894348145e-01) (111, 6.54426664113998413086e-02) (112, -6.98653608560562133789e-03) (113, 5.37567213177680969238e-02) (114, -5.68133406341075897217e-02) (115, 7.18570947647094726562e-02) (116, 7.05593451857566833496e-02) (117, 7.44526414200663566589e-03) (118, -3.81589904427528381348e-02) (119, -6.84221759438514709473e-02) (120, -7.46869966387748718262e-02) (121, 3.86944189667701721191e-02) (122, -3.18151600658893585205e-02) (123, 3.09903156012296676636e-02) (124, -1.62631627172231674194e-02) (125, 2.39941235631704330444e-02) (126, -4.86350432038307189941e-02) (127, -6.56078457832336425781e-02) (128, -1.03284768760204315186e-01) (0, -1.95996806025505065918e-01) (1, -2.02773362398147583008e-01) (2, -8.17746669054031372070e-02) (3, -3.28459501266479492188e-01) (4, -6.93503320217132568359e-02) (5, -3.56662943959236145020e-02) (6, -1.43196195363998413086e-01) (7, 3.15887778997421264648e-02) (8, -6.27569779753684997559e-02) (9, 5.97333256155252456665e-03) (10, -1.48350998759269714355e-01) (11, -1.27158790826797485352e-01) (12, -1.18306405842304229736e-01) (13, -8.52940157055854797363e-02) (14, -1.12922370433807373047e-01) (15, -6.22914098203182220459e-02) (16, -1.09620578587055206299e-01) (17, -1.64149895310401916504e-01) (18, -3.76040674746036529541e-02) (19, -2.84127831459045410156e-01) (20, -1.19953855872154235840e-01) (21, -1.30371347069740295410e-01) (22, -7.61773735284805297852e-02) (23, 3.06682419031858444214e-02) (24, -4.50729951262474060059e-02) (25, -1.22658975422382354736e-01) (26, -3.82103174924850463867e-02) (27, -2.41173312067985534668e-01) (28, -8.66531878709793090820e-02) (29, -2.24008485674858093262e-02) (30, -1.23235024511814117432e-01) (31, 3.08152455836534500122e-02) (32, -8.05971100926399230957e-02) (33, -1.90503552556037902832e-01) (34, -1.05044834315776824951e-01) (35, -2.02164620161056518555e-01) (36, -8.18789973855018615723e-02) (37, -1.67520362883806228638e-02) (38, 2.98691820353269577026e-02) (39, 1.21140936389565467834e-02) (40, -6.03593364357948303223e-02) (41, -1.25530704855918884277e-01) (42, -2.74335127323865890503e-03) (43, -1.50095060467720031738e-01) (44, -3.71781811118125915527e-02) (45, -1.45242676138877868652e-01) (46, -4.47566322982311248779e-02) (47, -3.33335101604461669922e-02) (48, -8.29651951789855957031e-03) (49, 4.42357771098613739014e-02) (50, -6.79955855011940002441e-02) (51, -9.85150709748268127441e-02) (52, -4.92419768124818801880e-03) (53, 1.16610070690512657166e-02) (54, -1.30763724446296691895e-01) (55, -1.05174787342548370361e-01) (56, -9.69675555825233459473e-02) (57, 1.44902500323951244354e-03) (58, -7.06839549820870161057e-04) (59, -1.15680165588855743408e-01) (60, 4.87783923745155334473e-02) (61, 6.50638565421104431152e-02) (62, 8.75783711671829223633e-02) (63, 2.47002132236957550049e-02) (64, -6.98682889342308044434e-02) (65, -9.19660180807113647461e-02) (66, -1.76583781838417053223e-01) (67, -2.03964442014694213867e-01) (68, -1.64427205920219421387e-01) (69, -1.15225642919540405273e-01) (70, 8.59467033296823501587e-03) (71, 1.31963521242141723633e-01) (72, -9.03369337320327758789e-02) (73, -1.19752902537584304810e-03) (74, -1.05830177664756774902e-01) (75, -9.89444330334663391113e-02) (76, 2.72063072770833969116e-02) (77, -1.80163785815238952637e-01) (78, -1.64648100733757019043e-01) (79, -2.41439063102006912231e-02) (80, 5.30777089297771453857e-02) (81, 3.70864979922771453857e-02) (82, -1.11664690077304840088e-01) (83, -5.18464744091033935547e-02) (84, 2.94720064848661422729e-02) (85, -6.17038570344448089600e-02) (86, -9.55723151564598083496e-02) (87, -4.82200235128402709961e-02) (88, 