FANN_FLO_2.1
num_layers=3
learning_rate=0.699993
connection_rate=1.000000
network_type=0
learning_momentum=0.000000
training_algorithm=0
train_error_function=1
train_stop_function=0
cascade_output_change_fraction=0.010000
quickprop_decay=-0.000100
quickprop_mu=1.750000
rprop_increase_factor=1.200000
rprop_decrease_factor=0.500000
rprop_delta_min=0.000000
rprop_delta_max=50.000000
rprop_delta_zero=0.100000
cascade_output_stagnation_epochs=12
cascade_candidate_change_fraction=0.010000
cascade_candidate_stagnation_epochs=12
cascade_max_out_epochs=150
cascade_min_out_epochs=50
cascade_max_cand_epochs=150
cascade_min_cand_epochs=50
cascade_num_candidate_groups=2
bit_fail_limit=3.49999994039535522461e-01
cascade_candidate_limit=1.00000000000000000000e+03
cascade_weight_multiplier=4.00000005960464477539e-01
cascade_activation_functions_count=10
cascade_activation_functions=3 5 7 8 10 11 14 15 16 17 
cascade_activation_steepnesses_count=25
cascade_activation_steepnesses=0.00000000000000000000e+00 0.00000000000000000000e+00 0.00000000000000000000e+00 4.00000000000000000000e+00 6.08100000000000000000e+03 6.08200000000000000000e+03 6.08300000000000000000e+03 6.08400000000000000000e+03 0.00000000000000000000e+00 0.00000000000000000000e+00 1.30000000000000000000e+01 1.07584400000000000000e+06 1.07584500000000000000e+06 1.07584600000000000000e+06 1.07584700000000000000e+06 1.07622800000000000000e+06 1.07641700000000000000e+06 1.07641800000000000000e+06 1.07641900000000000000e+06 1.07642000000000000000e+06 1.07680100000000000000e+06 1.07680200000000000000e+06 1.07680300000000000000e+06 1.07680400000000000000e+06 0.00000000000000000000e+00 
layer_sizes=18 18 18 
scale_included=0
neurons (num_inputs, activation_function, activation_steepness)=(0, 0, 0.00000000000000000000e+00) (0, 0, 0.00000000000000000000e+00) (0, 0, 0.00000000000000000000e+00) (0, 0, 0.00000000000000000000e+00) (0, 0, 0.00000000000000000000e+00) (0, 0, 0.00000000000000000000e+00) (0, 0, 0.00000000000000000000e+00) (0, 0, 0.00000000000000000000e+00) (0, 0, 0.00000000000000000000e+00) (0, 0, 0.00000000000000000000e+00) (0, 0, 0.00000000000000000000e+00) (0, 0, 0.00000000000000000000e+00) (0, 0, 0.00000000000000000000e+00) (0, 0, 0.00000000000000000000e+00) (0, 0, 0.00000000000000000000e+00) (0, 0, 0.00000000000000000000e+00) (0, 0, 0.00000000000000000000e+00) (0, 0, 0.00000000000000000000e+00) (18, 5, 5.00000000000000000000e-01) (18, 5, 5.00000000000000000000e-01) (18, 5, 5.00000000000000000000e-01) (18, 5, 5.00000000000000000000e-01) (18, 5, 5.00000000000000000000e-01) (18, 5, 5.00000000000000000000e-01) (18, 5, 5.00000000000000000000e-01) (18, 5, 5.00000000000000000000e-01) (18, 5, 5.00000000000000000000e-01) (18, 5, 5.00000000000000000000e-01) (18, 5, 5.00000000000000000000e-01) (18, 5, 5.00000000000000000000e-01) (18, 5, 5.00000000000000000000e-01) (18, 5, 5.00000000000000000000e-01) (18, 5, 5.00000000000000000000e-01) (18, 5, 5.00000000000000000000e-01) (18, 5, 5.00000000000000000000e-01) (0, 5, 0.00000000000000000000e+00) (18, 3, 5.00000000000000000000e-01) (18, 3, 5.00000000000000000000e-01) (18, 3, 5.00000000000000000000e-01) (18, 3, 5.00000000000000000000e-01) (18, 3, 5.00000000000000000000e-01) (18, 3, 5.00000000000000000000e-01) (18, 3, 5.00000000000000000000e-01) (18, 3, 5.00000000000000000000e-01) (18, 3, 5.00000000000000000000e-01) (18, 3, 5.00000000000000000000e-01) (18, 3, 5.00000000000000000000e-01) (18, 3, 5.00000000000000000000e-01) (18, 3, 5.00000000000000000000e-01) (18, 3, 5.00000000000000000000e-01) (18, 3, 5.00000000000000000000e-01) (18, 3, 5.00000000000000000000e-01) (18, 3, 5.00000000000000000000e-01) (0, 3, 0.00000000000000000000e+00) 
connections (connected_to_neuron, weight)=(0, -6.95769041776657104492e-02) (1, -8.64081680774688720703e-02) (2, -3.77492494881153106689e-02) (3, 4.15943972766399383545e-02) (4, 5.63764832913875579834e-02) (5, -9.93496552109718322754e-02) (6, -5.26128448545932769775e-02) (7, 1.53461871668696403503e-02) (8, 2.39117629826068878174e-02) (9, -5.35024628043174743652e-02) (10, 1.84915140271186828613e-02) (11, 8.84641036391258239746e-02) (12, -7.31158033013343811035e-02) (13, 9.05745700001716613770e-02) (14, -8.54129195213317871094e-02) (15, -7.42052495479583740234e-02) (16, -8.37668851017951965332e-02) (17, 6.17272816598415374756e-02) (0, -2.72571779787540435791e-02) (1, 3.46130467951297760010e-02) (2, -8.95920321345329284668e-02) (3, 7.10716769099235534668e-02) (4, -9.39598158001899719238e-02) (5, 2.18162545934319496155e-03) (6, -1.92374940961599349976e-02) (7, -9.08153317868709564209e-03) (8, 5.21803982555866241455e-02) (9, 7.50214792788028717041e-03) (10, 8.62380489706993103027e-04) (11, -8.88608023524284362793e-02) (12, 4.92900609970092773438e-03) (13, 2.46429890394210815430e-02) (14, -6.65220543742179870605e-02) (15, 6.05372674763202667236e-02) (16, -3.37626114487648010254e-02) (17, 7.44650214910507202148e-02) (0, 7.68662989139556884766e-02) (1, 4.46926280856132507324e-02) (2, 1.42368013039231300354e-02) (3, -1.49006247520446777344e-02) (4, 6.88689947128295898438e-02) (5, -8.95928591489791870117e-02) (6, -3.30790169537067413330e-02) (7, 1.11431881785392761230e-01) (8, 9.43392142653465270996e-02) (9, -2.81324423849582672119e-03) (10, -6.27733767032623291016e-02) (11, -8.03914815187454223633e-02) (12, -6.34071379899978637695e-02) (13, 2.53588482737541198730e-02) (14, 5.39322867989540100098e-02) (15, -3.76097746193408966064e-02) (16, -3.56947816908359527588e-03) (17, 7.56511539220809936523e-02) (0, 4.32601869106292724609e-02) (1, 4.02026772499084472656e-02) (2, -5.50313293933868408203e-02) (3, 1.67522560805082321167e-02) (4, -1.55941126868128776550e-02) (5, 8.25321227312088012695e-02) (6, 4.32808510959148406982e-02) (7, 6.80232346057891845703e-02) (8, 2.25645061582326889038e-02) (9, 5.54471313953399658203e-02) (10, 2.85604950040578842163e-02) (11, -1.17120377719402313232e-01) (12, 6.66132122278213500977e-02) (13, -1.02518917992711067200e-02) (14, 3.32052372395992279053e-02) (15, -3.48286703228950500488e-02) (16, 7.48474895954132080078e-02) (17, -1.92374475300312042236e-02) (0, -4.08911481499671936035e-02) (1, -5.33894896507263183594e-02) (2, -1.86422113329172134399e-02) (3, -3.00823096185922622681e-02) (4, 4.45881970226764678955e-02) (5, 1.93753484636545181274e-02) (6, -2.61524748057126998901e-02) (7, 6.47114440798759460449e-02) (8, -7.09444880485534667969e-02) (9, -8.86898115277290344238e-02) (10, -7.28983357548713684082e-02) (11, -6.66227377951145172119e-03) (12, 8.77522826194763183594e-02) (13, -1.08326487243175506592e-01) (14, -2.86783110350370407104e-02) (15, -4.59673888981342315674e-02) (16, 8.42576101422309875488e-03) (17, 3.92579585313796997070e-02) (0, -7.66884014010429382324e-02) (1, -4.50768917798995971680e-02) (2, 3.18093448877334594727e-02) (3, 5.91292381286621093750e-02) (4, -5.50649724900722503662e-02) (5, -5.06536988541483879089e-03) (6, 6.33205175399780273438e-02) (7, -1.01704888045787811279e-01) (8, -9.40055996179580688477e-02) (9, -1.67273748666048049927e-02) (10, -3.65335531532764434814e-02) (11, -1.11099585890769958496e-01) (12, 9.85999703407287597656e-02) (13, 3.90449166297912597656e-02) (14, -3.47663238644599914551e-02) (15, -3.57261300086975097656e-03) (16, -9.10373926162719726562e-02) (17, -1.03431254625320434570e-01) (0, -6.31659626960754394531e-02) (1, 1.70945618301630020142e-02) (2, 1.12034231424331665039e-01) (3, -5.51417469978332519531e-02) (4, 2.38430742174386978149e-02) (5, -6.54257759451866149902e-02) (6, 5.46656027436256408691e-02) (7, 3.26266512274742126465e-02) (8, -5.72826378047466278076e-02) (9, -5.29814176261425018311e-02) (10, 8.66592675447463989258e-02) (11, 8.86440575122833251953e-02) (12, 8.17148685455322265625e-02) (13, -7.67760127782821655273e-02) (14, -6.42110109329223632812e-02) (15, 2.67773400992155075073e-02) (16, 8.23532342910766601562e-02) (17, 1.75531208515167236328e-03) (0, -5.69890253245830535889e-02) (1, 4.59414571523666381836e-02) (2, 1.35712642222642898560e-02) (3, -7.22936242818832397461e-02) (4, -7.88317918777465820312e-02) (5, 6.89918398857116699219e-02) (6, -7.01400786638259887695e-02) (7, -5.89328147470951080322e-02) (8, 2.12898850440979003906e-02) (9, 1.63926091045141220093e-02) (10, 3.74945700168609619141e-02) (11, 6.48046210408210754395e-02) (12, 4.91548795253038406372e-03) (13, 5.32973147928714752197e-02) (14, -6.04311041533946990967e-02) (15, -4.08157706260681152344e-03) (16, 9.81555730104446411133e-02) (17, 8.47109705209732055664e-02) (0, 2.50181835144758224487e-02) (1, 2.60476972907781600952e-02) (2, -3.04671376943588256836e-02) (3, 7.32100233435630798340e-02) (4, 5.75094483792781829834e-02) (5, -5.93647025525569915771e-02) (6, 4.08227704465389251709e-02) (7, 3.37498560547828674316e-02) (8, -5.71720004081726074219e-02) (9, 7.11372867226600646973e-02) (10, -3.94728071987628936768e-02) (11, -1.01324535906314849854e-01) (12, -4.26642261445522308350e-02) (13, -1.77608337253332138062e-02) (14, 2.87923943251371383667e-02) (15, 4.96080406010150909424e-02) (16, 9.94555093348026275635e-03) (17, 4.44861315190792083740e-02) (0, 2.59764026850461959839e-02) (1, 5.26564680039882659912e-02) (2, 7.71053060889244079590e-02) (3, -6.01102374494075775146e-02) (4, -5.96264563500881195068e-02) (5, -1.40756489709019660950e-02) (6, 8.33953991532325744629e-02) (7, 5.26655502617359161377e-02) (8, -8.20773392915725708008e-02) (9, -6.96591883897781372070e-02) (10, -5.14160208404064178467e-02) (11, 1.02155752480030059814e-01) (12, 8.63762646913528442383e-02) (13, 7.90766328573226928711e-02) (14, 2.63013839721679687500e-02) (15, -3.86164076626300811768e-02) (16, 5.22866547107696533203e-02) (17, -8.81264172494411468506e-03) (0, -1.40189360827207565308e-02) (1, -3.03049236536026000977e-02) (2, -9.30026695132255554199e-02) (3, 4.48468923568725585938e-02) (4, -3.76553349196910858154e-02) (5, -1.09631782397627830505e-02) (6, 4.89968322217464447021e-02) (7, 3.64261120557785034180e-03) (8, 7.67504572868347167969e-02) (9, -3.82486134767532348633e-02) (10, -4.67493459582328796387e-02) (11, -2.38673537969589233398e-02) (12, -7.22501873970031738281e-02) (13, 7.18505457043647766113e-02) (14, -6.25495836138725280762e-02) (15, 9.74785909056663513184e-02) (16, -8.82596969604492187500e-02) (17, -3.82138714194297790527e-02) (0, -6.23703971505165100098e-02) (1, -1.34599819779396057129e-01) (2, -1.22660346329212188721e-01) (3, 1.32560729980468750000e-03) (4, -6.58621862530708312988e-02) (5, -3.56795489788055419922e-02) (6, -3.89516958966851234436e-03) (7, -1.25259265303611755371e-01) (8, -6.39794394373893737793e-02) (9, -1.23367123305797576904e-01) (10, -6.38756752014160156250e-02) (11, 3.51573601365089416504e-02) (12, 6.21705083176493644714e-03) (13, 3.81432175636291503906e-02) (14, -3.33363972604274749756e-02) (15, 2.92522199451923370361e-02) (16, -1.70098934322595596313e-02) (17, -1.67650729417800903320e-02) (0, -1.50157779455184936523e-01) (1, -9.06865298748016357422e-02) (2, -1.19758091866970062256e-01) (3, 9.50395017862319946289e-02) (4, 5.55494911968708038330e-02) (5, 1.79772023111581802368e-02) (6, -1.27900242805480957031e-02) (7, 1.48524940013885498047e-02) (8, 5.86557388305664062500e-03) (9, -4.37864214181900024414e-02) (10, 1.23310908675193786621e-02) (11, -3.48031073808670043945e-02) (12, -9.75156500935554504395e-02) (13, -1.04265972971916198730e-01) (14, 4.48172353208065032959e-02) (15, -7.44026526808738708496e-02) (16, -2.94035673141479492188e-03) (17, 1.05082392692565917969e-02) (0, -7.92114287614822387695e-02) (1, -1.07517957687377929688e-01) (2, 3.03398892283439636230e-02) (3, 2.59383562952280044556e-02) (4, -1.59825086593627929688e-02) (5, -1.86332166194915771484e-02) (6, 6.86905393376946449280e-03) (7, 2.11053267121315002441e-02) (8, -3.47166620194911956787e-02) (9, 4.40343469381332397461e-03) (10, -4.96424660086631774902e-02) (11, 2.49175652861595153809e-02) (12, 2.54093413241207599640e-03) (13, -3.13534252345561981201e-02) (14, -2.81929317861795425415e-02) (15, 5.12296445667743682861e-02) (16, -3.63139249384403228760e-02) (17, -1.41772672533988952637e-01) (0, -1.03747006505727767944e-02) (1, -5.95562756061553955078e-02) (2, -6.89256861805915832520e-02) (3, 7.50724226236343383789e-02) (4, 4.46856617927551269531e-02) (5, 9.14337635040283203125e-02) (6, 8.71613062918186187744e-03) (7, 6.75884708762168884277e-02) (8, -4.43854033946990966797e-02) (9, -2.60481964796781539917e-02) (10, 9.31858196854591369629e-02) (11, -5.84605038166046142578e-02) (12, -6.75116032361984252930e-02) (13, -1.68963912874460220337e-02) (14, -1.72676797956228256226e-02) (15, -6.80424869060516357422e-02) (16, 1.09041973948478698730e-01) (17, 8.71682614088058471680e-02) (0, 5.73443658649921417236e-02) (1, 3.95126454532146453857e-02) (2, 1.01004436612129211426e-01) (3, 7.86076411604881286621e-02) (4, -3.09747643768787384033e-02) (5, -2.35288739204406738281e-02) (6, 7.26544409990310668945e-02) (7, 1.15586236119270324707e-01) (8, -8.57530683279037475586e-02) (9, -1.15184299647808074951e-02) (10, 6.68158754706382751465e-02) (11, 9.10822972655296325684e-02) (12, -2.81819347292184829712e-02) (13, 1.36022731661796569824e-01) (14, 6.70875087380409240723e-02) (15, -1.75260733813047409058e-02) (16, 1.11095160245895385742e-01) (17, 5.57932369410991668701e-02) (0, -3.91185693442821502686e-02) (1, -3.72350439429283142090e-02) (2, -5.40830716490745544434e-02) (3, 2.95222885906696319580e-02) (4, 2.93245669454336166382e-02) (5, -6.82894587516784667969e-02) (6, 5.06433248519897460938e-02) (7, 4.87867109477519989014e-02) (8, -5.60429692268371582031e-03) (9, -7.96506032347679138184e-02) (10, 8.07442292571067810059e-02) (11, -3.00070270895957946777e-02) (12, -9.98745337128639221191e-02) (13, -5.93146448954939842224e-03) (14, 7.85117968916893005371e-02) (15, 5.71098327636718750000e-02) (16, -2.73238271474838256836e-02) (17, -6.54892176389694213867e-02) (18, -7.81190171837806701660e-02) (19, -3.71206924319267272949e-02) (20, -7.69007802009582519531e-02) (21, -2.17403620481491088867e-02) (22, -7.89153296500444412231e-03) (23, 6.18561357259750366211e-03) (24, 9.66002792119979858398e-02) (25, 8.27820748090744018555e-02) (26, 4.11567613482475280762e-02) (27, 8.45961719751358032227e-02) (28, -5.59163391590118408203e-02) (29, -1.18676107376813888550e-02) (30, -9.52860154211521148682e-03) (31, 6.18613883852958679199e-02) (32, 6.84314444661140441895e-02) (33, 6.31927326321601867676e-02) (34, -4.69948612153530120850e-02) (35, 1.96846604347229003906e-01) (18, 5.21548613905906677246e-02) (19, -8.40814262628555297852e-02) (20, -2.79107391834259033203e-02) (21, -9.33827832341194152832e-03) (22, -6.66537657380104064941e-02) (23, -7.57153108716011047363e-02) (24, 4.36099581420421600342e-02) (25, -4.67868894338607788086e-02) (26, 7.63667076826095581055e-02) (27, 4.40124720335006713867e-02) (28, -1.11844107508659362793e-01) (29, -5.89746423065662384033e-02) (30, 8.53744670748710632324e-02) (31, -3.23319882154464721680e-02) (32, 4.10186033695936203003e-03) (33, 1.18903160095214843750e-01) (34, -2.46857367455959320068e-02) (35, 1.15364544093608856201e-01) (18, 1.71134248375892639160e-02) (19, -1.73618830740451812744e-02) (20, 9.43003818392753601074e-02) (21, -6.64751790463924407959e-03) (22, -7.06909671425819396973e-02) (23, -8.84925276041030883789e-02) (24, 6.54674544930458068848e-02) (25, 2.20074057579040527344e-02) (26, 8.57037603855133056641e-02) (27, 6.32458850741386413574e-02) (28, -6.65743052959442138672e-02) (29, -7.39534944295883178711e-02) (30, -3.65883186459541320801e-02) (31, -5.80855906009674072266e-02) (32, -5.82399740815162658691e-02) (33, 4.51626032590866088867e-02) (34, -3.78512516617774963379e-02) (35, 1.86381801962852478027e-01) (18, 6.49033486843109130859e-02) (19, -8.40967744588851928711e-02) (20, 4.32365089654922485352e-02) (21, 7.43208602070808410645e-02) (22, 2.15390063822269439697e-02) (23, 6.72130659222602844238e-03) (24, 1.01084783673286437988e-01) (25, 7.59824505075812339783e-03) (26, 8.35509002208709716797e-02) (27, 3.40862907469272613525e-02) (28, -2.58563514798879623413e-02) (29, -5.26366680860519409180e-02) (30, 4.40446510910987854004e-02) (31, -5.46620525419712066650e-02) (32, 2.98058949410915374756e-02) (33, 4.76220436394214630127e-02) (34, -2.89156977087259292603e-02) (35, 2.61950552463531494141e-01) (18, 7.77452737092971801758e-02) (19, -6.25942498445510864258e-02) (20, -1.24085210263729095459e-02) (21, 1.23997218906879425049e-02) (22, 9.37432870268821716309e-02) (23, 7.53504261374473571777e-02) (24, 8.11840966343879699707e-02) (25, -7.92309790849685668945e-02) (26, 4.16430383920669555664e-02) (27, -9.03945118188858032227e-02) (28, 5.72739727795124053955e-02) (29, -6.77605643868446350098e-02) (30, 1.04277711361646652222e-02) (31, -1.20993591845035552979e-02) (32, -6.09023272991180419922e-02) (33, -6.45011514425277709961e-02) (34, -2.72769704461097717285e-02) (35, -1.35810226202011108398e-01) (18, -7.98285976052284240723e-02) (19, -4.02370952069759368896e-02) (20, -4.19866815209388732910e-02) (21, 5.41589930653572082520e-02) (22, 8.74164775013923645020e-02) (23, 8.48413109779357910156e-02) (24, -5.70697747170925140381e-02) (25, -3.71910678222775459290e-03) (26, 5.70137426257133483887e-02) (27, 5.96559382975101470947e-02) (28, -6.41313344240188598633e-02) (29, -4.43267002701759338379e-02) (30, 4.35341931879520416260e-02) (31, 5.71420304477214813232e-02) (32, -6.77793845534324645996e-03) (33, -7.86435082554817199707e-02) (34, 3.99209856986999511719e-02) (35, -2.25291207432746887207e-01) (18, 1.02132596075534820557e-01) (19, 1.07437744736671447754e-02) (20, -7.34928157180547714233e-03) (21, 9.15512628853321075439e-03) (22, 5.90823590755462646484e-02) (23, -2.38730199635028839111e-02) (24, 5.67921251058578491211e-02) (25, -3.19898352026939392090e-02) (26, 5.30691109597682952881e-02) (27, 6.63110017776489257812e-02) (28, 5.63700348138809204102e-02) (29, -6.19231164455413818359e-02) (30, 3.45229357481002807617e-02) (31, 2.08263564854860305786e-02) (32, -2.10179574787616729736e-03) (33, -1.17212764918804168701e-01) (34, 4.41297180950641632080e-02) (35, -2.24709302186965942383e-01) (18, 7.42512866854667663574e-02) (19, 7.65377134084701538086e-02) (20, 6.65015801787376403809e-02) (21, -5.28858415782451629639e-03) (22, 7.49097913503646850586e-02) (23, 1.30570054054260253906e-01) (24, 6.73241168260574340820e-02) (25, 1.56967602670192718506e-02) (26, 7.41171613335609436035e-02) (27, -6.96534290909767150879e-02) (28, 8.99173691868782043457e-02) (29, 2.73606497794389724731e-02) (30, 3.90947982668876647949e-03) (31, 3.46495956182479858398e-02) (32, -6.20657950639724731445e-02) (33, -1.13792434334754943848e-01) (34, 1.42277572304010391235e-02) (35, -1.21066242456436157227e-01) (18, -3.02420966327190399170e-02) (19, -3.95202450454235076904e-02) (20, -5.01124039292335510254e-02) (21, -1.10931187868118286133e-01) (22, -3.57483029365539550781e-02) (23, 1.31882682442665100098e-01) (24, -5.77440485358238220215e-02) (25, -1.02852076292037963867e-01) (26, 4.17379252612590789795e-02) (27, 1.14574693143367767334e-02) (28, -6.89362958073616027832e-02) (29, -2.10398063063621520996e-03) (30, 8.33530500531196594238e-02) (31, 5.04188761115074157715e-02) (32, -2.52444557845592498779e-02) (33, 4.06030118465423583984e-02) (34, 1.41905881464481353760e-02) (35, -2.55314856767654418945e-01) (18, 5.20774945616722106934e-02) (19, -1.95601209998130798340e-02) (20, 5.85335455834865570068e-02) (21, 7.54859447479248046875e-02) (22, 1.92564725875854492188e-02) (23, -4.45244647562503814697e-03) (24, -3.89826036989688873291e-02) (25, -4.07405570149421691895e-02) (26, 4.88613219931721687317e-03) (27, 1.09798507764935493469e-02) (28, -4.37391623854637145996e-02) (29, -1.08644545078277587891e-01) (30, -1.72450263053178787231e-02) (31, 5.80847598612308502197e-02) (32, -3.92965897917747497559e-02) (33, 5.01811951398849487305e-02) (34, 3.87636721134185791016e-02) (35, 2.11742565035820007324e-01) (18, 4.59358468651771545410e-03) (19, 9.49765816330909729004e-02) (20, 3.21304388344287872314e-02) (21, -1.62819400429725646973e-03) (22, 1.21933203190565109253e-02) (23, 8.12077894806861877441e-03) (24, 5.31018488109111785889e-02) (25, 3.19536998867988586426e-02) (26, 3.44376228749752044678e-02) (27, -5.79382069408893585205e-02) (28, -2.03533731400966644287e-02) (29, -8.01645591855049133301e-02) (30, -3.38402949273586273193e-02) (31, -9.85336676239967346191e-03) (32, 6.07786700129508972168e-04) (33, -6.45564347505569458008e-02) (34, -1.05482779443264007568e-01) (35, 1.43009439110755920410e-01) (18, 2.21219081431627273560e-02) (19, -3.35977189242839813232e-02) (20, -5.44491317123174667358e-03) (21, -3.80918830633163452148e-02) (22, 3.97606678307056427002e-02) (23, 2.40527801215648651123e-02) (24, -6.27040565013885498047e-02) (25, -7.52119421958923339844e-02) (26, -5.49244834110140800476e-03) (27, 2.71434038877487182617e-02) (28, 2.36082114279270172119e-02) (29, -7.93426334857940673828e-02) (30, -5.59618398547172546387e-02) (31, -1.54848210513591766357e-02) (32, -8.46908763051033020020e-02) (33, 8.56661796569824218750e-02) (34, 1.20624275878071784973e-02) (35, 2.37813889980316162109e-01) (18, -1.09774358570575714111e-02) (19, -2.43321284651756286621e-02) (20, -2.52356640994548797607e-02) (21, -3.95478345453739166260e-02) (22, -2.25907117128372192383e-02) (23, 2.61524766683578491211e-02) (24, -3.64982187747955322266e-02) (25, 4.57406789064407348633e-02) (26, -7.10017085075378417969e-02) (27, 9.52104181051254272461e-02) (28, 2.61441729962825775146e-02) (29, -8.97827520966529846191e-02) (30, -7.16794952750205993652e-02) (31, 6.53642229735851287842e-03) (32, -2.31114886701107025146e-02) (33, 3.35140116512775421143e-02) (34, -2.70650023594498634338e-03) (35, 1.38749510049819946289e-01) (18, -2.73266769945621490479e-02) (19, 3.63149754703044891357e-02) (20, -5.11848181486129760742e-02) (21, 1.73841547220945358276e-02) (22, -4.37527038156986236572e-02) (23, 1.25539273023605346680e-01) (24, 7.98785164952278137207e-02) (25, -3.54597717523574829102e-02) (26, -6.41504377126693725586e-02) (27, -1.17600388824939727783e-01) (28, -5.88776096701622009277e-02) (29, 7.57378563284873962402e-02) (30, 3.56193035840988159180e-02) (31, -1.73651054501533508301e-03) (32, -5.79489171504974365234e-02) (33, -1.07774242758750915527e-01) (34, 6.51610791683197021484e-02) (35, -1.70231699943542480469e-01) (18, 9.89510640501976013184e-02) (19, -8.53433385491371154785e-02) (20, -4.45424951612949371338e-02) (21, -1.22425928711891174316e-01) (22, 1.01277388632297515869e-01) (23, 1.35652139782905578613e-01) (24, -6.94804340600967407227e-02) (25, -1.07253819704055786133e-01) (26, -3.40811088681221008301e-02) (27, -4.91618737578392028809e-03) (28, 1.53190800920128822327e-02) (29, 9.15705412626266479492e-02) (30, 3.72570231556892395020e-02) (31, 3.17442789673805236816e-02) (32, 2.78871804475784301758e-02) (33, -1.23846866190433502197e-01) (34, 1.87321528792381286621e-02) (35, -1.28323256969451904297e-01) (18, 1.08497321605682373047e-01) (19, -1.19257271289825439453e-02) (20, -6.64509460330009460449e-02) (21, -9.14762914180755615234e-02) (22, 8.91721621155738830566e-03) (23, 2.18493491411209106445e-03) (24, -9.92942675948143005371e-02) (25, -5.78884631395339965820e-02) (26, 8.75903666019439697266e-02) (27, -8.70761722326278686523e-02) (28, -1.31774619221687316895e-02) (29, 6.57268688082695007324e-02) (30, 4.13777269423007965088e-02) (31, -7.10068047046661376953e-02) (32, 8.03471133112907409668e-02) (33, -1.13228775560855865479e-01) (34, -2.33047883957624435425e-02) (35, -1.33125886321067810059e-01) (18, -7.01144114136695861816e-02) (19, -3.56244551949203014374e-03) (20, 5.90013600885868072510e-02) (21, -4.14899960160255432129e-02) (22, -6.94301575422286987305e-02) (23, 3.20268049836158752441e-03) (24, -3.24951931834220886230e-02) (25, 6.47825077176094055176e-02) (26, -7.93436318635940551758e-02) (27, 6.47942274808883666992e-02) (28, 9.42592844367027282715e-02) (29, 5.30540607869625091553e-02) (30, 3.59187126159667968750e-02) (31, 4.42893654108047485352e-02) (32, -5.90163990855216979980e-02) (33, 5.89611232280731201172e-02) (34, -7.53538757562637329102e-02) (35, -1.72023206949234008789e-01) 
