FANN_FLO_2.1
num_layers=3
learning_rate=0.699993
connection_rate=1.000000
network_type=0
learning_momentum=0.000000
training_algorithm=0
train_error_function=1
train_stop_function=0
cascade_output_change_fraction=0.010000
quickprop_decay=-0.000100
quickprop_mu=1.750000
rprop_increase_factor=1.200000
rprop_decrease_factor=0.500000
rprop_delta_min=0.000000
rprop_delta_max=50.000000
rprop_delta_zero=0.100000
cascade_output_stagnation_epochs=12
cascade_candidate_change_fraction=0.010000
cascade_candidate_stagnation_epochs=12
cascade_max_out_epochs=150
cascade_min_out_epochs=50
cascade_max_cand_epochs=150
cascade_min_cand_epochs=50
cascade_num_candidate_groups=2
bit_fail_limit=3.49999994039535522461e-01
cascade_candidate_limit=1.00000000000000000000e+03
cascade_weight_multiplier=4.00000005960464477539e-01
cascade_activation_functions_count=10
cascade_activation_functions=3 5 7 8 10 11 14 15 16 17 
cascade_activation_steepnesses_count=25
cascade_activation_steepnesses=0.00000000000000000000e+00 0.00000000000000000000e+00 0.00000000000000000000e+00 4.00000000000000000000e+00 6.08100000000000000000e+03 6.08200000000000000000e+03 6.08300000000000000000e+03 6.08400000000000000000e+03 0.00000000000000000000e+00 0.00000000000000000000e+00 1.30000000000000000000e+01 1.07584400000000000000e+06 1.07584500000000000000e+06 1.07584600000000000000e+06 1.07584700000000000000e+06 1.07622800000000000000e+06 1.07641700000000000000e+06 1.07641800000000000000e+06 1.07641900000000000000e+06 1.07642000000000000000e+06 1.07680100000000000000e+06 1.07680200000000000000e+06 1.07680300000000000000e+06 1.07680400000000000000e+06 0.00000000000000000000e+00 
layer_sizes=18 18 18 
scale_included=0
neurons (num_inputs, activation_function, activation_steepness)=(0, 0, 0.00000000000000000000e+00) (0, 0, 0.00000000000000000000e+00) (0, 0, 0.00000000000000000000e+00) (0, 0, 0.00000000000000000000e+00) (0, 0, 0.00000000000000000000e+00) (0, 0, 0.00000000000000000000e+00) (0, 0, 0.00000000000000000000e+00) (0, 0, 0.00000000000000000000e+00) (0, 0, 0.00000000000000000000e+00) (0, 0, 0.00000000000000000000e+00) (0, 0, 0.00000000000000000000e+00) (0, 0, 0.00000000000000000000e+00) (0, 0, 0.00000000000000000000e+00) (0, 0, 0.00000000000000000000e+00) (0, 0, 0.00000000000000000000e+00) (0, 0, 0.00000000000000000000e+00) (0, 0, 0.00000000000000000000e+00) (0, 0, 0.00000000000000000000e+00) (18, 5, 5.00000000000000000000e-01) (18, 5, 5.00000000000000000000e-01) (18, 5, 5.00000000000000000000e-01) (18, 5, 5.00000000000000000000e-01) (18, 5, 5.00000000000000000000e-01) (18, 5, 5.00000000000000000000e-01) (18, 5, 5.00000000000000000000e-01) (18, 5, 5.00000000000000000000e-01) (18, 5, 5.00000000000000000000e-01) (18, 5, 5.00000000000000000000e-01) (18, 5, 5.00000000000000000000e-01) (18, 5, 5.00000000000000000000e-01) (18, 5, 5.00000000000000000000e-01) (18, 5, 5.00000000000000000000e-01) (18, 5, 5.00000000000000000000e-01) (18, 5, 5.00000000000000000000e-01) (18, 5, 5.00000000000000000000e-01) (0, 5, 0.00000000000000000000e+00) (18, 3, 5.00000000000000000000e-01) (18, 3, 5.00000000000000000000e-01) (18, 3, 5.00000000000000000000e-01) (18, 3, 5.00000000000000000000e-01) (18, 3, 5.00000000000000000000e-01) (18, 3, 5.00000000000000000000e-01) (18, 3, 5.00000000000000000000e-01) (18, 3, 5.00000000000000000000e-01) (18, 3, 5.00000000000000000000e-01) (18, 3, 5.00000000000000000000e-01) (18, 3, 5.00000000000000000000e-01) (18, 3, 5.00000000000000000000e-01) (18, 3, 5.00000000000000000000e-01) (18, 3, 5.00000000000000000000e-01) (18, 3, 5.00000000000000000000e-01) (18, 3, 5.00000000000000000000e-01) (18, 3, 5.00000000000000000000e-01) (0, 3, 0.00000000000000000000e+00) 
connections (connected_to_neuron, weight)=(0, -1.02620199322700500488e-01) (1, -5.58689907193183898926e-02) (2, -1.11477673053741455078e-01) (3, -6.91832825541496276855e-02) (4, -7.10503235459327697754e-02) (5, 4.66705560684204101562e-02) (6, -5.22808283567428588867e-02) (7, 2.43786908686161041260e-02) (8, 4.18177507817745208740e-02) (9, 4.15059328079223632812e-02) (10, -7.87898078560829162598e-02) (11, 2.86815389990806579590e-02) (12, 8.83940234780311584473e-02) (13, -4.45429459214210510254e-02) (14, 4.94619719684123992920e-02) (15, 3.99548783898353576660e-02) (16, -1.05757825076580047607e-03) (17, -3.36570851504802703857e-03) (0, 3.53493392467498779297e-02) (1, 8.88514071702957153320e-02) (2, 5.23226745426654815674e-02) (3, -9.77175980806350708008e-02) (4, -8.96540284156799316406e-02) (5, -6.19046688079833984375e-02) (6, 6.87797814607620239258e-02) (7, -1.44289769232273101807e-02) (8, 6.23128414154052734375e-02) (9, 7.83334672451019287109e-02) (10, 8.44967141747474670410e-02) (11, -8.29044729471206665039e-03) (12, 1.47045617923140525818e-02) (13, 1.02007664740085601807e-01) (14, 1.66268106549978256226e-02) (15, 2.33580358326435089111e-02) (16, 1.32824391126632690430e-01) (17, 8.49213898181915283203e-02) (0, -5.81895373761653900146e-02) (1, -8.70194882154464721680e-02) (2, -3.81318032741546630859e-02) (3, -8.81536602973937988281e-02) (4, -9.71642732620239257812e-02) (5, 3.14276590943336486816e-02) (6, 6.06590174138545989990e-02) (7, 6.30116239190101623535e-02) (8, -9.29841399192810058594e-02) (9, -1.80971287190914154053e-02) (10, 2.96649895608425140381e-03) (11, -2.12868489325046539307e-03) (12, -7.31135681271553039551e-02) (13, -1.01029068231582641602e-01) (14, -2.44040619581937789917e-02) (15, 3.98641936480998992920e-02) (16, -9.87466648221015930176e-02) (17, -4.22762185335159301758e-02) (0, 1.03833064436912536621e-01) (1, 1.24124780297279357910e-01) (2, 5.80415651202201843262e-02) (3, 4.02723662555217742920e-02) (4, 3.72398011386394500732e-02) (5, -2.26801689714193344116e-02) (6, 9.26370173692703247070e-02) (7, -2.21821013838052749634e-02) (8, -6.00174181163311004639e-02) (9, 3.51373627781867980957e-02) (10, 1.01175934076309204102e-01) (11, -4.06644046306610107422e-02) (12, -4.51596938073635101318e-02) (13, -2.87954751402139663696e-02) (14, -2.53392998129129409790e-02) (15, 4.49266321957111358643e-02) (16, -1.69491339474916458130e-02) (17, 3.36996838450431823730e-03) (0, -6.47296085953712463379e-02) (1, -1.23247556388378143311e-01) (2, -7.23577216267585754395e-02) (3, -1.66298393160104751587e-02) (4, 2.79573444277048110962e-02) (5, 9.99108105897903442383e-02) (6, -9.05404016375541687012e-02) (7, 1.37598812580108642578e-02) (8, -7.29001313447952270508e-02) (9, -5.60283660888671875000e-02) (10, -4.63759228587150573730e-02) (11, -8.45125690102577209473e-02) (12, 7.09974393248558044434e-02) (13, -6.84164017438888549805e-02) (14, -4.51774187386035919189e-02) (15, 3.16547160036861896515e-03) (16, -1.28144025802612304688e-01) (17, 5.09784743189811706543e-02) (0, 7.98371359705924987793e-02) (1, -9.50712710618972778320e-02) (2, -5.66414222121238708496e-02) (3, -7.95321166515350341797e-02) (4, 1.48407220840454101562e-02) (5, -8.06908607482910156250e-02) (6, -4.60700578987598419189e-02) (7, 6.90328776836395263672e-02) (8, -3.53598669171333312988e-02) (9, 2.79424786567687988281e-02) (10, 1.39595028012990951538e-02) (11, 2.11692936718463897705e-02) (12, -9.39129218459129333496e-02) (13, 9.03137922286987304688e-02) (14, 3.96538153290748596191e-02) (15, -2.51867417246103286743e-02) (16, -2.63160411268472671509e-02) (17, -3.30370105803012847900e-02) (0, -5.35010844469070434570e-02) (1, -4.44334298372268676758e-02) (2, -1.05770215392112731934e-01) (3, 1.82393786963075399399e-03) (4, 6.88472539186477661133e-02) (5, 1.71629078686237335205e-02) (6, 5.83952777087688446045e-02) (7, 1.16195548325777053833e-02) (8, 8.98304134607315063477e-02) (9, -1.15007288753986358643e-01) (10, -8.52149799466133117676e-02) (11, -1.25454857945442199707e-01) (12, -9.47197601199150085449e-02) (13, -1.04729674756526947021e-01) (14, -9.16528105735778808594e-02) (15, -5.07130138576030731201e-02) (16, -8.42617973685264587402e-02) (17, -5.03723695874214172363e-03) (0, -3.69304381310939788818e-02) (1, -7.63326324522495269775e-03) (2, -1.26576125621795654297e-02) (3, 3.32362540066242218018e-02) (4, -7.35160559415817260742e-02) (5, -9.25233885645866394043e-02) (6, -4.49462793767452239990e-02) (7, -7.29555413126945495605e-02) (8, 9.84385758638381958008e-02) (9, 8.91809836030006408691e-02) (10, 1.85771565884351730347e-03) (11, -3.27558629214763641357e-02) (12, -3.76813113689422607422e-02) (13, 7.65817835927009582520e-02) (14, 5.65624125301837921143e-02) (15, -1.52263818308711051941e-02) (16, -2.15942803770303726196e-02) (17, 1.98831129819154739380e-02) (0, -1.23357132077217102051e-01) (1, -8.29660966992378234863e-02) (2, -6.00392818450927734375e-02) (3, 9.17669460177421569824e-02) (4, -4.44545820355415344238e-02) (5, 8.26454162597656250000e-03) (6, 9.45372357964515686035e-02) (7, -6.44679963588714599609e-02) (8, 3.17600145936012268066e-02) (9, -1.22409239411354064941e-01) (10, -1.51810105890035629272e-02) (11, 5.04297167062759399414e-02) (12, 2.60723363608121871948e-02) (13, 5.34151121973991394043e-02) (14, -2.63833347707986831665e-02) (15, -8.10587182641029357910e-02) (16, -1.33486324921250343323e-02) (17, -2.51930411905050277710e-02) (0, -5.69253265857696533203e-02) (1, 8.36555212736129760742e-02) (2, 4.93284091353416442871e-02) (3, -7.51435309648513793945e-02) (4, 6.17062821984291076660e-02) (5, -5.99440932273864746094e-02) (6, -2.37283110618591308594e-03) (7, -5.93182593584060668945e-02) (8, -7.78357535600662231445e-02) (9, -2.91536338627338409424e-02) (10, 2.54553668200969696045e-02) (11, 2.27533094584941864014e-02) (12, 7.95992612838745117188e-02) (13, 2.73918844759464263916e-02) (14, 4.84240911900997161865e-02) (15, -5.51463663578033447266e-02) (16, 1.91588271409273147583e-02) (17, -7.93737173080444335938e-02) (0, 6.63637518882751464844e-02) (1, 1.02848568931221961975e-02) (2, -2.19592675566673278809e-02) (3, -1.51218054816126823425e-02) (4, -7.62939453125000000000e-05) (5, 7.49078020453453063965e-02) (6, -3.93984392285346984863e-02) (7, -6.07583969831466674805e-02) (8, 5.36165721714496612549e-02) (9, 4.74637970328330993652e-02) (10, -4.18171137571334838867e-02) (11, -2.11928337812423706055e-02) (12, -6.56811669468879699707e-02) (13, -1.53992203995585441589e-02) (14, -6.74396529793739318848e-02) (15, 6.69904723763465881348e-02) (16, 9.45725198835134506226e-03) (17, 1.07512183487415313721e-01) (0, -1.19991712272167205811e-01) (1, 6.68007805943489074707e-02) (2, -1.08746498823165893555e-01) (3, -7.07893744111061096191e-02) (4, -5.19715547561645507812e-02) (5, 2.70901676267385482788e-02) (6, 3.53071577847003936768e-02) (7, -9.94103774428367614746e-02) (8, -6.21747188270092010498e-02) (9, -4.33068349957466125488e-02) (10, -5.45567423105239868164e-02) (11, 1.32892560213804244995e-02) (12, -1.22992461547255516052e-02) (13, -1.01438559591770172119e-01) (14, -6.26333802938461303711e-02) (15, 5.24959228932857513428e-02) (16, -1.65603719651699066162e-02) (17, 1.02522429078817367554e-02) (0, 5.61828464269638061523e-02) (1, 9.98584032058715820312e-02) (2, 9.20654833316802978516e-02) (3, -1.89796984195709228516e-02) (4, 5.29750576242804527283e-03) (5, -9.17763113975524902344e-02) (6, 4.65819016098976135254e-02) (7, 6.83954656124114990234e-02) (8, -2.04211007803678512573e-02) (9, 1.07921361923217773438e-01) (10, 3.53859290480613708496e-02) (11, 1.04569703340530395508e-01) (12, 7.34088644385337829590e-02) (13, 4.24323081970214843750e-02) (14, 6.96294456720352172852e-02) (15, 9.17004495859146118164e-02) (16, 7.16429352760314941406e-02) (17, -5.35629875957965850830e-02) (0, -1.01243313401937484741e-02) (1, -5.07439970970153808594e-02) (2, -8.36293697357177734375e-02) (3, 5.66159002482891082764e-02) (4, 6.19022138416767120361e-02) (5, 1.77669413387775421143e-02) (6, -3.05675878189504146576e-03) (7, -7.93119966983795166016e-02) (8, 4.33664582669734954834e-02) (9, 5.39490580558776855469e-03) (10, -1.26816079020500183105e-01) (11, -7.50707834959030151367e-02) (12, -2.83998139202594757080e-02) (13, 5.87647780776023864746e-04) (14, -7.50765576958656311035e-02) (15, -6.51134476065635681152e-02) (16, -1.18392050266265869141e-01) (17, 1.30599178373813629150e-03) (0, -3.73010002076625823975e-02) (1, 7.66935646533966064453e-02) (2, -1.05739533901214599609e-02) (3, 2.26891394704580307007e-02) (4, 3.62470522522926330566e-02) (5, 7.64441043138504028320e-02) (6, -1.52027013245970010757e-03) (7, 2.92446613311767578125e-02) (8, -9.90271568298339843750e-03) (9, -1.23020634055137634277e-02) (10, 2.09451206028461456299e-02) (11, -4.74501512944698333740e-02) (12, -1.42329335212707519531e-02) (13, -6.02642633020877838135e-02) (14, 1.11320493742823600769e-02) (15, 3.10526620596647262573e-02) (16, 9.63516533374786376953e-02) (17, -7.37698003649711608887e-03) (0, -8.42099338769912719727e-02) (1, -5.93234039843082427979e-02) (2, -1.03923063725233078003e-02) (3, 9.21860560774803161621e-02) (4, -9.19840186834335327148e-02) (5, 2.47361063957214355469e-02) (6, -5.39697781205177307129e-02) (7, -5.34133538603782653809e-02) (8, -4.57612872123718261719e-02) (9, -6.20758607983589172363e-02) (10, -1.85268018394708633423e-02) (11, -6.82679116725921630859e-02) (12, -9.88253876566886901855e-02) (13, 2.45834365487098693848e-02) (14, -7.81335756182670593262e-02) (15, -2.89880931377410888672e-02) (16, -5.27274087071418762207e-02) (17, 2.50839367508888244629e-02) (0, -7.10098072886466979980e-02) (1, 6.03160299360752105713e-02) (2, -5.06964363157749176025e-02) (3, 3.75532880425453186035e-02) (4, -5.31089752912521362305e-02) (5, 6.91257342696189880371e-02) (6, 7.05143809318542480469e-02) (7, 1.41922757029533386230e-02) (8, 8.92727300524711608887e-02) (9, -3.68193760514259338379e-02) (10, -5.47550655901432037354e-02) (11, 4.75697927176952362061e-02) (12, 5.46806938946247100830e-02) (13, -5.93546219170093536377e-03) (14, -6.02582693099975585938e-02) (15, -2.26820763200521469116e-02) (16, -1.37494169175624847412e-02) (17, -7.07080960273742675781e-02) (18, -1.07732713222503662109e-01) (19, 7.39975273609161376953e-02) (20, 1.80079452693462371826e-02) (21, -3.80963161587715148926e-02) (22, -9.44420173764228820801e-02) (23, -4.87371161580085754395e-02) (24, -1.96338724344968795776e-02) (25, -7.15251043438911437988e-02) (26, 8.50726813077926635742e-02) (27, 2.72216424345970153809e-02) (28, -1.11613981425762176514e-02) (29, -3.77872325479984283447e-02) (30, 3.31520438194274902344e-02) (31, 1.76454801112413406372e-02) (32, -5.56271821260452270508e-02) (33, 6.60171583294868469238e-02) (34, -2.08093393594026565552e-02) (35, 1.97819009423255920410e-01) (18, 2.81094573438167572021e-02) (19, -2.72597502917051315308e-02) (20, -7.12750256061553955078e-02) (21, 3.28320674598217010498e-02) (22, 1.48598887026309967041e-02) (23, 1.12515194341540336609e-02) (24, -4.75885123014450073242e-02) (25, -8.64339247345924377441e-03) (26, -1.00102022290229797363e-01) (27, 1.72270499169826507568e-02) (28, 5.79902231693267822266e-02) (29, 1.44161842763423919678e-03) (30, 1.12963855266571044922e-01) (31, 4.13318872451782226562e-02) (32, -4.44221086800098419189e-02) (33, 5.31512545421719551086e-03) (34, -7.83021301031112670898e-02) (35, 1.84533804655075073242e-01) (18, 3.99004146456718444824e-02) (19, 6.64215385913848876953e-02) (20, 4.74845338612794876099e-03) (21, 5.52605018019676208496e-02) (22, -3.12604904174804687500e-02) (23, -8.20367336273193359375e-02) (24, -1.12668633460998535156e-01) (25, 9.21836718916893005371e-02) (26, 3.47720161080360412598e-02) (27, -2.83386744558811187744e-02) (28, 5.00121414661407470703e-02) (29, -8.95910039544105529785e-02) (30, 1.26411125063896179199e-01) (31, -3.12802530825138092041e-02) (32, -3.66985760629177093506e-02) (33, -7.14422389864921569824e-02) (34, -7.93495699763298034668e-02) (35, 1.07256010174751281738e-01) (18, 2.33088470995426177979e-02) (19, 3.72337475419044494629e-02) (20, -1.47936027497053146362e-02) (21, 5.33340610563755035400e-02) (22, -6.98548406362533569336e-02) (23, -3.26646193861961364746e-02) (24, -7.46780633926391601562e-02) (25, -6.70029520988464355469e-02) (26, -9.17659625411033630371e-02) (27, 2.05658785998821258545e-02) (28, 3.02774943411350250244e-02) (29, -7.35798403620719909668e-02) (30, -3.92709821462631225586e-02) (31, -3.87034416198730468750e-02) (32, 7.23129138350486755371e-02) (33, 3.96288260817527770996e-02) (34, -6.48232996463775634766e-02) (35, 1.67783915996551513672e-01) (18, 6.02975413203239440918e-02) (19, -5.85322380065917968750e-02) (20, -3.23185846209526062012e-02) (21, -5.08933048695325851440e-03) (22, 6.77333995699882507324e-02) (23, -9.53936204314231872559e-02) (24, 6.85973912477493286133e-02) (25, 3.98336611688137054443e-02) (26, 2.09680944681167602539e-02) (27, -7.78380855917930603027e-02) (28, 8.16494300961494445801e-02) (29, 4.43991050124168395996e-02) (30, -1.15482315421104431152e-01) (31, 3.31025347113609313965e-02) (32, -4.53113652765750885010e-02) (33, 1.32951606065034866333e-02) (34, -4.26715202629566192627e-02) (35, -2.00215846300125122070e-01) (18, 7.86919593811035156250e-02) (19, -2.09884718060493469238e-04) (20, 2.45850402861833572388e-02) (21, 8.53432565927505493164e-02) (22, -2.21107956022024154663e-02) (23, -5.97888901829719543457e-02) (24, -2.15046517550945281982e-02) (25, -1.69907901436090469360e-02) (26, 5.07264994084835052490e-02) (27, -6.11145719885826110840e-02) (28, -6.32924810051918029785e-02) (29, 8.89399796724319458008e-02) (30, -3.94334755837917327881e-02) (31, 1.07136689126491546631e-01) (32, -5.04783950746059417725e-02) (33, 5.59413395822048187256e-02) (34, -1.77945531904697418213e-02) (35, -1.16433255374431610107e-01) (18, 7.65119343996047973633e-02) (19, -1.11734367907047271729e-01) (20, 4.11523021757602691650e-02) (21, -3.19204851984977722168e-02) (22, -6.56428337097167968750e-02) (23, -8.02440568804740905762e-04) (24, -5.85457757115364074707e-02) (25, -7.14572295546531677246e-02) (26, -6.71017765998840332031e-02) (27, -4.26014326512813568115e-02) (28, 4.97274473309516906738e-02) (29, -6.33609108626842498779e-03) (30, -2.83343903720378875732e-03) (31, 3.66707183420658111572e-02) (32, -8.53783935308456420898e-02) (33, -5.33603094518184661865e-02) (34, 4.03436692431569099426e-03) (35, -2.30284631252288818359e-01) (18, 3.40257771313190460205e-03) (19, 1.75029374659061431885e-02) (20, 5.92687837779521942139e-02) (21, -7.59093537926673889160e-02) (22, 7.77559429407119750977e-02) (23, 7.25929886102676391602e-02) (24, 1.39064639806747436523e-01) (25, -4.87249158322811126709e-02) (26, 7.76462033390998840332e-02) (27, -5.04597947001457214355e-02) (28, -8.54703709483146667480e-02) (29, -3.67927886545658111572e-02) (30, -1.09976887702941894531e-01) (31, 9.92498695850372314453e-02) (32, -2.86183096468448638916e-02) (33, 5.54552078247070312500e-02) (34, -5.01833297312259674072e-02) (35, -2.09236547350883483887e-01) (18, -2.87108272314071655273e-02) (19, -7.26622790098190307617e-02) (20, 1.96462795138359069824e-02) (21, -2.58591026067733764648e-02) (22, 9.22530144453048706055e-03) (23, -5.47570921480655670166e-02) (24, 9.74560230970382690430e-02) (25, -8.37613344192504882812e-02) (26, 8.25542956590652465820e-02) (27, 7.24761635065078735352e-02) (28, -2.90506239980459213257e-02) (29, -9.89690795540809631348e-03) (30, -1.14900425076484680176e-01) (31, 8.39251354336738586426e-02) (32, -7.34465345740318298340e-02) (33, 7.09050446748733520508e-02) (34, 8.89792665839195251465e-02) (35, -1.21642045676708221436e-01) (18, 3.95067259669303894043e-02) (19, 1.13376066088676452637e-01) (20, -7.87853077054023742676e-02) (21, 1.93044431507587432861e-02) (22, -9.32212322950363159180e-02) (23, -4.95898127555847167969e-02) (24, 1.73728242516517639160e-02) (25, -4.96309697628021240234e-02) (26, -9.79449450969696044922e-02) (27, -9.88982096314430236816e-02) (28, 9.20530334115028381348e-02) (29, -5.11373132467269897461e-02) (30, 2.68784128129482269287e-02) (31, -6.60466104745864868164e-02) (32, 3.40273883193731307983e-03) (33, -9.93621125817298889160e-02) (34, 3.87928895652294158936e-02) (35, 1.11272692680358886719e-01) (18, -5.16352690756320953369e-02) (19, 1.82026885449886322021e-02) (20, -7.66347721219062805176e-02) (21, -6.80666416883468627930e-02) (22, -6.54801577329635620117e-02) (23, 8.29280354082584381104e-03) (24, -4.30790446698665618896e-02) (25, -2.54943538457155227661e-02) (26, -5.61921522021293640137e-02) (27, -5.51123637706041336060e-03) (28, -6.82851299643516540527e-02) (29, -7.01369941234588623047e-02) (30, 1.75451524555683135986e-02) (31, 6.23971596360206604004e-02) (32, -7.75277912616729736328e-02) (33, 1.29227880388498306274e-02) (34, 3.22042789775878190994e-04) (35, 1.56672805547714233398e-01) (18, 4.63768690824508666992e-02) (19, -1.64234731346368789673e-02) (20, -4.51480085030198097229e-03) (21, 7.92142674326896667480e-02) (22, -3.93193960189819335938e-02) (23, 1.20004527270793914795e-02) (24, -1.01036220788955688477e-01) (25, 7.63822719454765319824e-02) (26, 4.62515875697135925293e-02) (27, 4.27470207214355468750e-02) (28, 6.90161660313606262207e-02) (29, -1.85007005929946899414e-02) (30, 1.02691814303398132324e-01) (31, -9.17400419712066650391e-02) (32, 7.94542059302330017090e-02) (33, -1.00140981376171112061e-01) (34, -4.09560352563858032227e-02) (35, 1.41981378197669982910e-01) (18, -7.56358588114380836487e-03) (19, 7.85292237997055053711e-02) (20, 5.16139995306730270386e-03) (21, 6.51020482182502746582e-02) (22, -4.71952632069587707520e-02) (23, 5.92656955122947692871e-02) (24, -1.29681304097175598145e-01) (25, 5.75925260782241821289e-02) (26, 2.39394381642341613770e-02) (27, -6.97527229785919189453e-02) (28, -3.64341586828231811523e-02) (29, -7.89462476968765258789e-02) (30, 3.47532555460929870605e-02) (31, -9.71812680363655090332e-02) (32, -1.60764940083026885986e-02) (33, -9.22625735402107238770e-02) (34, 9.83462110161781311035e-02) (35, 2.51057505607604980469e-01) (18, 2.17611603438854217529e-02) (19, -8.28475505113601684570e-02) (20, 5.35248257219791412354e-02) (21, -3.14987264573574066162e-02) (22, 1.12503819167613983154e-01) (23, 1.03240199387073516846e-02) (24, 1.10933437943458557129e-01) (25, 6.21418692171573638916e-02) (26, 6.49246275424957275391e-02) (27, 8.17615389823913574219e-02) (28, 7.47278183698654174805e-02) (29, -7.34012126922607421875e-02) (30, -1.17597304284572601318e-01) (31, -6.54554739594459533691e-03) (32, 8.06172564625740051270e-02) (33, 2.85393074154853820801e-02) (34, -6.88480660319328308105e-02) (35, -2.43255421519279479980e-01) (18, -1.35539919137954711914e-02) (19, -8.42578411102294921875e-02) (20, 9.69720631837844848633e-02) (21, -9.18637663125991821289e-02) (22, 9.23257321119308471680e-05) (23, -5.37034533917903900146e-02) (24, -8.02455469965934753418e-03) (25, 8.34203362464904785156e-02) (26, -5.12655079364776611328e-03) (27, 6.37926682829856872559e-02) (28, 1.04442320764064788818e-01) (29, -3.86707670986652374268e-03) (30, -1.01641286164522171021e-02) (31, 3.59083563089370727539e-02) (32, 3.14420498907566070557e-02) (33, -3.01757194101810455322e-02) (34, 8.54528844356536865234e-02) (35, -1.79017573595046997070e-01) (18, 9.55754220485687255859e-02) (19, 3.63154411315917968750e-02) (20, -8.86674784123897552490e-03) (21, 3.21387946605682373047e-02) (22, 4.18804325163364410400e-02) (23, -5.70799782872200012207e-02) (24, 8.75229090452194213867e-02) (25, 3.28910648822784423828e-02) (26, 3.75808663666248321533e-02) (27, 3.06395366787910461426e-02) (28, -3.07843871414661407471e-02) (29, 7.20850080251693725586e-02) (30, 1.91741921007633209229e-02) (31, 6.39665424823760986328e-02) (32, 1.07950694859027862549e-01) (33, 4.07036170363426208496e-02) (34, 5.43903335928916931152e-02) (35, -2.09348738193511962891e-01) (18, 1.03005453944206237793e-01) (19, -1.16335451602935791016e-01) (20, -2.41122748702764511108e-02) (21, -3.12184244394302368164e-02) (22, 6.89494013786315917969e-02) (23, -4.25095744431018829346e-02) (24, 9.10529419779777526855e-02) (25, -2.94603295624256134033e-02) (26, 9.20749977231025695801e-02) (27, -1.54666230082511901855e-02) (28, 4.76406700909137725830e-02) (29, 8.08185636997222900391e-02) (30, 5.39349913597106933594e-02) (31, 5.13446703553199768066e-02) (32, 3.65762300789356231689e-02) (33, -3.10016833245754241943e-02) (34, -3.37703488767147064209e-02) (35, -2.32846274971961975098e-01) 
