FANN_FLO_2.1
num_layers=3
learning_rate=0.694349
connection_rate=1.000000
network_type=0
learning_momentum=0.000000
training_algorithm=0
train_error_function=1
train_stop_function=0
cascade_output_change_fraction=0.010000
quickprop_decay=-0.000100
quickprop_mu=1.750000
rprop_increase_factor=1.200000
rprop_decrease_factor=0.500000
rprop_delta_min=0.000000
rprop_delta_max=50.000000
rprop_delta_zero=0.100000
cascade_output_stagnation_epochs=12
cascade_candidate_change_fraction=0.010000
cascade_candidate_stagnation_epochs=12
cascade_max_out_epochs=150
cascade_min_out_epochs=50
cascade_max_cand_epochs=150
cascade_min_cand_epochs=50
cascade_num_candidate_groups=2
bit_fail_limit=3.49999994039535522461e-01
cascade_candidate_limit=1.00000000000000000000e+03
cascade_weight_multiplier=4.00000005960464477539e-01
cascade_activation_functions_count=10
cascade_activation_functions=3 5 7 8 10 11 14 15 16 17 
cascade_activation_steepnesses_count=32
cascade_activation_steepnesses=2.60000000000000000000e+01 3.22000000000000000000e+02 3.23000000000000000000e+02 3.24000000000000000000e+02 3.25000000000000000000e+02 3.26000000000000000000e+02 3.27000000000000000000e+02 3.28000000000000000000e+02 3.29000000000000000000e+02 3.30000000000000000000e+02 3.31000000000000000000e+02 3.32000000000000000000e+02 7.68000000000000000000e+02 7.69000000000000000000e+02 7.70000000000000000000e+02 7.71000000000000000000e+02 7.72000000000000000000e+02 7.73000000000000000000e+02 7.74000000000000000000e+02 7.75000000000000000000e+02 7.76000000000000000000e+02 7.77000000000000000000e+02 7.78000000000000000000e+02 7.79000000000000000000e+02 7.80000000000000000000e+02 1.15400000000000000000e+03 1.15600000000000000000e+03 0.00000000000000000000e+00 0.00000000000000000000e+00 0.00000000000000000000e+00 0.00000000000000000000e+00 0.00000000000000000000e+00 
layer_sizes=27 27 27 
scale_included=0
neurons (num_inputs, activation_function, activation_steepness)=(0, 0, 0.00000000000000000000e+00) (0, 0, 0.00000000000000000000e+00) (0, 0, 0.00000000000000000000e+00) (0, 0, 0.00000000000000000000e+00) (0, 0, 0.00000000000000000000e+00) (0, 0, 0.00000000000000000000e+00) (0, 0, 0.00000000000000000000e+00) (0, 0, 0.00000000000000000000e+00) (0, 0, 0.00000000000000000000e+00) (0, 0, 0.00000000000000000000e+00) (0, 0, 0.00000000000000000000e+00) (0, 0, 0.00000000000000000000e+00) (0, 0, 0.00000000000000000000e+00) (0, 0, 0.00000000000000000000e+00) (0, 0, 0.00000000000000000000e+00) (0, 0, 0.00000000000000000000e+00) (0, 0, 0.00000000000000000000e+00) (0, 0, 0.00000000000000000000e+00) (0, 0, 0.00000000000000000000e+00) (0, 0, 0.00000000000000000000e+00) (0, 0, 0.00000000000000000000e+00) (0, 0, 0.00000000000000000000e+00) (0, 0, 0.00000000000000000000e+00) (0, 0, 0.00000000000000000000e+00) (0, 0, 0.00000000000000000000e+00) (0, 0, 0.00000000000000000000e+00) (0, 0, 0.00000000000000000000e+00) (27, 5, 5.00000000000000000000e-01) (27, 5, 5.00000000000000000000e-01) (27, 5, 5.00000000000000000000e-01) (27, 5, 5.00000000000000000000e-01) (27, 5, 5.00000000000000000000e-01) (27, 5, 5.00000000000000000000e-01) (27, 5, 5.00000000000000000000e-01) (27, 5, 5.00000000000000000000e-01) (27, 5, 5.00000000000000000000e-01) (27, 5, 5.00000000000000000000e-01) (27, 5, 5.00000000000000000000e-01) (27, 5, 5.00000000000000000000e-01) (27, 5, 5.00000000000000000000e-01) (27, 5, 5.00000000000000000000e-01) (27, 5, 5.00000000000000000000e-01) (27, 5, 5.00000000000000000000e-01) (27, 5, 5.00000000000000000000e-01) (27, 5, 5.00000000000000000000e-01) (27, 5, 5.00000000000000000000e-01) (27, 5, 5.00000000000000000000e-01) (27, 5, 5.00000000000000000000e-01) (27, 5, 5.00000000000000000000e-01) (27, 5, 5.00000000000000000000e-01) (27, 5, 5.00000000000000000000e-01) (27, 5, 5.00000000000000000000e-01) (27, 5, 5.00000000000000000000e-01) (0, 5, 0.00000000000000000000e+00) (27, 3, 5.00000000000000000000e-01) (27, 3, 5.00000000000000000000e-01) (27, 3, 5.00000000000000000000e-01) (27, 3, 5.00000000000000000000e-01) (27, 3, 5.00000000000000000000e-01) (27, 3, 5.00000000000000000000e-01) (27, 3, 5.00000000000000000000e-01) (27, 3, 5.00000000000000000000e-01) (27, 3, 5.00000000000000000000e-01) (27, 3, 5.00000000000000000000e-01) (27, 3, 5.00000000000000000000e-01) (27, 3, 5.00000000000000000000e-01) (27, 3, 5.00000000000000000000e-01) (27, 3, 5.00000000000000000000e-01) (27, 3, 5.00000000000000000000e-01) (27, 3, 5.00000000000000000000e-01) (27, 3, 5.00000000000000000000e-01) (27, 3, 5.00000000000000000000e-01) (27, 3, 5.00000000000000000000e-01) (27, 3, 5.00000000000000000000e-01) (27, 3, 5.00000000000000000000e-01) (27, 3, 5.00000000000000000000e-01) (27, 3, 5.00000000000000000000e-01) (27, 3, 5.00000000000000000000e-01) (27, 3, 5.00000000000000000000e-01) (27, 3, 5.00000000000000000000e-01) (0, 3, 0.00000000000000000000e+00) 
connections (connected_to_neuron, weight)=(0, -6.25964462757110595703e-01) (1, -2.55758821964263916016e-01) (2, 2.98043084144592285156e+00) (3, 1.24165534973144531250e+00) (4, -1.67667949199676513672e+00) (5, 2.36616539955139160156e+00) (6, -2.01264667510986328125e+00) (7, 6.12590789794921875000e-01) (8, 3.16225814819335937500e+00) (9, 2.04703664779663085938e+00) (10, 2.03064537048339843750e+00) (11, -7.60421276092529296875e-01) (12, -1.89416813850402832031e+00) (13, 1.91516375541687011719e+00) (14, -7.31385409832000732422e-01) (15, 2.06528097391128540039e-01) (16, 9.06296849250793457031e-01) (17, -2.32798600196838378906e+00) (18, 3.03012585639953613281e+00) (19, -4.72696244716644287109e-01) (20, 3.02334594726562500000e+00) (21, 2.05429697036743164062e+00) (22, -6.61847710609436035156e-01) (23, -8.60658645629882812500e-01) (24, -1.52025222778320312500e-01) (25, -2.95978516340255737305e-01) (26, -7.15445578098297119141e-01) (0, 1.88458681106567382812e+00) (1, 3.62956595420837402344e+00) (2, 2.21604084968566894531e+00) (3, -2.68905353546142578125e+00) (4, -6.84803903102874755859e-01) (5, 6.84904098510742187500e-01) (6, -3.41400861740112304688e+00) (7, -6.85083508491516113281e-01) (8, 2.39219045639038085938e+00) (9, 2.41577744483947753906e+00) (10, 5.57950586080551147461e-02) (11, 3.72015833854675292969e-01) (12, 5.41973948478698730469e-01) (13, -2.14719220995903015137e-01) (14, 1.17085099220275878906e+00) (15, -4.26350593566894531250e+00) (16, 2.45195627212524414062e-01) (17, 2.20119214057922363281e+00) (18, 2.03747200965881347656e+00) (19, -3.18041890859603881836e-02) (20, 2.26451084017753601074e-03) (21, 1.91330873966217041016e+00) (22, 1.45899426937103271484e+00) (23, 8.47490951418876647949e-02) (24, 1.29933810234069824219e+00) (25, -1.40371656417846679688e+00) (26, -4.43807959556579589844e-01) (0, 7.05262199044227600098e-02) (1, 2.10107624530792236328e-01) (2, 2.72855138778686523438e+00) (3, -1.77133464813232421875e+00) (4, 8.03605735301971435547e-01) (5, 1.11093890666961669922e+00) (6, -1.12370622158050537109e+00) (7, -1.10491621494293212891e+00) (8, -1.94812107086181640625e+00) (9, 1.11569333076477050781e+00) (10, 6.35287344455718994141e-01) (11, 1.72673285007476806641e+00) (12, -1.68437600135803222656e-01) (13, 1.32409822940826416016e+00) (14, -7.57575929164886474609e-01) (15, -1.12857624888420104980e-01) (16, -5.31391382217407226562e-01) (17, -6.84731960296630859375e-01) (18, -9.30065810680389404297e-01) (19, -1.84599387645721435547e+00) (20, -2.02385234832763671875e+00) (21, 9.39151406288146972656e-01) (22, 7.91122794151306152344e-01) (23, -6.27684116363525390625e-01) (24, -1.42709863185882568359e+00) (25, 4.59722936153411865234e-01) (26, 7.32185244560241699219e-01) (0, -1.89922285079956054688e+00) (1, 2.28070640563964843750e+00) (2, 9.50633227825164794922e-01) (3, 1.22967600822448730469e+00) (4, -2.04917454719543457031e+00) (5, -1.64376246929168701172e+00) (6, -3.16060893237590789795e-02) (7, -4.31035637855529785156e-01) (8, -3.86902713775634765625e+00) (9, -1.27107405662536621094e+00) (10, 1.35362911224365234375e+00) (11, 7.61616826057434082031e-01) (12, 1.24970126152038574219e+00) (13, -1.83974969387054443359e+00) (14, -2.06451010704040527344e+00) (15, -3.35169982910156250000e+00) (16, -2.85216426849365234375e+00) (17, 1.41790437698364257812e+00) (18, 1.46102070808410644531e+00) (19, 1.13464009761810302734e+00) (20, 5.04820227622985839844e-01) (21, 4.08821153640747070312e+00) (22, 1.27471673488616943359e+00) (23, -9.02723073959350585938e-02) (24, -1.01627922058105468750e+00) (25, -5.83761215209960937500e-01) (26, 1.07247781753540039062e+00) (0, 7.92968690395355224609e-01) (1, -1.96545815467834472656e+00) (2, -2.68212509155273437500e+00) (3, -1.03984105587005615234e+00) (4, -7.55886256694793701172e-01) (5, 7.96884894371032714844e-02) (6, 1.25595808029174804688e-01) (7, -2.38106831908226013184e-01) (8, 2.83246457576751708984e-01) (9, -8.96030664443969726562e-01) (10, -1.02310740947723388672e+00) (11, 1.08173072338104248047e+00) (12, -3.38349163532257080078e-01) (13, -1.02579867839813232422e+00) (14, 4.83407139778137207031e-01) (15, -3.70264887809753417969e-01) (16, -1.35797333717346191406e+00) (17, 4.23093140125274658203e-03) (18, 1.50459301471710205078e+00) (19, 2.11522006988525390625e+00) (20, -9.07507240772247314453e-02) (21, -6.51596426963806152344e-01) (22, -1.51870870590209960938e+00) (23, -2.78755724430084228516e-01) (24, 1.74022722244262695312e+00) (25, -1.27205669879913330078e+00) (26, 2.66935914754867553711e-01) (0, 8.70278835296630859375e-01) (1, 2.06734132766723632812e+00) (2, 2.29270863533020019531e+00) (3, -6.25633239746093750000e-01) (4, 1.41258943080902099609e+00) (5, 2.08072710037231445312e+00) (6, -2.33895158767700195312e+00) (7, 6.54086053371429443359e-01) (8, -2.44020044803619384766e-01) (9, -2.58311420679092407227e-01) (10, 3.52453023195266723633e-01) (11, 1.11412990093231201172e+00) (12, -1.62424767017364501953e+00) (13, -5.96081554889678955078e-01) (14, 5.42106151580810546875e-01) (15, -1.88968956470489501953e+00) (16, 1.73867344856262207031e-01) (17, -1.30881392955780029297e+00) (18, -2.87777972221374511719e+00) (19, -2.18261218070983886719e+00) (20, 3.94901931285858154297e-02) (21, -2.46604040265083312988e-01) (22, 4.84422184526920318604e-02) (23, 1.02615809440612792969e+00) (24, -4.46335881948471069336e-01) (25, -1.41897666454315185547e+00) (26, -6.87342762947082519531e-01) (0, -4.76867008209228515625e+00) (1, 1.54626512527465820312e+00) (2, -1.43820273876190185547e+00) (3, -6.49259090423583984375e-01) (4, -2.64445281028747558594e+00) (5, -1.21518981456756591797e+00) (6, -6.42324626445770263672e-01) (7, -2.53098215907812118530e-02) (8, -3.51286679506301879883e-02) (9, 3.51326733827590942383e-01) (10, -1.66182947158813476562e+00) (11, -2.05140614509582519531e+00) (12, 5.97666203975677490234e-01) (13, 1.30114328861236572266e+00) (14, -2.20433568954467773438e+00) (15, -1.05553829669952392578e+00) (16, 7.55841061472892761230e-02) (17, 1.75657272338867187500e+00) (18, -4.02157068252563476562e-01) (19, -1.07730114459991455078e+00) (20, 9.51330900192260742188e-01) (21, -2.12862968444824218750e+00) (22, 2.97727644443511962891e-01) (23, -1.00943470001220703125e+00) (24, -1.47754669189453125000e+00) (25, 4.43041753768920898438e+00) (26, 1.02849602699279785156e+00) (0, 4.27179694175720214844e-01) (1, -1.97890400886535644531e+00) (2, 1.57686293125152587891e-01) (3, 2.31381669640541076660e-01) (4, 2.70604109764099121094e+00) (5, -1.96528947353363037109e+00) (6, -1.55977737903594970703e+00) (7, 1.33485102653503417969e+00) (8, -2.01463484764099121094e+00) (9, 2.43555024266242980957e-01) (10, 5.47050416469573974609e-01) (11, 1.74394178390502929688e+00) (12, -4.49797689914703369141e-01) (13, -3.32774686813354492188e+00) (14, 2.13560104370117187500e+00) (15, 6.80269718170166015625e-01) (16, 4.72173094749450683594e-04) (17, 1.13486683368682861328e+00) (18, 2.08311796188354492188e+00) (19, 1.19041502475738525391e+00) (20, -1.11691005527973175049e-01) (21, -6.19562268257141113281e-01) (22, 1.79942810535430908203e+00) (23, -3.51843059062957763672e-01) (24, -7.60279238224029541016e-01) (25, 1.28848135471343994141e+00) (26, 4.53463196754455566406e-02) (0, 4.20706897974014282227e-01) (1, 4.03667926788330078125e+00) (2, 1.46837890148162841797e-01) (3, 5.50640201568603515625e+00) (4, -8.18927347660064697266e-01) (5, -5.94853997230529785156e-01) (6, -1.36243367195129394531e+00) (7, 1.12542712688446044922e+00) (8, 9.93955254554748535156e-01) (9, 1.34260487556457519531e+00) (10, -1.66126906871795654297e+00) (11, 3.91273945569992065430e-01) (12, -1.39143931865692138672e+00) (13, 1.14478027820587158203e+00) (14, 8.09517860412597656250e-01) (15, -2.52285456657409667969e+00) (16, -1.15092122554779052734e+00) (17, -1.72451376914978027344e+00) (18, -7.84706175327301025391e-01) (19, -7.46894896030426025391e-01) (20, 2.20502781867980957031e+00) (21, -5.59002578258514404297e-01) (22, -3.63804697990417480469e-01) (23, 9.21010732650756835938e-01) (24, 1.34436547756195068359e+00) (25, -2.52188706398010253906e+00) (26, 1.29611760377883911133e-01) (0, 1.69091120362281799316e-01) (1, 1.00148476660251617432e-01) (2, 1.89687085151672363281e+00) (3, 3.96547245979309082031e+00) (4, 1.89050734043121337891e+00) (5, -5.34242749214172363281e-01) (6, 1.82003736495971679688e-01) (7, -1.22884750366210937500e+00) (8, -9.88075882196426391602e-02) (9, 2.97172546386718750000e+00) (10, -2.84154862165451049805e-02) (11, 5.27366101741790771484e-01) (12, 1.94059395790100097656e+00) (13, 1.25795209407806396484e+00) (14, 1.11699569225311279297e+00) (15, -7.39840686321258544922e-01) (16, 1.06217932701110839844e+00) (17, -6.43925964832305908203e-01) (18, 8.81210684776306152344e-01) (19, -9.88252162933349609375e-01) (20, -8.20144712924957275391e-01) (21, 1.60145580768585205078e+00) (22, 1.75738501548767089844e+00) (23, -1.76457190513610839844e+00) (24, 4.65419404208660125732e-02) (25, -6.46525561809539794922e-01) (26, -9.43576693534851074219e-01) (0, -1.09634792804718017578e+00) (1, 1.41903114318847656250e+00) (2, -1.19999802112579345703e+00) (3, -1.98798561096191406250e+00) (4, -1.25652086734771728516e+00) (5, 3.08251404762268066406e+00) (6, 4.13199329376220703125e+00) (7, -4.19650413095951080322e-02) (8, -1.85539269447326660156e+00) (9, -1.84704506397247314453e+00) (10, -9.10079419612884521484e-01) (11, 8.45431923866271972656e-01) (12, 9.45499464869499206543e-02) (13, -6.85402333736419677734e-01) (14, -9.89277482032775878906e-01) (15, -8.15401911735534667969e-01) (16, -1.44789612293243408203e+00) (17, 3.92054051160812377930e-01) (18, -2.21580386161804199219e+00) (19, 7.12385952472686767578e-01) (20, -3.21239918470382690430e-01) (21, -4.59508627653121948242e-01) (22, -8.61194014549255371094e-01) (23, 8.75403463840484619141e-01) (24, 1.03085815906524658203e-01) (25, -1.36173641681671142578e+00) (26, -1.89967632293701171875e-01) (0, 3.29585814476013183594e+00) (1, -4.42317724227905273438e-01) (2, -8.89831006526947021484e-01) (3, 2.35358333587646484375e+00) (4, 3.42877388000488281250e+00) (5, -1.87277138233184814453e+00) (6, -2.20350086688995361328e-01) (7, -1.70491075515747070312e+00) (8, -5.36630392074584960938e-01) (9, 1.13968849182128906250e+00) (10, 2.15683126449584960938e+00) (11, -3.15200376510620117188e+00) (12, -2.26108729839324951172e-01) (13, 7.04942107200622558594e-01) (14, -2.25478172302246093750e-01) (15, 1.27925395965576171875e-01) (16, 3.15159273147583007812e+00) (17, 2.19534635543823242188e-01) (18, -4.18096423149108886719e-01) (19, -7.14007496833801269531e-01) (20, 3.05202901363372802734e-01) (21, 1.96275174617767333984e+00) (22, 2.56771266460418701172e-01) (23, 1.55462071299552917480e-01) (24, -1.02134734392166137695e-01) (25, -3.30662894248962402344e+00) (26, 1.53801846504211425781e+00) (0, -1.14260077476501464844e+00) (1, -6.08901309967041015625e+00) (2, -1.01727044582366943359e+00) (3, -7.60686397552490234375e-01) (4, 1.78657209873199462891e+00) (5, -1.77721178531646728516e+00) (6, 1.88689514994621276855e-01) (7, 1.46189868450164794922e+00) (8, -1.25075340270996093750e+00) (9, 1.83541345596313476562e+00) (10, -4.00377839803695678711e-01) (11, 3.36661398410797119141e-01) (12, -9.18892025947570800781e-02) (13, 1.12057864665985107422e+00) (14, 6.00021004676818847656e-01) (15, 2.22011899948120117188e+00) (16, 5.27374744415283203125e-01) (17, 1.21750521659851074219e+00) (18, -1.46727234125137329102e-01) (19, 1.66044503450393676758e-01) (20, 3.41057538986206054688e-01) (21, 2.83546495437622070312e+00) (22, -1.11400175094604492188e+00) (23, -1.13703083992004394531e+00) (24, -1.51468002796173095703e+00) (25, 2.08640074729919433594e+00) (26, -8.80785584449768066406e-01) (0, -1.06887114048004150391e+00) (1, -1.79191029071807861328e+00) (2, 9.73221182823181152344e-01) (3, -4.04094886779785156250e+00) (4, -1.05095314979553222656e+00) (5, -1.60142397880554199219e+00) (6, 1.07929027080535888672e+00) (7, 2.58930706977844238281e+00) (8, 1.43675160408020019531e+00) (9, 1.35745167732238769531e-01) (10, -6.77835822105407714844e-01) (11, 7.70856440067291259766e-01) (12, -2.41061925888061523438e+00) (13, -1.70420551300048828125e+00) (14, -1.09028601646423339844e+00) (15, 8.47623229026794433594e-01) (16, 3.26720833778381347656e-01) (17, 4.27926868200302124023e-01) (18, 3.52069884538650512695e-02) (19, 8.24783861637115478516e-01) (20, 8.08780312538146972656e-01) (21, 5.92227220535278320312e-01) (22, -1.15763306617736816406e+00) (23, -1.23190335929393768311e-01) (24, 5.56134879589080810547e-01) (25, 1.89088845252990722656e+00) (26, 6.06088519096374511719e-01) (0, 5.67904531955718994141e-01) (1, -1.59843361377716064453e+00) (2, -1.43116748332977294922e+00) (3, 1.72936892509460449219e+00) (4, -1.39059221744537353516e+00) (5, -5.23261666297912597656e-01) (6, 3.85623812675476074219e-01) (7, 1.64026394486427307129e-03) (8, -1.49499833583831787109e+00) (9, 1.93261229991912841797e+00) (10, -2.81204843521118164062e+00) (11, -5.11919200420379638672e-01) (12, 1.50838267803192138672e+00) (13, 2.10580277442932128906e+00) (14, 5.28820231556892395020e-02) (15, -2.19856500625610351562e+00) (16, 2.35833692550659179688e+00) (17, 2.17397212982177734375e+00) (18, -2.92449831962585449219e-01) (19, -1.18091297149658203125e+00) (20, -2.35989117622375488281e+00) (21, -1.22321844100952148438e+00) (22, 1.38634514808654785156e+00) (23, -1.75200676918029785156e+00) (24, 3.41416209936141967773e-01) (25, 3.29922199249267578125e-01) (26, 5.84331929683685302734e-01) (0, 1.76525640487670898438e+00) (1, -9.01975929737091064453e-01) (2, 1.48101842403411865234e+00) (3, 6.20970189571380615234e-01) (4, -3.02674627304077148438e+00) (5, -6.26234960556030273438e+00) (6, -1.09974050521850585938e+00) (7, 5.82771122455596923828e-01) (8, 2.60736346244812011719e-01) (9, -2.47727006673812866211e-01) (10, -1.83684098720550537109e+00) (11, 2.60248124599456787109e-01) (12, -1.11951637268066406250e+00) (13, -6.81603401899337768555e-02) (14, 8.65530610084533691406e-01) (15, 2.70456409454345703125e+00) (16, 8.45893144607543945312e-01) (17, 1.34886085987091064453e-01) (18, 2.09181499481201171875e+00) (19, 2.30018544197082519531e+00) (20, -4.75117683410644531250e-01) (21, -1.03076934814453125000e+00) (22, -9.05718028545379638672e-01) (23, -1.28411281108856201172e+00) (24, -1.75356090068817138672e+00) (25, -3.86963859200477600098e-02) (26, 1.17953968048095703125e+00) (0, -1.50262132287025451660e-01) (1, -1.35280013084411621094e+00) (2, 3.59841465950012207031e-01) (3, 7.40281939506530761719e-01) (4, -7.63799965381622314453e-01) (5, -4.66147437691688537598e-02) (6, -1.62189185619354248047e-01) (7, 6.34672999382019042969e-01) (8, -3.28135514259338378906e+00) (9, 9.81029272079467773438e-01) (10, 4.24156367778778076172e-01) (11, 1.69996643066406250000e+00) (12, -7.71953165531158447266e-01) (13, -1.83456552028656005859e+00) (14, 1.52145874500274658203e+00) (15, 6.57239675521850585938e-01) (16, -2.03052237629890441895e-02) (17, -1.34505748748779296875e+00) (18, 1.86687970161437988281e+00) (19, 9.45418834686279296875e-01) (20, -4.34314548969268798828e-01) (21, 1.78403782844543457031e+00) (22, -7.62621045112609863281e-01) (23, -3.04961770772933959961e-01) (24, -1.55477237701416015625e+00) (25, -1.08762121200561523438e+00) (26, 9.88612622022628784180e-02) (0, 1.38419711589813232422e+00) (1, 2.48300957679748535156e+00) (2, 1.26838755607604980469e+00) (3, -3.89812493324279785156e+00) (4, -1.99280858039855957031e+00) (5, -1.64999723434448242188e+00) (6, -2.35799098014831542969e+00) (7, 2.52992677688598632812e+00) (8, -2.58043026924133300781e+00) (9, -2.36622065305709838867e-01) (10, -4.16315406560897827148e-01) (11, -1.91237354278564453125e+00) (12, -1.10569559037685394287e-01) (13, 1.44599282741546630859e+00) (14, 1.34585094451904296875e+00) (15, 1.58406376838684082031e+00) (16, 4.75645971298217773438e+00) (17, -1.84993445873260498047e-01) (18, -2.52845764160156250000e-01) (19, -1.68169319629669189453e-01) (20, -1.86888605356216430664e-01) (21, -9.45609927177429199219e-01) (22, -3.40505331754684448242e-01) (23, 1.00378859043121337891e+00) (24, -3.78018355369567871094e+00) (25, -1.19131267070770263672e+00) (26, -5.70834159851074218750e-01) (0, -2.32677149772644042969e+00) (1, 5.62729060649871826172e-01) (2, -3.07885432243347167969e+00) (3, 1.24882049858570098877e-01) (4, 1.69194102287292480469e+00) (5, -1.74164310097694396973e-01) (6, -7.77702331542968750000e-02) (7, -1.38479399681091308594e+00) (8, 2.98175239562988281250e+00) (9, 1.06165230274200439453e+00) (10, 1.46309232711791992188e+00) (11, -3.16218686103820800781e+00) (12, 1.16010379791259765625e+00) (13, 3.28200435638427734375e+00) (14, -8.64255428314208984375e-03) (15, 5.58779656887054443359e-01) (16, 3.92365479469299316406e+00) (17, -1.28958785533905029297e+00) (18, 7.04962432384490966797e-01) (19, -1.06496691703796386719e+00) (20, 2.15392574667930603027e-01) (21, 1.57071197032928466797e+00) (22, 3.47150653600692749023e-01) (23, 1.66884645819664001465e-01) (24, 1.48228919506072998047e+00) (25, 3.07919025421142578125e+00) (26, 7.09556341171264648438e-02) (0, -4.99960362911224365234e-01) (1, 1.86810180544853210449e-01) (2, 3.13057756423950195312e+00) (3, 6.42033052444458007812e+00) (4, 4.15438079833984375000e+00) (5, -1.46273827552795410156e+00) (6, 2.04215407371520996094e-01) (7, 4.96384590864181518555e-01) (8, -2.96176970005035400391e-01) (9, 1.11643028259277343750e+00) (10, -1.35670661926269531250e+00) (11, -2.18230772018432617188e+00) (12, 8.62321555614471435547e-01) (13, -7.18931704759597778320e-02) (14, 8.70391167700290679932e-03) (15, 4.27036195993423461914e-01) (16, -2.31500077247619628906e+00) (17, -2.99032807350158691406e-01) (18, -2.55585384368896484375e+00) (19, -1.32303059101104736328e+00) (20, -2.17284750938415527344e+00) (21, -4.02380108833312988281e-01) (22, 1.18000125885009765625e+00) (23, -3.40197086334228515625e+00) (24, -1.19725024700164794922e+00) (25, 4.78617221117019653320e-01) (26, -5.93444406986236572266e-01) (0, -2.18349099159240722656e+00) (1, -2.73094320297241210938e+00) (2, -6.24604701995849609375e-01) (3, 2.32572150230407714844e+00) (4, 8.09440970420837402344e-01) (5, 2.00532913208007812500e+00) (6, 1.32246363162994384766e+00) (7, -3.89743864536285400391e-01) (8, -1.21855363249778747559e-01) (9, 4.87041994929313659668e-02) (10, 4.48997825384140014648e-01) (11, 2.32882678508758544922e-01) (12, -3.46430987119674682617e-01) (13, -8.95255744457244873047e-01) (14, 5.26415258646011352539e-02) (15, -1.43631160259246826172e+00) (16, -9.46330368518829345703e-01) (17, 1.77938556671142578125e+00) (18, 2.51029467582702636719e+00) (19, 9.77634310722351074219e-01) (20, 1.57839834690093994141e+00) (21, -7.74571239948272705078e-01) (22, 2.47903302311897277832e-01) (23, -6.58131122589111328125e-01) (24, 6.05083763599395751953e-01) (25, 1.89469671249389648438e+00) (26, 8.53908061981201171875e-01) (0, 9.38030838966369628906e-01) (1, -4.96040821075439453125e-01) (2, 1.17256976664066314697e-02) (3, 3.78789514303207397461e-01) (4, -5.92185735702514648438e-01) (5, 3.56473535299301147461e-01) (6, -4.27823483943939208984e-01) (7, -6.85163676738739013672e-01) (8, 1.95725381374359130859e+00) (9, 1.72203302383422851562e+00) (10, -1.80564928054809570312e+00) (11, -2.28914523124694824219e+00) (12, -1.30457654595375061035e-01) (13, 1.83354571461677551270e-01) (14, -8.50317835807800292969e-01) (15, 1.43587127327919006348e-01) (16, -1.55490851402282714844e+00) (17, -6.72872781753540039062e-01) (18, -3.96059870719909667969e-01) (19, 1.66570290923118591309e-01) (20, -4.00793433189392089844e-01) (21, -7.56510913372039794922e-01) (22, -4.78127300739288330078e-01) (23, -3.10803800821304321289e-01) (24, 5.53635209798812866211e-02) (25, -1.53721261024475097656e+00) (26, 1.41922965645790100098e-01) (0, -1.37057840824127197266e-01) (1, 3.24254602193832397461e-01) (2, -2.56907492876052856445e-01) (3, 5.06895828247070312500e+00) (4, 4.75565338134765625000e+00) (5, 6.50452518463134765625e+00) (6, -2.72004461288452148438e+00) (7, -6.07986509799957275391e-01) (8, 2.86545491218566894531e+00) (9, 4.93913561105728149414e-01) (10, -1.27101552486419677734e+00) (11, 3.37715387344360351562e-01) (12, 1.29298716783523559570e-01) (13, -1.28820717334747314453e+00) (14, 7.11895972490310668945e-02) (15, -8.60548496246337890625e-01) (16, 9.44480359554290771484e-01) (17, -5.93660831451416015625e-01) (18, -2.06852269172668457031e+00) (19, 1.00700843334197998047e+00) (20, 2.94429278373718261719e+00) (21, -1.49303841590881347656e+00) (22, -3.82587671279907226562e-01) (23, 1.58340406417846679688e+00) (24, 4.83149290084838867188e-01) (25, -2.64797163009643554688e+00) (26, -2.96342444419860839844e+00) (0, -2.15703892707824707031e+00) (1, -6.32128775119781494141e-01) (2, 1.25978660583496093750e+00) (3, -2.41068795323371887207e-01) (4, -8.90278637409210205078e-01) (5, -1.94861865043640136719e+00) (6, -3.35670518875122070312e+00) (7, 1.16604089736938476562e+00) (8, -1.25301480293273925781e+00) (9, 1.70005702972412109375e+00) (10, -2.19286262989044189453e-01) (11, 3.13372373580932617188e+00) (12, -2.12494349479675292969e+00) (13, 3.79183053970336914062e-01) (14, -1.97145089507102966309e-01) (15, 1.08925294876098632812e+00) (16, 9.69564855098724365234e-01) (17, -1.16196274757385253906e+00) (18, -2.46190762519836425781e+00) (19, -2.27420258522033691406e+00) (20, 1.01156842708587646484e+00) (21, -1.89023882150650024414e-01) (22, 1.20324420928955078125e+00) (23, -6.09072625637054443359e-01) (24, 9.15970027446746826172e-01) (25, 1.75322103500366210938e+00) (26, 8.14718604087829589844e-01) (0, 9.63765799999237060547e-01) (1, -1.57127308845520019531e+00) (2, 2.01036000251770019531e+00) (3, 1.12291350960731506348e-01) (4, -3.48442387580871582031e+00) (5, -1.24738097190856933594e+00) (6, 2.43242931365966796875e+00) (7, -5.95604777336120605469e-01) (8, -2.15663909912109375000e+00) (9, -3.03909361362457275391e-01) (10, 5.37357568740844726562e-01) (11, 2.68803358078002929688e-01) (12, 3.18407475948333740234e-01) (13, 1.25985252857208251953e+00) (14, 1.30618488788604736328e+00) (15, 1.96022450923919677734e-01) (16, 1.87158572673797607422e+00) (17, -2.81280994415283203125e-01) (18, -1.85710239410400390625e+00) (19, -1.82492291927337646484e+00) (20, 9.34945046901702880859e-01) (21, 2.13373398780822753906e+00) (22, 4.92290675640106201172e-01) (23, -1.54625678062438964844e+00) (24, -2.11056590080261230469e+00) (25, -1.11654675006866455078e+00) (26, 9.04205217957496643066e-02) (0, -2.19370916485786437988e-01) (1, 3.80495309829711914062e+00) (2, -8.80802690982818603516e-01) (3, -2.49314403533935546875e+00) (4, -3.04277211427688598633e-01) (5, -2.49174274504184722900e-02) (6, 1.52900040149688720703e-01) (7, -1.12608277797698974609e+00) (8, -5.43530523777008056641e-01) (9, 3.94441783428192138672e-01) (10, -1.11368942260742187500e+00) (11, 2.57613450288772583008e-01) (12, 5.54683864116668701172e-01) (13, 1.29160749912261962891e+00) (14, 6.58906400203704833984e-01) (15, 1.74183559417724609375e+00) (16, -3.64912956953048706055e-01) (17, -2.44972443580627441406e+00) (18, 7.09815084934234619141e-01) (19, 7.96121418476104736328e-01) (20, -4.84194374084472656250e+00) (21, -3.53856921195983886719e-01) (22, -3.15118288993835449219e+00) (23, 7.87578940391540527344e-01) (24, -1.36346125602722167969e+00) (25, 1.35508620738983154297e+00) (26, 1.37059795856475830078e+00) (27, 1.37777730822563171387e-01) (28, 1.60220742225646972656e-01) (29, -3.19400578737258911133e-01) (30, -4.05044198036193847656e-01) (31, -4.01181101799011230469e-01) (32, -1.10480226576328277588e-01) (33, -3.16113442182540893555e-01) (34, 1.38008311390876770020e-01) (35, -1.67740970849990844727e-01) (36, 3.27758669853210449219e-01) (37, 3.47003526985645294189e-02) (38, -4.41632926464080810547e-01) (39, 6.82079270482063293457e-02) (40, -2.60767728090286254883e-01) (41, -2.22525894641876220703e-01) (42, -6.09899088740348815918e-02) (43, -5.29723875224590301514e-02) (44, -1.12819038331508636475e-01) (45, 9.63767990469932556152e-02) (46, 3.43572080135345458984e-01) (47, -2.77585885487496852875e-03) (48, -4.05289083719253540039e-01) (49, 4.06437158584594726562e-01) (50, -5.70608437061309814453e-01) (51, 1.51068985462188720703e-01) (52, -1.66390672326087951660e-01) (53, 3.03077340126037597656e+00) (27, 3.53659451007843017578e-01) (28, 5.53581416606903076172e-01) (29, -7.49389588832855224609e-01) (30, -1.58452463150024414062e+00) (31, 1.22003483772277832031e+00) (32, -5.69175362586975097656e-01) (33, -2.97452163696289062500e+00) (34, -1.99080392718315124512e-01) (35, 3.89446735382080078125e-01) (36, -3.67798469960689544678e-03) (37, 6.53144598007202148438e-01) (38, 1.96370410919189453125e+00) (39, -4.18164402246475219727e-01) (40, -7.82801806926727294922e-01) (41, 2.97738194465637207031e-01) (42, 1.19551920890808105469e+00) (43, -1.83295354247093200684e-01) (44, 1.47957354784011840820e-01) (45, -1.97400271892547607422e+00) (46, -4.58766669034957885742e-01) (47, -2.02978968620300292969e+00) (48, 8.90574514865875244141e-01) (49, 1.32013893127441406250e+00) (50, -1.27491223812103271484e+00) (51, 9.00427818298339843750e-01) (52, -2.04977884888648986816e-01) (53, -7.68189311027526855469e-01) (27, 3.74172657728195190430e-01) (28, 1.29843199253082275391e+00) (29, -7.47457921504974365234e-01) (30, 7.64147341251373291016e-01) (31, 1.53289809823036193848e-01) (32, 1.03678512573242187500e+00) (33, -1.76510000228881835938e+00) (34, -1.04020309448242187500e+00) (35, 1.63171088695526123047e+00) (36, 1.71648636460304260254e-01) (37, 5.09402573108673095703e-01) (38, 4.63167250156402587891e-01) (39, -2.08207869529724121094e+00) (40, -1.17002367973327636719e+00) (41, -1.04970896244049072266e+00) (42, 7.73177981376647949219e-01) (43, -5.98879516124725341797e-01) (44, 1.17239177227020263672e+00) (45, -1.37784242630004882812e+00) (46, 3.15472990274429321289e-01) (47, -2.26164197921752929688e+00) (48, -6.88599944114685058594e-02) (49, 1.15712273120880126953e+00) (50, -9.39851105213165283203e-01) (51, -1.41846847534179687500e+00) (52, 1.28098762035369873047e+00) (53, -3.84876585006713867188e+00) (27, -1.21974062919616699219e+00) (28, -6.54132246971130371094e-01) (29, -1.02336096763610839844e+00) (30, -5.41563034057617187500e-01) (31, 6.10054612159729003906e-01) (32, -1.57717514038085937500e+00) (33, 1.01346361637115478516e+00) (34, 7.60509431362152099609e-01) (35, -7.42861032485961914062e-01) (36, -3.60640108585357666016e-01) (37, -1.67574122548103332520e-01) (38, 3.94748657941818237305e-01) (39, 1.63250267505645751953e+00) (40, 1.04878909885883331299e-01) (41, 6.21020048856735229492e-02) (42, -1.10686108469963073730e-01) (43, 2.96418577432632446289e-01) (44, -7.00333833694458007812e-01) (45, 1.72817945480346679688e+00) (46, -1.14548444747924804688e+00) (47, 1.71286797523498535156e+00) (48, -3.38299274444580078125e-01) (49, -2.67371237277984619141e-01) (50, -6.20688498020172119141e-01) (51, -1.08889222145080566406e+00) (52, 1.22668027877807617188e-01) (53, 4.25009489059448242188e+00) (27, -9.19003367424011230469e-01) (28, 1.71970558166503906250e+00) (29, 1.12674260139465332031e+00) (30, -1.06232440471649169922e+00) (31, 3.12756985425949096680e-01) (32, -4.32415157556533813477e-01) (33, -1.52008114382624626160e-02) (34, 1.25656565651297569275e-02) (35, -1.78564047813415527344e+00) (36, -1.74287486076354980469e+00) (37, 6.04751706123352050781e-02) (38, -7.09406614303588867188e-01) (39, 9.70895767211914062500e-01) (40, 2.30891561508178710938e+00) (41, -6.46082222461700439453e-01) (42, -8.95956635475158691406e-01) (43, -7.56386637687683105469e-01) (44, -1.97550654411315917969e-01) (45, 1.59672510623931884766e+00) (46, -2.88078832626342773438e+00) (47, -9.01552498340606689453e-01) (48, -1.97171092033386230469e-01) (49, -2.30913066864013671875e+00) (50, -7.72698223590850830078e-02) (51, -5.89259028434753417969e-01) (52, 1.15931940078735351562e+00) (53, 6.42384827136993408203e-01) (27, -8.98882746696472167969e-01) (28, -1.69247269630432128906e+00) (29, -1.99013277888298034668e-01) (30, -1.06369264423847198486e-01) (31, -1.33589327335357666016e+00) (32, 7.49633014202117919922e-01) (33, -8.53245019912719726562e-01) (34, 1.43734407424926757812e+00) (35, 1.71082186698913574219e+00) (36, 1.56735754013061523438e+00) (37, -2.05244994163513183594e+00) (38, 1.00380241870880126953e+00) (39, 1.36677730083465576172e+00) (40, -1.05361521244049072266e+00) (41, 6.27077817916870117188e-01) (42, -1.32720160484313964844e+00) (43, -7.30772912502288818359e-01) (44, -1.06033647060394287109e+00) (45, -4.19023409485816955566e-02) (46, 2.32676410675048828125e+00) (47, 4.41420495510101318359e-01) (48, -3.64994406700134277344e-01) (49, 2.06053543090820312500e+00) (50, -4.88300591707229614258e-01) (51, -1.81693613529205322266e+00) (52, -3.03141266107559204102e-01) (53, 1.78647041320800781250e+00) (27, 9.52744424343109130859e-01) (28, -1.24038207530975341797e+00) (29, 4.61741924285888671875e-01) (30, -1.45039033889770507812e+00) (31, 8.68801891803741455078e-01) (32, 1.51555454730987548828e+00) (33, -1.13102066516876220703e+00) (34, -8.45458209514617919922e-01) (35, 5.99059946835041046143e-02) (36, 5.78489124774932861328e-01) (37, 9.52138125896453857422e-01) (38, -1.52227175235748291016e+00) (39, -3.47012251615524291992e-01) (40, -2.20069599151611328125e+00) (41, -4.28531825542449951172e-01) (42, -2.80202507972717285156e+00) (43, -8.82054418325424194336e-02) (44, 5.12513071298599243164e-02) (45, 3.54941301047801971436e-02) (46, -7.55240842700004577637e-02) (47, 9.75984692573547363281e-01) (48, -4.00121748447418212891e-01) (49, 3.56553459167480468750e+00) (50, 4.14462625980377197266e-01) (51, -3.18114608526229858398e-02) (52, -1.20267462730407714844e+00) (53, -2.44498634338378906250e+00) (27, -9.37209352850914001465e-02) (28, -1.75464296340942382812e+00) (29, -6.03456139564514160156e-01) (30, -1.14532545208930969238e-01) (31, 5.08545599877834320068e-02) (32, -4.35650460422039031982e-02) (33, -8.17853629589080810547e-01) (34, -8.13572168350219726562e-01) (35, 4.90488111972808837891e-01) (36, 4.30619984865188598633e-01) (37, 2.25760507583618164062e+00) (38, -3.67173284292221069336e-01) (39, 7.70671665668487548828e-01) (40, -3.30768704414367675781e-01) (41, -1.82394713163375854492e-01) (42, -2.62794280052185058594e+00) (43, 3.49504411220550537109e-01) (44, -6.69638633728027343750e-01) (45, -1.30230879783630371094e+00) (46, 8.92482399940490722656e-01) (47, 3.43880772590637207031e-01) (48, 2.22651958465576171875e-01) (49, 1.83090806007385253906e+00) (50, -6.04842603206634521484e-01) (51, 2.06249400973320007324e-01) (52, -1.21311247348785400391e-02) (53, -3.85150122642517089844e+00) (27, -3.10653448104858398438e-02) (28, -1.37895727157592773438e+00) (29, -1.62221801280975341797e+00) (30, 2.21114605665206909180e-02) (31, 1.41701370477676391602e-01) (32, 5.76893270015716552734e-01) (33, 1.03509449958801269531e+00) (34, -5.21274149417877197266e-01) (35, 1.10838067531585693359e+00) (36, -1.31362318992614746094e+00) (37, 1.45363092422485351562e+00) (38, 7.85137712955474853516e-01) (39, -4.00033056735992431641e-01) (40, 6.17621064186096191406e-01) (41, 5.47779388725757598877e-02) (42, -1.43169224262237548828e+00) (43, -3.92351657152175903320e-01) (44, 1.78397938609123229980e-01) (45, -6.28901183605194091797e-01) (46, 3.52789968252182006836e-01) (47, 6.03806793689727783203e-01) (48, -1.62290066480636596680e-01) (49, 1.74467527866363525391e+00) (50, 8.48229289054870605469e-01) (51, 2.69672721624374389648e-01) (52, -1.34901750087738037109e+00) (53, -4.09011125564575195312e+00) (27, 1.37680634856224060059e-01) (28, -7.51649916172027587891e-01) (29, -7.05541014671325683594e-01) (30, -5.07277727127075195312e-01) (31, 3.22771161794662475586e-01) (32, 2.88249462842941284180e-01) (33, 1.18987393379211425781e+00) (34, -2.66765326261520385742e-01) (35, 5.42886972427368164062e-01) (36, -8.39454054832458496094e-01) (37, 8.91315996646881103516e-01) (38, -2.98972427845001220703e-01) (39, 1.05506432056427001953e+00) (40, 1.15611743927001953125e+00) (41, -1.05550229549407958984e+00) (42, -1.02447819709777832031e+00) (43, -6.45883560180664062500e-01) (44, -2.87866175174713134766e-01) (45, -2.02073097229003906250e-01) (46, 6.21944785118103027344e-01) (47, 2.15498015284538269043e-01) (48, 9.32815968990325927734e-01) (49, 6.88343107700347900391e-01) (50, -1.68779939413070678711e-01) (51, 5.42637050151824951172e-01) (52, -1.16010904312133789062e+00) (53, -3.54117465019226074219e+00) (27, 6.59704685211181640625e-01) (28, -4.74675834178924560547e-01) (29, -4.28185313940048217773e-01) (30, -2.61436123400926589966e-02) (31, 1.89104318618774414062e-01) (32, -1.39887899160385131836e-01) (33, 7.89078235626220703125e-01) (34, -5.54849684238433837891e-01) (35, 8.39484035968780517578e-01) (36, 8.23868438601493835449e-02) (37, 1.58422812819480895996e-01) (38, 1.17580093443393707275e-01) (39, 7.34119117259979248047e-01) (40, 5.30386567115783691406e-01) (41, -2.88912534713745117188e-01) (42, -7.68668830394744873047e-01) (43, -3.97085100412368774414e-01) (44, 7.29753077030181884766e-02) (45, 3.40796947479248046875e-01) (46, 2.69588023424148559570e-01) (47, -1.05542905628681182861e-01) (48, 1.22638499736785888672e+00) (49, 5.90521991252899169922e-01) (50, 9.80598852038383483887e-02) (51, 6.60114824771881103516e-01) (52, -5.12235403060913085938e-01) (53, -3.78582119941711425781e+00) (27, -9.50483679771423339844e-01) (28, 7.99481630325317382812e-01) (29, 8.74106466770172119141e-01) (30, 1.43569588661193847656e+00) (31, 2.38831728696823120117e-01) (32, 6.81949853897094726562e-01) (33, -1.41192781925201416016e+00) (34, 9.75848436355590820312e-01) (35, -4.53133434057235717773e-01) (36, 8.50940883159637451172e-01) (37, 9.43881198763847351074e-02) (38, -1.49900853633880615234e+00) (39, 2.16999650001525878906e+00) (40, 5.84658980369567871094e-01) (41, 7.95035809278488159180e-03) (42, -4.41217273473739624023e-01) (43, 2.00729537010192871094e+00) (44, 4.84646558761596679688e-01) (45, -5.53022503852844238281e-01) (46, -7.36463442444801330566e-02) (47, -1.20459437370300292969e-01) (48, -7.89261102676391601562e-01) (49, -2.68001437187194824219e-01) (50, 1.11477673053741455078e+00) (51, -2.06678181886672973633e-01) (52, 1.62351906299591064453e+00) (53, -1.60778546333312988281e+00) (27, 1.96360933780670166016e+00) (28, -7.83695340156555175781e-01) (29, 3.45524132251739501953e-01) (30, -1.66599094867706298828e+00) (31, -9.23152446746826171875e-01) (32, 2.25588038563728332520e-01) (33, 4.00136590003967285156e-01) (34, -9.32987093925476074219e-01) (35, 1.14662706851959228516e+00) (36, 1.26258480548858642578e+00) (37, -6.39224946498870849609e-01) (38, 3.69039237499237060547e-01) (39, 2.70226329565048217773e-01) (40, 1.29784464836120605469e+00) (41, -5.14416217803955078125e-01) (42, 3.97545397281646728516e-02) (43, -6.08578383922576904297e-01) (44, 1.29550516605377197266e+00) (45, 1.26313090324401855469e+00) (46, 7.09654211997985839844e-01) (47, -1.01063895225524902344e+00) (48, 4.00239408016204833984e-01) (49, -9.10216748714447021484e-01) (50, 2.71981000900268554688e+00) (51, 9.83237981796264648438e-01) (52, -4.89358305931091308594e-01) (53, 1.68427419662475585938e+00) (27, 9.00647323578596115112e-03) (28, 5.98458647727966308594e-01) (29, 3.35324883460998535156e-01) (30, -1.49945461750030517578e+00) (31, -6.60598754882812500000e-01) (32, -3.12515139579772949219e-01) (33, 1.44195902347564697266e+00) (34, 8.99624545127153396606e-03) (35, 1.59362956881523132324e-01) (36, 7.71803081035614013672e-01) (37, -8.51907253265380859375e-01) (38, 4.45648580789566040039e-01) (39, 8.68662655353546142578e-01) (40, -4.24110800027847290039e-01) (41, 1.26939845085144042969e+00) (42, 4.11990880966186523438e-01) (43, 3.23561757802963256836e-01) (44, 2.33580160140991210938e+00) (45, 2.85189300775527954102e-01) (46, 3.06797593832015991211e-01) (47, -7.46898174285888671875e-01) (48, 1.61158382892608642578e+00) (49, -4.05407011508941650391e-01) (50, -7.15439856052398681641e-01) (51, -7.13453710079193115234e-01) (52, 1.35681617259979248047e+00) (53, 3.04601335525512695312e+00) (27, -1.86075836420059204102e-01) (28, -2.86928367614746093750e+00) (29, -2.60900408029556274414e-01) (30, -1.68801093101501464844e+00) (31, -1.80216503143310546875e+00) (32, -1.16335354745388031006e-01) (33, -5.78469038009643554688e-01) (34, 2.18940213322639465332e-01) (35, -2.55365014076232910156e-01) (36, -5.49102962017059326172e-01) (37, -4.04094070196151733398e-01) (38, 1.30746304988861083984e+00) (39, 1.15641081333160400391e+00) (40, 5.03661751747131347656e-01) (41, 9.31129977107048034668e-02) (42, -1.41969442367553710938e-01) (43, -3.85709077119827270508e-01) (44, 1.71897435188293457031e+00) (45, 1.74871289730072021484e+00) (46, -9.96785759925842285156e-01) (47, -1.07640755176544189453e+00) (48, -2.16497331857681274414e-01) (49, 8.49383831024169921875e-01) (50, 7.55424916744232177734e-01) (51, -5.64146339893341064453e-02) (52, 9.32821214199066162109e-01) (53, 3.61113876104354858398e-01) (27, 4.64915424585342407227e-01) (28, -6.05194032192230224609e-01) (29, -9.24752175807952880859e-01) (30, -2.90341496467590332031e-01) (31, 7.64749646186828613281e-01) (32, -2.36229825019836425781e+00) (33, 1.35526084899902343750e+00) (34, -5.93810081481933593750e-01) (35, 1.07914233207702636719e+00) (36, 2.22809386253356933594e+00) (37, -8.99889945983886718750e-01) (38, 1.19320321083068847656e+00) (39, -1.71662122011184692383e-01) (40, -1.20299351215362548828e+00) (41, -2.14052990078926086426e-01) (42, -5.93153178691864013672e-01) (43, -2.97693789005279541016e-01) (44, -1.15964245796203613281e+00) (45, 2.27188253402709960938e+00) (46, -1.10236239433288574219e+00) (47, -2.02020853757858276367e-02) (48, -7.15560138225555419922e-01) (49, -3.35357844829559326172e-01) (50, 1.48181170225143432617e-02) (51, 1.52403399348258972168e-01) (52, -3.18550765514373779297e-02) (53, 1.19515866041183471680e-01) (27, -6.22032284736633300781e-01) (28, 1.11313067376613616943e-01) (29, 1.35530844330787658691e-01) (30, -6.58998310565948486328e-01) (31, -1.63099810481071472168e-01) (32, 8.42590853571891784668e-02) (33, 2.24818423390388488770e-01) (34, 1.24385643005371093750e+00) (35, -3.86593565344810485840e-02) (36, 1.58364593982696533203e+00) (37, -1.98061779141426086426e-01) (38, 1.25165522098541259766e-01) (39, 2.68829345703125000000e+00) (40, -1.18705540895462036133e-01) (41, 1.25170660018920898438e+00) (42, 2.72079199552536010742e-01) (43, 9.59327995777130126953e-01) (44, 7.27472603321075439453e-01) (45, -1.80351400375366210938e+00) (46, 1.68110179901123046875e+00) (47, 1.34162223339080810547e+00) (48, -4.05076861381530761719e-01) (49, 4.63890820741653442383e-01) (50, 1.63272023200988769531e+00) (51, 9.04318511486053466797e-01) (52, -1.48907911777496337891e+00) (53, -1.16051626205444335938e+00) (27, 6.68394684791564941406e-01) (28, 4.30374145507812500000e-02) (29, -2.19736218452453613281e-01) (30, -8.86139392852783203125e-01) (31, 2.46251150965690612793e-02) (32, -2.98943191766738891602e-01) (33, 1.96895569562911987305e-01) (34, -7.37411737442016601562e-01) (35, 1.55642107129096984863e-01) (36, 1.22197401523590087891e+00) (37, 4.75512057542800903320e-01) (38, -1.65644681453704833984e+00) (39, 1.10769796371459960938e+00) (40, -5.91964960098266601562e-01) (41, 2.38267540931701660156e+00) (42, -1.86219483613967895508e-01) (43, -6.78756892681121826172e-01) (44, -4.56939414143562316895e-02) (45, 1.37725734710693359375e+00) (46, 7.88382172584533691406e-01) (47, 5.68841040134429931641e-01) (48, 2.57526636123657226562e-01) (49, 3.95264118909835815430e-01) (50, -2.12182021141052246094e+00) (51, -6.80701076984405517578e-01) (52, 1.04655230045318603516e+00) (53, -2.03201723098754882812e+00) (27, -1.73803412914276123047e+00) (28, -9.15616154670715332031e-01) (29, 5.34997880458831787109e-03) (30, -2.40851566195487976074e-01) (31, 5.92070698738098144531e-01) (32, 7.34529256820678710938e-01) (33, 8.11299920082092285156e-01) (34, 9.91818249225616455078e-01) (35, 1.50883719325065612793e-01) (36, -2.07511019706726074219e+00) (37, -9.25588756799697875977e-02) (38, -9.88480508327484130859e-01) (39, -6.82761967182159423828e-01) (40, 4.84800994396209716797e-01) (41, 4.14339840412139892578e-01) (42, 1.45700800418853759766e+00) (43, -1.41177833080291748047e-01) (44, 1.02565824985504150391e+00) (45, -8.93719434738159179688e-01) (46, -1.21477156877517700195e-01) (47, -1.50885534286499023438e+00) (48, -1.92594468593597412109e-01) (49, 1.98553502559661865234e+00) (50, 1.49446725845336914062e-03) (51, -8.96615266799926757812e-01) (52, -1.45624518394470214844e-01) (53, -1.82356238365173339844e+00) (27, -2.95004129409790039062e-01) (28, 2.87576961517333984375e+00) (29, 4.44474339485168457031e-01) (30, 1.49769991636276245117e-01) (31, 2.34406381845474243164e-01) (32, 1.57380115985870361328e+00) (33, -2.65894079208374023438e+00) (34, -1.01966366171836853027e-01) (35, 1.17420029640197753906e+00) (36, 6.44827842712402343750e-01) (37, 1.89357841014862060547e+00) (38, -9.24929499626159667969e-01) (39, -1.53812915086746215820e-01) (40, -2.53260210156440734863e-02) (41, 4.14951443672180175781e-02) (42, -2.22073531150817871094e+00) (43, 4.92527008056640625000e-01) (44, -8.71743798255920410156e-01) (45, 5.17330169677734375000e-01) (46, -8.08615803718566894531e-01) (47, -8.16469669342041015625e-01) (48, 9.31550085544586181641e-01) (49, -1.30711376667022705078e+00) (50, 2.15434598922729492188e+00) (51, 1.92239955067634582520e-02) (52, 3.62113118171691894531e-01) (53, -2.63913106918334960938e+00) (27, 9.16948974132537841797e-01) (28, -1.89785704016685485840e-01) (29, -7.05352663993835449219e-01) (30, -2.21945613622665405273e-01) (31, 1.59026610851287841797e+00) (32, -1.01028323173522949219e+00) (33, 1.01350776851177215576e-01) (34, 1.92520296573638916016e+00) (35, -7.45985237881541252136e-03) (36, 3.01041007041931152344e-01) (37, -1.09082579612731933594e+00) (38, -1.24026560783386230469e+00) (39, -6.59378886222839355469e-01) (40, 7.43035614490509033203e-01) (41, -1.03027987480163574219e+00) (42, -7.73185715079307556152e-02) (43, 6.04384653270244598389e-02) (44, -1.15031194686889648438e+00) (45, -1.44340741634368896484e+00) (46, 4.71359610557556152344e-01) (47, 4.59493547677993774414e-01) (48, 2.87663578987121582031e-01) (49, 3.04719758033752441406e+00) (50, -2.38324299454689025879e-01) (51, -1.76390922069549560547e+00) (52, -4.36741292476654052734e-01) (53, -1.22144973278045654297e+00) (27, 2.32602834701538085938e+00) (28, 1.50852844119071960449e-01) (29, 6.10427320003509521484e-01) (30, -2.01640868186950683594e+00) (31, 1.01829075813293457031e+00) (32, 9.06780660152435302734e-01) (33, -1.51675319671630859375e+00) (34, -9.09024178981781005859e-01) (35, -5.46119734644889831543e-03) (36, 1.17191322147846221924e-01) (37, 8.86539667844772338867e-02) (38, -6.28966212272644042969e-01) (39, -1.35862380266189575195e-01) (40, 1.04610598087310791016e+00) (41, 5.32407045364379882812e-01) (42, -1.49494081735610961914e-01) (43, 3.48663985729217529297e-01) (44, 5.62194466590881347656e-01) (45, 1.24612987041473388672e+00) (46, -8.36318016052246093750e-01) (47, 1.09468591213226318359e+00) (48, 1.13564409315586090088e-01) (49, 6.73814535140991210938e-01) (50, 1.98753133416175842285e-01) (51, -1.01738190650939941406e+00) (52, 7.41037428379058837891e-01) (53, -1.88949084281921386719e+00) (27, 6.23418152332305908203e-01) (28, 1.07772171497344970703e+00) (29, 2.05855667591094970703e-02) (30, 7.73420333862304687500e-01) (31, -2.00140163302421569824e-01) (32, 3.16298723220825195312e-01) (33, -1.04213908314704895020e-01) (34, 4.80572402477264404297e-01) (35, -8.66558432579040527344e-01) (36, 7.98583865165710449219e-01) (37, -2.13972234725952148438e+00) (38, 1.69761955738067626953e+00) (39, 1.25077116489410400391e+00) (40, -6.08564257621765136719e-01) (41, -2.96625494956970214844e-01) (42, -1.21673798561096191406e+00) (43, -2.70435005426406860352e-01) (44, 1.38274884223937988281e+00) (45, 1.92723619937896728516e+00) (46, -1.20389139652252197266e+00) (47, -5.80058276653289794922e-01) (48, -1.10449707508087158203e+00) (49, 4.47177678346633911133e-01) (50, -1.20583915710449218750e+00) (51, 1.31675422191619873047e+00) (52, -2.35453987121582031250e+00) (53, -7.29137480258941650391e-01) (27, -5.51603794097900390625e-01) (28, -1.03646969795227050781e+00) (29, -1.65235221385955810547e-01) (30, 9.03392553329467773438e-01) (31, 2.42934569716453552246e-01) (32, 7.74767160415649414062e-01) (33, -1.20957446098327636719e+00) (34, 2.37420186400413513184e-01) (35, 6.38714432716369628906e-01) (36, -8.76890301704406738281e-01) (37, 1.09689676761627197266e+00) (38, 5.62180519104003906250e-01) (39, 7.05846309661865234375e-01) (40, -7.12928831577301025391e-01) (41, -9.62695121765136718750e-01) (42, -1.83362948894500732422e+00) (43, -1.01021182537078857422e+00) (44, 2.28291124105453491211e-01) (45, 5.28036653995513916016e-01) (46, -6.62636280059814453125e-01) (47, -6.86584115028381347656e-01) (48, -1.58305868506431579590e-01) (49, 4.42490249872207641602e-01) (50, -9.50086176395416259766e-01) (51, -1.09132635593414306641e+00) (52, -4.60748404264450073242e-01) (53, -4.20621967315673828125e+00) (27, -3.84180486202239990234e-01) (28, -1.66040742397308349609e+00) (29, 6.34703218936920166016e-01) (30, -2.54007649421691894531e+00) (31, 3.19607704877853393555e-01) (32, 6.76007688045501708984e-01) (33, -2.35830664634704589844e+00) (34, 1.63127541542053222656e+00) (35, -1.65846538543701171875e+00) (36, -2.61575102806091308594e-01) (37, -4.46642756462097167969e-01) (38, -1.16172671318054199219e+00) (39, 1.31813955307006835938e+00) (40, 6.49322271347045898438e-01) (41, 4.46865230798721313477e-01) (42, -2.85989612340927124023e-01) (43, -3.00291299819946289062e-01) (44, 1.64074361324310302734e+00) (45, -2.98120621591806411743e-02) (46, -4.81795102357864379883e-01) (47, -8.56664776802062988281e-01) (48, -5.65123617649078369141e-01) (49, -8.61051306128501892090e-02) (50, -3.02494287490844726562e-01) (51, -1.63693085312843322754e-01) (52, -1.23101615905761718750e+00) (53, 1.01477062702178955078e+00) (27, -1.02765625342726707458e-02) (28, 6.67929410934448242188e-01) (29, -6.37065827846527099609e-01) (30, -9.68337297439575195312e-01) (31, -1.11071050167083740234e+00) (32, -4.72346246242523193359e-01) (33, -6.93440318107604980469e-01) (34, 1.37640014290809631348e-01) (35, -2.28765934705734252930e-01) (36, 8.05305063724517822266e-01) (37, 5.12187294661998748779e-02) (38, -1.32385694980621337891e+00) (39, 2.56462097167968750000e-01) (40, -3.44279229640960693359e-01) (41, -3.24633002281188964844e-01) (42, -1.87824249267578125000e-01) (43, -4.36622112989425659180e-01) (44, 1.05713762342929840088e-01) (45, 3.61708432435989379883e-01) (46, 5.12856245040893554688e-01) (47, -2.83565163612365722656e-01) (48, -1.00002419948577880859e+00) (49, 6.70657753944396972656e-01) (50, -1.03484904766082763672e+00) (51, 3.41624826192855834961e-01) (52, -3.42124432325363159180e-01) (53, 2.79796266555786132812e+00) 
