FANN_FLO_2.1
num_layers=3
learning_rate=0.673366
connection_rate=1.000000
network_type=0
learning_momentum=0.000000
training_algorithm=0
train_error_function=1
train_stop_function=0
cascade_output_change_fraction=0.010000
quickprop_decay=-0.000100
quickprop_mu=1.750000
rprop_increase_factor=1.200000
rprop_decrease_factor=0.500000
rprop_delta_min=0.000000
rprop_delta_max=50.000000
rprop_delta_zero=0.100000
cascade_output_stagnation_epochs=12
cascade_candidate_change_fraction=0.010000
cascade_candidate_stagnation_epochs=12
cascade_max_out_epochs=150
cascade_min_out_epochs=50
cascade_max_cand_epochs=150
cascade_min_cand_epochs=50
cascade_num_candidate_groups=2
bit_fail_limit=3.49999994039535522461e-01
cascade_candidate_limit=1.00000000000000000000e+03
cascade_weight_multiplier=4.00000005960464477539e-01
cascade_activation_functions_count=10
cascade_activation_functions=3 5 7 8 10 11 14 15 16 17 
cascade_activation_steepnesses_count=53
cascade_activation_steepnesses=0.00000000000000000000e+00 0.00000000000000000000e+00 0.00000000000000000000e+00 1.50000000000000000000e+01 6.08300000000000000000e+03 6.08400000000000000000e+03 6.08500000000000000000e+03 6.08600000000000000000e+03 6.08700000000000000000e+03 6.08800000000000000000e+03 6.08900000000000000000e+03 6.09000000000000000000e+03 6.09100000000000000000e+03 6.09200000000000000000e+03 6.09300000000000000000e+03 6.09400000000000000000e+03 6.09500000000000000000e+03 6.09600000000000000000e+03 6.09700000000000000000e+03 0.00000000000000000000e+00 0.00000000000000000000e+00 3.00000000000000000000e+01 1.07629100000000000000e+06 1.07629200000000000000e+06 1.07629300000000000000e+06 1.07629400000000000000e+06 1.07629500000000000000e+06 1.07629600000000000000e+06 1.07629700000000000000e+06 1.07629800000000000000e+06 1.07629900000000000000e+06 1.07630000000000000000e+06 1.07630100000000000000e+06 1.07630200000000000000e+06 1.07630300000000000000e+06 1.07630400000000000000e+06 1.07630500000000000000e+06 1.07667500000000000000e+06 1.07667600000000000000e+06 1.07667700000000000000e+06 1.07667800000000000000e+06 1.07667900000000000000e+06 1.07668000000000000000e+06 1.07668100000000000000e+06 1.07668200000000000000e+06 1.07668300000000000000e+06 1.07668400000000000000e+06 1.07668500000000000000e+06 1.07668600000000000000e+06 1.07668700000000000000e+06 1.07668800000000000000e+06 1.07668900000000000000e+06 0.00000000000000000000e+00 
layer_sizes=46 46 46 
scale_included=0
neurons (num_inputs, activation_function, activation_steepness)=(0, 0, 0.00000000000000000000e+00) (0, 0, 0.00000000000000000000e+00) (0, 0, 0.00000000000000000000e+00) (0, 0, 0.00000000000000000000e+00) (0, 0, 0.00000000000000000000e+00) (0, 0, 0.00000000000000000000e+00) (0, 0, 0.00000000000000000000e+00) (0, 0, 0.00000000000000000000e+00) (0, 0, 0.00000000000000000000e+00) (0, 0, 0.00000000000000000000e+00) (0, 0, 0.00000000000000000000e+00) (0, 0, 0.00000000000000000000e+00) (0, 0, 0.00000000000000000000e+00) (0, 0, 0.00000000000000000000e+00) (0, 0, 0.00000000000000000000e+00) (0, 0, 0.00000000000000000000e+00) (0, 0, 0.00000000000000000000e+00) (0, 0, 0.00000000000000000000e+00) (0, 0, 0.00000000000000000000e+00) (0, 0, 0.00000000000000000000e+00) (0, 0, 0.00000000000000000000e+00) (0, 0, 0.00000000000000000000e+00) (0, 0, 0.00000000000000000000e+00) (0, 0, 0.00000000000000000000e+00) (0, 0, 0.00000000000000000000e+00) (0, 0, 0.00000000000000000000e+00) (0, 0, 0.00000000000000000000e+00) (0, 0, 0.00000000000000000000e+00) (0, 0, 0.00000000000000000000e+00) (0, 0, 0.00000000000000000000e+00) (0, 0, 0.00000000000000000000e+00) (0, 0, 0.00000000000000000000e+00) (0, 0, 0.00000000000000000000e+00) (0, 0, 0.00000000000000000000e+00) (0, 0, 0.00000000000000000000e+00) (0, 0, 0.00000000000000000000e+00) (0, 0, 0.00000000000000000000e+00) (0, 0, 0.00000000000000000000e+00) (0, 0, 0.00000000000000000000e+00) (0, 0, 0.00000000000000000000e+00) (0, 0, 0.00000000000000000000e+00) (0, 0, 0.00000000000000000000e+00) (0, 0, 0.00000000000000000000e+00) (0, 0, 0.00000000000000000000e+00) (0, 0, 0.00000000000000000000e+00) (0, 0, 0.00000000000000000000e+00) (46, 5, 5.00000000000000000000e-01) (46, 5, 5.00000000000000000000e-01) (46, 5, 5.00000000000000000000e-01) (46, 5, 5.00000000000000000000e-01) (46, 5, 5.00000000000000000000e-01) (46, 5, 5.00000000000000000000e-01) (46, 5, 5.00000000000000000000e-01) (46, 5, 5.00000000000000000000e-01) (46, 5, 5.00000000000000000000e-01) (46, 5, 5.00000000000000000000e-01) (46, 5, 5.00000000000000000000e-01) (46, 5, 5.00000000000000000000e-01) (46, 5, 5.00000000000000000000e-01) (46, 5, 5.00000000000000000000e-01) (46, 5, 5.00000000000000000000e-01) (46, 5, 5.00000000000000000000e-01) (46, 5, 5.00000000000000000000e-01) (46, 5, 5.00000000000000000000e-01) (46, 5, 5.00000000000000000000e-01) (46, 5, 5.00000000000000000000e-01) (46, 5, 5.00000000000000000000e-01) (46, 5, 5.00000000000000000000e-01) (46, 5, 5.00000000000000000000e-01) (46, 5, 5.00000000000000000000e-01) (46, 5, 5.00000000000000000000e-01) (46, 5, 5.00000000000000000000e-01) (46, 5, 5.00000000000000000000e-01) (46, 5, 5.00000000000000000000e-01) (46, 5, 5.00000000000000000000e-01) (46, 5, 5.00000000000000000000e-01) (46, 5, 5.00000000000000000000e-01) (46, 5, 5.00000000000000000000e-01) (46, 5, 5.00000000000000000000e-01) (46, 5, 5.00000000000000000000e-01) (46, 5, 5.00000000000000000000e-01) (46, 5, 5.00000000000000000000e-01) (46, 5, 5.00000000000000000000e-01) (46, 5, 5.00000000000000000000e-01) (46, 5, 5.00000000000000000000e-01) (46, 5, 5.00000000000000000000e-01) (46, 5, 5.00000000000000000000e-01) (46, 5, 5.00000000000000000000e-01) (46, 5, 5.00000000000000000000e-01) (46, 5, 5.00000000000000000000e-01) (46, 5, 5.00000000000000000000e-01) (0, 5, 0.00000000000000000000e+00) (46, 3, 5.00000000000000000000e-01) (46, 3, 5.00000000000000000000e-01) (46, 3, 5.00000000000000000000e-01) (46, 3, 5.00000000000000000000e-01) (46, 3, 5.00000000000000000000e-01) (46, 3, 5.00000000000000000000e-01) (46, 3, 5.00000000000000000000e-01) (46, 3, 5.00000000000000000000e-01) (46, 3, 5.00000000000000000000e-01) (46, 3, 5.00000000000000000000e-01) (46, 3, 5.00000000000000000000e-01) (46, 3, 5.00000000000000000000e-01) (46, 3, 5.00000000000000000000e-01) (46, 3, 5.00000000000000000000e-01) (46, 3, 5.00000000000000000000e-01) (46, 3, 5.00000000000000000000e-01) (46, 3, 5.00000000000000000000e-01) (46, 3, 5.00000000000000000000e-01) (46, 3, 5.00000000000000000000e-01) (46, 3, 5.00000000000000000000e-01) (46, 3, 5.00000000000000000000e-01) (46, 3, 5.00000000000000000000e-01) (46, 3, 5.00000000000000000000e-01) (46, 3, 5.00000000000000000000e-01) (46, 3, 5.00000000000000000000e-01) (46, 3, 5.00000000000000000000e-01) (46, 3, 5.00000000000000000000e-01) (46, 3, 5.00000000000000000000e-01) (46, 3, 5.00000000000000000000e-01) (46, 3, 5.00000000000000000000e-01) (46, 3, 5.00000000000000000000e-01) (46, 3, 5.00000000000000000000e-01) (46, 3, 5.00000000000000000000e-01) (46, 3, 5.00000000000000000000e-01) (46, 3, 5.00000000000000000000e-01) (46, 3, 5.00000000000000000000e-01) (46, 3, 5.00000000000000000000e-01) (46, 3, 5.00000000000000000000e-01) (46, 3, 5.00000000000000000000e-01) (46, 3, 5.00000000000000000000e-01) (46, 3, 5.00000000000000000000e-01) (46, 3, 5.00000000000000000000e-01) (46, 3, 5.00000000000000000000e-01) (46, 3, 5.00000000000000000000e-01) (46, 3, 5.00000000000000000000e-01) (0, 3, 0.00000000000000000000e+00) 
connections (connected_to_neuron, weight)=(0, -3.72706174850463867188e+00) (1, -2.18312168121337890625e+00) (2, -4.44214391708374023438e+00) (3, -4.67702054977416992188e+00) (4, -1.81196856498718261719e+00) (5, 2.93322563171386718750e+00) (6, -9.54475402832031250000e-02) (7, 2.57580327987670898438e+00) (8, 5.46689093112945556641e-01) (9, 1.80008733272552490234e+00) (10, 2.13340282440185546875e+00) (11, 1.31590282917022705078e+00) (12, 5.34951806068420410156e-01) (13, 9.66407001018524169922e-01) (14, -3.90486121177673339844e-01) (15, -3.70585346221923828125e+00) (16, -2.34792065620422363281e+00) (17, -4.51333761215209960938e+00) (18, -4.66506433486938476562e+00) (19, -1.75584912300109863281e+00) (20, 2.79815912246704101562e+00) (21, -1.22600488364696502686e-01) (22, 2.38862991333007812500e+00) (23, 4.85701739788055419922e-01) (24, 1.79888236522674560547e+00) (25, 2.14784765243530273438e+00) (26, 1.23865473270416259766e+00) (27, 4.17458236217498779297e-01) (28, 8.63464653491973876953e-01) (29, -2.72308051586151123047e-01) (30, 4.43434491753578186035e-02) (31, 2.21736693382263183594e+00) (32, 2.25336861610412597656e+00) (33, 2.21992850303649902344e+00) (34, 8.74936580657958984375e-04) (35, 5.61527721583843231201e-02) (36, 2.18373608589172363281e+00) (37, 2.25795817375183105469e+00) (38, 2.27977013587951660156e+00) (39, 9.92339178919792175293e-02) (40, 3.73286716639995574951e-02) (41, 8.40015336871147155762e-02) (42, 5.63709624111652374268e-02) (43, -2.06433665007352828979e-02) (44, 2.85621881484985351562e-02) (45, 2.00459742546081542969e+00) (0, -3.40078449249267578125e+00) (1, -5.03718519210815429688e+00) (2, -8.18996334075927734375e+00) (3, -2.60814338922500610352e-01) (4, -5.82168340682983398438e-01) (5, -4.62324291467666625977e-01) (6, 4.49271231889724731445e-01) (7, -1.05792200565338134766e+00) (8, 7.19106614589691162109e-01) (9, -9.71604436635971069336e-02) (10, 2.93264389038085937500e-01) (11, -2.19113752245903015137e-01) (12, -1.96217149496078491211e-02) (13, 7.86443412303924560547e-01) (14, 2.19532704353332519531e+00) (15, -3.40179252624511718750e+00) (16, -5.16417741775512695312e+00) (17, -8.11478137969970703125e+00) (18, -3.90467196702957153320e-01) (19, -4.93744283914566040039e-01) (20, -4.59731608629226684570e-01) (21, 3.73425036668777465820e-01) (22, -1.04798138141632080078e+00) (23, 5.93849122524261474609e-01) (24, -1.78493171930313110352e-01) (25, 3.95301401615142822266e-01) (26, -2.40259587764739990234e-01) (27, 3.08824870735406875610e-02) (28, 7.26219356060028076172e-01) (29, 2.34407138824462890625e+00) (30, -4.82237935066223144531e-02) (31, 2.72793602943420410156e+00) (32, 2.82802462577819824219e+00) (33, 2.85078454017639160156e+00) (34, 7.54116177558898925781e-02) (35, 2.10837367922067642212e-02) (36, 2.75422787666320800781e+00) (37, 2.87487006187438964844e+00) (38, 2.87263941764831542969e+00) (39, -8.55663865804672241211e-02) (40, 3.04377675056457519531e-02) (41, -7.91836977005004882812e-02) (42, -2.11675409227609634399e-02) (43, 3.48452329635620117188e-02) (44, 3.49165797233581542969e-02) (45, 1.72909879684448242188e+00) (0, -7.27214002609252929688e+00) (1, -3.81346315145492553711e-01) (2, -2.07129120826721191406e-01) (3, 9.98017251491546630859e-01) (4, 8.18805515766143798828e-01) (5, 5.06818950176239013672e-01) (6, 3.88912844657897949219e+00) (7, 2.78528952598571777344e+00) (8, -1.25417208671569824219e+00) (9, -1.50143623352050781250e+00) (10, -1.33523374795913696289e-01) (11, -1.40342116355895996094e+00) (12, -4.63912725448608398438e-01) (13, 1.67349621653556823730e-01) (14, 2.88458794355392456055e-01) (15, -7.32547950744628906250e+00) (16, -4.06339138746261596680e-01) (17, -1.23051501810550689697e-01) (18, 1.02903270721435546875e+00) (19, 8.63437592983245849609e-01) (20, 4.05942380428314208984e-01) (21, 4.05076169967651367188e+00) (22, 2.74329590797424316406e+00) (23, -1.26596498489379882812e+00) (24, -1.62390995025634765625e+00) (25, -1.95993706583976745605e-02) (26, -1.43765044212341308594e+00) (27, -5.62466800212860107422e-01) (28, 1.62243232131004333496e-01) (29, 4.17329937219619750977e-01) (30, 8.18292871117591857910e-02) (31, 8.32906544208526611328e-01) (32, 7.44059622287750244141e-01) (33, 6.76831901073455810547e-01) (34, 1.54120568186044692993e-02) (35, 4.64604496955871582031e-02) (36, 8.34656536579132080078e-01) (37, 7.83654630184173583984e-01) (38, 6.72482192516326904297e-01) (39, -9.14828330278396606445e-02) (40, -3.59917394816875457764e-02) (41, -1.34073561057448387146e-02) (42, -3.11537273228168487549e-02) (43, -5.75114786624908447266e-02) (44, 9.77942273020744323730e-02) (45, 3.78854840993881225586e-01) (0, 5.46566486358642578125e-01) (1, -4.09900665283203125000e-01) (2, -6.90881788730621337891e-01) (3, -9.66829061508178710938e-01) (4, 9.67955052852630615234e-01) (5, 8.38672742247581481934e-02) (6, 1.68782621622085571289e-01) (7, 4.24887597560882568359e-01) (8, 1.28165531158447265625e+00) (9, 1.45997717976570129395e-01) (10, 5.22227361798286437988e-02) (11, 2.07586929202079772949e-01) (12, -7.86847352981567382812e-01) (13, -3.54525260627269744873e-03) (14, -9.57384645938873291016e-01) (15, 5.52812695503234863281e-01) (16, -4.11804705858230590820e-01) (17, -5.40690720081329345703e-01) (18, -8.83702039718627929688e-01) (19, 9.91215348243713378906e-01) (20, 1.23570054769515991211e-01) (21, 2.56690680980682373047e-01) (22, 5.47775864601135253906e-01) (23, 1.34534192085266113281e+00) (24, 2.41327583789825439453e-01) (25, 6.78692832589149475098e-02) (26, 1.31768286228179931641e-01) (27, -7.02597022056579589844e-01) (28, -5.15051782131195068359e-02) (29, -9.96425688266754150391e-01) (30, -1.75968948751688003540e-02) (31, -1.85998260974884033203e+00) (32, -1.84601104259490966797e+00) (33, -1.88654363155364990234e+00) (34, 7.53008276224136352539e-02) (35, 6.26690015196800231934e-02) (36, -1.99273824691772460938e+00) (37, -1.81436002254486083984e+00) (38, -1.99944281578063964844e+00) (39, 1.21502643451094627380e-02) (40, -9.13221091032028198242e-02) (41, -7.87011310458183288574e-02) (42, -6.26633837819099426270e-02) (43, 5.84000349044799804688e-03) (44, 4.23338413238525390625e-02) (45, -3.60532626509666442871e-02) (0, 1.89504861831665039062e+00) (1, 2.68091249465942382812e+00) (2, 6.00520372390747070312e-01) (3, -7.29646027088165283203e-01) (4, 1.82136118412017822266e+00) (5, -6.89391136169433593750e+00) (6, -5.92301797866821289062e+00) (7, -2.97511315345764160156e+00) (8, -2.05998563766479492188e+00) (9, -1.77121609449386596680e-01) (10, -6.18342638015747070312e-01) (11, -3.05423110723495483398e-01) (12, 4.71573293209075927734e-01) (13, 5.78908443450927734375e-01) (14, 1.89957094192504882812e+00) (15, 1.88808727264404296875e+00) (16, 2.72310829162597656250e+00) (17, 5.53120255470275878906e-01) (18, -7.29956448078155517578e-01) (19, 1.81272137165069580078e+00) (20, -6.91215038299560546875e+00) (21, -5.81431484222412109375e+00) (22, -2.95888924598693847656e+00) (23, -2.03463888168334960938e+00) (24, -2.68834054470062255859e-01) (25, -6.24027013778686523438e-01) (26, -3.08144301176071166992e-01) (27, 4.35785233974456787109e-01) (28, 6.05989217758178710938e-01) (29, 1.99202311038970947266e+00) (30, 8.32175984978675842285e-02) (31, 2.71150398254394531250e+00) (32, 2.59906053543090820312e+00) (33, 2.64395809173583984375e+00) (34, -4.12109978497028350830e-02) (35, 2.81039960682392120361e-02) (36, 2.68805074691772460938e+00) (37, 2.61043167114257812500e+00) (38, 2.72403526306152343750e+00) (39, 4.47616092860698699951e-02) (40, 7.43320137262344360352e-02) (41, -4.97570410370826721191e-02) (42, -9.90054160356521606445e-02) (43, -3.02008744329214096069e-02) (44, 9.96804013848304748535e-02) (45, 2.70420694351196289062e+00) (0, -2.55987143516540527344e+00) (1, -3.03201079368591308594e+00) (2, -1.06009709835052490234e+00) (3, -1.60852038860321044922e+00) (4, 2.42204949259757995605e-01) (5, 1.71821641921997070312e+00) (6, -1.24224209785461425781e+00) (7, -2.18688654899597167969e+00) (8, -5.30193865299224853516e-01) (9, 7.25528895854949951172e-02) (10, -1.51613211631774902344e+00) (11, -3.03906798362731933594e-01) (12, 4.85972642898559570312e-01) (13, 1.42316091060638427734e+00) (14, 6.22751057147979736328e-01) (15, -2.48731160163879394531e+00) (16, -3.09090638160705566406e+00) (17, -1.10376679897308349609e+00) (18, -1.73928630352020263672e+00) (19, 1.71540811657905578613e-01) (20, 1.57679772377014160156e+00) (21, -1.14530491828918457031e+00) (22, -2.05927348136901855469e+00) (23, -5.29946386814117431641e-01) (24, 9.19089168310165405273e-02) (25, -1.48486590385437011719e+00) (26, -3.06928098201751708984e-01) (27, 4.46644663810729980469e-01) (28, 1.54770958423614501953e+00) (29, 6.23564422130584716797e-01) (30, -9.79281961917877197266e-02) (31, 2.48608160018920898438e+00) (32, 2.60992193222045898438e+00) (33, 2.60881805419921875000e+00) (34, 9.17074605822563171387e-02) (35, 3.62443700432777404785e-02) (36, 2.60224533081054687500e+00) (37, 2.48586988449096679688e+00) (38, 2.60291290283203125000e+00) (39, 8.87125954031944274902e-02) (40, 2.40303035825490951538e-02) (41, -3.80852036178112030029e-02) (42, -3.21353860199451446533e-02) (43, -3.89582477509975433350e-02) (44, 3.66074219346046447754e-02) (45, 2.10715627670288085938e+00) (0, 5.23932266235351562500e+00) (1, 5.00328350067138671875e+00) (2, 3.87609505653381347656e+00) (3, -8.27332213521003723145e-02) (4, 2.36186638474464416504e-01) (5, -9.59223270416259765625e-01) (6, -2.14586630463600158691e-01) (7, 1.83510050177574157715e-01) (8, 3.47193837165832519531e-01) (9, 2.71795570850372314453e-01) (10, -5.97785890102386474609e-01) (11, 5.31654238700866699219e-01) (12, -5.63142716884613037109e-01) (13, -6.10593378543853759766e-01) (14, -8.45403850078582763672e-01) (15, 5.20172595977783203125e+00) (16, 5.02881145477294921875e+00) (17, 3.87668061256408691406e+00) (18, -1.64716944098472595215e-01) (19, 3.58592897653579711914e-01) (20, -1.07440125942230224609e+00) (21, -2.85424858331680297852e-01) (22, 1.97505190968513488770e-01) (23, 3.69868993759155273438e-01) (24, 2.92980641126632690430e-01) (25, -5.89201390743255615234e-01) (26, 5.40113568305969238281e-01) (27, -5.71776211261749267578e-01) (28, -7.40206718444824218750e-01) (29, -7.76148140430450439453e-01) (30, -2.41689812391996383667e-02) (31, -3.43575167655944824219e+00) (32, -3.30017066001892089844e+00) (33, -3.29608178138732910156e+00) (34, 9.82301756739616394043e-02) (35, -9.40112322568893432617e-02) (36, -3.37731003761291503906e+00) (37, -3.29321837425231933594e+00) (38, -3.41010117530822753906e+00) (39, -9.39697027206420898438e-02) (40, 8.93789082765579223633e-02) (41, 8.06088075041770935059e-02) (42, -7.31783807277679443359e-02) (43, 3.09810768812894821167e-02) (44, 3.18789966404438018799e-02) (45, -2.07076764106750488281e+00) (0, 1.09617567062377929688e+00) (1, -4.76266831159591674805e-01) (2, -6.54110219329595565796e-03) (3, 3.84205961227416992188e+00) (4, 2.20900848507881164551e-01) (5, 3.78451824188232421875e+00) (6, 4.55169343948364257812e+00) (7, 5.98537921905517578125e-01) (8, -8.86196643114089965820e-02) (9, 5.13006448745727539062e-01) (10, 9.68682885169982910156e-01) (11, -7.94315040111541748047e-02) (12, -3.72540146112442016602e-01) (13, -1.36008405685424804688e+00) (14, -1.57501563429832458496e-01) (15, 1.15979063510894775391e+00) (16, -4.64596837759017944336e-01) (17, -1.01993381977081298828e-01) (18, 3.73495101928710937500e+00) (19, 2.40914419293403625488e-01) (20, 3.69145917892456054688e+00) (21, 4.62956333160400390625e+00) (22, 5.27427434921264648438e-01) (23, -1.20436049997806549072e-01) (24, 5.31802833080291748047e-01) (25, 9.26336050033569335938e-01) (26, -1.59889802336692810059e-01) (27, -2.59890973567962646484e-01) (28, -1.49310588836669921875e+00) (29, -2.71938860416412353516e-01) (30, -1.48820877075195312500e-03) (31, -1.79728949069976806641e+00) (32, -1.70528757572174072266e+00) (33, -1.78843605518341064453e+00) (34, -3.15918922424316406250e-02) (35, -7.61864800006151199341e-03) (36, -1.79406559467315673828e+00) (37, -1.74494969844818115234e+00) (38, -1.82881057262420654297e+00) (39, -5.46364001929759979248e-02) (40, -3.77563536167144775391e-02) (41, 6.60556480288505554199e-02) (42, -6.36794269084930419922e-02) (43, 2.46822237968444824219e-02) (44, 4.85682487487792968750e-03) (45, -1.65891110897064208984e+00) (0, 4.51261967420578002930e-01) (1, 1.77704119682312011719e+00) (2, 3.35464417934417724609e-01) (3, -9.07855391502380371094e-01) (4, -7.69698858261108398438e-01) (5, -7.37752556800842285156e-01) (6, -1.55570876598358154297e+00) (7, -2.39915370941162109375e+00) (8, -5.70902252197265625000e+00) (9, 1.00545942783355712891e-01) (10, -2.88488954305648803711e-01) (11, 1.81126332283020019531e+00) (12, 2.48808050155639648438e+00) (13, 1.03239369392395019531e+00) (14, -4.23179388046264648438e-01) (15, 4.96229618787765502930e-01) (16, 1.76342892646789550781e+00) (17, 2.91978508234024047852e-01) (18, -8.54466557502746582031e-01) (19, -8.54861497879028320312e-01) (20, -7.90168702602386474609e-01) (21, -1.56089913845062255859e+00) (22, -2.43696117401123046875e+00) (23, -5.64241695404052734375e+00) (24, 1.92452430725097656250e-01) (25, -3.38850587606430053711e-01) (26, 1.93342566490173339844e+00) (27, 2.64122056961059570312e+00) (28, 9.00936067104339599609e-01) (29, -4.38538193702697753906e-01) (30, 5.56836016476154327393e-02) (31, 2.80110049247741699219e+00) (32, 2.82083010673522949219e+00) (33, 2.76120924949645996094e+00) (34, -7.21486881375312805176e-02) (35, -9.69258602708578109741e-03) (36, 2.75097966194152832031e+00) (37, 2.83097290992736816406e+00) (38, 2.87933802604675292969e+00) (39, 5.35721443593502044678e-02) (40, 4.82253432273864746094e-02) (41, 9.03135538101196289062e-03) (42, 8.37310329079627990723e-02) (43, 5.76332584023475646973e-02) (44, -3.84289100766181945801e-02) (45, 1.51002681255340576172e+00) (0, 8.53727698326110839844e-01) (1, 5.92627048492431640625e-01) (2, 6.40502810478210449219e-01) (3, -5.59951257705688476562e+00) (4, -6.72457695007324218750e+00) (5, -5.30102908611297607422e-01) (6, -8.21008026599884033203e-01) (7, -3.84343177080154418945e-01) (8, -1.47228956222534179688e-01) (9, -4.25637096166610717773e-01) (10, 1.49012729525566101074e-01) (11, 4.64861303567886352539e-01) (12, 9.02593910694122314453e-01) (13, 1.00084877014160156250e+00) (14, 3.59039157629013061523e-01) (15, 9.76259887218475341797e-01) (16, 5.29678225517272949219e-01) (17, 6.77384376525878906250e-01) (18, -5.63004827499389648438e+00) (19, -6.86105632781982421875e+00) (20, -5.40268480777740478516e-01) (21, -8.98493945598602294922e-01) (22, -2.41073206067085266113e-01) (23, 1.86106394976377487183e-02) (24, -4.75779086351394653320e-01) (25, 1.44109293818473815918e-01) (26, 3.87411564588546752930e-01) (27, 8.73634815216064453125e-01) (28, 9.32497024536132812500e-01) (29, 4.85982269048690795898e-01) (30, -4.02926690876483917236e-02) (31, 8.57428848743438720703e-01) (32, 7.68511950969696044922e-01) (33, 8.73612940311431884766e-01) (34, -9.24764126539230346680e-02) (35, -4.82260882854461669922e-02) (36, 9.12207663059234619141e-01) (37, 8.63811314105987548828e-01) (38, 7.94520795345306396484e-01) (39, -7.55967944860458374023e-02) (40, -7.90024399757385253906e-02) (41, -9.16626676917076110840e-02) (42, -9.84155386686325073242e-02) (43, -4.66037653386592864990e-02) (44, 5.59000968933105468750e-02) (45, 8.20860803127288818359e-01) (0, -7.63649320602416992188e+00) (1, 3.05844092369079589844e+00) (2, 7.25883674621582031250e+00) (3, -5.76508790254592895508e-02) (4, 6.85131669044494628906e-01) (5, 2.36792221665382385254e-01) (6, -1.24664926528930664062e+00) (7, 4.72570389509201049805e-01) (8, 2.08013367652893066406e+00) (9, -4.98501360416412353516e-01) (10, 2.27699309587478637695e-01) (11, 6.43473267555236816406e-01) (12, 7.19254016876220703125e-01) (13, 3.42581838369369506836e-01) (14, -1.67523011565208435059e-01) (15, -7.65527677536010742188e+00) (16, 3.03679394721984863281e+00) (17, 7.19484901428222656250e+00) (18, 5.22888898849487304688e-02) (19, 8.11561226844787597656e-01) (20, 3.96148145198822021484e-01) (21, -1.20330238342285156250e+00) (22, 5.76793372631072998047e-01) (23, 1.93064570426940917969e+00) (24, -6.50460064411163330078e-01) (25, 2.31342554092407226562e-01) (26, 6.02590441703796386719e-01) (27, 5.65440535545349121094e-01) (28, 5.20409703254699707031e-01) (29, -2.13808402419090270996e-01) (30, -5.48831447958946228027e-02) (31, -9.69071269035339355469e-01) (32, -8.14023315906524658203e-01) (33, -9.90280389785766601562e-01) (34, 1.40948537737131118774e-02) (35, -5.76157681643962860107e-02) (36, -9.87784624099731445312e-01) (37, -9.55528974533081054688e-01) (38, -9.46782886981964111328e-01) (39, -8.51260498166084289551e-02) (40, -8.65180715918540954590e-02) (41, -9.54458266496658325195e-02) (42, 7.80123472213745117188e-03) (43, 7.64693245291709899902e-02) (44, -7.43607282638549804688e-02) (45, 4.82418477535247802734e-01) (0, 4.17805612087249755859e-02) (1, 7.17243790626525878906e-01) (2, 7.44509100914001464844e-01) (3, 6.00504684448242187500e+00) (4, 6.54749011993408203125e+00) (5, 8.31462264060974121094e-01) (6, -1.11098003387451171875e+00) (7, 4.61576312780380249023e-01) (8, -1.48530900478363037109e-01) (9, 6.44042432308197021484e-01) (10, -5.14396250247955322266e-01) (11, -4.42213147878646850586e-01) (12, 8.97602975368499755859e-01) (13, -4.64266300201416015625e-01) (14, -1.48567125201225280762e-01) (15, -1.29511564970016479492e-01) (16, 5.99958062171936035156e-01) (17, 8.05497348308563232422e-01) (18, 5.86929416656494140625e+00) (19, 6.57092761993408203125e+00) (20, 9.72984015941619873047e-01) (21, -1.20823955535888671875e+00) (22, 4.14428085088729858398e-01) (23, -1.88036054372787475586e-01) (24, 5.54068088531494140625e-01) (25, -4.93579953908920288086e-01) (26, -5.29209136962890625000e-01) (27, 9.06255900859832763672e-01) (28, -4.65894222259521484375e-01) (29, -2.17868581414222717285e-01) (30, 5.34387230873107910156e-02) (31, -1.15758836269378662109e+00) (32, -1.12909233570098876953e+00) (33, -1.16338932514190673828e+00) (34, -8.58452692627906799316e-02) (35, -7.52952918410301208496e-02) (36, -1.12942874431610107422e+00) (37, -1.00878846645355224609e+00) (38, -1.07484948635101318359e+00) (39, 3.71739044785499572754e-02) (40, 5.37284500896930694580e-02) (41, 4.89838980138301849365e-02) (42, -3.31145413219928741455e-02) (43, 3.64830493927001953125e-02) (44, 8.27955827116966247559e-02) (45, -1.63114464282989501953e+00) (0, 5.35833978652954101562e+00) (1, 1.11528563499450683594e+00) (2, -3.88091020286083221436e-02) (3, -1.34550511837005615234e+00) (4, -1.61698627471923828125e+00) (5, 3.54065489768981933594e+00) (6, -2.60709166526794433594e+00) (7, -4.00742626190185546875e+00) (8, -1.72248828411102294922e+00) (9, -6.83302760124206542969e-01) (10, 3.73519062995910644531e+00) (11, 9.60750818252563476562e-01) (12, 8.93216878175735473633e-02) (13, 7.95461058616638183594e-01) (14, 1.59616261720657348633e-01) (15, 5.30257892608642578125e+00) (16, 1.06506323814392089844e+00) (17, -5.42520545423030853271e-02) (18, -1.22277224063873291016e+00) (19, -1.64135265350341796875e+00) (20, 3.57443547248840332031e+00) (21, -2.49358582496643066406e+00) (22, -4.09387779235839843750e+00) (23, -1.81278431415557861328e+00) (24, -7.16228663921356201172e-01) (25, 3.74675297737121582031e+00) (26, 7.76723623275756835938e-01) (27, 1.31873771548271179199e-01) (28, 7.11322069168090820312e-01) (29, 2.90029197931289672852e-01) (30, -9.77511703968048095703e-02) (31, 8.77418398857116699219e-01) (32, 8.71538281440734863281e-01) (33, 9.61661219596862792969e-01) (34, -3.29464636743068695068e-02) (35, -4.93760732933878898621e-03) (36, 8.74781012535095214844e-01) (37, 9.68968272209167480469e-01) (38, 1.00436699390411376953e+00) (39, -9.57110896706581115723e-02) (40, 1.09419468790292739868e-02) (41, 2.58379336446523666382e-02) (42, 9.82860103249549865723e-02) (43, -3.39031480252742767334e-02) (44, 1.26692058984190225601e-03) (45, 1.33585572242736816406e+00) (0, 7.98111498355865478516e-01) (1, 3.44785861670970916748e-02) (2, -8.03536832332611083984e-01) (3, 1.98335671424865722656e+00) (4, 1.68555641174316406250e+00) (5, -6.07671022415161132812e+00) (6, -6.75134372711181640625e+00) (7, -1.61551928520202636719e+00) (8, -5.13971149921417236328e-01) (9, 1.56383901834487915039e-01) (10, -1.29153892397880554199e-01) (11, -1.05341538786888122559e-01) (12, 8.62900614738464355469e-01) (13, 1.58152735233306884766e+00) (14, 1.08706641197204589844e+00) (15, 6.56677901744842529297e-01) (16, -4.17677499353885650635e-02) (17, -9.43150103092193603516e-01) (18, 2.04766964912414550781e+00) (19, 1.65543127059936523438e+00) (20, -6.06816244125366210938e+00) (21, -6.82767105102539062500e+00) (22, -1.69953083992004394531e+00) (23, -5.83816945552825927734e-01) (24, 1.53523713350296020508e-01) (25, -5.70290870964527130127e-02) (26, -5.93188367784023284912e-02) (27, 8.60619425773620605469e-01) (28, 1.42845761775970458984e+00) (29, 1.04159080982208251953e+00) (30, -1.06353163719177246094e-02) (31, 2.82723426818847656250e+00) (32, 2.68548250198364257812e+00) (33, 2.70165729522705078125e+00) (34, 6.60561351105570793152e-03) (35, 8.49986225366592407227e-02) (36, 2.63139295578002929688e+00) (37, 2.63854551315307617188e+00) (38, 2.74451231956481933594e+00) (39, 9.26512405276298522949e-02) (40, -5.76145201921463012695e-02) (41, 9.99147072434425354004e-02) (42, 9.33404192328453063965e-02) (43, -2.66066081821918487549e-02) (44, 7.60667473077774047852e-02) (45, 2.82646608352661132812e+00) (0, -8.90521407127380371094e-01) (1, -5.59840440750122070312e-01) (2, -1.83955079410225152969e-03) (3, 2.14610505104064941406e+00) (4, 2.09067344665527343750e+00) (5, 5.41404342651367187500e+00) (6, 2.74057126045227050781e+00) (7, -6.43804550170898437500e+00) (8, -5.27282714843750000000e-01) (9, -1.13928711414337158203e+00) (10, -7.74369597434997558594e-01) (11, -2.29604855179786682129e-01) (12, 1.34840741753578186035e-01) (13, 5.09746193885803222656e-01) (14, -8.63825678825378417969e-01) (15, -9.42693591117858886719e-01) (16, -4.37099039554595947266e-01) (17, 1.08030788600444793701e-01) (18, 2.19298768043518066406e+00) (19, 2.02116918563842773438e+00) (20, 5.37063121795654296875e+00) (21, 2.76323342323303222656e+00) (22, -6.54451179504394531250e+00) (23, -5.76516866683959960938e-01) (24, -1.15441429615020751953e+00) (25, -7.95435905456542968750e-01) (26, -3.25636208057403564453e-01) (27, 8.43272209167480468750e-02) (28, 5.38989424705505371094e-01) (29, -9.31768834590911865234e-01) (30, 1.39464146923273801804e-03) (31, -1.79038858413696289062e+00) (32, -1.83533108234405517578e+00) (33, -1.72770357131958007812e+00) (34, 4.85179200768470764160e-02) (35, 3.04951667785644531250e-02) (36, -1.75940847396850585938e+00) (37, -1.80464792251586914062e+00) (38, -1.77585792541503906250e+00) (39, 8.88739153742790222168e-02) (40, 9.08508822321891784668e-02) (41, 9.30003449320793151855e-02) (42, 2.47559901326894760132e-02) (43, 5.59643395245075225830e-02) (44, 2.58302334696054458618e-02) (45, -1.90459406375885009766e+00) (0, -3.03517961502075195312e+00) (1, -2.08455395698547363281e+00) (2, -2.51606798171997070312e+00) (3, 3.14108800888061523438e+00) (4, 2.85411429405212402344e+00) (5, -1.75026786327362060547e+00) (6, -2.89720296859741210938e+00) (7, -2.92389464378356933594e+00) (8, -1.50296688079833984375e+00) (9, -1.32488563656806945801e-01) (10, -1.70790508389472961426e-01) (11, -1.06439866125583648682e-01) (12, 4.38521504402160644531e-01) (13, 6.37240827083587646484e-01) (14, -1.50637954473495483398e-01) (15, -3.04264163970947265625e+00) (16, -2.08157277107238769531e+00) (17, -2.47169971466064453125e+00) (18, 3.13835859298706054688e+00) (19, 2.76840376853942871094e+00) (20, -1.70028722286224365234e+00) (21, -2.92883491516113281250e+00) (22, -3.00143456459045410156e+00) (23, -1.60966777801513671875e+00) (24, -2.96507060527801513672e-01) (25, -1.46160796284675598145e-01) (26, -5.99910095334053039551e-02) (27, 4.84658598899841308594e-01) (28, 4.55761194229125976562e-01) (29, -1.94276586174964904785e-01) (30, 5.63404448330402374268e-02) (31, 4.35262590646743774414e-01) (32, 5.97493290901184082031e-01) (33, 5.20449995994567871094e-01) (34, 5.67741505801677703857e-02) (35, -2.44716163724660873413e-02) (36, 5.93835413455963134766e-01) (37, 4.38108116388320922852e-01) (38, 4.31074291467666625977e-01) (39, -8.45286902040243148804e-03) (40, -9.05127748847007751465e-02) (41, -5.59141300618648529053e-02) (42, -5.52816465497016906738e-02) (43, 1.10731367021799087524e-02) (44, -6.52220025658607482910e-02) (45, 6.28563165664672851562e-01) (0, -7.09244155883789062500e+00) (1, -3.80826997756958007812e+00) (2, 8.35517942905426025391e-01) (3, -1.89029228687286376953e+00) (4, -1.82095050811767578125e+00) (5, -8.62760782241821289062e-01) (6, -4.55380052328109741211e-01) (7, -4.38759952783584594727e-01) (8, 3.24080169200897216797e-01) (9, 6.00781381130218505859e-01) (10, -2.69905328750610351562e-01) (11, 1.92785000801086425781e+00) (12, 1.01981115341186523438e+00) (13, 9.00248348712921142578e-01) (14, 3.47943782806396484375e-01) (15, -7.19692993164062500000e+00) (16, -3.85582160949707031250e+00) (17, 8.72455894947052001953e-01) (18, -1.82432591915130615234e+00) (19, -1.91966247558593750000e+00) (20, -8.73659849166870117188e-01) (21, -4.45280700922012329102e-01) (22, -5.77367842197418212891e-01) (23, 3.22028934955596923828e-01) (24, 6.79461419582366943359e-01) (25, -2.52275347709655761719e-01) (26, 1.97026503086090087891e+00) (27, 9.95486021041870117188e-01) (28, 1.01973819732666015625e+00) (29, 2.99687415361404418945e-01) (30, -5.72918355464935302734e-02) (31, 1.78314626216888427734e+00) (32, 1.83028149604797363281e+00) (33, 1.77200019359588623047e+00) (34, 8.97376518696546554565e-03) (35, -9.02055203914642333984e-02) (36, 1.90204024314880371094e+00) (37, 1.91412377357482910156e+00) (38, 1.89693331718444824219e+00) (39, 1.60873662680387496948e-02) (40, -2.98665161244571208954e-03) (41, 9.20927673578262329102e-02) (42, -4.76323142647743225098e-02) (43, 5.02399317920207977295e-02) (44, -8.09209793806076049805e-02) (45, 1.52110683917999267578e+00) (0, -2.58233308792114257812e+00) (1, -2.17497682571411132812e+00) (2, -2.28601861000061035156e+00) (3, -5.13068771362304687500e+00) (4, -4.88924026489257812500e+00) (5, -2.09233021736145019531e+00) (6, -1.35669231414794921875e+00) (7, -2.41515725851058959961e-01) (8, 6.88689500093460083008e-02) (9, -6.42412960529327392578e-01) (10, -8.78962993621826171875e-01) (11, -1.49350500106811523438e+00) (12, 1.08817160129547119141e+00) (13, 4.71583396196365356445e-01) (14, 4.37400788068771362305e-01) (15, -2.71949577331542968750e+00) (16, -2.10323238372802734375e+00) (17, -2.33242964744567871094e+00) (18, -5.13287496566772460938e+00) (19, -4.91193771362304687500e+00) (20, -2.04809117317199707031e+00) (21, -1.47208857536315917969e+00) (22, -2.98620373010635375977e-01) (23, 1.52819037437438964844e-01) (24, -6.25904738903045654297e-01) (25, -8.74458193778991699219e-01) (26, -1.59615755081176757812e+00) (27, 9.28146481513977050781e-01) (28, 4.79851156473159790039e-01) (29, 5.40353715419769287109e-01) (30, 3.40080522000789642334e-02) (31, -5.76312690973281860352e-02) (32, 6.96662366390228271484e-02) (33, -1.09206847846508026123e-02) (34, 1.92252881824970245361e-02) (35, -5.85565753281116485596e-02) (36, 6.59337490797042846680e-02) (37, -1.65639556944370269775e-02) (38, 3.38556058704853057861e-02) (39, 8.00388455390930175781e-02) (40, -6.28885403275489807129e-02) (41, -3.30460779368877410889e-02) (42, 7.01987296342849731445e-02) (43, -8.29529091715812683105e-02) (44, 4.38883677124977111816e-02) (45, -7.39534795284271240234e-02) (0, 3.20595550537109375000e+00) (1, 4.15617036819458007812e+00) (2, 1.62442874908447265625e+00) (3, 5.83762645721435546875e+00) (4, 6.67642641067504882812e+00) (5, -2.54562795162200927734e-01) (6, -5.75969368219375610352e-02) (7, 1.30215358734130859375e+00) (8, -1.11893165111541748047e+00) (9, -1.34008884429931640625e+00) (10, -1.43717098236083984375e+00) (11, 1.08387902379035949707e-01) (12, 3.40477436780929565430e-01) (13, -5.06511688232421875000e-01) (14, -9.25697743892669677734e-01) (15, 3.25089979171752929688e+00) (16, 4.10573005676269531250e+00) (17, 1.60733938217163085938e+00) (18, 5.90226268768310546875e+00) (19, 6.69877481460571289062e+00) (20, -1.51304334402084350586e-01) (21, -7.58411139249801635742e-02) (22, 1.17262983322143554688e+00) (23, -1.17459094524383544922e+00) (24, -1.34583687782287597656e+00) (25, -1.46454620361328125000e+00) (26, 3.21755371987819671631e-02) (27, 2.85017639398574829102e-01) (28, -6.02041006088256835938e-01) (29, -9.64608430862426757812e-01) (30, -3.09998039156198501587e-02) (31, -1.14598262310028076172e+00) (32, -1.13786995410919189453e+00) (33, -1.12191641330718994141e+00) (34, -5.82128912210464477539e-02) (35, -3.40277962386608123779e-02) (36, -1.11568844318389892578e+00) (37, -1.27108705043792724609e+00) (38, -1.24433553218841552734e+00) (39, -3.79960611462593078613e-02) (40, 3.56794595718383789062e-02) (41, 3.24182026088237762451e-02) (42, -4.88460324704647064209e-02) (43, -1.36927366256713867188e-02) (44, 1.83247327804565429688e-02) (45, -1.03783917427062988281e+00) (0, 2.44583225250244140625e+00) (1, -2.50167667865753173828e-01) (2, -5.54333850741386413574e-02) (3, -1.88297665119171142578e+00) (4, 8.80819559097290039062e-01) (5, -2.03274774551391601562e+00) (6, -3.75427627563476562500e+00) (7, 6.26717627048492431641e-01) (8, 5.94348669052124023438e-01) (9, 5.62887072563171386719e-01) (10, 9.80406582355499267578e-01) (11, 1.54574394226074218750e-01) (12, 4.71542179584503173828e-01) (13, 4.50179100036621093750e-01) (14, 6.56079769134521484375e-01) (15, 2.45625591278076171875e+00) (16, -3.70035231113433837891e-01) (17, 7.97933526337146759033e-03) (18, -1.89477550983428955078e+00) (19, 8.52598547935485839844e-01) (20, -2.01284909248352050781e+00) (21, -3.75064373016357421875e+00) (22, 5.67240238189697265625e-01) (23, 5.99977493286132812500e-01) (24, 7.03553497791290283203e-01) (25, 9.83279168605804443359e-01) (26, 1.79683908820152282715e-01) (27, 3.68194729089736938477e-01) (28, 4.48982357978820800781e-01) (29, 5.42688250541687011719e-01) (30, 5.59095144271850585938e-02) (31, 1.86841166019439697266e+00) (32, 1.97538185119628906250e+00) (33, 1.97020816802978515625e+00) (34, -8.36487784981727600098e-02) (35, -2.46020741760730743408e-02) (36, 1.89462363719940185547e+00) (37, 1.90794193744659423828e+00) (38, 1.81035673618316650391e+00) (39, -3.43320928514003753662e-02) (40, 2.57793422788381576538e-02) (41, -8.00732076168060302734e-02) (42, 4.90093715488910675049e-02) (43, -6.18539601564407348633e-02) (44, 1.92326065152883529663e-02) (45, 1.57232201099395751953e+00) (0, 5.18726015090942382812e+00) (1, 6.69009733200073242188e+00) (2, 1.26232790946960449219e+00) (3, 7.11863696575164794922e-01) (4, 6.89814448356628417969e-01) (5, 2.43561673164367675781e+00) (6, 4.21182215213775634766e-01) (7, -1.45887267589569091797e+00) (8, -1.41235783696174621582e-01) (9, 5.92009961605072021484e-01) (10, 1.53789624571800231934e-01) (11, 1.24729704856872558594e+00) (12, -1.08294022083282470703e+00) (13, -4.29979503154754638672e-01) (14, -1.37514054775238037109e+00) (15, 5.34141492843627929688e+00) (16, 6.61634397506713867188e+00) (17, 1.29392242431640625000e+00) (18, 7.01362013816833496094e-01) (19, 7.61251151561737060547e-01) (20, 2.39829087257385253906e+00) (21, 4.10083144903182983398e-01) (22, -1.35497820377349853516e+00) (23, -1.43597081303596496582e-01) (24, 6.88713312149047851562e-01) (25, 1.71662434935569763184e-01) (26, 1.15641176700592041016e+00) (27, -1.04624640941619873047e+00) (28, -2.72070616483688354492e-01) (29, -1.37356936931610107422e+00) (30, 4.36290390789508819580e-02) (31, -1.61906754970550537109e+00) (32, -1.62901103496551513672e+00) (33, -1.69113910198211669922e+00) (34, 3.82350943982601165771e-02) (35, 9.30453762412071228027e-02) (36, -1.77929627895355224609e+00) (37, -1.61317956447601318359e+00) (38, -1.71335589885711669922e+00) (39, 1.08693717047572135925e-02) (40, 9.78486537933349609375e-02) (41, 9.66247469186782836914e-02) (42, 7.19542521983385086060e-03) (43, -8.43928232789039611816e-02) (44, -9.75755229592323303223e-02) (45, -1.39313995838165283203e+00) (0, 3.60670208930969238281e-01) (1, -6.00052297115325927734e-01) (2, 4.11974877119064331055e-01) (3, 7.40202951431274414062e+00) (4, 8.14504742622375488281e-01) (5, -2.14044019579887390137e-01) (6, -6.23668074607849121094e-01) (7, 2.68706619739532470703e-01) (8, 4.02150340378284454346e-02) (9, 2.36980170011520385742e-02) (10, -1.34401991963386535645e-01) (11, 7.68976286053657531738e-02) (12, -2.80605614185333251953e-01) (13, -4.73924934864044189453e-01) (14, -4.26876962184906005859e-01) (15, 2.48480692505836486816e-01) (16, -6.36570751667022705078e-01) (17, 4.75397795438766479492e-01) (18, 7.45648145675659179688e+00) (19, 8.25017809867858886719e-01) (20, -3.20929698646068572998e-02) (21, -7.85995364189147949219e-01) (22, 2.68545567989349365234e-01) (23, 2.55871564149856567383e-02) (24, 6.67955577373504638672e-02) (25, -6.22775331139564514160e-02) (26, -4.65456135571002960205e-02) (27, -3.84764969348907470703e-01) (28, -3.49902331829071044922e-01) (29, -3.72569024562835693359e-01) (30, 5.95950148999691009521e-02) (31, -9.82513308525085449219e-01) (32, -1.00220263004302978516e+00) (33, -1.06433641910552978516e+00) (34, 4.62001562118530273438e-03) (35, 1.96227189153432846069e-02) (36, -1.06040513515472412109e+00) (37, -1.07516539096832275391e+00) (38, -1.06546056270599365234e+00) (39, 8.23872461915016174316e-02) (40, 5.71864955127239227295e-02) (41, 8.17128643393516540527e-02) (42, 7.72729888558387756348e-02) (43, -9.35629010200500488281e-03) (44, -6.07512481510639190674e-02) (45, -2.09696486592292785645e-01) (0, -3.24708580970764160156e+00) (1, -3.21019411087036132812e+00) (2, -2.63189625740051269531e+00) (3, 7.58452510833740234375e+00) (4, 2.04591050744056701660e-01) (5, 1.32080507278442382812e+00) (6, 8.60844910144805908203e-01) (7, 2.40497633814811706543e-01) (8, 2.89809759706258773804e-02) (9, 5.09247660636901855469e-01) (10, -1.28346860408782958984e+00) (11, 3.65971326828002929688e-01) (12, -1.53753638267517089844e-01) (13, -4.02335435152053833008e-01) (14, -6.31428733468055725098e-02) (15, -3.33661913871765136719e+00) (16, -3.14475536346435546875e+00) (17, -2.67474389076232910156e+00) (18, 7.59576320648193359375e+00) (19, 1.95656284689903259277e-01) (20, 1.21169734001159667969e+00) (21, 7.53792464733123779297e-01) (22, 3.41642409563064575195e-01) (23, 1.32942020893096923828e-01) (24, 4.62479859590530395508e-01) (25, -1.39108884334564208984e+00) (26, 3.80202770233154296875e-01) (27, -2.52546191215515136719e-01) (28, -4.00869995355606079102e-01) (29, -8.35292860865592956543e-02) (30, -8.33589732646942138672e-02) (31, -5.41866183280944824219e-01) (32, -6.30374014377593994141e-01) (33, -6.79363846778869628906e-01) (34, -2.24393603275530040264e-04) (35, 1.42994169145822525024e-02) (36, -5.03808736801147460938e-01) (37, -6.18696630001068115234e-01) (38, -5.44271528720855712891e-01) (39, -6.77659884095191955566e-02) (40, 5.62808178365230560303e-02) (41, 3.44552174210548400879e-02) (42, 5.40464781224727630615e-02) (43, -2.51176841557025909424e-02) (44, 9.06691607087850570679e-03) (45, 5.54057717323303222656e-01) (0, -3.92827010154724121094e+00) (1, -5.60770416259765625000e+00) (2, 7.65126049518585205078e-01) (3, 4.90382075309753417969e-01) (4, 6.87638998031616210938e-01) (5, 3.02837461233139038086e-01) (6, 4.37722086906433105469e-01) (7, -1.54755249619483947754e-01) (8, 3.67264211177825927734e-01) (9, -3.15674245357513427734e-01) (10, 2.48344197869300842285e-01) (11, 5.89277029037475585938e-01) (12, 6.90685868263244628906e-01) (13, 6.02272987365722656250e-01) (14, 9.03299093246459960938e-01) (15, -4.02192497253417968750e+00) (16, -5.62407493591308593750e+00) (17, 7.52538383007049560547e-01) (18, 4.35828387737274169922e-01) (19, 7.20979213714599609375e-01) (20, 3.38104158639907836914e-01) (21, 3.04883420467376708984e-01) (22, -1.82685151696205139160e-01) (23, 3.89601528644561767578e-01) (24, -2.58815824985504150391e-01) (25, 2.91262209415435791016e-01) (26, 6.10025405883789062500e-01) (27, 6.81781768798828125000e-01) (28, 5.43996095657348632812e-01) (29, 1.05782210826873779297e+00) (30, 8.36016535758972167969e-02) (31, 3.35059213638305664062e+00) (32, 3.19915127754211425781e+00) (33, 3.24160575866699218750e+00) (34, 9.42227896302938461304e-03) (35, 4.22724597156047821045e-02) (36, 3.20459794998168945312e+00) (37, 3.25131273269653320312e+00) (38, 3.33655261993408203125e+00) (39, 6.04655519127845764160e-02) (40, 1.28280045464634895325e-02) (41, -6.64565572515130043030e-03) (42, -8.61668959259986877441e-02) (43, 5.56081794202327728271e-02) (44, 8.76891240477561950684e-02) (45, 2.71269631385803222656e+00) (0, -3.97051119804382324219e+00) (1, 5.18753230571746826172e-01) (2, 8.64310264587402343750e-01) (3, 1.76803874969482421875e+00) (4, 1.55162617564201354980e-01) (5, 4.54642677307128906250e+00) (6, -2.40336036682128906250e+00) (7, 1.15165865421295166016e+00) (8, -8.52218210697174072266e-01) (9, -4.03899049758911132812e+00) (10, -1.94460356235504150391e+00) (11, 3.09702962636947631836e-01) (12, 5.85548698902130126953e-01) (13, -2.81906366348266601562e-01) (14, 3.94703060388565063477e-01) (15, -3.95987820625305175781e+00) (16, 6.47934973239898681641e-01) (17, 8.97225618362426757812e-01) (18, 1.79308962821960449219e+00) (19, 5.58489225804805755615e-02) (20, 4.52335643768310546875e+00) (21, -2.38276195526123046875e+00) (22, 1.13730776309967041016e+00) (23, -8.39854300022125244141e-01) (24, -3.93775653839111328125e+00) (25, -2.00730276107788085938e+00) (26, 3.41304630041122436523e-01) (27, 6.66740238666534423828e-01) (28, -4.25054252147674560547e-01) (29, 4.30810838937759399414e-01) (30, 6.57475516200065612793e-02) (31, 1.21328316628932952881e-01) (32, 2.67181098461151123047e-01) (33, 1.75771787762641906738e-01) (34, 1.85186993330717086792e-02) (35, 4.73594926297664642334e-02) (36, 1.00483834743499755859e-01) (37, 1.30446702241897583008e-01) (38, 1.99573293328285217285e-01) (39, -1.87140945345163345337e-02) (40, -4.49378751218318939209e-02) (41, -5.41791394352912902832e-02) (42, -8.02248716354370117188e-02) (43, -2.87525658495724201202e-03) (44, -8.83031114935874938965e-02) (45, 4.47765141725540161133e-01) (0, -2.42274451255798339844e+00) (1, -1.26165652275085449219e+00) (2, -2.12227272987365722656e+00) (3, -6.62538623809814453125e+00) (4, -7.46803236007690429688e+00) (5, -1.32143807411193847656e+00) (6, 5.35389661788940429688e-01) (7, -8.70728731155395507812e-01) (8, 1.02287852764129638672e+00) (9, 1.97929430007934570312e+00) (10, -1.92788398265838623047e+00) (11, -1.09883546829223632812e+00) (12, 9.94606912136077880859e-01) (13, -7.53601863980293273926e-02) (14, 9.37798842787742614746e-02) (15, -2.36955285072326660156e+00) (16, -1.31532406806945800781e+00) (17, -2.03241491317749023438e+00) (18, -6.58580684661865234375e+00) (19, -7.46761655807495117188e+00) (20, -1.18586063385009765625e+00) (21, 4.42925870418548583984e-01) (22, -9.77729141712188720703e-01) (23, 9.97721850872039794922e-01) (24, 2.05869603157043457031e+00) (25, -1.84694242477416992188e+00) (26, -1.04826104640960693359e+00) (27, 1.17052876949310302734e+00) (28, -1.20021559298038482666e-01) (29, 1.98270678520202636719e-01) (30, 2.76028998196125030518e-02) (31, -5.57878315448760986328e-02) (32, -1.30936503410339355469e-01) (33, -1.80781185626983642578e-01) (34, 8.20141434669494628906e-02) (35, 9.40657872706651687622e-03) (36, -1.78326845169067382812e-01) (37, -4.96271550655364990234e-02) (38, -1.14356420934200286865e-01) (39, 1.00636249408125877380e-02) (40, -5.34483753144741058350e-02) (41, 4.73985448479652404785e-02) (42, 5.93457818031311035156e-02) (43, -4.32148836553096771240e-02) (44, -7.73175209760665893555e-02) (45, -5.48128187656402587891e-02) (0, -1.04983568191528320312e+00) (1, -1.93068242073059082031e+00) (2, -3.00213515758514404297e-01) (3, -1.44966983795166015625e+00) (4, 6.08365774154663085938e+00) (5, 3.19195365905761718750e+00) (6, 4.71138715744018554688e+00) (7, 4.25415724515914916992e-01) (8, 4.55917239189147949219e-01) (9, -9.08928930759429931641e-01) (10, -1.23207286000251770020e-01) (11, -7.12808370590209960938e-01) (12, -2.41132527589797973633e-01) (13, 6.06260955333709716797e-01) (14, -7.18182742595672607422e-01) (15, -1.01642060279846191406e+00) (16, -1.90315413475036621094e+00) (17, -4.18475210666656494141e-01) (18, -1.45601868629455566406e+00) (19, 6.06163930892944335938e+00) (20, 3.24506664276123046875e+00) (21, 4.65081548690795898438e+00) (22, 4.84533458948135375977e-01) (23, 3.49838435649871826172e-01) (24, -1.02581751346588134766e+00) (25, -1.51035293936729431152e-01) (26, -5.71345806121826171875e-01) (27, -1.84830576181411743164e-01) (28, 6.04595720767974853516e-01) (29, -8.65589857101440429688e-01) (30, 6.12885244190692901611e-02) (31, -1.90910792350769042969e+00) (32, -1.80117487907409667969e+00) (33, -1.83167862892150878906e+00) (34, 4.18884418904781341553e-02) (35, 1.61583777517080307007e-02) (36, -1.93656492233276367188e+00) (37, -1.82211804389953613281e+00) (38, -1.78817176818847656250e+00) (39, 6.26326724886894226074e-02) (40, -1.96465849876403808594e-02) (41, 4.10950444638729095459e-02) (42, -8.83621796965599060059e-02) (43, -8.10684114694595336914e-02) (44, 5.09347580373287200928e-02) (45, -1.88283896446228027344e+00) (0, 2.11221885681152343750e+00) (1, 3.24866437911987304688e+00) (2, -3.75884747505187988281e+00) (3, -2.85996645689010620117e-01) (4, 2.45031595230102539062e+00) (5, 3.66695833206176757812e+00) (6, 3.50882720947265625000e+00) (7, 2.65481352806091308594e+00) (8, -1.58539259433746337891e+00) (9, -1.82859933376312255859e+00) (10, -7.93440580368041992188e-01) (11, 4.34237271547317504883e-02) (12, 1.48037815093994140625e+00) (13, -9.69367444515228271484e-01) (14, -1.11997783184051513672e+00) (15, 2.12399339675903320312e+00) (16, 3.29927253723144531250e+00) (17, -3.61505722999572753906e+00) (18, -4.50451821088790893555e-01) (19, 2.49754714965820312500e+00) (20, 3.57868075370788574219e+00) (21, 3.43238449096679687500e+00) (22, 2.52513766288757324219e+00) (23, -1.55486333370208740234e+00) (24, -1.77794420719146728516e+00) (25, -7.94152975082397460938e-01) (26, 2.45800744742155075073e-02) (27, 1.34779000282287597656e+00) (28, -9.59322750568389892578e-01) (29, -1.00103747844696044922e+00) (30, 7.52061605453491210938e-02) (31, -2.75480222702026367188e+00) (32, -2.73475408554077148438e+00) (33, -2.58759164810180664062e+00) (34, 9.87216830253601074219e-02) (35, -1.48994929622858762741e-03) (36, -2.62834930419921875000e+00) (37, -2.66990995407104492188e+00) (38, -2.71101474761962890625e+00) (39, 4.77792620658874511719e-02) (40, -5.53783588111400604248e-02) (41, 7.84774348139762878418e-02) (42, 4.05607111752033233643e-02) (43, 8.02195817232131958008e-02) (44, 2.33023171313107013702e-03) (45, -2.53569269180297851562e+00) (0, -5.07514417171478271484e-01) (1, 1.55488348007202148438e+00) (2, 1.22863030433654785156e+00) (3, -2.82003426551818847656e+00) (4, 3.78736495971679687500e+00) (5, 1.77455770969390869141e+00) (6, 8.67571592330932617188e-01) (7, -2.56520247459411621094e+00) (8, 6.04698896408081054688e-01) (9, -2.43310704827308654785e-01) (10, -7.86013603210449218750e-01) (11, -5.36230266094207763672e-01) (12, -9.06536817550659179688e-01) (13, -1.13151133060455322266e+00) (14, -6.58227026462554931641e-01) (15, -4.93929684162139892578e-01) (16, 1.56405162811279296875e+00) (17, 1.27030801773071289062e+00) (18, -2.83548235893249511719e+00) (19, 3.68857216835021972656e+00) (20, 1.64377796649932861328e+00) (21, 7.68848419189453125000e-01) (22, -2.39470314979553222656e+00) (23, 7.03876733779907226562e-01) (24, -1.85626268386840820312e-01) (25, -8.85858774185180664062e-01) (26, -6.32511615753173828125e-01) (27, -9.11302089691162109375e-01) (28, -1.18503379821777343750e+00) (29, -5.77051579952239990234e-01) (30, -4.27877679467201232910e-02) (31, -1.91701948642730712891e+00) (32, -1.94566690921783447266e+00) (33, -1.83937370777130126953e+00) (34, 7.32273012399673461914e-02) (35, -7.39770084619522094727e-02) (36, -1.86710870265960693359e+00) (37, -1.90355551242828369141e+00) (38, -1.96344411373138427734e+00) (39, 3.58842499554157257080e-02) (40, -9.31964591145515441895e-02) (41, 5.78251257538795471191e-02) (42, 1.49298906326293945312e-02) (43, 2.22880970686674118042e-02) (44, -8.48932191729545593262e-02) (45, -2.01556062698364257812e+00) (0, -7.53597879409790039062e+00) (1, 2.37940812110900878906e+00) (2, -2.23841881752014160156e+00) (3, -3.99928927421569824219e+00) (4, -2.22092676162719726562e+00) (5, -6.53173863887786865234e-01) (6, -1.36634099483489990234e+00) (7, 1.16230690479278564453e+00) (8, 1.36449646949768066406e+00) (9, 5.90614676475524902344e-01) (10, 1.53792786598205566406e+00) (11, 4.47138696908950805664e-01) (12, 8.62086236476898193359e-01) (13, 1.97203290462493896484e+00) (14, -3.73502522706985473633e-01) (15, -7.49859476089477539062e+00) (16, 2.34150433540344238281e+00) (17, -2.37257122993469238281e+00) (18, -4.08030652999877929688e+00) (19, -2.36062002182006835938e+00) (20, -6.02789580821990966797e-01) (21, -1.33896183967590332031e+00) (22, 1.13802683353424072266e+00) (23, 1.34503579139709472656e+00) (24, 5.83718895912170410156e-01) (25, 1.49691176414489746094e+00) (26, 3.02738934755325317383e-01) (27, 8.59401047229766845703e-01) (28, 1.84954583644866943359e+00) (29, -4.87889260053634643555e-01) (30, -9.06875208020210266113e-02) (31, 9.10507380962371826172e-01) (32, 9.99855816364288330078e-01) (33, 1.01852524280548095703e+00) (34, 5.30128479003906250000e-02) (35, 1.88806895166635513306e-02) (36, 1.02183759212493896484e+00) (37, 9.12671029567718505859e-01) (38, 9.11597430706024169922e-01) (39, -1.79509520530700683594e-02) (40, 4.77143302559852600098e-02) (41, -6.69195502996444702148e-02) (42, -2.75885816663503646851e-02) (43, 4.08637039363384246826e-02) (44, -9.42908376455307006836e-02) (45, 4.81496125459671020508e-01) (0, 1.36432442814111709595e-02) (1, -1.09011478722095489502e-01) (2, 6.43620014190673828125e-01) (3, 2.85032272338867187500e-01) (4, 7.88859724998474121094e-02) (5, 7.76526212692260742188e+00) (6, 4.22052294015884399414e-03) (7, 6.12274289131164550781e-01) (8, -1.64541170001029968262e-01) (9, 8.25420543551445007324e-02) (10, -2.01649412512779235840e-01) (11, -2.77708560228347778320e-01) (12, -4.91603136062622070312e-01) (13, -8.75264033675193786621e-02) (14, -3.29917579889297485352e-01) (15, -1.62522614002227783203e-01) (16, -1.20123408734798431396e-01) (17, 6.44955933094024658203e-01) (18, 4.71130281686782836914e-01) (19, -5.93476463109254837036e-03) (20, 7.83178186416625976562e+00) (21, 2.51197610050439834595e-02) (22, 6.71689271926879882812e-01) (23, -1.21948525309562683105e-01) (24, 1.09956063330173492432e-01) (25, -3.22375684976577758789e-01) (26, -2.47998252511024475098e-01) (27, -3.82243335247039794922e-01) (28, -1.17530554533004760742e-01) (29, -3.55568021535873413086e-01) (30, 6.29761740565299987793e-02) (31, -1.21881926059722900391e+00) (32, -1.20704972743988037109e+00) (33, -1.32649481296539306641e+00) (34, 4.62903045117855072021e-02) (35, -5.61146996915340423584e-02) (36, -1.19725477695465087891e+00) (37, -1.27897083759307861328e+00) (38, -1.31415212154388427734e+00) (39, 8.51318165659904479980e-02) (40, 1.32234103512018918991e-03) (41, 8.56880173087120056152e-02) (42, -5.15292249619960784912e-02) (43, 7.06971902400255203247e-03) (44, 7.06582888960838317871e-02) (45, -1.22183001041412353516e+00) (0, 3.04779917001724243164e-01) (1, -5.41883182525634765625e+00) (2, 1.11312127113342285156e+00) (3, -6.72975361347198486328e-01) (4, -2.24044680595397949219e+00) (5, 1.32432365417480468750e+00) (6, 2.90021967887878417969e+00) (7, 1.07867729663848876953e+00) (8, -1.32361733913421630859e+00) (9, -2.98104315996170043945e-01) (10, -4.68419998884201049805e-01) (11, -1.06118404865264892578e+00) (12, -1.14031064510345458984e+00) (13, -1.65829598903656005859e+00) (14, -3.32167521119117736816e-02) (15, 3.72406870126724243164e-01) (16, -5.43607997894287109375e+00) (17, 1.11861658096313476562e+00) (18, -7.53027975559234619141e-01) (19, -2.11250686645507812500e+00) (20, 1.37794589996337890625e+00) (21, 3.02727627754211425781e+00) (22, 1.02626740932464599609e+00) (23, -1.27910387516021728516e+00) (24, -2.28614106774330139160e-01) (25, -4.33610528707504272461e-01) (26, -1.12403142452239990234e+00) (27, -1.13745844364166259766e+00) (28, -1.67138230800628662109e+00) (29, -2.41641681641340255737e-02) (30, -9.74874421954154968262e-02) (31, -1.82157742977142333984e+00) (32, -1.86083781719207763672e+00) (33, -1.93366062641143798828e+00) (34, -2.73200627416372299194e-02) (35, 4.49454076588153839111e-02) (36, -1.88814628124237060547e+00) (37, -1.84427487850189208984e+00) (38, -1.95474290847778320312e+00) (39, -9.67334359884262084961e-02) (40, -4.66723032295703887939e-02) (41, 3.15306186676025390625e-02) (42, -9.82013344764709472656e-02) (43, -1.98913756757974624634e-02) (44, 8.68406519293785095215e-02) (45, -1.90535557270050048828e+00) (0, 8.12175571918487548828e-02) (1, 4.66815114021301269531e-01) (2, -2.38714933395385742188e-01) (3, 1.38173949718475341797e+00) (4, -1.33598458766937255859e+00) (5, -5.00051736831665039062e-01) (6, -1.06092631816864013672e+00) (7, -1.36734712123870849609e+00) (8, -2.01573157310485839844e+00) (9, -3.78467053174972534180e-01) (10, -3.91619652509689331055e-01) (11, 3.54263424873352050781e-01) (12, 1.57270535826683044434e-01) (13, -6.12348914146423339844e-01) (14, 5.77309489250183105469e-01) (15, 1.18830449879169464111e-01) (16, 3.90166699886322021484e-01) (17, -2.22461938858032226562e-01) (18, 1.44334685802459716797e+00) (19, -1.28774487972259521484e+00) (20, -4.37989890575408935547e-01) (21, -1.09756588935852050781e+00) (22, -1.41128289699554443359e+00) (23, -1.87247991561889648438e+00) (24, -3.93001824617385864258e-01) (25, -3.17380726337432861328e-01) (26, 2.93361723423004150391e-01) (27, 1.14900931715965270996e-01) (28, -7.00224399566650390625e-01) (29, 5.96905112266540527344e-01) (30, 6.16858117282390594482e-02) (31, 1.07162213325500488281e+00) (32, 9.95728611946105957031e-01) (33, 1.05831718444824218750e+00) (34, -7.25282803177833557129e-02) (35, 8.95733162760734558105e-02) (36, 1.11179471015930175781e+00) (37, 1.06393337249755859375e+00) (38, 1.10182964801788330078e+00) (39, 7.29777589440345764160e-02) (40, 9.69758778810501098633e-02) (41, -3.53433303534984588623e-02) (42, 1.21363401412963867188e-02) (43, 1.94220547564327716827e-03) (44, -8.80019441246986389160e-02) (45, -8.77627253532409667969e-01) (0, -4.80441093444824218750e+00) (1, -7.65701818466186523438e+00) (2, -1.21668708324432373047e+00) (3, -6.19646072387695312500e-01) (4, 1.31378674507141113281e+00) (5, -1.36019539833068847656e+00) (6, 3.99299323558807373047e-01) (7, -1.20537661015987396240e-01) (8, -3.51213902235031127930e-01) (9, -8.05613219738006591797e-01) (10, -7.21194148063659667969e-01) (11, -5.50311684608459472656e-01) (12, -1.24073006212711334229e-01) (13, -2.88611888885498046875e-01) (14, 1.56691515445709228516e+00) (15, -4.70204973220825195312e+00) (16, -7.77846193313598632812e+00) (17, -1.15763008594512939453e+00) (18, -7.61008143424987792969e-01) (19, 1.23544025421142578125e+00) (20, -1.22710299491882324219e+00) (21, 5.69909811019897460938e-01) (22, -3.26896645128726959229e-03) (23, -4.05308723449707031250e-01) (24, -7.22822666168212890625e-01) (25, -5.86307048797607421875e-01) (26, -6.18007421493530273438e-01) (27, -1.91742673516273498535e-01) (28, -3.11248004436492919922e-01) (29, 1.44612109661102294922e+00) (30, -5.99364824593067169189e-02) (31, 2.99695014953613281250e+00) (32, 3.07399654388427734375e+00) (33, 3.10554361343383789062e+00) (34, -7.11282268166542053223e-02) (35, -5.51862381398677825928e-02) (36, 2.94931364059448242188e+00) (37, 2.99282073974609375000e+00) (38, 3.01615619659423828125e+00) (39, -9.74381193518638610840e-02) (40, 4.30713295936584472656e-02) (41, -7.63866305351257324219e-03) (42, -2.86852847784757614136e-02) (43, -6.83301687240600585938e-03) (44, 6.52791783213615417480e-02) (45, 2.12139296531677246094e+00) (0, -1.74285650253295898438e+00) (1, 3.69736514985561370850e-02) (2, 5.98709642887115478516e-01) (3, 2.93989658355712890625e-01) (4, -1.17782366275787353516e+00) (5, 3.50217342376708984375e+00) (6, 2.10897636413574218750e+00) (7, 2.85734629631042480469e+00) (8, 1.78353011608123779297e-01) (9, -1.72774505615234375000e+00) (10, -1.76351690292358398438e+00) (11, -1.09881484508514404297e+00) (12, -1.52215182781219482422e+00) (13, -1.43620634078979492188e+00) (14, -1.08724784851074218750e+00) (15, -1.62495756149291992188e+00) (16, -1.23617500066757202148e-01) (17, 4.62833762168884277344e-01) (18, 3.52374434471130371094e-01) (19, -1.33926451206207275391e+00) (20, 3.43424987792968750000e+00) (21, 2.18211650848388671875e+00) (22, 2.80011343955993652344e+00) (23, 2.52936661243438720703e-01) (24, -1.62233352661132812500e+00) (25, -1.82601714134216308594e+00) (26, -1.13292729854583740234e+00) (27, -1.42785179615020751953e+00) (28, -1.45582079887390136719e+00) (29, -1.16913664340972900391e+00) (30, 8.22483301162719726562e-02) (31, -2.34560561180114746094e+00) (32, -2.47270131111145019531e+00) (33, -2.30347037315368652344e+00) (34, 6.53236135840415954590e-02) (35, -9.72810015082359313965e-02) (36, -2.33415436744689941406e+00) (37, -2.28278136253356933594e+00) (38, -2.32684111595153808594e+00) (39, -5.02639822661876678467e-02) (40, 9.57489013671875000000e-02) (41, -5.17163090407848358154e-02) (42, 5.65109029412269592285e-02) (43, -2.14680265635251998901e-02) (44, 9.55173000693321228027e-02) (45, -2.25915789604187011719e+00) (0, -4.49547433853149414062e+00) (1, -5.28810930252075195312e+00) (2, 8.47924947738647460938e-02) (3, 5.30837655067443847656e-01) (4, 1.47273409366607666016e+00) (5, 1.12226796150207519531e+00) (6, 5.15309214591979980469e-01) (7, -9.71699059009552001953e-02) (8, 1.63358998298645019531e+00) (9, -1.71294271945953369141e-01) (10, 8.11392605304718017578e-01) (11, 1.43207812309265136719e+00) (12, 6.74363851547241210938e-01) (13, 4.36004191637039184570e-01) (14, 1.71437859535217285156e+00) (15, -4.43602514266967773438e+00) (16, -5.26628255844116210938e+00) (17, 8.25591236352920532227e-02) (18, 4.73847657442092895508e-01) (19, 1.62407600879669189453e+00) (20, 1.22136282920837402344e+00) (21, 4.99131649732589721680e-01) (22, -4.18164022266864776611e-02) (23, 1.70371484756469726562e+00) (24, -2.43504971265792846680e-01) (25, 8.28042685985565185547e-01) (26, 1.47782397270202636719e+00) (27, 7.81579613685607910156e-01) (28, 4.03567463159561157227e-01) (29, 1.71770000457763671875e+00) (30, -3.78626361489295959473e-02) (31, 3.06476759910583496094e+00) (32, 3.13510346412658691406e+00) (33, 3.19916915893554687500e+00) (34, 5.31748794019222259521e-02) (35, 6.92531391978263854980e-02) (36, 3.03348135948181152344e+00) (37, 3.15301465988159179688e+00) (38, 3.10300779342651367188e+00) (39, -5.60190081596374511719e-02) (40, -4.96017821133136749268e-02) (41, -3.70107181370258331299e-02) (42, 3.12559008598327636719e-02) (43, 2.89780385792255401611e-02) (44, 5.47021143138408660889e-02) (45, 1.97414577007293701172e+00) (0, 3.97435009479522705078e-01) (1, -1.17275607585906982422e+00) (2, -2.11976909637451171875e+00) (3, -1.79556608200073242188e+00) (4, 2.10145950317382812500e+00) (5, 5.08631610870361328125e+00) (6, 3.72949331998825073242e-01) (7, 1.56984770298004150391e+00) (8, 5.27431309223175048828e-01) (9, 8.35093855857849121094e-01) (10, 4.60641324520111083984e-01) (11, -1.07190108299255371094e+00) (12, 2.79546856880187988281e-01) (13, -1.28431367874145507812e+00) (14, -7.48013496398925781250e-01) (15, 2.89731770753860473633e-01) (16, -1.29748165607452392578e+00) (17, -2.10907649993896484375e+00) (18, -1.74374151229858398438e+00) (19, 1.94030582904815673828e+00) (20, 5.13285636901855468750e+00) (21, 4.74593400955200195312e-01) (22, 1.57260000705718994141e+00) (23, 5.88129818439483642578e-01) (24, 9.51433897018432617188e-01) (25, 3.33047389984130859375e-01) (26, -1.08123397827148437500e+00) (27, 3.41346979141235351562e-01) (28, -1.34220588207244873047e+00) (29, -7.31181979179382324219e-01) (30, 3.82386930286884307861e-02) (31, -2.01350593566894531250e+00) (32, -2.07634997367858886719e+00) (33, -2.01362466812133789062e+00) (34, 5.08524440228939056396e-02) (35, -6.87409490346908569336e-02) (36, -2.09306120872497558594e+00) (37, -1.98328399658203125000e+00) (38, -1.95418167114257812500e+00) (39, -4.87378053367137908936e-02) (40, 8.99087935686111450195e-02) (41, 1.91658865660429000854e-02) (42, 8.95837470889091491699e-02) (43, -9.01245176792144775391e-02) (44, 1.27676129341125488281e-02) (45, -2.26713180541992187500e+00) (0, -1.16111290454864501953e+00) (1, 2.74425077438354492188e+00) (2, 2.38812160491943359375e+00) (3, 2.31840777397155761719e+00) (4, -7.27656722068786621094e-01) (5, -2.73155260086059570312e+00) (6, -3.35499477386474609375e+00) (7, -3.22904729843139648438e+00) (8, -1.10172832012176513672e+00) (9, -5.99492609500885009766e-01) (10, -2.37155342102050781250e+00) (11, 1.54064083099365234375e+00) (12, -1.00207018852233886719e+00) (13, -9.68232631683349609375e-01) (14, 3.42143595218658447266e-01) (15, -1.20690679550170898438e+00) (16, 2.77597284317016601562e+00) (17, 2.49657773971557617188e+00) (18, 2.32085037231445312500e+00) (19, -7.52513766288757324219e-01) (20, -2.55894231796264648438e+00) (21, -3.41312074661254882812e+00) (22, -3.25450038909912109375e+00) (23, -1.01027691364288330078e+00) (24, -5.56866347789764404297e-01) (25, -2.41382884979248046875e+00) (26, 1.62226986885070800781e+00) (27, -1.05162751674652099609e+00) (28, -9.36342358589172363281e-01) (29, 2.52849608659744262695e-01) (30, 1.48332482203841209412e-02) (31, 1.41705691814422607422e+00) (32, 1.39776360988616943359e+00) (33, 1.38908350467681884766e+00) (34, 6.62409812211990356445e-02) (35, 5.22628538310527801514e-02) (36, 1.41048204898834228516e+00) (37, 1.26186645030975341797e+00) (38, 1.30300724506378173828e+00) (39, -2.20763217657804489136e-02) (40, -3.19086126983165740967e-02) (41, -7.94277116656303405762e-02) (42, -5.68979978561401367188e-03) (43, 7.60381445288658142090e-02) (44, -6.19747070595622062683e-03) (45, 1.43481409549713134766e+00) (0, -3.66612696647644042969e+00) (1, -1.43914449214935302734e+00) (2, -1.17084756493568420410e-02) (3, -1.10836553573608398438e+00) (4, -8.60053896903991699219e-01) (5, -2.64768511056900024414e-01) (6, -8.31438541412353515625e+00) (7, -7.58133590221405029297e-01) (8, 1.37403473258018493652e-01) (9, -1.47939348220825195312e+00) (10, -1.05745601654052734375e+00) (11, 1.70676612854003906250e+00) (12, 1.14675593376159667969e+00) (13, 1.28132486343383789062e+00) (14, 6.95385336875915527344e-01) (15, -3.63496994972229003906e+00) (16, -1.38674175739288330078e+00) (17, -1.52242198586463928223e-01) (18, -1.27966547012329101562e+00) (19, -7.91009426116943359375e-01) (20, -2.47049525380134582520e-01) (21, -8.31270027160644531250e+00) (22, -7.52514779567718505859e-01) (23, 5.93244321644306182861e-02) (24, -1.46859312057495117188e+00) (25, -1.07899141311645507812e+00) (26, 1.75124347209930419922e+00) (27, 1.19347620010375976562e+00) (28, 1.33070659637451171875e+00) (29, 8.22882175445556640625e-01) (30, 7.96547904610633850098e-02) (31, 2.15893268585205078125e+00) (32, 2.19831943511962890625e+00) (33, 2.27626991271972656250e+00) (34, -8.67380574345588684082e-02) (35, 9.88900661468505859375e-04) (36, 2.22741746902465820312e+00) (37, 2.16408944129943847656e+00) (38, 2.18795061111450195312e+00) (39, -8.20626541972160339355e-02) (40, 4.76912269368767738342e-03) (41, -8.79811029881238937378e-03) (42, -5.40497228503227233887e-02) (43, -5.66841214895248413086e-02) (44, -6.09480328857898712158e-02) (45, 2.12754464149475097656e+00) (0, 2.12288308143615722656e+00) (1, 4.86625528335571289062e+00) (2, 1.22346782684326171875e+00) (3, -2.85237878561019897461e-01) (4, -1.38396370410919189453e+00) (5, -2.17955327033996582031e+00) (6, -3.26397562026977539062e+00) (7, 5.47758996486663818359e-01) (8, -7.23794281482696533203e-01) (9, -6.97098597884178161621e-02) (10, -8.77274811267852783203e-01) (11, -7.16755926609039306641e-01) (12, -7.27572560310363769531e-01) (13, 2.70033657550811767578e-01) (14, -2.08249300718307495117e-01) (15, 2.21430373191833496094e+00) (16, 4.76843118667602539062e+00) (17, 1.14187645912170410156e+00) (18, -2.79532641172409057617e-01) (19, -1.37971794605255126953e+00) (20, -2.12902021408081054688e+00) (21, -3.38336420059204101562e+00) (22, 6.23515307903289794922e-01) (23, -6.76706373691558837891e-01) (24, -6.21175505220890045166e-02) (25, -9.17944014072418212891e-01) (26, -8.50957810878753662109e-01) (27, -6.59297227859497070312e-01) (28, 2.75448620319366455078e-01) (29, -2.69692182540893554688e-01) (30, 6.14828355610370635986e-02) (31, -5.17121374607086181641e-01) (32, -6.02476418018341064453e-01) (33, -6.23121201992034912109e-01) (34, -1.19635704904794692993e-02) (35, 7.86722451448440551758e-02) (36, -5.52904665470123291016e-01) (37, -6.65681183338165283203e-01) (38, -6.58985316753387451172e-01) (39, -4.48153391480445861816e-02) (40, -5.65330348908901214600e-02) (41, -3.54105839505791664124e-03) (42, -5.01898229122161865234e-02) (43, -4.80719991028308868408e-02) (44, 6.31812140345573425293e-02) (45, -1.15661412477493286133e-01) (0, -2.97873282432556152344e+00) (1, -6.41968786716461181641e-01) (2, 2.96704530715942382812e-01) (3, 3.64852046966552734375e+00) (4, -1.89067697525024414062e+00) (5, 2.04767656326293945312e+00) (6, 3.37596774101257324219e+00) (7, 2.55077552795410156250e+00) (8, 3.33970010280609130859e-01) (9, 2.78417706489562988281e+00) (10, 1.80161595344543457031e-01) (11, -1.28519788384437561035e-01) (12, -1.37063503265380859375e+00) (13, -1.17640841007232666016e+00) (14, -1.07011950016021728516e+00) (15, -2.97197031974792480469e+00) (16, -5.48683702945709228516e-01) (17, 4.30053591728210449219e-01) (18, 3.59320926666259765625e+00) (19, -2.00879836082458496094e+00) (20, 2.03894782066345214844e+00) (21, 3.24085688591003417969e+00) (22, 2.52887678146362304688e+00) (23, 3.82988750934600830078e-01) (24, 2.87346339225769042969e+00) (25, 1.72908395528793334961e-01) (26, -2.43465662002563476562e-01) (27, -1.30827498435974121094e+00) (28, -1.20387089252471923828e+00) (29, -1.12136042118072509766e+00) (30, 5.84125407040119171143e-02) (31, -3.47140979766845703125e+00) (32, -3.57932233810424804688e+00) (33, -3.46889829635620117188e+00) (34, 5.13432733714580535889e-02) (35, -7.27229788899421691895e-02) (36, -3.51765966415405273438e+00) (37, -3.52865505218505859375e+00) (38, -3.55767202377319335938e+00) (39, -3.93997989594936370850e-02) (40, 3.77313978970050811768e-02) (41, -9.81997102499008178711e-02) (42, -5.85157386958599090576e-02) (43, -7.69452154636383056641e-02) (44, 7.56097435951232910156e-02) (45, -3.39389991760253906250e+00) (0, -5.19251489639282226562e+00) (1, -9.90951359272003173828e-01) (2, -1.54216930270195007324e-01) (3, -1.35260844230651855469e+00) (4, -2.31476068496704101562e+00) (5, -4.24269407987594604492e-01) (6, 4.24521863460540771484e-01) (7, -3.04378223419189453125e+00) (8, -3.26373624801635742188e+00) (9, 1.37598693370819091797e+00) (10, 1.35596311092376708984e+00) (11, 2.00635090470314025879e-01) (12, 1.01890242099761962891e+00) (13, 1.09215271472930908203e+00) (14, 5.44687271118164062500e-01) (15, -5.23621749877929687500e+00) (16, -1.08216321468353271484e+00) (17, -6.86926022171974182129e-02) (18, -1.51704430580139160156e+00) (19, -2.28530836105346679688e+00) (20, -2.53978252410888671875e-01) (21, 5.57533860206604003906e-01) (22, -3.13613843917846679688e+00) (23, -3.36279678344726562500e+00) (24, 1.27172434329986572266e+00) (25, 1.30692017078399658203e+00) (26, 2.37437739968299865723e-01) (27, 1.00844109058380126953e+00) (28, 1.11981701850891113281e+00) (29, 5.27980446815490722656e-01) (30, 7.91292116045951843262e-02) (31, 1.72464442253112792969e+00) (32, 1.78074312210083007812e+00) (33, 1.65128040313720703125e+00) (34, 1.76753755658864974976e-02) (35, 4.32054288685321807861e-02) (36, 1.67947268486022949219e+00) (37, 1.72633385658264160156e+00) (38, 1.72955775260925292969e+00) (39, -9.32441931217908859253e-03) (40, -4.00727689266204833984e-02) (41, -6.26088753342628479004e-02) (42, 5.42851351201534271240e-02) (43, 2.76737213134765625000e-02) (44, -2.19594072550535202026e-02) (45, 1.53538775444030761719e+00) (0, -2.84784108400344848633e-01) (1, -7.75489032268524169922e-01) (2, 3.27345967292785644531e-01) (3, 7.45790302753448486328e-02) (4, -1.32932126522064208984e+00) (5, 3.80470007658004760742e-01) (6, 6.22630774974822998047e-01) (7, 1.58823943138122558594e+00) (8, 2.40998101234436035156e+00) (9, 6.81736648082733154297e-01) (10, -7.48267829418182373047e-01) (11, -8.06325912475585937500e-01) (12, -2.82486170530319213867e-01) (13, -1.17193901538848876953e+00) (14, -6.63649380207061767578e-01) (15, -2.62307792901992797852e-01) (16, -8.37827920913696289062e-01) (17, 3.95150303840637207031e-01) (18, -5.31938783824443817139e-02) (19, -1.25236976146697998047e+00) (20, 3.92995983362197875977e-01) (21, 6.32661283016204833984e-01) (22, 1.49752831459045410156e+00) (23, 2.46698355674743652344e+00) (24, 5.66641807556152343750e-01) (25, -6.24311566352844238281e-01) (26, -8.12344670295715332031e-01) (27, -3.00580829381942749023e-01) (28, -1.18862307071685791016e+00) (29, -6.67649209499359130859e-01) (30, -7.39008709788322448730e-02) (31, -2.19991636276245117188e+00) (32, -2.04879713058471679688e+00) (33, -2.19731140136718750000e+00) (34, -8.93917009234428405762e-02) (35, -2.37034205347299575806e-02) (36, -2.18060541152954101562e+00) (37, -2.10692596435546875000e+00) (38, -2.17434024810791015625e+00) (39, 7.63412490487098693848e-02) (40, -2.54027973860502243042e-02) (41, 3.54117155075073242188e-03) (42, 9.20701399445533752441e-02) (43, -2.82228421419858932495e-02) (44, -9.18926820158958435059e-02) (45, -1.51287630200386047363e-01) (0, -1.07289338111877441406e+00) (1, -1.39802074432373046875e+00) (2, 7.28365004062652587891e-01) (3, 4.58819270133972167969e-01) (4, 1.06141459941864013672e+00) (5, 1.90986669063568115234e+00) (6, 1.31012034416198730469e+00) (7, 4.54808473587036132812e+00) (8, 5.24848937988281250000e-01) (9, -3.49327385425567626953e-01) (10, -6.72027826309204101562e-01) (11, -6.16333842277526855469e-01) (12, -9.23512279987335205078e-01) (13, -5.78940212726593017578e-01) (14, -9.03701782226562500000e-02) (15, -1.06766366958618164062e+00) (16, -1.44751691818237304688e+00) (17, 6.20208442211151123047e-01) (18, 4.67248260974884033203e-01) (19, 1.06210958957672119141e+00) (20, 1.84877502918243408203e+00) (21, 1.44544935226440429688e+00) (22, 4.58320283889770507812e+00) (23, 3.58727157115936279297e-01) (24, -2.62456536293029785156e-01) (25, -7.22522854804992675781e-01) (26, -6.88624739646911621094e-01) (27, -8.23657691478729248047e-01) (28, -6.45540416240692138672e-01) (29, -4.23039793968200683594e-02) (30, -8.91070812940597534180e-02) (31, -3.16290569305419921875e+00) (32, -3.13625764846801757812e+00) (33, -3.12329101562500000000e+00) (34, -6.96698427200317382812e-02) (35, 7.90373906493186950684e-02) (36, -3.12421417236328125000e+00) (37, -3.25036668777465820312e+00) (38, -3.21344470977783203125e+00) (39, 5.12115247547626495361e-02) (40, 1.79326534271240234375e-03) (41, 6.23388178646564483643e-02) (42, 3.23177836835384368896e-02) (43, 2.90101896971464157104e-02) (44, 2.19758749008178710938e-02) (45, -3.04406714439392089844e+00) (0, -3.64143341779708862305e-01) (1, -8.74181151390075683594e-01) (2, -3.20690512657165527344e-01) (3, 1.11584687232971191406e+00) (4, 4.84515380859375000000e+00) (5, 1.63412675261497497559e-01) (6, -4.56170511245727539062e+00) (7, -1.85453951358795166016e+00) (8, -5.08331596851348876953e-01) (9, 6.45892798900604248047e-01) (10, -1.43012046813964843750e-01) (11, 2.03559309244155883789e-01) (12, 9.59298312664031982422e-02) (13, 2.95008838176727294922e-01) (14, 9.48752462863922119141e-02) (15, -4.34879809617996215820e-01) (16, -8.60138177871704101562e-01) (17, -1.83917567133903503418e-01) (18, 1.12821280956268310547e+00) (19, 4.87756490707397460938e+00) (20, 3.41236621141433715820e-01) (21, -4.52818393707275390625e+00) (22, -1.91512715816497802734e+00) (23, -4.45198863744735717773e-01) (24, 4.95623171329498291016e-01) (25, -1.23066820204257965088e-01) (26, 1.20214737951755523682e-01) (27, 1.50907307863235473633e-01) (28, 1.50926977396011352539e-01) (29, 2.16583132743835449219e-01) (30, 5.68483844399452209473e-02) (31, -4.31185923516750335693e-02) (32, -7.10372580215334892273e-04) (33, -5.78985773026943206787e-02) (34, 1.44543526694178581238e-02) (35, -8.78115296363830566406e-02) (36, -5.70483766496181488037e-02) (37, 7.54659473896026611328e-02) (38, 1.65282748639583587646e-02) (39, -7.33124390244483947754e-02) (40, 2.67016291618347167969e-02) (41, 9.73495841026306152344e-02) (42, 4.16286364197731018066e-02) (43, -7.26019069552421569824e-02) (44, 9.35969725251197814941e-02) (45, -2.30872005224227905273e-01) (46, 9.74331125617027282715e-02) (47, -3.36363837122917175293e-02) (48, -3.24689000844955444336e-02) (49, -1.01294779777526855469e+00) (50, -6.18417486548423767090e-02) (51, 2.24004119634628295898e-01) (52, -2.00860410928726196289e-01) (53, 3.47226075828075408936e-02) (54, 7.02567160129547119141e-01) (55, -2.03668279573321342468e-03) (56, 7.43471309542655944824e-02) (57, 1.98819920420646667480e-01) (58, 8.55457186698913574219e-02) (59, 8.47367569804191589355e-02) (60, -9.27946269512176513672e-02) (61, -2.50900536775588989258e-01) (62, -3.34229692816734313965e-02) (63, -2.40939557552337646484e-01) (64, 1.64111167192459106445e-01) (65, 8.37513953447341918945e-02) (66, -1.07749491930007934570e-01) (67, 7.21967592835426330566e-02) (68, 2.20202971249818801880e-02) (69, 2.51881062984466552734e-01) (70, 3.66686359047889709473e-02) (71, -1.81027308106422424316e-01) (72, 5.32985702157020568848e-02) (73, -2.09162220358848571777e-01) (74, 7.24901556968688964844e-02) (75, -1.28183826804161071777e-01) (76, -2.21980764763429760933e-04) (77, -1.25761732459068298340e-01) (78, 1.01486849784851074219e+00) (79, 1.48388057947158813477e-01) (80, -1.14716008305549621582e-01) (81, 3.94069850444793701172e-02) (82, -4.84499186277389526367e-02) (83, 1.89112991094589233398e-01) (84, -9.44450199604034423828e-02) (85, 1.35271534323692321777e-01) (86, -2.04211667180061340332e-01) (87, -3.62335294485092163086e-02) (88, -1.09682619571685791016e+00) (89, -4.36973839998245239258e-01) (90, 1.08126373961567878723e-02) (91, 1.31283032894134521484e+00) (46, -3.29793214797973632812e-01) (47, 6.07712507247924804688e-01) (48, -4.77425718307495117188e+00) (49, 3.00803691148757934570e-01) (50, -1.32509976625442504883e-01) (51, -2.40509212017059326172e-01) (52, 1.41023325920104980469e+00) (53, 9.90508645772933959961e-02) (54, -1.28042280673980712891e-01) (55, 7.64643490314483642578e-01) (56, -3.64353871345520019531e+00) (57, 3.88567239046096801758e-01) (58, 1.44483053684234619141e+00) (59, -2.47129276394844055176e-02) (60, 5.16497530043125152588e-02) (61, -2.73197674751281738281e+00) (62, -2.44119238853454589844e+00) (63, -2.57489830255508422852e-01) (64, -3.13376218080520629883e-01) (65, 1.43303036689758300781e+00) (66, 6.46658003330230712891e-01) (67, -5.77324271202087402344e-01) (68, -1.57871985435485839844e+00) (69, -1.20439517498016357422e+00) (70, -2.72425127029418945312e+00) (71, 2.12231650948524475098e-01) (72, -5.22026896476745605469e-01) (73, 4.94697064161300659180e-01) (74, 2.25953459739685058594e-01) (75, -4.05428552627563476562e+00) (76, 2.42562592029571533203e-01) (77, 1.76710534095764160156e+00) (78, 3.43572020530700683594e-01) (79, -4.78646904230117797852e-01) (80, -9.34084355831146240234e-02) (81, -1.76856803894042968750e+00) (82, 7.29053139686584472656e-01) (83, -8.10207009315490722656e-01) (84, -1.56986522674560546875e+00) (85, -2.21661925315856933594e-01) (86, -9.26740050315856933594e-01) (87, -2.62481141090393066406e+00) (88, 2.96614289283752441406e-01) (89, -2.55913525819778442383e-01) (90, 2.54765421152114868164e-01) (91, -8.85928571224212646484e-02) (46, -3.13977211713790893555e-01) (47, -3.49077254533767700195e-01) (48, -1.92061710357666015625e+00) (49, -6.66694343090057373047e-02) (50, 7.61622428894042968750e-01) (51, -2.02837276458740234375e+00) (52, 1.90438139438629150391e+00) (53, 2.41997629404067993164e-01) (54, -7.05689013004302978516e-01) (55, 7.28482961654663085938e-01) (56, -1.81216299533843994141e+00) (57, -8.73066544532775878906e-01) (58, 1.10050284862518310547e+00) (59, 2.20817551016807556152e-01) (60, 3.46640020608901977539e-01) (61, -8.47467839717864990234e-01) (62, -3.73381447792053222656e+00) (63, 3.23801785707473754883e-01) (64, 1.72346448898315429688e+00) (65, 5.00174820423126220703e-01) (66, 3.12178611755371093750e+00) (67, -2.37687706947326660156e-01) (68, -1.05043828487396240234e+00) (69, -4.69955492019653320312e+00) (70, -4.15451079607009887695e-01) (71, 1.78762987256050109863e-01) (72, -1.17218363285064697266e+00) (73, 2.09552145004272460938e+00) (74, 6.62142574787139892578e-01) (75, 4.21992480754852294922e-01) (76, -1.47298991680145263672e-01) (77, -2.97884154319763183594e+00) (78, -4.14032638072967529297e-01) (79, -4.17749738693237304688e+00) (80, 3.61291587352752685547e-01) (81, -3.93187856674194335938e+00) (82, -2.52000361680984497070e-01) (83, 1.24630963802337646484e+00) (84, -1.49265468120574951172e+00) (85, 2.33036160469055175781e+00) (86, -5.99638640880584716797e-01) (87, -5.86583733558654785156e-01) (88, 5.00895738601684570312e-01) (89, -3.58488768339157104492e-01) (90, -5.62774360179901123047e-01) (91, -7.98273980617523193359e-01) (46, 2.07018280029296875000e+00) (47, 4.32185840606689453125e+00) (48, 1.05869233608245849609e+00) (49, -1.31522762775421142578e+00) (50, -4.19027775526046752930e-01) (51, 1.53696382045745849609e+00) (52, -4.03835868835449218750e+00) (53, -1.35634458065032958984e+00) (54, 1.06887030601501464844e+00) (55, -7.38574326038360595703e-01) (56, -3.32356357574462890625e+00) (57, 2.20443531870841979980e-01) (58, -3.90648156404495239258e-01) (59, 6.41017079353332519531e-01) (60, -3.25561732053756713867e-01) (61, 1.16177690029144287109e+00) (62, 1.79197216033935546875e+00) (63, -3.82624834775924682617e-01) (64, -8.64141941070556640625e-01) (65, -2.17412427067756652832e-01) (66, -1.99372148513793945312e+00) (67, 3.32574814558029174805e-01) (68, 1.90191185474395751953e+00) (69, 1.76410806179046630859e+00) (70, -1.89837247133255004883e-01) (71, 6.92195817828178405762e-02) (72, 3.80777359008789062500e-01) (73, 5.34155547618865966797e-01) (74, -5.70377528667449951172e-01) (75, 1.41304957866668701172e+00) (76, 3.30146491527557373047e-01) (77, -4.72187362611293792725e-02) (78, 1.25532889366149902344e+00) (79, 2.72103357315063476562e+00) (80, -5.83117485046386718750e-01) (81, 2.16545701026916503906e+00) (82, 2.66411099582910537720e-02) (83, -4.37477856874465942383e-01) (84, 1.87350735068321228027e-01) (85, -2.09930849075317382812e+00) (86, -9.60290580987930297852e-02) (87, 1.02977204322814941406e+00) (88, -1.57078552246093750000e+00) (89, -5.79869568347930908203e-01) (90, 3.80701333284378051758e-01) (91, 2.17421817779541015625e+00) (46, 2.24679350852966308594e+00) (47, 2.13199138641357421875e+00) (48, 1.19990134239196777344e+00) (49, 1.12622547149658203125e+00) (50, -8.24434816837310791016e-01) (51, 4.22512024641036987305e-01) (52, -1.86182498931884765625e+00) (53, -9.66707468032836914062e-01) (54, -2.94824451208114624023e-01) (55, 3.35407048463821411133e-01) (56, -3.62199664115905761719e+00) (57, 1.61476239562034606934e-01) (58, -8.77516567707061767578e-01) (59, 1.04046151041984558105e-01) (60, 6.46762609481811523438e-01) (61, -5.40713965892791748047e-02) (62, 1.37789320945739746094e+00) (63, 1.57987964153289794922e+00) (64, -1.17233645915985107422e+00) (65, 5.97455680370330810547e-01) (66, -1.40160655975341796875e+00) (67, -6.73834466934204101562e+00) (68, -6.82599401473999023438e+00) (69, 2.16304016113281250000e+00) (70, -1.51637107133865356445e-01) (71, 7.58313775062561035156e-01) (72, 1.63344192504882812500e+00) (73, 1.24865972995758056641e+00) (74, 7.22229003906250000000e-01) (75, 1.87788796424865722656e+00) (76, -7.86195278167724609375e-01) (77, 3.96904826164245605469e-01) (78, -1.07042014598846435547e+00) (79, 2.04732394218444824219e+00) (80, -7.80108338221907615662e-03) (81, 9.96248543262481689453e-01) (82, 1.07369661331176757812e+00) (83, -1.38000547885894775391e+00) (84, 1.52243447303771972656e+00) (85, -1.28503596782684326172e+00) (86, -9.11827683448791503906e-01) (87, 1.20270860195159912109e+00) (88, 4.27093327045440673828e-01) (89, 6.01087689399719238281e-01) (90, 1.03032803535461425781e+00) (91, -9.65701699256896972656e-01) (46, -2.21080136299133300781e+00) (47, -1.74232316017150878906e+00) (48, -7.10495650768280029297e-01) (49, -1.77923798561096191406e+00) (50, 7.67209947109222412109e-01) (51, -1.44866013526916503906e+00) (52, 1.92723441123962402344e+00) (53, 8.33603501319885253906e-01) (54, 7.99478948116302490234e-01) (55, -5.24609994888305664062e+00) (56, 2.99064373970031738281e+00) (57, 2.99017429351806640625e+00) (58, -1.08314424753189086914e-01) (59, 4.69602912664413452148e-01) (60, -5.40415763854980468750e-01) (61, 2.75735139846801757812e+00) (62, -6.75194501876831054688e-01) (63, -4.13838911056518554688e+00) (64, 2.21921682357788085938e+00) (65, 2.09117293357849121094e+00) (66, 1.53265321254730224609e+00) (67, 2.58916950225830078125e+00) (68, 2.36767125129699707031e+00) (69, -1.71648728847503662109e+00) (70, 4.12064753472805023193e-02) (71, -3.63844108581542968750e+00) (72, 2.12769722938537597656e+00) (73, -1.95951327681541442871e-01) (74, 9.59802567958831787109e-01) (75, -8.85782957077026367188e-01) (76, 3.89902591705322265625e-01) (77, -1.60830450057983398438e+00) (78, 1.31535673141479492188e+00) (79, -1.36842441558837890625e+00) (80, -6.45683169364929199219e-01) (81, 3.76579731702804565430e-01) (82, -4.07522857189178466797e-01) (83, 1.21142724528908729553e-02) (84, -9.68804538249969482422e-01) (85, 1.05411839485168457031e+00) (86, 2.84584641456604003906e-01) (87, -1.12171137332916259766e+00) (88, -2.01636457443237304688e+00) (89, -2.03778408467769622803e-02) (90, 2.31585907936096191406e+00) (91, 2.11463260650634765625e+00) (46, 1.85463798046112060547e+00) (47, -9.67299997806549072266e-01) (48, -1.66384029388427734375e+00) (49, 4.27188098430633544922e-01) (50, 7.47282385826110839844e-01) (51, 1.30717545747756958008e-01) (52, 1.45872128009796142578e+00) (53, 1.80875048041343688965e-01) (54, 1.54231309890747070312e-01) (55, -3.20135498046875000000e+00) (56, 1.71545934677124023438e+00) (57, 3.03273177146911621094e+00) (58, 9.35627996921539306641e-01) (59, -9.66761648654937744141e-01) (60, 7.69361793994903564453e-01) (61, 5.52011191844940185547e-01) (62, -1.41452431678771972656e+00) (63, -2.02543735504150390625e+00) (64, 1.07811486721038818359e+00) (65, 9.94331389665603637695e-02) (66, 1.77165019512176513672e+00) (67, 1.03102266788482666016e+00) (68, 2.30094385147094726562e+00) (69, -2.04920768737792968750e+00) (70, 1.46153986454010009766e+00) (71, -1.80865538120269775391e+00) (72, 1.59220337867736816406e+00) (73, 2.98315644264221191406e-01) (74, 1.14937376976013183594e+00) (75, -1.88890397548675537109e+00) (76, 9.41227054595947265625e+00) (77, -9.78512048721313476562e-01) (78, -7.00458526611328125000e-01) (79, -8.33585023880004882812e-01) (80, 2.58099222183227539062e+00) (81, -1.55106335878372192383e-01) (82, 1.32759249210357666016e+00) (83, -2.57783770561218261719e-01) (84, 1.25759315490722656250e+00) (85, -1.81076735258102416992e-01) (86, 7.29107379913330078125e-01) (87, 5.13002872467041015625e-01) (88, 5.55173277854919433594e-01) (89, 1.09050440788269042969e+00) (90, 1.39627242088317871094e+00) (91, -1.17392063140869140625e+00) (46, -3.79361072555184364319e-03) (47, -8.71321558952331542969e-01) (48, 6.63117825984954833984e-01) (49, 7.47634530067443847656e-01) (50, -1.05772447586059570312e+00) (51, -4.87796276807785034180e-01) (52, 3.82284700870513916016e-01) (53, 1.77562034130096435547e+00) (54, -1.69212841987609863281e+00) (55, -2.71256852149963378906e+00) (56, 6.31381690502166748047e-01) (57, 2.46284985542297363281e+00) (58, -1.31680345535278320312e+00) (59, -3.72925686836242675781e+00) (60, 3.59323430061340332031e+00) (61, -6.85435771942138671875e-01) (62, -7.29373991489410400391e-01) (63, -8.98189425468444824219e-01) (64, 1.63780784606933593750e+00) (65, -1.71156358718872070312e+00) (66, 1.93259918689727783203e+00) (67, 1.78855150938034057617e-01) (68, 1.84464001655578613281e+00) (69, -1.41651391983032226562e+00) (70, -1.00776040554046630859e+00) (71, -1.75904428958892822266e+00) (72, 2.81561040878295898438e+00) (73, 1.37490761280059814453e+00) (74, 1.87905037403106689453e+00) (75, -9.61927592754364013672e-01) (76, 5.24849367141723632812e+00) (77, 1.79861247539520263672e+00) (78, -9.28026080131530761719e-01) (79, -2.53464519977569580078e-01) (80, 1.47955155372619628906e+00) (81, -1.39945971965789794922e+00) (82, 9.88251984119415283203e-01) (83, -3.04749041795730590820e-01) (84, -3.15649032592773437500e+00) (85, -7.29797780513763427734e-01) (86, 1.67489933967590332031e+00) (87, 1.09602594375610351562e+00) (88, 8.46207797527313232422e-01) (89, 6.50699496269226074219e-01) (90, -1.57805073261260986328e+00) (91, -1.82826948165893554688e+00) (46, 7.94455587863922119141e-01) (47, -1.00635457038879394531e+00) (48, 1.79922163486480712891e+00) (49, 1.25810492038726806641e+00) (50, -3.57752060890197753906e+00) (51, -1.92504501342773437500e+00) (52, 6.47395968437194824219e-01) (53, 9.63367223739624023438e-01) (54, -2.12288641929626464844e+00) (55, -2.58645439147949218750e+00) (56, -5.78573703765869140625e-01) (57, 2.36326241493225097656e+00) (58, -3.49551749229431152344e+00) (59, -2.57149791717529296875e+00) (60, -3.83071136474609375000e+00) (61, -2.18749022483825683594e+00) (62, -1.78837215900421142578e+00) (63, -1.56813740730285644531e-01) (64, 1.18125283718109130859e+00) (65, -1.10040855407714843750e+00) (66, 8.08135509490966796875e-01) (67, 6.53317496180534362793e-02) (68, 3.32654803991317749023e-01) (69, -8.23112607002258300781e-01) (70, 1.24213814735412597656e+00) (71, -5.51960706710815429688e-01) (72, 1.74795615673065185547e+00) (73, 2.69705581665039062500e+00) (74, -1.10624158382415771484e+00) (75, -7.03864634037017822266e-01) (76, 3.44560217857360839844e+00) (77, 1.81587290763854980469e+00) (78, -1.29266953468322753906e+00) (79, -3.11535000801086425781e-01) (80, 3.53800964355468750000e+00) (81, -1.05571222305297851562e+00) (82, 2.96119272708892822266e-01) (83, -1.69538819789886474609e+00) (84, -1.44974565505981445312e+00) (85, 4.44909423589706420898e-01) (86, 2.15672111511230468750e+00) (87, -8.70780646800994873047e-01) (88, 2.44984650611877441406e+00) (89, 3.23104834556579589844e+00) (90, -1.35727226734161376953e+00) (91, -2.32706141471862792969e+00) (46, 1.22988235950469970703e+00) (47, 6.52037024497985839844e-01) (48, -1.36134615167975425720e-02) (49, 1.18116223812103271484e+00) (50, -1.64075458049774169922e+00) (51, -1.36039590835571289062e+00) (52, 1.29713904857635498047e+00) (53, 6.01962804794311523438e-02) (54, -3.89222502708435058594e+00) (55, -1.15830123424530029297e+00) (56, 7.22961544990539550781e-01) (57, 5.65292298793792724609e-01) (58, -2.56931495666503906250e+00) (59, -7.75993764400482177734e-01) (60, -1.33148753643035888672e+00) (61, -1.69480586051940917969e+00) (62, 6.81370556354522705078e-01) (63, 4.76439028978347778320e-01) (64, -2.24014699459075927734e-01) (65, 4.90690201520919799805e-01) (66, 6.41366899013519287109e-01) (67, 1.85749083757400512695e-02) (68, -7.97005370259284973145e-02) (69, -3.61994713544845581055e-01) (70, -1.38554215431213378906e-01) (71, 4.16738957166671752930e-01) (72, 1.28502106666564941406e+00) (73, 3.88800799846649169922e-01) (74, 1.63434004783630371094e+00) (75, -3.18488538265228271484e-01) (76, 1.47938609123229980469e+00) (77, 6.18038177490234375000e-01) (78, -1.72825849056243896484e+00) (79, -4.97404664754867553711e-01) (80, 2.09689044952392578125e+00) (81, 2.95122116804122924805e-01) (82, 1.23759245872497558594e+00) (83, -7.04517245292663574219e-01) (84, -6.81532680988311767578e-01) (85, -5.08648574352264404297e-01) (86, 1.74400329589843750000e+00) (87, -2.67123579978942871094e+00) (88, 2.01938486099243164062e+00) (89, 2.55420970916748046875e+00) (90, -6.55337095260620117188e-01) (91, -2.03353619575500488281e+00) (46, 7.05500721931457519531e-01) (47, -5.55806756019592285156e-01) (48, -6.29256725311279296875e-01) (49, 9.65621888637542724609e-01) (50, -9.97401893138885498047e-01) (51, -5.22244036197662353516e-01) (52, 9.58297431468963623047e-01) (53, 1.05124521255493164062e+00) (54, -1.02155411243438720703e+00) (55, -1.11642301082611083984e+00) (56, 3.99137258529663085938e-01) (57, 6.09154284000396728516e-01) (58, -1.07802820205688476562e+00) (59, -1.11158990859985351562e+00) (60, -1.25886797904968261719e+00) (61, -1.31087470054626464844e+00) (62, 4.27952796220779418945e-01) (63, 1.68339014053344726562e-01) (64, -9.73284542560577392578e-02) (65, 6.53197690844535827637e-02) (66, 5.18782377243041992188e-01) (67, -4.54820096492767333984e-01) (68, -2.55736649036407470703e-01) (69, -5.76000571250915527344e-01) (70, -2.09762048721313476562e+00) (71, -3.36653590202331542969e-01) (72, 9.07227993011474609375e-01) (73, -2.17493608593940734863e-01) (74, 6.90163850784301757812e-01) (75, 3.18809032440185546875e-01) (76, 7.34567463397979736328e-01) (77, 6.92117214202880859375e-01) (78, -5.78541874885559082031e-01) (79, -1.23646467924118041992e-01) (80, 3.53155523538589477539e-01) (81, -5.57992815971374511719e-01) (82, 7.60341703891754150391e-01) (83, -1.03106129169464111328e+00) (84, -1.01317071914672851562e+00) (85, -8.91739353537559509277e-02) (86, 1.53708970546722412109e+00) (87, -6.69123172760009765625e-01) (88, 9.81401979923248291016e-01) (89, 1.11380195617675781250e+00) (90, 4.19100373983383178711e-01) (91, -1.78042149543762207031e+00) (46, 9.21361684799194335938e-01) (47, -2.84871488809585571289e-01) (48, -9.40738022327423095703e-01) (49, 8.87377560138702392578e-01) (50, -1.22508549690246582031e+00) (51, -1.60336613655090332031e+00) (52, 7.06680238246917724609e-01) (53, 2.61086374521255493164e-01) (54, -1.46985113620758056641e+00) (55, -7.52256155014038085938e-01) (56, 3.30780923366546630859e-01) (57, 2.68277317285537719727e-01) (58, -2.87744373083114624023e-01) (59, -7.87748813629150390625e-01) (60, -8.88055324554443359375e-01) (61, 3.79983663558959960938e-01) (62, 1.77874103188514709473e-01) (63, 3.76917272806167602539e-01) (64, -7.85415053367614746094e-01) (65, 1.04147404432296752930e-01) (66, 1.00323009490966796875e+00) (67, -5.43263554573059082031e-01) (68, -2.08114326000213623047e-01) (69, -7.74181425571441650391e-01) (70, -1.82424724102020263672e+00) (71, 1.23923316597938537598e-01) (72, 8.05516719818115234375e-01) (73, 4.58431392908096313477e-02) (74, 4.19082432985305786133e-01) (75, 4.28603708744049072266e-01) (76, 7.96925067901611328125e-01) (77, 7.17156350612640380859e-01) (78, -7.95998454093933105469e-01) (79, -3.62791657447814941406e-01) (80, 5.36060154438018798828e-01) (81, -4.18530881404876708984e-01) (82, 1.22806632518768310547e+00) (83, -7.12630093097686767578e-01) (84, 5.63343986868858337402e-02) (85, -5.46943902969360351562e-01) (86, 1.61203551292419433594e+00) (87, -1.59232527017593383789e-01) (88, 8.34712743759155273438e-01) (89, 8.11728358268737792969e-01) (90, 7.45925540104508399963e-03) (91, -1.73279404640197753906e+00) (46, 5.64151048660278320312e-01) (47, -7.65638574957847595215e-02) (48, -2.82915174961090087891e-01) (49, 9.57748413085937500000e-01) (50, -3.98005574941635131836e-01) (51, -1.11798822879791259766e+00) (52, 7.83075630664825439453e-01) (53, 1.85660481452941894531e-01) (54, -7.42851495742797851562e-01) (55, -2.73637264966964721680e-01) (56, 1.32968440651893615723e-01) (57, -1.29428327083587646484e-01) (58, -1.18151374161243438721e-01) (59, -7.36136913299560546875e-01) (60, -8.20922732353210449219e-01) (61, -2.98189610242843627930e-01) (62, 1.91914319992065429688e-01) (63, 1.65089845657348632812e-01) (64, -3.70435565710067749023e-01) (65, -3.15357446670532226562e-01) (66, 7.24884152412414550781e-01) (67, -2.71064907312393188477e-01) (68, -2.75279223918914794922e-01) (69, -5.37800908088684082031e-01) (70, -9.22948837280273437500e-01) (71, 4.32693734765052795410e-02) (72, 3.85153949260711669922e-01) (73, 2.82373607158660888672e-01) (74, 6.44625499844551086426e-02) (75, 6.39315247535705566406e-01) (76, -3.76444868743419647217e-02) (77, 3.39528530836105346680e-01) (78, -8.06770741939544677734e-01) (79, -8.14319252967834472656e-01) (80, 2.74565041065216064453e-01) (81, -5.04677891731262207031e-01) (82, 2.72938817739486694336e-01) (83, 1.38000309467315673828e-01) (84, -6.21618777513504028320e-02) (85, -5.90554103255271911621e-02) (86, 1.20335531234741210938e+00) (87, 2.11427337490022182465e-03) (88, 9.61626470088958740234e-01) (89, 4.90576565265655517578e-01) (90, -5.04411794245243072510e-02) (91, -1.43497240543365478516e+00) (46, -1.82953197509050369263e-02) (47, -1.85692027211189270020e-01) (48, -7.67404362559318542480e-02) (49, 7.66103982925415039062e-01) (50, -2.75878071784973144531e-01) (51, -2.09878236055374145508e-01) (52, 5.55542886257171630859e-01) (53, 3.94933037459850311279e-02) (54, -5.69601595401763916016e-01) (55, 1.69202592223882675171e-02) (56, 2.29232430458068847656e-01) (57, -1.83805655688047409058e-02) (58, 3.33245396614074707031e-02) (59, -2.42366045713424682617e-01) (60, -5.79798892140388488770e-02) (61, 7.35084041953086853027e-02) (62, -4.90660443902015686035e-02) (63, 3.04660629481077194214e-02) (64, -6.01721331477165222168e-02) (65, -1.20222359895706176758e-01) (66, 2.27119252085685729980e-01) (67, -7.80710503458976745605e-02) (68, 5.28659634292125701904e-02) (69, -3.03930968046188354492e-01) (70, -1.64038032293319702148e-01) (71, 2.01923027634620666504e-01) (72, 5.65923713147640228271e-02) (73, 4.83957827091217041016e-01) (74, 9.68700870871543884277e-02) (75, 2.45843112468719482422e-01) (76, 2.59517394006252288818e-02) (77, 1.37161210179328918457e-01) (78, -8.26358854770660400391e-01) (79, -2.64646381139755249023e-01) (80, 1.48452490568161010742e-01) (81, -2.54721283912658691406e-01) (82, 1.53298899531364440918e-01) (83, -1.73478782176971435547e-01) (84, -3.70612628757953643799e-02) (85, -4.22074459493160247803e-02) (86, 2.39448010921478271484e-01) (87, -1.37200802564620971680e-01) (88, 1.03488230705261230469e+00) (89, 3.69612753391265869141e-01) (90, -1.37060999870300292969e-01) (91, -1.20634424686431884766e+00) (46, -1.41147419810295104980e-01) (47, -1.56598329544067382812e-01) (48, -1.85093387961387634277e-01) (49, 8.59610259532928466797e-01) (50, -9.81993898749351501465e-02) (51, -1.20971776545047760010e-01) (52, 3.69018465280532836914e-01) (53, -2.55507361143827438354e-02) (54, -6.77683651447296142578e-01) (55, 3.29489223659038543701e-02) (56, 1.04667834937572479248e-01) (57, -6.08386546373367309570e-02) (58, 4.12743128836154937744e-02) (59, -2.52907484769821166992e-01) (60, -1.01099945604801177979e-01) (61, 4.51784022152423858643e-02) (62, 1.66872143745422363281e-02) (63, 1.38104539364576339722e-02) (64, -6.24124258756637573242e-02) (65, -6.40224069356918334961e-02) (66, 2.25767776370048522949e-01) (67, -1.22233815491199493408e-01) (68, -7.61140435934066772461e-02) (69, -1.55284166336059570312e-01) (70, -8.93834680318832397461e-02) (71, 7.87594765424728393555e-02) (72, 1.32903426885604858398e-01) (73, 2.75638759136199951172e-01) (74, 6.24747723340988159180e-02) (75, 9.35850590467453002930e-02) (76, 6.36382550001144409180e-02) (77, -6.12341389060020446777e-02) (78, -9.31156337261199951172e-01) (79, -2.54439443349838256836e-01) (80, 1.27386555075645446777e-01) (81, -2.11697846651077270508e-01) (82, 6.83986619114875793457e-02) (83, -3.03751468658447265625e-01) (84, -7.92900994420051574707e-02) (85, -1.31654098629951477051e-01) (86, 2.57016777992248535156e-01) (87, -2.74675861001014709473e-02) (88, 1.04997885227203369141e+00) (89, 3.91552120447158813477e-01) (90, -2.32037790119647979736e-02) (91, -1.27811050415039062500e+00) (46, 1.41073212027549743652e-01) (47, -1.81616749614477157593e-02) (48, -6.29116222262382507324e-02) (49, -8.97814631462097167969e-01) (50, 1.17350202053785324097e-02) (51, 2.14539051055908203125e-01) (52, -2.18010455369949340820e-01) (53, -2.65889428555965423584e-02) (54, 7.36976265907287597656e-01) (55, 2.69118305295705795288e-02) (56, 1.86461299657821655273e-01) (57, 2.30278685688972473145e-01) (58, -4.83261246699839830399e-05) (59, 1.24596178531646728516e-01) (60, 2.20439769327640533447e-03) 