FANN_FLO_2.1
num_layers=3
learning_rate=0.065787
connection_rate=1.000000
network_type=0
learning_momentum=0.000000
training_algorithm=0
train_error_function=1
train_stop_function=0
cascade_output_change_fraction=0.010000
quickprop_decay=-0.000100
quickprop_mu=1.750000
rprop_increase_factor=1.200000
rprop_decrease_factor=0.500000
rprop_delta_min=0.000000
rprop_delta_max=50.000000
rprop_delta_zero=0.100000
cascade_output_stagnation_epochs=12
cascade_candidate_change_fraction=0.010000
cascade_candidate_stagnation_epochs=12
cascade_max_out_epochs=150
cascade_min_out_epochs=50
cascade_max_cand_epochs=150
cascade_min_cand_epochs=50
cascade_num_candidate_groups=2
bit_fail_limit=3.49999994039535522461e-01
cascade_candidate_limit=1.00000000000000000000e+03
cascade_weight_multiplier=4.00000005960464477539e-01
cascade_activation_functions_count=10
cascade_activation_functions=3 5 7 8 10 11 14 15 16 17 
cascade_activation_steepnesses_count=130
cascade_activation_steepnesses=0.00000000000000000000e+00 0.00000000000000000000e+00 0.00000000000000000000e+00 1.70000000000000000000e+01 6.08100000000000000000e+03 6.08200000000000000000e+03 6.08300000000000000000e+03 6.08400000000000000000e+03 6.08500000000000000000e+03 6.08600000000000000000e+03 6.08700000000000000000e+03 6.08800000000000000000e+03 6.08900000000000000000e+03 6.09000000000000000000e+03 6.09100000000000000000e+03 6.09200000000000000000e+03 6.09300000000000000000e+03 6.09400000000000000000e+03 6.09500000000000000000e+03 6.09600000000000000000e+03 6.09700000000000000000e+03 0.00000000000000000000e+00 0.00000000000000000000e+00 1.05000000000000000000e+02 1.07526500000000000000e+06 1.07526600000000000000e+06 1.07526700000000000000e+06 1.07526800000000000000e+06 1.07526900000000000000e+06 1.07527000000000000000e+06 1.07527100000000000000e+06 1.07527200000000000000e+06 1.07527300000000000000e+06 1.07527400000000000000e+06 1.07527500000000000000e+06 1.07527600000000000000e+06 1.07527700000000000000e+06 1.07527800000000000000e+06 1.07527900000000000000e+06 1.07528000000000000000e+06 1.07528100000000000000e+06 1.07552100000000000000e+06 1.07552200000000000000e+06 1.07552300000000000000e+06 1.07552400000000000000e+06 1.07552500000000000000e+06 1.07552600000000000000e+06 1.07552700000000000000e+06 1.07552800000000000000e+06 1.07552900000000000000e+06 1.07553000000000000000e+06 1.07553100000000000000e+06 1.07553200000000000000e+06 1.07553300000000000000e+06 1.07553400000000000000e+06 1.07553500000000000000e+06 1.07553600000000000000e+06 1.07553700000000000000e+06 1.07564900000000000000e+06 1.07565000000000000000e+06 1.07565100000000000000e+06 1.07565200000000000000e+06 1.07565300000000000000e+06 1.07565400000000000000e+06 1.07565500000000000000e+06 1.07565600000000000000e+06 1.07565700000000000000e+06 1.07565800000000000000e+06 1.07565900000000000000e+06 1.07566000000000000000e+06 1.07566100000000000000e+06 1.07566200000000000000e+06 1.07566300000000000000e+06 1.07566400000000000000e+06 1.07566500000000000000e+06 1.07571600000000000000e+06 1.07590500000000000000e+06 1.07590600000000000000e+06 1.07590700000000000000e+06 1.07590800000000000000e+06 1.07590900000000000000e+06 1.07591000000000000000e+06 1.07591100000000000000e+06 1.07591200000000000000e+06 1.07591300000000000000e+06 1.07591400000000000000e+06 1.07591500000000000000e+06 1.07591600000000000000e+06 1.07591700000000000000e+06 1.07591800000000000000e+06 1.07591900000000000000e+06 1.07592000000000000000e+06 1.07592100000000000000e+06 1.07610000000000000000e+06 1.07610100000000000000e+06 1.07628900000000000000e+06 1.07629000000000000000e+06 1.07629100000000000000e+06 1.07629200000000000000e+06 1.07629300000000000000e+06 1.07629400000000000000e+06 1.07629500000000000000e+06 1.07629600000000000000e+06 1.07629700000000000000e+06 1.07629800000000000000e+06 1.07629900000000000000e+06 1.07630000000000000000e+06 1.07630100000000000000e+06 1.07630200000000000000e+06 1.07630300000000000000e+06 1.07630400000000000000e+06 1.07630500000000000000e+06 1.07667300000000000000e+06 1.07667400000000000000e+06 1.07667500000000000000e+06 1.07667600000000000000e+06 1.07667700000000000000e+06 1.07667800000000000000e+06 1.07667900000000000000e+06 1.07668000000000000000e+06 1.07668100000000000000e+06 1.07668200000000000000e+06 1.07668300000000000000e+06 1.07668400000000000000e+06 1.07668500000000000000e+06 1.07668600000000000000e+06 1.07668700000000000000e+06 1.07668800000000000000e+06 1.07668900000000000000e+06 0.00000000000000000000e+00 
layer_sizes=123 123 123 
scale_included=0
neurons (num_inputs, activation_function, activation_steepness)=(0, 0, 0.00000000000000000000e+00) (0, 0, 0.00000000000000000000e+00) (0, 0, 0.00000000000000000000e+00) (0, 0, 0.00000000000000000000e+00) (0, 0, 0.00000000000000000000e+00) (0, 0, 0.00000000000000000000e+00) (0, 0, 0.00000000000000000000e+00) (0, 0, 0.00000000000000000000e+00) (0, 0, 0.00000000000000000000e+00) (0, 0, 0.00000000000000000000e+00) (0, 0, 0.00000000000000000000e+00) (0, 0, 0.00000000000000000000e+00) (0, 0, 0.00000000000000000000e+00) (0, 0, 0.00000000000000000000e+00) (0, 0, 0.00000000000000000000e+00) (0, 0, 0.00000000000000000000e+00) (0, 0, 0.00000000000000000000e+00) (0, 0, 0.00000000000000000000e+00) (0, 0, 0.00000000000000000000e+00) (0, 0, 0.00000000000000000000e+00) (0, 0, 0.00000000000000000000e+00) (0, 0, 0.00000000000000000000e+00) (0, 0, 0.00000000000000000000e+00) (0, 0, 0.00000000000000000000e+00) (0, 0, 0.00000000000000000000e+00) (0, 0, 0.00000000000000000000e+00) (0, 0, 0.00000000000000000000e+00) (0, 0, 0.00000000000000000000e+00) (0, 0, 0.00000000000000000000e+00) (0, 0, 0.00000000000000000000e+00) (0, 0, 0.00000000000000000000e+00) (0, 0, 0.00000000000000000000e+00) (0, 0, 0.00000000000000000000e+00) (0, 0, 0.00000000000000000000e+00) (0, 0, 0.00000000000000000000e+00) (0, 0, 0.00000000000000000000e+00) (0, 0, 0.00000000000000000000e+00) (0, 0, 0.00000000000000000000e+00) (0, 0, 0.00000000000000000000e+00) (0, 0, 0.00000000000000000000e+00) (0, 0, 0.00000000000000000000e+00) (0, 0, 0.00000000000000000000e+00) (0, 0, 0.00000000000000000000e+00) (0, 0, 0.00000000000000000000e+00) (0, 0, 0.00000000000000000000e+00) (0, 0, 0.00000000000000000000e+00) (0, 0, 0.00000000000000000000e+00) (0, 0, 0.00000000000000000000e+00) (0, 0, 0.00000000000000000000e+00) (0, 0, 0.00000000000000000000e+00) (0, 0, 0.00000000000000000000e+00) (0, 0, 0.00000000000000000000e+00) (0, 0, 0.00000000000000000000e+00) (0, 0, 0.00000000000000000000e+00) (0, 0, 0.00000000000000000000e+00) (0, 0, 0.00000000000000000000e+00) (0, 0, 0.00000000000000000000e+00) (0, 0, 0.00000000000000000000e+00) (0, 0, 0.00000000000000000000e+00) (0, 0, 0.00000000000000000000e+00) (0, 0, 0.00000000000000000000e+00) (0, 0, 0.00000000000000000000e+00) (0, 0, 0.00000000000000000000e+00) (0, 0, 0.00000000000000000000e+00) (0, 0, 0.00000000000000000000e+00) (0, 0, 0.00000000000000000000e+00) (0, 0, 0.00000000000000000000e+00) (0, 0, 0.00000000000000000000e+00) (0, 0, 0.00000000000000000000e+00) (0, 0, 0.00000000000000000000e+00) (0, 0, 0.00000000000000000000e+00) (0, 0, 0.00000000000000000000e+00) (0, 0, 0.00000000000000000000e+00) (0, 0, 0.00000000000000000000e+00) (0, 0, 0.00000000000000000000e+00) (0, 0, 0.00000000000000000000e+00) (0, 0, 0.00000000000000000000e+00) (0, 0, 0.00000000000000000000e+00) (0, 0, 0.00000000000000000000e+00) (0, 0, 0.00000000000000000000e+00) (0, 0, 0.00000000000000000000e+00) (0, 0, 0.00000000000000000000e+00) (0, 0, 0.00000000000000000000e+00) (0, 0, 0.00000000000000000000e+00) (0, 0, 0.00000000000000000000e+00) (0, 0, 0.00000000000000000000e+00) (0, 0, 0.00000000000000000000e+00) (0, 0, 0.00000000000000000000e+00) (0, 0, 0.00000000000000000000e+00) (0, 0, 0.00000000000000000000e+00) (0, 0, 0.00000000000000000000e+00) (0, 0, 0.00000000000000000000e+00) (0, 0, 0.00000000000000000000e+00) (0, 0, 0.00000000000000000000e+00) (0, 0, 0.00000000000000000000e+00) (0, 0, 0.00000000000000000000e+00) (0, 0, 0.00000000000000000000e+00) (0, 0, 0.00000000000000000000e+00) (0, 0, 0.00000000000000000000e+00) (0, 0, 0.00000000000000000000e+00) (0, 0, 0.00000000000000000000e+00) (0, 0, 0.00000000000000000000e+00) (0, 0, 0.00000000000000000000e+00) (0, 0, 0.00000000000000000000e+00) (0, 0, 0.00000000000000000000e+00) (0, 0, 0.00000000000000000000e+00) (0, 0, 0.00000000000000000000e+00) (0, 0, 0.00000000000000000000e+00) (0, 0, 0.00000000000000000000e+00) (0, 0, 0.00000000000000000000e+00) (0, 0, 0.00000000000000000000e+00) (0, 0, 0.00000000000000000000e+00) (0, 0, 0.00000000000000000000e+00) (0, 0, 0.00000000000000000000e+00) (0, 0, 0.00000000000000000000e+00) (0, 0, 0.00000000000000000000e+00) (0, 0, 0.00000000000000000000e+00) (0, 0, 0.00000000000000000000e+00) (0, 0, 0.00000000000000000000e+00) (0, 0, 0.00000000000000000000e+00) (0, 0, 0.00000000000000000000e+00) (0, 0, 0.00000000000000000000e+00) (0, 0, 0.00000000000000000000e+00) (123, 5, 5.00000000000000000000e-01) (123, 5, 5.00000000000000000000e-01) (123, 5, 5.00000000000000000000e-01) (123, 5, 5.00000000000000000000e-01) (123, 5, 5.00000000000000000000e-01) (123, 5, 5.00000000000000000000e-01) (123, 5, 5.00000000000000000000e-01) (123, 5, 5.00000000000000000000e-01) (123, 5, 5.00000000000000000000e-01) (123, 5, 5.00000000000000000000e-01) (123, 5, 5.00000000000000000000e-01) (123, 5, 5.00000000000000000000e-01) (123, 5, 5.00000000000000000000e-01) (123, 5, 5.00000000000000000000e-01) (123, 5, 5.00000000000000000000e-01) (123, 5, 5.00000000000000000000e-01) (123, 5, 5.00000000000000000000e-01) (123, 5, 5.00000000000000000000e-01) (123, 5, 5.00000000000000000000e-01) (123, 5, 5.00000000000000000000e-01) (123, 5, 5.00000000000000000000e-01) (123, 5, 5.00000000000000000000e-01) (123, 5, 5.00000000000000000000e-01) (123, 5, 5.00000000000000000000e-01) (123, 5, 5.00000000000000000000e-01) (123, 5, 5.00000000000000000000e-01) (123, 5, 5.00000000000000000000e-01) (123, 5, 5.00000000000000000000e-01) (123, 5, 5.00000000000000000000e-01) (123, 5, 5.00000000000000000000e-01) (123, 5, 5.00000000000000000000e-01) (123, 5, 5.00000000000000000000e-01) (123, 5, 5.00000000000000000000e-01) (123, 5, 5.00000000000000000000e-01) (123, 5, 5.00000000000000000000e-01) (123, 5, 5.00000000000000000000e-01) (123, 5, 5.00000000000000000000e-01) (123, 5, 5.00000000000000000000e-01) (123, 5, 5.00000000000000000000e-01) (123, 5, 5.00000000000000000000e-01) (123, 5, 5.00000000000000000000e-01) (123, 5, 5.00000000000000000000e-01) (123, 5, 5.00000000000000000000e-01) (123, 5, 5.00000000000000000000e-01) (123, 5, 5.00000000000000000000e-01) (123, 5, 5.00000000000000000000e-01) (123, 5, 5.00000000000000000000e-01) (123, 5, 5.00000000000000000000e-01) (123, 5, 5.00000000000000000000e-01) (123, 5, 5.00000000000000000000e-01) (123, 5, 5.00000000000000000000e-01) (123, 5, 5.00000000000000000000e-01) (123, 5, 5.00000000000000000000e-01) (123, 5, 5.00000000000000000000e-01) (123, 5, 5.00000000000000000000e-01) (123, 5, 5.00000000000000000000e-01) (123, 5, 5.00000000000000000000e-01) (123, 5, 5.00000000000000000000e-01) (123, 5, 5.00000000000000000000e-01) (123, 5, 5.00000000000000000000e-01) (123, 5, 5.00000000000000000000e-01) (123, 5, 5.00000000000000000000e-01) (123, 5, 5.00000000000000000000e-01) (123, 5, 5.00000000000000000000e-01) (123, 5, 5.00000000000000000000e-01) (123, 5, 5.00000000000000000000e-01) (123, 5, 5.00000000000000000000e-01) (123, 5, 5.00000000000000000000e-01) (123, 5, 5.00000000000000000000e-01) (123, 5, 5.00000000000000000000e-01) (123, 5, 5.00000000000000000000e-01) (123, 5, 5.00000000000000000000e-01) (123, 5, 5.00000000000000000000e-01) (123, 5, 5.00000000000000000000e-01) (123, 5, 5.00000000000000000000e-01) (123, 5, 5.00000000000000000000e-01) (123, 5, 5.00000000000000000000e-01) (123, 5, 5.00000000000000000000e-01) (123, 5, 5.00000000000000000000e-01) (123, 5, 5.00000000000000000000e-01) (123, 5, 5.00000000000000000000e-01) (123, 5, 5.00000000000000000000e-01) (123, 5, 5.00000000000000000000e-01) (123, 5, 5.00000000000000000000e-01) (123, 5, 5.00000000000000000000e-01) (123, 5, 5.00000000000000000000e-01) (123, 5, 5.00000000000000000000e-01) (123, 5, 5.00000000000000000000e-01) (123, 5, 5.00000000000000000000e-01) (123, 5, 5.00000000000000000000e-01) (123, 5, 5.00000000000000000000e-01) (123, 5, 5.00000000000000000000e-01) (123, 5, 5.00000000000000000000e-01) (123, 5, 5.00000000000000000000e-01) (123, 5, 5.00000000000000000000e-01) (123, 5, 5.00000000000000000000e-01) (123, 5, 5.00000000000000000000e-01) (123, 5, 5.00000000000000000000e-01) (123, 5, 5.00000000000000000000e-01) (123, 5, 5.00000000000000000000e-01) (123, 5, 5.00000000000000000000e-01) (123, 5, 5.00000000000000000000e-01) (123, 5, 5.00000000000000000000e-01) (123, 5, 5.00000000000000000000e-01) (123, 5, 5.00000000000000000000e-01) (123, 5, 5.00000000000000000000e-01) (123, 5, 5.00000000000000000000e-01) (123, 5, 5.00000000000000000000e-01) (123, 5, 5.00000000000000000000e-01) (123, 5, 5.00000000000000000000e-01) (123, 5, 5.00000000000000000000e-01) (123, 5, 5.00000000000000000000e-01) (123, 5, 5.00000000000000000000e-01) (123, 5, 5.00000000000000000000e-01) (123, 5, 5.00000000000000000000e-01) (123, 5, 5.00000000000000000000e-01) (123, 5, 5.00000000000000000000e-01) (123, 5, 5.00000000000000000000e-01) (123, 5, 5.00000000000000000000e-01) (123, 5, 5.00000000000000000000e-01) (123, 5, 5.00000000000000000000e-01) (123, 5, 5.00000000000000000000e-01) (0, 5, 0.00000000000000000000e+00) (123, 3, 5.00000000000000000000e-01) (123, 3, 5.00000000000000000000e-01) (123, 3, 5.00000000000000000000e-01) (123, 3, 5.00000000000000000000e-01) (123, 3, 5.00000000000000000000e-01) (123, 3, 5.00000000000000000000e-01) (123, 3, 5.00000000000000000000e-01) (123, 3, 5.00000000000000000000e-01) (123, 3, 5.00000000000000000000e-01) (123, 3, 5.00000000000000000000e-01) (123, 3, 5.00000000000000000000e-01) (123, 3, 5.00000000000000000000e-01) (123, 3, 5.00000000000000000000e-01) (123, 3, 5.00000000000000000000e-01) (123, 3, 5.00000000000000000000e-01) (123, 3, 5.00000000000000000000e-01) (123, 3, 5.00000000000000000000e-01) (123, 3, 5.00000000000000000000e-01) (123, 3, 5.00000000000000000000e-01) (123, 3, 5.00000000000000000000e-01) (123, 3, 5.00000000000000000000e-01) (123, 3, 5.00000000000000000000e-01) (123, 3, 5.00000000000000000000e-01) (123, 3, 5.00000000000000000000e-01) (123, 3, 5.00000000000000000000e-01) (123, 3, 5.00000000000000000000e-01) (123, 3, 5.00000000000000000000e-01) (123, 3, 5.00000000000000000000e-01) (123, 3, 5.00000000000000000000e-01) (123, 3, 5.00000000000000000000e-01) (123, 3, 5.00000000000000000000e-01) (123, 3, 5.00000000000000000000e-01) (123, 3, 5.00000000000000000000e-01) (123, 3, 5.00000000000000000000e-01) (123, 3, 5.00000000000000000000e-01) (123, 3, 5.00000000000000000000e-01) (123, 3, 5.00000000000000000000e-01) (123, 3, 5.00000000000000000000e-01) (123, 3, 5.00000000000000000000e-01) (123, 3, 5.00000000000000000000e-01) (123, 3, 5.00000000000000000000e-01) (123, 3, 5.00000000000000000000e-01) (123, 3, 5.00000000000000000000e-01) (123, 3, 5.00000000000000000000e-01) (123, 3, 5.00000000000000000000e-01) (123, 3, 5.00000000000000000000e-01) (123, 3, 5.00000000000000000000e-01) (123, 3, 5.00000000000000000000e-01) (123, 3, 5.00000000000000000000e-01) (123, 3, 5.00000000000000000000e-01) (123, 3, 5.00000000000000000000e-01) (123, 3, 5.00000000000000000000e-01) (123, 3, 5.00000000000000000000e-01) (123, 3, 5.00000000000000000000e-01) (123, 3, 5.00000000000000000000e-01) (123, 3, 5.00000000000000000000e-01) (123, 3, 5.00000000000000000000e-01) (123, 3, 5.00000000000000000000e-01) (123, 3, 5.00000000000000000000e-01) (123, 3, 5.00000000000000000000e-01) (123, 3, 5.00000000000000000000e-01) (123, 3, 5.00000000000000000000e-01) (123, 3, 5.00000000000000000000e-01) (123, 3, 5.00000000000000000000e-01) (123, 3, 5.00000000000000000000e-01) (123, 3, 5.00000000000000000000e-01) (123, 3, 5.00000000000000000000e-01) (123, 3, 5.00000000000000000000e-01) (123, 3, 5.00000000000000000000e-01) (123, 3, 5.00000000000000000000e-01) (123, 3, 5.00000000000000000000e-01) (123, 3, 5.00000000000000000000e-01) (123, 3, 5.00000000000000000000e-01) (123, 3, 5.00000000000000000000e-01) (123, 3, 5.00000000000000000000e-01) (123, 3, 5.00000000000000000000e-01) (123, 3, 5.00000000000000000000e-01) (123, 3, 5.00000000000000000000e-01) (123, 3, 5.00000000000000000000e-01) (123, 3, 5.00000000000000000000e-01) (123, 3, 5.00000000000000000000e-01) (123, 3, 5.00000000000000000000e-01) (123, 3, 5.00000000000000000000e-01) (123, 3, 5.00000000000000000000e-01) (123, 3, 5.00000000000000000000e-01) (123, 3, 5.00000000000000000000e-01) (123, 3, 5.00000000000000000000e-01) (123, 3, 5.00000000000000000000e-01) (123, 3, 5.00000000000000000000e-01) (123, 3, 5.00000000000000000000e-01) (123, 3, 5.00000000000000000000e-01) (123, 3, 5.00000000000000000000e-01) (123, 3, 5.00000000000000000000e-01) (123, 3, 5.00000000000000000000e-01) (123, 3, 5.00000000000000000000e-01) (123, 3, 5.00000000000000000000e-01) (123, 3, 5.00000000000000000000e-01) (123, 3, 5.00000000000000000000e-01) (123, 3, 5.00000000000000000000e-01) (123, 3, 5.00000000000000000000e-01) (123, 3, 5.00000000000000000000e-01) (123, 3, 5.00000000000000000000e-01) (123, 3, 5.00000000000000000000e-01) (123, 3, 5.00000000000000000000e-01) (123, 3, 5.00000000000000000000e-01) (123, 3, 5.00000000000000000000e-01) (123, 3, 5.00000000000000000000e-01) (123, 3, 5.00000000000000000000e-01) (123, 3, 5.00000000000000000000e-01) (123, 3, 5.00000000000000000000e-01) (123, 3, 5.00000000000000000000e-01) (123, 3, 5.00000000000000000000e-01) (123, 3, 5.00000000000000000000e-01) (123, 3, 5.00000000000000000000e-01) (123, 3, 5.00000000000000000000e-01) (123, 3, 5.00000000000000000000e-01) (123, 3, 5.00000000000000000000e-01) (123, 3, 5.00000000000000000000e-01) (123, 3, 5.00000000000000000000e-01) (123, 3, 5.00000000000000000000e-01) (123, 3, 5.00000000000000000000e-01) (123, 3, 5.00000000000000000000e-01) (0, 3, 0.00000000000000000000e+00) 
connections (connected_to_neuron, weight)=(0, -3.09163880348205566406e+00) (1, -3.29303312301635742188e+00) (2, -4.39103031158447265625e+00) (3, -3.65833222866058349609e-01) (4, -3.68716903030872344971e-02) (5, -1.52648711204528808594e+00) (6, -2.85760378837585449219e+00) (7, 5.22910416126251220703e-01) (8, 1.18645393848419189453e+00) (9, -4.19960826635360717773e-01) (10, 7.64904096722602844238e-02) (11, 1.90039265155792236328e+00) (12, 1.13362169265747070312e+00) (13, 1.33360862731933593750e-01) (14, 1.22264397144317626953e+00) (15, 8.99907469749450683594e-01) (16, 1.81182622909545898438e+00) (17, -3.04429078102111816406e+00) (18, -3.17463397979736328125e+00) (19, -4.43859958648681640625e+00) (20, -3.22340250015258789062e-01) (21, -1.22441928833723068237e-02) (22, -1.50463056564331054688e+00) (23, -2.89791512489318847656e+00) (24, 5.31845450401306152344e-01) (25, 1.28566300868988037109e+00) (26, -4.27664965391159057617e-01) (27, 1.13407008349895477295e-01) (28, 1.97550284862518310547e+00) (29, 1.13203692436218261719e+00) (30, 2.15919941663742065430e-01) (31, 1.15787732601165771484e+00) (32, 8.52431774139404296875e-01) (33, 1.76590085029602050781e+00) (34, -3.19303345680236816406e+00) (35, -3.14190196990966796875e+00) (36, -4.33605957031250000000e+00) (37, -2.08032861351966857910e-01) (38, -3.40409390628337860107e-02) (39, -1.41028857231140136719e+00) (40, -2.99244761466979980469e+00) (41, 4.45898473262786865234e-01) (42, 1.15752494335174560547e+00) (43, -3.79951924085617065430e-01) (44, 4.41509820520877838135e-02) (45, 1.96652483940124511719e+00) (46, 1.11575746536254882812e+00) (47, 5.69253675639629364014e-02) (48, 1.19623959064483642578e+00) (49, 7.54553318023681640625e-01) (50, 1.75927877426147460938e+00) (51, -1.08764590695500373840e-02) (52, 1.62218455225229263306e-02) (53, 6.41363635659217834473e-02) (54, 5.04176187515258789062e+00) (55, -8.97899717092514038086e-02) (56, 5.15109395980834960938e+00) (57, -4.93066497147083282471e-02) (58, 5.22178316116333007812e+00) (59, 5.04842710494995117188e+00) (60, 5.17136621475219726562e+00) (61, 5.62491081655025482178e-02) (62, -8.68085622787475585938e-02) (63, -5.20918034017086029053e-02) (64, -7.40653872489929199219e-02) (65, -7.95302912592887878418e-02) (66, -6.26121014356613159180e-02) (67, 7.48395547270774841309e-02) (68, 5.22055387496948242188e+00) (69, -3.08839297294616699219e+00) (70, -3.16112947463989257812e+00) (71, -4.28863525390625000000e+00) (72, -2.47204050421714782715e-01) (73, 7.92344063520431518555e-02) (74, -1.51150345802307128906e+00) (75, -2.98846793174743652344e+00) (76, 5.14043807983398437500e-01) (77, 1.29730141162872314453e+00) (78, -4.40365821123123168945e-01) (79, 6.36582449078559875488e-02) (80, 2.05534958839416503906e+00) (81, 1.15314078330993652344e+00) (82, 4.99714985489845275879e-02) (83, 1.24535214900970458984e+00) (84, 7.99324512481689453125e-01) (85, 1.70640468597412109375e+00) (86, 5.14493036270141601562e+00) (87, 7.45261237025260925293e-02) (88, -3.13942551612854003906e+00) (89, -3.24715280532836914062e+00) (90, -4.30324745178222656250e+00) (91, -1.76002189517021179199e-01) (92, -6.81039988994598388672e-02) (93, -1.41079545021057128906e+00) (94, -2.97039484977722167969e+00) (95, 5.04288733005523681641e-01) (96, 1.15532219409942626953e+00) (97, -4.01529699563980102539e-01) (98, -1.55830755829811096191e-02) (99, 2.07292056083679199219e+00) (100, 1.24082589149475097656e+00) (101, 5.18076792359352111816e-02) (102, 1.34302747249603271484e+00) (103, 8.42697620391845703125e-01) (104, 1.89554941654205322266e+00) (105, 5.12659883499145507812e+00) (106, 2.88893338292837142944e-02) (107, -2.44859457015991210938e-02) (108, 5.08395338058471679688e+00) (109, 5.20760393142700195312e+00) (110, 5.23730134963989257812e+00) (111, -8.00292044878005981445e-02) (112, -3.31016778945922851562e-02) (113, 5.04696702957153320312e+00) (114, 5.15469121932983398438e+00) (115, 5.17281198501586914062e+00) (116, -8.40826332569122314453e-02) (117, -8.28605666756629943848e-02) (118, 6.09717378392815589905e-03) (119, -2.31996960937976837158e-02) (120, 1.37021543923765420914e-03) (121, -1.21894180774688720703e-02) (122, 5.11766099929809570312e+00) (0, -4.19793510437011718750e+00) (1, -4.73014259338378906250e+00) (2, -6.29221677780151367188e+00) (3, -5.67513084411621093750e+00) (4, -4.66832685470581054688e+00) (5, -7.81602764129638671875e+00) (6, 2.37158685922622680664e-02) (7, 7.93572807312011718750e+00) (8, 2.56829452514648437500e+00) (9, 1.05237078666687011719e+00) (10, 3.55592519044876098633e-01) (11, -3.05584102869033813477e-01) (12, -5.25175869464874267578e-01) (13, -4.32235628366470336914e-01) (14, 5.69681644439697265625e-01) (15, -6.47471427917480468750e-01) (16, 2.04115462303161621094e+00) (17, -4.16516590118408203125e+00) (18, -4.68091964721679687500e+00) (19, -6.36682367324829101562e+00) (20, -5.64194869995117187500e+00) (21, -4.62874555587768554688e+00) (22, -7.85348701477050781250e+00) (23, 1.47151574492454528809e-01) (24, 7.99620389938354492188e+00) (25, 2.55975723266601562500e+00) (26, 1.07045292854309082031e+00) (27, 3.01900237798690795898e-01) (28, -3.20802509784698486328e-01) (29, -4.18569087982177734375e-01) (30, -5.03487706184387207031e-01) (31, 5.67426204681396484375e-01) (32, -7.33705282211303710938e-01) (33, 2.03391861915588378906e+00) (34, -4.32563209533691406250e+00) (35, -4.66512489318847656250e+00) (36, -6.21098852157592773438e+00) (37, -5.61968135833740234375e+00) (38, -4.72577142715454101562e+00) (39, -7.83986282348632812500e+00) (40, 9.89062562584877014160e-02) (41, 7.96747779846191406250e+00) (42, 2.43558025360107421875e+00) (43, 1.17641830444335937500e+00) (44, 3.65678459405899047852e-01) (45, -3.38224589824676513672e-01) (46, -4.64531958103179931641e-01) (47, -4.95356827974319458008e-01) (48, 5.82718729972839355469e-01) (49, -7.30439066886901855469e-01) (50, 2.16744136810302734375e+00) (51, -3.73317897319793701172e-02) (52, 9.05666947364807128906e-02) (53, -1.59938763827085494995e-02) (54, 4.03510189056396484375e+00) (55, 4.41452153027057647705e-02) (56, 4.04613399505615234375e+00) (57, 1.47987008094787597656e-02) (58, 4.17394351959228515625e+00) (59, 4.11021423339843750000e+00) (60, 4.08114242553710937500e+00) (61, -2.72882580757141113281e-02) (62, 1.67255047708749771118e-02) (63, 3.13629768788814544678e-02) (64, -2.23749466240406036377e-02) (65, 3.09200286865234375000e-02) (66, -2.09071934223175048828e-02) (67, -3.44313569366931915283e-02) (68, 4.19470167160034179688e+00) (69, -4.22007703781127929688e+00) (70, -4.78809738159179687500e+00) (71, -6.27957296371459960938e+00) (72, -5.63891696929931640625e+00) (73, -4.70317029953002929688e+00) (74, -7.89458751678466796875e+00) (75, 1.12796284258365631104e-01) (76, 7.95271778106689453125e+00) (77, 2.42253160476684570312e+00) (78, 1.03631162643432617188e+00) (79, 4.02646750211715698242e-01) (80, -3.06533604860305786133e-01) (81, -4.02083396911621093750e-01) (82, -4.07852381467819213867e-01) (83, 6.30409717559814453125e-01) (84, -7.15943932533264160156e-01) (85, 2.05850863456726074219e+00) (86, 4.01248073577880859375e+00) (87, 1.41163710504770278931e-02) (88, -4.19547557830810546875e+00) (89, -4.62526798248291015625e+00) (90, -6.37403154373168945312e+00) (91, -5.65736865997314453125e+00) (92, -4.70612859725952148438e+00) (93, -7.85741996765136718750e+00) (94, 1.31529286503791809082e-01) (95, 7.98061752319335937500e+00) (96, 2.46962642669677734375e+00) (97, 1.02783656120300292969e+00) (98, 2.75017052888870239258e-01) (99, -3.17691087722778320312e-01) (100, -4.29268956184387207031e-01) (101, -5.73528349399566650391e-01) (102, 7.48055696487426757812e-01) (103, -7.82641291618347167969e-01) (104, 2.12050843238830566406e+00) (105, 4.09044933319091796875e+00) (106, 3.93455624580383300781e-02) (107, -9.85687822103500366211e-02) (108, 4.11589050292968750000e+00) (109, 4.18372440338134765625e+00) (110, 4.13200283050537109375e+00) (111, 9.48183462023735046387e-02) (112, 6.76986202597618103027e-02) (113, 4.12582111358642578125e+00) (114, 4.06314945220947265625e+00) (115, 4.03451633453369140625e+00) (116, 5.59041164815425872803e-02) (117, -2.32097860425710678101e-02) (118, 4.92156259715557098389e-02) (119, 2.06434735446237027645e-04) (120, -3.56271937489509582520e-02) (121, 7.41275697946548461914e-02) (122, 4.09060239791870117188e+00) (0, -7.55376160144805908203e-01) (1, -1.05287790298461914062e+00) (2, -2.62248516082763671875e+00) (3, -4.10508584976196289062e+00) (4, -2.68982720375061035156e+00) (5, -6.92569160461425781250e+00) (6, -2.32012224197387695312e+00) (7, -8.89374673366546630859e-01) (8, -7.45487213134765625000e-01) (9, -4.33364093303680419922e-01) (10, 1.40777185559272766113e-01) (11, 2.52470951527357101440e-02) (12, 9.71342861652374267578e-01) (13, -2.01344132423400878906e-01) (14, 3.01833719015121459961e-01) (15, 4.18473482131958007812e-01) (16, 9.36855494976043701172e-01) (17, -8.79349052906036376953e-01) (18, -1.04882776737213134766e+00) (19, -2.66170930862426757812e+00) (20, -3.99963402748107910156e+00) (21, -2.83190989494323730469e+00) (22, -6.93766593933105468750e+00) (23, -2.38272666931152343750e+00) (24, -9.42698299884796142578e-01) (25, -6.36894583702087402344e-01) (26, -3.74998271465301513672e-01) (27, 2.01074138283729553223e-01) (28, -2.50207702629268169403e-03) (29, 9.12187695503234863281e-01) (30, -3.05763959884643554688e-01) (31, 4.59441900253295898438e-01) (32, 2.73788273334503173828e-01) (33, 9.99536156654357910156e-01) (34, -8.43494951725006103516e-01) (35, -1.13766860961914062500e+00) (36, -2.67379951477050781250e+00) (37, -4.06529045104980468750e+00) (38, -2.79172635078430175781e+00) (39, -6.93715858459472656250e+00) (40, -2.18924856185913085938e+00) (41, -8.16411018371582031250e-01) (42, -6.36146545410156250000e-01) (43, -3.44922244548797607422e-01) (44, 1.60309657454490661621e-01) (45, -4.97566051781177520752e-02) (46, 9.55479323863983154297e-01) (47, -2.23267704248428344727e-01) (48, 2.88180023431777954102e-01) (49, 3.21081280708312988281e-01) (50, 1.04290759563446044922e+00) (51, 7.11024925112724304199e-02) (52, 3.61153967678546905518e-02) (53, -3.62972579896450042725e-02) (54, 2.50815224647521972656e+00) (55, 3.82614992558956146240e-02) (56, 2.38214468955993652344e+00) (57, 2.72754784673452377319e-02) (58, 2.37413954734802246094e+00) (59, 2.43146395683288574219e+00) (60, 2.38762450218200683594e+00) (61, -3.08015178889036178589e-02) (62, -2.81323082745075225830e-02) (63, -3.31576471216976642609e-03) (64, 8.14032107591629028320e-02) (65, 8.41157417744398117065e-03) (66, 2.75936126708984375000e-02) (67, -8.62905532121658325195e-02) (68, 2.34452462196350097656e+00) (69, -8.66014778614044189453e-01) (70, -1.04632699489593505859e+00) (71, -2.69813251495361328125e+00) (72, -4.02549648284912109375e+00) (73, -2.77013945579528808594e+00) (74, -6.85504817962646484375e+00) (75, -2.38208913803100585938e+00) (76, -8.34851145744323730469e-01) (77, -6.61037564277648925781e-01) (78, -4.12393867969512939453e-01) (79, 2.11504355072975158691e-01) (80, -1.14104710519313812256e-03) (81, 8.56109917163848876953e-01) (82, -2.50566601753234863281e-01) (83, 4.72307622432708740234e-01) (84, 3.65784466266632080078e-01) (85, 9.45748150348663330078e-01) (86, 2.45858693122863769531e+00) (87, 8.31949636340141296387e-02) (88, -6.94310963153839111328e-01) (89, -1.00311768054962158203e+00) (90, -2.62500000000000000000e+00) (91, -4.12770700454711914062e+00) (92, -2.84331297874450683594e+00) (93, -6.89282131195068359375e+00) (94, -2.24967956542968750000e+00) (95, -9.28604960441589355469e-01) (96, -7.60429143905639648438e-01) (97, -4.63576018810272216797e-01) (98, 1.28653720021247863770e-01) (99, 2.06298585981130599976e-02) (100, 8.63364756107330322266e-01) (101, -1.82153522968292236328e-01) (102, 3.65846782922744750977e-01) (103, 2.51834839582443237305e-01) (104, 9.47597742080688476562e-01) (105, 2.40466713905334472656e+00) (106, -7.52445757389068603516e-02) (107, 7.03585296869277954102e-02) (108, 2.36543869972229003906e+00) (109, 2.47361683845520019531e+00) (110, 2.41667675971984863281e+00) (111, -1.74369215965270996094e-02) (112, -8.90759825706481933594e-02) (113, 2.50058102607727050781e+00) (114, 2.40286135673522949219e+00) (115, 2.47906470298767089844e+00) (116, -7.45307430624961853027e-02) (117, 9.43577215075492858887e-02) (118, 2.86937952041625976562e-02) (119, -8.87967348098754882812e-02) (120, 5.99998496472835540771e-02) (121, -9.02009084820747375488e-02) (122, 2.33045315742492675781e+00) (0, -8.85920047760009765625e+00) (1, -2.51712131500244140625e+00) (2, 2.59694457054138183594e-01) (3, -1.34749829769134521484e+00) (4, 2.11366081237792968750e+00) (5, -1.02276075631380081177e-02) (6, 1.98936387896537780762e-01) (7, 3.53563874959945678711e-01) (8, -3.15698117017745971680e-01) (9, -4.65846329927444458008e-01) (10, -9.09662768244743347168e-02) (11, 3.33510458469390869141e-01) (12, -4.64531362056732177734e-01) (13, 5.14898836612701416016e-01) (14, 5.48997223377227783203e-01) (15, 3.17031860351562500000e-01) (16, -1.44636571407318115234e-01) (17, -8.93880748748779296875e+00) (18, -2.57276058197021484375e+00) (19, 2.34687820076942443848e-01) (20, -1.23243796825408935547e+00) (21, 2.16365385055541992188e+00) (22, -2.99871545284986495972e-02) (23, 2.29557588696479797363e-01) (24, 3.56606036424636840820e-01) (25, -4.19204443693161010742e-01) (26, -6.58681690692901611328e-01) (27, -1.57059863209724426270e-01) (28, 3.69354724884033203125e-01) (29, -5.07975161075592041016e-01) (30, 6.28658831119537353516e-01) (31, 5.54914414882659912109e-01) (32, 4.66019392013549804688e-01) (33, -7.52571970224380493164e-02) (34, -8.86185932159423828125e+00) (35, -2.48281764984130859375e+00) (36, 7.30709433555603027344e-02) (37, -1.32536661624908447266e+00) (38, 2.18316006660461425781e+00) (39, 6.89730867743492126465e-02) (40, 1.84451296925544738770e-01) (41, 3.27598243951797485352e-01) (42, -3.64207953214645385742e-01) (43, -5.78834354877471923828e-01) (44, -1.49176701903343200684e-01) (45, 2.39509135484695434570e-01) (46, -4.13987696170806884766e-01) (47, 6.65518462657928466797e-01) (48, 5.45497596263885498047e-01) (49, 3.04359376430511474609e-01) (50, -6.33902624249458312988e-02) (51, -2.16519250534474849701e-03) (52, -1.45280957221984863281e-02) (53, 9.31724533438682556152e-02) (54, 1.61063706874847412109e+00) (55, 8.50853100419044494629e-02) (56, 1.46054732799530029297e+00) (57, 6.98365122079849243164e-02) (58, 1.53702867031097412109e+00) (59, 1.44680130481719970703e+00) (60, 1.62113225460052490234e+00) (61, -4.22467477619647979736e-02) (62, 8.67805853486061096191e-02) (63, 5.29023073613643646240e-02) (64, -9.28452610969543457031e-02) (65, 7.89611563086509704590e-02) (66, 4.99779097735881805420e-02) (67, -9.17843654751777648926e-02) (68, 1.45326817035675048828e+00) (69, -9.01041507720947265625e+00) (70, -2.54083251953125000000e+00) (71, 1.10771648585796356201e-01) (72, -1.24436223506927490234e+00) (73, 2.10983443260192871094e+00) (74, 5.70487268269062042236e-02) (75, 1.90829679369926452637e-01) (76, 3.33770841360092163086e-01) (77, -4.22339349985122680664e-01) (78, -6.27392828464508056641e-01) (79, -2.19410225749015808105e-01) (80, 2.17455491423606872559e-01) (81, -3.25275957584381103516e-01) (82, 6.13099992275238037109e-01) (83, 4.93729084730148315430e-01) (84, 4.79186534881591796875e-01) (85, -1.08874529600143432617e-01) (86, 1.54613888263702392578e+00) (87, -9.44882184267044067383e-02) (88, -8.96842098236083984375e+00) (89, -2.67898654937744140625e+00) (90, 8.32074135541915893555e-02) (91, -1.29299008846282958984e+00) (92, 2.14817047119140625000e+00) (93, 1.36144667863845825195e-01) (94, 1.76403269171714782715e-01) (95, 3.22807639837265014648e-01) (96, -2.68545717000961303711e-01) (97, -4.90657538175582885742e-01) (98, -1.93839296698570251465e-01) (99, 3.72217357158660888672e-01) (100, -5.06042599678039550781e-01) (101, 4.79834169149398803711e-01) (102, 4.01541233062744140625e-01) (103, 4.19372200965881347656e-01) (104, -1.91216915845870971680e-01) (105, 1.58791911602020263672e+00) (106, 5.92696331441402435303e-02) (107, 1.02027421817183494568e-02) (108, 1.61104500293731689453e+00) (109, 1.63205564022064208984e+00) (110, 1.59980714321136474609e+00) (111, -9.56547632813453674316e-02) (112, 8.38171988725662231445e-02) (113, 1.54608833789825439453e+00) (114, 1.56540548801422119141e+00) (115, 1.61104905605316162109e+00) (116, -7.92619958519935607910e-02) (117, -7.07283839583396911621e-02) (118, 7.54123106598854064941e-02) (119, 6.35705003514885902405e-03) (120, -6.98205605149269104004e-02) (121, 8.66083875298500061035e-02) (122, 1.64496374130249023438e+00) (0, -2.79634952545166015625e-01) (1, -1.94409862160682678223e-01) (2, 4.55621272325515747070e-01) (3, 9.43600952625274658203e-01) (4, 4.71455001831054687500e+00) (5, 4.26333189010620117188e+00) (6, 7.30162918567657470703e-01) (7, -5.46229720115661621094e-01) (8, -3.70968848466873168945e-01) (9, 1.75836160778999328613e-01) (10, -9.49398040771484375000e-01) (11, 1.50702878832817077637e-01) (12, -6.02889358997344970703e-01) (13, -8.88763070106506347656e-01) (14, -3.05946916341781616211e-01) (15, 2.67312768846750259399e-02) (16, -1.74949145317077636719e+00) (17, -3.20905923843383789062e-01) (18, -2.34861567616462707520e-01) (19, 3.64652782678604125977e-01) (20, 8.20335090160369873047e-01) (21, 4.60201835632324218750e+00) (22, 4.12799692153930664062e+00) (23, 7.02760756015777587891e-01) (24, -6.27084732055664062500e-01) (25, -4.88797932863235473633e-01) (26, 3.10837417840957641602e-01) (27, -9.51764881610870361328e-01) (28, 1.36523827910423278809e-01) (29, -5.14786660671234130859e-01) (30, -8.65962743759155273438e-01) (31, -1.90609470009803771973e-01) (32, -1.07791135087609291077e-02) (33, -1.70611000061035156250e+00) (34, -2.41755381226539611816e-01) (35, -2.69500672817230224609e-01) (36, 3.62634629011154174805e-01) (37, 9.44353163242340087891e-01) (38, 4.61305332183837890625e+00) (39, 4.17282533645629882812e+00) (40, 8.98670613765716552734e-01) (41, -6.58300876617431640625e-01) (42, -3.76086443662643432617e-01) (43, 2.06449463963508605957e-01) (44, -9.64062511920928955078e-01) (45, 7.58741348981857299805e-02) (46, -6.20292246341705322266e-01) (47, -9.54949975013732910156e-01) (48, -2.92442768812179565430e-01) (49, -1.56718000769615173340e-01) (50, -1.68617534637451171875e+00) (51, 1.55277259182184934616e-03) (52, -4.91081848740577697754e-02) (53, 8.22500586509704589844e-02) (54, -3.74895548820495605469e+00) (55, 2.06537377089262008667e-02) (56, -3.81649756431579589844e+00) (57, -2.04623043537139892578e-02) (58, -3.75502085685729980469e+00) (59, -3.73327708244323730469e+00) (60, -3.80894732475280761719e+00) (61, -5.51488585770130157471e-02) (62, -9.41796321421861648560e-03) (63, 9.07367691397666931152e-02) (64, 8.33937451243400573730e-02) (65, -8.26975032687187194824e-02) (66, 1.51717671542428433895e-04) (67, -1.91168971359729766846e-02) (68, -3.67940211296081542969e+00) (69, -2.08315327763557434082e-01) (70, -2.29513794183731079102e-01) (71, 4.35056596994400024414e-01) (72, 9.87697660923004150391e-01) (73, 4.66837310791015625000e+00) (74, 4.14653253555297851562e+00) (75, 8.64037454128265380859e-01) (76, -5.58899402618408203125e-01) (77, -4.41918462514877319336e-01) (78, 1.55579641461372375488e-01) (79, -1.11967885494232177734e+00) (80, 1.55270993709564208984e-01) (81, -4.98089879751205444336e-01) (82, -9.04327154159545898438e-01) (83, -2.09805011749267578125e-01) (84, 3.58438282273709774017e-03) (85, -1.83213210105895996094e+00) (86, -3.77828717231750488281e+00) (87, 9.75523740053176879883e-02) (88, -2.76417970657348632812e-01) (89, -2.08699807524681091309e-01) (90, 3.81218463182449340820e-01) (91, 9.23846542835235595703e-01) (92, 4.56810760498046875000e+00) (93, 4.11084604263305664062e+00) (94, 8.27117502689361572266e-01) (95, -4.98413026332855224609e-01) (96, -5.17859160900115966797e-01) (97, 1.59842237830162048340e-01) (98, -1.04840075969696044922e+00) (99, 2.49999627470970153809e-01) (100, -4.92109537124633789062e-01) (101, -9.85036730766296386719e-01) (102, -1.96105942130088806152e-01) (103, 2.60729957371950149536e-02) (104, -1.70045733451843261719e+00) (105, -3.84293341636657714844e+00) (106, 4.73082438111305236816e-02) (107, -1.78436227142810821533e-02) (108, -3.74284529685974121094e+00) (109, -3.68295645713806152344e+00) (110, -3.76150870323181152344e+00) (111, -8.90914797782897949219e-02) (112, 4.88468892872333526611e-02) (113, -3.65183615684509277344e+00) (114, -3.68803477287292480469e+00) (115, -3.74068951606750488281e+00) (116, -8.75145196914672851562e-02) (117, -6.27349242568016052246e-02) (118, 8.65737255662679672241e-03) (119, 4.54318523406982421875e-03) (120, -9.24570709466934204102e-02) (121, -7.52723738551139831543e-02) (122, -3.70453763008117675781e+00) (0, 2.01287180185317993164e-01) (1, -1.16850924491882324219e+00) (2, -1.86018252372741699219e+00) (3, -1.62412011623382568359e+00) (4, -2.43966698646545410156e+00) (5, -4.41860437393188476562e+00) (6, -2.29757308959960937500e+00) (7, 7.34692275524139404297e-01) (8, -5.07159292697906494141e-01) (9, -1.26644521951675415039e-01) (10, 3.89896273612976074219e-01) (11, 2.79416942596435546875e+00) (12, 1.41181409358978271484e+00) (13, 4.87448841333389282227e-01) (14, 7.73098826408386230469e-01) (15, 7.62543797492980957031e-01) (16, 1.06725037097930908203e+00) (17, 2.56322979927062988281e-01) (18, -1.15381860733032226562e+00) (19, -1.87798905372619628906e+00) (20, -1.61869919300079345703e+00) (21, -2.44896531105041503906e+00) (22, -4.49847221374511718750e+00) (23, -2.26044869422912597656e+00) (24, 7.41211831569671630859e-01) (25, -5.35834610462188720703e-01) (26, -2.09732875227928161621e-01) (27, 5.34286916255950927734e-01) (28, 2.78839588165283203125e+00) (29, 1.40929138660430908203e+00) (30, 4.62586045265197753906e-01) (31, 8.42688202857971191406e-01) (32, 7.09244728088378906250e-01) (33, 1.09847187995910644531e+00) (34, 3.78262162208557128906e-01) (35, -1.04195845127105712891e+00) (36, -1.86679911613464355469e+00) (37, -1.54500067234039306641e+00) (38, -2.48518061637878417969e+00) (39, -4.47415733337402343750e+00) (40, -2.36842679977416992188e+00) (41, 7.11078226566314697266e-01) (42, -5.87259590625762939453e-01) (43, -1.52727946639060974121e-01) (44, 4.27120655775070190430e-01) (45, 2.63844966888427734375e+00) (46, 1.39734637737274169922e+00) (47, 6.52161538600921630859e-01) (48, 7.47831702232360839844e-01) (49, 7.11989164352416992188e-01) (50, 1.07033789157867431641e+00) (51, 1.02778319269418716431e-02) (52, 5.12642152607440948486e-02) (53, -4.95006702840328216553e-02) (54, 4.58575344085693359375e+00) (55, -9.02157574892044067383e-02) (56, 4.73643779754638671875e+00) (57, -5.62381744384765625000e-03) (58, 4.71049594879150390625e+00) (59, 4.69232940673828125000e+00) (60, 4.70314598083496093750e+00) (61, 7.53562599420547485352e-02) (62, 3.31719294190406799316e-02) (63, -3.20329144597053527832e-02) (64, 4.29498329758644104004e-02) (65, 3.28863859176635742188e-02) (66, -7.42127820849418640137e-02) (67, 1.41906738281250000000e-03) (68, 4.57137298583984375000e+00) (69, 2.14199364185333251953e-01) (70, -1.16312885284423828125e+00) (71, -1.96233236789703369141e+00) (72, -1.58132088184356689453e+00) (73, -2.36126875877380371094e+00) (74, -4.44315910339355468750e+00) (75, -2.27837252616882324219e+00) (76, 8.22310030460357666016e-01) (77, -6.58749520778656005859e-01) (78, -1.44112005829811096191e-01) (79, 3.94607514142990112305e-01) (80, 2.76326370239257812500e+00) (81, 1.38962590694427490234e+00) (82, 5.93551814556121826172e-01) (83, 7.46149182319641113281e-01) (84, 7.08698987960815429688e-01) (85, 1.11243605613708496094e+00) (86, 4.62947463989257812500e+00) (87, 7.43937504012137651443e-04) (88, 2.54488229751586914062e-01) (89, -1.13526725769042968750e+00) (90, -1.96989011764526367188e+00) (91, -1.60389912128448486328e+00) (92, -2.45503211021423339844e+00) (93, -4.42091131210327148438e+00) (94, -2.28879141807556152344e+00) (95, 8.65607082843780517578e-01) (96, -5.62736332416534423828e-01) (97, -1.20906367897987365723e-01) (98, 4.55636680126190185547e-01) (99, 2.78720426559448242188e+00) (100, 1.50896370410919189453e+00) (101, 5.81094443798065185547e-01) (102, 6.81774020195007324219e-01) (103, 6.41533136367797851562e-01) (104, 9.85723257064819335938e-01) (105, 4.72157478332519531250e+00) (106, 5.45720346271991729736e-02) (107, 9.44428816437721252441e-02) (108, 4.54719543457031250000e+00) (109, 4.60429382324218750000e+00) (110, 4.55549907684326171875e+00) (111, 4.01318557560443878174e-02) (112, 1.79932601749897003174e-02) (113, 4.68896293640136718750e+00) (114, 4.55988597869873046875e+00) (115, 4.55770874023437500000e+00) (116, 3.28415632247924804688e-02) (117, 1.38757349923253059387e-02) (118, 2.06768754869699478149e-02) (119, -9.12245362997055053711e-02) (120, 7.84872397780418395996e-02) (121, 7.60729536414146423340e-02) (122, 4.51968860626220703125e+00) (0, 1.54605045914649963379e-01) (1, -2.38525971770286560059e-01) (2, -3.33521103858947753906e+00) (3, -4.77193403244018554688e+00) (4, -3.25483894348144531250e+00) (5, -3.91649293899536132812e+00) (6, 6.40694618225097656250e+00) (7, 2.06850147247314453125e+00) (8, -4.39200222492218017578e-01) (9, 1.39305186271667480469e+00) (10, -4.13938522338867187500e-01) (11, 7.85208284854888916016e-01) (12, 6.67867064476013183594e-01) (13, 6.75528585910797119141e-01) (14, 9.06875789165496826172e-01) (15, 6.77343606948852539062e-01) (16, 3.17825287580490112305e-01) (17, 2.57620632648468017578e-01) (18, -3.29309910535812377930e-01) (19, -3.30295014381408691406e+00) (20, -4.73390817642211914062e+00) (21, -3.31585168838500976562e+00) (22, -3.99728488922119140625e+00) (23, 6.38057994842529296875e+00) (24, 2.18576049804687500000e+00) (25, -3.76918435096740722656e-01) (26, 1.56626915931701660156e+00) (27, -3.05591523647308349609e-01) (28, 7.91225373744964599609e-01) (29, 7.62337684631347656250e-01) (30, 6.50131285190582275391e-01) (31, 9.76835191249847412109e-01) (32, 7.42008090019226074219e-01) (33, 4.42588120698928833008e-01) (34, 2.62341618537902832031e-01) (35, -3.96261543035507202148e-01) (36, -3.42357754707336425781e+00) (37, -4.76146268844604492188e+00) (38, -3.29335355758666992188e+00) (39, -3.87451219558715820312e+00) (40, 6.33988380432128906250e+00) (41, 2.13372898101806640625e+00) (42, -4.67694759368896484375e-01) (43, 1.46653270721435546875e+00) (44, -3.24066042900085449219e-01) (45, 7.76800096035003662109e-01) (46, 7.42599725723266601562e-01) (47, 8.33198487758636474609e-01) (48, 8.65288972854614257812e-01) (49, 6.31423711776733398438e-01) (50, 4.57883030176162719727e-01) (51, -4.72890138626098632812e-02) (52, -6.47604167461395263672e-02) (53, -9.42939519882202148438e-02) (54, 2.93249988555908203125e+00) (55, 9.31634455919265747070e-02) (56, 2.95397186279296875000e+00) (57, -7.92630948126316070557e-03) (58, 2.98030853271484375000e+00) (59, 2.86028385162353515625e+00) (60, 2.86861228942871093750e+00) (61, 7.67531394958496093750e-02) (62, 6.46013766527175903320e-02) (63, 6.89001306891441345215e-02) (64, 5.32172210514545440674e-02) (65, -9.26179904490709304810e-03) (66, 7.57291838526725769043e-02) (67, -7.55751058459281921387e-02) (68, 2.92307615280151367188e+00) (69, 1.59461036324501037598e-01) (70, -2.42012366652488708496e-01) (71, -3.37354683876037597656e+00) (72, -4.64412164688110351562e+00) (73, -3.14275979995727539062e+00) (74, -4.00963401794433593750e+00) (75, 6.39870452880859375000e+00) (76, 2.11781883239746093750e+00) (77, -3.66859376430511474609e-01) (78, 1.46364188194274902344e+00) (79, -3.68932485580444335938e-01) (80, 8.32963287830352783203e-01) (81, 6.75388932228088378906e-01) (82, 7.89337396621704101562e-01) (83, 1.03541862964630126953e+00) (84, 6.96130394935607910156e-01) (85, 3.34246426820755004883e-01) (86, 2.99688720703125000000e+00) (87, -9.16125774383544921875e-02) (88, 2.96413123607635498047e-01) (89, -2.66831248998641967773e-01) (90, -3.44656062126159667969e+00) (91, -4.76494455337524414062e+00) (92, -3.22787666320800781250e+00) (93, -3.99840450286865234375e+00) (94, 6.49850654602050781250e+00) (95, 2.09403276443481445312e+00) (96, -4.01164352893829345703e-01) (97, 1.53924298286437988281e+00) (98, -3.81592512130737304688e-01) (99, 6.91062152385711669922e-01) (100, 7.82549619674682617188e-01) (101, 6.85096800327301025391e-01) (102, 9.79458153247833251953e-01) (103, 7.26821780204772949219e-01) (104, 3.16150873899459838867e-01) (105, 2.94935417175292968750e+00) (106, 8.30168649554252624512e-02) (107, 4.00861017405986785889e-02) (108, 2.88723468780517578125e+00) (109, 2.88085508346557617188e+00) (110, 2.86389207839965820312e+00) (111, -8.51703509688377380371e-02) (112, 2.95637845993041992188e-02) (113, 3.01996326446533203125e+00) (114, 3.01855516433715820312e+00) (115, 2.82487344741821289062e+00) (116, -3.23597081005573272705e-02) (117, 7.45499879121780395508e-02) (118, -8.71893614530563354492e-02) (119, -7.21616968512535095215e-02) (120, 1.08546493574976921082e-02) (121, -3.89647595584392547607e-02) (122, 2.84948062896728515625e+00) (0, 9.08331811428070068359e-01) (1, 1.45458543300628662109e+00) (2, 3.33274650573730468750e+00) (3, 6.44977378845214843750e+00) (4, 1.16662979125976562500e+00) (5, 2.42787837982177734375e+00) (6, 1.11104559898376464844e+00) (7, -1.67738795280456542969e+00) (8, -6.81018054485321044922e-01) (9, 1.76106750965118408203e+00) (10, 1.07644057273864746094e+00) (11, -9.72923994064331054688e-01) (12, -1.65719890594482421875e+00) (13, -1.54474103450775146484e+00) (14, -1.41625189781188964844e+00) (15, -9.85046148300170898438e-01) (16, -3.33437466621398925781e+00) (17, 9.76181387901306152344e-01) (18, 1.44702494144439697266e+00) (19, 3.44076490402221679688e+00) (20, 6.38088607788085937500e+00) (21, 1.05501878261566162109e+00) (22, 2.38101291656494140625e+00) (23, 9.55496072769165039062e-01) (24, -1.72750449180603027344e+00) (25, -7.29631483554840087891e-01) (26, 1.76686537265777587891e+00) (27, 1.12681651115417480469e+00) (28, -1.01612925529479980469e+00) (29, -1.64039611816406250000e+00) (30, -1.38711822032928466797e+00) (31, -1.41866660118103027344e+00) (32, -8.34629774093627929688e-01) (33, -3.43006539344787597656e+00) (34, 1.00358569622039794922e+00) (35, 1.53158843517303466797e+00) (36, 3.49670219421386718750e+00) (37, 6.45957756042480468750e+00) (38, 1.12363839149475097656e+00) (39, 2.38160514831542968750e+00) (40, 1.06283247470855712891e+00) (41, -1.81556415557861328125e+00) (42, -6.55282676219940185547e-01) (43, 1.74382412433624267578e+00) (44, 1.05073261260986328125e+00) (45, -8.21626842021942138672e-01) (46, -1.70160603523254394531e+00) (47, -1.39269244670867919922e+00) (48, -1.35601139068603515625e+00) (49, -9.03409361839294433594e-01) (50, -3.32762122154235839844e+00) (51, 1.28764985129237174988e-02) (52, 7.04708620905876159668e-02) (53, -6.69882819056510925293e-02) (54, -5.59602165222167968750e+00) (55, 3.92738590016961097717e-03) (56, -5.60746479034423828125e+00) (57, 7.71412476897239685059e-02) (58, -5.66939544677734375000e+00) (59, -5.60246181488037109375e+00) (60, -5.65790462493896484375e+00) (61, -3.72802205383777618408e-02) (62, 6.10777512192726135254e-02) (63, -4.98516745865345001221e-02) (64, -2.63153258711099624634e-02) (65, -1.98195762932300567627e-02) (66, -9.89921689033508300781e-02) (67, -4.88893650472164154053e-02) (68, -5.55521965026855468750e+00) (69, 1.01993250846862792969e+00) (70, 1.55202734470367431641e+00) (71, 3.43217611312866210938e+00) (72, 6.54042625427246093750e+00) (73, 1.12900924682617187500e+00) (74, 2.38981723785400390625e+00) (75, 9.95903074741363525391e-01) (76, -1.72132396697998046875e+00) (77, -6.57029926776885986328e-01) (78, 1.78635513782501220703e+00) (79, 9.96553242206573486328e-01) (80, -9.49871957302093505859e-01) (81, -1.56853818893432617188e+00) (82, -1.44052922725677490234e+00) (83, -1.40570092201232910156e+00) (84, -1.00336611270904541016e+00) (85, -3.35834574699401855469e+00) (86, -5.58881664276123046875e+00) (87, 3.16069237887859344482e-02) (88, 9.44255053997039794922e-01) (89, 1.39175307750701904297e+00) (90, 3.38304567337036132812e+00) (91, 6.49613189697265625000e+00) (92, 1.06295132637023925781e+00) (93, 2.28624963760375976562e+00) (94, 1.11685299873352050781e+00) (95, -1.71352672576904296875e+00) (96, -7.18751370906829833984e-01) (97, 1.91605389118194580078e+00) (98, 1.16410148143768310547e+00) (99, -9.36093568801879882812e-01) (100, -1.61682987213134765625e+00) (101, -1.41476929187774658203e+00) (102, -1.24949097633361816406e+00) (103, -9.04087185859680175781e-01) (104, -3.33138489723205566406e+00) (105, -5.60812473297119140625e+00) (106, 7.00748935341835021973e-02) (107, -5.07136322557926177979e-02) (108, -5.64136600494384765625e+00) (109, -5.70652675628662109375e+00) (110, -5.65412616729736328125e+00) (111, 6.46663084626197814941e-02) (112, 9.95320901274681091309e-02) (113, -5.71004104614257812500e+00) (114, -5.72807216644287109375e+00) (115, -5.73063755035400390625e+00) (116, 7.26975221186876296997e-03) (117, 5.23555539548397064209e-02) (118, 3.55861447751522064209e-02) (119, 6.70999884605407714844e-02) (120, 6.33860751986503601074e-02) (121, 9.93556156754493713379e-02) (122, -5.60515594482421875000e+00) (0, -1.02679356932640075684e-01) (1, 2.18634247779846191406e+00) (2, 6.96308851242065429688e+00) (3, 7.26285278797149658203e-01) (4, -5.79148709774017333984e-01) (5, 4.82996821403503417969e-01) (6, 5.64683139324188232422e-01) (7, -4.60849434137344360352e-01) (8, -3.17546278238296508789e-01) (9, -4.25725191831588745117e-01) (10, 6.89798519015312194824e-02) (11, -1.55986595153808593750e+00) (12, -4.13552038371562957764e-02) (13, -3.04353088140487670898e-01) (14, -1.47779548168182373047e+00) (15, -2.80830621719360351562e-01) (16, -1.47691392898559570312e+00) (17, -3.64838801324367523193e-02) (18, 2.35453820228576660156e+00) (19, 7.06970834732055664062e+00) (20, 6.44576132297515869141e-01) (21, -6.91405117511749267578e-01) (22, 4.08462464809417724609e-01) (23, 4.88440006971359252930e-01) (24, -3.51025998592376708984e-01) (25, -1.62853151559829711914e-01) (26, -5.36291301250457763672e-01) (27, 1.47804155945777893066e-01) (28, -1.54577755928039550781e+00) (29, -6.21857158839702606201e-02) (30, -2.48388111591339111328e-01) (31, -1.39664971828460693359e+00) (32, -3.26748609542846679688e-01) (33, -1.42387318611145019531e+00) (34, 1.13670958671718835831e-03) (35, 2.35735869407653808594e+00) (36, 7.03612089157104492188e+00) (37, 6.65781438350677490234e-01) (38, -6.98737561702728271484e-01) (39, 5.69477677345275878906e-01) (40, 4.58630412817001342773e-01) (41, -4.53104436397552490234e-01) (42, -2.49024614691734313965e-01) (43, -4.39046829938888549805e-01) (44, 2.17658624053001403809e-01) (45, -1.52007865905761718750e+00) (46, -5.24261370301246643066e-02) (47, -2.49892741441726684570e-01) (48, -1.50476753711700439453e+00) (49, -3.48795533180236816406e-01) (50, -1.31876540184020996094e+00) (51, 5.11196367442607879639e-02) (52, -3.90872471034526824951e-02) (53, 9.39357206225395202637e-02) (54, -3.65447449684143066406e+00) (55, 8.51583853363990783691e-02) (56, -3.56264615058898925781e+00) (57, 3.84020822821184992790e-04) (58, -3.63592982292175292969e+00) (59, -3.64340329170227050781e+00) (60, -3.57026982307434082031e+00) (61, -2.85059809684753417969e-02) (62, -7.45927318930625915527e-02) (63, -9.18513759970664978027e-02) (64, 5.68212158977985382080e-02) (65, 6.63554295897483825684e-02) (66, -9.66371670365333557129e-02) (67, 2.01861616224050521851e-02) (68, -3.62221884727478027344e+00) (69, -1.26812011003494262695e-01) (70, 2.24686980247497558594e+00) (71, 7.04020547866821289062e+00) (72, 5.76895415782928466797e-01) (73, -5.53946256637573242188e-01) (74, 5.12040972709655761719e-01) (75, 5.77937364578247070312e-01) (76, -3.75909209251403808594e-01) (77, -1.60074263811111450195e-01) (78, -3.88826519250869750977e-01) (79, 2.04081282019615173340e-01) (80, -1.66247844696044921875e+00) (81, 7.63332918286323547363e-02) (82, -3.44644218683242797852e-01) (83, -1.48954474925994873047e+00) (84, -2.18489229679107666016e-01) (85, -1.35249972343444824219e+00) (86, -3.66379237174987792969e+00) (87, 2.40250118076801300049e-02) (88, -8.27279835939407348633e-02) (89, 2.28728413581848144531e+00) (90, 7.06581163406372070312e+00) (91, 7.40961849689483642578e-01) (92, -5.11722981929779052734e-01) (93, 4.23425972461700439453e-01) (94, 3.89002054929733276367e-01) (95, -3.21808218955993652344e-01) (96, -1.33887887001037597656e-01) (97, -5.67952096462249755859e-01) (98, 1.30102962255477905273e-01) (99, -1.58979773521423339844e+00) (100, -8.02003517746925354004e-02) (101, -2.85003811120986938477e-01) (102, -1.51033961772918701172e+00) (103, -3.33788037300109863281e-01) (104, -1.39639186859130859375e+00) (105, -3.56265711784362792969e+00) (106, -4.46788147091865539551e-02) (107, -8.78284946084022521973e-02) (108, -3.60402226448059082031e+00) (109, -3.66724991798400878906e+00) (110, -3.55264210700988769531e+00) (111, 1.09812142327427864075e-02) (112, -7.45172798633575439453e-02) (113, -3.65389609336853027344e+00) (114, -3.53797411918640136719e+00) (115, -3.51271700859069824219e+00) (116, -8.47613960504531860352e-02) (117, -7.68956318497657775879e-02) (118, 2.37426888197660446167e-02) (119, -2.76759620755910873413e-02) (120, 4.82491254806518554688e-02) (121, 1.67981740087270736694e-02) (122, -3.60456848144531250000e+00) (0, 5.15724992752075195312e+00) (1, 6.91013336181640625000e+00) (2, -1.46830856800079345703e+00) (3, 5.48615360260009765625e+00) (4, 1.22740685939788818359e-01) (5, -4.40978497266769409180e-01) (6, 3.64868789911270141602e-01) (7, 3.24855268001556396484e-01) (8, -3.78678202629089355469e-01) (9, -1.84277653694152832031e-01) (10, 4.24319267272949218750e-01) (11, -6.95259273052215576172e-01) (12, -3.55884164571762084961e-01) (13, -2.79177755117416381836e-01) (14, -7.15724229812622070312e-01) (15, -2.96392023563385009766e-01) (16, -1.43346154689788818359e+00) (17, 5.08531522750854492188e+00) (18, 6.79001808166503906250e+00) (19, -1.54011404514312744141e+00) (20, 5.48624038696289062500e+00) (21, 7.63605907559394836426e-02) (22, -3.49055439233779907227e-01) (23, 2.91032463312149047852e-01) (24, 2.18527868390083312988e-01) (25, -4.87499862909317016602e-01) (26, -2.92814433574676513672e-01) (27, 5.47449707984924316406e-01) (28, -7.14733541011810302734e-01) (29, -2.60363131761550903320e-01) (30, -4.34190005064010620117e-01) (31, -6.45598649978637695312e-01) (32, -2.77777791023254394531e-01) (33, -1.41786515712738037109e+00) (34, 5.20859003067016601562e+00) (35, 6.96890449523925781250e+00) (36, -1.54576265811920166016e+00) (37, 5.55603027343750000000e+00) (38, 1.91976621747016906738e-01) (39, -4.15675848722457885742e-01) (40, 2.91475027799606323242e-01) (41, 1.56970366835594177246e-01) (42, -4.04704093933105468750e-01) (43, -1.72874331474304199219e-01) (44, 4.01455163955688476562e-01) (45, -7.52543032169342041016e-01) (46, -2.01863363385200500488e-01) (47, -3.55664938688278198242e-01) (48, -5.55281996726989746094e-01) (49, -3.39499592781066894531e-01) (50, -1.41114318370819091797e+00) (51, -1.33687620982527732849e-02) (52, -1.40477837994694709778e-02) (53, 1.55198576976545155048e-04) (54, -3.72254776954650878906e+00) (55, 7.48731270432472229004e-02) (56, -3.80246543884277343750e+00) (57, -9.33221429586410522461e-02) (58, -3.77122497558593750000e+00) (59, -3.84949922561645507812e+00) (60, -3.76197147369384765625e+00) (61, 6.89373835921287536621e-02) (62, 5.57771921157836914062e-02) (63, -8.06755721569061279297e-02) (64, -1.92699432373046875000e-02) (65, 5.20074144005775451660e-02) (66, -8.66427123546600341797e-02) (67, -1.77421327680349349976e-02) (68, -3.78687119483947753906e+00) (69, 5.01507139205932617188e+00) (70, 6.97216033935546875000e+00) (71, -1.52846443653106689453e+00) (72, 5.41786956787109375000e+00) (73, 8.74390304088592529297e-02) (74, -3.70098680257797241211e-01) (75, 2.38129034638404846191e-01) (76, 1.29638612270355224609e-01) (77, -3.34431111812591552734e-01) (78, -1.58105373382568359375e-01) (79, 5.74395895004272460938e-01) (80, -6.97710692882537841797e-01) (81, -3.24001520872116088867e-01) (82, -3.92165988683700561523e-01) (83, -6.87537431716918945312e-01) (84, -1.76402568817138671875e-01) (85, -1.47003519535064697266e+00) (86, -3.87657737731933593750e+00) (87, -1.98877640068531036377e-02) (88, 5.07866430282592773438e+00) (89, 6.94181156158447265625e+00) (90, -1.40926110744476318359e+00) (91, 5.39947700500488281250e+00) (92, 1.38531789183616638184e-01) (93, -4.36925023794174194336e-01) (94, 2.23918214440345764160e-01) (95, 1.46229460835456848145e-01) (96, -4.46388721466064453125e-01) (97, -2.70351707935333251953e-01) (98, 4.85155493021011352539e-01) (99, -7.01694309711456298828e-01) (100, -3.52001279592514038086e-01) (101, -3.70848983526229858398e-01) (102, -5.58628559112548828125e-01) (103, -2.74605572223663330078e-01) (104, -1.34873998165130615234e+00) (105, -3.76189088821411132812e+00) (106, 2.23303325474262237549e-02) (107, 8.09293985366821289062e-02) (108, -3.80419063568115234375e+00) (109, -3.82851362228393554688e+00) (110, -3.73820042610168457031e+00) (111, -2.68270261585712432861e-02) (112, 5.39291761815547943115e-02) (113, -3.86341810226440429688e+00) (114, -3.77822303771972656250e+00) (115, -3.77820301055908203125e+00) (116, 3.59890470281243324280e-03) (117, 5.99421039223670959473e-02) (118, -9.07468199729919433594e-02) (119, 6.98991417884826660156e-02) (120, 2.68812905997037887573e-02) (121, 4.72602955996990203857e-02) (122, -3.78030085563659667969e+00) (0, -8.61514806747436523438e-01) (1, -3.80591726303100585938e+00) (2, -1.41805434226989746094e+00) (3, -3.82433366775512695312e+00) (4, -4.49608612060546875000e+00) (5, -7.85525465011596679688e+00) (6, -2.27538347244262695312e+00) (7, -9.49823141098022460938e-01) (8, 1.84387803077697753906e+00) (9, -1.14452314376831054688e+00) (10, 1.61342769861221313477e-01) (11, 2.81668841838836669922e-01) (12, -6.49034023284912109375e-01) (13, 3.12909662723541259766e-01) (14, 2.39350765943527221680e-01) (15, 4.90503847599029541016e-01) (16, 1.15598690509796142578e+00) (17, -7.41953849792480468750e-01) (18, -3.84159421920776367188e+00) (19, -1.27110385894775390625e+00) (20, -3.76746225357055664062e+00) (21, -4.53357934951782226562e+00) (22, -7.82354068756103515625e+00) (23, -2.38823604583740234375e+00) (24, -8.49753141403198242188e-01) (25, 1.78847873210906982422e+00) (26, -1.14427495002746582031e+00) (27, 2.46475100517272949219e-01) (28, 2.76021420955657958984e-01) (29, -6.82447433471679687500e-01) (30, 2.34148189425468444824e-01) (31, 1.74102932214736938477e-01) (32, 5.17213642597198486328e-01) (33, 1.18662476539611816406e+00) (34, -8.06683778762817382812e-01) (35, -3.69719028472900390625e+00) (36, -1.25672078132629394531e+00) (37, -3.80789089202880859375e+00) (38, -4.58029222488403320312e+00) (39, -7.83429908752441406250e+00) (40, -2.28342342376708984375e+00) (41, -9.62342143058776855469e-01) (42, 1.79888164997100830078e+00) (43, -1.19341611862182617188e+00) (44, 1.47131413221359252930e-01) (45, 2.62977063655853271484e-01) (46, -6.42615377902984619141e-01) (47, 2.39583969116210937500e-01) (48, 2.80642330646514892578e-01) (49, 5.21363556385040283203e-01) (50, 1.13900172710418701172e+00) (51, -1.90460383892059326172e-02) (52, 1.64292939007282257080e-02) (53, 5.79848773777484893799e-02) (54, 2.79779815673828125000e+00) (55, -3.06283365935087203979e-02) (56, 2.65804815292358398438e+00) (57, -7.90392979979515075684e-02) (58, 2.84368324279785156250e+00) (59, 2.83348560333251953125e+00) (60, 2.69433784484863281250e+00) (61, -3.37523827329277992249e-03) (62, -7.97708779573440551758e-02) (63, 5.78579911962151527405e-03) (64, -8.63982588052749633789e-02) (65, 3.78073826432228088379e-02) (66, -4.44430187344551086426e-02) (67, 8.74967575073242187500e-02) (68, 2.68536758422851562500e+00) (69, -8.66084694862365722656e-01) (70, -3.78159189224243164062e+00) (71, -1.42681646347045898438e+00) (72, -3.80516958236694335938e+00) (73, -4.45857429504394531250e+00) (74, -7.88287878036499023438e+00) (75, -2.33158111572265625000e+00) (76, -9.15930151939392089844e-01) (77, 1.83091533184051513672e+00) (78, -1.18703413009643554688e+00) (79, 1.55109524726867675781e-01) (80, 2.58663594722747802734e-01) (81, -6.03110790252685546875e-01) (82, 2.42176398634910583496e-01) (83, 2.10420280694961547852e-01) (84, 5.13489782810211181641e-01) (85, 1.12841260433197021484e+00) (86, 2.79536628723144531250e+00) (87, -3.42312529683113098145e-02) (88, -8.44547748565673828125e-01) (89, -3.71085071563720703125e+00) (90, -1.38283395767211914062e+00) (91, -3.78112459182739257812e+00) (92, -4.55018615722656250000e+00) (93, -7.84416007995605468750e+00) (94, -2.42525291442871093750e+00) (95, -9.56344604492187500000e-01) (96, 1.74572503566741943359e+00) (97, -1.13498544692993164062e+00) (98, 1.57467812299728393555e-01) (99, 1.39952749013900756836e-01) (100, -5.62255799770355224609e-01) (101, 2.28931441903114318848e-01) (102, 1.79127842187881469727e-01) (103, 4.94913130998611450195e-01) (104, 1.09320271015167236328e+00) (105, 2.72401618957519531250e+00) (106, 6.26645609736442565918e-02) (107, 1.03127360343933105469e-02) (108, 2.81501674652099609375e+00) (109, 2.84600687026977539062e+00) (110, 2.79325819015502929688e+00) (111, 2.16414816677570343018e-02) (112, -4.23901667818427085876e-03) (113, 2.70570707321166992188e+00) (114, 2.84763860702514648438e+00) (115, 2.80643939971923828125e+00) (116, 1.29837514832615852356e-02) (117, 4.00670878589153289795e-02) (118, -7.92609974741935729980e-02) (119, 9.27066132426261901855e-02) (120, -2.38210856914520263672e-02) (121, -3.14768813550472259521e-02) (122, 2.70459866523742675781e+00) (0, 6.06152772903442382812e+00) (1, 4.03142499923706054688e+00) (2, 5.46933555603027343750e+00) (3, 4.00710725784301757812e+00) (4, 4.52849054336547851562e+00) (5, 6.38660240173339843750e+00) (6, 3.16088485717773437500e+00) (7, -7.08036184310913085938e-01) (8, -1.41630744934082031250e+00) (9, -1.31503701210021972656e+00) (10, 7.11231827735900878906e-01) (11, -3.30513179302215576172e-01) (12, -5.10446548461914062500e-01) (13, -3.25843572616577148438e-01) (14, 1.87523558735847473145e-01) (15, -5.23696601390838623047e-01) (16, -3.08739638328552246094e+00) (17, 6.12010812759399414062e+00) (18, 4.05894279479980468750e+00) (19, 5.50844478607177734375e+00) (20, 3.91492748260498046875e+00) (21, 4.40429544448852539062e+00) (22, 6.53796672821044921875e+00) (23, 2.99001932144165039062e+00) (24, -7.58663415908813476562e-01) (25, -1.46698069572448730469e+00) (26, -1.36435818672180175781e+00) (27, 8.10063600540161132812e-01) (28, -1.45708650350570678711e-01) (29, -5.14805316925048828125e-01) (30, -3.84255886077880859375e-01) (31, 1.18610791862010955811e-01) (32, -5.01833736896514892578e-01) (33, -2.96571993827819824219e+00) (34, 6.01194334030151367188e+00) (35, 4.08141040802001953125e+00) (36, 5.33603572845458984375e+00) (37, 3.90009117126464843750e+00) (38, 4.55431127548217773438e+00) (39, 6.53905105590820312500e+00) (40, 3.10851192474365234375e+00) (41, -6.96625351905822753906e-01) (42, -1.39567494392395019531e+00) (43, -1.35476422309875488281e+00) (44, 7.76969790458679199219e-01) (45, -1.77603274583816528320e-01) (46, -5.51566123962402343750e-01) (47, -2.71536231040954589844e-01) (48, 1.45295783877372741699e-01) (49, -5.11183083057403564453e-01) (50, -3.01387906074523925781e+00) (51, 9.40068513154983520508e-02) (52, -4.71529625356197357178e-02) (53, 1.35410903021693229675e-02) (54, -3.79684042930603027344e+00) (55, 8.40031504631042480469e-02) (56, -3.77657341957092285156e+00) (57, -4.88003268837928771973e-02) (58, -3.70127749443054199219e+00) (59, -3.78139901161193847656e+00) (60, -3.65046811103820800781e+00) (61, 4.70090173184871673584e-02) (62, 3.17662842571735382080e-02) (63, -9.72859039902687072754e-02) (64, 2.97921895980834960938e-02) (65, 9.10984501242637634277e-02) (66, 8.90964493155479431152e-02) (67, 4.01319749653339385986e-02) (68, -3.76983666419982910156e+00) (69, 6.10988378524780273438e+00) (70, 4.01493406295776367188e+00) (71, 5.50193214416503906250e+00) (72, 4.00231504440307617188e+00) (73, 4.49656057357788085938e+00) (74, 6.38384437561035156250e+00) (75, 3.01304006576538085938e+00) (76, -8.16128492355346679688e-01) (77, -1.49044156074523925781e+00) (78, -1.21021580696105957031e+00) (79, 6.90631985664367675781e-01) (80, -2.10650682449340820312e-01) (81, -4.94553416967391967773e-01) (82, -2.24984377622604370117e-01) (83, 1.97612002491950988770e-01) (84, -5.04571616649627685547e-01) (85, -3.13782906532287597656e+00) (86, -3.64211058616638183594e+00) (87, -2.61881835758686065674e-02) (88, 6.01448488235473632812e+00) (89, 3.96955823898315429688e+00) (90, 5.42719364166259765625e+00) (91, 3.87222719192504882812e+00) (92, 4.40804624557495117188e+00) (93, 6.39231300354003906250e+00) (94, 2.99506902694702148438e+00) (95, -7.38106012344360351562e-01) (96, -1.56159949302673339844e+00) (97, -1.39094805717468261719e+00) (98, 7.78047204017639160156e-01) (99, -2.76938796043395996094e-01) (100, -4.52680706977844238281e-01) (101, -4.11417961120605468750e-01) (102, 5.46304918825626373291e-02) (103, -4.25803124904632568359e-01) (104, -3.02609562873840332031e+00) (105, -3.74420523643493652344e+00) (106, 6.13660700619220733643e-02) (107, 9.60903912782669067383e-02) (108, -3.64871764183044433594e+00) (109, -3.65466856956481933594e+00) (110, -3.80855393409729003906e+00) (111, -9.36332996934652328491e-03) (112, -1.77667737007141113281e-02) (113, -3.61020016670227050781e+00) (114, -3.73544716835021972656e+00) (115, -3.68562674522399902344e+00) (116, -9.03628766536712646484e-02) (117, -5.92721514403820037842e-02) (118, 9.73318219184875488281e-02) (119, -2.84895002841949462891e-02) (120, 1.56408902257680892944e-02) (121, -1.16844777949154376984e-03) (122, -3.70833110809326171875e+00) (0, -2.00757908821105957031e+00) (1, -5.30848026275634765625e+00) (2, -4.47257328033447265625e+00) (3, -1.03009939193725585938e+00) (4, -8.59981551766395568848e-02) (5, -1.78363665938377380371e-01) (6, 2.45987510681152343750e+00) (7, 2.61694335937500000000e+00) (8, 1.93810477852821350098e-01) (9, 1.53655385971069335938e+00) (10, -6.20560407638549804688e-01) (11, 1.93147575855255126953e+00) (12, 8.44320237636566162109e-01) (13, 1.03543329238891601562e+00) (14, 6.14170014858245849609e-01) (15, 1.33968114852905273438e+00) (16, 2.15284800529479980469e+00) (17, -2.01180863380432128906e+00) (18, -5.32845401763916015625e+00) (19, -4.41146278381347656250e+00) (20, -1.10395026206970214844e+00) (21, -1.31391197443008422852e-01) (22, -2.55977272987365722656e-01) (23, 2.41784238815307617188e+00) (24, 2.71730375289916992188e+00) (25, 1.87315687537193298340e-01) (26, 1.47987675666809082031e+00) (27, -4.88594591617584228516e-01) (28, 1.92052185535430908203e+00) (29, 7.64095842838287353516e-01) (30, 9.94368970394134521484e-01) (31, 5.79390347003936767578e-01) (32, 1.39543271064758300781e+00) (33, 2.26667952537536621094e+00) (34, -2.11194396018981933594e+00) (35, -5.31676292419433593750e+00) (36, -4.46054363250732421875e+00) (37, -1.10505104064941406250e+00) (38, -9.83029380440711975098e-02) (39, -2.81419903039932250977e-01) (40, 2.28633499145507812500e+00) (41, 2.60123014450073242188e+00) (42, 1.38678550720214843750e-01) (43, 1.46653771400451660156e+00) (44, -5.50961375236511230469e-01) (45, 1.93506658077239990234e+00) (46, 7.63524830341339111328e-01) (47, 9.26155626773834228516e-01) (48, 5.89737713336944580078e-01) (49, 1.37488818168640136719e+00) (50, 2.25931286811828613281e+00) (51, 6.99911043047904968262e-02) (52, -4.21040244400501251221e-02) (53, -5.75705692172050476074e-02) (54, 4.53060007095336914062e+00) (55, 7.86204263567924499512e-02) (56, 4.55481290817260742188e+00) (57, -5.44924885034561157227e-02) (58, 4.59236955642700195312e+00) (59, 4.56131982803344726562e+00) (60, 4.50228071212768554688e+00) (61, -4.48370948433876037598e-02) (62, -1.61236952990293502808e-02) (63, -5.18835857510566711426e-02) (64, -4.51807975769042968750e-02) (65, 1.72247048467397689819e-02) (66, 7.19316825270652770996e-02) (67, 8.21968913078308105469e-02) (68, 4.55383634567260742188e+00) (69, -2.02907347679138183594e+00) (70, -5.43363857269287109375e+00) (71, -4.44865226745605468750e+00) (72, -9.98572468757629394531e-01) (73, -1.93336278200149536133e-01) (74, -2.43746280670166015625e-01) (75, 2.32948446273803710938e+00) (76, 2.66683149337768554688e+00) (77, 1.93485394120216369629e-01) (78, 1.41001105308532714844e+00) (79, -6.56365752220153808594e-01) (80, 1.95778954029083251953e+00) (81, 7.87678778171539306641e-01) (82, 1.10470724105834960938e+00) (83, 5.37064611911773681641e-01) (84, 1.32936191558837890625e+00) (85, 2.17076659202575683594e+00) (86, 4.50188207626342773438e+00) (87, -6.54246062040328979492e-02) (88, -1.99588346481323242188e+00) (89, -5.38935756683349609375e+00) (90, -4.41354084014892578125e+00) (91, -1.08951091766357421875e+00) (92, -1.36095404624938964844e-01) (93, -2.47849225997924804688e-01) (94, 2.35688161849975585938e+00) (95, 2.75777626037597656250e+00) (96, 2.71841585636138916016e-01) (97, 1.39351058006286621094e+00) (98, -5.37554979324340820312e-01) (99, 2.02090167999267578125e+00) (100, 8.94836962223052978516e-01) (101, 1.06038999557495117188e+00) (102, 4.81857985258102416992e-01) (103, 1.31496357917785644531e+00) (104, 2.26652979850769042969e+00) (105, 4.53032064437866210938e+00) (106, 3.76002080738544464111e-02) (107, -3.02456859499216079712e-02) (108, 4.42741918563842773438e+00) (109, 4.42573022842407226562e+00) (110, 4.51593637466430664062e+00) (111, -5.03075420856475830078e-02) (112, -3.69913876056671142578e-02) (113, 4.51059484481811523438e+00) (114, 4.57295083999633789062e+00) (115, 4.58580160140991210938e+00) (116, 9.28189530968666076660e-02) (117, -6.81980326771736145020e-02) (118, 9.88625884056091308594e-02) (119, 4.20673005282878875732e-02) (120, -1.69776864349842071533e-02) (121, 7.32430815696716308594e-02) (122, 4.53572177886962890625e+00) (0, -5.11486959457397460938e+00) (1, -4.85009670257568359375e+00) (2, -5.71248149871826171875e+00) (3, -3.49255752563476562500e+00) (4, -5.75988006591796875000e+00) (5, 1.00818395614624023438e+00) (6, -4.05454921722412109375e+00) (7, -5.58970153331756591797e-01) (8, 3.56995463371276855469e-01) (9, -1.01147794723510742188e+00) (10, -7.30733036994934082031e-01) (11, 1.36957633495330810547e+00) (12, 1.45112347602844238281e+00) (13, 3.12734514474868774414e-01) (14, -1.07838749885559082031e+00) (15, 5.49190878868103027344e-01) (16, 2.25715923309326171875e+00) (17, -5.20921659469604492188e+00) (18, -4.87356758117675781250e+00) (19, -5.63774013519287109375e+00) (20, -3.48510551452636718750e+00) (21, -5.66975021362304687500e+00) (22, 9.84163820743560791016e-01) (23, -4.02650833129882812500e+00) (24, -5.83204448223114013672e-01) (25, 3.98767590522766113281e-01) (26, -9.34825241565704345703e-01) (27, -8.59339773654937744141e-01) (28, 1.40749514102935791016e+00) (29, 1.50172328948974609375e+00) (30, 2.47383356094360351562e-01) (31, -9.88882303237915039062e-01) (32, 5.61536431312561035156e-01) (33, 2.23618054389953613281e+00) (34, -5.17304563522338867188e+00) (35, -4.74866485595703125000e+00) (36, -5.60814380645751953125e+00) (37, -3.61792993545532226562e+00) (38, -5.71976470947265625000e+00) (39, 9.28612351417541503906e-01) (40, -4.07886552810668945312e+00) (41, -6.65428221225738525391e-01) (42, 4.64837253093719482422e-01) (43, -9.42601680755615234375e-01) (44, -8.14222872257232666016e-01) (45, 1.28142988681793212891e+00) (46, 1.43430781364440917969e+00) (47, 3.95697921514511108398e-01) (48, -1.00928425788879394531e+00) (49, 4.70559179782867431641e-01) (50, 2.25922107696533203125e+00) (51, 1.82559620589017868042e-02) (52, 3.21715958416461944580e-02) (53, 5.37031404674053192139e-02) (54, 3.42574334144592285156e+00) (55, -7.79033154249191284180e-02) (56, 3.44703030586242675781e+00) (57, 6.18116147816181182861e-02) (58, 3.43922877311706542969e+00) (59, 3.43823981285095214844e+00) (60, 3.44140315055847167969e+00) (61, -4.18396703898906707764e-02) (62, -6.62842765450477600098e-02) (63, 8.22158828377723693848e-02) (64, 1.24383689835667610168e-02) (65, 6.49390742182731628418e-02) (66, 1.51493195444345474243e-02) (67, -3.30171585083007812500e-02) (68, 3.57491874694824218750e+00) (69, -5.14203405380249023438e+00) (70, -4.79364871978759765625e+00) (71, -5.70294189453125000000e+00) (72, -3.47322034835815429688e+00) (73, -5.70465660095214843750e+00) (74, 1.08113598823547363281e+00) (75, -4.10129499435424804688e+00) (76, -5.45781672000885009766e-01) (77, 2.90780305862426757812e-01) (78, -8.56608092784881591797e-01) (79, -8.03793370723724365234e-01) (80, 1.25156366825103759766e+00) (81, 1.48401403427124023438e+00) (82, 2.49112129211425781250e-01) (83, -1.00203835964202880859e+00) (84, 4.65932726860046386719e-01) (85, 2.22830486297607421875e+00) (86, 3.57468914985656738281e+00) (87, -7.66325602307915687561e-03) (88, -5.29604196548461914062e+00) (89, -4.83795928955078125000e+00) (90, -5.61725139617919921875e+00) (91, -3.57868480682373046875e+00) (92, -5.66506004333496093750e+00) (93, 1.08711194992065429688e+00) (94, -4.10165643692016601562e+00) (95, -6.58893764019012451172e-01) (96, 4.34673070907592773438e-01) (97, -8.94192516803741455078e-01) (98, -8.10118138790130615234e-01) (99, 1.35054695606231689453e+00) (100, 1.53135514259338378906e+00) (101, 4.12522882223129272461e-01) (102, -9.75495576858520507812e-01) (103, 5.29607653617858886719e-01) (104, 2.21326828002929687500e+00) (105, 3.55232453346252441406e+00) (106, 4.10839803516864776611e-02) (107, 5.87127320468425750732e-02) (108, 3.55253911018371582031e+00) (109, 3.52564883232116699219e+00) (110, 3.43139672279357910156e+00) (111, -9.73211079835891723633e-02) (112, -8.27476680278778076172e-02) (113, 3.43719506263732910156e+00) (114, 3.55527138710021972656e+00) (115, 3.43283915519714355469e+00) (116, -1.54246098827570676804e-03) (117, 5.96779696643352508545e-02) (118, 4.00352254509925842285e-02) (119, 6.67107105255126953125e-03) (120, -9.66850593686103820801e-02) (121, -1.45276552066206932068e-02) (122, 3.58263158798217773438e+00) (0, 8.44338119029998779297e-01) (1, -1.16625511646270751953e+00) (2, -2.28488588333129882812e+00) (3, -6.54338061809539794922e-01) (4, 3.35742592811584472656e+00) (5, -4.08327531814575195312e+00) (6, -1.24253625869750976562e+01) (7, -3.89262056350708007812e+00) (8, 2.64502346515655517578e-01) (9, 3.19235658645629882812e+00) (10, -1.56042790412902832031e+00) (11, 3.89939928054809570312e+00) (12, 2.52312874794006347656e+00) (13, 3.03180360794067382812e+00) (14, 1.43849432468414306641e-01) (15, 1.67331111431121826172e+00) (16, 3.25241041183471679688e+00) (17, 8.18611323833465576172e-01) (18, -1.22483789920806884766e+00) (19, -2.22847223281860351562e+00) (20, -6.77056491374969482422e-01) (21, 3.40681076049804687500e+00) (22, -4.21866178512573242188e+00) (23, -1.22815790176391601562e+01) (24, -3.87901091575622558594e+00) (25, 1.64823576807975769043e-01) (26, 3.10701417922973632812e+00) (27, -1.63416647911071777344e+00) (28, 3.70908164978027343750e+00) (29, 2.69186568260192871094e+00) (30, 2.96203613281250000000e+00) (31, 1.17459267377853393555e-01) (32, 1.54799687862396240234e+00) (33, 3.23307943344116210938e+00) (34, 7.71049559116363525391e-01) (35, -1.18770658969879150391e+00) (36, -2.27080011367797851562e+00) (37, -7.41310417652130126953e-01) (38, 3.53483581542968750000e+00) (39, -4.12732791900634765625e+00) (40, -1.24237985610961914062e+01) (41, -3.91245889663696289062e+00) (42, 2.94221699237823486328e-01) (43, 3.02586889266967773438e+00) (44, -1.67009115219116210938e+00) (45, 3.77405929565429687500e+00) (46, 2.68505787849426269531e+00) (47, 3.02653169631958007812e+00) (48, 1.56728237867355346680e-01) (49, 1.68260347843170166016e+00) (50, 3.35398912429809570312e+00) (51, -5.15970848500728607178e-02) (52, -7.27736800909042358398e-02) (53, -8.24686735868453979492e-02) (54, 8.18447208404541015625e+00) (55, 8.38056132197380065918e-02) (56, 8.01335620880126953125e+00) (57, -2.28803697973489761353e-02) (58, 8.03880596160888671875e+00) (59, 8.02072238922119140625e+00) (60, 8.03871822357177734375e+00) (61, -1.85452587902545928955e-02) (62, 4.14489507675170898438e-02) (63, -1.85585450381040573120e-02) (64, 3.36951613426208496094e-02) (65, 7.32825398445129394531e-02) (66, 2.46320720762014389038e-02) (67, 6.56197816133499145508e-02) (68, 7.99745607376098632812e+00) (69, 8.50027620792388916016e-01) (70, -1.12956011295318603516e+00) (71, -2.29491758346557617188e+00) (72, -7.39753067493438720703e-01) (73, 3.38349676132202148438e+00) (74, -4.25200223922729492188e+00) (75, -1.23646402359008789062e+01) (76, -3.92844676971435546875e+00) (77, 3.34807157516479492188e-01) (78, 3.18281126022338867188e+00) (79, -1.63848280906677246094e+00) (80, 3.84482240676879882812e+00) (81, 2.65535902976989746094e+00) (82, 3.03496789932250976562e+00) (83, 1.75376862287521362305e-01) (84, 1.66437828540802001953e+00) (85, 3.28091955184936523438e+00) (86, 8.14594554901123046875e+00) (87, 7.24591165781021118164e-02) (88, 9.16427671909332275391e-01) (89, -1.22963178157806396484e+00) (90, -2.30131435394287109375e+00) (91, -7.49538958072662353516e-01) (92, 3.43140459060668945312e+00) (93, -4.12014913558959960938e+00) (94, -1.23203153610229492188e+01) (95, -4.01923656463623046875e+00) (96, 2.76887297630310058594e-01) (97, 3.05288219451904296875e+00) (98, -1.51536941528320312500e+00) (99, 3.82348227500915527344e+00) (100, 2.66306424140930175781e+00) (101, 3.01099300384521484375e+00) (102, 1.34618878364562988281e-01) (103, 1.68849956989288330078e+00) (104, 3.29899835586547851562e+00) (105, 8.13242244720458984375e+00) (106, -6.37113377451896667480e-02) (107, -7.46663659811019897461e-02) (108, 8.10651493072509765625e+00) (109, 8.18819904327392578125e+00) (110, 8.07601070404052734375e+00) (111, -4.20411638915538787842e-02) (112, 2.98137795180082321167e-02) (113, 8.18333148956298828125e+00) (114, 8.02013492584228515625e+00) (115, 8.07242488861083984375e+00) (116, -8.31273850053548812866e-03) (117, 8.25878381729125976562e-02) (118, -4.68578115105628967285e-02) (119, -3.11118196696043014526e-02) (120, 8.38611125946044921875e-02) (121, -4.54354248940944671631e-02) (122, 8.06911754608154296875e+00) (0, 5.52391719818115234375e+00) (1, 7.18459367752075195312e+00) (2, 2.67635059356689453125e+00) (3, 1.42878210544586181641e+00) (4, -1.36239969730377197266e+00) (5, -3.19657826423645019531e+00) (6, -9.82173728942871093750e+00) (7, -2.11789155006408691406e+00) (8, -2.09681844711303710938e+00) (9, 5.90188145637512207031e-01) (10, -2.99865156412124633789e-01) (11, 9.00173366069793701172e-01) (12, -1.12409460544586181641e+00) (13, -2.44172096252441406250e-01) (14, 5.19166171550750732422e-01) (15, 6.51283323764801025391e-01) (16, -1.64088428020477294922e+00) (17, 5.63504695892333984375e+00) (18, 7.16333055496215820312e+00) (19, 2.55618238449096679688e+00) (20, 1.45330178737640380859e+00) (21, -1.30820095539093017578e+00) (22, -3.11857485771179199219e+00) (23, -9.69856739044189453125e+00) (24, -2.09385108947753906250e+00) (25, -2.17732119560241699219e+00) (26, 4.83111143112182617188e-01) (27, -3.36586505174636840820e-01) (28, 8.28538119792938232422e-01) (29, -1.09474408626556396484e+00) (30, -3.28501880168914794922e-01) (31, 4.77816075086593627930e-01) (32, 6.52738034725189208984e-01) (33, -1.64134824275970458984e+00) (34, 5.48025608062744140625e+00) (35, 6.99410390853881835938e+00) (36, 2.52666950225830078125e+00) (37, 1.43374693393707275391e+00) (38, -1.43361413478851318359e+00) (39, -3.20654749870300292969e+00) (40, -9.85041046142578125000e+00) (41, -2.14586925506591796875e+00) (42, -2.10287499427795410156e+00) (43, 5.44736981391906738281e-01) (44, -3.51718157529830932617e-01) (45, 9.00359809398651123047e-01) (46, -9.95795190334320068359e-01) (47, -2.16193735599517822266e-01) (48, 4.60746437311172485352e-01) (49, 7.30420351028442382812e-01) (50, -1.64916455745697021484e+00) (51, -6.96044564247131347656e-02) (52, 3.88169176876544952393e-02) (53, 1.91370602697134017944e-02) (54, -2.00870108604431152344e+00) (55, 9.82831940054893493652e-02) (56, -2.01870703697204589844e+00) (57, -4.00286503136157989502e-02) (58, -1.90063512325286865234e+00) (59, -1.94536554813385009766e+00) (60, -1.87137162685394287109e+00) (61, 4.80491518974304199219e-02) (62, -7.81721919775009155273e-02) (63, -5.07455766201019287109e-02) (64, 6.81280046701431274414e-02) (65, -5.52498362958431243896e-02) (66, -4.37962897121906280518e-02) (67, -8.28833878040313720703e-02) (68, -1.89445602893829345703e+00) (69, 5.55590724945068359375e+00) (70, 7.02321481704711914062e+00) (71, 2.64680147171020507812e+00) (72, 1.45179879665374755859e+00) (73, -1.27601778507232666016e+00) (74, -3.15338301658630371094e+00) (75, -9.86754989624023437500e+00) (76, -2.00821757316589355469e+00) (77, -2.19984364509582519531e+00) (78, 5.94792485237121582031e-01) (79, -3.96958768367767333984e-01) (80, 7.93191850185394287109e-01) (81, -1.02538073062896728516e+00) (82, -2.51574844121932983398e-01) (83, 5.14718174934387207031e-01) (84, 6.43796861171722412109e-01) (85, -1.54445111751556396484e+00) (86, -1.85218560695648193359e+00) (87, -6.98498496785759925842e-03) (88, 5.63426589965820312500e+00) (89, 7.08887338638305664062e+00) (90, 2.65261840820312500000e+00) (91, 1.47860229015350341797e+00) (92, -1.42622387409210205078e+00) (93, -3.02868676185607910156e+00) (94, -9.70469474792480468750e+00) (95, -2.13542675971984863281e+00) (96, -2.22527909278869628906e+00) (97, 4.80038255453109741211e-01) (98, -4.29901361465454101562e-01) (99, 9.29461956024169921875e-01) (100, -1.05379021167755126953e+00) (101, -2.78842628002166748047e-01) (102, 4.81266289949417114258e-01) (103, 6.02282702922821044922e-01) (104, -1.59039413928985595703e+00) (105, -2.01188039779663085938e+00) (106, -3.78448180854320526123e-02) (107, -8.38748812675476074219e-02) (108, -1.94490921497344970703e+00) (109, -2.01214075088500976562e+00) (110, -1.94319784641265869141e+00) (111, 2.03543435782194137573e-02) (112, 8.04522633552551269531e-02) (113, -1.84482491016387939453e+00) (114, -1.93012988567352294922e+00) (115, -1.96242272853851318359e+00) (116, -5.90932380873709917068e-04) (117, -2.77689397335052490234e-02) (118, 5.78854344785213470459e-02) (119, -2.36515160650014877319e-02) (120, 7.39486739039421081543e-02) (121, 3.28182093799114227295e-02) (122, -2.00749897956848144531e+00) (0, -1.97508454322814941406e+00) (1, -3.41099786758422851562e+00) (2, -2.38547229766845703125e+00) (3, -2.96822905540466308594e+00) (4, -4.74417829513549804688e+00) (5, -6.05344057083129882812e+00) (6, -4.53852415084838867188e+00) (7, -6.15556240081787109375e-01) (8, 1.15040004253387451172e+00) (9, -7.12157428264617919922e-01) (10, 1.02194321155548095703e+00) (11, -7.06534206867218017578e-01) (12, 2.66297847032546997070e-01) (13, 1.18525214493274688721e-01) (14, 3.31506222486495971680e-01) (15, 3.81301790475845336914e-01) (16, 2.15968060493469238281e+00) (17, -1.91205978393554687500e+00) (18, -3.42164802551269531250e+00) (19, -2.46990680694580078125e+00) (20, -2.94272112846374511719e+00) (21, -4.81391191482543945312e+00) (22, -6.07900857925415039062e+00) (23, -4.48314905166625976562e+00) (24, -7.60136246681213378906e-01) (25, 1.06025969982147216797e+00) (26, -7.69978463649749755859e-01) (27, 1.01038706302642822266e+00) (28, -6.65694057941436767578e-01) (29, 2.70270615816116333008e-01) (30, 1.00738175213336944580e-01) (31, 3.33903461694717407227e-01) (32, 4.98640298843383789062e-01) (33, 2.05078220367431640625e+00) (34, -1.88321197032928466797e+00) (35, -3.41721725463867187500e+00) (36, -2.46960544586181640625e+00) (37, -2.81771445274353027344e+00) (38, -4.84659433364868164062e+00) (39, -6.00942277908325195312e+00) (40, -4.47532129287719726562e+00) (41, -6.03511571884155273438e-01) (42, 1.06694936752319335938e+00) (43, -7.01316654682159423828e-01) (44, 9.94780361652374267578e-01) (45, -5.61397075653076171875e-01) (46, 4.40878987312316894531e-01) (47, 6.24243319034576416016e-02) (48, 3.01091521978378295898e-01) (49, 4.58761900663375854492e-01) (50, 2.12801647186279296875e+00) (51, 8.19662865251302719116e-03) (52, -8.63241627812385559082e-02) (53, 5.88190220296382904053e-02) (54, 2.91351270675659179688e+00) (55, -8.55451449751853942871e-02) (56, 2.90837383270263671875e+00) (57, 3.00574302673339843750e-02) (58, 2.96490097045898437500e+00) (59, 2.95854187011718750000e+00) (60, 3.02606201171875000000e+00) (61, 7.78926834464073181152e-02) (62, 5.91130964457988739014e-02) (63, 5.01890201121568679810e-03) (64, -4.45253737270832061768e-02) (65, -2.53855176270008087158e-02) (66, -7.16214254498481750488e-02) (67, 6.26206547021865844727e-02) (68, 2.94070315361022949219e+00) (69, -1.90165579319000244141e+00) (70, -3.50437498092651367188e+00) (71, -2.57020235061645507812e+00) (72, -2.95540165901184082031e+00) (73, -4.79615831375122070312e+00) (74, -5.91791868209838867188e+00) (75, -4.49921751022338867188e+00) (76, -6.87360286712646484375e-01) (77, 1.14242649078369140625e+00) (78, -6.95946872234344482422e-01) (79, 1.04787576198577880859e+00) (80, -6.45093858242034912109e-01) (81, 3.66297572851181030273e-01) (82, 3.72756607830524444580e-02) (83, 3.44456464052200317383e-01) (84, 4.24002856016159057617e-01) (85, 2.03619933128356933594e+00) (86, 2.97221899032592773438e+00) (87, 1.25913023948669433594e-02) (88, -1.80559647083282470703e+00) (89, -3.35009288787841796875e+00) (90, -2.37893009185791015625e+00) (91, -2.86403298377990722656e+00) (92, -4.74689531326293945312e+00) (93, -5.92607831954956054688e+00) (94, -4.56432294845581054688e+00) (95, -7.37061262130737304688e-01) (96, 1.01561546325683593750e+00) (97, -7.80649960041046142578e-01) (98, 1.11972892284393310547e+00) (99, -6.17569088935852050781e-01) (100, 4.23800200223922729492e-01) (101, 3.71344201266765594482e-02) (102, 3.64842683076858520508e-01) (103, 3.77163857221603393555e-01) (104, 2.11498832702636718750e+00) (105, 2.94323682785034179688e+00) (106, 4.66304905712604522705e-02) (107, -8.46679210662841796875e-02) (108, 2.90170717239379882812e+00) (109, 2.98385143280029296875e+00) (110, 3.00326395034790039062e+00) (111, -8.53371631819754838943e-04) (112, -7.07401633262634277344e-02) (113, 3.02607536315917968750e+00) (114, 3.05690145492553710938e+00) (115, 2.98012304306030273438e+00) (116, -8.42403843998908996582e-02) (117, -1.75102110952138900757e-02) (118, -8.06036740541458129883e-02) (119, -9.11853462457656860352e-02) (120, -2.70288474857807159424e-02) (121, -8.27904716134071350098e-02) (122, 2.94382238388061523438e+00) (0, -1.14541023969650268555e-01) (1, 1.81258562952280044556e-02) (2, -3.18528246879577636719e+00) (3, -3.39329290390014648438e+00) (4, -1.80427718162536621094e+00) (5, -6.34026050567626953125e+00) (6, 1.45609557628631591797e-01) (7, -2.50610220246016979218e-03) (8, 6.28936946392059326172e-01) (9, 2.66890436410903930664e-01) (10, 1.10106728971004486084e-01) (11, -4.86219853162765502930e-01) (12, -2.33019903302192687988e-01) (13, 7.22994506359100341797e-01) (14, 4.47536885738372802734e-01) (15, 4.38886404037475585938e-01) (16, 1.74499630928039550781e+00) (17, -7.09498906508088111877e-03) (18, 5.39927557110786437988e-03) (19, -3.18449759483337402344e+00) (20, -3.28041982650756835938e+00) (21, -1.69577002525329589844e+00) (22, -6.23508644104003906250e+00) (23, 1.78792253136634826660e-01) (24, 2.34908089041709899902e-02) (25, 6.40331983566284179688e-01) (26, 2.96795457601547241211e-01) (27, 2.40056455135345458984e-01) (28, -4.32556122541427612305e-01) (29, -1.27706900238990783691e-01) (30, 7.37658202648162841797e-01) (31, 5.95881819725036621094e-01) (32, 5.02983689308166503906e-01) (33, 1.73672366142272949219e+00) (34, -1.04069530963897705078e-01) (35, -5.47532178461551666260e-02) (36, -3.00727486610412597656e+00) (37, -3.35499382019042968750e+00) (38, -1.80473709106445312500e+00) (39, -6.38054370880126953125e+00) (40, 2.71767050027847290039e-01) (41, -9.24772694706916809082e-02) (42, 7.03995287418365478516e-01) (43, 3.86495918035507202148e-01) (44, 1.94018170237541198730e-01) (45, -4.03612762689590454102e-01) (46, -2.23743334412574768066e-01) (47, 8.44062149524688720703e-01) (48, 5.32270431518554687500e-01) (49, 5.94210326671600341797e-01) (50, 1.64392662048339843750e+00) (51, 1.03935005608946084976e-03) (52, 9.89985535852611064911e-04) (53, 9.58262830972671508789e-02) (54, 3.51848649978637695312e+00) (55, -6.90777823328971862793e-02) (56, 3.40074968338012695312e+00) (57, -9.87542327493429183960e-03) (58, 3.50227355957031250000e+00) (59, 3.34603643417358398438e+00) (60, 3.34420156478881835938e+00) (61, -3.69655452668666839600e-02) (62, -9.99662727117538452148e-02) (63, 7.16100959107279777527e-03) (64, 6.18409626185894012451e-02) (65, -4.81493957340717315674e-02) (66, -9.15762633085250854492e-02) (67, 4.52899001538753509521e-02) (68, 3.48861050605773925781e+00) (69, -1.42250224947929382324e-01) (70, 3.36400456726551055908e-02) (71, -3.05757832527160644531e+00) (72, -3.43085050582885742188e+00) (73, -1.68431830406188964844e+00) (74, -6.29781341552734375000e+00) (75, 2.14296072721481323242e-01) (76, -6.61958241835236549377e-03) (77, 7.20518290996551513672e-01) (78, 3.12685728073120117188e-01) (79, 1.24167345464229583740e-01) (80, -4.38518792390823364258e-01) (81, -1.23018115758895874023e-01) (82, 7.68166840076446533203e-01) (83, 4.49595868587493896484e-01) (84, 5.29363274574279785156e-01) (85, 1.74768352508544921875e+00) (86, 3.40384387969970703125e+00) (87, 9.00999531149864196777e-02) (88, 4.40185256302356719971e-02) (89, -1.15129947662353515625e-01) (90, -3.18721270561218261719e+00) (91, -3.44702863693237304688e+00) (92, -1.70601344108581542969e+00) (93, -6.42135810852050781250e+00) (94, 2.12574988603591918945e-01) (95, -4.07059155404567718506e-02) (96, 6.23422682285308837891e-01) (97, 3.19606363773345947266e-01) (98, 1.12382493913173675537e-01) (99, -5.67144274711608886719e-01) (100, -1.08467549085617065430e-01) (101, 6.45014941692352294922e-01) (102, 5.53136527538299560547e-01) (103, 5.75731158256530761719e-01) (104, 1.76425051689147949219e+00) (105, 3.40357828140258789062e+00) (106, -1.13157099112868309021e-02) (107, -7.38225653767585754395e-02) (108, 3.35608148574829101562e+00) (109, 3.34144210815429687500e+00) (110, 3.38163948059082031250e+00) (111, 6.27744197845458984375e-02) (112, 3.49563471972942352295e-02) (113, 3.50550842285156250000e+00) (114, 3.33570623397827148438e+00) (115, 3.38954162597656250000e+00) (116, -1.73291508108377456665e-02) (117, -2.56937872618436813354e-02) (118, -5.29766753315925598145e-02) (119, -1.74377858638763427734e-02) (120, 1.52023313567042350769e-02) (121, -4.94659952819347381592e-02) (122, 3.34344005584716796875e+00) (0, 1.29103338718414306641e+00) (1, -1.98953524231910705566e-01) (2, -3.40595960617065429688e+00) (3, -5.13745605945587158203e-01) (4, 3.36070865392684936523e-01) (5, -2.01249316334724426270e-01) (6, -9.77161884307861328125e-01) (7, -1.36802077293395996094e+00) (8, -4.89583104848861694336e-01) (9, 2.98429459333419799805e-01) (10, 1.72380253672599792480e-01) (11, 2.18130409717559814453e-01) (12, 3.72130900621414184570e-01) (13, 1.09432947635650634766e+00) (14, 1.98227956891059875488e-01) (15, 1.03730714321136474609e+00) (16, 8.43362390995025634766e-01) (17, 1.41812622547149658203e+00) (18, -1.54818594455718994141e-01) (19, -3.29734468460083007812e+00) (20, -5.17484605312347412109e-01) (21, 2.97712475061416625977e-01) (22, -2.16610386967658996582e-01) (23, -9.35010671615600585938e-01) (24, -1.33443617820739746094e+00) (25, -3.71324092149734497070e-01) (26, 3.86882156133651733398e-01) (27, 1.44671007990837097168e-01) (28, 2.83180296421051025391e-01) (29, 3.84790271520614624023e-01) (30, 1.08967125415802001953e+00) (31, 1.93798556923866271973e-01) (32, 1.07786858081817626953e+00) (33, 8.27899515628814697266e-01) (34, 1.28979218006134033203e+00) (35, -5.37551604211330413818e-02) (36, -3.33587646484375000000e+00) (37, -4.84757870435714721680e-01) (38, 3.46020370721817016602e-01) (39, -1.77820280194282531738e-01) (40, -1.06291139125823974609e+00) (41, -1.30472612380981445312e+00) (42, -5.58260798454284667969e-01) (43, 2.35346525907516479492e-01) (44, 2.26798623800277709961e-01) (45, 3.18614006042480468750e-01) (46, 4.31810647249221801758e-01) (47, 1.03631770610809326172e+00) (48, 1.56340256333351135254e-01) (49, 1.16905272006988525391e+00) (50, 8.83155882358551025391e-01) (51, 7.67170190811157226562e-02) (52, -4.79475967586040496826e-02) (53, 2.26317998021841049194e-02) (54, 2.11507868766784667969e+00) (55, -9.41642224788665771484e-02) (56, 2.12153005599975585938e+00) (57, -2.98261638818075880408e-05) (58, 2.04245305061340332031e+00) (59, 2.03541731834411621094e+00) (60, 2.13588690757751464844e+00) (61, 7.25554153323173522949e-02) (62, 6.81261047720909118652e-02) (63, -7.46069326996803283691e-02) (64, 1.55851608142256736755e-02) (65, 8.60180258750915527344e-02) (66, -7.53828659653663635254e-02) (67, 9.83216091990470886230e-02) (68, 2.10066843032836914062e+00) (69, 1.41593158245086669922e+00) (70, -9.15323644876480102539e-02) (71, -3.30820226669311523438e+00) (72, -4.71081107854843139648e-01) (73, 3.99928480386734008789e-01) (74, -1.97001859545707702637e-01) (75, -1.02724683284759521484e+00) (76, -1.36560201644897460938e+00) (77, -5.43438613414764404297e-01) (78, 3.24831217527389526367e-01) (79, 1.26477316021919250488e-01) (80, 1.77048116922378540039e-01) (81, 4.70391184091567993164e-01) (82, 1.15415704250335693359e+00) (83, 1.20500877499580383301e-01) (84, 1.03211700916290283203e+00) (85, 7.94562280178070068359e-01) (86, 2.06576776504516601562e+00) (87, 6.52812123298645019531e-02) (88, 1.28156316280364990234e+00) (89, -1.45324677228927612305e-01) (90, -3.41819572448730468750e+00) (91, -4.53309088945388793945e-01) (92, 3.06848376989364624023e-01) (93, -1.72409042716026306152e-01) (94, -9.02423977851867675781e-01) (95, -1.29238438606262207031e+00) (96, -4.15415614843368530273e-01) (97, 3.97058993577957153320e-01) (98, 3.02378684282302856445e-01) (99, 2.23822668194770812988e-01) (100, 4.88333374261856079102e-01) (101, 1.11491048336029052734e+00) (102, 2.25620314478874206543e-01) (103, 1.05500829219818115234e+00) (104, 8.13811600208282470703e-01) (105, 2.10905146598815917969e+00) (106, 1.29502890631556510925e-02) (107, -4.84403371810913085938e-02) (108, 2.13573336601257324219e+00) (109, 2.03630685806274414062e+00) (110, 2.06995677947998046875e+00) (111, 4.31140549480915069580e-02) (112, 5.73952794075012207031e-02) (113, 2.06481814384460449219e+00) (114, 2.00315928459167480469e+00) (115, 2.00176596641540527344e+00) (116, 7.42561146616935729980e-02) (117, -3.16950269043445587158e-02) (118, 6.66736885905265808105e-02) (119, 8.39187428355216979980e-02) (120, 7.59996920824050903320e-02) (121, 6.70935139060020446777e-02) (122, 2.03994750976562500000e+00) (0, -1.91467976570129394531e+00) (1, -4.76963424682617187500e+00) (2, -6.81265020370483398438e+00) (3, -3.33922147750854492188e+00) (4, -7.16257214546203613281e-01) (5, 3.92344951629638671875e+00) (6, 2.70887327194213867188e+00) (7, -7.46009445190429687500e+00) (8, 9.76897895336151123047e-01) (9, -3.97530168294906616211e-01) (10, 1.66097849607467651367e-01) (11, 7.18137741088867187500e-01) (12, 1.53707814216613769531e+00) (13, 1.43415510654449462891e+00) (14, -3.82861286401748657227e-01) (15, 8.90155196189880371094e-01) (16, 2.63919353485107421875e+00) (17, -1.92046856880187988281e+00) (18, -4.85322761535644531250e+00) (19, -6.81567239761352539062e+00) (20, -3.38345813751220703125e+00) (21, -6.89835548400878906250e-01) (22, 3.92790412902832031250e+00) (23, 2.67188310623168945312e+00) (24, -7.51385784149169921875e+00) (25, 1.11016523838043212891e+00) (26, -2.23375901579856872559e-01) (27, 1.31410181522369384766e-01) (28, 7.60650873184204101562e-01) (29, 1.54929113388061523438e+00) (30, 1.41988384723663330078e+00) (31, -3.97050946950912475586e-01) (32, 7.86465167999267578125e-01) (33, 2.58935451507568359375e+00) (34, -1.91859936714172363281e+00) (35, -4.73641586303710937500e+00) (36, -6.71338987350463867188e+00) (37, -3.29273223876953125000e+00) (38, -6.92958474159240722656e-01) (39, 3.86201095581054687500e+00) (40, 2.76304817199707031250e+00) (41, -7.58174133300781250000e+00) (42, 1.07743489742279052734e+00) (43, -3.68151813745498657227e-01) (44, 9.79287847876548767090e-02) (45, 7.66344666481018066406e-01) (46, 1.41990303993225097656e+00) (47, 1.61092174053192138672e+00) (48, -3.97144883871078491211e-01) (49, 7.73452281951904296875e-01) (50, 2.57738733291625976562e+00) (51, -9.19907316565513610840e-02) (52, 8.22676643729209899902e-02) (53, 9.16685461997985839844e-02) (54, 3.63402628898620605469e+00) (55, -2.68521737307310104370e-02) (56, 3.77642798423767089844e+00) (57, 9.31833609938621520996e-02) (58, 3.76470971107482910156e+00) (59, 3.72042489051818847656e+00) (60, 3.75296378135681152344e+00) (61, 5.19693866372108459473e-02) (62, 3.90567793510854244232e-03) (63, -8.51423963904380798340e-02) (64, -4.40861061215400695801e-02) (65, 5.62362559139728546143e-02) (66, 8.37178602814674377441e-02) (67, -4.49044965207576751709e-02) (68, 3.67176556587219238281e+00) (69, -1.87368369102478027344e+00) (70, -4.81641483306884765625e+00) (71, -6.75733327865600585938e+00) (72, -3.27108669281005859375e+00) (73, -7.82346367835998535156e-01) (74, 4.01444959640502929688e+00) (75, 2.82412004470825195312e+00) (76, -7.43092250823974609375e+00) (77, 9.42366540431976318359e-01) (78, -2.42712602019309997559e-01) (79, 2.30532288551330566406e-01) (80, 6.82346582412719726562e-01) (81, 1.45487952232360839844e+00) (82, 1.59781873226165771484e+00) (83, -3.49329203367233276367e-01) (84, 7.48044490814208984375e-01) (85, 2.68464517593383789062e+00) (86, 3.73786950111389160156e+00) (87, 9.98992472887039184570e-02) (88, -1.77843999862670898438e+00) (89, -4.83623695373535156250e+00) (90, -6.80901288986206054688e+00) (91, -3.26268386840820312500e+00) (92, -7.85451292991638183594e-01) (93, 3.83570671081542968750e+00) (94, 2.80608749389648437500e+00) (95, -7.52780246734619140625e+00) (96, 1.10587251186370849609e+00) (97, -2.72163093090057373047e-01) (98, 1.88623100519180297852e-01) (99, 6.35169267654418945312e-01) (100, 1.43073534965515136719e+00) (101, 1.43675720691680908203e+00) (102, -2.23453789949417114258e-01) (103, 