FANN_FLO_2.1
num_layers=3
learning_rate=0.698605
connection_rate=1.000000
network_type=0
learning_momentum=0.000000
training_algorithm=0
train_error_function=1
train_stop_function=0
cascade_output_change_fraction=0.010000
quickprop_decay=-0.000100
quickprop_mu=1.750000
rprop_increase_factor=1.200000
rprop_decrease_factor=0.500000
rprop_delta_min=0.000000
rprop_delta_max=50.000000
rprop_delta_zero=0.100000
cascade_output_stagnation_epochs=12
cascade_candidate_change_fraction=0.010000
cascade_candidate_stagnation_epochs=12
cascade_max_out_epochs=150
cascade_min_out_epochs=50
cascade_max_cand_epochs=150
cascade_min_cand_epochs=50
cascade_num_candidate_groups=2
bit_fail_limit=3.49999994039535522461e-01
cascade_candidate_limit=1.00000000000000000000e+03
cascade_weight_multiplier=4.00000005960464477539e-01
cascade_activation_functions_count=10
cascade_activation_functions=3 5 7 8 10 11 14 15 16 17 
cascade_activation_steepnesses_count=120
cascade_activation_steepnesses=0.00000000000000000000e+00 0.00000000000000000000e+00 0.00000000000000000000e+00 1.60000000000000000000e+01 6.08200000000000000000e+03 6.08300000000000000000e+03 6.08400000000000000000e+03 6.08500000000000000000e+03 6.08600000000000000000e+03 6.08700000000000000000e+03 6.08800000000000000000e+03 6.08900000000000000000e+03 6.09000000000000000000e+03 6.09100000000000000000e+03 6.09200000000000000000e+03 6.09300000000000000000e+03 6.09400000000000000000e+03 6.09500000000000000000e+03 6.09600000000000000000e+03 6.09700000000000000000e+03 0.00000000000000000000e+00 0.00000000000000000000e+00 9.60000000000000000000e+01 1.07526600000000000000e+06 1.07526700000000000000e+06 1.07526800000000000000e+06 1.07526900000000000000e+06 1.07527000000000000000e+06 1.07527100000000000000e+06 1.07527200000000000000e+06 1.07527300000000000000e+06 1.07527400000000000000e+06 1.07527500000000000000e+06 1.07527600000000000000e+06 1.07527700000000000000e+06 1.07527800000000000000e+06 1.07527900000000000000e+06 1.07528000000000000000e+06 1.07528100000000000000e+06 1.07552200000000000000e+06 1.07552300000000000000e+06 1.07552400000000000000e+06 1.07552500000000000000e+06 1.07552600000000000000e+06 1.07552700000000000000e+06 1.07552800000000000000e+06 1.07552900000000000000e+06 1.07553000000000000000e+06 1.07553100000000000000e+06 1.07553200000000000000e+06 1.07553300000000000000e+06 1.07553400000000000000e+06 1.07553500000000000000e+06 1.07553600000000000000e+06 1.07553700000000000000e+06 1.07565000000000000000e+06 1.07565100000000000000e+06 1.07565200000000000000e+06 1.07565300000000000000e+06 1.07565400000000000000e+06 1.07565500000000000000e+06 1.07565600000000000000e+06 1.07565700000000000000e+06 1.07565800000000000000e+06 1.07565900000000000000e+06 1.07566000000000000000e+06 1.07566100000000000000e+06 1.07566200000000000000e+06 1.07566300000000000000e+06 1.07566400000000000000e+06 1.07566500000000000000e+06 1.07590600000000000000e+06 1.07590700000000000000e+06 1.07590800000000000000e+06 1.07590900000000000000e+06 1.07591000000000000000e+06 1.07591100000000000000e+06 1.07591200000000000000e+06 1.07591300000000000000e+06 1.07591400000000000000e+06 1.07591500000000000000e+06 1.07591600000000000000e+06 1.07591700000000000000e+06 1.07591800000000000000e+06 1.07591900000000000000e+06 1.07592000000000000000e+06 1.07592100000000000000e+06 1.07629000000000000000e+06 1.07629100000000000000e+06 1.07629200000000000000e+06 1.07629300000000000000e+06 1.07629400000000000000e+06 1.07629500000000000000e+06 1.07629600000000000000e+06 1.07629700000000000000e+06 1.07629800000000000000e+06 1.07629900000000000000e+06 1.07630000000000000000e+06 1.07630100000000000000e+06 1.07630200000000000000e+06 1.07630300000000000000e+06 1.07630400000000000000e+06 1.07630500000000000000e+06 1.07667400000000000000e+06 1.07667500000000000000e+06 1.07667600000000000000e+06 1.07667700000000000000e+06 1.07667800000000000000e+06 1.07667900000000000000e+06 1.07668000000000000000e+06 1.07668100000000000000e+06 1.07668200000000000000e+06 1.07668300000000000000e+06 1.07668400000000000000e+06 1.07668500000000000000e+06 1.07668600000000000000e+06 1.07668700000000000000e+06 1.07668800000000000000e+06 1.07668900000000000000e+06 0.00000000000000000000e+00 
layer_sizes=113 113 113 
scale_included=0
neurons (num_inputs, activation_function, activation_steepness)=(0, 0, 0.00000000000000000000e+00) (0, 0, 0.00000000000000000000e+00) (0, 0, 0.00000000000000000000e+00) (0, 0, 0.00000000000000000000e+00) (0, 0, 0.00000000000000000000e+00) (0, 0, 0.00000000000000000000e+00) (0, 0, 0.00000000000000000000e+00) (0, 0, 0.00000000000000000000e+00) (0, 0, 0.00000000000000000000e+00) (0, 0, 0.00000000000000000000e+00) (0, 0, 0.00000000000000000000e+00) (0, 0, 0.00000000000000000000e+00) (0, 0, 0.00000000000000000000e+00) (0, 0, 0.00000000000000000000e+00) (0, 0, 0.00000000000000000000e+00) (0, 0, 0.00000000000000000000e+00) (0, 0, 0.00000000000000000000e+00) (0, 0, 0.00000000000000000000e+00) (0, 0, 0.00000000000000000000e+00) (0, 0, 0.00000000000000000000e+00) (0, 0, 0.00000000000000000000e+00) (0, 0, 0.00000000000000000000e+00) (0, 0, 0.00000000000000000000e+00) (0, 0, 0.00000000000000000000e+00) (0, 0, 0.00000000000000000000e+00) (0, 0, 0.00000000000000000000e+00) (0, 0, 0.00000000000000000000e+00) (0, 0, 0.00000000000000000000e+00) (0, 0, 0.00000000000000000000e+00) (0, 0, 0.00000000000000000000e+00) (0, 0, 0.00000000000000000000e+00) (0, 0, 0.00000000000000000000e+00) (0, 0, 0.00000000000000000000e+00) (0, 0, 0.00000000000000000000e+00) (0, 0, 0.00000000000000000000e+00) (0, 0, 0.00000000000000000000e+00) (0, 0, 0.00000000000000000000e+00) (0, 0, 0.00000000000000000000e+00) (0, 0, 0.00000000000000000000e+00) (0, 0, 0.00000000000000000000e+00) (0, 0, 0.00000000000000000000e+00) (0, 0, 0.00000000000000000000e+00) (0, 0, 0.00000000000000000000e+00) (0, 0, 0.00000000000000000000e+00) (0, 0, 0.00000000000000000000e+00) (0, 0, 0.00000000000000000000e+00) (0, 0, 0.00000000000000000000e+00) (0, 0, 0.00000000000000000000e+00) (0, 0, 0.00000000000000000000e+00) (0, 0, 0.00000000000000000000e+00) (0, 0, 0.00000000000000000000e+00) (0, 0, 0.00000000000000000000e+00) (0, 0, 0.00000000000000000000e+00) (0, 0, 0.00000000000000000000e+00) (0, 0, 0.00000000000000000000e+00) (0, 0, 0.00000000000000000000e+00) (0, 0, 0.00000000000000000000e+00) (0, 0, 0.00000000000000000000e+00) (0, 0, 0.00000000000000000000e+00) (0, 0, 0.00000000000000000000e+00) (0, 0, 0.00000000000000000000e+00) (0, 0, 0.00000000000000000000e+00) (0, 0, 0.00000000000000000000e+00) (0, 0, 0.00000000000000000000e+00) (0, 0, 0.00000000000000000000e+00) (0, 0, 0.00000000000000000000e+00) (0, 0, 0.00000000000000000000e+00) (0, 0, 0.00000000000000000000e+00) (0, 0, 0.00000000000000000000e+00) (0, 0, 0.00000000000000000000e+00) (0, 0, 0.00000000000000000000e+00) (0, 0, 0.00000000000000000000e+00) (0, 0, 0.00000000000000000000e+00) (0, 0, 0.00000000000000000000e+00) (0, 0, 0.00000000000000000000e+00) (0, 0, 0.00000000000000000000e+00) (0, 0, 0.00000000000000000000e+00) (0, 0, 0.00000000000000000000e+00) (0, 0, 0.00000000000000000000e+00) (0, 0, 0.00000000000000000000e+00) (0, 0, 0.00000000000000000000e+00) (0, 0, 0.00000000000000000000e+00) (0, 0, 0.00000000000000000000e+00) (0, 0, 0.00000000000000000000e+00) (0, 0, 0.00000000000000000000e+00) (0, 0, 0.00000000000000000000e+00) (0, 0, 0.00000000000000000000e+00) (0, 0, 0.00000000000000000000e+00) (0, 0, 0.00000000000000000000e+00) (0, 0, 0.00000000000000000000e+00) (0, 0, 0.00000000000000000000e+00) (0, 0, 0.00000000000000000000e+00) (0, 0, 0.00000000000000000000e+00) (0, 0, 0.00000000000000000000e+00) (0, 0, 0.00000000000000000000e+00) (0, 0, 0.00000000000000000000e+00) (0, 0, 0.00000000000000000000e+00) (0, 0, 0.00000000000000000000e+00) (0, 0, 0.00000000000000000000e+00) (0, 0, 0.00000000000000000000e+00) (0, 0, 0.00000000000000000000e+00) (0, 0, 0.00000000000000000000e+00) (0, 0, 0.00000000000000000000e+00) (0, 0, 0.00000000000000000000e+00) (0, 0, 0.00000000000000000000e+00) (0, 0, 0.00000000000000000000e+00) (0, 0, 0.00000000000000000000e+00) (0, 0, 0.00000000000000000000e+00) (0, 0, 0.00000000000000000000e+00) (0, 0, 0.00000000000000000000e+00) (0, 0, 0.00000000000000000000e+00) (0, 0, 0.00000000000000000000e+00) (0, 0, 0.00000000000000000000e+00) (113, 5, 5.00000000000000000000e-01) (113, 5, 5.00000000000000000000e-01) (113, 5, 5.00000000000000000000e-01) (113, 5, 5.00000000000000000000e-01) (113, 5, 5.00000000000000000000e-01) (113, 5, 5.00000000000000000000e-01) (113, 5, 5.00000000000000000000e-01) (113, 5, 5.00000000000000000000e-01) (113, 5, 5.00000000000000000000e-01) (113, 5, 5.00000000000000000000e-01) (113, 5, 5.00000000000000000000e-01) (113, 5, 5.00000000000000000000e-01) (113, 5, 5.00000000000000000000e-01) (113, 5, 5.00000000000000000000e-01) (113, 5, 5.00000000000000000000e-01) (113, 5, 5.00000000000000000000e-01) (113, 5, 5.00000000000000000000e-01) (113, 5, 5.00000000000000000000e-01) (113, 5, 5.00000000000000000000e-01) (113, 5, 5.00000000000000000000e-01) (113, 5, 5.00000000000000000000e-01) (113, 5, 5.00000000000000000000e-01) (113, 5, 5.00000000000000000000e-01) (113, 5, 5.00000000000000000000e-01) (113, 5, 5.00000000000000000000e-01) (113, 5, 5.00000000000000000000e-01) (113, 5, 5.00000000000000000000e-01) (113, 5, 5.00000000000000000000e-01) (113, 5, 5.00000000000000000000e-01) (113, 5, 5.00000000000000000000e-01) (113, 5, 5.00000000000000000000e-01) (113, 5, 5.00000000000000000000e-01) (113, 5, 5.00000000000000000000e-01) (113, 5, 5.00000000000000000000e-01) (113, 5, 5.00000000000000000000e-01) (113, 5, 5.00000000000000000000e-01) (113, 5, 5.00000000000000000000e-01) (113, 5, 5.00000000000000000000e-01) (113, 5, 5.00000000000000000000e-01) (113, 5, 5.00000000000000000000e-01) (113, 5, 5.00000000000000000000e-01) (113, 5, 5.00000000000000000000e-01) (113, 5, 5.00000000000000000000e-01) (113, 5, 5.00000000000000000000e-01) (113, 5, 5.00000000000000000000e-01) (113, 5, 5.00000000000000000000e-01) (113, 5, 5.00000000000000000000e-01) (113, 5, 5.00000000000000000000e-01) (113, 5, 5.00000000000000000000e-01) (113, 5, 5.00000000000000000000e-01) (113, 5, 5.00000000000000000000e-01) (113, 5, 5.00000000000000000000e-01) (113, 5, 5.00000000000000000000e-01) (113, 5, 5.00000000000000000000e-01) (113, 5, 5.00000000000000000000e-01) (113, 5, 5.00000000000000000000e-01) (113, 5, 5.00000000000000000000e-01) (113, 5, 5.00000000000000000000e-01) (113, 5, 5.00000000000000000000e-01) (113, 5, 5.00000000000000000000e-01) (113, 5, 5.00000000000000000000e-01) (113, 5, 5.00000000000000000000e-01) (113, 5, 5.00000000000000000000e-01) (113, 5, 5.00000000000000000000e-01) (113, 5, 5.00000000000000000000e-01) (113, 5, 5.00000000000000000000e-01) (113, 5, 5.00000000000000000000e-01) (113, 5, 5.00000000000000000000e-01) (113, 5, 5.00000000000000000000e-01) (113, 5, 5.00000000000000000000e-01) (113, 5, 5.00000000000000000000e-01) (113, 5, 5.00000000000000000000e-01) (113, 5, 5.00000000000000000000e-01) (113, 5, 5.00000000000000000000e-01) (113, 5, 5.00000000000000000000e-01) (113, 5, 5.00000000000000000000e-01) (113, 5, 5.00000000000000000000e-01) (113, 5, 5.00000000000000000000e-01) (113, 5, 5.00000000000000000000e-01) (113, 5, 5.00000000000000000000e-01) (113, 5, 5.00000000000000000000e-01) (113, 5, 5.00000000000000000000e-01) (113, 5, 5.00000000000000000000e-01) (113, 5, 5.00000000000000000000e-01) (113, 5, 5.00000000000000000000e-01) (113, 5, 5.00000000000000000000e-01) (113, 5, 5.00000000000000000000e-01) (113, 5, 5.00000000000000000000e-01) (113, 5, 5.00000000000000000000e-01) (113, 5, 5.00000000000000000000e-01) (113, 5, 5.00000000000000000000e-01) (113, 5, 5.00000000000000000000e-01) (113, 5, 5.00000000000000000000e-01) (113, 5, 5.00000000000000000000e-01) (113, 5, 5.00000000000000000000e-01) (113, 5, 5.00000000000000000000e-01) (113, 5, 5.00000000000000000000e-01) (113, 5, 5.00000000000000000000e-01) (113, 5, 5.00000000000000000000e-01) (113, 5, 5.00000000000000000000e-01) (113, 5, 5.00000000000000000000e-01) (113, 5, 5.00000000000000000000e-01) (113, 5, 5.00000000000000000000e-01) (113, 5, 5.00000000000000000000e-01) (113, 5, 5.00000000000000000000e-01) (113, 5, 5.00000000000000000000e-01) (113, 5, 5.00000000000000000000e-01) (113, 5, 5.00000000000000000000e-01) (113, 5, 5.00000000000000000000e-01) (113, 5, 5.00000000000000000000e-01) (113, 5, 5.00000000000000000000e-01) (113, 5, 5.00000000000000000000e-01) (0, 5, 0.00000000000000000000e+00) (113, 3, 5.00000000000000000000e-01) (113, 3, 5.00000000000000000000e-01) (113, 3, 5.00000000000000000000e-01) (113, 3, 5.00000000000000000000e-01) (113, 3, 5.00000000000000000000e-01) (113, 3, 5.00000000000000000000e-01) (113, 3, 5.00000000000000000000e-01) (113, 3, 5.00000000000000000000e-01) (113, 3, 5.00000000000000000000e-01) (113, 3, 5.00000000000000000000e-01) (113, 3, 5.00000000000000000000e-01) (113, 3, 5.00000000000000000000e-01) (113, 3, 5.00000000000000000000e-01) (113, 3, 5.00000000000000000000e-01) (113, 3, 5.00000000000000000000e-01) (113, 3, 5.00000000000000000000e-01) (113, 3, 5.00000000000000000000e-01) (113, 3, 5.00000000000000000000e-01) (113, 3, 5.00000000000000000000e-01) (113, 3, 5.00000000000000000000e-01) (113, 3, 5.00000000000000000000e-01) (113, 3, 5.00000000000000000000e-01) (113, 3, 5.00000000000000000000e-01) (113, 3, 5.00000000000000000000e-01) (113, 3, 5.00000000000000000000e-01) (113, 3, 5.00000000000000000000e-01) (113, 3, 5.00000000000000000000e-01) (113, 3, 5.00000000000000000000e-01) (113, 3, 5.00000000000000000000e-01) (113, 3, 5.00000000000000000000e-01) (113, 3, 5.00000000000000000000e-01) (113, 3, 5.00000000000000000000e-01) (113, 3, 5.00000000000000000000e-01) (113, 3, 5.00000000000000000000e-01) (113, 3, 5.00000000000000000000e-01) (113, 3, 5.00000000000000000000e-01) (113, 3, 5.00000000000000000000e-01) (113, 3, 5.00000000000000000000e-01) (113, 3, 5.00000000000000000000e-01) (113, 3, 5.00000000000000000000e-01) (113, 3, 5.00000000000000000000e-01) (113, 3, 5.00000000000000000000e-01) (113, 3, 5.00000000000000000000e-01) (113, 3, 5.00000000000000000000e-01) (113, 3, 5.00000000000000000000e-01) (113, 3, 5.00000000000000000000e-01) (113, 3, 5.00000000000000000000e-01) (113, 3, 5.00000000000000000000e-01) (113, 3, 5.00000000000000000000e-01) (113, 3, 5.00000000000000000000e-01) (113, 3, 5.00000000000000000000e-01) (113, 3, 5.00000000000000000000e-01) (113, 3, 5.00000000000000000000e-01) (113, 3, 5.00000000000000000000e-01) (113, 3, 5.00000000000000000000e-01) (113, 3, 5.00000000000000000000e-01) (113, 3, 5.00000000000000000000e-01) (113, 3, 5.00000000000000000000e-01) (113, 3, 5.00000000000000000000e-01) (113, 3, 5.00000000000000000000e-01) (113, 3, 5.00000000000000000000e-01) (113, 3, 5.00000000000000000000e-01) (113, 3, 5.00000000000000000000e-01) (113, 3, 5.00000000000000000000e-01) (113, 3, 5.00000000000000000000e-01) (113, 3, 5.00000000000000000000e-01) (113, 3, 5.00000000000000000000e-01) (113, 3, 5.00000000000000000000e-01) (113, 3, 5.00000000000000000000e-01) (113, 3, 5.00000000000000000000e-01) (113, 3, 5.00000000000000000000e-01) (113, 3, 5.00000000000000000000e-01) (113, 3, 5.00000000000000000000e-01) (113, 3, 5.00000000000000000000e-01) (113, 3, 5.00000000000000000000e-01) (113, 3, 5.00000000000000000000e-01) (113, 3, 5.00000000000000000000e-01) (113, 3, 5.00000000000000000000e-01) (113, 3, 5.00000000000000000000e-01) (113, 3, 5.00000000000000000000e-01) (113, 3, 5.00000000000000000000e-01) (113, 3, 5.00000000000000000000e-01) (113, 3, 5.00000000000000000000e-01) (113, 3, 5.00000000000000000000e-01) (113, 3, 5.00000000000000000000e-01) (113, 3, 5.00000000000000000000e-01) (113, 3, 5.00000000000000000000e-01) (113, 3, 5.00000000000000000000e-01) (113, 3, 5.00000000000000000000e-01) (113, 3, 5.00000000000000000000e-01) (113, 3, 5.00000000000000000000e-01) (113, 3, 5.00000000000000000000e-01) (113, 3, 5.00000000000000000000e-01) (113, 3, 5.00000000000000000000e-01) (113, 3, 5.00000000000000000000e-01) (113, 3, 5.00000000000000000000e-01) (113, 3, 5.00000000000000000000e-01) (113, 3, 5.00000000000000000000e-01) (113, 3, 5.00000000000000000000e-01) (113, 3, 5.00000000000000000000e-01) (113, 3, 5.00000000000000000000e-01) (113, 3, 5.00000000000000000000e-01) (113, 3, 5.00000000000000000000e-01) (113, 3, 5.00000000000000000000e-01) (113, 3, 5.00000000000000000000e-01) (113, 3, 5.00000000000000000000e-01) (113, 3, 5.00000000000000000000e-01) (113, 3, 5.00000000000000000000e-01) (113, 3, 5.00000000000000000000e-01) (113, 3, 5.00000000000000000000e-01) (113, 3, 5.00000000000000000000e-01) (113, 3, 5.00000000000000000000e-01) (0, 3, 0.00000000000000000000e+00) 
connections (connected_to_neuron, weight)=(0, 1.61740052700042724609e+00) (1, 6.53188347816467285156e-01) (2, 1.93884104490280151367e-01) (3, -2.01397967338562011719e+00) (4, -6.21654927730560302734e-01) (5, -1.03544883430004119873e-01) (6, -9.62624177336692810059e-02) (7, 7.66339659690856933594e-01) (8, 8.74035730957984924316e-02) (9, 2.69812077283859252930e-01) (10, 7.18363165855407714844e-01) (11, 3.53869318962097167969e-01) (12, -8.89704748988151550293e-02) (13, -7.76515230536460876465e-02) (14, -9.47095900774002075195e-02) (15, 7.11720645427703857422e-01) (16, 1.59713089466094970703e+00) (17, 5.82839727401733398438e-01) (18, 2.50724822282791137695e-01) (19, -1.99299871921539306641e+00) (20, -7.35842049121856689453e-01) (21, -8.69459435343742370605e-02) (22, -1.26891925930976867676e-01) (23, 7.68010377883911132812e-01) (24, -4.27770335227251052856e-03) (25, 2.17109039425849914551e-01) (26, 7.67974138259887695312e-01) (27, 3.19031417369842529297e-01) (28, -6.34201616048812866211e-02) (29, -1.17338150739669799805e-02) (30, -1.27014651894569396973e-01) (31, 6.13580882549285888672e-01) (32, 1.54601013660430908203e+00) (33, 6.36400461196899414062e-01) (34, 2.20410034060478210449e-01) (35, -2.04390931129455566406e+00) (36, -5.92051029205322265625e-01) (37, -6.77433535456657409668e-02) (38, 4.73699234426021575928e-02) (39, 7.67289400100708007812e-01) (40, 9.46008041501045227051e-02) (41, 3.90150874853134155273e-01) (42, 8.16832900047302246094e-01) (43, 2.86594718694686889648e-01) (44, -1.10655941069126129150e-01) (45, 8.96868109703063964844e-03) (46, -1.44007712602615356445e-01) (47, 7.46075570583343505859e-01) (48, -8.87774303555488586426e-02) (49, 3.58820930123329162598e-02) (50, 5.52551984786987304688e-01) (51, -4.84866462647914886475e-02) (52, 5.49810349941253662109e-01) (53, -5.33053763210773468018e-02) (54, 5.24805843830108642578e-01) (55, 6.37336730957031250000e-01) (56, 5.65829515457153320312e-01) (57, -2.96567436307668685913e-02) (58, -6.63942396640777587891e-02) (59, 6.88070654869079589844e-02) (60, -8.16102698445320129395e-02) (61, -3.36286090314388275146e-02) (62, -8.66742432117462158203e-02) (63, -2.07414627075195312500e-02) (64, 6.24057538807392120361e-02) (65, 6.12402379512786865234e-01) (66, 6.03887140750885009766e-01) (67, 6.55769288539886474609e-01) (68, -7.30306580662727355957e-02) (69, -2.77083162218332290649e-02) (70, 6.19058847427368164062e-01) (71, -8.66256505250930786133e-02) (72, 5.64468622207641601562e-01) (73, -8.65448042750358581543e-02) (74, -1.35114733129739761353e-02) (75, 2.02103387564420700073e-02) (76, 8.22041556239128112793e-02) (77, 2.26111407391726970673e-03) (78, -2.77632474899291992188e-03) (79, 9.34267267584800720215e-02) (80, 1.52328455448150634766e+00) (81, 6.80859684944152832031e-01) (82, 1.75555497407913208008e-01) (83, -1.98058378696441650391e+00) (84, -5.88944435119628906250e-01) (85, -1.31128236651420593262e-01) (86, -1.23590074479579925537e-01) (87, 6.47735774517059326172e-01) (88, 3.90029698610305786133e-02) (89, 2.47588127851486206055e-01) (90, 7.25697576999664306641e-01) (91, 3.62677484750747680664e-01) (92, -6.89760670065879821777e-02) (93, -1.33911609649658203125e-01) (94, -1.31324827671051025391e-01) (95, 6.38171494007110595703e-01) (96, 2.89891492575407028198e-02) (97, 2.30606682598590850830e-02) (98, 5.24878799915313720703e-01) (99, 6.65240347385406494141e-01) (100, 7.04634249210357666016e-01) (101, 2.53737326711416244507e-02) (102, 6.93328380584716796875e-02) (103, 5.59821009635925292969e-01) (104, 6.48110806941986083984e-01) (105, 5.65103292465209960938e-01) (106, 7.07493349909782409668e-02) (107, 2.10330840200185775757e-02) (108, 5.80824874341487884521e-02) (109, -3.20269949734210968018e-02) (110, 1.44598009064793586731e-02) (111, 9.62256938219070434570e-02) (112, 5.17748713493347167969e-01) (0, -6.59549713134765625000e-01) (1, 4.49608951807022094727e-01) (2, -1.01177617907524108887e-01) (3, -8.52138638496398925781e-01) (4, 7.18732893466949462891e-01) (5, 1.18946504592895507812e+00) (6, 3.87815013527870178223e-03) (7, -3.03311556577682495117e-01) (8, -1.58886820077896118164e-01) (9, -9.83781814575195312500e-02) (10, 1.10855571925640106201e-01) (11, 5.92133924365043640137e-02) (12, 1.08554929494857788086e-01) (13, -6.98546320199966430664e-03) (14, -9.79626923799514770508e-02) (15, 1.29613131284713745117e-01) (16, -7.05584049224853515625e-01) (17, 5.37461757659912109375e-01) (18, -2.50096261501312255859e-01) (19, -8.33263158798217773438e-01) (20, 7.69192159175872802734e-01) (21, 1.24734961986541748047e+00) (22, 3.07753719389438629150e-02) (23, -2.37363204360008239746e-01) (24, -1.42795830965042114258e-01) (25, -9.96447503566741943359e-02) (26, 2.28182896971702575684e-01) (27, 1.17408685386180877686e-01) (28, -6.70728459954261779785e-03) (29, 3.74581664800643920898e-02) (30, 3.97101268172264099121e-02) (31, 2.50690102577209472656e-01) (32, -8.01839828491210937500e-01) (33, 5.14830946922302246094e-01) (34, -1.04507759213447570801e-01) (35, -7.73269057273864746094e-01) (36, 8.16619455814361572266e-01) (37, 1.29306995868682861328e+00) (38, -1.26103654503822326660e-01) (39, -3.93823534250259399414e-01) (40, -1.67956799268722534180e-01) (41, -1.48897349834442138672e-01) (42, 1.91442534327507019043e-01) (43, 1.52598127722740173340e-01) (44, 1.27349108457565307617e-01) (45, 1.12836463376879692078e-02) (46, -8.21830928325653076172e-02) (47, 1.38712197542190551758e-01) (48, -2.12120246142148971558e-02) (49, -3.06924171745777130127e-02) (50, 1.72697186470031738281e-01) (51, -8.91291201114654541016e-02) (52, 2.40057781338691711426e-01) (53, -2.32092924416065216064e-02) (54, 2.72249996662139892578e-01) (55, 1.08082503080368041992e-01) (56, 2.48866870999336242676e-01) (57, 4.47618961334228515625e-02) (58, 7.06054344773292541504e-02) (59, 8.84531959891319274902e-02) (60, -1.30256656557321548462e-02) (61, 1.50698190554976463318e-02) (62, 6.09142296016216278076e-02) (63, 4.08401479944586753845e-03) (64, -4.48108278214931488037e-02) (65, 2.26713851094245910645e-01) (66, 7.62921571731567382812e-02) (67, 1.08174115419387817383e-01) (68, -3.76508245244622230530e-03) (69, -7.64933750033378601074e-02) (70, 1.39618068933486938477e-01) (71, 3.90986800193786621094e-02) (72, 1.46330147981643676758e-01) (73, 7.53895863890647888184e-02) (74, 1.02858189493417739868e-02) (75, -8.00271481275558471680e-02) (76, -8.57250113040208816528e-03) (77, 3.28569896519184112549e-02) (78, -1.95440296083688735962e-02) (79, 7.02154785394668579102e-02) (80, -8.16784858703613281250e-01) (81, 5.54390072822570800781e-01) (82, -1.15746214985847473145e-01) (83, -7.03254818916320800781e-01) (84, 6.93578302860260009766e-01) (85, 1.32993578910827636719e+00) (86, -1.43437668681144714355e-01) (87, -3.93406242132186889648e-01) (88, -8.61971601843833923340e-02) (89, -2.42854282259941101074e-02) (90, 1.02510482072830200195e-01) (91, -6.99132680892944335938e-03) (92, 6.92620873451232910156e-02) (93, 7.64743462204933166504e-02) (94, 1.09274862334132194519e-02) (95, 2.22448721528053283691e-01) (96, 3.44676859676837921143e-02) (97, 1.84991359710693359375e-02) (98, 2.52393782138824462891e-01) (99, 1.04177355766296386719e-01) (100, 2.15480521321296691895e-01) (101, -5.49377240240573883057e-02) (102, 6.98012858629226684570e-02) (103, 8.83358716964721679688e-02) (104, 9.39266085624694824219e-02) (105, 1.53561919927597045898e-01) (106, -6.51660487055778503418e-02) (107, 1.18793612346053123474e-02) (108, -8.70559066534042358398e-02) (109, 1.52899269014596939087e-02) (110, -1.79051589220762252808e-02) (111, -8.48913341760635375977e-02) (112, 1.68443173170089721680e-01) (0, 2.97417223453521728516e-01) (1, 2.47098520398139953613e-01) (2, 3.13952028751373291016e-01) (3, 6.72298252582550048828e-01) (4, 8.08612644672393798828e-01) (5, 7.78707027435302734375e-01) (6, 1.50775492191314697266e-01) (7, 2.50601440668106079102e-01) (8, -5.61367627233266830444e-03) (9, 1.60465791821479797363e-01) (10, 9.13616716861724853516e-02) (11, 1.99447691440582275391e-01) (12, -4.55712601542472839355e-02) (13, 1.09465241432189941406e-01) (14, 3.43522056937217712402e-02) (15, -2.70020931959152221680e-01) (16, 4.07577335834503173828e-01) (17, 2.13254198431968688965e-01) (18, 3.17965030670166015625e-01) (19, 6.47659242153167724609e-01) (20, 7.41214454174041748047e-01) (21, 7.65720009803771972656e-01) (22, 2.19649113714694976807e-02) (23, 2.89329618215560913086e-01) (24, -4.08110674470663070679e-03) (25, 1.31936803460121154785e-01) (26, 5.40033988654613494873e-02) (27, 1.35041564702987670898e-01) (28, -1.07687085866928100586e-01) (29, -5.70040382444858551025e-02) (30, -6.95532709360122680664e-02) (31, -1.87454923987388610840e-01) (32, 2.46045336127281188965e-01) (33, 2.30083659291267395020e-01) (34, 3.01568150520324707031e-01) (35, 8.28276455402374267578e-01) (36, 7.71541178226470947266e-01) (37, 7.02128052711486816406e-01) (38, 1.43302366137504577637e-01) (39, 2.43182301521301269531e-01) (40, 7.67569392919540405273e-02) (41, -8.40242765843868255615e-03) (42, 1.79753661155700683594e-01) (43, 1.95535242557525634766e-01) (44, -1.35698840022087097168e-01) (45, -2.70531214773654937744e-02) (46, 1.09416842460632324219e-01) (47, -1.05306476354598999023e-01) (48, -9.20840650796890258789e-02) (49, 4.98244874179363250732e-02) (50, -7.18599930405616760254e-02) (51, 2.77291666716337203979e-02) (52, -1.48286864161491394043e-01) (53, -6.45814388990402221680e-02) (54, -1.40793487429618835449e-01) (55, -1.43141314387321472168e-01) (56, -8.22695270180702209473e-02) (57, 4.04739044606685638428e-02) (58, -5.42828105390071868896e-02) (59, -8.10168087482452392578e-02) (60, 6.84269890189170837402e-02) (61, -3.88789549469947814941e-02) (62, 1.49941323325037956238e-02) (63, 8.02363082766532897949e-02) (64, -7.20376223325729370117e-02) (65, -2.14375182986259460449e-01) (66, -8.91658812761306762695e-02) (67, -9.03206020593643188477e-02) (68, 6.07675313949584960938e-02) (69, 3.94500754773616790771e-02) (70, -1.36567577719688415527e-01) (71, -5.32488487660884857178e-02) (72, -1.18577271699905395508e-01) (73, -2.95499321073293685913e-02) (74, -7.23196268081665039062e-02) (75, 5.46637065708637237549e-02) (76, 2.83540729433298110962e-02) (77, -7.79456570744514465332e-02) (78, 3.28230969607830047607e-02) (79, 3.62700112164020538330e-02) (80, 4.06114757061004638672e-01) (81, 1.92628428339958190918e-01) (82, 2.26513668894767761230e-01) (83, 7.21270501613616943359e-01) (84, 7.86205947399139404297e-01) (85, 7.87037014961242675781e-01) (86, 4.06031496822834014893e-04) (87, 2.40387409925460815430e-01) (88, 1.22875861823558807373e-01) (89, 4.42157536745071411133e-02) (90, 2.11100339889526367188e-01) (91, 1.15135610103607177734e-01) (92, -1.63820590823888778687e-02) (93, -2.16504558920860290527e-05) (94, -4.19125892221927642822e-03) (95, -1.31368622183799743652e-01) (96, 3.89832518994808197021e-02) (97, -3.99770252406597137451e-02) (98, -1.38223394751548767090e-01) (99, -1.68672248721122741699e-01) (100, -6.89499750733375549316e-02) (101, -3.79450023174285888672e-02) (102, 4.65019345283508300781e-02) (103, -1.19104176759719848633e-01) (104, -1.35917946696281433105e-01) (105, -9.42406803369522094727e-02) (106, 3.98247269913554191589e-03) (107, -3.91408614814281463623e-02) (108, 9.62366461753845214844e-02) (109, -6.31944388151168823242e-02) (110, 9.71291437745094299316e-02) (111, 6.81154727935791015625e-02) (112, -1.02231234312057495117e-01) (0, -2.71359950304031372070e-01) (1, -3.58718723058700561523e-01) (2, 4.98707816004753112793e-02) (3, 1.20624609291553497314e-01) (4, 3.69475841522216796875e-01) (5, 9.87155497074127197266e-01) (6, 4.76278752088546752930e-01) (7, -6.33943006396293640137e-02) (8, -1.43231019377708435059e-01) (9, 5.21300733089447021484e-03) (10, 7.72405937314033508301e-02) (11, 2.14250564575195312500e-01) (12, -2.70508885383605957031e-01) (13, -8.77319276332855224609e-02) (14, -2.85902451723814010620e-02) (15, -3.91977339982986450195e-01) (16, -1.85615703463554382324e-01) (17, -2.43283808231353759766e-01) (18, -5.54746910929679870605e-02) (19, 7.67951533198356628418e-02) (20, 4.14116173982620239258e-01) (21, 1.08017039299011230469e+00) (22, 4.32851880788803100586e-01) (23, -1.07585482299327850342e-01) (24, -1.16174750030040740967e-01) (25, -7.78843611478805541992e-02) (26, 1.05151183903217315674e-01) (27, 1.93176954984664916992e-01) (28, -2.37242907285690307617e-01) (29, -4.38030958175659179688e-02) (30, -2.24554073065519332886e-02) (31, -3.57606023550033569336e-01) (32, -2.11756095290184020996e-01) (33, -4.05903309583663940430e-01) (34, 3.21805253624916076660e-02) (35, 2.66026824712753295898e-01) (36, 3.86949211359024047852e-01) (37, 1.00336658954620361328e+00) (38, 4.30019289255142211914e-01) (39, -5.70388361811637878418e-02) (40, -1.15721598267555236816e-02) (41, -7.70003348588943481445e-02) (42, 9.62925776839256286621e-02) (43, 2.27128952741622924805e-01) (44, -4.16815131902694702148e-01) (45, 5.50374314188957214355e-02) (46, 7.14828148484230041504e-02) (47, -2.51433879137039184570e-01) (48, 3.50076928734779357910e-02) (49, -9.84613522887229919434e-02) (50, -2.46911197900772094727e-01) (51, -4.29249703884124755859e-02) (52, -2.46051579713821411133e-01) (53, 1.70814041048288345337e-02) (54, -2.69235312938690185547e-01) (55, -3.67099493741989135742e-01) (56, -3.03186893463134765625e-01) (57, -5.41890524327754974365e-02) (58, 7.12183341383934020996e-02) (59, 1.87940355390310287476e-02) (60, 6.41270866617560386658e-03) (61, -4.68322113156318664551e-02) (62, 7.93432369828224182129e-02) (63, -7.28551074862480163574e-02) (64, -3.38863544166088104248e-02) (65, -3.29910635948181152344e-01) (66, -3.97256046533584594727e-01) (67, -2.61545866727828979492e-01) (68, 9.08151194453239440918e-02) (69, 6.39041662216186523438e-02) (70, -3.14749658107757568359e-01) (71, 7.43699073791503906250e-02) (72, -2.55480021238327026367e-01) (73, 9.14380475878715515137e-02) (74, 2.40796562284231185913e-02) (75, 8.69286581873893737793e-02) (76, 5.08803389966487884521e-02) (77, -3.26633453369140625000e-05) (78, 5.36499023437500000000e-02) (79, -1.41119724139571189880e-02) (80, -2.30982244014739990234e-01) (81, -2.89550453424453735352e-01) (82, 6.18374273180961608887e-02) (83, 1.45881950855255126953e-01) (84, 3.38428914546966552734e-01) (85, 1.00148856639862060547e+00) (86, 4.24894183874130249023e-01) (87, -3.80818918347358703613e-02) (88, -5.30283227562904357910e-02) (89, 2.45171934366226196289e-02) (90, 9.72121730446815490723e-02) (91, 1.25930622220039367676e-01) (92, -2.78802752494812011719e-01) (93, -4.05143648386001586914e-02) (94, -2.87485849112272262573e-02) (95, -3.94180566072463989258e-01) (96, 5.65399043262004852295e-02) (97, 9.60385834332555532455e-04) (98, -2.37571269273757934570e-01) (99, -2.75204956531524658203e-01) (100, -3.57695490121841430664e-01) (101, -7.20088509842753410339e-03) (102, 2.17249281704425811768e-02) (103, -3.90615612268447875977e-01) (104, -3.38322877883911132812e-01) (105, -3.76755446195602416992e-01) (106, -8.11268538236618041992e-02) (107, -6.48825094103813171387e-02) (108, 4.57719340920448303223e-02) (109, 7.25230500102043151855e-02) (110, 2.10055243223905563354e-02) (111, -5.27220815420150756836e-02) (112, -3.20738255977630615234e-01) (0, 8.93258452415466308594e-02) (1, 8.50981473922729492188e-02) (2, -1.69418036937713623047e-01) (3, 4.63110059499740600586e-01) (4, 3.74132663011550903320e-01) (5, 5.86659729480743408203e-01) (6, -7.86598324775695800781e-01) (7, -3.57215017080307006836e-01) (8, 3.39821368455886840820e-01) (9, 3.52970212697982788086e-02) (10, 3.34704332053661346436e-02) (11, 1.17490746080875396729e-01) (12, -4.68875348567962646484e-01) (13, 7.55397528409957885742e-02) (14, -5.08237406611442565918e-02) (15, -4.27972435951232910156e-01) (16, 1.55642181634902954102e-01) (17, 1.26093655824661254883e-01) (18, -1.25272214412689208984e-01) (19, 3.25937807559967041016e-01) (20, 4.03378099203109741211e-01) (21, 4.96996909379959106445e-01) (22, -7.81632065773010253906e-01) (23, -3.86858224868774414062e-01) (24, 1.84484273195266723633e-01) (25, 2.68694013357162475586e-02) (26, -8.26193951070308685303e-03) (27, 7.07861483097076416016e-02) (28, -4.31953728199005126953e-01) (29, 5.71106672286987304688e-02) (30, 4.77535501122474670410e-02) (31, -4.28042590618133544922e-01) (32, 7.75167346000671386719e-02) (33, 2.55177207291126251221e-02) (34, -2.29950606822967529297e-01) (35, 4.13780242204666137695e-01) (36, 4.95032280683517456055e-01) (37, 6.62728786468505859375e-01) (38, -8.14566254615783691406e-01) (39, -3.42506229877471923828e-01) (40, 2.82209485769271850586e-01) (41, 8.01393538713455200195e-02) (42, -4.72890250384807586670e-02) (43, 2.22511008381843566895e-01) (44, -3.54393064975738525391e-01) (45, -1.02616213262081146240e-02) (46, 2.51396894454956054688e-02) (47, -4.84165549278259277344e-01) (48, -7.42173641920089721680e-02) (49, -1.27562405541539192200e-02) (50, -4.30837929248809814453e-01) (51, 1.37953404337167739868e-02) (52, -4.13676023483276367188e-01) (53, -9.83047336339950561523e-02) (54, -4.77599322795867919922e-01) (55, -3.70510816574096679688e-01) (56, -3.81077826023101806641e-01) (57, 2.72018667310476303101e-02) (58, 7.03893676400184631348e-02) (59, -9.24216881394386291504e-02) (60, -4.59309928119182586670e-02) (61, -1.21006015688180923462e-02) (62, 3.49911823868751525879e-02) (63, 6.22843531891703605652e-03) (64, 5.36112561821937561035e-02) (65, -5.02551555633544921875e-01) (66, -5.08056819438934326172e-01) (67, -3.91933619976043701172e-01) (68, -8.73155221343040466309e-02) (69, -8.45779757946729660034e-03) (70, -4.13764417171478271484e-01) (71, 5.35749904811382293701e-02) (72, -4.37961041927337646484e-01) (73, 5.20095825195312500000e-02) (74, 2.09881309419870376587e-02) (75, -7.17442333698272705078e-02) (76, -8.84955525398254394531e-02) (77, -8.41156914830207824707e-02) (78, -4.54336404800415039062e-04) (79, -6.27129152417182922363e-02) (80, 1.28485381603240966797e-01) (81, 1.53725564479827880859e-01) (82, -1.66537433862686157227e-01) (83, 3.17517638206481933594e-01) (84, 5.10980248451232910156e-01) (85, 6.71399712562561035156e-01) (86, -7.19588398933410644531e-01) (87, -3.80926549434661865234e-01) (88, 2.67215907573699951172e-01) (89, 2.41850018501281738281e-02) (90, 5.94762377440929412842e-02) (91, 2.35063716769218444824e-01) (92, -4.67744231224060058594e-01) (93, 1.25619713217020034790e-02) (94, 1.64378769695758819580e-02) (95, -3.74190330505371093750e-01) (96, 4.97879972681403160095e-03) (97, 3.34943528287112712860e-03) (98, -4.10668671131134033203e-01) (99, -4.07548606395721435547e-01) (100, -3.30320239067077636719e-01) (101, -7.40093141794204711914e-02) (102, -2.87617333233356475830e-02) (103, -4.43069398403167724609e-01) (104, -3.47211599349975585938e-01) (105, -3.32985460758209228516e-01) (106, 1.03982686996459960938e-02) (107, 8.95047187805175781250e-02) (108, -9.18892920017242431641e-02) (109, -9.00560617446899414062e-02) (110, -7.32081979513168334961e-02) (111, 1.12387901172041893005e-02) (112, -5.21348357200622558594e-01) (0, 4.70787495374679565430e-01) (1, 5.26053965091705322266e-01) (2, 6.56971409916877746582e-02) (3, 1.55491924285888671875e+00) (4, -1.39291241765022277832e-01) (5, 1.20827627182006835938e+00) (6, 2.57805615663528442383e-01) (7, 1.62041440606117248535e-01) (8, -7.55343139171600341797e-01) (9, -4.49929505586624145508e-01) (10, -3.60527217388153076172e-01) (11, -8.46451371908187866211e-02) (12, -1.36412814259529113770e-01) (13, -1.13876342773437500000e-01) (14, -8.39651823043823242188e-02) (15, -3.21668177843093872070e-01) (16, 4.51397389173507690430e-01) (17, 5.91666519641876220703e-01) (18, -6.69138655066490173340e-02) (19, 1.56282496452331542969e+00) (20, -1.71805396676063537598e-01) (21, 1.21805882453918457031e+00) (22, 3.17814439535140991211e-01) (23, 1.81999340653419494629e-01) (24, -7.82489597797393798828e-01) (25, -3.80381882190704345703e-01) (26, -3.60112309455871582031e-01) (27, -1.84166163206100463867e-01) (28, -1.26267731189727783203e-01) (29, 1.65122710168361663818e-02) (30, -8.46013426780700683594e-02) (31, -2.36998260021209716797e-01) (32, 3.93145471811294555664e-01) (33, 4.72845643758773803711e-01) (34, -5.66355884075164794922e-04) (35, 1.57384991645812988281e+00) (36, -2.22637012600898742676e-01) (37, 1.10473012924194335938e+00) (38, 1.85861438512802124023e-01) (39, 2.25496008992195129395e-01) (40, -7.23784506320953369141e-01) (41, -4.39163774251937866211e-01) (42, -3.55853080749511718750e-01) (43, -1.66778564453125000000e-01) (44, -1.67900606989860534668e-01) (45, -1.66152194142341613770e-02) (46, 8.98580998182296752930e-04) (47, -2.98021316528320312500e-01) (48, 3.27173247933387756348e-02) (49, -7.44166523218154907227e-02) (50, -3.71363699436187744141e-01) (51, 9.54709053039550781250e-02) (52, -2.76867896318435668945e-01) (53, -5.74273839592933654785e-02) (54, -4.01010394096374511719e-01) (55, -4.17459577322006225586e-01) (56, -2.56908953189849853516e-01) (57, 1.35416034609079360962e-02) (58, 3.35401296615600585938e-03) (59, 7.33239799737930297852e-02) (60, -1.21289137750864028931e-02) (61, 7.65698775649070739746e-02) (62, 2.99697760492563247681e-02) (63, 8.81032869219779968262e-02) (64, -5.07357083261013031006e-02) (65, -3.88276398181915283203e-01) (66, -2.67858147621154785156e-01) (67, -3.90275061130523681641e-01) (68, -1.13385915756225585938e-03) (69, -8.58748480677604675293e-02) (70, -2.91798353195190429688e-01) (71, -8.30204635858535766602e-02) (72, -3.44138413667678833008e-01) (73, -7.29871168732643127441e-02) (74, 3.71941342018544673920e-03) (75, -5.55383376777172088623e-02) (76, 6.82148858904838562012e-02) (77, -3.75647917389869689941e-02) (78, 4.00844477117061614990e-02) (79, 9.32204711716622114182e-04) (80, 3.80931735038757324219e-01) (81, 4.20333236455917358398e-01) (82, -3.73783335089683532715e-02) (83, 1.44096183776855468750e+00) (84, -1.71804353594779968262e-01) (85, 1.21590280532836914062e+00) (86, 2.51953154802322387695e-01) (87, 1.84326335787773132324e-01) (88, -7.81502306461334228516e-01) (89, -3.32393974065780639648e-01) (90, -3.92572164535522460938e-01) (91, -1.05251729488372802734e-01) (92, -1.28501743078231811523e-01) (93, 2.78355181217193603516e-03) (94, -2.14472375810146331787e-02) (95, -3.67842197418212890625e-01) (96, -7.62143731117248535156e-02) (97, 1.99731588363647460938e-02) (98, -3.64473193883895874023e-01) (99, -3.28809589147567749023e-01) (100, -3.17363023757934570312e-01) (101, -5.33489696681499481201e-02) (102, 3.96313071250915527344e-02) (103, -4.10040050745010375977e-01) (104, -3.77797335386276245117e-01) (105, -4.08110648393630981445e-01) (106, -1.41170499846339225769e-02) (107, -5.81211932003498077393e-02) (108, 5.78593043610453605652e-03) (109, -7.40326046943664550781e-02) (110, 4.28110137581825256348e-02) (111, 9.38044935464859008789e-02) (112, -4.05311912298202514648e-01) (0, -1.00962674617767333984e+00) (1, -1.29327738285064697266e+00) (2, -2.26454764604568481445e-01) (3, -1.50080760940909385681e-02) (4, 1.89367085695266723633e-01) (5, 6.36422872543334960938e-01) (6, -4.40898090600967407227e-02) (7, 2.56532937288284301758e-01) (8, 5.16326665878295898438e-01) (9, -2.39524558186531066895e-01) (10, 6.93463236093521118164e-02) (11, -4.05577272176742553711e-01) (12, -1.24894514679908752441e-01) (13, -7.13839381933212280273e-03) (14, 1.87527202069759368896e-02) (15, -2.52564102411270141602e-01) (16, -1.00651538372039794922e+00) (17, -1.24581360816955566406e+00) (18, -1.50186896324157714844e-01) (19, -1.12099692225456237793e-01) (20, 7.98483863472938537598e-02) (21, 4.96804922819137573242e-01) (22, 7.20868855714797973633e-02) (23, 1.90397351980209350586e-01) (24, 4.31960850954055786133e-01) (25, -4.29735749959945678711e-01) (26, 1.32459104061126708984e-01) (27, -4.24576550722122192383e-01) (28, -1.08664743602275848389e-01) (29, 2.39769332110881805420e-02) (30, 2.21172086894512176514e-02) (31, -1.17093496024608612061e-01) (32, -1.00597167015075683594e+00) (33, -1.25619685649871826172e+00) (34, -1.62746340036392211914e-01) (35, -5.17691532149910926819e-03) (36, 9.60448756814002990723e-02) (37, 4.89287942647933959961e-01) (38, 5.83436638116836547852e-02) (39, 1.60085171461105346680e-01) (40, 3.33291292190551757812e-01) (41, -3.55822384357452392578e-01) (42, -4.61962260305881500244e-02) (43, -4.18113023042678833008e-01) (44, -2.22225055098533630371e-01) (45, 3.27456109225749969482e-02) (46, 3.35049368441104888916e-02) (47, -2.27542385458946228027e-01) (48, -8.98444675840437412262e-04) (49, 8.11525732278823852539e-02) (50, -2.01041668653488159180e-01) (51, 4.26130779087543487549e-02) (52, -3.58367770910263061523e-01) (53, 2.77121905237436294556e-02) (54, -3.36638212203979492188e-01) (55, -2.45891526341438293457e-01) (56, -2.33882054686546325684e-01) (57, -7.78765007853507995605e-02) (58, -4.13345769047737121582e-02) (59, -2.04384084790945053101e-02) (60, -9.14238393306732177734e-02) (61, -5.67416399717330932617e-02) (62, -3.38940732181072235107e-02) (63, -4.85547259449958801270e-02) (64, 3.67553345859050750732e-02) (65, -3.27395081520080566406e-01) (66, -3.18768978118896484375e-01) (67, -1.69650182127952575684e-01) (68, -4.22054044902324676514e-02) (69, 9.62416529655456542969e-02) (70, -3.13100010156631469727e-01) (71, -2.83987522125244140625e-02) (72, -2.91439205408096313477e-01) (73, -3.29936854541301727295e-02) (74, -8.34916681051254272461e-02) (75, 8.44411831349134445190e-03) (76, -3.77723537385463714600e-02) (77, -8.75110030174255371094e-02) (78, 8.45394507050514221191e-02) (79, 6.13292120397090911865e-02) (80, -8.55199217796325683594e-01) (81, -1.20008254051208496094e+00) (82, -2.31416493654251098633e-01) (83, -1.99688836932182312012e-01) (84, 1.13660298287868499756e-01) (85, 6.03629350662231445312e-01) (86, 3.10556739568710327148e-02) (87, 1.13089881837368011475e-01) (88, 4.75025743246078491211e-01) (89, -2.53980368375778198242e-01) (90, 2.89272852241992950439e-02) (91, -3.98902803659439086914e-01) (92, -2.32461974024772644043e-01) (93, -7.25338608026504516602e-03) (94, -1.46913185715675354004e-01) (95, -1.43349513411521911621e-01) (96, 9.39407348632812500000e-02) (97, -3.70929129421710968018e-02) (98, -2.09361791610717773438e-01) (99, -3.14378112554550170898e-01) (100, -3.06964725255966186523e-01) (101, -9.02349054813385009766e-02) (102, 2.33365893363952636719e-02) (103, -2.32290491461753845215e-01) (104, -2.89342015981674194336e-01) (105, -2.26268544793128967285e-01) (106, -5.77329173684120178223e-02) (107, 3.89990583062171936035e-02) (108, 5.23339174687862396240e-02) (109, -7.31934681534767150879e-02) (110, 3.28266614815220236778e-04) (111, 4.59754839539527893066e-02) (112, -1.89695686101913452148e-01) (0, -3.42508107423782348633e-01) (1, -6.91081583499908447266e-01) (2, -6.58953905105590820312e-01) (3, 9.48335170745849609375e-01) (4, 6.57328486442565917969e-01) (5, 1.03193533420562744141e+00) (6, 1.33531630039215087891e+00) (7, 5.68742394447326660156e-01) (8, -2.63952344655990600586e-01) (9, 6.21067166328430175781e-01) (10, 8.22710990905761718750e-01) (11, 5.90172767639160156250e-01) (12, -6.11750893294811248779e-02) (13, -5.24841584265232086182e-02) (14, 1.60234756767749786377e-02) (15, 7.39554107189178466797e-01) (16, -1.56958982348442077637e-01) (17, -6.85133457183837890625e-01) (18, -5.17730236053466796875e-01) (19, 1.01023185253143310547e+00) (20, 6.65004014968872070312e-01) (21, 1.09742724895477294922e+00) (22, 1.31844305992126464844e+00) (23, 5.35988271236419677734e-01) (24, -2.45309785008430480957e-01) (25, 5.79075872898101806641e-01) (26, 9.18757736682891845703e-01) (27, 6.80399358272552490234e-01) (28, -1.84007138013839721680e-02) (29, 2.92497109621763229370e-02) (30, 8.87271910905838012695e-02) (31, 7.23691999912261962891e-01) (32, -2.84614026546478271484e-01) (33, -8.10423791408538818359e-01) (34, -6.55052959918975830078e-01) (35, 9.41783666610717773438e-01) (36, 6.79673075675964355469e-01) (37, 1.11951076984405517578e+00) (38, 1.42247021198272705078e+00) (39, 5.63224852085113525391e-01) (40, -4.08146679401397705078e-01) (41, 6.16883575916290283203e-01) (42, 9.01295363903045654297e-01) (43, 5.63664972782135009766e-01) (44, -4.78533245623111724854e-02) (45, -3.26125621795654296875e-02) (46, -6.86088353395462036133e-02) (47, 6.79788410663604736328e-01) (48, -9.37495306134223937988e-02) (49, -8.80917981266975402832e-02) (50, 6.93821012973785400391e-01) (51, -1.71020217239856719971e-02) (52, 7.58881926536560058594e-01) (53, 5.19913546741008758545e-02) (54, 7.17576205730438232422e-01) (55, 7.29936957359313964844e-01) (56, 7.85532474517822265625e-01) (57, -3.17832604050636291504e-02) (58, 9.61257237941026687622e-03) (59, -1.69699788093566894531e-02) (60, 8.30185636878013610840e-02) (61, -1.61081310361623764038e-02) (62, -9.70159620046615600586e-02) (63, -5.48168197274208068848e-02) (64, 1.19124175980687141418e-02) (65, 6.78812026977539062500e-01) (66, 7.94505715370178222656e-01) (67, 6.21414840221405029297e-01) (68, -8.85023251175880432129e-02) (69, 5.67030906677246093750e-02) (70, 6.65143966674804687500e-01) (71, -8.02843272686004638672e-02) (72, 6.28051817417144775391e-01) (73, 9.83221083879470825195e-02) (74, 8.42773937620222568512e-04) (75, -3.90315055847167968750e-03) (76, -4.87383417785167694092e-02) (77, 1.77860502153635025024e-02) (78, 7.21473321318626403809e-02) (79, -4.24878671765327453613e-02) (80, -2.17084363102912902832e-01) (81, -7.90661752223968505859e-01) (82, -5.72284996509552001953e-01) (83, 8.81037354469299316406e-01) (84, 7.88130402565002441406e-01) (85, 1.00843977928161621094e+00) (86, 1.42422831058502197266e+00) (87, 6.86616241931915283203e-01) (88, -3.08347433805465698242e-01) (89, 6.55474603176116943359e-01) (90, 8.00081789493560791016e-01) (91, 5.73573708534240722656e-01) (92, 4.15616519749164581299e-02) (93, -3.24176028370857238770e-02) (94, 5.06668761372566223145e-02) (95, 6.91296160221099853516e-01) (96, 1.37607334181666374207e-02) (97, 1.25388028100132942200e-02) (98, 7.08973050117492675781e-01) (99, 7.43444263935089111328e-01) (100, 6.87427699565887451172e-01) (101, 3.77454161643981933594e-02) (102, 4.49740886688232421875e-02) (103, 6.97293698787689208984e-01) (104, 7.54253387451171875000e-01) (105, 6.64002656936645507812e-01) (106, 7.52047300338745117188e-02) (107, 8.73291864991188049316e-02) (108, 6.36029019951820373535e-02) (109, 4.73520755767822265625e-02) (110, -5.51586858928203582764e-02) (111, -6.70285243541002273560e-03) (112, 8.13320577144622802734e-01) (0, 4.86278504133224487305e-01) (1, 3.55822026729583740234e-01) (2, 3.53956848382949829102e-01) (3, -9.87854421138763427734e-01) (4, -9.27680015563964843750e-01) (5, -8.43636572360992431641e-01) (6, -6.60038948059082031250e-01) (7, -1.06646335124969482422e+00) (8, -4.04553376138210296631e-02) (9, -1.08918666839599609375e+00) (10, -9.89343822002410888672e-01) (11, -1.03402352333068847656e+00) (12, 1.00025651045143604279e-03) (13, -9.84079316258430480957e-02) (14, -2.01201662421226501465e-02) (15, -9.18323636054992675781e-01) (16, 4.92601245641708374023e-01) (17, 2.96467661857604980469e-01) (18, 3.01153033971786499023e-01) (19, -8.83586764335632324219e-01) (20, -1.02420186996459960938e+00) (21, -9.84453260898590087891e-01) (22, -7.27720975875854492188e-01) (23, -1.00892210006713867188e+00) (24, 1.43782496452331542969e-01) (25, -1.06057524681091308594e+00) (26, -9.43845570087432861328e-01) (27, -9.55568015575408935547e-01) (28, -6.17660917341709136963e-02) (29, -4.71707545220851898193e-02) (30, -6.02908581495285034180e-02) (31, -9.08377408981323242188e-01) (32, 4.16738659143447875977e-01) (33, 3.25947105884552001953e-01) (34, 2.66909390687942504883e-01) (35, -9.51365947723388671875e-01) (36, -9.77667510509490966797e-01) (37, -9.64735507965087890625e-01) (38, -6.93984806537628173828e-01) (39, -9.96025204658508300781e-01) (40, 1.24003812670707702637e-02) (41, -1.00093972682952880859e+00) (42, -8.29237580299377441406e-01) (43, -1.07397830486297607422e+00) (44, -1.46184787154197692871e-01) (45, -4.67852205038070678711e-02) (46, -1.00972861051559448242e-01) (47, -9.86473381519317626953e-01) (48, -4.32572364807128906250e-02) (49, -5.96733018755912780762e-02) (50, -9.56348538398742675781e-01) (51, 6.04996690526604652405e-03) (52, -1.02884221076965332031e+00) (53, 9.94199514389038085938e-02) (54, -1.08920753002166748047e+00) (55, -1.03242492675781250000e+00) (56, -1.03824520111083984375e+00) (57, -4.00990024209022521973e-02) (58, -9.82740297913551330566e-02) (59, 4.96939420700073242188e-02) (60, -8.80748853087425231934e-02) (61, 4.06299829483032226562e-02) (62, -6.74969851970672607422e-02) (63, 2.76367198675870895386e-02) (64, -2.55574882030487060547e-02) (65, -9.50017213821411132812e-01) (66, -9.01204109191894531250e-01) (67, -9.20097291469573974609e-01) (68, 8.12942385673522949219e-02) (69, -1.16994502022862434387e-02) (70, -1.01207649707794189453e+00) (71, -5.36705553531646728516e-02) (72, -1.08972907066345214844e+00) (73, -4.83600758016109466553e-02) (74, -2.83113475888967514038e-02) (75, -8.62084478139877319336e-02) (76, -9.59504321217536926270e-02) (77, 6.99106603860855102539e-02) (78, -8.14952775835990905762e-02) (79, -3.92076671123504638672e-02) (80, 3.11264425516128540039e-01) (81, 3.44672083854675292969e-01) (82, 3.25890630483627319336e-01) (83, -9.41129744052886962891e-01) (84, -9.21551406383514404297e-01) (85, -8.37649226188659667969e-01) (86, -6.63374960422515869141e-01) (87, -1.09995234012603759766e+00) (88, -2.47174613177776336670e-02) (89, -9.81832265853881835938e-01) (90, -8.48784804344177246094e-01) (91, -1.05949509143829345703e+00) (92, -8.72345641255378723145e-02) (93, -1.29041373729705810547e-02) (94, -3.17156985402107238770e-02) (95, -8.44654738903045654297e-01) (96, 2.66547687351703643799e-02) (97, 5.66563718020915985107e-02) (98, -9.73565757274627685547e-01) (99, -9.82432425022125244141e-01) (100, -1.04542469978332519531e+00) (101, 9.51207056641578674316e-02) (102, 5.42784444987773895264e-02) (103, -1.04477214813232421875e+00) (104, -1.04362094402313232422e+00) (105, -1.06441450119018554688e+00) (106, -4.05989475548267364502e-02) (107, -4.91898022592067718506e-02) (108, 9.58777591586112976074e-02) (109, -2.20942199230194091797e-02) (110, 1.16025330498814582825e-02) (111, -9.38848927617073059082e-02) (112, -1.05993831157684326172e+00) (0, -9.77163970470428466797e-01) (1, -9.93885695934295654297e-02) (2, 3.47582876682281494141e-01) (3, 1.24151670932769775391e+00) (4, 4.12083268165588378906e-01) (5, 7.93452501296997070312e-01) (6, -2.62929141521453857422e-01) (7, -2.19888895750045776367e-01) (8, -2.22985222935676574707e-02) (9, -4.58994567394256591797e-01) (10, -4.90217357873916625977e-01) (11, -8.57728898525238037109e-01) (12, 2.60431040078401565552e-02) (13, 5.20751588046550750732e-02) (14, -5.24020642042160034180e-02) (15, -7.60502338409423828125e-01) (16, -9.81088221073150634766e-01) (17, -1.61034110933542251587e-02) (18, 2.48495459556579589844e-01) (19, 1.26469695568084716797e+00) (20, 5.19913434982299804688e-01) (21, 7.35880851745605468750e-01) (22, -2.20905572175979614258e-01) (23, -2.17550724744796752930e-01) (24, 2.57431138306856155396e-02) (25, -4.06003355979919433594e-01) (26, -3.64090591669082641602e-01) (27, -9.18072044849395751953e-01) (28, 2.31577400118112564087e-02) (29, 3.77853251993656158447e-02) (30, -8.95676389336585998535e-03) (31, -6.41599237918853759766e-01) (32, -1.03430223464965820312e+00) (33, -9.82064008712768554688e-02) (34, 1.68902784585952758789e-01) (35, 1.22398746013641357422e+00) (36, 4.70026731491088867188e-01) (37, 6.85057342052459716797e-01) (38, -1.69291526079177856445e-01) (39, -3.53122234344482421875e-01) (40, 2.97394245862960815430e-02) (41, -3.94026219844818115234e-01) (42, -3.68966907262802124023e-01) (43, -9.10281479358673095703e-01) (44, 8.12373086810111999512e-02) (45, 8.00217241048812866211e-02) (46, 6.74707535654306411743e-03) (47, -7.87443816661834716797e-01) (48, 4.68283668160438537598e-02) (49, 9.56903696060180664062e-02) (50, -7.23432302474975585938e-01) (51, -3.77164147794246673584e-02) (52, -6.79875373840332031250e-01) (53, 9.74585190415382385254e-02) (54, -8.00782740116119384766e-01) (55, -6.91551446914672851562e-01) (56, -6.39817893505096435547e-01) (57, 4.10059690475463867188e-02) (58, 7.91670829057693481445e-02) (59, -5.65144680440425872803e-02) (60, -1.55788538977503776550e-02) (61, -2.41598319262266159058e-02) (62, -9.92548540234565734863e-02) (63, 5.72805432602763175964e-03) (64, 5.49140572547912597656e-02) (65, -8.00022780895233154297e-01) (66, -6.69828772544860839844e-01) (67, -7.84006178379058837891e-01) (68, -1.74347516149282455444e-02) (69, 2.67595052719116210938e-03) (70, -7.78155386447906494141e-01) (71, -2.51144710928201675415e-02) (72, -7.22623467445373535156e-01) (73, 5.87570779025554656982e-02) (74, 4.89059463143348693848e-02) (75, -8.12403634190559387207e-02) (76, 4.44086566567420959473e-02) (77, -3.87171208858489990234e-02) (78, -6.98252990841865539551e-02) (79, -8.76299198716878890991e-03) (80, -9.98635828495025634766e-01) (81, -6.60490691661834716797e-02) (82, 3.18702608346939086914e-01) (83, 1.37664210796356201172e+00) (84, 5.13147950172424316406e-01) (85, 7.64184474945068359375e-01) (86, -2.42783844470977783203e-01) (87, -2.85612553358078002930e-01) (88, -6.43483772873878479004e-02) (89, -4.99524563550949096680e-01) (90, -3.84544640779495239258e-01) (91, -8.01648259162902832031e-01) (92, 9.38740521669387817383e-02) (93, 1.19612896814942359924e-02) (94, -1.72481685876846313477e-02) (95, -6.94413781166076660156e-01) (96, 2.20570806413888931274e-02) (97, -7.69583880901336669922e-02) (98, -6.79561018943786621094e-01) (99, -7.99866378307342529297e-01) (100, -6.78771138191223144531e-01) (101, 5.12609593570232391357e-02) (102, -2.04921420663595199585e-02) (103, -7.96905815601348876953e-01) (104, -6.94470643997192382812e-01) (105, -7.76074826717376708984e-01) (106, -7.36575052142143249512e-02) (107, -4.55733053386211395264e-02) (108, -1.03033063933253288269e-02) (109, -4.34828065335750579834e-02) (110, 4.56637032330036163330e-02) (111, 4.66699376702308654785e-02) (112, -6.36740267276763916016e-01) (0, 1.10504078865051269531e+00) (1, -2.88307607173919677734e-01) (2, 1.73725262284278869629e-01) (3, -1.38289237022399902344e+00) (4, -7.71414756774902343750e-01) (5, 1.21927931904792785645e-01) (6, -2.54252284765243530273e-01) (7, -1.68007314205169677734e-02) (8, 1.52484029531478881836e-01) (9, -2.61229783296585083008e-01) (10, -2.16864913702011108398e-01) (11, 9.27995219826698303223e-02) (12, -6.69880956411361694336e-02) (13, 7.07518458366394042969e-02) (14, 2.65971198678016662598e-02) (15, -8.66186022758483886719e-02) (16, 1.08123183250427246094e+00) (17, -3.05648982524871826172e-01) (18, 2.71724998950958251953e-01) (19, -1.41266703605651855469e+00) (20, -6.03772103786468505859e-01) (21, 1.54149964451789855957e-01) (22, -2.72241413593292236328e-01) (23, -9.44352522492408752441e-02) (24, 9.42025780677795410156e-02) (25, -2.07445800304412841797e-01) (26, -1.54333770275115966797e-01) (27, -2.65557859092950820923e-02) (28, 4.40779477357864379883e-02) (29, -2.44922488927841186523e-02) (30, -4.70669679343700408936e-02) (31, -9.94099751114845275879e-02) (32, 1.18931651115417480469e+00) (33, -3.07497322559356689453e-01) (34, 1.89626827836036682129e-01) (35, -1.43306303024291992188e+00) (36, -7.35329747200012207031e-01) (37, 1.91122926771640777588e-02) (38, -3.06184113025665283203e-01) (39, 1.22378766536712646484e-02) (40, 2.70119309425354003906e-01) (41, -2.49812871217727661133e-01) (42, -1.53121709823608398438e-01) (43, -8.14776793122291564941e-02) (44, 6.49468600749969482422e-03) (45, -6.36573284864425659180e-02) (46, -2.10170149803161621094e-02) (47, 3.91977280378341674805e-02) (48, 2.69534233957529067993e-02) (49, -6.68835937976837158203e-02) (50, -1.13861829042434692383e-01) (51, 1.73763874918222427368e-02) (52, -9.98974442481994628906e-02) (53, 3.78268137574195861816e-02) (54, 2.11787819862365722656e-02) (55, -9.15343239903450012207e-02) (56, 1.38732641935348510742e-02) (57, -5.52533678710460662842e-02) (58, -1.16195501759648323059e-02) (59, -3.43477427959442138672e-02) (60, -4.99665729876141995192e-05) (61, 2.10091359913349151611e-02) (62, 1.58112053759396076202e-03) (63, -1.65900774300098419189e-02) (64, -6.99241012334823608398e-02) (65, 7.88862854242324829102e-02) (66, -2.53843069076538085938e-02) (67, -2.60932445526123046875e-02) (68, -5.90962581336498260498e-02) (69, 9.23616290092468261719e-02) (70, -1.00583404302597045898e-01) (71, -7.48164057731628417969e-02) (72, 2.60410904884338378906e-02) (73, 2.41966135799884796143e-02) (74, -6.48579671978950500488e-02) (75, -5.97632192075252532959e-02) (76, 4.02349345386028289795e-02) (77, -6.17932109162211418152e-03) (78, -8.52267146110534667969e-02) (79, -3.28116416931152343750e-02) (80, 1.13279366493225097656e+00) (81, -4.00618195533752441406e-01) (82, 2.81851947307586669922e-01) (83, -1.29722929000854492188e+00) (84, -6.40422344207763671875e-01) (85, 9.29072648286819458008e-02) (86, -2.43321329355239868164e-01) (87, -3.05915623903274536133e-02) (88, 2.51364052295684814453e-01) (89, -3.44571948051452636719e-01) (90, -1.14534571766853332520e-01) (91, -2.59615276008844375610e-02) (92, 8.22971612215042114258e-02) (93, -2.97818444669246673584e-02) (94, 6.91888630390167236328e-02) (95, -1.30299031734466552734e-01) (96, -5.61653934419155120850e-02) (97, -6.14653453230857849121e-02) (98, -2.10535228252410888672e-02) (99, -3.02960872650146484375e-02) (100, -8.41381549835205078125e-02) (101, 8.43200739473104476929e-03) (102, 9.92194470018148422241e-03) (103, 5.69372326135635375977e-02) (104, -8.24058353900909423828e-02) (105, 3.00295948982238769531e-02) (106, -8.77914726734161376953e-02) (107, 7.28635564446449279785e-02) (108, -6.11153356730937957764e-02) (109, -7.30181932449340820312e-02) (110, -5.99480830132961273193e-02) (111, 6.58217594027519226074e-02) (112, -7.21067339181900024414e-02) (0, -5.36466240882873535156e-01) (1, -2.74232417345046997070e-01) (2, -1.14309050142765045166e-01) (3, 2.81587004661560058594e-01) (4, 2.48942673206329345703e-01) (5, 7.60206952691078186035e-02) (6, -4.73221123218536376953e-01) (7, 8.54976624250411987305e-02) (8, -3.15285444259643554688e-01) (9, -9.60509255528450012207e-02) (10, -3.25246691703796386719e-01) (11, 2.97097414731979370117e-02) (12, 2.49493598937988281250e-01) (13, 3.41726690530776977539e-02) (14, 4.82062697410583496094e-02) (15, 2.47560501098632812500e-01) (16, -5.59673607349395751953e-01) (17, -3.75927835702896118164e-01) (18, -1.16300329566001892090e-01) (19, 2.46033698320388793945e-01) (20, 2.91594833135604858398e-01) (21, 1.63320690393447875977e-01) (22, -4.41670298576354980469e-01) (23, 1.92591454833745956421e-02) (24, -1.64109602570533752441e-01) (25, -1.57111123204231262207e-01) (26, -3.27564418315887451172e-01) (27, -4.20464314520359039307e-02) (28, 2.79600799083709716797e-01) (29, -7.36302137374877929688e-03) (30, -2.44567431509494781494e-02) (31, 2.63749778270721435547e-01) (32, -3.87294441461563110352e-01) (33, -3.36628764867782592773e-01) (34, -1.85612842440605163574e-01) (35, 1.83451026678085327148e-01) (36, 3.00352811813354492188e-01) (37, 3.29555422067642211914e-02) (38, -4.09456789493560791016e-01) (39, 1.10666796565055847168e-01) (40, -3.30289542675018310547e-01) (41, -1.95372521877288818359e-01) (42, -3.97414028644561767578e-01) (43, 9.00701582431793212891e-02) (44, 3.08715939521789550781e-01) (45, 7.84275829792022705078e-02) (46, 2.85449158400297164917e-02) (47, 2.69657552242279052734e-01) (48, 5.78836463391780853271e-02) (49, -3.49019770510494709015e-03) (50, 2.06242933869361877441e-01) (51, -2.59940680116415023804e-02) (52, 1.73682436347007751465e-01) (53, -6.17788843810558319092e-02) (54, 2.45684206485748291016e-01) (55, 1.52571886777877807617e-01) (56, 2.64046609401702880859e-01) (57, -6.47368505597114562988e-02) (58, -5.20486235618591308594e-02) (59, 8.94005317240953445435e-03) (60, 1.15585327148437500000e-03) (61, -3.24965128675103187561e-03) (62, -1.10578481107950210571e-02) (63, -2.50555928796529769897e-02) (64, 4.22497987747192382812e-02) (65, 1.24830573797225952148e-01) (66, 2.32695043087005615234e-01) (67, 1.77621856331825256348e-01) (68, -4.93453554809093475342e-02) (69, -3.11344279907643795013e-03) (70, 1.30215793848037719727e-01) (71, -3.66358272731304168701e-02) (72, 2.84450650215148925781e-01) (73, -5.00546470284461975098e-02) (74, -9.86480712890625000000e-02) (75, 5.84591999650001525879e-02) (76, -9.83713492751121520996e-02) (77, 3.15257324837148189545e-03) (78, 4.43690307438373565674e-02) (79, 5.95122948288917541504e-02) (80, -3.61420691013336181641e-01) (81, -3.42008024454116821289e-01) (82, -2.77491301298141479492e-01) (83, 1.99045449495315551758e-01) (84, 2.53813862800598144531e-01) (85, 1.65350228548049926758e-01) (86, -4.79207038879394531250e-01) (87, -1.00311310961842536926e-02) (88, -3.39025497436523437500e-01) (89, -1.19560055434703826904e-01) (90, -2.86799311637878417969e-01) (91, 5.72118908166885375977e-02) (92, 1.73850312829017639160e-01) (93, -4.34775650501251220703e-02) (94, 1.06818132102489471436e-01) (95, 2.75632381439208984375e-01) (96, -5.58830164372920989990e-02) (97, 2.27692141197621822357e-03) (98, 1.69506594538688659668e-01) (99, 2.05263420939445495605e-01) (100, 3.09655487537384033203e-01) (101, -2.12610848248004913330e-02) (102, 5.81358075141906738281e-02) (103, 2.83614099025726318359e-01) (104, 2.39176213741302490234e-01) (105, 2.69979715347290039062e-01) (106, 3.15813533961772918701e-02) (107, 3.03129199892282485962e-02) (108, -3.73596958816051483154e-02) (109, -2.40496154874563217163e-02) (110, -1.01747810840606689453e-02) (111, -3.76973263919353485107e-02) (112, 2.26562455296516418457e-01) (0, 8.32800269126892089844e-01) (1, 1.06704819202423095703e+00) (2, 6.13438725471496582031e-01) (3, 5.45333698391914367676e-02) (4, -6.77711844444274902344e-01) (5, -5.84137916564941406250e-01) (6, 8.13981071114540100098e-02) (7, -1.76548346877098083496e-01) (8, -1.03236503899097442627e-01) (9, -1.14257343113422393799e-01) (10, -1.63813516497611999512e-01) (11, -4.45362180471420288086e-01) (12, 1.49959534406661987305e-01) (13, -1.39562278985977172852e-01) (14, -1.23016521334648132324e-01) (15, -2.74111479520797729492e-01) (16, 7.92964935302734375000e-01) (17, 1.07770299911499023438e+00) (18, 5.01698017120361328125e-01) (19, 1.24726504087448120117e-01) (20, -6.13854408264160156250e-01) (21, -5.54652512073516845703e-01) (22, 7.63019099831581115723e-02) (23, -3.06087762117385864258e-01) (24, -8.30057412385940551758e-02) (25, -9.41700264811515808105e-02) (26, -8.03475528955459594727e-02) (27, -5.78959167003631591797e-01) (28, 7.97982439398765563965e-02) (29, 1.43216177821159362793e-02) (30, 1.53401270508766174316e-02) (31, -3.23206216096878051758e-01) (32, 8.12989711761474609375e-01) (33, 1.11569988727569580078e+00) (34, 5.45493602752685546875e-01) (35, 9.61013138294219970703e-02) (36, -7.07685470581054687500e-01) (37, -5.87951540946960449219e-01) (38, 1.01965993642807006836e-01) (39, -1.92262694239616394043e-01) (40, -2.46729224920272827148e-01) (41, 3.37895303964614868164e-02) (42, -3.22408862411975860596e-02) (43, -6.37402415275573730469e-01) (44, 1.42425879836082458496e-01) (45, -1.58835381269454956055e-01) (46, -7.56660103797912597656e-02) (47, -3.00413995981216430664e-01) (48, 4.10307049751281738281e-02) (49, 7.10606127977371215820e-02) (50, -4.02222573757171630859e-01) (51, -6.50228932499885559082e-02) (52, -3.94820779561996459961e-01) (53, 1.03834038600325584412e-02) (54, -3.33263307809829711914e-01) (55, -4.07446205615997314453e-01) (56, -2.90046989917755126953e-01) (57, -9.55143272876739501953e-02) (58, -2.24464070051908493042e-02) (59, -5.73029965162277221680e-02) (60, 8.28627869486808776855e-02) (61, -4.30507920682430267334e-02) (62, -2.28901505470275878906e-02) (63, -1.36043606325984001160e-02) (64, -6.92432895302772521973e-02) (65, -4.18098151683807373047e-01) (66, -4.01657283306121826172e-01) (67, -3.90802711248397827148e-01) (68, -7.39292427897453308105e-02) (69, 3.66128198802471160889e-02) (70, -2.23543435335159301758e-01) (71, -5.02781532704830169678e-02) (72, -3.35857897996902465820e-01) (73, 6.23123534023761749268e-02) (74, -4.53963279724121093750e-02) (75, -4.04862761497497558594e-02) (76, 6.75324723124504089355e-02) (77, 4.29931543767452239990e-02) (78, 1.67188644409179687500e-02) (79, 8.56317300349473953247e-03) (80, 8.23510587215423583984e-01) (81, 1.07806336879730224609e+00) (82, 5.62567114830017089844e-01) (83, 1.03387206792831420898e-01) (84, -6.61246418952941894531e-01) (85, -5.78494191169738769531e-01) (86, 1.40506878495216369629e-01) (87, -1.81339845061302185059e-01) (88, -2.33943119645118713379e-01) (89, -8.27243849635124206543e-02) (90, -1.75542965531349182129e-01) (91, -6.22984290122985839844e-01) (92, 5.83678558468818664551e-02) (93, -6.60666227340698242188e-02) (94, -5.83598576486110687256e-02) (95, -2.37223356962203979492e-01) (96, 1.56543252523988485336e-03) (97, 2.57130861282348632812e-02) (98, -2.70406812429428100586e-01) (99, -2.94038385152816772461e-01) (100, -3.59348684549331665039e-01) (101, 4.93989959359169006348e-02) (102, 7.73580297827720642090e-02) (103, -2.73532062768936157227e-01) (104, -3.09963256120681762695e-01) (105, -3.89713078737258911133e-01) (106, -9.23437178134918212891e-02) (107, -2.07561794668436050415e-02) (108, 7.49548673629760742188e-02) (109, 2.43751537054777145386e-02) (110, 8.78069996833801269531e-02) (111, -1.09913712367415428162e-02) (112, -3.61128419637680053711e-01) (0, 2.43032082915306091309e-01) (1, 6.19544871151447296143e-02) (2, 7.97681510448455810547e-02) (3, -2.20424532890319824219e-02) (4, 3.50109897553920745850e-02) (5, -1.89799606800079345703e-01) (6, 2.19273239374160766602e-01) (7, -1.51075020432472229004e-01) (8, 9.13930907845497131348e-02) (9, -1.47530376911163330078e-01) (10, 1.88924837857484817505e-03) (11, -1.29454389214515686035e-01) (12, -1.19313582777976989746e-01) (13, -1.75535410642623901367e-01) (14, -9.75966230034828186035e-02) (15, -1.83378785848617553711e-01) (16, 2.90729761123657226562e-01) (17, 6.53902366757392883301e-02) (18, 8.54382067918777465820e-02) (19, -5.68974018096923828125e-02) (20, -1.39331400394439697266e-01) (21, -2.14168965816497802734e-01) (22, 5.96924647688865661621e-02) (23, -1.26145526766777038574e-01) (24, 5.38009554147720336914e-02) (25, -4.71673980355262756348e-02) (26, -8.78654420375823974609e-02) (27, 5.93398287892341613770e-02) (28, -1.36839166283607482910e-01) (29, -9.66771990060806274414e-02) (30, -1.49821728467941284180e-01) (31, -1.95270210504531860352e-01) (32, 2.48236417770385742188e-01) (33, 1.92629531025886535645e-01) (34, -2.54802778363227844238e-02) (35, -6.37371242046356201172e-02) (36, -1.04167595505714416504e-01) (37, -2.73493945598602294922e-01) (38, 1.58883720636367797852e-01) (39, -1.67818963527679443359e-02) (40, 5.85564645007252693176e-03) (41, -1.19838610291481018066e-01) (42, 5.06937950849533081055e-02) (43, 1.17509746924042701721e-02) (44, -1.69540315866470336914e-01) (45, -1.41410693526268005371e-01) (46, -7.51201808452606201172e-03) (47, -1.80273726582527160645e-01) (48, -4.74614510312676429749e-03) (49, 8.57108831405639648438e-03) (50, -1.55142307281494140625e-01) (51, 5.96395740285515785217e-03) (52, -1.67651683092117309570e-01) (53, -7.78511613607406616211e-02) (54, -1.88500225543975830078e-01) (55, -2.99082130193710327148e-01) (56, -1.95588141679763793945e-01) (57, 6.62624388933181762695e-02) (58, -6.90016746520996093750e-02) (59, -5.12460954487323760986e-02) (60, -2.71022617816925048828e-02) (61, -1.55109111219644546509e-02) (62, -1.26927858218550682068e-02) (63, -9.05506685376167297363e-02) (64, -5.49195855855941772461e-02) (65, -2.47976645827293395996e-01) (66, -2.06082612276077270508e-01) (67, -2.46181651949882507324e-01) (68, -9.25253052264451980591e-03) (69, -2.96001024544239044189e-02) (70, -2.94146031141281127930e-01) (71, 1.13716004416346549988e-02) (72, -2.20008343458175659180e-01) (73, 9.91757139563560485840e-02) (74, -4.32726442813873291016e-02) (75, 9.16326045989990234375e-02) (76, -3.89224961400032043457e-02) (77, -4.74721752107143402100e-02) (78, -5.48176355659961700439e-02) (79, 5.63313625752925872803e-02) (80, 2.72783756256103515625e-01) (81, 5.92141896486282348633e-02) (82, 3.49629409611225128174e-02) (83, -5.47580718994140625000e-02) (84, -1.00716657936573028564e-01) (85, -2.64150977134704589844e-01) (86, 1.88174158334732055664e-01) (87, 2.20553446561098098755e-02) (88, 1.62425041198730468750e-01) (89, 3.30687835812568664551e-02) (90, -6.58655092120170593262e-02) (91, -8.35135355591773986816e-02) (92, -1.59920901060104370117e-01) (93, -7.63786658644676208496e-02) (94, -1.43771886825561523438e-01) (95, -1.04618661105632781982e-01) (96, -8.39068368077278137207e-02) (97, 9.05940532684326171875e-02) (98, -3.16976815462112426758e-01) (99, -2.30295419692993164062e-01) (100, -2.76142030954360961914e-01) (101, -3.68511676788330078125e-02) (102, -8.17877724766731262207e-02) (103, -1.59014284610748291016e-01) (104, -2.74811476469039916992e-01) (105, -2.62196451425552368164e-01) (106, 6.97542652487754821777e-02) (107, 2.34020594507455825806e-02) (108, 2.74674184620380401611e-02) (109, -8.50633755326271057129e-02) (110, -2.02665813267230987549e-02) (111, -1.14336730912327766418e-02) (112, -2.95023232698440551758e-01) (0, 7.53385350108146667480e-02) (1, 3.74858647584915161133e-01) (2, 3.21899920701980590820e-01) (3, 2.06745192408561706543e-02) (4, 9.28230136632919311523e-02) (5, 1.10180906951427459717e-01) (6, 8.34577009081840515137e-02) (7, 7.06881761550903320312e-01) (8, 2.85511136054992675781e-01) (9, 2.96020388603210449219e-01) (10, -4.25231367349624633789e-01) (11, -2.14312508702278137207e-01) (12, 2.20158770680427551270e-01) (13, -2.03057914972305297852e-01) (14, -1.38844802975654602051e-01) (15, 1.86879634857177734375e-01) (16, -4.57804724574089050293e-02) (17, 5.27513563632965087891e-01) (18, 3.21835726499557495117e-01) (19, -4.82267886400222778320e-02) (20, 9.50532704591751098633e-02) (21, 9.73656997084617614746e-02) (22, 9.96874198317527770996e-02) (23, 5.84416449069976806641e-01) (24, 2.02823549509048461914e-01) (25, 1.85560941696166992188e-01) (26, -3.04353624582290649414e-01) (27, -2.08997353911399841309e-01) (28, 3.29892098903656005859e-01) (29, -1.22818611562252044678e-01) (30, -1.07510134577751159668e-01) (31, 2.48047575354576110840e-01) (32, 3.34492921829223632812e-02) (33, 5.43445050716400146484e-01) (34, 2.74969607591629028320e-01) (35, -4.43594679236412048340e-02) (36, -2.49173436313867568970e-02) (37, 2.02531233429908752441e-01) (38, 2.86517739295959472656e-02) (39, 7.11442947387695312500e-01) (40, 3.18479537963867187500e-01) (41, 2.62669205665588378906e-01) (42, -4.55923825502395629883e-01) (43, -6.84927850961685180664e-02) (44, 3.28017592430114746094e-01) (45, -9.79913622140884399414e-02) (46, -1.78738892078399658203e-01) (47, 3.25054049491882324219e-01) (48, -2.23783794790506362915e-02) (49, 1.64429303258657455444e-02) (50, 1.05304107069969177246e-01) (51, -3.23617421090602874756e-02) (52, 2.38629549741744995117e-01) (53, 9.89953503012657165527e-02) (54, 1.85286223888397216797e-01) (55, 7.78788775205612182617e-02) (56, 1.21472284197807312012e-01) (57, 2.50181201845407485962e-02) (58, -2.06271354109048843384e-02) (59, -8.17009732127189636230e-02) (60, -9.39919129014015197754e-02) (61, 7.56713077425956726074e-02) (62, 9.84631758183240890503e-03) (63, 6.14755181595683097839e-03) (64, 6.34071975946426391602e-02) (65, 2.07045182585716247559e-01) (66, 2.46765121817588806152e-01) (67, 8.61451476812362670898e-02) (68, 2.90139317512512207031e-02) (69, -3.05791143327951431274e-02) (70, 7.81279057264328002930e-02) (71, -1.60809345543384552002e-02) (72, 6.90061300992965698242e-02) (73, -3.37104760110378265381e-02) (74, -2.13905628770589828491e-02) (75, 6.39583468437194824219e-02) (76, 7.21067413687705993652e-02) (77, 3.67910857312381267548e-03) (78, 3.25120948255062103271e-02) (79, -5.02716451883316040039e-02) (80, -4.65681180357933044434e-02) (81, 5.40833532810211181641e-01) (82, 3.47829073667526245117e-01) (83, -1.26225426793098449707e-01) (84, 8.91563445329666137695e-02) (85, 7.78318569064140319824e-02) (86, -1.54486894607543945312e-02) (87, 5.72360455989837646484e-01) (88, 3.38553667068481445312e-01) (89, 2.26395651698112487793e-01) (90, -4.25578117370605468750e-01) (91, -8.21958556771278381348e-02) (92, 2.66664683818817138672e-01) (93, -2.27630063891410827637e-02) (94, -1.16673715412616729736e-01) (95, 2.06198617815971374512e-01) (96, 3.53990085422992706299e-02) (97, -1.87917351722717285156e-02) (98, 1.35843381285667419434e-01) (99, 1.17104753851890563965e-01) (100, 2.03320875763893127441e-01) (101, 8.58765840530395507812e-03) (102, 4.83320131897926330566e-02) (103, 2.19635143876075744629e-01) (104, 2.27568894624710083008e-01) (105, 7.96332806348800659180e-02) (106, 3.09017784893512725830e-02) (107, 4.69839237630367279053e-02) (108, 3.06205637753009796143e-02) (109, -3.65861244499683380127e-02) (110, 9.67122837901115417480e-02) (111, 5.07426038384437561035e-02) (112, 1.01230069994926452637e-01) (0, 2.97408550977706909180e-01) (1, 1.21072232723236083984e+00) (2, -1.90505504608154296875e-01) (3, 2.82670825719833374023e-01) (4, -3.45161646604537963867e-01) (5, -4.26360219717025756836e-01) (6, -1.10286986827850341797e+00) (7, -6.00168943405151367188e-01) (8, -3.27210307121276855469e-01) (9, 2.11143612861633300781e-01) (10, -3.61106842756271362305e-02) (11, 8.04268419742584228516e-02) (12, -2.53663212060928344727e-03) (13, -5.41986823081970214844e-02) (14, -1.56553834676742553711e-02) (15, 1.01274400949478149414e-01) (16, 3.01139920949935913086e-01) (17, 1.19153487682342529297e+00) (18, -1.84184700250625610352e-01) (19, 1.45028948783874511719e-01) (20, -4.47264224290847778320e-01) (21, -5.05996346473693847656e-01) (22, -1.24061393737792968750e+00) (23, -5.85949718952178955078e-01) (24, -3.47143769264221191406e-01) (25, 2.39396095275878906250e-01) (26, -1.77562057971954345703e-01) (27, -5.71382194757461547852e-02) (28, 1.35293275117874145508e-01) (29, 1.05394192039966583252e-01) (30, -4.00812700390815734863e-02) (31, 7.19750300049781799316e-02) (32, 3.34383696317672729492e-01) (33, 1.13535404205322265625e+00) (34, -2.00073271989822387695e-01) (35, 2.57734447717666625977e-01) (36, -3.66218835115432739258e-01) (37, -3.49809080362319946289e-01) (38, -1.20411634445190429688e+00) (39, -5.75088441371917724609e-01) (40, -4.01851832866668701172e-01) (41, 1.13870263099670410156e-01) (42, -1.59518301486968994141e-01) (43, 3.18811535835266113281e-02) (44, 4.77139428257942199707e-02) (45, 4.58973646163940429688e-02) (46, 8.87495130300521850586e-02) (47, 1.88126951456069946289e-01) (48, -2.76302825659513473511e-02) (49, -8.34143161773681640625e-02) (50, 2.56675854325294494629e-02) (51, 5.83166964352130889893e-02) (52, 4.65752556920051574707e-02) (53, -9.71246957778930664062e-02) (54, 9.52725186944007873535e-02) (55, 1.83399200439453125000e-01) (56, 1.75201654434204101562e-01) (57, 1.47140985354781150818e-02) (58, 5.95697760581970214844e-02) (59, -3.89434699900448322296e-03) (60, 8.96568316966295242310e-03) (61, -9.16540995240211486816e-02) (62, 5.51558509469032287598e-02) (63, -3.99802140891551971436e-02) (64, -1.02199856191873550415e-02) (65, 2.02313393354415893555e-01) (66, 2.23190695047378540039e-01) (67, 8.08397606015205383301e-02) (68, 4.03554327785968780518e-02) (69, -6.31038025021553039551e-02) (70, 2.04589456319808959961e-01) (71, -7.75286629796028137207e-02) (72, 8.36968496441841125488e-02) (73, -5.79251870512962341309e-02) (74, 1.17286089807748794556e-02) (75, 1.70214064419269561768e-02) (76, 7.68295750021934509277e-02) (77, -1.06644807383418083191e-02) (78, -7.77634372934699058533e-03) (79, -5.08007071912288665771e-02) (80, 2.89250880479812622070e-01) (81, 1.14774370193481445312e+00) (82, -2.15647488832473754883e-01) (83, 2.47059971094131469727e-01) (84, -4.36512023210525512695e-01) (85, -4.33197349309921264648e-01) (86, -1.15412807464599609375e+00) (87, -6.51004850864410400391e-01) (88, -2.90532529354095458984e-01) (89, 1.38467818498611450195e-01) (90, -7.71319270133972167969e-02) (91, 4.50247377157211303711e-02) (92, 4.59986701607704162598e-02) (93, 1.02376071736216545105e-02) (94, 7.35632702708244323730e-02) (95, 1.58381432294845581055e-01) (96, -2.26589571684598922729e-02) (97, 6.15440271794795989990e-02) (98, 2.62964442372322082520e-02) (99, 4.17638793587684631348e-02) (100, 2.22507566213607788086e-01) (101, 8.27510952949523925781e-02) (102, -5.98321817815303802490e-02) (103, 8.21370854973793029785e-02) (104, 4.88932803273200988770e-02) (105, 1.75963729619979858398e-01) (106, 7.50910788774490356445e-02) (107, -9.83445197343826293945e-02) (108, -5.87680563330650329590e-02) (109, -3.26852612197399139404e-02) (110, -4.91452217102050781250e-02) (111, 4.71531525254249572754e-02) (112, 1.85205876827239990234e-01) (0, -6.76727175712585449219e-01) (1, -4.67700451612472534180e-01) (2, -4.99224036931991577148e-01) (3, -7.55991041660308837891e-01) (4, -4.52957600355148315430e-01) (5, -6.64655268192291259766e-01) (6, -7.59834982454776763916e-03) (7, -2.51738250255584716797e-01) (8, -6.07819184660911560059e-02) (9, 1.05036370456218719482e-01) (10, -1.56378731131553649902e-01) (11, -2.01199483126401901245e-03) (12, 1.87670096755027770996e-01) (13, -1.18880547583103179932e-01) (14, -1.04641541838645935059e-01) (15, 3.56321185827255249023e-01) (16, -7.21061468124389648438e-01) (17, -4.99539822340011596680e-01) (18, -4.01728928089141845703e-01) (19, -6.96295320987701416016e-01) (20, -5.32390177249908447266e-01) (21, -7.56924092769622802734e-01) (22, -1.16511970758438110352e-01) (23, -2.26605162024497985840e-01) (24, 7.81013891100883483887e-02) (25, 9.53773632645606994629e-02) (26, -1.45690366625785827637e-01) (27, -9.49089974164962768555e-02) (28, 6.64451494812965393066e-02) (29, -1.06495723128318786621e-01) (30, -1.13741047680377960205e-01) (31, 3.31923097372055053711e-01) (32, -6.35323464870452880859e-01) (33, -4.68498080968856811523e-01) (34, -4.87475365400314331055e-01) (35, -8.29965293407440185547e-01) (36, -4.35844957828521728516e-01) (37, -7.70213067531585693359e-01) (38, -6.43336102366447448730e-02) (39, -2.32346042990684509277e-01) (40, -7.73509368300437927246e-02) (41, 2.12250903248786926270e-01) (42, -4.39578369259834289551e-02) (43, -1.22327379882335662842e-01) (44, 1.44271343946456909180e-01) (45, -1.25869885087013244629e-01) (46, 5.45946583151817321777e-02) (47, 3.65414947271347045898e-01) (48, -5.14390133321285247803e-02) (49, 4.06154878437519073486e-02) (50, 3.31514567136764526367e-01) (51, 3.24717164039611816406e-02) (52, 3.22758644819259643555e-01) (53, 8.43873769044876098633e-02) (54, 3.37019473314285278320e-01) (55, 3.11252325773239135742e-01) (56, 1.76396921277046203613e-01) (57, -5.46820424497127532959e-02) (58, 9.83199626207351684570e-02) (59, -1.82199776172637939453e-02) (60, -3.04898023605346679688e-02) (61, -8.47331285476684570312e-02) (62, -8.57254937291145324707e-02) (63, 6.92846924066543579102e-02) (64, -9.94846876710653305054e-03) (65, 2.52601504325866699219e-01) (66, 2.01143041253089904785e-01) (67, 2.39248052239418029785e-01) (68, -1.60257276147603988647e-02) (69, 6.19422225281596183777e-03) (70, 2.69314318895339965820e-01) (71, 1.70156359672546386719e-02) (72, 2.15077355504035949707e-01) (73, -2.06546615809202194214e-02) (74, 4.54056262969970703125e-02) (75, 9.82866436243057250977e-02) (76, -1.58365797251462936401e-02) (77, 3.06882616132497787476e-02) (78, 6.42730146646499633789e-02) (79, 3.27244177460670471191e-02) (80, -6.63794159889221191406e-01) (81, -4.16235774755477905273e-01) (82, -4.91865605115890502930e-01) (83, -8.67761194705963134766e-01) (84, -5.04866600036621093750e-01) (85, -7.36851632595062255859e-01) (86, 2.97079961746931076050e-02) (87, -1.43321678042411804199e-01) (88, -3.15993204712867736816e-02) (89, 2.38261744379997253418e-01) (90, -2.21858933568000793457e-01) (91, -2.41422187536954879761e-03) (92, 1.73741623759269714355e-01) (93, -1.15542836487293243408e-01) (94, -1.31001248955726623535e-02) (95, 2.70900338888168334961e-01) (96, -9.94014786556363105774e-04) (97, 4.99902740120887756348e-02) (98, 3.10719877481460571289e-01) (99, 3.51720839738845825195e-01) (100, 2.24925115704536437988e-01) (101, -5.74471615254878997803e-02) (102, -4.10079974244581535459e-06) (103, 2.71261900663375854492e-01) (104, 2.90638893842697143555e-01) (105, 2.14142158627510070801e-01) (106, 8.07857548352330923080e-04) (107, -9.39383953809738159180e-02) (108, 7.60897919535636901855e-02) (109, -3.49191389977931976318e-02) (110, 3.87860201299190521240e-02) (111, -5.26064708828926086426e-02) (112, 3.60868424177169799805e-01) (0, -3.53864163160324096680e-01) (1, -3.43858987092971801758e-01) (2, -2.04383209347724914551e-01) (3, 4.04404625296592712402e-02) (4, -1.23933646827936172485e-02) (5, 3.76650169491767883301e-02) (6, -9.45425108075141906738e-02) (7, -1.28517746925354003906e-02) (8, -9.76904332637786865234e-02) (9, 1.01577088236808776855e-01) (10, 6.90847188234329223633e-02) (11, 3.68967875838279724121e-02) (12, 1.21528163552284240723e-01) (13, 3.16256023943424224854e-02) (14, 1.09706148505210876465e-01) (15, 1.74472510814666748047e-01) (16, -3.56273263692855834961e-01) (17, -2.95919567346572875977e-01) (18, -1.19629494845867156982e-01) (19, 4.71092313528060913086e-02) (20, -3.22914011776447296143e-02) (21, 1.05849340558052062988e-01) (22, -4.47685159742832183838e-02) (23, 4.64984141290187835693e-02) (24, 7.04311579465866088867e-02) (25, 2.09109485149383544922e-01) (26, -7.68955200910568237305e-02) (27, 5.49540929496288299561e-02) (28, 5.02587817609310150146e-02) (29, 6.15671537816524505615e-02) (30, 2.08852514624595642090e-02) (31, 1.57195031642913818359e-01) (32, -1.95595577359199523926e-01) (33, -2.64158576726913452148e-01) (34, -1.55634298920631408691e-01) (35, 5.78274345025420188904e-03) (36, 1.22126348316669464111e-01) (37, 8.35733562707901000977e-02) (38, -2.01291203498840332031e-01) (39, 1.79037973284721374512e-01) (40, 1.19005171582102775574e-02) (41, 2.34647363424301147461e-01) (42, -8.17773044109344482422e-02) (43, 1.13483637571334838867e-01) (44, -3.39544331654906272888e-03) (45, 1.46966278553009033203e-01) (46, 1.94183625280857086182e-02) (47, 1.01131752133369445801e-01) (48, -4.41070785745978355408e-03) (49, -6.42974898219108581543e-02) (50, 2.17289298772811889648e-01) (51, 1.62399057298898696899e-02) (52, 2.40912407636642456055e-01) (53, -3.10594793409109115601e-02) (54, 2.96664983034133911133e-01) (55, 2.32557266950607299805e-01) (56, 1.55399084091186523438e-01) (57, -7.55660235881805419922e-02) (58, 7.49102160334587097168e-02) (59, 5.18979206681251525879e-02) (60, 1.39694456011056900024e-02) (61, -7.62362256646156311035e-02) (62, -3.32482419908046722412e-02) (63, -2.37798094749450683594e-02) (64, 7.61794373393058776855e-02) (65, 1.33435621857643127441e-01) (66, 1.93392455577850341797e-01) (67, 2.65620619058609008789e-01) (68, -1.23762134462594985962e-02) (69, -1.14790201187133789062e-02) (70, 2.64212280511856079102e-01) (71, -7.92619436979293823242e-02) (72, 2.00517445802688598633e-01) (73, 8.70996043086051940918e-02) (74, 3.59933972358703613281e-02) (75, 4.33620102703571319580e-02) (76, 6.20341897010803222656e-02) (77, 8.33800658583641052246e-02) (78, -9.78474542498588562012e-02) (79, -4.23765182495117187500e-02) (80, -3.38763743638992309570e-01) (81, -3.11505287885665893555e-01) (82, -1.34081915020942687988e-01) (83, 1.48605510592460632324e-01) (84, 1.21067516505718231201e-01) (85, 1.71167805790901184082e-01) (86, -1.46986007690429687500e-01) (87, -4.51803300529718399048e-03) (88, 5.93756996095180511475e-02) (89, 7.57406577467918395996e-02) (90, 4.78961840271949768066e-02) (91, 9.27871912717819213867e-02) (92, 1.86766160186380147934e-03) (93, 5.71709126234054565430e-03) (94, 1.42810732126235961914e-01) (95, 8.10011774301528930664e-02) (96, -4.72518615424633026123e-02) (97, -5.02013601362705230713e-02) (98, 3.04280728101730346680e-01) (99, 2.54744738340377807617e-01) (100, 2.52692431211471557617e-01) (101, 3.97472493350505828857e-02) (102, 6.11099861562252044678e-02) (103, 1.38837054371833801270e-01) (104, 2.41219729185104370117e-01) (105, 2.11476266384124755859e-01) (106, 6.78261741995811462402e-02) (107, -1.11189726740121841431e-02) (108, -1.95165518671274185181e-02) (109, 6.99787288904190063477e-02) (110, 4.65045087039470672607e-02) (111, -4.33975452324375510216e-04) (112, 1.89420610666275024414e-01) (0, -4.13999170064926147461e-01) (1, 4.94809091091156005859e-01) (2, 5.15469551086425781250e-01) (3, -7.12761282920837402344e-01) (4, -9.86448764801025390625e-01) (5, -9.11924660205841064453e-01) (6, -2.41678692400455474854e-02) (7, -2.13995352387428283691e-01) (8, 5.35861134529113769531e-01) (9, -5.40112972259521484375e-01) (10, -4.63505893945693969727e-01) (11, -5.14897286891937255859e-01) (12, 6.24800100922584533691e-02) (13, -6.00824132561683654785e-02) (14, 8.52559227496385574341e-03) (15, -3.32983434200286865234e-01) (16, -4.95607405900955200195e-01) (17, 5.07452964782714843750e-01) (18, 5.76981306076049804688e-01) (19, -6.10777497291564941406e-01) (20, -1.07650136947631835938e+00) (21, -8.40984642505645751953e-01) (22, 2.40733250975608825684e-02) (23, -2.45661467313766479492e-01) (24, 6.07693791389465332031e-01) (25, -4.97549563646316528320e-01) (26, -2.77169108390808105469e-01) (27, -5.06771266460418701172e-01) (28, 8.07689055800437927246e-02) (29, -1.28396525979042053223e-02) (30, 3.89511547982692718506e-02) (31, -4.44125354290008544922e-01) (32, -3.93084079027175903320e-01) (33, 6.46564006805419921875e-01) (34, 6.04043006896972656250e-01) (35, -7.39006876945495605469e-01) (36, -1.03440761566162109375e+00) (37, -7.81274199485778808594e-01) (38, 1.16708606481552124023e-01) (39, -2.69644409418106079102e-01) (40, 6.51249647140502929688e-01) (41, -6.83603167533874511719e-01) (42, -3.16923588514328002930e-01) (43, -5.10743439197540283203e-01) (44, -2.93707754462957382202e-03) (45, -3.46999764442443847656e-02) (46, -6.78195208311080932617e-02) (47, -4.09439295530319213867e-01) (48, 3.20665948092937469482e-02) (49, 5.16839139163494110107e-02) (50, -4.39866751432418823242e-01) (51, 5.10086193680763244629e-02) (52, -4.27450299263000488281e-01) (53, 7.96545892953872680664e-02) (54, -4.47113275527954101562e-01) (55, -3.24591040611267089844e-01) (56, -3.40277642011642456055e-01) (57, -3.64171341061592102051e-02) (58, -3.75858247280120849609e-02) (59, 1.46291377022862434387e-02) (60, 5.96777461469173431396e-02) (61, -8.97001400589942932129e-02) (62, 7.57365748286247253418e-02) (63, 9.60779201705008745193e-04) (64, -9.27572324872016906738e-02) (65, -4.00799930095672607422e-01) (66, -3.62928718328475952148e-01) (67, -4.45888638496398925781e-01) (68, 8.11083335429430007935e-03) (69, 4.92278710007667541504e-02) (70, -3.53826195001602172852e-01) (71, -4.54740785062313079834e-02) (72, -3.56757968664169311523e-01) (73, 1.71154979616403579712e-02) (74, 2.33916640281677246094e-02) (75, -8.55571627616882324219e-02) (76, 9.13500562310218811035e-02) (77, 6.45066723227500915527e-02) (78, 1.02362874895334243774e-02) (79, 2.34166383743286132812e-02) (80, -4.18176501989364624023e-01) (81, 6.34157896041870117188e-01) (82, 5.40837645530700683594e-01) (83, -7.86377072334289550781e-01) (84, -9.31252002716064453125e-01) (85, -8.34538400173187255859e-01) (86, 1.11203044652938842773e-01) (87, -2.23625794053077697754e-01) (88, 5.09896874427795410156e-01) (89, -6.36886596679687500000e-01) (90, -4.20987755060195922852e-01) (91, -4.14869219064712524414e-01) (92, 5.22716995328664779663e-03) (93, -8.04877504706382751465e-02) (94, -4.32338491082191467285e-02) (95, -4.32792156934738159180e-01) (96, 4.18141148984432220459e-02) (97, -8.30607637763023376465e-02) (98, -3.73448044061660766602e-01) (99, -4.64242339134216308594e-01) (100, -3.48000138998031616211e-01) (101, 1.06025941204279661179e-03) (102, 4.45085763931274414062e-03) (103, -3.90590816736221313477e-01) (104, -4.95991498231887817383e-01) (105, -4.86324906349182128906e-01) (106, 3.80192510783672332764e-02) (107, -9.04741957783699035645e-02) (108, 9.23491939902305603027e-02) (109, -5.17444647848606109619e-02) (110, 3.29424515366554260254e-02) (111, 8.53977259248495101929e-03) (112, -4.81374859809875488281e-01) (0, 5.05966460332274436951e-03) (1, 7.70516276359558105469e-01) (2, 3.96768778562545776367e-01) (3, -1.22181737422943115234e+00) (4, -5.88674485683441162109e-01) (5, -3.91198486089706420898e-01) (6, -3.16273719072341918945e-01) (7, -3.19884896278381347656e-01) (8, 1.39577537775039672852e-01) (9, -5.91875851154327392578e-01) (10, -9.14601027965545654297e-01) (11, -8.84413480758666992188e-01) (12, 7.05906823277473449707e-02) (13, -6.51594325900077819824e-02) (14, -3.59075516462326049805e-03) (15, -7.93683707714080810547e-01) (16, 3.48784811794757843018e-02) (17, 6.67029917240142822266e-01) (18, 3.67240935564041137695e-01) (19, -1.23241770267486572266e+00) (20, -5.80193758010864257812e-01) (21, -4.35230880975723266602e-01) (22, -3.13760250806808471680e-01) (23, -3.38459551334381103516e-01) (24, -1.91459096968173980713e-02) (25, -5.44576466083526611328e-01) (26, -8.06024253368377685547e-01) (27, -8.23328197002410888672e-01) (28, -1.48681895807385444641e-02) (29, -1.20483472943305969238e-01) (30, -5.15271462500095367432e-02) (31, -6.88714146614074707031e-01) (32, 1.50282591581344604492e-01) (33, 7.66152501106262207031e-01) (34, 2.54890352487564086914e-01) (35, -1.31414258480072021484e+00) (36, -6.50457143783569335938e-01) (37, -5.17248749732971191406e-01) (38, -4.54832106828689575195e-01) (39, -4.48790311813354492188e-01) (40, 7.94660970568656921387e-02) (41, -6.71147346496582031250e-01) (42, -8.92482280731201171875e-01) (43, -7.88622081279754638672e-01) (44, 2.20858771353960037231e-02) (45, -1.57445222139358520508e-01) (46, -4.83245179057121276855e-02) (47, -6.21941208839416503906e-01) (48, -8.78574475646018981934e-02) (49, -1.92416738718748092651e-02) (50, -7.45321214199066162109e-01) (51, 2.45543960481882095337e-02) (52, -6.84808731079101562500e-01) (53, -3.22991795837879180908e-02) (54, -7.91790664196014404297e-01) (55, -8.55756998062133789062e-01) (56, -8.22950303554534912109e-01) (57, 9.74123030900955200195e-02) (58, -2.18502711504697799683e-02) (59, 3.25400121510028839111e-02) (60, -6.14443831145763397217e-02) (61, 8.82493853569030761719e-02) (62, -6.12014755606651306152e-02) (63, 9.11462530493736267090e-02) (64, -4.66709723696112632751e-03) (65, -7.62695491313934326172e-01) (66, -8.08931410312652587891e-01) (67, -7.19118118286132812500e-01) (68, 2.91866064071655273438e-03) (69, -3.69812920689582824707e-02) (70, -6.89194500446319580078e-01) (71, -6.94177001714706420898e-02) (72, -7.54203259944915771484e-01) (73, -8.64494666457176208496e-02) (74, 4.25956510007381439209e-02) (75, -6.17588534951210021973e-02) (76, -8.22678878903388977051e-02) (77, -4.41020801663398742676e-02) (78, -8.87274071574211120605e-02) (79, -7.01253339648246765137e-02) (80, 1.34348168969154357910e-01) (81, 7.81619787216186523438e-01) (82, 3.54214012622833251953e-01) (83, -1.26221740245819091797e+00) (84, -5.02353906631469726562e-01) (85, -5.07025599479675292969e-01) (86, -3.60893279314041137695e-01) (87, -4.54813063144683837891e-01) (88, -3.15474905073642730713e-02) (89, -5.23085594177246093750e-01) (90, -7.82186925411224365234e-01) (91, -8.45429718494415283203e-01) (92, 6.19296059012413024902e-02) (93, 3.36125977337360382080e-02) (94, -1.15274816751480102539e-01) (95, -7.23951160907745361328e-01) (96, -1.08565809205174446106e-02) (97, -5.98004460334777832031e-03) (98, -8.48096549510955810547e-01) (99, -6.64537370204925537109e-01) (100, -6.99560821056365966797e-01) (101, 7.59079009294509887695e-02) (102, -7.73556232452392578125e-02) (103, -7.97164499759674072266e-01) (104, -6.67141020298004150391e-01) (105, -6.91359460353851318359e-01) (106, -2.32393736951053142548e-03) (107, -9.28094610571861267090e-02) (108, -7.88620561361312866211e-02) (109, 8.94866045564413070679e-03) (110, -6.29347935318946838379e-02) (111, 5.77942021191120147705e-02) (112, -8.25099945068359375000e-01) (0, 3.86923193931579589844e-01) (1, 2.16807276010513305664e-01) (2, 1.55135735869407653809e-01) (3, -1.11896879971027374268e-01) (4, 1.40417590737342834473e-01) (5, -5.21305501461029052734e-01) (6, 9.98843833804130554199e-02) (7, 1.69721528887748718262e-01) (8, 2.41894647479057312012e-02) (9, 5.94975017011165618896e-02) (10, 1.26131176948547363281e-01) (11, 1.69241905212402343750e-01) (12, -1.55104994773864746094e-02) (13, -1.48873180150985717773e-01) (14, -7.20776319503784179688e-02) (15, -3.19536119699478149414e-01) (16, 2.13611900806427001953e-01) (17, 2.29103833436965942383e-01) (18, 3.13383072614669799805e-01) (19, 7.14620351791381835938e-02) (20, 6.60690367221832275391e-02) (21, -5.27524054050445556641e-01) (22, 2.56051599979400634766e-01) (23, 7.31737315654754638672e-02) (24, 1.59206017851829528809e-01) (25, 1.67649492621421813965e-01) (26, 7.50326588749885559082e-02) (27, 1.79677437990903854370e-02) (28, -1.16645239293575286865e-01) (29, -1.13199010491371154785e-01) (30, -8.09957087039947509766e-02) (31, -3.23196560144424438477e-01) (32, 3.07024478912353515625e-01) (33, 2.49874904751777648926e-01) (34, 1.63416013121604919434e-01) (35, -3.55025716125965118408e-02) (36, 1.09847739338874816895e-01) (37, -5.09543836116790771484e-01) (38, 1.22598499059677124023e-01) (39, 1.53805300593376159668e-01) (40, 1.62098065018653869629e-01) (41, 1.65664508938789367676e-01) (42, 1.31858617067337036133e-01) (43, 4.08510304987430572510e-02) (44, 5.39847537875175476074e-02) (45, -1.27691566944122314453e-01) (46, -6.66521266102790832520e-02) (47, -3.25877696275711059570e-01) (48, 9.39959287643432617188e-03) (49, -2.81002819538116455078e-02) (50, -3.90340298414230346680e-01) (51, -8.94182324409484863281e-02) (52, -2.89716094732284545898e-01) (53, 9.42585393786430358887e-02) (54, -3.24045270681381225586e-01) (55, -3.52606683969497680664e-01) (56, -2.16050669550895690918e-01) (57, 6.45641237497329711914e-02) (58, -5.49927353858947753906e-03) (59, -8.71964022517204284668e-02) (60, -9.00815427303314208984e-02) (61, 7.20583721995353698730e-02) (62, -6.78969994187355041504e-02) (63, 2.15140338987112045288e-02) (64, -2.86328084766864776611e-02) (65, -3.38914841413497924805e-01) (66, -3.92409056425094604492e-01) (67, -3.84721368551254272461e-01) (68, 1.95481069386005401611e-02) (69, -4.12633232772350311279e-02) (70, -2.37667277455329895020e-01) (71, -4.04503643512725830078e-02) (72, -3.53557616472244262695e-01) (73, 7.76790408417582511902e-03) (74, 2.84910332411527633667e-02) (75, -5.40732629597187042236e-02) (76, 3.86296994984149932861e-02) (77, -7.96077474951744079590e-02) (78, -3.74550819396972656250e-02) (79, -5.19707016646862030029e-02) (80, 2.87720859050750732422e-01) (81, 2.23820105195045471191e-01) (82, 1.91995605826377868652e-01) (83, -1.19003817439079284668e-01) (84, 3.23994643986225128174e-02) (85, -4.31342422962188720703e-01) (86, 1.24569863080978393555e-01) (87, 5.92626072466373443604e-02) (88, 1.22275710105895996094e-01) (89, 1.23477995395660400391e-01) (90, 5.27872070670127868652e-02) (91, 8.20072442293167114258e-02) (92, -2.58235856890678405762e-02) (93, -6.11356832087039947510e-02) (94, -1.26941710710525512695e-01) (95, -1.52501806616783142090e-01) (96, 5.95521442592144012451e-02) (97, -5.97479902207851409912e-02) (98, -3.94727438688278198242e-01) (99, -3.21949094533920288086e-01) (100, -3.02060633897781372070e-01) (101, 6.97038769721984863281e-02) (102, 3.86498831212520599365e-02) (103, -2.54568785429000854492e-01) (104, -3.23577553033828735352e-01) (105, -3.33908349275588989258e-01) (106, 9.24070477485656738281e-02) (107, -8.38985219597816467285e-02) (108, -1.24668302014470100403e-02) (109, -4.50480356812477111816e-02) (110, -3.58692184090614318848e-02) (111, 7.98251405358314514160e-02) (112, -2.72843152284622192383e-01) (0, 1.70196205377578735352e-01) (1, -2.01066449284553527832e-01) (2, 7.04054653644561767578e-01) (3, -4.47463124990463256836e-01) (4, -8.28088372945785522461e-02) (5, -1.19291692972183227539e-01) (6, -4.07414883375167846680e-01) (7, 2.47502289712429046631e-02) (8, -1.40919700264930725098e-01) (9, -1.34802516549825668335e-02) (10, -3.39864462614059448242e-01) (11, -3.90838503837585449219e-01) (12, 4.91163097321987152100e-02) (13, -2.13107317686080932617e-02) (14, 5.84963262081146240234e-02) (15, -1.91719755530357360840e-01) (16, 1.44483566284179687500e-01) (17, -3.34902256727218627930e-01) (18, 5.47821998596191406250e-01) (19, -4.39087003469467163086e-01) (20, 6.99375718832015991211e-02) (21, 1.84449143707752227783e-02) (22, -4.21746134757995605469e-01) (23, -1.01930998265743255615e-01) (24, -7.60907009243965148926e-02) (25, 7.81924054026603698730e-02) (26, -2.97639161348342895508e-01) (27, -3.68475198745727539062e-01) (28, -2.66919247806072235107e-02) (29, 1.07456957921385765076e-02) (30, 4.95135113596916198730e-02) (31, -1.85038208961486816406e-01) (32, 1.53668165206909179688e-01) (33, -2.27266713976860046387e-01) (34, 5.13871729373931884766e-01) (35, -3.64088267087936401367e-01) (36, -1.12847074866294860840e-01) (37, -3.44953872263431549072e-03) (38, -4.42132949829101562500e-01) (39, -3.83120998740196228027e-02) (40, -2.21758604049682617188e-01) (41, -5.75827099382877349854e-02) (42, -3.10591459274291992188e-01) (43, -2.68849611282348632812e-01) (44, 6.41093403100967407227e-02) (45, -1.15175684913992881775e-02) (46, -3.85696515440940856934e-02) (47, -3.19949567317962646484e-01) (48, 5.01147173345088958740e-02) (49, 1.29342200234532356262e-02) (50, -2.65234351158142089844e-01) (51, 3.83790396153926849365e-02) (52, -2.45334371924400329590e-01) (53, -7.67946392297744750977e-02) (54, -1.50450751185417175293e-01) (55, -2.66961038112640380859e-01) (56, -1.60723313689231872559e-01) (57, 3.67226600646972656250e-02) (58, 1.05992434546351432800e-02) (59, -9.20512601733207702637e-02) (60, -4.05137948691844940186e-02) (61, -2.78693921864032745361e-02) (62, 5.51276691257953643799e-02) (63, 6.56999945640563964844e-02) (64, -7.06193968653678894043e-02) (65, -1.83571517467498779297e-01) (66, -2.36803218722343444824e-01) (67, -3.09374630451202392578e-01) (68, 2.47353669255971908569e-02) (69, -6.87502175569534301758e-02) (70, -1.90350592136383056641e-01) (71, 5.74409142136573791504e-02) (72, -2.88453936576843261719e-01) (73, -1.61295179277658462524e-02) (74, -9.60821565240621566772e-03) (75, 7.10193440318107604980e-02) (76, 8.43707695603370666504e-02) (77, 6.38399943709373474121e-02) (78, 8.32868367433547973633e-02) (79, 3.44854965806007385254e-02) (80, 1.24228619039058685303e-01) (81, -3.22229295969009399414e-01) (82, 5.81200420856475830078e-01) (83, -3.30145210027694702148e-01) (84, -3.28340046107769012451e-02) (85, -1.00872606039047241211e-01) (86, -5.13002216815948486328e-01) (87, -8.83317887783050537109e-02) (88, -2.51092672348022460938e-01) (89, 8.14340040087699890137e-02) (90, -3.63624423742294311523e-01) (91, -3.38942885398864746094e-01) (92, -1.54504794627428054810e-02) (93, -7.99370482563972473145e-02) (94, -8.34602117538452148438e-02) (95, -2.67157971858978271484e-01) (96, 9.27443057298660278320e-02) (97, 3.59893552958965301514e-02) (98, -2.44315490126609802246e-01) (99, -2.26755201816558837891e-01) (100, -1.76995843648910522461e-01) (101, -4.61961887776851654053e-02) (102, -2.50794179737567901611e-02) (103, -3.21214795112609863281e-01) (104, -2.06560626626014709473e-01) (105, -1.78922623395919799805e-01) (106, 9.40394774079322814941e-02) (107, 2.20450647175312042236e-02) (108, 2.91523579508066177368e-02) (109, 