FANN_FLO_2.1
num_layers=3
learning_rate=0.683622
connection_rate=1.000000
network_type=0
learning_momentum=0.000000
training_algorithm=0
train_error_function=1
train_stop_function=0
cascade_output_change_fraction=0.010000
quickprop_decay=-0.000100
quickprop_mu=1.750000
rprop_increase_factor=1.200000
rprop_decrease_factor=0.500000
rprop_delta_min=0.000000
rprop_delta_max=50.000000
rprop_delta_zero=0.100000
cascade_output_stagnation_epochs=12
cascade_candidate_change_fraction=0.010000
cascade_candidate_stagnation_epochs=12
cascade_max_out_epochs=150
cascade_min_out_epochs=50
cascade_max_cand_epochs=150
cascade_min_cand_epochs=50
cascade_num_candidate_groups=2
bit_fail_limit=3.49999994039535522461e-01
cascade_candidate_limit=1.00000000000000000000e+03
cascade_weight_multiplier=4.00000005960464477539e-01
cascade_activation_functions_count=10
cascade_activation_functions=3 5 7 8 10 11 14 15 16 17 
cascade_activation_steepnesses_count=113
cascade_activation_steepnesses=0.00000000000000000000e+00 0.00000000000000000000e+00 0.00000000000000000000e+00 1.50000000000000000000e+01 6.08300000000000000000e+03 6.08400000000000000000e+03 6.08500000000000000000e+03 6.08600000000000000000e+03 6.08700000000000000000e+03 6.08800000000000000000e+03 6.08900000000000000000e+03 6.09000000000000000000e+03 6.09100000000000000000e+03 6.09200000000000000000e+03 6.09300000000000000000e+03 6.09400000000000000000e+03 6.09500000000000000000e+03 6.09600000000000000000e+03 6.09700000000000000000e+03 0.00000000000000000000e+00 0.00000000000000000000e+00 9.00000000000000000000e+01 1.07526700000000000000e+06 1.07526800000000000000e+06 1.07526900000000000000e+06 1.07527000000000000000e+06 1.07527100000000000000e+06 1.07527200000000000000e+06 1.07527300000000000000e+06 1.07527400000000000000e+06 1.07527500000000000000e+06 1.07527600000000000000e+06 1.07527700000000000000e+06 1.07527800000000000000e+06 1.07527900000000000000e+06 1.07528000000000000000e+06 1.07528100000000000000e+06 1.07552300000000000000e+06 1.07552400000000000000e+06 1.07552500000000000000e+06 1.07552600000000000000e+06 1.07552700000000000000e+06 1.07552800000000000000e+06 1.07552900000000000000e+06 1.07553000000000000000e+06 1.07553100000000000000e+06 1.07553200000000000000e+06 1.07553300000000000000e+06 1.07553400000000000000e+06 1.07553500000000000000e+06 1.07553600000000000000e+06 1.07553700000000000000e+06 1.07565100000000000000e+06 1.07565200000000000000e+06 1.07565300000000000000e+06 1.07565400000000000000e+06 1.07565500000000000000e+06 1.07565600000000000000e+06 1.07565700000000000000e+06 1.07565800000000000000e+06 1.07565900000000000000e+06 1.07566000000000000000e+06 1.07566100000000000000e+06 1.07566200000000000000e+06 1.07566300000000000000e+06 1.07566400000000000000e+06 1.07566500000000000000e+06 1.07590700000000000000e+06 1.07590800000000000000e+06 1.07590900000000000000e+06 1.07591000000000000000e+06 1.07591100000000000000e+06 1.07591200000000000000e+06 1.07591300000000000000e+06 1.07591400000000000000e+06 1.07591500000000000000e+06 1.07591600000000000000e+06 1.07591700000000000000e+06 1.07591800000000000000e+06 1.07591900000000000000e+06 1.07592000000000000000e+06 1.07592100000000000000e+06 1.07629100000000000000e+06 1.07629200000000000000e+06 1.07629300000000000000e+06 1.07629400000000000000e+06 1.07629500000000000000e+06 1.07629600000000000000e+06 1.07629700000000000000e+06 1.07629800000000000000e+06 1.07629900000000000000e+06 1.07630000000000000000e+06 1.07630100000000000000e+06 1.07630200000000000000e+06 1.07630300000000000000e+06 1.07630400000000000000e+06 1.07630500000000000000e+06 1.07667500000000000000e+06 1.07667600000000000000e+06 1.07667700000000000000e+06 1.07667800000000000000e+06 1.07667900000000000000e+06 1.07668000000000000000e+06 1.07668100000000000000e+06 1.07668200000000000000e+06 1.07668300000000000000e+06 1.07668400000000000000e+06 1.07668500000000000000e+06 1.07668600000000000000e+06 1.07668700000000000000e+06 1.07668800000000000000e+06 1.07668900000000000000e+06 0.00000000000000000000e+00 
layer_sizes=106 106 106 
scale_included=0
neurons (num_inputs, activation_function, activation_steepness)=(0, 0, 0.00000000000000000000e+00) (0, 0, 0.00000000000000000000e+00) (0, 0, 0.00000000000000000000e+00) (0, 0, 0.00000000000000000000e+00) (0, 0, 0.00000000000000000000e+00) (0, 0, 0.00000000000000000000e+00) (0, 0, 0.00000000000000000000e+00) (0, 0, 0.00000000000000000000e+00) (0, 0, 0.00000000000000000000e+00) (0, 0, 0.00000000000000000000e+00) (0, 0, 0.00000000000000000000e+00) (0, 0, 0.00000000000000000000e+00) (0, 0, 0.00000000000000000000e+00) (0, 0, 0.00000000000000000000e+00) (0, 0, 0.00000000000000000000e+00) (0, 0, 0.00000000000000000000e+00) (0, 0, 0.00000000000000000000e+00) (0, 0, 0.00000000000000000000e+00) (0, 0, 0.00000000000000000000e+00) (0, 0, 0.00000000000000000000e+00) (0, 0, 0.00000000000000000000e+00) (0, 0, 0.00000000000000000000e+00) (0, 0, 0.00000000000000000000e+00) (0, 0, 0.00000000000000000000e+00) (0, 0, 0.00000000000000000000e+00) (0, 0, 0.00000000000000000000e+00) (0, 0, 0.00000000000000000000e+00) (0, 0, 0.00000000000000000000e+00) (0, 0, 0.00000000000000000000e+00) (0, 0, 0.00000000000000000000e+00) (0, 0, 0.00000000000000000000e+00) (0, 0, 0.00000000000000000000e+00) (0, 0, 0.00000000000000000000e+00) (0, 0, 0.00000000000000000000e+00) (0, 0, 0.00000000000000000000e+00) (0, 0, 0.00000000000000000000e+00) (0, 0, 0.00000000000000000000e+00) (0, 0, 0.00000000000000000000e+00) (0, 0, 0.00000000000000000000e+00) (0, 0, 0.00000000000000000000e+00) (0, 0, 0.00000000000000000000e+00) (0, 0, 0.00000000000000000000e+00) (0, 0, 0.00000000000000000000e+00) (0, 0, 0.00000000000000000000e+00) (0, 0, 0.00000000000000000000e+00) (0, 0, 0.00000000000000000000e+00) (0, 0, 0.00000000000000000000e+00) (0, 0, 0.00000000000000000000e+00) (0, 0, 0.00000000000000000000e+00) (0, 0, 0.00000000000000000000e+00) (0, 0, 0.00000000000000000000e+00) (0, 0, 0.00000000000000000000e+00) (0, 0, 0.00000000000000000000e+00) (0, 0, 0.00000000000000000000e+00) (0, 0, 0.00000000000000000000e+00) (0, 0, 0.00000000000000000000e+00) (0, 0, 0.00000000000000000000e+00) (0, 0, 0.00000000000000000000e+00) (0, 0, 0.00000000000000000000e+00) (0, 0, 0.00000000000000000000e+00) (0, 0, 0.00000000000000000000e+00) (0, 0, 0.00000000000000000000e+00) (0, 0, 0.00000000000000000000e+00) (0, 0, 0.00000000000000000000e+00) (0, 0, 0.00000000000000000000e+00) (0, 0, 0.00000000000000000000e+00) (0, 0, 0.00000000000000000000e+00) (0, 0, 0.00000000000000000000e+00) (0, 0, 0.00000000000000000000e+00) (0, 0, 0.00000000000000000000e+00) (0, 0, 0.00000000000000000000e+00) (0, 0, 0.00000000000000000000e+00) (0, 0, 0.00000000000000000000e+00) (0, 0, 0.00000000000000000000e+00) (0, 0, 0.00000000000000000000e+00) (0, 0, 0.00000000000000000000e+00) (0, 0, 0.00000000000000000000e+00) (0, 0, 0.00000000000000000000e+00) (0, 0, 0.00000000000000000000e+00) (0, 0, 0.00000000000000000000e+00) (0, 0, 0.00000000000000000000e+00) (0, 0, 0.00000000000000000000e+00) (0, 0, 0.00000000000000000000e+00) (0, 0, 0.00000000000000000000e+00) (0, 0, 0.00000000000000000000e+00) (0, 0, 0.00000000000000000000e+00) (0, 0, 0.00000000000000000000e+00) (0, 0, 0.00000000000000000000e+00) (0, 0, 0.00000000000000000000e+00) (0, 0, 0.00000000000000000000e+00) (0, 0, 0.00000000000000000000e+00) (0, 0, 0.00000000000000000000e+00) (0, 0, 0.00000000000000000000e+00) (0, 0, 0.00000000000000000000e+00) (0, 0, 0.00000000000000000000e+00) (0, 0, 0.00000000000000000000e+00) (0, 0, 0.00000000000000000000e+00) (0, 0, 0.00000000000000000000e+00) (0, 0, 0.00000000000000000000e+00) (0, 0, 0.00000000000000000000e+00) (0, 0, 0.00000000000000000000e+00) (0, 0, 0.00000000000000000000e+00) (0, 0, 0.00000000000000000000e+00) (0, 0, 0.00000000000000000000e+00) (0, 0, 0.00000000000000000000e+00) (0, 0, 0.00000000000000000000e+00) (106, 5, 5.00000000000000000000e-01) (106, 5, 5.00000000000000000000e-01) (106, 5, 5.00000000000000000000e-01) (106, 5, 5.00000000000000000000e-01) (106, 5, 5.00000000000000000000e-01) (106, 5, 5.00000000000000000000e-01) (106, 5, 5.00000000000000000000e-01) (106, 5, 5.00000000000000000000e-01) (106, 5, 5.00000000000000000000e-01) (106, 5, 5.00000000000000000000e-01) (106, 5, 5.00000000000000000000e-01) (106, 5, 5.00000000000000000000e-01) (106, 5, 5.00000000000000000000e-01) (106, 5, 5.00000000000000000000e-01) (106, 5, 5.00000000000000000000e-01) (106, 5, 5.00000000000000000000e-01) (106, 5, 5.00000000000000000000e-01) (106, 5, 5.00000000000000000000e-01) (106, 5, 5.00000000000000000000e-01) (106, 5, 5.00000000000000000000e-01) (106, 5, 5.00000000000000000000e-01) (106, 5, 5.00000000000000000000e-01) (106, 5, 5.00000000000000000000e-01) (106, 5, 5.00000000000000000000e-01) (106, 5, 5.00000000000000000000e-01) (106, 5, 5.00000000000000000000e-01) (106, 5, 5.00000000000000000000e-01) (106, 5, 5.00000000000000000000e-01) (106, 5, 5.00000000000000000000e-01) (106, 5, 5.00000000000000000000e-01) (106, 5, 5.00000000000000000000e-01) (106, 5, 5.00000000000000000000e-01) (106, 5, 5.00000000000000000000e-01) (106, 5, 5.00000000000000000000e-01) (106, 5, 5.00000000000000000000e-01) (106, 5, 5.00000000000000000000e-01) (106, 5, 5.00000000000000000000e-01) (106, 5, 5.00000000000000000000e-01) (106, 5, 5.00000000000000000000e-01) (106, 5, 5.00000000000000000000e-01) (106, 5, 5.00000000000000000000e-01) (106, 5, 5.00000000000000000000e-01) (106, 5, 5.00000000000000000000e-01) (106, 5, 5.00000000000000000000e-01) (106, 5, 5.00000000000000000000e-01) (106, 5, 5.00000000000000000000e-01) (106, 5, 5.00000000000000000000e-01) (106, 5, 5.00000000000000000000e-01) (106, 5, 5.00000000000000000000e-01) (106, 5, 5.00000000000000000000e-01) (106, 5, 5.00000000000000000000e-01) (106, 5, 5.00000000000000000000e-01) (106, 5, 5.00000000000000000000e-01) (106, 5, 5.00000000000000000000e-01) (106, 5, 5.00000000000000000000e-01) (106, 5, 5.00000000000000000000e-01) (106, 5, 5.00000000000000000000e-01) (106, 5, 5.00000000000000000000e-01) (106, 5, 5.00000000000000000000e-01) (106, 5, 5.00000000000000000000e-01) (106, 5, 5.00000000000000000000e-01) (106, 5, 5.00000000000000000000e-01) (106, 5, 5.00000000000000000000e-01) (106, 5, 5.00000000000000000000e-01) (106, 5, 5.00000000000000000000e-01) (106, 5, 5.00000000000000000000e-01) (106, 5, 5.00000000000000000000e-01) (106, 5, 5.00000000000000000000e-01) (106, 5, 5.00000000000000000000e-01) (106, 5, 5.00000000000000000000e-01) (106, 5, 5.00000000000000000000e-01) (106, 5, 5.00000000000000000000e-01) (106, 5, 5.00000000000000000000e-01) (106, 5, 5.00000000000000000000e-01) (106, 5, 5.00000000000000000000e-01) (106, 5, 5.00000000000000000000e-01) (106, 5, 5.00000000000000000000e-01) (106, 5, 5.00000000000000000000e-01) (106, 5, 5.00000000000000000000e-01) (106, 5, 5.00000000000000000000e-01) (106, 5, 5.00000000000000000000e-01) (106, 5, 5.00000000000000000000e-01) (106, 5, 5.00000000000000000000e-01) (106, 5, 5.00000000000000000000e-01) (106, 5, 5.00000000000000000000e-01) (106, 5, 5.00000000000000000000e-01) (106, 5, 5.00000000000000000000e-01) (106, 5, 5.00000000000000000000e-01) (106, 5, 5.00000000000000000000e-01) (106, 5, 5.00000000000000000000e-01) (106, 5, 5.00000000000000000000e-01) (106, 5, 5.00000000000000000000e-01) (106, 5, 5.00000000000000000000e-01) (106, 5, 5.00000000000000000000e-01) (106, 5, 5.00000000000000000000e-01) (106, 5, 5.00000000000000000000e-01) (106, 5, 5.00000000000000000000e-01) (106, 5, 5.00000000000000000000e-01) (106, 5, 5.00000000000000000000e-01) (106, 5, 5.00000000000000000000e-01) (106, 5, 5.00000000000000000000e-01) (106, 5, 5.00000000000000000000e-01) (106, 5, 5.00000000000000000000e-01) (106, 5, 5.00000000000000000000e-01) (106, 5, 5.00000000000000000000e-01) (0, 5, 0.00000000000000000000e+00) (106, 3, 5.00000000000000000000e-01) (106, 3, 5.00000000000000000000e-01) (106, 3, 5.00000000000000000000e-01) (106, 3, 5.00000000000000000000e-01) (106, 3, 5.00000000000000000000e-01) (106, 3, 5.00000000000000000000e-01) (106, 3, 5.00000000000000000000e-01) (106, 3, 5.00000000000000000000e-01) (106, 3, 5.00000000000000000000e-01) (106, 3, 5.00000000000000000000e-01) (106, 3, 5.00000000000000000000e-01) (106, 3, 5.00000000000000000000e-01) (106, 3, 5.00000000000000000000e-01) (106, 3, 5.00000000000000000000e-01) (106, 3, 5.00000000000000000000e-01) (106, 3, 5.00000000000000000000e-01) (106, 3, 5.00000000000000000000e-01) (106, 3, 5.00000000000000000000e-01) (106, 3, 5.00000000000000000000e-01) (106, 3, 5.00000000000000000000e-01) (106, 3, 5.00000000000000000000e-01) (106, 3, 5.00000000000000000000e-01) (106, 3, 5.00000000000000000000e-01) (106, 3, 5.00000000000000000000e-01) (106, 3, 5.00000000000000000000e-01) (106, 3, 5.00000000000000000000e-01) (106, 3, 5.00000000000000000000e-01) (106, 3, 5.00000000000000000000e-01) (106, 3, 5.00000000000000000000e-01) (106, 3, 5.00000000000000000000e-01) (106, 3, 5.00000000000000000000e-01) (106, 3, 5.00000000000000000000e-01) (106, 3, 5.00000000000000000000e-01) (106, 3, 5.00000000000000000000e-01) (106, 3, 5.00000000000000000000e-01) (106, 3, 5.00000000000000000000e-01) (106, 3, 5.00000000000000000000e-01) (106, 3, 5.00000000000000000000e-01) (106, 3, 5.00000000000000000000e-01) (106, 3, 5.00000000000000000000e-01) (106, 3, 5.00000000000000000000e-01) (106, 3, 5.00000000000000000000e-01) (106, 3, 5.00000000000000000000e-01) (106, 3, 5.00000000000000000000e-01) (106, 3, 5.00000000000000000000e-01) (106, 3, 5.00000000000000000000e-01) (106, 3, 5.00000000000000000000e-01) (106, 3, 5.00000000000000000000e-01) (106, 3, 5.00000000000000000000e-01) (106, 3, 5.00000000000000000000e-01) (106, 3, 5.00000000000000000000e-01) (106, 3, 5.00000000000000000000e-01) (106, 3, 5.00000000000000000000e-01) (106, 3, 5.00000000000000000000e-01) (106, 3, 5.00000000000000000000e-01) (106, 3, 5.00000000000000000000e-01) (106, 3, 5.00000000000000000000e-01) (106, 3, 5.00000000000000000000e-01) (106, 3, 5.00000000000000000000e-01) (106, 3, 5.00000000000000000000e-01) (106, 3, 5.00000000000000000000e-01) (106, 3, 5.00000000000000000000e-01) (106, 3, 5.00000000000000000000e-01) (106, 3, 5.00000000000000000000e-01) (106, 3, 5.00000000000000000000e-01) (106, 3, 5.00000000000000000000e-01) (106, 3, 5.00000000000000000000e-01) (106, 3, 5.00000000000000000000e-01) (106, 3, 5.00000000000000000000e-01) (106, 3, 5.00000000000000000000e-01) (106, 3, 5.00000000000000000000e-01) (106, 3, 5.00000000000000000000e-01) (106, 3, 5.00000000000000000000e-01) (106, 3, 5.00000000000000000000e-01) (106, 3, 5.00000000000000000000e-01) (106, 3, 5.00000000000000000000e-01) (106, 3, 5.00000000000000000000e-01) (106, 3, 5.00000000000000000000e-01) (106, 3, 5.00000000000000000000e-01) (106, 3, 5.00000000000000000000e-01) (106, 3, 5.00000000000000000000e-01) (106, 3, 5.00000000000000000000e-01) (106, 3, 5.00000000000000000000e-01) (106, 3, 5.00000000000000000000e-01) (106, 3, 5.00000000000000000000e-01) (106, 3, 5.00000000000000000000e-01) (106, 3, 5.00000000000000000000e-01) (106, 3, 5.00000000000000000000e-01) (106, 3, 5.00000000000000000000e-01) (106, 3, 5.00000000000000000000e-01) (106, 3, 5.00000000000000000000e-01) (106, 3, 5.00000000000000000000e-01) (106, 3, 5.00000000000000000000e-01) (106, 3, 5.00000000000000000000e-01) (106, 3, 5.00000000000000000000e-01) (106, 3, 5.00000000000000000000e-01) (106, 3, 5.00000000000000000000e-01) (106, 3, 5.00000000000000000000e-01) (106, 3, 5.00000000000000000000e-01) (106, 3, 5.00000000000000000000e-01) (106, 3, 5.00000000000000000000e-01) (106, 3, 5.00000000000000000000e-01) (106, 3, 5.00000000000000000000e-01) (106, 3, 5.00000000000000000000e-01) (106, 3, 5.00000000000000000000e-01) (0, 3, 0.00000000000000000000e+00) 
connections (connected_to_neuron, weight)=(0, -3.72091531753540039062e+00) (1, -5.31467723846435546875e+00) (2, -4.43644237518310546875e+00) (3, -2.39850568771362304688e+00) (4, -6.07533693313598632812e-01) (5, 1.80151581764221191406e+00) (6, -4.31884527206420898438e+00) (7, 3.76054018735885620117e-01) (8, -1.99876189231872558594e+00) (9, -5.52361309528350830078e-01) (10, -4.01190251111984252930e-01) (11, 9.70443904399871826172e-01) (12, -2.97700725495815277100e-02) (13, 1.80712413787841796875e+00) (14, -1.78485000133514404297e+00) (15, -3.78453874588012695312e+00) (16, -5.27688217163085937500e+00) (17, -4.38626527786254882812e+00) (18, -2.27287769317626953125e+00) (19, -6.61497354507446289062e-01) (20, 1.82361531257629394531e+00) (21, -4.38086032867431640625e+00) (22, 3.16836804151535034180e-01) (23, -2.05377197265625000000e+00) (24, -4.88180905580520629883e-01) (25, -3.99759382009506225586e-01) (26, 1.03691244125366210938e+00) (27, -8.67190286517143249512e-02) (28, 1.94270956516265869141e+00) (29, -1.70786035060882568359e+00) (30, -3.60244846343994140625e+00) (31, -5.44200325012207031250e+00) (32, -4.43752193450927734375e+00) (33, -2.37590956687927246094e+00) (34, -6.68742179870605468750e-01) (35, 1.82178616523742675781e+00) (36, -4.34413337707519531250e+00) (37, 3.85183781385421752930e-01) (38, -2.01930737495422363281e+00) (39, -5.70608556270599365234e-01) (40, -3.94240349531173706055e-01) (41, 8.91077041625976562500e-01) (42, 7.64776021242141723633e-03) (43, 1.84497404098510742188e+00) (44, -1.78960621356964111328e+00) (45, 3.91052253544330596924e-02) (46, 8.82028758525848388672e-01) (47, 9.86624285578727722168e-02) (48, 8.71954143047332763672e-01) (49, 7.36292377114295959473e-02) (50, 8.54242026805877685547e-01) (51, 9.86962795257568359375e-01) (52, 8.96334350109100341797e-01) (53, 2.01691384427249431610e-03) (54, 7.26707950234413146973e-02) (55, 3.99348512291908264160e-02) (56, -3.00058666616678237915e-02) (57, 4.42019812762737274170e-02) (58, 5.07806055247783660889e-02) (59, -9.09814015030860900879e-02) (60, 8.94062221050262451172e-01) (61, 9.73608553409576416016e-01) (62, 8.52404773235321044922e-01) (63, -2.30118050239980220795e-03) (64, 6.21760599315166473389e-02) (65, 8.61761748790740966797e-01) (66, -8.91214609146118164062e-02) (67, 9.21608626842498779297e-01) (68, 7.78835639357566833496e-02) (69, -2.99720168113708496094e-02) (70, -1.72197818756103515625e-02) (71, 5.13797402381896972656e-02) (72, -4.27625793963670730591e-03) (73, 8.79923924803733825684e-02) (74, 9.26705375313758850098e-02) (75, -3.66143846511840820312e+00) (76, -5.31931114196777343750e+00) (77, -4.44441413879394531250e+00) (78, -2.27993273735046386719e+00) (79, -5.18024981021881103516e-01) (80, 1.71795678138732910156e+00) (81, -4.32580041885375976562e+00) (82, 3.38144034147262573242e-01) (83, -2.01174855232238769531e+00) (84, -5.29954135417938232422e-01) (85, -4.87006276845932006836e-01) (86, 8.72024178504943847656e-01) (87, 1.32338479161262512207e-02) (88, 1.82861566543579101562e+00) (89, -1.66131949424743652344e+00) (90, 1.98168642818927764893e-02) (91, 9.18995082378387451172e-01) (92, 9.31032359600067138672e-01) (93, 9.72221434116363525391e-01) (94, 7.77161493897438049316e-02) (95, -4.57692518830299377441e-02) (96, 9.95005249977111816406e-01) (97, 1.02757179737091064453e+00) (98, 9.75839197635650634766e-01) (99, 3.39112989604473114014e-02) (100, -4.13773246109485626221e-02) (101, -8.03584158420562744141e-02) (102, -1.47089660167694091797e-02) (103, 5.43464198708534240723e-02) (104, -9.23660174012184143066e-02) (105, 7.23881423473358154297e-01) (0, 3.90214157104492187500e+00) (1, -1.13389992713928222656e+00) (2, -2.16033983230590820312e+00) (3, -3.49186801910400390625e+00) (4, 1.02818548679351806641e+00) (5, -2.73202031850814819336e-01) (6, 3.76035404205322265625e+00) (7, 1.80775868892669677734e+00) (8, -1.39269387722015380859e+00) (9, 8.57683241367340087891e-01) (10, 8.28846573829650878906e-01) (11, -6.66014492511749267578e-01) (12, -3.56363236904144287109e-01) (13, 1.16105966269969940186e-01) (14, 1.43682777881622314453e+00) (15, 3.83587074279785156250e+00) (16, -1.08008611202239990234e+00) (17, -2.22815942764282226562e+00) (18, -3.34841775894165039062e+00) (19, 1.09964168071746826172e+00) (20, -2.96141892671585083008e-01) (21, 3.72104430198669433594e+00) (22, 1.95975112915039062500e+00) (23, -1.54548013210296630859e+00) (24, 7.11480557918548583984e-01) (25, 7.58729994297027587891e-01) (26, -8.05802404880523681641e-01) (27, -3.28072547912597656250e-01) (28, 1.75403773784637451172e-01) (29, 1.34725034236907958984e+00) (30, 4.02230596542358398438e+00) (31, -1.22159898281097412109e+00) (32, -2.07506132125854492188e+00) (33, -3.38154268264770507812e+00) (34, 9.83142316341400146484e-01) (35, -3.02467614412307739258e-01) (36, 3.65492677688598632812e+00) (37, 1.99617457389831542969e+00) (38, -1.48580205440521240234e+00) (39, 7.01194107532501220703e-01) (40, 9.18852627277374267578e-01) (41, -6.82169735431671142578e-01) (42, -4.27264809608459472656e-01) (43, 7.42977187037467956543e-02) (44, 1.37177777290344238281e+00) (45, 7.60272145271301269531e-02) (46, 6.59307181835174560547e-01) (47, -2.26949509233236312866e-02) (48, 6.01541459560394287109e-01) (49, -7.41625800728797912598e-02) (50, 6.23216807842254638672e-01) (51, 7.01635301113128662109e-01) (52, 7.07695066928863525391e-01) (53, 9.84239950776100158691e-02) (54, 5.89416511356830596924e-02) (55, 6.41644001007080078125e-02) (56, -8.80965143442153930664e-02) (57, -8.44607800245285034180e-02) (58, -1.44254267215728759766e-02) (59, 7.97294005751609802246e-02) (60, 6.59420669078826904297e-01) (61, 6.64596259593963623047e-01) (62, 6.06412589550018310547e-01) (63, -2.12660916149616241455e-02) (64, 9.80015024542808532715e-02) (65, 6.56175076961517333984e-01) (66, 7.25027546286582946777e-02) (67, 6.13741457462310791016e-01) (68, -3.21948044002056121826e-02) (69, -3.08629106730222702026e-02) (70, -4.00762856006622314453e-02) (71, -5.85934631526470184326e-02) (72, -5.06324879825115203857e-02) (73, -1.78582370281219482422e-02) (74, 8.12742765992879867554e-03) (75, 3.96106100082397460938e+00) (76, -1.21046292781829833984e+00) (77, -2.08623909950256347656e+00) (78, -3.47916650772094726562e+00) (79, 1.01343977451324462891e+00) (80, -3.82614165544509887695e-01) (81, 3.67783546447753906250e+00) (82, 1.80693900585174560547e+00) (83, -1.44076883792877197266e+00) (84, 7.32784330844879150391e-01) (85, 9.06238496303558349609e-01) (86, -7.56568014621734619141e-01) (87, -3.80156457424163818359e-01) (88, 1.84104382991790771484e-01) (89, 1.47442495822906494141e+00) (90, -5.09443096816539764404e-02) (91, 6.35947048664093017578e-01) (92, 6.56002819538116455078e-01) (93, 6.55467927455902099609e-01) (94, 3.50312590599060058594e-02) (95, -2.56457868963479995728e-02) (96, 7.31992900371551513672e-01) (97, 6.87183678150177001953e-01) (98, 6.88095152378082275391e-01) (99, -7.98516646027565002441e-02) (100, 7.66711011528968811035e-02) (101, 6.83692023158073425293e-02) (102, -3.84451262652873992920e-02) (103, -7.39613845944404602051e-02) (104, -4.94890399277210235596e-02) (105, 6.96806609630584716797e-01) (0, 2.37289953231811523438e+00) (1, 4.30686521530151367188e+00) (2, 2.60812664031982421875e+00) (3, 2.84520936012268066406e+00) (4, 2.61809325218200683594e+00) (5, 3.80773186683654785156e+00) (6, -1.59316658973693847656e+00) (7, 5.19829452037811279297e-01) (8, 1.82063221931457519531e+00) (9, 7.55737781524658203125e-01) (10, 9.05233025550842285156e-01) (11, -3.37895601987838745117e-01) (12, -1.35644221305847167969e+00) (13, 1.00956571102142333984e+00) (14, -8.91051530838012695312e-01) (15, 2.22313547134399414062e+00) (16, 4.38278293609619140625e+00) (17, 2.53700637817382812500e+00) (18, 2.75583052635192871094e+00) (19, 2.54898095130920410156e+00) (20, 3.79734539985656738281e+00) (21, -1.58920073509216308594e+00) (22, 3.56205910444259643555e-01) (23, 1.77702283859252929688e+00) (24, 7.22428798675537109375e-01) (25, 7.57292389869689941406e-01) (26, -3.18967700004577636719e-01) (27, -1.39752221107482910156e+00) (28, 9.11138057708740234375e-01) (29, -8.13019037246704101562e-01) (30, 2.30268144607543945312e+00) (31, 4.39222288131713867188e+00) (32, 2.64736652374267578125e+00) (33, 2.71702647209167480469e+00) (34, 2.60298705101013183594e+00) (35, 3.82208847999572753906e+00) (36, -1.60925889015197753906e+00) (37, 3.41273516416549682617e-01) (38, 1.88410878181457519531e+00) (39, 7.94979333877563476562e-01) (40, 8.61707806587219238281e-01) (41, -2.28477925062179565430e-01) (42, -1.36793875694274902344e+00) (43, 9.54858958721160888672e-01) (44, -8.44740748405456542969e-01) (45, 6.38431459665298461914e-02) (46, -8.89739155769348144531e-01) (47, -5.90973943471908569336e-02) (48, -9.27541971206665039062e-01) (49, 7.82116204500198364258e-02) (50, -8.17202329635620117188e-01) (51, -9.66839909553527832031e-01) (52, -9.56958889961242675781e-01) (53, 8.76930579543113708496e-02) (54, -1.99603792279958724976e-02) (55, -1.65169667452573776245e-02) (56, 9.15264040231704711914e-02) (57, 1.75560358911752700806e-02) (58, -9.22522172331809997559e-02) (59, -7.86016359925270080566e-02) (60, -9.72148537635803222656e-01) (61, -8.76037240028381347656e-01) (62, -9.62296605110168457031e-01) (63, -9.77092608809471130371e-02) (64, 5.31089305877685546875e-02) (65, -7.88664102554321289062e-01) (66, 8.77380371093750000000e-02) (67, -8.02121281623840332031e-01) (68, -9.87008437514305114746e-02) (69, 6.39710053801536560059e-02) (70, 1.08721135184168815613e-02) (71, 9.54723358154296875000e-03) (72, -8.02297610789537429810e-03) (73, -3.52795608341693878174e-02) (74, 8.31400379538536071777e-02) (75, 2.35701704025268554688e+00) (76, 4.22674894332885742188e+00) (77, 2.52179193496704101562e+00) (78, 2.85479760169982910156e+00) (79, 2.50810694694519042969e+00) (80, 3.68598961830139160156e+00) (81, -1.48204660415649414062e+00) (82, 4.18690413236618041992e-01) (83, 1.77799367904663085938e+00) (84, 7.97128438949584960938e-01) (85, 9.23145771026611328125e-01) (86, -2.02883034944534301758e-01) (87, -1.39285111427307128906e+00) (88, 9.68508422374725341797e-01) (89, -7.39697575569152832031e-01) (90, 5.03339283168315887451e-02) (91, -8.84906768798828125000e-01) (92, -9.14688825607299804688e-01) (93, -8.11963677406311035156e-01) (94, -4.88351006060838699341e-03) (95, -8.38473886251449584961e-02) (96, -8.22894334793090820312e-01) (97, -8.94878268241882324219e-01) (98, -7.85969018936157226562e-01) (99, 5.61381243169307708740e-02) (100, -5.31744658946990966797e-02) (101, 2.63693346641957759857e-03) (102, -3.43146435916423797607e-02) (103, 3.88025641441345214844e-02) (104, 6.73573762178421020508e-02) (105, -1.34629249572753906250e-01) (0, -2.56224395707249641418e-03) (1, 1.62937211990356445312e+00) (2, -2.55092549324035644531e+00) (3, 7.93726965785026550293e-02) (4, -8.67593824863433837891e-01) (5, 2.45860552787780761719e+00) (6, 7.86486923694610595703e-01) (7, 8.13683867454528808594e-01) (8, 1.71923589706420898438e+00) (9, 1.46567010879516601562e+00) (10, -1.26217925548553466797e+00) (11, 4.59892265498638153076e-02) (12, -1.18777966499328613281e+00) (13, -1.53677678108215332031e+00) (14, -6.70328855514526367188e-01) (15, -4.69828061759471893311e-02) (16, 1.54752707481384277344e+00) (17, -2.65346932411193847656e+00) (18, 1.15368226543068885803e-02) (19, -9.33076083660125732422e-01) (20, 2.32287049293518066406e+00) (21, 9.23773825168609619141e-01) (22, 7.41408467292785644531e-01) (23, 1.70514726638793945312e+00) (24, 1.42168617248535156250e+00) (25, -1.25731444358825683594e+00) (26, -1.90636571496725082397e-02) (27, -1.09501385688781738281e+00) (28, -1.48035240173339843750e+00) (29, -7.29373455047607421875e-01) (30, -5.57254962623119354248e-02) (31, 1.59821152687072753906e+00) (32, -2.57963633537292480469e+00) (33, 1.56983256340026855469e-01) (34, -9.01237905025482177734e-01) (35, 2.45522522926330566406e+00) (36, 8.83684933185577392578e-01) (37, 7.16379284858703613281e-01) (38, 1.81005978584289550781e+00) (39, 1.46488046646118164062e+00) (40, -1.36577284336090087891e+00) (41, -8.27800258994102478027e-02) (42, -1.12448215484619140625e+00) (43, -1.43528270721435546875e+00) (44, -7.39196717739105224609e-01) (45, 1.00003005936741828918e-02) (46, -1.69525933265686035156e+00) (47, 9.95798259973526000977e-02) (48, -1.73325419425964355469e+00) (49, 7.38446488976478576660e-02) (50, -1.85189723968505859375e+00) (51, -1.69968628883361816406e+00) (52, -1.72355103492736816406e+00) (53, 8.19778477307409048080e-04) (54, 8.63157436251640319824e-02) (55, -4.34698723256587982178e-02) (56, -6.03074543178081512451e-02) (57, 1.42852431163191795349e-02) (58, -5.83727136254310607910e-02) (59, 1.73678752034902572632e-02) (60, -1.85105729103088378906e+00) (61, -1.78512001037597656250e+00) (62, -1.77854156494140625000e+00) (63, 8.59963882248848676682e-04) (64, -7.05689564347267150879e-02) (65, -1.73750996589660644531e+00) (66, -3.32169644534587860107e-02) (67, -1.70805335044860839844e+00) (68, 9.01771113276481628418e-02) (69, 9.70279946923255920410e-02) (70, 1.52220129966735839844e-02) (71, -7.94095173478126525879e-02) (72, -3.87188903987407684326e-02) (73, -2.91491337120532989502e-02) (74, 4.33351881802082061768e-02) (75, 5.71375153958797454834e-02) (76, 1.61430239677429199219e+00) (77, -2.56213903427124023438e+00) (78, 1.49466753005981445312e-01) (79, -8.34002554416656494141e-01) (80, 2.37189221382141113281e+00) (81, 9.15637552738189697266e-01) (82, 7.18611121177673339844e-01) (83, 1.69952273368835449219e+00) (84, 1.35823130607604980469e+00) (85, -1.34062075614929199219e+00) (86, -7.07949474453926086426e-02) (87, -1.18446159362792968750e+00) (88, -1.38817667961120605469e+00) (89, -7.06834793090820312500e-01) (90, -8.69827121496200561523e-02) (91, -1.68120622634887695312e+00) (92, -1.66725373268127441406e+00) (93, -1.76552414894104003906e+00) (94, -1.96771621704101562500e-02) (95, -7.71535933017730712891e-02) (96, -1.84236454963684082031e+00) (97, -1.71356344223022460938e+00) (98, -1.68520712852478027344e+00) (99, -9.15177017450332641602e-02) (100, 4.41338680684566497803e-02) (101, -9.31582506746053695679e-03) (102, -7.09272250533103942871e-02) (103, -9.45850312709808349609e-02) (104, 6.15350492298603057861e-02) (105, -1.15047454833984375000e+00) (0, 3.40103030204772949219e+00) (1, 1.10958528518676757812e+00) (2, 1.11138224601745605469e+00) (3, 5.66130876541137695312e+00) (4, -1.10673773288726806641e+00) (5, -3.81590771675109863281e+00) (6, -1.64005243778228759766e+00) (7, 5.82863926887512207031e-01) (8, -6.59213185310363769531e-01) (9, -2.08777117729187011719e+00) (10, -6.72705650329589843750e-01) (11, 3.23958307504653930664e-01) (12, -3.95963811874389648438e+00) (13, 2.76829779148101806641e-01) (14, 4.63034659624099731445e-02) (15, 3.26715350151062011719e+00) (16, 1.09198081493377685547e+00) (17, 1.20120000839233398438e+00) (18, 5.67621469497680664062e+00) (19, -1.15228617191314697266e+00) (20, -3.78583407402038574219e+00) (21, -1.56197774410247802734e+00) (22, 6.15171968936920166016e-01) (23, -6.73385143280029296875e-01) (24, -2.05717110633850097656e+00) (25, -7.51829028129577636719e-01) (26, 3.24232012033462524414e-01) (27, -3.79561376571655273438e+00) (28, 2.33270138502120971680e-01) (29, -1.09753407537937164307e-01) (30, 3.39056849479675292969e+00) (31, 1.02115821838378906250e+00) (32, 1.19411385059356689453e+00) (33, 5.58563661575317382812e+00) (34, -1.00486719608306884766e+00) (35, -3.96511363983154296875e+00) (36, -1.50711953639984130859e+00) (37, 4.69186097383499145508e-01) (38, -7.08224415779113769531e-01) (39, -2.02734327316284179688e+00) (40, -7.32290685176849365234e-01) (41, 3.74176710844039916992e-01) (42, -3.93517088890075683594e+00) (43, 2.52701282501220703125e-01) (44, -7.60245919227600097656e-02) (45, -9.26702469587326049805e-02) (46, -2.08547043800354003906e+00) (47, 8.00083801150321960449e-02) (48, -2.04668593406677246094e+00) (49, -4.70142252743244171143e-02) (50, -2.03987336158752441406e+00) (51, -2.05286955833435058594e+00) (52, -2.04022479057312011719e+00) (53, 3.73234637081623077393e-02) (54, 4.13950793445110321045e-02) (55, 2.50196587294340133667e-02) (56, -6.63321912288665771484e-02) (57, -9.86420661211013793945e-02) (58, -5.64947118982672691345e-03) (59, 3.54271307587623596191e-02) (60, -2.20213055610656738281e+00) (61, -2.18889737129211425781e+00) (62, -2.03559994697570800781e+00) (63, 8.67399796843528747559e-02) (64, -4.10187132656574249268e-02) (65, -2.08307623863220214844e+00) (66, -9.87230688333511352539e-02) (67, -2.17937016487121582031e+00) (68, 4.81339097023010253906e-02) (69, 3.57165113091468811035e-02) (70, -8.42981263995170593262e-02) (71, -3.59833724796772003174e-02) (72, -5.43757937848567962646e-02) (73, -5.45231178402900695801e-02) (74, 8.52069258689880371094e-02) (75, 3.34967923164367675781e+00) (76, 1.02000570297241210938e+00) (77, 1.15495169162750244141e+00) (78, 5.64360380172729492188e+00) (79, -1.12628424167633056641e+00) (80, -3.80194282531738281250e+00) (81, -1.62778151035308837891e+00) (82, 4.66184645891189575195e-01) (83, -6.80194377899169921875e-01) (84, -2.19413328170776367188e+00) (85, -7.03555762767791748047e-01) (86, 3.51758152246475219727e-01) (87, -3.92798256874084472656e+00) (88, 2.77486860752105712891e-01) (89, 5.05880787968635559082e-02) (90, 7.23905712366104125977e-02) (91, -2.05615448951721191406e+00) (92, -2.20705723762512207031e+00) (93, -2.06320929527282714844e+00) (94, 5.55717237293720245361e-02) (95, -2.30897199362516403198e-02) (96, -2.12130045890808105469e+00) (97, -2.06813740730285644531e+00) (98, -2.10245966911315917969e+00) (99, -4.81800213456153869629e-02) (100, -7.43483332917094230652e-03) (101, 3.82282510399818420410e-02) (102, 1.58366095274686813354e-02) (103, 3.81893776357173919678e-02) (104, 8.37051272392272949219e-02) (105, -2.09456419944763183594e+00) (0, -1.98243069648742675781e+00) (1, 1.57372736930847167969e+00) (2, 1.31035935878753662109e+00) (3, -5.06862831115722656250e+00) (4, -7.21929788589477539062e-01) (5, -3.55875945091247558594e+00) (6, -2.06274700164794921875e+00) (7, -1.73378813266754150391e+00) (8, 8.03650379180908203125e-01) (9, 1.01771354675292968750e+00) (10, 1.05626869201660156250e+00) (11, 5.37796020507812500000e-01) (12, -2.04723134636878967285e-01) (13, -5.15371501445770263672e-01) (14, -4.11525696516036987305e-01) (15, -1.82294940948486328125e+00) (16, 1.66748237609863281250e+00) (17, 1.33779442310333251953e+00) (18, -5.02822971343994140625e+00) (19, -7.03709602355957031250e-01) (20, -3.43212199211120605469e+00) (21, -2.18463420867919921875e+00) (22, -1.76194226741790771484e+00) (23, 6.90345644950866699219e-01) (24, 9.44349944591522216797e-01) (25, 1.17606186866760253906e+00) (26, 6.75229668617248535156e-01) (27, -1.99213281273841857910e-01) (28, -6.03365242481231689453e-01) (29, -2.72226661443710327148e-01) (30, -1.88878655433654785156e+00) (31, 1.64969754219055175781e+00) (32, 1.29567611217498779297e+00) (33, -5.03007793426513671875e+00) (34, -7.57167100906372070312e-01) (35, -3.48353219032287597656e+00) (36, -2.08669495582580566406e+00) (37, -1.78637635707855224609e+00) (38, 7.87249565124511718750e-01) (39, 9.56412255764007568359e-01) (40, 1.04822969436645507812e+00) (41, 6.49365186691284179688e-01) (42, -4.95553389191627502441e-02) (43, -6.43256366252899169922e-01) (44, -3.20361346006393432617e-01) (45, -8.34299847483634948730e-02) (46, 1.58317792415618896484e+00) (47, -4.32970933616161346436e-02) (48, 1.62087714672088623047e+00) (49, 9.23695787787437438965e-02) (50, 1.69364726543426513672e+00) (51, 1.75098741054534912109e+00) (52, 1.60745990276336669922e+00) (53, 8.52286145091056823730e-02) (54, -4.74809184670448303223e-02) (55, 7.21574351191520690918e-02) (56, 2.04809661954641342163e-02) (57, -5.66153116524219512939e-02) (58, -9.62020531296730041504e-02) (59, 9.39226970076560974121e-02) (60, 1.56906163692474365234e+00) (61, 1.68758761882781982422e+00) (62, 1.65751063823699951172e+00) (63, -7.09620788693428039551e-02) (64, -5.06830215454101562500e-03) (65, 1.68989169597625732422e+00) (66, 7.73868570104241371155e-03) (67, 1.60796105861663818359e+00) (68, 5.70387020707130432129e-02) (69, -4.27193827927112579346e-02) (70, 8.47211405634880065918e-02) (71, 6.44586607813835144043e-02) (72, -7.77183175086975097656e-02) (73, 6.60194382071495056152e-02) (74, 9.80092212557792663574e-02) (75, -1.87275290489196777344e+00) (76, 1.71980571746826171875e+00) (77, 1.31467473506927490234e+00) (78, -5.18310546875000000000e+00) (79, -7.37188220024108886719e-01) (80, -3.53978228569030761719e+00) (81, -2.10065603256225585938e+00) (82, -1.75238740444183349609e+00) (83, 7.16512084007263183594e-01) (84, 9.61736619472503662109e-01) (85, 1.14557075500488281250e+00) (86, 5.35325288772583007812e-01) (87, -1.77182003855705261230e-01) (88, -5.28660953044891357422e-01) (89, -3.92037957906723022461e-01) (90, -5.24055920541286468506e-02) (91, 1.71720683574676513672e+00) (92, 1.74234712123870849609e+00) (93, 1.70510518550872802734e+00) (94, 9.51390191912651062012e-02) (95, -1.38268833979964256287e-02) (96, 1.64389121532440185547e+00) (97, 1.65398395061492919922e+00) (98, 1.69413363933563232422e+00) (99, -5.01763932406902313232e-02) (100, 6.01583234965801239014e-02) (101, 2.77491807937622070312e-02) (102, -8.57177376747131347656e-02) (103, 8.24400112032890319824e-02) (104, -6.23138574883341789246e-03) (105, 1.87416017055511474609e+00) (0, 4.31252431869506835938e+00) (1, 5.14117193222045898438e+00) (2, 3.21316361427307128906e+00) (3, 3.03920650482177734375e+00) (4, 2.47861242294311523438e+00) (5, 3.22679090499877929688e+00) (6, 5.91128110885620117188e+00) (7, -8.00656974315643310547e-01) (8, 1.64091289043426513672e+00) (9, 1.97364747524261474609e-01) (10, 1.01692020893096923828e+00) (11, 1.21677935123443603516e-01) (12, -8.40164870023727416992e-02) (13, 1.00121915340423583984e-01) (14, -1.66454529762268066406e+00) (15, 4.30036449432373046875e+00) (16, 5.26478195190429687500e+00) (17, 3.21138072013854980469e+00) (18, 2.97562456130981445312e+00) (19, 2.54500055313110351562e+00) (20, 3.28873014450073242188e+00) (21, 5.99252271652221679688e+00) (22, -8.83631765842437744141e-01) (23, 1.56707632541656494141e+00) (24, 1.95238560438156127930e-01) (25, 9.89342272281646728516e-01) (26, 1.24629080295562744141e-01) (27, -1.25532343983650207520e-01) (28, 1.06838308274745941162e-01) (29, -1.62258470058441162109e+00) (30, 4.22354650497436523438e+00) (31, 5.23655414581298828125e+00) (32, 3.33845734596252441406e+00) (33, 2.98717927932739257812e+00) (34, 2.45821332931518554688e+00) (35, 3.25835275650024414062e+00) (36, 5.97611474990844726562e+00) (37, -7.88757264614105224609e-01) (38, 1.57463014125823974609e+00) (39, 2.72635757923126220703e-01) (40, 9.41790521144866943359e-01) (41, 9.01550650596618652344e-02) (42, -6.78300559520721435547e-02) (43, 1.48249566555023193359e-01) (44, -1.51696014404296875000e+00) (45, 3.69374640285968780518e-02) (46, -1.80200302600860595703e+00) (47, 9.69005003571510314941e-02) (48, -1.62546694278717041016e+00) (49, -2.60116457939147949219e-02) (50, -1.61098635196685791016e+00) (51, -1.69870483875274658203e+00) (52, -1.76322567462921142578e+00) (53, -1.00080017000436782837e-02) (54, 7.40795880556106567383e-02) (55, -4.46251928806304931641e-02) (56, 4.81349229812622070312e-02) (57, 7.16192126274108886719e-02) (58, -1.47378984838724136353e-02) (59, 8.87178555130958557129e-02) (60, -1.74006760120391845703e+00) (61, -1.67555296421051025391e+00) (62, -1.64253437519073486328e+00) (63, -6.94062337279319763184e-02) (64, -8.80079045891761779785e-02) (65, -1.73421680927276611328e+00) (66, 2.69783139228820800781e-02) (67, -1.64162695407867431641e+00) (68, -3.83622832596302032471e-02) (69, -9.56769883632659912109e-02) (70, -4.56326082348823547363e-02) (71, -2.77710258960723876953e-02) (72, 6.73888325691223144531e-02) (73, 4.19569872319698333740e-02) (74, 5.42233102023601531982e-02) (75, 4.34568834304809570312e+00) (76, 5.14370775222778320312e+00) (77, 3.32600617408752441406e+00) (78, 3.06384992599487304688e+00) (79, 2.40631532669067382812e+00) (80, 3.19117164611816406250e+00) (81, 5.97996950149536132812e+00) (82, -8.20906698703765869141e-01) (83, 1.56625902652740478516e+00) (84, 2.22854450345039367676e-01) (85, 1.06598901748657226562e+00) (86, 5.14386966824531555176e-02) (87, 3.59367802739143371582e-02) (88, 1.72664344310760498047e-01) (89, -1.70428299903869628906e+00) (90, 8.00741240382194519043e-02) (91, -1.63365709781646728516e+00) (92, -1.66594278812408447266e+00) (93, -1.66246092319488525391e+00) (94, 9.99303832650184631348e-02) (95, 4.90431785583496093750e-02) (96, -1.79368460178375244141e+00) (97, -1.67608511447906494141e+00) (98, -1.69258463382720947266e+00) (99, -2.90517266839742660522e-02) (100, 3.12317144125699996948e-02) (101, 6.47768154740333557129e-02) (102, 4.31772470474243164062e-02) (103, -1.37946009635925292969e-03) (104, 6.73381099477410316467e-03) (105, -1.06067705154418945312e+00) (0, -1.96564555168151855469e+00) (1, 7.68357098102569580078e-01) (2, -1.92553830146789550781e+00) (3, -3.40559792518615722656e+00) (4, -8.74826431274414062500e-01) (5, 2.62949734926223754883e-01) (6, 3.37922543287277221680e-01) (7, 2.38532400131225585938e+00) (8, 3.23396831750869750977e-01) (9, 1.11630871891975402832e-01) (10, -5.63804328441619873047e-01) (11, 1.26649513840675354004e-02) (12, 2.88016557693481445312e-01) (13, -4.72820222377777099609e-01) (14, -2.65208572149276733398e-01) (15, -1.83654499053955078125e+00) (16, 5.96024274826049804688e-01) (17, -1.95635163784027099609e+00) (18, -3.29718470573425292969e+00) (19, -9.03650045394897460938e-01) (20, 3.51975500583648681641e-01) (21, 3.02417308092117309570e-01) (22, 2.52269935607910156250e+00) (23, 2.53859132528305053711e-01) (24, 1.03852719068527221680e-01) (25, -6.29987537860870361328e-01) (26, -1.64441764354705810547e-02) (27, 4.32059407234191894531e-01) (28, -3.46792340278625488281e-01) (29, -1.97194382548332214355e-01) (30, -1.97517287731170654297e+00) (31, 6.15657508373260498047e-01) (32, -1.83975982666015625000e+00) (33, -3.32373213768005371094e+00) (34, -8.59782814979553222656e-01) (35, 3.61573457717895507812e-01) (36, 3.48378688097000122070e-01) (37, 2.41704988479614257812e+00) (38, 3.55806797742843627930e-01) (39, 2.29657694697380065918e-01) (40, -6.46253049373626708984e-01) (41, 5.82767017185688018799e-02) (42, 2.89828062057495117188e-01) (43, -4.49707567691802978516e-01) (44, -1.85248062014579772949e-01) (45, -1.46684644278138875961e-03) (46, -1.14847683906555175781e+00) (47, 7.80068859457969665527e-02) (48, -1.08725810050964355469e+00) (49, 9.16942581534385681152e-02) (50, -1.01636028289794921875e+00) (51, -1.11641311645507812500e+00) (52, -1.07401061058044433594e+00) (53, 3.13674211502075195312e-02) (54, 7.24345371127128601074e-02) (55, 4.64190952479839324951e-02) (56, -9.72662568092346191406e-02) (57, -8.15341845154762268066e-02) (58, 2.43288278579711914062e-03) (59, 7.27206096053123474121e-02) (60, -1.03636217117309570312e+00) (61, -1.05174565315246582031e+00) (62, -1.20194411277770996094e+00) (63, 9.62426699697971343994e-03) (64, -3.81227023899555206299e-02) (65, -1.14485096931457519531e+00) (66, -9.93289984762668609619e-03) (67, -1.15786671638488769531e+00) (68, -2.77172937057912349701e-03) (69, -2.67302524298429489136e-02) (70, 8.83683562278747558594e-02) (71, 5.23289218544960021973e-02) (72, 9.40221697092056274414e-02) (73, -9.78492721915245056152e-02) (74, -8.05995389819145202637e-02) (75, -1.86985659599304199219e+00) (76, 6.83412611484527587891e-01) (77, -1.89963722229003906250e+00) (78, -3.29302191734313964844e+00) (79, -8.95857095718383789062e-01) (80, 2.51342028379440307617e-01) (81, 2.88502186536788940430e-01) (82, 2.49476337432861328125e+00) (83, 1.76398560404777526855e-01) (84, 1.50356829166412353516e-01) (85, -6.16720259189605712891e-01) (86, 8.77371430397033691406e-02) (87, 3.38120400905609130859e-01) (88, -4.13679718971252441406e-01) (89, -2.97313541173934936523e-01) (90, -6.52050077915191650391e-02) (91, -1.13326311111450195312e+00) (92, -1.19910025596618652344e+00) (93, -1.16714882850646972656e+00) (94, 8.39545130729675292969e-02) (95, -2.96296775341033935547e-02) (96, -1.10440659523010253906e+00) (97, -1.13357162475585937500e+00) (98, -1.08749628067016601562e+00) (99, -9.95850563049316406250e-02) (100, 4.72913645207881927490e-02) (101, 8.46526678651571273804e-03) (102, 5.27438782155513763428e-02) (103, 4.13135290145874023438e-02) (104, 1.06159923598170280457e-02) (105, -8.40040862560272216797e-01) (0, -2.51855778694152832031e+00) (1, -2.57901120185852050781e+00) (2, 2.27207922935485839844e+00) (3, 3.42391324043273925781e+00) (4, 2.29925513267517089844e+00) (5, 4.34651660919189453125e+00) (6, -2.03915715217590332031e-01) (7, 3.18684124946594238281e+00) (8, -2.94705688953399658203e-01) (9, 2.92112857103347778320e-01) (10, -1.02844357490539550781e+00) (11, -2.17345499992370605469e+00) (12, -6.64994537830352783203e-01) (13, -9.40289199352264404297e-01) (14, -1.28610837459564208984e+00) (15, -2.49763393402099609375e+00) (16, -2.58373045921325683594e+00) (17, 2.35743594169616699219e+00) (18, 3.54854130744934082031e+00) (19, 2.45747160911560058594e+00) (20, 4.23203277587890625000e+00) (21, -3.04074794054031372070e-01) (22, 3.10688042640686035156e+00) (23, -2.92886793613433837891e-01) (24, 3.33028197288513183594e-01) (25, -1.04574680328369140625e+00) (26, -2.21338438987731933594e+00) (27, -7.33409762382507324219e-01) (28, -9.19378101825714111328e-01) (29, -1.26806664466857910156e+00) (30, -2.42869949340820312500e+00) (31, -2.53710246086120605469e+00) (32, 2.37828421592712402344e+00) (33, 3.42769217491149902344e+00) (34, 2.35693335533142089844e+00) (35, 4.41483020782470703125e+00) (36, -2.07237660884857177734e-01) (37, 3.09708046913146972656e+00) (38, -2.85668909549713134766e-01) (39, 3.54116857051849365234e-01) (40, -9.78736281394958496094e-01) (41, -2.08548069000244140625e+00) (42, -5.90185403823852539062e-01) (43, -9.07505810260772705078e-01) (44, -1.31852865219116210938e+00) (45, -1.14903096109628677368e-02) (46, -2.96091341972351074219e+00) (47, 1.68566708452999591827e-03) (48, -3.02239108085632324219e+00) (49, -5.25801740586757659912e-02) (50, -2.95469737052917480469e+00) (51, -3.01600337028503417969e+00) (52, -2.93489670753479003906e+00) (53, 5.67779317498207092285e-02) (54, 5.74015490710735321045e-02) (55, 7.70383849740028381348e-02) (56, 6.86262249946594238281e-02) (57, 9.23521295189857482910e-02) (58, 9.47990044951438903809e-02) (59, 2.17880494892597198486e-02) (60, -2.90900015830993652344e+00) (61, -2.86221480369567871094e+00) (62, -2.87192177772521972656e+00) (63, -5.21483412012457847595e-03) (64, -7.47297406196594238281e-02) (65, -2.98192572593688964844e+00) (66, -1.60295907407999038696e-02) (67, -2.86020970344543457031e+00) (68, 1.97502728551626205444e-02) (69, -8.23265910148620605469e-02) (70, -2.71855425089597702026e-02) (71, 9.86085906624794006348e-02) (72, 8.05276632308959960938e-02) (73, -6.62009343504905700684e-02) (74, 6.36426135897636413574e-02) (75, -2.54297280311584472656e+00) (76, -2.46800255775451660156e+00) (77, 2.27106547355651855469e+00) (78, 3.56444430351257324219e+00) (79, 2.41377377510070800781e+00) (80, 4.32271099090576171875e+00) (81, -2.99137383699417114258e-01) (82, 3.22007632255554199219e+00) (83, -4.10282760858535766602e-01) (84, 2.94328600168228149414e-01) (85, -9.22440171241760253906e-01) (86, -2.06220769882202148438e+00) (87, -5.56226849555969238281e-01) (88, -9.45033490657806396484e-01) (89, -1.23270726203918457031e+00) (90, 1.67313702404499053955e-02) (91, -2.98149371147155761719e+00) (92, -2.88128876686096191406e+00) (93, -2.95519042015075683594e+00) (94, 6.02103248238563537598e-02) (95, 9.09003764390945434570e-02) (96, -2.89019703865051269531e+00) (97, -3.00273776054382324219e+00) (98, -2.86930918693542480469e+00) (99, -2.35281642526388168335e-02) (100, -3.81458513438701629639e-02) (101, -4.95760142803192138672e-02) (102, -2.49195750802755355835e-02) (103, -5.76181896030902862549e-02) (104, -1.57769508659839630127e-02) (105, -3.09537672996520996094e+00) (0, 3.10096788406372070312e+00) (1, 2.48926594853401184082e-01) (2, 1.65350902080535888672e+00) (3, 1.67919051647186279297e+00) (4, -2.29701712727546691895e-01) (5, 5.97656202316284179688e+00) (6, 2.83585727214813232422e-01) (7, -2.15540194511413574219e+00) (8, -1.29076397418975830078e+00) (9, -4.01115082204341888428e-02) (10, -6.87124311923980712891e-01) (11, 1.03762030601501464844e+00) (12, -1.82544600963592529297e+00) (13, 1.12261879444122314453e+00) (14, -1.05095243453979492188e+00) (15, 3.08581686019897460938e+00) (16, 3.01601886749267578125e-01) (17, 1.69234836101531982422e+00) (18, 1.77844989299774169922e+00) (19, -3.63652825355529785156e-01) (20, 5.90923452377319335938e+00) (21, 2.70027101039886474609e-01) (22, -2.22292566299438476562e+00) (23, -1.38956964015960693359e+00) (24, -2.03515157103538513184e-01) (25, -6.27947390079498291016e-01) (26, 1.00311040878295898438e+00) (27, -1.90871226787567138672e+00) (28, 1.09667122364044189453e+00) (29, -1.18216538429260253906e+00) (30, 3.12454223632812500000e+00) (31, 3.28243196010589599609e-01) (32, 1.60203731060028076172e+00) (33, 1.61381661891937255859e+00) (34, -2.01888933777809143066e-01) (35, 5.98139047622680664062e+00) (36, 1.34111091494560241699e-01) (37, -2.14047050476074218750e+00) (38, -1.36390149593353271484e+00) (39, -2.21377655863761901855e-01) (40, -6.16158127784729003906e-01) (41, 1.04463040828704833984e+00) (42, -1.82100212574005126953e+00) (43, 1.05221021175384521484e+00) (44, -1.03108692169189453125e+00) (45, 5.21554015576839447021e-02) (46, -3.03876423835754394531e+00) (47, -5.93477599322795867920e-02) (48, -2.98563599586486816406e+00) (49, -7.91715607047080993652e-02) (50, -3.00493121147155761719e+00) (51, -2.86752486228942871094e+00) (52, -2.89285826683044433594e+00) (53, 2.36677415668964385986e-02) (54, -6.80550932884216308594e-03) (55, 9.99268293380737304688e-02) (56, -5.08799888193607330322e-02) (57, -6.06620162725448608398e-02) (58, 2.79237027280032634735e-03) (59, -8.30459147691726684570e-02) (60, -2.99529623985290527344e+00) (61, -3.02062010765075683594e+00) (62, -2.96219801902770996094e+00) (63, 6.60288333892822265625e-03) (64, -2.56601814180612564087e-02) (65, -2.98101687431335449219e+00) (66, -3.13041219487786293030e-03) (67, -2.97526431083679199219e+00) (68, -6.99641257524490356445e-02) (69, -8.17425772547721862793e-02) (70, -3.41290229698643088341e-04) (71, 6.72771260142326354980e-02) (72, -9.40792858600616455078e-02) (73, -9.76539310067892074585e-03) (74, -9.34956688433885574341e-03) (75, 3.17032003402709960938e+00) (76, 2.84784793853759765625e-01) (77, 1.68202626705169677734e+00) (78, 1.61187601089477539062e+00) (79, -2.61314868927001953125e-01) (80, 5.92884016036987304688e+00) (81, 2.06802055239677429199e-01) (82, -2.16729283332824707031e+00) (83, -1.37543189525604248047e+00) (84, -2.19544723629951477051e-01) (85, -7.40975201129913330078e-01) (86, 9.66750741004943847656e-01) (87, -1.95070230960845947266e+00) (88, 9.80598270893096923828e-01) (89, -1.19995546340942382812e+00) (90, -2.21703890711069107056e-02) (91, -2.94353365898132324219e+00) (92, -3.00804305076599121094e+00) (93, -2.88436770439147949219e+00) (94, -7.19301253557205200195e-02) (95, 3.12972664833068847656e-02) (96, -3.00038504600524902344e+00) (97, -2.94006133079528808594e+00) (98, -3.04396748542785644531e+00) (99, -5.34867634996771812439e-03) (100, 4.31968942284584045410e-02) (101, 2.06921342760324478149e-02) (102, -3.80715504288673400879e-02) (103, 4.91176024079322814941e-02) (104, -8.90732631087303161621e-02) (105, -2.75690531730651855469e+00) (0, -5.10389709472656250000e+00) (1, -6.12163639068603515625e+00) (2, -4.64679288864135742188e+00) (3, -8.74648272991180419922e-01) (4, 1.52742648124694824219e+00) (5, 8.68800342082977294922e-01) (6, -8.44961345195770263672e-01) (7, 1.01465553045272827148e-01) (8, 9.64686095714569091797e-01) (9, 1.45495057106018066406e+00) (10, 7.38543331623077392578e-01) (11, 1.29949676990509033203e+00) (12, 2.07550525665283203125e+00) (13, 2.14345502853393554688e+00) (14, 1.28247117996215820312e+00) (15, -5.23732852935791015625e+00) (16, -6.09499835968017578125e+00) (17, -4.61990213394165039062e+00) (18, -8.55467617511749267578e-01) (19, 1.46038103103637695312e+00) (20, 8.89273107051849365234e-01) (21, -8.49253237247467041016e-01) (22, 4.01287935674190521240e-02) (23, 8.96335363388061523438e-01) (24, 1.53355503082275390625e+00) (25, 8.07979047298431396484e-01) (26, 1.44205415248870849609e+00) (27, 1.95516204833984375000e+00) (28, 2.11024570465087890625e+00) (29, 1.42337822914123535156e+00) (30, -5.08292675018310546875e+00) (31, -6.11319065093994140625e+00) (32, -4.68263578414916992188e+00) (33, -1.01222765445709228516e+00) (34, 1.37862050533294677734e+00) (35, 8.70313823223114013672e-01) (36, -8.63446652889251708984e-01) (37, 8.60177725553512573242e-02) (38, 9.50644075870513916016e-01) (39, 1.54174900054931640625e+00) (40, 7.75016129016876220703e-01) (41, 1.28239667415618896484e+00) (42, 2.12825155258178710938e+00) (43, 2.05338597297668457031e+00) (44, 1.41128325462341308594e+00) (45, -8.26343148946762084961e-02) (46, 3.45569968223571777344e+00) (47, -5.18325380980968475342e-02) (48, 3.49795246124267578125e+00) (49, -4.48482036590576171875e-02) (50, 3.54042220115661621094e+00) (51, 3.52560687065124511719e+00) (52, 3.48767900466918945312e+00) (53, 8.91580507159233093262e-02) (54, 9.00648757815361022949e-02) (55, -5.36016300320625305176e-02) (56, 6.53199553489685058594e-02) (57, 5.94447739422321319580e-02) (58, -4.87242303788661956787e-02) (59, -9.40052885562181472778e-03) (60, 3.52398085594177246094e+00) (61, 3.39296150207519531250e+00) (62, 3.53659152984619140625e+00) (63, 7.33747854828834533691e-02) (64, -6.43456280231475830078e-02) (65, 3.56285715103149414062e+00) (66, 8.20699110627174377441e-02) (67, 3.45398831367492675781e+00) (68, -4.25187014043331146240e-02) (69, -1.49332284927368164062e-02) (70, -7.90987312793731689453e-02) (71, -9.93196368217468261719e-02) (72, -5.21014351397752761841e-03) (73, 9.88673195242881774902e-02) (74, -3.09001039713621139526e-02) (75, -5.17737770080566406250e+00) (76, -6.15872001647949218750e+00) (77, -4.57568979263305664062e+00) (78, -9.27980959415435791016e-01) (79, 1.48231089115142822266e+00) (80, 1.05733978748321533203e+00) (81, -8.30189168453216552734e-01) (82, 7.84965753555297851562e-02) (83, 9.46818172931671142578e-01) (84, 1.44712567329406738281e+00) (85, 6.93214595317840576172e-01) (86, 1.41824328899383544922e+00) (87, 1.97212457656860351562e+00) (88, 2.00580930709838867188e+00) (89, 1.43991637229919433594e+00) (90, 1.24396085739135742188e-02) (91, 3.54482340812683105469e+00) (92, 3.38980627059936523438e+00) (93, 3.44903159141540527344e+00) (94, 3.39687131345272064209e-02) (95, -5.87686970829963684082e-02) (96, 3.42765927314758300781e+00) (97, 3.50026822090148925781e+00) (98, 3.49521923065185546875e+00) (99, 9.10592090804129838943e-04) (100, -9.88946184515953063965e-02) (101, 3.18909063935279846191e-02) (102, 1.59096717834472656250e-03) (103, -4.10475721582770347595e-03) (104, 3.07582262903451919556e-02) (105, 2.89153265953063964844e+00) (0, 4.83442926406860351562e+00) (1, -2.43624043464660644531e+00) (2, 1.04830682277679443359e+00) (3, 3.53450655937194824219e+00) (4, 2.79423260688781738281e+00) (5, 3.18114757537841796875e+00) (6, 2.15981388092041015625e+00) (7, 5.34919679164886474609e-01) (8, 1.15386533737182617188e+00) (9, -9.43015813827514648438e-01) (10, -2.98478100448846817017e-02) (11, 8.17222714424133300781e-01) (12, -1.49851584434509277344e+00) (13, -5.23553967475891113281e-01) (14, 2.84471660852432250977e-01) (15, 4.80376100540161132812e+00) (16, -2.39211773872375488281e+00) (17, 1.09118974208831787109e+00) (18, 3.65747046470642089844e+00) (19, 2.84236788749694824219e+00) (20, 3.26954030990600585938e+00) (21, 2.05884504318237304688e+00) (22, 4.27761524915695190430e-01) (23, 1.25407719612121582031e+00) (24, -9.99593615531921386719e-01) (25, 2.70118843764066696167e-03) (26, 7.03755438327789306641e-01) (27, -1.47534322738647460938e+00) (28, -4.15952354669570922852e-01) (29, 3.04918557405471801758e-01) (30, 4.68518590927124023438e+00) (31, -2.48621296882629394531e+00) (32, 1.05305111408233642578e+00) (33, 3.58535265922546386719e+00) (34, 2.88436913490295410156e+00) (35, 3.26711750030517578125e+00) (36, 2.05027961730957031250e+00) (37, 4.91153031587600708008e-01) (38, 1.28894448280334472656e+00) (39, -1.10291802883148193359e+00) (40, 5.89356869459152221680e-02) (41, 8.16410422325134277344e-01) (42, -1.32853651046752929688e+00) (43, -4.39824759960174560547e-01) (44, 3.17334324121475219727e-01) (45, 3.43342907726764678955e-02) (46, -5.49914300441741943359e-01) (47, 7.25433379411697387695e-02) (48, -5.03913938999176025391e-01) (49, -6.44922628998756408691e-02) (50, -4.94765728712081909180e-01) (51, -5.08539438247680664062e-01) (52, -5.20424604415893554688e-01) (53, 3.87474894523620605469e-02) (54, 9.02165994048118591309e-02) (55, -9.06628519296646118164e-02) (56, 8.09742584824562072754e-02) (57, -7.15281814336776733398e-02) (58, -5.17018884420394897461e-02) (59, 1.90962683409452438354e-02) (60, -3.94906967878341674805e-01) (61, -5.34442126750946044922e-01) (62, -5.76277256011962890625e-01) (63, 1.34899262338876724243e-02) (64, 7.88621455430984497070e-02) (65, -4.09192055463790893555e-01) (66, 6.44158152863383293152e-03) (67, -5.85635900497436523438e-01) (68, -1.22870383784174919128e-02) (69, -5.23269027471542358398e-02) (70, -5.91976419091224670410e-02) (71, 8.61741900444030761719e-02) (72, 9.85822305083274841309e-02) (73, -7.34297782182693481445e-02) (74, 4.23812860390171408653e-04) (75, 4.85554456710815429688e+00) (76, -2.42232680320739746094e+00) (77, 1.07994782924652099609e+00) (78, 3.61699509620666503906e+00) (79, 2.76666808128356933594e+00) (80, 3.25257492065429687500e+00) (81, 2.07256650924682617188e+00) (82, 5.19874453544616699219e-01) (83, 1.19808912277221679688e+00) (84, -9.48035717010498046875e-01) (85, 8.39253589510917663574e-02) (86, 7.25213944911956787109e-01) (87, -1.34440207481384277344e+00) (88, -4.02151674032211303711e-01) (89, 2.43916735053062438965e-01) (90, -1.10010625794529914856e-02) (91, -4.42983657121658325195e-01) (92, -4.26430255174636840820e-01) (93, -4.87277597188949584961e-01) (94, -3.71019430458545684814e-02) (95, 4.48236577212810516357e-02) (96, -5.04077374935150146484e-01) (97, -4.23052102327346801758e-01) (98, -4.40812021493911743164e-01) (99, 7.60270580649375915527e-02) (100, -8.29872712492942810059e-02) (101, 9.23820510506629943848e-02) (102, 6.22012391686439514160e-02) (103, -8.44050422310829162598e-02) (104, -8.10477212071418762207e-02) (105, -4.93324190378189086914e-01) (0, 1.20231583714485168457e-01) (1, 1.61194586753845214844e+00) (2, -2.64379024505615234375e+00) (3, 3.88140392303466796875e+00) (4, 3.48140931129455566406e+00) (5, 4.32727527618408203125e+00) (6, 2.63865041732788085938e+00) (7, 1.77469956874847412109e+00) (8, -1.63550758361816406250e+00) (9, -4.68294233083724975586e-01) (10, -3.41972208023071289062e+00) (11, -1.33913457393646240234e-01) (12, -7.12738990783691406250e-01) (13, -6.31942391395568847656e-01) (14, -4.69995409250259399414e-01) (15, -2.92017944157123565674e-02) (16, 1.61934447288513183594e+00) (17, -2.48131799697875976562e+00) (18, 3.88452863693237304688e+00) (19, 3.50232386589050292969e+00) (20, 4.25616502761840820312e+00) (21, 2.47990846633911132812e+00) (22, 1.63171899318695068359e+00) (23, -1.60541772842407226562e+00) (24, -6.39937043190002441406e-01) (25, -3.46914148330688476562e+00) (26, -1.71154916286468505859e-01) (27, -6.92083716392517089844e-01) (28, -6.17688894271850585938e-01) (29, -3.96296411752700805664e-01) (30, -3.49202603101730346680e-02) (31, 1.47979736328125000000e+00) (32, -2.59372282028198242188e+00) (33, 3.77922248840332031250e+00) (34, 3.64803981781005859375e+00) (35, 4.22817516326904296875e+00) (36, 2.47022366523742675781e+00) (37, 1.80643832683563232422e+00) (38, -1.62251424789428710938e+00) (39, -5.91336607933044433594e-01) (40, -3.32416486740112304688e+00) (41, -9.47090610861778259277e-02) (42, -7.11658954620361328125e-01) (43, -5.31134486198425292969e-01) (44, -3.00955533981323242188e-01) (45, 6.02903626859188079834e-02) (46, -1.53930938243865966797e+00) (47, 5.83325736224651336670e-02) (48, -1.59584796428680419922e+00) (49, 3.61133217811584472656e-02) (50, -1.71565091609954833984e+00) (51, -1.68302524089813232422e+00) (52, -1.54842293262481689453e+00) (53, -7.20207542181015014648e-02) (54, 5.51301240921020507812e-03) (55, 9.13412198424339294434e-02) (56, -3.55148687958717346191e-02) (57, 6.22969754040241241455e-02) (58, 6.91699311137199401855e-02) (59, 1.65859814733266830444e-02) (60, -1.68610322475433349609e+00) (61, -1.71451318264007568359e+00) (62, -1.55984318256378173828e+00) (63, -6.37377519160509109497e-03) (64, -4.43960614502429962158e-02) (65, -1.56397473812103271484e+00) (66, 7.84581825137138366699e-02) (67, -1.63861691951751708984e+00) (68, 5.43726943433284759521e-02) (69, -7.42364749312400817871e-02) (70, 4.97477315366268157959e-02) (71, 3.58541384339332580566e-02) (72, 5.89933171868324279785e-02) (73, 8.00106581300497055054e-03) (74, -2.54911128431558609009e-02) (75, 5.46956621110439300537e-02) (76, 1.50038266181945800781e+00) (77, -2.58998012542724609375e+00) (78, 3.82164573669433593750e+00) (79, 3.64875173568725585938e+00) (80, 4.33878803253173828125e+00) (81, 2.53719758987426757812e+00) (82, 1.64991772174835205078e+00) (83, -1.49865651130676269531e+00) (84, -5.30696034431457519531e-01) (85, -3.36244201660156250000e+00) (86, -6.54345005750656127930e-02) (87, -6.80558800697326660156e-01) (88, -5.64288020133972167969e-01) (89, -3.40358525514602661133e-01) (90, 5.93947200104594230652e-03) (91, -1.58060181140899658203e+00) (92, -1.58283865451812744141e+00) (93, -1.65390408039093017578e+00) (94, -6.28391578793525695801e-02) (95, 9.69017148017883300781e-02) (96, -1.69374167919158935547e+00) (97, -1.70851790904998779297e+00) (98, -1.64171516895294189453e+00) (99, 8.47673341631889343262e-02) (100, -5.86174465715885162354e-02) (101, -6.78307116031646728516e-02) (102, 2.06214673817157745361e-02) (103, -9.96241271495819091797e-02) (104, 4.01703491806983947754e-02) (105, -2.33576345443725585938e+00) (0, -1.76842308044433593750e+00) (1, -3.64400887489318847656e+00) (2, -1.27640157938003540039e-01) (3, -1.06121540069580078125e+00) (4, -1.89361023902893066406e+00) (5, -1.95931506156921386719e+00) (6, -5.13519430160522460938e+00) (7, -3.84518712759017944336e-01) (8, -6.70881867408752441406e-01) (9, -1.00844383239746093750e+00) (10, -6.73123717308044433594e-01) (11, 2.73967623710632324219e-01) (12, 1.68535977602005004883e-01) (13, 8.78020301461219787598e-02) (14, 5.99665701389312744141e-01) (15, -1.76296973228454589844e+00) (16, -3.61749672889709472656e+00) (17, -1.25551909208297729492e-01) (18, -1.07393240928649902344e+00) (19, -1.82651758193969726562e+00) (20, -1.95577430725097656250e+00) (21, -5.21440553665161132812e+00) (22, -3.39499026536941528320e-01) (23, -5.56082725524902343750e-01) (24, -1.02775621414184570312e+00) (25, -7.29925394058227539062e-01) (26, 2.58432209491729736328e-01) (27, 2.80491322278976440430e-01) (28, 1.25874906778335571289e-01) (29, 5.92626273632049560547e-01) (30, -1.76182317733764648438e+00) (31, -3.59251236915588378906e+00) (32, -6.54276013374328613281e-02) (33, -8.88551771640777587891e-01) (34, -1.81984472274780273438e+00) (35, -1.88750934600830078125e+00) (36, -5.20950460433959960938e+00) (37, -2.32706874608993530273e-01) (38, -5.27505755424499511719e-01) (39, -9.86544132232666015625e-01) (40, -8.23908686637878417969e-01) (41, 2.40777716040611267090e-01) (42, 1.84664487838745117188e-01) (43, 6.14757239818572998047e-02) (44, 5.26241242885589599609e-01) (45, 6.13454468548297882080e-02) (46, 1.43722915649414062500e+00) (47, -2.31940038502216339111e-02) (48, 1.45411586761474609375e+00) (49, -9.28542464971542358398e-02) (50, 1.58515620231628417969e+00) (51, 1.50757241249084472656e+00) (52, 1.47988915443420410156e+00) (53, -6.33053183555603027344e-02) (54, -9.27663892507553100586e-02) (55, -3.50326076149940490723e-02) (56, 6.58310875296592712402e-02) (57, 7.52805694937705993652e-02) (58, -9.31166559457778930664e-02) (59, -4.65662498027086257935e-03) (60, 1.51971411705017089844e+00) (61, 1.58014488220214843750e+00) (62, 1.59151744842529296875e+00) (63, -9.98230502009391784668e-02) (64, 3.54421734809875488281e-02) (65, 1.47032594680786132812e+00) (66, 2.18981038779020309448e-02) (67, 1.61308574676513671875e+00) (68, -7.13437274098396301270e-02) (69, -1.36472163721919059753e-02) (70, -6.06235563755035400391e-02) (71, -3.61905582249164581299e-02) (72, -6.32545873522758483887e-02) (73, -1.45347183570265769958e-02) (74, 2.89229042828083038330e-02) (75, -1.82029199600219726562e+00) (76, -3.60566020011901855469e+00) (77, -5.21703362464904785156e-02) (78, -9.24680888652801513672e-01) (79, -1.83394193649291992188e+00) (80, -1.87214875221252441406e+00) (81, -5.14660882949829101562e+00) (82, -2.91186600923538208008e-01) (83, -5.11205673217773437500e-01) (84, -9.08030390739440917969e-01) (85, -7.15761661529541015625e-01) (86, 1.36107251048088073730e-01) (87, 2.45425432920455932617e-01) (88, 1.14943318068981170654e-01) (89, 5.37014782428741455078e-01) (90, -9.78066101670265197754e-02) (91, 1.43829464912414550781e+00) (92, 1.63275051116943359375e+00) (93, 1.59371066093444824219e+00) (94, -9.77444648742675781250e-02) (95, 3.19773554801940917969e-02) (96, 1.62782049179077148438e+00) (97, 1.56036972999572753906e+00) (98, 1.54506373405456542969e+00) (99, -7.97384679317474365234e-02) (100, -8.94935801625251770020e-02) (101, 4.82239238917827606201e-02) (102, -1.59290265291929244995e-02) (103, -5.27481585741043090820e-02) (104, -6.63107931613922119141e-02) (105, 9.04708325862884521484e-01) (0, 3.95300078392028808594e+00) (1, 1.47410348057746887207e-01) (2, 1.05943262577056884766e+00) (3, 7.31795930862426757812e+00) (4, 3.95252275466918945312e+00) (5, 1.28395390510559082031e+00) (6, 3.13425087928771972656e+00) (7, -1.91246724128723144531e+00) (8, -1.42743349075317382812e+00) (9, -1.17060646414756774902e-01) (10, 7.66891002655029296875e-01) (11, -5.92346526682376861572e-02) (12, -6.27773046493530273438e-01) (13, 1.53645825386047363281e+00) (14, -7.95702695846557617188e-01) (15, 3.86277103424072265625e+00) (16, 2.12147042155265808105e-01) (17, 1.07213222980499267578e+00) (18, 7.42983961105346679688e+00) (19, 3.95480442047119140625e+00) (20, 1.29154896736145019531e+00) (21, 3.13341355323791503906e+00) (22, -1.92209839820861816406e+00) (23, -1.29174542427062988281e+00) (24, -2.38655060529708862305e-01) (25, 8.24465513229370117188e-01) (26, -2.10451912134885787964e-02) (27, -5.72147130966186523438e-01) (28, 1.52270460128784179688e+00) (29, -7.76429533958435058594e-01) (30, 3.92919707298278808594e+00) (31, 1.22143536806106567383e-01) (32, 9.75370109081268310547e-01) (33, 7.28170347213745117188e+00) (34, 3.94375753402709960938e+00) (35, 1.20802044868469238281e+00) (36, 3.07368111610412597656e+00) (37, -1.87176132202148437500e+00) (38, -1.40284466743469238281e+00) (39, -5.78811950981616973877e-02) (40, 7.90852308273315429688e-01) (41, -5.57912923395633697510e-02) (42, -5.68955540657043457031e-01) (43, 1.47524452209472656250e+00) (44, -9.01706933975219726562e-01) (45, -4.86816242337226867676e-02) (46, -1.79225099086761474609e+00) (47, 9.83267650008201599121e-02) (48, -1.90284788608551025391e+00) (49, 1.06384279206395149231e-02) (50, -1.76397538185119628906e+00) (51, -1.81524050235748291016e+00) (52, -1.81445705890655517578e+00) (53, -8.25355425477027893066e-02) (54, -8.99035949259996414185e-03) (55, 2.99715989967808127403e-04) (56, -3.83442646125331521034e-04) (57, -6.43119066953659057617e-02) (58, 8.93321037292480468750e-02) (59, -7.09795132279396057129e-02) (60, -1.89574015140533447266e+00) (61, -1.81843721866607666016e+00) (62, -1.82554161548614501953e+00) (63, -2.70766317844390869141e-02) (64, 3.63146662712097167969e-02) (65, -1.88909637928009033203e+00) (66, -2.29984950274229049683e-02) (67, -1.84851300716400146484e+00) (68, 4.26823869347572326660e-02) (69, 6.23566880822181701660e-02) (70, -5.29821775853633880615e-02) (71, 9.12210568785667419434e-02) (72, -2.77109332382678985596e-02) (73, 3.92417088150978088379e-02) (74, -2.68344040960073471069e-02) (75, 3.95255064964294433594e+00) (76, 2.57470697164535522461e-01) (77, 1.10721170902252197266e+00) (78, 7.36045217514038085938e+00) (79, 4.00482082366943359375e+00) (80, 1.30528998374938964844e+00) (81, 3.01823830604553222656e+00) (82, -1.90168070793151855469e+00) (83, -1.29151391983032226562e+00) (84, -1.56627252697944641113e-01) (85, 9.25386548042297363281e-01) (86, -6.87375739216804504395e-02) (87, -4.74573343992233276367e-01) (88, 1.41206145286560058594e+00) (89, -8.68479251861572265625e-01) (90, -8.43735933303833007812e-02) (91, -1.87697923183441162109e+00) (92, -1.73211836814880371094e+00) (93, -1.80991518497467041016e+00) (94, 5.74011821299791336060e-03) (95, 1.39909982681274414062e-02) (96, -1.78921496868133544922e+00) (97, -1.72705316543579101562e+00) (98, -1.73452067375183105469e+00) (99, -3.67379486560821533203e-02) (100, 4.50983159244060516357e-02) (101, -7.77083113789558410645e-02) (102, -4.55168895423412322998e-02) (103, -8.26126188039779663086e-02) (104, 6.15334026515483856201e-02) (105, -2.24316406250000000000e+00) (0, -2.29864168167114257812e+00) (1, -2.95289278030395507812e+00) (2, -7.05946534872055053711e-02) (3, 2.99227190017700195312e+00) (4, 4.06628704071044921875e+00) (5, -1.73587352037429809570e-01) (6, 3.53645354509353637695e-01) (7, 1.35485839843750000000e+00) (8, 9.92622196674346923828e-01) (9, -4.23772394657135009766e-01) (10, 5.41703045368194580078e-01) (11, 1.02584981918334960938e+00) (12, 7.46119797229766845703e-01) (13, 3.93168032169342041016e-01) (14, 3.02435636520385742188e-01) (15, -2.41618871688842773438e+00) (16, -3.02867031097412109375e+00) (17, -1.15810753777623176575e-02) (18, 3.05089926719665527344e+00) (19, 4.09874057769775390625e+00) (20, -1.01930595934391021729e-01) (21, 2.63326078653335571289e-01) (22, 1.47799098491668701172e+00) (23, 1.04286694526672363281e+00) (24, -3.37818354368209838867e-01) (25, 6.26861274242401123047e-01) (26, 1.00140070915222167969e+00) (27, 8.99950563907623291016e-01) (28, 4.76952493190765380859e-01) (29, 1.53202205896377563477e-01) (30, -2.35033512115478515625e+00) (31, -3.03493642807006835938e+00) (32, -1.86397656798362731934e-01) (33, 2.93522930145263671875e+00) (34, 4.05320787429809570312e+00) (35, -4.11367006599903106689e-02) (36, 2.46784061193466186523e-01) (37, 1.38571393489837646484e+00) (38, 1.17005133628845214844e+00) (39, -4.01230633258819580078e-01) (40, 6.12472951412200927734e-01) (41, 9.31031882762908935547e-01) (42, 8.95433366298675537109e-01) (43, 4.54770028591156005859e-01) (44, 1.64798855781555175781e-01) (45, 5.86029179394245147705e-02) (46, 1.38227653503417968750e+00) (47, 3.83742563426494598389e-02) (48, 1.38793194293975830078e+00) (49, -4.45806756615638732910e-02) (50, 1.37238657474517822266e+00) (51, 1.27929532527923583984e+00) (52, 1.35305523872375488281e+00) (53, -1.47728025913238525391e-02) (54, -6.02464703842997550964e-03) (55, -8.99602696299552917480e-02) (56, 9.51228067278861999512e-02) (57, 8.29041004180908203125e-02) (58, 7.34640732407569885254e-02) (59, 2.24057789891958236694e-02) (60, 1.28532314300537109375e+00) (61, 1.31649363040924072266e+00) (62, 1.44441235065460205078e+00) (63, -6.40781149268150329590e-02) (64, -2.60317381471395492554e-02) (65, 1.38093471527099609375e+00) (66, 8.80791544914245605469e-02) (67, 1.35506200790405273438e+00) (68, -9.85016748309135437012e-02) (69, 8.19013118743896484375e-02) (70, 4.86344806849956512451e-02) (71, -2.99429311417043209076e-03) (72, -9.95387434959411621094e-02) (73, 7.54152564331889152527e-03) (74, -9.78939011693000793457e-02) (75, -2.37888813018798828125e+00) (76, -3.03884172439575195312e+00) (77, -5.65267726778984069824e-02) (78, 2.92669296264648437500e+00) (79, 3.91880559921264648438e+00) (80, -5.44913625344634056091e-03) (81, 3.38971704244613647461e-01) (82, 1.34265124797821044922e+00) (83, 1.06517314910888671875e+00) (84, -4.40208256244659423828e-01) (85, 6.40398800373077392578e-01) (86, 1.01145541667938232422e+00) (87, 7.38200843334197998047e-01) (88, 4.56006944179534912109e-01) (89, 1.75187617540359497070e-01) (90, 2.40799430757761001587e-02) (91, 1.39166045188903808594e+00) (92, 1.38894140720367431641e+00) (93, 1.36849200725555419922e+00) (94, 7.56254419684410095215e-02) (95, -8.90470892190933227539e-02) (96, 1.29747033119201660156e+00) (97, 1.41566133499145507812e+00) (98, 1.36601483821868896484e+00) (99, -5.29881864786148071289e-02) (100, 4.56059090793132781982e-02) (101, -3.73072735965251922607e-02) (102, 4.40175198018550872803e-02) (103, 4.60671670734882354736e-02) (104, 7.02342540025711059570e-02) (105, 9.56233084201812744141e-01) (0, -4.04360532760620117188e+00) (1, -2.74957132339477539062e+00) (2, 1.60238540172576904297e+00) (3, -2.32277965545654296875e+00) (4, -9.23363745212554931641e-01) (5, 2.21070861816406250000e+00) (6, 7.69152450561523437500e+00) (7, 5.39948129653930664062e+00) (8, -8.05695131421089172363e-02) (9, 1.67917633056640625000e+00) (10, -2.59603947401046752930e-01) (11, 3.65681648254394531250e-01) (12, 2.04812824726104736328e-01) (13, -1.09391891956329345703e+00) (14, 1.17022538185119628906e+00) (15, -3.98908138275146484375e+00) (16, -2.74851989746093750000e+00) (17, 1.58758985996246337891e+00) (18, -2.15261459350585937500e+00) (19, -9.48807179927825927734e-01) (20, 2.21902132034301757812e+00) (21, 7.58587789535522460938e+00) (22, 5.50828313827514648438e+00) (23, -4.71425093710422515869e-02) (24, 1.61399102210998535156e+00) (25, -3.28626930713653564453e-01) (26, 3.62817645072937011719e-01) (27, 8.19709077477455139160e-02) (28, -1.12321245670318603516e+00) (29, 1.06514799594879150391e+00) (30, -3.88987970352172851562e+00) (31, -2.70892953872680664062e+00) (32, 1.58190691471099853516e+00) (33, -2.29139804840087890625e+00) (34, -8.75360310077667236328e-01) (35, 2.24088311195373535156e+00) (36, 7.66797685623168945312e+00) (37, 5.34883356094360351562e+00) (38, -7.13827088475227355957e-02) (39, 1.60441517829895019531e+00) (40, -2.96328604221343994141e-01) (41, 4.67274159193038940430e-01) (42, 1.82699501514434814453e-01) (43, -1.09795033931732177734e+00) (44, 1.09709680080413818359e+00) (45, -5.63128143548965454102e-02) (46, 9.16507363319396972656e-01) (47, -8.92857369035482406616e-03) (48, 8.67142319679260253906e-01) (49, 3.64528670907020568848e-02) (50, 8.63827943801879882812e-01) (51, 9.41849350929260253906e-01) (52, 9.21313643455505371094e-01) (53, -1.91127248108386993408e-02) (54, 7.09137469530105590820e-02) (55, -6.62154331803321838379e-02) (56, -9.67465937137603759766e-02) (57, -7.76282027363777160645e-02) (58, -5.00261560082435607910e-02) (59, -2.83132977783679962158e-02) (60, 8.03765296936035156250e-01) (61, 7.71988153457641601562e-01) (62, 9.08408164978027343750e-01) (63, 2.13507423177361488342e-03) (64, -4.68508265912532806396e-02) (65, 7.94910430908203125000e-01) (66, 9.87043008208274841309e-02) (67, 9.20107126235961914062e-01) (68, -4.74836230278015136719e-02) (69, 6.32296353578567504883e-02) (70, -7.69979283213615417480e-02) (71, -9.28193107247352600098e-02) (72, 1.91442612558603286743e-02) (73, 3.99197451770305633545e-02) (74, 8.76081001479178667068e-04) (75, -3.87940692901611328125e+00) (76, -2.60234260559082031250e+00) (77, 1.58151853084564208984e+00) (78, -2.26840353012084960938e+00) (79, -8.70813667774200439453e-01) (80, 2.33844923973083496094e+00) (81, 7.72870302200317382812e+00) (82, 5.40472269058227539062e+00) (83, -8.01599100232124328613e-02) (84, 1.59069061279296875000e+00) (85, -4.06883299350738525391e-01) (86, 5.00892519950866699219e-01) (87, 1.17906309664249420166e-01) (88, -1.12516343593597412109e+00) (89, 1.08296215534210205078e+00) (90, 2.38113645464181900024e-02) (91, 8.70247364044189453125e-01) (92, 8.11494708061218261719e-01) (93, 8.32219719886779785156e-01) (94, -8.73185768723487854004e-02) (95, 4.94250049814581871033e-03) (96, 8.67428421974182128906e-01) (97, 7.71087169647216796875e-01) (98, 8.25050115585327148438e-01) (99, 6.02438710629940032959e-02) (100, 7.46153742074966430664e-02) (101, -1.16490544751286506653e-02) (102, 6.74245581030845642090e-02) (103, -6.24036788940429687500e-03) (104, -7.17293024063110351562e-02) (105, 3.83548080921173095703e-01) (0, -2.00537276268005371094e+00) (1, -6.60041713714599609375e+00) (2, -1.93967068195343017578e+00) (3, 1.19953167438507080078e+00) (4, -6.11745595932006835938e-01) (5, 1.90473407506942749023e-01) (6, 5.13840198516845703125e+00) (7, -1.29317271709442138672e+00) (8, 3.57193422317504882812e+00) (9, 8.17340314388275146484e-01) (10, -7.30441436171531677246e-02) (11, -2.63244462013244628906e+00) (12, 1.36079818010330200195e-01) (13, -1.20409810543060302734e+00) (14, 9.72516179084777832031e-01) (15, -1.94872546195983886719e+00) (16, -6.41503334045410156250e+00) (17, -1.90895545482635498047e+00) (18, 1.26484143733978271484e+00) (19, -7.04728841781616210938e-01) (20, 1.31995737552642822266e-01) (21, 5.14345455169677734375e+00) (22, -1.44796597957611083984e+00) (23, 3.62305736541748046875e+00) (24, 7.33766376972198486328e-01) (25, 1.02666683495044708252e-01) (26, -2.68250298500061035156e+00) (27, -3.21942158043384552002e-02) (28, -1.20110952854156494141e+00) (29, 9.11222100257873535156e-01) (30, -1.97251021862030029297e+00) (31, -6.45604515075683593750e+00) (32, -2.01016354560852050781e+00) (33, 1.09452068805694580078e+00) (34, -6.28020882606506347656e-01) (35, 2.28771060705184936523e-01) (36, 5.18552589416503906250e+00) (37, -1.28425800800323486328e+00) (38, 3.63060522079467773438e+00) (39, 6.91459834575653076172e-01) (40, 3.90173010528087615967e-02) (41, -2.54307270050048828125e+00) (42, 2.34743226319551467896e-02) (43, -1.15913689136505126953e+00) (44, 9.09096837043762207031e-01) (45, 9.16819572448730468750e-02) (46, 6.79799437522888183594e-01) (47, -6.12513571977615356445e-02) (48, 7.73310184478759765625e-01) (49, -4.94184456765651702881e-02) (50, 6.73621296882629394531e-01) (51, 6.34952306747436523438e-01) (52, 7.78949856758117675781e-01) (53, -2.99793481826782226562e-02) (54, 3.70136275887489318848e-02) (55, -8.22959169745445251465e-02) (56, -3.40351052582263946533e-02) (57, 5.23552075028419494629e-02) (58, -5.11881671845912933350e-02) (59, 5.56687712669372558594e-02) (60, 8.20896863937377929688e-01) (61, 7.73149251937866210938e-01) (62, 7.36846685409545898438e-01) (63, -4.85425963997840881348e-02) (64, 7.36117362976074218750e-02) (65, 8.23498368263244628906e-01) (66, -9.01267603039741516113e-02) (67, 7.44050502777099609375e-01) (68, 8.36059600114822387695e-02) (69, 4.44117188453674316406e-02) (70, 4.04983647167682647705e-02) (71, 1.59003734588623046875e-02) (72, -8.16702842712402343750e-04) (73, -7.27256312966346740723e-02) (74, -5.24232350289821624756e-02) (75, -1.93124890327453613281e+00) (76, -6.59333801269531250000e+00) (77, -1.96320736408233642578e+00) (78, 1.24854838848114013672e+00) (79, -5.47333955764770507812e-01) (80, 2.23383039236068725586e-01) (81, 5.06812381744384765625e+00) (82, -1.29193460941314697266e+00) (83, 3.60311651229858398438e+00) (84, 7.68214404582977294922e-01) (85, 2.10967585444450378418e-02) (86, -2.57309126853942871094e+00) (87, 1.00794114172458648682e-01) (88, -1.22408401966094970703e+00) (89, 1.04117512702941894531e+00) (90, 1.97649728506803512573e-02) (91, 6.87626123428344726562e-01) (92, 7.46713995933532714844e-01) (93, 6.56612515449523925781e-01) (94, 1.41542553901672363281e-02) (95, -4.60320105776190757751e-03) (96, 6.55181527137756347656e-01) (97, 7.48956322669982910156e-01) (98, 6.39448165893554687500e-01) (99, -8.61424580216407775879e-02) (100, -3.15607786178588867188e-02) (101, 5.50168864428997039795e-02) (102, 2.97579299658536911011e-02) (103, 6.76225200295448303223e-02) (104, 8.22912603616714477539e-02) (105, 5.43770074844360351562e-01) (0, -4.42741036415100097656e-01) (1, 2.01938891410827636719e+00) (2, 5.05573332309722900391e-01) (3, 2.64362549781799316406e+00) (4, 3.41481828689575195312e+00) (5, -1.27948343753814697266e+00) (6, 9.88618135452270507812e-01) (7, -4.56719428300857543945e-01) (8, -4.82552587985992431641e-01) (9, -9.40339744091033935547e-01) (10, -1.33301973342895507812e+00) (11, -1.57194256782531738281e-01) (12, -6.79639577865600585938e-02) (13, 3.79292219877243041992e-01) (14, -7.91555821895599365234e-01) (15, -4.53219294548034667969e-01) (16, 2.20788836479187011719e+00) (17, 5.85753023624420166016e-01) (18, 2.68541169166564941406e+00) (19, 3.35013341903686523438e+00) (20, -1.25693571567535400391e+00) (21, 1.03254520893096923828e+00) (22, -5.74737548828125000000e-01) (23, -5.52534162998199462891e-01) (24, -7.80686438083648681641e-01) (25, -1.29697275161743164062e+00) (26, -1.96912348270416259766e-01) (27, -1.42649173736572265625e-01) (28, 3.16232591867446899414e-01) (29, -8.22547376155853271484e-01) (30, -4.70334649085998535156e-01) (31, 2.19042420387268066406e+00) (32, 4.34224367141723632812e-01) (33, 2.71639418601989746094e+00) (34, 3.30622673034667968750e+00) (35, -1.13527500629425048828e+00) (36, 1.06608533859252929688e+00) (37, -4.26848977804183959961e-01) (38, -4.99447703361511230469e-01) (39, -8.21145236492156982422e-01) (40, -1.20356988906860351562e+00) (41, -3.85226905345916748047e-02) (42, -4.82548028230667114258e-02) (43, 4.20062631368637084961e-01) (44, -7.19399869441986083984e-01) (45, -6.40651062130928039551e-02) (46, -2.06889939308166503906e+00) (47, 7.79390320531092584133e-05) (48, -1.93863832950592041016e+00) (49, 9.51318517327308654785e-02) (50, -2.13055682182312011719e+00) (51, -2.08328175544738769531e+00) (52, -1.97965312004089355469e+00) (53, -6.80939704179763793945e-02) (54, 2.11302042007446289062e-02) (55, 2.84875761717557907104e-02) (56, 2.82730460166931152344e-02) (57, 4.60234768688678741455e-02) (58, -6.81478604674339294434e-02) (59, 9.22625809907913208008e-02) (60, -1.98132562637329101562e+00) (61, -2.02198433876037597656e+00) (62, -1.96998929977416992188e+00) (63, 6.16400949656963348389e-02) (64, -2.69681997597217559814e-02) (65, -2.10999655723571777344e+00) (66, 3.86573337018489837646e-02) (67, -2.06821227073669433594e+00) (68, -9.96450483798980712891e-02) (69, -3.83797883987426757812e-02) (70, 9.94691848754882812500e-02) (71, 9.01247262954711914062e-02) (72, -5.50970844924449920654e-02) (73, 9.72280874848365783691e-02) (74, 5.79442977905273437500e-02) (75, -3.95799696445465087891e-01) (76, 2.05130553245544433594e+00) (77, 4.49370741844177246094e-01) (78, 2.61122679710388183594e+00) (79, 3.27529144287109375000e+00) (80, -1.29358255863189697266e+00) (81, 9.32086706161499023438e-01) (82, -5.22352516651153564453e-01) (83, -4.48818802833557128906e-01) (84, -8.63096058368682861328e-01) (85, -1.39189648628234863281e+00) (86, -1.19726456701755523682e-01) (87, -2.26543754339218139648e-01) (88, 3.99709492921829223633e-01) (89, -6.95800602436065673828e-01) (90, -8.82673710584640502930e-02) (91, -2.03385996818542480469e+00) (92, -2.08805251121520996094e+00) (93, -1.95825803279876708984e+00) (94, -3.76854799687862396240e-02) (95, 1.95143353193998336792e-02) (96, -2.13371872901916503906e+00) (97, -2.13356328010559082031e+00) (98, -1.94869911670684814453e+00) (99, -9.88287851214408874512e-02) (100, -3.74079421162605285645e-02) (101, 8.53049382567405700684e-02) (102, 9.12959501147270202637e-02) (103, 7.49497441574931144714e-03) (104, 8.25330242514610290527e-02) (105, -2.20417141914367675781e+00) (0, -5.24938225746154785156e-01) (1, -2.29991364479064941406e+00) (2, -1.61039328575134277344e+00) (3, -7.97242343425750732422e-01) (4, -1.53654634952545166016e+00) (5, 6.64643096923828125000e+00) (6, 7.12029993534088134766e-01) (7, -8.23674917221069335938e-01) (8, 3.87197226285934448242e-01) (9, 7.63032376766204833984e-01) (10, -1.13580262660980224609e+00) (11, -1.65517354011535644531e+00) (12, 6.35789215564727783203e-01) (13, 2.67547577619552612305e-01) (14, -5.15492081642150878906e-01) (15, -4.87935215234756469727e-01) (16, -2.14095878601074218750e+00) (17, -1.73559904098510742188e+00) (18, -8.39274466037750244141e-01) (19, -1.54433548450469970703e+00) (20, 6.62202930450439453125e+00) (21, 6.11523211002349853516e-01) (22, -9.10804808139801025391e-01) (23, 3.75040024518966674805e-01) (24, 7.72499740123748779297e-01) (25, -1.16178357601165771484e+00) (26, -1.58410644531250000000e+00) (27, 6.17083132266998291016e-01) (28, 2.01595529913902282715e-01) (29, -3.95821690559387207031e-01) (30, -5.69133877754211425781e-01) (31, -2.24485540390014648438e+00) (32, -1.64671492576599121094e+00) (33, -7.23932206630706787109e-01) (34, -1.39250314235687255859e+00) (35, 6.63615417480468750000e+00) (36, 7.17579305171966552734e-01) (37, -7.82611548900604248047e-01) (38, 3.28396230936050415039e-01) (39, 8.42504680156707763672e-01) (40, -1.22765219211578369141e+00) (41, -1.68954205513000488281e+00) (42, 5.62992155551910400391e-01) (43, 3.16232323646545410156e-01) (44, -4.09815371036529541016e-01) (45, -8.36658254265785217285e-02) (46, -3.09686040878295898438e+00) (47, -1.85406859964132308960e-02) (48, -3.05530786514282226562e+00) (49, -1.59441831056028604507e-03) (50, -3.00083017349243164062e+00) (51, -3.08818006515502929688e+00) (52, -2.94402313232421875000e+00) (53, 5.63631653785705566406e-02) (54, 8.40389952063560485840e-02) (55, -4.67693209648132324219e-02) (56, -4.31069210171699523926e-02) (57, 2.23074797540903091431e-02) (58, 2.25247871130704879761e-02) (59, -3.50820384919643402100e-02) (60, -3.07614660263061523438e+00) (61, -2.97819662094116210938e+00) (62, -2.98358297348022460938e+00) (63, 7.96065106987953186035e-02) (64, 3.24123874306678771973e-02) (65, -2.99478578567504882812e+00) (66, 6.08589649200439453125e-02) (67, -3.00396060943603515625e+00) (68, -9.39949788153171539307e-03) (69, -3.28208915889263153076e-02) (70, -3.67015562951564788818e-02) (71, 2.52616889774799346924e-02) (72, 9.88245028565870597959e-06) (73, -2.14983168989419937134e-02) (74, -5.20765893161296844482e-02) (75, -5.80850720405578613281e-01) (76, -2.22077417373657226562e+00) (77, -1.71289396286010742188e+00) (78, -8.27007830142974853516e-01) (79, -1.42251694202423095703e+00) (80, 6.62362575531005859375e+00) (81, 5.41399002075195312500e-01) (82, -7.58882939815521240234e-01) (83, 3.66032809019088745117e-01) (84, 8.57566773891448974609e-01) (85, -1.08841502666473388672e+00) (86, -1.52518820762634277344e+00) (87, 5.67747771739959716797e-01) (88, 2.89776057004928588867e-01) (89, -3.96911323070526123047e-01) (90, -1.51234390214085578918e-02) (91, -2.97994089126586914062e+00) (92, -3.05848455429077148438e+00) (93, -3.09870624542236328125e+00) (94, 1.89209338277578353882e-02) (95, 9.31834131479263305664e-02) (96, -2.97423648834228515625e+00) (97, -3.03947544097900390625e+00) (98, -3.01077699661254882812e+00) (99, -6.43804892897605895996e-02) (100, 4.69590090215206146240e-02) (101, 7.17768669128417968750e-02) (102, 6.08811974525451660156e-02) (103, -5.30311055481433868408e-02) (104, -4.97214496135711669922e-02) (105, -3.06498718261718750000e+00) (0, -2.41443920135498046875e+00) (1, -3.24883985519409179688e+00) (2, 1.48411720991134643555e-01) (3, 1.46462869644165039062e+00) (4, 1.70819759368896484375e+00) (5, 2.66823959350585937500e+00) (6, -1.57607391476631164551e-01) (7, 3.52529811859130859375e+00) (8, 3.82079887390136718750e+00) (9, 1.03968691825866699219e+00) (10, -4.46045190095901489258e-01) (11, -6.01428508758544921875e-01) (12, 1.13547116518020629883e-01) (13, -2.02736914157867431641e-01) (14, 4.72489818930625915527e-02) (15, -2.45155858993530273438e+00) (16, -3.29077935218811035156e+00) (17, 2.38761857151985168457e-01) (18, 1.35978102684020996094e+00) (19, 1.62639546394348144531e+00) (20, 2.78304910659790039062e+00) (21, -1.24138720333576202393e-01) (22, 3.53341674804687500000e+00) (23, 3.70013117790222167969e+00) (24, 9.45710003376007080078e-01) (25, -4.64865505695343017578e-01) (26, -7.47506856918334960938e-01) (27, 1.60492926836013793945e-01) (28, -2.70794004201889038086e-01) (29, 3.17372493445873260498e-02) (30, -2.28068447113037109375e+00) (31, -3.24436450004577636719e+00) (32, 1.07593812048435211182e-01) (33, 1.38922786712646484375e+00) (34, 1.69595313072204589844e+00) (35, 2.76259517669677734375e+00) (36, -1.91863849759101867676e-01) (37, 3.47196054458618164062e+00) (38, 3.66495585441589355469e+00) (39, 1.03416872024536132812e+00) (40, -3.61448675394058227539e-01) (41, -6.86804294586181640625e-01) (42, 7.70609974861145019531e-02) (43, -2.82556205987930297852e-01) (44, 6.02153921499848365784e-03) (45, -9.59941893815994262695e-02) (46, -1.19923400878906250000e+00) (47, 7.06493481993675231934e-02) (48, -1.12646293640136718750e+00) (49, 3.79238016903400421143e-02) (50, -1.10719680786132812500e+00) (51, -1.16380643844604492188e+00) (52, -1.17978334426879882812e+00) (53, -5.37958741188049316406e-03) (54, -9.27291885018348693848e-02) (55, 3.80130670964717864990e-02) (56, 4.34548966586589813232e-02) (57, -4.98172342777252197266e-02) (58, 1.67486425489187240601e-02) (59, -6.07417188584804534912e-02) (60, -1.15656876564025878906e+00) (61, -1.19565296173095703125e+00) (62, -1.11109328269958496094e+00) (63, 8.16781893372535705566e-02) (64, 7.09519758820533752441e-02) (65, -1.21943998336791992188e+00) (66, 2.38810069859027862549e-02) (67, -1.21448016166687011719e+00) (68, 2.09215637296438217163e-02) (69, 5.98407052457332611084e-02) (70, 9.17751565575599670410e-02) (71, -2.68272813409566879272e-02) (72, -3.65448109805583953857e-02) (73, -1.29212681204080581665e-02) (74, 5.72139881551265716553e-02) (75, -2.33729600906372070312e+00) (76, -3.30286931991577148438e+00) (77, 1.27210706472396850586e-01) (78, 1.42414450645446777344e+00) (79, 1.66886401176452636719e+00) (80, 2.81623744964599609375e+00) (81, -2.12049677968025207520e-01) (82, 3.43224000930786132812e+00) (83, 3.74500012397766113281e+00) (84, 1.11679959297180175781e+00) (85, -5.05729854106903076172e-01) (86, -7.36401319503784179688e-01) (87, 1.14156514406204223633e-01) (88, -3.08444589376449584961e-01) (89, 1.09312884509563446045e-01) (90, 7.16577768325805664062e-02) (91, -1.29841685295104980469e+00) (92, -1.22488689422607421875e+00) (93, -1.13943600654602050781e+00) (94, 8.32043811678886413574e-02) (95, -5.39930760860443115234e-02) (96, -1.25893449783325195312e+00) (97, -1.19285631179809570312e+00) (98, -1.16847324371337890625e+00) (99, 6.19295500218868255615e-02) (100, -3.30739133059978485107e-02) (101, 2.32440233230590820312e-02) (102, -6.48977383971214294434e-02) (103, 3.03812753409147262573e-02) (104, -8.96772518754005432129e-02) (105, -8.85333359241485595703e-01) (0, 3.73284935951232910156e-01) (1, 5.98411273956298828125e+00) (2, -6.15638613700866699219e-01) (3, 2.51212382316589355469e+00) (4, 2.35606813430786132812e+00) (5, -4.14018774032592773438e+00) (6, -2.15117788314819335938e+00) (7, -2.12448835372924804688e+00) (8, -2.37303569912910461426e-01) (9, -8.60004782676696777344e-01) (10, -7.31935381889343261719e-01) (11, -1.26582384109497070312e+00) (12, -1.36335086822509765625e+00) (13, 9.22186017036437988281e-01) (14, -7.49237239360809326172e-01) (15, 4.62189793586730957031e-01) (16, 5.91702556610107421875e+00) (17, -6.03949904441833496094e-01) (18, 2.45995593070983886719e+00) (19, 2.20762062072753906250e+00) (20, -4.07833814620971679688e+00) (21, -2.05666208267211914062e+00) (22, -2.16654944419860839844e+00) (23, -3.59989613294601440430e-01) (24, -7.92503833770751953125e-01) (25, -7.15040326118469238281e-01) (26, -1.11928308010101318359e+00) (27, -1.39314699172973632812e+00) (28, 1.01130938529968261719e+00) (29, -7.63139784336090087891e-01) (30, 4.53051924705505371094e-01) (31, 6.06593322753906250000e+00) (32, -5.91499626636505126953e-01) (33, 2.54055047035217285156e+00) (34, 2.33621501922607421875e+00) (35, -4.14592409133911132812e+00) (36, -2.17099142074584960938e+00) (37, -2.28782677650451660156e+00) (38, -3.92374247312545776367e-01) (39, -7.06675171852111816406e-01) (40, -8.57083678245544433594e-01) (41, -1.10027146339416503906e+00) (42, -1.52631521224975585938e+00) (43, 9.17443394660949707031e-01) (44, -9.21657741069793701172e-01) (45, -9.75334569811820983887e-02) (46, -1.18033421039581298828e+00) (47, -5.12287579476833343506e-02) (48, -1.29420912265777587891e+00) (49, -1.10102118924260139465e-02) (50, -1.29230725765228271484e+00) (51, -1.18627464771270751953e+00) (52, -1.31788218021392822266e+00) (53, 9.09045338630676269531e-02) (54, -8.82703512907028198242e-02) (55, 5.43803572654724121094e-02) (56, 8.24399590492248535156e-02) (57, 7.43762478232383728027e-02) (58, 3.14267887733876705170e-03) (59, 4.35667065903544425964e-03) (60, -1.21125614643096923828e+00) (61, -1.31438124179840087891e+00) (62, -1.27101814746856689453e+00) (63, -7.82777369022369384766e-02) (64, -6.44619986414909362793e-02) (65, -1.32489955425262451172e+00) (66, -3.79301495850086212158e-02) (67, -1.28566372394561767578e+00) (68, -6.29642680287361145020e-02) (69, -3.09122931212186813354e-02) (70, -2.75724120438098907471e-02) (71, -1.34721761569380760193e-02) (72, -4.92539964616298675537e-02) (73, -1.19777265936136245728e-02) (74, 1.45786171779036521912e-02) (75, 3.77171277999877929688e-01) (76, 5.97319412231445312500e+00) (77, -5.73030591011047363281e-01) (78, 2.46320271492004394531e+00) (79, 2.34497880935668945312e+00) (80, -4.00443744659423828125e+00) (81, -2.02812862396240234375e+00) (82, -2.16394948959350585938e+00) (83, -3.76836329698562622070e-01) (84, -7.34995245933532714844e-01) (85, -7.67637014389038085938e-01) (86, -1.10499334335327148438e+00) (87, -1.38830065727233886719e+00) (88, 1.00270771980285644531e+00) (89, -8.56030166149139404297e-01) (90, -4.20347340404987335205e-02) (91, -1.29794180393218994141e+00) (92, -1.23430192470550537109e+00) (93, -1.21305191516876220703e+00) (94, -1.76169872283935546875e-02) (95, 5.98382242023944854736e-02) (96, -1.17934882640838623047e+00) (97, -1.21414887905120849609e+00) (98, -1.32582557201385498047e+00) (99, -8.37116315960884094238e-02) (100, -8.64594355225563049316e-02) (101, 5.20446291193366050720e-03) (102, 2.81620025634765625000e-03) (103, -3.57134230434894561768e-02) (104, 9.32267457246780395508e-02) (105, -1.08281242847442626953e+00) (0, 6.33742809295654296875e+00) (1, 8.08955192565917968750e-01) (2, 3.75910067558288574219e+00) (3, -1.29063829779624938965e-01) (4, -2.54874706268310546875e-01) (5, -5.04008388519287109375e+00) (6, -1.95612919330596923828e+00) (7, 2.35842227935791015625e+00) (8, -8.69273126125335693359e-01) (9, 5.19078493118286132812e-01) (10, -1.11710500717163085938e+00) (11, -3.22457551956176757812e-01) (12, 1.96061223745346069336e-01) (13, -1.13097794353961944580e-01) (14, 1.69074487686157226562e+00) (15, 6.21440601348876953125e+00) (16, 8.03961396217346191406e-01) (17, 3.74480795860290527344e+00) (18, -2.05074790865182876587e-02) (19, -1.32367730140686035156e-01) (20, -5.07637500762939453125e+00) (21, -1.84858381748199462891e+00) (22, 2.29817295074462890625e+00) (23, -8.95342528820037841797e-01) (24, 4.71742719411849975586e-01) (25, -1.10275256633758544922e+00) (26, -2.20258817076683044434e-01) (27, 9.79335159063339233398e-02) (28, 5.22258803248405456543e-02) (29, 1.70609140396118164062e+00) (30, 6.27570629119873046875e+00) (31, 8.38108539581298828125e-01) (32, 3.71956992149353027344e+00) (33, 5.48529671505093574524e-03) (34, -1.37150198221206665039e-01) (35, -5.02285289764404296875e+00) (36, -1.90976750850677490234e+00) (37, 2.37265443801879882812e+00) (38, -9.08791244029998779297e-01) (39, 5.08903622627258300781e-01) (40, -1.04692566394805908203e+00) (41, -2.34166234731674194336e-01) (42, 1.23846180737018585205e-01) (43, -7.73883797228336334229e-03) (44, 1.71701836585998535156e+00) (45, -5.20729236304759979248e-02) (46, 2.70842552185058593750e+00) (47, -2.33571827411651611328e-02) (48, 2.72242069244384765625e+00) (49, -1.81106925010681152344e-02) (50, 2.61629390716552734375e+00) (51, 2.77820682525634765625e+00) (52, 2.59169769287109375000e+00) (53, 4.33051101863384246826e-02) (54, -1.17761911824345588684e-02) (55, 6.07021823525428771973e-02) (56, -3.75967510044574737549e-02) (57, -1.80088225752115249634e-02) (58, -8.89310091733932495117e-02) (59, -5.42120337486267089844e-02) (60, 2.64753150939941406250e+00) (61, 2.65737676620483398438e+00) (62, 2.73720312118530273438e+00) (63, 3.96949425339698791504e-02) (64, -4.31670844554901123047e-02) (65, 2.69352483749389648438e+00) (66, -5.09976744651794433594e-02) (67, 2.70545721054077148438e+00) (68, -4.98148193582892417908e-03) (69, 2.41166483610868453979e-02) (70, 1.16224652156233787537e-02) (71, -3.00561189651489257812e-02) (72, 3.97681025788187980652e-03) (73, 8.79019722342491149902e-02) (74, 9.33637768030166625977e-02) (75, 6.30984210968017578125e+00) (76, 7.61068940162658691406e-01) (77, 3.77210307121276855469e+00) (78, 6.02376693859696388245e-03) (79, -1.13768570125102996826e-01) (80, -5.12702751159667968750e+00) (81, -1.96355831623077392578e+00) (82, 2.37198019027709960938e+00) (83, -9.65621113777160644531e-01) (84, 4.83785569667816162109e-01) (85, -1.15426182746887207031e+00) (86, -2.35039800405502319336e-01) (87, 6.95636868476867675781e-02) (88, 1.84209588915109634399e-02) (89, 1.70915269851684570312e+00) (90, -3.22154052555561065674e-02) (91, 2.59711122512817382812e+00) (92, 2.64743232727050781250e+00) (93, 2.60498762130737304688e+00) (94, 5.82600347697734832764e-02) (95, 2.57190354168415069580e-02) (96, 2.71996641159057617188e+00) (97, 2.58580875396728515625e+00) (98, 2.63117694854736328125e+00) (99, -6.35608583688735961914e-02) (100, 3.13790105283260345459e-02) (101, 6.42530471086502075195e-02) (102, 6.38302555307745933533e-03) (103, -6.46441802382469177246e-02) (104, 5.21550178527832031250e-02) (105, 3.13348436355590820312e+00) (0, 2.64988875389099121094e+00) (1, 2.29268217086791992188e+00) (2, 1.85022044181823730469e+00) (3, -7.73629903793334960938e+00) (4, -2.28959035873413085938e+00) (5, 7.75554609298706054688e+00) (6, 4.56225490570068359375e+00) (7, 8.21221530437469482422e-01) (8, 1.97629129886627197266e+00) (9, 6.91659569740295410156e-01) (10, 6.90691351890563964844e-01) (11, -2.53986090421676635742e-01) (12, -1.03549480438232421875e-01) (13, -2.64493256807327270508e-01) (14, -6.46968424320220947266e-01) (15, 2.69409203529357910156e+00) (16, 2.28748464584350585938e+00) (17, 1.91156506538391113281e+00) (18, -7.84419631958007812500e+00) (19, -2.31623172760009765625e+00) (20, 7.73747777938842773438e+00) (21, 4.57949161529541015625e+00) (22, 8.22477757930755615234e-01) (23, 1.99256861209869384766e+00) (24, 7.85742640495300292969e-01) (25, 7.55738139152526855469e-01) (26, -2.52441853284835815430e-01) (27, -1.25080466270446777344e-01) (28, -3.13671261072158813477e-01) (29, -4.83324557542800903320e-01) (30, 2.70452284812927246094e+00) (31, 2.15699577331542968750e+00) (32, 1.99430572986602783203e+00) (33, -7.83721685409545898438e+00) (34, -2.28918647766113281250e+00) (35, 7.86219167709350585938e+00) (36, 4.47317409515380859375e+00) (37, 7.74343550205230712891e-01) (38, 2.01170110702514648438e+00) (39, 6.89392685890197753906e-01) (40, 8.67901206016540527344e-01) (41, -1.82920381426811218262e-01) (42, -1.02419137954711914062e-01) (43, -3.23191374540328979492e-01) (44, -6.01736962795257568359e-01) (45, 3.02525162696838378906e-02) (46, -6.00752174854278564453e-01) (47, -5.65328598022460937500e-02) (48, -6.73145234584808349609e-01) (49, -5.12029556557536125183e-03) (50, -5.03219485282897949219e-01) (51, -6.63090646266937255859e-01) (52, -6.43533885478973388672e-01) (53, 3.28222624957561492920e-02) (54, -1.26722101122140884399e-02) (55, -7.00421407818794250488e-02) (56, -8.74899849295616149902e-02) (57, 1.42660019919276237488e-02) (58, 2.20995433628559112549e-02) (59, 2.75535825639963150024e-02) (60, -5.94373643398284912109e-01) (61, -5.73745429515838623047e-01) (62, -5.07881879806518554688e-01) (63, -3.95634733140468597412e-02) (64, 2.88667567074298858643e-02) (65, -5.39790630340576171875e-01) (66, 9.52018126845359802246e-02) (67, -5.15864372253417968750e-01) (68, -5.18827512860298156738e-02) (69, -2.29800939559936523438e-02) (70, -3.87222655117511749268e-02) (71, -6.00320585072040557861e-02) (72, 7.34794512391090393066e-02) (73, 7.60808363556861877441e-02) (74, 4.54913973808288574219e-02) (75, 2.54679560661315917969e+00) (76, 2.21103143692016601562e+00) (77, 1.85970211029052734375e+00) (78, -7.77446699142456054688e+00) (79, -2.33635711669921875000e+00) 