FANN_FLO_2.1
num_layers=3
learning_rate=0.694561
connection_rate=1.000000
network_type=0
learning_momentum=0.000000
training_algorithm=0
train_error_function=1
train_stop_function=0
cascade_output_change_fraction=0.010000
quickprop_decay=-0.000100
quickprop_mu=1.750000
rprop_increase_factor=1.200000
rprop_decrease_factor=0.500000
rprop_delta_min=0.000000
rprop_delta_max=50.000000
rprop_delta_zero=0.100000
cascade_output_stagnation_epochs=12
cascade_candidate_change_fraction=0.010000
cascade_candidate_stagnation_epochs=12
cascade_max_out_epochs=150
cascade_min_out_epochs=50
cascade_max_cand_epochs=150
cascade_min_cand_epochs=50
cascade_num_candidate_groups=2
bit_fail_limit=3.49999994039535522461e-01
cascade_candidate_limit=1.00000000000000000000e+03
cascade_weight_multiplier=4.00000005960464477539e-01
cascade_activation_functions_count=10
cascade_activation_functions=3 5 7 8 10 11 14 15 16 17 
cascade_activation_steepnesses_count=54
cascade_activation_steepnesses=1.00000000000000000000e+00 1.15400000000000000000e+03 0.00000000000000000000e+00 0.00000000000000000000e+00 1.50000000000000000000e+01 6.08300000000000000000e+03 6.08400000000000000000e+03 6.08500000000000000000e+03 6.08600000000000000000e+03 6.08700000000000000000e+03 6.08800000000000000000e+03 6.08900000000000000000e+03 6.09000000000000000000e+03 6.09100000000000000000e+03 6.09200000000000000000e+03 6.09300000000000000000e+03 6.09400000000000000000e+03 6.09500000000000000000e+03 6.09600000000000000000e+03 6.09700000000000000000e+03 0.00000000000000000000e+00 0.00000000000000000000e+00 3.00000000000000000000e+01 1.07629100000000000000e+06 1.07629200000000000000e+06 1.07629300000000000000e+06 1.07629400000000000000e+06 1.07629500000000000000e+06 1.07629600000000000000e+06 1.07629700000000000000e+06 1.07629800000000000000e+06 1.07629900000000000000e+06 1.07630000000000000000e+06 1.07630100000000000000e+06 1.07630200000000000000e+06 1.07630300000000000000e+06 1.07630400000000000000e+06 1.07630500000000000000e+06 1.07667500000000000000e+06 1.07667600000000000000e+06 1.07667700000000000000e+06 1.07667800000000000000e+06 1.07667900000000000000e+06 1.07668000000000000000e+06 1.07668100000000000000e+06 1.07668200000000000000e+06 1.07668300000000000000e+06 1.07668400000000000000e+06 1.07668500000000000000e+06 1.07668600000000000000e+06 1.07668700000000000000e+06 1.07668800000000000000e+06 1.07668900000000000000e+06 0.00000000000000000000e+00 
layer_sizes=47 47 47 
scale_included=0
neurons (num_inputs, activation_function, activation_steepness)=(0, 0, 0.00000000000000000000e+00) (0, 0, 0.00000000000000000000e+00) (0, 0, 0.00000000000000000000e+00) (0, 0, 0.00000000000000000000e+00) (0, 0, 0.00000000000000000000e+00) (0, 0, 0.00000000000000000000e+00) (0, 0, 0.00000000000000000000e+00) (0, 0, 0.00000000000000000000e+00) (0, 0, 0.00000000000000000000e+00) (0, 0, 0.00000000000000000000e+00) (0, 0, 0.00000000000000000000e+00) (0, 0, 0.00000000000000000000e+00) (0, 0, 0.00000000000000000000e+00) (0, 0, 0.00000000000000000000e+00) (0, 0, 0.00000000000000000000e+00) (0, 0, 0.00000000000000000000e+00) (0, 0, 0.00000000000000000000e+00) (0, 0, 0.00000000000000000000e+00) (0, 0, 0.00000000000000000000e+00) (0, 0, 0.00000000000000000000e+00) (0, 0, 0.00000000000000000000e+00) (0, 0, 0.00000000000000000000e+00) (0, 0, 0.00000000000000000000e+00) (0, 0, 0.00000000000000000000e+00) (0, 0, 0.00000000000000000000e+00) (0, 0, 0.00000000000000000000e+00) (0, 0, 0.00000000000000000000e+00) (0, 0, 0.00000000000000000000e+00) (0, 0, 0.00000000000000000000e+00) (0, 0, 0.00000000000000000000e+00) (0, 0, 0.00000000000000000000e+00) (0, 0, 0.00000000000000000000e+00) (0, 0, 0.00000000000000000000e+00) (0, 0, 0.00000000000000000000e+00) (0, 0, 0.00000000000000000000e+00) (0, 0, 0.00000000000000000000e+00) (0, 0, 0.00000000000000000000e+00) (0, 0, 0.00000000000000000000e+00) (0, 0, 0.00000000000000000000e+00) (0, 0, 0.00000000000000000000e+00) (0, 0, 0.00000000000000000000e+00) (0, 0, 0.00000000000000000000e+00) (0, 0, 0.00000000000000000000e+00) (0, 0, 0.00000000000000000000e+00) (0, 0, 0.00000000000000000000e+00) (0, 0, 0.00000000000000000000e+00) (0, 0, 0.00000000000000000000e+00) (47, 5, 5.00000000000000000000e-01) (47, 5, 5.00000000000000000000e-01) (47, 5, 5.00000000000000000000e-01) (47, 5, 5.00000000000000000000e-01) (47, 5, 5.00000000000000000000e-01) (47, 5, 5.00000000000000000000e-01) (47, 5, 5.00000000000000000000e-01) (47, 5, 5.00000000000000000000e-01) (47, 5, 5.00000000000000000000e-01) (47, 5, 5.00000000000000000000e-01) (47, 5, 5.00000000000000000000e-01) (47, 5, 5.00000000000000000000e-01) (47, 5, 5.00000000000000000000e-01) (47, 5, 5.00000000000000000000e-01) (47, 5, 5.00000000000000000000e-01) (47, 5, 5.00000000000000000000e-01) (47, 5, 5.00000000000000000000e-01) (47, 5, 5.00000000000000000000e-01) (47, 5, 5.00000000000000000000e-01) (47, 5, 5.00000000000000000000e-01) (47, 5, 5.00000000000000000000e-01) (47, 5, 5.00000000000000000000e-01) (47, 5, 5.00000000000000000000e-01) (47, 5, 5.00000000000000000000e-01) (47, 5, 5.00000000000000000000e-01) (47, 5, 5.00000000000000000000e-01) (47, 5, 5.00000000000000000000e-01) (47, 5, 5.00000000000000000000e-01) (47, 5, 5.00000000000000000000e-01) (47, 5, 5.00000000000000000000e-01) (47, 5, 5.00000000000000000000e-01) (47, 5, 5.00000000000000000000e-01) (47, 5, 5.00000000000000000000e-01) (47, 5, 5.00000000000000000000e-01) (47, 5, 5.00000000000000000000e-01) (47, 5, 5.00000000000000000000e-01) (47, 5, 5.00000000000000000000e-01) (47, 5, 5.00000000000000000000e-01) (47, 5, 5.00000000000000000000e-01) (47, 5, 5.00000000000000000000e-01) (47, 5, 5.00000000000000000000e-01) (47, 5, 5.00000000000000000000e-01) (47, 5, 5.00000000000000000000e-01) (47, 5, 5.00000000000000000000e-01) (47, 5, 5.00000000000000000000e-01) (47, 5, 5.00000000000000000000e-01) (0, 5, 0.00000000000000000000e+00) (47, 3, 5.00000000000000000000e-01) (47, 3, 5.00000000000000000000e-01) (47, 3, 5.00000000000000000000e-01) (47, 3, 5.00000000000000000000e-01) (47, 3, 5.00000000000000000000e-01) (47, 3, 5.00000000000000000000e-01) (47, 3, 5.00000000000000000000e-01) (47, 3, 5.00000000000000000000e-01) (47, 3, 5.00000000000000000000e-01) (47, 3, 5.00000000000000000000e-01) (47, 3, 5.00000000000000000000e-01) (47, 3, 5.00000000000000000000e-01) (47, 3, 5.00000000000000000000e-01) (47, 3, 5.00000000000000000000e-01) (47, 3, 5.00000000000000000000e-01) (47, 3, 5.00000000000000000000e-01) (47, 3, 5.00000000000000000000e-01) (47, 3, 5.00000000000000000000e-01) (47, 3, 5.00000000000000000000e-01) (47, 3, 5.00000000000000000000e-01) (47, 3, 5.00000000000000000000e-01) (47, 3, 5.00000000000000000000e-01) (47, 3, 5.00000000000000000000e-01) (47, 3, 5.00000000000000000000e-01) (47, 3, 5.00000000000000000000e-01) (47, 3, 5.00000000000000000000e-01) (47, 3, 5.00000000000000000000e-01) (47, 3, 5.00000000000000000000e-01) (47, 3, 5.00000000000000000000e-01) (47, 3, 5.00000000000000000000e-01) (47, 3, 5.00000000000000000000e-01) (47, 3, 5.00000000000000000000e-01) (47, 3, 5.00000000000000000000e-01) (47, 3, 5.00000000000000000000e-01) (47, 3, 5.00000000000000000000e-01) (47, 3, 5.00000000000000000000e-01) (47, 3, 5.00000000000000000000e-01) (47, 3, 5.00000000000000000000e-01) (47, 3, 5.00000000000000000000e-01) (47, 3, 5.00000000000000000000e-01) (47, 3, 5.00000000000000000000e-01) (47, 3, 5.00000000000000000000e-01) (47, 3, 5.00000000000000000000e-01) (47, 3, 5.00000000000000000000e-01) (47, 3, 5.00000000000000000000e-01) (47, 3, 5.00000000000000000000e-01) (0, 3, 0.00000000000000000000e+00) 
connections (connected_to_neuron, weight)=(0, 5.35894751548767089844e-01) (1, -2.85929727554321289062e+00) (2, 1.69930183887481689453e+00) (3, 4.38209801912307739258e-01) (4, -7.06482529640197753906e-01) (5, 5.94309151172637939453e-01) (6, 5.53974092006683349609e-01) (7, 6.66572213172912597656e-01) (8, -2.36317181587219238281e+00) (9, -1.17219817638397216797e+00) (10, -6.17242753505706787109e-01) (11, 7.59997725486755371094e-01) (12, 5.59474289417266845703e-01) (13, 1.38333177566528320312e+00) (14, -6.09551407396793365479e-02) (15, 1.10846602916717529297e+00) (16, -2.87922382354736328125e+00) (17, 1.75042879581451416016e+00) (18, 3.35170447826385498047e-01) (19, -7.35401988029479980469e-01) (20, 6.49614453315734863281e-01) (21, 3.99038493633270263672e-01) (22, 5.23462772369384765625e-01) (23, -2.27440667152404785156e+00) (24, -1.29193365573883056641e+00) (25, -6.04812026023864746094e-01) (26, 7.20699667930603027344e-01) (27, 5.72151482105255126953e-01) (28, 1.25047779083251953125e+00) (29, -8.39462038129568099976e-03) (30, 1.02132201194763183594e+00) (31, -4.82198074460029602051e-02) (32, 1.62432444095611572266e+00) (33, 1.68477880954742431641e+00) (34, 1.54129683971405029297e+00) (35, -8.89989882707595825195e-02) (36, -1.82543750852346420288e-02) (37, 1.51927578449249267578e+00) (38, 1.69253838062286376953e+00) (39, 1.60059607028961181641e+00) (40, 7.69303366541862487793e-02) (41, -9.89697575569152832031e-02) (42, 8.89944434165954589844e-02) (43, -2.59598139673471450806e-02) (44, 6.52081891894340515137e-02) (45, -6.96673914790153503418e-02) (46, 1.88073408603668212891e+00) (0, -6.37808263301849365234e-01) (1, 3.43919724225997924805e-01) (2, -4.15350832045078277588e-02) (3, -7.65375554561614990234e-01) (4, 1.28986907005310058594e+00) (5, 1.52511072158813476562e+00) (6, 8.96192193031311035156e-01) (7, 1.45743143558502197266e+00) (8, -2.70511174201965332031e+00) (9, -2.85377097129821777344e+00) (10, -3.85410010814666748047e-01) (11, 4.65906560420989990234e-01) (12, -5.15271663665771484375e-01) (13, -3.10318320989608764648e-01) (14, -8.16039815545082092285e-02) (15, 4.79894995689392089844e-01) (16, 2.71131634712219238281e-01) (17, 1.08423922210931777954e-02) (18, -7.82390296459197998047e-01) (19, 1.27504348754882812500e+00) (20, 1.43619084358215332031e+00) (21, 8.60025525093078613281e-01) (22, 1.52752864360809326172e+00) (23, -2.53288650512695312500e+00) (24, -2.93469548225402832031e+00) (25, -3.64148795604705810547e-01) (26, 5.17339289188385009766e-01) (27, -5.53480267524719238281e-01) (28, -4.17747497558593750000e-01) (29, 1.03312306106090545654e-01) (30, 4.47939991950988769531e-01) (31, -6.02115802466869354248e-02) (32, 6.81848704814910888672e-01) (33, 6.03910148143768310547e-01) (34, 5.89454114437103271484e-01) (35, -1.26900738105177879333e-02) (36, -4.55022864043712615967e-02) (37, 6.60580575466156005859e-01) (38, 6.32021486759185791016e-01) (39, 5.76171815395355224609e-01) (40, -6.28040060400962829590e-02) (41, 9.41985249519348144531e-02) (42, 7.52314850687980651855e-02) (43, 6.13352321088314056396e-02) (44, 6.64746537804603576660e-02) (45, 8.73412638902664184570e-02) (46, 4.88798141479492187500e-01) (0, 3.29767853021621704102e-01) (1, -2.82948923110961914062e+00) (2, -3.36118435859680175781e+00) (3, -1.83540344238281250000e-01) (4, -1.20316457748413085938e+00) (5, 4.63726334273815155029e-02) (6, -3.39447736740112304688e-01) (7, 1.16360008716583251953e+00) (8, -7.11653828620910644531e-01) (9, 3.03005099296569824219e-01) (10, -6.95898771286010742188e-01) (11, -8.09295296669006347656e-01) (12, 4.41009640693664550781e-01) (13, -6.62958502769470214844e-01) (14, 2.49697759747505187988e-01) (15, 1.37323033809661865234e+00) (16, -2.84455585479736328125e+00) (17, -3.39672827720642089844e+00) (18, -2.07405060529708862305e-01) (19, -1.20878911018371582031e+00) (20, 3.03653515875339508057e-02) (21, -3.17540347576141357422e-01) (22, 1.29609811305999755859e+00) (23, -6.79580569267272949219e-01) (24, 2.62469857931137084961e-01) (25, -5.35894989967346191406e-01) (26, -8.87921273708343505859e-01) (27, 4.96962964534759521484e-01) (28, -5.33505439758300781250e-01) (29, 4.14448916912078857422e-01) (30, 1.32664990425109863281e+00) (31, 9.45112034678459167480e-02) (32, 1.41065263748168945312e+00) (33, 1.41113853454589843750e+00) (34, 1.39564323425292968750e+00) (35, -6.00022338330745697021e-02) (36, 6.78169056773185729980e-02) (37, 1.26339697837829589844e+00) (38, 1.31101512908935546875e+00) (39, 1.40035963058471679688e+00) (40, 9.88019034266471862793e-02) (41, -1.52482986450195312500e-02) (42, -4.51408028602600097656e-02) (43, -6.89593553543090820312e-02) (44, -1.24993799254298210144e-02) (45, -1.46898869425058364868e-02) (46, 5.07344186305999755859e-01) (0, 1.10150814056396484375e+00) (1, 1.58922743797302246094e+00) (2, 9.93005037307739257812e-02) (3, -5.70476889610290527344e-01) (4, 1.23402643203735351562e+00) (5, 1.64148414134979248047e+00) (6, 6.17135167121887207031e-01) (7, -7.01974034309387207031e-01) (8, -1.03507466614246368408e-01) (9, 1.19191431999206542969e+00) (10, -3.13278853893280029297e-01) (11, 1.41332466155290603638e-02) (12, -2.88110226392745971680e-01) (13, -5.01274228096008300781e-01) (14, -2.14012548327445983887e-01) (15, -4.70783561468124389648e-01) (16, 1.77624320983886718750e+00) (17, 2.08608493208885192871e-01) (18, -5.42851805686950683594e-01) (19, 1.08838152885437011719e+00) (20, 1.62894833087921142578e+00) (21, 7.04641580581665039062e-01) (22, -6.01219594478607177734e-01) (23, -7.45272412896156311035e-02) (24, 1.31249547004699707031e+00) (25, -1.35633379220962524414e-01) (26, 9.78043675422668457031e-03) (27, -4.68690186738967895508e-01) (28, -4.31330293416976928711e-01) (29, -3.58501970767974853516e-01) (30, -5.42807042598724365234e-01) (31, 3.76621484756469726562e-02) (32, -5.98850190639495849609e-01) (33, -4.84436959028244018555e-01) (34, -5.87068319320678710938e-01) (35, -8.63856971263885498047e-02) (36, -1.00916502997279167175e-02) (37, -5.03934025764465332031e-01) (38, -6.13964259624481201172e-01) (39, -4.81561750173568725586e-01) (40, 8.12632590532302856445e-02) (41, -6.10100887715816497803e-02) (42, 7.83250387758016586304e-03) (43, 6.23263381421566009521e-02) (44, -4.91901598870754241943e-02) (45, -1.36626362800598144531e-02) (46, -7.09863081574440002441e-02) (0, 3.98564964532852172852e-01) (1, -3.21244776248931884766e-01) (2, -2.52411317825317382812e+00) (3, -3.27780485153198242188e+00) (4, -1.04179814457893371582e-01) (5, 1.10255551338195800781e+00) (6, 9.64751914143562316895e-02) (7, -3.30080017447471618652e-02) (8, -8.57069492340087890625e-01) (9, 1.76820442080497741699e-01) (10, -1.96011140942573547363e-01) (11, -7.00515508651733398438e-01) (12, -7.43656933307647705078e-01) (13, 2.51433759927749633789e-01) (14, -4.11263704299926757812e-02) (15, -6.11062571406364440918e-02) (16, -2.81718373298645019531e-01) (17, -2.52809715270996093750e+00) (18, -3.30533552169799804688e+00) (19, -1.76512718200683593750e-01) (20, 1.21783983707427978516e+00) (21, 9.18343886733055114746e-02) (22, 2.31847986578941345215e-02) (23, -7.56453990936279296875e-01) (24, 1.59179493784904479980e-01) (25, -4.95336540043354034424e-02) (26, -6.92550182342529296875e-01) (27, -6.80735528469085693359e-01) (28, 2.14705362915992736816e-01) (29, -5.03745637834072113037e-02) (30, -1.97946384549140930176e-01) (31, -4.93984408676624298096e-02) (32, 1.38676092028617858887e-01) (33, 1.17953330278396606445e-01) (34, 1.05062574148178100586e-01) (35, 2.54613645374774932861e-02) (36, 8.30430909991264343262e-02) (37, 8.63529443740844726562e-02) (38, 1.71457037329673767090e-01) (39, -1.70604642480611801147e-02) (40, -2.07751393318176269531e-02) (41, -9.92062017321586608887e-02) (42, -8.20453017950057983398e-02) (43, 3.65427732467651367188e-02) (44, -5.31718581914901733398e-02) (45, 3.92029546201229095459e-02) (46, 3.92744898796081542969e-01) (0, -4.62154030799865722656e-01) (1, -1.01961684226989746094e+00) (2, -2.98683643341064453125e-01) (3, -1.86198937892913818359e+00) (4, -3.12156915664672851562e-01) (5, -1.95032358169555664062e+00) (6, -1.83344912528991699219e+00) (7, -7.36111029982566833496e-02) (8, 6.57956123352050781250e-01) (9, 4.40417408943176269531e-01) (10, 3.59689831733703613281e-01) (11, -1.15145266056060791016e+00) (12, 1.26852583885192871094e+00) (13, -1.44375294446945190430e-01) (14, 2.08240132778882980347e-02) (15, -1.77343890070915222168e-01) (16, -8.45073938369750976562e-01) (17, -4.50470387935638427734e-01) (18, -1.80169844627380371094e+00) (19, -3.75208795070648193359e-01) (20, -2.09571719169616699219e+00) (21, -1.78899359703063964844e+00) (22, -6.57181367278099060059e-02) (23, 5.54907321929931640625e-01) (24, 4.05601263046264648438e-01) (25, 3.42713832855224609375e-01) (26, -1.15678632259368896484e+00) (27, 1.16094613075256347656e+00) (28, -2.65231467783451080322e-02) (29, 9.65533778071403503418e-02) (30, -2.04002082347869873047e-01) (31, -2.09004469215869903564e-02) (32, 1.52074351906776428223e-01) (33, 8.97873789072036743164e-02) (34, 8.18642824888229370117e-02) (35, 5.21986968815326690674e-02) (36, -3.30739393830299377441e-02) (37, 2.88536325097084045410e-02) (38, 2.07168832421302795410e-02) (39, 1.52541294693946838379e-01) (40, 5.90571537613868713379e-02) (41, 6.43340125679969787598e-02) (42, -9.21676978468894958496e-02) (43, -2.61512696743011474609e-02) (44, 9.52330380678176879883e-02) (45, -3.45491175539791584015e-03) (46, 9.16497856378555297852e-02) (0, 5.38097977638244628906e-01) (1, 9.50912088155746459961e-02) (2, 1.98119983077049255371e-01) (3, 9.30695414543151855469e-01) (4, 1.88040256500244140625e-01) (5, 1.10877096652984619141e+00) (6, -9.83855277299880981445e-02) (7, 7.58565485477447509766e-01) (8, 3.86448383331298828125e-01) (9, 3.52081269025802612305e-01) (10, 4.17442023754119873047e-01) (11, -4.27673608064651489258e-01) (12, 1.41335403919219970703e+00) (13, 4.97960120439529418945e-01) (14, 6.18135988712310791016e-01) (15, 9.39554274082183837891e-01) (16, 7.58766829967498779297e-02) (17, 1.20686925947666168213e-01) (18, 8.68181347846984863281e-01) (19, 1.13997220993041992188e-01) (20, 1.10681915283203125000e+00) (21, -2.08457648754119873047e-01) (22, 7.22673118114471435547e-01) (23, 2.91086673736572265625e-01) (24, 2.99143284559249877930e-01) (25, 3.20644617080688476562e-01) (26, -5.22415220737457275391e-01) (27, 1.48551356792449951172e+00) (28, 4.31953281164169311523e-01) (29, 6.81204497814178466797e-01) (30, 9.71856176853179931641e-01) (31, -5.93586042523384094238e-02) (32, 1.43483173847198486328e+00) (33, 1.40085828304290771484e+00) (34, 1.45127928256988525391e+00) (35, -5.37695996463298797607e-02) (36, -9.68393757939338684082e-02) (37, 1.44688892364501953125e+00) (38, 1.49722874164581298828e+00) (39, 1.50844717025756835938e+00) (40, -7.17359483242034912109e-02) (41, 4.11511063575744628906e-02) (42, 8.86313244700431823730e-02) (43, -2.54520904272794723511e-02) (44, -3.43268103897571563721e-02) (45, 2.37077120691537857056e-02) (46, 4.64517623186111450195e-01) (0, 5.53359866142272949219e-01) (1, -3.70200419425964355469e+00) (2, -4.52853918075561523438e+00) (3, 8.94046649336814880371e-02) (4, 3.00981938838958740234e-01) (5, 7.83888157457113265991e-03) (6, 5.53078651428222656250e-01) (7, 8.21890294551849365234e-01) (8, 4.97349292039871215820e-01) (9, 1.11778306961059570312e+00) (10, 1.36750638484954833984e-01) (11, 7.62514621019363403320e-02) (12, 4.53933984041213989258e-01) (13, 8.97248089313507080078e-02) (14, 9.46769714355468750000e-01) (15, 4.16362285614013671875e-01) (16, -3.87330985069274902344e+00) (17, -4.43757677078247070312e+00) (18, 8.59138444066047668457e-02) (19, 2.59398907423019409180e-01) (20, 1.64235606789588928223e-02) (21, 5.81370949745178222656e-01) (22, 6.67610704898834228516e-01) (23, 4.53629106283187866211e-01) (24, 1.11105704307556152344e+00) (25, 2.22022220492362976074e-01) (26, 1.02719381451606750488e-01) (27, 4.63240534067153930664e-01) (28, 4.25248593091964721680e-02) (29, 9.39259886741638183594e-01) (30, 3.84958744049072265625e-01) (31, -9.69018489122390747070e-02) (32, 1.37095785140991210938e+00) (33, 1.44940185546875000000e+00) (34, 1.39061880111694335938e+00) (35, -6.26406073570251464844e-03) (36, 9.98168587684631347656e-02) (37, 1.51006841659545898438e+00) (38, 1.44432115554809570312e+00) (39, 1.52886581420898437500e+00) (40, 2.57804282009601593018e-02) (41, 6.24667778611183166504e-02) (42, -5.76809756457805633545e-02) (43, 6.70275613665580749512e-02) (44, -5.42228594422340393066e-02) (45, -1.95229109376668930054e-02) (46, 6.30687355995178222656e-01) (0, -6.01299442350864410400e-02) (1, -1.24184477329254150391e+00) (2, 9.05536949634552001953e-01) (3, 1.81165444850921630859e+00) (4, 2.47343778610229492188e+00) (5, 6.46485149860382080078e-01) (6, 6.38312518596649169922e-01) (7, -1.23873829841613769531e+00) (8, 8.98487746715545654297e-01) (9, -1.98185038566589355469e+00) (10, -5.38590669631958007812e-01) (11, 3.44270855188369750977e-01) (12, -1.13179504871368408203e+00) (13, -7.90898680686950683594e-01) (14, -9.52552437782287597656e-01) (15, -6.82329852133989334106e-03) (16, -1.05598878860473632812e+00) (17, 1.01270532608032226562e+00) (18, 1.87418639659881591797e+00) (19, 2.42700958251953125000e+00) (20, 8.05728912353515625000e-01) (21, 6.14606082439422607422e-01) (22, -1.12617409229278564453e+00) (23, 8.43571841716766357422e-01) (24, -2.05021333694458007812e+00) (25, -5.70500254631042480469e-01) (26, 4.81120258569717407227e-01) (27, -1.06924128532409667969e+00) (28, -8.07679295539855957031e-01) (29, -9.85710859298706054688e-01) (30, -9.84513089060783386230e-02) (31, -8.37655514478683471680e-02) (32, -1.39232146739959716797e+00) (33, -1.34400427341461181641e+00) (34, -1.34100019931793212891e+00) (35, 9.02448892593383789062e-02) (36, 2.28747371584177017212e-02) (37, -1.41573750972747802734e+00) (38, -1.41530168056488037109e+00) (39, -1.34066259860992431641e+00) (40, 3.31733599305152893066e-02) (41, 9.25145670771598815918e-02) (42, 5.27760051190853118896e-02) (43, -3.50165255367755889893e-02) (44, 7.77680426836013793945e-02) (45, -5.65115734934806823730e-02) (46, -1.35775816440582275391e+00) (0, 1.79322108626365661621e-01) (1, -6.12912714481353759766e-01) (2, 2.12067198753356933594e+00) (3, -1.32810354232788085938e+00) (4, -2.13641479611396789551e-01) (5, -5.73995769023895263672e-01) (6, 5.29894351959228515625e-01) (7, -1.89549922943115234375e-01) (8, 6.84653639793395996094e-01) (9, 1.07899034023284912109e+00) (10, 1.70927810668945312500e+00) (11, 3.80381345748901367188e-01) (12, -6.31936430931091308594e-01) (13, 5.69275081157684326172e-01) (14, 3.20794224739074707031e-01) (15, -4.38573747873306274414e-01) (16, -6.09723389148712158203e-01) (17, 1.99641573429107666016e+00) (18, -1.34826064109802246094e+00) (19, -3.93118947744369506836e-01) (20, -4.76933360099792480469e-01) (21, 5.86981892585754394531e-01) (22, -2.65875697135925292969e-01) (23, 6.66928052902221679688e-01) (24, 9.46555554866790771484e-01) (25, 1.64839053153991699219e+00) (26, 3.21067392826080322266e-01) (27, -6.67860627174377441406e-01) (28, 4.28601741790771484375e-01) (29, 2.61688560247421264648e-01) (30, -4.90840524435043334961e-01) (31, 8.51688310503959655762e-02) (32, -3.15339118242263793945e-01) (33, -3.74101430177688598633e-01) (34, -3.62697035074234008789e-01) (35, -2.80916690826416015625e-02) (36, -1.63932275027036666870e-02) (37, -3.52581053972244262695e-01) (38, -2.01592341065406799316e-01) (39, -2.26853862404823303223e-01) (40, 7.79835954308509826660e-02) (41, -2.51065497286617755890e-03) (42, -4.74449694156646728516e-02) (43, -2.07319315522909164429e-02) (44, -4.36279848217964172363e-02) (45, 7.74915143847465515137e-02) (46, 1.01267302036285400391e+00) (0, -5.50834178924560546875e-01) (1, -1.14891350269317626953e-01) (2, -3.73383313417434692383e-01) (3, -1.81799840927124023438e+00) (4, -4.38197582960128784180e-01) (5, -6.38152301311492919922e-01) (6, -5.97005598247051239014e-02) (7, 9.09815728664398193359e-03) (8, 1.01481926441192626953e+00) (9, 3.41579580307006835938e+00) (10, 1.06257140636444091797e+00) (11, 9.85086619853973388672e-01) (12, -2.11764052510261535645e-01) (13, -4.74214434623718261719e-01) (14, -1.22280269861221313477e-01) (15, 1.45939931273460388184e-01) (16, -1.17719948291778564453e-01) (17, -3.51539224386215209961e-01) (18, -1.89119672775268554688e+00) (19, -5.26135444641113281250e-01) (20, -5.99904835224151611328e-01) (21, -1.35653346776962280273e-01) (22, 4.77539114654064178467e-02) (23, 1.02358877658843994141e+00) (24, 3.27738571166992187500e+00) (25, 1.17637455463409423828e+00) (26, 9.81050670146942138672e-01) (27, -2.89115577936172485352e-01) (28, -5.69870293140411376953e-01) (29, -1.40768252313137054443e-02) (30, 8.02064687013626098633e-02) (31, 6.88062934204936027527e-03) (32, -4.39312756061553955078e-01) (33, -4.45169687271118164062e-01) (34, -3.90818357467651367188e-01) (35, 1.32004618644714355469e-02) (36, -6.75886869430541992188e-02) (37, -4.56730127334594726562e-01) (38, -4.32441294193267822266e-01) (39, -4.57351803779602050781e-01) (40, 1.65970332454890012741e-03) (41, -8.80191698670387268066e-02) (42, -1.40336519107222557068e-02) (43, -5.60170412063598632812e-03) (44, 3.83730903267860412598e-02) (45, 1.06761334463953971863e-02) (46, -7.42990314960479736328e-01) (0, -7.93575108051300048828e-01) (1, -1.62938749790191650391e+00) (2, -7.24033236503601074219e-01) (3, -1.03713083267211914062e+00) (4, -6.34570941329002380371e-02) (5, 1.10817782115191221237e-03) (6, -2.84074962139129638672e-01) (7, -5.09230136871337890625e-01) (8, 3.96208381652832031250e+00) (9, -1.33266186714172363281e+00) (10, 7.74255216121673583984e-01) (11, 7.19279110431671142578e-01) (12, -4.71425563097000122070e-01) (13, 7.57306635379791259766e-01) (14, -5.63649982213973999023e-02) (15, -7.90143251419067382812e-01) (16, -1.76166975498199462891e+00) (17, -6.63527488708496093750e-01) (18, -1.05523264408111572266e+00) (19, -1.45068950951099395752e-02) (20, 3.58901992440223693848e-02) (21, -2.51921147108078002930e-01) (22, -6.11727416515350341797e-01) (23, 3.88725566864013671875e+00) (24, -1.37321245670318603516e+00) (25, 7.28317260742187500000e-01) (26, 8.15030515193939208984e-01) (27, -4.48314338922500610352e-01) (28, 7.16828405857086181641e-01) (29, 3.78881543874740600586e-02) (30, -8.01607012748718261719e-01) (31, 8.89078527688980102539e-02) (32, -9.34996366500854492188e-01) (33, -9.04815912246704101562e-01) (34, -9.78569746017456054688e-01) (35, 5.13798110187053680420e-02) (36, -6.60405606031417846680e-02) (37, -8.73800754547119140625e-01) (38, -8.50119233131408691406e-01) (39, -9.81888592243194580078e-01) (40, -9.92969945073127746582e-02) (41, -5.45462965965270996094e-03) (42, 8.39276332408189773560e-03) (43, 1.05721950531005859375e-02) (44, 7.67522826790809631348e-02) (45, 1.54768107458949089050e-02) (46, -8.05034637451171875000e-01) (0, 1.43993318080902099609e-01) (1, -2.74668008089065551758e-01) (2, 6.00215911865234375000e-01) (3, 7.88780033588409423828e-01) (4, -1.14887154102325439453e+00) (5, -1.39387726783752441406e+00) (6, 2.25200697779655456543e-01) (7, 3.08158636093139648438e-01) (8, -9.92616415023803710938e-01) (9, -1.85003709793090820312e+00) (10, -1.61426234245300292969e+00) (11, 3.11457931995391845703e-01) (12, 1.85642838478088378906e+00) (13, 1.33080944418907165527e-01) (14, -1.63711413741111755371e-01) (15, 5.88595330715179443359e-01) (16, -2.39413648843765258789e-01) (17, 6.04541778564453125000e-01) (18, 8.30947935581207275391e-01) (19, -1.14042341709136962891e+00) (20, -1.29251432418823242188e+00) (21, 2.97564059495925903320e-01) (22, 3.57163310050964355469e-01) (23, -9.16353225708007812500e-01) (24, -1.88032579421997070312e+00) (25, -1.66137325763702392578e+00) (26, 3.63133788108825683594e-01) (27, 1.69498300552368164062e+00) (28, 1.61384925246238708496e-01) (29, -2.01844736933708190918e-01) (30, 5.65564215183258056641e-01) (31, -3.20576503872871398926e-02) (32, 8.34730565547943115234e-01) (33, 8.43639314174652099609e-01) (34, 7.72131741046905517578e-01) (35, 1.34411929175257682800e-02) (36, 5.69483749568462371826e-02) (37, 8.06969106197357177734e-01) (38, 8.18301141262054443359e-01) (39, 8.30294072628021240234e-01) (40, 8.44345912337303161621e-02) (41, 9.23680812120437622070e-02) (42, 1.51654481887817382812e-02) (43, 6.43559247255325317383e-02) (44, -7.15005099773406982422e-02) (45, 6.60501942038536071777e-02) (46, 1.00219488143920898438e+00) (0, 8.77676844596862792969e-01) (1, -8.18974316120147705078e-01) (2, -1.70366322994232177734e+00) (3, -1.04427695274353027344e+00) (4, 3.81246805191040039062e+00) (5, 1.02553141117095947266e+00) (6, 4.16500717401504516602e-02) (7, -1.39632320404052734375e+00) (8, -6.24956846237182617188e-01) (9, -2.17232301831245422363e-01) (10, -7.27674603462219238281e-01) (11, -1.27179014682769775391e+00) (12, -1.00510644912719726562e+00) (13, -2.39551782608032226562e-01) (14, 3.07566821575164794922e-01) (15, 2.96939313411712646484e-01) (16, -8.70663464069366455078e-01) (17, -1.64137232303619384766e+00) (18, -1.01967406272888183594e+00) (19, 3.89881920814514160156e+00) (20, 1.13757014274597167969e+00) (21, -8.06428119540214538574e-02) (22, -1.44127857685089111328e+00) (23, -7.51255631446838378906e-01) (24, -2.42773279547691345215e-01) (25, -8.77536475658416748047e-01) (26, -1.30139946937561035156e+00) (27, -9.30727064609527587891e-01) (28, -3.73665750026702880859e-01) (29, 2.98209607601165771484e-01) (30, 2.36561670899391174316e-01) (31, 7.26891085505485534668e-02) (32, -1.80422827601432800293e-01) (33, -3.32222998142242431641e-01) (34, -2.31169983744621276855e-01) (35, -2.07832157611846923828e-02) (36, -2.94557344168424606323e-02) (37, -2.65141099691390991211e-01) (38, -2.25762411952018737793e-01) (39, -3.72285604476928710938e-01) (40, 6.53214454650878906250e-02) (41, 2.00340878218412399292e-02) (42, 5.68612702190876007080e-02) (43, -1.65313836187124252319e-02) (44, 1.83160312008112668991e-03) (45, -4.49441857635974884033e-02) (46, -1.57465323805809020996e-01) (0, -2.20457568764686584473e-01) (1, 1.32392883300781250000e+00) (2, 2.17182064056396484375e+00) (3, 4.17805004119873046875e+00) (4, 4.05554866790771484375e+00) (5, 8.30145597457885742188e-01) (6, 1.31494313478469848633e-01) (7, 6.10243320465087890625e-01) (8, -4.81961667537689208984e-01) (9, 9.01968777179718017578e-01) (10, 5.57120501995086669922e-01) (11, -9.37775254249572753906e-01) (12, 5.39146780967712402344e-01) (13, 7.36870229244232177734e-01) (14, 1.36228755116462707520e-01) (15, -2.79317647218704223633e-01) (16, 1.47755730152130126953e+00) (17, 2.20649385452270507812e+00) (18, 4.19000387191772460938e+00) (19, 3.95033884048461914062e+00) (20, 8.91626477241516113281e-01) (21, 2.82408632338047027588e-02) (22, 4.48400169610977172852e-01) (23, -4.44186568260192871094e-01) (24, 7.44852840900421142578e-01) (25, 5.92524349689483642578e-01) (26, -9.35665488243103027344e-01) (27, 6.17815911769866943359e-01) (28, 5.85267722606658935547e-01) (29, 2.67682313919067382812e-01) (30, -3.03779333829879760742e-01) (31, 9.94939729571342468262e-02) (32, -2.77766704559326171875e-01) (33, -2.66743063926696777344e-01) (34, -1.76212891936302185059e-01) (35, 9.90314111113548278809e-02) (36, 4.66263182461261749268e-02) (37, -2.22522303462028503418e-01) (38, -1.21711000800132751465e-01) (39, -2.16995164752006530762e-01) (40, -4.70669679343700408936e-02) (41, -1.45032405853271484375e-02) (42, -8.29282104969024658203e-02) (43, -2.65090055763721466064e-02) (44, -2.10396181792020797729e-02) (45, -2.57303118705749511719e-02) (46, -2.63671517372131347656e-01) (0, 8.08336496353149414062e-01) (1, 2.12956285476684570312e+00) (2, -8.47397267818450927734e-01) (3, -8.52883994579315185547e-01) (4, 6.01361691951751708984e-01) (5, -1.02428525686264038086e-01) (6, 6.11013948917388916016e-01) (7, 2.60174661874771118164e-01) (8, -1.75398433208465576172e+00) (9, 8.68352472782135009766e-01) (10, 3.10406059026718139648e-01) (11, -1.66728749871253967285e-01) (12, -3.59077811241149902344e-01) (13, -4.45694895461201667786e-03) (14, 3.63981395959854125977e-01) (15, 6.86134099960327148438e-02) (16, 2.02562904357910156250e+00) (17, -6.77351474761962890625e-01) (18, -9.25134003162384033203e-01) (19, 5.24189054965972900391e-01) (20, -3.61936837434768676758e-02) (21, 5.98826587200164794922e-01) (22, 1.87138125300407409668e-01) (23, -1.81792199611663818359e+00) (24, 9.69067573547363281250e-01) (25, 3.89270305633544921875e-01) (26, -3.12822073698043823242e-01) (27, -4.26732897758483886719e-01) (28, -3.52838151156902313232e-02) (29, 3.23372602462768554688e-01) (30, 6.82024359703063964844e-02) (31, -1.48285394534468650818e-02) (32, 2.32629880309104919434e-01) (33, 3.01765233278274536133e-01) (34, 1.80400505661964416504e-01) (35, -7.65749365091323852539e-02) (36, -9.97018814086914062500e-02) (37, 3.38155716657638549805e-01) (38, 3.05894404649734497070e-01) (39, 2.29529187083244323730e-01) (40, -2.15289723128080368042e-02) (41, -9.29800644516944885254e-02) (42, -5.69522492587566375732e-02) (43, -8.18822160363197326660e-02) (44, -4.57331053912639617920e-02) (45, 8.28214064240455627441e-02) (46, 9.32637751102447509766e-02) (0, -3.60422968864440917969e-01) (1, -4.24636244773864746094e-01) (2, -1.24469494819641113281e+00) (3, 6.55110180377960205078e-01) (4, 1.26526892185211181641e+00) (5, 7.91716098785400390625e-01) (6, -2.82068043947219848633e-01) (7, 4.75764542818069458008e-01) (8, -5.12861609458923339844e-01) (9, 1.68166190385818481445e-01) (10, -8.76989364624023437500e-01) (11, -1.04139244556427001953e+00) (12, -3.34676086902618408203e-01) (13, -4.79177802801132202148e-01) (14, -5.63920915126800537109e-01) (15, 1.08464205265045166016e+00) (16, -4.95355188846588134766e-01) (17, -1.14560985565185546875e+00) (18, 5.69056212902069091797e-01) (19, 1.29573762416839599609e+00) (20, 7.45531797409057617188e-01) (21, -2.39400357007980346680e-01) (22, 4.46834564208984375000e-01) (23, -4.85487282276153564453e-01) (24, 1.51845276355743408203e-01) (25, -9.23794865608215332031e-01) (26, -1.04296207427978515625e+00) (27, -1.49299487471580505371e-01) (28, -3.70881170034408569336e-01) (29, -7.21398711204528808594e-01) (30, 1.14210605621337890625e+00) (31, -5.28216734528541564941e-02) (32, 9.50858294963836669922e-01) (33, 9.41011726856231689453e-01) (34, 8.16943943500518798828e-01) (35, -4.08173575997352600098e-02) (36, 3.70010025799274444580e-02) (37, 8.66327226161956787109e-01) (38, 9.20022428035736083984e-01) (39, 8.76182377338409423828e-01) (40, -1.91753935068845748901e-02) (41, -3.89344953000545501709e-02) (42, 4.26645539700984954834e-02) (43, -1.59125216305255889893e-02) (44, -2.63806041330099105835e-02) (45, 2.02219244092702865601e-02) (46, -1.04252863675355911255e-02) (0, -2.34580412507057189941e-02) (1, 2.23956823348999023438e-01) (2, -8.21135401725769042969e-01) (3, 3.77853441238403320312e+00) (4, 1.10439085960388183594e+00) (5, -1.08129724860191345215e-01) (6, -2.91206657886505126953e-01) (7, -6.62260711193084716797e-01) (8, 1.45765984058380126953e+00) (9, 2.71015572547912597656e+00) (10, -1.32006657123565673828e+00) (11, -1.86365723609924316406e-01) (12, 1.62286072969436645508e-01) (13, 5.85945188999176025391e-01) (14, -1.05166828632354736328e+00) (15, 2.19181045889854431152e-01) (16, 3.76167684793472290039e-01) (17, -8.55358839035034179688e-01) (18, 3.71730899810791015625e+00) (19, 9.93633270263671875000e-01) (20, -9.74029153585433959961e-02) (21, -3.18013876676559448242e-01) (22, -8.19552361965179443359e-01) (23, 1.40170180797576904297e+00) (24, 2.69758963584899902344e+00) (25, -1.45354950428009033203e+00) (26, -2.88299441337585449219e-01) (27, 1.12956963479518890381e-01) (28, 7.06001341342926025391e-01) (29, -9.79278147220611572266e-01) (30, 9.51952710747718811035e-02) (31, -2.83714546822011470795e-03) (32, -6.12752437591552734375e-01) (33, -6.81665539741516113281e-01) (34, -6.38579964637756347656e-01) (35, 5.96881620585918426514e-02) (36, 2.48723034746944904327e-03) (37, -7.06543684005737304688e-01) (38, -6.90091013908386230469e-01) (39, -7.59268045425415039062e-01) (40, 2.90787225821986794472e-04) (41, 1.38178709894418716431e-02) (42, 8.40463638305664062500e-02) (43, -8.02392065525054931641e-02) (44, 2.95911431312561035156e-02) (45, -3.49559746682643890381e-02) (46, -6.66584491729736328125e-01) (0, 7.39030897617340087891e-01) (1, 3.03656315803527832031e+00) (2, 6.19211196899414062500e-01) (3, 2.41607356071472167969e+00) (4, 1.19740235805511474609e+00) (5, -6.07856929302215576172e-01) (6, 1.04233235120773315430e-01) (7, 3.89311760663986206055e-01) (8, -2.00702857971191406250e+00) (9, -1.35634589195251464844e+00) (10, -7.16824114322662353516e-01) (11, 2.77649074792861938477e-01) (12, 4.92789328098297119141e-01) (13, 1.32500934600830078125e+00) (14, 1.66786462068557739258e-01) (15, 2.30517596006393432617e-01) (16, 3.09574532508850097656e+00) (17, 5.49845933914184570312e-01) (18, 2.28205585479736328125e+00) (19, 1.22960793972015380859e+00) (20, -6.79963409900665283203e-01) (21, 7.07419812679290771484e-02) (22, 2.49140605330467224121e-01) (23, -2.01624155044555664062e+00) (24, -1.35175633430480957031e+00) (25, -5.76343655586242675781e-01) (26, 1.82341799139976501465e-01) (27, 3.81310224533081054688e-01) (28, 1.24169301986694335938e+00) (29, 2.93860644102096557617e-01) (30, 2.08284795284271240234e-01) (31, -8.10125097632408142090e-02) (32, 4.73062038421630859375e-01) (33, 4.78653907775878906250e-01) (34, 6.25871241092681884766e-01) (35, 4.48949709534645080566e-02) (36, 5.19997961819171905518e-02) (37, 6.04360640048980712891e-01) (38, 5.66307604312896728516e-01) (39, 4.70476925373077392578e-01) (40, -8.44791010022163391113e-02) (41, 6.18075132369995117188e-02) (42, -9.99831557273864746094e-02) (43, 9.20497998595237731934e-02) (44, 4.02346253395080566406e-02) (45, -9.82416123151779174805e-02) (46, 2.04781621694564819336e-01) (0, -7.91976526379585266113e-02) (1, -1.21630704402923583984e+00) (2, -2.57655739784240722656e-01) (3, -2.86647379398345947266e-01) (4, 9.64892625808715820312e-01) (5, 6.97034418582916259766e-01) (6, 1.38787138462066650391e+00) (7, -3.71695831418037414551e-02) (8, -1.38823068141937255859e+00) (9, -3.75321030616760253906e-01) (10, -1.56843864917755126953e+00) (11, 2.94128745794296264648e-01) (12, -5.40130555629730224609e-01) (13, -1.28508937358856201172e+00) (14, -3.43789011240005493164e-02) (15, 5.11749684810638427734e-01) (16, -1.26969325542449951172e+00) (17, -3.01744699478149414062e-01) (18, -1.58995315432548522949e-01) (19, 8.25622558593750000000e-01) (20, 6.59946858882904052734e-01) (21, 1.43864345550537109375e+00) (22, 8.06039795279502868652e-02) (23, -1.42966914176940917969e+00) (24, -2.74548262357711791992e-01) (25, -1.55262911319732666016e+00) (26, 1.87657266855239868164e-01) (27, -5.42418539524078369141e-01) (28, -1.25786137580871582031e+00) (29, 9.44899022579193115234e-03) (30, 3.56215924024581909180e-01) (31, 7.44927078485488891602e-02) (32, 5.09790360927581787109e-01) (33, 4.52605396509170532227e-01) (34, 3.42243731021881103516e-01) (35, 5.05694746971130371094e-02) (36, 8.66233706474304199219e-02) (37, 4.41647797822952270508e-01) (38, 5.11171042919158935547e-01) (39, 4.06027823686599731445e-01) (40, 8.65226611495018005371e-02) (41, -4.55331802368164062500e-03) (42, -4.96153421700000762939e-02) (43, 4.65573184192180633545e-02) (44, 2.85866390913724899292e-02) (45, -3.37508693337440490723e-02) (46, 2.54856497049331665039e-01) (0, -3.62907856702804565430e-01) (1, 5.61735183000564575195e-02) (2, -3.97176109254360198975e-02) (3, -1.00652730464935302734e+00) (4, -6.45022168755531311035e-02) (5, -7.97891259193420410156e-01) (6, 1.55879989266395568848e-01) (7, -8.07202517986297607422e-01) (8, -5.40973693132400512695e-02) (9, -1.71257495880126953125e-01) (10, -1.82587012648582458496e-01) (11, 5.11488616466522216797e-01) (12, -1.00214600563049316406e+00) (13, -2.10020601749420166016e-01) (14, -2.92846322059631347656e-01) (15, -8.20851087570190429688e-01) (16, 3.84383052587509155273e-02) (17, -1.00538060069084167480e-02) (18, -8.71011435985565185547e-01) (19, -1.48647174239158630371e-01) (20, -7.31779932975769042969e-01) (21, 5.46686463057994842529e-02) (22, -7.58142530918121337891e-01) (23, -6.77036195993423461914e-02) (24, -2.06079870462417602539e-01) (25, -9.60143879055976867676e-02) (26, 3.90520393848419189453e-01) (27, -1.15077972412109375000e+00) (28, -2.54553675651550292969e-01) (29, -3.71053397655487060547e-01) (30, -8.18397879600524902344e-01) (31, -1.55319096520543098450e-02) (32, -1.19650042057037353516e+00) (33, -1.20404732227325439453e+00) (34, -1.13628721237182617188e+00) (35, 9.92704033851623535156e-02) (36, -5.37464627996087074280e-03) (37, -1.15115344524383544922e+00) (38, -1.24216759204864501953e+00) (39, -1.13613116741180419922e+00) (40, -9.83228534460067749023e-02) (41, -3.05454134941101074219e-02) (42, -1.40153346583247184753e-02) (43, 6.73131495714187622070e-02) (44, 9.32061225175857543945e-02) (45, -1.59743130207061767578e-02) (46, 1.67982369661331176758e-01) (0, -4.80046793818473815918e-02) (1, -3.01556730270385742188e+00) (2, 9.70788717269897460938e-01) (3, 9.08978208899497985840e-02) (4, 7.74758338928222656250e-01) (5, 2.68495231866836547852e-01) (6, 4.33005541563034057617e-01) (7, 2.13744923472404479980e-01) (8, -1.00536739826202392578e+00) (9, -1.38634532690048217773e-01) (10, 3.91932040452957153320e-01) (11, -1.00921702384948730469e+00) (12, 3.04380893707275390625e-01) (13, -7.16578125953674316406e-01) (14, -2.69379973411560058594e-01) (15, 1.17789961397647857666e-01) (16, -2.87066507339477539062e+00) (17, 9.28256511688232421875e-01) (18, -2.83228028565645217896e-02) (19, 8.01710247993469238281e-01) (20, 2.36665993928909301758e-01) (21, 5.55009186267852783203e-01) (22, 2.42891803383827209473e-01) (23, -9.96210396289825439453e-01) (24, -1.65585637092590332031e-01) (25, 2.36949145793914794922e-01) (26, -9.31077778339385986328e-01) (27, 3.65524649620056152344e-01) (28, -7.98189103603363037109e-01) (29, -4.49796915054321289062e-01) (30, 1.90729869063943624496e-03) (31, 3.35517898201942443848e-02) (32, 1.15980692207813262939e-01) (33, 1.92205473780632019043e-01) (34, 2.02370956540107727051e-01) (35, 4.97682467103004455566e-02) (36, -5.21634668111801147461e-02) (37, 2.28318437933921813965e-01) (38, 1.82869479060173034668e-01) (39, 1.70026287436485290527e-01) (40, 6.84081343933939933777e-03) (41, -2.65580005943775177002e-02) (42, 1.31050469353795051575e-02) (43, 6.26385360956192016602e-02) (44, 8.19052010774612426758e-02) (45, -3.17755946889519691467e-03) (46, -7.68276453018188476562e-02) (0, -2.39059224724769592285e-01) (1, 2.60143637657165527344e-01) (2, -1.61157622933387756348e-01) (3, -5.64410507678985595703e-01) (4, -6.93292200565338134766e-01) (5, -5.35371601581573486328e-01) (6, 5.77670991420745849609e-01) (7, 1.80487677454948425293e-01) (8, -4.86583679914474487305e-01) (9, 2.04595541954040527344e+00) (10, 1.82714283466339111328e+00) (11, 1.45164525508880615234e+00) (12, -1.22841455042362213135e-01) (13, 1.49072170257568359375e-01) (14, -9.91948187351226806641e-01) (15, -7.30871498584747314453e-01) (16, 1.55791699886322021484e-01) (17, -2.28105083107948303223e-01) (18, -5.01854717731475830078e-01) (19, -5.69734573364257812500e-01) (20, -5.02433478832244873047e-01) (21, 6.06297075748443603516e-01) (22, 1.55567780137062072754e-01) (23, -5.31304299831390380859e-01) (24, 2.14777612686157226562e+00) (25, 1.75639021396636962891e+00) (26, 1.40308773517608642578e+00) (27, -8.52346345782279968262e-02) (28, 2.56923943758010864258e-01) (29, -1.16806650161743164062e+00) (30, -7.23912119865417480469e-01) (31, -4.89374361932277679443e-02) (32, -5.16701042652130126953e-01) (33, -6.38114035129547119141e-01) (34, -5.06698787212371826172e-01) (35, 8.72014164924621582031e-02) (36, 2.22709905356168746948e-02) (37, -6.42279922962188720703e-01) (38, -5.91582715511322021484e-01) (39, -4.83692467212677001953e-01) (40, 1.37730361893773078918e-02) (41, -3.51153276860713958740e-02) (42, 4.32625077664852142334e-02) (43, -6.13098554313182830811e-02) (44, -3.33357155323028564453e-02) (45, 3.66121530532836914062e-02) (46, -8.69377791881561279297e-01) (0, -1.55275642871856689453e-01) (1, -4.21356868743896484375e+00) (2, -2.87655162811279296875e+00) (3, -1.57871603965759277344e+00) (4, 2.53120988607406616211e-01) (5, -2.80821025371551513672e-01) (6, -3.05571794509887695312e-01) (7, -7.62675225734710693359e-01) (8, 2.99676418304443359375e+00) (9, 1.79406440258026123047e+00) (10, -2.20782732963562011719e+00) (11, -3.93415652215480804443e-02) (12, -3.25987845659255981445e-01) (13, 8.43480288982391357422e-01) (14, 1.80141359567642211914e-01) (15, 5.98114788532257080078e-01) (16, -4.19199991226196289062e+00) (17, -2.93579530715942382812e+00) (18, -1.48472094535827636719e+00) (19, 1.26555472612380981445e-01) (20, -3.10838401317596435547e-01) (21, -2.50153362751007080078e-01) (22, -8.30139577388763427734e-01) (23, 2.94115734100341796875e+00) (24, 1.83552968502044677734e+00) (25, -2.13081622123718261719e+00) (26, -1.14209696650505065918e-01) (27, -3.55464309453964233398e-01) (28, 7.69923746585845947266e-01) (29, 1.76457196474075317383e-01) (30, 4.14734929800033569336e-01) (31, 1.72021035104990005493e-02) (32, 2.98762232065200805664e-01) (33, 3.72618705034255981445e-01) (34, 4.70554023981094360352e-01) (35, 6.06956481933593750000e-02) (36, -7.19066038727760314941e-02) (37, 3.80677372217178344727e-01) (38, 4.24957185983657836914e-01) (39, 4.78477776050567626953e-01) (40, 2.10160743445158004761e-02) (41, -8.53956863284111022949e-02) (42, -3.63870267756283283234e-03) (43, -3.15018184483051300049e-02) (44, 1.89952384680509567261e-02) (45, -2.28145476430654525757e-02) (46, -4.50694173574447631836e-01) (0, -3.06539148092269897461e-01) (1, -2.11708292365074157715e-01) (2, -1.19018658995628356934e-01) (3, 5.34571123123168945312e+00) (4, 2.52678322792053222656e+00) (5, 1.01782590150833129883e-01) (6, 3.73507626354694366455e-02) (7, -2.98028439283370971680e-01) (8, -1.08484363555908203125e+00) (9, 1.57203208655118942261e-02) (10, 6.72838211059570312500e-01) (11, 9.32770967483520507812e-02) (12, 4.02751207351684570312e-01) (13, -2.55977153778076171875e-01) (14, -2.87727236747741699219e-01) (15, -5.21490335464477539062e-01) (16, -1.72555521130561828613e-01) (17, -6.58836215734481811523e-02) (18, 5.33024406433105468750e+00) (19, 2.60366225242614746094e+00) (20, 1.74684897065162658691e-02) (21, 5.76453329995274543762e-03) (22, -3.90969097614288330078e-01) (23, -1.06750762462615966797e+00) (24, 1.40979886054992675781e-01) (25, 5.53973793983459472656e-01) (26, 8.89687836170196533203e-02) (27, 3.65674614906311035156e-01) (28, -2.32986181974411010742e-01) (29, -4.30015236139297485352e-01) (30, -4.08725887537002563477e-01) (31, 3.45046515576541423798e-03) (32, -7.45643258094787597656e-01) (33, -7.37458109855651855469e-01) (34, -7.75141000747680664062e-01) (35, 3.13544981181621551514e-02) (36, 2.11062673479318618774e-02) (37, -6.78302168846130371094e-01) (38, -8.46672296524047851562e-01) (39, -6.93303346633911132812e-01) (40, -4.11487929522991180420e-02) (41, 6.81188032031059265137e-02) (42, 6.25822171568870544434e-02) (43, 5.06942644715309143066e-02) (44, -1.60951744765043258667e-02) (45, 5.74877522885799407959e-02) (46, -9.33135747909545898438e-01) (0, 4.83538359403610229492e-01) (1, 1.36348164081573486328e+00) (2, 1.98415863513946533203e+00) (3, 2.42544269561767578125e+00) (4, -3.60066592693328857422e-01) (5, -3.41623902320861816406e-01) (6, -4.82597164809703826904e-02) (7, 1.37882685661315917969e+00) (8, 2.10295367240905761719e+00) (9, -2.37431317567825317383e-01) (10, -3.97714227437973022461e-02) (11, -5.58898925781250000000e-01) (12, 1.24227523803710937500e-01) (13, -5.26279211044311523438e-01) (14, -8.74028086662292480469e-01) (15, -3.98364216089248657227e-01) (16, 1.49921023845672607422e+00) (17, 1.95094263553619384766e+00) (18, 2.39363288879394531250e+00) (19, -3.91089081764221191406e-01) (20, -3.18986296653747558594e-01) (21, -8.74045118689537048340e-02) (22, 1.49820578098297119141e+00) (23, 1.92216444015502929688e+00) (24, -2.37506419420242309570e-01) (25, -1.27705931663513183594e-01) (26, -4.31873112916946411133e-01) (27, 1.36069774627685546875e-01) (28, -3.82926285266876220703e-01) (29, -9.11323666572570800781e-01) (30, -5.30233025550842285156e-01) (31, 7.70208165049552917480e-02) (32, -8.79431247711181640625e-01) (33, -8.83741736412048339844e-01) (34, -9.83864307403564453125e-01) (35, -1.42666101455688476562e-02) (36, 6.28956779837608337402e-02) (37, -9.00013923645019531250e-01) (38, -9.49148774147033691406e-01) (39, -8.83316040039062500000e-01) (40, -5.68228252232074737549e-02) (41, -2.94804573059082031250e-02) (42, -9.56434905529022216797e-02) (43, -1.44135830923914909363e-02) (44, 3.24667687527835369110e-03) (45, 7.42797777056694030762e-02) (46, -7.28658020496368408203e-01) (0, 7.03324615955352783203e-01) (1, -2.12057024240493774414e-01) (2, 6.53244107961654663086e-02) (3, 2.97772502899169921875e+00) (4, 1.43596124649047851562e+00) (5, -1.19464302062988281250e+00) (6, -1.21668159961700439453e-01) (7, -3.41413408517837524414e-01) (8, -8.69438588619232177734e-01) (9, -6.29901230335235595703e-01) (10, -7.51188218593597412109e-01) (11, -6.19362294673919677734e-01) (12, 1.52509129047393798828e+00) (13, 2.01724097132682800293e-01) (14, -4.33351308107376098633e-01) (15, -6.12202920019626617432e-02) (16, -1.01888522505760192871e-01) (17, 3.76470014452934265137e-02) (18, 3.00274991989135742188e+00) (19, 1.40214729309082031250e+00) (20, -1.30413079261779785156e+00) (21, -8.11541974544525146484e-02) (22, -2.97374755144119262695e-01) (23, -7.26240873336791992188e-01) (24, -6.38384640216827392578e-01) (25, -8.11769664287567138672e-01) (26, -5.26059687137603759766e-01) (27, 1.42611467838287353516e+00) (28, 3.11761528253555297852e-01) (29, -3.79759639501571655273e-01) (30, -1.05771496891975402832e-01) (31, -9.05563607811927795410e-02) (32, -3.44918400049209594727e-01) (33, -2.12067052721977233887e-01) (34, -2.05712601542472839355e-01) (35, 4.39023971557617187500e-02) (36, -1.28365037962794303894e-02) (37, -3.20598274469375610352e-01) (38, -3.07149022817611694336e-01) (39, -2.62478500604629516602e-01) (40, -6.70941099524497985840e-02) (41, 6.93690404295921325684e-02) (42, 9.45605188608169555664e-02) (43, 8.62746387720108032227e-02) (44, -9.77001711726188659668e-02) (45, -1.06243910267949104309e-02) (46, -6.40550732612609863281e-01) (0, 3.80664736032485961914e-01) (1, 6.79994463920593261719e-01) (2, -7.32607185840606689453e-01) (3, -2.42391490936279296875e+00) (4, -2.14280676841735839844e+00) (5, -8.64205658435821533203e-01) (6, 1.75079211592674255371e-01) (7, 1.08910942077636718750e+00) (8, 1.16372728347778320312e+00) (9, 5.81036567687988281250e-01) (10, 1.02343475818634033203e+00) (11, -5.58010824024677276611e-02) (12, 8.70697796344757080078e-02) (13, -1.70945629477500915527e-01) (14, -7.30066835880279541016e-01) (15, 1.15730136632919311523e-01) (16, 6.17123603820800781250e-01) (17, -7.33794629573822021484e-01) (18, -2.49207711219787597656e+00) (19, -2.27530312538146972656e+00) (20, -7.03857898712158203125e-01) (21, 1.93331584334373474121e-01) (22, 1.05590820312500000000e+00) (23, 1.06900513172149658203e+00) (24, 5.92473268508911132812e-01) (25, 9.85475838184356689453e-01) (26, -1.03545635938644409180e-02) (27, 1.41812637448310852051e-01) (28, -1.55011996626853942871e-01) (29, -6.81083142757415771484e-01) (30, 2.77693748474121093750e-01) (31, -4.28679771721363067627e-02) (32, 5.86176477372646331787e-02) (33, 3.24104912579059600830e-02) (34, 6.34956285357475280762e-02) (35, -2.00602840632200241089e-02) (36, 2.85735726356506347656e-02) (37, 1.06847733259201049805e-01) (38, -6.45404756069183349609e-02) (39, 5.79692684113979339600e-02) (40, -4.22922335565090179443e-02) (41, 6.79182994645088911057e-04) (42, 7.73300677537918090820e-02) (43, -1.62502955645322799683e-02) (44, 4.65193390846252441406e-02) (45, 1.47426370531320571899e-02) (46, -2.63711661100387573242e-01) (0, -7.05719351768493652344e-01) (1, -2.27265298366546630859e-01) (2, -7.44722783565521240234e-01) (3, -2.42311239242553710938e+00) (4, -3.94536566734313964844e+00) (5, -2.37884473800659179688e+00) (6, -1.30724024772644042969e+00) (7, 9.22650516033172607422e-01) (8, 1.05482566356658935547e+00) (9, 1.55022048950195312500e+00) (10, 2.43402004241943359375e+00) (11, -4.67088192701339721680e-01) (12, 1.03030979633331298828e+00) (13, -3.91843050718307495117e-01) (14, -1.39536604285240173340e-01) (15, -6.47636413574218750000e-01) (16, -1.26260057091712951660e-01) (17, -8.10176670551300048828e-01) (18, -2.42334556579589843750e+00) (19, -3.75314354896545410156e+00) (20, -2.37732934951782226562e+00) (21, -1.42294478416442871094e+00) (22, 8.15657556056976318359e-01) (23, 1.08758652210235595703e+00) (24, 1.43275022506713867188e+00) (25, 2.53068494796752929688e+00) (26, -5.37782430648803710938e-01) (27, 1.13481569290161132812e+00) (28, -5.35054922103881835938e-01) (29, -2.92937368154525756836e-01) (30, -6.81027531623840332031e-01) (31, -2.86512728780508041382e-02) (32, -6.40397250652313232422e-01) (33, -6.57859981060028076172e-01) (34, -5.46827614307403564453e-01) (35, -7.24986419081687927246e-02) (36, 9.18393507599830627441e-02) (37, -6.12027347087860107422e-01) (38, -5.27882516384124755859e-01) (39, -5.89694082736968994141e-01) (40, -5.48820272088050842285e-02) (41, 3.94967086613178253174e-02) (42, -6.46999031305313110352e-02) (43, 1.16580724716186523438e-03) (44, 3.04011348634958267212e-02) (45, 9.48721691966056823730e-02) (46, -1.18300938606262207031e+00) (0, 5.80800995230674743652e-02) (1, -7.02216088771820068359e-01) (2, -6.53283596038818359375e-01) (3, -1.04625439643859863281e+00) (4, -2.12327671051025390625e+00) (5, -1.37042105197906494141e+00) (6, -1.26978933811187744141e-01) (7, 3.11007887125015258789e-01) (8, 1.82479751110076904297e+00) (9, 1.22963678836822509766e+00) (10, -1.88314223289489746094e+00) (11, 8.99599552154541015625e-01) (12, 8.19658100605010986328e-01) (13, -5.04747569561004638672e-01) (14, -2.77816981077194213867e-01) (15, -3.18755686283111572266e-01) (16, -6.79700791835784912109e-01) (17, -7.12029576301574707031e-01) (18, -9.09501433372497558594e-01) (19, -2.06160306930541992188e+00) (20, -1.25642430782318115234e+00) (21, -1.39876306056976318359e-01) (22, 1.93572044372558593750e-01) (23, 1.73516833782196044922e+00) (24, 1.16068422794342041016e+00) (25, -1.75251019001007080078e+00) (26, 8.84716868400573730469e-01) (27, 8.04178535938262939453e-01) (28, -4.49885219335556030273e-01) (29, -3.77616375684738159180e-01) (30, -1.91238343715667724609e-01) (31, 5.72542548179626464844e-02) (32, -2.50299006700515747070e-01) (33, -3.48198473453521728516e-01) (34, -3.97978127002716064453e-01) (35, 9.28756520152091979980e-02) (36, 2.98952218145132064819e-02) (37, -3.52525889873504638672e-01) (38, -2.50232309103012084961e-01) (39, -3.15587818622589111328e-01) (40, 9.42897722125053405762e-02) (41, 9.84694585204124450684e-02) (42, 9.98633280396461486816e-02) (43, 8.86078998446464538574e-02) (44, -4.68481294810771942139e-02) (45, 9.49128642678260803223e-02) (46, -4.15824890136718750000e-01) (0, 2.69780904054641723633e-01) (1, 4.77651643753051757812e+00) (2, -2.22403585910797119141e-01) (3, 3.85706663131713867188e-01) (4, 9.94618952274322509766e-01) (5, 1.06055058538913726807e-01) (6, 7.69393980503082275391e-01) (7, 3.22948008775711059570e-01) (8, 3.27887010574340820312e+00) (9, 1.47164928913116455078e+00) (10, 2.87236303091049194336e-01) (11, -1.32595920562744140625e+00) (12, -4.23056513071060180664e-01) (13, -1.62508463859558105469e+00) (14, -3.16129684448242187500e-01) (15, -8.21899533271789550781e-01) (16, 4.77901458740234375000e+00) (17, -8.81619527935981750488e-02) (18, 4.73508000373840332031e-01) (19, 9.98092234134674072266e-01) (20, 1.37637302279472351074e-01) (21, 8.65212738513946533203e-01) (22, 4.11301583051681518555e-01) (23, 3.31738185882568359375e+00) (24, 1.58261454105377197266e+00) (25, 2.73681491613388061523e-01) (26, -1.26642227172851562500e+00) (27, -4.33028131723403930664e-01) (28, -1.48073840141296386719e+00) (29, -2.54863917827606201172e-01) (30, -9.34850454330444335938e-01) (31, 2.22364552319049835205e-02) (32, -1.13251054286956787109e+00) (33, -1.26339566707611083984e+00) (34, -1.14978277683258056641e+00) (35, 6.13501332700252532959e-02) (36, 1.21302604675292968750e-02) (37, -1.27516901493072509766e+00) (38, -1.29368269443511962891e+00) (39, -1.24864256381988525391e+00) (40, -1.44266849383711814880e-02) (41, 6.56338557600975036621e-02) (42, 8.33943486213684082031e-02) (43, -5.11252805590629577637e-02) (44, -8.67850705981254577637e-02) (45, 1.62972218822687864304e-03) (46, -1.48085701465606689453e+00) (0, -3.49005252122879028320e-01) (1, -1.79011476039886474609e+00) (2, -1.19606383144855499268e-01) (3, -2.18902325630187988281e+00) (4, 5.47978341579437255859e-01) (5, -3.77332925796508789062e-01) (6, -1.66354119777679443359e-01) (7, 6.61878943443298339844e-01) (8, -2.71716928482055664062e+00) (9, -2.92418837547302246094e+00) (10, -2.51021265983581542969e-01) (11, 7.26294219493865966797e-01) (12, 1.46987542510032653809e-01) (13, 1.57177066802978515625e+00) (14, 3.77611815929412841797e-01) (15, 7.75900065898895263672e-01) (16, -1.76670348644256591797e+00) (17, -1.79927542805671691895e-01) (18, -2.03857421875000000000e+00) (19, 4.32617545127868652344e-01) (20, -2.95955955982208251953e-01) (21, -1.24394170939922332764e-01) (22, 5.75096547603607177734e-01) (23, -2.74217128753662109375e+00) (24, -2.93543076515197753906e+00) (25, -3.56758415699005126953e-01) (26, 7.31356799602508544922e-01) (27, 1.92691549658775329590e-01) (28, 1.49974775314331054688e+00) (29, 2.76698857545852661133e-01) (30, 6.68798089027404785156e-01) (31, -4.05423827469348907471e-02) (32, 1.32901966571807861328e+00) (33, 1.34916746616363525391e+00) (34, 1.23028266429901123047e+00) (35, 3.12101487070322036743e-02) (36, -5.79906478524208068848e-02) (37, 1.17162489891052246094e+00) (38, 1.25770306587219238281e+00) (39, 1.23915088176727294922e+00) (40, -1.80458966642618179321e-02) (41, -7.07940384745597839355e-02) (42, -4.99560609459877014160e-02) (43, 5.40003180503845214844e-02) (44, 4.99989278614521026611e-02) (45, -6.16692416369915008545e-02) (46, 1.32937872409820556641e+00) (0, -4.76924665272235870361e-02) (1, -6.48801445960998535156e-01) (2, 3.84807258844375610352e-01) (3, -1.69723010063171386719e+00) (4, -2.57739484310150146484e-01) (5, -7.61788368225097656250e-01) (6, 3.57449352741241455078e-01) (7, -1.49322748184204101562e-01) (8, -9.26399417221546173096e-03) (9, 6.54169380664825439453e-01) (10, 8.96920800209045410156e-01) (11, 3.18098694086074829102e-01) (12, -2.88363367319107055664e-01) (13, 3.45718525350093841553e-02) (14, -6.89574539661407470703e-01) (15, -3.66440743207931518555e-01) (16, -6.70093953609466552734e-01) (17, 4.21294927597045898438e-01) (18, -1.62303256988525390625e+00) (19, -9.18289572000503540039e-02) (20, -6.66593670845031738281e-01) (21, 3.63561451435089111328e-01) (22, -9.78488028049468994141e-02) (23, -1.13583117723464965820e-01) (24, 7.06680417060852050781e-01) (25, 9.91856336593627929688e-01) (26, 3.46073269844055175781e-01) (27, -3.30622106790542602539e-01) (28, -7.86796491593122482300e-03) (29, -7.10449814796447753906e-01) (30, -3.19874256849288940430e-01) (31, -7.48873967677354812622e-03) (32, -7.43245124816894531250e-01) (33, -6.87530279159545898438e-01) (34, -5.55058836936950683594e-01) (35, -7.95752853155136108398e-02) (36, 4.49958220124244689941e-02) (37, -5.83251953125000000000e-01) (38, -7.12465167045593261719e-01) (39, -6.52512788772583007812e-01) (40, 7.35651776194572448730e-02) (41, -6.07004985213279724121e-02) (42, 6.66391998529434204102e-02) (43, -7.03029111027717590332e-02) (44, 2.89835222065448760986e-02) (45, 2.35166903585195541382e-02) (46, -1.78568482398986816406e-01) (0, 7.26748347282409667969e-01) (1, 1.16911745071411132812e+00) (2, -1.02493000030517578125e+00) (3, 1.11611962318420410156e+00) (4, 1.75581157207489013672e+00) (5, -2.15280008316040039062e+00) (6, 7.81480193138122558594e-01) (7, 9.22346770763397216797e-01) (8, 3.46442842483520507812e+00) (9, 3.75806879997253417969e+00) (10, 2.65514945983886718750e+00) (11, 8.42051804065704345703e-02) (12, 9.07884761691093444824e-02) (13, 6.25126063823699951172e-01) (14, -7.93940067291259765625e-01) (15, -4.33765918016433715820e-01) (16, 1.23489451408386230469e+00) (17, -9.49184298515319824219e-01) (18, 1.01555609703063964844e+00) (19, 1.86374700069427490234e+00) (20, -2.10997724533081054688e+00) (21, 7.79080986976623535156e-01) (22, 1.01964461803436279297e+00) (23, 3.34432029724121093750e+00) (24, 3.83199000358581542969e+00) (25, 2.49407625198364257812e+00) (26, -8.31367671489715576172e-02) (27, -5.28380684554576873779e-02) (28, 6.57033443450927734375e-01) (29, -7.99920916557312011719e-01) (30, -3.24616789817810058594e-01) (31, 2.91461348533630371094e-02) (32, -7.58797049522399902344e-01) (33, -8.54197144508361816406e-01) (34, -8.60609292984008789062e-01) (35, -7.29786902666091918945e-02) (36, 9.28705930709838867188e-02) (37, -8.34545969963073730469e-01) (38, -8.35091471672058105469e-01) (39, -7.95747637748718261719e-01) (40, -6.34583607316017150879e-02) (41, -3.97442607209086418152e-03) (42, 2.50659827142953872681e-02) (43, -9.29057896137237548828e-02) (44, -8.46343711018562316895e-02) (45, -3.97436432540416717529e-02) (46, -8.91882896423339843750e-01) (0, 1.77576750516891479492e-01) (1, -2.36282730102539062500e+00) (2, -2.38358426094055175781e+00) (3, -5.54739713668823242188e+00) (4, -7.93177962303161621094e-01) (5, -1.80859827995300292969e+00) (6, -4.42764669656753540039e-01) (7, -8.46583962440490722656e-01) (8, 1.64079570770263671875e+00) (9, -1.08299620449542999268e-01) (10, 4.57119166851043701172e-01) (11, -1.40537071228027343750e+00) (12, 2.58031040430068969727e-02) (13, 3.23462963104248046875e-01) (14, 9.43496823310852050781e-01) (15, 7.24687457084655761719e-01) (16, -2.25777816772460937500e+00) (17, -2.46996998786926269531e+00) (18, -5.57460498809814453125e+00) (19, -8.03218960762023925781e-01) (20, -1.92577648162841796875e+00) (21, -3.39703440666198730469e-01) (22, -7.82990813255310058594e-01) (23, 1.67841958999633789062e+00) (24, -1.90961241722106933594e-01) (25, 6.11046135425567626953e-01) (26, -1.46960747241973876953e+00) (27, -1.01171468850225210190e-03) (28, 1.63545787334442138672e-01) (29, 9.67303633689880371094e-01) (30, 6.38884544372558593750e-01) (31, 5.44361248612403869629e-02) (32, 2.66232281923294067383e-01) (33, 2.51731544733047485352e-01) (34, 2.78730064630508422852e-01) (35, -7.16886669397354125977e-02) (36, 6.56103491783142089844e-02) (37, 3.48584562540054321289e-01) (38, 3.04251223802566528320e-01) (39, 3.51525336503982543945e-01) (40, -9.67003554105758666992e-02) (41, 1.10759502276778221130e-02) (42, -1.04407733306288719177e-02) (43, -5.33342324197292327881e-02) (44, -1.54861388728022575378e-02) (45, -6.27905577421188354492e-02) (46, 6.91823601722717285156e-01) (0, -1.13593161106109619141e+00) (1, -9.62187230587005615234e-01) (2, 2.52967810630798339844e+00) (3, 1.91783082485198974609e+00) (4, -4.94769185781478881836e-01) (5, 5.64639627933502197266e-01) (6, -1.33916765451431274414e-01) (7, -1.80125549435615539551e-01) (8, 4.40429359674453735352e-01) (9, 2.62363052368164062500e+00) (10, -2.21424520015716552734e-01) (11, -6.63570761680603027344e-02) (12, 3.78292411565780639648e-01) (13, 4.44728098809719085693e-02) (14, 3.47546339035034179688e-01) (15, -7.57609128952026367188e-01) (16, -1.03046286106109619141e+00) (17, 2.62963986396789550781e+00) (18, 2.02739882469177246094e+00) (19, -5.68836629390716552734e-01) (20, 6.57295942306518554688e-01) (21, -2.15297877788543701172e-01) (22, -1.73480167984962463379e-01) (23, 4.37750250101089477539e-01) (24, 2.54739451408386230469e+00) (25, -2.14904010295867919922e-01) (26, 3.97172383964061737061e-03) (27, 3.35201382637023925781e-01) (28, -3.59500534832477569580e-02) (29, 3.68375003337860107422e-01) (30, -7.35958456993103027344e-01) (31, 4.78492267429828643799e-02) (32, -1.00939321517944335938e+00) (33, -1.06803011894226074219e+00) (34, -8.88932824134826660156e-01) (35, 7.63096213340759277344e-02) (36, -4.30962145328521728516e-02) (37, -9.50427651405334472656e-01) (38, -9.98168408870697021484e-01) (39, -9.55021023750305175781e-01) (40, -4.06096875667572021484e-02) (41, -1.51298223063349723816e-02) (42, 9.59212929010391235352e-02) (43, -9.04290378093719482422e-02) (44, -3.37919890880584716797e-02) (45, 6.04151859879493713379e-02) (46, -7.58349776268005371094e-01) (0, 4.15175892412662506104e-02) (1, 1.79365706443786621094e+00) (2, 1.09742200374603271484e+00) (3, -3.26626420021057128906e-01) (4, -1.10105216503143310547e+00) (5, 6.40834987163543701172e-01) (6, -1.02817273139953613281e+00) (7, 3.70894938707351684570e-01) (8, -9.25281524658203125000e-01) (9, -5.25778675079345703125e+00) (10, -2.10390782356262207031e+00) (11, -1.39778763055801391602e-01) (12, 1.08475947380065917969e+00) (13, -2.23004639148712158203e-01) (14, 3.32513689994812011719e-01) (15, 5.22826433181762695312e-01) (16, 1.79384350776672363281e+00) (17, 1.05345523357391357422e+00) (18, -3.71910691261291503906e-01) (19, -1.06898844242095947266e+00) (20, 5.96647560596466064453e-01) (21, -8.56052160263061523438e-01) (22, 4.19394403696060180664e-01) (23, -9.11756038665771484375e-01) (24, -5.24267673492431640625e+00) (25, -2.11865115165710449219e+00) (26, -3.74214351177215576172e-02) (27, 1.00852525234222412109e+00) (28, -1.56862735748291015625e-01) (29, 4.69018846750259399414e-01) (30, 6.12930655479431152344e-01) (31, -8.18246081471443176270e-02) (32, 1.05654561519622802734e+00) (33, 1.00534605979919433594e+00) (34, 1.10279536247253417969e+00) (35, 7.04472213983535766602e-02) (36, 5.28332851827144622803e-02) (37, 1.12297332286834716797e+00) (38, 1.08243811130523681641e+00) (39, 1.10027980804443359375e+00) (40, 8.97844061255455017090e-02) (41, -9.69932451844215393066e-02) (42, -8.47196131944656372070e-02) (43, 2.72783283144235610962e-02) (44, -2.13342849165201187134e-02) (45, -7.36837163567543029785e-02) (46, 9.77034270763397216797e-01) (0, -2.28163287043571472168e-01) (1, 4.05768573284149169922e-01) (2, 2.43689823150634765625e+00) (3, -1.55350100994110107422e+00) (4, 7.71930217742919921875e-01) (5, -1.79793298244476318359e-01) (6, 2.87309736013412475586e-01) (7, -5.10599970817565917969e-01) (8, 6.58275127410888671875e-01) (9, 1.09968054294586181641e+00) (10, 4.76757526397705078125e-01) (11, 2.17662215232849121094e-01) (12, -7.27573335170745849609e-01) (13, -1.76819354295730590820e-01) (14, -2.92167067527770996094e-01) (15, -1.63288682699203491211e-01) (16, 4.91485357284545898438e-01) (17, 2.55317139625549316406e+00) (18, -1.59418189525604248047e+00) (19, 7.55026578903198242188e-01) (20, -1.02985955774784088135e-01) (21, 2.09112167358398437500e-01) (22, -6.06037914752960205078e-01) (23, 6.13905847072601318359e-01) (24, 1.13567411899566650391e+00) (25, 3.97201001644134521484e-01) (26, 1.27313479781150817871e-01) (27, -7.06101715564727783203e-01) (28, -1.25251322984695434570e-01) (29, -3.31646680831909179688e-01) (30, -1.47371083498001098633e-01) (31, 1.10761290416121482849e-02) (32, -3.44341695308685302734e-01) (33, -4.52004313468933105469e-01) (34, -4.65326905250549316406e-01) (35, -1.85680035501718521118e-02) (36, 3.27093265950679779053e-02) (37, -3.40782523155212402344e-01) (38, -3.22041749954223632812e-01) (39, -4.51339483261108398438e-01) (40, 6.95813223719596862793e-02) (41, -1.79379470646381378174e-02) (42, -5.36774508655071258545e-02) (43, 1.15199685096740722656e-02) (44, 2.34808810055255889893e-02) (45, -9.07935723662376403809e-02) (46, 4.46362137794494628906e-01) (0, -5.17737925052642822266e-01) (1, -1.18535959720611572266e+00) (2, -1.84983623027801513672e+00) (3, -1.34129786491394042969e+00) (4, 4.20843571424484252930e-01) (5, -1.48878347873687744141e+00) (6, 5.77772974967956542969e-01) (7, 3.27995896339416503906e-01) (8, 7.77241110801696777344e-01) (9, 3.84779357910156250000e+00) (10, 1.52067649364471435547e+00) (11, 2.59720730781555175781e+00) (12, 3.67178320884704589844e-01) (13, -3.63901793956756591797e-01) (14, -3.41652482748031616211e-01) (15, -3.25803995132446289062e-01) (16, -1.16588020324707031250e+00) (17, -1.96969449520111083984e+00) (18, -1.46670126914978027344e+00) (19, 3.70459437370300292969e-01) (20, -1.32227957248687744141e+00) (21, 6.10499262809753417969e-01) (22, 3.83988440036773681641e-01) (23, 7.66499638557434082031e-01) (24, 3.83578014373779296875e+00) (25, 1.56164324283599853516e+00) (26, 2.66937804222106933594e+00) (27, 3.73697698116302490234e-01) (28, -3.22858214378356933594e-01) (29, -4.36306893825531005859e-01) (30, -3.58726739883422851562e-01) (31, 5.39846792817115783691e-02) (32, 6.73953592777252197266e-02) (33, 7.95578211545944213867e-02) (34, 7.19906464219093322754e-02) (35, -4.13248538970947265625e-02) (36, 2.29967478662729263306e-02) (37, 3.36267948150634765625e-02) (38, 6.71309530735015869141e-02) (39, 1.37936204671859741211e-01) (40, -5.81002347171306610107e-02) (41, -6.26938492059707641602e-02) (42, 8.09170976281166076660e-02) (43, 1.08439568430185317993e-02) (44, -1.43021345138549804688e-03) (45, 6.76139518618583679199e-02) (46, -4.34219241142272949219e-01) (0, 2.48785674571990966797e-01) (1, -1.50748276710510253906e+00) (2, -2.54578733444213867188e+00) (3, -3.08491396903991699219e+00) (4, -2.95061063766479492188e+00) (5, -1.59832596778869628906e+00) (6, -2.55836665630340576172e-01) (7, 1.74064505100250244141e+00) (8, -5.63072979450225830078e-01) (9, -5.41433274745941162109e-01) (10, 4.20924663543701171875e-01) (11, -1.06670808792114257812e+00) (12, 2.34523200988769531250e+00) (13, 9.62774008512496948242e-02) (14, 1.01895585656166076660e-01) (15, 7.00641989707946777344e-01) (16, -1.41875267028808593750e+00) (17, -2.65304613113403320312e+00) (18, -3.04872536659240722656e+00) (19, -2.98083209991455078125e+00) (20, -1.57695102691650390625e+00) (21, -2.50469982624053955078e-01) (22, 1.77335655689239501953e+00) (23, -5.35389780998229980469e-01) (24, -4.72993165254592895508e-01) (25, 4.08106327056884765625e-01) (26, -1.13357162475585937500e+00) (27, 2.42220902442932128906e+00) (28, 2.89986491203308105469e-01) (29, 5.55488020181655883789e-02) (30, 7.14498758316040039062e-01) (31, 2.09782253950834274292e-02) (32, 1.28032171726226806641e+00) (33, 1.31330609321594238281e+00) (34, 1.37276244163513183594e+00) (35, -4.70051430165767669678e-02) (36, -9.40351933240890502930e-02) (37, 1.30382442474365234375e+00) (38, 1.29715478420257568359e+00) (39, 1.29754054546356201172e+00) (40, 9.62254330515861511230e-02) (41, 8.91770124435424804688e-02) (42, -7.03935772180557250977e-02) (43, -9.15797278285026550293e-02) (44, 9.07286405563354492188e-02) (45, 2.62566208839416503906e-02) (46, 1.09917044639587402344e+00) (0, 3.90985041856765747070e-01) (1, -1.81038534641265869141e+00) (2, -1.38509380817413330078e+00) (3, -7.12547540664672851562e-01) (4, -6.05135381221771240234e-01) (5, 1.52363061904907226562e-01) (6, 1.00610807538032531738e-01) (7, 5.44923365116119384766e-01) (8, -1.36836743354797363281e+00) (9, -1.34136587381362915039e-01) (10, -1.29745018482208251953e+00) (11, -1.46680426597595214844e+00) (12, 6.99522256851196289062e-01) (13, -5.25347530841827392578e-01) (14, 1.28244027495384216309e-01) (15, 9.91487145423889160156e-01) (16, -1.78126442432403564453e+00) (17, -1.30530929565429687500e+00) (18, -6.84957623481750488281e-01) (19, -6.54540240764617919922e-01) (20, 1.01683951914310455322e-01) (21, 1.55153766274452209473e-01) (22, 4.73414242267608642578e-01) (23, -1.51732099056243896484e+00) (24, 1.99412498623132705688e-02) (25, -1.26247191429138183594e+00) (26, -1.47532343864440917969e+00) (27, 8.66759955883026123047e-01) (28, -5.49943745136260986328e-01) (29, 2.65945076942443847656e-01) (30, 1.01234614849090576172e+00) (31, 6.84607625007629394531e-02) (32, 1.68241512775421142578e+00) (33, 1.77107059955596923828e+00) (34, 1.60127365589141845703e+00) (35, 6.78327307105064392090e-02) (36, 7.17019662261009216309e-02) (37, 1.71258699893951416016e+00) (38, 1.71678888797760009766e+00) (39, 1.71242725849151611328e+00) (40, 3.97083163261413574219e-02) (41, 8.66680294275283813477e-02) (42, 8.05584937334060668945e-02) (43, 4.29733507335186004639e-02) (44, -1.22663443908095359802e-02) (45, -9.03908610343933105469e-02) (46, 9.43149685859680175781e-01) (0, 7.05069601535797119141e-02) (1, -1.92915475368499755859e+00) (2, 1.10377871990203857422e+00) (3, -1.77816689014434814453e+00) (4, 4.78723257780075073242e-01) (5, 4.14420068264007568359e-01) (6, -2.20182046294212341309e-01) (7, -2.34305560588836669922e-02) (8, -1.18399143218994140625e+00) (9, 9.49737668037414550781e-01) (10, -1.72103261947631835938e+00) (11, -6.42746627330780029297e-01) (12, -5.06991297006607055664e-02) (13, -5.85599541664123535156e-01) (14, 5.17947852611541748047e-01) (15, 5.33325493335723876953e-01) (16, -1.87865233421325683594e+00) (17, 1.13750946521759033203e+00) (18, -1.73054206371307373047e+00) (19, 5.66223382949829101562e-01) (20, 4.53996598720550537109e-01) (21, -3.37417364120483398438e-01) (22, -1.09131485223770141602e-02) (23, -1.17495274543762207031e+00) (24, 1.08646941184997558594e+00) (25, -1.76234221458435058594e+00) (26, -6.23652040958404541016e-01) (27, -4.74628359079360961914e-02) (28, -5.05927324295043945312e-01) (29, 4.01549518108367919922e-01) (30, 6.35317504405975341797e-01) (31, -8.52434411644935607910e-02) (32, 7.61179804801940917969e-01) (33, 8.97312402725219726562e-01) (34, 8.36106657981872558594e-01) (35, -2.63258460909128189087e-02) (36, -4.29146364331245422363e-02) (37, 8.01200866699218750000e-01) (38, 9.02696371078491210938e-01) (39, 8.84579181671142578125e-01) (40, -7.83634197432547807693e-04) (41, -3.34250219166278839111e-02) (42, 7.69368186593055725098e-02) (43, -7.34792128205299377441e-02) (44, 5.00247254967689514160e-02) (45, 6.72159418463706970215e-02) (46, 5.49695551395416259766e-01) (0, -4.05452668666839599609e-01) (1, 2.16644001007080078125e+00) (2, 8.20056438446044921875e-01) (3, -1.08982288837432861328e+00) (4, -1.41532218456268310547e+00) (5, -1.39212310314178466797e-01) (6, -3.09397093951702117920e-02) (7, 1.01752185821533203125e+00) (8, 8.05754601955413818359e-01) (9, -6.73437416553497314453e-02) (10, -1.51147449016571044922e+00) (11, -1.30589926242828369141e+00) (12, -1.41826286911964416504e-01) (13, 5.95500767230987548828e-02) (14, -4.20712321996688842773e-01) (15, -3.30785363912582397461e-02) (16, 2.14883470535278320312e+00) (17, 9.28273677825927734375e-01) (18, -1.06454885005950927734e+00) (19, -1.51142203807830810547e+00) (20, -2.21768930554389953613e-01) (21, -4.60047237575054168701e-02) (22, 9.87585365772247314453e-01) (23, 8.67390692234039306641e-01) (24, -5.85803985595703125000e-02) (25, -1.53910744190216064453e+00) (26, -1.19786691665649414062e+00) (27, -6.96641281247138977051e-02) (28, 1.08060866594314575195e-01) (29, -3.43221247196197509766e-01) (30, -5.33870309591293334961e-02) (31, 5.23500470444560050964e-03) (32, -1.41693994402885437012e-01) (33, -1.21092602610588073730e-01) (34, 2.40225922316312789917e-02) (35, 2.71911751478910446167e-02) (36, 3.42407934367656707764e-02) (37, 5.63694222364574670792e-04) (38, -5.82772344350814819336e-02) (39, -1.60925343632698059082e-01) (40, -7.84732028841972351074e-02) (41, 5.85931316018104553223e-02) (42, -8.74837636947631835938e-02) (43, -6.34217932820320129395e-02) (44, -1.96892563253641128540e-02) (45, -8.53184983134269714355e-02) (46, -7.09375664591789245605e-02) (0, 9.93986427783966064453e-01) (1, 1.83574569225311279297e+00) (2, -8.85383859276771545410e-02) (3, -9.23539876937866210938e-01) (4, -1.41626381874084472656e+00) (5, -1.44749617576599121094e+00) (6, -2.22116500139236450195e-01) (7, -7.59555816650390625000e-01) (8, -3.44745349884033203125e+00) (9, -2.32395339012145996094e+00) (10, -1.18094551563262939453e+00) (11, 8.04201662540435791016e-01) (12, 1.29426336288452148438e+00) (13, 8.70410084724426269531e-01) (14, -6.23217999935150146484e-01) (15, -5.25044202804565429688e-01) (16, 1.79442870616912841797e+00) (17, -1.21715404093265533447e-01) (18, -8.81187677383422851562e-01) (19, -1.53413295745849609375e+00) (20, -1.50790858268737792969e+00) (21, -3.63796085119247436523e-01) (22, -7.02172517776489257812e-01) (23, -3.36045074462890625000e+00) (24, -2.46431016921997070312e+00) (25, -1.07740938663482666016e+00) (26, 8.16507160663604736328e-01) (27, 1.22025656700134277344e+00) (28, 9.74600553512573242188e-01) (29, -6.05730772018432617188e-01) (30, -4.37899619340896606445e-01) (31, -9.27376970648765563965e-02) (32, 3.43984514474868774414e-01) (33, 3.96856486797332763672e-01) (34, 2.88196355104446411133e-01) (35, -5.77262006700038909912e-02) (36, -2.89804097265005111694e-02) (37, 4.55966353416442871094e-01) (38, 4.09655272960662841797e-01) (39, 3.39463859796524047852e-01) (40, 7.71442428231239318848e-02) (41, 5.58876767754554748535e-02) (42, 6.15337863564491271973e-02) (43, 3.53455059230327606201e-02) (44, -5.14289923012256622314e-02) (45, -4.01028394699096679688e-02) (46, 2.41244584321975708008e-01) (0, 7.15122938156127929688e-01) (1, -9.77300047874450683594e-01) (2, -6.29616975784301757812e-01) (3, -3.03817915916442871094e+00) (4, -1.01864230632781982422e+00) (5, 9.12275969982147216797e-01) (6, 1.48605847358703613281e+00) (7, 2.04497426748275756836e-01) (8, 1.11120462417602539062e+00) (9, 8.88817787170410156250e-01) (10, 1.29478824138641357422e+00) (11, -3.77305418252944946289e-01) (12, -9.87406611442565917969e-01) (13, -6.75157129764556884766e-01) (14, 2.23049074411392211914e-01) (15, -6.09382450580596923828e-01) (16, -9.13891673088073730469e-01) (17, -5.91073513031005859375e-01) (18, -2.93810677528381347656e+00) (19, -9.93504881858825683594e-01) (20, 9.95749175548553466797e-01) (21, 1.41733205318450927734e+00) (22, 8.38420316576957702637e-02) (23, 1.01973152160644531250e+00) (24, 8.80672216415405273438e-01) (25, 1.22885167598724365234e+00) (26, -1.91439315676689147949e-01) (27, -1.05708038806915283203e+00) (28, -8.08373510837554931641e-01) (29, 1.18231453001499176025e-01) (30, -6.87536954879760742188e-01) (31, -7.22038224339485168457e-02) (32, -5.54874777793884277344e-01) (33, -5.48417568206787109375e-01) (34, -5.76410293579101562500e-01) (35, 5.18850944936275482178e-02) (36, 5.29598966240882873535e-02) (37, -6.02633059024810791016e-01) (38, -4.92729514837265014648e-01) (39, -5.38074076175689697266e-01) (40, 7.72126903757452964783e-03) (41, -9.61475670337677001953e-02) (42, -4.88544721156358718872e-03) (43, 9.49356779456138610840e-02) (44, 9.62714925408363342285e-02) (45, -4.11300361156463623047e-02) (46, -4.74317014217376708984e-01) (0, 2.39600419998168945312e-01) (1, 9.50967073440551757812e-01) (2, -2.64200448989868164062e+00) (3, -1.28119397163391113281e+00) (4, 1.67312049865722656250e+00) (5, -6.48823320865631103516e-01) (6, 6.02520346641540527344e-01) (7, 4.34823304414749145508e-01) (8, 1.98122918605804443359e+00) (9, -9.92659211158752441406e-01) (10, 6.85458183288574218750e-01) (11, -5.11198997497558593750e-01) (12, -5.44893369078636169434e-02) (13, -5.79049289226531982422e-01) (14, -2.87994772195816040039e-01) (15, -1.26446649432182312012e-01) (16, 8.76428484916687011719e-01) (17, -2.54929995536804199219e+00) (18, -1.28521609306335449219e+00) (19, 1.58563041687011718750e+00) (20, -7.08209872245788574219e-01) (21, 7.61135220527648925781e-01) (22, 4.37110215425491333008e-01) (23, 1.92158734798431396484e+00) (24, -9.36954736709594726562e-01) (25, 6.92556858062744140625e-01) (26, -4.93266224861145019531e-01) (27, -6.30520433187484741211e-02) (28, -4.34616982936859130859e-01) (29, -2.27514281868934631348e-01) (30, -7.33931213617324829102e-02) (31, -7.66768455505371093750e-02) (32, 1.35262226685881614685e-02) (33, 1.62442132830619812012e-01) (34, -2.49540731310844421387e-02) (35, 5.70921413600444793701e-02) (36, -1.17383000906556844711e-03) (37, 7.55437370389699935913e-03) (38, 8.60817730426788330078e-02) (39, 6.53218030929565429688e-02) (40, -2.32641454786062240601e-02) (41, -3.38045470416545867920e-02) (42, 1.44100189208984375000e-03) (43, 7.90784284472465515137e-02) (44, -2.07946598529815673828e-02) (45, 2.78408173471689224243e-02) (46, -3.60474467277526855469e-01) (47, -1.63373732566833496094e+00) (48, -4.98681575059890747070e-01) (49, 7.22009479999542236328e-01) (50, 2.47471123933792114258e-01) (51, 1.31100142002105712891e+00) (52, 3.96085172891616821289e-01) (53, -5.85217654705047607422e-01) (54, 2.79640555381774902344e+00) (55, 1.69833034276962280273e-01) (56, 1.86240583658218383789e-01) (57, -5.57536363601684570312e-01) (58, -1.26069259643554687500e+00) (59, -1.07904541492462158203e+00) (60, 1.26014494895935058594e+00) (61, 5.45001924037933349609e-01) (62, 1.36655759811401367188e+00) (63, 3.67751151323318481445e-01) (64, 1.01496472954750061035e-01) (65, -1.46907776594161987305e-01) (66, -3.39816093444824218750e-01) (67, 6.92169427871704101562e-01) (68, -1.02063977718353271484e+00) (69, 2.53464370965957641602e-01) (70, -1.37532114982604980469e-01) (71, 7.55707740783691406250e-01) (72, -2.99698233604431152344e-01) (73, 4.64240089058876037598e-02) (74, -1.13158829510211944580e-01) (75, 1.97511970996856689453e-01) (76, -1.02762103080749511719e+00) (77, 1.12615871429443359375e+00) (78, 5.45792758464813232422e-01) (79, 6.21051549911499023438e-01) (80, 1.68266558647155761719e+00) (81, 2.40589785575866699219e+00) (82, -1.01670253276824951172e+00) (83, -5.01139700412750244141e-01) (84, -7.20618009567260742188e-01) (85, 2.89323255419731140137e-02) (86, -5.06794787943363189697e-02) (87, -3.98244291543960571289e-01) (88, -1.80157136917114257812e+00) (89, -3.37775379419326782227e-01) (90, 4.72217917442321777344e-01) (91, 1.96280464529991149902e-01) (92, 1.05102527141571044922e+00) (93, -9.59455788135528564453e-01) (47, -1.12381331622600555420e-01) (48, 1.40707552433013916016e-01) (49, 1.62415400147438049316e-01) (50, 1.09058290719985961914e-01) (51, -1.91147327423095703125e-01) (52, -6.68536722660064697266e-02) (53, 9.70475316047668457031e-01) (54, 1.06207795441150665283e-01) (55, 2.53232210874557495117e-01) (56, -4.43059623241424560547e-01) (57, 4.28553707897663116455e-02) (58, 2.46522888541221618652e-01) (59, -3.52152320556342601776e-03) (60, -6.65258765220642089844e-02) (61, 2.54445463418960571289e-01) (62, -3.68564501404762268066e-02) (63, 5.88427960872650146484e-01) (64, -2.77847591787576675415e-02) (65, 2.14224204421043395996e-01) (66, 1.41531020402908325195e-01) (67, -1.31679749488830566406e+00) (68, 5.45290634036064147949e-02) (69, 9.13753658533096313477e-02) (70, 1.20068967342376708984e-01) (71, 7.51399248838424682617e-02) (72, 7.68759946367936208844e-07) (73, 5.31363636255264282227e-02) (74, -6.69565647840499877930e-02) (75, -2.12800428271293640137e-01) (76, -1.47413656115531921387e-01) (77, 5.42677879333496093750e-01) (78, -2.96761244535446166992e-01) (79, -4.92724627256393432617e-01) (80, -2.72050965577363967896e-02) (81, -2.48898342251777648926e-01) (82, 1.03220902383327484131e-01) (83, -1.52687430381774902344e-01) (84, -1.45462065935134887695e-01) (85, -3.62610407173633575439e-02) (86, -4.06873822212219238281e-01) (87, 2.57766664028167724609e-01) (88, 3.34086924791336059570e-01) (89, -1.13574005663394927979e-01) (90, -5.21358586847782135010e-02) (91, -8.43698307871818542480e-02) (92, 6.36213198304176330566e-02) (93, 1.04891777038574218750e+00) (47, -1.87759411334991455078e+00) (48, 1.19160979986190795898e-01) (49, -4.91863220930099487305e-01) (50, 4.94030922651290893555e-01) (51, 5.10028481483459472656e-01) (52, -1.05767750740051269531e+00) (53, 9.68751013278961181641e-02) (54, -1.14321136474609375000e+00) (55, -7.68324911594390869141e-01) (56, -1.43477499485015869141e+00) (57, -6.12281672656536102295e-02) (58, -6.32653772830963134766e-01) (59, -4.53136026859283447266e-01) (60, -7.33327746391296386719e-01) (61, 5.06919145584106445312e-01) (62, 8.86124193668365478516e-01) (63, -1.13650128245353698730e-01) (64, 3.77769112586975097656e-01) (65, 6.81510567665100097656e-01) (66, -8.94309282302856445312e-01) (67, -6.06472557410597801208e-03) (68, -2.44551873207092285156e+00) (69, -1.39442488551139831543e-01) (70, -1.59292066097259521484e+00) (71, -5.53050518035888671875e-01) (72, 7.78921186923980712891e-01) (73, 2.82213002443313598633e-01) (74, 5.93858957290649414062e-01) (75, 8.18490833044052124023e-02) (76, -4.43040758371353149414e-01) (77, 1.62905395030975341797e+00) (78, -7.78098285198211669922e-01) (79, -2.38638654351234436035e-01) (80, 5.48819780349731445312e-01) (81, -1.97499781847000122070e-01) (82, -1.05414736270904541016e+00) (83, 4.77029412984848022461e-01) (84, -9.40951466560363769531e-01) (85, -4.42574322223663330078e-01) (86, -1.26465189456939697266e+00) (87, -1.05291855335235595703e+00) (88, -1.22244513034820556641e+00) (89, 1.40546345710754394531e+00) (90, 1.26015233993530273438e+00) (91, 3.99152368307113647461e-01) (92, 1.26382339000701904297e+00) (93, -2.81314551830291748047e-01) (47, 7.82161056995391845703e-01) (48, 2.17816859483718872070e-01) (49, 1.47904658317565917969e+00) (50, -8.38506996631622314453e-01) (51, 3.60781639814376831055e-01) (52, 2.65412479639053344727e-01) (53, 1.13143765926361083984e+00) (54, 3.09479808807373046875e+00) (55, 1.91164165735244750977e-01) (56, -6.43254220485687255859e-01) (57, -1.23193450272083282471e-01) (58, 7.16715455055236816406e-01) (59, -8.68905127048492431641e-01) (60, 5.58340668678283691406e-01) (61, 4.07787710428237915039e-01) (62, -3.65560173988342285156e-01) (63, 9.14553880691528320312e-01) (64, 4.94790822267532348633e-01) (65, -7.94268369674682617188e-01) (66, 6.11637949943542480469e-01) (67, -1.22284674644470214844e+00) (68, 7.09009528160095214844e-01) (69, 1.72762691974639892578e-01) (70, 2.03073644638061523438e+00) (71, 1.09964147210121154785e-01) (72, -9.43123400211334228516e-01) (73, 1.79207623004913330078e-01) (74, -3.62756341695785522461e-01) (75, -1.85889154672622680664e-01) (76, 1.75176169723272323608e-02) (77, -1.47521066665649414062e+00) (78, 7.53989577293395996094e-01) (79, -5.26124835014343261719e-01) (80, -3.26770097017288208008e-01) (81, -4.96549382805824279785e-02) (82, -1.14840984344482421875e+00) (83, 1.31073728203773498535e-01) (84, -1.10127890110015869141e+00) (85, 2.39787578582763671875e-01) (86, 1.45080518722534179688e+00) (87, 7.79216527938842773438e-01) (88, -3.53342920541763305664e-01) (89, -1.08549261093139648438e+00) (90, -3.18606615066528320312e-01) (91, -1.58915802836418151855e-01) (92, 7.25216984748840332031e-01) (93, 1.04836463928222656250e+00) (47, 3.04315298795700073242e-01) (48, 8.32821726799011230469e-01) (49, 1.10122203826904296875e+00) (50, -4.86133135855197906494e-02) (51, 1.55973589420318603516e+00) (52, 8.20967912673950195312e-01) (53, 5.46968102455139160156e-01) (54, 1.76728904247283935547e+00) (55, -8.42292726039886474609e-01) (56, 4.28761094808578491211e-01) (57, 1.14560782909393310547e+00) (58, 8.90459775924682617188e-01) (59, 3.75885330140590667725e-02) (60, 1.52490520477294921875e+00) (61, -9.35623288154602050781e-01) (62, 6.05484187602996826172e-01) (63, -1.86917337123304605484e-03) (64, -1.97308731079101562500e+00) (65, -7.35191404819488525391e-01) (66, 1.01456344127655029297e+00) (67, -4.63833898305892944336e-01) (68, 3.06130319833755493164e-01) (69, 3.71943600475788116455e-02) (70, 2.49107623100280761719e+00) (71, -1.75205814838409423828e+00) (72, -1.23845446109771728516e+00) (73, -1.23163282871246337891e+00) (74, -1.76222026348114013672e-02) (75, 3.49941924214363098145e-02) (76, -1.30546882748603820801e-01) (77, -1.13138961791992187500e+00) (78, 1.64979147911071777344e+00) (79, 4.56627488136291503906e-01) (80, -1.42232671380043029785e-01) (81, 2.30694103240966796875e+00) (82, -1.44951891899108886719e+00) (83, 2.18441382050514221191e-01) (84, 9.14999961853027343750e-01) (85, 1.07115113735198974609e+00) (86, 1.22686064243316650391e+00) (87, 5.23932814598083496094e-01) (88, 9.03719782829284667969e-01) (89, -4.06503289937973022461e-01) (90, -6.70260712504386901855e-02) (91, 5.00862300395965576172e-01) (92, 8.26730489730834960938e-01) (93, 2.51257359981536865234e-01) (47, 2.43159145116806030273e-01) (48, -3.18122833967208862305e-01) (49, 2.39359998703002929688e+00) (50, -6.78325951099395751953e-01) (51, 7.36742973327636718750e-01) (52, 2.14108034968376159668e-01) (53, -3.13376665115356445312e-01) (54, 1.72240388393402099609e+00) (55, -1.33748555183410644531e+00) (56, 2.78857678174972534180e-01) (57, 5.19146502017974853516e-01) (58, 3.39608371257781982422e-01) (59, 6.43637478351593017578e-01) (60, -1.56604421138763427734e+00) (61, -2.53138780593872070312e+00) (62, -2.90852397680282592773e-01) (63, 3.02668660879135131836e-01) (64, -9.03574585914611816406e-01) (65, -1.19405961036682128906e+00) (66, -3.97599667310714721680e-01) (67, 3.44114273786544799805e-01) (68, -7.73956477642059326172e-01) (69, -7.04903379082679748535e-02) (70, 1.03638339042663574219e+00) (71, -2.60460925102233886719e+00) (72, 4.57691311836242675781e-01) (73, -1.56048989295959472656e+00) (74, 1.58188855648040771484e+00) (75, 1.22032809257507324219e+00) (76, 1.12698781490325927734e+00) (77, -1.13321924209594726562e+00) (78, 1.57004028558731079102e-01) (79, 2.48331412672996520996e-01) (80, -9.58183109760284423828e-01) (81, 7.89884150028228759766e-01) (82, 4.02151167392730712891e-01) (83, 9.03713464736938476562e-01) (84, -5.29237747192382812500e-01) (85, -2.12341144680976867676e-01) (86, 1.88645434379577636719e+00) (87, 9.15720462799072265625e-01) (88, -2.69913017749786376953e-01) (89, 1.31835532188415527344e+00) (90, 1.20467759668827056885e-01) (91, 7.67214953899383544922e-01) (92, -1.35860249400138854980e-01) (93, -5.89237272739410400391e-01) (47, 2.81757920980453491211e-01) (48, -1.64867556095123291016e+00) (49, 5.10936379432678222656e-01) (50, -1.54819774627685546875e+00) (51, -1.08123219013214111328e+00) (52, 9.26556050777435302734e-01) (53, -4.31020528078079223633e-01) (54, 1.08865332603454589844e+00) (55, -4.33756172657012939453e-01) (56, 3.41512560844421386719e-01) (57, 5.85925936698913574219e-01) (58, -3.16521316766738891602e-01) (59, 1.22567081451416015625e+00) (60, -1.20567035675048828125e+00) (61, -7.27442502975463867188e-01) (62, -3.58850896358489990234e-01) (63, -4.18920248746871948242e-01) (64, -8.14047083258628845215e-02) (65, 9.46667939424514770508e-02) (66, -3.59683871269226074219e-01) (67, 5.52124977111816406250e-01) (68, -8.63346084952354431152e-02) (69, 7.09503740072250366211e-02) (70, 5.47080039978027343750e-01) (71, -1.21128177642822265625e+00) (72, 5.29205620288848876953e-01) (73, 4.18249741196632385254e-02) (74, 4.25937473773956298828e-01) (75, 2.39626336097717285156e+00) (76, 8.26042771339416503906e-01) (77, -1.23831234872341156006e-01) (78, 5.17150126397609710693e-02) (79, 3.00806283950805664062e-01) (80, 5.36895394325256347656e-02) (81, 1.72548735141754150391e+00) (82, 1.55791565775871276855e-01) (83, 7.72020936012268066406e-01) (84, -5.78330993652343750000e-01) (85, 9.17385816574096679688e-01) (86, 1.69508934020996093750e+00) (87, -1.56703636050224304199e-01) (88, -7.25065395236015319824e-02) (89, 5.24105250835418701172e-01) (90, 8.01469027996063232422e-01) (91, -1.38639882206916809082e-01) (92, 7.35764920711517333984e-01) (93, -1.42617869377136230469e+00) (47, -1.53282970190048217773e-01) (48, -1.10456955432891845703e+00) (49, 4.59074154496192932129e-02) (50, -6.17127537727355957031e-01) (51, -5.80929458141326904297e-01) (52, 1.42276787757873535156e+00) (53, -1.20071196556091308594e+00) (54, -2.26303562521934509277e-01) (55, -5.06784141063690185547e-01) (56, 8.18806529045104980469e-01) (57, -1.26132294535636901855e-01) (58, 7.25217014551162719727e-02) (59, 5.41456937789916992188e-01) (60, -3.65189135074615478516e-01) (61, 9.55752506852149963379e-02) (62, -3.53168070316314697266e-01) (63, -6.97552561759948730469e-02) (64, 3.96163016557693481445e-01) (65, 3.27951669692993164062e-01) (66, -1.25208497047424316406e+00) (67, 1.26545822620391845703e+00) (68, -5.27841269969940185547e-01) (69, -5.09927272796630859375e-01) (70, 3.74561190605163574219e-01) (71, -4.19298559427261352539e-01) (72, 5.59834539890289306641e-01) (73, 2.62393265962600708008e-01) (74, 4.26413506269454956055e-01) (75, 1.18996989727020263672e+00) (76, 5.87013900279998779297e-01) (77, -2.93969929218292236328e-01) (78, 7.07984924316406250000e-01) (79, 6.26239359378814697266e-01) (80, 5.36476194858551025391e-01) (81, 1.37628042697906494141e+00) (82, -2.63023287057876586914e-01) (83, -1.06854036450386047363e-01) (84, 4.24036346375942230225e-02) (85, -1.97922870516777038574e-01) (86, 7.99067497253417968750e-01) (87, -6.96603581309318542480e-02) (88, 1.75736293196678161621e-01) (89, 9.23982679843902587891e-01) (90, 3.24636936187744140625e-01) (91, -7.15729475021362304688e-01) (92, -2.49060288071632385254e-01) (93, -1.51722526550292968750e+00) (47, -1.24861905351281166077e-02) (48, 6.38351976871490478516e-01) (49, 6.51772081851959228516e-01) (50, -2.68157005310058593750e-01) (51, -5.07736384868621826172e-01) (52, -4.35242384672164916992e-01) (53, 1.46068120002746582031e+00) (54, 4.46231544017791748047e-01) (55, 4.58237156271934509277e-02) (56, -1.00260496139526367188e+00) (57, -1.57731443643569946289e-01) (58, 6.91241472959518432617e-02) (59, 1.46784275770187377930e-01) (60, -6.33853554725646972656e-01) (61, 3.79934966564178466797e-01) (62, 5.87253928184509277344e-01) (63, 5.99792778491973876953e-01) (64, -3.02018553018569946289e-01) (65, 5.34763932228088378906e-01) (66, -4.79182787239551544189e-03) (67, -1.76570987701416015625e+00) (68, 6.56524479389190673828e-01) (69, 5.53822875022888183594e-01) (70, -2.38540232181549072266e-01) (71, 5.46352326869964599609e-01) (72, 1.04114422574639320374e-02) (73, -2.54985332489013671875e-01) (74, 4.74783033132553100586e-01) (75, 4.15877252817153930664e-02) (76, -3.75228077173233032227e-01) (77, 7.12318420410156250000e-01) (78, -4.97218728065490722656e-01) (79, -8.12665224075317382812e-01) (80, 2.50074923038482666016e-01) (81, -1.00150263309478759766e+00) (82, 7.24525079131126403809e-02) (83, -4.41000536084175109863e-02) (84, -2.71702885627746582031e-01) (85, 2.96143144369125366211e-01) (86, 1.16321571171283721924e-01) (87, 6.70711219310760498047e-01) (88, 4.90103602409362792969e-01) (89, 1.55442625284194946289e-01) (90, -2.16390371322631835938e-01) (91, 6.33160471916198730469e-02) (92, -6.74680173397064208984e-02) (93, 5.47251343727111816406e-01) (47, -1.31385231018066406250e+00) (48, 3.17938894033432006836e-01) (49, -1.15219998359680175781e+00) (50, 6.11898042261600494385e-02) (51, -7.28140890598297119141e-01) (52, -3.84104326367378234863e-02) (53, 4.24172848463058471680e-01) (54, -4.75815795361995697021e-02) (55, 9.66008365154266357422e-01) (56, -1.57981917262077331543e-01) (57, -5.66640317440032958984e-01) (58, 2.93527197837829589844e+00) (59, 3.13177049160003662109e-01) (60, -1.93649142980575561523e-01) (61, 1.74211382865905761719e-01) (62, -1.35977089405059814453e+00) (63, 5.96726059913635253906e-01) (64, -3.95296722650527954102e-01) (65, -4.15629118680953979492e-01) (66, 4.35170233249664306641e-02) (67, -2.66986668109893798828e-01) (68, -1.07558882236480712891e+00) (69, -6.17893695831298828125e-01) (70, 9.33667242527008056641e-01) (71, 5.56073822081089019775e-02) (72, 1.99971866607666015625e+00) (73, -2.44371443986892700195e-01) (74, 9.37037914991378784180e-02) (75, 1.49627298116683959961e-01) (76, 4.43699620664119720459e-02) (77, 2.20004796981811523438e+00) (78, -1.64134609699249267578e+00) (79, -3.16784232854843139648e-01) (80, 1.49090027809143066406e+00) (81, 4.80276793241500854492e-02) (82, -1.29473924636840820312e-01) (83, 8.25773701071739196777e-02) (84, 7.34442055225372314453e-01) (85, -7.16198801994323730469e-01) (86, -5.70309400558471679688e-01) (87, -7.74292886257171630859e-01) (88, -4.71314013004302978516e-01) (89, 8.04479658603668212891e-01) (90, -2.12579846382141113281e+00) (91, -2.02325791120529174805e-01) (92, 1.25301897525787353516e+00) (93, -3.29499132931232452393e-03) (47, -1.44580543041229248047e+00) (48, -1.52131652832031250000e+00) (49, -9.72098886966705322266e-01) (50, 5.67323505878448486328e-01) (51, -4.71357733011245727539e-01) (52, 9.85237658023834228516e-02) (53, -7.57876455783843994141e-01) (54, 7.59710311889648437500e-01) (55, 8.01521778106689453125e-01) (56, 1.39172947406768798828e+00) (57, 1.47156596183776855469e+00) (58, 1.44748115539550781250e+00) (59, -4.93110448122024536133e-01) (60, 3.66468757390975952148e-01) (61, 5.08070290088653564453e-01) (62, -1.95451647043228149414e-01) (63, -3.09892117977142333984e-01) (64, 2.09872579574584960938e+00) (65, -1.15410399436950683594e+00) (66, -8.73145461082458496094e-02) (67, 7.53274261951446533203e-01) (68, -6.25830292701721191406e-01) (69, 7.71207511425018310547e-01) (70, 1.36837673187255859375e+00) (71, 2.75725722312927246094e-01) (72, 7.21400856971740722656e-01) (73, -2.59567722678184509277e-02) (74, 3.39309096336364746094e-01) (75, 9.36660706996917724609e-01) (76, 1.40507948398590087891e+00) (77, 1.50426781177520751953e+00) (78, -1.35831618309020996094e+00) (79, 6.75999522209167480469e-01) (80, 2.20441842079162597656e+00) (81, -1.09093618392944335938e+00) (82, 1.34436988830566406250e+00) (83, -2.38139653205871582031e+00) (84, 6.22223258018493652344e-01) (85, 1.53616261482238769531e+00) (86, -2.12669938802719116211e-01) (87, -1.94796353578567504883e-01) (88, 2.65491902828216552734e-02) (89, 1.79661944508552551270e-01) (90, -1.84630751609802246094e+00) (91, 5.02099573612213134766e-01) (92, 2.53480732440948486328e-01) (93, -9.87855613231658935547e-01) (47, -8.89947235584259033203e-01) (48, -1.50498700141906738281e+00) (49, -8.71242225170135498047e-01) (50, 5.12449182569980621338e-02) (51, -6.95215761661529541016e-01) (52, 5.67952930927276611328e-01) (53, -8.82824361324310302734e-01) (54, 6.49572730064392089844e-01) (55, -4.57816524431109428406e-03) (56, 1.42380595207214355469e+00) (57, 2.20312476158142089844e-01) (58, 1.20944702625274658203e+00) (59, -1.17382490634918212891e+00) (60, -9.71122086048126220703e-01) (61, 5.43637037277221679688e-01) (62, -4.32533413171768188477e-01) (63, -9.01711344718933105469e-01) (64, 5.31673431396484375000e-01) (65, -1.02184009552001953125e+00) (66, -1.43582797050476074219e+00) (67, 8.95483195781707763672e-01) (68, -2.34494552016258239746e-01) (69, 9.70309257507324218750e-01) (70, -1.06369599699974060059e-01) (71, 7.44393229484558105469e-01) (72, 2.66250252723693847656e-01) (73, 2.99818795174360275269e-02) (74, -2.47496739029884338379e-01) (75, 1.22043776512145996094e+00) (76, -9.54150199890136718750e-01) (77, 1.25699973106384277344e+00) (78, -1.03358256816864013672e+00) (79, 4.15088444948196411133e-01) (80, 2.04673385620117187500e+00) (81, 7.95782387256622314453e-01) (82, 3.81369590759277343750e-01) (83, -1.91505801677703857422e+00) (84, 9.91012752056121826172e-01) (85, 4.05404955148696899414e-01) (86, -1.10612235963344573975e-01) (87, -1.13214361667633056641e+00) (88, -1.19071233272552490234e+00) (89, -2.72314906120300292969e-01) (90, -9.90953683853149414062e-01) (91, 4.93417799472808837891e-01) (92, 4.63359296321868896484e-01) (93, -1.02220082283020019531e+00) (47, 5.06019853055477142334e-02) (48, -3.87533426284790039062e-01) (49, -1.31324696540832519531e+00) (50, 1.95315834134817123413e-02) (51, -1.53574869036674499512e-01) (52, -9.58414316177368164062e-01) (53, -1.09705281257629394531e+00) (54, 2.57501192390918731689e-02) (55, 7.86160349845886230469e-01) (56, 9.02337849140167236328e-01) (57, 9.18050527572631835938e-01) (58, 1.06354069709777832031e+00) (59, 1.27250075340270996094e-01) (60, -4.92986291646957397461e-01) (61, 1.41939461231231689453e-01) (62, -8.58156159520149230957e-02) (63, -5.64284920692443847656e-01) (64, -5.91594725847244262695e-02) (65, 6.45439326763153076172e-02) (66, 2.37379092723131179810e-02) (67, 1.28300499916076660156e+00) (68, -9.17678833007812500000e-01) (69, 1.11561346054077148438e+00) (70, 6.40139132738113403320e-02) (71, 6.29994750022888183594e-01) (72, 2.37076207995414733887e-01) (73, -6.22078657150268554688e-01) (74, 5.31272232532501220703e-01) (75, 1.00916409492492675781e+00) (76, -3.28993231058120727539e-01) (77, 2.66797333955764770508e-01) (78, 2.59815871715545654297e-01) (79, 9.10182774066925048828e-01) (80, 2.29729771614074707031e-01) (81, -2.91943103075027465820e-01) (82, -1.10776320099830627441e-01) (83, -3.56867283582687377930e-01) (84, 5.59813261032104492188e-01) (85, 1.27036380767822265625e+00) (86, -8.50729882717132568359e-01) (87, -1.11399745941162109375e+00) (88, -1.55416202545166015625e+00) (89, -1.01432454586029052734e+00) (90, -2.23866447806358337402e-01) (91, 1.17629981040954589844e+00) (92, 