FANN_FLO_2.1
num_layers=3
learning_rate=0.699993
connection_rate=1.000000
network_type=0
learning_momentum=0.000000
training_algorithm=0
train_error_function=1
train_stop_function=0
cascade_output_change_fraction=0.010000
quickprop_decay=-0.000100
quickprop_mu=1.750000
rprop_increase_factor=1.200000
rprop_decrease_factor=0.500000
rprop_delta_min=0.000000
rprop_delta_max=50.000000
rprop_delta_zero=0.100000
cascade_output_stagnation_epochs=12
cascade_candidate_change_fraction=0.010000
cascade_candidate_stagnation_epochs=12
cascade_max_out_epochs=150
cascade_min_out_epochs=50
cascade_max_cand_epochs=150
cascade_min_cand_epochs=50
cascade_num_candidate_groups=2
bit_fail_limit=3.49999994039535522461e-01
cascade_candidate_limit=1.00000000000000000000e+03
cascade_weight_multiplier=4.00000005960464477539e-01
cascade_activation_functions_count=10
cascade_activation_functions=3 5 7 8 10 11 14 15 16 17 
cascade_activation_steepnesses_count=19
cascade_activation_steepnesses=0.00000000000000000000e+00 0.00000000000000000000e+00 0.00000000000000000000e+00 2.00000000000000000000e+00 6.08100000000000000000e+03 6.08200000000000000000e+03 0.00000000000000000000e+00 0.00000000000000000000e+00 9.00000000000000000000e+00 1.07584400000000000000e+06 1.07584500000000000000e+06 1.07584600000000000000e+06 1.07584700000000000000e+06 1.07622800000000000000e+06 1.07641700000000000000e+06 1.07641800000000000000e+06 1.07680100000000000000e+06 1.07680200000000000000e+06 0.00000000000000000000e+00 
layer_sizes=12 12 12 
scale_included=0
neurons (num_inputs, activation_function, activation_steepness)=(0, 0, 0.00000000000000000000e+00) (0, 0, 0.00000000000000000000e+00) (0, 0, 0.00000000000000000000e+00) (0, 0, 0.00000000000000000000e+00) (0, 0, 0.00000000000000000000e+00) (0, 0, 0.00000000000000000000e+00) (0, 0, 0.00000000000000000000e+00) (0, 0, 0.00000000000000000000e+00) (0, 0, 0.00000000000000000000e+00) (0, 0, 0.00000000000000000000e+00) (0, 0, 0.00000000000000000000e+00) (0, 0, 0.00000000000000000000e+00) (12, 5, 5.00000000000000000000e-01) (12, 5, 5.00000000000000000000e-01) (12, 5, 5.00000000000000000000e-01) (12, 5, 5.00000000000000000000e-01) (12, 5, 5.00000000000000000000e-01) (12, 5, 5.00000000000000000000e-01) (12, 5, 5.00000000000000000000e-01) (12, 5, 5.00000000000000000000e-01) (12, 5, 5.00000000000000000000e-01) (12, 5, 5.00000000000000000000e-01) (12, 5, 5.00000000000000000000e-01) (0, 5, 0.00000000000000000000e+00) (12, 3, 5.00000000000000000000e-01) (12, 3, 5.00000000000000000000e-01) (12, 3, 5.00000000000000000000e-01) (12, 3, 5.00000000000000000000e-01) (12, 3, 5.00000000000000000000e-01) (12, 3, 5.00000000000000000000e-01) (12, 3, 5.00000000000000000000e-01) (12, 3, 5.00000000000000000000e-01) (12, 3, 5.00000000000000000000e-01) (12, 3, 5.00000000000000000000e-01) (12, 3, 5.00000000000000000000e-01) (0, 3, 0.00000000000000000000e+00) 
connections (connected_to_neuron, weight)=(0, 3.21883149445056915283e-02) (1, 4.21331636607646942139e-02) (2, -4.60150577127933502197e-02) (3, 2.48085800558328628540e-02) (4, 8.10153111815452575684e-02) (5, 1.62128563970327377319e-02) (6, 2.11209300905466079712e-02) (7, -4.98237535357475280762e-02) (8, -1.52771594002842903137e-02) (9, -7.41765275597572326660e-02) (10, 1.20741371065378189087e-02) (11, 4.97535280883312225342e-02) (0, 7.50990658998489379883e-02) (1, -1.56362056732177734375e-02) (2, 7.26743135601282119751e-03) (3, -3.17715071141719818115e-02) (4, 1.01776808500289916992e-01) (5, -6.72006085515022277832e-02) (6, -3.40740382671356201172e-02) (7, 1.68311633169651031494e-02) (8, 3.18707339465618133545e-02) (9, 7.92581215500831604004e-02) (10, -3.10845561325550079346e-02) (11, -6.52991160750389099121e-02) (0, 5.54073788225650787354e-03) (1, -9.22210216522216796875e-02) (2, -8.89453589916229248047e-02) (3, 1.26955956220626831055e-02) (4, 3.17489132285118103027e-02) (5, -4.79564033448696136475e-02) (6, -3.07732224464416503906e-02) (7, -5.24952039122581481934e-02) (8, 9.41767692565917968750e-02) (9, 2.06641899421811103821e-03) (10, 6.05938099324703216553e-02) (11, 5.40467724204063415527e-02) (0, -9.44964140653610229492e-02) (1, -1.82852502912282943726e-02) (2, 7.50148892402648925781e-02) (3, -9.77357104420661926270e-03) (4, -2.63827703893184661865e-02) (5, 4.57758922129869461060e-03) (6, -5.89639246463775634766e-02) (7, -5.94497919082641601562e-02) (8, 8.89413878321647644043e-02) (9, 2.26488634943962097168e-02) (10, 1.81011687964200973511e-02) (11, 6.50635361671447753906e-02) (0, 6.29320666193962097168e-02) (1, 8.40271264314651489258e-02) (2, -1.87875777482986450195e-02) (3, -5.19719999283552169800e-03) (4, 4.51144240796566009521e-02) (5, 6.01326115429401397705e-02) (6, 3.13423387706279754639e-02) (7, -4.46319803595542907715e-02) (8, 6.79115876555442810059e-02) (9, 3.71051095426082611084e-02) (10, 8.27812477946281433105e-02) (11, -5.63137233257293701172e-03) (0, 1.09547272324562072754e-01) (1, -4.79919873178005218506e-02) (2, 6.69848620891571044922e-02) (3, 1.03724040091037750244e-01) (4, 6.91811144351959228516e-02) (5, 1.71848535537719726562e-02) (6, 5.20898588001728057861e-02) (7, 9.21732634305953979492e-02) (8, 9.88996028900146484375e-02) (9, 5.49871325492858886719e-02) (10, -1.05055691674351692200e-02) (11, 3.99210490286350250244e-04) (0, -5.93810006976127624512e-02) (1, 3.05305123329162597656e-02) (2, 3.94922569394111633301e-02) (3, -7.04396218061447143555e-02) (4, -3.78839671611785888672e-02) (5, -3.38546819984912872314e-02) (6, -7.93356299400329589844e-02) (7, -6.49471580982208251953e-02) (8, -4.98275533318519592285e-02) (9, 3.32964491099119186401e-03) (10, 4.84122894704341888428e-02) (11, -1.03260286152362823486e-01) (0, -2.67990436404943466187e-02) (1, -2.02453732490539550781e-02) (2, -2.81488131731748580933e-02) (3, -5.88874556124210357666e-02) (4, -7.19487071037292480469e-02) (5, -4.65543828904628753662e-02) (6, 4.42991033196449279785e-02) (7, -7.27952569723129272461e-02) (8, 5.45363454148173332214e-03) (9, 2.07695830613374710083e-03) (10, -8.06518495082855224609e-02) (11, -3.45722585916519165039e-02) (0, -9.01333838701248168945e-02) (1, 7.14380070567131042480e-02) (2, -6.21879957616329193115e-02) (3, -9.12337824702262878418e-02) (4, 7.82293453812599182129e-03) (5, 3.55148203670978546143e-02) (6, 6.97999028488993644714e-03) (7, 5.69938346743583679199e-02) (8, -3.39546762406826019287e-02) (9, -5.31842336058616638184e-02) (10, -9.66855138540267944336e-02) (11, 2.85048745572566986084e-02) (0, 1.74458734691143035889e-02) (1, -7.60211423039436340332e-02) (2, 7.65943974256515502930e-02) (3, 6.76183253526687622070e-02) (4, 3.21367979049682617188e-02) (5, 2.87302862852811813354e-02) (6, 7.66335278749465942383e-02) (7, -9.58490520715713500977e-02) (8, -9.15150940418243408203e-02) (9, -5.64256906509399414062e-02) (10, -5.21997213363647460938e-02) (11, -6.83742091059684753418e-02) (0, -1.17785045877099037170e-02) (1, 9.20993834733963012695e-02) (2, -5.11547178030014038086e-02) (3, -1.06324873864650726318e-01) (4, -1.95325091481208801270e-02) (5, -1.92845296114683151245e-02) (6, -2.95619070529937744141e-02) (7, -1.45750772207975387573e-03) (8, -4.78465259075164794922e-02) (9, 3.93643882125616073608e-03) (10, 2.80391220003366470337e-02) (11, 5.56627474725246429443e-02) (12, -5.72859048843383789062e-02) (13, -5.29941394925117492676e-02) (14, 3.31629402935504913330e-02) (15, 2.70656812936067581177e-02) (16, 3.44660412520170211792e-03) (17, 7.65188336372375488281e-02) (18, -6.73849657177925109863e-02) (19, -1.17095053195953369141e-01) (20, 4.68010306358337402344e-02) (21, -6.50252327322959899902e-02) (22, 7.84596502780914306641e-02) (23, 1.87059089541435241699e-01) (12, 5.41667565703392028809e-02) (13, 7.16334730386734008789e-02) (14, 4.18266234919428825378e-03) (15, 8.16582217812538146973e-02) (16, -7.95978382229804992676e-02) (17, 9.35561135411262512207e-02) (18, -1.15348450839519500732e-01) (19, -2.21610534936189651489e-02) (20, 2.99046933650970458984e-02) (21, -3.10961995273828506470e-02) (22, 9.17512178421020507812e-03) (23, 1.35110974311828613281e-01) (12, 3.96884493529796600342e-02) (13, 9.68220382928848266602e-02) (14, 4.81268092989921569824e-02) (15, -8.83697867393493652344e-02) (16, 1.48117924109101295471e-02) (17, 1.94490123540163040161e-02) (18, 4.61281314492225646973e-02) (19, 2.16971300542354583740e-02) (20, -3.57570033520460128784e-03) (21, 3.34130763076245784760e-03) (22, -3.41112650930881500244e-02) (23, 1.07412807643413543701e-01) (12, -6.87706694006919860840e-02) (13, 3.65619361400604248047e-02) (14, -8.75319764018058776855e-02) (15, -9.05048251152038574219e-02) (16, 7.29726254940032958984e-02) (17, 1.33487612009048461914e-01) (18, -2.39009950309991836548e-02) (19, -3.31610068678855895996e-03) (20, 4.10932525992393493652e-02) (21, -9.83117967844009399414e-02) (22, -7.79155828058719635010e-03) (23, 2.43929520249366760254e-01) (12, 4.44787368178367614746e-02) (13, 1.60514991730451583862e-02) (14, -3.20879817008972167969e-02) (15, 7.57046882063150405884e-03) (16, 8.64862874150276184082e-02) (17, 1.22409403324127197266e-01) (18, 1.29100438207387924194e-02) (19, -6.59970194101333618164e-03) (20, 5.11974431574344635010e-02) (21, -1.61126814782619476318e-02) (22, 2.00861282646656036377e-02) (23, 1.61172091960906982422e-01) (12, 5.15691824257373809814e-02) (13, 5.71842724457383155823e-03) (14, -8.21595191955566406250e-02) (15, -1.95986665785312652588e-02) (16, 1.10487766563892364502e-01) (17, 2.62256115674972534180e-02) (18, -4.77576069533824920654e-02) (19, -8.90456140041351318359e-02) (20, -9.97800230979919433594e-02) (21, -1.41178984194993972778e-02) (22, -6.52207061648368835449e-02) (23, 2.54650563001632690430e-01) (12, -9.57508105784654617310e-03) (13, 2.40642521530389785767e-02) (14, -2.38650199025869369507e-03) (15, -7.34044313430786132812e-02) (16, 2.44119409471750259399e-02) (17, 5.38254193961620330811e-02) (18, 1.18585199117660522461e-01) (19, 1.99832171201705932617e-02) (20, 1.11297434195876121521e-02) (21, -3.52535471320152282715e-02) (22, 9.41284969449043273926e-02) (23, -2.19962269067764282227e-01) (12, -6.36238455772399902344e-02) (13, 3.84099334478378295898e-02) (14, 9.22243893146514892578e-02) (15, -7.86882862448692321777e-02) (16, -7.61165916919708251953e-02) (17, 5.91677948832511901855e-02) (18, -4.61310334503650665283e-02) (19, 3.98200899362564086914e-02) (20, -1.03714592754840850830e-01) (21, -4.59598051384091377258e-03) (22, -6.25857636332511901855e-02) (23, 1.11779227852821350098e-01) (12, 7.47985839843750000000e-02) (13, 2.67683546990156173706e-02) (14, -5.35349957644939422607e-02) (15, 1.06115475296974182129e-01) (16, -8.58929157257080078125e-02) (17, 2.42926105856895446777e-02) (18, 4.91544157266616821289e-02) (19, -4.54891622066497802734e-02) (20, -9.21975448727607727051e-02) (21, -3.19017618894577026367e-02) (22, 1.38050913810729980469e-02) (23, 2.45453044772148132324e-01) (12, -2.84494720399379730225e-02) (13, 1.59202609211206436157e-03) (14, -4.88551780581474304199e-02) (15, 4.93719242513179779053e-02) (16, 6.47571310400962829590e-02) (17, -1.01391866803169250488e-01) (18, -4.74598370492458343506e-02) (19, -4.46455255150794982910e-02) (20, 8.13513919711112976074e-02) (21, -7.84367695450782775879e-02) (22, -5.87206259369850158691e-02) (23, -1.26408204436302185059e-01) (12, 4.75456714630126953125e-02) (13, 2.29894276708364486694e-03) (14, 4.63985055685043334961e-02) (15, 4.02047112584114074707e-02) (16, -1.03641837835311889648e-01) (17, 4.79018650949001312256e-02) (18, 8.03648903965950012207e-02) (19, 1.22163720428943634033e-01) (20, 1.69566031545400619507e-02) (21, -9.51204374432563781738e-02) (22, 9.50793698430061340332e-02) (23, -1.87624692916870117188e-01) 
