FANN_FLO_2.1
num_layers=3
learning_rate=0.699993
connection_rate=1.000000
network_type=0
learning_momentum=0.000000
training_algorithm=0
train_error_function=1
train_stop_function=0
cascade_output_change_fraction=0.010000
quickprop_decay=-0.000100
quickprop_mu=1.750000
rprop_increase_factor=1.200000
rprop_decrease_factor=0.500000
rprop_delta_min=0.000000
rprop_delta_max=50.000000
rprop_delta_zero=0.100000
cascade_output_stagnation_epochs=12
cascade_candidate_change_fraction=0.010000
cascade_candidate_stagnation_epochs=12
cascade_max_out_epochs=150
cascade_min_out_epochs=50
cascade_max_cand_epochs=150
cascade_min_cand_epochs=50
cascade_num_candidate_groups=2
bit_fail_limit=3.49999994039535522461e-01
cascade_candidate_limit=1.00000000000000000000e+03
cascade_weight_multiplier=4.00000005960464477539e-01
cascade_activation_functions_count=10
cascade_activation_functions=3 5 7 8 10 11 14 15 16 17 
cascade_activation_steepnesses_count=13
cascade_activation_steepnesses=1.00000000000000000000e+00 1.15400000000000000000e+03 0.00000000000000000000e+00 0.00000000000000000000e+00 2.00000000000000000000e+00 6.08100000000000000000e+03 6.08200000000000000000e+03 0.00000000000000000000e+00 0.00000000000000000000e+00 2.00000000000000000000e+00 1.07622800000000000000e+06 1.07680100000000000000e+06 0.00000000000000000000e+00 
layer_sizes=6 6 6 
scale_included=0
neurons (num_inputs, activation_function, activation_steepness)=(0, 0, 0.00000000000000000000e+00) (0, 0, 0.00000000000000000000e+00) (0, 0, 0.00000000000000000000e+00) (0, 0, 0.00000000000000000000e+00) (0, 0, 0.00000000000000000000e+00) (0, 0, 0.00000000000000000000e+00) (6, 5, 5.00000000000000000000e-01) (6, 5, 5.00000000000000000000e-01) (6, 5, 5.00000000000000000000e-01) (6, 5, 5.00000000000000000000e-01) (6, 5, 5.00000000000000000000e-01) (0, 5, 0.00000000000000000000e+00) (6, 3, 5.00000000000000000000e-01) (6, 3, 5.00000000000000000000e-01) (6, 3, 5.00000000000000000000e-01) (6, 3, 5.00000000000000000000e-01) (6, 3, 5.00000000000000000000e-01) (0, 3, 0.00000000000000000000e+00) 
connections (connected_to_neuron, weight)=(0, -7.34111368656158447266e-02) (1, 8.99534597992897033691e-02) (2, -3.73121201992034912109e-02) (3, -8.54890570044517517090e-02) (4, 3.52669619023799896240e-02) (5, -4.20135185122489929199e-02) (0, 1.00599266588687896729e-01) (1, -4.74701896309852600098e-02) (2, 4.27887700498104095459e-02) (3, 5.54369352757930755615e-02) (4, 4.30104620754718780518e-02) (5, -7.49147385358810424805e-02) (0, 2.05932799726724624634e-02) (1, 4.65536154806613922119e-02) (2, -2.84541733562946319580e-02) (3, 8.45865234732627868652e-02) (4, -6.22231373563408851624e-03) (5, -9.92437750101089477539e-02) (0, 7.89475366473197937012e-02) (1, 4.38612513244152069092e-02) (2, 6.17110021412372589111e-02) (3, -7.49402418732643127441e-02) (4, -1.69076323509216308594e-02) (5, -7.28821605443954467773e-02) (0, 6.00584559142589569092e-02) (1, -6.57866820693016052246e-02) (2, 7.66521692276000976562e-02) (3, -6.65955096483230590820e-02) (4, -1.18656165432184934616e-03) (5, 4.62445914745330810547e-02) (6, 2.61584147810935974121e-02) (7, 1.67940892279148101807e-02) (8, 1.06845106929540634155e-02) (9, 9.57845970988273620605e-02) (10, 3.70841287076473236084e-02) (11, 1.46565034985542297363e-01) (6, -5.31580671668052673340e-02) (7, 9.93592850863933563232e-03) (8, -2.34030280262231826782e-02) (9, 9.66621637344360351562e-02) (10, -2.87704300135374069214e-02) (11, 1.22914925217628479004e-01) (6, 9.29098874330520629883e-02) (7, 8.87817665934562683105e-02) (8, 6.88617080450057983398e-02) (9, -2.86402329802513122559e-02) (10, 7.91188627481460571289e-02) (11, 1.62262886762619018555e-01) (6, -3.20881642401218414307e-02) (7, 5.07126823067665100098e-02) (8, -9.52100381255149841309e-02) (9, -6.35923072695732116699e-02) (10, 8.14237371087074279785e-02) (11, 1.84059381484985351562e-01) (6, -4.51384410262107849121e-02) (7, 1.22269177809357643127e-02) (8, -1.19091547094285488129e-03) (9, -6.13496042788028717041e-02) (10, 5.15757426619529724121e-02) (11, 1.03971965610980987549e-01) 
