FANN_FLO_2.1
num_layers=3
learning_rate=0.648406
connection_rate=1.000000
network_type=0
learning_momentum=0.000000
training_algorithm=0
train_error_function=1
train_stop_function=0
cascade_output_change_fraction=0.010000
quickprop_decay=-0.000100
quickprop_mu=1.750000
rprop_increase_factor=1.200000
rprop_decrease_factor=0.500000
rprop_delta_min=0.000000
rprop_delta_max=50.000000
rprop_delta_zero=0.100000
cascade_output_stagnation_epochs=12
cascade_candidate_change_fraction=0.010000
cascade_candidate_stagnation_epochs=12
cascade_max_out_epochs=150
cascade_min_out_epochs=50
cascade_max_cand_epochs=150
cascade_min_cand_epochs=50
cascade_num_candidate_groups=2
bit_fail_limit=3.49999994039535522461e-01
cascade_candidate_limit=1.00000000000000000000e+03
cascade_weight_multiplier=4.00000005960464477539e-01
cascade_activation_functions_count=10
cascade_activation_functions=3 5 7 8 10 11 14 15 16 17 
cascade_activation_steepnesses_count=40
cascade_activation_steepnesses=3.40000000000000000000e+01 3.23000000000000000000e+02 3.24000000000000000000e+02 3.25000000000000000000e+02 3.26000000000000000000e+02 3.27000000000000000000e+02 3.28000000000000000000e+02 3.29000000000000000000e+02 3.30000000000000000000e+02 3.31000000000000000000e+02 3.32000000000000000000e+02 3.33000000000000000000e+02 3.34000000000000000000e+02 3.35000000000000000000e+02 3.36000000000000000000e+02 3.37000000000000000000e+02 7.68000000000000000000e+02 7.69000000000000000000e+02 7.70000000000000000000e+02 7.71000000000000000000e+02 7.72000000000000000000e+02 7.73000000000000000000e+02 7.74000000000000000000e+02 7.75000000000000000000e+02 7.76000000000000000000e+02 7.77000000000000000000e+02 7.78000000000000000000e+02 7.79000000000000000000e+02 7.80000000000000000000e+02 7.81000000000000000000e+02 7.82000000000000000000e+02 7.83000000000000000000e+02 7.84000000000000000000e+02 7.85000000000000000000e+02 1.15400000000000000000e+03 0.00000000000000000000e+00 0.00000000000000000000e+00 0.00000000000000000000e+00 0.00000000000000000000e+00 0.00000000000000000000e+00 
layer_sizes=35 35 35 
scale_included=0
neurons (num_inputs, activation_function, activation_steepness)=(0, 0, 0.00000000000000000000e+00) (0, 0, 0.00000000000000000000e+00) (0, 0, 0.00000000000000000000e+00) (0, 0, 0.00000000000000000000e+00) (0, 0, 0.00000000000000000000e+00) (0, 0, 0.00000000000000000000e+00) (0, 0, 0.00000000000000000000e+00) (0, 0, 0.00000000000000000000e+00) (0, 0, 0.00000000000000000000e+00) (0, 0, 0.00000000000000000000e+00) (0, 0, 0.00000000000000000000e+00) (0, 0, 0.00000000000000000000e+00) (0, 0, 0.00000000000000000000e+00) (0, 0, 0.00000000000000000000e+00) (0, 0, 0.00000000000000000000e+00) (0, 0, 0.00000000000000000000e+00) (0, 0, 0.00000000000000000000e+00) (0, 0, 0.00000000000000000000e+00) (0, 0, 0.00000000000000000000e+00) (0, 0, 0.00000000000000000000e+00) (0, 0, 0.00000000000000000000e+00) (0, 0, 0.00000000000000000000e+00) (0, 0, 0.00000000000000000000e+00) (0, 0, 0.00000000000000000000e+00) (0, 0, 0.00000000000000000000e+00) (0, 0, 0.00000000000000000000e+00) (0, 0, 0.00000000000000000000e+00) (0, 0, 0.00000000000000000000e+00) (0, 0, 0.00000000000000000000e+00) (0, 0, 0.00000000000000000000e+00) (0, 0, 0.00000000000000000000e+00) (0, 0, 0.00000000000000000000e+00) (0, 0, 0.00000000000000000000e+00) (0, 0, 0.00000000000000000000e+00) (0, 0, 0.00000000000000000000e+00) (35, 5, 5.00000000000000000000e-01) (35, 5, 5.00000000000000000000e-01) (35, 5, 5.00000000000000000000e-01) (35, 5, 5.00000000000000000000e-01) (35, 5, 5.00000000000000000000e-01) (35, 5, 5.00000000000000000000e-01) (35, 5, 5.00000000000000000000e-01) (35, 5, 5.00000000000000000000e-01) (35, 5, 5.00000000000000000000e-01) (35, 5, 5.00000000000000000000e-01) (35, 5, 5.00000000000000000000e-01) (35, 5, 5.00000000000000000000e-01) (35, 5, 5.00000000000000000000e-01) (35, 5, 5.00000000000000000000e-01) (35, 5, 5.00000000000000000000e-01) (35, 5, 5.00000000000000000000e-01) (35, 5, 5.00000000000000000000e-01) (35, 5, 5.00000000000000000000e-01) (35, 5, 5.00000000000000000000e-01) (35, 5, 5.00000000000000000000e-01) (35, 5, 5.00000000000000000000e-01) (35, 5, 5.00000000000000000000e-01) (35, 5, 5.00000000000000000000e-01) (35, 5, 5.00000000000000000000e-01) (35, 5, 5.00000000000000000000e-01) (35, 5, 5.00000000000000000000e-01) (35, 5, 5.00000000000000000000e-01) (35, 5, 5.00000000000000000000e-01) (35, 5, 5.00000000000000000000e-01) (35, 5, 5.00000000000000000000e-01) (35, 5, 5.00000000000000000000e-01) (35, 5, 5.00000000000000000000e-01) (35, 5, 5.00000000000000000000e-01) (35, 5, 5.00000000000000000000e-01) (0, 5, 0.00000000000000000000e+00) (35, 3, 5.00000000000000000000e-01) (35, 3, 5.00000000000000000000e-01) (35, 3, 5.00000000000000000000e-01) (35, 3, 5.00000000000000000000e-01) (35, 3, 5.00000000000000000000e-01) (35, 3, 5.00000000000000000000e-01) (35, 3, 5.00000000000000000000e-01) (35, 3, 5.00000000000000000000e-01) (35, 3, 5.00000000000000000000e-01) (35, 3, 5.00000000000000000000e-01) (35, 3, 5.00000000000000000000e-01) (35, 3, 5.00000000000000000000e-01) (35, 3, 5.00000000000000000000e-01) (35, 3, 5.00000000000000000000e-01) (35, 3, 5.00000000000000000000e-01) (35, 3, 5.00000000000000000000e-01) (35, 3, 5.00000000000000000000e-01) (35, 3, 5.00000000000000000000e-01) (35, 3, 5.00000000000000000000e-01) (35, 3, 5.00000000000000000000e-01) (35, 3, 5.00000000000000000000e-01) (35, 3, 5.00000000000000000000e-01) (35, 3, 5.00000000000000000000e-01) (35, 3, 5.00000000000000000000e-01) (35, 3, 5.00000000000000000000e-01) (35, 3, 5.00000000000000000000e-01) (35, 3, 5.00000000000000000000e-01) (35, 3, 5.00000000000000000000e-01) (35, 3, 5.00000000000000000000e-01) (35, 3, 5.00000000000000000000e-01) (35, 3, 5.00000000000000000000e-01) (35, 3, 5.00000000000000000000e-01) (35, 3, 5.00000000000000000000e-01) (35, 3, 5.00000000000000000000e-01) (0, 3, 0.00000000000000000000e+00) 
connections (connected_to_neuron, weight)=(0, 3.36719894409179687500e+00) (1, 1.50523281097412109375e+01) (2, -8.61389994621276855469e-01) (3, 6.95980978012084960938e+00) (4, -4.65035629272460937500e+00) (5, -9.84054505825042724609e-02) (6, 7.31658697128295898438e-01) (7, 9.63141262531280517578e-01) (8, -4.04201650619506835938e+00) (9, 1.22379040718078613281e+00) (10, -1.52752327919006347656e+00) (11, 1.55509448051452636719e+00) (12, -1.96429681777954101562e+00) (13, -1.34706723690032958984e+00) (14, -1.35628366470336914062e+00) (15, -6.77010774612426757812e+00) (16, -2.49055221676826477051e-01) (17, -1.75622320175170898438e+00) (18, -8.54168161749839782715e-02) (19, -2.30114126205444335938e+00) (20, -1.80776798725128173828e+00) (21, -3.19962263107299804688e+00) (22, 3.38189363479614257812e+00) (23, 1.47212398052215576172e+00) (24, 4.35922527313232421875e+00) (25, -3.72189497947692871094e+00) (26, 2.36062860488891601562e+00) (27, -1.39701932668685913086e-01) (28, 1.25373697280883789062e+00) (29, -3.89957040548324584961e-01) (30, 5.58280992507934570312e+00) (31, 3.02500128746032714844e+00) (32, -1.22548937797546386719e+00) (33, -2.44559645652770996094e+00) (34, -6.39465808868408203125e+00) (0, 2.94322347640991210938e+00) (1, -3.15829157829284667969e+00) (2, 5.87404727935791015625e+00) (3, 1.48499655723571777344e+00) (4, -5.90443229675292968750e+00) (5, 3.19035142660140991211e-01) (6, -5.57899093627929687500e+00) (7, -6.27651166915893554688e+00) (8, 1.94090723991394042969e+00) (9, -1.01670455932617187500e+00) (10, -1.92216861248016357422e+00) (11, 1.68049323558807373047e+00) (12, -2.61573463678359985352e-01) (13, 9.37889337539672851562e-01) (14, 1.31840252876281738281e+00) (15, -2.69345119595527648926e-02) (16, 1.57629176974296569824e-02) (17, -2.87190985679626464844e+00) (18, -6.54823124408721923828e-01) (19, 1.05999970436096191406e+00) (20, 2.07966732978820800781e+00) (21, 2.06225562095642089844e+00) (22, -3.77184367179870605469e+00) (23, -3.28330922126770019531e+00) (24, 3.37855756282806396484e-01) (25, -3.95835232734680175781e+00) (26, 1.43952533602714538574e-01) (27, 4.09509062767028808594e-01) (28, -1.99789953231811523438e+00) (29, -4.54989385604858398438e+00) (30, 1.00597610473632812500e+01) (31, 2.61148643493652343750e+00) (32, 1.27434611320495605469e-01) (33, -2.37358152866363525391e-01) (34, 3.26738762855529785156e+00) (0, -1.03482961654663085938e+00) (1, 8.55441629886627197266e-01) (2, 5.90449869632720947266e-01) (3, -1.74571456909179687500e+01) (4, -1.79145050048828125000e+01) (5, -3.22734683752059936523e-01) (6, -4.60224628448486328125e-01) (7, 1.05447337031364440918e-01) (8, 9.97547388076782226562e-01) (9, -2.43446826934814453125e+00) (10, 1.61025536060333251953e+00) (11, 1.90970301628112792969e-02) (12, -4.14565324783325195312e-01) (13, 1.91767501831054687500e+00) (14, 2.17022255063056945801e-01) (15, -7.99529105424880981445e-02) (16, -6.04728221893310546875e-01) (17, 1.36901807785034179688e+00) (18, 4.65821385383605957031e-01) (19, 1.72601294517517089844e+00) (20, 1.36998867988586425781e+00) (21, 2.05563306808471679688e+00) (22, 1.28372800350189208984e+00) (23, -3.74225884675979614258e-01) (24, 1.15122365951538085938e+00) (25, -1.42229926586151123047e+00) (26, 1.65202176570892333984e+00) (27, -1.20560622215270996094e+00) (28, -7.53384470939636230469e-01) (29, -7.29603469371795654297e-01) (30, 1.21490716934204101562e+00) (31, -4.28310304880142211914e-01) (32, 2.25258708000183105469e-01) (33, 5.10130107402801513672e-01) (34, 4.78015756607055664062e+00) (0, 9.08476543426513671875e+00) (1, 7.86604595184326171875e+00) (2, 5.15980100631713867188e+00) (3, 2.19512119293212890625e+01) (4, -1.38884142041206359863e-01) (5, -3.22515547275543212891e-01) (6, -1.06111836433410644531e+00) (7, -3.95025110244750976562e+00) (8, 1.78960597515106201172e+00) (9, -1.10033579170703887939e-01) (10, 1.19441187381744384766e+00) (11, -3.19431972503662109375e+00) (12, 4.03016984462738037109e-01) (13, -7.92865216732025146484e-01) (14, -3.46823334693908691406e+00) (15, 1.61040258407592773438e+00) (16, -1.31189072132110595703e+00) (17, -1.84605732560157775879e-01) (18, 2.36834287643432617188e-01) (19, 1.85809314250946044922e+00) (20, 1.31360459327697753906e+00) (21, -7.95512676239013671875e-01) (22, -5.43121159076690673828e-01) (23, -9.53738927841186523438e-01) (24, 4.30004894733428955078e-01) (25, 3.01378637552261352539e-01) (26, 1.05225868523120880127e-01) (27, -1.53028774261474609375e+00) (28, -3.03517031669616699219e+00) (29, 6.53571546077728271484e-01) (30, -1.87635803222656250000e+00) (31, -1.46112298965454101562e+00) (32, -1.45702767372131347656e+00) (33, -9.99720001220703125000e+00) (34, -8.83785152435302734375e+00) (0, -2.79923725128173828125e+00) (1, -8.79640769958496093750e+00) (2, -2.14419186115264892578e-01) (3, 5.71816921234130859375e+00) (4, -5.43093740940093994141e-01) (5, 1.31667032837867736816e-01) (6, -1.59925031661987304688e+00) (7, 2.30886960029602050781e+00) (8, 2.56347918510437011719e+00) (9, -2.04750585556030273438e+00) (10, 2.13948488235473632812e+00) (11, -3.66667842864990234375e+00) (12, -1.56057620048522949219e+00) (13, 3.45578289031982421875e+00) (14, 3.38876152038574218750e+00) (15, 4.09597307443618774414e-01) (16, -8.30265164375305175781e-01) (17, 2.05286383628845214844e+00) (18, 8.24841797351837158203e-01) (19, -1.33257818222045898438e+00) (20, 4.62078475952148437500e+00) (21, 2.52489924430847167969e-01) (22, 1.93723833560943603516e+00) (23, -1.49455749988555908203e+00) (24, -3.32565283775329589844e+00) (25, 3.64934730529785156250e+00) (26, 3.39889335632324218750e+00) (27, 1.79359781742095947266e+00) (28, -2.52236413955688476562e+00) (29, 5.60873746871948242188e+00) (30, -1.19847810268402099609e+00) (31, 4.91637754440307617188e+00) (32, -7.89849460124969482422e-01) (33, 6.67452573776245117188e-01) (34, 4.16504335403442382812e+00) (0, 5.66573429107666015625e+00) (1, 1.29080228805541992188e+01) (2, -2.54457569122314453125e+00) (3, -4.91987943649291992188e+00) (4, 1.42928934097290039062e+00) (5, -1.62079727649688720703e+00) (6, 2.19566535949707031250e+00) (7, 4.01882076263427734375e+00) (8, 1.89508527517318725586e-01) (9, 1.94071745872497558594e+00) (10, 6.41241598129272460938e+00) (11, -1.39063179492950439453e+00) (12, -2.56952667236328125000e+00) (13, -5.84632039070129394531e-01) (14, -1.75709211826324462891e+00) (15, 3.80732703208923339844e+00) (16, 1.62032318115234375000e+00) (17, -7.44715332984924316406e-01) (18, -1.73078799247741699219e+00) (19, -2.20308080315589904785e-01) (20, -2.85203170776367187500e+00) (21, -1.95203697681427001953e+00) (22, 1.36714470386505126953e+00) (23, -4.55333662033081054688e+00) (24, -3.95428276062011718750e+00) (25, -1.38501048088073730469e+00) (26, 1.77552926540374755859e+00) (27, -9.76034343242645263672e-01) (28, -4.92193758487701416016e-01) (29, -1.38294303417205810547e+00) (30, -2.41511917114257812500e+00) (31, 1.20262134075164794922e+00) (32, 1.90776899456977844238e-01) (33, 4.42065334320068359375e+00) (34, -5.45035266876220703125e+00) (0, -5.13930618762969970703e-01) (1, -1.58246445655822753906e+00) (2, -6.79591059684753417969e-01) (3, -2.96858429908752441406e+00) (4, 5.74774861335754394531e-01) (5, 1.99403629302978515625e+01) (6, 2.56275463104248046875e+00) (7, 7.75449991226196289062e-01) (8, 3.16860437393188476562e-01) (9, -2.32630237936973571777e-01) (10, -1.02141928672790527344e+00) (11, -8.94282460212707519531e-01) (12, -4.71613377332687377930e-01) (13, -9.28347855806350708008e-02) (14, -1.79248106479644775391e+00) (15, -1.03705096244812011719e+00) (16, -9.43631708621978759766e-01) (17, -2.00595664978027343750e+00) (18, -9.83256518840789794922e-01) (19, -7.82039046287536621094e-01) (20, 3.67290258407592773438e-01) (21, -1.24628257751464843750e+00) (22, -4.63980942964553833008e-01) (23, 2.79123783111572265625e-01) (24, 1.31690394878387451172e+00) (25, 1.91638505458831787109e+00) (26, 4.25383150577545166016e-01) (27, 7.36478388309478759766e-01) (28, -9.10870015621185302734e-01) (29, -2.37115859985351562500e-01) (30, -1.47356176376342773438e+00) (31, -2.77714468538761138916e-02) (32, 8.20254012942314147949e-02) (33, -6.29021406173706054688e-01) (34, -3.60155081748962402344e+00) (0, -6.54986143112182617188e+00) (1, 6.32511854171752929688e+00) (2, 1.03800690174102783203e+00) (3, 4.48416996002197265625e+00) (4, -3.82428860664367675781e+00) (5, 8.41806292533874511719e-01) (6, 2.87891054153442382812e+00) (7, 6.39875364303588867188e+00) (8, 1.86910712718963623047e+00) (9, 1.14213323593139648438e+00) (10, -3.74434351921081542969e+00) (11, -1.56938886642456054688e+00) (12, -3.64686369895935058594e+00) (13, -4.45230150222778320312e+00) (14, 3.91282826662063598633e-01) (15, 1.58954225480556488037e-02) (16, -1.57209241390228271484e+00) (17, 4.03726005554199218750e+00) (18, -2.10666704177856445312e+00) (19, -2.28834533691406250000e+00) (20, -6.64136856794357299805e-02) (21, 5.45192432403564453125e+00) (22, -6.18777692317962646484e-01) (23, 5.94329929351806640625e+00) (24, -1.10860371589660644531e+00) (25, -1.44482302665710449219e+00) (26, -1.69399189949035644531e+00) (27, -3.52560901641845703125e+00) (28, 1.28363466262817382812e+00) (29, -6.03857934474945068359e-01) (30, -2.71372532844543457031e+00) (31, 7.62829601764678955078e-01) (32, 7.84645438194274902344e-01) (33, 2.99339771270751953125e+00) (34, -8.32113683223724365234e-01) (0, 6.30150842666625976562e+00) (1, -1.39882338047027587891e+00) (2, -6.79207265377044677734e-01) (3, -3.02111387252807617188e+00) (4, -5.26786327362060546875e-01) (5, -3.84367752075195312500e+00) (6, 1.25017013549804687500e+01) (7, 4.79852342605590820312e+00) (8, 4.31192445755004882812e+00) (9, 4.28665494918823242188e+00) (10, 1.02579712867736816406e+00) (11, -3.56095671653747558594e+00) (12, 3.22801303863525390625e+00) (13, 1.30659008026123046875e+00) (14, -1.82428693771362304688e+00) (15, 7.39120244979858398438e-01) (16, 7.18897581100463867188e-01) (17, -3.39469254016876220703e-01) (18, 3.53267081081867218018e-02) (19, 9.13547754287719726562e-01) (20, -1.06665730476379394531e+00) (21, -1.13759934902191162109e+00) (22, 1.51225149631500244141e+00) (23, 2.17799949645996093750e+00) (24, -4.66324537992477416992e-02) (25, 4.54263496398925781250e+00) (26, 9.58410203456878662109e-01) (27, 1.30998980998992919922e+00) (28, -1.98328566551208496094e+00) (29, -2.55353307723999023438e+00) (30, -1.12492322921752929688e+00) (31, 7.69762635231018066406e-01) (32, 6.09977543354034423828e-02) (33, 2.65715658664703369141e-01) (34, -4.14077425003051757812e+00) (0, 7.77611160278320312500e+00) (1, 3.00112986564636230469e+00) (2, -6.60335445404052734375e+00) (3, -4.55537414550781250000e+00) (4, 1.40734982490539550781e+00) (5, -1.62020790576934814453e+00) (6, -4.84072351455688476562e+00) (7, -2.39985299110412597656e+00) (8, -1.53662765026092529297e+00) (9, -4.71392154693603515625e+00) (10, -2.71588778495788574219e+00) (11, 1.53416383266448974609e+00) (12, -2.46954917907714843750e+00) (13, 2.49078005552291870117e-01) (14, 1.42312139272689819336e-01) (15, 2.00061368942260742188e+00) (16, 3.41960835456848144531e+00) (17, -2.65331959724426269531e+00) (18, -1.82060152292251586914e-03) (19, -3.37276339530944824219e+00) (20, -5.78024312853813171387e-02) (21, 4.16302859783172607422e-01) (22, -1.05561316013336181641e+00) (23, 1.08231010437011718750e+01) (24, -1.94926857948303222656e+00) (25, -1.14544856548309326172e+00) (26, 3.02095627784729003906e+00) (27, -3.32371544837951660156e+00) (28, 1.63822185993194580078e+00) (29, 3.32663607597351074219e+00) (30, 1.01580059528350830078e+00) (31, 3.48438882827758789062e+00) (32, -3.07335257530212402344e-01) (33, -5.78653216361999511719e-01) (34, -4.40697193145751953125e+00) (0, 1.83739769458770751953e+00) (1, 1.15902395248413085938e+01) (2, 2.13007521629333496094e+00) (3, -3.57840752601623535156e+00) (4, 3.27796530723571777344e+00) (5, 4.07359957695007324219e-01) (6, 1.24092280864715576172e+00) (7, -1.85382676124572753906e+00) (8, 1.98784172534942626953e+00) (9, -3.16354012489318847656e+00) (10, 3.67608356475830078125e+00) (11, -3.99416565895080566406e-01) (12, 1.94623857736587524414e-01) (13, -2.52709960937500000000e+00) (14, -4.23729276657104492188e+00) (15, -2.34428691864013671875e+00) (16, -2.97017002105712890625e+00) (17, 1.99193322658538818359e+00) (18, -3.18343210220336914062e+00) (19, 3.58399540185928344727e-01) (20, -4.52454853057861328125e+00) (21, -4.72082719206809997559e-02) (22, 1.83514809608459472656e+00) (23, -1.47297656536102294922e+00) (24, -3.49610424041748046875e+00) (25, 3.49377584457397460938e+00) (26, -1.56652599573135375977e-01) (27, -1.06593978404998779297e+00) (28, 1.91414618492126464844e+00) (29, -1.69976472854614257812e+00) (30, 1.07603621482849121094e+00) (31, -1.55649673938751220703e+00) (32, -1.63400137424468994141e+00) (33, 6.43537163734436035156e-01) (34, -6.09784555435180664062e+00) (0, 1.68361914157867431641e+00) (1, -5.58561134338378906250e+00) (2, 3.11503887176513671875e+00) (3, 1.17942371368408203125e+01) (4, 6.29090428352355957031e-01) (5, 1.87496995925903320312e+00) (6, 1.08174943923950195312e+00) (7, 7.40923786163330078125e+00) (8, 2.00985550880432128906e+00) (9, -1.46608626842498779297e+00) (10, 2.59167194366455078125e+00) (11, -5.85695207118988037109e-01) (12, 5.92219889163970947266e-01) (13, -8.17714631557464599609e-01) (14, -2.05790615081787109375e+00) (15, 1.53832507133483886719e+00) (16, -1.02753412723541259766e+00) (17, -1.39835083484649658203e+00) (18, 2.52490544319152832031e+00) (19, 1.22420087456703186035e-01) (20, -5.16820478439331054688e+00) (21, 3.26416349411010742188e+00) (22, -1.42886728048324584961e-01) (23, 3.01851058006286621094e+00) (24, 1.98442518711090087891e+00) (25, -1.67038369178771972656e+00) (26, 3.26300621032714843750e+00) (27, -1.89936316013336181641e+00) (28, 2.74637389183044433594e+00) (29, -4.64863729476928710938e+00) (30, 3.21794533729553222656e+00) (31, 2.55151581764221191406e+00) (32, -3.01578976213932037354e-02) (33, -4.62864732742309570312e+00) (34, -3.81692528724670410156e+00) (0, 1.22664403915405273438e+00) (1, 1.72323250770568847656e+00) (2, -2.60206699371337890625e+00) (3, -7.14594030380249023438e+00) (4, 3.39814972877502441406e+00) (5, -4.58799362182617187500e+00) (6, -9.54695987701416015625e+00) (7, 1.85759675502777099609e+00) (8, 6.60498142242431640625e+00) (9, -2.89016509056091308594e+00) (10, -5.23821115493774414062e-01) (11, 5.75927913188934326172e-01) (12, 1.88838875293731689453e+00) (13, 1.91896879673004150391e+00) (14, 2.03230905532836914062e+00) (15, -3.90210461616516113281e+00) (16, -2.01895380020141601562e+00) (17, -7.54264116287231445312e-01) (18, 2.33430123329162597656e+00) (19, 1.26036596298217773438e+00) (20, 3.72525858879089355469e+00) (21, 3.83447217941284179688e+00) (22, 1.50452673435211181641e+00) (23, -1.77084827423095703125e+00) (24, 4.21410703659057617188e+00) (25, 1.89197564125061035156e+00) (26, -9.10670042037963867188e-01) (27, -2.74255394935607910156e+00) (28, -2.84437584877014160156e+00) (29, -4.07755041122436523438e+00) (30, 4.60234355926513671875e+00) (31, 1.17626035213470458984e+00) (32, 7.57603108882904052734e-01) (33, -2.68432116508483886719e+00) (34, 5.66874742507934570312e+00) (0, -4.35964822769165039062e+00) (1, -7.58291959762573242188e-01) (2, -8.59305572509765625000e+00) (3, 1.38809764385223388672e+00) (4, 7.50548839569091796875e-02) (5, -3.24605512619018554688e+00) (6, 4.63287973403930664062e+00) (7, 2.51193761825561523438e-01) (8, 2.06352663040161132812e+00) (9, -1.64093875885009765625e+00) (10, 5.74657857418060302734e-01) (11, -2.90501785278320312500e+00) (12, -2.13191461563110351562e+00) (13, 4.42138969898223876953e-01) (14, 1.49045014381408691406e+00) (15, 3.93546819686889648438e-01) (16, 1.26384758949279785156e+00) (17, -1.40587404370307922363e-01) (18, 2.99438738822937011719e+00) (19, 3.36101174354553222656e+00) (20, 6.29838848114013671875e+00) (21, -2.33898830413818359375e+00) (22, -2.48830747604370117188e+00) (23, 1.21473526954650878906e+00) (24, 3.91044735908508300781e+00) (25, 5.50674438476562500000e+00) (26, -1.71537733078002929688e+00) (27, -5.59843301773071289062e-01) (28, 5.97623491287231445312e+00) (29, -5.19248008728027343750e-01) (30, -1.08829021453857421875e+00) (31, 2.45189094543457031250e+00) (32, -3.79925906658172607422e-01) (33, 4.13052511215209960938e+00) (34, 2.89492511749267578125e+00) (0, -3.31452035903930664062e+00) (1, 1.03305454254150390625e+01) (2, 9.39177989959716796875e+00) (3, -1.95583796501159667969e+00) (4, -1.96899986267089843750e+00) (5, -4.62654972076416015625e+00) (6, 3.29473018646240234375e+00) (7, -2.52869653701782226562e+00) (8, -2.51092886924743652344e+00) (9, -1.20421421527862548828e+00) (10, 2.37107801437377929688e+00) (11, 4.43494081497192382812e-01) (12, -5.43353259563446044922e-01) (13, 3.68207633495330810547e-01) (14, 1.68538761138916015625e+00) (15, 2.37345314025878906250e+00) (16, 1.34619629383087158203e+00) (17, -6.29378128051757812500e+00) (18, 3.06045174598693847656e+00) (19, -2.30026578903198242188e+00) (20, 5.30244541168212890625e+00) (21, 2.84889626502990722656e+00) (22, -1.56710934638977050781e+00) (23, 3.20132207870483398438e+00) (24, -4.33301353454589843750e+00) (25, 1.83631300926208496094e+00) (26, 1.70721626281738281250e+00) (27, -3.29591870307922363281e+00) (28, 1.36337935924530029297e-01) (29, 1.23264777660369873047e+00) (30, 1.40534043312072753906e+00) (31, 8.93604457378387451172e-01) (32, 7.12019920349121093750e-01) (33, 3.13153564929962158203e-02) (34, -5.05372619628906250000e+00) (0, -4.58825206756591796875e+00) (1, -5.65366935729980468750e+00) (2, -8.87010955810546875000e+00) (3, -3.59887790679931640625e+00) (4, -1.25021314620971679688e+00) (5, 2.55314612388610839844e+00) (6, 3.58198904991149902344e+00) (7, -8.91564309597015380859e-01) (8, 1.61087405681610107422e+00) (9, -1.18739604949951171875e+00) (10, 3.41917276382446289062e+00) (11, 2.33631539344787597656e+00) (12, -3.68479162454605102539e-01) (13, 3.82414293289184570312e+00) (14, 3.22667717933654785156e+00) (15, 3.55994105339050292969e+00) (16, 2.26809334754943847656e+00) (17, -1.40492832660675048828e+00) (18, -4.86396646499633789062e+00) (19, -1.41339182853698730469e+00) (20, 4.00354194641113281250e+00) (21, -1.68921077251434326172e+00) (22, -2.87216216325759887695e-01) (23, -1.49662160873413085938e+00) (24, 2.48942041397094726562e+00) (25, -2.78241276741027832031e-01) (26, -9.58450615406036376953e-01) (27, 4.48847198486328125000e+00) (28, -1.61606228351593017578e+00) (29, 4.09038257598876953125e+00) (30, 4.78718852996826171875e+00) (31, -8.33216369152069091797e-01) (32, 1.03498935699462890625e-01) (33, 3.61594080924987792969e+00) (34, 8.68727207183837890625e+00) (0, 3.15526437759399414062e+00) (1, -5.38887977600097656250e-01) (2, -5.17238378524780273438e+00) (3, 5.56723880767822265625e+00) (4, 9.39707398414611816406e-01) (5, -1.38532114028930664062e+00) (6, -8.56132507324218750000e+00) (7, -4.57220935821533203125e+00) (8, 5.67450597882270812988e-02) (9, -4.11609038710594177246e-02) (10, -4.06843900680541992188e+00) (11, 2.25015854835510253906e+00) (12, 3.07164788246154785156e+00) (13, 3.02763724327087402344e+00) (14, -1.01176440715789794922e-01) (15, 2.00136446952819824219e+00) (16, -1.39311528205871582031e+00) (17, -1.21690714359283447266e+00) (18, -3.69562208652496337891e-01) (19, 1.06271934509277343750e+00) (20, -7.23475694656372070312e-01) (21, 2.49065685272216796875e+00) (22, -4.05336284637451171875e+00) (23, 1.00517010688781738281e+00) (24, -1.46707081794738769531e+00) (25, 4.46885967254638671875e+00) (26, 7.10922622680664062500e+00) (27, -4.75696706771850585938e+00) (28, 3.39608764648437500000e+00) (29, 1.47379982471466064453e+00) (30, 4.45064544677734375000e+00) (31, -2.80415749549865722656e+00) (32, -6.34662508964538574219e-01) (33, 1.34101629257202148438e+00) (34, 4.50330400466918945312e+00) (0, -1.28957438468933105469e+00) (1, -7.67736339569091796875e+00) (2, 3.66564583778381347656e+00) (3, 2.37562370300292968750e+00) (4, 1.52332627773284912109e+00) (5, -1.18471312522888183594e+00) (6, 8.86948680877685546875e+00) (7, 8.46599674224853515625e+00) (8, 8.80978393554687500000e+00) (9, 4.99489307403564453125e-01) (10, 1.29489934444427490234e+00) (11, 3.30096602439880371094e+00) (12, 1.35692965984344482422e+00) (13, -1.45758360624313354492e-01) (14, -8.18730115890502929688e-01) (15, -2.83226203918457031250e+00) (16, -1.21966803073883056641e+00) (17, -3.38087177276611328125e+00) (18, -3.59586715698242187500e+00) (19, 4.70429801940917968750e+00) (20, -9.04303669929504394531e-01) (21, -8.00074994564056396484e-01) (22, -1.80376780033111572266e+00) (23, 1.00821590423583984375e+00) (24, -2.07630753517150878906e+00) (25, 6.10943317413330078125e-01) (26, 2.93905901908874511719e+00) (27, -1.95075190067291259766e+00) (28, 9.23822581768035888672e-01) (29, 3.22585606575012207031e+00) (30, -2.56243020296096801758e-01) (31, 1.29455983638763427734e+00) (32, 5.75831353664398193359e-01) (33, 4.36283826828002929688e+00) (34, -3.34951472282409667969e+00) (0, -2.66730499267578125000e+00) (1, 7.88528561592102050781e-01) (2, 8.30066084861755371094e-01) (3, -1.39222085475921630859e+00) (4, -2.52611136436462402344e+00) (5, 2.22199249267578125000e+00) (6, 5.86311817169189453125e+00) (7, 2.88688182830810546875e+00) (8, 4.02255535125732421875e+00) (9, 1.72085559368133544922e+00) (10, -1.36707127094268798828e+00) (11, 6.60707652568817138672e-01) (12, -2.73877799510955810547e-01) (13, -1.25576269626617431641e+00) (14, 2.21534752845764160156e+00) (15, -3.32755136489868164062e+00) (16, 6.93438231945037841797e-01) (17, -4.13080739974975585938e+00) (18, 1.28827178478240966797e+00) (19, 1.40714049339294433594e+00) (20, 1.49479401111602783203e+00) (21, -1.92032635211944580078e+00) (22, 3.48285984992980957031e+00) (23, 1.43436968326568603516e-01) (24, 3.80380988121032714844e+00) (25, -1.81469309329986572266e+00) (26, 2.90972685813903808594e+00) (27, 1.99123632907867431641e+00) (28, 2.52838432788848876953e-02) (29, 1.02182269096374511719e+00) (30, 2.37730860710144042969e+00) (31, 3.60068917274475097656e+00) (32, 6.46622121334075927734e-01) (33, -4.48798984289169311523e-01) (34, 8.21375250816345214844e-02) (0, -2.90399599075317382812e+00) (1, -1.44256925582885742188e+00) (2, -9.99315619468688964844e-01) (3, 1.02023382186889648438e+01) (4, 1.88433897495269775391e+00) (5, -3.75696063041687011719e+00) (6, 5.99879026412963867188e-01) (7, 1.48247981071472167969e+00) (8, -6.17881566286087036133e-02) (9, -2.29809641838073730469e+00) (10, 1.47681474685668945312e+00) (11, 9.12086427211761474609e-01) (12, -1.59238314628601074219e+00) (13, 2.06916046142578125000e+00) (14, -1.61096584796905517578e+00) (15, -1.99348235130310058594e+00) (16, -4.22633290290832519531e-01) (17, -3.88903570175170898438e+00) (18, -3.64966416358947753906e+00) (19, -4.84332036972045898438e+00) (20, -1.65674448013305664062e+00) (21, 2.57653212547302246094e+00) (22, 1.62255179882049560547e+00) (23, -2.22568440437316894531e+00) (24, -3.15336656570434570312e+00) (25, -2.99538803100585937500e+00) (26, -1.13011026382446289062e+00) (27, 1.14256069064140319824e-01) (28, -2.67904973030090332031e+00) (29, -4.90939915180206298828e-01) (30, 5.21607542037963867188e+00) (31, -1.28842532634735107422e+00) (32, -1.50945305824279785156e+00) (33, 1.86107361316680908203e+00) (34, -1.26335489749908447266e+00) (0, 5.85363328456878662109e-01) (1, 1.43911778926849365234e+00) (2, 3.24324309825897216797e-01) (3, 7.18824434280395507812e+00) (4, -2.00172662734985351562e+00) (5, 1.35883319377899169922e+00) (6, -3.91082137823104858398e-01) (7, 7.15505552291870117188e+00) (8, 2.24531292915344238281e+00) (9, -6.50146961212158203125e-01) (10, 3.14989328384399414062e-01) (11, 1.42151284217834472656e+00) (12, 7.07759022712707519531e-01) (13, 1.02414071559906005859e+00) (14, 4.82463181018829345703e-01) (15, 4.26410865783691406250e+00) (16, 1.69705784320831298828e+00) (17, 8.08409512042999267578e-01) (18, -2.26428341865539550781e+00) (19, 8.37495744228363037109e-01) (20, -1.03495144844055175781e+00) (21, 2.20209383964538574219e+00) (22, -1.17842733860015869141e+00) (23, -4.59284734725952148438e+00) (24, -1.56028163433074951172e+00) (25, 2.02965235710144042969e+00) (26, 6.19008719921112060547e-01) (27, 1.38612866401672363281e+00) (28, 3.54162192344665527344e+00) (29, 5.52145910263061523438e+00) (30, 8.12408089637756347656e-01) (31, 1.03326869010925292969e+00) (32, -2.68427282571792602539e-01) (33, -3.72300791740417480469e+00) (34, -3.97722601890563964844e-01) (0, 1.57774181365966796875e+01) (1, 4.66682344675064086914e-01) (2, 1.55245561599731445312e+01) (3, -1.32033789157867431641e+00) (4, -4.97871249914169311523e-01) (5, -6.94156587123870849609e-01) (6, 1.07413649559020996094e+00) (7, -1.06699454784393310547e+00) (8, -1.85678946971893310547e+00) (9, -5.41882574558258056641e-01) (10, 3.85085672140121459961e-01) (11, -1.76415717601776123047e+00) (12, -1.26892840862274169922e+00) (13, -9.22629594802856445312e-01) (14, -9.78257000446319580078e-01) (15, 2.39033365249633789062e+00) (16, -1.87665748596191406250e+00) (17, 4.80847269296646118164e-01) (18, -9.18444097042083740234e-01) (19, -1.06436520814895629883e-01) (20, 3.84649693965911865234e-01) (21, -1.65157651901245117188e+00) (22, -5.47931641340255737305e-02) (23, -6.87583208084106445312e-01) (24, -3.76544386148452758789e-01) (25, 3.17309856414794921875e-01) (26, 4.38789904117584228516e-01) (27, -2.09485077857971191406e+00) (28, 1.13678789138793945312e+00) (29, -3.73328775167465209961e-01) (30, 1.18301182985305786133e-01) (31, -1.58050298690795898438e-01) (32, -9.47453558444976806641e-01) (33, -1.12204623222351074219e+00) (34, -2.50210523605346679688e+00) (0, 1.03458321094512939453e+00) (1, 6.12365961074829101562e+00) (2, -8.16737115383148193359e-02) (3, -2.43735289573669433594e+00) (4, -8.86495709419250488281e-01) (5, 2.37289524078369140625e+00) (6, 5.84125518798828125000e+00) (7, 2.89477634429931640625e+00) (8, 2.67167830467224121094e+00) (9, -3.22865796089172363281e+00) (10, -4.35765296220779418945e-01) (11, 1.27511191368103027344e+00) (12, -4.12648439407348632812e-01) (13, 1.21723723411560058594e+00) (14, -1.98554205894470214844e+00) (15, -2.58409857749938964844e+00) (16, -9.01900231838226318359e-01) (17, -1.70247957110404968262e-01) (18, 3.78663682937622070312e+00) (19, -6.27593946456909179688e+00) (20, 2.18259310722351074219e+00) (21, -1.78785830736160278320e-01) (22, -7.51474380493164062500e-01) (23, -3.38568925857543945312e+00) (24, 3.22612285614013671875e+00) (25, 1.52631211280822753906e+00) (26, -3.11512351036071777344e+00) (27, -1.71579301357269287109e-01) (28, -3.67515182495117187500e+00) (29, 2.52804636955261230469e-01) (30, 4.19984960556030273438e+00) (31, -6.24619185924530029297e-01) (32, -3.09006869792938232422e-01) (33, 1.76097345352172851562e+00) (34, -5.47526836395263671875e+00) (0, 1.41766357421875000000e+00) (1, 5.17609357833862304688e+00) (2, 8.00009822845458984375e+00) (3, 4.29866647720336914062e+00) (4, -2.52752947807312011719e+00) (5, 3.16139721870422363281e+00) (6, -3.82120585441589355469e+00) (7, -5.08536398410797119141e-01) (8, -2.48283147811889648438e+00) (9, -2.19101095199584960938e+00) (10, 6.73462867736816406250e-01) (11, 5.59193551540374755859e-01) (12, -3.56766366958618164062e+00) (13, -1.56462323665618896484e+00) (14, -2.40313768386840820312e-01) (15, -2.85562062263488769531e+00) (16, -1.91543972492218017578e+00) (17, -3.62305974960327148438e+00) (18, -2.22668361663818359375e+00) (19, -1.89965617656707763672e+00) (20, 1.17725408077239990234e+00) (21, -2.93483066558837890625e+00) (22, -1.11459279060363769531e+00) (23, -2.32857942581176757812e+00) (24, 2.22530633211135864258e-01) (25, 1.03770256042480468750e+00) (26, -1.33958673477172851562e+00) (27, -3.80376338958740234375e+00) (28, 4.69866693019866943359e-01) (29, -2.87028360366821289062e+00) (30, -1.89535808563232421875e+00) (31, -5.26902675628662109375e-01) (32, -1.55195131897926330566e-01) (33, -2.09063291549682617188e+00) (34, -3.91382694244384765625e-01) (0, 9.14036095142364501953e-01) (1, -5.87170219421386718750e+00) (2, -1.57649707794189453125e+00) (3, -9.19981956481933593750e-01) (4, -6.68119812011718750000e+00) (5, -7.07879602909088134766e-01) (6, 3.02993488311767578125e+00) (7, -1.98956298828125000000e+00) (8, -1.22229015827178955078e+00) (9, 1.57444822788238525391e+00) (10, 3.07103013992309570312e+00) (11, 2.06003561615943908691e-01) (12, -7.44831621646881103516e-01) (13, -8.88924300670623779297e-01) (14, 1.14431357383728027344e+00) (15, 3.40373373031616210938e+00) (16, 1.64390933513641357422e+00) (17, -7.44698047637939453125e-01) (18, -7.56137967109680175781e-01) (19, -2.17658829689025878906e+00) (20, -5.64921998977661132812e+00) (21, 1.22442889213562011719e+00) (22, 8.52281188964843750000e+00) (23, -1.61595034599304199219e+00) (24, 2.22998952865600585938e+00) (25, 5.36969280242919921875e+00) (26, 6.57183933258056640625e+00) (27, 2.37576675415039062500e+00) (28, -8.38612174987792968750e+00) (29, -5.85803627967834472656e-01) (30, -3.17470121383666992188e+00) (31, -1.64344215393066406250e+00) (32, -3.01923036575317382812e-01) (33, 1.52242517471313476562e+00) (34, 4.22184991836547851562e+00) (0, 2.63924551010131835938e+00) (1, 1.96961891651153564453e+00) (2, 3.98592686653137207031e+00) (3, -3.35722708702087402344e+00) (4, 1.22974097728729248047e+00) (5, -6.00604391098022460938e+00) (6, -1.20461165904998779297e+00) (7, 6.96918153762817382812e+00) (8, -1.78963601589202880859e+00) (9, 1.43861293792724609375e+00) (10, -1.89802259206771850586e-01) (11, 5.06203746795654296875e+00) (12, 2.46466231346130371094e+00) (13, -7.14261710643768310547e-01) (14, -1.67157709598541259766e+00) (15, -3.19481396675109863281e+00) (16, -2.09473204612731933594e+00) (17, 3.98826092481613159180e-01) (18, -8.47396850585937500000e-01) (19, -1.38574409484863281250e+00) (20, 1.16537320613861083984e+00) (21, 2.28434160351753234863e-01) (22, -3.38883805274963378906e+00) (23, 1.02219724655151367188e+00) (24, 1.00244784355163574219e+00) (25, 6.57406866550445556641e-01) (26, 6.61375701427459716797e-01) (27, 2.49866628646850585938e+00) (28, 7.11133658885955810547e-01) (29, -2.94329738616943359375e+00) (30, 2.93888378143310546875e+00) (31, -2.32691705226898193359e-01) (32, 2.92628020048141479492e-01) (33, 2.74052691459655761719e+00) (34, 3.10958218574523925781e+00) (0, -1.90041828155517578125e+01) (1, -1.92337000370025634766e+00) (2, -2.28879904747009277344e+00) (3, -3.00750195980072021484e-01) (4, 6.37544631958007812500e-01) (5, -7.37753927707672119141e-01) (6, -1.55827140808105468750e+00) (7, -1.02734243869781494141e+00) (8, -1.46088615059852600098e-01) (9, 1.17081053555011749268e-01) (10, -2.24757575988769531250e+00) (11, 6.46202564239501953125e-01) (12, 7.69449532032012939453e-01) (13, 1.13750219345092773438e+00) (14, 5.33499002456665039062e-01) (15, 3.02031099796295166016e-01) (16, -8.46426069736480712891e-01) (17, -1.98666858673095703125e+00) (18, -5.48111557960510253906e-01) (19, -2.57322382926940917969e+00) (20, -8.72509062290191650391e-01) (21, -1.23622453212738037109e+00) (22, 2.46642565727233886719e+00) (23, -1.26558625698089599609e+00) (24, -1.50411057472229003906e+00) (25, -2.20685556530952453613e-01) (26, -3.86076152324676513672e-01) (27, -5.36347806453704833984e-01) (28, 4.14622932672500610352e-01) (29, -1.56520915031433105469e+00) (30, -1.99105784296989440918e-01) (31, -5.50101041793823242188e-01) (32, -2.04646277427673339844e+00) (33, -2.48666620254516601562e+00) (34, 2.90916752815246582031e+00) (0, 1.02964305877685546875e+00) (1, -9.71111416816711425781e-01) (2, 6.04856491088867187500e+00) (3, -3.51740574836730957031e+00) (4, -1.40692090988159179688e+00) (5, -4.43423366546630859375e+00) (6, 7.17548179626464843750e+00) (7, -5.15913629531860351562e+00) (8, 3.40361070632934570312e+00) (9, -9.63981091976165771484e-01) (10, 2.92145371437072753906e+00) (11, -5.60016557574272155762e-02) (12, -3.46674993634223937988e-02) (13, -7.02690601348876953125e-01) (14, -4.76837664842605590820e-01) (15, -9.20663774013519287109e-03) (16, 1.82449054718017578125e+00) (17, 1.27070176601409912109e+00) (18, -3.40430974960327148438e+00) (19, 2.38862022757530212402e-01) (20, 2.72201681137084960938e+00) (21, 4.60133075714111328125e+00) (22, -4.44291925430297851562e+00) (23, -1.77742683887481689453e+00) (24, 4.38086986541748046875e+00) (25, -6.29057550430297851562e+00) (26, 2.06124949455261230469e+00) (27, 1.50330090522766113281e+00) (28, -4.18843078613281250000e+00) (29, -3.59180688858032226562e-01) (30, -1.81057798862457275391e+00) (31, 1.28091061115264892578e+00) (32, -1.28286778926849365234e+00) (33, 3.96811246871948242188e-01) (34, -1.47050082683563232422e+00) (0, 4.09905290603637695312e+00) (1, 7.98111724853515625000e+00) (2, 3.10344982147216796875e+00) (3, -6.59858036041259765625e+00) (4, -2.59207105636596679688e+00) (5, 8.67219090461730957031e-01) (6, -8.19619560241699218750e+00) (7, 4.10639762878417968750e+00) (8, -2.23428964614868164062e+00) (9, 6.68876945972442626953e-01) (10, -5.21198809146881103516e-01) (11, 1.81300771236419677734e+00) (12, 2.78843188285827636719e+00) (13, -2.60470366477966308594e+00) (14, -5.69236993789672851562e-01) (15, -1.88139498233795166016e-01) (16, -2.56214666366577148438e+00) (17, 3.21399569511413574219e-01) (18, 2.26515326648950576782e-02) (19, 3.55753231048583984375e+00) (20, -5.23022890090942382812e+00) (21, -7.70152091979980468750e-01) (22, -3.89869451522827148438e+00) (23, -8.84025871753692626953e-01) (24, 1.40298986434936523438e+00) (25, 1.50580704212188720703e+00) (26, -8.79386067390441894531e-02) (27, 3.89171957969665527344e+00) (28, 1.10603618621826171875e+00) (29, 1.02942657470703125000e+00) (30, 7.87118896842002868652e-02) (31, -2.24226427078247070312e+00) (32, 5.04348158836364746094e-01) (33, 4.51842689514160156250e+00) (34, -2.19552135467529296875e+00) (0, 4.73426675796508789062e+00) (1, 3.18591356277465820312e+00) (2, -3.43110370635986328125e+00) (3, 3.45824956893920898438e+00) (4, 7.11752319335937500000e+00) (5, -6.22417068481445312500e+00) (6, -1.92151451110839843750e+00) (7, -3.18933773040771484375e+00) (8, -7.65257120132446289062e-01) (9, -2.55715012550354003906e+00) (10, 3.43992519378662109375e+00) (11, -1.37516856193542480469e+00) (12, 2.59928882122039794922e-01) (13, 1.00036501884460449219e+00) (14, -6.92917346954345703125e-01) (15, -1.28943550586700439453e+00) (16, 4.18737506866455078125e+00) (17, -1.27082049846649169922e+00) (18, 2.98648023605346679688e+00) (19, 2.30407953262329101562e+00) (20, -2.46714591979980468750e-01) (21, 4.91742181777954101562e+00) (22, -1.99622595310211181641e+00) (23, -1.83796238899230957031e+00) (24, -4.85226106643676757812e+00) (25, 3.58646422624588012695e-01) (26, -1.79076647758483886719e+00) (27, 9.90565598011016845703e-01) (28, 1.43886053562164306641e+00) (29, -6.16420555114746093750e+00) (30, -2.77840352058410644531e+00) (31, 4.12519550323486328125e+00) (32, -7.25605070590972900391e-01) (33, 6.07544362545013427734e-01) (34, 8.03129553794860839844e-01) (0, -1.42163312435150146484e+00) (1, 2.02878737449645996094e+00) (2, -4.46936655044555664062e+00) (3, -2.16224998235702514648e-01) (4, -7.60557603836059570312e+00) (5, 1.08147454261779785156e+00) (6, 7.51741790771484375000e+00) (7, -1.24606788158416748047e+00) (8, 1.07338809967041015625e+00) (9, 1.54247808456420898438e+00) (10, -6.80950045585632324219e-01) (11, 1.83040094375610351562e+00) (12, 2.65541172027587890625e+00) (13, -1.65329253673553466797e+00) (14, -2.93624305725097656250e+00) (15, 5.24515581130981445312e+00) (16, 3.44621837139129638672e-01) (17, -3.50358033180236816406e+00) (18, 2.62620735168457031250e+00) (19, 2.59992361068725585938e+00) (20, -3.34934711456298828125e+00) (21, 3.75608205795288085938e+00) (22, 3.53516340255737304688e-01) (23, -3.49204730987548828125e+00) (24, -4.11511451005935668945e-01) (25, -2.82916927337646484375e+00) (26, 3.23359817266464233398e-01) (27, -7.39921450614929199219e-01) (28, 9.11427736282348632812e-01) (29, -3.02187657356262207031e+00) (30, 2.57383155822753906250e+00) (31, -6.83343946933746337891e-01) (32, -2.90882550179958343506e-02) (33, 2.33385086059570312500e+00) (34, -1.15016925334930419922e+00) (0, -7.89386808872222900391e-01) (1, -3.50592756271362304688e+00) (2, 1.78972530364990234375e+00) (3, 2.71661829948425292969e+00) (4, 2.39245605468750000000e+00) (5, 3.94902276992797851562e+00) (6, -2.68302226066589355469e+00) (7, 2.98325061798095703125e+00) (8, 5.12698531150817871094e-01) (9, 2.99052095413208007812e+00) (10, -2.42036008834838867188e+00) (11, -5.25384807586669921875e+00) (12, -1.92706322669982910156e+00) (13, 9.17428612709045410156e-01) (14, -5.69539070129394531250e-01) (15, -1.56167638301849365234e+00) (16, 3.17622518539428710938e+00) (17, 1.09856319427490234375e+00) (18, 5.92969834804534912109e-01) (19, -3.44483315944671630859e-01) (20, 2.55333876609802246094e+00) (21, -9.80529487133026123047e-01) (22, -2.38029503822326660156e+00) (23, -4.47544336318969726562e+00) (24, -2.51614356040954589844e+00) (25, -2.81297779083251953125e+00) (26, -1.38592049479484558105e-01) (27, -1.63585472106933593750e+00) (28, -3.95187139511108398438e+00) (29, -1.87318778038024902344e+00) (30, -2.84482192993164062500e+00) (31, 1.17287242412567138672e+00) (32, 2.07025185227394104004e-01) (33, -3.12232851982116699219e+00) (34, 2.30916118621826171875e+00) (0, -8.92945885658264160156e-01) (1, 4.16536664962768554688e+00) (2, -6.94822490215301513672e-01) (3, 2.71364760398864746094e+00) (4, -2.36240196228027343750e+00) (5, -4.37520980834960937500e+00) (6, 4.62848472595214843750e+00) (7, 2.75428438186645507812e+00) (8, 2.70347285270690917969e+00) (9, -4.28721380233764648438e+00) (10, -1.61239564418792724609e-01) (11, 7.26169943809509277344e-01) (12, -1.26491022109985351562e+00) (13, 1.02920734882354736328e+00) (14, -9.37502861022949218750e-01) (15, -4.75294542312622070312e+00) (16, -2.64175987243652343750e+00) (17, -2.67579507827758789062e+00) (18, -6.51310205459594726562e-01) (19, -3.99221450090408325195e-01) (20, -5.74151086807250976562e+00) (21, -8.83465051651000976562e-01) (22, 3.43887954950332641602e-01) (23, 1.11979854106903076172e+00) (24, -1.64756894111633300781e+00) (25, 2.25489258766174316406e+00) (26, -1.84153199195861816406e+00) (27, 6.79793238639831542969e-01) (28, 7.09151983261108398438e-01) (29, 7.82330811023712158203e-01) (30, 3.03248310089111328125e+00) (31, 2.02958989143371582031e+00) (32, -7.21704542636871337891e-01) (33, -3.91431045532226562500e+00) (34, -5.05390405654907226562e+00) (0, -1.82639777660369873047e+00) (1, 2.77195262908935546875e+00) (2, -8.51432228088378906250e+00) (3, -5.20257377624511718750e+00) (4, -7.72784471511840820312e+00) (5, 9.47857856750488281250e-01) (6, -9.55988121032714843750e+00) (7, -2.92303442955017089844e+00) (8, 7.52121496200561523438e+00) (9, 3.25389075279235839844e+00) (10, -3.61417800188064575195e-01) (11, 1.72483873367309570312e+00) (12, 1.88101923465728759766e+00) (13, 2.45904016494750976562e+00) (14, 1.18739867210388183594e+00) (15, 3.30296659469604492188e+00) (16, -2.99809288978576660156e+00) (17, -2.48878821730613708496e-01) (18, -3.78690958023071289062e-01) (19, -2.28157043457031250000e+00) (20, 8.92820954322814941406e-01) (21, -5.23272848129272460938e+00) (22, 2.33478140830993652344e+00) (23, 3.88125205039978027344e+00) (24, -1.46769309043884277344e+00) (25, -3.66934061050415039062e-01) (26, 2.79552268981933593750e+00) (27, 6.67977511882781982422e-01) (28, -1.22234797477722167969e+00) (29, 1.36594927310943603516e+00) (30, -1.99664437770843505859e+00) (31, 1.17399621009826660156e+00) (32, -3.62595617771148681641e-01) (33, -1.48685586452484130859e+00) (34, 4.73039293289184570312e+00) (35, 3.02665680646896362305e-02) (36, 6.01711273193359375000e-02) (37, -2.64159500598907470703e-01) (38, 6.20382055640220642090e-02) (39, 1.68294072151184082031e-01) (40, -1.57544743269681930542e-02) (41, 8.07491391897201538086e-02) (42, 1.47130027413368225098e-01) (43, 8.71935710310935974121e-02) (44, -2.84182485193014144897e-02) (45, -7.92845189571380615234e-02) (46, 2.18118146061897277832e-01) (47, 1.50047868490219116211e-01) (48, 2.28508651256561279297e-01) (49, 7.86585807800292968750e-02) (50, 1.03768698871135711670e-01) (51, -4.63186353445053100586e-02) (52, -9.70777198672294616699e-02) (53, -1.52970537543296813965e-01) (54, -2.94781088829040527344e-01) (55, -2.22621392458677291870e-03) (56, 1.55922606587409973145e-01) (57, -5.42927265167236328125e-01) (58, 2.69919130951166152954e-02) (59, -3.75786647200584411621e-02) (60, -1.16742491722106933594e-01) (61, 6.06602318584918975830e-02) (62, 1.37782424688339233398e-01) (63, -1.10826920717954635620e-02) (64, 1.19630299508571624756e-01) (65, 1.30711421370506286621e-01) (66, -3.40809077024459838867e-01) (67, -1.88061043620109558105e-01) (68, 1.49971589446067810059e-01) (69, 4.56419897079467773438e+00) (35, -4.19034808874130249023e-01) (36, 4.40213307738304138184e-02) (37, 6.66446268558502197266e-01) (38, 2.27075695991516113281e+00) (39, -8.34550201892852783203e-01) (40, 9.74813938140869140625e-01) (41, -5.95489144325256347656e-01) (42, -2.16764616966247558594e+00) (43, 1.75975775718688964844e+00) (44, 2.68768668174743652344e+00) (45, -1.71975344419479370117e-01) (46, 1.71782642602920532227e-01) (47, 3.54717195034027099609e-01) (48, -1.44502937793731689453e+00) (49, -1.43405675888061523438e+00) (50, -4.50144082307815551758e-01) (51, 9.79800343513488769531e-01) (52, -1.44501638412475585938e+00) (53, -5.08160710334777832031e-01) (54, -3.48834007978439331055e-01) (55, -4.99842941761016845703e-01) (56, 2.62780737876892089844e+00) (57, 3.95285248756408691406e-01) (58, 6.79677248001098632812e-01) (59, -3.59261393547058105469e-01) (60, -6.77250474691390991211e-02) (61, -8.65029525756835937500e+00) (62, -1.16542410850524902344e+00) (63, 1.24764740467071533203e+00) (64, 7.96114504337310791016e-01) (65, 1.12660086154937744141e+00) (66, -1.95179164409637451172e-01) (67, -1.62506431341171264648e-01) (68, -1.15275430679321289062e+00) (69, -2.42220330238342285156e+00) (35, 3.90665769577026367188e+00) (36, -9.67666447162628173828e-01) (37, -1.56256914138793945312e-01) (38, 2.77736568450927734375e+00) (39, -2.40388655662536621094e+00) (40, 3.18614697456359863281e+00) (41, 9.11635875701904296875e-01) (42, 1.16739773750305175781e+00) (43, 5.51789820194244384766e-01) (44, 1.21816718578338623047e+00) (45, 2.86419391632080078125e+00) (46, -7.23023653030395507812e-01) (47, 5.36683380603790283203e-01) (48, 2.27545872330665588379e-02) (49, 2.51679372787475585938e+00) (50, -1.25006437301635742188e+00) (51, -1.11277848482131958008e-02) (52, -1.94461774826049804688e+00) (53, 1.88855081796646118164e-02) (54, 4.03938293457031250000e-01) (55, -3.10878396034240722656e-01) (56, 2.30122566223144531250e-01) (57, 2.06459450721740722656e+00) (58, 4.08314585685729980469e-01) (59, -8.66926968097686767578e-01) (60, -3.14802527427673339844e-01) (61, -1.02495145797729492188e+01) (62, 9.68323111534118652344e-01) (63, 2.83848047256469726562e+00) (64, 1.55528259277343750000e+00) (65, 8.83076667785644531250e-01) (66, 3.06927263736724853516e-01) (67, 9.60436940193176269531e-01) (68, 1.87018859386444091797e+00) (69, -9.98316955566406250000e+00) (35, -1.98849034309387207031e+00) (36, -6.28594994544982910156e-01) (37, 1.41705363988876342773e-01) (38, -4.52667617797851562500e+00) (39, 2.54568129777908325195e-01) (40, -1.38662362098693847656e+00) (41, -2.18636304140090942383e-01) (42, -1.47473418712615966797e+00) (43, 7.95078277587890625000e-02) (44, 4.53715562820434570312e-01) (45, -2.63597679138183593750e+00) (46, 3.66084843873977661133e-01) (47, 5.84151595830917358398e-02) (48, 1.04928159713745117188e+00) (49, -2.91270279884338378906e+00) (50, 1.83542525768280029297e+00) (51, 1.81085920333862304688e+00) (52, -8.61867845058441162109e-01) (53, 4.69352334737777709961e-01) (54, -2.32720732688903808594e-01) (55, 7.75398910045623779297e-01) (56, 2.88592696189880371094e+00) (57, -1.25870001316070556641e+00) (58, -4.96095448732376098633e-01) (59, 7.90369570255279541016e-01) (60, -1.37906157970428466797e+00) (61, 6.23279762268066406250e+00) (62, -1.96682822704315185547e+00) (63, -3.31253170967102050781e+00) (64, 4.84736204147338867188e-01) (65, 3.29732060432434082031e-01) (66, -5.83057403564453125000e-01) (67, -3.62692415714263916016e-01) (68, 1.29593133926391601562e+00) (69, 1.17170019149780273438e+01) (35, -2.42155504226684570312e+00) (36, -8.31470727920532226562e-01) (37, 2.44596934318542480469e+00) (38, -8.74655532836914062500e+00) (39, -7.73511171340942382812e-01) (40, 9.37484204769134521484e-01) (41, 2.38674074411392211914e-01) (42, -1.26125466823577880859e+00) (43, -9.31179746985435485840e-02) (44, 8.55742752552032470703e-01) (45, 1.19979488849639892578e+00) (46, -2.58090233802795410156e+00) (47, 2.41333580017089843750e+00) (48, -2.42913573980331420898e-01) (49, 4.58289176225662231445e-01) (50, 2.14523983001708984375e+00) (51, -1.74158716201782226562e+00) (52, -5.76014459133148193359e-01) (53, -2.43826240301132202148e-01) (54, -2.06669425964355468750e+00) (55, -2.20995831489562988281e+00) (56, 3.48089718818664550781e+00) (57, 6.56879127025604248047e-01) (58, -3.40979218482971191406e+00) (59, 7.88820564746856689453e-01) (60, 3.83927077054977416992e-01) (61, 4.00781583786010742188e+00) (62, 8.27969670295715332031e-01) (63, 7.59120285511016845703e-02) (64, -1.32738184928894042969e+00) (65, -7.39745438098907470703e-01) (66, -2.69607484340667724609e-01) (67, -3.03803265094757080078e-01) (68, -3.82867977023124694824e-02) (69, -6.13241434097290039062e-01) (35, 1.52497935295104980469e+00) (36, -6.46057784557342529297e-01) (37, -1.00713357925415039062e+01) (38, 4.63672590255737304688e+00) (39, 3.57520461082458496094e-01) (40, 6.35388433933258056641e-01) (41, -5.95106482505798339844e-01) (42, 6.78727149963378906250e-01) (43, 9.88266944885253906250e-01) (44, 1.02811920642852783203e+00) (45, 1.39496231079101562500e+00) (46, 1.28298151493072509766e+00) (47, 5.23014247417449951172e-01) (48, 3.45855146646499633789e-01) (49, -1.91370472311973571777e-01) (50, -7.45819449424743652344e-01) (51, -9.99410152435302734375e-01) (52, 7.64634311199188232422e-01) (53, 3.39865744113922119141e-01) (54, -3.55918288230895996094e-01) (55, 7.56035625934600830078e-01) (56, -1.66337037086486816406e+00) (57, -1.19067478179931640625e+00) (58, 1.66306400299072265625e+00) (59, -8.89418184757232666016e-01) (60, -7.07492470741271972656e-01) (61, -1.96993148326873779297e+00) (62, -3.22207391262054443359e-01) (63, -5.04533112049102783203e-01) (64, 1.17231476306915283203e+00) (65, -1.12893271446228027344e+00) (66, -2.71026283502578735352e-01) (67, -9.22871351242065429688e-01) (68, -8.13255846500396728516e-01) (69, 5.97760581970214843750e+00) (35, 1.08140456676483154297e+00) (36, 2.11359456181526184082e-01) (37, -6.81762933731079101562e+00) (38, 3.32389807701110839844e+00) (39, -6.76746189594268798828e-01) (40, 5.48100471496582031250e-01) (41, 1.17568063735961914062e+01) (42, -3.67346167564392089844e-01) (43, -6.80020868778228759766e-01) (44, 6.84007525444030761719e-01) (45, 5.63505768775939941406e-01) (46, 7.17585325241088867188e-01) (47, -1.40002399682998657227e-01) (48, -4.22367639839649200439e-02) (49, 8.03541004657745361328e-01) (50, -8.02898347377777099609e-01) (51, 1.89710915088653564453e-01) (52, 7.88368761539459228516e-01) (53, -1.29938945174217224121e-01) (54, 1.83803737163543701172e-01) (55, 4.89284902811050415039e-01) (56, -1.53726685047149658203e+00) (57, -7.28783011436462402344e-01) (58, 6.85353636741638183594e-01) (59, -4.18836325407028198242e-01) (60, -7.39807069301605224609e-01) (61, -1.00537216663360595703e+00) (62, 5.54200299084186553955e-02) (63, 6.07097446918487548828e-01) (64, 2.61851400136947631836e-01) (65, -6.59799218177795410156e-01) (66, 4.47454243898391723633e-01) (67, -2.31856182217597961426e-01) (68, -1.00825524330139160156e+00) (69, -6.43649387359619140625e+00) (35, 2.59411007165908813477e-01) (36, -7.49333500862121582031e-01) (37, -6.41200447082519531250e+00) (38, 1.29271179437637329102e-01) (39, -2.04566860198974609375e+00) (40, -6.89234435558319091797e-01) (41, 9.23245811462402343750e+00) (42, 4.26441788673400878906e-01) (43, 3.05216526985168457031e+00) (44, -2.71741896867752075195e-01) (45, 3.91572177410125732422e-01) (46, -9.45526123046875000000e-01) (47, -2.37461519241333007812e+00) (48, 1.15282380580902099609e+00) (49, 1.34306406974792480469e+00) (50, -9.05676722526550292969e-01) (51, -1.62866377830505371094e+00) (52, 6.83255136013031005859e-01) (53, 8.66667270660400390625e-01) (54, -2.32834309339523315430e-01) (55, -1.02936756610870361328e+00) (56, -7.48277664184570312500e-01) (57, 1.30057466030120849609e+00) (58, -5.67225992679595947266e-01) (59, 7.05315470695495605469e-01) (60, -7.99286901950836181641e-01) (61, -1.40244817733764648438e+00) (62, 1.71625423431396484375e+00) (63, -9.70347881317138671875e-01) (64, -9.79282319545745849609e-01) (65, 2.04998564720153808594e+00) (66, 9.83271956443786621094e-01) (67, 2.45702028274536132812e+00) (68, -2.92280983924865722656e+00) (69, -1.30908212661743164062e+01) (35, 2.53910839557647705078e-01) (36, -2.36916375160217285156e+00) (37, -3.02923488616943359375e+00) (38, -8.54142665863037109375e-01) (39, -1.50356543064117431641e+00) (40, 8.64605367183685302734e-01) (41, 5.56053733825683593750e+00) (42, 1.66441395878791809082e-01) (43, 2.20230937004089355469e+00) (44, -7.96806216239929199219e-02) (45, -1.98654127120971679688e+00) (46, 1.79861247539520263672e+00) (47, -1.05100023746490478516e+00) (48, 1.57944127917289733887e-01) (49, -6.60271584987640380859e-01) (50, -5.65810501575469970703e-01) (51, -2.31128358840942382812e+00) (52, 2.05099987983703613281e+00) (53, -2.36568212509155273438e-01) (54, 5.51001608371734619141e-01) (55, -2.41064533591270446777e-01) (56, -1.26474249362945556641e+00) (57, 2.96487426757812500000e+00) (58, -3.72658193111419677734e-01) (59, 4.69117790460586547852e-01) (60, 4.60895031690597534180e-01) (61, -1.60166394710540771484e+00) (62, -5.77475428581237792969e-01) (63, -7.55523219704627990723e-02) (64, -1.21900928020477294922e+00) (65, 5.75877845287322998047e-01) (66, 1.99308538436889648438e+00) (67, 2.09617352485656738281e+00) (68, -1.97400748729705810547e+00) (69, -1.30330104827880859375e+01) (35, -6.20600044727325439453e-01) (36, -1.36386585235595703125e+00) (37, -1.33226871490478515625e+00) (38, -1.10192382335662841797e+00) (39, -1.06792986392974853516e+00) (40, -1.08590304851531982422e-01) (41, 2.39249277114868164062e+00) (42, 1.41025614738464355469e+00) (43, 1.58489108085632324219e+00) (44, -1.08224201202392578125e+00) (45, -9.58804905414581298828e-01) (46, 8.96147489547729492188e-01) (47, 1.94757029414176940918e-01) (48, -2.92434841394424438477e-01) (49, -4.08761501312255859375e-01) (50, -1.81304886937141418457e-01) (51, -1.10769021511077880859e+00) (52, 1.99553501605987548828e+00) (53, -7.30409979820251464844e-01) (54, 1.10747075080871582031e+00) (55, -2.31891855597496032715e-01) (56, -6.73721313476562500000e-01) (57, 2.17806863784790039062e+00) (58, 2.37363517284393310547e-01) (59, 3.45620870590209960938e-01) (60, -9.84291911125183105469e-01) (61, -1.34330725669860839844e+00) (62, 1.14865534007549285889e-01) (63, -7.57088541984558105469e-01) (64, -1.42491567134857177734e+00) (65, 1.72737598419189453125e-01) (66, 1.21558880805969238281e+00) (67, 1.87238192558288574219e+00) (68, 1.88944995403289794922e-01) (69, -9.89046764373779296875e+00) (35, 1.90364524722099304199e-01) (36, 5.32256245613098144531e-01) (37, -7.99821078777313232422e-01) (38, -6.24969422817230224609e-01) (39, -1.13003778457641601562e+00) (40, 3.83550763130187988281e-01) (41, 6.01707756519317626953e-01) (42, -1.48392934352159500122e-02) (43, 9.58090484142303466797e-01) (44, -1.54236507415771484375e+00) (45, 5.65928732976317405701e-03) (46, 7.61797964572906494141e-01) (47, 1.04616165161132812500e-01) (48, -6.49776935577392578125e-01) (49, 2.43355855345726013184e-01) (50, 1.20121791958808898926e-01) (51, -3.60953450202941894531e-01) (52, 1.02273488044738769531e+00) (53, -6.93749114871025085449e-02) (54, -4.33942854404449462891e-01) (55, 2.11305473931133747101e-03) (56, -6.94224685430526733398e-02) (57, 3.25961887836456298828e-01) (58, -2.62530118227005004883e-01) (59, 4.31352443993091583252e-02) (60, 3.72102022171020507812e-01) (61, -7.45179712772369384766e-01) (62, -6.91287040710449218750e-01) (63, -4.65192496776580810547e-01) (64, -2.22731426358222961426e-01) (65, 3.14522206783294677734e-01) (66, 5.17770826816558837891e-01) (67, -3.37288618087768554688e-01) (68, 4.26854014396667480469e-01) (69, -7.89393329620361328125e+00) (35, -1.76041811704635620117e-01) (36, -4.81077209115028381348e-02) (37, -2.15598583221435546875e-01) (38, -3.90260279178619384766e-01) (39, -5.74984371662139892578e-01) (40, 6.30652904510498046875e-01) (41, 3.50972354412078857422e-01) (42, -6.06971561908721923828e-01) (43, 2.68237709999084472656e-01) (44, -4.07166481018066406250e-01) (45, -5.64086399972438812256e-02) (46, 4.97815847396850585938e-01) (47, -4.99791577458381652832e-02) (48, -5.51322773098945617676e-02) (49, 3.88963043689727783203e-01) (50, 5.45271158218383789062e-01) (51, -3.65759909152984619141e-01) (52, 4.22121942043304443359e-01) (53, -3.38442087173461914062e-01) (54, 3.84542912244796752930e-01) (55, -6.07522487640380859375e-01) (56, -6.85845553874969482422e-01) (57, 9.46699798107147216797e-01) (58, -1.32833242416381835938e-01) (59, 2.66547918319702148438e-01) (60, 1.31855174899101257324e-01) (61, -9.28487837314605712891e-01) (62, 2.24402710795402526855e-01) (63, -3.82897704839706420898e-02) (64, -9.06134247779846191406e-02) (65, -5.73974475264549255371e-03) (66, -1.30110353231430053711e-01) (67, -1.18692502379417419434e-01) (68, 1.83860421180725097656e-01) (69, -6.78278970718383789062e+00) (35, 3.50644558668136596680e-01) (36, 4.62824739515781402588e-02) (37, -4.77097570896148681641e-01) (38, -5.74169933795928955078e-01) (39, -5.49961626529693603516e-01) (40, 3.80437016487121582031e-01) (41, 1.61722242832183837891e-01) (42, -2.52557486295700073242e-01) (43, 1.07396319508552551270e-01) (44, -1.31860792636871337891e-01) (45, 2.14814573526382446289e-01) (46, 2.33354672789573669434e-01) (47, -2.97312259674072265625e-01) (48, -6.07348456978797912598e-02) (49, -2.83883884549140930176e-02) (50, 5.32486259937286376953e-01) (51, 9.59705039858818054199e-02) (52, 2.88984984159469604492e-01) (53, 1.05248801410198211670e-01) (54, 2.34383419156074523926e-01) (55, -5.56044161319732666016e-01) (56, -4.14641410112380981445e-01) (57, 1.06311881542205810547e+00) (58, -5.67582175135612487793e-02) (59, 1.65237367153167724609e-01) (60, 1.88630715012550354004e-01) (61, -4.88671541213989257812e-01) (62, 1.19222760200500488281e-01) (63, 5.01620583236217498779e-02) (64, -2.80066970735788345337e-02) (65, -2.19150140881538391113e-01) (66, 3.56675833463668823242e-01) (67, -1.92040920257568359375e-01) (68, 2.94266134500503540039e-01) (69, -5.47737932205200195312e+00) (35, 2.34979361295700073242e-01) (36, -2.74971932172775268555e-01) (37, -9.14884805679321289062e-02) (38, 2.23362267017364501953e-01) (39, -2.47044563293457031250e-01) (40, 1.79508566856384277344e-01) (41, 2.63059169054031372070e-01) (42, -2.96816587448120117188e-01) (43, 1.69367581605911254883e-01) (44, -2.56032407283782958984e-01) (45, 1.92488253116607666016e-01) (46, 6.86431378126144409180e-02) (47, -1.88845977187156677246e-01) (48, -5.73394894599914550781e-01) (49, 1.82768285274505615234e-01) (50, -2.29549482464790344238e-01) (51, -1.36494770646095275879e-01) (52, 4.33239877223968505859e-01) (53, -3.80163490772247314453e-02) (54, -8.16788244992494583130e-03) (55, -1.55775576829910278320e-01) (56, -3.79137545824050903320e-01) (57, 5.52913486957550048828e-01) (58, -1.08744934201240539551e-01) (59, 2.77504056692123413086e-01) (60, 7.23068341612815856934e-02) (61, -2.34692022204399108887e-01) (62, 6.23704940080642700195e-02) (63, 7.82531723380088806152e-02) (64, -3.18494707345962524414e-01) (65, 1.98003023862838745117e-01) (66, 1.31513819098472595215e-01) (67, -1.00352101027965545654e-01) (68, 4.10792678594589233398e-02) (69, -4.63755321502685546875e+00) (35, 5.94140514731407165527e-02) (36, -2.47859120368957519531e-01) (37, 1.19867093861103057861e-01) (38, 2.79188454151153564453e-02) (39, -1.68330356478691101074e-01) (40, 2.06330761313438415527e-01) (41, 1.25519797205924987793e-01) (42, -3.23785990476608276367e-01) (43, 7.52056390047073364258e-02) (44, -5.82969449460506439209e-02) (45, 1.78244918584823608398e-01) (46, 4.22661677002906799316e-02) (47, -2.09447871893644332886e-02) (48, -3.34659248590469360352e-01) (49, 5.48996543511748313904e-03) (50, -1.52274265885353088379e-01) (51, -2.07738861441612243652e-01) (52, 1.53885215520858764648e-01) (53, 3.60837727785110473633e-02) (54, 5.70828542113304138184e-02) (55, -2.64712516218423843384e-03) (56, -2.23227053880691528320e-01) (57, 5.32590448856353759766e-01) (58, -7.29603096842765808105e-02) (59, 4.43640947341918945312e-02) (60, 8.32824259996414184570e-02) (61, -1.43743708729743957520e-01) (62, -7.55733847618103027344e-02) (63, 7.92044699192047119141e-02) (64, -9.61185917258262634277e-02) (65, 4.62371930480003356934e-02) (66, 1.79829224944114685059e-01) (67, 1.33884832262992858887e-01) (68, -1.37083604931831359863e-01) (69, -4.47255802154541015625e+00) (35, 8.16416263580322265625e-01) (36, 1.43185067176818847656e+00) (37, -8.27433109283447265625e-01) (38, 2.71058052778244018555e-01) (39, 9.67620462179183959961e-02) (40, -2.91802853345870971680e-01) (41, -5.84021389484405517578e-01) (42, 1.13985455036163330078e+00) (43, 1.67170047760009765625e+00) (44, -2.07611054182052612305e-01) (45, 9.66954112052917480469e-01) (46, -1.00296890735626220703e+00) (47, 1.08052623271942138672e+00) (48, 4.05048608779907226562e-01) (49, -1.53739368915557861328e+00) (50, -9.95939135551452636719e-01) (51, -2.52778887748718261719e-01) (52, -7.22885191440582275391e-01) (53, -8.01235020160675048828e-01) (54, -1.43037366867065429688e+00) (55, -8.89635324478149414062e-01) (56, -8.96959125995635986328e-01) (57, 5.93534767627716064453e-01) (58, 1.44966101646423339844e+00) (59, -1.04318320751190185547e-01) (60, -7.05229818820953369141e-01) (61, -1.75763010978698730469e+00) (62, 8.45725715160369873047e-01) (63, 1.11422300338745117188e-01) (64, -7.72479116916656494141e-01) (65, 2.26084440946578979492e-01) (66, 3.89778345823287963867e-01) (67, 1.87445193529129028320e-01) (68, 1.91525292396545410156e+00) (69, -2.04062655568122863770e-01) (35, 2.60126143693923950195e-01) (36, 1.84656584262847900391e+00) (37, -1.70128196477890014648e-01) (38, 6.41749560832977294922e-01) (39, 3.69365930557250976562e-01) (40, 9.28406596183776855469e-01) (41, 2.06639885902404785156e+00) (42, 1.81276082992553710938e+00) (43, 8.55512022972106933594e-01) (44, 1.03041827678680419922e-01) (45, -1.27424433827400207520e-01) (46, -9.19794559478759765625e-01) (47, -1.42219746112823486328e+00) (48, 1.93607509136199951172e+00) (49, 4.00753676891326904297e-01) (50, 1.19521176815032958984e+00) (51, -1.14172327518463134766e+00) (52, 4.03758138418197631836e-03) (53, -3.84120941162109375000e-02) (54, 7.73238539695739746094e-01) (55, -4.13475096225738525391e-01) (56, 5.70738196372985839844e-01) (57, -2.98946905136108398438e+00) (58, 8.81771624088287353516e-01) (59, 8.98572504520416259766e-01) (60, -5.28796017169952392578e-03) (61, 1.59689426422119140625e-01) (62, -9.57654833793640136719e-01) (63, -4.06065762042999267578e-01) (64, 8.19561183452606201172e-01) (65, -4.48414266109466552734e-01) (66, -1.09971845149993896484e+00) (67, -4.91015523672103881836e-01) (68, -6.19618594646453857422e-03) (69, -2.21460914611816406250e+00) (35, -3.21041613817214965820e-01) (36, 3.02014872431755065918e-03) (37, 1.08579075336456298828e+00) (38, -3.54960590600967407227e-01) (39, -1.66695344448089599609e+00) (40, 1.04062736034393310547e+00) (41, -8.36008191108703613281e-01) (42, 3.68077725172042846680e-01) (43, 2.01724126935005187988e-01) (44, 1.40957808494567871094e+00) (45, 4.30884599685668945312e-01) (46, -4.52217906713485717773e-01) (47, 8.11586201190948486328e-01) (48, 5.28741598129272460938e-01) (49, 2.05558347702026367188e+00) (50, 1.05369651317596435547e+00) (51, 3.14078658819198608398e-01) (52, 2.13007777929306030273e-01) (53, 7.94493496417999267578e-01) (54, 8.81278634071350097656e-01) (55, -4.75482195615768432617e-01) (56, -7.55612075328826904297e-01) (57, -4.04515534639358520508e-01) (58, -4.84662711620330810547e-01) (59, 1.92502820491790771484e+00) (60, 6.99616909027099609375e-01) (61, -2.21417760848999023438e+00) (62, -8.54051947593688964844e-01) (63, 2.60971277952194213867e-01) (64, 3.22616428136825561523e-01) (65, -5.40549993515014648438e-01) (66, 1.03262209892272949219e+00) (67, 2.70013391971588134766e-01) (68, -6.76114708185195922852e-02) (69, 7.01723992824554443359e-01) (35, -1.26430487632751464844e+00) (36, 3.98259371519088745117e-01) (37, -7.86579966545104980469e-01) (38, -8.92687290906906127930e-02) (39, 7.40221917629241943359e-01) (40, -1.19316220283508300781e+00) (41, -1.31910061836242675781e+00) (42, 8.97577330470085144043e-02) (43, -1.02706646919250488281e+00) (44, -2.77720421552658081055e-01) (45, -1.88624486327171325684e-01) (46, -4.18238341808319091797e-01) (47, -1.02040521800518035889e-01) (48, 4.92219299077987670898e-01) (49, -2.04719257354736328125e+00) (50, 1.20409429073333740234e-01) (51, 7.28442847728729248047e-01) (52, 3.62651377916336059570e-01) (53, 4.49912220239639282227e-01) (54, -1.32160449028015136719e+00) (55, -8.20095062255859375000e-01) (56, -6.01693570613861083984e-01) (57, 1.21435236930847167969e+00) (58, -4.15259808301925659180e-01) (59, 1.77986288070678710938e+00) (60, 6.73178791999816894531e-01) (61, -2.53156214952468872070e-01) (62, 1.25378739833831787109e+00) (63, 9.68131184577941894531e-01) (64, 1.74299657344818115234e-01) (65, 6.48080468177795410156e-01) (66, -1.99594938755035400391e+00) (67, 6.60245597362518310547e-01) (68, -6.92773699760437011719e-01) (69, -5.75944364070892333984e-01) (35, -1.39609313011169433594e+00) (36, 1.93000644445419311523e-01) (37, -9.87498700618743896484e-01) (38, 2.26802125573158264160e-01) (39, 2.87056982517242431641e-01) (40, -6.87315389513969421387e-02) (41, 5.05110502243041992188e-01) (42, 1.01846075057983398438e+00) (43, 2.96907816082239151001e-02) (44, 1.96379959583282470703e+00) (45, 4.09610062837600708008e-01) (46, -9.81170356273651123047e-01) (47, -2.39437770843505859375e+00) (48, -2.11497378349304199219e+00) (49, -9.52220782637596130371e-02) (50, 2.58037877082824707031e+00) (51, 5.63078522682189941406e-01) (52, -1.50130939483642578125e+00) (53, -1.51523327827453613281e+00) (54, -3.10085445642471313477e-01) (55, 1.74171626567840576172e-01) (56, 2.50950646400451660156e+00) (57, 3.69128018617630004883e-01) (58, -4.78747487068176269531e-01) (59, 1.20600387454032897949e-01) (60, -4.08480525016784667969e-01) (61, 1.03491580486297607422e+00) (62, -9.95081067085266113281e-01) (63, 2.22022384405136108398e-01) (64, -7.59858191013336181641e-01) (65, -6.22392296791076660156e-01) (66, -1.34422802925109863281e+00) (67, 1.22846519947052001953e+00) (68, 1.37661135196685791016e+00) (69, -9.46686267852783203125e-01) (35, 4.62764561176300048828e-01) (36, 1.66930007934570312500e+00) (37, -2.24687838554382324219e+00) (38, -2.24974617362022399902e-01) (39, -9.71874073147773742676e-02) (40, -1.62968069314956665039e-01) (41, -1.26367473602294921875e+00) (42, 5.71558594703674316406e-01) (43, 1.07720565795898437500e+00) (44, -1.39369249343872070312e-01) (45, -1.25848293304443359375e+00) (46, -5.33412873744964599609e-01) (47, 1.45517635345458984375e+00) (48, 1.44331896305084228516e+00) (49, -1.17904067039489746094e+00) (50, 9.03435349464416503906e-01) (51, -8.30247640609741210938e-01) (52, -9.16413068771362304688e-01) (53, 3.14414829015731811523e-01) (54, 8.20230185985565185547e-01) (55, -4.48418378829956054688e-01) (56, 2.48063373565673828125e+00) (57, -1.20117974281311035156e+00) (58, -1.78464561700820922852e-01) (59, -1.33538469672203063965e-02) (60, -1.46734952926635742188e+00) (61, -6.92557811737060546875e-01) (62, 6.41807973384857177734e-01) (63, -1.64508557319641113281e+00) (64, 2.21493029594421386719e+00) (65, 9.38218474388122558594e-01) (66, -6.14091396331787109375e-01) (67, 4.57107543945312500000e-01) (68, 1.98534965515136718750e+00) (69, -1.33294391632080078125e+00) (35, 1.72959363460540771484e+00) (36, -3.58440071344375610352e-01) (37, -4.28849339485168457031e-01) (38, -1.49977362155914306641e+00) (39, -6.19681775569915771484e-01) (40, -1.05154311656951904297e+00) (41, -1.16894137859344482422e+00) (42, -4.40957903861999511719e-01) (43, -3.32834839820861816406e-01) (44, 9.77638840675354003906e-01) (45, -1.43662953376770019531e+00) (46, -5.27784466743469238281e-01) (47, -1.92350602149963378906e+00) (48, -2.20843553543090820312e+00) (49, -7.04259574413299560547e-01) (50, -8.77849876880645751953e-01) (51, 7.08316326141357421875e-01) (52, 4.86186325550079345703e-01) (53, 2.78170198202133178711e-01) (54, 1.54294955730438232422e+00) (55, 6.11873865127563476562e-02) (56, 3.17350089550018310547e-01) (57, 5.37458598613739013672e-01) (58, -1.42326140403747558594e+00) (59, -5.45415997505187988281e-01) (60, 2.33532756567001342773e-01) (61, 7.16974318027496337891e-01) (62, 2.73817211389541625977e-01) (63, -5.64250886440277099609e-01) (64, -7.60785579681396484375e-01) (65, -5.98560988903045654297e-01) (66, 1.11362397670745849609e+00) (67, -4.70789730548858642578e-01) (68, 1.44505953788757324219e+00) (69, 5.95449209213256835938e-02) (35, 4.90028828382492065430e-01) (36, -8.18432748317718505859e-01) (37, -9.13217067718505859375e-01) (38, 6.12024664878845214844e-01) (39, 2.06012010574340820312e+00) (40, -3.37118953466415405273e-02) (41, -1.16210627555847167969e+00) (42, 1.06110239028930664062e+00) (43, -9.25472319126129150391e-01) (44, -1.54574167728424072266e+00) (45, 3.60329329967498779297e-01) (46, 5.78265935182571411133e-02) (47, 1.47756040096282958984e+00) (48, -3.56796801090240478516e-01) (49, 1.28827035427093505859e+00) (50, -3.34345281124114990234e-01) (51, -5.29199600219726562500e-01) (52, 2.44659185409545898438e+00) (53, 1.86416709423065185547e+00) (54, 8.81728529930114746094e-01) (55, -6.06492340564727783203e-01) (56, -1.62503314018249511719e+00) (57, -2.42059186100959777832e-01) (58, 8.03967058658599853516e-01) (59, 1.08260369300842285156e+00) (60, 2.19305324554443359375e+00) (61, -4.43425595760345458984e-01) (62, 1.01196169853210449219e+00) (63, -4.89356637001037597656e-01) (64, -6.19730114936828613281e-01) (65, 4.30975377559661865234e-01) (66, 7.19851434230804443359e-01) (67, 1.45685732364654541016e-01) (68, 3.49206358194351196289e-01) (69, 1.11850596964359283447e-01) (35, 1.67864418029785156250e+00) (36, 1.49315094947814941406e+00) (37, 5.26066064834594726562e-01) (38, 1.95389163494110107422e+00) (39, 8.03434252738952636719e-01) (40, 1.78023552894592285156e+00) (41, -1.06826424598693847656e-01) (42, 9.25775587558746337891e-01) (43, 1.13655996322631835938e+00) (44, -2.17084228992462158203e-01) (45, 1.72859561443328857422e+00) (46, -2.31123924255371093750e-01) (47, -1.56298887729644775391e+00) (48, 9.26725089550018310547e-01) (49, -7.72088468074798583984e-01) (50, -1.10705304145812988281e+00) (51, -1.23457574844360351562e+00) (52, 2.23902389407157897949e-01) (53, 2.48736715316772460938e+00) (54, 6.01628839969635009766e-01) (55, 1.97486758232116699219e-01) (56, 1.13235485553741455078e+00) (57, 1.47260558605194091797e+00) (58, 3.08151572942733764648e-01) (59, 2.04961776733398437500e+00) (60, -4.32825058698654174805e-01) (61, 1.02744567394256591797e+00) (62, 4.38619494438171386719e-01) (63, 1.30586445331573486328e+00) (64, -2.16671347618103027344e-01) (65, -2.93687015771865844727e-01) (66, 1.76198691129684448242e-01) (67, 6.48769617080688476562e-01) (68, 5.03836035728454589844e-01) (69, 1.15987980365753173828e+00) (35, 1.47239875793457031250e+00) (36, 1.74621379375457763672e+00) (37, 2.83362805843353271484e-01) (38, -1.27786469459533691406e+00) (39, -5.06413042545318603516e-01) (40, -2.30651527643203735352e-01) (41, -1.08509093523025512695e-01) (42, 8.81221532821655273438e-01) (43, -3.91891077160835266113e-02) (44, 1.98636007308959960938e+00) (45, -7.46862113475799560547e-01) (46, 1.98796021938323974609e+00) (47, 8.20484757423400878906e-03) (48, -2.27045677602291107178e-02) (49, 1.56330019235610961914e-01) (50, -5.93135476112365722656e-01) (51, -2.26359701156616210938e+00) (52, 1.73643082380294799805e-02) (53, -2.80151426792144775391e-01) (54, -6.18461728096008300781e-01) (55, -1.82710245251655578613e-01) (56, 3.21871787309646606445e-03) (57, 4.30221796035766601562e-01) (58, 2.35371685028076171875e+00) (59, 5.84644615650177001953e-01) (60, 1.14820487797260284424e-01) (61, 7.09707617759704589844e-01) (62, 1.18197965621948242188e+00) (63, -7.46245384216308593750e-01) (64, -8.48096489906311035156e-01) (65, -1.85965925455093383789e-01) (66, 9.14345145225524902344e-01) (67, -1.10355377197265625000e+00) (68, 3.45352172851562500000e-01) (69, 8.00472199916839599609e-01) (35, 9.23427939414978027344e-01) (36, 4.33601140975952148438e-01) (37, 9.96368587017059326172e-01) (38, -1.06252610683441162109e+00) (39, -4.32818263769149780273e-01) (40, 7.84674167633056640625e-01) (41, -3.05619060993194580078e-01) (42, -5.13160042464733123779e-02) (43, -1.84904038906097412109e+00) (44, -2.46061968803405761719e+00) (45, -6.74784421920776367188e-01) (46, 1.51730966567993164062e+00) (47, -2.02114820480346679688e+00) (48, -7.35340952873229980469e-01) (49, -6.76487922668457031250e-01) (50, 5.27925729751586914062e-01) (51, -2.01185978949069976807e-02) (52, -1.16363120079040527344e+00) (53, -2.46989026665687561035e-01) (54, 6.50889217853546142578e-01) (55, 4.37481820583343505859e-01) (56, 7.70329952239990234375e-01) (57, 1.04584705829620361328e+00) (58, -1.74862176179885864258e-01) (59, -2.05602288246154785156e+00) (60, -9.35519933700561523438e-01) (61, -8.01509022712707519531e-01) (62, 8.59350860118865966797e-01) (63, 5.47461211681365966797e-01) (64, -1.05980902910232543945e-01) (65, 1.89857572317123413086e-01) (66, 4.03960227966308593750e-01) (67, 1.00229334831237792969e+00) (68, -1.83260118961334228516e+00) (69, -1.12975835800170898438e+00) (35, 4.89924103021621704102e-01) (36, 2.16143399477005004883e-01) (37, 1.22067201137542724609e+00) (38, -5.55127561092376708984e-01) (39, 3.38220924139022827148e-01) (40, 7.21736252307891845703e-02) (41, 1.87347960472106933594e+00) (42, -2.39351302385330200195e-01) (43, -1.09425440430641174316e-01) (44, -5.44791638851165771484e-01) (45, 2.97782421112060546875e-01) (46, -1.17659723758697509766e+00) (47, 2.59585827589035034180e-02) (48, -1.57063275575637817383e-01) (49, 1.34758174419403076172e+00) (50, -4.21294599771499633789e-01) (51, -4.69024330377578735352e-01) (52, 1.37310385704040527344e-01) (53, -8.41468095779418945312e-01) (54, 2.52067387104034423828e-01) (55, -3.43593895435333251953e-01) (56, 6.34183883666992187500e-02) (57, 1.06762385368347167969e+00) (58, 4.26744878292083740234e-01) (59, 1.19643735885620117188e+00) (60, 2.06071197986602783203e-01) (61, 8.30773830413818359375e-01) (62, -1.94388914108276367188e+00) (63, -1.85019478201866149902e-01) (64, 1.96232199668884277344e-01) (65, -1.59825038909912109375e+00) (66, -1.73605370521545410156e+00) (67, 3.68514150381088256836e-01) (68, -9.04812633991241455078e-01) (69, -8.89325916767120361328e-01) (35, 1.43797218799591064453e+00) (36, 5.14159440994262695312e-01) (37, -1.53768420219421386719e+00) (38, 1.19869697093963623047e+00) (39, 3.04690897464752197266e-01) (40, -1.41463553905487060547e+00) (41, -9.22635912895202636719e-01) (42, -4.15759801864624023438e-01) (43, 1.26709175109863281250e+00) (44, -8.12103033065795898438e-01) (45, -6.37299716472625732422e-01) (46, 6.98421299457550048828e-01) (47, 1.11250817775726318359e+00) (48, -9.66861724853515625000e-01) (49, 3.93166840076446533203e-01) (50, 1.01953673362731933594e+00) (51, 9.51609373092651367188e-01) (52, -3.60090523958206176758e-01) (53, 1.26117980480194091797e+00) (54, -8.74234735965728759766e-01) (55, 5.72351455688476562500e-01) (56, 3.22296357154846191406e+00) (57, 1.00627958774566650391e-01) (58, -1.78053200244903564453e+00) (59, -6.92821145057678222656e-01) (60, -5.43869175016880035400e-02) (61, 1.52302765846252441406e+00) (62, 1.80013585090637207031e+00) (63, -3.01475882530212402344e-01) (64, 6.02785348892211914062e-01) (65, 2.40290975570678710938e+00) (66, -1.19772589206695556641e+00) (67, 6.39579892158508300781e-01) (68, -3.18650126457214355469e-01) (69, -1.24369120597839355469e+00) (35, 1.10407543182373046875e+00) (36, -1.24153482913970947266e+00) (37, -7.47620344161987304688e-01) (38, -9.88928198814392089844e-01) (39, 2.88532346487045288086e-01) (40, 3.99268448352813720703e-01) (41, -9.63639616966247558594e-01) (42, 8.46399724483489990234e-01) (43, 5.01649260520935058594e-01) (44, 6.97789490222930908203e-01) (45, -5.53756594657897949219e-01) (46, -2.15632915496826171875e-01) (47, -9.33349967002868652344e-01) (48, 1.77938580513000488281e+00) (49, -4.77991700172424316406e-01) (50, -7.38340735435485839844e-01) (51, 5.05757153034210205078e-01) (52, 5.54476916790008544922e-01) (53, 1.91028177738189697266e-01) (54, -4.69170063734054565430e-02) (55, -1.48624134063720703125e+00) (56, -2.04997360706329345703e-02) (57, -1.63061738014221191406e+00) (58, -4.21656787395477294922e-01) (59, -2.36025238037109375000e+00) (60, -1.90466094017028808594e+00) (61, -1.93049192428588867188e+00) (62, 2.47736617922782897949e-01) (63, 5.11746883392333984375e-01) (64, 5.72951674461364746094e-01) (65, 1.27557194232940673828e+00) (66, -1.54444348812103271484e+00) (67, 2.56035149097442626953e-01) (68, 2.96162575483322143555e-01) (69, -1.94666552543640136719e+00) (35, 1.96968030929565429688e+00) (36, 4.32846307754516601562e-01) (37, 7.81892597675323486328e-01) (38, 4.60775375366210937500e-01) (39, 1.56596958637237548828e+00) (40, 1.77768135070800781250e+00) (41, 4.94110465049743652344e-01) (42, -5.18992006778717041016e-01) (43, -9.11283135414123535156e-01) (44, -4.41839098930358886719e-01) (45, -5.94851255416870117188e-01) (46, -3.42812001705169677734e-01) (47, 1.60854113101959228516e+00) (48, -6.42229497432708740234e-01) (49, -1.25885772705078125000e+00) (50, 8.64756405353546142578e-01) (51, 5.01080155372619628906e-01) (52, 6.43549203872680664062e-01) (53, 2.38652288913726806641e-01) (54, -1.11473214626312255859e+00) (55, 1.09319841861724853516e+00) (56, -9.73942339420318603516e-01) (57, -1.15049374103546142578e+00) (58, 2.48098626732826232910e-01) (59, -1.90483498573303222656e+00) (60, -1.17775869369506835938e+00) (61, 2.41428211331367492676e-01) (62, 4.24203313887119293213e-02) (63, -1.09113657474517822266e+00) (64, -9.29146885871887207031e-01) (65, 1.15613496303558349609e+00) (66, -2.24974703788757324219e+00) (67, 4.22563105821609497070e-01) (68, 4.63478565216064453125e-01) (69, -1.03741264343261718750e+00) (35, -3.50384831428527832031e-01) (36, 7.80924081802368164062e-01) (37, -5.44761896133422851562e-01) (38, 1.92576467990875244141e+00) (39, 7.00487673282623291016e-01) (40, 5.83845198154449462891e-01) (41, -1.52589964866638183594e+00) (42, -1.04255318641662597656e+00) (43, -1.24643254280090332031e+00) (44, -6.30586266517639160156e-01) (45, -1.30444392561912536621e-01) (46, 4.45466727018356323242e-01) (47, 1.09020447731018066406e+00) (48, 6.28457069396972656250e-01) (49, 8.49615693092346191406e-01) (50, 5.07252454757690429688e-01) (51, 9.58412706851959228516e-01) (52, -1.18023908138275146484e+00) (53, 1.76234459877014160156e+00) (54, 3.03145162761211395264e-02) (55, 1.17465507984161376953e+00) (56, 3.19276571273803710938e-01) (57, 2.01333016157150268555e-01) (58, -5.36810815334320068359e-01) (59, -2.21540665626525878906e+00) (60, -1.36111825704574584961e-01) (61, 6.23221635818481445312e-01) (62, 6.06159448623657226562e-01) (63, -1.28502082824707031250e+00) (64, 1.28669932484626770020e-01) (65, 2.27466320991516113281e+00) (66, -2.08944588899612426758e-01) (67, -1.63985729217529296875e-01) (68, -3.10059450566768646240e-02) (69, -1.69261455535888671875e+00) (35, 3.33540171384811401367e-01) (36, 1.81673824787139892578e-01) (37, -2.98487961292266845703e-01) (38, 1.71154513955116271973e-01) (39, 1.68837308883666992188e+00) (40, -2.67850428819656372070e-01) (41, 7.60207414627075195312e-01) (42, 4.85050052404403686523e-01) (43, 2.15872392058372497559e-01) (44, 1.31956624984741210938e+00) (45, 3.93699467182159423828e-01) (46, 1.26237654685974121094e+00) (47, -6.88275337219238281250e-01) (48, -3.30338180065155029297e-01) (49, -1.07687175273895263672e+00) (50, -1.83539986610412597656e+00) (51, -1.22610616683959960938e+00) (52, -2.35703453421592712402e-01) (53, 2.17858612537384033203e-01) (54, -8.28223586082458496094e-01) (55, 9.87494662404060363770e-02) (56, -2.08635711669921875000e+00) (57, -2.49577498435974121094e+00) (58, -6.15892052650451660156e-01) (59, -2.10143581032752990723e-01) (60, -5.68232119083404541016e-01) (61, -1.93615972995758056641e+00) (62, 2.21096366643905639648e-01) (63, -1.66738116741180419922e+00) (64, -1.71053856611251831055e-01) (65, -4.33434307575225830078e-01) (66, -1.65999031066894531250e+00) (67, 6.87733173370361328125e-01) (68, 1.47202044725418090820e-01) (69, -3.98022031784057617188e+00) (35, -5.25726735591888427734e-01) (36, -5.34718871116638183594e-01) (37, 1.22707068920135498047e+00) (38, -4.02387715876102447510e-02) (39, -1.76123708486557006836e-01) (40, 7.96318799257278442383e-02) (41, -7.15864419937133789062e-01) (42, 2.56330102682113647461e-01) (43, -2.99628376960754394531e-02) (44, -3.24776709079742431641e-01) (45, -5.10483741760253906250e-01) (46, 7.00070917606353759766e-01) (47, -4.78465378284454345703e-01) (48, -2.25894734263420104980e-01) (49, -3.09835314750671386719e-01) (50, 4.54192131757736206055e-01) (51, 2.50663936138153076172e-01) (52, -4.38071459531784057617e-01) (53, 5.79658985137939453125e-01) (54, -1.56370127201080322266e+00) (55, 6.71151340007781982422e-01) (56, -7.58721292018890380859e-01) (57, -6.55304938554763793945e-02) (58, -2.12106823921203613281e-01) (59, 9.13464277982711791992e-02) (60, -4.62905466556549072266e-01) (61, -8.91727924346923828125e-01) (62, 3.98810297250747680664e-01) (63, -1.35478347539901733398e-01) (64, -1.16844379901885986328e+00) (65, -5.81848025321960449219e-02) (66, 4.71848249435424804688e-01) (67, -5.18108367919921875000e-01) (68, -7.69029617309570312500e-01) (69, -6.27223920822143554688e+00) (35, 1.15440571308135986328e+00) (36, -1.78421247005462646484e+00) (37, -1.08064234256744384766e+00) (38, 1.25349426269531250000e+00) (39, -1.35909068584442138672e+00) (40, 1.45573699474334716797e+00) (41, 5.08832037448883056641e-01) (42, 1.08580565452575683594e+00) (43, -1.68102204799652099609e-01) (44, 1.62249946594238281250e+00) (45, 5.11879622936248779297e-01) (46, -6.77439808845520019531e-01) (47, -4.59825135767459869385e-02) (48, 1.47380042076110839844e+00) (49, 1.41948759555816650391e-01) (50, 1.41061007976531982422e+00) (51, 7.44181334972381591797e-01) (52, -1.73653364181518554688e+00) (53, 5.20510613918304443359e-01) (54, -3.16060274839401245117e-01) (55, -2.68052369356155395508e-01) (56, 1.42985525131225585938e+01) (57, 1.31938111782073974609e+00) (58, -3.60155224800109863281e-01) (59, -7.05107212066650390625e-01) (60, -1.59271374344825744629e-01) (61, 4.00886249542236328125e+00) (62, -4.33455705642700195312e-01) (63, 2.89485365152359008789e-01) (64, 1.07319486141204833984e+00) (65, 1.14192056655883789062e+00) (66, 1.34357810020446777344e-01) (67, -1.54908403754234313965e-01) (68, 1.53355491161346435547e+00) (69, -2.14937901496887207031e+00) 
